
/* Species #39 : (Size 3) (AF 0) (Age 19)  */


/* Organism #0 Fitness: 0.147721 Error: 0 */
genomestart 0
trait 1 0 0.499161 0 0.0352489 0 0 0 0 
node 1 1 1 1
node 2 1 1 1
node 3 1 1 1
node 4 1 1 1
node 5 1 1 1
node 6 1 1 1
node 7 1 1 1
node 8 1 1 1
node 9 1 1 1
node 10 1 1 1
node 11 1 1 1
node 12 1 1 1
node 13 1 1 1
node 14 1 1 1
node 15 1 1 1
node 16 1 1 1
node 17 1 1 1
node 18 1 1 1
node 19 1 1 1
node 20 1 1 1
node 21 1 1 1
node 22 1 1 1
node 23 1 1 1
node 24 1 1 1
node 25 1 1 1
node 26 1 1 3
node 27 1 0 2
node 28 1 0 2
node 36 1 0 0
node 128 1 0 0
node 233 1 0 0
node 325 1 0 0
node 418 1 0 0
node 502 1 0 0
node 524 1 0 0
gene 1 1 27 3.11022 0 1 3.11022 0
gene 1 1 28 -0.257546 0 2 -0.257546 1
gene 1 2 27 3.57685 0 3 3.57685 1
gene 1 2 28 0.752327 0 4 0.752327 1
gene 1 3 27 3.97243 0 5 3.97243 0
gene 1 3 28 5.65488 0 6 5.65488 1
gene 1 4 27 0.41757 0 7 0.41757 1
gene 1 4 28 0.707038 0 8 0.707038 1
gene 1 5 27 1.28185 0 9 1.28185 1
gene 1 5 28 2.5905 0 10 2.5905 1
gene 1 6 27 0.381085 0 11 0.381085 1
gene 1 6 28 0.710471 0 12 0.710471 0
gene 1 7 27 6.9716 0 13 6.9716 1
gene 1 7 28 -1.15909 0 14 -1.15909 1
gene 1 8 27 -2.04085 0 15 -2.04085 1
gene 1 8 28 4.90231 0 16 4.90231 1
gene 1 9 27 -5.08179 0 17 -5.08179 1
gene 1 9 28 -5.20644 0 18 -5.20644 1
gene 1 10 27 -2.78201 0 19 -2.78201 1
gene 1 10 28 0.213492 0 20 0.213492 1
gene 1 11 27 -2.72477 0 21 -2.72477 1
gene 1 11 28 0.649281 0 22 0.649281 1
gene 1 12 27 3.1801 0 23 3.1801 1
gene 1 12 28 -1.35899 0 24 -1.35899 1
gene 1 13 27 -3.24682 0 25 -3.24682 1
gene 1 13 28 0.993088 0 26 0.993088 1
gene 1 14 27 8 0 27 8 1
gene 1 14 28 1.77557 0 28 1.77557 1
gene 1 15 27 -1.40889 0 29 -1.40889 1
gene 1 15 28 -2.40771 0 30 -2.40771 1
gene 1 16 27 1.71056 0 31 1.71056 1
gene 1 16 28 -5.03119 0 32 -5.03119 1
gene 1 17 27 1.95166 0 33 1.95166 1
gene 1 17 28 4.10772 0 34 4.10772 1
gene 1 18 27 6.38067 0 35 6.38067 0
gene 1 18 28 -1.91862 0 36 -1.91862 1
gene 1 19 27 3.35066 0 37 3.35066 1
gene 1 19 28 -3.94865 0 38 -3.94865 0
gene 1 20 27 1.97665 0 39 1.97665 1
gene 1 20 28 3.13913 0 40 3.13913 1
gene 1 21 27 4.81938 0 41 4.81938 1
gene 1 21 28 3.47621 0 42 3.47621 1
gene 1 22 27 -0.712714 0 43 -0.712714 1
gene 1 22 28 1.18197 0 44 1.18197 0
gene 1 23 27 0.547838 0 45 0.547838 1
gene 1 23 28 -1.56285 0 46 -1.56285 1
gene 1 24 27 3.32698 0 47 3.32698 1
gene 1 24 28 0.394955 0 48 0.394955 1
gene 1 25 27 0.853832 0 49 0.853832 1
gene 1 25 28 0.289468 0 50 0.289468 1
gene 1 26 27 -2.41218 0 51 -2.41218 1
gene 1 26 28 -1.81402 0 52 -1.81402 1
gene 1 19 36 0.699637 0 69 0.699637 1
gene 1 36 28 -0.288263 0 70 -0.288263 1
gene 1 21 36 -1.79022 0 107 -1.79022 0
gene 1 18 128 1.4697 0 344 1.4697 1
gene 1 128 27 2.1189 0 345 2.1189 0
gene 1 3 36 3.03647 0 403 3.03647 1
gene 1 5 36 -1.08493 0 512 -1.08493 1
gene 1 1 233 1.10645 0 662 1.10645 1
gene 1 233 27 2.24784 0 663 2.24784 1
gene 1 16 36 0.917295 0 775 0.917295 1
gene 1 21 325 1 0 933 1 1
gene 1 325 36 -4.46852 0 934 -4.46852 1
gene 1 19 128 2.12003 0 984 2.12003 1
gene 1 2 128 1.56568 0 1030 1.56568 1
gene 1 11 36 0.747612 0 1118 0.747612 1
gene 1 7 36 0.345439 0 1148 0.345439 1
gene 1 14 128 -0.718833 0 1204 -0.718833 1
gene 1 128 418 1 0 1253 0 1
gene 1 418 27 2.1189 0 1254 0 1
gene 1 12 36 -0.559191 0 1350 -0.559191 1
gene 1 12 418 -0.255867 0 1406 -0.255867 1
gene 1 3 128 0.770135 0 1459 0.770135 1
gene 1 6 502 1 0 1514 0 1
gene 1 502 28 0.710471 0 1515 0 1
gene 1 22 524 1 0 1578 0 1
gene 1 524 28 1.18197 0 1579 0 1
genomeend 0

/* Organism #1 Fitness: 0.147721 Error: 0 */
genomestart 1
trait 1 0 0.499161 0 0.0352489 0 0 0 0 
node 1 1 1 1
node 2 1 1 1
node 3 1 1 1
node 4 1 1 1
node 5 1 1 1
node 6 1 1 1
node 7 1 1 1
node 8 1 1 1
node 9 1 1 1
node 10 1 1 1
node 11 1 1 1
node 12 1 1 1
node 13 1 1 1
node 14 1 1 1
node 15 1 1 1
node 16 1 1 1
node 17 1 1 1
node 18 1 1 1
node 19 1 1 1
node 20 1 1 1
node 21 1 1 1
node 22 1 1 1
node 23 1 1 1
node 24 1 1 1
node 25 1 1 1
node 26 1 1 3
node 27 1 0 2
node 28 1 0 2
node 36 1 0 0
node 128 1 0 0
node 233 1 0 0
node 325 1 0 0
node 418 1 0 0
node 502 1 0 0
gene 1 1 27 3.11022 0 1 3.11022 0
gene 1 1 28 -0.257546 0 2 -0.257546 1
gene 1 2 27 3.57685 0 3 3.57685 1
gene 1 2 28 0.752327 0 4 0.752327 1
gene 1 3 27 3.97243 0 5 3.97243 0
gene 1 3 28 5.65488 0 6 5.65488 1
gene 1 4 27 0.41757 0 7 0.41757 1
gene 1 4 28 0.707038 0 8 0.707038 1
gene 1 5 27 1.28185 0 9 1.28185 1
gene 1 5 28 2.5905 0 10 2.5905 1
gene 1 6 27 0.381085 0 11 0.381085 1
gene 1 6 28 0.710471 0 12 0.710471 0
gene 1 7 27 6.9716 0 13 6.9716 1
gene 1 7 28 -1.15909 0 14 -1.15909 1
gene 1 8 27 -2.04085 0 15 -2.04085 1
gene 1 8 28 4.90231 0 16 4.90231 1
gene 1 9 27 -5.08179 0 17 -5.08179 1
gene 1 9 28 -5.20644 0 18 -5.20644 1
gene 1 10 27 -2.78201 0 19 -2.78201 1
gene 1 10 28 0.213492 0 20 0.213492 1
gene 1 11 27 -2.72477 0 21 -2.72477 1
gene 1 11 28 0.649281 0 22 0.649281 1
gene 1 12 27 3.1801 0 23 3.1801 1
gene 1 12 28 -1.35899 0 24 -1.35899 1
gene 1 13 27 -3.24682 0 25 -3.24682 1
gene 1 13 28 0.993088 0 26 0.993088 1
gene 1 14 27 8 0 27 8 1
gene 1 14 28 1.77557 0 28 1.77557 1
gene 1 15 27 -1.40889 0 29 -1.40889 1
gene 1 15 28 -2.40771 0 30 -2.40771 1
gene 1 16 27 1.71056 0 31 1.71056 1
gene 1 16 28 -5.03119 0 32 -5.03119 1
gene 1 17 27 1.95166 0 33 1.95166 1
gene 1 17 28 4.10772 0 34 4.10772 1
gene 1 18 27 6.38067 0 35 6.38067 0
gene 1 18 28 -1.91862 0 36 -1.91862 1
gene 1 19 27 3.35066 0 37 3.35066 1
gene 1 19 28 -3.94865 0 38 -3.94865 0
gene 1 20 27 1.97665 0 39 1.97665 1
gene 1 20 28 3.13913 0 40 3.13913 1
gene 1 21 27 4.81938 0 41 4.81938 1
gene 1 21 28 3.47621 0 42 3.47621 1
gene 1 22 27 -0.712714 0 43 -0.712714 1
gene 1 22 28 1.18197 0 44 1.18197 1
gene 1 23 27 0.547838 0 45 0.547838 1
gene 1 23 28 -1.56285 0 46 -1.56285 1
gene 1 24 27 3.32698 0 47 3.32698 1
gene 1 24 28 0.394955 0 48 0.394955 1
gene 1 25 27 0.853832 0 49 0.853832 1
gene 1 25 28 0.289468 0 50 0.289468 1
gene 1 26 27 -2.41218 0 51 -2.41218 1
gene 1 26 28 -1.81402 0 52 -1.81402 1
gene 1 19 36 0.699637 0 69 0.699637 1
gene 1 36 28 -0.288263 0 70 -0.288263 1
gene 1 21 36 -1.79022 0 107 -1.79022 0
gene 1 18 128 1.4697 0 344 1.4697 1
gene 1 128 27 2.1189 0 345 2.1189 0
gene 1 3 36 3.03647 0 403 3.03647 1
gene 1 5 36 -1.08493 0 512 -1.08493 1
gene 1 1 233 1.10645 0 662 1.10645 1
gene 1 233 27 2.24784 0 663 2.24784 1
gene 1 16 36 0.917295 0 775 0.917295 1
gene 1 21 325 1 0 933 1 1
gene 1 325 36 -4.46852 0 934 -4.46852 1
gene 1 19 128 2.12003 0 984 2.12003 1
gene 1 2 128 1.56568 0 1030 1.56568 1
gene 1 11 36 0.747612 0 1118 0.747612 1
gene 1 7 36 0.345439 0 1148 0.345439 1
gene 1 14 128 -0.718833 0 1204 -0.718833 1
gene 1 128 418 1 0 1253 0 1
gene 1 418 27 2.1189 0 1254 0 1
gene 1 12 36 -0.559191 0 1350 -0.559191 1
gene 1 12 418 -0.255867 0 1406 -0.255867 1
gene 1 3 128 0.770135 0 1459 0.770135 1
gene 1 6 502 1 0 1514 0 1
gene 1 502 28 0.710471 0 1515 0 1
gene 1 14 418 0.39436 0 1580 0.39436 1
genomeend 1

/* Organism #2 Fitness: 0.0362929 Error: 0 */
genomestart 2
trait 1 0 0.499161 0.86755 0.0352489 0 0 0.737297 0.855434 
node 1 1 1 1
node 2 1 1 1
node 3 1 1 1
node 4 1 1 1
node 5 1 1 1
node 6 1 1 1
node 7 1 1 1
node 8 1 1 1
node 9 1 1 1
node 10 1 1 1
node 11 1 1 1
node 12 1 1 1
node 13 1 1 1
node 14 1 1 1
node 15 1 1 1
node 16 1 1 1
node 17 1 1 1
node 18 1 1 1
node 19 1 1 1
node 20 1 1 1
node 21 1 1 1
node 22 1 1 1
node 23 1 1 1
node 24 1 1 1
node 25 1 1 1
node 26 1 1 3
node 27 1 0 2
node 28 1 0 2
node 36 1 0 0
node 128 1 0 0
node 233 1 0 0
node 325 1 0 0
node 418 1 0 0
node 502 1 0 0
gene 1 1 27 3.66405 0 1 3.66405 0
gene 1 1 28 1.13834 0 2 1.13834 1
gene 1 2 27 1.22715 0 3 1.22715 1
gene 1 2 28 0.752327 0 4 0.752327 1
gene 1 3 27 6.15854 0 5 6.15854 0
gene 1 3 28 7.67711 0 6 7.67711 1
gene 1 4 27 -0.511109 0 7 -0.511109 1
gene 1 4 28 0.707038 0 8 0.707038 1
gene 1 5 27 2.50114 0 9 2.50114 1
gene 1 5 28 0.0434889 0 10 0.0434889 1
gene 1 6 27 -2.07489 0 11 -2.07489 1
gene 1 6 28 1.59948 0 12 1.59948 0
gene 1 7 27 5.14667 0 13 5.14667 1
gene 1 7 28 1.26583 0 14 1.26583 1
gene 1 8 27 0.892056 0 15 0.892056 1
gene 1 8 28 -0.555132 0 16 -0.555132 1
gene 1 9 27 -0.760826 0 17 -0.760826 1
gene 1 9 28 -3.68838 0 18 -3.68838 1
gene 1 10 27 -0.927381 0 19 -0.927381 1
gene 1 10 28 1.03291 0 20 1.03291 1
gene 1 11 27 -2.29774 0 21 -2.29774 1
gene 1 11 28 0.212943 0 22 0.212943 1
gene 1 12 27 3.1801 0 23 3.1801 1
gene 1 12 28 -0.568636 0 24 -0.568636 1
gene 1 13 27 -1.16309 0 25 -1.16309 1
gene 1 13 28 -0.161885 0 26 -0.161885 1
gene 1 14 27 -0.352794 0 27 -0.352794 1
gene 1 14 28 2.15072 0 28 2.15072 1
gene 1 15 27 0.242241 0 29 0.242241 1
gene 1 15 28 -2.66346 0 30 -2.66346 1
gene 1 16 27 2.28576 0 31 2.28576 1
gene 1 16 28 -3.33398 0 32 -3.33398 1
gene 1 17 27 3.717 0 33 3.717 1
gene 1 17 28 1.33618 0 34 1.33618 1
gene 1 18 27 4.16533 0 35 4.16533 0
gene 1 18 28 -2.57256 0 36 -2.57256 1
gene 1 19 27 3.36088 0 37 3.36088 1
gene 1 19 28 -2.1444 0 38 -2.1444 0
gene 1 20 27 1.67444 0 39 1.67444 1
gene 1 20 28 4.49087 0 40 4.49087 1
gene 1 21 27 6.81788 0 41 6.81788 1
gene 1 21 28 -1.26125 0 42 -1.26125 1
gene 1 22 27 -0.712714 0 43 -0.712714 1
gene 1 22 28 -1.21885 0 44 -1.21885 1
gene 1 23 27 1.72231 0 45 1.72231 1
gene 1 23 28 -2.64298 0 46 -2.64298 1
gene 1 24 27 -1.30512 0 47 -1.30512 1
gene 1 24 28 0.699454 0 48 0.699454 1
gene 1 25 27 1.20136 0 49 1.20136 1
gene 1 25 28 -1.03969 0 50 -1.03969 1
gene 1 26 27 -0.689947 0 51 -0.689947 1
gene 1 26 28 -3.24244 0 52 -3.24244 1
gene 1 19 36 -0.171819 0 69 -0.171819 1
gene 1 36 28 0.123676 0 70 0.123676 1
gene 1 21 36 -0.780129 0 107 -0.780129 0
gene 1 18 128 1.75176 0 344 1.75176 1
gene 1 128 27 -0.19776 0 345 -0.19776 0
gene 1 3 36 5.38144 0 403 5.38144 1
gene 1 5 36 -2.33306 0 512 -2.33306 1
gene 1 1 233 0.507141 0 662 0.507141 1
gene 1 233 27 1.36471 0 663 1.36471 1
gene 1 16 36 3.11959 0 775 3.11959 1
gene 1 21 325 -0.898999 0 933 -0.898999 1
gene 1 325 36 -2.51808 0 934 -2.51808 1
gene 1 19 128 1.7304 0 984 1.7304 1
gene 1 2 128 0.631275 0 1030 0.631275 1
gene 1 11 36 -1.95433 0 1118 -1.95433 1
gene 1 7 36 -0.525407 0 1148 -0.525407 1
gene 1 14 128 0.592013 0 1204 0.592013 1
gene 1 128 418 2.058 0 1253 2.058 1
gene 1 418 27 1.81181 0 1254 1.81181 1
gene 1 12 36 -2.30042 0 1350 -2.30042 1
gene 1 12 418 -1.68329 0 1406 -1.68329 1
gene 1 3 128 2.18337 0 1459 2.18337 1
gene 1 6 502 -0.680502 0 1514 -0.680502 1
gene 1 502 28 -0.691931 0 1515 -0.691931 1
genomeend 2

/* Species #52 : (Size 4) (AF 0) (Age 9)  */


/* Organism #3 Fitness: 0.0132571 Error: 0 */
genomestart 3
trait 1 0.156713 0 0.117695 0 0.187109 0 0.0676748 0.367473 
node 1 1 1 1
node 2 1 1 1
node 3 1 1 1
node 4 1 1 1
node 5 1 1 1
node 6 1 1 1
node 7 1 1 1
node 8 1 1 1
node 9 1 1 1
node 10 1 1 1
node 11 1 1 1
node 12 1 1 1
node 13 1 1 1
node 14 1 1 1
node 15 1 1 1
node 16 1 1 1
node 17 1 1 1
node 18 1 1 1
node 19 1 1 1
node 20 1 1 1
node 21 1 1 1
node 22 1 1 1
node 23 1 1 1
node 24 1 1 1
node 25 1 1 1
node 26 1 1 3
node 27 1 0 2
node 28 1 0 2
node 42 1 0 0
node 58 1 0 0
node 147 1 0 0
node 225 1 0 0
node 346 1 0 0
node 391 1 0 0
node 405 1 0 0
node 433 1 0 0
node 473 1 0 0
node 504 1 0 0
gene 1 1 27 -0.814768 0 1 -0.814768 1
gene 1 1 28 1.67406 0 2 1.67406 1
gene 1 2 27 2.85372 0 3 2.85372 1
gene 1 2 28 5.00992 0 4 5.00992 1
gene 1 3 27 8 0 5 8 1
gene 1 3 28 -2.47795 0 6 -2.47795 0
gene 1 4 27 2.53839 0 7 2.53839 1
gene 1 4 28 4.19965 0 8 4.19965 1
gene 1 5 27 0.44496 0 9 0.44496 1
gene 1 5 28 0.540056 0 10 0.540056 1
gene 1 6 27 3.18996 0 11 3.18996 0
gene 1 6 28 4.97829 0 12 4.97829 1
gene 1 7 27 0.970336 0 13 0.970336 1
gene 1 7 28 -0.275124 0 14 -0.275124 0
gene 1 8 27 0.171682 0 15 0.171682 1
gene 1 8 28 2.37432 0 16 2.37432 0
gene 1 9 27 0.436323 0 17 0.436323 1
gene 1 9 28 0.359203 0 18 0.359203 1
gene 1 10 27 5.08563 0 19 5.08563 1
gene 1 10 28 0.812326 0 20 0.812326 1
gene 1 11 27 -0.760979 0 21 -0.760979 1
gene 1 11 28 4.11832 0 22 4.11832 1
gene 1 12 27 -3.6015 0 23 -3.6015 1
gene 1 12 28 -1.11034 0 24 -1.11034 1
gene 1 13 27 -1.52448 0 25 -1.52448 1
gene 1 13 28 -6.0007 0 26 -6.0007 1
gene 1 14 27 -1.75718 0 27 -1.75718 1
gene 1 14 28 -2.18168 0 28 -2.18168 1
gene 1 15 27 1.49527 0 29 1.49527 1
gene 1 15 28 0.568819 0 30 0.568819 0
gene 1 16 27 -1.04633 0 31 -1.04633 1
gene 1 16 28 -1.11629 0 32 -1.11629 1
gene 1 17 27 0.458083 0 33 0.458083 1
gene 1 17 28 5.15801 0 34 5.15801 1
gene 1 18 27 -4.4734 0 35 -4.4734 1
gene 1 18 28 0.533311 0 36 0.533311 1
gene 1 19 27 -0.0313578 0 37 -0.0313578 1
gene 1 19 28 4.8146 0 38 4.8146 1
gene 1 20 27 5.51556 0 39 5.51556 1
gene 1 20 28 0.0630207 0 40 0.0630207 1
gene 1 21 27 -0.715888 0 41 -0.715888 1
gene 1 21 28 0.787057 0 42 0.787057 0
gene 1 22 27 -1.56468 0 43 -1.56468 1
gene 1 22 28 1.83735 0 44 1.83735 1
gene 1 23 27 2.03818 0 45 2.03818 1
gene 1 23 28 -1.20815 0 46 -1.20815 1
gene 1 24 27 -1.07685 0 47 -1.07685 1
gene 1 24 28 3.82949 0 48 3.82949 0
gene 1 25 27 3.44166 0 49 3.44166 1
gene 1 25 28 -1.95265 0 50 -1.95265 1
gene 1 26 27 -5.28465 0 51 -5.28465 1
gene 1 26 28 0.107364 0 52 0.107364 1
gene 1 3 42 0.985977 0 81 0.985977 1
gene 1 42 28 1.17779 0 82 1.17779 1
gene 1 7 58 -2.24136 0 121 -2.24136 1
gene 1 58 28 1.4877 0 122 1.4877 1
gene 1 19 42 -3.02286 0 365 -3.02286 1
gene 1 15 147 1.34785 0 408 1.34785 1
gene 1 147 28 -2.65763 0 409 -2.65763 0
gene 1 42 27 -2.12531 0 523 -2.12531 0
gene 1 8 225 -1.5663 0 633 -1.5663 1
gene 1 225 28 0.00312815 0 634 0.00312815 1
gene 1 58 225 -0.872143 0 731 -0.872143 1
gene 1 20 42 0.180273 0 793 0.180273 1
gene 1 5 147 -1.24964 0 897 -1.24964 1
gene 1 18 225 1.58551 0 949 1.58551 0
gene 1 18 346 1.47412 0 1003 1.47412 1
gene 1 346 225 -3.53285 0 1004 -3.53285 1
gene 1 25 147 4.07787 0 1140 4.07787 1
gene 1 6 391 -0.250099 0 1169 -0.250099 1
gene 1 391 27 2.36406 0 1170 2.36406 1
gene 1 21 405 -0.947539 0 1213 -0.947539 1
gene 1 405 28 -1.45703 0 1214 -1.45703 1
gene 1 42 433 1.37471 0 1296 1.37471 1
gene 1 433 27 -2.19893 0 1297 -2.19893 1
gene 1 24 473 -0.474044 0 1414 -0.474044 1
gene 1 473 28 -1.51105 0 1415 -1.51105 1
gene 1 147 504 1.04059 0 1519 1.04059 1
gene 1 504 28 -1.91153 0 1520 -1.91153 1
genomeend 3

/* Organism #4 Fitness: 0.143286 Error: 0 */
genomestart 4
trait 1 0.156713 0 0.117695 0 0.187109 0 0.0676748 0.367473 
node 1 1 1 1
node 2 1 1 1
node 3 1 1 1
node 4 1 1 1
node 5 1 1 1
node 6 1 1 1
node 7 1 1 1
node 8 1 1 1
node 9 1 1 1
node 10 1 1 1
node 11 1 1 1
node 12 1 1 1
node 13 1 1 1
node 14 1 1 1
node 15 1 1 1
node 16 1 1 1
node 17 1 1 1
node 18 1 1 1
node 19 1 1 1
node 20 1 1 1
node 21 1 1 1
node 22 1 1 1
node 23 1 1 1
node 24 1 1 1
node 25 1 1 1
node 26 1 1 3
node 27 1 0 2
node 28 1 0 2
node 42 1 0 0
node 58 1 0 0
node 147 1 0 0
node 225 1 0 0
node 346 1 0 0
node 391 1 0 0
node 405 1 0 0
node 433 1 0 0
node 473 1 0 0
node 504 1 0 0
gene 1 1 27 -0.195624 0 1 -0.195624 1
gene 1 1 28 1.78248 0 2 1.78248 1
gene 1 2 27 5.00467 0 3 5.00467 1
gene 1 2 28 3.69579 0 4 3.69579 1
gene 1 3 27 7.23092 0 5 7.23092 1
gene 1 3 28 -1.82196 0 6 -1.82196 0
gene 1 4 27 2.36245 0 7 2.36245 1
gene 1 4 28 2.80915 0 8 2.80915 1
gene 1 5 27 1.94349 0 9 1.94349 1
gene 1 5 28 2.52857 0 10 2.52857 1
gene 1 6 27 3.18996 0 11 3.18996 0
gene 1 6 28 6.32217 0 12 6.32217 1
gene 1 7 27 -1.49464 0 13 -1.49464 1
gene 1 7 28 -0.275124 0 14 -0.275124 0
gene 1 8 27 1.0719 0 15 1.0719 1
gene 1 8 28 0.0216529 0 16 0.0216529 0
gene 1 9 27 -1.85684 0 17 -1.85684 1
gene 1 9 28 -3.37054 0 18 -3.37054 1
gene 1 10 27 5.08563 0 19 5.08563 1
gene 1 10 28 1.50533 0 20 1.50533 1
gene 1 11 27 -0.749123 0 21 -0.749123 1
gene 1 11 28 2.7958 0 22 2.7958 1
gene 1 12 27 -2.15157 0 23 -2.15157 1
gene 1 12 28 -2.81144 0 24 -2.81144 1
gene 1 13 27 -2.94719 0 25 -2.94719 1
gene 1 13 28 -3.58165 0 26 -3.58165 1
gene 1 14 27 -2.61139 0 27 -2.61139 1
gene 1 14 28 -2.18168 0 28 -2.18168 1
gene 1 15 27 0.35342 0 29 0.35342 1
gene 1 15 28 0.578814 0 30 0.578814 0
gene 1 16 27 1.12781 0 31 1.12781 1
gene 1 16 28 0.394147 0 32 0.394147 1
gene 1 17 27 1.97958 0 33 1.97958 1
gene 1 17 28 2.91185 0 34 2.91185 1
gene 1 18 27 -4.15685 0 35 -4.15685 1
gene 1 18 28 0.583895 0 36 0.583895 1
gene 1 19 27 0.993988 0 37 0.993988 1
gene 1 19 28 2.75437 0 38 2.75437 1
gene 1 20 27 4.99271 0 39 4.99271 1
gene 1 20 28 0.2987 0 40 0.2987 1
gene 1 21 27 6.52539 0 41 6.52539 1
gene 1 21 28 0.787057 0 42 0.787057 0
gene 1 22 27 -1.90138 0 43 -1.90138 1
gene 1 22 28 0.0449232 0 44 0.0449232 1
gene 1 23 27 1.06067 0 45 1.06067 1
gene 1 23 28 1.22143 0 46 1.22143 1
gene 1 24 27 0.568041 0 47 0.568041 1
gene 1 24 28 2.96681 0 48 2.96681 0
gene 1 25 27 0.942274 0 49 0.942274 1
gene 1 25 28 1.04579 0 50 1.04579 1
gene 1 26 27 -3.18131 0 51 -3.18131 1
gene 1 26 28 0.107364 0 52 0.107364 1
gene 1 3 42 0.985977 0 81 0.985977 1
gene 1 42 28 1.17779 0 82 1.17779 1
gene 1 7 58 -4.38017 0 121 -4.38017 1
gene 1 58 28 -5.63103 0 122 -5.63103 1
gene 1 19 42 -3.66634 0 365 -3.66634 1
gene 1 15 147 2.13401 0 408 2.13401 1
gene 1 147 28 -4.91363 0 409 -4.91363 0
gene 1 42 27 -0.977889 0 523 -0.977889 0
gene 1 8 225 -0.576281 0 633 -0.576281 1
gene 1 225 28 -0.187078 0 634 -0.187078 1
gene 1 58 225 0.515915 0 731 0.515915 1
gene 1 20 42 2.30306 0 793 2.30306 1
gene 1 5 147 -1.24964 0 897 -1.24964 1
gene 1 18 225 1.15307 0 949 1.15307 0
gene 1 18 346 1.58467 0 1003 1.58467 1
gene 1 346 225 -3.22492 0 1004 -3.22492 1
gene 1 25 147 1.59206 0 1140 1.59206 1
gene 1 6 391 -0.233772 0 1169 -0.233772 1
gene 1 391 27 1.76688 0 1170 1.76688 1
gene 1 21 405 1 0 1213 1 1
gene 1 405 28 1.25523 0 1214 1.25523 1
gene 1 42 433 0.19715 0 1296 0.19715 1
gene 1 433 27 -0.974227 0 1297 -0.974227 1
gene 1 24 473 -0.474044 0 1414 -0.474044 1
gene 1 473 28 1.84332 0 1415 1.84332 1
gene 1 147 504 1 0 1519 0 1
gene 1 504 28 -4.91363 0 1520 0 1
gene 1 6 433 -0.415632 0 1581 -0.415632 1
genomeend 4

/* Organism #5 Fitness: 0.147571 Error: 0 */
genomestart 5
trait 1 0.156713 0 0.117695 0 0.187109 0 0.0676748 0.367473 
node 1 1 1 1
node 2 1 1 1
node 3 1 1 1
node 4 1 1 1
node 5 1 1 1
node 6 1 1 1
node 7 1 1 1
node 8 1 1 1
node 9 1 1 1
node 10 1 1 1
node 11 1 1 1
node 12 1 1 1
node 13 1 1 1
node 14 1 1 1
node 15 1 1 1
node 16 1 1 1
node 17 1 1 1
node 18 1 1 1
node 19 1 1 1
node 20 1 1 1
node 21 1 1 1
node 22 1 1 1
node 23 1 1 1
node 24 1 1 1
node 25 1 1 1
node 26 1 1 3
node 27 1 0 2
node 28 1 0 2
node 42 1 0 0
node 58 1 0 0
node 147 1 0 0
node 225 1 0 0
node 346 1 0 0
node 391 1 0 0
node 405 1 0 0
node 433 1 0 0
node 473 1 0 0
node 504 1 0 0
gene 1 1 27 -0.195624 0 1 -0.195624 1
gene 1 1 28 1.78248 0 2 1.78248 1
gene 1 2 27 5.00467 0 3 5.00467 1
gene 1 2 28 3.69579 0 4 3.69579 1
gene 1 3 27 7.23092 0 5 7.23092 1
gene 1 3 28 -1.82196 0 6 -1.82196 0
gene 1 4 27 2.36245 0 7 2.36245 1
gene 1 4 28 2.80915 0 8 2.80915 1
gene 1 5 27 1.94349 0 9 1.94349 1
gene 1 5 28 2.52857 0 10 2.52857 1
gene 1 6 27 3.18996 0 11 3.18996 0
gene 1 6 28 6.32217 0 12 6.32217 1
gene 1 7 27 -1.49464 0 13 -1.49464 1
gene 1 7 28 -0.275124 0 14 -0.275124 0
gene 1 8 27 1.0719 0 15 1.0719 1
gene 1 8 28 0.0216529 0 16 0.0216529 0
gene 1 9 27 -1.85684 0 17 -1.85684 1
gene 1 9 28 -3.37054 0 18 -3.37054 1
gene 1 10 27 5.08563 0 19 5.08563 1
gene 1 10 28 1.50533 0 20 1.50533 1
gene 1 11 27 -0.749123 0 21 -0.749123 1
gene 1 11 28 2.7958 0 22 2.7958 1
gene 1 12 27 -2.15157 0 23 -2.15157 1
gene 1 12 28 -2.81144 0 24 -2.81144 1
gene 1 13 27 -2.94719 0 25 -2.94719 1
gene 1 13 28 -3.58165 0 26 -3.58165 1
gene 1 14 27 -2.61139 0 27 -2.61139 1
gene 1 14 28 -2.18168 0 28 -2.18168 1
gene 1 15 27 0.35342 0 29 0.35342 1
gene 1 15 28 0.578814 0 30 0.578814 0
gene 1 16 27 1.12781 0 31 1.12781 1
gene 1 16 28 0.394147 0 32 0.394147 1
gene 1 17 27 1.97958 0 33 1.97958 1
gene 1 17 28 2.91185 0 34 2.91185 1
gene 1 18 27 -4.15685 0 35 -4.15685 1
gene 1 18 28 0.583895 0 36 0.583895 1
gene 1 19 27 0.993988 0 37 0.993988 1
gene 1 19 28 2.75437 0 38 2.75437 1
gene 1 20 27 4.99271 0 39 4.99271 1
gene 1 20 28 0.2987 0 40 0.2987 1
gene 1 21 27 6.52539 0 41 6.52539 1
gene 1 21 28 0.787057 0 42 0.787057 0
gene 1 22 27 -1.90138 0 43 -1.90138 1
gene 1 22 28 0.0449232 0 44 0.0449232 1
gene 1 23 27 1.06067 0 45 1.06067 1
gene 1 23 28 1.22143 0 46 1.22143 1
gene 1 24 27 0.568041 0 47 0.568041 1
gene 1 24 28 2.96681 0 48 2.96681 0
gene 1 25 27 0.942274 0 49 0.942274 1
gene 1 25 28 1.04579 0 50 1.04579 1
gene 1 26 27 -3.18131 0 51 -3.18131 1
gene 1 26 28 0.107364 0 52 0.107364 1
gene 1 3 42 0.985977 0 81 0.985977 1
gene 1 42 28 1.17779 0 82 1.17779 1
gene 1 7 58 -4.38017 0 121 -4.38017 1
gene 1 58 28 -5.63103 0 122 -5.63103 1
gene 1 19 42 -3.66634 0 365 -3.66634 1
gene 1 15 147 2.13401 0 408 2.13401 1
gene 1 147 28 -4.91363 0 409 -4.91363 0
gene 1 42 27 -0.977889 0 523 -0.977889 0
gene 1 8 225 -0.576281 0 633 -0.576281 1
gene 1 225 28 -0.187078 0 634 -0.187078 1
gene 1 58 225 0.515915 0 731 0.515915 1
gene 1 20 42 2.30306 0 793 2.30306 1
gene 1 5 147 -1.24964 0 897 -1.24964 1
gene 1 18 225 1.15307 0 949 1.15307 0
gene 1 18 346 1.58467 0 1003 1.58467 1
gene 1 346 225 -3.22492 0 1004 -3.22492 1
gene 1 25 147 1.59206 0 1140 1.59206 1
gene 1 6 391 -0.233772 0 1169 -0.233772 1
gene 1 391 27 1.76688 0 1170 1.76688 1
gene 1 21 405 1 0 1213 1 1
gene 1 405 28 1.25523 0 1214 1.25523 1
gene 1 42 433 0.19715 0 1296 0.19715 1
gene 1 433 27 -0.974227 0 1297 -0.974227 1
gene 1 24 473 -0.474044 0 1414 -0.474044 1
gene 1 473 28 1.84332 0 1415 1.84332 1
gene 1 147 504 1 0 1519 0 1
gene 1 504 28 -4.91363 0 1520 0 1
gene 1 147 27 -0.876644 0 1582 -0.876644 1
genomeend 5

/* Organism #6 Fitness: 0.133793 Error: 0 */
genomestart 6
trait 1 0.156713 0 0.117695 0 0.187109 0 0.0676748 0.367473 
node 1 1 1 1
node 2 1 1 1
node 3 1 1 1
node 4 1 1 1
node 5 1 1 1
node 6 1 1 1
node 7 1 1 1
node 8 1 1 1
node 9 1 1 1
node 10 1 1 1
node 11 1 1 1
node 12 1 1 1
node 13 1 1 1
node 14 1 1 1
node 15 1 1 1
node 16 1 1 1
node 17 1 1 1
node 18 1 1 1
node 19 1 1 1
node 20 1 1 1
node 21 1 1 1
node 22 1 1 1
node 23 1 1 1
node 24 1 1 1
node 25 1 1 1
node 26 1 1 3
node 27 1 0 2
node 28 1 0 2
node 42 1 0 0
node 58 1 0 0
node 147 1 0 0
node 225 1 0 0
node 346 1 0 0
node 391 1 0 0
node 405 1 0 0
node 433 1 0 0
node 473 1 0 0
node 504 1 0 0
gene 1 1 27 -0.854823 0 1 -0.854823 1
gene 1 1 28 0.788949 0 2 0.788949 1
gene 1 2 27 6.58858 0 3 6.58858 1
gene 1 2 28 4.26405 0 4 4.26405 1
gene 1 3 27 7.03148 0 5 7.03148 1
gene 1 3 28 -0.99765 0 6 -0.99765 0
gene 1 4 27 0.464507 0 7 0.464507 1
gene 1 4 28 3.23443 0 8 3.23443 1
gene 1 5 27 2.91383 0 9 2.91383 1
gene 1 5 28 2.40603 0 10 2.40603 1
gene 1 6 27 5.2524 0 11 5.2524 0
gene 1 6 28 6.93849 0 12 6.93849 1
gene 1 7 27 -3.436 0 13 -3.436 1
gene 1 7 28 -1.00505 0 14 -1.00505 0
gene 1 8 27 2.64849 0 15 2.64849 1
gene 1 8 28 0.917371 0 16 0.917371 0
gene 1 9 27 -0.824778 0 17 -0.824778 1
gene 1 9 28 -1.41636 0 18 -1.41636 1
gene 1 10 27 2.91432 0 19 2.91432 1
gene 1 10 28 -0.259636 0 20 -0.259636 1
gene 1 11 27 -2.42413 0 21 -2.42413 1
gene 1 11 28 0.664617 0 22 0.664617 1
gene 1 12 27 -4.02274 0 23 -4.02274 1
gene 1 12 28 -1.77633 0 24 -1.77633 1
gene 1 13 27 -4.82484 0 25 -4.82484 1
gene 1 13 28 -3.76926 0 26 -3.76926 1
gene 1 14 27 -1.05419 0 27 -1.05419 1
gene 1 14 28 -1.79249 0 28 -1.79249 1
gene 1 15 27 -0.431822 0 29 -0.431822 1
gene 1 15 28 -1.625 0 30 -1.625 0
gene 1 16 27 -0.401852 0 31 -0.401852 1
gene 1 16 28 2.33924 0 32 2.33924 1
gene 1 17 27 2.22297 0 33 2.22297 1
gene 1 17 28 3.38733 0 34 3.38733 1
gene 1 18 27 -4.72678 0 35 -4.72678 1
gene 1 18 28 2.90139 0 36 2.90139 1
gene 1 19 27 -0.366298 0 37 -0.366298 1
gene 1 19 28 2.67739 0 38 2.67739 1
gene 1 20 27 4.99622 0 39 4.99622 1
gene 1 20 28 -1.38188 0 40 -1.38188 1
gene 1 21 27 7.59453 0 41 7.59453 1
gene 1 21 28 0.363689 0 42 0.363689 0
gene 1 22 27 -1.63915 0 43 -1.63915 1
gene 1 22 28 -0.285974 0 44 -0.285974 1
gene 1 23 27 -0.130467 0 45 -0.130467 1
gene 1 23 28 -0.611515 0 46 -0.611515 1
gene 1 24 27 -1.87909 0 47 -1.87909 1
gene 1 24 28 2.7174 0 48 2.7174 0
gene 1 25 27 -1.55521 0 49 -1.55521 1
gene 1 25 28 -1.04411 0 50 -1.04411 1
gene 1 26 27 -5.5716 0 51 -5.5716 1
gene 1 26 28 1.77154 0 52 1.77154 1
gene 1 3 42 -0.286111 0 81 -0.286111 1
gene 1 42 28 1.68455 0 82 1.68455 1
gene 1 7 58 -6.59818 0 121 -6.59818 1
gene 1 58 28 -7.74383 0 122 -7.74383 1
gene 1 19 42 -2.79221 0 365 -2.79221 1
gene 1 15 147 0.147099 0 408 0.147099 1
gene 1 147 28 -3.00073 0 409 -3.00073 0
gene 1 42 27 -1.48274 0 523 -1.48274 0
gene 1 8 225 0.224143 0 633 0.224143 1
gene 1 225 28 -1.27407 0 634 -1.27407 1
gene 1 58 225 1.39264 0 731 1.39264 1
gene 1 20 42 3.48779 0 793 3.48779 1
gene 1 5 147 -1.24964 0 897 -1.24964 1
gene 1 18 225 -0.526139 0 949 -0.526139 0
gene 1 18 346 1.58467 0 1003 1.58467 1
gene 1 346 225 -3.22492 0 1004 -3.22492 1
gene 1 25 147 1.59206 0 1140 1.59206 1
gene 1 6 391 2.12394 0 1169 2.12394 1
gene 1 391 27 1.41081 0 1170 1.41081 1
gene 1 21 405 0.484924 0 1213 0.484924 1
gene 1 405 28 1.25523 0 1214 1.25523 1
gene 1 42 433 2.26806 0 1296 2.26806 1
gene 1 433 27 0.948057 0 1297 0.948057 1
gene 1 24 473 -2.37167 0 1414 -2.37167 1
gene 1 473 28 3.6681 0 1415 3.6681 1
gene 1 147 504 2.46055 0 1519 2.46055 1
gene 1 504 28 -4.91363 0 1520 -4.91363 1
genomeend 6

/* Species #53 : (Size 3) (AF 0) (Age 9)  */


/* Organism #7 Fitness: 0.0362929 Error: 0 */
genomestart 7
trait 1 0 0.499161 0 0.0352489 0 0 0 0 
node 1 1 1 1
node 2 1 1 1
node 3 1 1 1
node 4 1 1 1
node 5 1 1 1
node 6 1 1 1
node 7 1 1 1
node 8 1 1 1
node 9 1 1 1
node 10 1 1 1
node 11 1 1 1
node 12 1 1 1
node 13 1 1 1
node 14 1 1 1
node 15 1 1 1
node 16 1 1 1
node 17 1 1 1
node 18 1 1 1
node 19 1 1 1
node 20 1 1 1
node 21 1 1 1
node 22 1 1 1
node 23 1 1 1
node 24 1 1 1
node 25 1 1 1
node 26 1 1 3
node 27 1 0 2
node 28 1 0 2
node 36 1 0 0
node 128 1 0 0
node 233 1 0 0
node 325 1 0 0
node 392 1 0 0
node 453 1 0 0
node 474 1 0 0
gene 1 1 27 4.44197 0 1 4.44197 0
gene 1 1 28 -0.975799 0 2 -0.975799 1
gene 1 2 27 7.73896 0 3 7.73896 1
gene 1 2 28 1.20965 0 4 1.20965 1
gene 1 3 27 1.7539 0 5 1.7539 1
gene 1 3 28 -1.62297 0 6 -1.62297 1
gene 1 4 27 0.128864 0 7 0.128864 0
gene 1 4 28 0.939436 0 8 0.939436 1
gene 1 5 27 0.925703 0 9 0.925703 1
gene 1 5 28 0.960433 0 10 0.960433 1
gene 1 6 27 -0.940428 0 11 -0.940428 1
gene 1 6 28 5.12764 0 12 5.12764 1
gene 1 7 27 8 0 13 8 1
gene 1 7 28 -0.764489 0 14 -0.764489 1
gene 1 8 27 -2.3835 0 15 -2.3835 1
gene 1 8 28 3.59154 0 16 3.59154 1
gene 1 9 27 -6.47839 0 17 -6.47839 1
gene 1 9 28 -5.77721 0 18 -5.77721 1
gene 1 10 27 1.25919 0 19 1.25919 1
gene 1 10 28 1.94617 0 20 1.94617 1
gene 1 11 27 -2.15949 0 21 -2.15949 1
gene 1 11 28 1.46184 0 22 1.46184 0
gene 1 12 27 6.19015 0 23 6.19015 1
gene 1 12 28 -2.631 0 24 -2.631 1
gene 1 13 27 0.75721 0 25 0.75721 1
gene 1 13 28 1.82868 0 26 1.82868 1
gene 1 14 27 8 0 27 8 1
gene 1 14 28 6.28742 0 28 6.28742 1
gene 1 15 27 -1.30772 0 29 -1.30772 1
gene 1 15 28 -1.76347 0 30 -1.76347 1
gene 1 16 27 1.74734 0 31 1.74734 1
gene 1 16 28 0.741081 0 32 0.741081 1
gene 1 17 27 0.90907 0 33 0.90907 1
gene 1 17 28 -1.30207 0 34 -1.30207 1
gene 1 18 27 4.8813 0 35 4.8813 0
gene 1 18 28 -2.75216 0 36 -2.75216 1
gene 1 19 27 3.92868 0 37 3.92868 1
gene 1 19 28 -2.94681 0 38 -2.94681 0
gene 1 20 27 -0.245247 0 39 -0.245247 1
gene 1 20 28 6.99583 0 40 6.99583 0
gene 1 21 27 4.00423 0 41 4.00423 1
gene 1 21 28 0.950804 0 42 0.950804 1
gene 1 22 27 -1.51856 0 43 -1.51856 1
gene 1 22 28 2.51944 0 44 2.51944 1
gene 1 23 27 -1.40458 0 45 -1.40458 1
gene 1 23 28 -2.37449 0 46 -2.37449 1
gene 1 24 27 3.97259 0 47 3.97259 1
gene 1 24 28 2.8581 0 48 2.8581 0
gene 1 25 27 -0.526063 0 49 -0.526063 1
gene 1 25 28 0.1648 0 50 0.1648 1
gene 1 26 27 -3.77125 0 51 -3.77125 1
gene 1 26 28 -3.70914 0 52 -3.70914 1
gene 1 19 36 0.160375 0 69 0.160375 1
gene 1 36 28 -4.94485 0 70 -4.94485 1
gene 1 21 36 -1.00169 0 107 -1.00169 0
gene 1 18 128 2.4958 0 344 2.4958 1
gene 1 128 27 0.687658 0 345 0.687658 1
gene 1 3 36 1.50581 0 403 1.50581 1
gene 1 5 36 -3.69205 0 512 -3.69205 1
gene 1 1 233 5.21651 0 662 5.21651 1
gene 1 233 27 4.71412 0 663 4.71412 1
gene 1 16 36 0.297922 0 775 0.297922 1
gene 1 21 325 1.72619 0 933 1.72619 1
gene 1 325 36 0.525758 0 934 0.525758 1
gene 1 19 128 -0.0688345 0 984 -0.0688345 1
gene 1 2 128 -2.83982 0 1030 -2.83982 1
gene 1 11 36 -1.97615 0 1118 -1.97615 1
gene 1 3 325 1.04537 0 1149 1.04537 1
gene 1 4 392 1.65744 0 1174 1.65744 1
gene 1 392 27 2.21236 0 1175 2.21236 1
gene 1 24 453 0.920499 0 1353 0.920499 1
gene 1 453 28 -2.33291 0 1354 -2.33291 1
gene 1 11 474 3.03124 0 1416 3.03124 1
gene 1 474 28 0.644093 0 1417 0.644093 1
genomeend 7

/* Organism #8 Fitness: 0.147721 Error: 0 */
genomestart 8
trait 1 0 0.499161 0 0.0352489 0 0 0 0 
node 1 1 1 1
node 2 1 1 1
node 3 1 1 1
node 4 1 1 1
node 5 1 1 1
node 6 1 1 1
node 7 1 1 1
node 8 1 1 1
node 9 1 1 1
node 10 1 1 1
node 11 1 1 1
node 12 1 1 1
node 13 1 1 1
node 14 1 1 1
node 15 1 1 1
node 16 1 1 1
node 17 1 1 1
node 18 1 1 1
node 19 1 1 1
node 20 1 1 1
node 21 1 1 1
node 22 1 1 1
node 23 1 1 1
node 24 1 1 1
node 25 1 1 1
node 26 1 1 3
node 27 1 0 2
node 28 1 0 2
node 36 1 0 0
node 128 1 0 0
node 233 1 0 0
node 325 1 0 0
node 392 1 0 0
node 453 1 0 0
node 474 1 0 0
gene 1 1 27 2.52487 0 1 2.52487 0
gene 1 1 28 -2.31213 0 2 -2.31213 1
gene 1 2 27 5.78005 0 3 5.78005 1
gene 1 2 28 2.90938 0 4 2.90938 1
gene 1 3 27 2.58963 0 5 2.58963 1
gene 1 3 28 8 0 6 8 1
gene 1 4 27 1.52959 0 7 1.52959 0
gene 1 4 28 1.68386 0 8 1.68386 1
gene 1 5 27 1.78411 0 9 1.78411 1
gene 1 5 28 2.57524 0 10 2.57524 1
gene 1 6 27 -0.563845 0 11 -0.563845 1
gene 1 6 28 3.79322 0 12 3.79322 1
gene 1 7 27 8 0 13 8 1
gene 1 7 28 -0.89053 0 14 -0.89053 1
gene 1 8 27 -2.3835 0 15 -2.3835 1
gene 1 8 28 1.11504 0 16 1.11504 1
gene 1 9 27 -6.47839 0 17 -6.47839 1
gene 1 9 28 -3.57576 0 18 -3.57576 1
gene 1 10 27 0.0488144 0 19 0.0488144 1
gene 1 10 28 -1.18906 0 20 -1.18906 1
gene 1 11 27 -1.66478 0 21 -1.66478 1
gene 1 11 28 0.94058 0 22 0.94058 0
gene 1 12 27 4.22613 0 23 4.22613 1
gene 1 12 28 -1.42895 0 24 -1.42895 1
gene 1 13 27 0.0355235 0 25 0.0355235 1
gene 1 13 28 -0.270379 0 26 -0.270379 1
gene 1 14 27 7.45906 0 27 7.45906 1
gene 1 14 28 5.55284 0 28 5.55284 1
gene 1 15 27 -0.681097 0 29 -0.681097 1
gene 1 15 28 -2.35858 0 30 -2.35858 1
gene 1 16 27 -0.356227 0 31 -0.356227 1
gene 1 16 28 -0.655293 0 32 -0.655293 1
gene 1 17 27 -0.0442518 0 33 -0.0442518 1
gene 1 17 28 0.444426 0 34 0.444426 1
gene 1 18 27 5.52829 0 35 5.52829 0
gene 1 18 28 -1.74162 0 36 -1.74162 1
gene 1 19 27 5.28576 0 37 5.28576 1
gene 1 19 28 -1.00232 0 38 -1.00232 0
gene 1 20 27 1.94499 0 39 1.94499 1
gene 1 20 28 5.19082 0 40 5.19082 0
gene 1 21 27 4.00423 0 41 4.00423 1
gene 1 21 28 2.47497 0 42 2.47497 1
gene 1 22 27 -1.86944 0 43 -1.86944 1
gene 1 22 28 2.98706 0 44 2.98706 1
gene 1 23 27 -2.75602 0 45 -2.75602 1
gene 1 23 28 -1.27293 0 46 -1.27293 1
gene 1 24 27 1.6628 0 47 1.6628 1
gene 1 24 28 1.48653 0 48 1.48653 0
gene 1 25 27 1.03442 0 49 1.03442 1
gene 1 25 28 0.737403 0 50 0.737403 1
gene 1 26 27 -1.36349 0 51 -1.36349 1
gene 1 26 28 -1.4433 0 52 -1.4433 1
gene 1 19 36 0.160375 0 69 0.160375 1
gene 1 36 28 -4.25018 0 70 -4.25018 1
gene 1 21 36 -3.87783 0 107 -3.87783 0
gene 1 18 128 2.97388 0 344 2.97388 1
gene 1 128 27 1.24416 0 345 1.24416 1
gene 1 3 36 0.582476 0 403 0.582476 1
gene 1 5 36 -1.75344 0 512 -1.75344 1
gene 1 1 233 3.78825 0 662 3.78825 1
gene 1 233 27 3.37405 0 663 3.37405 1
gene 1 16 36 1.22355 0 775 1.22355 1
gene 1 21 325 0.9691 0 933 0.9691 1
gene 1 325 36 -1.97165 0 934 -1.97165 1
gene 1 19 128 -1.07884 0 984 -1.07884 1
gene 1 2 128 -0.897702 0 1030 -0.897702 1
gene 1 11 36 -0.504624 0 1118 -0.504624 1
gene 1 3 325 -0.504898 0 1149 -0.504898 1
gene 1 4 392 1.65744 0 1174 1.65744 1
gene 1 392 27 2.21236 0 1175 2.21236 1
gene 1 24 453 1 0 1353 1 1
gene 1 453 28 -2.33291 0 1354 -2.33291 1
gene 1 11 474 1 0 1416 1 1
gene 1 474 28 0.559328 0 1417 0.559328 1
genomeend 8

/* Organism #9 Fitness: 0.147721 Error: 0 */
genomestart 9
trait 1 0 0.499161 0 0.0352489 0 0 0 0 
node 1 1 1 1
node 2 1 1 1
node 3 1 1 1
node 4 1 1 1
node 5 1 1 1
node 6 1 1 1
node 7 1 1 1
node 8 1 1 1
node 9 1 1 1
node 10 1 1 1
node 11 1 1 1
node 12 1 1 1
node 13 1 1 1
node 14 1 1 1
node 15 1 1 1
node 16 1 1 1
node 17 1 1 1
node 18 1 1 1
node 19 1 1 1
node 20 1 1 1
node 21 1 1 1
node 22 1 1 1
node 23 1 1 1
node 24 1 1 1
node 25 1 1 1
node 26 1 1 3
node 27 1 0 2
node 28 1 0 2
node 36 1 0 0
node 128 1 0 0
node 233 1 0 0
node 325 1 0 0
node 392 1 0 0
node 453 1 0 0
node 474 1 0 0
node 525 1 0 0
gene 1 1 27 2.52487 0 1 2.52487 0
gene 1 1 28 -2.31213 0 2 -2.31213 1
gene 1 2 27 5.78005 0 3 5.78005 1
gene 1 2 28 2.90938 0 4 2.90938 1
gene 1 3 27 2.58963 0 5 2.58963 1
gene 1 3 28 8 0 6 8 1
gene 1 4 27 1.52959 0 7 1.52959 0
gene 1 4 28 1.68386 0 8 1.68386 1
gene 1 5 27 1.78411 0 9 1.78411 1
gene 1 5 28 2.57524 0 10 2.57524 1
gene 1 6 27 -0.563845 0 11 -0.563845 1
gene 1 6 28 3.79322 0 12 3.79322 1
gene 1 7 27 8 0 13 8 1
gene 1 7 28 -0.89053 0 14 -0.89053 1
gene 1 8 27 -2.3835 0 15 -2.3835 1
gene 1 8 28 1.11504 0 16 1.11504 1
gene 1 9 27 -6.47839 0 17 -6.47839 1
gene 1 9 28 -3.57576 0 18 -3.57576 1
gene 1 10 27 0.0488144 0 19 0.0488144 1
gene 1 10 28 -1.18906 0 20 -1.18906 1
gene 1 11 27 -1.66478 0 21 -1.66478 1
gene 1 11 28 0.94058 0 22 0.94058 0
gene 1 12 27 4.22613 0 23 4.22613 1
gene 1 12 28 -1.42895 0 24 -1.42895 1
gene 1 13 27 0.0355235 0 25 0.0355235 1
gene 1 13 28 -0.270379 0 26 -0.270379 1
gene 1 14 27 7.45906 0 27 7.45906 1
gene 1 14 28 5.55284 0 28 5.55284 1
gene 1 15 27 -0.681097 0 29 -0.681097 1
gene 1 15 28 -2.35858 0 30 -2.35858 1
gene 1 16 27 -0.356227 0 31 -0.356227 1
gene 1 16 28 -0.655293 0 32 -0.655293 1
gene 1 17 27 -0.0442518 0 33 -0.0442518 1
gene 1 17 28 0.444426 0 34 0.444426 1
gene 1 18 27 5.52829 0 35 5.52829 0
gene 1 18 28 -1.74162 0 36 -1.74162 1
gene 1 19 27 5.28576 0 37 5.28576 1
gene 1 19 28 -1.00232 0 38 -1.00232 0
gene 1 20 27 1.94499 0 39 1.94499 1
gene 1 20 28 5.19082 0 40 5.19082 0
gene 1 21 27 4.00423 0 41 4.00423 1
gene 1 21 28 2.47497 0 42 2.47497 1
gene 1 22 27 -1.86944 0 43 -1.86944 1
gene 1 22 28 2.98706 0 44 2.98706 1
gene 1 23 27 -2.75602 0 45 -2.75602 1
gene 1 23 28 -1.27293 0 46 -1.27293 1
gene 1 24 27 1.6628 0 47 1.6628 1
gene 1 24 28 1.48653 0 48 1.48653 0
gene 1 25 27 1.03442 0 49 1.03442 1
gene 1 25 28 0.737403 0 50 0.737403 1
gene 1 26 27 -1.36349 0 51 -1.36349 1
gene 1 26 28 -1.4433 0 52 -1.4433 1
gene 1 19 36 0.160375 0 69 0.160375 1
gene 1 36 28 -4.25018 0 70 -4.25018 1
gene 1 21 36 -3.87783 0 107 -3.87783 0
gene 1 18 128 2.97388 0 344 2.97388 1
gene 1 128 27 1.24416 0 345 1.24416 1
gene 1 3 36 0.582476 0 403 0.582476 1
gene 1 5 36 -1.75344 0 512 -1.75344 1
gene 1 1 233 3.78825 0 662 3.78825 1
gene 1 233 27 3.37405 0 663 3.37405 1
gene 1 16 36 1.22355 0 775 1.22355 1
gene 1 21 325 0.9691 0 933 0.9691 1
gene 1 325 36 -1.97165 0 934 -1.97165 1
gene 1 19 128 -1.07884 0 984 -1.07884 1
gene 1 2 128 -0.897702 0 1030 -0.897702 0
gene 1 11 36 -0.504624 0 1118 -0.504624 1
gene 1 3 325 -0.504898 0 1149 -0.504898 1
gene 1 4 392 1.65744 0 1174 1.65744 1
gene 1 392 27 2.21236 0 1175 2.21236 1
gene 1 24 453 1 0 1353 1 1
gene 1 453 28 -2.33291 0 1354 -2.33291 1
gene 1 11 474 1 0 1416 1 1
gene 1 474 28 0.559328 0 1417 0.559328 1
gene 1 2 525 1 0 1583 0 1
gene 1 525 128 -0.897702 0 1584 0 1
genomeend 9

/* Species #54 : (Size 4) (AF 0) (Age 8)  */


/* Organism #10 Fitness: 0.147721 Error: 0 */
genomestart 10
trait 1 0.156713 0 0.117695 0 0.187109 0 0.0676748 0.367473 
node 1 1 1 1
node 2 1 1 1
node 3 1 1 1
node 4 1 1 1
node 5 1 1 1
node 6 1 1 1
node 7 1 1 1
node 8 1 1 1
node 9 1 1 1
node 10 1 1 1
node 11 1 1 1
node 12 1 1 1
node 13 1 1 1
node 14 1 1 1
node 15 1 1 1
node 16 1 1 1
node 17 1 1 1
node 18 1 1 1
node 19 1 1 1
node 20 1 1 1
node 21 1 1 1
node 22 1 1 1
node 23 1 1 1
node 24 1 1 1
node 25 1 1 1
node 26 1 1 3
node 27 1 0 2
node 28 1 0 2
node 42 1 0 0
node 58 1 0 0
node 147 1 0 0
node 225 1 0 0
node 346 1 0 0
node 388 1 0 0
node 489 1 0 0
node 506 1 0 0
node 526 1 0 0
gene 1 1 27 6.32771 0 1 6.32771 1
gene 1 1 28 3.35075 0 2 3.35075 1
gene 1 2 27 -1.49966 0 3 -1.49966 1
gene 1 2 28 -1.64602 0 4 -1.64602 1
gene 1 3 27 6.6178 0 5 6.6178 1
gene 1 3 28 -2.57408 0 6 -2.57408 0
gene 1 4 27 5.52989 0 7 5.52989 0
gene 1 4 28 1.03801 0 8 1.03801 1
gene 1 5 27 2.10562 0 9 2.10562 1
gene 1 5 28 7.42129 0 10 7.42129 1
gene 1 6 27 0.779229 0 11 0.779229 1
gene 1 6 28 2.49797 0 12 2.49797 1
gene 1 7 27 -2.34672 0 13 -2.34672 1
gene 1 7 28 -0.862606 0 14 -0.862606 1
gene 1 8 27 4.57894 0 15 4.57894 1
gene 1 8 28 -0.0505234 0 16 -0.0505234 0
gene 1 9 27 -1.2972 0 17 -1.2972 1
gene 1 9 28 -4.1625 0 18 -4.1625 1
gene 1 10 27 8 0 19 8 1
gene 1 10 28 5.29092 0 20 5.29092 1
gene 1 11 27 1.98206 0 21 1.98206 1
gene 1 11 28 1.18152 0 22 1.18152 1
gene 1 12 27 0.124577 0 23 0.124577 1
gene 1 12 28 -0.295724 0 24 -0.295724 1
gene 1 13 27 -5.41552 0 25 -5.41552 1
gene 1 13 28 1.56087 0 26 1.56087 1
gene 1 14 27 -1.39035 0 27 -1.39035 1
gene 1 14 28 -4.05147 0 28 -4.05147 1
gene 1 15 27 -5.39749 0 29 -5.39749 1
gene 1 15 28 -2.22019 0 30 -2.22019 0
gene 1 16 27 3.65108 0 31 3.65108 1
gene 1 16 28 0.598315 0 32 0.598315 1
gene 1 17 27 5.12154 0 33 5.12154 1
gene 1 17 28 6.23623 0 34 6.23623 1
gene 1 18 27 -4.17211 0 35 -4.17211 1
gene 1 18 28 -1.79319 0 36 -1.79319 0
gene 1 19 27 0.494858 0 37 0.494858 1
gene 1 19 28 -2.01552 0 38 -2.01552 1
gene 1 20 27 2.29899 0 39 2.29899 1
gene 1 20 28 2.36915 0 40 2.36915 1
gene 1 21 27 2.48207 0 41 2.48207 1
gene 1 21 28 6.43687 0 42 6.43687 1
gene 1 22 27 3.70846 0 43 3.70846 1
gene 1 22 28 3.36335 0 44 3.36335 1
gene 1 23 27 -0.347758 0 45 -0.347758 1
gene 1 23 28 -1.92656 0 46 -1.92656 1
gene 1 24 27 -4.40732 0 47 -4.40732 0
gene 1 24 28 1.22535 0 48 1.22535 1
gene 1 25 27 -2.39897 0 49 -2.39897 1
gene 1 25 28 1.14811 0 50 1.14811 1
gene 1 26 27 -2.29398 0 51 -2.29398 1
gene 1 26 28 -0.853435 0 52 -0.853435 1
gene 1 3 42 3.3153 0 81 3.3153 1
gene 1 42 28 -2.61383 0 82 -2.61383 1
gene 1 7 58 -4.19843 0 121 -4.19843 1
gene 1 58 28 -6.87977 0 122 -6.87977 1
gene 1 19 42 2.83029 0 365 2.83029 1
gene 1 15 147 -0.538499 0 408 -0.538499 0
gene 1 147 28 -3.37024 0 409 -3.37024 1
gene 1 42 27 0.217902 0 523 0.217902 1
gene 1 8 225 -0.0701926 0 633 -0.0701926 1
gene 1 225 28 -0.47441 0 634 -0.47441 1
gene 1 58 225 -1.2344 0 731 -1.2344 1
gene 1 20 42 4.88569 0 793 4.88569 1
gene 1 5 147 -2.62641 0 897 -2.62641 1
gene 1 18 225 -2.33515 0 949 -2.33515 1
gene 1 18 346 2.31252 0 1003 2.31252 1
gene 1 346 225 -2.30105 0 1004 -2.30105 1
gene 1 24 388 0.0375378 0 1159 0.0375378 1
gene 1 388 27 -5.63363 0 1160 -5.63363 1
gene 1 42 147 -1.04769 0 1197 -1.04769 1
gene 1 20 147 -1.37245 0 1307 -1.37245 1
gene 1 4 346 -0.744438 0 1357 -0.744438 1
gene 1 18 489 1 0 1468 0 1
gene 1 489 28 -1.79319 0 1469 0 1
gene 1 15 506 1 0 1523 0 1
gene 1 506 147 -0.538499 0 1524 0 1
gene 1 4 526 1 0 1585 0 1
gene 1 526 27 5.52989 0 1586 0 1
genomeend 10

/* Organism #11 Fitness: 0.147721 Error: 0 */
genomestart 11
trait 1 0.156713 0 0.117695 0 0.187109 0 0.0676748 0.367473 
node 1 1 1 1
node 2 1 1 1
node 3 1 1 1
node 4 1 1 1
node 5 1 1 1
node 6 1 1 1
node 7 1 1 1
node 8 1 1 1
node 9 1 1 1
node 10 1 1 1
node 11 1 1 1
node 12 1 1 1
node 13 1 1 1
node 14 1 1 1
node 15 1 1 1
node 16 1 1 1
node 17 1 1 1
node 18 1 1 1
node 19 1 1 1
node 20 1 1 1
node 21 1 1 1
node 22 1 1 1
node 23 1 1 1
node 24 1 1 1
node 25 1 1 1
node 26 1 1 3
node 27 1 0 2
node 28 1 0 2
node 42 1 0 0
node 58 1 0 0
node 147 1 0 0
node 225 1 0 0
node 346 1 0 0
node 388 1 0 0
node 489 1 0 0
node 506 1 0 0
gene 1 1 27 8 0 1 8 1
gene 1 1 28 5.65192 0 2 5.65192 1
gene 1 2 27 -3.7929 0 3 -3.7929 1
gene 1 2 28 -3.12181 0 4 -3.12181 1
gene 1 3 27 7.61446 0 5 7.61446 1
gene 1 3 28 -1.91542 0 6 -1.91542 0
gene 1 4 27 3.51674 0 7 3.51674 1
gene 1 4 28 0.849483 0 8 0.849483 1
gene 1 5 27 1.32229 0 9 1.32229 1
gene 1 5 28 8 0 10 8 1
gene 1 6 27 0.632054 0 11 0.632054 1
gene 1 6 28 1.80352 0 12 1.80352 1
gene 1 7 27 -2.14988 0 13 -2.14988 1
gene 1 7 28 -0.684835 0 14 -0.684835 1
gene 1 8 27 6.772 0 15 6.772 1
gene 1 8 28 2.30413 0 16 2.30413 0
gene 1 9 27 0.246498 0 17 0.246498 1
gene 1 9 28 -5.55216 0 18 -5.55216 1
gene 1 10 27 8 0 19 8 1
gene 1 10 28 3.86143 0 20 3.86143 1
gene 1 11 27 2.96498 0 21 2.96498 1
gene 1 11 28 2.16903 0 22 2.16903 1
gene 1 12 27 1.42863 0 23 1.42863 1
gene 1 12 28 1.09561 0 24 1.09561 1
gene 1 13 27 -6.75445 0 25 -6.75445 1
gene 1 13 28 -0.231178 0 26 -0.231178 1
gene 1 14 27 -2.98601 0 27 -2.98601 1
gene 1 14 28 -4.78842 0 28 -4.78842 1
gene 1 15 27 -7.81074 0 29 -7.81074 1
gene 1 15 28 -4.02445 0 30 -4.02445 0
gene 1 16 27 4.02806 0 31 4.02806 1
gene 1 16 28 1.39843 0 32 1.39843 1
gene 1 17 27 3.82389 0 33 3.82389 1
gene 1 17 28 8 0 34 8 1
gene 1 18 27 -1.92015 0 35 -1.92015 1
gene 1 18 28 -0.729316 0 36 -0.729316 0
gene 1 19 27 0.681249 0 37 0.681249 1
gene 1 19 28 -0.280465 0 38 -0.280465 1
gene 1 20 27 4.38234 0 39 4.38234 1
gene 1 20 28 0.395825 0 40 0.395825 1
gene 1 21 27 4.17104 0 41 4.17104 1
gene 1 21 28 7.8086 0 42 7.8086 1
gene 1 22 27 4.01357 0 43 4.01357 1
gene 1 22 28 3.61109 0 44 3.61109 1
gene 1 23 27 -1.98988 0 45 -1.98988 1
gene 1 23 28 -1.64899 0 46 -1.64899 1
gene 1 24 27 -3.67212 0 47 -3.67212 0
gene 1 24 28 -0.468352 0 48 -0.468352 1
gene 1 25 27 -0.47615 0 49 -0.47615 1
gene 1 25 28 -0.896405 0 50 -0.896405 1
gene 1 26 27 -3.18162 0 51 -3.18162 1
gene 1 26 28 0.663335 0 52 0.663335 1
gene 1 3 42 2.55493 0 81 2.55493 1
gene 1 42 28 -4.934 0 82 -4.934 1
gene 1 7 58 -1.91298 0 121 -1.91298 1
gene 1 58 28 -8 0 122 -8 1
gene 1 19 42 2.28088 0 365 2.28088 1
gene 1 15 147 -2.15888 0 408 -2.15888 0
gene 1 147 28 -4.14289 0 409 -4.14289 1
gene 1 42 27 1.20746 0 523 1.20746 1
gene 1 8 225 -0.732139 0 633 -0.732139 1
gene 1 225 28 0.167241 0 634 0.167241 1
gene 1 58 225 -2.97998 0 731 -2.97998 1
gene 1 20 42 -1.04289 0 793 -1.04289 1
gene 1 5 147 -0.0614948 0 897 -0.0614948 1
gene 1 18 225 -0.260018 0 949 -0.260018 1
gene 1 18 346 2.31252 0 1003 2.31252 1
gene 1 346 225 -0.460936 0 1004 -0.460936 1
gene 1 24 388 -2.37701 0 1159 -2.37701 1
gene 1 388 27 -5.63363 0 1160 -5.63363 1
gene 1 42 147 -1.68699 0 1197 -1.68699 1
gene 1 20 147 -3.35958 0 1307 -3.35958 1
gene 1 4 346 -1.23486 0 1357 -1.23486 1
gene 1 18 489 1.09493 0 1468 1.09493 1
gene 1 489 28 0.247353 0 1469 0.247353 1
gene 1 15 506 -1.39515 0 1523 -1.39515 1
gene 1 506 147 0.668126 0 1524 0.668126 1
genomeend 11

/* Organism #12 Fitness: 0.0743286 Error: 0 */
genomestart 12
trait 1 0.156713 0 0.117695 0 0.187109 0 0.0676748 0.367473 
node 1 1 1 1
node 2 1 1 1
node 3 1 1 1
node 4 1 1 1
node 5 1 1 1
node 6 1 1 1
node 7 1 1 1
node 8 1 1 1
node 9 1 1 1
node 10 1 1 1
node 11 1 1 1
node 12 1 1 1
node 13 1 1 1
node 14 1 1 1
node 15 1 1 1
node 16 1 1 1
node 17 1 1 1
node 18 1 1 1
node 19 1 1 1
node 20 1 1 1
node 21 1 1 1
node 22 1 1 1
node 23 1 1 1
node 24 1 1 1
node 25 1 1 1
node 26 1 1 3
node 27 1 0 2
node 28 1 0 2
node 42 1 0 0
node 58 1 0 0
node 147 1 0 0
node 225 1 0 0
node 346 1 0 0
node 388 1 0 0
node 489 1 0 0
node 506 1 0 0
gene 1 1 27 4.83428 0 1 4.83428 1
gene 1 1 28 3.98744 0 2 3.98744 1
gene 1 2 27 -2.85484 0 3 -2.85484 1
gene 1 2 28 -0.683081 0 4 -0.683081 1
gene 1 3 27 0.489441 0 5 0.489441 1
gene 1 3 28 -2.57408 0 6 -2.57408 0
gene 1 4 27 7.33628 0 7 7.33628 1
gene 1 4 28 0.575274 0 8 0.575274 1
gene 1 5 27 3.8097 0 9 3.8097 1
gene 1 5 28 6.25617 0 10 6.25617 1
gene 1 6 27 0.294122 0 11 0.294122 1
gene 1 6 28 0.883129 0 12 0.883129 1
gene 1 7 27 -3.89973 0 13 -3.89973 1
gene 1 7 28 2.35824 0 14 2.35824 1
gene 1 8 27 4.91792 0 15 4.91792 1
gene 1 8 28 0.695959 0 16 0.695959 0
gene 1 9 27 0.712363 0 17 0.712363 1
gene 1 9 28 -3.87204 0 18 -3.87204 1
gene 1 10 27 6.84121 0 19 6.84121 1
gene 1 10 28 6.51105 0 20 6.51105 1
gene 1 11 27 3.56978 0 21 3.56978 1
gene 1 11 28 0.675909 0 22 0.675909 1
gene 1 12 27 -0.19953 0 23 -0.19953 1
gene 1 12 28 -1.26385 0 24 -1.26385 1
gene 1 13 27 -3.26397 0 25 -3.26397 1
gene 1 13 28 0.0367748 0 26 0.0367748 1
gene 1 14 27 -0.908383 0 27 -0.908383 1
gene 1 14 28 -2.86758 0 28 -2.86758 1
gene 1 15 27 -4.55197 0 29 -4.55197 1
gene 1 15 28 -0.384121 0 30 -0.384121 0
gene 1 16 27 3.71929 0 31 3.71929 1
gene 1 16 28 0.185553 0 32 0.185553 1
gene 1 17 27 5.31625 0 33 5.31625 1
gene 1 17 28 7.37922 0 34 7.37922 1
gene 1 18 27 -2.49054 0 35 -2.49054 1
gene 1 18 28 -1.76862 0 36 -1.76862 0
gene 1 19 27 1.16497 0 37 1.16497 1
gene 1 19 28 0.275124 0 38 0.275124 1
gene 1 20 27 0.539567 0 39 0.539567 1
gene 1 20 28 -2.44407 0 40 -2.44407 1
gene 1 21 27 1.21487 0 41 1.21487 1
gene 1 21 28 2.07663 0 42 2.07663 1
gene 1 22 27 1.69134 0 43 1.69134 1
gene 1 22 28 -0.500046 0 44 -0.500046 1
gene 1 23 27 -2.74117 0 45 -2.74117 1
gene 1 23 28 -1.92656 0 46 -1.92656 1
gene 1 24 27 -5.31204 0 47 -5.31204 0
gene 1 24 28 1.22306 0 48 1.22306 1
gene 1 25 27 -4.01195 0 49 -4.01195 1
gene 1 25 28 1.14811 0 50 1.14811 1
gene 1 26 27 -2.69836 0 51 -2.69836 1
gene 1 26 28 -1.40477 0 52 -1.40477 1
gene 1 3 42 1.54416 0 81 1.54416 1
gene 1 42 28 -0.779977 0 82 -0.779977 1
gene 1 7 58 -6.07692 0 121 -6.07692 1
gene 1 58 28 -0.165334 0 122 -0.165334 1
gene 1 19 42 3.28761 0 365 3.28761 1
gene 1 15 147 -1.49693 0 408 -1.49693 0
gene 1 147 28 -2.94122 0 409 -2.94122 1
gene 1 42 27 -1.66158 0 523 -1.66158 1
gene 1 8 225 -0.0701926 0 633 -0.0701926 1
gene 1 225 28 -0.47441 0 634 -0.47441 1
gene 1 58 225 -1.2344 0 731 -1.2344 1
gene 1 20 42 5.1567 0 793 5.1567 1
gene 1 5 147 -4.811 0 897 -4.811 1
gene 1 18 225 0.147526 0 949 0.147526 1
gene 1 18 346 4.4695 0 1003 4.4695 1
gene 1 346 225 -3.27718 0 1004 -3.27718 1
gene 1 24 388 0.170217 0 1159 0.170217 1
gene 1 388 27 -7.76939 0 1160 -7.76939 1
gene 1 42 147 -0.0108951 0 1197 -0.0108951 1
gene 1 20 147 -0.76925 0 1307 -0.76925 1
gene 1 4 346 -1.32824 0 1357 -1.32824 1
gene 1 18 489 2.45109 0 1468 2.45109 1
gene 1 489 28 -3.43753 0 1469 -3.43753 1
gene 1 15 506 -1.05382 0 1523 -1.05382 1
gene 1 506 147 0.906095 0 1524 0.906095 1
genomeend 12

/* Organism #13 Fitness: 0.147721 Error: 0 */
genomestart 13
trait 1 0.156713 0 0.117695 0 0.187109 0 0.0676748 0.367473 
node 1 1 1 1
node 2 1 1 1
node 3 1 1 1
node 4 1 1 1
node 5 1 1 1
node 6 1 1 1
node 7 1 1 1
node 8 1 1 1
node 9 1 1 1
node 10 1 1 1
node 11 1 1 1
node 12 1 1 1
node 13 1 1 1
node 14 1 1 1
node 15 1 1 1
node 16 1 1 1
node 17 1 1 1
node 18 1 1 1
node 19 1 1 1
node 20 1 1 1
node 21 1 1 1
node 22 1 1 1
node 23 1 1 1
node 24 1 1 1
node 25 1 1 1
node 26 1 1 3
node 27 1 0 2
node 28 1 0 2
node 42 1 0 0
node 58 1 0 0
node 147 1 0 0
node 225 1 0 0
node 346 1 0 0
node 388 1 0 0
node 489 1 0 0
node 506 1 0 0
node 527 1 0 0
gene 1 1 27 6.32771 0 1 6.32771 1
gene 1 1 28 3.35075 0 2 3.35075 1
gene 1 2 27 -1.49966 0 3 -1.49966 1
gene 1 2 28 -1.64602 0 4 -1.64602 1
gene 1 3 27 6.6178 0 5 6.6178 1
gene 1 3 28 -2.57408 0 6 -2.57408 0
gene 1 4 27 5.52989 0 7 5.52989 1
gene 1 4 28 1.03801 0 8 1.03801 1
gene 1 5 27 2.10562 0 9 2.10562 1
gene 1 5 28 7.42129 0 10 7.42129 1
gene 1 6 27 0.779229 0 11 0.779229 1
gene 1 6 28 2.49797 0 12 2.49797 1
gene 1 7 27 -2.34672 0 13 -2.34672 1
gene 1 7 28 -0.862606 0 14 -0.862606 1
gene 1 8 27 4.57894 0 15 4.57894 1
gene 1 8 28 -0.0505234 0 16 -0.0505234 0
gene 1 9 27 -1.2972 0 17 -1.2972 1
gene 1 9 28 -4.1625 0 18 -4.1625 1
gene 1 10 27 8 0 19 8 1
gene 1 10 28 5.29092 0 20 5.29092 1
gene 1 11 27 1.98206 0 21 1.98206 1
gene 1 11 28 1.18152 0 22 1.18152 1
gene 1 12 27 0.124577 0 23 0.124577 1
gene 1 12 28 -0.295724 0 24 -0.295724 1
gene 1 13 27 -5.41552 0 25 -5.41552 1
gene 1 13 28 1.56087 0 26 1.56087 1
gene 1 14 27 -1.39035 0 27 -1.39035 1
gene 1 14 28 -4.05147 0 28 -4.05147 1
gene 1 15 27 -5.39749 0 29 -5.39749 1
gene 1 15 28 -2.22019 0 30 -2.22019 0
gene 1 16 27 3.65108 0 31 3.65108 1
gene 1 16 28 0.598315 0 32 0.598315 1
gene 1 17 27 5.12154 0 33 5.12154 1
gene 1 17 28 6.23623 0 34 6.23623 1
gene 1 18 27 -4.17211 0 35 -4.17211 1
gene 1 18 28 -1.79319 0 36 -1.79319 0
gene 1 19 27 0.494858 0 37 0.494858 1
gene 1 19 28 -2.01552 0 38 -2.01552 1
gene 1 20 27 2.29899 0 39 2.29899 1
gene 1 20 28 2.36915 0 40 2.36915 1
gene 1 21 27 2.48207 0 41 2.48207 1
gene 1 21 28 6.43687 0 42 6.43687 1
gene 1 22 27 3.70846 0 43 3.70846 1
gene 1 22 28 3.36335 0 44 3.36335 1
gene 1 23 27 -0.347758 0 45 -0.347758 1
gene 1 23 28 -1.92656 0 46 -1.92656 1
gene 1 24 27 -4.40732 0 47 -4.40732 0
gene 1 24 28 1.22535 0 48 1.22535 1
gene 1 25 27 -2.39897 0 49 -2.39897 1
gene 1 25 28 1.14811 0 50 1.14811 1
gene 1 26 27 -2.29398 0 51 -2.29398 1
gene 1 26 28 -0.853435 0 52 -0.853435 1
gene 1 3 42 3.3153 0 81 3.3153 1
gene 1 42 28 -2.61383 0 82 -2.61383 1
gene 1 7 58 -4.19843 0 121 -4.19843 1
gene 1 58 28 -6.87977 0 122 -6.87977 1
gene 1 19 42 2.83029 0 365 2.83029 1
gene 1 15 147 -0.538499 0 408 -0.538499 0
gene 1 147 28 -3.37024 0 409 -3.37024 0
gene 1 42 27 0.217902 0 523 0.217902 1
gene 1 8 225 -0.0701926 0 633 -0.0701926 1
gene 1 225 28 -0.47441 0 634 -0.47441 1
gene 1 58 225 -1.2344 0 731 -1.2344 1
gene 1 20 42 4.88569 0 793 4.88569 1
gene 1 5 147 -2.62641 0 897 -2.62641 1
gene 1 18 225 -2.33515 0 949 -2.33515 1
gene 1 18 346 2.31252 0 1003 2.31252 1
gene 1 346 225 -2.30105 0 1004 -2.30105 1
gene 1 24 388 0.0375378 0 1159 0.0375378 1
gene 1 388 27 -5.63363 0 1160 -5.63363 1
gene 1 42 147 -1.04769 0 1197 -1.04769 1
gene 1 20 147 -1.37245 0 1307 -1.37245 1
gene 1 4 346 -0.744438 0 1357 -0.744438 1
gene 1 18 489 1 0 1468 0 1
gene 1 489 28 -1.79319 0 1469 0 1
gene 1 15 506 1 0 1523 0 1
gene 1 506 147 -0.538499 0 1524 0 1
gene 1 147 527 1 0 1587 0 1
gene 1 527 28 -3.37024 0 1588 0 1
genomeend 13

/* Species #55 : (Size 3) (AF 0) (Age 8)  */


/* Organism #14 Fitness: 0.147721 Error: 0 */
genomestart 14
trait 1 1 0 0.117695 0 0.187109 0 0.306116 1 
node 1 1 1 1
node 2 1 1 1
node 3 1 1 1
node 4 1 1 1
node 5 1 1 1
node 6 1 1 1
node 7 1 1 1
node 8 1 1 1
node 9 1 1 1
node 10 1 1 1
node 11 1 1 1
node 12 1 1 1
node 13 1 1 1
node 14 1 1 1
node 15 1 1 1
node 16 1 1 1
node 17 1 1 1
node 18 1 1 1
node 19 1 1 1
node 20 1 1 1
node 21 1 1 1
node 22 1 1 1
node 23 1 1 1
node 24 1 1 1
node 25 1 1 1
node 26 1 1 3
node 27 1 0 2
node 28 1 0 2
node 42 1 0 0
node 58 1 0 0
node 147 1 0 0
node 225 1 0 0
node 346 1 0 0
node 388 1 0 0
node 402 1 0 0
node 476 1 0 0
gene 1 1 27 2.71706 0 1 2.71706 1
gene 1 1 28 3.33221 0 2 3.33221 1
gene 1 2 27 2.93445 0 3 2.93445 1
gene 1 2 28 6.95719 0 4 6.95719 1
gene 1 3 27 1.46323 0 5 1.46323 1
gene 1 3 28 0.688002 0 6 0.688002 0
gene 1 4 27 4.70994 0 7 4.70994 1
gene 1 4 28 5.40521 0 8 5.40521 1
gene 1 5 27 1.5305 0 9 1.5305 1
gene 1 5 28 1.08851 0 10 1.08851 1
gene 1 6 27 -5.68196 0 11 -5.68196 1
gene 1 6 28 2.00479 0 12 2.00479 1
gene 1 7 27 -4.60555 0 13 -4.60555 1
gene 1 7 28 2.14515 0 14 2.14515 1
gene 1 8 27 -0.110309 0 15 -0.110309 1
gene 1 8 28 -1.34802 0 16 -1.34802 0
gene 1 9 27 -2.52817 0 17 -2.52817 1
gene 1 9 28 -0.26719 0 18 -0.26719 1
gene 1 10 27 7.2552 0 19 7.2552 1
gene 1 10 28 1.6995 0 20 1.6995 1
gene 1 11 27 -0.122654 0 21 -0.122654 1
gene 1 11 28 3.31969 0 22 3.31969 1
gene 1 12 27 1.15698 0 23 1.15698 1
gene 1 12 28 -2.68826 0 24 -2.68826 1
gene 1 13 27 -0.99575 0 25 -0.99575 1
gene 1 13 28 -2.79138 0 26 -2.79138 1
gene 1 14 27 1.90641 0 27 1.90641 1
gene 1 14 28 -4.81516 0 28 -4.81516 1
gene 1 15 27 -2.54668 0 29 -2.54668 1
gene 1 15 28 1.99281 0 30 1.99281 0
gene 1 16 27 -0.0598544 0 31 -0.0598544 1
gene 1 16 28 1.77808 0 32 1.77808 1
gene 1 17 27 4.16448 0 33 4.16448 1
gene 1 17 28 -1.95864 0 34 -1.95864 1
gene 1 18 27 2.50317 0 35 2.50317 1
gene 1 18 28 1.92515 0 36 1.92515 1
gene 1 19 27 -1.48808 0 37 -1.48808 1
gene 1 19 28 -0.764069 0 38 -0.764069 1
gene 1 20 27 3.45511 0 39 3.45511 1
gene 1 20 28 2.64832 0 40 2.64832 1
gene 1 21 27 7.46895 0 41 7.46895 1
gene 1 21 28 2.69053 0 42 2.69053 1
gene 1 22 27 2.78607 0 43 2.78607 1
gene 1 22 28 3.5008 0 44 3.5008 1
gene 1 23 27 4.79259 0 45 4.79259 1
gene 1 23 28 -3.43696 0 46 -3.43696 1
gene 1 24 27 0.796129 0 47 0.796129 0
gene 1 24 28 1.13013 0 48 1.13013 1
gene 1 25 27 2.42711 0 49 2.42711 1
gene 1 25 28 5.9125 0 50 5.9125 1
gene 1 26 27 -0.514916 0 51 -0.514916 1
gene 1 26 28 -2.90535 0 52 -2.90535 1
gene 1 3 42 -4.48469 0 81 -4.48469 1
gene 1 42 28 0.0238044 0 82 0.0238044 1
gene 1 7 58 -4.70473 0 121 -4.70473 1
gene 1 58 28 -2.08219 0 122 -2.08219 1
gene 1 19 42 -4.49973 0 365 -4.49973 1
gene 1 15 147 -1.17054 0 408 -1.17054 1
gene 1 147 28 -3.04903 0 409 -3.04903 1
gene 1 42 27 0.86932 0 523 0.86932 1
gene 1 8 225 -0.699561 0 633 -0.699561 1
gene 1 225 28 -0.293817 0 634 -0.293817 1
gene 1 58 225 -2.41646 0 731 -2.41646 1
gene 1 20 42 2.24332 0 793 2.24332 1
gene 1 5 147 1.28071 0 897 1.28071 1
gene 1 18 225 -2.86618 0 949 -2.86618 1
gene 1 18 346 -5.73992 0 1003 -5.73992 1
gene 1 346 225 -0.619884 0 1004 -0.619884 1
gene 1 24 388 0.454268 0 1159 0.454268 1
gene 1 388 27 -2.00566 0 1160 -2.00566 1
gene 1 18 402 0.107425 0 1202 0.107425 1
gene 1 402 27 2.60323 0 1203 2.60323 1
gene 1 9 476 0.5056 0 1423 0.5056 1
gene 1 476 27 -5.46016 0 1424 -5.46016 1
gene 1 11 476 0.898984 0 1589 0.898984 1
genomeend 14

/* Organism #15 Fitness: 0.0598643 Error: 0 */
genomestart 15
trait 1 0.714331 0 0.4317 0 0.187109 0.187475 0.611454 0.584216 
node 1 1 1 1
node 2 1 1 1
node 3 1 1 1
node 4 1 1 1
node 5 1 1 1
node 6 1 1 1
node 7 1 1 1
node 8 1 1 1
node 9 1 1 1
node 10 1 1 1
node 11 1 1 1
node 12 1 1 1
node 13 1 1 1
node 14 1 1 1
node 15 1 1 1
node 16 1 1 1
node 17 1 1 1
node 18 1 1 1
node 19 1 1 1
node 20 1 1 1
node 21 1 1 1
node 22 1 1 1
node 23 1 1 1
node 24 1 1 1
node 25 1 1 1
node 26 1 1 3
node 27 1 0 2
node 28 1 0 2
node 42 1 0 0
node 58 1 0 0
node 147 1 0 0
node 225 1 0 0
node 346 1 0 0
node 388 1 0 0
node 402 1 0 0
node 476 1 0 0
gene 1 1 27 2.66068 0 1 2.66068 1
gene 1 1 28 4.6043 0 2 4.6043 1
gene 1 2 27 2.47591 0 3 2.47591 1
gene 1 2 28 4.57278 0 4 4.57278 1
gene 1 3 27 1.472 0 5 1.472 1
gene 1 3 28 0.257996 0 6 0.257996 0
gene 1 4 27 2.48788 0 7 2.48788 1
gene 1 4 28 5.92814 0 8 5.92814 1
gene 1 5 27 0.58298 0 9 0.58298 1
gene 1 5 28 2.77939 0 10 2.77939 1
gene 1 6 27 -2.54923 0 11 -2.54923 1
gene 1 6 28 3.33944 0 12 3.33944 1
gene 1 7 27 -8 0 13 -8 1
gene 1 7 28 2.20656 0 14 2.20656 1
gene 1 8 27 -1.88717 0 15 -1.88717 1
gene 1 8 28 -0.467559 0 16 -0.467559 0
gene 1 9 27 -1.22839 0 17 -1.22839 0
gene 1 9 28 -2.32299 0 18 -2.32299 1
gene 1 10 27 8 0 19 8 1
gene 1 10 28 3.24969 0 20 3.24969 1
gene 1 11 27 0.0474105 0 21 0.0474105 1
gene 1 11 28 4.08723 0 22 4.08723 1
gene 1 12 27 1.53266 0 23 1.53266 1
gene 1 12 28 -4.5872 0 24 -4.5872 1
gene 1 13 27 -1.42804 0 25 -1.42804 1
gene 1 13 28 0.483337 0 26 0.483337 1
gene 1 14 27 -0.0366222 0 27 -0.0366222 1
gene 1 14 28 -4.99697 0 28 -4.99697 0
gene 1 15 27 -4.45965 0 29 -4.45965 1
gene 1 15 28 2.05179 0 30 2.05179 0
gene 1 16 27 2.14167 0 31 2.14167 1
gene 1 16 28 0.920515 0 32 0.920515 1
gene 1 17 27 2.93214 0 33 2.93214 1
gene 1 17 28 1.41915 0 34 1.41915 1
gene 1 18 27 1.46302 0 35 1.46302 0
gene 1 18 28 3.59458 0 36 3.59458 1
gene 1 19 27 -0.0540178 0 37 -0.0540178 1
gene 1 19 28 0.905446 0 38 0.905446 1
gene 1 20 27 3.19028 0 39 3.19028 1
gene 1 20 28 2.78893 0 40 2.78893 1
gene 1 21 27 5.69765 0 41 5.69765 1
gene 1 21 28 -1.83063 0 42 -1.83063 1
gene 1 22 27 2.03616 0 43 2.03616 1
gene 1 22 28 -0.201781 0 44 -0.201781 1
gene 1 23 27 0.170103 0 45 0.170103 1
gene 1 23 28 -1.00394 0 46 -1.00394 1
gene 1 24 27 2.20112 0 47 2.20112 0
gene 1 24 28 0.169637 0 48 0.169637 1
gene 1 25 27 3.71179 0 49 3.71179 1
gene 1 25 28 6.26118 0 50 6.26118 1
gene 1 26 27 -2.74879 0 51 -2.74879 1
gene 1 26 28 -1.41276 0 52 -1.41276 1
gene 1 3 42 -3.80009 0 81 -3.80009 1
gene 1 42 28 1.44009 0 82 1.44009 1
gene 1 7 58 -7.76872 0 121 -7.76872 1
gene 1 58 28 -4.38893 0 122 -4.38893 1
gene 1 19 42 -3.91758 0 365 -3.91758 1
gene 1 15 147 -1.42926 0 408 -1.42926 1
gene 1 147 28 -0.664312 0 409 -0.664312 1
gene 1 42 27 4.38917 0 523 4.38917 1
gene 1 8 225 0.995972 0 633 0.995972 1
gene 1 225 28 0.818659 0 634 0.818659 1
gene 1 58 225 -0.914563 0 731 -0.914563 1
gene 1 20 42 4.2297 0 793 4.2297 1
gene 1 5 147 1.52493 0 897 1.52493 1
gene 1 18 225 -3.50165 0 949 -3.50165 1
gene 1 18 346 1.49266 0 1003 1.49266 1
gene 1 346 225 -1.32601 0 1004 -1.32601 1
gene 1 24 388 0.454268 0 1159 0.454268 1
gene 1 388 27 -4.76232 0 1160 -4.76232 1
gene 1 18 402 1.37608 0 1202 1.37608 1
gene 1 402 27 -0.843837 0 1203 -0.843837 1
gene 1 9 476 1.95418 0 1423 1.95418 1
gene 1 476 27 -6.84059 0 1424 -6.84059 1
genomeend 15

/* Organism #16 Fitness: 0.07165 Error: 0 */
genomestart 16
trait 1 0.428663 0 0.745705 0 0.187109 0.37495 0.916791 0.168432 
node 1 1 1 1
node 2 1 1 1
node 3 1 1 1
node 4 1 1 1
node 5 1 1 1
node 6 1 1 1
node 7 1 1 1
node 8 1 1 1
node 9 1 1 1
node 10 1 1 1
node 11 1 1 1
node 12 1 1 1
node 13 1 1 1
node 14 1 1 1
node 15 1 1 1
node 16 1 1 1
node 17 1 1 1
node 18 1 1 1
node 19 1 1 1
node 20 1 1 1
node 21 1 1 1
node 22 1 1 1
node 23 1 1 1
node 24 1 1 1
node 25 1 1 1
node 26 1 1 3
node 27 1 0 2
node 28 1 0 2
node 42 1 0 0
node 58 1 0 0
node 147 1 0 0
node 225 1 0 0
node 346 1 0 0
node 388 1 0 0
node 402 1 0 0
node 476 1 0 0
gene 1 1 27 4.21369 0 1 4.21369 1
gene 1 1 28 2.07622 0 2 2.07622 1
gene 1 2 27 2.17721 0 3 2.17721 1
gene 1 2 28 6.26381 0 4 6.26381 1
gene 1 3 27 0.658986 0 5 0.658986 1
gene 1 3 28 3.13192 0 6 3.13192 0
gene 1 4 27 1.86546 0 7 1.86546 1
gene 1 4 28 6.60489 0 8 6.60489 1
gene 1 5 27 -2.36145 0 9 -2.36145 1
gene 1 5 28 0.161206 0 10 0.161206 1
gene 1 6 27 -2.34316 0 11 -2.34316 1
gene 1 6 28 -1.31387 0 12 -1.31387 1
gene 1 7 27 -8 0 13 -8 1
gene 1 7 28 -0.182196 0 14 -0.182196 1
gene 1 8 27 0.778695 0 15 0.778695 1
gene 1 8 28 -0.0892819 0 16 -0.0892819 0
gene 1 9 27 -0.984313 0 17 -0.984313 0
gene 1 9 28 2.47368 0 18 2.47368 1
gene 1 10 27 8 0 19 8 1
gene 1 10 28 0.189138 0 20 0.189138 1
gene 1 11 27 -0.629719 0 21 -0.629719 1
gene 1 11 28 5.3938 0 22 5.3938 1
gene 1 12 27 2.56526 0 23 2.56526 1
gene 1 12 28 -2.46128 0 24 -2.46128 1
gene 1 13 27 -5.66226 0 25 -5.66226 1
gene 1 13 28 0.425733 0 26 0.425733 1
gene 1 14 27 0.810343 0 27 0.810343 1
gene 1 14 28 -2.58738 0 28 -2.58738 0
gene 1 15 27 -1.70429 0 29 -1.70429 1
gene 1 15 28 0.501984 0 30 0.501984 0
gene 1 16 27 2.20378 0 31 2.20378 1
gene 1 16 28 -1.12819 0 32 -1.12819 1
gene 1 17 27 4.24802 0 33 4.24802 1
gene 1 17 28 0.728133 0 34 0.728133 1
gene 1 18 27 2.98505 0 35 2.98505 0
gene 1 18 28 0.910176 0 36 0.910176 1
gene 1 19 27 -3.39625 0 37 -3.39625 1
gene 1 19 28 -0.380299 0 38 -0.380299 1
gene 1 20 27 1.96275 0 39 1.96275 1
gene 1 20 28 1.1375 0 40 1.1375 1
gene 1 21 27 6.77206 0 41 6.77206 1
gene 1 21 28 1.58325 0 42 1.58325 1
gene 1 22 27 -0.506111 0 43 -0.506111 1
gene 1 22 28 1.48681 0 44 1.48681 1
gene 1 23 27 -0.180555 0 45 -0.180555 1
gene 1 23 28 -3.88703 0 46 -3.88703 1
gene 1 24 27 1.72374 0 47 1.72374 0
gene 1 24 28 -0.184378 0 48 -0.184378 1
gene 1 25 27 2.32808 0 49 2.32808 1
gene 1 25 28 6.85896 0 50 6.85896 1
gene 1 26 27 -2.36594 0 51 -2.36594 1
gene 1 26 28 -3.92322 0 52 -3.92322 1
gene 1 3 42 -4.34568 0 81 -4.34568 1
gene 1 42 28 0.0104526 0 82 0.0104526 1
gene 1 7 58 -8 0 121 -8 1
gene 1 58 28 1.43515 0 122 1.43515 1
gene 1 19 42 -2.07572 0 365 -2.07572 1
gene 1 15 147 0.136265 0 408 0.136265 1
gene 1 147 28 -1.05983 0 409 -1.05983 1
gene 1 42 27 0.129704 0 523 0.129704 1
gene 1 8 225 2.68639 0 633 2.68639 1
gene 1 225 28 -1.46008 0 634 -1.46008 1
gene 1 58 225 -3.75736 0 731 -3.75736 1
gene 1 20 42 4.23077 0 793 4.23077 1
gene 1 5 147 1.66074 0 897 1.66074 1
gene 1 18 225 -5.26218 0 949 -5.26218 1
gene 1 18 346 -0.884121 0 1003 -0.884121 1
gene 1 346 225 -1.85802 0 1004 -1.85802 1
gene 1 24 388 -1.30634 0 1159 -1.30634 1
gene 1 388 27 -2.86529 0 1160 -2.86529 1
gene 1 18 402 -2.13826 0 1202 -2.13826 1
gene 1 402 27 -0.843837 0 1203 -0.843837 1
gene 1 9 476 0.5056 0 1423 0.5056 1
gene 1 476 27 -3.40832 0 1424 -3.40832 1
genomeend 16

/* Species #56 : (Size 4) (AF 0) (Age 8)  */


/* Organism #17 Fitness: 0.147721 Error: 0 */
genomestart 17
trait 1 0 0.499161 0 0.0352489 0 0 0 0 
node 1 1 1 1
node 2 1 1 1
node 3 1 1 1
node 4 1 1 1
node 5 1 1 1
node 6 1 1 1
node 7 1 1 1
node 8 1 1 1
node 9 1 1 1
node 10 1 1 1
node 11 1 1 1
node 12 1 1 1
node 13 1 1 1
node 14 1 1 1
node 15 1 1 1
node 16 1 1 1
node 17 1 1 1
node 18 1 1 1
node 19 1 1 1
node 20 1 1 1
node 21 1 1 1
node 22 1 1 1
node 23 1 1 1
node 24 1 1 1
node 25 1 1 1
node 26 1 1 3
node 27 1 0 2
node 28 1 0 2
node 36 1 0 0
node 128 1 0 0
node 233 1 0 0
node 325 1 0 0
node 398 1 0 0
node 404 1 0 0
node 477 1 0 0
gene 1 1 27 0.930357 0 1 0.930357 0
gene 1 1 28 0.159413 0 2 0.159413 1
gene 1 2 27 3.57685 0 3 3.57685 1
gene 1 2 28 1.59426 0 4 1.59426 1
gene 1 3 27 2.05846 0 5 2.05846 1
gene 1 3 28 8 0 6 8 1
gene 1 4 27 2.21236 0 7 2.21236 1
gene 1 4 28 2.01033 0 8 2.01033 1
gene 1 5 27 2.39044 0 9 2.39044 1
gene 1 5 28 2.83572 0 10 2.83572 1
gene 1 6 27 -1.2618 0 11 -1.2618 1
gene 1 6 28 2.18688 0 12 2.18688 1
gene 1 7 27 7.34835 0 13 7.34835 1
gene 1 7 28 -1.44993 0 14 -1.44993 1
gene 1 8 27 -2.65152 0 15 -2.65152 1
gene 1 8 28 2.41055 0 16 2.41055 1
gene 1 9 27 -4.39375 0 17 -4.39375 1
gene 1 9 28 -3.53327 0 18 -3.53327 1
gene 1 10 27 -1.84127 0 19 -1.84127 1
gene 1 10 28 -0.473556 0 20 -0.473556 1
gene 1 11 27 -2.72477 0 21 -2.72477 1
gene 1 11 28 -1.17328 0 22 -1.17328 1
gene 1 12 27 3.87494 0 23 3.87494 1
gene 1 12 28 -3.10999 0 24 -3.10999 1
gene 1 13 27 -1.90759 0 25 -1.90759 1
gene 1 13 28 0.556444 0 26 0.556444 1
gene 1 14 27 8 0 27 8 1
gene 1 14 28 3.7405 0 28 3.7405 1
gene 1 15 27 -1.72315 0 29 -1.72315 0
gene 1 15 28 -3.55544 0 30 -3.55544 1
gene 1 16 27 -0.0922422 0 31 -0.0922422 1
gene 1 16 28 -3.00323 0 32 -3.00323 1
gene 1 17 27 -0.280313 0 33 -0.280313 1
gene 1 17 28 2.45796 0 34 2.45796 1
gene 1 18 27 4.97575 0 35 4.97575 0
gene 1 18 28 -0.784707 0 36 -0.784707 1
gene 1 19 27 2.99725 0 37 2.99725 1
gene 1 19 28 -2.156 0 38 -2.156 0
gene 1 20 27 2.92372 0 39 2.92372 1
gene 1 20 28 3.13913 0 40 3.13913 1
gene 1 21 27 2.84567 0 41 2.84567 1
gene 1 21 28 3.36818 0 42 3.36818 1
gene 1 22 27 0.59798 0 43 0.59798 1
gene 1 22 28 0.886929 0 44 0.886929 1
gene 1 23 27 -0.44142 0 45 -0.44142 1
gene 1 23 28 -1.99324 0 46 -1.99324 1
gene 1 24 27 1.77099 0 47 1.77099 1
gene 1 24 28 -0.951827 0 48 -0.951827 1
gene 1 25 27 0.488372 0 49 0.488372 1
gene 1 25 28 0.884579 0 50 0.884579 1
gene 1 26 27 -0.394757 0 51 -0.394757 1
gene 1 26 28 0.639973 0 52 0.639973 1
gene 1 19 36 0.436567 0 69 0.436567 1
gene 1 36 28 -2.72684 0 70 -2.72684 1
gene 1 21 36 -1.97165 0 107 -1.97165 1
gene 1 18 128 2.42912 0 344 2.42912 0
gene 1 128 27 2.1189 0 345 2.1189 1
gene 1 3 36 0.929853 0 403 0.929853 1
gene 1 5 36 -4.13396 0 512 -4.13396 1
gene 1 1 233 3.1498 0 662 3.1498 1
gene 1 233 27 2.01369 0 663 2.01369 0
gene 1 16 36 0.917295 0 775 0.917295 1
gene 1 21 325 1 0 933 0 1
gene 1 325 36 -1.97165 0 934 0 1
gene 1 19 128 -0.298563 0 984 -0.298563 1
gene 1 2 128 -0.749687 0 1030 -0.749687 1
gene 1 11 36 0.747612 0 1118 0.747612 1
gene 1 18 398 1 0 1189 0 1
gene 1 398 128 2.42912 0 1190 0 1
gene 1 15 404 1 0 1209 0 1
gene 1 404 27 -1.72315 0 1210 0 1
gene 1 233 477 1 0 1425 0 1
gene 1 477 27 2.01369 0 1426 0 1
gene 1 233 28 0.126164 0 1471 0.126164 1
gene 1 14 404 -0.439283 0 1525 -0.439283 1
gene 1 15 325 -0.271432 0 1590 -0.271432 1
genomeend 17

/* Organism #18 Fitness: 0.147721 Error: 0 */
genomestart 18
trait 1 0 0.499161 0 0.0352489 0 0 0 0 
node 1 1 1 1
node 2 1 1 1
node 3 1 1 1
node 4 1 1 1
node 5 1 1 1
node 6 1 1 1
node 7 1 1 1
node 8 1 1 1
node 9 1 1 1
node 10 1 1 1
node 11 1 1 1
node 12 1 1 1
node 13 1 1 1
node 14 1 1 1
node 15 1 1 1
node 16 1 1 1
node 17 1 1 1
node 18 1 1 1
node 19 1 1 1
node 20 1 1 1
node 21 1 1 1
node 22 1 1 1
node 23 1 1 1
node 24 1 1 1
node 25 1 1 1
node 26 1 1 3
node 27 1 0 2
node 28 1 0 2
node 36 1 0 0
node 128 1 0 0
node 233 1 0 0
node 325 1 0 0
node 398 1 0 0
node 404 1 0 0
node 477 1 0 0
node 528 1 0 0
gene 1 1 27 0.930357 0 1 0.930357 0
gene 1 1 28 0.159413 0 2 0.159413 1
gene 1 2 27 3.57685 0 3 3.57685 1
gene 1 2 28 1.59426 0 4 1.59426 1
gene 1 3 27 2.05846 0 5 2.05846 1
gene 1 3 28 8 0 6 8 1
gene 1 4 27 2.21236 0 7 2.21236 1
gene 1 4 28 2.01033 0 8 2.01033 1
gene 1 5 27 2.39044 0 9 2.39044 1
gene 1 5 28 2.83572 0 10 2.83572 1
gene 1 6 27 -1.2618 0 11 -1.2618 1
gene 1 6 28 2.18688 0 12 2.18688 1
gene 1 7 27 7.34835 0 13 7.34835 1
gene 1 7 28 -1.44993 0 14 -1.44993 1
gene 1 8 27 -2.65152 0 15 -2.65152 1
gene 1 8 28 2.41055 0 16 2.41055 1
gene 1 9 27 -4.39375 0 17 -4.39375 1
gene 1 9 28 -3.53327 0 18 -3.53327 1
gene 1 10 27 -1.84127 0 19 -1.84127 1
gene 1 10 28 -0.473556 0 20 -0.473556 1
gene 1 11 27 -2.72477 0 21 -2.72477 1
gene 1 11 28 -1.17328 0 22 -1.17328 1
gene 1 12 27 3.87494 0 23 3.87494 1
gene 1 12 28 -3.10999 0 24 -3.10999 1
gene 1 13 27 -1.90759 0 25 -1.90759 1
gene 1 13 28 0.556444 0 26 0.556444 1
gene 1 14 27 8 0 27 8 1
gene 1 14 28 3.7405 0 28 3.7405 1
gene 1 15 27 -1.72315 0 29 -1.72315 0
gene 1 15 28 -3.55544 0 30 -3.55544 1
gene 1 16 27 -0.0922422 0 31 -0.0922422 1
gene 1 16 28 -3.00323 0 32 -3.00323 1
gene 1 17 27 -0.280313 0 33 -0.280313 1
gene 1 17 28 2.45796 0 34 2.45796 1
gene 1 18 27 4.97575 0 35 4.97575 0
gene 1 18 28 -0.784707 0 36 -0.784707 1
gene 1 19 27 2.99725 0 37 2.99725 1
gene 1 19 28 -2.156 0 38 -2.156 0
gene 1 20 27 2.92372 0 39 2.92372 1
gene 1 20 28 3.13913 0 40 3.13913 1
gene 1 21 27 2.84567 0 41 2.84567 1
gene 1 21 28 3.36818 0 42 3.36818 1
gene 1 22 27 0.59798 0 43 0.59798 0
gene 1 22 28 0.886929 0 44 0.886929 1
gene 1 23 27 -0.44142 0 45 -0.44142 1
gene 1 23 28 -1.99324 0 46 -1.99324 1
gene 1 24 27 1.77099 0 47 1.77099 1
gene 1 24 28 -0.951827 0 48 -0.951827 1
gene 1 25 27 0.488372 0 49 0.488372 1
gene 1 25 28 0.884579 0 50 0.884579 1
gene 1 26 27 -0.394757 0 51 -0.394757 1
gene 1 26 28 0.639973 0 52 0.639973 1
gene 1 19 36 0.436567 0 69 0.436567 1
gene 1 36 28 -2.72684 0 70 -2.72684 1
gene 1 21 36 -1.97165 0 107 -1.97165 1
gene 1 18 128 2.42912 0 344 2.42912 0
gene 1 128 27 2.1189 0 345 2.1189 1
gene 1 3 36 0.929853 0 403 0.929853 1
gene 1 5 36 -4.13396 0 512 -4.13396 1
gene 1 1 233 3.1498 0 662 3.1498 1
gene 1 233 27 2.01369 0 663 2.01369 0
gene 1 16 36 0.917295 0 775 0.917295 1
gene 1 21 325 1 0 933 0 1
gene 1 325 36 -1.97165 0 934 0 1
gene 1 19 128 -0.298563 0 984 -0.298563 1
gene 1 2 128 -0.749687 0 1030 -0.749687 1
gene 1 11 36 0.747612 0 1118 0.747612 1
gene 1 18 398 1 0 1189 0 1
gene 1 398 128 2.42912 0 1190 0 1
gene 1 15 404 1 0 1209 0 1
gene 1 404 27 -1.72315 0 1210 0 1
gene 1 233 477 1 0 1425 0 1
gene 1 477 27 2.01369 0 1426 0 1
gene 1 233 28 0.126164 0 1471 0.126164 1
gene 1 14 404 -0.439283 0 1525 -0.439283 1
gene 1 22 528 1 0 1591 0 1
gene 1 528 27 0.59798 0 1592 0 1
genomeend 18

/* Organism #19 Fitness: 0.147721 Error: 0 */
genomestart 19
trait 1 0 0.499161 0 0.0352489 0 0 0 0 
node 1 1 1 1
node 2 1 1 1
node 3 1 1 1
node 4 1 1 1
node 5 1 1 1
node 6 1 1 1
node 7 1 1 1
node 8 1 1 1
node 9 1 1 1
node 10 1 1 1
node 11 1 1 1
node 12 1 1 1
node 13 1 1 1
node 14 1 1 1
node 15 1 1 1
node 16 1 1 1
node 17 1 1 1
node 18 1 1 1
node 19 1 1 1
node 20 1 1 1
node 21 1 1 1
node 22 1 1 1
node 23 1 1 1
node 24 1 1 1
node 25 1 1 1
node 26 1 1 3
node 27 1 0 2
node 28 1 0 2
node 36 1 0 0
node 128 1 0 0
node 233 1 0 0
node 325 1 0 0
node 398 1 0 0
node 404 1 0 0
node 477 1 0 0
gene 1 1 27 0.930357 0 1 0.930357 0
gene 1 1 28 0.159413 0 2 0.159413 1
gene 1 2 27 3.57685 0 3 3.57685 1
gene 1 2 28 1.59426 0 4 1.59426 1
gene 1 3 27 2.05846 0 5 2.05846 1
gene 1 3 28 8 0 6 8 1
gene 1 4 27 2.21236 0 7 2.21236 1
gene 1 4 28 2.01033 0 8 2.01033 1
gene 1 5 27 2.39044 0 9 2.39044 1
gene 1 5 28 2.83572 0 10 2.83572 1
gene 1 6 27 -1.2618 0 11 -1.2618 1
gene 1 6 28 2.18688 0 12 2.18688 1
gene 1 7 27 7.34835 0 13 7.34835 1
gene 1 7 28 -1.44993 0 14 -1.44993 1
gene 1 8 27 -2.65152 0 15 -2.65152 1
gene 1 8 28 2.41055 0 16 2.41055 1
gene 1 9 27 -4.39375 0 17 -4.39375 1
gene 1 9 28 -3.53327 0 18 -3.53327 1
gene 1 10 27 -1.84127 0 19 -1.84127 1
gene 1 10 28 -0.473556 0 20 -0.473556 1
gene 1 11 27 -2.72477 0 21 -2.72477 1
gene 1 11 28 -1.17328 0 22 -1.17328 1
gene 1 12 27 3.87494 0 23 3.87494 1
gene 1 12 28 -3.10999 0 24 -3.10999 1
gene 1 13 27 -1.90759 0 25 -1.90759 1
gene 1 13 28 0.556444 0 26 0.556444 1
gene 1 14 27 8 0 27 8 1
gene 1 14 28 3.7405 0 28 3.7405 1
gene 1 15 27 -1.72315 0 29 -1.72315 0
gene 1 15 28 -3.55544 0 30 -3.55544 1
gene 1 16 27 -0.0922422 0 31 -0.0922422 1
gene 1 16 28 -3.00323 0 32 -3.00323 1
gene 1 17 27 -0.280313 0 33 -0.280313 1
gene 1 17 28 2.45796 0 34 2.45796 1
gene 1 18 27 4.97575 0 35 4.97575 0
gene 1 18 28 -0.784707 0 36 -0.784707 1
gene 1 19 27 2.99725 0 37 2.99725 1
gene 1 19 28 -2.156 0 38 -2.156 0
gene 1 20 27 2.92372 0 39 2.92372 1
gene 1 20 28 3.13913 0 40 3.13913 1
gene 1 21 27 2.84567 0 41 2.84567 1
gene 1 21 28 3.36818 0 42 3.36818 1
gene 1 22 27 0.59798 0 43 0.59798 1
gene 1 22 28 0.886929 0 44 0.886929 1
gene 1 23 27 -0.44142 0 45 -0.44142 1
gene 1 23 28 -1.99324 0 46 -1.99324 1
gene 1 24 27 1.77099 0 47 1.77099 1
gene 1 24 28 -0.951827 0 48 -0.951827 1
gene 1 25 27 0.488372 0 49 0.488372 1
gene 1 25 28 0.884579 0 50 0.884579 1
gene 1 26 27 -0.394757 0 51 -0.394757 1
gene 1 26 28 0.639973 0 52 0.639973 1
gene 1 19 36 0.436567 0 69 0.436567 1
gene 1 36 28 -2.72684 0 70 -2.72684 1
gene 1 21 36 -1.97165 0 107 -1.97165 1
gene 1 18 128 2.42912 0 344 2.42912 0
gene 1 128 27 2.1189 0 345 2.1189 1
gene 1 3 36 0.929853 0 403 0.929853 1
gene 1 5 36 -4.13396 0 512 -4.13396 1
gene 1 1 233 3.1498 0 662 3.1498 1
gene 1 233 27 2.01369 0 663 2.01369 0
gene 1 16 36 0.917295 0 775 0.917295 1
gene 1 21 325 1 0 933 0 1
gene 1 325 36 -1.97165 0 934 0 1
gene 1 19 128 -0.298563 0 984 -0.298563 1
gene 1 2 128 -0.749687 0 1030 -0.749687 1
gene 1 11 36 0.747612 0 1118 0.747612 1
gene 1 18 398 1 0 1189 0 1
gene 1 398 128 2.42912 0 1190 0 1
gene 1 15 404 1 0 1209 0 1
gene 1 404 27 -1.72315 0 1210 0 1
gene 1 233 477 1 0 1425 0 1
gene 1 477 27 2.01369 0 1426 0 1
gene 1 233 28 0.126164 0 1471 0.126164 1
gene 1 14 404 -0.439283 0 1525 -0.439283 1
genomeend 19

/* Organism #20 Fitness: 0.147721 Error: 0 */
genomestart 20
trait 1 0 0.499161 0 0.0352489 0 0 0 0 
node 1 1 1 1
node 2 1 1 1
node 3 1 1 1
node 4 1 1 1
node 5 1 1 1
node 6 1 1 1
node 7 1 1 1
node 8 1 1 1
node 9 1 1 1
node 10 1 1 1
node 11 1 1 1
node 12 1 1 1
node 13 1 1 1
node 14 1 1 1
node 15 1 1 1
node 16 1 1 1
node 17 1 1 1
node 18 1 1 1
node 19 1 1 1
node 20 1 1 1
node 21 1 1 1
node 22 1 1 1
node 23 1 1 1
node 24 1 1 1
node 25 1 1 1
node 26 1 1 3
node 27 1 0 2
node 28 1 0 2
node 36 1 0 0
node 128 1 0 0
node 233 1 0 0
node 325 1 0 0
node 398 1 0 0
node 404 1 0 0
node 477 1 0 0
gene 1 1 27 0.930357 0 1 0.930357 0
gene 1 1 28 0.159413 0 2 0.159413 1
gene 1 2 27 3.57685 0 3 3.57685 1
gene 1 2 28 1.59426 0 4 1.59426 1
gene 1 3 27 2.05846 0 5 2.05846 1
gene 1 3 28 8 0 6 8 1
gene 1 4 27 2.21236 0 7 2.21236 1
gene 1 4 28 2.01033 0 8 2.01033 1
gene 1 5 27 2.39044 0 9 2.39044 1
gene 1 5 28 2.83572 0 10 2.83572 1
gene 1 6 27 -1.2618 0 11 -1.2618 1
gene 1 6 28 2.18688 0 12 2.18688 1
gene 1 7 27 7.34835 0 13 7.34835 1
gene 1 7 28 -1.44993 0 14 -1.44993 1
gene 1 8 27 -2.65152 0 15 -2.65152 1
gene 1 8 28 2.41055 0 16 2.41055 1
gene 1 9 27 -4.39375 0 17 -4.39375 1
gene 1 9 28 -3.53327 0 18 -3.53327 1
gene 1 10 27 -1.84127 0 19 -1.84127 1
gene 1 10 28 -0.473556 0 20 -0.473556 1
gene 1 11 27 -2.72477 0 21 -2.72477 1
gene 1 11 28 -1.17328 0 22 -1.17328 1
gene 1 12 27 3.87494 0 23 3.87494 1
gene 1 12 28 -3.10999 0 24 -3.10999 1
gene 1 13 27 -1.90759 0 25 -1.90759 1
gene 1 13 28 0.556444 0 26 0.556444 1
gene 1 14 27 8 0 27 8 1
gene 1 14 28 3.7405 0 28 3.7405 1
gene 1 15 27 -1.72315 0 29 -1.72315 0
gene 1 15 28 -3.55544 0 30 -3.55544 1
gene 1 16 27 -0.0922422 0 31 -0.0922422 1
gene 1 16 28 -3.00323 0 32 -3.00323 1
gene 1 17 27 -0.280313 0 33 -0.280313 1
gene 1 17 28 2.45796 0 34 2.45796 1
gene 1 18 27 4.97575 0 35 4.97575 0
gene 1 18 28 -0.784707 0 36 -0.784707 1
gene 1 19 27 2.99725 0 37 2.99725 1
gene 1 19 28 -2.156 0 38 -2.156 0
gene 1 20 27 2.92372 0 39 2.92372 1
gene 1 20 28 3.13913 0 40 3.13913 1
gene 1 21 27 2.84567 0 41 2.84567 1
gene 1 21 28 3.36818 0 42 3.36818 1
gene 1 22 27 0.59798 0 43 0.59798 1
gene 1 22 28 0.886929 0 44 0.886929 1
gene 1 23 27 -0.44142 0 45 -0.44142 1
gene 1 23 28 -1.99324 0 46 -1.99324 1
gene 1 24 27 1.77099 0 47 1.77099 1
gene 1 24 28 -0.951827 0 48 -0.951827 1
gene 1 25 27 0.488372 0 49 0.488372 1
gene 1 25 28 0.884579 0 50 0.884579 1
gene 1 26 27 -0.394757 0 51 -0.394757 1
gene 1 26 28 0.639973 0 52 0.639973 1
gene 1 19 36 0.436567 0 69 0.436567 1
gene 1 36 28 -2.72684 0 70 -2.72684 1
gene 1 21 36 -1.97165 0 107 -1.97165 1
gene 1 18 128 2.42912 0 344 2.42912 0
gene 1 128 27 2.1189 0 345 2.1189 1
gene 1 3 36 0.929853 0 403 0.929853 1
gene 1 5 36 -4.13396 0 512 -4.13396 1
gene 1 1 233 3.1498 0 662 3.1498 1
gene 1 233 27 2.01369 0 663 2.01369 0
gene 1 16 36 0.917295 0 775 0.917295 1
gene 1 21 325 1 0 933 0 1
gene 1 325 36 -1.97165 0 934 0 1
gene 1 19 128 -0.298563 0 984 -0.298563 1
gene 1 2 128 -0.749687 0 1030 -0.749687 1
gene 1 11 36 0.747612 0 1118 0.747612 1
gene 1 18 398 1 0 1189 0 1
gene 1 398 128 2.42912 0 1190 0 1
gene 1 15 404 1 0 1209 0 1
gene 1 404 27 -1.72315 0 1210 0 1
gene 1 233 477 1 0 1425 0 1
gene 1 477 27 2.01369 0 1426 0 1
gene 1 233 28 0.126164 0 1471 0.126164 1
gene 1 14 404 -0.439283 0 1525 -0.439283 1
genomeend 20

/* Species #57 : (Size 3) (AF 0) (Age 8)  */


/* Organism #21 Fitness: 0.147721 Error: 0 */
genomestart 21
trait 1 0 0.499161 0 0.0352489 0 0 0 0 
node 1 1 1 1
node 2 1 1 1
node 3 1 1 1
node 4 1 1 1
node 5 1 1 1
node 6 1 1 1
node 7 1 1 1
node 8 1 1 1
node 9 1 1 1
node 10 1 1 1
node 11 1 1 1
node 12 1 1 1
node 13 1 1 1
node 14 1 1 1
node 15 1 1 1
node 16 1 1 1
node 17 1 1 1
node 18 1 1 1
node 19 1 1 1
node 20 1 1 1
node 21 1 1 1
node 22 1 1 1
node 23 1 1 1
node 24 1 1 1
node 25 1 1 1
node 26 1 1 3
node 27 1 0 2
node 28 1 0 2
node 36 1 0 0
node 128 1 0 0
node 233 1 0 0
node 325 1 0 0
node 386 1 0 0
node 440 1 0 0
node 478 1 0 0
node 490 1 0 0
node 507 1 0 0
node 529 1 0 0
gene 1 1 27 5.12688 0 1 5.12688 0
gene 1 1 28 0.630543 0 2 0.630543 1
gene 1 2 27 3.57685 0 3 3.57685 1
gene 1 2 28 3.58162 0 4 3.58162 1
gene 1 3 27 -0.208441 0 5 -0.208441 1
gene 1 3 28 7.30052 0 6 7.30052 1
gene 1 4 27 2.74316 0 7 2.74316 1
gene 1 4 28 0.439467 0 8 0.439467 1
gene 1 5 27 5.20325 0 9 5.20325 1
gene 1 5 28 6.73057 0 10 6.73057 1
gene 1 6 27 -0.351573 0 11 -0.351573 1
gene 1 6 28 4.20774 0 12 4.20774 1
gene 1 7 27 0.549867 0 13 0.549867 0
gene 1 7 28 3.64643 0 14 3.64643 1
gene 1 8 27 -3.44935 0 15 -3.44935 1
gene 1 8 28 6.49538 0 16 6.49538 1
gene 1 9 27 -1.58673 0 17 -1.58673 1
gene 1 9 28 -5.57739 0 18 -5.57739 1
gene 1 10 27 0.894269 0 19 0.894269 1
gene 1 10 28 -0.0472274 0 20 -0.0472274 1
gene 1 11 27 -2.72477 0 21 -2.72477 1
gene 1 11 28 0.343486 0 22 0.343486 0
gene 1 12 27 4.12961 0 23 4.12961 0
gene 1 12 28 -3.65726 0 24 -3.65726 1
gene 1 13 27 -2.15476 0 25 -2.15476 0
gene 1 13 28 -0.708472 0 26 -0.708472 1
gene 1 14 27 8 0 27 8 1
gene 1 14 28 1.63038 0 28 1.63038 1
gene 1 15 27 -0.222404 0 29 -0.222404 1
gene 1 15 28 -1.633 0 30 -1.633 1
gene 1 16 27 4.09787 0 31 4.09787 1
gene 1 16 28 -6.49852 0 32 -6.49852 1
gene 1 17 27 1.05914 0 33 1.05914 1
gene 1 17 28 1.93121 0 34 1.93121 0
gene 1 18 27 1.67762 0 35 1.67762 0
gene 1 18 28 0.794473 0 36 0.794473 1
gene 1 19 27 2.26603 0 37 2.26603 1
gene 1 19 28 -0.655232 0 38 -0.655232 0
gene 1 20 27 5.13486 0 39 5.13486 1
gene 1 20 28 4.33142 0 40 4.33142 1
gene 1 21 27 0.169759 0 41 0.169759 1
gene 1 21 28 2.97021 0 42 2.97021 1
gene 1 22 27 0.59798 0 43 0.59798 1
gene 1 22 28 3.59003 0 44 3.59003 1
gene 1 23 27 0.748878 0 45 0.748878 1
gene 1 23 28 -2.64542 0 46 -2.64542 1
gene 1 24 27 3.32698 0 47 3.32698 1
gene 1 24 28 -2.10402 0 48 -2.10402 1
gene 1 25 27 0.920896 0 49 0.920896 1
gene 1 25 28 -1.9277 0 50 -1.9277 1
gene 1 26 27 0.781579 0 51 0.781579 1
gene 1 26 28 -1.21593 0 52 -1.21593 1
gene 1 19 36 3.16744 0 69 3.16744 1
gene 1 36 28 -4.36035 0 70 -4.36035 1
gene 1 21 36 -1.85446 0 107 -1.85446 0
gene 1 18 128 -0.559862 0 344 -0.559862 1
gene 1 128 27 0.909604 0 345 0.909604 1
gene 1 3 36 -0.638905 0 403 -0.638905 1
gene 1 5 36 -3.69297 0 512 -3.69297 1
gene 1 1 233 3.1498 0 662 3.1498 1
gene 1 233 27 3.55762 0 663 3.55762 1
gene 1 16 36 2.43216 0 775 2.43216 1
gene 1 21 325 1.22118 0 933 1.22118 1
gene 1 325 36 -1.97165 0 934 -1.97165 1
gene 1 19 128 2.13056 0 984 2.13056 1
gene 1 2 128 1.33831 0 1030 1.33831 1
gene 1 11 36 -0.22898 0 1118 -0.22898 1
gene 1 8 386 1 0 1154 1 1
gene 1 386 27 -0.975753 0 1155 -0.975753 1
gene 1 11 440 1 0 1314 0 1
gene 1 440 28 0.343486 0 1315 0 1
gene 1 14 440 0.769524 0 1366 0.769524 1
gene 1 13 478 1 0 1427 0 1
gene 1 478 27 -2.15476 0 1428 0 1
gene 1 17 490 1 0 1472 0 1
gene 1 490 28 1.93121 0 1473 0 1
gene 1 12 507 1 0 1526 0 1
gene 1 507 27 4.12961 0 1527 0 1
gene 1 7 529 1 0 1593 0 1
gene 1 529 27 0.549867 0 1594 0 1
genomeend 21

/* Organism #22 Fitness: 0.0362929 Error: 0 */
genomestart 22
trait 1 0 0.499161 0 0.0352489 0 0 0 0 
node 1 1 1 1
node 2 1 1 1
node 3 1 1 1
node 4 1 1 1
node 5 1 1 1
node 6 1 1 1
node 7 1 1 1
node 8 1 1 1
node 9 1 1 1
node 10 1 1 1
node 11 1 1 1
node 12 1 1 1
node 13 1 1 1
node 14 1 1 1
node 15 1 1 1
node 16 1 1 1
node 17 1 1 1
node 18 1 1 1
node 19 1 1 1
node 20 1 1 1
node 21 1 1 1
node 22 1 1 1
node 23 1 1 1
node 24 1 1 1
node 25 1 1 1
node 26 1 1 3
node 27 1 0 2
node 28 1 0 2
node 36 1 0 0
node 128 1 0 0
node 233 1 0 0
node 325 1 0 0
node 386 1 0 0
node 440 1 0 0
node 478 1 0 0
node 490 1 0 0
node 507 1 0 0
gene 1 1 27 2.88392 0 1 2.88392 0
gene 1 1 28 -1.41862 0 2 -1.41862 1
gene 1 2 27 2.52518 0 3 2.52518 1
gene 1 2 28 2.83148 0 4 2.83148 1
gene 1 3 27 -1.83035 0 5 -1.83035 1
gene 1 3 28 7.30052 0 6 7.30052 1
gene 1 4 27 1.3358 0 7 1.3358 1
gene 1 4 28 0.448164 0 8 0.448164 1
gene 1 5 27 5.95592 0 9 5.95592 1
gene 1 5 28 -2.41005 0 10 -2.41005 1
gene 1 6 27 0.274361 0 11 0.274361 1
gene 1 6 28 4.87526 0 12 4.87526 1
gene 1 7 27 2.23701 0 13 2.23701 1
gene 1 7 28 1.36418 0 14 1.36418 1
gene 1 8 27 -3.30393 0 15 -3.30393 1
gene 1 8 28 2.10486 0 16 2.10486 1
gene 1 9 27 -3.83885 0 17 -3.83885 1
gene 1 9 28 -6.09964 0 18 -6.09964 1
gene 1 10 27 -1.24866 0 19 -1.24866 1
gene 1 10 28 -1.03496 0 20 -1.03496 1
gene 1 11 27 -4.94728 0 21 -4.94728 1
gene 1 11 28 0.343486 0 22 0.343486 0
gene 1 12 27 4.78195 0 23 4.78195 0
gene 1 12 28 -4.86976 0 24 -4.86976 1
gene 1 13 27 -1.11316 0 25 -1.11316 0
gene 1 13 28 -1.69399 0 26 -1.69399 1
gene 1 14 27 8 0 27 8 1
gene 1 14 28 -0.280618 0 28 -0.280618 1
gene 1 15 27 2.10189 0 29 2.10189 1
gene 1 15 28 -0.584429 0 30 -0.584429 1
gene 1 16 27 -1.48038 0 31 -1.48038 1
gene 1 16 28 -5.10176 0 32 -5.10176 1
gene 1 17 27 1.05914 0 33 1.05914 1
gene 1 17 28 1.85667 0 34 1.85667 0
gene 1 18 27 1.76917 0 35 1.76917 0
gene 1 18 28 0.794473 0 36 0.794473 1
gene 1 19 27 2.47958 0 37 2.47958 1
gene 1 19 28 -0.638829 0 38 -0.638829 0
gene 1 20 27 4.90834 0 39 4.90834 1
gene 1 20 28 1.76908 0 40 1.76908 1
gene 1 21 27 1.49098 0 41 1.49098 1
gene 1 21 28 2.63123 0 42 2.63123 1
gene 1 22 27 -1.87239 0 43 -1.87239 1
gene 1 22 28 4.77804 0 44 4.77804 1
gene 1 23 27 1.62549 0 45 1.62549 1
gene 1 23 28 -2.64542 0 46 -2.64542 1
gene 1 24 27 3.32698 0 47 3.32698 1
gene 1 24 28 -1.90535 0 48 -1.90535 1
gene 1 25 27 -1.00436 0 49 -1.00436 1
gene 1 25 28 -1.41255 0 50 -1.41255 1
gene 1 26 27 0.00618 0 51 0.00618 1
gene 1 26 28 -1.34571 0 52 -1.34571 1
gene 1 19 36 0.907544 0 69 0.907544 1
gene 1 36 28 -1.91231 0 70 -1.91231 1
gene 1 21 36 -2.55097 0 107 -2.55097 0
gene 1 18 128 -1.89665 0 344 -1.89665 1
gene 1 128 27 1.35929 0 345 1.35929 1
gene 1 3 36 0.111774 0 403 0.111774 1
gene 1 5 36 -3.69823 0 512 -3.69823 1
gene 1 1 233 3.47932 0 662 3.47932 1
gene 1 233 27 5.35272 0 663 5.35272 1
gene 1 16 36 4.09076 0 775 4.09076 1
gene 1 21 325 2.44658 0 933 2.44658 1
gene 1 325 36 -1.15986 0 934 -1.15986 1
gene 1 19 128 3.5457 0 984 3.5457 1
gene 1 2 128 0.69628 0 1030 0.69628 1
gene 1 11 36 -0.708411 0 1118 -0.708411 1
gene 1 8 386 2.27361 0 1154 2.27361 1
gene 1 386 27 -2.94015 0 1155 -2.94015 1
gene 1 11 440 2.89314 0 1314 2.89314 1
gene 1 440 28 0.343486 0 1315 0.343486 1
gene 1 14 440 1.34022 0 1366 1.34022 1
gene 1 13 478 0.291665 0 1427 0.291665 1
gene 1 478 27 -2.2383 0 1428 -2.2383 1
gene 1 17 490 2.34167 0 1472 2.34167 1
gene 1 490 28 -1.67936 0 1473 -1.67936 1
gene 1 12 507 2.19442 0 1526 2.19442 1
gene 1 507 27 -0.564364 0 1527 -0.564364 1
genomeend 22

/* Organism #23 Fitness: 0.0362929 Error: 0 */
genomestart 23
trait 1 0 0.499161 0 0.0352489 0 0 0 0 
node 1 1 1 1
node 2 1 1 1
node 3 1 1 1
node 4 1 1 1
node 5 1 1 1
node 6 1 1 1
node 7 1 1 1
node 8 1 1 1
node 9 1 1 1
node 10 1 1 1
node 11 1 1 1
node 12 1 1 1
node 13 1 1 1
node 14 1 1 1
node 15 1 1 1
node 16 1 1 1
node 17 1 1 1
node 18 1 1 1
node 19 1 1 1
node 20 1 1 1
node 21 1 1 1
node 22 1 1 1
node 23 1 1 1
node 24 1 1 1
node 25 1 1 1
node 26 1 1 3
node 27 1 0 2
node 28 1 0 2
node 36 1 0 0
node 128 1 0 0
node 233 1 0 0
node 325 1 0 0
node 386 1 0 0
node 440 1 0 0
node 478 1 0 0
node 490 1 0 0
node 507 1 0 0
node 530 1 0 0
gene 1 1 27 5.12688 0 1 5.12688 0
gene 1 1 28 0.630543 0 2 0.630543 1
gene 1 2 27 3.57685 0 3 3.57685 1
gene 1 2 28 3.58162 0 4 3.58162 1
gene 1 3 27 -0.208441 0 5 -0.208441 1
gene 1 3 28 7.30052 0 6 7.30052 1
gene 1 4 27 2.74316 0 7 2.74316 1
gene 1 4 28 0.439467 0 8 0.439467 1
gene 1 5 27 5.20325 0 9 5.20325 1
gene 1 5 28 6.73057 0 10 6.73057 1
gene 1 6 27 -0.351573 0 11 -0.351573 1
gene 1 6 28 4.20774 0 12 4.20774 1
gene 1 7 27 0.549867 0 13 0.549867 1
gene 1 7 28 3.64643 0 14 3.64643 1
gene 1 8 27 -3.44935 0 15 -3.44935 1
gene 1 8 28 6.49538 0 16 6.49538 1
gene 1 9 27 -1.58673 0 17 -1.58673 1
gene 1 9 28 -5.57739 0 18 -5.57739 1
gene 1 10 27 0.894269 0 19 0.894269 1
gene 1 10 28 -0.0472274 0 20 -0.0472274 1
gene 1 11 27 -2.72477 0 21 -2.72477 1
gene 1 11 28 0.343486 0 22 0.343486 0
gene 1 12 27 4.12961 0 23 4.12961 0
gene 1 12 28 -3.65726 0 24 -3.65726 1
gene 1 13 27 -2.15476 0 25 -2.15476 0
gene 1 13 28 -0.708472 0 26 -0.708472 1
gene 1 14 27 8 0 27 8 1
gene 1 14 28 1.63038 0 28 1.63038 1
gene 1 15 27 -0.222404 0 29 -0.222404 1
gene 1 15 28 -1.633 0 30 -1.633 1
gene 1 16 27 4.09787 0 31 4.09787 1
gene 1 16 28 -6.49852 0 32 -6.49852 1
gene 1 17 27 1.05914 0 33 1.05914 1
gene 1 17 28 1.93121 0 34 1.93121 0
gene 1 18 27 1.67762 0 35 1.67762 0
gene 1 18 28 0.794473 0 36 0.794473 1
gene 1 19 27 2.26603 0 37 2.26603 1
gene 1 19 28 -0.655232 0 38 -0.655232 0
gene 1 20 27 5.13486 0 39 5.13486 1
gene 1 20 28 4.33142 0 40 4.33142 1
gene 1 21 27 0.169759 0 41 0.169759 1
gene 1 21 28 2.97021 0 42 2.97021 1
gene 1 22 27 0.59798 0 43 0.59798 1
gene 1 22 28 3.59003 0 44 3.59003 1
gene 1 23 27 0.748878 0 45 0.748878 1
gene 1 23 28 -2.64542 0 46 -2.64542 1
gene 1 24 27 3.32698 0 47 3.32698 1
gene 1 24 28 -2.10402 0 48 -2.10402 0
gene 1 25 27 0.920896 0 49 0.920896 1
gene 1 25 28 -1.9277 0 50 -1.9277 1
gene 1 26 27 0.781579 0 51 0.781579 1
gene 1 26 28 -1.21593 0 52 -1.21593 1
gene 1 19 36 3.16744 0 69 3.16744 1
gene 1 36 28 -4.36035 0 70 -4.36035 1
gene 1 21 36 -1.85446 0 107 -1.85446 0
gene 1 18 128 -0.559862 0 344 -0.559862 1
gene 1 128 27 0.909604 0 345 0.909604 1
gene 1 3 36 -0.638905 0 403 -0.638905 1
gene 1 5 36 -3.69297 0 512 -3.69297 1
gene 1 1 233 3.1498 0 662 3.1498 1
gene 1 233 27 3.55762 0 663 3.55762 1
gene 1 16 36 2.43216 0 775 2.43216 1
gene 1 21 325 1.22118 0 933 1.22118 1
gene 1 325 36 -1.97165 0 934 -1.97165 1
gene 1 19 128 2.13056 0 984 2.13056 1
gene 1 2 128 1.33831 0 1030 1.33831 1
gene 1 11 36 -0.22898 0 1118 -0.22898 1
gene 1 8 386 1 0 1154 1 1
gene 1 386 27 -0.975753 0 1155 -0.975753 1
gene 1 11 440 1 0 1314 0 1
gene 1 440 28 0.343486 0 1315 0 1
gene 1 14 440 0.769524 0 1366 0.769524 1
gene 1 13 478 1 0 1427 0 1
gene 1 478 27 -2.15476 0 1428 0 1
gene 1 17 490 1 0 1472 0 1
gene 1 490 28 1.93121 0 1473 0 1
gene 1 12 507 1 0 1526 0 1
gene 1 507 27 4.12961 0 1527 0 1
gene 1 24 530 1 0 1595 0 1
gene 1 530 28 -2.10402 0 1596 0 1
genomeend 23

/* Species #58 : (Size 3) (AF 0) (Age 8)  */


/* Organism #24 Fitness: 0.140071 Error: 0 */
genomestart 24
trait 1 0 0.499161 0 0.0352489 0 0 0 0 
node 1 1 1 1
node 2 1 1 1
node 3 1 1 1
node 4 1 1 1
node 5 1 1 1
node 6 1 1 1
node 7 1 1 1
node 8 1 1 1
node 9 1 1 1
node 10 1 1 1
node 11 1 1 1
node 12 1 1 1
node 13 1 1 1
node 14 1 1 1
node 15 1 1 1
node 16 1 1 1
node 17 1 1 1
node 18 1 1 1
node 19 1 1 1
node 20 1 1 1
node 21 1 1 1
node 22 1 1 1
node 23 1 1 1
node 24 1 1 1
node 25 1 1 1
node 26 1 1 3
node 27 1 0 2
node 28 1 0 2
node 36 1 0 0
node 128 1 0 0
node 233 1 0 0
node 325 1 0 0
node 397 1 0 0
node 459 1 0 0
node 531 1 0 0
gene 1 1 27 2.16834 0 1 2.16834 0
gene 1 1 28 -1.30971 0 2 -1.30971 1
gene 1 2 27 3.8332 0 3 3.8332 1
gene 1 2 28 1.22697 0 4 1.22697 1
gene 1 3 27 -2.09159 0 5 -2.09159 1
gene 1 3 28 8 0 6 8 1
gene 1 4 27 2.43656 0 7 2.43656 1
gene 1 4 28 2.20824 0 8 2.20824 1
gene 1 5 27 -1.75825 0 9 -1.75825 1
gene 1 5 28 2.79669 0 10 2.79669 1
gene 1 6 27 -0.939833 0 11 -0.939833 1
gene 1 6 28 1.86644 0 12 1.86644 1
gene 1 7 27 6.3364 0 13 6.3364 1
gene 1 7 28 -0.971252 0 14 -0.971252 1
gene 1 8 27 0.14832 0 15 0.14832 1
gene 1 8 28 4.69829 0 16 4.69829 1
gene 1 9 27 -4.81044 0 17 -4.81044 1
gene 1 9 28 -2.77782 0 18 -2.77782 1
gene 1 10 27 -0.743812 0 19 -0.743812 0
gene 1 10 28 1.64492 0 20 1.64492 1
gene 1 11 27 -1.8881 0 21 -1.8881 1
gene 1 11 28 2.42485 0 22 2.42485 1
gene 1 12 27 4.34206 0 23 4.34206 1
gene 1 12 28 -1.00642 0 24 -1.00642 0
gene 1 13 27 -1.0953 0 25 -1.0953 1
gene 1 13 28 -0.184126 0 26 -0.184126 1
gene 1 14 27 8 0 27 8 1
gene 1 14 28 5.22973 0 28 5.22973 1
gene 1 15 27 -2.57836 0 29 -2.57836 1
gene 1 15 28 -5.94115 0 30 -5.94115 1
gene 1 16 27 1.15696 0 31 1.15696 1
gene 1 16 28 2.37442 0 32 2.37442 1
gene 1 17 27 1.73643 0 33 1.73643 0
gene 1 17 28 0.360996 0 34 0.360996 1
gene 1 18 27 6.9178 0 35 6.9178 0
gene 1 18 28 1.405 0 36 1.405 1
gene 1 19 27 2.04123 0 37 2.04123 1
gene 1 19 28 -2.49963 0 38 -2.49963 0
gene 1 20 27 2.33116 0 39 2.33116 1
gene 1 20 28 3.88211 0 40 3.88211 1
gene 1 21 27 -1.77412 0 41 -1.77412 1
gene 1 21 28 1.62549 0 42 1.62549 1
gene 1 22 27 1.04656 0 43 1.04656 1
gene 1 22 28 0.232231 0 44 0.232231 1
gene 1 23 27 1.67248 0 45 1.67248 1
gene 1 23 28 -0.480094 0 46 -0.480094 1
gene 1 24 27 1.23192 0 47 1.23192 1
gene 1 24 28 -0.586863 0 48 -0.586863 1
gene 1 25 27 1.35681 0 49 1.35681 1
gene 1 25 28 3.07028 0 50 3.07028 1
gene 1 26 27 -1.50864 0 51 -1.50864 1
gene 1 26 28 -0.587405 0 52 -0.587405 1
gene 1 19 36 0.977737 0 69 0.977737 1
gene 1 36 28 -2.09426 0 70 -2.09426 1
gene 1 21 36 -1.98908 0 107 -1.98908 1
gene 1 18 128 2.61185 0 344 2.61185 1
gene 1 128 27 3.66016 0 345 3.66016 1
gene 1 3 36 1.62369 0 403 1.62369 1
gene 1 5 36 -4.13396 0 512 -4.13396 1
gene 1 1 233 4.94272 0 662 4.94272 1
gene 1 233 27 3.53767 0 663 3.53767 1
gene 1 16 36 2.35209 0 775 2.35209 1
gene 1 21 325 3.4772 0 933 3.4772 1
gene 1 325 36 -2.16662 0 934 -2.16662 1
gene 1 19 128 -1.32482 0 984 -1.32482 1
gene 1 2 128 -1.86361 0 1030 -1.86361 1
gene 1 11 36 1.96171 0 1118 1.96171 1
gene 1 12 397 1 0 1186 1 1
gene 1 397 28 -1.95486 0 1187 -1.95486 1
gene 1 11 128 -0.282846 0 1212 -0.282846 1
gene 1 17 459 -2.04703 0 1371 -2.04703 1
gene 1 459 27 -0.776009 0 1372 -0.776009 1
gene 1 16 325 1.89161 0 1478 1.89161 1
gene 1 10 531 1 0 1597 0 1
gene 1 531 27 -0.743812 0 1598 0 1
genomeend 24

/* Organism #25 Fitness: 0.147036 Error: 0 */
genomestart 25
trait 1 0 0.499161 0 0.0352489 0 0 0 0 
node 1 1 1 1
node 2 1 1 1
node 3 1 1 1
node 4 1 1 1
node 5 1 1 1
node 6 1 1 1
node 7 1 1 1
node 8 1 1 1
node 9 1 1 1
node 10 1 1 1
node 11 1 1 1
node 12 1 1 1
node 13 1 1 1
node 14 1 1 1
node 15 1 1 1
node 16 1 1 1
node 17 1 1 1
node 18 1 1 1
node 19 1 1 1
node 20 1 1 1
node 21 1 1 1
node 22 1 1 1
node 23 1 1 1
node 24 1 1 1
node 25 1 1 1
node 26 1 1 3
node 27 1 0 2
node 28 1 0 2
node 36 1 0 0
node 128 1 0 0
node 233 1 0 0
node 325 1 0 0
node 397 1 0 0
node 459 1 0 0
gene 1 1 27 2.16834 0 1 2.16834 0
gene 1 1 28 -1.30971 0 2 -1.30971 1
gene 1 2 27 3.8332 0 3 3.8332 1
gene 1 2 28 1.22697 0 4 1.22697 1
gene 1 3 27 -2.09159 0 5 -2.09159 1
gene 1 3 28 8 0 6 8 1
gene 1 4 27 2.43656 0 7 2.43656 1
gene 1 4 28 2.20824 0 8 2.20824 1
gene 1 5 27 -1.75825 0 9 -1.75825 1
gene 1 5 28 2.79669 0 10 2.79669 1
gene 1 6 27 -0.939833 0 11 -0.939833 1
gene 1 6 28 1.86644 0 12 1.86644 1
gene 1 7 27 6.3364 0 13 6.3364 1
gene 1 7 28 -0.971252 0 14 -0.971252 1
gene 1 8 27 0.14832 0 15 0.14832 1
gene 1 8 28 4.69829 0 16 4.69829 1
gene 1 9 27 -4.81044 0 17 -4.81044 1
gene 1 9 28 -2.77782 0 18 -2.77782 1
gene 1 10 27 -0.743812 0 19 -0.743812 1
gene 1 10 28 1.64492 0 20 1.64492 1
gene 1 11 27 -1.8881 0 21 -1.8881 1
gene 1 11 28 2.42485 0 22 2.42485 1
gene 1 12 27 4.34206 0 23 4.34206 1
gene 1 12 28 -1.00642 0 24 -1.00642 0
gene 1 13 27 -1.0953 0 25 -1.0953 1
gene 1 13 28 -0.184126 0 26 -0.184126 1
gene 1 14 27 8 0 27 8 1
gene 1 14 28 5.22973 0 28 5.22973 1
gene 1 15 27 -2.57836 0 29 -2.57836 1
gene 1 15 28 -5.94115 0 30 -5.94115 1
gene 1 16 27 1.15696 0 31 1.15696 1
gene 1 16 28 2.37442 0 32 2.37442 1
gene 1 17 27 1.73643 0 33 1.73643 0
gene 1 17 28 0.360996 0 34 0.360996 1
gene 1 18 27 6.9178 0 35 6.9178 0
gene 1 18 28 1.405 0 36 1.405 1
gene 1 19 27 2.04123 0 37 2.04123 1
gene 1 19 28 -2.49963 0 38 -2.49963 0
gene 1 20 27 2.33116 0 39 2.33116 1
gene 1 20 28 3.88211 0 40 3.88211 1
gene 1 21 27 -1.77412 0 41 -1.77412 1
gene 1 21 28 1.62549 0 42 1.62549 1
gene 1 22 27 1.04656 0 43 1.04656 1
gene 1 22 28 0.232231 0 44 0.232231 1
gene 1 23 27 1.67248 0 45 1.67248 1
gene 1 23 28 -0.480094 0 46 -0.480094 1
gene 1 24 27 1.23192 0 47 1.23192 1
gene 1 24 28 -0.586863 0 48 -0.586863 1
gene 1 25 27 1.35681 0 49 1.35681 1
gene 1 25 28 3.07028 0 50 3.07028 1
gene 1 26 27 -1.50864 0 51 -1.50864 1
gene 1 26 28 -0.587405 0 52 -0.587405 1
gene 1 19 36 0.977737 0 69 0.977737 1
gene 1 36 28 -2.09426 0 70 -2.09426 1
gene 1 21 36 -1.98908 0 107 -1.98908 1
gene 1 18 128 2.61185 0 344 2.61185 1
gene 1 128 27 3.66016 0 345 3.66016 1
gene 1 3 36 1.62369 0 403 1.62369 1
gene 1 5 36 -4.13396 0 512 -4.13396 1
gene 1 1 233 4.94272 0 662 4.94272 1
gene 1 233 27 3.53767 0 663 3.53767 1
gene 1 16 36 2.35209 0 775 2.35209 1
gene 1 21 325 3.4772 0 933 3.4772 1
gene 1 325 36 -2.16662 0 934 -2.16662 1
gene 1 19 128 -1.32482 0 984 -1.32482 1
gene 1 2 128 -1.86361 0 1030 -1.86361 1
gene 1 11 36 1.96171 0 1118 1.96171 1
gene 1 12 397 1 0 1186 1 1
gene 1 397 28 -1.95486 0 1187 -1.95486 1
gene 1 11 128 -0.282846 0 1212 -0.282846 1
gene 1 17 459 -2.04703 0 1371 -2.04703 1
gene 1 459 27 -0.776009 0 1372 -0.776009 1
gene 1 16 325 1.89161 0 1478 1.89161 1
gene 1 11 233 -0.32255 0 1599 -0.32255 1
genomeend 25

/* Organism #26 Fitness: 0.145429 Error: 0 */
genomestart 26
trait 1 0 0.499161 0 0.0352489 0 0 0 0 
node 1 1 1 1
node 2 1 1 1
node 3 1 1 1
node 4 1 1 1
node 5 1 1 1
node 6 1 1 1
node 7 1 1 1
node 8 1 1 1
node 9 1 1 1
node 10 1 1 1
node 11 1 1 1
node 12 1 1 1
node 13 1 1 1
node 14 1 1 1
node 15 1 1 1
node 16 1 1 1
node 17 1 1 1
node 18 1 1 1
node 19 1 1 1
node 20 1 1 1
node 21 1 1 1
node 22 1 1 1
node 23 1 1 1
node 24 1 1 1
node 25 1 1 1
node 26 1 1 3
node 27 1 0 2
node 28 1 0 2
node 36 1 0 0
node 128 1 0 0
node 233 1 0 0
node 325 1 0 0
node 397 1 0 0
node 459 1 0 0
gene 1 1 27 2.44888 0 1 2.44888 0
gene 1 1 28 -1.16368 0 2 -1.16368 1
gene 1 2 27 4.58129 0 3 4.58129 1
gene 1 2 28 -1.2875 0 4 -1.2875 1
gene 1 3 27 1.49022 0 5 1.49022 1
gene 1 3 28 8 0 6 8 1
gene 1 4 27 -1.09798 0 7 -1.09798 1
gene 1 4 28 -1.46916 0 8 -1.46916 1
gene 1 5 27 -1.75825 0 9 -1.75825 1
gene 1 5 28 -0.333262 0 10 -0.333262 1
gene 1 6 27 1.2727 0 11 1.2727 1
gene 1 6 28 0.324335 0 12 0.324335 1
gene 1 7 27 4.43624 0 13 4.43624 1
gene 1 7 28 1.02313 0 14 1.02313 1
gene 1 8 27 0.886563 0 15 0.886563 1
gene 1 8 28 4.69829 0 16 4.69829 1
gene 1 9 27 -2.38498 0 17 -2.38498 1
gene 1 9 28 2.18116 0 18 2.18116 1
gene 1 10 27 -0.968429 0 19 -0.968429 1
gene 1 10 28 1.50401 0 20 1.50401 1
gene 1 11 27 -1.8881 0 21 -1.8881 1
gene 1 11 28 1.51814 0 22 1.51814 1
gene 1 12 27 6.00021 0 23 6.00021 1
gene 1 12 28 -0.471435 0 24 -0.471435 0
gene 1 13 27 0.768761 0 25 0.768761 1
gene 1 13 28 -1.19778 0 26 -1.19778 1
gene 1 14 27 6.41029 0 27 6.41029 1
gene 1 14 28 5.22973 0 28 5.22973 1
gene 1 15 27 -4.3981 0 29 -4.3981 1
gene 1 15 28 -6.4888 0 30 -6.4888 1
gene 1 16 27 2.19932 0 31 2.19932 1
gene 1 16 28 3.17705 0 32 3.17705 1
gene 1 17 27 -0.492264 0 33 -0.492264 0
gene 1 17 28 2.28725 0 34 2.28725 1
gene 1 18 27 0.640736 0 35 0.640736 0
gene 1 18 28 -0.240867 0 36 -0.240867 1
gene 1 19 27 0.654622 0 37 0.654622 1
gene 1 19 28 -1.04611 0 38 -1.04611 0
gene 1 20 27 2.72446 0 39 2.72446 1
gene 1 20 28 1.58368 0 40 1.58368 1
gene 1 21 27 -2.96999 0 41 -2.96999 1
gene 1 21 28 0.526749 0 42 0.526749 1
gene 1 22 27 2.25624 0 43 2.25624 1
gene 1 22 28 2.04625 0 44 2.04625 1
gene 1 23 27 3.08969 0 45 3.08969 1
gene 1 23 28 0.532434 0 46 0.532434 1
gene 1 24 27 2.68445 0 47 2.68445 1
gene 1 24 28 -3.05238 0 48 -3.05238 1
gene 1 25 27 2.36354 0 49 2.36354 1
gene 1 25 28 0.717299 0 50 0.717299 1
gene 1 26 27 0.606288 0 51 0.606288 1
gene 1 26 28 -0.338603 0 52 -0.338603 1
gene 1 19 36 1.96272 0 69 1.96272 1
gene 1 36 28 -2.3075 0 70 -2.3075 1
gene 1 21 36 -1.41671 0 107 -1.41671 1
gene 1 18 128 0.137867 0 344 0.137867 1
gene 1 128 27 1.52341 0 345 1.52341 1
gene 1 3 36 1.63567 0 403 1.63567 1
gene 1 5 36 -4.99779 0 512 -4.99779 1
gene 1 1 233 -0.0746941 0 662 -0.0746941 1
gene 1 233 27 -0.0888852 0 663 -0.0888852 1
gene 1 16 36 4.30696 0 775 4.30696 1
gene 1 21 325 2.43041 0 933 2.43041 1
gene 1 325 36 -2.16662 0 934 -2.16662 1
gene 1 19 128 -2.03079 0 984 -2.03079 1
gene 1 2 128 0.0622578 0 1030 0.0622578 1
gene 1 11 36 3.88682 0 1118 3.88682 1
gene 1 12 397 1 0 1186 1 1
gene 1 397 28 -2.67922 0 1187 -2.67922 1
gene 1 11 128 -0.282846 0 1212 -0.282846 1
gene 1 17 459 -1.85125 0 1371 -1.85125 1
gene 1 459 27 2.18314 0 1372 2.18314 1
gene 1 16 325 1.89161 0 1478 1.89161 1
genomeend 26

/* Species #59 : (Size 3) (AF 0) (Age 8)  */


/* Organism #27 Fitness: 0.147721 Error: 0 */
genomestart 27
trait 1 0 0.499161 0 0.0352489 0 0 0 0 
node 1 1 1 1
node 2 1 1 1
node 3 1 1 1
node 4 1 1 1
node 5 1 1 1
node 6 1 1 1
node 7 1 1 1
node 8 1 1 1
node 9 1 1 1
node 10 1 1 1
node 11 1 1 1
node 12 1 1 1
node 13 1 1 1
node 14 1 1 1
node 15 1 1 1
node 16 1 1 1
node 17 1 1 1
node 18 1 1 1
node 19 1 1 1
node 20 1 1 1
node 21 1 1 1
node 22 1 1 1
node 23 1 1 1
node 24 1 1 1
node 25 1 1 1
node 26 1 1 3
node 27 1 0 2
node 28 1 0 2
node 36 1 0 0
node 128 1 0 0
node 233 1 0 0
node 325 1 0 0
node 400 1 0 0
node 532 1 0 0
gene 1 1 27 4.16913 0 1 4.16913 0
gene 1 1 28 1.88953 0 2 1.88953 1
gene 1 2 27 6.59108 0 3 6.59108 1
gene 1 2 28 5.26662 0 4 5.26662 1
gene 1 3 27 1.12711 0 5 1.12711 1
gene 1 3 28 3.06264 0 6 3.06264 1
gene 1 4 27 -0.120853 0 7 -0.120853 1
gene 1 4 28 3.96115 0 8 3.96115 1
gene 1 5 27 6.24416 0 9 6.24416 1
gene 1 5 28 6.13507 0 10 6.13507 1
gene 1 6 27 -0.455115 0 11 -0.455115 1
gene 1 6 28 1.44055 0 12 1.44055 1
gene 1 7 27 8 0 13 8 1
gene 1 7 28 2.06572 0 14 2.06572 1
gene 1 8 27 -2.70409 0 15 -2.70409 1
gene 1 8 28 6.57579 0 16 6.57579 1
gene 1 9 27 -6.74146 0 17 -6.74146 1
gene 1 9 28 -2.55232 0 18 -2.55232 1
gene 1 10 27 -1.8853 0 19 -1.8853 1
gene 1 10 28 -0.84344 0 20 -0.84344 1
gene 1 11 27 -0.236747 0 21 -0.236747 1
gene 1 11 28 1.82321 0 22 1.82321 1
gene 1 12 27 1.23478 0 23 1.23478 1
gene 1 12 28 -6.40996 0 24 -6.40996 1
gene 1 13 27 -0.92066 0 25 -0.92066 1
gene 1 13 28 -1.23928 0 26 -1.23928 1
gene 1 14 27 1.38005 0 27 1.38005 1
gene 1 14 28 -0.227287 0 28 -0.227287 1
gene 1 15 27 -1.56346 0 29 -1.56346 1
gene 1 15 28 -4.42953 0 30 -4.42953 1
gene 1 16 27 5.2028 0 31 5.2028 1
gene 1 16 28 -2.40004 0 32 -2.40004 1
gene 1 17 27 0.31579 0 33 0.31579 1
gene 1 17 28 3.06146 0 34 3.06146 1
gene 1 18 27 0.895001 0 35 0.895001 0
gene 1 18 28 3.17949 0 36 3.17949 1
gene 1 19 27 3.76662 0 37 3.76662 1
gene 1 19 28 0.743873 0 38 0.743873 0
gene 1 20 27 5.78193 0 39 5.78193 1
gene 1 20 28 0.450148 0 40 0.450148 1
gene 1 21 27 -0.543413 0 41 -0.543413 1
gene 1 21 28 4.92073 0 42 4.92073 1
gene 1 22 27 0.486312 0 43 0.486312 1
gene 1 22 28 2.22566 0 44 2.22566 1
gene 1 23 27 0.901975 0 45 0.901975 1
gene 1 23 28 -1.55957 0 46 -1.55957 1
gene 1 24 27 1.87777 0 47 1.87777 1
gene 1 24 28 -1.2139 0 48 -1.2139 1
gene 1 25 27 -0.324412 0 49 -0.324412 1
gene 1 25 28 -1.28239 0 50 -1.28239 1
gene 1 26 27 -2.14736 0 51 -2.14736 1
gene 1 26 28 -0.182196 0 52 -0.182196 1
gene 1 19 36 -0.411313 0 69 -0.411313 0
gene 1 36 28 -2.95047 0 70 -2.95047 1
gene 1 21 36 -2.20107 0 107 -2.20107 1
gene 1 18 128 4.13526 0 344 4.13526 1
gene 1 128 27 0.731452 0 345 0.731452 0
gene 1 3 36 -1.83562 0 403 -1.83562 1
gene 1 5 36 -1.65826 0 512 -1.65826 1
gene 1 1 233 2.01704 0 662 2.01704 1
gene 1 233 27 0.159001 0 663 0.159001 1
gene 1 16 36 2.51769 0 775 2.51769 1
gene 1 21 325 -0.679418 0 933 -0.679418 1
gene 1 325 36 -0.503861 0 934 -0.503861 1
gene 1 19 128 4.11679 0 984 4.11679 1
gene 1 2 128 1.97237 0 1030 1.97237 1
gene 1 11 36 -0.855663 0 1118 -0.855663 1
gene 1 3 400 -2.77323 0 1193 -2.77323 1
