
/* Species #3 : (Size 10) (AF 0) (Age 11)  */


/* Organism #0 Fitness: 0.65788 Error: 0 */
/* ##------$ WINNER 0 SPECIES #3 $------## */
genomestart 0
trait 1 0 0 0 0 0 0 0 0 
node 1 1 1 1
node 2 1 1 1
node 3 1 1 1
node 4 1 1 1
node 5 1 1 1
node 6 1 1 1
node 7 1 1 1
node 8 1 1 1
node 9 1 1 1
node 10 1 1 1
node 11 1 1 1
node 12 1 1 1
node 13 1 1 1
node 14 1 1 1
node 15 1 1 1
node 16 1 1 1
node 17 1 1 1
node 18 1 1 1
node 19 1 1 1
node 20 1 1 1
node 21 1 1 1
node 22 1 1 1
node 23 1 1 1
node 24 1 1 1
node 25 1 1 1
node 26 1 1 3
node 27 1 0 2
node 28 1 0 2
node 29 1 0 2
node 36 1 0 0
gene 1 1 27 2.47703 0 1 2.47703 1
gene 1 1 28 -1.33675 0 2 -1.33675 1
gene 1 1 29 3.20447 0 3 3.20447 1
gene 1 2 27 -0.404195 0 4 -0.404195 1
gene 1 2 28 -1.7561 0 5 -1.7561 1
gene 1 2 29 -3.65868 0 6 -3.65868 1
gene 1 3 27 6.6387 0 7 6.6387 1
gene 1 3 28 2.86452 0 8 2.86452 1
gene 1 3 29 -3.09133 0 9 -3.09133 1
gene 1 4 27 1.61462 0 10 1.61462 1
gene 1 4 28 -3.52702 0 11 -3.52702 1
gene 1 4 29 2.31966 0 12 2.31966 1
gene 1 5 27 -0.906667 0 13 -0.906667 1
gene 1 5 28 4.20876 0 14 4.20876 1
gene 1 5 29 3.36768 0 15 3.36768 1
gene 1 6 27 -0.687918 0 16 -0.687918 1
gene 1 6 28 0.449683 0 17 0.449683 1
gene 1 6 29 -3.69276 0 18 -3.69276 1
gene 1 7 27 -2.12704 0 19 -2.12704 1
gene 1 7 28 1.71058 0 20 1.71058 1
gene 1 7 29 1.36059 0 21 1.36059 1
gene 1 8 27 -1.69131 0 22 -1.69131 1
gene 1 8 28 -1.56188 0 23 -1.56188 1
gene 1 8 29 2.32954 0 24 2.32954 1
gene 1 9 27 2.47731 0 25 2.47731 1
gene 1 9 28 3.86638 0 26 3.86638 1
gene 1 9 29 1.2288 0 27 1.2288 0
gene 1 10 27 -0.973022 0 28 -0.973022 1
gene 1 10 28 4.63993 0 29 4.63993 1
gene 1 10 29 -1.94437 0 30 -1.94437 1
gene 1 11 27 -0.286699 0 31 -0.286699 1
gene 1 11 28 -0.482349 0 32 -0.482349 1
gene 1 11 29 1.16765 0 33 1.16765 1
gene 1 12 27 0.858684 0 34 0.858684 1
gene 1 12 28 3.20996 0 35 3.20996 1
gene 1 12 29 1.56976 0 36 1.56976 1
gene 1 13 27 0.168924 0 37 0.168924 1
gene 1 13 28 -0.124996 0 38 -0.124996 1
gene 1 13 29 -0.783437 0 39 -0.783437 1
gene 1 14 27 1.41081 0 40 1.41081 1
gene 1 14 28 2.63052 0 41 2.63052 1
gene 1 14 29 3.3204 0 42 3.3204 1
gene 1 15 27 2.02155 0 43 2.02155 1
gene 1 15 28 0.990804 0 44 0.990804 1
gene 1 15 29 -0.649445 0 45 -0.649445 1
gene 1 16 27 3.85602 0 46 3.85602 1
gene 1 16 28 -2.32846 0 47 -2.32846 1
gene 1 16 29 -0.471778 0 48 -0.471778 1
gene 1 17 27 7.13877 0 49 7.13877 1
gene 1 17 28 -2.31111 0 50 -2.31111 1
gene 1 17 29 6.62594 0 51 6.62594 1
gene 1 18 27 -1.48701 0 52 -1.48701 1
gene 1 18 28 -0.996828 0 53 -0.996828 1
gene 1 18 29 -1.44195 0 54 -1.44195 1
gene 1 19 27 -2.93043 0 55 -2.93043 1
gene 1 19 28 -3.7358 0 56 -3.7358 1
gene 1 19 29 -1.49266 0 57 -1.49266 1
gene 1 20 27 -1.78607 0 58 -1.78607 1
gene 1 20 28 3.5444 0 59 3.5444 1
gene 1 20 29 1.39985 0 60 1.39985 1
gene 1 21 27 0.0343638 0 61 0.0343638 1
gene 1 21 28 1.97364 0 62 1.97364 1
gene 1 21 29 2.67379 0 63 2.67379 1
gene 1 22 27 1.48567 0 64 1.48567 1
gene 1 22 28 0.394196 0 65 0.394196 1
gene 1 22 29 -0.219214 0 66 -0.219214 1
gene 1 23 27 0.51854 0 67 0.51854 1
gene 1 23 28 1.25544 0 68 1.25544 1
gene 1 23 29 -0.140843 0 69 -0.140843 1
gene 1 24 27 2.96149 0 70 2.96149 1
gene 1 24 28 -0.0491272 0 71 -0.0491272 1
gene 1 24 29 -1.46687 0 72 -1.46687 1
gene 1 25 27 2.39669 0 73 2.39669 1
gene 1 25 28 0.988489 0 74 0.988489 1
gene 1 25 29 -0.835494 0 75 -0.835494 1
gene 1 26 27 2.94356 0 76 2.94356 1
gene 1 26 28 0.0494781 0 77 0.0494781 1
gene 1 26 29 0.52707 0 78 0.52707 1
gene 1 27 29 -2.05004 0 84 -2.05004 1
gene 1 27 28 -0.26586 0 88 -0.26586 1
gene 1 9 36 -0.443442 0 98 -0.443442 1
gene 1 36 29 1.61665 0 99 1.61665 1
gene 1 26 36 0.206427 0 166 0.206427 1
genomeend 0

/* Organism #1 Fitness: 0.0775429 Error: 0 */
genomestart 1
trait 1 0 0 0 0 0 0 0 0 
node 1 1 1 1
node 2 1 1 1
node 3 1 1 1
node 4 1 1 1
node 5 1 1 1
node 6 1 1 1
node 7 1 1 1
node 8 1 1 1
node 9 1 1 1
node 10 1 1 1
node 11 1 1 1
node 12 1 1 1
node 13 1 1 1
node 14 1 1 1
node 15 1 1 1
node 16 1 1 1
node 17 1 1 1
node 18 1 1 1
node 19 1 1 1
node 20 1 1 1
node 21 1 1 1
node 22 1 1 1
node 23 1 1 1
node 24 1 1 1
node 25 1 1 1
node 26 1 1 3
node 27 1 0 2
node 28 1 0 2
node 29 1 0 2
node 36 1 0 0
gene 1 1 27 4.50562 0 1 4.50562 1
gene 1 1 28 0.970378 0 2 0.970378 1
gene 1 1 29 3.39668 0 3 3.39668 1
gene 1 2 27 -0.485174 0 4 -0.485174 1
gene 1 2 28 -3.4237 0 5 -3.4237 1
gene 1 2 29 -4.39318 0 6 -4.39318 1
gene 1 3 27 7.61766 0 7 7.61766 1
gene 1 3 28 4.5172 0 8 4.5172 1
gene 1 3 29 -0.816332 0 9 -0.816332 1
gene 1 4 27 1.92164 0 10 1.92164 1
gene 1 4 28 -1.35932 0 11 -1.35932 1
gene 1 4 29 2.3942 0 12 2.3942 1
gene 1 5 27 -0.456366 0 13 -0.456366 1
gene 1 5 28 3.91594 0 14 3.91594 1
gene 1 5 29 1.20911 0 15 1.20911 1
gene 1 6 27 -1.86738 0 16 -1.86738 1
gene 1 6 28 2.27858 0 17 2.27858 1
gene 1 6 29 -1.72591 0 18 -1.72591 1
gene 1 7 27 -4.05794 0 19 -4.05794 1
gene 1 7 28 3.64942 0 20 3.64942 1
gene 1 7 29 2.67807 0 21 2.67807 1
gene 1 8 27 -4.14095 0 22 -4.14095 1
gene 1 8 28 -1.48344 0 23 -1.48344 1
gene 1 8 29 0.217887 0 24 0.217887 1
gene 1 9 27 3.43384 0 25 3.43384 1
gene 1 9 28 4.33293 0 26 4.33293 1
gene 1 9 29 -1.09702 0 27 -1.09702 0
gene 1 10 27 0.977035 0 28 0.977035 1
gene 1 10 28 4.21906 0 29 4.21906 1
gene 1 10 29 -3.15847 0 30 -3.15847 1
gene 1 11 27 -2.28673 0 31 -2.28673 1
gene 1 11 28 -0.470523 0 32 -0.470523 1
gene 1 11 29 2.5596 0 33 2.5596 1
gene 1 12 27 0.951727 0 34 0.951727 1
gene 1 12 28 2.8667 0 35 2.8667 1
gene 1 12 29 2.47671 0 36 2.47671 1
gene 1 13 27 2.41959 0 37 2.41959 1
gene 1 13 28 -1.11143 0 38 -1.11143 1
gene 1 13 29 -3.1127 0 39 -3.1127 1
gene 1 14 27 0.470454 0 40 0.470454 1
gene 1 14 28 4.00571 0 41 4.00571 1
gene 1 14 29 4.37306 0 42 4.37306 1
gene 1 15 27 -0.177389 0 43 -0.177389 1
gene 1 15 28 0.727353 0 44 0.727353 1
gene 1 15 29 -2.21535 0 45 -2.21535 1
gene 1 16 27 5.4133 0 46 5.4133 1
gene 1 16 28 -2.23172 0 47 -2.23172 1
gene 1 16 29 0.687153 0 48 0.687153 1
gene 1 17 27 5.81373 0 49 5.81373 1
gene 1 17 28 -1.62791 0 50 -1.62791 1
gene 1 17 29 8 0 51 8 1
gene 1 18 27 -2.95426 0 52 -2.95426 1
gene 1 18 28 -2.51093 0 53 -2.51093 1
gene 1 18 29 -0.834099 0 54 -0.834099 1
gene 1 19 27 -4.42821 0 55 -4.42821 1
gene 1 19 28 -4.31169 0 56 -4.31169 1
gene 1 19 29 -3.98663 0 57 -3.98663 1
gene 1 20 27 -1.39551 0 58 -1.39551 1
gene 1 20 28 4.10174 0 59 4.10174 1
gene 1 20 29 3.02115 0 60 3.02115 1
gene 1 21 27 1.55598 0 61 1.55598 1
gene 1 21 28 3.1837 0 62 3.1837 1
gene 1 21 29 5.02593 0 63 5.02593 1
gene 1 22 27 1.7314 0 64 1.7314 1
gene 1 22 28 1.28364 0 65 1.28364 1
gene 1 22 29 -0.889325 0 66 -0.889325 1
gene 1 23 27 0.712943 0 67 0.712943 1
gene 1 23 28 1.25544 0 68 1.25544 1
gene 1 23 29 -0.639592 0 69 -0.639592 1
gene 1 24 27 3.90513 0 70 3.90513 1
gene 1 24 28 -0.0491272 0 71 -0.0491272 1
gene 1 24 29 -0.957156 0 72 -0.957156 1
gene 1 25 27 -1.16329 0 73 -1.16329 1
gene 1 25 28 3.45118 0 74 3.45118 1
gene 1 25 29 -2.05448 0 75 -2.05448 1
gene 1 26 27 2.94356 0 76 2.94356 1
gene 1 26 28 2.11582 0 77 2.11582 1
gene 1 26 29 0.971862 0 78 0.971862 1
gene 1 27 29 -0.670141 0 84 -0.670141 1
gene 1 27 28 -0.26586 0 88 -0.26586 1
gene 1 9 36 -0.443442 0 98 -0.443442 1
gene 1 36 29 2.28012 0 99 2.28012 1
gene 1 26 36 -0.712867 0 166 -0.712867 1
genomeend 1

/* Organism #2 Fitness: 0.0575714 Error: 0 */
genomestart 2
trait 1 0 0 0 0 0 0 0 0 
node 1 1 1 1
node 2 1 1 1
node 3 1 1 1
node 4 1 1 1
node 5 1 1 1
node 6 1 1 1
node 7 1 1 1
node 8 1 1 1
node 9 1 1 1
node 10 1 1 1
node 11 1 1 1
node 12 1 1 1
node 13 1 1 1
node 14 1 1 1
node 15 1 1 1
node 16 1 1 1
node 17 1 1 1
node 18 1 1 1
node 19 1 1 1
node 20 1 1 1
node 21 1 1 1
node 22 1 1 1
node 23 1 1 1
node 24 1 1 1
node 25 1 1 1
node 26 1 1 3
node 27 1 0 2
node 28 1 0 2
node 29 1 0 2
node 36 1 0 0
gene 1 1 27 1.94212 0 1 1.94212 1
gene 1 1 28 -0.332915 0 2 -0.332915 1
gene 1 1 29 5.16391 0 3 5.16391 1
gene 1 2 27 -0.996635 0 4 -0.996635 1
gene 1 2 28 -3.03162 0 5 -3.03162 1
gene 1 2 29 -2.52987 0 6 -2.52987 1
gene 1 3 27 8 0 7 8 1
gene 1 3 28 1.8436 0 8 1.8436 1
gene 1 3 29 -2.02189 0 9 -2.02189 1
gene 1 4 27 1.99343 0 10 1.99343 1
gene 1 4 28 -1.94288 0 11 -1.94288 1
gene 1 4 29 1.41257 0 12 1.41257 1
gene 1 5 27 -3.25606 0 13 -3.25606 1
gene 1 5 28 3.09896 0 14 3.09896 1
gene 1 5 29 4.98326 0 15 4.98326 1
gene 1 6 27 1.12046 0 16 1.12046 1
gene 1 6 28 2.02589 0 17 2.02589 1
gene 1 6 29 -1.72141 0 18 -1.72141 1
gene 1 7 27 -1.52262 0 19 -1.52262 1
gene 1 7 28 4.06783 0 20 4.06783 1
gene 1 7 29 2.16231 0 21 2.16231 1
gene 1 8 27 -3.66074 0 22 -3.66074 1
gene 1 8 28 -0.702857 0 23 -0.702857 1
gene 1 8 29 4.65352 0 24 4.65352 1
gene 1 9 27 4.20832 0 25 4.20832 1
gene 1 9 28 5.89571 0 26 5.89571 1
gene 1 9 29 1.35072 0 27 1.35072 0
gene 1 10 27 -2.65215 0 28 -2.65215 1
gene 1 10 28 2.35493 0 29 2.35493 1
gene 1 10 29 -3.5018 0 30 -3.5018 1
gene 1 11 27 0.346255 0 31 0.346255 1
gene 1 11 28 -2.63825 0 32 -2.63825 1
gene 1 11 29 1.83052 0 33 1.83052 1
gene 1 12 27 0.86288 0 34 0.86288 1
gene 1 12 28 2.51848 0 35 2.51848 1
gene 1 12 29 0.257237 0 36 0.257237 1
gene 1 13 27 2.07366 0 37 2.07366 1
gene 1 13 28 0.801546 0 38 0.801546 1
gene 1 13 29 -2.00227 0 39 -2.00227 1
gene 1 14 27 3.00601 0 40 3.00601 1
gene 1 14 28 0.676572 0 41 0.676572 1
gene 1 14 29 4.37077 0 42 4.37077 1
gene 1 15 27 4.34256 0 43 4.34256 1
gene 1 15 28 2.89089 0 44 2.89089 1
gene 1 15 29 1.07035 0 45 1.07035 1
gene 1 16 27 5.68896 0 46 5.68896 1
gene 1 16 28 0.0225341 0 47 0.0225341 1
gene 1 16 29 1.1644 0 48 1.1644 1
gene 1 17 27 5.99921 0 49 5.99921 1
gene 1 17 28 -1.28568 0 50 -1.28568 1
gene 1 17 29 4.65452 0 51 4.65452 1
gene 1 18 27 0.800584 0 52 0.800584 1
gene 1 18 28 -0.254999 0 53 -0.254999 1
gene 1 18 29 0.293636 0 54 0.293636 1
gene 1 19 27 -3.64747 0 55 -3.64747 1
gene 1 19 28 -5.21198 0 56 -5.21198 1
gene 1 19 29 -2.20077 0 57 -2.20077 1
gene 1 20 27 -0.296159 0 58 -0.296159 1
gene 1 20 28 4.60148 0 59 4.60148 1
gene 1 20 29 3.42384 0 60 3.42384 1
gene 1 21 27 2.47035 0 61 2.47035 1
gene 1 21 28 0.676984 0 62 0.676984 1
gene 1 21 29 0.215831 0 63 0.215831 1
gene 1 22 27 0.470016 0 64 0.470016 1
gene 1 22 28 0.495289 0 65 0.495289 1
gene 1 22 29 1.98857 0 66 1.98857 1
gene 1 23 27 0.963881 0 67 0.963881 1
gene 1 23 28 -0.54836 0 68 -0.54836 1
gene 1 23 29 -0.140843 0 69 -0.140843 1
gene 1 24 27 1.55759 0 70 1.55759 1
gene 1 24 28 -0.0491272 0 71 -0.0491272 1
gene 1 24 29 -1.46687 0 72 -1.46687 1
gene 1 25 27 1.34411 0 73 1.34411 1
gene 1 25 28 0.988489 0 74 0.988489 1
gene 1 25 29 0.713218 0 75 0.713218 1
gene 1 26 27 -1.0989 0 76 -1.0989 1
gene 1 26 28 -0.895375 0 77 -0.895375 1
gene 1 26 29 2.59348 0 78 2.59348 1
gene 1 27 29 1.25492 0 84 1.25492 1
gene 1 27 28 2.11802 0 88 2.11802 1
gene 1 9 36 1.41391 0 98 1.41391 1
gene 1 36 29 1.61665 0 99 1.61665 1
gene 1 26 36 0.206427 0 166 0.206427 1
genomeend 2

/* Organism #3 Fitness: 0.0630786 Error: 0 */
genomestart 3
trait 1 0 0 0 0 0 0 0 0 
node 1 1 1 1
node 2 1 1 1
node 3 1 1 1
node 4 1 1 1
node 5 1 1 1
node 6 1 1 1
node 7 1 1 1
node 8 1 1 1
node 9 1 1 1
node 10 1 1 1
node 11 1 1 1
node 12 1 1 1
node 13 1 1 1
node 14 1 1 1
node 15 1 1 1
node 16 1 1 1
node 17 1 1 1
node 18 1 1 1
node 19 1 1 1
node 20 1 1 1
node 21 1 1 1
node 22 1 1 1
node 23 1 1 1
node 24 1 1 1
node 25 1 1 1
node 26 1 1 3
node 27 1 0 2
node 28 1 0 2
node 29 1 0 2
node 36 1 0 0
gene 1 1 27 1.98975 0 1 1.98975 1
gene 1 1 28 1.19951 0 2 1.19951 1
gene 1 1 29 0.129521 0 3 0.129521 1
gene 1 2 27 2.03378 0 4 2.03378 1
gene 1 2 28 -3.57637 0 5 -3.57637 1
gene 1 2 29 -1.6485 0 6 -1.6485 1
gene 1 3 27 6.25052 0 7 6.25052 1
gene 1 3 28 2.42173 0 8 2.42173 1
gene 1 3 29 -1.62172 0 9 -1.62172 1
gene 1 4 27 -0.671522 0 10 -0.671522 1
gene 1 4 28 -6.16385 0 11 -6.16385 1
gene 1 4 29 3.88277 0 12 3.88277 1
gene 1 5 27 -1.11084 0 13 -1.11084 1
gene 1 5 28 6.08702 0 14 6.08702 1
gene 1 5 29 3.45726 0 15 3.45726 1
gene 1 6 27 1.18462 0 16 1.18462 1
gene 1 6 28 2.3548 0 17 2.3548 1
gene 1 6 29 -2.4923 0 18 -2.4923 1
gene 1 7 27 -1.37695 0 19 -1.37695 1
gene 1 7 28 0.498461 0 20 0.498461 1
gene 1 7 29 3.87701 0 21 3.87701 1
gene 1 8 27 -4.12188 0 22 -4.12188 1
gene 1 8 28 -3.49927 0 23 -3.49927 1
gene 1 8 29 1.53293 0 24 1.53293 1
gene 1 9 27 2.57772 0 25 2.57772 1
gene 1 9 28 5.78273 0 26 5.78273 1
gene 1 9 29 1.41137 0 27 1.41137 0
gene 1 10 27 -2.87875 0 28 -2.87875 1
gene 1 10 28 6.46751 0 29 6.46751 1
gene 1 10 29 0.004944 0 30 0.004944 1
gene 1 11 27 -2.65677 0 31 -2.65677 1
gene 1 11 28 1.29392 0 32 1.29392 1
gene 1 11 29 1.91805 0 33 1.91805 1
gene 1 12 27 2.91082 0 34 2.91082 1
gene 1 12 28 1.7616 0 35 1.7616 1
gene 1 12 29 2.12636 0 36 2.12636 1
gene 1 13 27 0.371853 0 37 0.371853 1
gene 1 13 28 0.592036 0 38 0.592036 1
gene 1 13 29 -3.16642 0 39 -3.16642 1
gene 1 14 27 3.81963 0 40 3.81963 1
gene 1 14 28 2.96043 0 41 2.96043 1
gene 1 14 29 3.37075 0 42 3.37075 1
gene 1 15 27 0.404141 0 43 0.404141 1
gene 1 15 28 -1.20958 0 44 -1.20958 1
gene 1 15 29 -1.74783 0 45 -1.74783 1
gene 1 16 27 1.39478 0 46 1.39478 1
gene 1 16 28 -0.0446829 0 47 -0.0446829 1
gene 1 16 29 -2.99391 0 48 -2.99391 1
gene 1 17 27 6.21389 0 49 6.21389 1
gene 1 17 28 0.166311 0 50 0.166311 1
gene 1 17 29 8 0 51 8 1
gene 1 18 27 0.0666906 0 52 0.0666906 1
gene 1 18 28 -3.16517 0 53 -3.16517 1
gene 1 18 29 -1.84847 0 54 -1.84847 1
gene 1 19 27 -4.66221 0 55 -4.66221 1
gene 1 19 28 -5.31826 0 56 -5.31826 1
gene 1 19 29 -2.8544 0 57 -2.8544 1
gene 1 20 27 -0.17233 0 58 -0.17233 1
gene 1 20 28 4.15225 0 59 4.15225 1
gene 1 20 29 0.0582675 0 60 0.0582675 1
gene 1 21 27 1.25373 0 61 1.25373 1
gene 1 21 28 1.46108 0 62 1.46108 1
gene 1 21 29 4.87257 0 63 4.87257 1
gene 1 22 27 0.685762 0 64 0.685762 1
gene 1 22 28 2.70176 0 65 2.70176 1
gene 1 22 29 -2.37825 0 66 -2.37825 1
gene 1 23 27 -1.37234 0 67 -1.37234 1
gene 1 23 28 3.08922 0 68 3.08922 1
gene 1 23 29 -0.243309 0 69 -0.243309 1
gene 1 24 27 1.74052 0 70 1.74052 1
gene 1 24 28 1.29415 0 71 1.29415 1
gene 1 24 29 0.126404 0 72 0.126404 1
gene 1 25 27 -0.159764 0 73 -0.159764 1
gene 1 25 28 0.763955 0 74 0.763955 1
gene 1 25 29 -0.813196 0 75 -0.813196 1
gene 1 26 27 1.3641 0 76 1.3641 1
gene 1 26 28 0.0494781 0 77 0.0494781 1
gene 1 26 29 -0.662313 0 78 -0.662313 1
gene 1 27 29 -0.341594 0 84 -0.341594 1
gene 1 27 28 2.02219 0 88 2.02219 1
gene 1 9 36 2.45674 0 98 2.45674 1
gene 1 36 29 0.242859 0 99 0.242859 1
genomeend 3

/* Organism #4 Fitness: 0.82696 Error: 0 */
/* ##------$ WINNER 4 SPECIES #3 $------## */
genomestart 4
trait 1 0 0 0 0 0 0 0 0 
node 1 1 1 1
node 2 1 1 1
node 3 1 1 1
node 4 1 1 1
node 5 1 1 1
node 6 1 1 1
node 7 1 1 1
node 8 1 1 1
node 9 1 1 1
node 10 1 1 1
node 11 1 1 1
node 12 1 1 1
node 13 1 1 1
node 14 1 1 1
node 15 1 1 1
node 16 1 1 1
node 17 1 1 1
node 18 1 1 1
node 19 1 1 1
node 20 1 1 1
node 21 1 1 1
node 22 1 1 1
node 23 1 1 1
node 24 1 1 1
node 25 1 1 1
node 26 1 1 3
node 27 1 0 2
node 28 1 0 2
node 29 1 0 2
node 36 1 0 0
gene 1 1 27 2.47703 0 1 2.47703 1
gene 1 1 28 -1.33675 0 2 -1.33675 1
gene 1 1 29 3.20447 0 3 3.20447 1
gene 1 2 27 -0.404195 0 4 -0.404195 1
gene 1 2 28 -1.7561 0 5 -1.7561 1
gene 1 2 29 -3.65868 0 6 -3.65868 1
gene 1 3 27 6.4141 0 7 6.4141 1
gene 1 3 28 2.97136 0 8 2.97136 1
gene 1 3 29 -3.09133 0 9 -3.09133 1
gene 1 4 27 1.61462 0 10 1.61462 1
gene 1 4 28 -3.68628 0 11 -3.68628 1
gene 1 4 29 2.59969 0 12 2.59969 1
gene 1 5 27 -0.906667 0 13 -0.906667 1
gene 1 5 28 4.20876 0 14 4.20876 1
gene 1 5 29 3.36768 0 15 3.36768 1
gene 1 6 27 -0.687918 0 16 -0.687918 1
gene 1 6 28 0.449683 0 17 0.449683 1
gene 1 6 29 -3.89814 0 18 -3.89814 1
gene 1 7 27 -2.12704 0 19 -2.12704 1
gene 1 7 28 1.71058 0 20 1.71058 1
gene 1 7 29 1.36059 0 21 1.36059 1
gene 1 8 27 -1.69131 0 22 -1.69131 1
gene 1 8 28 -1.56188 0 23 -1.56188 1
gene 1 8 29 2.32954 0 24 2.32954 1
gene 1 9 27 2.47731 0 25 2.47731 1
gene 1 9 28 3.86638 0 26 3.86638 1
gene 1 9 29 1.2288 0 27 1.2288 0
gene 1 10 27 -0.973022 0 28 -0.973022 1
gene 1 10 28 4.63993 0 29 4.63993 1
gene 1 10 29 -1.94437 0 30 -1.94437 1
gene 1 11 27 -0.286699 0 31 -0.286699 1
gene 1 11 28 -0.482349 0 32 -0.482349 1
gene 1 11 29 1.05468 0 33 1.05468 1
gene 1 12 27 0.306795 0 34 0.306795 1
gene 1 12 28 3.20996 0 35 3.20996 1
gene 1 12 29 1.56976 0 36 1.56976 1
gene 1 13 27 0.168924 0 37 0.168924 1
gene 1 13 28 -0.124996 0 38 -0.124996 1
gene 1 13 29 -0.783437 0 39 -0.783437 1
gene 1 14 27 1.41081 0 40 1.41081 1
gene 1 14 28 2.63052 0 41 2.63052 1
gene 1 14 29 3.38128 0 42 3.38128 1
gene 1 15 27 2.02155 0 43 2.02155 1
gene 1 15 28 0.990804 0 44 0.990804 1
gene 1 15 29 -0.649445 0 45 -0.649445 1
gene 1 16 27 3.85602 0 46 3.85602 1
gene 1 16 28 -2.32846 0 47 -2.32846 1
gene 1 16 29 -0.471778 0 48 -0.471778 1
gene 1 17 27 7.13877 0 49 7.13877 1
gene 1 17 28 -2.05357 0 50 -2.05357 1
gene 1 17 29 6.16792 0 51 6.16792 1
gene 1 18 27 -1.48701 0 52 -1.48701 1
gene 1 18 28 -0.996828 0 53 -0.996828 1
gene 1 18 29 -1.43883 0 54 -1.43883 1
gene 1 19 27 -3.383 0 55 -3.383 1
gene 1 19 28 -3.7358 0 56 -3.7358 1
gene 1 19 29 -1.49266 0 57 -1.49266 1
gene 1 20 27 -1.78607 0 58 -1.78607 1
gene 1 20 28 3.5444 0 59 3.5444 1
gene 1 20 29 1.39985 0 60 1.39985 1
gene 1 21 27 -0.515618 0 61 -0.515618 1
gene 1 21 28 1.97364 0 62 1.97364 1
gene 1 21 29 2.67379 0 63 2.67379 1
gene 1 22 27 0.874977 0 64 0.874977 1
gene 1 22 28 0.470779 0 65 0.470779 1
gene 1 22 29 -0.424833 0 66 -0.424833 1
gene 1 23 27 0.521592 0 67 0.521592 1
gene 1 23 28 1.25544 0 68 1.25544 1
gene 1 23 29 -0.140233 0 69 -0.140233 1
gene 1 24 27 2.96149 0 70 2.96149 1
gene 1 24 28 -0.0491272 0 71 -0.0491272 1
gene 1 24 29 -0.957156 0 72 -0.957156 1
gene 1 25 27 2.39669 0 73 2.39669 1
gene 1 25 28 0.988489 0 74 0.988489 1
gene 1 25 29 -0.835494 0 75 -0.835494 1
gene 1 26 27 2.94356 0 76 2.94356 1
gene 1 26 28 -0.357934 0 77 -0.357934 1
gene 1 26 29 0.52707 0 78 0.52707 1
gene 1 27 29 -2.05004 0 84 -2.05004 1
gene 1 27 28 -0.26586 0 88 -0.26586 1
gene 1 9 36 -0.443442 0 98 -0.443442 1
gene 1 36 29 1.61665 0 99 1.61665 1
gene 1 26 36 0.206427 0 166 0.206427 1
genomeend 4

/* Organism #5 Fitness: 0.0516786 Error: 0 */
genomestart 5
trait 1 0 0 0 0 0 0 0 0 
node 1 1 1 1
node 2 1 1 1
node 3 1 1 1
node 4 1 1 1
node 5 1 1 1
node 6 1 1 1
node 7 1 1 1
node 8 1 1 1
node 9 1 1 1
node 10 1 1 1
node 11 1 1 1
node 12 1 1 1
node 13 1 1 1
node 14 1 1 1
node 15 1 1 1
node 16 1 1 1
node 17 1 1 1
node 18 1 1 1
node 19 1 1 1
node 20 1 1 1
node 21 1 1 1
node 22 1 1 1
node 23 1 1 1
node 24 1 1 1
node 25 1 1 1
node 26 1 1 3
node 27 1 0 2
node 28 1 0 2
node 29 1 0 2
node 36 1 0 0
gene 1 1 27 3.56138 0 1 3.56138 1
gene 1 1 28 -1.00409 0 2 -1.00409 1
gene 1 1 29 4.06297 0 3 4.06297 1
gene 1 2 27 1.29512 0 4 1.29512 1
gene 1 2 28 -1.24674 0 5 -1.24674 1
gene 1 2 29 -2.91807 0 6 -2.91807 1
gene 1 3 27 4.16717 0 7 4.16717 1
gene 1 3 28 2.84654 0 8 2.84654 1
gene 1 3 29 -4.20389 0 9 -4.20389 1
gene 1 4 27 1.29486 0 10 1.29486 1
gene 1 4 28 -5.35175 0 11 -5.35175 1
gene 1 4 29 4.6497 0 12 4.6497 1
gene 1 5 27 -0.315142 0 13 -0.315142 1
gene 1 5 28 4.71285 0 14 4.71285 1
gene 1 5 29 0.923227 0 15 0.923227 1
gene 1 6 27 -2.65789 0 16 -2.65789 1
gene 1 6 28 -1.57283 0 17 -1.57283 1
gene 1 6 29 -5.55613 0 18 -5.55613 1
gene 1 7 27 -3.01816 0 19 -3.01816 1
gene 1 7 28 0.1903 0 20 0.1903 1
gene 1 7 29 3.64949 0 21 3.64949 1
gene 1 8 27 -0.802377 0 22 -0.802377 1
gene 1 8 28 -2.67557 0 23 -2.67557 1
gene 1 8 29 4.43837 0 24 4.43837 1
gene 1 9 27 3.49892 0 25 3.49892 1
gene 1 9 28 6.6242 0 26 6.6242 1
gene 1 9 29 1.30105 0 27 1.30105 0
gene 1 10 27 -3.07979 0 28 -3.07979 1
gene 1 10 28 5.74384 0 29 5.74384 1
gene 1 10 29 -1.69623 0 30 -1.69623 1
gene 1 11 27 -0.939489 0 31 -0.939489 1
gene 1 11 28 1.98942 0 32 1.98942 1
gene 1 11 29 2.98085 0 33 2.98085 1
gene 1 12 27 -0.524224 0 34 -0.524224 1
gene 1 12 28 3.80888 0 35 3.80888 1
gene 1 12 29 3.50214 0 36 3.50214 1
gene 1 13 27 -1.58843 0 37 -1.58843 1
gene 1 13 28 -1.87264 0 38 -1.87264 1
gene 1 13 29 -1.3878 0 39 -1.3878 1
gene 1 14 27 1.27988 0 40 1.27988 1
gene 1 14 28 2.39708 0 41 2.39708 1
gene 1 14 29 4.24579 0 42 4.24579 1
gene 1 15 27 -0.327845 0 43 -0.327845 1
gene 1 15 28 3.26604 0 44 3.26604 1
gene 1 15 29 0.463794 0 45 0.463794 1
gene 1 16 27 1.54531 0 46 1.54531 1
gene 1 16 28 -2.19265 0 47 -2.19265 1
gene 1 16 29 -0.549305 0 48 -0.549305 1
gene 1 17 27 7.20584 0 49 7.20584 1
gene 1 17 28 -0.407628 0 50 -0.407628 1
gene 1 17 29 5.07444 0 51 5.07444 1
gene 1 18 27 -3.39418 0 52 -3.39418 1
gene 1 18 28 -1.67045 0 53 -1.67045 1
gene 1 18 29 -2.61204 0 54 -2.61204 1
gene 1 19 27 -3.96209 0 55 -3.96209 1
gene 1 19 28 -3.40689 0 56 -3.40689 1
gene 1 19 29 -1.99072 0 57 -1.99072 1
gene 1 20 27 -2.03716 0 58 -2.03716 1
gene 1 20 28 2.84301 0 59 2.84301 1
gene 1 20 29 1.48966 0 60 1.48966 1
gene 1 21 27 -1.78656 0 61 -1.78656 1
gene 1 21 28 2.58004 0 62 2.58004 1
gene 1 21 29 3.06443 0 63 3.06443 1
gene 1 22 27 -0.714732 0 64 -0.714732 1
gene 1 22 28 -1.22941 0 65 -1.22941 1
gene 1 22 29 -2.07138 0 66 -2.07138 1
gene 1 23 27 0.521592 0 67 0.521592 1
gene 1 23 28 2.51432 0 68 2.51432 1
gene 1 23 29 -2.43316 0 69 -2.43316 1
gene 1 24 27 2.96149 0 70 2.96149 1
gene 1 24 28 0.839335 0 71 0.839335 1
gene 1 24 29 -2.15775 0 72 -2.15775 1
gene 1 25 27 2.86775 0 73 2.86775 1
gene 1 25 28 0.0904874 0 74 0.0904874 1
gene 1 25 29 -0.835494 0 75 -0.835494 1
gene 1 26 27 0.54445 0 76 0.54445 1
gene 1 26 28 -0.0819708 0 77 -0.0819708 1
gene 1 26 29 0.52707 0 78 0.52707 1
gene 1 27 29 -2.96559 0 84 -2.96559 1
gene 1 27 28 -1.79476 0 88 -1.79476 1
gene 1 9 36 -0.443442 0 98 -0.443442 1
gene 1 36 29 -2.22251 0 99 -2.22251 1
genomeend 5

/* Organism #6 Fitness: 0.0796857 Error: 0 */
genomestart 6
trait 1 0 0 0 0 0 0 0 0 
node 1 1 1 1
node 2 1 1 1
node 3 1 1 1
node 4 1 1 1
node 5 1 1 1
node 6 1 1 1
node 7 1 1 1
node 8 1 1 1
node 9 1 1 1
node 10 1 1 1
node 11 1 1 1
node 12 1 1 1
node 13 1 1 1
node 14 1 1 1
node 15 1 1 1
node 16 1 1 1
node 17 1 1 1
node 18 1 1 1
node 19 1 1 1
node 20 1 1 1
node 21 1 1 1
node 22 1 1 1
node 23 1 1 1
node 24 1 1 1
node 25 1 1 1
node 26 1 1 3
node 27 1 0 2
node 28 1 0 2
node 29 1 0 2
node 36 1 0 0
gene 1 1 27 2.39455 0 1 2.39455 1
gene 1 1 28 -3.47037 0 2 -3.47037 1
gene 1 1 29 -2.20275 0 3 -2.20275 1
gene 1 2 27 1.4211 0 4 1.4211 1
gene 1 2 28 -1.02613 0 5 -1.02613 1
gene 1 2 29 -5.9745 0 6 -5.9745 1
gene 1 3 27 7.25167 0 7 7.25167 1
gene 1 3 28 -1.70125 0 8 -1.70125 1
gene 1 3 29 -2.88792 0 9 -2.88792 1
gene 1 4 27 3.868 0 10 3.868 1
gene 1 4 28 -1.96615 0 11 -1.96615 1
gene 1 4 29 3.71956 0 12 3.71956 1
gene 1 5 27 -2.30172 0 13 -2.30172 1
gene 1 5 28 3.63353 0 14 3.63353 1
gene 1 5 29 1.99412 0 15 1.99412 1
gene 1 6 27 -2.74052 0 16 -2.74052 1
gene 1 6 28 -1.35021 0 17 -1.35021 1
gene 1 6 29 -3.69276 0 18 -3.69276 1
gene 1 7 27 -2.12704 0 19 -2.12704 1
gene 1 7 28 3.62775 0 20 3.62775 1
gene 1 7 29 2.19771 0 21 2.19771 1
gene 1 8 27 -0.301683 0 22 -0.301683 1
gene 1 8 28 1.54088 0 23 1.54088 1
gene 1 8 29 2.19985 0 24 2.19985 1
gene 1 9 27 2.76733 0 25 2.76733 1
gene 1 9 28 2.26184 0 26 2.26184 1
gene 1 9 29 2.85913 0 27 2.85913 0
gene 1 10 27 -1.36808 0 28 -1.36808 1
gene 1 10 28 2.25186 0 29 2.25186 1
gene 1 10 29 -0.703681 0 30 -0.703681 1
gene 1 11 27 -2.13896 0 31 -2.13896 1
gene 1 11 28 -2.34428 0 32 -2.34428 1
gene 1 11 29 1.65829 0 33 1.65829 1
gene 1 12 27 2.42537 0 34 2.42537 1
gene 1 12 28 -1.50365 0 35 -1.50365 1
gene 1 12 29 0.0105708 0 36 0.0105708 1
gene 1 13 27 0.168924 0 37 0.168924 1
gene 1 13 28 -0.697347 0 38 -0.697347 1
gene 1 13 29 1.59948 0 39 1.59948 1
gene 1 14 27 2.36169 0 40 2.36169 1
gene 1 14 28 -0.708716 0 41 -0.708716 1
gene 1 14 29 3.10471 0 42 3.10471 1
gene 1 15 27 3.66558 0 43 3.66558 1
gene 1 15 28 -2.11608 0 44 -2.11608 1
gene 1 15 29 0.925005 0 45 0.925005 1
gene 1 16 27 2.80832 0 46 2.80832 1
gene 1 16 28 -2.32846 0 47 -2.32846 1
gene 1 16 29 1.4642 0 48 1.4642 1
gene 1 17 27 7.02662 0 49 7.02662 1
gene 1 17 28 -3.41139 0 50 -3.41139 1
gene 1 17 29 5.66003 0 51 5.66003 1
gene 1 18 27 -1.74553 0 52 -1.74553 1
gene 1 18 28 -1.3893 0 53 -1.3893 1
gene 1 18 29 -0.543105 0 54 -0.543105 1
gene 1 19 27 -4.35526 0 55 -4.35526 1
gene 1 19 28 -2.58743 0 56 -2.58743 1
gene 1 19 29 -1.49266 0 57 -1.49266 1
gene 1 20 27 0.309667 0 58 0.309667 1
gene 1 20 28 5.05245 0 59 5.05245 1
gene 1 20 29 0.975219 0 60 0.975219 1
gene 1 21 27 -1.25178 0 61 -1.25178 1
gene 1 21 28 1.81348 0 62 1.81348 1
gene 1 21 29 3.52411 0 63 3.52411 1
gene 1 22 27 1.18032 0 64 1.18032 1
gene 1 22 28 2.22922 0 65 2.22922 1
gene 1 22 29 1.67404 0 66 1.67404 1
gene 1 23 27 -1.26977 0 67 -1.26977 1
gene 1 23 28 -0.787397 0 68 -0.787397 1
gene 1 23 29 -1.02336 0 69 -1.02336 1
gene 1 24 27 3.503 0 70 3.503 1
gene 1 24 28 0.271726 0 71 0.271726 1
gene 1 24 29 1.11701 0 72 1.11701 1
gene 1 25 27 0.528848 0 73 0.528848 1
gene 1 25 28 0.988489 0 74 0.988489 1
gene 1 25 29 -3.1076 0 75 -3.1076 1
gene 1 26 27 -0.670568 0 76 -0.670568 1
gene 1 26 28 -0.770855 0 77 -0.770855 1
gene 1 26 29 -1.50913 0 78 -1.50913 1
gene 1 27 29 -1.4389 0 84 -1.4389 1
gene 1 27 28 -2.17246 0 88 -2.17246 1
gene 1 9 36 -0.312392 0 98 -0.312392 1
gene 1 36 29 0.956221 0 99 0.956221 1
gene 1 26 36 0.206427 0 166 0.206427 1
genomeend 6

/* Organism #7 Fitness: 0.75672 Error: 0 */
/* ##------$ WINNER 7 SPECIES #3 $------## */
genomestart 7
trait 1 0 0 0 0 0 0 0 0 
node 1 1 1 1
node 2 1 1 1
node 3 1 1 1
node 4 1 1 1
node 5 1 1 1
node 6 1 1 1
node 7 1 1 1
node 8 1 1 1
node 9 1 1 1
node 10 1 1 1
node 11 1 1 1
node 12 1 1 1
node 13 1 1 1
node 14 1 1 1
node 15 1 1 1
node 16 1 1 1
node 17 1 1 1
node 18 1 1 1
node 19 1 1 1
node 20 1 1 1
node 21 1 1 1
node 22 1 1 1
node 23 1 1 1
node 24 1 1 1
node 25 1 1 1
node 26 1 1 3
node 27 1 0 2
node 28 1 0 2
node 29 1 0 2
node 36 1 0 0
gene 1 1 27 2.30417 0 1 2.30417 1
gene 1 1 28 -1.33675 0 2 -1.33675 1
gene 1 1 29 2.5739 0 3 2.5739 1
gene 1 2 27 0.397803 0 4 0.397803 1
gene 1 2 28 -1.70612 0 5 -1.70612 1
gene 1 2 29 -3.65868 0 6 -3.65868 1
gene 1 3 27 6.4141 0 7 6.4141 1
gene 1 3 28 2.97136 0 8 2.97136 1
gene 1 3 29 -2.68451 0 9 -2.68451 1
gene 1 4 27 1.36369 0 10 1.36369 1
gene 1 4 28 -3.68628 0 11 -3.68628 1
gene 1 4 29 2.59969 0 12 2.59969 1
gene 1 5 27 -0.48699 0 13 -0.48699 1
gene 1 5 28 3.90609 0 14 3.90609 1
gene 1 5 29 3.36768 0 15 3.36768 1
gene 1 6 27 -0.687918 0 16 -0.687918 1
gene 1 6 28 0.426212 0 17 0.426212 1
gene 1 6 29 -3.89814 0 18 -3.89814 1
gene 1 7 27 -2.12704 0 19 -2.12704 1
gene 1 7 28 1.71058 0 20 1.71058 1
gene 1 7 29 1.6722 0 21 1.6722 1
gene 1 8 27 -1.69131 0 22 -1.69131 1
gene 1 8 28 -1.56188 0 23 -1.56188 1
gene 1 8 29 2.32954 0 24 2.32954 1
gene 1 9 27 2.47731 0 25 2.47731 1
gene 1 9 28 4.26382 0 26 4.26382 1
gene 1 9 29 1.2288 0 27 1.2288 0
gene 1 10 27 -0.973022 0 28 -0.973022 1
gene 1 10 28 4.45184 0 29 4.45184 1
gene 1 10 29 -1.79992 0 30 -1.79992 1
gene 1 11 27 -0.286699 0 31 -0.286699 1
gene 1 11 28 -0.482349 0 32 -0.482349 1
gene 1 11 29 1.05468 0 33 1.05468 1
gene 1 12 27 0.306795 0 34 0.306795 1
gene 1 12 28 3.20996 0 35 3.20996 1
gene 1 12 29 1.56976 0 36 1.56976 1
gene 1 13 27 0.168924 0 37 0.168924 1
gene 1 13 28 -0.124996 0 38 -0.124996 1
gene 1 13 29 -1.28739 0 39 -1.28739 1
gene 1 14 27 1.41081 0 40 1.41081 1
gene 1 14 28 2.49604 0 41 2.49604 1
gene 1 14 29 3.38128 0 42 3.38128 1
gene 1 15 27 2.02155 0 43 2.02155 1
gene 1 15 28 0.990804 0 44 0.990804 1
gene 1 15 29 -0.649445 0 45 -0.649445 1
gene 1 16 27 3.85602 0 46 3.85602 1
gene 1 16 28 -2.32846 0 47 -2.32846 1
gene 1 16 29 -0.660773 0 48 -0.660773 1
gene 1 17 27 7.13877 0 49 7.13877 1
gene 1 17 28 -2.05357 0 50 -2.05357 1
gene 1 17 29 6.62594 0 51 6.62594 1
gene 1 18 27 -2.00406 0 52 -2.00406 1
gene 1 18 28 -0.996828 0 53 -0.996828 1
gene 1 18 29 -1.43883 0 54 -1.43883 1
gene 1 19 27 -3.383 0 55 -3.383 1
gene 1 19 28 -3.7358 0 56 -3.7358 1
gene 1 19 29 -1.49266 0 57 -1.49266 1
gene 1 20 27 -1.78607 0 58 -1.78607 1
gene 1 20 28 3.99009 0 59 3.99009 1
gene 1 20 29 1.39985 0 60 1.39985 1
gene 1 21 27 -0.515618 0 61 -0.515618 1
gene 1 21 28 1.97364 0 62 1.97364 1
gene 1 21 29 2.67379 0 63 2.67379 1
gene 1 22 27 0.874977 0 64 0.874977 1
gene 1 22 28 0.394196 0 65 0.394196 1
gene 1 22 29 -0.424833 0 66 -0.424833 1
gene 1 23 27 0.521592 0 67 0.521592 1
gene 1 23 28 1.25544 0 68 1.25544 1
gene 1 23 29 -0.140843 0 69 -0.140843 1
gene 1 24 27 3.3435 0 70 3.3435 1
gene 1 24 28 -0.0491272 0 71 -0.0491272 1
gene 1 24 29 -0.957156 0 72 -0.957156 1
gene 1 25 27 2.44926 0 73 2.44926 1
gene 1 25 28 0.988489 0 74 0.988489 1
gene 1 25 29 -0.835494 0 75 -0.835494 1
gene 1 26 27 2.33118 0 76 2.33118 1
gene 1 26 28 -0.357934 0 77 -0.357934 1
gene 1 26 29 0.52707 0 78 0.52707 1
gene 1 27 29 -2.05004 0 84 -2.05004 1
gene 1 27 28 -0.26586 0 88 -0.26586 1
gene 1 9 36 -0.03226 0 98 -0.03226 1
gene 1 36 29 1.61665 0 99 1.61665 1
genomeend 7

/* Organism #8 Fitness: 0.0796857 Error: 0 */
genomestart 8
trait 1 0 0 0 0 0 0 0 0 
node 1 1 1 1
node 2 1 1 1
node 3 1 1 1
node 4 1 1 1
node 5 1 1 1
node 6 1 1 1
node 7 1 1 1
node 8 1 1 1
node 9 1 1 1
node 10 1 1 1
node 11 1 1 1
node 12 1 1 1
node 13 1 1 1
node 14 1 1 1
node 15 1 1 1
node 16 1 1 1
node 17 1 1 1
node 18 1 1 1
node 19 1 1 1
node 20 1 1 1
node 21 1 1 1
node 22 1 1 1
node 23 1 1 1
node 24 1 1 1
node 25 1 1 1
node 26 1 1 3
node 27 1 0 2
node 28 1 0 2
node 29 1 0 2
node 36 1 0 0
gene 1 1 27 2.35567 0 1 2.35567 1
gene 1 1 28 0.867946 0 2 0.867946 1
gene 1 1 29 1.78393 0 3 1.78393 1
gene 1 2 27 1.14584 0 4 1.14584 1
gene 1 2 28 0.259041 0 5 0.259041 1
gene 1 2 29 -2.57865 0 6 -2.57865 1
gene 1 3 27 5.16086 0 7 5.16086 1
gene 1 3 28 2.86452 0 8 2.86452 1
gene 1 3 29 -4.26538 0 9 -4.26538 1
gene 1 4 27 2.35023 0 10 2.35023 1
gene 1 4 28 -4.17526 0 11 -4.17526 1
gene 1 4 29 1.6538 0 12 1.6538 1
gene 1 5 27 0.855663 0 13 0.855663 1
gene 1 5 28 2.79255 0 14 2.79255 1
gene 1 5 29 4.47268 0 15 4.47268 1
gene 1 6 27 -2.36575 0 16 -2.36575 1
gene 1 6 28 -0.231948 0 17 -0.231948 1
gene 1 6 29 -5.06204 0 18 -5.06204 1
gene 1 7 27 -1.69633 0 19 -1.69633 1
gene 1 7 28 4.26314 0 20 4.26314 1
gene 1 7 29 -0.416868 0 21 -0.416868 1
gene 1 8 27 -0.54648 0 22 -0.54648 1
gene 1 8 28 -3.58457 0 23 -3.58457 1
gene 1 8 29 3.38044 0 24 3.38044 1
gene 1 9 27 3.30596 0 25 3.30596 1
gene 1 9 28 5.9424 0 26 5.9424 1
gene 1 9 29 0.789636 0 27 0.789636 0
gene 1 10 27 0.626835 0 28 0.626835 1
gene 1 10 28 2.30033 0 29 2.30033 1
gene 1 10 29 2.09655 0 30 2.09655 1
gene 1 11 27 -1.38819 0 31 -1.38819 1
gene 1 11 28 -1.57909 0 32 -1.57909 1
gene 1 11 29 1.83485 0 33 1.83485 1
gene 1 12 27 0.306795 0 34 0.306795 1
gene 1 12 28 2.94243 0 35 2.94243 1
gene 1 12 29 1.41903 0 36 1.41903 1
gene 1 13 27 0.780969 0 37 0.780969 1
gene 1 13 28 1.06494 0 38 1.06494 1
gene 1 13 29 -0.861278 0 39 -0.861278 1
gene 1 14 27 2.66763 0 40 2.66763 1
gene 1 14 28 3.13881 0 41 3.13881 1
gene 1 14 29 1.33089 0 42 1.33089 1
gene 1 15 27 4.18882 0 43 4.18882 1
gene 1 15 28 2.40677 0 44 2.40677 1
gene 1 15 29 -0.833014 0 45 -0.833014 1
gene 1 16 27 2.56875 0 46 2.56875 1
gene 1 16 28 -2.32846 0 47 -2.32846 1
gene 1 16 29 0.459914 0 48 0.459914 1
gene 1 17 27 7.6092 0 49 7.6092 1
gene 1 17 28 -1.77409 0 50 -1.77409 1
gene 1 17 29 -0.0021363 0 51 -0.0021363 1
gene 1 18 27 0.408803 0 52 0.408803 1
gene 1 18 28 0.241384 0 53 0.241384 1
gene 1 18 29 -1.52879 0 54 -1.52879 1
gene 1 19 27 -1.37559 0 55 -1.37559 1
gene 1 19 28 -3.7358 0 56 -3.7358 1
gene 1 19 29 -0.284433 0 57 -0.284433 1
gene 1 20 27 -3.51983 0 58 -3.51983 1
gene 1 20 28 3.6577 0 59 3.6577 1
gene 1 20 29 3.3268 0 60 3.3268 1
gene 1 21 27 -2.04765 0 61 -2.04765 1
gene 1 21 28 -1.84858 0 62 -1.84858 1
gene 1 21 29 3.30285 0 63 3.30285 1
gene 1 22 27 -1.3113 0 64 -1.3113 1
gene 1 22 28 1.77564 0 65 1.77564 1
gene 1 22 29 -2.11663 0 66 -2.11663 1
gene 1 23 27 0.265816 0 67 0.265816 1
gene 1 23 28 0.172792 0 68 0.172792 1
gene 1 23 29 0.851009 0 69 0.851009 1
gene 1 24 27 4.21977 0 70 4.21977 1
gene 1 24 28 1.26659 0 71 1.26659 1
gene 1 24 29 -1.22532 0 72 -1.22532 1
gene 1 25 27 2.12073 0 73 2.12073 1
gene 1 25 28 -0.715438 0 74 -0.715438 1
gene 1 25 29 -0.0762696 0 75 -0.0762696 1
gene 1 26 27 4.59271 0 76 4.59271 1
gene 1 26 28 0.22619 0 77 0.22619 1
gene 1 26 29 2.44577 0 78 2.44577 1
gene 1 27 29 -1.50771 0 84 -1.50771 1
gene 1 27 28 0.0704539 0 88 0.0704539 1
gene 1 9 36 -0.936392 0 98 -0.936392 1
gene 1 36 29 1.46429 0 99 1.46429 1
genomeend 8

/* Organism #9 Fitness: 0.0818286 Error: 0 */
genomestart 9
trait 1 0 0 0 0 0 0 0 0 
node 1 1 1 1
node 2 1 1 1
node 3 1 1 1
node 4 1 1 1
node 5 1 1 1
node 6 1 1 1
node 7 1 1 1
node 8 1 1 1
node 9 1 1 1
node 10 1 1 1
node 11 1 1 1
node 12 1 1 1
node 13 1 1 1
node 14 1 1 1
node 15 1 1 1
node 16 1 1 1
node 17 1 1 1
node 18 1 1 1
node 19 1 1 1
node 20 1 1 1
node 21 1 1 1
node 22 1 1 1
node 23 1 1 1
node 24 1 1 1
node 25 1 1 1
node 26 1 1 3
node 27 1 0 2
node 28 1 0 2
node 29 1 0 2
node 36 1 0 0
gene 1 1 27 4.62303 0 1 4.62303 1
gene 1 1 28 0.290426 0 2 0.290426 1
gene 1 1 29 0.773642 0 3 0.773642 1
gene 1 2 27 -2.09455 0 4 -2.09455 1
gene 1 2 28 -2.52215 0 5 -2.52215 1
gene 1 2 29 -2.27169 0 6 -2.27169 1
gene 1 3 27 6.84288 0 7 6.84288 1
gene 1 3 28 1.24408 0 8 1.24408 1
gene 1 3 29 -4.83623 0 9 -4.83623 1
gene 1 4 27 1.62492 0 10 1.62492 1
gene 1 4 28 -5.30401 0 11 -5.30401 1
gene 1 4 29 3.1671 0 12 3.1671 1
gene 1 5 27 -0.409139 0 13 -0.409139 1
gene 1 5 28 2.46417 0 14 2.46417 1
gene 1 5 29 5.23687 0 15 5.23687 1
gene 1 6 27 -0.967505 0 16 -0.967505 1
gene 1 6 28 -1.25774 0 17 -1.25774 1
gene 1 6 29 -1.76177 0 18 -1.76177 1
gene 1 7 27 -1.39657 0 19 -1.39657 1
gene 1 7 28 1.50435 0 20 1.50435 1
gene 1 7 29 3.55793 0 21 3.55793 1
gene 1 8 27 -2.02136 0 22 -2.02136 1
gene 1 8 28 -0.722541 0 23 -0.722541 1
gene 1 8 29 4.48453 0 24 4.48453 1
gene 1 9 27 3.08303 0 25 3.08303 1
gene 1 9 28 4.47283 0 26 4.47283 1
gene 1 9 29 2.8356 0 27 2.8356 0
gene 1 10 27 1.17319 0 28 1.17319 1
gene 1 10 28 2.90651 0 29 2.90651 1
gene 1 10 29 -1.19776 0 30 -1.19776 1
gene 1 11 27 -1.01518 0 31 -1.01518 1
gene 1 11 28 0.539411 0 32 0.539411 1
gene 1 11 29 3.49809 0 33 3.49809 1
gene 1 12 27 -1.40112 0 34 -1.40112 1
gene 1 12 28 4.64746 0 35 4.64746 1
gene 1 12 29 3.76264 0 36 3.76264 1
gene 1 13 27 -0.682018 0 37 -0.682018 1
gene 1 13 28 -0.573923 0 38 -0.573923 1
gene 1 13 29 -1.46428 0 39 -1.46428 1
gene 1 14 27 -0.707255 0 40 -0.707255 1
gene 1 14 28 3.90472 0 41 3.90472 1
gene 1 14 29 3.09715 0 42 3.09715 1
gene 1 15 27 2.57195 0 43 2.57195 1
gene 1 15 28 1.27577 0 44 1.27577 1
gene 1 15 29 1.16618 0 45 1.16618 1
gene 1 16 27 5.32198 0 46 5.32198 1
gene 1 16 28 -4.05176 0 47 -4.05176 1
gene 1 16 29 -2.92002 0 48 -2.92002 1
gene 1 17 27 4.97623 0 49 4.97623 1
gene 1 17 28 -1.83259 0 50 -1.83259 1
gene 1 17 29 6.43546 0 51 6.43546 1
gene 1 18 27 -1.1835 0 52 -1.1835 1
gene 1 18 28 -2.77674 0 53 -2.77674 1
gene 1 18 29 -3.61857 0 54 -3.61857 1
gene 1 19 27 -4.94205 0 55 -4.94205 1
gene 1 19 28 -3.45679 0 56 -3.45679 1
gene 1 19 29 -3.92628 0 57 -3.92628 1
gene 1 20 27 -0.240844 0 58 -0.240844 1
gene 1 20 28 4.20016 0 59 4.20016 1
gene 1 20 29 1.71927 0 60 1.71927 1
gene 1 21 27 -1.31068 0 61 -1.31068 1
gene 1 21 28 2.15255 0 62 2.15255 1
gene 1 21 29 1.99483 0 63 1.99483 1
gene 1 22 27 2.26556 0 64 2.26556 1
gene 1 22 28 0.303547 0 65 0.303547 1
gene 1 22 29 -2.57566 0 66 -2.57566 1
gene 1 23 27 2.05324 0 67 2.05324 1
gene 1 23 28 1.25544 0 68 1.25544 1
gene 1 23 29 -0.140538 0 69 -0.140538 1
gene 1 24 27 4.14103 0 70 4.14103 1
gene 1 24 28 -0.0491272 0 71 -0.0491272 1
gene 1 24 29 -0.447373 0 72 -0.447373 1
gene 1 25 27 2.42298 0 73 2.42298 1
gene 1 25 28 0.988489 0 74 0.988489 1
gene 1 25 29 -1.94904 0 75 -1.94904 1
gene 1 26 27 2.94356 0 76 2.94356 1
gene 1 26 28 -2.15342 0 77 -2.15342 1
gene 1 26 29 0.52707 0 78 0.52707 1
gene 1 27 29 -0.523804 0 84 -0.523804 1
gene 1 27 28 -0.26586 0 88 -0.26586 1
gene 1 9 36 2.31857 0 98 2.31857 1
gene 1 36 29 2.83396 0 99 2.83396 1
gene 1 26 36 -1.96413 0 166 -1.96413 1
genomeend 9

/* Species #4 : (Size 3) (AF 0) (Age 11)  */


/* Organism #10 Fitness: 0.0802214 Error: 0 */
genomestart 10
trait 1 0 0.0825831 0 0.141329 0.131012 0.0702231 0.195538 0.423715 
node 1 1 1 1
node 2 1 1 1
node 3 1 1 1
node 4 1 1 1
node 5 1 1 1
node 6 1 1 1
node 7 1 1 1
node 8 1 1 1
node 9 1 1 1
node 10 1 1 1
node 11 1 1 1
node 12 1 1 1
node 13 1 1 1
node 14 1 1 1
node 15 1 1 1
node 16 1 1 1
node 17 1 1 1
node 18 1 1 1
node 19 1 1 1
node 20 1 1 1
node 21 1 1 1
node 22 1 1 1
node 23 1 1 1
node 24 1 1 1
node 25 1 1 1
node 26 1 1 3
node 27 1 0 2
node 28 1 0 2
node 29 1 0 2
node 32 1 0 0
node 55 1 0 0
gene 1 1 27 0.447478 0 1 0.447478 1
gene 1 1 28 4.50783 0 2 4.50783 1
gene 1 1 29 -4.24222 0 3 -4.24222 1
gene 1 2 27 -3.58591 0 4 -3.58591 1
gene 1 2 28 -2.60704 0 5 -2.60704 1
gene 1 2 29 -2.81257 0 6 -2.81257 1
gene 1 3 27 2.14243 0 7 2.14243 1
gene 1 3 28 -0.799614 0 8 -0.799614 1
gene 1 3 29 -0.584677 0 9 -0.584677 1
gene 1 4 27 1.15925 0 10 1.15925 1
gene 1 4 28 -3.01164 0 11 -3.01164 1
gene 1 4 29 1.18252 0 12 1.18252 1
gene 1 5 27 -3.76637 0 13 -3.76637 1
gene 1 5 28 2.95903 0 14 2.95903 1
gene 1 5 29 -4.31068 0 15 -4.31068 1
gene 1 6 27 -0.111652 0 16 -0.111652 1
gene 1 6 28 -2.43025 0 17 -2.43025 1
gene 1 6 29 1.96113 0 18 1.96113 1
gene 1 7 27 3.03855 0 19 3.03855 1
gene 1 7 28 -5.09674 0 20 -5.09674 1
gene 1 7 29 4.51744 0 21 4.51744 1
gene 1 8 27 -0.018273 0 22 -0.018273 1
gene 1 8 28 2.50504 0 23 2.50504 1
gene 1 8 29 2.21149 0 24 2.21149 0
gene 1 9 27 2.23603 0 25 2.23603 1
gene 1 9 28 1.46037 0 26 1.46037 1
gene 1 9 29 0.118107 0 27 0.118107 1
gene 1 10 27 -3.58524 0 28 -3.58524 1
gene 1 10 28 -0.789224 0 29 -0.789224 1
gene 1 10 29 4.29519 0 30 4.29519 1
gene 1 11 27 1.93523 0 31 1.93523 1
gene 1 11 28 1.83813 0 32 1.83813 1
gene 1 11 29 -4.73488 0 33 -4.73488 1
gene 1 12 27 2.13491 0 34 2.13491 1
gene 1 12 28 -2.63425 0 35 -2.63425 1
gene 1 12 29 4.55473 0 36 4.55473 1
gene 1 13 27 -2.04526 0 37 -2.04526 1
gene 1 13 28 0.271661 0 38 0.271661 1
gene 1 13 29 0.800043 0 39 0.800043 1
gene 1 14 27 -1.57667 0 40 -1.57667 1
gene 1 14 28 1.68627 0 41 1.68627 1
gene 1 14 29 -6.75052 0 42 -6.75052 1
gene 1 15 27 0.782437 0 43 0.782437 1
gene 1 15 28 1.85777 0 44 1.85777 1
gene 1 15 29 -0.95542 0 45 -0.95542 1
gene 1 16 27 5.92626 0 46 5.92626 1
gene 1 16 28 -2.41073 0 47 -2.41073 1
gene 1 16 29 3.01933 0 48 3.01933 1
gene 1 17 27 0.863365 0 49 0.863365 1
gene 1 17 28 -5.90313 0 50 -5.90313 1
gene 1 17 29 5.75547 0 51 5.75547 1
gene 1 18 27 1.07367 0 52 1.07367 1
gene 1 18 28 1.49351 0 53 1.49351 1
gene 1 18 29 1.90989 0 54 1.90989 1
gene 1 19 27 0.123596 0 55 0.123596 1
gene 1 19 28 1.18983 0 56 1.18983 1
gene 1 19 29 2.03131 0 57 2.03131 1
gene 1 20 27 -3.5396 0 58 -3.5396 1
gene 1 20 28 -1.97249 0 59 -1.97249 1
gene 1 20 29 0.652638 0 60 0.652638 1
gene 1 21 27 -1.85006 0 61 -1.85006 1
gene 1 21 28 -0.0761437 0 62 -0.0761437 1
gene 1 21 29 -2.51755 0 63 -2.51755 1
gene 1 22 27 5.88989 0 64 5.88989 1
gene 1 22 28 3.95346 0 65 3.95346 1
gene 1 22 29 -3.36711 0 66 -3.36711 1
gene 1 23 27 4.13686 0 67 4.13686 1
gene 1 23 28 -2.60499 0 68 -2.60499 0
gene 1 23 29 -1.83004 0 69 -1.83004 1
gene 1 24 27 2.98128 0 70 2.98128 1
gene 1 24 28 -2.32488 0 71 -2.32488 1
gene 1 24 29 0.85345 0 72 0.85345 1
gene 1 25 27 2.37806 0 73 2.37806 1
gene 1 25 28 -3.61975 0 74 -3.61975 1
gene 1 25 29 6.1678 0 75 6.1678 1
gene 1 26 27 0.655934 0 76 0.655934 1
gene 1 26 28 -3.45126 0 77 -3.45126 1
gene 1 26 29 1.4639 0 78 1.4639 1
gene 1 23 32 1.04762 0 89 1.04762 1
gene 1 32 28 2.11042 0 90 2.11042 1
gene 1 3 32 -0.2437 0 100 -0.2437 1
gene 1 8 55 1 0 173 0 1
gene 1 55 29 2.21149 0 174 0 1
genomeend 10

/* Organism #11 Fitness: 0.0802214 Error: 0 */
genomestart 11
trait 1 0 0.0825831 0 0.141329 0.131012 0.0702231 0.195538 0.423715 
node 1 1 1 1
node 2 1 1 1
node 3 1 1 1
node 4 1 1 1
node 5 1 1 1
node 6 1 1 1
node 7 1 1 1
node 8 1 1 1
node 9 1 1 1
node 10 1 1 1
node 11 1 1 1
node 12 1 1 1
node 13 1 1 1
node 14 1 1 1
node 15 1 1 1
node 16 1 1 1
node 17 1 1 1
node 18 1 1 1
node 19 1 1 1
node 20 1 1 1
node 21 1 1 1
node 22 1 1 1
node 23 1 1 1
node 24 1 1 1
node 25 1 1 1
node 26 1 1 3
node 27 1 0 2
node 28 1 0 2
node 29 1 0 2
node 32 1 0 0
gene 1 1 27 0.447478 0 1 0.447478 1
gene 1 1 28 4.50783 0 2 4.50783 1
gene 1 1 29 -4.24222 0 3 -4.24222 1
gene 1 2 27 -3.58591 0 4 -3.58591 1
gene 1 2 28 -2.60704 0 5 -2.60704 1
gene 1 2 29 -2.81257 0 6 -2.81257 1
gene 1 3 27 2.14243 0 7 2.14243 1
gene 1 3 28 -0.799614 0 8 -0.799614 1
gene 1 3 29 -0.584677 0 9 -0.584677 1
gene 1 4 27 1.15925 0 10 1.15925 1
gene 1 4 28 -3.01164 0 11 -3.01164 1
gene 1 4 29 1.18252 0 12 1.18252 1
gene 1 5 27 -3.76637 0 13 -3.76637 1
gene 1 5 28 2.95903 0 14 2.95903 1
gene 1 5 29 -4.31068 0 15 -4.31068 1
gene 1 6 27 -0.111652 0 16 -0.111652 1
gene 1 6 28 -2.43025 0 17 -2.43025 1
gene 1 6 29 1.96113 0 18 1.96113 1
gene 1 7 27 3.03855 0 19 3.03855 1
gene 1 7 28 -5.09674 0 20 -5.09674 1
gene 1 7 29 4.51744 0 21 4.51744 1
gene 1 8 27 -0.018273 0 22 -0.018273 1
gene 1 8 28 2.50504 0 23 2.50504 1
gene 1 8 29 2.21149 0 24 2.21149 1
gene 1 9 27 2.23603 0 25 2.23603 1
gene 1 9 28 1.46037 0 26 1.46037 1
gene 1 9 29 0.118107 0 27 0.118107 1
gene 1 10 27 -3.58524 0 28 -3.58524 1
gene 1 10 28 -0.789224 0 29 -0.789224 1
gene 1 10 29 4.29519 0 30 4.29519 1
gene 1 11 27 1.93523 0 31 1.93523 1
gene 1 11 28 1.83813 0 32 1.83813 1
gene 1 11 29 -4.73488 0 33 -4.73488 1
gene 1 12 27 2.13491 0 34 2.13491 1
gene 1 12 28 -2.63425 0 35 -2.63425 1
gene 1 12 29 4.55473 0 36 4.55473 1
gene 1 13 27 -2.04526 0 37 -2.04526 1
gene 1 13 28 0.271661 0 38 0.271661 1
gene 1 13 29 0.800043 0 39 0.800043 1
gene 1 14 27 -1.57667 0 40 -1.57667 1
gene 1 14 28 1.68627 0 41 1.68627 1
gene 1 14 29 -6.75052 0 42 -6.75052 1
gene 1 15 27 0.782437 0 43 0.782437 1
gene 1 15 28 1.85777 0 44 1.85777 1
gene 1 15 29 -0.95542 0 45 -0.95542 1
gene 1 16 27 5.92626 0 46 5.92626 1
gene 1 16 28 -2.41073 0 47 -2.41073 1
gene 1 16 29 3.01933 0 48 3.01933 1
gene 1 17 27 0.863365 0 49 0.863365 1
gene 1 17 28 -5.90313 0 50 -5.90313 1
gene 1 17 29 5.75547 0 51 5.75547 1
gene 1 18 27 1.07367 0 52 1.07367 1
gene 1 18 28 1.49351 0 53 1.49351 1
gene 1 18 29 1.90989 0 54 1.90989 1
gene 1 19 27 0.123596 0 55 0.123596 1
gene 1 19 28 1.18983 0 56 1.18983 1
gene 1 19 29 2.03131 0 57 2.03131 1
gene 1 20 27 -3.5396 0 58 -3.5396 1
gene 1 20 28 -1.97249 0 59 -1.97249 1
gene 1 20 29 0.652638 0 60 0.652638 1
gene 1 21 27 -1.85006 0 61 -1.85006 1
gene 1 21 28 -0.0761437 0 62 -0.0761437 1
gene 1 21 29 -2.51755 0 63 -2.51755 1
gene 1 22 27 5.88989 0 64 5.88989 1
gene 1 22 28 3.95346 0 65 3.95346 1
gene 1 22 29 -3.36711 0 66 -3.36711 1
gene 1 23 27 4.13686 0 67 4.13686 1
gene 1 23 28 -2.60499 0 68 -2.60499 0
gene 1 23 29 -1.83004 0 69 -1.83004 1
gene 1 24 27 2.98128 0 70 2.98128 1
gene 1 24 28 -2.32488 0 71 -2.32488 1
gene 1 24 29 0.85345 0 72 0.85345 1
gene 1 25 27 2.37806 0 73 2.37806 1
gene 1 25 28 -3.61975 0 74 -3.61975 1
gene 1 25 29 6.1678 0 75 6.1678 1
gene 1 26 27 0.655934 0 76 0.655934 1
gene 1 26 28 -3.45126 0 77 -3.45126 1
gene 1 26 29 1.4639 0 78 1.4639 1
gene 1 23 32 1.04762 0 89 1.04762 1
gene 1 32 28 2.11042 0 90 2.11042 1
gene 1 3 32 -0.2437 0 100 -0.2437 1
genomeend 11

/* Organism #12 Fitness: 0.0587929 Error: 0 */
genomestart 12
trait 1 0 0.0825831 0 0.141329 0.131012 0.0702231 0.195538 0.423715 
node 1 1 1 1
node 2 1 1 1
node 3 1 1 1
node 4 1 1 1
node 5 1 1 1
node 6 1 1 1
node 7 1 1 1
node 8 1 1 1
node 9 1 1 1
node 10 1 1 1
node 11 1 1 1
node 12 1 1 1
node 13 1 1 1
node 14 1 1 1
node 15 1 1 1
node 16 1 1 1
node 17 1 1 1
node 18 1 1 1
node 19 1 1 1
node 20 1 1 1
node 21 1 1 1
node 22 1 1 1
node 23 1 1 1
node 24 1 1 1
node 25 1 1 1
node 26 1 1 3
node 27 1 0 2
node 28 1 0 2
node 29 1 0 2
node 32 1 0 0
gene 1 1 27 1.40339 0 1 1.40339 1
gene 1 1 28 5.16436 0 2 5.16436 1
gene 1 1 29 -2.87148 0 3 -2.87148 1
gene 1 2 27 -3.2718 0 4 -3.2718 1
gene 1 2 28 -1.74429 0 5 -1.74429 1
gene 1 2 29 -2.81257 0 6 -2.81257 1
gene 1 3 27 3.35691 0 7 3.35691 1
gene 1 3 28 0.635901 0 8 0.635901 1
gene 1 3 29 -1.43521 0 9 -1.43521 1
gene 1 4 27 -1.73666 0 10 -1.73666 1
gene 1 4 28 -4.54695 0 11 -4.54695 1
gene 1 4 29 -0.174642 0 12 -0.174642 1
gene 1 5 27 -1.74314 0 13 -1.74314 1
gene 1 5 28 1.12807 0 14 1.12807 1
gene 1 5 29 -4.31068 0 15 -4.31068 1
gene 1 6 27 -0.111652 0 16 -0.111652 1
gene 1 6 28 -1.51721 0 17 -1.51721 1
gene 1 6 29 2.47597 0 18 2.47597 1
gene 1 7 27 3.22906 0 19 3.22906 1
gene 1 7 28 -2.64359 0 20 -2.64359 1
gene 1 7 29 6.5325 0 21 6.5325 1
gene 1 8 27 -0.018273 0 22 -0.018273 1
gene 1 8 28 1.38905 0 23 1.38905 1
gene 1 8 29 2.21149 0 24 2.21149 1
gene 1 9 27 4.59366 0 25 4.59366 1
gene 1 9 28 -0.552171 0 26 -0.552171 1
gene 1 9 29 2.27744 0 27 2.27744 1
gene 1 10 27 -5.85162 0 28 -5.85162 1
gene 1 10 28 -3.28442 0 29 -3.28442 1
gene 1 10 29 6.06725 0 30 6.06725 1
gene 1 11 27 3.31413 0 31 3.31413 1
gene 1 11 28 2.02414 0 32 2.02414 1
gene 1 11 29 -4.73488 0 33 -4.73488 1
gene 1 12 27 2.79777 0 34 2.79777 1
gene 1 12 28 -0.581652 0 35 -0.581652 1
gene 1 12 29 4.15403 0 36 4.15403 1
gene 1 13 27 -2.53333 0 37 -2.53333 1
gene 1 13 28 1.11267 0 38 1.11267 1
gene 1 13 29 0.0946074 0 39 0.0946074 1
gene 1 14 27 -0.289397 0 40 -0.289397 1
gene 1 14 28 1.69665 0 41 1.69665 1
gene 1 14 29 -6.75052 0 42 -6.75052 1
gene 1 15 27 -0.850455 0 43 -0.850455 1
gene 1 15 28 1.75912 0 44 1.75912 1
gene 1 15 29 -1.08955 0 45 -1.08955 1
gene 1 16 27 -1.08226 0 46 -1.08226 1
gene 1 16 28 -1.77847 0 47 -1.77847 1
gene 1 16 29 0.693075 0 48 0.693075 1
gene 1 17 27 -1.49488 0 49 -1.49488 1
gene 1 17 28 -5.49731 0 50 -5.49731 1
gene 1 17 29 5.75547 0 51 5.75547 1
gene 1 18 27 -0.585091 0 52 -0.585091 1
gene 1 18 28 2.49361 0 53 2.49361 1
gene 1 18 29 2.67759 0 54 2.67759 1
gene 1 19 27 -0.242397 0 55 -0.242397 1
gene 1 19 28 2.19556 0 56 2.19556 1
gene 1 19 29 1.45825 0 57 1.45825 1
gene 1 20 27 -3.84509 0 58 -3.84509 1
gene 1 20 28 -2.15835 0 59 -2.15835 1
gene 1 20 29 -1.69492 0 60 -1.69492 1
gene 1 21 27 -0.451903 0 61 -0.451903 1
gene 1 21 28 2.19756 0 62 2.19756 1
gene 1 21 29 -2.51755 0 63 -2.51755 1
gene 1 22 27 7.13345 0 64 7.13345 1
gene 1 22 28 4.14291 0 65 4.14291 1
gene 1 22 29 -1.53958 0 66 -1.53958 1
gene 1 23 27 2.66289 0 67 2.66289 1
gene 1 23 28 -4.22941 0 68 -4.22941 0
gene 1 23 29 -1.7394 0 69 -1.7394 1
gene 1 24 27 2.16048 0 70 2.16048 1
gene 1 24 28 -3.02498 0 71 -3.02498 1
gene 1 24 29 -0.11887 0 72 -0.11887 1
gene 1 25 27 2.78373 0 73 2.78373 1
gene 1 25 28 -3.61975 0 74 -3.61975 1
gene 1 25 29 6.3928 0 75 6.3928 1
gene 1 26 27 0.655934 0 76 0.655934 1
gene 1 26 28 -4.70145 0 77 -4.70145 1
gene 1 26 29 1.4639 0 78 1.4639 1
gene 1 23 32 0.610828 0 89 0.610828 1
gene 1 32 28 4.35864 0 90 4.35864 1
gene 1 3 32 -1.85645 0 100 -1.85645 1
genomeend 12

/* Species #6 : (Size 14) (AF 0) (Age 11)  */


/* Organism #13 Fitness: 0.87084 Error: 0 */
/* ##------$ WINNER 13 SPECIES #6 $------## */
genomestart 13
trait 1 0.200507 0.646107 0 0 0.0955535 0 0 0 
node 1 1 1 1
node 2 1 1 1
node 3 1 1 1
node 4 1 1 1
node 5 1 1 1
node 6 1 1 1
node 7 1 1 1
node 8 1 1 1
node 9 1 1 1
node 10 1 1 1
node 11 1 1 1
node 12 1 1 1
node 13 1 1 1
node 14 1 1 1
node 15 1 1 1
node 16 1 1 1
node 17 1 1 1
node 18 1 1 1
node 19 1 1 1
node 20 1 1 1
node 21 1 1 1
node 22 1 1 1
node 23 1 1 1
node 24 1 1 1
node 25 1 1 1
node 26 1 1 3
node 27 1 0 2
node 28 1 0 2
node 29 1 0 2
node 34 1 0 0
gene 1 1 27 -0.0264748 0 1 -0.0264748 1
gene 1 1 28 1.07535 0 2 1.07535 1
gene 1 1 29 -1.89242 0 3 -1.89242 1
gene 1 2 27 -4.33485 0 4 -4.33485 1
gene 1 2 28 -1.09002 0 5 -1.09002 1
gene 1 2 29 -3.9833 0 6 -3.9833 1
gene 1 3 27 -0.581759 0 7 -0.581759 1
gene 1 3 28 1.31596 0 8 1.31596 1
gene 1 3 29 -0.678579 0 9 -0.678579 1
gene 1 4 27 1.16741 0 10 1.16741 1
gene 1 4 28 -2.18418 0 11 -2.18418 1
gene 1 4 29 -1.49061 0 12 -1.49061 1
gene 1 5 27 -0.351454 0 13 -0.351454 1
gene 1 5 28 -2.9767 0 14 -2.9767 1
gene 1 5 29 0.19977 0 15 0.19977 1
gene 1 6 27 2.43413 0 16 2.43413 1
gene 1 6 28 -0.236969 0 17 -0.236969 1
gene 1 6 29 -0.519183 0 18 -0.519183 1
gene 1 7 27 1.79838 0 19 1.79838 1
gene 1 7 28 -0.631462 0 20 -0.631462 1
gene 1 7 29 -6.13625 0 21 -6.13625 1
gene 1 8 27 2.11231 0 22 2.11231 1
gene 1 8 28 -0.236078 0 23 -0.236078 1
gene 1 8 29 -1.40828 0 24 -1.40828 1
gene 1 9 27 -3.51779 0 25 -3.51779 1
gene 1 9 28 -1.49931 0 26 -1.49931 1
gene 1 9 29 -1.90536 0 27 -1.90536 1
gene 1 10 27 -0.777056 0 28 -0.777056 1
gene 1 10 28 1.8319 0 29 1.8319 1
gene 1 10 29 1.74146 0 30 1.74146 1
gene 1 11 27 0.752097 0 31 0.752097 1
gene 1 11 28 0.63139 0 32 0.63139 0
gene 1 11 29 -1.4401 0 33 -1.4401 1
gene 1 12 27 -0.772568 0 34 -0.772568 1
gene 1 12 28 0.614101 0 35 0.614101 1
gene 1 12 29 -0.126303 0 36 -0.126303 1
gene 1 13 27 1.73978 0 37 1.73978 1
gene 1 13 28 1.65851 0 38 1.65851 1
gene 1 13 29 -2.23754 0 39 -2.23754 1
gene 1 14 27 -4.02497 0 40 -4.02497 1
gene 1 14 28 -0.660077 0 41 -0.660077 1
gene 1 14 29 -1.62782 0 42 -1.62782 1
gene 1 15 27 2.46042 0 43 2.46042 1
gene 1 15 28 -0.0886868 0 44 -0.0886868 1
gene 1 15 29 0.369231 0 45 0.369231 1
gene 1 16 27 -2.13378 0 46 -2.13378 1
gene 1 16 28 -1.40067 0 47 -1.40067 1
gene 1 16 29 -1.94218 0 48 -1.94218 1
gene 1 17 27 1.72159 0 49 1.72159 1
gene 1 17 28 0.961744 0 50 0.961744 1
gene 1 17 29 2.93714 0 51 2.93714 1
gene 1 18 27 3.86387 0 52 3.86387 1
gene 1 18 28 2.89969 0 53 2.89969 1
gene 1 18 29 -0.881325 0 54 -0.881325 1
gene 1 19 27 1.22653 0 55 1.22653 1
gene 1 19 28 -1.4684 0 56 -1.4684 1
gene 1 19 29 0.80929 0 57 0.80929 1
gene 1 20 27 -0.909577 0 58 -0.909577 1
gene 1 20 28 -2.4236 0 59 -2.4236 1
gene 1 20 29 -2.73422 0 60 -2.73422 1
gene 1 21 27 1.57707 0 61 1.57707 1
gene 1 21 28 -2.42312 0 62 -2.42312 1
gene 1 21 29 -2.57399 0 63 -2.57399 1
gene 1 22 27 1.26634 0 64 1.26634 1
gene 1 22 28 3.07084 0 65 3.07084 1
gene 1 22 29 6.53922 0 66 6.53922 1
gene 1 23 27 -0.0740112 0 67 -0.0740112 1
gene 1 23 28 1.80731 0 68 1.80731 1
gene 1 23 29 -0.943557 0 69 -0.943557 1
gene 1 24 27 0.28779 0 70 0.28779 1
gene 1 24 28 -0.291942 0 71 -0.291942 1
gene 1 24 29 0.894567 0 72 0.894567 1
gene 1 25 27 2.55582 0 73 2.55582 1
gene 1 25 28 0.0544135 0 74 0.0544135 1
gene 1 25 29 -0.802683 0 75 -0.802683 1
gene 1 26 27 3.32581 0 76 3.32581 1
gene 1 26 28 3.46653 0 77 3.46653 1
gene 1 26 29 1.83588 0 78 1.83588 1
gene 1 11 34 2.16406 0 94 2.16406 1
gene 1 34 28 1.56079 0 95 1.56079 1
gene 1 12 34 -1.29877 0 103 -1.29877 1
gene 1 28 29 1.14063 0 121 1.14063 1
genomeend 13

/* Organism #14 Fitness: 0.105936 Error: 0 */
genomestart 14
trait 1 0.100253 0.323054 0 0 0.0477767 0 0 0 
node 1 1 1 1
node 2 1 1 1
node 3 1 1 1
node 4 1 1 1
node 5 1 1 1
node 6 1 1 1
node 7 1 1 1
node 8 1 1 1
node 9 1 1 1
node 10 1 1 1
node 11 1 1 1
node 12 1 1 1
node 13 1 1 1
node 14 1 1 1
node 15 1 1 1
node 16 1 1 1
node 17 1 1 1
node 18 1 1 1
node 19 1 1 1
node 20 1 1 1
node 21 1 1 1
node 22 1 1 1
node 23 1 1 1
node 24 1 1 1
node 25 1 1 1
node 26 1 1 3
node 27 1 0 2
node 28 1 0 2
node 29 1 0 2
node 34 1 0 0
gene 1 1 27 -2.27948 0 1 -2.27948 1
gene 1 1 28 2.6976 0 2 2.6976 1
gene 1 1 29 -3.31829 0 3 -3.31829 1
gene 1 2 27 -1.95348 0 4 -1.95348 1
gene 1 2 28 -1.35148 0 5 -1.35148 1
gene 1 2 29 -0.790376 0 6 -0.790376 1
gene 1 3 27 1.5139 0 7 1.5139 1
gene 1 3 28 2.03569 0 8 2.03569 1
gene 1 3 29 -3.66321 0 9 -3.66321 1
gene 1 4 27 -0.861156 0 10 -0.861156 1
gene 1 4 28 -1.30177 0 11 -1.30177 1
gene 1 4 29 -0.273254 0 12 -0.273254 1
gene 1 5 27 -0.524611 0 13 -0.524611 1
gene 1 5 28 -5.16177 0 14 -5.16177 1
gene 1 5 29 -0.207047 0 15 -0.207047 1
gene 1 6 27 0.48779 0 16 0.48779 1
gene 1 6 28 3.65233 0 17 3.65233 1
gene 1 6 29 -2.25953 0 18 -2.25953 1
gene 1 7 27 2.83221 0 19 2.83221 1
gene 1 7 28 2.64187 0 20 2.64187 1
gene 1 7 29 -3.01129 0 21 -3.01129 1
gene 1 8 27 1.47292 0 22 1.47292 1
gene 1 8 28 2.97013 0 23 2.97013 1
gene 1 8 29 -3.68603 0 24 -3.68603 1
gene 1 9 27 -4.1768 0 25 -4.1768 1
gene 1 9 28 0.924371 0 26 0.924371 1
gene 1 9 29 -1.35244 0 27 -1.35244 1
gene 1 10 27 0.794278 0 28 0.794278 1
gene 1 10 28 3.64174 0 29 3.64174 1
gene 1 10 29 1.03053 0 30 1.03053 1
gene 1 11 27 -0.119328 0 31 -0.119328 1
gene 1 11 28 -3.18081 0 32 -3.18081 0
gene 1 11 29 2.26217 0 33 2.26217 1
gene 1 12 27 1.75606 0 34 1.75606 1
gene 1 12 28 1.24532 0 35 1.24532 1
gene 1 12 29 0.383855 0 36 0.383855 1
gene 1 13 27 -0.269024 0 37 -0.269024 1
gene 1 13 28 2.06485 0 38 2.06485 1
gene 1 13 29 -0.483776 0 39 -0.483776 1
gene 1 14 27 -6.32801 0 40 -6.32801 1
gene 1 14 28 -0.324469 0 41 -0.324469 1
gene 1 14 29 -4.43328 0 42 -4.43328 1
gene 1 15 27 4.12801 0 43 4.12801 1
gene 1 15 28 -0.898469 0 44 -0.898469 1
gene 1 15 29 -1.62425 0 45 -1.62425 1
gene 1 16 27 -1.87997 0 46 -1.87997 1
gene 1 16 28 -0.49174 0 47 -0.49174 1
gene 1 16 29 -2.42905 0 48 -2.42905 1
gene 1 17 27 -1.00997 0 49 -1.00997 1
gene 1 17 28 0.894425 0 50 0.894425 1
gene 1 17 29 2.74212 0 51 2.74212 1
gene 1 18 27 1.54754 0 52 1.54754 1
gene 1 18 28 0.827054 0 53 0.827054 1
gene 1 18 29 -1.04145 0 54 -1.04145 1
gene 1 19 27 -1.45313 0 55 -1.45313 1
gene 1 19 28 -2.56399 0 56 -2.56399 1
gene 1 19 29 2.69127 0 57 2.69127 1
gene 1 20 27 -3.42301 0 58 -3.42301 1
gene 1 20 28 -1.66537 0 59 -1.66537 1
gene 1 20 29 -4.31986 0 60 -4.31986 1
gene 1 21 27 1.56412 0 61 1.56412 1
gene 1 21 28 -1.52226 0 62 -1.52226 1
gene 1 21 29 -1.50928 0 63 -1.50928 1
gene 1 22 27 3.88678 0 64 3.88678 1
gene 1 22 28 4.64781 0 65 4.64781 1
gene 1 22 29 4.35876 0 66 4.35876 1
gene 1 23 27 1.81127 0 67 1.81127 1
gene 1 23 28 -1.75996 0 68 -1.75996 1
gene 1 23 29 -1.18047 0 69 -1.18047 1
gene 1 24 27 -2.20634 0 70 -2.20634 1
gene 1 24 28 -0.541949 0 71 -0.541949 1
gene 1 24 29 0.195658 0 72 0.195658 1
gene 1 25 27 2.60988 0 73 2.60988 1
gene 1 25 28 -0.174025 0 74 -0.174025 1
gene 1 25 29 -1.50776 0 75 -1.50776 1
gene 1 26 27 2.99106 0 76 2.99106 1
gene 1 26 28 0.573027 0 77 0.573027 1
gene 1 26 29 3.9333 0 78 3.9333 1
gene 1 11 34 -2.32032 0 94 -2.32032 1
gene 1 34 28 0.803418 0 95 0.803418 1
gene 1 12 34 2.16193 0 103 2.16193 1
gene 1 28 29 2.28576 0 121 2.28576 1
genomeend 14

/* Organism #15 Fitness: 0.0775429 Error: 0 */
genomestart 15
trait 1 0 0 0 0 0 0 0 0 
node 1 1 1 1
node 2 1 1 1
node 3 1 1 1
node 4 1 1 1
node 5 1 1 1
node 6 1 1 1
node 7 1 1 1
node 8 1 1 1
node 9 1 1 1
node 10 1 1 1
node 11 1 1 1
node 12 1 1 1
node 13 1 1 1
node 14 1 1 1
node 15 1 1 1
node 16 1 1 1
node 17 1 1 1
node 18 1 1 1
node 19 1 1 1
node 20 1 1 1
node 21 1 1 1
node 22 1 1 1
node 23 1 1 1
node 24 1 1 1
node 25 1 1 1
node 26 1 1 3
node 27 1 0 2
node 28 1 0 2
node 29 1 0 2
node 34 1 0 0
gene 1 1 27 -5.2393 0 1 -5.2393 1
gene 1 1 28 -1.30905 0 2 -1.30905 1
gene 1 1 29 -1.2781 0 3 -1.2781 1
gene 1 2 27 -2.87765 0 4 -2.87765 1
gene 1 2 28 -4.03847 0 5 -4.03847 1
gene 1 2 29 -0.287812 0 6 -0.287812 1
gene 1 3 27 0.978645 0 7 0.978645 1
gene 1 3 28 4.50115 0 8 4.50115 1
gene 1 3 29 -5.92784 0 9 -5.92784 1
gene 1 4 27 1.2611 0 10 1.2611 1
gene 1 4 28 -5.32695 0 11 -5.32695 1
gene 1 4 29 -5.12664 0 12 -5.12664 1
gene 1 5 27 1.58082 0 13 1.58082 1
gene 1 5 28 -5.49765 0 14 -5.49765 1
gene 1 5 29 -3.19932 0 15 -3.19932 1
gene 1 6 27 1.83898 0 16 1.83898 1
gene 1 6 28 2.56665 0 17 2.56665 1
gene 1 6 29 -0.51101 0 18 -0.51101 1
gene 1 7 27 0.414617 0 19 0.414617 1
gene 1 7 28 1.0163 0 20 1.0163 1
gene 1 7 29 -0.19525 0 21 -0.19525 1
gene 1 8 27 5.70368 0 22 5.70368 1
gene 1 8 28 2.09944 0 23 2.09944 1
gene 1 8 29 -4.96919 0 24 -4.96919 1
gene 1 9 27 -1.96608 0 25 -1.96608 1
gene 1 9 28 -1.64454 0 26 -1.64454 1
gene 1 9 29 -1.7307 0 27 -1.7307 1
gene 1 10 27 -1.10717 0 28 -1.10717 1
gene 1 10 28 2.67982 0 29 2.67982 1
gene 1 10 29 1.06487 0 30 1.06487 1
gene 1 11 27 -1.42801 0 31 -1.42801 1
gene 1 11 28 -0.869549 0 32 -0.869549 0
gene 1 11 29 3.64564 0 33 3.64564 1
gene 1 12 27 -2.52376 0 34 -2.52376 1
gene 1 12 28 0.203429 0 35 0.203429 1
gene 1 12 29 1.11481 0 36 1.11481 1
gene 1 13 27 3.18269 0 37 3.18269 1
gene 1 13 28 0.0773835 0 38 0.0773835 1
gene 1 13 29 1.81528 0 39 1.81528 1
gene 1 14 27 -4.57163 0 40 -4.57163 1
gene 1 14 28 -1.42476 0 41 -1.42476 1
gene 1 14 29 -4.66687 0 42 -4.66687 1
gene 1 15 27 4.62445 0 43 4.62445 1
gene 1 15 28 -0.0230186 0 44 -0.0230186 1
gene 1 15 29 -2.33757 0 45 -2.33757 1
gene 1 16 27 0.77221 0 46 0.77221 1
gene 1 16 28 -1.84774 0 47 -1.84774 1
gene 1 16 29 -2.20719 0 48 -2.20719 1
gene 1 17 27 -1.44853 0 49 -1.44853 1
gene 1 17 28 5.08581 0 50 5.08581 1
gene 1 17 29 4.05715 0 51 4.05715 1
gene 1 18 27 1.59265 0 52 1.59265 1
gene 1 18 28 -3.98164 0 53 -3.98164 1
gene 1 18 29 -1.48235 0 54 -1.48235 1
gene 1 19 27 1.12098 0 55 1.12098 1
gene 1 19 28 -4.23393 0 56 -4.23393 1
gene 1 19 29 -0.485038 0 57 -0.485038 1
gene 1 20 27 -4.33178 0 58 -4.33178 1
gene 1 20 28 1.96671 0 59 1.96671 1
gene 1 20 29 -6.30255 0 60 -6.30255 1
gene 1 21 27 3.46751 0 61 3.46751 1
gene 1 21 28 0.363826 0 62 0.363826 1
gene 1 21 29 -3.29065 0 63 -3.29065 1
gene 1 22 27 5.8236 0 64 5.8236 1
gene 1 22 28 0.320063 0 65 0.320063 1
gene 1 22 29 1.66857 0 66 1.66857 1
gene 1 23 27 0.827048 0 67 0.827048 1
gene 1 23 28 -0.823008 0 68 -0.823008 1
gene 1 23 29 0.685568 0 69 0.685568 1
gene 1 24 27 -0.799432 0 70 -0.799432 1
gene 1 24 28 1.74825 0 71 1.74825 1
gene 1 24 29 -3.12738 0 72 -3.12738 1
gene 1 25 27 1.75098 0 73 1.75098 1
gene 1 25 28 0.631504 0 74 0.631504 1
gene 1 25 29 -1.06619 0 75 -1.06619 1
gene 1 26 27 1.3329 0 76 1.3329 1
gene 1 26 28 1.27537 0 77 1.27537 1
gene 1 26 29 -0.175443 0 78 -0.175443 1
gene 1 11 34 2.25221 0 94 2.25221 1
gene 1 34 28 -1.31409 0 95 -1.31409 1
gene 1 12 34 -0.198256 0 103 -0.198256 1
gene 1 25 34 -0.444922 0 135 -0.444922 1
genomeend 15

/* Organism #16 Fitness: 0.0100429 Error: 0 */
genomestart 16
trait 1 0.200507 0.646107 0 0 0.0955535 0 0 0 
node 1 1 1 1
node 2 1 1 1
node 3 1 1 1
node 4 1 1 1
node 5 1 1 1
node 6 1 1 1
node 7 1 1 1
node 8 1 1 1
node 9 1 1 1
node 10 1 1 1
node 11 1 1 1
node 12 1 1 1
node 13 1 1 1
node 14 1 1 1
node 15 1 1 1
node 16 1 1 1
node 17 1 1 1
node 18 1 1 1
node 19 1 1 1
node 20 1 1 1
node 21 1 1 1
node 22 1 1 1
node 23 1 1 1
node 24 1 1 1
node 25 1 1 1
node 26 1 1 3
node 27 1 0 2
node 28 1 0 2
node 29 1 0 2
node 34 1 0 0
gene 1 1 27 0.824076 0 1 0.824076 1
gene 1 1 28 2.92134 0 2 2.92134 1
gene 1 1 29 -1.38643 0 3 -1.38643 1
gene 1 2 27 -5.02907 0 4 -5.02907 1
gene 1 2 28 0.713698 0 5 0.713698 1
gene 1 2 29 -1.83815 0 6 -1.83815 1
gene 1 3 27 1.5228 0 7 1.5228 1
gene 1 3 28 2.5293 0 8 2.5293 1
gene 1 3 29 -2.69768 0 9 -2.69768 1
gene 1 4 27 3.56647 0 10 3.56647 1
gene 1 4 28 -3.89086 0 11 -3.89086 1
gene 1 4 29 0.90158 0 12 0.90158 1
gene 1 5 27 -2.83795 0 13 -2.83795 1
gene 1 5 28 -3.56754 0 14 -3.56754 1
gene 1 5 29 -1.06186 0 15 -1.06186 1
gene 1 6 27 0.00302086 0 16 0.00302086 1
gene 1 6 28 -0.49218 0 17 -0.49218 1
gene 1 6 29 0.00985557 0 18 0.00985557 1
gene 1 7 27 -0.261086 0 19 -0.261086 1
gene 1 7 28 -1.76843 0 20 -1.76843 1
gene 1 7 29 -8 0 21 -8 1
gene 1 8 27 1.20263 0 22 1.20263 1
gene 1 8 28 -1.52968 0 23 -1.52968 1
gene 1 8 29 0.0773644 0 24 0.0773644 1
gene 1 9 27 -2.95083 0 25 -2.95083 1
gene 1 9 28 -3.37826 0 26 -3.37826 1
gene 1 9 29 -3.02852 0 27 -3.02852 1
gene 1 10 27 0.407444 0 28 0.407444 1
gene 1 10 28 3.40086 0 29 3.40086 1
gene 1 10 29 0.14565 0 30 0.14565 1
gene 1 11 27 0.987776 0 31 0.987776 1
gene 1 11 28 2.36614 0 32 2.36614 0
gene 1 11 29 -3.85548 0 33 -3.85548 1
gene 1 12 27 -0.478217 0 34 -0.478217 1
gene 1 12 28 0.204619 0 35 0.204619 1
gene 1 12 29 -2.62035 0 36 -2.62035 1
gene 1 13 27 3.13059 0 37 3.13059 1
gene 1 13 28 3.50511 0 38 3.50511 1
gene 1 13 29 -2.81388 0 39 -2.81388 1
gene 1 14 27 -6.26396 0 40 -6.26396 1
gene 1 14 28 -2.87465 0 41 -2.87465 1
gene 1 14 29 -1.30348 0 42 -1.30348 1
gene 1 15 27 1.57683 0 43 1.57683 1
gene 1 15 28 0.638951 0 44 0.638951 1
gene 1 15 29 -0.233662 0 45 -0.233662 1
gene 1 16 27 -3.69633 0 46 -3.69633 1
gene 1 16 28 -3.15777 0 47 -3.15777 1
gene 1 16 29 -1.68018 0 48 -1.68018 1
gene 1 17 27 0.88973 0 49 0.88973 1
gene 1 17 28 -1.25924 0 50 -1.25924 1
gene 1 17 29 3.40049 0 51 3.40049 1
gene 1 18 27 1.61313 0 52 1.61313 1
gene 1 18 28 0.600349 0 53 0.600349 1
gene 1 18 29 -2.22864 0 54 -2.22864 1
gene 1 19 27 1.39904 0 55 1.39904 1
gene 1 19 28 -0.197382 0 56 -0.197382 1
gene 1 19 29 -0.278466 0 57 -0.278466 1
gene 1 20 27 -2.84895 0 58 -2.84895 1
gene 1 20 28 -3.94381 0 59 -3.94381 1
gene 1 20 29 -1.10239 0 60 -1.10239 1
gene 1 21 27 3.10392 0 61 3.10392 1
gene 1 21 28 -2.41549 0 62 -2.41549 1
gene 1 21 29 -4.2445 0 63 -4.2445 1
gene 1 22 27 -0.16956 0 64 -0.16956 1
gene 1 22 28 2.81509 0 65 2.81509 1
gene 1 22 29 5.40133 0 66 5.40133 1
gene 1 23 27 -0.386898 0 67 -0.386898 1
gene 1 23 28 1.80731 0 68 1.80731 1
gene 1 23 29 -0.174032 0 69 -0.174032 1
gene 1 24 27 0.28779 0 70 0.28779 1
gene 1 24 28 -2.38452 0 71 -2.38452 1
gene 1 24 29 2.59292 0 72 2.59292 1
gene 1 25 27 2.55582 0 73 2.55582 1
gene 1 25 28 -0.0753664 0 74 -0.0753664 1
gene 1 25 29 -0.802683 0 75 -0.802683 1
gene 1 26 27 -0.622578 0 76 -0.622578 1
gene 1 26 28 5.55148 0 77 5.55148 1
gene 1 26 29 -0.479331 0 78 -0.479331 1
gene 1 11 34 0.0801111 0 94 0.0801111 1
gene 1 34 28 1.56079 0 95 1.56079 1
gene 1 12 34 0.975925 0 103 0.975925 1
gene 1 28 29 1.33839 0 121 1.33839 1
genomeend 16

/* Organism #17 Fitness: 0.0818286 Error: 0 */
genomestart 17
trait 1 0.100253 0.323054 0 0 0.0477767 0 0 0 
node 1 1 1 1
node 2 1 1 1
node 3 1 1 1
node 4 1 1 1
node 5 1 1 1
node 6 1 1 1
node 7 1 1 1
node 8 1 1 1
node 9 1 1 1
node 10 1 1 1
node 11 1 1 1
node 12 1 1 1
node 13 1 1 1
node 14 1 1 1
node 15 1 1 1
node 16 1 1 1
node 17 1 1 1
node 18 1 1 1
node 19 1 1 1
node 20 1 1 1
node 21 1 1 1
node 22 1 1 1
node 23 1 1 1
node 24 1 1 1
node 25 1 1 1
node 26 1 1 3
node 27 1 0 2
node 28 1 0 2
node 29 1 0 2
node 34 1 0 0
gene 1 1 27 -0.361244 0 1 -0.361244 1
gene 1 1 28 -0.235435 0 2 -0.235435 1
gene 1 1 29 -2.8431 0 3 -2.8431 1
gene 1 2 27 0.632039 0 4 0.632039 1
gene 1 2 28 -3.05649 0 5 -3.05649 1
gene 1 2 29 -3.50858 0 6 -3.50858 1
gene 1 3 27 -0.223168 0 7 -0.223168 1
gene 1 3 28 -3.57032 0 8 -3.57032 1
gene 1 3 29 4.69504 0 9 4.69504 1
gene 1 4 27 -0.530517 0 10 -0.530517 1
gene 1 4 28 0.0372955 0 11 0.0372955 1
gene 1 4 29 2.21323 0 12 2.21323 1
gene 1 5 27 -5.45035 0 13 -5.45035 1
gene 1 5 28 -4.83618 0 14 -4.83618 1
gene 1 5 29 1.29523 0 15 1.29523 1
gene 1 6 27 2.8182 0 16 2.8182 1
gene 1 6 28 1.55554 0 17 1.55554 1
gene 1 6 29 1.49343 0 18 1.49343 1
gene 1 7 27 0.857309 0 19 0.857309 1
gene 1 7 28 0.0861595 0 20 0.0861595 1
gene 1 7 29 -4.25407 0 21 -4.25407 1
gene 1 8 27 1.11897 0 22 1.11897 1
gene 1 8 28 -2.65776 0 23 -2.65776 1
gene 1 8 29 -4.42762 0 24 -4.42762 1
gene 1 9 27 0.256928 0 25 0.256928 1
gene 1 9 28 -2.39383 0 26 -2.39383 1
gene 1 9 29 -6.70974 0 27 -6.70974 1
gene 1 10 27 -1.20851 0 28 -1.20851 1
gene 1 10 28 5.12157 0 29 5.12157 1
gene 1 10 29 2.82099 0 30 2.82099 1
gene 1 11 27 6.14729 0 31 6.14729 1
gene 1 11 28 2.87505 0 32 2.87505 0
gene 1 11 29 1.32751 0 33 1.32751 1
gene 1 12 27 -4.60577 0 34 -4.60577 1
gene 1 12 28 -1.22481 0 35 -1.22481 1
gene 1 12 29 -4.52827 0 36 -4.52827 1
gene 1 13 27 7.01428 0 37 7.01428 1
gene 1 13 28 2.13884 0 38 2.13884 1
gene 1 13 29 -1.66211 0 39 -1.66211 1
gene 1 14 27 -3.57028 0 40 -3.57028 1
gene 1 14 28 -3.02063 0 41 -3.02063 1
gene 1 14 29 -2.48249 0 42 -2.48249 1
gene 1 15 27 -0.939314 0 43 -0.939314 1
gene 1 15 28 2.10858 0 44 2.10858 1
gene 1 15 29 1.1683 0 45 1.1683 1
gene 1 16 27 2.66228 0 46 2.66228 1
gene 1 16 28 -4.5481 0 47 -4.5481 1
gene 1 16 29 -1.28518 0 48 -1.28518 1
gene 1 17 27 7.94263 0 49 7.94263 1
gene 1 17 28 -0.968742 0 50 -0.968742 1
gene 1 17 29 -2.93983 0 51 -2.93983 1
gene 1 18 27 0.340102 0 52 0.340102 1
gene 1 18 28 3.03093 0 53 3.03093 1
gene 1 18 29 3.21168 0 54 3.21168 1
gene 1 19 27 5.40291 0 55 5.40291 1
gene 1 19 28 -1.13937 0 56 -1.13937 1
gene 1 19 29 0.627819 0 57 0.627819 1
gene 1 20 27 -1.77438 0 58 -1.77438 1
gene 1 20 28 -1.89786 0 59 -1.89786 1
gene 1 20 29 -3.08886 0 60 -3.08886 1
gene 1 21 27 6.44263 0 61 6.44263 1
gene 1 21 28 -4.23225 0 62 -4.23225 1
gene 1 21 29 1.48457 0 63 1.48457 1
gene 1 22 27 1.91094 0 64 1.91094 1
gene 1 22 28 3.78579 0 65 3.78579 1
gene 1 22 29 7.75827 0 66 7.75827 1
gene 1 23 27 -2.5149 0 67 -2.5149 1
gene 1 23 28 1.23424 0 68 1.23424 1
gene 1 23 29 2.82945 0 69 2.82945 1
gene 1 24 27 -2.46574 0 70 -2.46574 1
gene 1 24 28 -2.15484 0 71 -2.15484 1
gene 1 24 29 2.97881 0 72 2.97881 1
gene 1 25 27 2.75303 0 73 2.75303 1
gene 1 25 28 1.07662 0 74 1.07662 1
gene 1 25 29 -3.59256 0 75 -3.59256 1
gene 1 26 27 3.97118 0 76 3.97118 1
gene 1 26 28 5.63928 0 77 5.63928 1
gene 1 26 29 1.77351 0 78 1.77351 1
gene 1 11 34 -1.34999 0 94 -1.34999 1
gene 1 34 28 2.34728 0 95 2.34728 1
gene 1 12 34 -0.729764 0 103 -0.729764 1
gene 1 28 29 0.654622 0 121 0.654622 1
genomeend 17

/* Organism #18 Fitness: 0.82524 Error: 0 */
/* ##------$ WINNER 18 SPECIES #6 $------## */
genomestart 18
trait 1 0.100253 0.323054 0 0 0.0477767 0 0 0 
node 1 1 1 1
node 2 1 1 1
node 3 1 1 1
node 4 1 1 1
node 5 1 1 1
node 6 1 1 1
node 7 1 1 1
node 8 1 1 1
node 9 1 1 1
node 10 1 1 1
node 11 1 1 1
node 12 1 1 1
node 13 1 1 1
node 14 1 1 1
node 15 1 1 1
node 16 1 1 1
node 17 1 1 1
node 18 1 1 1
node 19 1 1 1
node 20 1 1 1
node 21 1 1 1
node 22 1 1 1
node 23 1 1 1
node 24 1 1 1
node 25 1 1 1
node 26 1 1 3
node 27 1 0 2
node 28 1 0 2
node 29 1 0 2
node 34 1 0 0
gene 1 1 27 -1.76494 0 1 -1.76494 1
gene 1 1 28 0.340507 0 2 0.340507 1
gene 1 1 29 -0.998047 0 3 -0.998047 1
gene 1 2 27 -3.13142 0 4 -3.13142 1
gene 1 2 28 -1.48828 0 5 -1.48828 1
gene 1 2 29 -2.88807 0 6 -2.88807 1
gene 1 3 27 1.44409 0 7 1.44409 1
gene 1 3 28 2.04049 0 8 2.04049 1
gene 1 3 29 -2.09853 0 9 -2.09853 1
gene 1 4 27 0.728858 0 10 0.728858 1
gene 1 4 28 -2.58583 0 11 -2.58583 1
gene 1 4 29 -2.1522 0 12 -2.1522 1
gene 1 5 27 1.77267 0 13 1.77267 1
gene 1 5 28 -4.08332 0 14 -4.08332 1
gene 1 5 29 -1.28893 0 15 -1.28893 1
gene 1 6 27 2.22239 0 16 2.22239 1
gene 1 6 28 1.3137 0 17 1.3137 1
gene 1 6 29 -1.05634 0 18 -1.05634 1
gene 1 7 27 1.21419 0 19 1.21419 1
gene 1 7 28 0.708752 0 20 0.708752 1
gene 1 7 29 -3.77143 0 21 -3.77143 1
gene 1 8 27 3.53506 0 22 3.53506 1
gene 1 8 28 1.82401 0 23 1.82401 1
gene 1 8 29 -2.36107 0 24 -2.36107 1
gene 1 9 27 -1.91362 0 25 -1.91362 1
gene 1 9 28 -1.34956 0 26 -1.34956 1
gene 1 9 29 -0.771516 0 27 -0.771516 1
gene 1 10 27 -1.01806 0 28 -1.01806 1
gene 1 10 28 2.40033 0 29 2.40033 1
gene 1 10 29 1.57056 0 30 1.57056 1
gene 1 11 27 -0.179983 0 31 -0.179983 1
gene 1 11 28 -0.769009 0 32 -0.769009 0
gene 1 11 29 1.41879 0 33 1.41879 1
gene 1 12 27 -0.451571 0 34 -0.451571 1
gene 1 12 28 0.735504 0 35 0.735504 1
gene 1 12 29 -0.432668 0 36 -0.432668 1
gene 1 13 27 1.76618 0 37 1.76618 1
gene 1 13 28 1.23314 0 38 1.23314 1
gene 1 13 29 -0.282277 0 39 -0.282277 1
gene 1 14 27 -3.8689 0 40 -3.8689 1
gene 1 14 28 -0.162034 0 41 -0.162034 1
gene 1 14 29 -2.19543 0 42 -2.19543 1
gene 1 15 27 2.80808 0 43 2.80808 1
gene 1 15 28 1.17526 0 44 1.17526 1
gene 1 15 29 -0.110689 0 45 -0.110689 1
gene 1 16 27 -0.795343 0 46 -0.795343 1
gene 1 16 28 -2.01461 0 47 -2.01461 1
gene 1 16 29 -2.68792 0 48 -2.68792 1
gene 1 17 27 1.37161 0 49 1.37161 1
gene 1 17 28 3.32057 0 50 3.32057 1
gene 1 17 29 3.24651 0 51 3.24651 1
gene 1 18 27 1.50748 0 52 1.50748 1
gene 1 18 28 0.200127 0 53 0.200127 1
gene 1 18 29 -1.81593 0 54 -1.81593 1
gene 1 19 27 0.104003 0 55 0.104003 1
gene 1 19 28 -1.63241 0 56 -1.63241 1
gene 1 19 29 0.451212 0 57 0.451212 1
gene 1 20 27 -1.76067 0 58 -1.76067 1
gene 1 20 28 -1.03059 0 59 -1.03059 1
gene 1 20 29 -3.81997 0 60 -3.81997 1
gene 1 21 27 1.96781 0 61 1.96781 1
gene 1 21 28 -0.817049 0 62 -0.817049 1
gene 1 21 29 -1.92403 0 63 -1.92403 1
gene 1 22 27 2.9613 0 64 2.9613 1
gene 1 22 28 2.59224 0 65 2.59224 1
gene 1 22 29 4.19442 0 66 4.19442 1
gene 1 23 27 -0.581458 0 67 -0.581458 1
gene 1 23 28 0.28325 0 68 0.28325 1
gene 1 23 29 -0.914884 0 69 -0.914884 1
gene 1 24 27 -0.255821 0 70 -0.255821 1
gene 1 24 28 -0.541949 0 71 -0.541949 1
gene 1 24 29 -1.11641 0 72 -1.11641 1
gene 1 25 27 3.27397 0 73 3.27397 1
gene 1 25 28 0.342959 0 74 0.342959 1
gene 1 25 29 0.252697 0 75 0.252697 1
gene 1 26 27 2.49063 0 76 2.49063 1
gene 1 26 28 2.37095 0 77 2.37095 1
gene 1 26 29 2.02391 0 78 2.02391 1
gene 1 11 34 2.20814 0 94 2.20814 1
gene 1 34 28 0.803418 0 95 0.803418 1
gene 1 12 34 -1.57072 0 103 -1.57072 1
gene 1 28 29 1.14063 0 121 1.14063 1
genomeend 18

/* Organism #19 Fitness: 0.88216 Error: 0 */
/* ##------$ WINNER 19 SPECIES #6 $------## */
genomestart 19
trait 1 0.100253 0.323054 0 0 0.0477767 0 0 0 
node 1 1 1 1
node 2 1 1 1
node 3 1 1 1
node 4 1 1 1
node 5 1 1 1
node 6 1 1 1
node 7 1 1 1
node 8 1 1 1
node 9 1 1 1
node 10 1 1 1
node 11 1 1 1
node 12 1 1 1
node 13 1 1 1
node 14 1 1 1
node 15 1 1 1
node 16 1 1 1
node 17 1 1 1
node 18 1 1 1
node 19 1 1 1
node 20 1 1 1
node 21 1 1 1
node 22 1 1 1
node 23 1 1 1
node 24 1 1 1
node 25 1 1 1
node 26 1 1 3
node 27 1 0 2
node 28 1 0 2
node 29 1 0 2
node 34 1 0 0
gene 1 1 27 -0.0264748 0 1 -0.0264748 1
gene 1 1 28 1.07535 0 2 1.07535 1
gene 1 1 29 -1.89242 0 3 -1.89242 1
gene 1 2 27 -1.92799 0 4 -1.92799 1
gene 1 2 28 -1.88653 0 5 -1.88653 1
gene 1 2 29 -3.9833 0 6 -3.9833 1
gene 1 3 27 -0.581759 0 7 -0.581759 1
gene 1 3 28 1.31596 0 8 1.31596 1
gene 1 3 29 -0.678579 0 9 -0.678579 1
gene 1 4 27 1.16741 0 10 1.16741 1
gene 1 4 28 -2.18418 0 11 -2.18418 1
gene 1 4 29 -1.49061 0 12 -1.49061 1
gene 1 5 27 -0.351454 0 13 -0.351454 1
gene 1 5 28 -5.18995 0 14 -5.18995 1
gene 1 5 29 -2.77763 0 15 -2.77763 1
gene 1 6 27 2.43413 0 16 2.43413 1
gene 1 6 28 -0.236969 0 17 -0.236969 1
gene 1 6 29 -0.519183 0 18 -0.519183 1
gene 1 7 27 0.630001 0 19 0.630001 1
gene 1 7 28 2.04897 0 20 2.04897 1
gene 1 7 29 -6.13625 0 21 -6.13625 1
gene 1 8 27 2.11231 0 22 2.11231 1
gene 1 8 28 3.88409 0 23 3.88409 1
gene 1 8 29 -3.31387 0 24 -3.31387 1
gene 1 9 27 -3.51779 0 25 -3.51779 1
gene 1 9 28 -1.19981 0 26 -1.19981 1
gene 1 9 29 0.362331 0 27 0.362331 1
gene 1 10 27 -0.777056 0 28 -0.777056 1
gene 1 10 28 1.8319 0 29 1.8319 1
gene 1 10 29 1.74146 0 30 1.74146 1
gene 1 11 27 0.752097 0 31 0.752097 1
gene 1 11 28 0.63139 0 32 0.63139 0
gene 1 11 29 -1.4401 0 33 -1.4401 1
gene 1 12 27 -0.772568 0 34 -0.772568 1
gene 1 12 28 0.614101 0 35 0.614101 1
gene 1 12 29 -0.126303 0 36 -0.126303 1
gene 1 13 27 1.73978 0 37 1.73978 1
gene 1 13 28 1.65851 0 38 1.65851 1
gene 1 13 29 -2.23754 0 39 -2.23754 1
gene 1 14 27 -3.71284 0 40 -3.71284 1
gene 1 14 28 0.336009 0 41 0.336009 1
gene 1 14 29 -2.76305 0 42 -2.76305 1
gene 1 15 27 3.15575 0 43 3.15575 1
gene 1 15 28 2.43921 0 44 2.43921 1
gene 1 15 29 0.369231 0 45 0.369231 1
gene 1 16 27 0.543092 0 46 0.543092 1
gene 1 16 28 -1.40067 0 47 -1.40067 1
gene 1 16 29 -3.43365 0 48 -3.43365 1
gene 1 17 27 1.72159 0 49 1.72159 1
gene 1 17 28 0.961744 0 50 0.961744 1
gene 1 17 29 3.55589 0 51 3.55589 1
gene 1 18 27 3.86387 0 52 3.86387 1
gene 1 18 28 -2.49944 0 53 -2.49944 1
gene 1 18 29 -0.881325 0 54 -0.881325 1
gene 1 19 27 -1.01852 0 55 -1.01852 1
gene 1 19 28 -1.4684 0 56 -1.4684 1
gene 1 19 29 0.80929 0 57 0.80929 1
gene 1 20 27 -0.909577 0 58 -0.909577 1
gene 1 20 28 0.36243 0 59 0.36243 1
gene 1 20 29 -4.90572 0 60 -4.90572 1
gene 1 21 27 2.35854 0 61 2.35854 1
gene 1 21 28 0.789026 0 62 0.789026 1
gene 1 21 29 -1.27406 0 63 -1.27406 1
gene 1 22 27 1.26634 0 64 1.26634 1
gene 1 22 28 2.11364 0 65 2.11364 1
gene 1 22 29 1.84962 0 66 1.84962 1
gene 1 23 27 -1.0889 0 67 -1.0889 1
gene 1 23 28 1.80731 0 68 1.80731 1
gene 1 23 29 -0.943557 0 69 -0.943557 1
gene 1 24 27 0.28779 0 70 0.28779 1
gene 1 24 28 -0.291942 0 71 -0.291942 1
gene 1 24 29 -3.12738 0 72 -3.12738 1
gene 1 25 27 2.55582 0 73 2.55582 1
gene 1 25 28 0.0544135 0 74 0.0544135 1
gene 1 25 29 1.30808 0 75 1.30808 1
gene 1 26 27 1.65545 0 76 1.65545 1
gene 1 26 28 1.27537 0 77 1.27537 1
gene 1 26 29 2.21194 0 78 2.21194 1
gene 1 11 34 2.25221 0 94 2.25221 1
gene 1 34 28 1.56079 0 95 1.56079 1
gene 1 12 34 -1.84267 0 103 -1.84267 1
gene 1 28 29 1.14063 0 121 1.14063 1
genomeend 19

/* Organism #20 Fitness: 0.0673643 Error: 0 */
genomestart 20
trait 1 0.0501267 0.161527 0 0 0.0238884 0 0 0 
node 1 1 1 1
node 2 1 1 1
node 3 1 1 1
node 4 1 1 1
node 5 1 1 1
node 6 1 1 1
node 7 1 1 1
node 8 1 1 1
node 9 1 1 1
node 10 1 1 1
node 11 1 1 1
node 12 1 1 1
node 13 1 1 1
node 14 1 1 1
node 15 1 1 1
node 16 1 1 1
node 17 1 1 1
node 18 1 1 1
node 19 1 1 1
node 20 1 1 1
node 21 1 1 1
node 22 1 1 1
node 23 1 1 1
node 24 1 1 1
node 25 1 1 1
node 26 1 1 3
node 27 1 0 2
node 28 1 0 2
node 29 1 0 2
node 34 1 0 0
gene 1 1 27 -2.58171 0 1 -2.58171 1
gene 1 1 28 1.7568 0 2 1.7568 1
gene 1 1 29 1.755 0 3 1.755 1
gene 1 2 27 -1.39088 0 4 -1.39088 1
gene 1 2 28 -3.48842 0 5 -3.48842 1
gene 1 2 29 -2.02027 0 6 -2.02027 1
gene 1 3 27 4.23314 0 7 4.23314 1
gene 1 3 28 -1.35917 0 8 -1.35917 1
gene 1 3 29 3.94581 0 9 3.94581 1
gene 1 4 27 0.55907 0 10 0.55907 1
gene 1 4 28 -0.343347 0 11 -0.343347 1
gene 1 4 29 2.00521 0 12 2.00521 1
gene 1 5 27 -4.01339 0 13 -4.01339 1
gene 1 5 28 -4.25159 0 14 -4.25159 1
gene 1 5 29 -3.89679 0 15 -3.89679 1
gene 1 6 27 2.46879 0 16 2.46879 1
gene 1 6 28 5.80739 0 17 5.80739 1
gene 1 6 29 2.50115 0 18 2.50115 1
gene 1 7 27 0.438061 0 19 0.438061 1
gene 1 7 28 0.386156 0 20 0.386156 1
gene 1 7 29 -5.88056 0 21 -5.88056 1
gene 1 8 27 0.956763 0 22 0.956763 1
gene 1 8 28 -2.78548 0 23 -2.78548 1
gene 1 8 29 -4.22856 0 24 -4.22856 1
gene 1 9 27 1.8181 0 25 1.8181 1
gene 1 9 28 -0.824359 0 26 -0.824359 1
gene 1 9 29 -4.31282 0 27 -4.31282 1
gene 1 10 27 1.41253 0 28 1.41253 1
gene 1 10 28 1.41788 0 29 1.41788 1
gene 1 10 29 1.81929 0 30 1.81929 1
gene 1 11 27 4.13841 0 31 4.13841 1
gene 1 11 28 2.10133 0 32 2.10133 0
gene 1 11 29 1.08267 0 33 1.08267 1
gene 1 12 27 -2.75284 0 34 -2.75284 1
gene 1 12 28 -1.48778 0 35 -1.48778 1
gene 1 12 29 -3.49751 0 36 -3.49751 1
gene 1 13 27 1.11548 0 37 1.11548 1
gene 1 13 28 1.74538 0 38 1.74538 1
gene 1 13 29 4.11729 0 39 4.11729 1
gene 1 14 27 -4.24138 0 40 -4.24138 1
gene 1 14 28 0.796953 0 41 0.796953 1
gene 1 14 29 -0.121118 0 42 -0.121118 1
gene 1 15 27 -1.13822 0 43 -1.13822 1
gene 1 15 28 2.13239 0 44 2.13239 1
gene 1 15 29 -2.75403 0 45 -2.75403 1
gene 1 16 27 2.46657 0 46 2.46657 1
gene 1 16 28 -0.819973 0 47 -0.819973 1
gene 1 16 29 -3.6235 0 48 -3.6235 1
gene 1 17 27 6.7132 0 49 6.7132 1
gene 1 17 28 1.49677 0 50 1.49677 1
gene 1 17 29 -2.55011 0 51 -2.55011 1
gene 1 18 27 1.16158 0 52 1.16158 1
gene 1 18 28 5.364 0 53 5.364 1
gene 1 18 29 -4.26167 0 54 -4.26167 1
gene 1 19 27 -0.346126 0 55 -0.346126 1
gene 1 19 28 1.26243 0 56 1.26243 1
gene 1 19 29 4.65622 0 57 4.65622 1
gene 1 20 27 -3.45709 0 58 -3.45709 1
gene 1 20 28 -2.51417 0 59 -2.51417 1
gene 1 20 29 -1.35446 0 60 -1.35446 1
gene 1 21 27 2.33863 0 61 2.33863 1
gene 1 21 28 -3.0833 0 62 -3.0833 1
gene 1 21 29 -0.710629 0 63 -0.710629 1
gene 1 22 27 -1.95372 0 64 -1.95372 1
gene 1 22 28 3.22502 0 65 3.22502 1
gene 1 22 29 5.25902 0 66 5.25902 1
gene 1 23 27 -2.5149 0 67 -2.5149 1
gene 1 23 28 1.07383 0 68 1.07383 1
gene 1 23 29 3.05012 0 69 3.05012 1
gene 1 24 27 0.225934 0 70 0.225934 1
gene 1 24 28 -2.15484 0 71 -2.15484 1
gene 1 24 29 2.25644 0 72 2.25644 1
gene 1 25 27 1.7315 0 73 1.7315 1
gene 1 25 28 1.07662 0 74 1.07662 1
gene 1 25 29 -1.5099 0 75 -1.5099 1
gene 1 26 27 3.28981 0 76 3.28981 1
gene 1 26 28 4.32599 0 77 4.32599 1
gene 1 26 29 0.756668 0 78 0.756668 1
gene 1 11 34 0.150533 0 94 0.150533 1
gene 1 34 28 2.85274 0 95 2.85274 1
gene 1 12 34 -1.40499 0 103 -1.40499 1
gene 1 28 29 1.96261 0 121 1.96261 1
genomeend 20

/* Organism #21 Fitness: 0.0689714 Error: 0 */
genomestart 21
trait 1 0.100253 0.323054 0 0 0.0477767 0 0 0 
node 1 1 1 1
node 2 1 1 1
node 3 1 1 1
node 4 1 1 1
node 5 1 1 1
node 6 1 1 1
node 7 1 1 1
node 8 1 1 1
node 9 1 1 1
node 10 1 1 1
node 11 1 1 1
node 12 1 1 1
node 13 1 1 1
node 14 1 1 1
node 15 1 1 1
node 16 1 1 1
node 17 1 1 1
node 18 1 1 1
node 19 1 1 1
node 20 1 1 1
node 21 1 1 1
node 22 1 1 1
node 23 1 1 1
node 24 1 1 1
node 25 1 1 1
node 26 1 1 3
node 27 1 0 2
node 28 1 0 2
node 29 1 0 2
node 34 1 0 0
gene 1 1 27 -2.7504 0 1 -2.7504 1
gene 1 1 28 -1.28426 0 2 -1.28426 1
gene 1 1 29 -0.757897 0 3 -0.757897 1
gene 1 2 27 -1.39378 0 4 -1.39378 1
gene 1 2 28 1.34404 0 5 1.34404 1
gene 1 2 29 -4.29054 0 6 -4.29054 1
gene 1 3 27 -2.8193 0 7 -2.8193 1
gene 1 3 28 2.32299 0 8 2.32299 1
gene 1 3 29 -0.505387 0 9 -0.505387 1
gene 1 4 27 4.61817 0 10 4.61817 1
gene 1 4 28 0.969802 0 11 0.969802 1
gene 1 4 29 -0.879772 0 12 -0.879772 1
gene 1 5 27 -1.12281 0 13 -1.12281 1
gene 1 5 28 -2.36885 0 14 -2.36885 1
gene 1 5 29 2.29369 0 15 2.29369 1
gene 1 6 27 2.43413 0 16 2.43413 1
gene 1 6 28 -0.794931 0 17 -0.794931 1
gene 1 6 29 -0.314112 0 18 -0.314112 1
gene 1 7 27 0.889996 0 19 0.889996 1
gene 1 7 28 -1.57619 0 20 -1.57619 1
gene 1 7 29 -0.567721 0 21 -0.567721 1
gene 1 8 27 1.36594 0 22 1.36594 1
gene 1 8 28 0.35621 0 23 0.35621 1
gene 1 8 29 -0.105289 0 24 -0.105289 1
gene 1 9 27 -0.352222 0 25 -0.352222 1
gene 1 9 28 -0.506166 0 26 -0.506166 1
gene 1 9 29 -3.79446 0 27 -3.79446 1
gene 1 10 27 -0.777056 0 28 -0.777056 1
gene 1 10 28 0.50351 0 29 0.50351 1
gene 1 10 29 2.17719 0 30 2.17719 1
gene 1 11 27 -2.6223 0 31 -2.6223 1
gene 1 11 28 -0.254524 0 32 -0.254524 0
gene 1 11 29 3.73111 0 33 3.73111 1
gene 1 12 27 -1.07654 0 34 -1.07654 1
gene 1 12 28 0.13435 0 35 0.13435 1
gene 1 12 29 0.34826 0 36 0.34826 1
gene 1 13 27 -0.425245 0 37 -0.425245 1
gene 1 13 28 3.33215 0 38 3.33215 1
gene 1 13 29 2.12973 0 39 2.12973 1
gene 1 14 27 -2.43556 0 40 -2.43556 1
gene 1 14 28 0.333529 0 41 0.333529 1
gene 1 14 29 -3.32976 0 42 -3.32976 1
gene 1 15 27 0.819666 0 43 0.819666 1
gene 1 15 28 0.306299 0 44 0.306299 1
gene 1 15 29 -2.30117 0 45 -2.30117 1
gene 1 16 27 0.564957 0 46 0.564957 1
gene 1 16 28 2.15217 0 47 2.15217 1
gene 1 16 29 -2.35095 0 48 -2.35095 1
gene 1 17 27 0.611172 0 49 0.611172 1
gene 1 17 28 1.25561 0 50 1.25561 1
gene 1 17 29 0.704207 0 51 0.704207 1
gene 1 18 27 2.96388 0 52 2.96388 1
gene 1 18 28 1.09424 0 53 1.09424 1
gene 1 18 29 -0.886132 0 54 -0.886132 1
gene 1 19 27 1.08988 0 55 1.08988 1
gene 1 19 28 -2.78721 0 56 -2.78721 1
gene 1 19 29 0.600162 0 57 0.600162 1
gene 1 20 27 0.0784593 0 58 0.0784593 1
gene 1 20 28 -1.42527 0 59 -1.42527 1
gene 1 20 29 -3.66389 0 60 -3.66389 1
gene 1 21 27 3.71177 0 61 3.71177 1
gene 1 21 28 -3.5269 0 62 -3.5269 1
gene 1 21 29 -0.533529 0 63 -0.533529 1
gene 1 22 27 2.78105 0 64 2.78105 1
gene 1 22 28 3.07252 0 65 3.07252 1
gene 1 22 29 6.20059 0 66 6.20059 1
gene 1 23 27 -0.400941 0 67 -0.400941 1
gene 1 23 28 2.59026 0 68 2.59026 1
gene 1 23 29 -0.172125 0 69 -0.172125 1
gene 1 24 27 1.87887 0 70 1.87887 1
gene 1 24 28 -3.58276 0 71 -3.58276 1
gene 1 24 29 -3.0002 0 72 -3.0002 1
gene 1 25 27 4.18919 0 73 4.18919 1
gene 1 25 28 1.24479 0 74 1.24479 1
gene 1 25 29 0.955077 0 75 0.955077 1
gene 1 26 27 3.28981 0 76 3.28981 1
gene 1 26 28 1.51182 0 77 1.51182 1
gene 1 26 29 3.80341 0 78 3.80341 1
gene 1 11 34 0.91052 0 94 0.91052 1
gene 1 34 28 0.713597 0 95 0.713597 1
gene 1 12 34 -3.67403 0 103 -3.67403 1
gene 1 28 29 0.247047 0 121 0.247047 1
genomeend 21

/* Organism #22 Fitness: 0.00736429 Error: 0 */
genomestart 22
trait 1 0 0 0 0 0 0 0 0 
node 1 1 1 1
node 2 1 1 1
node 3 1 1 1
node 4 1 1 1
node 5 1 1 1
node 6 1 1 1
node 7 1 1 1
node 8 1 1 1
node 9 1 1 1
node 10 1 1 1
node 11 1 1 1
node 12 1 1 1
node 13 1 1 1
node 14 1 1 1
node 15 1 1 1
node 16 1 1 1
node 17 1 1 1
node 18 1 1 1
node 19 1 1 1
node 20 1 1 1
node 21 1 1 1
node 22 1 1 1
node 23 1 1 1
node 24 1 1 1
node 25 1 1 1
node 26 1 1 3
node 27 1 0 2
node 28 1 0 2
node 29 1 0 2
node 34 1 0 0
gene 1 1 27 -4.65316 0 1 -4.65316 1
gene 1 1 28 0.220267 0 2 0.220267 1
gene 1 1 29 -0.0993835 0 3 -0.0993835 1
gene 1 2 27 -3.23727 0 4 -3.23727 1
gene 1 2 28 -3.53755 0 5 -3.53755 1
gene 1 2 29 -0.221658 0 6 -0.221658 1
gene 1 3 27 4.09329 0 7 4.09329 1
gene 1 3 28 5.59648 0 8 5.59648 1
gene 1 3 29 0.558184 0 9 0.558184 1
gene 1 4 27 3.7049 0 10 3.7049 1
gene 1 4 28 -5.66287 0 11 -5.66287 1
gene 1 4 29 3.2541 0 12 3.2541 1
gene 1 5 27 -2.76351 0 13 -2.76351 1
gene 1 5 28 -2.56514 0 14 -2.56514 1
gene 1 5 29 -2.5217 0 15 -2.5217 1
gene 1 6 27 1.60604 0 16 1.60604 1
gene 1 6 28 8 0 17 8 1
gene 1 6 29 -2.19963 0 18 -2.19963 1
gene 1 7 27 1.71285 0 19 1.71285 1
gene 1 7 28 1.05183 0 20 1.05183 1
gene 1 7 29 -2.05728 0 21 -2.05728 1
gene 1 8 27 2.50985 0 22 2.50985 1
gene 1 8 28 3.17765 0 23 3.17765 1
gene 1 8 29 -1.23787 0 24 -1.23787 1
gene 1 9 27 3.59237 0 25 3.59237 1
gene 1 9 28 -1.46677 0 26 -1.46677 1
gene 1 9 29 -3.08262 0 27 -3.08262 1
gene 1 10 27 3.74895 0 28 3.74895 1
gene 1 10 28 0.504236 0 29 0.504236 1
gene 1 10 29 0.884369 0 30 0.884369 1
gene 1 11 27 -2.98425 0 31 -2.98425 1
gene 1 11 28 3.1637 0 32 3.1637 0
gene 1 11 29 0.111694 0 33 0.111694 1
gene 1 12 27 1.04236 0 34 1.04236 1
gene 1 12 28 -1.78747 0 35 -1.78747 1
gene 1 12 29 2.13093 0 36 2.13093 1
gene 1 13 27 2.34889 0 37 2.34889 1
gene 1 13 28 3.73731 0 38 3.73731 1
gene 1 13 29 5.71707 0 39 5.71707 1
gene 1 14 27 -2.4118 0 40 -2.4118 1
gene 1 14 28 -0.823504 0 41 -0.823504 1
gene 1 14 29 -6.40778 0 42 -6.40778 1
gene 1 15 27 0.067217 0 43 0.067217 1
gene 1 15 28 4.32934 0 44 4.32934 1
gene 1 15 29 -2.11184 0 45 -2.11184 1
gene 1 16 27 2.55476 0 46 2.55476 1
gene 1 16 28 -0.713769 0 47 -0.713769 1
gene 1 16 29 -3.08233 0 48 -3.08233 1
gene 1 17 27 1.07324 0 49 1.07324 1
gene 1 17 28 1.61897 0 50 1.61897 1
gene 1 17 29 2.70164 0 51 2.70164 1
gene 1 18 27 -2.20599 0 52 -2.20599 1
gene 1 18 28 1.2013 0 53 1.2013 1
gene 1 18 29 -2.40622 0 54 -2.40622 1
gene 1 19 27 -0.182699 0 55 -0.182699 1
gene 1 19 28 -3.27276 0 56 -3.27276 1
gene 1 19 29 3.1406 0 57 3.1406 1
gene 1 20 27 0.0347758 0 58 0.0347758 1
gene 1 20 28 -0.124114 0 59 -0.124114 1
gene 1 20 29 0.262033 0 60 0.262033 1
gene 1 21 27 0.72626 0 61 0.72626 1
gene 1 21 28 2.06428 0 62 2.06428 1
gene 1 21 29 -5.0843 0 63 -5.0843 1
gene 1 22 27 -1.61695 0 64 -1.61695 1
gene 1 22 28 2.73322 0 65 2.73322 1
gene 1 22 29 3.86104 0 66 3.86104 1
gene 1 23 27 0.255491 0 67 0.255491 1
gene 1 23 28 1.3403 0 68 1.3403 1
gene 1 23 29 0.150151 0 69 0.150151 1
gene 1 24 27 -0.429374 0 70 -0.429374 1
gene 1 24 28 -3.09591 0 71 -3.09591 1
gene 1 24 29 -2.81808 0 72 -2.81808 1
gene 1 25 27 4.22719 0 73 4.22719 1
gene 1 25 28 4.56702 0 74 4.56702 1
gene 1 25 29 4.36813 0 75 4.36813 1
gene 1 26 27 -2.19283 0 76 -2.19283 1
gene 1 26 28 0.995247 0 77 0.995247 1
gene 1 26 29 2.18062 0 78 2.18062 1
gene 1 11 34 0.150533 0 94 0.150533 1
gene 1 34 28 2.85274 0 95 2.85274 1
gene 1 12 34 1.14895 0 103 1.14895 1
gene 1 25 34 -2.62635 0 135 -2.62635 1
genomeend 22

/* Organism #23 Fitness: 0.0764714 Error: 0 */
genomestart 23
trait 1 0.100253 0.323054 0 0 0.0477767 0 0 0 
node 1 1 1 1
node 2 1 1 1
node 3 1 1 1
node 4 1 1 1
node 5 1 1 1
node 6 1 1 1
node 7 1 1 1
node 8 1 1 1
node 9 1 1 1
node 10 1 1 1
node 11 1 1 1
node 12 1 1 1
node 13 1 1 1
node 14 1 1 1
node 15 1 1 1
node 16 1 1 1
node 17 1 1 1
node 18 1 1 1
node 19 1 1 1
node 20 1 1 1
node 21 1 1 1
node 22 1 1 1
node 23 1 1 1
node 24 1 1 1
node 25 1 1 1
node 26 1 1 3
node 27 1 0 2
node 28 1 0 2
node 29 1 0 2
node 34 1 0 0
gene 1 1 27 -3.47987 0 1 -3.47987 1
gene 1 1 28 3.44298 0 2 3.44298 1
gene 1 1 29 -3.5379 0 3 -3.5379 1
gene 1 2 27 -0.236236 0 4 -0.236236 1
gene 1 2 28 1.27333 0 5 1.27333 1
gene 1 2 29 -2.0498 0 6 -2.0498 1
gene 1 3 27 4.32081 0 7 4.32081 1
gene 1 3 28 -0.0469985 0 8 -0.0469985 1
gene 1 3 29 -1.83103 0 9 -1.83103 1
gene 1 4 27 4.26842 0 10 4.26842 1
gene 1 4 28 -1.88598 0 11 -1.88598 1
gene 1 4 29 3.57775 0 12 3.57775 1
gene 1 5 27 0.99075 0 13 0.99075 1
gene 1 5 28 -4.67445 0 14 -4.67445 1
gene 1 5 29 -1.65162 0 15 -1.65162 1
gene 1 6 27 1.23803 0 16 1.23803 1
gene 1 6 28 0.837664 0 17 0.837664 1
gene 1 6 29 1.72301 0 18 1.72301 1
gene 1 7 27 -2.85928 0 19 -2.85928 1
gene 1 7 28 -2.44937 0 20 -2.44937 1
gene 1 7 29 -6.49637 0 21 -6.49637 1
gene 1 8 27 -0.587402 0 22 -0.587402 1
gene 1 8 28 1.80775 0 23 1.80775 1
gene 1 8 29 -3.34941 0 24 -3.34941 1
gene 1 9 27 2.58763 0 25 2.58763 1
gene 1 9 28 -1.95961 0 26 -1.95961 1
gene 1 9 29 -3.54048 0 27 -3.54048 1
gene 1 10 27 0.362155 0 28 0.362155 1
gene 1 10 28 2.28842 0 29 2.28842 1
gene 1 10 29 -0.75251 0 30 -0.75251 1
gene 1 11 27 -0.985703 0 31 -0.985703 1
gene 1 11 28 0.15595 0 32 0.15595 0
gene 1 11 29 -1.73086 0 33 -1.73086 1
gene 1 12 27 3.83755 0 34 3.83755 1
gene 1 12 28 -1.79869 0 35 -1.79869 1
gene 1 12 29 0.821526 0 36 0.821526 1
gene 1 13 27 -0.164235 0 37 -0.164235 1
gene 1 13 28 5.32061 0 38 5.32061 1
gene 1 13 29 -1.70347 0 39 -1.70347 1
gene 1 14 27 -1.84991 0 40 -1.84991 1
gene 1 14 28 0.525567 0 41 0.525567 1
gene 1 14 29 -2.90914 0 42 -2.90914 1
gene 1 15 27 -0.383541 0 43 -0.383541 1
gene 1 15 28 -1.47995 0 44 -1.47995 1
gene 1 15 29 -0.806871 0 45 -0.806871 1
gene 1 16 27 -0.550707 0 46 -0.550707 1
gene 1 16 28 -3.49378 0 47 -3.49378 1
gene 1 16 29 -3.36809 0 48 -3.36809 1
gene 1 17 27 2.51911 0 49 2.51911 1
gene 1 17 28 2.82232 0 50 2.82232 1
gene 1 17 29 1.78423 0 51 1.78423 1
gene 1 18 27 -2.1741 0 52 -2.1741 1
gene 1 18 28 1.2792 0 53 1.2792 1
gene 1 18 29 -0.281331 0 54 -0.281331 1
gene 1 19 27 -0.801729 0 55 -0.801729 1
gene 1 19 28 -0.35585 0 56 -0.35585 1
gene 1 19 29 6.06442 0 57 6.06442 1
gene 1 20 27 -1.83509 0 58 -1.83509 1
gene 1 20 28 0.0210044 0 59 0.0210044 1
gene 1 20 29 -3.31001 0 60 -3.31001 1
gene 1 21 27 2.59895 0 61 2.59895 1
gene 1 21 28 -4.65471 0 62 -4.65471 1
gene 1 21 29 -2.97989 0 63 -2.97989 1
gene 1 22 27 -0.329905 0 64 -0.329905 1
gene 1 22 28 2.12918 0 65 2.12918 1
gene 1 22 29 7.07588 0 66 7.07588 1
gene 1 23 27 -2.24891 0 67 -2.24891 1
gene 1 23 28 2.06244 0 68 2.06244 1
gene 1 23 29 0.412763 0 69 0.412763 1
gene 1 24 27 -0.890759 0 70 -0.890759 1
gene 1 24 28 -3.96828 0 71 -3.96828 1
gene 1 24 29 -3.59378 0 72 -3.59378 1
gene 1 25 27 1.81699 0 73 1.81699 1
gene 1 25 28 3.84129 0 74 3.84129 1
gene 1 25 29 0.42024 0 75 0.42024 1
gene 1 26 27 3.28981 0 76 3.28981 1
gene 1 26 28 3.88997 0 77 3.88997 1
gene 1 26 29 0.249374 0 78 0.249374 1
gene 1 11 34 -1.49823 0 94 -1.49823 1
gene 1 34 28 1.06863 0 95 1.06863 1
gene 1 12 34 0.91113 0 103 0.91113 1
gene 1 28 29 1.14063 0 121 1.14063 1
genomeend 23

/* Organism #24 Fitness: 0.0614714 Error: 0 */
genomestart 24
trait 1 0.474929 0 0.810572 0 0.818369 0 0 0 
node 1 1 1 1
node 2 1 1 1
node 3 1 1 1
node 4 1 1 1
node 5 1 1 1
node 6 1 1 1
node 7 1 1 1
node 8 1 1 1
node 9 1 1 1
node 10 1 1 1
node 11 1 1 1
node 12 1 1 1
node 13 1 1 1
node 14 1 1 1
node 15 1 1 1
node 16 1 1 1
node 17 1 1 1
node 18 1 1 1
node 19 1 1 1
node 20 1 1 1
node 21 1 1 1
node 22 1 1 1
node 23 1 1 1
node 24 1 1 1
node 25 1 1 1
node 26 1 1 3
node 27 1 0 2
node 28 1 0 2
node 29 1 0 2
node 34 1 0 0
gene 1 1 27 -1.21172 0 1 -1.21172 1
gene 1 1 28 1.3294 0 2 1.3294 1
gene 1 1 29 -1.0535 0 3 -1.0535 1
gene 1 2 27 -2.58026 0 4 -2.58026 1
gene 1 2 28 -1.04494 0 5 -1.04494 1
gene 1 2 29 -0.694161 0 6 -0.694161 1
gene 1 3 27 -0.496461 0 7 -0.496461 1
gene 1 3 28 -1.33567 0 8 -1.33567 1
gene 1 3 29 4.47874 0 9 4.47874 1
gene 1 4 27 -1.24099 0 10 -1.24099 1
gene 1 4 28 -1.66442 0 11 -1.66442 1
gene 1 4 29 2.14776 0 12 2.14776 1
gene 1 5 27 -4.78871 0 13 -4.78871 1
gene 1 5 28 -1.81065 0 14 -1.81065 1
gene 1 5 29 1.28272 0 15 1.28272 1
gene 1 6 27 4.00682 0 16 4.00682 1
gene 1 6 28 0.0795083 0 17 0.0795083 1
gene 1 6 29 0.625636 0 18 0.625636 1
gene 1 7 27 -1.6993 0 19 -1.6993 1
gene 1 7 28 1.37358 0 20 1.37358 1
gene 1 7 29 -5.02223 0 21 -5.02223 1
gene 1 8 27 -1.38569 0 22 -1.38569 1
gene 1 8 28 -1.03081 0 23 -1.03081 1
gene 1 8 29 -6.67866 0 24 -6.67866 1
gene 1 9 27 -0.120586 0 25 -0.120586 1
gene 1 9 28 1.79392 0 26 1.79392 1
gene 1 9 29 -6.31285 0 27 -6.31285 1
gene 1 10 27 0.882236 0 28 0.882236 1
gene 1 10 28 2.84695 0 29 2.84695 1
gene 1 10 29 2.67854 0 30 2.67854 1
gene 1 11 27 4.82783 0 31 4.82783 1
gene 1 11 28 0.940638 0 32 0.940638 0
gene 1 11 29 2.27061 0 33 2.27061 1
gene 1 12 27 -1.64677 0 34 -1.64677 1
gene 1 12 28 2.13429 0 35 2.13429 1
gene 1 12 29 -3.91256 0 36 -3.91256 1
gene 1 13 27 7.80624 0 37 7.80624 1
gene 1 13 28 4.14924 0 38 4.14924 1
gene 1 13 29 -2.1588 0 39 -2.1588 1
gene 1 14 27 0.138634 0 40 0.138634 1
gene 1 14 28 -0.929346 0 41 -0.929346 1
gene 1 14 29 1.46455 0 42 1.46455 1
gene 1 15 27 -2.61264 0 43 -2.61264 1
gene 1 15 28 0.380848 0 44 0.380848 1
gene 1 15 29 2.47953 0 45 2.47953 1
gene 1 16 27 -0.448017 0 46 -0.448017 1
gene 1 16 28 -0.327772 0 47 -0.327772 1
gene 1 16 29 -5.45271 0 48 -5.45271 1
gene 1 17 27 5.71593 0 49 5.71593 1
gene 1 17 28 2.02634 0 50 2.02634 1
gene 1 17 29 -0.276172 0 51 -0.276172 1
gene 1 18 27 2.33792 0 52 2.33792 1
gene 1 18 28 5.77615 0 53 5.77615 1
gene 1 18 29 1.52141 0 54 1.52141 1
gene 1 19 27 1.32846 0 55 1.32846 1
gene 1 19 28 0.565008 0 56 0.565008 1
gene 1 19 29 2.86116 0 57 2.86116 1
gene 1 20 27 -3.815 0 58 -3.815 1
gene 1 20 28 -5.14571 0 59 -5.14571 1
gene 1 20 29 -1.3355 0 60 -1.3355 1
gene 1 21 27 6.4958 0 61 6.4958 1
gene 1 21 28 -5.45589 0 62 -5.45589 1
gene 1 21 29 -3.09443 0 63 -3.09443 1
gene 1 22 27 -1.97567 0 64 -1.97567 1
gene 1 22 28 7.38507 0 65 7.38507 1
gene 1 22 29 7.0314 0 66 7.0314 1
gene 1 23 27 -0.0468459 0 67 -0.0468459 1
gene 1 23 28 1.07383 0 68 1.07383 1
gene 1 23 29 0.392468 0 69 0.392468 1
gene 1 24 27 0.136036 0 70 0.136036 1
gene 1 24 28 -1.29017 0 71 -1.29017 1
gene 1 24 29 2.25644 0 72 2.25644 1
gene 1 25 27 1.97745 0 73 1.97745 1
gene 1 25 28 2.87812 0 74 2.87812 1
gene 1 25 29 -3.87569 0 75 -3.87569 1
gene 1 26 27 -1.89947 0 76 -1.89947 1
gene 1 26 28 4.32599 0 77 4.32599 1
gene 1 26 29 -1.30699 0 78 -1.30699 1
gene 1 11 34 -3.05284 0 94 -3.05284 1
gene 1 34 28 3.78752 0 95 3.78752 1
gene 1 12 34 -1.92808 0 103 -1.92808 1
gene 1 28 29 1.96261 0 121 1.96261 1
genomeend 24

/* Organism #25 Fitness: 0.0802214 Error: 0 */
genomestart 25
trait 1 0 0.77752 0.655293 0 0 0.917661 0.340617 0 
node 1 1 1 1
node 2 1 1 1
node 3 1 1 1
node 4 1 1 1
node 5 1 1 1
node 6 1 1 1
node 7 1 1 1
node 8 1 1 1
node 9 1 1 1
node 10 1 1 1
node 11 1 1 1
node 12 1 1 1
node 13 1 1 1
node 14 1 1 1
node 15 1 1 1
node 16 1 1 1
node 17 1 1 1
node 18 1 1 1
node 19 1 1 1
node 20 1 1 1
node 21 1 1 1
node 22 1 1 1
node 23 1 1 1
node 24 1 1 1
node 25 1 1 1
node 26 1 1 3
node 27 1 0 2
node 28 1 0 2
node 29 1 0 2
node 34 1 0 0
gene 1 1 27 -2.495 0 1 -2.495 1
gene 1 1 28 -0.939016 0 2 -0.939016 1
gene 1 1 29 -1.15992 0 3 -1.15992 1
gene 1 2 27 0.146809 0 4 0.146809 1
gene 1 2 28 -1.54106 0 5 -1.54106 1
gene 1 2 29 -2.51841 0 6 -2.51841 1
gene 1 3 27 3.23732 0 7 3.23732 1
gene 1 3 28 0.569754 0 8 0.569754 1
gene 1 3 29 -2.30934 0 9 -2.30934 1
gene 1 4 27 1.14299 0 10 1.14299 1
gene 1 4 28 -0.623516 0 11 -0.623516 1
gene 1 4 29 -4.04605 0 12 -4.04605 1
gene 1 5 27 1.48759 0 13 1.48759 1
gene 1 5 28 -6.27969 0 14 -6.27969 1
gene 1 5 29 -5.04584 0 15 -5.04584 1
gene 1 6 27 3.03256 0 16 3.03256 1
gene 1 6 28 1.139 0 17 1.139 1
gene 1 6 29 -2.24156 0 18 -2.24156 1
gene 1 7 27 0.769623 0 19 0.769623 1
gene 1 7 28 3.4033 0 20 3.4033 1
gene 1 7 29 -0.187162 0 21 -0.187162 1
gene 1 8 27 5.55757 0 22 5.55757 1
gene 1 8 28 2.02315 0 23 2.02315 1
gene 1 8 29 -3.59998 0 24 -3.59998 1
gene 1 9 27 -0.261467 0 25 -0.261467 1
gene 1 9 28 -2.88916 0 26 -2.88916 1
gene 1 9 29 2.17803 0 27 2.17803 1
gene 1 10 27 -3.21241 0 28 -3.21241 1
gene 1 10 28 0.693747 0 29 0.693747 1
gene 1 10 29 -0.747322 0 30 -0.747322 1
gene 1 11 27 -1.81307 0 31 -1.81307 1
gene 1 11 28 -4.05255 0 32 -4.05255 0
gene 1 11 29 6.46136 0 33 6.46136 1
gene 1 12 27 -0.631001 0 34 -0.631001 1
gene 1 12 28 1.69685 0 35 1.69685 1
gene 1 12 29 -3.04631 0 36 -3.04631 1
gene 1 13 27 -0.297334 0 37 -0.297334 1
gene 1 13 28 1.69593 0 38 1.69593 1
gene 1 13 29 0.178877 0 39 0.178877 1
gene 1 14 27 -6.18652 0 40 -6.18652 1
gene 1 14 28 0.490127 0 41 0.490127 1
gene 1 14 29 -1.89198 0 42 -1.89198 1
gene 1 15 27 1.47983 0 43 1.47983 1
gene 1 15 28 3.89876 0 44 3.89876 1
gene 1 15 29 0.10361 0 45 0.10361 1
gene 1 16 27 2.28898 0 46 2.28898 1
gene 1 16 28 -3.09 0 47 -3.09 1
gene 1 16 29 -2.44974 0 48 -2.44974 1
gene 1 17 27 -0.975795 0 49 -0.975795 1
gene 1 17 28 4.32277 0 50 4.32277 1
gene 1 17 29 1.25319 0 51 1.25319 1
gene 1 18 27 -1.56853 0 52 -1.56853 1
gene 1 18 28 -4.13294 0 53 -4.13294 1
gene 1 18 29 -0.842372 0 54 -0.842372 1
gene 1 19 27 1.32156 0 55 1.32156 1
gene 1 19 28 -2.90256 0 56 -2.90256 1
gene 1 19 29 1.85993 0 57 1.85993 1
gene 1 20 27 -2.33389 0 58 -2.33389 1
gene 1 20 28 -1.35263 0 59 -1.35263 1
gene 1 20 29 -3.74358 0 60 -3.74358 1
gene 1 21 27 4.32744 0 61 4.32744 1
gene 1 21 28 -0.0397046 0 62 -0.0397046 1
gene 1 21 29 -0.891591 0 63 -0.891591 1
gene 1 22 27 3.35839 0 64 3.35839 1
gene 1 22 28 4.14472 0 65 4.14472 1
gene 1 22 29 2.57108 0 66 2.57108 1
gene 1 23 27 1.15428 0 67 1.15428 1
gene 1 23 28 -0.727485 0 68 -0.727485 1
gene 1 23 29 -2.26077 0 69 -2.26077 1
gene 1 24 27 -2.27706 0 70 -2.27706 1
gene 1 24 28 -0.791955 0 71 -0.791955 1
gene 1 24 29 -3.63697 0 72 -3.63697 1
gene 1 25 27 5.01868 0 73 5.01868 1
gene 1 25 28 -1.65098 0 74 -1.65098 1
gene 1 25 29 3.52616 0 75 3.52616 1
gene 1 26 27 1.65545 0 76 1.65545 1
gene 1 26 28 0.193945 0 77 0.193945 1
gene 1 26 29 2.21194 0 78 2.21194 1
gene 1 11 34 -1.58063 0 94 -1.58063 1
gene 1 34 28 0.0460448 0 95 0.0460448 1
gene 1 12 34 -1.84267 0 103 -1.84267 1
gene 1 25 34 -0.552499 0 135 -0.552499 1
genomeend 25

/* Organism #26 Fitness: 0.0834357 Error: 0 */
genomestart 26
trait 1 0.200507 0.646107 0 0 0.0955535 0 0 0 
node 1 1 1 1
node 2 1 1 1
node 3 1 1 1
node 4 1 1 1
node 5 1 1 1
node 6 1 1 1
node 7 1 1 1
node 8 1 1 1
node 9 1 1 1
node 10 1 1 1
node 11 1 1 1
node 12 1 1 1
node 13 1 1 1
node 14 1 1 1
node 15 1 1 1
node 16 1 1 1
node 17 1 1 1
node 18 1 1 1
node 19 1 1 1
node 20 1 1 1
node 21 1 1 1
node 22 1 1 1
node 23 1 1 1
node 24 1 1 1
node 25 1 1 1
node 26 1 1 3
node 27 1 0 2
node 28 1 0 2
node 29 1 0 2
node 34 1 0 0
gene 1 1 27 2.32353 0 1 2.32353 1
gene 1 1 28 0.559175 0 2 0.559175 1
gene 1 1 29 -2.52965 0 3 -2.52965 1
gene 1 2 27 -5.80134 0 4 -5.80134 1
gene 1 2 28 -1.28732 0 5 -1.28732 1
gene 1 2 29 -3.13343 0 6 -3.13343 1
gene 1 3 27 -2.24944 0 7 -2.24944 1
gene 1 3 28 -0.71276 0 8 -0.71276 1
gene 1 3 29 0.851085 0 9 0.851085 1
gene 1 4 27 2.37533 0 10 2.37533 1
gene 1 4 28 -1.05317 0 11 -1.05317 1
gene 1 4 29 -1.38029 0 12 -1.38029 1
gene 1 5 27 -0.189324 0 13 -0.189324 1
gene 1 5 28 -1.255 0 14 -1.255 1
gene 1 5 29 -0.120903 0 15 -0.120903 1
gene 1 6 27 2.8018 0 16 2.8018 1
gene 1 6 28 2.46635 0 17 2.46635 1
gene 1 6 29 -1.71192 0 18 -1.71192 1
gene 1 7 27 3.13746 0 19 3.13746 1
gene 1 7 28 0.436762 0 20 0.436762 1
gene 1 7 29 -3.67135 0 21 -3.67135 1
gene 1 8 27 0.778878 0 22 0.778878 1
gene 1 8 28 -1.56043 0 23 -1.56043 1
gene 1 8 29 -1.68294 0 24 -1.68294 1
gene 1 9 27 -5.843 0 25 -5.843 1
gene 1 9 28 -0.698569 0 26 -0.698569 1
gene 1 9 29 -1.90536 0 27 -1.90536 1
gene 1 10 27 1.37374 0 28 1.37374 1
gene 1 10 28 0.485321 0 29 0.485321 1
gene 1 10 29 2.10654 0 30 2.10654 1
gene 1 11 27 0.0891589 0 31 0.0891589 1
gene 1 11 28 1.43567 0 32 1.43567 0
gene 1 11 29 -3.83725 0 33 -3.83725 1
gene 1 12 27 1.64831 0 34 1.64831 1
gene 1 12 28 0.614101 0 35 0.614101 1
gene 1 12 29 0.258841 0 36 0.258841 1
gene 1 13 27 3.932 0 37 3.932 1
gene 1 13 28 0.382321 0 38 0.382321 1
gene 1 13 29 -0.713218 0 39 -0.713218 1
gene 1 14 27 -4.02497 0 40 -4.02497 1
gene 1 14 28 -1.16516 0 41 -1.16516 1
gene 1 14 29 -0.932224 0 42 -0.932224 1
gene 1 15 27 1.95122 0 43 1.95122 1
gene 1 15 28 0.823206 0 44 0.823206 1
gene 1 15 29 -2.43805 0 45 -2.43805 1
gene 1 16 27 -3.92605 0 46 -3.92605 1
gene 1 16 28 -3.69871 0 47 -3.69871 1
gene 1 16 29 -0.685432 0 48 -0.685432 1
gene 1 17 27 2.62333 0 49 2.62333 1
gene 1 17 28 0.0184933 0 50 0.0184933 1
gene 1 17 29 1.84504 0 51 1.84504 1
gene 1 18 27 2.67052 0 52 2.67052 1
gene 1 18 28 4.71638 0 53 4.71638 1
gene 1 18 29 0.759732 0 54 0.759732 1
gene 1 19 27 0.0904035 0 55 0.0904035 1
gene 1 19 28 0.284963 0 56 0.284963 1
gene 1 19 29 0.80929 0 57 0.80929 1
gene 1 20 27 1.92457 0 58 1.92457 1
gene 1 20 28 -3.43178 0 59 -3.43178 1
gene 1 20 29 -3.26974 0 60 -3.26974 1
gene 1 21 27 3.66019 0 61 3.66019 1
gene 1 21 28 -1.06845 0 62 -1.06845 1
gene 1 21 29 -0.498354 0 63 -0.498354 1
gene 1 22 27 -1.2199 0 64 -1.2199 1
gene 1 22 28 0.95522 0 65 0.95522 1
gene 1 22 29 5.73078 0 66 5.73078 1
gene 1 23 27 -0.0740112 0 67 -0.0740112 1
gene 1 23 28 -0.614872 0 68 -0.614872 1
gene 1 23 29 -1.57949 0 69 -1.57949 1
gene 1 24 27 1.31214 0 70 1.31214 1
gene 1 24 28 -0.0672494 0 71 -0.0672494 1
gene 1 24 29 -0.541482 0 72 -0.541482 1
gene 1 25 27 3.20335 0 73 3.20335 1
gene 1 25 28 1.10791 0 74 1.10791 1
gene 1 25 29 1.03133 0 75 1.03133 1
gene 1 26 27 1.16517 0 76 1.16517 1
gene 1 26 28 1.90406 0 77 1.90406 1
gene 1 26 29 0.280351 0 78 0.280351 1
gene 1 11 34 -1.01032 0 94 -1.01032 1
gene 1 34 28 -0.258263 0 95 -0.258263 1
gene 1 12 34 0.188776 0 103 0.188776 1
gene 1 28 29 1.74146 0 121 1.74146 1
genomeend 26

/* Species #7 : (Size 16) (AF 0) (Age 11)  */


/* Organism #27 Fitness: 0.9146 Error: 0 */
/* ##------$ WINNER 27 SPECIES #7 $------## */
genomestart 27
trait 1 0 0 0 0 0 0 0 0 
node 1 1 1 1
node 2 1 1 1
node 3 1 1 1
node 4 1 1 1
node 5 1 1 1
node 6 1 1 1
node 7 1 1 1
node 8 1 1 1
node 9 1 1 1
node 10 1 1 1
node 11 1 1 1
