
/* Species #1 : (Size 100) (AF 0) (Age 3)  */


/* Organism #0 Fitness: 0.79048 Error: 0 */
/* ##------$ WINNER 0 SPECIES #1 $------## */
genomestart 0
trait 1 0 0 0 0 0 0 0 0 
node 1 1 1 1
node 2 1 1 1
node 3 1 1 1
node 4 1 1 1
node 5 1 1 1
node 6 1 1 1
node 7 1 1 1
node 8 1 1 1
node 9 1 1 1
node 10 1 1 1
node 11 1 1 1
node 12 1 1 1
node 13 1 1 1
node 14 1 1 1
node 15 1 1 1
node 16 1 1 1
node 17 1 1 1
node 18 1 1 1
node 19 1 1 1
node 20 1 1 1
node 21 1 1 1
node 22 1 1 1
node 23 1 1 1
node 24 1 1 1
node 25 1 1 1
node 26 1 1 3
node 27 1 0 2
node 28 1 0 2
node 29 1 0 2
gene 1 1 27 1.91221 0 1 1.91221 1
gene 1 1 28 -1.15197 0 2 -1.15197 1
gene 1 1 29 -0.845592 0 3 -0.845592 1
gene 1 2 27 -1.71023 0 4 -1.71023 1
gene 1 2 28 0.50177 0 5 0.50177 1
gene 1 2 29 1.36952 0 6 1.36952 1
gene 1 3 27 2.67734 0 7 2.67734 1
gene 1 3 28 -3.02318 0 8 -3.02318 1
gene 1 3 29 2.36389 0 9 2.36389 1
gene 1 4 27 -2.96522 0 10 -2.96522 1
gene 1 4 28 -2.47974 0 11 -2.47974 1
gene 1 4 29 -0.573824 0 12 -0.573824 1
gene 1 5 27 -0.116565 0 13 -0.116565 1
gene 1 5 28 -2.25117 0 14 -2.25117 1
gene 1 5 29 -2.56091 0 15 -2.56091 1
gene 1 6 27 2.0864 0 16 2.0864 1
gene 1 6 28 -1.68767 0 17 -1.68767 1
gene 1 6 29 0.542848 0 18 0.542848 1
gene 1 7 27 0.871761 0 19 0.871761 1
gene 1 7 28 -1.65175 0 20 -1.65175 1
gene 1 7 29 -1.50339 0 21 -1.50339 1
gene 1 8 27 -0.47264 0 22 -0.47264 1
gene 1 8 28 -0.376705 0 23 -0.376705 1
gene 1 8 29 -0.608814 0 24 -0.608814 1
gene 1 9 27 -0.91258 0 25 -0.91258 1
gene 1 9 28 -2.18712 0 26 -2.18712 1
gene 1 9 29 0.225837 0 27 0.225837 1
gene 1 10 27 -1.35546 0 28 -1.35546 1
gene 1 10 28 1.89045 0 29 1.89045 1
gene 1 10 29 1.72648 0 30 1.72648 1
gene 1 11 27 0.598025 0 31 0.598025 1
gene 1 11 28 -0.782311 0 32 -0.782311 1
gene 1 11 29 -0.346599 0 33 -0.346599 1
gene 1 12 27 -1.39174 0 34 -1.39174 1
gene 1 12 28 -0.713981 0 35 -0.713981 1
gene 1 12 29 1.09571 0 36 1.09571 1
gene 1 13 27 1.74741 0 37 1.74741 1
gene 1 13 28 -0.664281 0 38 -0.664281 1
gene 1 13 29 -0.380642 0 39 -0.380642 1
gene 1 14 27 -0.970305 0 40 -0.970305 1
gene 1 14 28 0.459548 0 41 0.459548 1
gene 1 14 29 -0.111454 0 42 -0.111454 1
gene 1 15 27 0.726249 0 43 0.726249 1
gene 1 15 28 1.05654 0 44 1.05654 1
gene 1 15 29 -1.60672 0 45 -1.60672 1
gene 1 16 27 0.916776 0 46 0.916776 1
gene 1 16 28 -1.76012 0 47 -1.76012 1
gene 1 16 29 -0.880642 0 48 -0.880642 1
gene 1 17 27 0.422437 0 49 0.422437 1
gene 1 17 28 0.853191 0 50 0.853191 1
gene 1 17 29 2.90052 0 51 2.90052 1
gene 1 18 27 1.23478 0 52 1.23478 1
gene 1 18 28 -1.28631 0 53 -1.28631 1
gene 1 18 29 1.55739 0 54 1.55739 1
gene 1 19 27 -2.25298 0 55 -2.25298 1
gene 1 19 28 -0.258675 0 56 -0.258675 1
gene 1 19 29 -0.544664 0 57 -0.544664 1
gene 1 20 27 -1.3782 0 58 -1.3782 1
gene 1 20 28 -0.901395 0 59 -0.901395 1
gene 1 20 29 -1.6401 0 60 -1.6401 1
gene 1 21 27 1.20952 0 61 1.20952 1
gene 1 21 28 1.33053 0 62 1.33053 1
gene 1 21 29 -1.81611 0 63 -1.81611 1
gene 1 22 27 -0.737709 0 64 -0.737709 1
gene 1 22 28 1.51616 0 65 1.51616 1
gene 1 22 29 0.58562 0 66 0.58562 1
gene 1 23 27 0.970855 0 67 0.970855 1
gene 1 23 28 -2.5195 0 68 -2.5195 1
gene 1 23 29 -2.14217 0 69 -2.14217 1
gene 1 24 27 0.295267 0 70 0.295267 1
gene 1 24 28 0.175481 0 71 0.175481 1
gene 1 24 29 -2.713 0 72 -2.713 1
gene 1 25 27 2.48184 0 73 2.48184 1
gene 1 25 28 -1.06929 0 74 -1.06929 1
gene 1 25 29 1.88878 0 75 1.88878 1
gene 1 26 27 2.24526 0 76 2.24526 1
gene 1 26 28 -0.0410474 0 77 -0.0410474 1
gene 1 26 29 -0.405042 0 78 -0.405042 1
genomeend 0

/* Organism #1 Fitness: 0.00736429 Error: 0 */
genomestart 1
trait 1 0 0 0 0 0 0 0 0 
node 1 1 1 1
node 2 1 1 1
node 3 1 1 1
node 4 1 1 1
node 5 1 1 1
node 6 1 1 1
node 7 1 1 1
node 8 1 1 1
node 9 1 1 1
node 10 1 1 1
node 11 1 1 1
node 12 1 1 1
node 13 1 1 1
node 14 1 1 1
node 15 1 1 1
node 16 1 1 1
node 17 1 1 1
node 18 1 1 1
node 19 1 1 1
node 20 1 1 1
node 21 1 1 1
node 22 1 1 1
node 23 1 1 1
node 24 1 1 1
node 25 1 1 1
node 26 1 1 3
node 27 1 0 2
node 28 1 0 2
node 29 1 0 2
gene 1 1 27 -2.72861 0 1 -2.72861 1
gene 1 1 28 0.255905 0 2 0.255905 1
gene 1 1 29 -1.46416 0 3 -1.46416 1
gene 1 2 27 2.7734 0 4 2.7734 1
gene 1 2 28 0.103038 0 5 0.103038 1
gene 1 2 29 2.72563 0 6 2.72563 1
gene 1 3 27 -1.05029 0 7 -1.05029 1
gene 1 3 28 0.0720466 0 8 0.0720466 1
gene 1 3 29 2.04623 0 9 2.04623 1
gene 1 4 27 0.311098 0 10 0.311098 1
gene 1 4 28 -2.18427 0 11 -2.18427 1
gene 1 4 29 1.36115 0 12 1.36115 1
gene 1 5 27 0.975021 0 13 0.975021 1
gene 1 5 28 0.634259 0 14 0.634259 1
gene 1 5 29 -2.61659 0 15 -2.61659 1
gene 1 6 27 -0.222533 0 16 -0.222533 1
gene 1 6 28 1.39921 0 17 1.39921 1
gene 1 6 29 2.05061 0 18 2.05061 1
gene 1 7 27 1.46268 0 19 1.46268 1
gene 1 7 28 -0.176931 0 20 -0.176931 1
gene 1 7 29 -0.732704 0 21 -0.732704 1
gene 1 8 27 0.768433 0 22 0.768433 1
gene 1 8 28 -3.36721 0 23 -3.36721 1
gene 1 8 29 0.0582217 0 24 0.0582217 1
gene 1 9 27 1.73757 0 25 1.73757 1
gene 1 9 28 1.86975 0 26 1.86975 1
gene 1 9 29 3.50123 0 27 3.50123 1
gene 1 10 27 2.07648 0 28 2.07648 1
gene 1 10 28 0.0970031 0 29 0.0970031 1
gene 1 10 29 -1.47362 0 30 -1.47362 1
gene 1 11 27 2.8122 0 31 2.8122 1
gene 1 11 28 -2.08217 0 32 -2.08217 1
gene 1 11 29 -2.03551 0 33 -2.03551 1
gene 1 12 27 0.0747017 0 34 0.0747017 1
gene 1 12 28 -0.122837 0 35 -0.122837 1
gene 1 12 29 -0.358867 0 36 -0.358867 1
gene 1 13 27 -2.24164 0 37 -2.24164 1
gene 1 13 28 -0.934309 0 38 -0.934309 1
gene 1 13 29 1.42125 0 39 1.42125 1
gene 1 14 27 -0.83594 0 40 -0.83594 1
gene 1 14 28 0.841662 0 41 0.841662 1
gene 1 14 29 -1.35202 0 42 -1.35202 1
gene 1 15 27 -0.788743 0 43 -0.788743 1
gene 1 15 28 1.92835 0 44 1.92835 1
gene 1 15 29 2.65639 0 45 2.65639 1
gene 1 16 27 -1.02521 0 46 -1.02521 1
gene 1 16 28 1.02941 0 47 1.02941 1
gene 1 16 29 -0.711966 0 48 -0.711966 1
gene 1 17 27 1.65163 0 49 1.65163 1
gene 1 17 28 -0.719474 0 50 -0.719474 1
gene 1 17 29 -0.883953 0 51 -0.883953 1
gene 1 18 27 1.04901 0 52 1.04901 1
gene 1 18 28 -1.06001 0 53 -1.06001 1
gene 1 18 29 -1.15211 0 54 -1.15211 1
gene 1 19 27 -1.80351 0 55 -1.80351 1
gene 1 19 28 -1.80821 0 56 -1.80821 1
gene 1 19 29 -2.17645 0 57 -2.17645 1
gene 1 20 27 0.742851 0 58 0.742851 1
gene 1 20 28 2.32534 0 59 2.32534 1
gene 1 20 29 -1.60636 0 60 -1.60636 1
gene 1 21 27 -0.733291 0 61 -0.733291 1
gene 1 21 28 2.10595 0 62 2.10595 1
gene 1 21 29 0.0404523 0 63 0.0404523 1
gene 1 22 27 -3.45164 0 64 -3.45164 1
gene 1 22 28 -0.334605 0 65 -0.334605 1
gene 1 22 29 0.978042 0 66 0.978042 1
gene 1 23 27 -1.86286 0 67 -1.86286 1
gene 1 23 28 -0.118976 0 68 -0.118976 1
gene 1 23 29 -1.08839 0 69 -1.08839 1
gene 1 24 27 0.529954 0 70 0.529954 1
gene 1 24 28 -2.63813 0 71 -2.63813 1
gene 1 24 29 -1.64556 0 72 -1.64556 1
gene 1 25 27 -0.50399 0 73 -0.50399 1
gene 1 25 28 0.434599 0 74 0.434599 1
gene 1 25 29 1.27284 0 75 1.27284 1
gene 1 26 27 0.768456 0 76 0.768456 1
gene 1 26 28 -0.565676 0 77 -0.565676 1
gene 1 26 29 -0.569514 0 78 -0.569514 1
genomeend 1

/* Organism #2 Fitness: 0.0748643 Error: 0 */
genomestart 2
trait 1 0 0 0 0 0 0 0 0 
node 1 1 1 1
node 2 1 1 1
node 3 1 1 1
node 4 1 1 1
node 5 1 1 1
node 6 1 1 1
node 7 1 1 1
node 8 1 1 1
node 9 1 1 1
node 10 1 1 1
node 11 1 1 1
node 12 1 1 1
node 13 1 1 1
node 14 1 1 1
node 15 1 1 1
node 16 1 1 1
node 17 1 1 1
node 18 1 1 1
node 19 1 1 1
node 20 1 1 1
node 21 1 1 1
node 22 1 1 1
node 23 1 1 1
node 24 1 1 1
node 25 1 1 1
node 26 1 1 3
node 27 1 0 2
node 28 1 0 2
node 29 1 0 2
gene 1 1 27 0.943327 0 1 0.943327 1
gene 1 1 28 -0.423444 0 2 -0.423444 1
gene 1 1 29 -0.393979 0 3 -0.393979 1
gene 1 2 27 -1.08898 0 4 -1.08898 1
gene 1 2 28 3.76852 0 5 3.76852 1
gene 1 2 29 0.158437 0 6 0.158437 1
gene 1 3 27 -2.93294 0 7 -2.93294 1
gene 1 3 28 1.97066 0 8 1.97066 1
gene 1 3 29 -0.076632 0 9 -0.076632 1
gene 1 4 27 -2.68184 0 10 -2.68184 1
gene 1 4 28 -0.928968 0 11 -0.928968 1
gene 1 4 29 -3.08399 0 12 -3.08399 1
gene 1 5 27 -2.90358 0 13 -2.90358 1
gene 1 5 28 -1.77473 0 14 -1.77473 1
gene 1 5 29 -1.86482 0 15 -1.86482 1
gene 1 6 27 0.656453 0 16 0.656453 1
gene 1 6 28 -2.34336 0 17 -2.34336 1
gene 1 6 29 3.21062 0 18 3.21062 1
gene 1 7 27 2.60932 0 19 2.60932 1
gene 1 7 28 2.13935 0 20 2.13935 1
gene 1 7 29 0.644856 0 21 0.644856 1
gene 1 8 27 -2.01721 0 22 -2.01721 1
gene 1 8 28 -0.484039 0 23 -0.484039 1
gene 1 8 29 1.41134 0 24 1.41134 1
gene 1 9 27 0.299677 0 25 0.299677 1
gene 1 9 28 -2.60054 0 26 -2.60054 1
gene 1 9 29 -4.05325 0 27 -4.05325 1
gene 1 10 27 -0.902875 0 28 -0.902875 1
gene 1 10 28 0.307855 0 29 0.307855 1
gene 1 10 29 -0.214545 0 30 -0.214545 1
gene 1 11 27 2.71044 0 31 2.71044 1
gene 1 11 28 -0.570315 0 32 -0.570315 1
gene 1 11 29 0.0618915 0 33 0.0618915 1
gene 1 12 27 -1.84696 0 34 -1.84696 1
gene 1 12 28 -0.146428 0 35 -0.146428 1
gene 1 12 29 -0.156178 0 36 -0.156178 1
gene 1 13 27 4.50327 0 37 4.50327 1
gene 1 13 28 1.37944 0 38 1.37944 1
gene 1 13 29 2.27302 0 39 2.27302 1
gene 1 14 27 0.658818 0 40 0.658818 1
gene 1 14 28 -0.387112 0 41 -0.387112 1
gene 1 14 29 2.77366 0 42 2.77366 1
gene 1 15 27 0.318506 0 43 0.318506 1
gene 1 15 28 0.217719 0 44 0.217719 1
gene 1 15 29 3.28367 0 45 3.28367 1
gene 1 16 27 0.880947 0 46 0.880947 1
gene 1 16 28 0.00144963 0 47 0.00144963 1
gene 1 16 29 -0.959563 0 48 -0.959563 1
gene 1 17 27 4.81921 0 49 4.81921 1
gene 1 17 28 1.64251 0 50 1.64251 1
gene 1 17 29 -0.269555 0 51 -0.269555 1
gene 1 18 27 -2.55315 0 52 -2.55315 1
gene 1 18 28 -0.828043 0 53 -0.828043 1
gene 1 18 29 -1.76724 0 54 -1.76724 1
gene 1 19 27 -1.37538 0 55 -1.37538 1
gene 1 19 28 -2.9835 0 56 -2.9835 1
gene 1 19 29 2.19291 0 57 2.19291 1
gene 1 20 27 -0.167028 0 58 -0.167028 1
gene 1 20 28 1.59252 0 59 1.59252 1
gene 1 20 29 0.740013 0 60 0.740013 1
gene 1 21 27 0.357906 0 61 0.357906 1
gene 1 21 28 0.59743 0 62 0.59743 1
gene 1 21 29 1.81973 0 63 1.81973 1
gene 1 22 27 -1.52478 0 64 -1.52478 1
gene 1 22 28 1.80456 0 65 1.80456 1
gene 1 22 29 -0.4326 0 66 -0.4326 1
gene 1 23 27 -1.64769 0 67 -1.64769 1
gene 1 23 28 -1.38368 0 68 -1.38368 1
gene 1 23 29 1.60314 0 69 1.60314 1
gene 1 24 27 1.46518 0 70 1.46518 1
gene 1 24 28 -0.903119 0 71 -0.903119 1
gene 1 24 29 0.699454 0 72 0.699454 1
gene 1 25 27 1.93373 0 73 1.93373 1
gene 1 25 28 -2.4008 0 74 -2.4008 1
gene 1 25 29 4.88243 0 75 4.88243 1
gene 1 26 27 2.41646 0 76 2.41646 1
gene 1 26 28 2.77888 0 77 2.77888 1
gene 1 26 29 2.15212 0 78 2.15212 1
genomeend 2

/* Organism #3 Fitness: 0.0598643 Error: 0 */
genomestart 3
trait 1 0 0 0 0 0 0 0.0908536 0.0265664 
node 1 1 1 1
node 2 1 1 1
node 3 1 1 1
node 4 1 1 1
node 5 1 1 1
node 6 1 1 1
node 7 1 1 1
node 8 1 1 1
node 9 1 1 1
node 10 1 1 1
node 11 1 1 1
node 12 1 1 1
node 13 1 1 1
node 14 1 1 1
node 15 1 1 1
node 16 1 1 1
node 17 1 1 1
node 18 1 1 1
node 19 1 1 1
node 20 1 1 1
node 21 1 1 1
node 22 1 1 1
node 23 1 1 1
node 24 1 1 1
node 25 1 1 1
node 26 1 1 3
node 27 1 0 2
node 28 1 0 2
node 29 1 0 2
gene 1 1 27 0.26661 0 1 0.26661 1
gene 1 1 28 1.00697 0 2 1.00697 1
gene 1 1 29 -1.37271 0 3 -1.37271 1
gene 1 2 27 -0.123302 0 4 -0.123302 1
gene 1 2 28 0.552248 0 5 0.552248 1
gene 1 2 29 1.23489 0 6 1.23489 1
gene 1 3 27 0.214301 0 7 0.214301 1
gene 1 3 28 0.893132 0 8 0.893132 1
gene 1 3 29 -0.305422 0 9 -0.305422 1
gene 1 4 27 0.0120548 0 10 0.0120548 1
gene 1 4 28 -0.452658 0 11 -0.452658 1
gene 1 4 29 -0.929296 0 12 -0.929296 1
gene 1 5 27 0.106075 0 13 0.106075 1
gene 1 5 28 1.00137 0 14 1.00137 1
gene 1 5 29 -0.0699713 0 15 -0.0699713 1
gene 1 6 27 -1.13371 0 16 -1.13371 1
gene 1 6 28 0.484985 0 17 0.484985 1
gene 1 6 29 -1.02052 0 18 -1.02052 1
gene 1 7 27 -1.0624 0 19 -1.0624 1
gene 1 7 28 -0.890164 0 20 -0.890164 1
gene 1 7 29 -0.917966 0 21 -0.917966 1
gene 1 8 27 -1.2062 0 22 -1.2062 1
gene 1 8 28 1.70471 0 23 1.70471 1
gene 1 8 29 -0.167196 0 24 -0.167196 1
gene 1 9 27 -0.502258 0 25 -0.502258 1
gene 1 9 28 0.44676 0 26 0.44676 1
gene 1 9 29 -0.67523 0 27 -0.67523 1
gene 1 10 27 1.74136 0 28 1.74136 1
gene 1 10 28 -1.10025 0 29 -1.10025 1
gene 1 10 29 1.24348 0 30 1.24348 1
gene 1 11 27 1.74083 0 31 1.74083 1
gene 1 11 28 0.933096 0 32 0.933096 1
gene 1 11 29 -0.396634 0 33 -0.396634 1
gene 1 12 27 0.111377 0 34 0.111377 1
gene 1 12 28 -1.07247 0 35 -1.07247 1
gene 1 12 29 1.19555 0 36 1.19555 1
gene 1 13 27 -1.36151 0 37 -1.36151 1
gene 1 13 28 -0.0517594 0 38 -0.0517594 1
gene 1 13 29 -1.26263 0 39 -1.26263 1
gene 1 14 27 0.571024 0 40 0.571024 1
gene 1 14 28 0.0526444 0 41 0.0526444 1
gene 1 14 29 -0.116771 0 42 -0.116771 1
gene 1 15 27 0.178594 0 43 0.178594 1
gene 1 15 28 0.577387 0 44 0.577387 1
gene 1 15 29 -0.358043 0 45 -0.358043 1
gene 1 16 27 0.478156 0 46 0.478156 1
gene 1 16 28 1.91247 0 47 1.91247 1
gene 1 16 29 0.370899 0 48 0.370899 1
gene 1 17 27 -0.17906 0 49 -0.17906 1
gene 1 17 28 0.842761 0 50 0.842761 1
gene 1 17 29 -0.281198 0 51 -0.281198 1
gene 1 18 27 -1.08106 0 52 -1.08106 1
gene 1 18 28 0.280358 0 53 0.280358 1
gene 1 18 29 -1.04002 0 54 -1.04002 1
gene 1 19 27 0.232795 0 55 0.232795 1
gene 1 19 28 -0.958899 0 56 -0.958899 1
gene 1 19 29 -0.207991 0 57 -0.207991 1
gene 1 20 27 -0.835917 0 58 -0.835917 1
gene 1 20 28 1.30332 0 59 1.30332 1
gene 1 20 29 -0.911382 0 60 -0.911382 1
gene 1 21 27 0.482841 0 61 0.482841 1
gene 1 21 28 0.671842 0 62 0.671842 1
gene 1 21 29 0.874683 0 63 0.874683 1
gene 1 22 27 0.895497 0 64 0.895497 1
gene 1 22 28 0.358898 0 65 0.358898 1
gene 1 22 29 -0.568331 0 66 -0.568331 1
gene 1 23 27 0.493835 0 67 0.493835 1
gene 1 23 28 2.06147 0 68 2.06147 1
gene 1 23 29 -0.431913 0 69 -0.431913 1
gene 1 24 27 -0.0283746 0 70 -0.0283746 1
gene 1 24 28 -1.68892 0 71 -1.68892 1
gene 1 24 29 0.193846 0 72 0.193846 1
gene 1 25 27 -0.168012 0 73 -0.168012 1
gene 1 25 28 0.0984527 0 74 0.0984527 1
gene 1 25 29 -0.636547 0 75 -0.636547 1
gene 1 26 27 -0.3043 0 76 -0.3043 1
gene 1 26 28 1.13753 0 77 1.13753 1
gene 1 26 29 -1.4714 0 78 -1.4714 1
genomeend 3

/* Organism #4 Fitness: 0.0131071 Error: 0 */
genomestart 4
trait 1 0 0 0 0 0 0 0 0 
node 1 1 1 1
node 2 1 1 1
node 3 1 1 1
node 4 1 1 1
node 5 1 1 1
node 6 1 1 1
node 7 1 1 1
node 8 1 1 1
node 9 1 1 1
node 10 1 1 1
node 11 1 1 1
node 12 1 1 1
node 13 1 1 1
node 14 1 1 1
node 15 1 1 1
node 16 1 1 1
node 17 1 1 1
node 18 1 1 1
node 19 1 1 1
node 20 1 1 1
node 21 1 1 1
node 22 1 1 1
node 23 1 1 1
node 24 1 1 1
node 25 1 1 1
node 26 1 1 3
node 27 1 0 2
node 28 1 0 2
node 29 1 0 2
gene 1 1 27 -0.412702 0 1 -0.412702 1
gene 1 1 28 -2.42338 0 2 -2.42338 1
gene 1 1 29 -1.08089 0 3 -1.08089 1
gene 1 2 27 -0.535371 0 4 -0.535371 1
gene 1 2 28 1.1757 0 5 1.1757 1
gene 1 2 29 -1.92497 0 6 -1.92497 1
gene 1 3 27 0.40112 0 7 0.40112 1
gene 1 3 28 1.27709 0 8 1.27709 1
gene 1 3 29 5.04764 0 9 5.04764 1
gene 1 4 27 1.71618 0 10 1.71618 1
gene 1 4 28 3.17397 0 11 3.17397 1
gene 1 4 29 2.18285 0 12 2.18285 1
gene 1 5 27 -1.85702 0 13 -1.85702 1
gene 1 5 28 1.40492 0 14 1.40492 1
gene 1 5 29 -1.5947 0 15 -1.5947 1
gene 1 6 27 -0.876568 0 16 -0.876568 1
gene 1 6 28 -2.8065 0 17 -2.8065 1
gene 1 6 29 -1.53882 0 18 -1.53882 1
gene 1 7 27 -0.968841 0 19 -0.968841 1
gene 1 7 28 -1.27515 0 20 -1.27515 1
gene 1 7 29 -1.28323 0 21 -1.28323 1
gene 1 8 27 -0.760521 0 22 -0.760521 1
gene 1 8 28 -0.681585 0 23 -0.681585 1
gene 1 8 29 -1.01955 0 24 -1.01955 1
gene 1 9 27 3.87179 0 25 3.87179 1
gene 1 9 28 1.2803 0 26 1.2803 1
gene 1 9 29 1.16326 0 27 1.16326 1
gene 1 10 27 0.546434 0 28 0.546434 1
gene 1 10 28 2.28063 0 29 2.28063 1
gene 1 10 29 -0.251869 0 30 -0.251869 1
gene 1 11 27 -0.0974609 0 31 -0.0974609 1
gene 1 11 28 2.42294 0 32 2.42294 1
gene 1 11 29 1.34088 0 33 1.34088 1
gene 1 12 27 0.25425 0 34 0.25425 1
gene 1 12 28 0.708029 0 35 0.708029 1
gene 1 12 29 1.82308 0 36 1.82308 1
gene 1 13 27 -0.690634 0 37 -0.690634 1
gene 1 13 28 -1.54384 0 38 -1.54384 1
gene 1 13 29 -1.54341 0 39 -1.54341 1
gene 1 14 27 1.77493 0 40 1.77493 1
gene 1 14 28 -3.22321 0 41 -3.22321 1
gene 1 14 29 1.562 0 42 1.562 1
gene 1 15 27 -1.3701 0 43 -1.3701 1
gene 1 15 28 0.460189 0 44 0.460189 1
gene 1 15 29 1.10337 0 45 1.10337 1
gene 1 16 27 -1.92094 0 46 -1.92094 1
gene 1 16 28 -0.538713 0 47 -0.538713 1
gene 1 16 29 2.3247 0 48 2.3247 1
gene 1 17 27 2.2075 0 49 2.2075 1
gene 1 17 28 -2.08409 0 50 -2.08409 1
gene 1 17 29 -0.929762 0 51 -0.929762 1
gene 1 18 27 -2.16491 0 52 -2.16491 1
gene 1 18 28 -1.97612 0 53 -1.97612 1
gene 1 18 29 1.09256 0 54 1.09256 1
gene 1 19 27 -1.21099 0 55 -1.21099 1
gene 1 19 28 -0.594882 0 56 -0.594882 1
gene 1 19 29 1.71918 0 57 1.71918 1
gene 1 20 27 0.700537 0 58 0.700537 1
gene 1 20 28 1.38382 0 59 1.38382 1
gene 1 20 29 0.0870998 0 60 0.0870998 1
gene 1 21 27 -2.34489 0 61 -2.34489 1
gene 1 21 28 3.92994 0 62 3.92994 1
gene 1 21 29 -2.19097 0 63 -2.19097 1
gene 1 22 27 -1.60367 0 64 -1.60367 1
gene 1 22 28 0.902112 0 65 0.902112 1
gene 1 22 29 2.27668 0 66 2.27668 1
gene 1 23 27 0.608875 0 67 0.608875 1
gene 1 23 28 0.827174 0 68 0.827174 1
gene 1 23 29 0.290918 0 69 0.290918 1
gene 1 24 27 -1.59673 0 70 -1.59673 1
gene 1 24 28 1.55307 0 71 1.55307 1
gene 1 24 29 -2.65361 0 72 -2.65361 1
gene 1 25 27 -2.12577 0 73 -2.12577 1
gene 1 25 28 1.77511 0 74 1.77511 1
gene 1 25 29 -1.07288 0 75 -1.07288 1
gene 1 26 27 0.995666 0 76 0.995666 1
gene 1 26 28 0.529466 0 77 0.529466 1
gene 1 26 29 2.42798 0 78 2.42798 1
genomeend 4

/* Organism #5 Fitness: 0.00736429 Error: 0 */
genomestart 5
trait 1 0 0 0 0 0 0 0 0 
node 1 1 1 1
node 2 1 1 1
node 3 1 1 1
node 4 1 1 1
node 5 1 1 1
node 6 1 1 1
node 7 1 1 1
node 8 1 1 1
node 9 1 1 1
node 10 1 1 1
node 11 1 1 1
node 12 1 1 1
node 13 1 1 1
node 14 1 1 1
node 15 1 1 1
node 16 1 1 1
node 17 1 1 1
node 18 1 1 1
node 19 1 1 1
node 20 1 1 1
node 21 1 1 1
node 22 1 1 1
node 23 1 1 1
node 24 1 1 1
node 25 1 1 1
node 26 1 1 3
node 27 1 0 2
node 28 1 0 2
node 29 1 0 2
gene 1 1 27 -2.18987 0 1 -2.18987 1
gene 1 1 28 -1.63385 0 2 -1.63385 1
gene 1 1 29 -0.433393 0 3 -0.433393 1
gene 1 2 27 -0.930357 0 4 -0.930357 1
gene 1 2 28 -1.03963 0 5 -1.03963 1
gene 1 2 29 -0.454054 0 6 -0.454054 1
gene 1 3 27 -0.627873 0 7 -0.627873 1
gene 1 3 28 -0.34875 0 8 -0.34875 1
gene 1 3 29 0.0112156 0 9 0.0112156 1
gene 1 4 27 1.46513 0 10 1.46513 1
gene 1 4 28 2.18412 0 11 2.18412 1
gene 1 4 29 0.669851 0 12 0.669851 1
gene 1 5 27 0.370968 0 13 0.370968 1
gene 1 5 28 0.512192 0 14 0.512192 1
gene 1 5 29 1.86102 0 15 1.86102 1
gene 1 6 27 0.134709 0 16 0.134709 1
gene 1 6 28 1.47176 0 17 1.47176 1
gene 1 6 29 3.41052 0 18 3.41052 1
gene 1 7 27 3.44993 0 19 3.44993 1
gene 1 7 28 0.19982 0 20 0.19982 1
gene 1 7 29 -0.757836 0 21 -0.757836 1
gene 1 8 27 -2.46118 0 22 -2.46118 1
gene 1 8 28 -0.492462 0 23 -0.492462 1
gene 1 8 29 -1.45663 0 24 -1.45663 1
gene 1 9 27 -1.52136 0 25 -1.52136 1
gene 1 9 28 -0.828501 0 26 -0.828501 1
gene 1 9 29 0.239647 0 27 0.239647 1
gene 1 10 27 2.16144 0 28 2.16144 1
gene 1 10 28 0.746544 0 29 0.746544 1
gene 1 10 29 -1.87017 0 30 -1.87017 1
gene 1 11 27 0.921125 0 31 0.921125 1
gene 1 11 28 -0.824458 0 32 -0.824458 1
gene 1 11 29 -3.38424 0 33 -3.38424 1
gene 1 12 27 -3.72304 0 34 -3.72304 1
gene 1 12 28 -1.01059 0 35 -1.01059 1
gene 1 12 29 -0.482086 0 36 -0.482086 1
gene 1 13 27 1.53964 0 37 1.53964 1
gene 1 13 28 0.340968 0 38 0.340968 1
gene 1 13 29 -1.7127 0 39 -1.7127 1
gene 1 14 27 -3.53015 0 40 -3.53015 1
gene 1 14 28 3.60103 0 41 3.60103 1
gene 1 14 29 -2.11621 0 42 -2.11621 1
gene 1 15 27 0.906705 0 43 0.906705 1
gene 1 15 28 1.01234 0 44 1.01234 1
gene 1 15 29 -1.43667 0 45 -1.43667 1
gene 1 16 27 0.805185 0 46 0.805185 1
gene 1 16 28 -1.66967 0 47 -1.66967 1
gene 1 16 29 -1.43648 0 48 -1.43648 1
gene 1 17 27 1.96635 0 49 1.96635 1
gene 1 17 28 -4.33538 0 50 -4.33538 1
gene 1 17 29 -0.0559862 0 51 -0.0559862 1
gene 1 18 27 -1.00607 0 52 -1.00607 1
gene 1 18 28 -0.314508 0 53 -0.314508 1
gene 1 18 29 -1.8583 0 54 -1.8583 1
gene 1 19 27 1.06043 0 55 1.06043 1
gene 1 19 28 2.56243 0 56 2.56243 1
gene 1 19 29 -1.36482 0 57 -1.36482 1
gene 1 20 27 -1.29147 0 58 -1.29147 1
gene 1 20 28 -0.608386 0 59 -0.608386 1
gene 1 20 29 -2.08945 0 60 -2.08945 1
gene 1 21 27 -0.644276 0 61 -0.644276 1
gene 1 21 28 -0.938993 0 62 -0.938993 1
gene 1 21 29 0.860302 0 63 0.860302 1
gene 1 22 27 -0.979339 0 64 -0.979339 1
gene 1 22 28 0.826258 0 65 0.826258 1
gene 1 22 29 1.81751 0 66 1.81751 1
gene 1 23 27 0.75071 0 67 0.75071 1
gene 1 23 28 -0.254616 0 68 -0.254616 1
gene 1 23 29 0.981017 0 69 0.981017 1
gene 1 24 27 -2.08708 0 70 -2.08708 1
gene 1 24 28 -1.27284 0 71 -1.27284 1
gene 1 24 29 -1.6657 0 72 -1.6657 1
gene 1 25 27 -1.55478 0 73 -1.55478 1
gene 1 25 28 0.631962 0 74 0.631962 1
gene 1 25 29 -0.551561 0 75 -0.551561 1
gene 1 26 27 2.14818 0 76 2.14818 1
gene 1 26 28 -0.733818 0 77 -0.733818 1
gene 1 26 29 -0.0629902 0 78 -0.0629902 1
genomeend 5

/* Organism #6 Fitness: 0.0689714 Error: 0 */
genomestart 6
trait 1 0 0 0 0 0 0 0 0 
node 1 1 1 1
node 2 1 1 1
node 3 1 1 1
node 4 1 1 1
node 5 1 1 1
node 6 1 1 1
node 7 1 1 1
node 8 1 1 1
node 9 1 1 1
node 10 1 1 1
node 11 1 1 1
node 12 1 1 1
node 13 1 1 1
node 14 1 1 1
node 15 1 1 1
node 16 1 1 1
node 17 1 1 1
node 18 1 1 1
node 19 1 1 1
node 20 1 1 1
node 21 1 1 1
node 22 1 1 1
node 23 1 1 1
node 24 1 1 1
node 25 1 1 1
node 26 1 1 3
node 27 1 0 2
node 28 1 0 2
node 29 1 0 2
gene 1 1 27 0.444182 0 1 0.444182 1
gene 1 1 28 -0.720252 0 2 -0.720252 1
gene 1 1 29 0.527024 0 3 0.527024 1
gene 1 2 27 -0.27636 0 4 -0.27636 1
gene 1 2 28 -0.644383 0 5 -0.644383 1
gene 1 2 29 0.548311 0 6 0.548311 1
gene 1 3 27 0.674596 0 7 0.674596 1
gene 1 3 28 0.326334 0 8 0.326334 1
gene 1 3 29 -0.0157933 0 9 -0.0157933 1
gene 1 4 27 -0.198294 0 10 -0.198294 1
gene 1 4 28 -0.0964995 0 11 -0.0964995 1
gene 1 4 29 0.208121 0 12 0.208121 1
gene 1 5 27 0.146641 0 13 0.146641 1
gene 1 5 28 0.532502 0 14 0.532502 1
gene 1 5 29 -0.0415204 0 15 -0.0415204 1
gene 1 6 27 0.379315 0 16 0.379315 1
gene 1 6 28 0.156514 0 17 0.156514 1
gene 1 6 29 -0.0520798 0 18 -0.0520798 1
gene 1 7 27 0.45233 0 19 0.45233 1
gene 1 7 28 -0.0554216 0 20 -0.0554216 1
gene 1 7 29 0.448027 0 21 0.448027 1
gene 1 8 27 0.0679342 0 22 0.0679342 1
gene 1 8 28 0.0258492 0 23 0.0258492 1
gene 1 8 29 0.262139 0 24 0.262139 1
gene 1 9 27 0.289438 0 25 0.289438 1
gene 1 9 28 -0.388775 0 26 -0.388775 1
gene 1 9 29 0.356807 0 27 0.356807 1
gene 1 10 27 0.597003 0 28 0.597003 1
gene 1 10 28 0.733467 0 29 0.733467 1
gene 1 10 29 -0.325571 0 30 -0.325571 1
gene 1 11 27 -0.364025 0 31 -0.364025 1
gene 1 11 28 0.364559 0 32 0.364559 1
gene 1 11 29 -0.070864 0 33 -0.070864 1
gene 1 12 27 0.0767998 0 34 0.0767998 1
gene 1 12 28 0.416379 0 35 0.416379 1
gene 1 12 29 0.108707 0 36 0.108707 1
gene 1 13 27 0.236885 0 37 0.236885 1
gene 1 13 28 0.545839 0 38 0.545839 1
gene 1 13 29 0.0377972 0 39 0.0377972 1
gene 1 14 27 -0.78254 0 40 -0.78254 1
gene 1 14 28 0.0181738 0 41 0.0181738 1
gene 1 14 29 0.614963 0 42 0.614963 1
gene 1 15 27 -0.0394452 0 43 -0.0394452 1
gene 1 15 28 0.254784 0 44 0.254784 1
gene 1 15 29 -0.313761 0 45 -0.313761 1
gene 1 16 27 -0.251045 0 46 -0.251045 1
gene 1 16 28 -0.315897 0 47 -0.315897 1
gene 1 16 29 -0.414365 0 48 -0.414365 1
gene 1 17 27 0.659368 0 49 0.659368 1
gene 1 17 28 -0.867809 0 50 -0.867809 1
gene 1 17 29 -0.561312 0 51 -0.561312 1
gene 1 18 27 0.702048 0 52 0.702048 1
gene 1 18 28 0.533799 0 53 0.533799 1
gene 1 18 29 0.227973 0 54 0.227973 1
gene 1 19 27 0.57561 0 55 0.57561 1
gene 1 19 28 -0.192679 0 56 -0.192679 1
gene 1 19 29 0.286111 0 57 0.286111 1
gene 1 20 27 0.436323 0 58 0.436323 1
gene 1 20 28 0.132466 0 59 0.132466 1
gene 1 20 29 0.235847 0 60 0.235847 1
gene 1 21 27 0.14774 0 61 0.14774 1
gene 1 21 28 0.238701 0 62 0.238701 1
gene 1 21 29 0.304392 0 63 0.304392 1
gene 1 22 27 0.270882 0 64 0.270882 1
gene 1 22 28 0.75956 0 65 0.75956 1
gene 1 22 29 -0.389737 0 66 -0.389737 1
gene 1 23 27 0.248299 0 67 0.248299 1
gene 1 23 28 -0.497971 0 68 -0.497971 1
gene 1 23 29 0.252373 0 69 0.252373 1
gene 1 24 27 0.266305 0 70 0.266305 1
gene 1 24 28 -0.286019 0 71 -0.286019 1
gene 1 24 29 -0.576495 0 72 -0.576495 1
gene 1 25 27 0.180609 0 73 0.180609 1
gene 1 25 28 0.208579 0 74 0.208579 1
gene 1 25 29 -0.514191 0 75 -0.514191 1
gene 1 26 27 0.715766 0 76 0.715766 1
gene 1 26 28 0.119068 0 77 0.119068 1
gene 1 26 29 0.58475 0 78 0.58475 1
gene 1 27 29 0.661611 0 84 0.661611 1
genomeend 6

/* Organism #7 Fitness: 0.0196857 Error: 0 */
genomestart 7
trait 1 0 0 0.363109 0.601184 0 0.754662 0.56917 0 
node 1 1 1 1
node 2 1 1 1
node 3 1 1 1
node 4 1 1 1
node 5 1 1 1
node 6 1 1 1
node 7 1 1 1
node 8 1 1 1
node 9 1 1 1
node 10 1 1 1
node 11 1 1 1
node 12 1 1 1
node 13 1 1 1
node 14 1 1 1
node 15 1 1 1
node 16 1 1 1
node 17 1 1 1
node 18 1 1 1
node 19 1 1 1
node 20 1 1 1
node 21 1 1 1
node 22 1 1 1
node 23 1 1 1
node 24 1 1 1
node 25 1 1 1
node 26 1 1 3
node 27 1 0 2
node 28 1 0 2
node 29 1 0 2
gene 1 1 27 0.986206 0 1 0.986206 1
gene 1 1 28 -0.0271767 0 2 -0.0271767 1
gene 1 1 29 1.34278 0 3 1.34278 1
gene 1 2 27 0.213736 0 4 0.213736 1
gene 1 2 28 -0.12859 0 5 -0.12859 1
gene 1 2 29 1.84111 0 6 1.84111 1
gene 1 3 27 1.47995 0 7 1.47995 1
gene 1 3 28 -4.2208 0 8 -4.2208 1
gene 1 3 29 1.00917 0 9 1.00917 1
gene 1 4 27 3.96672 0 10 3.96672 1
gene 1 4 28 -3.56322 0 11 -3.56322 1
gene 1 4 29 -0.768838 0 12 -0.768838 1
gene 1 5 27 -1.52843 0 13 -1.52843 1
gene 1 5 28 -2.51747 0 14 -2.51747 1
gene 1 5 29 -3.88321 0 15 -3.88321 1
gene 1 6 27 2.23327 0 16 2.23327 1
gene 1 6 28 -3.93017 0 17 -3.93017 1
gene 1 6 29 3.74104 0 18 3.74104 1
gene 1 7 27 2.06168 0 19 2.06168 1
gene 1 7 28 -1.04259 0 20 -1.04259 1
gene 1 7 29 0.960662 0 21 0.960662 1
gene 1 8 27 -1.29736 0 22 -1.29736 1
gene 1 8 28 -2.27786 0 23 -2.27786 1
gene 1 8 29 2.41157 0 24 2.41157 1
gene 1 9 27 -2.76193 0 25 -2.76193 1
gene 1 9 28 -0.0835597 0 26 -0.0835597 1
gene 1 9 29 -1.69576 0 27 -1.69576 1
gene 1 10 27 1.56954 0 28 1.56954 1
gene 1 10 28 3.08274 0 29 3.08274 1
gene 1 10 29 2.2308 0 30 2.2308 1
gene 1 11 27 2.87837 0 31 2.87837 1
gene 1 11 28 -0.467666 0 32 -0.467666 1
gene 1 11 29 -2.64539 0 33 -2.64539 1
gene 1 12 27 -1.09449 0 34 -1.09449 1
gene 1 12 28 3.03018 0 35 3.03018 1
gene 1 12 29 -0.481796 0 36 -0.481796 1
gene 1 13 27 1.76412 0 37 1.76412 1
gene 1 13 28 0.998672 0 38 0.998672 1
gene 1 13 29 0.923795 0 39 0.923795 1
gene 1 14 27 -1.30306 0 40 -1.30306 1
gene 1 14 28 0.93318 0 41 0.93318 1
gene 1 14 29 -1.98804 0 42 -1.98804 1
gene 1 15 27 -0.873669 0 43 -0.873669 1
gene 1 15 28 3.57033 0 44 3.57033 1
gene 1 15 29 0.600299 0 45 0.600299 1
gene 1 16 27 2.07335 0 46 2.07335 1
gene 1 16 28 1.51532 0 47 1.51532 1
gene 1 16 29 -1.89264 0 48 -1.89264 1
gene 1 17 27 0.229331 0 49 0.229331 1
gene 1 17 28 -4.02211 0 50 -4.02211 1
gene 1 17 29 2.03677 0 51 2.03677 1
gene 1 18 27 -0.494476 0 52 -0.494476 1
gene 1 18 28 -2.75112 0 53 -2.75112 1
gene 1 18 29 -0.153096 0 54 -0.153096 1
gene 1 19 27 -3.16999 0 55 -3.16999 1
gene 1 19 28 0.162832 0 56 0.162832 1
gene 1 19 29 1.09876 0 57 1.09876 1
gene 1 20 27 -3.38357 0 58 -3.38357 1
gene 1 20 28 2.47543 0 59 2.47543 1
gene 1 20 29 -2.61066 0 60 -2.61066 1
gene 1 21 27 1.21715 0 61 1.21715 1
gene 1 21 28 2.90063 0 62 2.90063 1
gene 1 21 29 -0.0431379 0 63 -0.0431379 1
gene 1 22 27 -1.17504 0 64 -1.17504 1
gene 1 22 28 -2.2541 0 65 -2.2541 1
gene 1 22 29 -1.91885 0 66 -1.91885 1
gene 1 23 27 -0.292383 0 67 -0.292383 1
gene 1 23 28 -3.37013 0 68 -3.37013 1
gene 1 23 29 -0.0296793 0 69 -0.0296793 1
gene 1 24 27 -0.695746 0 70 -0.695746 1
gene 1 24 28 0.273309 0 71 0.273309 1
gene 1 24 29 1.44153 0 72 1.44153 1
gene 1 25 27 -2.00394 0 73 -2.00394 1
gene 1 25 28 0.406659 0 74 0.406659 1
gene 1 25 29 1.88878 0 75 1.88878 1
gene 1 26 27 1.93525 0 76 1.93525 1
gene 1 26 28 -1.10714 0 77 -1.10714 1
gene 1 26 29 -0.405042 0 78 -0.405042 1
genomeend 7

/* Organism #8 Fitness: 0.07165 Error: 0 */
genomestart 8
trait 1 0 0 0.200842 0 0 0 0 0.474746 
node 1 1 1 1
node 2 1 1 1
node 3 1 1 1
node 4 1 1 1
node 5 1 1 1
node 6 1 1 1
node 7 1 1 1
node 8 1 1 1
node 9 1 1 1
node 10 1 1 1
node 11 1 1 1
node 12 1 1 1
node 13 1 1 1
node 14 1 1 1
node 15 1 1 1
node 16 1 1 1
node 17 1 1 1
node 18 1 1 1
node 19 1 1 1
node 20 1 1 1
node 21 1 1 1
node 22 1 1 1
node 23 1 1 1
node 24 1 1 1
node 25 1 1 1
node 26 1 1 3
node 27 1 0 2
node 28 1 0 2
node 29 1 0 2
gene 1 1 27 -1.0651 0 1 -1.0651 1
gene 1 1 28 0.64153 0 2 0.64153 1
gene 1 1 29 -2.69921 0 3 -2.69921 1
gene 1 2 27 0.814798 0 4 0.814798 1
gene 1 2 28 1.08185 0 5 1.08185 1
gene 1 2 29 -0.398358 0 6 -0.398358 1
gene 1 3 27 -0.00508133 0 7 -0.00508133 1
gene 1 3 28 3.24212 0 8 3.24212 1
gene 1 3 29 1.67028 0 9 1.67028 1
gene 1 4 27 1.60956 0 10 1.60956 1
gene 1 4 28 3.22059 0 11 3.22059 1
gene 1 4 29 0.954588 0 12 0.954588 1
gene 1 5 27 2.66736 0 13 2.66736 1
gene 1 5 28 -2.15299 0 14 -2.15299 1
gene 1 5 29 -1.48544 0 15 -1.48544 1
gene 1 6 27 2.59885 0 16 2.59885 1
gene 1 6 28 1.36947 0 17 1.36947 1
gene 1 6 29 0.249046 0 18 0.249046 1
gene 1 7 27 0.741111 0 19 0.741111 1
gene 1 7 28 -0.516266 0 20 -0.516266 1
gene 1 7 29 -1.67631 0 21 -1.67631 1
gene 1 8 27 -1.89441 0 22 -1.89441 1
gene 1 8 28 2.50519 0 23 2.50519 1
gene 1 8 29 -2.32481 0 24 -2.32481 1
gene 1 9 27 -1.02924 0 25 -1.02924 1
gene 1 9 28 0.880062 0 26 0.880062 1
gene 1 9 29 0.455535 0 27 0.455535 1
gene 1 10 27 0.745216 0 28 0.745216 1
gene 1 10 28 -1.22953 0 29 -1.22953 1
gene 1 10 29 -1.41296 0 30 -1.41296 1
gene 1 11 27 -1.2244 0 31 -1.2244 1
gene 1 11 28 -1.87123 0 32 -1.87123 1
gene 1 11 29 -2.31593 0 33 -2.31593 1
gene 1 12 27 -2.10672 0 34 -2.10672 1
gene 1 12 28 0.294748 0 35 0.294748 1
gene 1 12 29 2.4201 0 36 2.4201 1
gene 1 13 27 1.01152 0 37 1.01152 1
gene 1 13 28 2.28288 0 38 2.28288 1
gene 1 13 29 0.140645 0 39 0.140645 1
gene 1 14 27 -2.00235 0 40 -2.00235 1
gene 1 14 28 -0.501785 0 41 -0.501785 1
gene 1 14 29 1.95129 0 42 1.95129 1
gene 1 15 27 2.59606 0 43 2.59606 1
gene 1 15 28 -0.160115 0 44 -0.160115 1
gene 1 15 29 0.263695 0 45 0.263695 1
gene 1 16 27 1.80839 0 46 1.80839 1
gene 1 16 28 -2.49161 0 47 -2.49161 1
gene 1 16 29 -0.410962 0 48 -0.410962 1
gene 1 17 27 -0.0650807 0 49 -0.0650807 1
gene 1 17 28 -2.50525 0 50 -2.50525 1
gene 1 17 29 0.958037 0 51 0.958037 1
gene 1 18 27 -0.888852 0 52 -0.888852 1
gene 1 18 28 -1.74281 0 53 -1.74281 1
gene 1 18 29 -2.66681 0 54 -2.66681 1
gene 1 19 27 -0.987976 0 55 -0.987976 1
gene 1 19 28 -0.795526 0 56 -0.795526 1
gene 1 19 29 2.11394 0 57 2.11394 1
gene 1 20 27 -1.03929 0 58 -1.03929 1
gene 1 20 28 0.855693 0 59 0.855693 1
gene 1 20 29 2.38484 0 60 2.38484 1
gene 1 21 27 1.09497 0 61 1.09497 1
gene 1 21 28 -1.30856 0 62 -1.30856 1
gene 1 21 29 0.517457 0 63 0.517457 1
gene 1 22 27 -0.417173 0 64 -0.417173 1
gene 1 22 28 0.871212 0 65 0.871212 1
gene 1 22 29 -0.305765 0 66 -0.305765 1
gene 1 23 27 0.40846 0 67 0.40846 1
gene 1 23 28 1.75391 0 68 1.75391 1
gene 1 23 29 -0.98056 0 69 -0.98056 1
gene 1 24 27 -0.567568 0 70 -0.567568 1
gene 1 24 28 0.240623 0 71 0.240623 1
gene 1 24 29 -1.7658 0 72 -1.7658 1
gene 1 25 27 2.8265 0 73 2.8265 1
gene 1 25 28 1.9856 0 74 1.9856 1
gene 1 25 29 0.523637 0 75 0.523637 1
gene 1 26 27 1.9104 0 76 1.9104 1
gene 1 26 28 1.43712 0 77 1.43712 1
gene 1 26 29 0.172994 0 78 0.172994 1
genomeend 8

/* Organism #9 Fitness: 0.0802214 Error: 0 */
genomestart 9
trait 1 0 0 0 0 0 0 0 0 
node 1 1 1 1
node 2 1 1 1
node 3 1 1 1
node 4 1 1 1
node 5 1 1 1
node 6 1 1 1
node 7 1 1 1
node 8 1 1 1
node 9 1 1 1
node 10 1 1 1
node 11 1 1 1
node 12 1 1 1
node 13 1 1 1
node 14 1 1 1
node 15 1 1 1
node 16 1 1 1
node 17 1 1 1
node 18 1 1 1
node 19 1 1 1
node 20 1 1 1
node 21 1 1 1
node 22 1 1 1
node 23 1 1 1
node 24 1 1 1
node 25 1 1 1
node 26 1 1 3
node 27 1 0 2
node 28 1 0 2
node 29 1 0 2
gene 1 1 27 -2.54836 0 1 -2.54836 1
gene 1 1 28 0.569002 0 2 0.569002 1
gene 1 1 29 -0.170934 0 3 -0.170934 1
gene 1 2 27 0.908231 0 4 0.908231 1
gene 1 2 28 -1.1404 0 5 -1.1404 1
gene 1 2 29 1.21996 0 6 1.21996 1
gene 1 3 27 1.60511 0 7 1.60511 1
gene 1 3 28 -1.30383 0 8 -1.30383 1
gene 1 3 29 -0.27749 0 9 -0.27749 1
gene 1 4 27 1.46985 0 10 1.46985 1
gene 1 4 28 -1.11499 0 11 -1.11499 1
gene 1 4 29 -1.12215 0 12 -1.12215 1
gene 1 5 27 -0.212531 0 13 -0.212531 1
gene 1 5 28 -3.12273 0 14 -3.12273 1
gene 1 5 29 0.158162 0 15 0.158162 1
gene 1 6 27 2.41562 0 16 2.41562 1
gene 1 6 28 0.0228889 0 17 0.0228889 1
gene 1 6 29 2.21328 0 18 2.21328 1
gene 1 7 27 2.5398 0 19 2.5398 1
gene 1 7 28 0.445112 0 20 0.445112 1
gene 1 7 29 1.50816 0 21 1.50816 1
gene 1 8 27 -1.19161 0 22 -1.19161 1
gene 1 8 28 -2.15293 0 23 -2.15293 1
gene 1 8 29 0.742744 0 24 0.742744 1
gene 1 9 27 -1.32145 0 25 -1.32145 1
gene 1 9 28 1.11029 0 26 1.11029 1
gene 1 9 29 1.83485 0 27 1.83485 1
gene 1 10 27 2.03998 0 28 2.03998 1
gene 1 10 28 0.551622 0 29 0.551622 1
gene 1 10 29 0.210166 0 30 0.210166 1
gene 1 11 27 0.0740074 0 31 0.0740074 1
gene 1 11 28 -2.15876 0 32 -2.15876 1
gene 1 11 29 -2.60198 0 33 -2.60198 1
gene 1 12 27 -1.99898 0 34 -1.99898 1
gene 1 12 28 1.14765 0 35 1.14765 1
gene 1 12 29 -2.08716 0 36 -2.08716 1
gene 1 13 27 -1.02025 0 37 -1.02025 1
gene 1 13 28 -0.10712 0 38 -0.10712 1
gene 1 13 29 0.60213 0 39 0.60213 1
gene 1 14 27 -1.70454 0 40 -1.70454 1
gene 1 14 28 1.16283 0 41 1.16283 1
gene 1 14 29 -0.239875 0 42 -0.239875 1
gene 1 15 27 -1.56613 0 43 -1.56613 1
gene 1 15 28 2.06172 0 44 2.06172 1
gene 1 15 29 0.382916 0 45 0.382916 1
gene 1 16 27 0.461898 0 46 0.461898 1
gene 1 16 28 -0.887555 0 47 -0.887555 1
gene 1 16 29 1.64855 0 48 1.64855 1
gene 1 17 27 1.51347 0 49 1.51347 1
gene 1 17 28 -2.79077 0 50 -2.79077 1
gene 1 17 29 0.549913 0 51 0.549913 1
gene 1 18 27 -0.971526 0 52 -0.971526 1
gene 1 18 28 1.9714 0 53 1.9714 1
gene 1 18 29 1.43817 0 54 1.43817 1
gene 1 19 27 -0.725669 0 55 -0.725669 1
gene 1 19 28 1.1572 0 56 1.1572 1
gene 1 19 29 0.781167 0 57 0.781167 1
gene 1 20 27 -0.93759 0 58 -0.93759 1
gene 1 20 28 1.55873 0 59 1.55873 1
gene 1 20 29 -1.19388 0 60 -1.19388 1
gene 1 21 27 1.56745 0 61 1.56745 1
gene 1 21 28 1.27206 0 62 1.27206 1
gene 1 21 29 -0.758446 0 63 -0.758446 1
gene 1 22 27 -1.68394 0 64 -1.68394 1
gene 1 22 28 -2.2541 0 65 -2.2541 1
gene 1 22 29 -0.263161 0 66 -0.263161 1
gene 1 23 27 0.681494 0 67 0.681494 1
gene 1 23 28 -1.28178 0 68 -1.28178 1
gene 1 23 29 -0.0296793 0 69 -0.0296793 1
gene 1 24 27 0.927763 0 70 0.927763 1
gene 1 24 28 -0.795145 0 71 -0.795145 1
gene 1 24 29 1.44153 0 72 1.44153 1
gene 1 25 27 -1.55478 0 73 -1.55478 1
gene 1 25 28 0.42375 0 74 0.42375 1
gene 1 25 29 0.477798 0 75 0.477798 1
gene 1 26 27 2.5659 0 76 2.5659 1
gene 1 26 28 -0.733818 0 77 -0.733818 1
gene 1 26 29 -0.954848 0 78 -0.954848 1
genomeend 9

/* Organism #10 Fitness: 0.0148643 Error: 0 */
genomestart 10
trait 1 0 0 0 0 0 0 0.181707 0.0531327 
node 1 1 1 1
node 2 1 1 1
node 3 1 1 1
node 4 1 1 1
node 5 1 1 1
node 6 1 1 1
node 7 1 1 1
node 8 1 1 1
node 9 1 1 1
node 10 1 1 1
node 11 1 1 1
node 12 1 1 1
node 13 1 1 1
node 14 1 1 1
node 15 1 1 1
node 16 1 1 1
node 17 1 1 1
node 18 1 1 1
node 19 1 1 1
node 20 1 1 1
node 21 1 1 1
node 22 1 1 1
node 23 1 1 1
node 24 1 1 1
node 25 1 1 1
node 26 1 1 3
node 27 1 0 2
node 28 1 0 2
node 29 1 0 2
gene 1 1 27 1.08296 0 1 1.08296 1
gene 1 1 28 2.98407 0 2 2.98407 1
gene 1 1 29 -1.70324 0 3 -1.70324 1
gene 1 2 27 2.35626 0 4 2.35626 1
gene 1 2 28 1.52829 0 5 1.52829 1
gene 1 2 29 1.60503 0 6 1.60503 1
gene 1 3 27 0.142888 0 7 0.142888 1
gene 1 3 28 1.90136 0 8 1.90136 1
gene 1 3 29 1.76618 0 9 1.76618 1
gene 1 4 27 -0.296182 0 10 -0.296182 1
gene 1 4 28 -2.79603 0 11 -2.79603 1
gene 1 4 29 -2.16735 0 12 -2.16735 1
gene 1 5 27 -1.33766 0 13 -1.33766 1
gene 1 5 28 2.87675 0 14 2.87675 1
gene 1 5 29 -2.10921 0 15 -2.10921 1
gene 1 6 27 -0.10033 0 16 -0.10033 1
gene 1 6 28 1.47565 0 17 1.47565 1
gene 1 6 29 -1.5817 0 18 -1.5817 1
gene 1 7 27 -2.16803 0 19 -2.16803 1
gene 1 7 28 -0.675237 0 20 -0.675237 1
gene 1 7 29 -3.08832 0 21 -3.08832 1
gene 1 8 27 -1.57933 0 22 -1.57933 1
gene 1 8 28 2.7526 0 23 2.7526 1
gene 1 8 29 -1.53699 0 24 -1.53699 1
gene 1 9 27 -2.39496 0 25 -2.39496 1
gene 1 9 28 -1.27689 0 26 -1.27689 1
gene 1 9 29 -1.82734 0 27 -1.82734 1
gene 1 10 27 2.43773 0 28 2.43773 1
gene 1 10 28 -3.36534 0 29 -3.36534 1
gene 1 10 29 2.35412 0 30 2.35412 1
gene 1 11 27 2.0835 0 31 2.0835 1
gene 1 11 28 1.35258 0 32 1.35258 1
gene 1 11 29 -1.27804 0 33 -1.27804 1
gene 1 12 27 0.856944 0 34 0.856944 1
gene 1 12 28 -3.7994 0 35 -3.7994 1
gene 1 12 29 1.94557 0 36 1.94557 1
gene 1 13 27 -3.19102 0 37 -3.19102 1
gene 1 13 28 -0.840342 0 38 -0.840342 1
gene 1 13 29 -4.4975 0 39 -4.4975 1
gene 1 14 27 1.8244 0 40 1.8244 1
gene 1 14 28 0.473647 0 41 0.473647 1
gene 1 14 29 2.25578 0 42 2.25578 1
gene 1 15 27 -2.31486 0 43 -2.31486 1
gene 1 15 28 2.06587 0 44 2.06587 1
gene 1 15 29 -0.0933866 0 45 -0.0933866 1
gene 1 16 27 0.565813 0 46 0.565813 1
gene 1 16 28 1.19523 0 47 1.19523 1
gene 1 16 29 0.199698 0 48 0.199698 1
gene 1 17 27 -1.6393 0 49 -1.6393 1
gene 1 17 28 0.03296 0 50 0.03296 1
gene 1 17 29 -1.62938 0 51 -1.62938 1
gene 1 18 27 -1.69452 0 52 -1.69452 1
gene 1 18 28 2.04367 0 53 2.04367 1
gene 1 18 29 0.229667 0 54 0.229667 1
gene 1 19 27 2.22112 0 55 2.22112 1
gene 1 19 28 -1.76859 0 56 -1.76859 1
gene 1 19 29 -1.25457 0 57 -1.25457 1
gene 1 20 27 1.31657 0 58 1.31657 1
gene 1 20 28 4.48386 0 59 4.48386 1
gene 1 20 29 -1.48804 0 60 -1.48804 1
gene 1 21 27 -1.5782 0 61 -1.5782 1
gene 1 21 28 1.69178 0 62 1.69178 1
gene 1 21 29 2.14812 0 63 2.14812 1
gene 1 22 27 1.49844 0 64 1.49844 1
gene 1 22 28 -1.5801 0 65 -1.5801 1
gene 1 22 29 -1.69294 0 66 -1.69294 1
gene 1 23 27 0.330119 0 67 0.330119 1
gene 1 23 28 5.07529 0 68 5.07529 1
gene 1 23 29 -2.41943 0 69 -2.41943 1
gene 1 24 27 0.517396 0 70 0.517396 1
gene 1 24 28 -3.45006 0 71 -3.45006 1
gene 1 24 29 1.87323 0 72 1.87323 1
gene 1 25 27 -2.23682 0 73 -2.23682 1
gene 1 25 28 1.5735 0 74 1.5735 1
gene 1 25 29 -1.20974 0 75 -1.20974 1
gene 1 26 27 -2.92418 0 76 -2.92418 1
gene 1 26 28 1.8054 0 77 1.8054 1
gene 1 26 29 2.45003 0 78 2.45003 1
genomeend 10

/* Organism #11 Fitness: 0.0796857 Error: 0 */
genomestart 11
trait 1 0 0.166341 0.13329 0 0 0.345378 0 0.0925321 
node 1 1 1 1
node 2 1 1 1
node 3 1 1 1
node 4 1 1 1
node 5 1 1 1
node 6 1 1 1
node 7 1 1 1
node 8 1 1 1
node 9 1 1 1
node 10 1 1 1
node 11 1 1 1
node 12 1 1 1
node 13 1 1 1
node 14 1 1 1
node 15 1 1 1
node 16 1 1 1
node 17 1 1 1
node 18 1 1 1
node 19 1 1 1
node 20 1 1 1
node 21 1 1 1
node 22 1 1 1
node 23 1 1 1
node 24 1 1 1
node 25 1 1 1
node 26 1 1 3
node 27 1 0 2
node 28 1 0 2
node 29 1 0 2
gene 1 1 27 -0.0172735 0 1 -0.0172735 1
gene 1 1 28 0.716239 0 2 0.716239 1
gene 1 1 29 -2.20217 0 3 -2.20217 1
gene 1 2 27 1.3878 0 4 1.3878 1
gene 1 2 28 0.766625 0 5 0.766625 1
gene 1 2 29 -1.01816 0 6 -1.01816 1
gene 1 3 27 -2.52351 0 7 -2.52351 1
gene 1 3 28 -0.115101 0 8 -0.115101 1
gene 1 3 29 -2.05623 0 9 -2.05623 1
gene 1 4 27 0.320292 0 10 0.320292 1
gene 1 4 28 0.0073397 0 11 0.0073397 1
gene 1 4 29 0.846889 0 12 0.846889 1
gene 1 5 27 0.19718 0 13 0.19718 1
gene 1 5 28 0.258675 0 14 0.258675 1
gene 1 5 29 -0.12392 0 15 -0.12392 1
gene 1 6 27 -0.68099 0 16 -0.68099 1
gene 1 6 28 0.228278 0 17 0.228278 1
gene 1 6 29 -2.32768 0 18 -2.32768 1
gene 1 7 27 -1.13773 0 19 -1.13773 1
gene 1 7 28 -0.00344859 0 20 -0.00344859 1
gene 1 7 29 -0.903439 0 21 -0.903439 1
gene 1 8 27 -0.744865 0 22 -0.744865 1
gene 1 8 28 1.16169 0 23 1.16169 1
gene 1 8 29 0.204566 0 24 0.204566 1
gene 1 9 27 1.25152 0 25 1.25152 1
gene 1 9 28 0.990417 0 26 0.990417 1
gene 1 9 29 0.238227 0 27 0.238227 1
gene 1 10 27 0.369167 0 28 0.369167 1
gene 1 10 28 -0.34875 0 29 -0.34875 1
gene 1 10 29 0.572893 0 30 0.572893 1
gene 1 11 27 -2.06532 0 31 -2.06532 1
gene 1 11 28 -2.4687 0 32 -2.4687 1
gene 1 11 29 0.484771 0 33 0.484771 1
gene 1 12 27 0.36346 0 34 0.36346 1
gene 1 12 28 2.36348 0 35 2.36348 1
gene 1 12 29 0.445524 0 36 0.445524 1
gene 1 13 27 0.0486618 0 37 0.0486618 1
gene 1 13 28 -0.539109 0 38 -0.539109 1
gene 1 13 29 2.52002 0 39 2.52002 1
gene 1 14 27 -0.124088 0 40 -0.124088 1
gene 1 14 28 0.555651 0 41 0.555651 1
gene 1 14 29 -0.0953703 0 42 -0.0953703 1
gene 1 15 27 0.257271 0 43 0.257271 1
gene 1 15 28 -0.323405 0 44 -0.323405 1
gene 1 15 29 1.19486 0 45 1.19486 1
gene 1 16 27 2.77483 0 46 2.77483 1
gene 1 16 28 -1.49127 0 47 -1.49127 1
gene 1 16 29 0.237144 0 48 0.237144 1
gene 1 17 27 1.98433 0 49 1.98433 1
gene 1 17 28 -1.472 0 50 -1.472 1
gene 1 17 29 1.52075 0 51 1.52075 1
gene 1 18 27 -0.467589 0 52 -0.467589 1
gene 1 18 28 0.469314 0 53 0.469314 1
gene 1 18 29 0.924558 0 54 0.924558 1
gene 1 19 27 1.29514 0 55 1.29514 1
gene 1 19 28 -0.149205 0 56 -0.149205 1
gene 1 19 29 -1.38971 0 57 -1.38971 1
gene 1 20 27 0.580752 0 58 0.580752 1
gene 1 20 28 0.00518815 0 59 0.00518815 1
gene 1 20 29 -0.604892 0 60 -0.604892 1
gene 1 21 27 0.555773 0 61 0.555773 1
gene 1 21 28 -2.99217 0 62 -2.99217 1
gene 1 21 29 1.52919 0 63 1.52919 1
gene 1 22 27 0.737434 0 64 0.737434 1
gene 1 22 28 -1.32192 0 65 -1.32192 1
gene 1 22 29 -0.558412 0 66 -0.558412 1
gene 1 23 27 0.622974 0 67 0.622974 1
gene 1 23 28 0.342814 0 68 0.342814 1
gene 1 23 29 0.21691 0 69 0.21691 1
gene 1 24 27 -0.574145 0 70 -0.574145 1
gene 1 24 28 -0.195746 0 71 -0.195746 1
gene 1 24 29 -0.137761 0 72 -0.137761 1
gene 1 25 27 -0.279138 0 73 -0.279138 1
gene 1 25 28 1.63149 0 74 1.63149 1
gene 1 25 29 0.13448 0 75 0.13448 1
gene 1 26 27 0.131977 0 76 0.131977 1
gene 1 26 28 0.707282 0 77 0.707282 1
gene 1 26 29 0.0605335 0 78 0.0605335 1
genomeend 11

/* Organism #12 Fitness: 0.0415 Error: 0 */
genomestart 12
trait 1 0 0 0 0 0 0 0 0 
node 1 1 1 1
node 2 1 1 1
node 3 1 1 1
node 4 1 1 1
node 5 1 1 1
node 6 1 1 1
node 7 1 1 1
node 8 1 1 1
node 9 1 1 1
node 10 1 1 1
node 11 1 1 1
node 12 1 1 1
node 13 1 1 1
node 14 1 1 1
node 15 1 1 1
node 16 1 1 1
node 17 1 1 1
node 18 1 1 1
node 19 1 1 1
node 20 1 1 1
node 21 1 1 1
node 22 1 1 1
node 23 1 1 1
node 24 1 1 1
node 25 1 1 1
node 26 1 1 3
node 27 1 0 2
node 28 1 0 2
node 29 1 0 2
gene 1 1 27 1.50455 0 1 1.50455 1
gene 1 1 28 1.52756 0 2 1.52756 1
gene 1 1 29 0.956038 0 3 0.956038 1
gene 1 2 27 2.60949 0 4 2.60949 1
gene 1 2 28 0.31608 0 5 0.31608 1
gene 1 2 29 1.54596 0 6 1.54596 1
gene 1 3 27 1.83428 0 7 1.83428 1
gene 1 3 28 -1.6773 0 8 -1.6773 1
gene 1 3 29 -1.00531 0 9 -1.00531 1
gene 1 4 27 0.421323 0 10 0.421323 1
gene 1 4 28 -1.03673 0 11 -1.03673 1
gene 1 4 29 -1.88813 0 12 -1.88813 1
gene 1 5 27 1.43118 0 13 1.43118 1
gene 1 5 28 1.80168 0 14 1.80168 1
gene 1 5 29 -0.57213 0 15 -0.57213 1
gene 1 6 27 -1.96168 0 16 -1.96168 1
gene 1 6 28 0.821284 0 17 0.821284 1
gene 1 6 29 0.780404 0 18 0.780404 1
gene 1 7 27 -3.24226 0 19 -3.24226 1
gene 1 7 28 1.62723 0 20 1.62723 1
gene 1 7 29 -0.845729 0 21 -0.845729 1
gene 1 8 27 1.20623 0 22 1.20623 1
gene 1 8 28 -1.13579 0 23 -1.13579 1
gene 1 8 29 -1.74282 0 24 -1.74282 1
gene 1 9 27 -0.684545 0 25 -0.684545 1
gene 1 9 28 2.56394 0 26 2.56394 1
gene 1 9 29 1.53635 0 27 1.53635 1
gene 1 10 27 -1.79588 0 28 -1.79588 1
gene 1 10 28 -1.22388 0 29 -1.22388 1
gene 1 10 29 -1.52722 0 30 -1.52722 1
gene 1 11 27 -0.0323344 0 31 -0.0323344 1
gene 1 11 28 0.266427 0 32 0.266427 1
gene 1 11 29 -2.81715 0 33 -2.81715 1
gene 1 12 27 3.09011 0 34 3.09011 1
gene 1 12 28 -2.14084 0 35 -2.14084 1
gene 1 12 29 -0.262734 0 36 -0.262734 1
gene 1 13 27 0.930265 0 37 0.930265 1
gene 1 13 28 -0.104144 0 38 -0.104144 1
gene 1 13 29 1.94548 0 39 1.94548 1
gene 1 14 27 2.04976 0 40 2.04976 1
gene 1 14 28 0.350658 0 41 0.350658 1
gene 1 14 29 0.454665 0 42 0.454665 1
gene 1 15 27 -2.70824 0 43 -2.70824 1
gene 1 15 28 -2.44438 0 44 -2.44438 1
gene 1 15 29 -2.31909 0 45 -2.31909 1
gene 1 16 27 0.85165 0 46 0.85165 1
gene 1 16 28 0.646992 0 47 0.646992 1
gene 1 16 29 -0.808252 0 48 -0.808252 1
gene 1 17 27 -0.919553 0 49 -0.919553 1
gene 1 17 28 -2.08612 0 50 -2.08612 1
gene 1 17 29 0.552858 0 51 0.552858 1
gene 1 18 27 -1.30714 0 52 -1.30714 1
gene 1 18 28 -1.61208 0 53 -1.61208 1
gene 1 18 29 1.92195 0 54 1.92195 1
gene 1 19 27 1.89872 0 55 1.89872 1
gene 1 19 28 -2.67356 0 56 -2.67356 1
gene 1 19 29 -1.4628 0 57 -1.4628 1
gene 1 20 27 0.01236 0 58 0.01236 1
gene 1 20 28 -1.60317 0 59 -1.60317 1
gene 1 20 29 -1.19105 0 60 -1.19105 1
gene 1 21 27 1.0408 0 61 1.0408 1
gene 1 21 28 -1.85386 0 62 -1.85386 1
gene 1 21 29 -0.0820338 0 63 -0.0820338 1
gene 1 22 27 -0.0294351 0 64 -0.0294351 1
gene 1 22 28 -2.30692 0 65 -2.30692 1
gene 1 22 29 0.897992 0 66 0.897992 1
gene 1 23 27 1.85235 0 67 1.85235 1
gene 1 23 28 0.527192 0 68 0.527192 1
gene 1 23 29 1.44646 0 69 1.44646 1
gene 1 24 27 0.229575 0 70 0.229575 1
gene 1 24 28 1.51587 0 71 1.51587 1
gene 1 24 29 -0.261986 0 72 -0.261986 1
gene 1 25 27 -1.33686 0 73 -1.33686 1
gene 1 25 28 -2.38102 0 74 -2.38102 1
gene 1 25 29 1.21462 0 75 1.21462 1
gene 1 26 27 -0.252327 0 76 -0.252327 1
gene 1 26 28 -0.266137 0 77 -0.266137 1
gene 1 26 29 1.7402 0 78 1.7402 1
genomeend 12

/* Organism #13 Fitness: 0.0587929 Error: 0 */
genomestart 13
trait 1 0 0.055208 0 0 0 0.373089 0 0 
node 1 1 1 1
node 2 1 1 1
node 3 1 1 1
node 4 1 1 1
node 5 1 1 1
node 6 1 1 1
node 7 1 1 1
node 8 1 1 1
node 9 1 1 1
node 10 1 1 1
node 11 1 1 1
node 12 1 1 1
node 13 1 1 1
node 14 1 1 1
node 15 1 1 1
node 16 1 1 1
node 17 1 1 1
node 18 1 1 1
node 19 1 1 1
node 20 1 1 1
node 21 1 1 1
node 22 1 1 1
node 23 1 1 1
node 24 1 1 1
node 25 1 1 1
node 26 1 1 3
node 27 1 0 2
node 28 1 0 2
node 29 1 0 2
gene 1 1 27 -0.58565 0 1 -0.58565 1
gene 1 1 28 -2.65867 0 2 -2.65867 1
gene 1 1 29 0.38937 0 3 0.38937 1
gene 1 2 27 -0.597003 0 4 -0.597003 1
gene 1 2 28 -1.03851 0 5 -1.03851 1
gene 1 2 29 -2.07346 0 6 -2.07346 1
gene 1 3 27 0.32551 0 7 0.32551 1
gene 1 3 28 -1.74912 0 8 -1.74912 1
gene 1 3 29 0.478454 0 9 0.478454 1
gene 1 4 27 -0.578219 0 10 -0.578219 1
gene 1 4 28 0.960845 0 11 0.960845 1
gene 1 4 29 0.188849 0 12 0.188849 1
gene 1 5 27 2.94821 0 13 2.94821 1
gene 1 5 28 1.81327 0 14 1.81327 1
gene 1 5 29 -0.969298 0 15 -0.969298 1
gene 1 6 27 1.39831 0 16 1.39831 1
gene 1 6 28 1.48962 0 17 1.48962 1
gene 1 6 29 0.0976592 0 18 0.0976592 1
gene 1 7 27 -0.770638 0 19 -0.770638 1
gene 1 7 28 -0.942747 0 20 -0.942747 1
gene 1 7 29 -0.300302 0 21 -0.300302 1
gene 1 8 27 -1.71032 0 22 -1.71032 1
gene 1 8 28 -2.23652 0 23 -2.23652 1
gene 1 8 29 -0.745476 0 24 -0.745476 1
gene 1 9 27 -0.460128 0 25 -0.460128 1
gene 1 9 28 0.989547 0 26 0.989547 1
gene 1 9 29 0.192999 0 27 0.192999 1
gene 1 10 27 -2.51057 0 28 -2.51057 1
gene 1 10 28 0.723655 0 29 0.723655 1
gene 1 10 29 -0.198325 0 30 -0.198325 1
gene 1 11 27 -0.800226 0 31 -0.800226 1
gene 1 11 28 2.08904 0 32 2.08904 1
gene 1 11 29 0.179266 0 33 0.179266 1
gene 1 12 27 0.806024 0 34 0.806024 1
gene 1 12 28 0.943785 0 35 0.943785 1
gene 1 12 29 -0.960921 0 36 -0.960921 1
gene 1 13 27 -0.973174 0 37 -0.973174 1
gene 1 13 28 0.785424 0 38 0.785424 1
gene 1 13 29 0.821436 0 39 0.821436 1
gene 1 14 27 -0.699667 0 40 -0.699667 1
gene 1 14 28 -1.09822 0 41 -1.09822 1
gene 1 14 29 0.321421 0 42 0.321421 1
gene 1 15 27 0.88464 0 43 0.88464 1
gene 1 15 28 -0.670827 0 44 -0.670827 1
gene 1 15 29 0.548997 0 45 0.548997 1
gene 1 16 27 -0.906125 0 46 -0.906125 1
gene 1 16 28 -0.829615 0 47 -0.829615 1
gene 1 16 29 -0.534074 0 48 -0.534074 1
gene 1 17 27 1.51503 0 49 1.51503 1
gene 1 17 28 -0.492691 0 50 -0.492691 1
gene 1 17 29 1.88452 0 51 1.88452 1
gene 1 18 27 2.81516 0 52 2.81516 1
gene 1 18 28 -0.521378 0 53 -0.521378 1
gene 1 18 29 0.288125 0 54 0.288125 1
gene 1 19 27 0.168218 0 55 0.168218 1
gene 1 19 28 0.451323 0 56 0.451323 1
gene 1 19 29 0.633061 0 57 0.633061 1
gene 1 20 27 -0.933042 0 58 -0.933042 1
gene 1 20 28 0.368236 0 59 0.368236 1
gene 1 20 29 0.929106 0 60 0.929106 1
gene 1 21 27 -0.674795 0 61 -0.674795 1
gene 1 21 28 -1.54331 0 62 -1.54331 1
gene 1 21 29 -0.0494095 0 63 -0.0494095 1
gene 1 22 27 -0.684286 0 64 -0.684286 1
gene 1 22 28 -2.21105 0 65 -2.21105 1
gene 1 22 29 0.202155 0 66 0.202155 1
gene 1 23 27 -0.0932646 0 67 -0.0932646 1
gene 1 23 28 -0.0263527 0 68 -0.0263527 1
gene 1 23 29 1.49426 0 69 1.49426 1
gene 1 24 27 1.00597 0 70 1.00597 1
gene 1 24 28 -1.69332 0 71 -1.69332 1
gene 1 24 29 0.285806 0 72 0.285806 1
gene 1 25 27 0.616657 0 73 0.616657 1
gene 1 25 28 -1.10619 0 74 -1.10619 1
gene 1 25 29 0.523637 0 75 0.523637 1
gene 1 26 27 0.376629 0 76 0.376629 1
gene 1 26 28 0.0474868 0 77 0.0474868 1
gene 1 26 29 0.744652 0 78 0.744652 1
gene 1 28 27 -0.430738 0 85 -0.430738 1
genomeend 13

/* Organism #14 Fitness: 0.0689714 Error: 0 */
genomestart 14
trait 1 0 0 0 0 0 0 0 0 
node 1 1 1 1
node 2 1 1 1
node 3 1 1 1
node 4 1 1 1
node 5 1 1 1
node 6 1 1 1
node 7 1 1 1
node 8 1 1 1
node 9 1 1 1
node 10 1 1 1
node 11 1 1 1
node 12 1 1 1
node 13 1 1 1
node 14 1 1 1
node 15 1 1 1
node 16 1 1 1
node 17 1 1 1
node 18 1 1 1
node 19 1 1 1
node 20 1 1 1
node 21 1 1 1
node 22 1 1 1
node 23 1 1 1
node 24 1 1 1
node 25 1 1 1
node 26 1 1 3
node 27 1 0 2
node 28 1 0 2
node 29 1 0 2
gene 1 1 27 -1.05209 0 1 -1.05209 1
gene 1 1 28 -0.0756249 0 2 -0.0756249 1
gene 1 1 29 0.178045 0 3 0.178045 1
gene 1 2 27 0.315935 0 4 0.315935 1
gene 1 2 28 -0.892392 0 5 -0.892392 1
gene 1 2 29 0.884136 0 6 0.884136 1
gene 1 3 27 1.13985 0 7 1.13985 1
gene 1 3 28 -0.488746 0 8 -0.488746 1
gene 1 3 29 -0.146641 0 9 -0.146641 1
gene 1 4 27 0.635777 0 10 0.635777 1
gene 1 4 28 -0.605747 0 11 -0.605747 1
gene 1 4 29 -0.457015 0 12 -0.457015 1
gene 1 5 27 -0.0329447 0 13 -0.0329447 1
gene 1 5 28 -1.29511 0 14 -1.29511 1
gene 1 5 29 0.0583209 0 15 0.0583209 1
gene 1 6 27 1.39747 0 16 1.39747 1
gene 1 6 28 0.0897015 0 17 0.0897015 1
gene 1 6 29 1.0806 0 18 1.0806 1
gene 1 7 27 1.49606 0 19 1.49606 1
gene 1 7 28 0.194845 0 20 0.194845 1
gene 1 7 29 0.978095 0 21 0.978095 1
gene 1 8 27 -0.561838 0 22 -0.561838 1
gene 1 8 28 -1.06354 0 23 -1.06354 1
gene 1 8 29 0.502441 0 24 0.502441 1
gene 1 9 27 -0.516007 0 25 -0.516007 1
gene 1 9 28 0.360759 0 26 0.360759 1
gene 1 9 29 1.09583 0 27 1.09583 1
gene 1 10 27 1.31849 0 28 1.31849 1
gene 1 10 28 0.642544 0 29 0.642544 1
gene 1 10 29 -0.0577029 0 30 -0.0577029 1
gene 1 11 27 -0.145009 0 31 -0.145009 1
gene 1 11 28 -0.897099 0 32 -0.897099 1
gene 1 11 29 -1.33642 0 33 -1.33642 1
gene 1 12 27 -0.961089 0 34 -0.961089 1
gene 1 12 28 0.782014 0 35 0.782014 1
gene 1 12 29 -0.989227 0 36 -0.989227 1
gene 1 13 27 -0.391682 0 37 -0.391682 1
gene 1 13 28 0.219359 0 38 0.219359 1
gene 1 13 29 0.319964 0 39 0.319964 1
gene 1 14 27 -1.24354 0 40 -1.24354 1
gene 1 14 28 0.590503 0 41 0.590503 1
gene 1 14 29 0.187544 0 42 0.187544 1
gene 1 15 27 -0.802789 0 43 -0.802789 1
gene 1 15 28 1.15825 0 44 1.15825 1
gene 1 15 29 0.0345775 0 45 0.0345775 1
gene 1 16 27 0.105426 0 46 0.105426 1
gene 1 16 28 -0.601726 0 47 -0.601726 1
gene 1 16 29 0.617092 0 48 0.617092 1
gene 1 17 27 1.08642 0 49 1.08642 1
gene 1 17 28 -1.82929 0 50 -1.82929 1
gene 1 17 29 -0.00569933 0 51 -0.00569933 1
gene 1 18 27 -0.134739 0 52 -0.134739 1
gene 1 18 28 1.2526 0 53 1.2526 1
gene 1 18 29 0.833071 0 54 0.833071 1
gene 1 19 27 -0.0750298 0 55 -0.0750298 1
gene 1 19 28 0.482261 0 56 0.482261 1
gene 1 19 29 0.533639 0 57 0.533639 1
gene 1 20 27 -0.250633 0 58 -0.250633 1
gene 1 20 28 0.845599 0 59 0.845599 1
gene 1 20 29 -0.479019 0 60 -0.479019 1
gene 1 21 27 0.857593 0 61 0.857593 1
gene 1 21 28 0.755379 0 62 0.755379 1
gene 1 21 29 -0.227027 0 63 -0.227027 1
gene 1 22 27 -0.706526 0 64 -0.706526 1
gene 1 22 28 -0.747269 0 65 -0.747269 1
gene 1 22 29 -0.326449 0 66 -0.326449 1
gene 1 23 27 0.464896 0 67 0.464896 1
gene 1 23 28 -0.889874 0 68 -0.889874 1
gene 1 23 29 0.111347 0 69 0.111347 1
gene 1 24 27 0.597034 0 70 0.597034 1
gene 1 24 28 -0.540582 0 71 -0.540582 1
gene 1 24 29 0.432516 0 72 0.432516 1
gene 1 25 27 -0.687086 0 73 -0.687086 1
gene 1 25 28 0.316164 0 74 0.316164 1
gene 1 25 29 -0.0181967 0 75 -0.0181967 1
gene 1 26 27 1.64084 0 76 1.64084 1
gene 1 26 28 -0.307375 0 77 -0.307375 1
gene 1 26 29 -0.185049 0 78 -0.185049 1
genomeend 14

/* Organism #15 Fitness: 0.0684357 Error: 0 */
genomestart 15
trait 1 0 0.055208 0 0 0 0.373089 0 0 
node 1 1 1 1
node 2 1 1 1
node 3 1 1 1
node 4 1 1 1
node 5 1 1 1
node 6 1 1 1
node 7 1 1 1
node 8 1 1 1
node 9 1 1 1
node 10 1 1 1
node 11 1 1 1
node 12 1 1 1
node 13 1 1 1
node 14 1 1 1
node 15 1 1 1
node 16 1 1 1
node 17 1 1 1
node 18 1 1 1
node 19 1 1 1
node 20 1 1 1
node 21 1 1 1
node 22 1 1 1
node 23 1 1 1
node 24 1 1 1
node 25 1 1 1
node 26 1 1 3
node 27 1 0 2
node 28 1 0 2
node 29 1 0 2
gene 1 1 27 1.02965 0 1 1.02965 1
gene 1 1 28 -1.50259 0 2 -1.50259 1
gene 1 1 29 1.06515 0 3 1.06515 1
gene 1 2 27 -1.40622 0 4 -1.40622 1
gene 1 2 28 1.10096 0 5 1.10096 1
gene 1 2 29 -0.0378735 0 6 -0.0378735 1
gene 1 3 27 0.93247 0 7 0.93247 1
gene 1 3 28 0.741317 0 8 0.741317 1
gene 1 3 29 -0.513482 0 9 -0.513482 1
gene 1 4 27 0.747986 0 10 0.747986 1
gene 1 4 28 -1.44532 0 11 -1.44532 1
gene 1 4 29 -2.02101 0 12 -2.02101 1
gene 1 5 27 -0.246055 0 13 -0.246055 1
gene 1 5 28 -0.699599 0 14 -0.699599 1
gene 1 5 29 0.745537 0 15 0.745537 1
gene 1 6 27 0.35184 0 16 0.35184 1
gene 1 6 28 -0.908132 0 17 -0.908132 1
gene 1 6 29 -1.86659 0 18 -1.86659 1
gene 1 7 27 -1.32485 0 19 -1.32485 1
gene 1 7 28 1.23625 0 20 1.23625 1
gene 1 7 29 -1.20281 0 21 -1.20281 1
gene 1 8 27 -2.86174 0 22 -2.86174 1
gene 1 8 28 0.652776 0 23 0.652776 1
gene 1 8 29 0.230247 0 24 0.230247 1
gene 1 9 27 -2.87202 0 25 -2.87202 1
gene 1 9 28 -0.439566 0 26 -0.439566 1
gene 1 9 29 0.608951 0 27 0.608951 1
gene 1 10 27 0.231819 0 28 0.231819 1
gene 1 10 28 -1.66108 0 29 -1.66108 1
gene 1 10 29 0.997063 0 30 0.997063 1
gene 1 11 27 -0.399045 0 31 -0.399045 1
gene 1 11 28 0.274293 0 32 0.274293 1
gene 1 11 29 1.74207 0 33 1.74207 1
gene 1 12 27 -2.16659 0 34 -2.16659 1
gene 1 12 28 0.0111698 0 35 0.0111698 1
gene 1 12 29 -2.23448 0 36 -2.23448 1
gene 1 13 27 -0.656812 0 37 -0.656812 1
gene 1 13 28 -2.1774 0 38 -2.1774 1
gene 1 13 29 0.00930052 0 39 0.00930052 1
gene 1 14 27 0.243652 0 40 0.243652 1
gene 1 14 28 0.0209738 0 41 0.0209738 1
gene 1 14 29 0.84341 0 42 0.84341 1
gene 1 15 27 0.458312 0 43 0.458312 1
gene 1 15 28 2.14935 0 44 2.14935 1
gene 1 15 29 2.27875 0 45 2.27875 1
gene 1 16 27 3.44022 0 46 3.44022 1
gene 1 16 28 0.158277 0 47 0.158277 1
gene 1 16 29 -2.21429 0 48 -2.21429 1
gene 1 17 27 2.76237 0 49 2.76237 1
gene 1 17 28 -3.86157 0 50 -3.86157 1
gene 1 17 29 2.35011 0 51 2.35011 1
gene 1 18 27 1.2935 0 52 1.2935 1
gene 1 18 28 1.73824 0 53 1.73824 1
gene 1 18 29 -1.8521 0 54 -1.8521 1
gene 1 19 27 0.576624 0 55 0.576624 1
gene 1 19 28 0.562906 0 56 0.562906 1
gene 1 19 29 3.25981 0 57 3.25981 1
gene 1 20 27 -1.66742 0 58 -1.66742 1
gene 1 20 28 -1.88627 0 59 -1.88627 1
gene 1 20 29 -0.309618 0 60 -0.309618 1
gene 1 21 27 2.12719 0 61 2.12719 1
gene 1 21 28 -1.83361 0 62 -1.83361 1
gene 1 21 29 -0.78634 0 63 -0.78634 1
gene 1 22 27 -0.781884 0 64 -0.781884 1
gene 1 22 28 -1.18355 0 65 -1.18355 1
gene 1 22 29 -0.210852 0 66 -0.210852 1
gene 1 23 27 2.24738 0 67 2.24738 1
gene 1 23 28 -0.312212 0 68 -0.312212 1
gene 1 23 29 0.249542 0 69 0.249542 1
gene 1 24 27 -1.4338 0 70 -1.4338 1
gene 1 24 28 0.321665 0 71 0.321665 1
gene 1 24 29 -1.02361 0 72 -1.02361 1
gene 1 25 27 -0.579043 0 73 -0.579043 1
gene 1 25 28 -0.0823771 0 74 -0.0823771 1
gene 1 25 29 1.12719 0 75 1.12719 1
gene 1 26 27 2.10858 0 76 2.10858 1
gene 1 26 28 2.43225 0 77 2.43225 1
gene 1 26 29 -1.64801 0 78 -1.64801 1
genomeend 15

/* Organism #16 Fitness: 0.00736429 Error: 0 */
genomestart 16
trait 1 0 0.055208 0 0 0 0.373089 0 0 
node 1 1 1 1
node 2 1 1 1
node 3 1 1 1
node 4 1 1 1
node 5 1 1 1
node 6 1 1 1
node 7 1 1 1
node 8 1 1 1
node 9 1 1 1
node 10 1 1 1
node 11 1 1 1
node 12 1 1 1
node 13 1 1 1
node 14 1 1 1
node 15 1 1 1
node 16 1 1 1
node 17 1 1 1
node 18 1 1 1
node 19 1 1 1
node 20 1 1 1
node 21 1 1 1
node 22 1 1 1
node 23 1 1 1
node 24 1 1 1
node 25 1 1 1
node 26 1 1 3
node 27 1 0 2
node 28 1 0 2
node 29 1 0 2
gene 1 1 27 -0.884259 0 1 -0.884259 1
gene 1 1 28 -3.08722 0 2 -3.08722 1
gene 1 1 29 -1.05507 0 3 -1.05507 1
gene 1 2 27 1.5405 0 4 1.5405 1
gene 1 2 28 -0.155797 0 5 -0.155797 1
gene 1 2 29 -4.20952 0 6 -4.20952 1
gene 1 3 27 3.29844 0 7 3.29844 1
gene 1 3 28 -2.56432 0 8 -2.56432 1
gene 1 3 29 -2.68868 0 9 -2.68868 1
gene 1 4 27 -0.511795 0 10 -0.511795 1
gene 1 4 28 -3.11734 0 11 -3.11734 1
gene 1 4 29 1.30277 0 12 1.30277 1
gene 1 5 27 1.39663 0 13 1.39663 1
gene 1 5 28 2.23511 0 14 2.23511 1
gene 1 5 29 -2.86099 0 15 -2.86099 1
gene 1 6 27 0.768944 0 16 0.768944 1
gene 1 6 28 1.9866 0 17 1.9866 1
gene 1 6 29 2.92451 0 18 2.92451 1
gene 1 7 27 2.25658 0 19 2.25658 1
gene 1 7 28 -2.90919 0 20 -2.90919 1
gene 1 7 29 3.90036 0 21 3.90036 1
gene 1 8 27 0.00436415 0 22 0.00436415 1
gene 1 8 28 0.10155 0 23 0.10155 1
gene 1 8 29 1.25065 0 24 1.25065 1
gene 1 9 27 -2.03833 0 25 -2.03833 1
gene 1 9 28 1.70925 0 26 1.70925 1
gene 1 9 29 -2.95866 0 27 -2.95866 1
gene 1 10 27 -0.0501724 0 28 -0.0501724 1
gene 1 10 28 1.72758 0 29 1.72758 1
gene 1 10 29 -1.44775 0 30 -1.44775 1
gene 1 11 27 -0.971358 0 31 -0.971358 1
gene 1 11 28 -2.02394 0 32 -2.02394 1
gene 1 11 29 -2.94157 0 33 -2.94157 1
gene 1 12 27 -2.87371 0 34 -2.87371 1
gene 1 12 28 2.56523 0 35 2.56523 1
gene 1 12 29 -0.406125 0 36 -0.406125 1
gene 1 13 27 4.28213 0 37 4.28213 1
gene 1 13 28 -1.11487 0 38 -1.11487 1
gene 1 13 29 1.64823 0 39 1.64823 1
gene 1 14 27 3.14943 0 40 3.14943 1
gene 1 14 28 0.780725 0 41 0.780725 1
gene 1 14 29 2.06992 0 42 2.06992 1
gene 1 15 27 3.21915 0 43 3.21915 1
gene 1 15 28 2.6933 0 44 2.6933 1
gene 1 15 29 -1.31086 0 45 -1.31086 1
gene 1 16 27 0.658086 0 46 0.658086 1
gene 1 16 28 1.32646 0 47 1.32646 1
gene 1 16 29 3.56656 0 48 3.56656 1
gene 1 17 27 1.35752 0 49 1.35752 1
gene 1 17 28 -1.86697 0 50 -1.86697 1
gene 1 17 29 2.12767 0 51 2.12767 1
gene 1 18 27 -0.506577 0 52 -0.506577 1
gene 1 18 28 3.66213 0 53 3.66213 1
gene 1 18 29 -1.73585 0 54 -1.73585 1
gene 1 19 27 -0.558962 0 55 -0.558962 1
gene 1 19 28 -0.928724 0 56 -0.928724 1
gene 1 19 29 -0.934751 0 57 -0.934751 1
gene 1 20 27 -2.85508 0 58 -2.85508 1
gene 1 20 28 3.04079 0 59 3.04079 1
gene 1 20 29 -3.29363 0 60 -3.29363 1
gene 1 21 27 2.78185 0 61 2.78185 1
gene 1 21 28 -0.73838 0 62 -0.73838 1
gene 1 21 29 1.89138 0 63 1.89138 1
gene 1 22 27 0.857707 0 64 0.857707 1
gene 1 22 28 -2.62307 0 65 -2.62307 1
gene 1 22 29 1.21972 0 66 1.21972 1
gene 1 23 27 -1.43199 0 67 -1.43199 1
gene 1 23 28 0.53148 0 68 0.53148 1
gene 1 23 29 1.52234 0 69 1.52234 1
gene 1 24 27 -1.35731 0 70 -1.35731 1
gene 1 24 28 -1.69332 0 71 -1.69332 1
gene 1 24 29 3.58644 0 72 3.58644 1
gene 1 25 27 -0.576647 0 73 -0.576647 1
gene 1 25 28 2.50931 0 74 2.50931 1
gene 1 25 29 -0.974197 0 75 -0.974197 1
gene 1 26 27 1.60782 0 76 1.60782 1
gene 1 26 28 -0.733818 0 77 -0.733818 1
gene 1 26 29 -1.48755 0 78 -1.48755 1
genomeend 16

/* Organism #17 Fitness: 0.04525 Error: 0 */
genomestart 17
trait 1 0 0.379711 0.210395 0 0 0 0.183325 0 
node 1 1 1 1
node 2 1 1 1
node 3 1 1 1
node 4 1 1 1
node 5 1 1 1
node 6 1 1 1
node 7 1 1 1
node 8 1 1 1
node 9 1 1 1
node 10 1 1 1
node 11 1 1 1
node 12 1 1 1
node 13 1 1 1
node 14 1 1 1
node 15 1 1 1
node 16 1 1 1
node 17 1 1 1
node 18 1 1 1
node 19 1 1 1
node 20 1 1 1
node 21 1 1 1
node 22 1 1 1
node 23 1 1 1
node 24 1 1 1
node 25 1 1 1
node 26 1 1 3
node 27 1 0 2
node 28 1 0 2
node 29 1 0 2
gene 1 1 27 2.94733 0 1 2.94733 1
gene 1 1 28 -2.67188 0 2 -2.67188 1
gene 1 1 29 2.12127 0 3 2.12127 1
gene 1 2 27 0.760025 0 4 0.760025 1
gene 1 2 28 2.32867 0 5 2.32867 1
gene 1 2 29 -2.29582 0 6 -2.29582 1
gene 1 3 27 -1.41663 0 7 -1.41663 1
gene 1 3 28 0.297655 0 8 0.297655 1
gene 1 3 29 2.13677 0 9 2.13677 1
gene 1 4 27 0.754463 0 10 0.754463 1
gene 1 4 28 -2.14214 0 11 -2.14214 1
gene 1 4 29 1.58177 0 12 1.58177 1
gene 1 5 27 -1.10712 0 13 -1.10712 1
gene 1 5 28 0.558191 0 14 0.558191 1
gene 1 5 29 1.28112 0 15 1.28112 1
gene 1 6 27 -1.24798 0 16 -1.24798 1
gene 1 6 28 -0.146779 0 17 -0.146779 1
gene 1 6 29 -1.99129 0 18 -1.99129 1
gene 1 7 27 1.49107 0 19 1.49107 1
gene 1 7 28 0.960364 0 20 0.960364 1
gene 1 7 29 1.30917 0 21 1.30917 1
gene 1 8 27 1.24471 0 22 1.24471 1
gene 1 8 28 0.37421 0 23 0.37421 1
gene 1 8 29 -1.87024 0 24 -1.87024 1
gene 1 9 27 -0.201765 0 25 -0.201765 1
gene 1 9 28 -1.94758 0 26 -1.94758 1
gene 1 9 29 0.0917997 0 27 0.0917997 1
gene 1 10 27 -0.0545061 0 28 -0.0545061 1
gene 1 10 28 -1.42598 0 29 -1.42598 1
gene 1 10 29 1.64246 0 30 1.64246 1
gene 1 11 27 -2.33311 0 31 -2.33311 1
gene 1 11 28 1.63912 0 32 1.63912 1
gene 1 11 29 1.52077 0 33 1.52077 1
gene 1 12 27 2.10446 0 34 2.10446 1
gene 1 12 28 -0.293825 0 35 -0.293825 1
gene 1 12 29 2.25691 0 36 2.25691 1
gene 1 13 27 2.88332 0 37 2.88332 1
gene 1 13 28 2.01843 0 38 2.01843 1
gene 1 13 29 1.88148 0 39 1.88148 1
gene 1 14 27 2.04228 0 40 2.04228 1
gene 1 14 28 -1.05239 0 41 -1.05239 1
gene 1 14 29 1.39296 0 42 1.39296 1
gene 1 15 27 1.19971 0 43 1.19971 1
gene 1 15 28 0.714637 0 44 0.714637 1
gene 1 15 29 1.19434 0 45 1.19434 1
gene 1 16 27 0.529954 0 46 0.529954 1
gene 1 16 28 1.6199 0 47 1.6199 1
gene 1 16 29 -0.795358 0 48 -0.795358 1
gene 1 17 27 -0.730277 0 49 -0.730277 1
gene 1 17 28 -0.252869 0 50 -0.252869 1
gene 1 17 29 -0.975875 0 51 -0.975875 1
gene 1 18 27 1.55894 0 52 1.55894 1
gene 1 18 28 -0.645795 0 53 -0.645795 1
gene 1 18 29 1.56784 0 54 1.56784 1
gene 1 19 27 -0.649854 0 55 -0.649854 1
gene 1 19 28 -1.19241 0 56 -1.19241 1
gene 1 19 29 0.098117 0 57 0.098117 1
gene 1 20 27 -2.48525 0 58 -2.48525 1
gene 1 20 28 -1.81714 0 59 -1.81714 1
gene 1 20 29 2.92161 0 60 2.92161 1
gene 1 21 27 1.47262 0 61 1.47262 1
gene 1 21 28 0.647221 0 62 0.647221 1
gene 1 21 29 -1.70811 0 63 -1.70811 1
gene 1 22 27 1.63266 0 64 1.63266 1
gene 1 22 28 1.61236 0 65 1.61236 1
gene 1 22 29 -2.48704 0 66 -2.48704 1
gene 1 23 27 0.395886 0 67 0.395886 1
gene 1 23 28 -0.262062 0 68 -0.262062 1
gene 1 23 29 -2.19579 0 69 -2.19579 1
gene 1 24 27 2.14258 0 70 2.14258 1
gene 1 24 28 -0.624493 0 71 -0.624493 1
gene 1 24 29 -0.645062 0 72 -0.645062 1
gene 1 25 27 1.61876 0 73 1.61876 1
gene 1 25 28 -1.5379 0 74 -1.5379 1
gene 1 25 29 0.658063 0 75 0.658063 1
gene 1 26 27 -1.18557 0 76 -1.18557 1
gene 1 26 28 0.728088 0 77 0.728088 1
gene 1 26 29 1.08682 0 78 1.08682 1
genomeend 17

/* Organism #18 Fitness: 0.0457857 Error: 0 */
genomestart 18
trait 1 0 0 0 0 0 0 0 0 
node 1 1 1 1
node 2 1 1 1
node 3 1 1 1
node 4 1 1 1
node 5 1 1 1
node 6 1 1 1
node 7 1 1 1
node 8 1 1 1
node 9 1 1 1
node 10 1 1 1
node 11 1 1 1
node 12 1 1 1
node 13 1 1 1
node 14 1 1 1
node 15 1 1 1
node 16 1 1 1
node 17 1 1 1
node 18 1 1 1
node 19 1 1 1
node 20 1 1 1
node 21 1 1 1
node 22 1 1 1
node 23 1 1 1
node 24 1 1 1
node 25 1 1 1
node 26 1 1 3
node 27 1 0 2
node 28 1 0 2
node 29 1 0 2
gene 1 1 27 1.81413 0 1 1.81413 1
gene 1 1 28 -0.920141 0 2 -0.920141 1
gene 1 1 29 0.404622 0 3 0.404622 1
gene 1 2 27 -2.43739 0 4 -2.43739 1
gene 1 2 28 1.033 0 5 1.033 1
gene 1 2 29 -0.983886 0 6 -0.983886 1
gene 1 3 27 1.93357 0 7 1.93357 1
gene 1 3 28 -0.694395 0 8 -0.694395 1
gene 1 3 29 1.99618 0 9 1.99618 1
gene 1 4 27 -2.16989 0 10 -2.16989 1
gene 1 4 28 -1.1721 0 11 -1.1721 1
gene 1 4 29 1.80705 0 12 1.80705 1
gene 1 5 27 -1.30892 0 13 -1.30892 1
gene 1 5 28 -0.934111 0 14 -0.934111 1
gene 1 5 29 -3.36263 0 15 -3.36263 1
gene 1 6 27 3.18978 0 16 3.18978 1
gene 1 6 28 -2.90634 0 17 -2.90634 1
gene 1 6 29 2.574 0 18 2.574 1
gene 1 7 27 -0.991333 0 19 -0.991333 1
gene 1 7 28 -2.25735 0 20 -2.25735 1
gene 1 7 29 0.0771126 0 21 0.0771126 1
gene 1 8 27 0.284463 0 22 0.284463 1
gene 1 8 28 1.68126 0 23 1.68126 1
gene 1 8 29 1.13489 0 24 1.13489 1
gene 1 9 27 -0.676557 0 25 -0.676557 1
gene 1 9 28 -0.814226 0 26 -0.814226 1
gene 1 9 29 -0.0333872 0 27 -0.0333872 1
gene 1 10 27 1.10929 0 28 1.10929 1
gene 1 10 28 3.02525 0 29 3.02525 1
gene 1 10 29 -1.59295 0 30 -1.59295 1
gene 1 11 27 -0.552149 0 31 -0.552149 1
gene 1 11 28 0.125874 0 32 0.125874 1
gene 1 11 29 -1.97955 0 33 -1.97955 1
gene 1 12 27 1.63675 0 34 1.63675 1
gene 1 12 28 1.02397 0 35 1.02397 1
gene 1 12 29 2.50443 0 36 2.50443 1
gene 1 13 27 -0.539499 0 37 -0.539499 1
gene 1 13 28 -0.203871 0 38 -0.203871 1
gene 1 13 29 0.131191 0 39 0.131191 1
gene 1 14 27 0.929762 0 40 0.929762 1
gene 1 14 28 1.52948 0 41 1.52948 1
gene 1 14 29 0.725883 0 42 0.725883 1
gene 1 15 27 -0.684988 0 43 -0.684988 1
gene 1 15 28 1.39859 0 44 1.39859 1
gene 1 15 29 -2.83838 0 45 -2.83838 1
gene 1 16 27 1.32289 0 46 1.32289 1
gene 1 16 28 -0.685141 0 47 -0.685141 1
gene 1 16 29 -2.74738 0 48 -2.74738 1
gene 1 17 27 -1.77941 0 49 -1.77941 1
gene 1 17 28 0.277818 0 50 0.277818 1
gene 1 17 29 0.00341044 0 51 0.00341044 1
gene 1 18 27 1.61504 0 52 1.61504 1
gene 1 18 28 -3.01374 0 53 -3.01374 1
gene 1 18 29 1.46068 0 54 1.46068 1
gene 1 19 27 0.85358 0 55 0.85358 1
gene 1 19 28 -2.38026 0 56 -2.38026 1
gene 1 19 29 2.05115 0 57 2.05115 1
gene 1 20 27 -2.2815 0 58 -2.2815 1
gene 1 20 28 -0.363964 0 59 -0.363964 1
gene 1 20 29 1.30235 0 60 1.30235 1
gene 1 21 27 0.254776 0 61 0.254776 1
gene 1 21 28 1.83565 0 62 1.83565 1
gene 1 21 29 -0.467093 0 63 -0.467093 1
gene 1 22 27 -0.710997 0 64 -0.710997 1
gene 1 22 28 1.77427 0 65 1.77427 1
gene 1 22 29 2.0423 0 66 2.0423 1
gene 1 23 27 1.86515 0 67 1.86515 1
gene 1 23 28 -2.4336 0 68 -2.4336 1
gene 1 23 29 -1.56867 0 69 -1.56867 1
gene 1 24 27 -1.47504 0 70 -1.47504 1
gene 1 24 28 -0.0851924 0 71 -0.0851924 1
gene 1 24 29 0.929563 0 72 0.929563 1
gene 1 25 27 1.51432 0 73 1.51432 1
gene 1 25 28 -0.311922 0 74 -0.311922 1
gene 1 25 29 1.89676 0 75 1.89676 1
gene 1 26 27 -0.596637 0 76 -0.596637 1
gene 1 26 28 1.70864 0 77 1.70864 1
gene 1 26 29 -2.13312 0 78 -2.13312 1
genomeend 18

/* Organism #19 Fitness: 0.0786143 Error: 0 */
genomestart 19
trait 1 0 0 0 0 0 0 0 0 
node 1 1 1 1
node 2 1 1 1
node 3 1 1 1
node 4 1 1 1
node 5 1 1 1
node 6 1 1 1
node 7 1 1 1
node 8 1 1 1
node 9 1 1 1
node 10 1 1 1
node 11 1 1 1
node 12 1 1 1
node 13 1 1 1
node 14 1 1 1
node 15 1 1 1
node 16 1 1 1
node 17 1 1 1
node 18 1 1 1
node 19 1 1 1
node 20 1 1 1
node 21 1 1 1
node 22 1 1 1
node 23 1 1 1
node 24 1 1 1
node 25 1 1 1
node 26 1 1 3
node 27 1 0 2
node 28 1 0 2
node 29 1 0 2
node 30 1 0 0
gene 1 1 27 -0.0688955 0 1 -0.0688955 1
gene 1 1 28 -2.22683 0 2 -2.22683 1
gene 1 1 29 0.847163 0 3 0.847163 1
gene 1 2 27 -0.577639 0 4 -0.577639 1
gene 1 2 28 -0.432325 0 5 -0.432325 1
gene 1 2 29 0.834437 0 6 0.834437 1
gene 1 3 27 0.287332 0 7 0.287332 1
gene 1 3 28 -1.01569 0 8 -1.01569 1
gene 1 3 29 2.04677 0 9 2.04677 1
gene 1 4 27 -0.454772 0 10 -0.454772 1
gene 1 4 28 -1.76452 0 11 -1.76452 1
gene 1 4 29 -2.15961 0 12 -2.15961 1
gene 1 5 27 1.99104 0 13 1.99104 1
gene 1 5 28 -0.425291 0 14 -0.425291 1
gene 1 5 29 2.04166 0 15 2.04166 1
gene 1 6 27 2.2187 0 16 2.2187 1
gene 1 6 28 -1.30825 0 17 -1.30825 1
gene 1 6 29 2.51503 0 18 2.51503 1
gene 1 7 27 0.193838 0 19 0.193838 1
gene 1 7 28 -2.55315 0 20 -2.55315 1
gene 1 7 29 -1.07523 0 21 -1.07523 1
gene 1 8 27 0.348094 0 22 0.348094 1
gene 1 8 28 0.994827 0 23 0.994827 1
gene 1 8 29 -0.551042 0 24 -0.551042 1
gene 1 9 27 0.385662 0 25 0.385662 0
gene 1 9 28 -1.15984 0 26 -1.15984 1
gene 1 9 29 0.56766 0 27 0.56766 1
gene 1 10 27 -2.16335 0 28 -2.16335 1
gene 1 10 28 -2.52113 0 29 -2.52113 1
gene 1 10 29 -0.731117 0 30 -0.731117 1
gene 1 11 27 1.17339 0 31 1.17339 1
gene 1 11 28 -1.10556 0 32 -1.10556 1
gene 1 11 29 0.102527 0 33 0.102527 1
gene 1 12 27 1.2 0 34 1.2 1
gene 1 12 28 0.854961 0 35 0.854961 1
gene 1 12 29 -0.635807 0 36 -0.635807 1
gene 1 13 27 1.98914 0 37 1.98914 1
gene 1 13 28 1.62972 0 38 1.62972 1
gene 1 13 29 1.19362 0 39 1.19362 1
gene 1 14 27 -0.0535752 0 40 -0.0535752 1
gene 1 14 28 -1.53911 0 41 -1.53911 1
gene 1 14 29 -1.5839 0 42 -1.5839 1
gene 1 15 27 0.481643 0 43 0.481643 1
gene 1 15 28 3.04183 0 44 3.04183 1
gene 1 15 29 -1.04274 0 45 -1.04274 1
gene 1 16 27 -0.967162 0 46 -0.967162 1
gene 1 16 28 -2.46324 0 47 -2.46324 1
gene 1 16 29 1.27294 0 48 1.27294 1
gene 1 17 27 0.855144 0 49 0.855144 1
gene 1 17 28 -1.83012 0 50 -1.83012 1
gene 1 17 29 2.95323 0 51 2.95323 1
gene 1 18 27 0.439207 0 52 0.439207 1
gene 1 18 28 -1.34645 0 53 -1.34645 1
gene 1 18 29 0.154439 0 54 0.154439 1
gene 1 19 27 0.276177 0 55 0.276177 1
gene 1 19 28 2.88107 0 56 2.88107 1
gene 1 19 29 -2.81608 0 57 -2.81608 1
gene 1 20 27 -2.07691 0 58 -2.07691 1
gene 1 20 28 0.832392 0 59 0.832392 1
gene 1 20 29 1.15481 0 60 1.15481 1
gene 1 21 27 0.325755 0 61 0.325755 1
gene 1 21 28 -3.1879 0 62 -3.1879 1
gene 1 21 29 -2.62688 0 63 -2.62688 1
gene 1 22 27 0.847774 0 64 0.847774 1
gene 1 22 28 0.385006 0 65 0.385006 1
gene 1 22 29 1.82766 0 66 1.82766 1
gene 1 23 27 0.816141 0 67 0.816141 1
gene 1 23 28 1.34544 0 68 1.34544 1
gene 1 23 29 -1.39096 0 69 -1.39096 1
gene 1 24 27 2.66489 0 70 2.66489 1
gene 1 24 28 0.478362 0 71 0.478362 1
gene 1 24 29 -1.6767 0 72 -1.6767 1
gene 1 25 27 -0.0410627 0 73 -0.0410627 1
gene 1 25 28 0.49501 0 74 0.49501 1
gene 1 25 29 1.77055 0 75 1.77055 1
gene 1 26 27 -1.14257 0 76 -1.14257 1
gene 1 26 28 0.334025 0 77 0.334025 1
gene 1 26 29 1.00037 0 78 1.00037 1
gene 1 9 30 2.22465 0 80 2.22465 1
gene 1 30 27 -0.447111 0 81 -0.447111 1
genomeend 19

/* Organism #20 Fitness: 0.0689714 Error: 0 */
genomestart 20
trait 1 0 0 0 0 0.465819 0 0 0 
node 1 1 1 1
node 2 1 1 1
node 3 1 1 1
node 4 1 1 1
node 5 1 1 1
node 6 1 1 1
node 7 1 1 1
node 8 1 1 1
node 9 1 1 1
node 10 1 1 1
node 11 1 1 1
node 12 1 1 1
node 13 1 1 1
node 14 1 1 1
node 15 1 1 1
node 16 1 1 1
node 17 1 1 1
node 18 1 1 1
node 19 1 1 1
node 20 1 1 1
node 21 1 1 1
node 22 1 1 1
node 23 1 1 1
node 24 1 1 1
node 25 1 1 1
node 26 1 1 3
node 27 1 0 2
node 28 1 0 2
node 29 1 0 2
gene 1 1 27 0.502686 0 1 0.502686 1
gene 1 1 28 -0.816477 0 2 -0.816477 1
gene 1 1 29 -1.89651 0 3 -1.89651 1
gene 1 2 27 2.17475 0 4 2.17475 1
gene 1 2 28 0.729667 0 5 0.729667 1
gene 1 2 29 0.81933 0 6 0.81933 1
gene 1 3 27 -0.382672 0 7 -0.382672 1
gene 1 3 28 0.67803 0 8 0.67803 1
gene 1 3 29 -0.931959 0 9 -0.931959 1
gene 1 4 27 0.398938 0 10 0.398938 1
gene 1 4 28 1.23159 0 11 1.23159 1
gene 1 4 29 -2.70385 0 12 -2.70385 1
gene 1 5 27 2.41017 0 13 2.41017 1
gene 1 5 28 2.53693 0 14 2.53693 1
gene 1 5 29 1.71973 0 15 1.71973 1
gene 1 6 27 2.21203 0 16 2.21203 1
gene 1 6 28 2.69799 0 17 2.69799 1
gene 1 6 29 1.3432 0 18 1.3432 1
gene 1 7 27 -1.53903 0 19 -1.53903 1
gene 1 7 28 -1.48233 0 20 -1.48233 1
gene 1 7 29 1.47938 0 21 1.47938 1
gene 1 8 27 1.00523 0 22 1.00523 1
gene 1 8 28 -2.63373 0 23 -2.63373 1
gene 1 8 29 -0.198798 0 24 -0.198798 1
gene 1 9 27 1.75126 0 25 1.75126 1
gene 1 9 28 -0.772591 0 26 -0.772591 1
gene 1 9 29 0.599017 0 27 0.599017 1
gene 1 10 27 2.65651 0 28 2.65651 1
gene 1 10 28 -1.13744 0 29 -1.13744 1
gene 1 10 29 2.40542 0 30 2.40542 1
gene 1 11 27 -0.152959 0 31 -0.152959 1
gene 1 11 28 -2.01672 0 32 -2.01672 1
gene 1 11 29 1.27664 0 33 1.27664 1
gene 1 12 27 -0.758614 0 34 -0.758614 1
gene 1 12 28 0.76632 0 35 0.76632 1
gene 1 12 29 -0.785272 0 36 -0.785272 1
gene 1 13 27 1.90675 0 37 1.90675 1
gene 1 13 28 -1.30084 0 38 -1.30084 1
gene 1 13 29 -0.12125 0 39 -0.12125 1
gene 1 14 27 -1.52019 0 40 -1.52019 1
gene 1 14 28 0.608829 0 41 0.608829 1
gene 1 14 29 -2.20162 0 42 -2.20162 1
gene 1 15 27 1.10425 0 43 1.10425 1
gene 1 15 28 -1.03049 0 44 -1.03049 1
gene 1 15 29 1.78712 0 45 1.78712 1
gene 1 16 27 -2.50536 0 46 -2.50536 1
gene 1 16 28 2.3894 0 47 2.3894 1
gene 1 16 29 -0.371792 0 48 -0.371792 1
gene 1 17 27 -0.0489517 0 49 -0.0489517 1
gene 1 17 28 2.64664 0 50 2.64664 1
gene 1 17 29 -0.132344 0 51 -0.132344 1
gene 1 18 27 -1.53436 0 52 -1.53436 1
gene 1 18 28 1.5108 0 53 1.5108 1
gene 1 18 29 -2.3019 0 54 -2.3019 1
gene 1 19 27 0.440413 0 55 0.440413 1
gene 1 19 28 -0.18601 0 56 -0.18601 1
gene 1 19 29 2.28072 0 57 2.28072 1
gene 1 20 27 0.475188 0 58 0.475188 1
gene 1 20 28 1.8352 0 59 1.8352 1
gene 1 20 29 -0.0796533 0 60 -0.0796533 1
gene 1 21 27 1.59174 0 61 1.59174 1
gene 1 21 28 1.41501 0 62 1.41501 1
gene 1 21 29 1.74174 0 63 1.74174 1
gene 1 22 27 1.63343 0 64 1.63343 1
gene 1 22 28 1.95651 0 65 1.95651 1
gene 1 22 29 -1.44467 0 66 -1.44467 1
gene 1 23 27 1.9368 0 67 1.9368 1
gene 1 23 28 -1.41871 0 68 -1.41871 1
gene 1 23 29 -1.6766 0 69 -1.6766 1
gene 1 24 27 2.52939 0 70 2.52939 1
gene 1 24 28 -1.46626 0 71 -1.46626 1
gene 1 24 29 0.945952 0 72 0.945952 1
gene 1 25 27 -1.37803 0 73 -1.37803 1
gene 1 25 28 -0.65746 0 74 -0.65746 1
gene 1 25 29 0.64304 0 75 0.64304 1
gene 1 26 27 -2.35205 0 76 -2.35205 1
gene 1 26 28 0.247368 0 77 0.247368 1
gene 1 26 29 -0.527375 0 78 -0.527375 1
genomeend 20

/* Organism #21 Fitness: 0.0336143 Error: 0 */
genomestart 21
trait 1 0 0 0 0 0 0 0 0 
node 1 1 1 1
node 2 1 1 1
node 3 1 1 1
node 4 1 1 1
node 5 1 1 1
node 6 1 1 1
node 7 1 1 1
node 8 1 1 1
node 9 1 1 1
node 10 1 1 1
node 11 1 1 1
node 12 1 1 1
node 13 1 1 1
node 14 1 1 1
node 15 1 1 1
node 16 1 1 1
node 17 1 1 1
node 18 1 1 1
node 19 1 1 1
node 20 1 1 1
node 21 1 1 1
node 22 1 1 1
node 23 1 1 1
node 24 1 1 1
node 25 1 1 1
node 26 1 1 3
node 27 1 0 2
node 28 1 0 2
node 29 1 0 2
gene 1 1 27 -0.571306 0 1 -0.571306 1
gene 1 1 28 -0.260308 0 2 -0.260308 1
gene 1 1 29 1.22929 0 3 1.22929 1
gene 1 2 27 -0.270928 0 4 -0.270928 1
gene 1 2 28 1.15169 0 5 1.15169 1
gene 1 2 29 2.18326 0 6 2.18326 1
gene 1 3 27 0.397298 0 7 0.397298 1
gene 1 3 28 -0.543077 0 8 -0.543077 1
gene 1 3 29 0.884648 0 9 0.884648 1
gene 1 4 27 -2.43812 0 10 -2.43812 1
gene 1 4 28 -2.58827 0 11 -2.58827 1
gene 1 4 29 0.414235 0 12 0.414235 1
gene 1 5 27 -0.1854 0 13 -0.1854 1
gene 1 5 28 0.0722831 0 14 0.0722831 1
gene 1 5 29 0.719245 0 15 0.719245 1
gene 1 6 27 -0.843608 0 16 -0.843608 1
gene 1 6 28 -0.488372 0 17 -0.488372 1
gene 1 6 29 0.832713 0 18 0.832713 1
gene 1 7 27 2.55092 0 19 2.55092 1
gene 1 7 28 0.436758 0 20 0.436758 1
gene 1 7 29 0.428556 0 21 0.428556 1
gene 1 8 27 1.49201 0 22 1.49201 1
gene 1 8 28 -0.738441 0 23 -0.738441 1
gene 1 8 29 0.682699 0 24 0.682699 1
gene 1 9 27 -0.174673 0 25 -0.174673 1
gene 1 9 28 -2.41993 0 26 -2.41993 1
gene 1 9 29 -0.6301 0 27 -0.6301 1
gene 1 10 27 0.101398 0 28 0.101398 1
gene 1 10 28 0.364925 0 29 0.364925 1
gene 1 10 29 -1.34133 0 30 -1.34133 1
gene 1 11 27 3.20547 0 31 3.20547 1
gene 1 11 28 -3.16133 0 32 -3.16133 1
gene 1 11 29 -0.592471 0 33 -0.592471 1
gene 1 12 27 0.831271 0 34 0.831271 1
gene 1 12 28 0.25367 0 35 0.25367 1
gene 1 12 29 -0.242363 0 36 -0.242363 1
gene 1 13 27 0.266961 0 37 0.266961 1
gene 1 13 28 1.63236 0 38 1.63236 1
gene 1 13 29 1.04838 0 39 1.04838 1
gene 1 14 27 -0.960341 0 40 -0.960341 1
gene 1 14 28 -2.32346 0 41 -2.32346 1
gene 1 14 29 -1.22264 0 42 -1.22264 1
gene 1 15 27 1.97889 0 43 1.97889 1
gene 1 15 28 -1.29724 0 44 -1.29724 1
gene 1 15 29 3.02157 0 45 3.02157 1
gene 1 16 27 2.13568 0 46 2.13568 1
gene 1 16 28 -0.370182 0 47 -0.370182 1
gene 1 16 29 1.24665 0 48 1.24665 1
gene 1 17 27 -0.162587 0 49 -0.162587 1
gene 1 17 28 -1.44378 0 50 -1.44378 1
gene 1 17 29 -2.71223 0 51 -2.71223 1
gene 1 18 27 -2.26737 0 52 -2.26737 1
gene 1 18 28 -3.46512 0 53 -3.46512 1
gene 1 18 29 -1.36547 0 54 -1.36547 1
gene 1 19 27 -2.39402 0 55 -2.39402 1
gene 1 19 28 -0.36021 0 56 -0.36021 1
gene 1 19 29 0.16023 0 57 0.16023 1
gene 1 20 27 1.8386 0 58 1.8386 1
gene 1 20 28 0.252327 0 59 0.252327 1
gene 1 20 29 -1.15413 0 60 -1.15413 1
gene 1 21 27 0.469306 0 61 0.469306 1
gene 1 21 28 -0.684301 0 62 -0.684301 1
gene 1 21 29 2.28945 0 63 2.28945 1
gene 1 22 27 0.701361 0 64 0.701361 1
gene 1 22 28 -0.1648 0 65 -0.1648 1
gene 1 22 29 -0.291963 0 66 -0.291963 1
gene 1 23 27 -0.448767 0 67 -0.448767 1
gene 1 23 28 0.0418104 0 68 0.0418104 1
gene 1 23 29 -0.558214 0 69 -0.558214 1
gene 1 24 27 1.83016 0 70 1.83016 1
gene 1 24 28 -1.84576 0 71 -1.84576 1
gene 1 24 29 -0.127415 0 72 -0.127415 1
gene 1 25 27 1.75298 0 73 1.75298 1
gene 1 25 28 -2.71297 0 74 -2.71297 1
gene 1 25 29 -0.0947371 0 75 -0.0947371 1
gene 1 26 27 0.248321 0 76 0.248321 1
gene 1 26 28 0.554704 0 77 0.554704 1
gene 1 26 29 1.14139 0 78 1.14139 1
genomeend 21

/* Organism #22 Fitness: 0.0625429 Error: 0 */
genomestart 22
trait 1 0 0 0 0 0 0 0 0 
node 1 1 1 1
node 2 1 1 1
node 3 1 1 1
node 4 1 1 1
node 5 1 1 1
node 6 1 1 1
node 7 1 1 1
node 8 1 1 1
node 9 1 1 1
node 10 1 1 1
node 11 1 1 1
node 12 1 1 1
node 13 1 1 1
node 14 1 1 1
node 15 1 1 1
node 16 1 1 1
node 17 1 1 1
node 18 1 1 1
node 19 1 1 1
node 20 1 1 1
node 21 1 1 1
node 22 1 1 1
node 23 1 1 1
node 24 1 1 1
node 25 1 1 1
node 26 1 1 3
node 27 1 0 2
node 28 1 0 2
node 29 1 0 2
gene 1 1 27 0.862606 0 1 0.862606 1
gene 1 1 28 0.859706 0 2 0.859706 1
gene 1 1 29 -0.271447 0 3 -0.271447 1
gene 1 2 27 2.4599 0 4 2.4599 1
gene 1 2 28 0.777657 0 5 0.777657 1
gene 1 2 29 4.77557 0 6 4.77557 1
gene 1 3 27 2.0229 0 7 2.0229 1
gene 1 3 28 -1.84362 0 8 -1.84362 1
gene 1 3 29 2.01917 0 9 2.01917 1
gene 1 4 27 -0.434721 0 10 -0.434721 1
gene 1 4 28 -1.81175 0 11 -1.81175 1
gene 1 4 29 -1.16984 0 12 -1.16984 1
gene 1 5 27 2.34184 0 13 2.34184 1
gene 1 5 28 2.35476 0 14 2.35476 1
gene 1 5 29 -0.295282 0 15 -0.295282 1
gene 1 6 27 3.54395 0 16 3.54395 1
gene 1 6 28 0.402387 0 17 0.402387 1
gene 1 6 29 0.0136876 0 18 0.0136876 1
gene 1 7 27 2.35636 0 19 2.35636 1
gene 1 7 28 0.0991699 0 20 0.0991699 1
gene 1 7 29 -0.293374 0 21 -0.293374 1
gene 1 8 27 1.60247 0 22 1.60247 1
gene 1 8 28 1.48067 0 23 1.48067 1
gene 1 8 29 1.61414 0 24 1.61414 1
gene 1 9 27 1.16811 0 25 1.16811 1
gene 1 9 28 -2.04028 0 26 -2.04028 1
gene 1 9 29 -1.98894 0 27 -1.98894 1
gene 1 10 27 2.37255 0 28 2.37255 1
gene 1 10 28 -3.29061 0 29 -3.29061 1
gene 1 10 29 2.82951 0 30 2.82951 1
gene 1 11 27 1.55452 0 31 1.55452 1
gene 1 11 28 0.873501 0 32 0.873501 1
gene 1 11 29 -0.337489 0 33 -0.337489 1
gene 1 12 27 3.00385 0 34 3.00385 1
gene 1 12 28 1.20347 0 35 1.20347 1
gene 1 12 29 -0.531022 0 36 -0.531022 1
gene 1 13 27 -1.88812 0 37 -1.88812 1
gene 1 13 28 -1.34416 0 38 -1.34416 1
gene 1 13 29 2.03578 0 39 2.03578 1
gene 1 14 27 1.29044 0 40 1.29044 1
gene 1 14 28 -1.21616 0 41 -1.21616 1
gene 1 14 29 0.843867 0 42 0.843867 1
gene 1 15 27 2.61831 0 43 2.61831 1
gene 1 15 28 0.390179 0 44 0.390179 1
gene 1 15 29 -1.92798 0 45 -1.92798 1
gene 1 16 27 3.83409 0 46 3.83409 1
gene 1 16 28 1.22021 0 47 1.22021 1
gene 1 16 29 2.41513 0 48 2.41513 1
gene 1 17 27 -2.46931 0 49 -2.46931 1
gene 1 17 28 -0.34582 0 50 -0.34582 1
gene 1 17 29 -1.77238 0 51 -1.77238 1
gene 1 18 27 0.581347 0 52 0.581347 1
gene 1 18 28 2.62857 0 53 2.62857 1
gene 1 18 29 -0.731162 0 54 -0.731162 1
gene 1 19 27 1.6144 0 55 1.6144 1
gene 1 19 28 1.31889 0 56 1.31889 1
gene 1 19 29 0.547899 0 57 0.547899 1
gene 1 20 27 0.2566 0 58 0.2566 1
gene 1 20 28 0.440001 0 59 0.440001 1
gene 1 20 29 0.419767 0 60 0.419767 1
gene 1 21 27 1.63916 0 61 1.63916 1
gene 1 21 28 -2.08071 0 62 -2.08071 1
gene 1 21 29 -0.497177 0 63 -0.497177 1
gene 1 22 27 2.20286 0 64 2.20286 1
gene 1 22 28 2.13491 0 65 2.13491 1
gene 1 22 29 1.10633 0 66 1.10633 1
gene 1 23 27 0.682501 0 67 0.682501 1
gene 1 23 28 2.65395 0 68 2.65395 1
gene 1 23 29 0.132282 0 69 0.132282 1
gene 1 24 27 0.797815 0 70 0.797815 1
gene 1 24 28 -0.195746 0 71 -0.195746 1
gene 1 24 29 1.93617 0 72 1.93617 1
gene 1 25 27 0.481216 0 73 0.481216 1
gene 1 25 28 -0.469741 0 74 -0.469741 1
gene 1 25 29 -1.37786 0 75 -1.37786 1
gene 1 26 27 -0.525666 0 76 -0.525666 1
gene 1 26 28 0.453597 0 77 0.453597 1
gene 1 26 29 -2.13871 0 78 -2.13871 1
genomeend 22

/* Organism #23 Fitness: 0.00736429 Error: 0 */
genomestart 23
trait 1 0 0.166341 0.13329 0 0 0.345378 0 0.0925321 
node 1 1 1 1
node 2 1 1 1
node 3 1 1 1
node 4 1 1 1
node 5 1 1 1
node 6 1 1 1
node 7 1 1 1
node 8 1 1 1
node 9 1 1 1
node 10 1 1 1
node 11 1 1 1
node 12 1 1 1
node 13 1 1 1
node 14 1 1 1
node 15 1 1 1
node 16 1 1 1
node 17 1 1 1
node 18 1 1 1
node 19 1 1 1
node 20 1 1 1
node 21 1 1 1
node 22 1 1 1
node 23 1 1 1
node 24 1 1 1
node 25 1 1 1
node 26 1 1 3
node 27 1 0 2
node 28 1 0 2
node 29 1 0 2
node 30 1 0 0
gene 1 1 27 -2.3793 0 1 -2.3793 1
gene 1 1 28 0.535829 0 2 0.535829 1
gene 1 1 29 -2.81368 0 3 -2.81368 1
gene 1 2 27 3.65639 0 4 3.65639 1
gene 1 2 28 0.750038 0 5 0.750038 1
gene 1 2 29 -1.95045 0 6 -1.95045 1
gene 1 3 27 -0.270867 0 7 -0.270867 1
gene 1 3 28 1.08231 0 8 1.08231 1
gene 1 3 29 0.359249 0 9 0.359249 1
gene 1 4 27 -0.447066 0 10 -0.447066 1
gene 1 4 28 -1.34237 0 11 -1.34237 1
gene 1 4 29 -1.65827 0 12 -1.65827 1
gene 1 5 27 -0.674505 0 13 -0.674505 1
gene 1 5 28 2.56774 0 14 2.56774 1
gene 1 5 29 -1.46858 0 15 -1.46858 1
gene 1 6 27 -0.663091 0 16 -0.663091 1
gene 1 6 28 0.745338 0 17 0.745338 1
gene 1 6 29 -4.25637 0 18 -4.25637 1
gene 1 7 27 0.283486 0 19 0.283486 1
gene 1 7 28 1.652 0 20 1.652 1
gene 1 7 29 -2.58396 0 21 -2.58396 1
gene 1 8 27 3.74935 0 22 3.74935 1
gene 1 8 28 -0.178152 0 23 -0.178152 1
gene 1 8 29 -0.44705 0 24 -0.44705 1
gene 1 9 27 0.611499 0 25 0.611499 0
gene 1 9 28 -0.257942 0 26 -0.257942 1
gene 1 9 29 1.99226 0 27 1.99226 1
gene 1 10 27 0.141865 0 28 0.141865 1
gene 1 10 28 -1.36959 0 29 -1.36959 1
gene 1 10 29 1.66744 0 30 1.66744 1
gene 1 11 27 -3.18825 0 31 -3.18825 1
gene 1 11 28 2.66095 0 32 2.66095 1
gene 1 11 29 1.14274 0 33 1.14274 1
gene 1 12 27 -1.05112 0 34 -1.05112 1
gene 1 12 28 3.52066 0 35 3.52066 1
gene 1 12 29 0.16718 0 36 0.16718 1
gene 1 13 27 -0.357967 0 37 -0.357967 1
gene 1 13 28 -2.40936 0 38 -2.40936 1
gene 1 13 29 -0.161168 0 39 -0.161168 1
gene 1 14 27 -1.98997 0 40 -1.98997 1
gene 1 14 28 -1.81256 0 41 -1.81256 1
gene 1 14 29 3.03783 0 42 3.03783 1
gene 1 15 27 1.04479 0 43 1.04479 1
gene 1 15 28 -0.969863 0 44 -0.969863 1
gene 1 15 29 -1.33435 0 45 -1.33435 1
gene 1 16 27 1.06392 0 46 1.06392 1
gene 1 16 28 0.468551 0 47 0.468551 1
gene 1 16 29 -1.49959 0 48 -1.49959 1
gene 1 17 27 1.01392 0 49 1.01392 1
gene 1 17 28 -1.75765 0 50 -1.75765 1
gene 1 17 29 2.55679 0 51 2.55679 1
gene 1 18 27 -0.0914335 0 52 -0.0914335 1
gene 1 18 28 -1.74683 0 53 -1.74683 1
gene 1 18 29 -1.48135 0 54 -1.48135 1
gene 1 19 27 2.23466 0 55 2.23466 1
gene 1 19 28 -2.64003 0 56 -2.64003 1
gene 1 19 29 -0.574633 0 57 -0.574633 1
gene 1 20 27 0.749138 0 58 0.749138 1
gene 1 20 28 -0.367061 0 59 -0.367061 1
gene 1 20 29 0.180502 0 60 0.180502 1
gene 1 21 27 0.401059 0 61 0.401059 1
gene 1 21 28 -0.167943 0 62 -0.167943 1
gene 1 21 29 2.77854 0 63 2.77854 1
gene 1 22 27 -2.84803 0 64 -2.84803 1
gene 1 22 28 -2.80108 0 65 -2.80108 1
gene 1 22 29 -3.43875 0 66 -3.43875 1
gene 1 23 27 0.17243 0 67 0.17243 1
gene 1 23 28 -2.11608 0 68 -2.11608 1
gene 1 23 29 0.510529 0 69 0.510529 1
gene 1 24 27 0.210883 0 70 0.210883 1
gene 1 24 28 -0.744362 0 71 -0.744362 1
gene 1 24 29 0.942091 0 72 0.942091 1
gene 1 25 27 -0.13422 0 73 -0.13422 1
gene 1 25 28 1.63149 0 74 1.63149 1
gene 1 25 29 0.859035 0 75 0.859035 1
gene 1 26 27 0.384915 0 76 0.384915 1
gene 1 26 28 -1.96661 0 77 -1.96661 1
gene 1 26 29 -0.0804468 0 78 -0.0804468 1
gene 1 9 30 0.555651 0 80 0.555651 1
gene 1 30 27 -0.447111 0 81 -0.447111 1
genomeend 23

/* Organism #24 Fitness: 0.0431071 Error: 0 */
genomestart 24
trait 1 0 0.221549 0.13329 0 0 0.718467 0 0.0925321 
node 1 1 1 1
node 2 1 1 1
node 3 1 1 1
node 4 1 1 1
node 5 1 1 1
node 6 1 1 1
node 7 1 1 1
node 8 1 1 1
node 9 1 1 1
node 10 1 1 1
node 11 1 1 1
node 12 1 1 1
node 13 1 1 1
node 14 1 1 1
node 15 1 1 1
node 16 1 1 1
node 17 1 1 1
node 18 1 1 1
node 19 1 1 1
node 20 1 1 1
node 21 1 1 1
node 22 1 1 1
node 23 1 1 1
node 24 1 1 1
node 25 1 1 1
node 26 1 1 3
node 27 1 0 2
node 28 1 0 2
node 29 1 0 2
gene 1 1 27 -2.58417 0 1 -2.58417 1
gene 1 1 28 -1.44067 0 2 -1.44067 1
gene 1 1 29 -0.0764183 0 3 -0.0764183 1
gene 1 2 27 0.713416 0 4 0.713416 1
gene 1 2 28 1.95814 0 5 1.95814 1
gene 1 2 29 -1.38507 0 6 -1.38507 1
gene 1 3 27 -3.43556 0 7 -3.43556 1
gene 1 3 28 -3.88063 0 8 -3.88063 1
gene 1 3 29 0.478454 0 9 0.478454 1
gene 1 4 27 -0.217826 0 10 -0.217826 1
gene 1 4 28 -2.59195 0 11 -2.59195 1
gene 1 4 29 1.46364 0 12 1.46364 1
gene 1 5 27 1.71549 0 13 1.71549 1
gene 1 5 28 -0.769845 0 14 -0.769845 1
gene 1 5 29 0.462889 0 15 0.462889 1
gene 1 6 27 1.71787 0 16 1.71787 1
gene 1 6 28 2.21938 0 17 2.21938 1
gene 1 6 29 -0.227927 0 18 -0.227927 1
gene 1 7 27 -2.28523 0 19 -2.28523 1
gene 1 7 28 2.18157 0 20 2.18157 1
gene 1 7 29 -0.768426 0 21 -0.768426 1
gene 1 8 27 -1.71032 0 22 -1.71032 1
gene 1 8 28 -0.168004 0 23 -0.168004 1
gene 1 8 29 -0.745476 0 24 -0.745476 1
gene 1 9 27 1.83541 0 25 1.83541 1
gene 1 9 28 -2.30461 0 26 -2.30461 1
gene 1 9 29 -1.0701 0 27 -1.0701 1
gene 1 10 27 -0.782723 0 28 -0.782723 1
gene 1 10 28 -0.409146 0 29 -0.409146 1
gene 1 10 29 -1.42364 0 30 -1.42364 1
gene 1 11 27 -0.550996 0 31 -0.550996 1
gene 1 11 28 3.92495 0 32 3.92495 1
gene 1 11 29 -1.93193 0 33 -1.93193 1
gene 1 12 27 -1.68416 0 34 -1.68416 1
gene 1 12 28 2.58283 0 35 2.58283 1
gene 1 12 29 2.20611 0 36 2.20611 1
gene 1 13 27 -0.634236 0 37 -0.634236 1
gene 1 13 28 1.20685 0 38 1.20685 1
gene 1 13 29 2.6044 0 39 2.6044 1
gene 1 14 27 1.35334 0 40 1.35334 1
gene 1 14 28 -1.53723 0 41 -1.53723 1
gene 1 14 29 -0.922117 0 42 -0.922117 1
gene 1 15 27 1.26995 0 43 1.26995 1
gene 1 15 28 -0.645222 0 44 -0.645222 1
gene 1 15 29 -1.17244 0 45 -1.17244 1
gene 1 16 27 0.867595 0 46 0.867595 1
gene 1 16 28 1.84077 0 47 1.84077 1
gene 1 16 29 -1.04839 0 48 -1.04839 1
gene 1 17 27 1.04093 0 49 1.04093 1
gene 1 17 28 -1.70966 0 50 -1.70966 1
gene 1 17 29 0.471755 0 51 0.471755 1
gene 1 18 27 3.95763 0 52 3.95763 1
gene 1 18 28 1.58017 0 53 1.58017 1
gene 1 18 29 1.55942 0 54 1.55942 1
gene 1 19 27 3.24505 0 55 3.24505 1
gene 1 19 28 -2.8178 0 56 -2.8178 1
gene 1 19 29 2.73716 0 57 2.73716 1
gene 1 20 27 1.63259 0 58 1.63259 1
gene 1 20 28 -1.97645 0 59 -1.97645 1
gene 1 20 29 -1.37001 0 60 -1.37001 1
gene 1 21 27 1.36235 0 61 1.36235 1
gene 1 21 28 0.794092 0 62 0.794092 1
gene 1 21 29 -2.35817 0 63 -2.35817 1
gene 1 22 27 0.607532 0 64 0.607532 1
gene 1 22 28 -1.92482 0 65 -1.92482 1
gene 1 22 29 -0.609485 0 66 -0.609485 1
gene 1 23 27 2.31912 0 67 2.31912 1
gene 1 23 28 -1.06406 0 68 -1.06406 1
gene 1 23 29 -2.18101 0 69 -2.18101 1
gene 1 24 27 2.66401 0 70 2.66401 1
gene 1 24 28 -0.750801 0 71 -0.750801 1
gene 1 24 29 0.594104 0 72 0.594104 1
gene 1 25 27 0.315928 0 73 0.315928 1
gene 1 25 28 1.08008 0 74 1.08008 1
gene 1 25 29 -0.531602 0 75 -0.531602 1
gene 1 26 27 -3.11275 0 76 -3.11275 1
gene 1 26 28 1.74668 0 77 1.74668 1
gene 1 26 29 -4.37469 0 78 -4.37469 1
genomeend 24

/* Organism #25 Fitness: 0.0684357 Error: 0 */
genomestart 25
trait 1 0 0 0 0 0.465819 0 0 0 
node 1 1 1 1
node 2 1 1 1
node 3 1 1 1
node 4 1 1 1
node 5 1 1 1
node 6 1 1 1
node 7 1 1 1
node 8 1 1 1
node 9 1 1 1
node 10 1 1 1
node 11 1 1 1
node 12 1 1 1
node 13 1 1 1
node 14 1 1 1
node 15 1 1 1
node 16 1 1 1
node 17 1 1 1
node 18 1 1 1
node 19 1 1 1
node 20 1 1 1
node 21 1 1 1
node 22 1 1 1
node 23 1 1 1
node 24 1 1 1
node 25 1 1 1
node 26 1 1 3
node 27 1 0 2
node 28 1 0 2
node 29 1 0 2
gene 1 1 27 -0.919996 0 1 -0.919996 1
gene 1 1 28 -1.75564 0 2 -1.75564 1
gene 1 1 29 2.52495 0 3 2.52495 1
gene 1 2 27 0.791101 0 4 0.791101 1
gene 1 2 28 1.57274 0 5 1.57274 1
gene 1 2 29 1.07761 0 6 1.07761 1
gene 1 3 27 -0.51146 0 7 -0.51146 1
gene 1 3 28 1.09935 0 8 1.09935 1
gene 1 3 29 3.56383 0 9 3.56383 1
gene 1 4 27 -0.00140385 0 10 -0.00140385 1
gene 1 4 28 -1.07642 0 11 -1.07642 1
gene 1 4 29 0.734626 0 12 0.734626 1
gene 1 5 27 -1.38644 0 13 -1.38644 1
gene 1 5 28 3.88928 0 14 3.88928 1
gene 1 5 29 -0.741234 0 15 -0.741234 1
gene 1 6 27 0.69808 0 16 0.69808 1
gene 1 6 28 -1.42651 0 17 -1.42651 1
gene 1 6 29 -1.45706 0 18 -1.45706 1
gene 1 7 27 2.27779 0 19 2.27779 1
gene 1 7 28 -2.88105 0 20 -2.88105 1
gene 1 7 29 2.97212 0 21 2.97212 1
gene 1 8 27 -1.15192 0 22 -1.15192 1
gene 1 8 28 0.17716 0 23 0.17716 1
gene 1 8 29 0.354976 0 24 0.354976 1
gene 1 9 27 -2.62278 0 25 -2.62278 1
gene 1 9 28 0.801706 0 26 0.801706 1
gene 1 9 29 3.61988 0 27 3.61988 1
gene 1 10 27 0.76809 0 28 0.76809 1
gene 1 10 28 2.55104 0 29 2.55104 1
gene 1 10 29 0.728782 0 30 0.728782 1
gene 1 11 27 -1.10224 0 31 -1.10224 1
gene 1 11 28 0.534227 0 32 0.534227 1
gene 1 11 29 -0.419324 0 33 -0.419324 1
gene 1 12 27 -0.951186 0 34 -0.951186 1
gene 1 12 28 -4.04897 0 35 -4.04897 1
gene 1 12 29 0.0345012 0 36 0.0345012 1
gene 1 13 27 2.95427 0 37 2.95427 1
gene 1 13 28 2.0492 0 38 2.0492 1
gene 1 13 29 -0.402402 0 39 -0.402402 1
gene 1 14 27 1.21784 0 40 1.21784 1
gene 1 14 28 -2.7425 0 41 -2.7425 1
gene 1 14 29 -1.75915 0 42 -1.75915 1
gene 1 15 27 -0.711814 0 43 -0.711814 1
gene 1 15 28 0.420835 0 44 0.420835 1
gene 1 15 29 -0.753197 0 45 -0.753197 1
gene 1 16 27 2.85891 0 46 2.85891 1
gene 1 16 28 -0.974761 0 47 -0.974761 1
gene 1 16 29 -1.77331 0 48 -1.77331 1
gene 1 17 27 1.68693 0 49 1.68693 1
gene 1 17 28 0.0570086 0 50 0.0570086 1
gene 1 17 29 -0.0831935 0 51 -0.0831935 1
gene 1 18 27 1.38977 0 52 1.38977 1
gene 1 18 28 0.594348 0 53 0.594348 1
gene 1 18 29 -0.0614948 0 54 -0.0614948 1
gene 1 19 27 -2.19871 0 55 -2.19871 1
gene 1 19 28 2.23682 0 56 2.23682 1
gene 1 19 29 0.180105 0 57 0.180105 1
gene 1 20 27 -1.05249 0 58 -1.05249 1
gene 1 20 28 0.934004 0 59 0.934004 1
gene 1 20 29 0.955763 0 60 0.955763 1
gene 1 21 27 1.15276 0 61 1.15276 1
gene 1 21 28 1.8543 0 62 1.8543 1
gene 1 21 29 -0.190649 0 63 -0.190649 1
gene 1 22 27 -1.60367 0 64 -1.60367 1
gene 1 22 28 1.17096 0 65 1.17096 1
gene 1 22 29 0.153264 0 66 0.153264 1
gene 1 23 27 1.81207 0 67 1.81207 1
gene 1 23 28 0.191351 0 68 0.191351 1
gene 1 23 29 -0.199591 0 69 -0.199591 1
gene 1 24 27 -0.129704 0 70 -0.129704 1
gene 1 24 28 1.35382 0 71 1.35382 1
gene 1 24 29 -2.65361 0 72 -2.65361 1
gene 1 25 27 -0.116428 0 73 -0.116428 1
gene 1 25 28 -0.0317392 0 74 -0.0317392 1
gene 1 25 29 -2.47963 0 75 -2.47963 1
gene 1 26 27 1.4509 0 76 1.4509 1
gene 1 26 28 2.10765 0 77 2.10765 1
gene 1 26 29 0.773537 0 78 0.773537 1
genomeend 25

/* Organism #26 Fitness: 0.0684357 Error: 0 */
genomestart 26
trait 1 0 0 0 0.569475 0 0 0 0.103 
node 1 1 1 1
node 2 1 1 1
node 3 1 1 1
node 4 1 1 1
node 5 1 1 1
node 6 1 1 1
node 7 1 1 1
node 8 1 1 1
node 9 1 1 1
node 10 1 1 1
node 11 1 1 1
node 12 1 1 1
node 13 1 1 1
node 14 1 1 1
node 15 1 1 1
node 16 1 1 1
node 17 1 1 1
node 18 1 1 1
node 19 1 1 1
node 20 1 1 1
node 21 1 1 1
node 22 1 1 1
node 23 1 1 1
node 24 1 1 1
node 25 1 1 1
node 26 1 1 3
node 27 1 0 2
node 28 1 0 2
node 29 1 0 2
gene 1 1 27 -1.83462 0 1 -1.83462 1
gene 1 1 28 0.218879 0 2 0.218879 1
gene 1 1 29 2.07619 0 3 2.07619 1
gene 1 2 27 -0.207068 0 4 -0.207068 1
gene 1 2 28 0.843608 0 5 0.843608 1
gene 1 2 29 3.72542 0 6 3.72542 1
gene 1 3 27 -0.360714 0 7 -0.360714 1
gene 1 3 28 1.04022 0 8 1.04022 1
gene 1 3 29 0.221259 0 9 0.221259 1
gene 1 4 27 -0.49089 0 10 -0.49089 1
gene 1 4 28 -1.95 0 11 -1.95 1
gene 1 4 29 -4.35788 0 12 -4.35788 1
gene 1 5 27 0.639653 0 13 0.639653 1
gene 1 5 28 0.679495 0 14 0.679495 1
gene 1 5 29 -1.18917 0 15 -1.18917 1
gene 1 6 27 1.2192 0 16 1.2192 1
gene 1 6 28 -1.48289 0 17 -1.48289 1
gene 1 6 29 3.77674 0 18 3.77674 1
gene 1 7 27 2.11678 0 19 2.11678 1
gene 1 7 28 -1.83094 0 20 -1.83094 1
gene 1 7 29 -1.8292 0 21 -1.8292 1
gene 1 8 27 -3.40977 0 22 -3.40977 1
gene 1 8 28 -0.248451 0 23 -0.248451 1
gene 1 8 29 1.60685 0 24 1.60685 1
gene 1 9 27 -3.70884 0 25 -3.70884 1
gene 1 9 28 2.32592 0 26 2.32592 1
gene 1 9 29 1.83485 0 27 1.83485 1
gene 1 10 27 3.11736 0 28 3.11736 1
gene 1 10 28 -2.40687 0 29 -2.40687 1
gene 1 10 29 0.550157 0 30 0.550157 1
gene 1 11 27 2.09334 0 31 2.09334 1
gene 1 11 28 2.22472 0 32 2.22472 1
gene 1 11 29 -0.719626 0 33 -0.719626 1
gene 1 12 27 -3.53566 0 34 -3.53566 1
gene 1 12 28 3.27673 0 35 3.27673 1
gene 1 12 29 -2.2338 0 36 -2.2338 1
gene 1 13 27 2.96187 0 37 2.96187 1
gene 1 13 28 -0.863521 0 38 -0.863521 1
gene 1 13 29 -1.36453 0 39 -1.36453 1
gene 1 14 27 0.611362 0 40 0.611362 1
gene 1 14 28 -1.57508 0 41 -1.57508 1
gene 1 14 29 1.61896 0 42 1.61896 1
gene 1 15 27 -0.761208 0 43 -0.761208 1
gene 1 15 28 3.22257 0 44 3.22257 1
gene 1 15 29 -1.62139 0 45 -1.62139 1
gene 1 16 27 0.383618 0 46 0.383618 1
gene 1 16 28 -0.887555 0 47 -0.887555 1
gene 1 16 29 -1.48346 0 48 -1.48346 1
gene 1 17 27 -0.611682 0 49 -0.611682 1
gene 1 17 28 3.38438 0 50 3.38438 1
gene 1 17 29 -1.8303 0 51 -1.8303 1
gene 1 18 27 -2.46709 0 52 -2.46709 1
gene 1 18 28 -0.471511 0 53 -0.471511 1
gene 1 18 29 3.7308 0 54 3.7308 1
gene 1 19 27 -0.197165 0 55 -0.197165 1
gene 1 19 28 2.3075 0 56 2.3075 1
gene 1 19 29 0.781167 0 57 0.781167 1
gene 1 20 27 1.40646 0 58 1.40646 1
gene 1 20 28 1.18885 0 59 1.18885 1
gene 1 20 29 -1.61313 0 60 -1.61313 1
gene 1 21 27 2.59252 0 61 2.59252 1
gene 1 21 28 3.6744 0 62 3.6744 1
gene 1 21 29 1.83467 0 63 1.83467 1
gene 1 22 27 2.54616 0 64 2.54616 1
gene 1 22 28 1.69262 0 65 1.69262 1
gene 1 22 29 1.03389 0 66 1.03389 1
gene 1 23 27 0.147114 0 67 0.147114 1
gene 1 23 28 -4.03838 0 68 -4.03838 1
gene 1 23 29 0.789972 0 69 0.789972 1
gene 1 24 27 2.78466 0 70 2.78466 1
gene 1 24 28 -1.32029 0 71 -1.32029 1
gene 1 24 29 3.84112 0 72 3.84112 1
gene 1 25 27 4.49135 0 73 4.49135 1
gene 1 25 28 -4.42633 0 74 -4.42633 1
gene 1 25 29 -0.947951 0 75 -0.947951 1
gene 1 26 27 1.17406 0 76 1.17406 1
gene 1 26 28 0.421781 0 77 0.421781 1
gene 1 26 29 -2.70791 0 78 -2.70791 1
genomeend 26

/* Organism #27 Fitness: 0.0802214 Error: 0 */
genomestart 27
trait 1 0 0 0 0 0 0 0 0 
node 1 1 1 1
node 2 1 1 1
node 3 1 1 1
node 4 1 1 1
node 5 1 1 1
node 6 1 1 1
node 7 1 1 1
node 8 1 1 1
node 9 1 1 1
node 10 1 1 1
node 11 1 1 1
node 12 1 1 1
node 13 1 1 1
node 14 1 1 1
node 15 1 1 1
node 16 1 1 1
node 17 1 1 1
node 18 1 1 1
node 19 1 1 1
node 20 1 1 1
node 21 1 1 1
node 22 1 1 1
node 23 1 1 1
node 24 1 1 1
node 25 1 1 1
node 26 1 1 3
node 27 1 0 2
node 28 1 0 2
node 29 1 0 2
gene 1 1 27 -2.06801 0 1 -2.06801 1
gene 1 1 28 2.45152 0 2 2.45152 1
gene 1 1 29 -0.0426649 0 3 -0.0426649 1
gene 1 2 27 -0.831858 0 4 -0.831858 1
gene 1 2 28 -1.24458 0 5 -1.24458 1
gene 1 2 29 -2.16861 0 6 -2.16861 1
gene 1 3 27 2.35789 0 7 2.35789 1
gene 1 3 28 1.71383 0 8 1.71383 1
gene 1 3 29 1.34259 0 9 1.34259 1
gene 1 4 27 0.192694 0 10 0.192694 1
gene 1 4 28 1.01842 0 11 1.01842 1
gene 1 4 29 2.14113 0 12 2.14113 1
gene 1 5 27 -0.585437 0 13 -0.585437 1
gene 1 5 28 -1.04363 0 14 -1.04363 1
gene 1 5 29 -0.491028 0 15 -0.491028 1
gene 1 6 27 0.29577 0 16 0.29577 1
gene 1 6 28 1.70524 0 17 1.70524 1
gene 1 6 29 -0.797403 0 18 -0.797403 1
gene 1 7 27 1.36061 0 19 1.36061 1
gene 1 7 28 2.86804 0 20 2.86804 1
gene 1 7 29 0.47467 0 21 0.47467 1
gene 1 8 27 -0.184713 0 22 -0.184713 1
gene 1 8 28 -2.42621 0 23 -2.42621 1
gene 1 8 29 -0.238258 0 24 -0.238258 1
gene 1 9 27 -1.0358 0 25 -1.0358 1
gene 1 9 28 -0.079516 0 26 -0.079516 1
gene 1 9 29 -2.10097 0 27 -2.10097 1
gene 1 10 27 1.53752 0 28 1.53752 1
gene 1 10 28 3.03963 0 29 3.03963 1
gene 1 10 29 0.472991 0 30 0.472991 1
gene 1 11 27 2.97468 0 31 2.97468 1
gene 1 11 28 1.02069 0 32 1.02069 1
gene 1 11 29 1.29812 0 33 1.29812 1
gene 1 12 27 1.85853 0 34 1.85853 1
gene 1 12 28 2.37461 0 35 2.37461 1
gene 1 12 29 -1.52902 0 36 -1.52902 1
gene 1 13 27 0.825587 0 37 0.825587 1
gene 1 13 28 2.31068 0 38 2.31068 1
gene 1 13 29 2.85943 0 39 2.85943 1
gene 1 14 27 -2.26067 0 40 -2.26067 1
gene 1 14 28 -0.745674 0 41 -0.745674 1
gene 1 14 29 -1.46445 0 42 -1.46445 1
gene 1 15 27 -0.914579 0 43 -0.914579 1
gene 1 15 28 -1.16967 0 44 -1.16967 1
gene 1 15 29 1.66196 0 45 1.66196 1
gene 1 16 27 -1.69054 0 46 -1.69054 1
gene 1 16 28 -0.243812 0 47 -0.243812 1
gene 1 16 29 1.56415 0 48 1.56415 1
gene 1 17 27 2.55196 0 49 2.55196 1
gene 1 17 28 -1.23411 0 50 -1.23411 1
gene 1 17 29 0.636158 0 51 0.636158 1
gene 1 18 27 -1.23263 0 52 -1.23263 1
gene 1 18 28 -1.43077 0 53 -1.43077 1
gene 1 18 29 -1.31951 0 54 -1.31951 1
gene 1 19 27 -0.883129 0 55 -0.883129 1
gene 1 19 28 0.0734581 0 56 0.0734581 1
gene 1 19 29 2.89943 0 57 2.89943 1
gene 1 20 27 -1.74763 0 58 -1.74763 1
gene 1 20 28 -0.463042 0 59 -0.463042 1
gene 1 20 29 -0.0573138 0 60 -0.0573138 1
gene 1 21 27 -1.56523 0 61 -1.56523 1
gene 1 21 28 -2.14299 0 62 -2.14299 1
gene 1 21 29 0.767586 0 63 0.767586 1
gene 1 22 27 3.0696 0 64 3.0696 1
gene 1 22 28 0.890988 0 65 0.890988 1
gene 1 22 29 1.85925 0 66 1.85925 1
gene 1 23 27 1.86567 0 67 1.86567 1
gene 1 23 28 -0.831034 0 68 -0.831034 1
gene 1 23 29 -0.124653 0 69 -0.124653 1
gene 1 24 27 0.0256508 0 70 0.0256508 1
gene 1 24 28 -0.152989 0 71 -0.152989 1
gene 1 24 29 -1.33831 0 72 -1.33831 1
gene 1 25 27 0.326289 0 73 0.326289 1
gene 1 25 28 0.386212 0 74 0.386212 1
gene 1 25 29 2.44026 0 75 2.44026 1
gene 1 26 27 0.267815 0 76 0.267815 1
gene 1 26 28 0.0148167 0 77 0.0148167 1
gene 1 26 29 -1.27978 0 78 -1.27978 1
genomeend 27

/* Organism #28 Fitness: 0.00736429 Error: 0 */
genomestart 28
trait 1 0 0.055208 0 0 0 0.373089 0 0 
node 1 1 1 1
node 2 1 1 1
node 3 1 1 1
node 4 1 1 1
node 5 1 1 1
node 6 1 1 1
node 7 1 1 1
node 8 1 1 1
node 9 1 1 1
node 10 1 1 1
node 11 1 1 1
node 12 1 1 1
node 13 1 1 1
node 14 1 1 1
node 15 1 1 1
node 16 1 1 1
node 17 1 1 1
node 18 1 1 1
node 19 1 1 1
node 20 1 1 1
node 21 1 1 1
node 22 1 1 1
node 23 1 1 1
node 24 1 1 1
node 25 1 1 1
node 26 1 1 3
node 27 1 0 2
node 28 1 0 2
node 29 1 0 2
gene 1 1 27 -2.59905 0 1 -2.59905 1
gene 1 1 28 -2.18937 0 2 -2.18937 1
gene 1 1 29 -0.0266732 0 3 -0.0266732 1
gene 1 2 27 -2.16413 0 4 -2.16413 1
gene 1 2 28 0.653218 0 5 0.653218 1
gene 1 2 29 1.15482 0 6 1.15482 1
gene 1 3 27 1.51588 0 7 1.51588 1
gene 1 3 28 -2.38894 0 8 -2.38894 1
