
/* Species #42 : (Size 1) (AF 0) (Age 13)  */


/* Organism #0 Fitness: 0.00199443 Error: 0 */
genomestart 0
trait 1 0.10485 1 0.760388 0.695964 0.0067217 0 0.736604 1 
node 1 1 1 1
node 2 1 1 1
node 3 1 1 1
node 4 1 1 1
node 5 1 1 1
node 6 1 1 1
node 7 1 1 1
node 8 1 1 1
node 9 1 1 1
node 10 1 1 1
node 11 1 1 1
node 12 1 1 1
node 13 1 1 1
node 14 1 1 1
node 15 1 1 1
node 16 1 1 1
node 17 1 1 1
node 18 1 1 1
node 19 1 1 1
node 20 1 1 1
node 21 1 1 1
node 22 1 1 1
node 23 1 1 1
node 24 1 1 1
node 25 1 1 1
node 26 1 1 3
node 27 1 0 2
node 28 1 0 2
node 36 1 0 0
node 58 1 0 0
node 95 1 0 0
node 117 1 0 0
node 125 1 0 0
node 128 1 0 0
node 174 1 0 0
node 195 1 0 0
node 205 1 0 0
gene 1 1 27 -5.43744 0 1 -5.43744 1
gene 1 1 28 -8 0 2 -8 1
gene 1 2 27 3.78658 0 3 3.78658 1
gene 1 2 28 -4.10089 0 4 -4.10089 1
gene 1 3 27 3.69961 0 5 3.69961 1
gene 1 3 28 2.84059 0 6 2.84059 1
gene 1 4 27 -1.32897 0 7 -1.32897 1
gene 1 4 28 -2.64718 0 8 -2.64718 1
gene 1 5 27 -4.08461 0 9 -4.08461 1
gene 1 5 28 8 0 10 8 1
gene 1 6 27 4.00782 0 11 4.00782 1
gene 1 6 28 -2.95106 0 12 -2.95106 1
gene 1 7 27 3.24786 0 13 3.24786 1
gene 1 7 28 -2.86363 0 14 -2.86363 0
gene 1 8 27 4.06757 0 15 4.06757 1
gene 1 8 28 -5.27944 0 16 -5.27944 1
gene 1 9 27 1.56257 0 17 1.56257 1
gene 1 9 28 4.69118 0 18 4.69118 1
gene 1 10 27 2.09124 0 19 2.09124 1
gene 1 10 28 -1.18339 0 20 -1.18339 1
gene 1 11 27 6.46893 0 21 6.46893 1
gene 1 11 28 6.00256 0 22 6.00256 1
gene 1 12 27 -4.81363 0 23 -4.81363 0
gene 1 12 28 7.1705 0 24 7.1705 1
gene 1 13 27 -1.92434 0 25 -1.92434 0
gene 1 13 28 -1.2748 0 26 -1.2748 1
gene 1 14 27 5.06413 0 27 5.06413 1
gene 1 14 28 -0.260809 0 28 -0.260809 1
gene 1 15 27 -0.115017 0 29 -0.115017 1
gene 1 15 28 0.438875 0 30 0.438875 0
gene 1 16 27 0.257514 0 31 0.257514 1
gene 1 16 28 -1.25996 0 32 -1.25996 1
gene 1 17 27 4.1769 0 33 4.1769 1
gene 1 17 28 -8 0 34 -8 0
gene 1 18 27 -1.06481 0 35 -1.06481 1
gene 1 18 28 3.41871 0 36 3.41871 1
gene 1 19 27 1.25515 0 37 1.25515 0
gene 1 19 28 0.001648 0 38 0.001648 1
gene 1 20 27 2.05748 0 39 2.05748 1
gene 1 20 28 -4.59437 0 40 -4.59437 1
gene 1 21 27 6.71495 0 41 6.71495 1
gene 1 21 28 3.35011 0 42 3.35011 1
gene 1 22 27 8 0 43 8 1
gene 1 22 28 1.10137 0 44 1.10137 1
gene 1 23 27 1.37589 0 45 1.37589 1
gene 1 23 28 -5.75058 0 46 -5.75058 1
gene 1 24 27 4.70847 0 47 4.70847 1
gene 1 24 28 2.82846 0 48 2.82846 1
gene 1 25 27 0.0036813 0 49 0.0036813 1
gene 1 25 28 1.11408 0 50 1.11408 1
gene 1 26 27 8 0 51 8 1
gene 1 26 28 -1.08441 0 52 -1.08441 1
gene 1 1 36 -8 0 72 -8 1
gene 1 36 28 8 0 73 8 1
gene 1 24 36 1.62561 0 143 1.62561 1
gene 1 20 58 -2.80103 0 148 -2.80103 1
gene 1 58 28 1.67101 0 149 1.67101 1
gene 1 13 36 0.902051 0 184 0.902051 1
gene 1 7 95 -1.58719 0 287 -1.58719 1
gene 1 95 28 -1.22669 0 288 -1.22669 1
gene 1 4 58 0.872066 0 361 0.872066 1
gene 1 11 117 -2.89918 0 377 -2.89918 1
gene 1 117 27 0.985939 0 378 0.985939 1
gene 1 18 125 -4.43873 0 402 -4.43873 1
gene 1 125 27 4.49328 0 403 4.49328 1
gene 1 17 128 -0.333872 0 410 -0.333872 1
gene 1 128 28 2.66808 0 411 2.66808 1
gene 1 22 58 -3.34567 0 525 -3.34567 1
gene 1 16 125 -0.852153 0 566 -0.852153 0
gene 1 15 174 2.48589 0 585 2.48589 1
gene 1 174 28 -0.213858 0 586 -0.213858 1
gene 1 16 195 0.795648 0 644 0.795648 1
gene 1 195 125 0.539415 0 645 0.539415 1
gene 1 4 128 1.89116 0 652 1.89116 1
gene 1 19 205 -0.529878 0 673 -0.529878 1
gene 1 205 27 2.12058 0 674 2.12058 1
genomeend 0

/* Species #43 : (Size 8) (AF 0) (Age 12)  */


/* Organism #1 Fitness: 0.0194781 Error: 0 */
genomestart 1
trait 1 0.630604 0.77485 0.297266 0.948737 0.180357 0 0.12027 0.741943 
node 1 1 1 1
node 2 1 1 1
node 3 1 1 1
node 4 1 1 1
node 5 1 1 1
node 6 1 1 1
node 7 1 1 1
node 8 1 1 1
node 9 1 1 1
node 10 1 1 1
node 11 1 1 1
node 12 1 1 1
node 13 1 1 1
node 14 1 1 1
node 15 1 1 1
node 16 1 1 1
node 17 1 1 1
node 18 1 1 1
node 19 1 1 1
node 20 1 1 1
node 21 1 1 1
node 22 1 1 1
node 23 1 1 1
node 24 1 1 1
node 25 1 1 1
node 26 1 1 3
node 27 1 0 2
node 28 1 0 2
node 36 1 0 0
node 58 1 0 0
node 95 1 0 0
node 144 1 0 0
node 168 1 0 0
gene 1 1 27 -5.28809 0 1 -5.28809 1
gene 1 1 28 6.94589 0 2 6.94589 0
gene 1 2 27 1.64304 0 3 1.64304 1
gene 1 2 28 1.83874 0 4 1.83874 1
gene 1 3 27 -5.38865 0 5 -5.38865 1
gene 1 3 28 4.72605 0 6 4.72605 1
gene 1 4 27 0.491119 0 7 0.491119 1
gene 1 4 28 8 0 8 8 1
gene 1 5 27 -0.886248 0 9 -0.886248 1
gene 1 5 28 2.27306 0 10 2.27306 1
gene 1 6 27 -1.7022 0 11 -1.7022 1
gene 1 6 28 0.599231 0 12 0.599231 1
gene 1 7 27 2.34649 0 13 2.34649 1
gene 1 7 28 1.88078 0 14 1.88078 0
gene 1 8 27 2.12661 0 15 2.12661 1
gene 1 8 28 -5.11525 0 16 -5.11525 1
gene 1 9 27 0.382273 0 17 0.382273 1
gene 1 9 28 -1.34823 0 18 -1.34823 1
gene 1 10 27 -2.31315 0 19 -2.31315 1
gene 1 10 28 0.967055 0 20 0.967055 1
gene 1 11 27 -3.05231 0 21 -3.05231 1
gene 1 11 28 0.588626 0 22 0.588626 1
gene 1 12 27 2.49998 0 23 2.49998 0
gene 1 12 28 -5.14809 0 24 -5.14809 1
gene 1 13 27 -2.17246 0 25 -2.17246 0
gene 1 13 28 1.61901 0 26 1.61901 1
gene 1 14 27 4.18995 0 27 4.18995 1
gene 1 14 28 0.138821 0 28 0.138821 1
gene 1 15 27 0.973397 0 29 0.973397 1
gene 1 15 28 2.92589 0 30 2.92589 0
gene 1 16 27 2.30737 0 31 2.30737 1
gene 1 16 28 3.66048 0 32 3.66048 1
gene 1 17 27 -3.26327 0 33 -3.26327 1
gene 1 17 28 6.09635 0 34 6.09635 1
gene 1 18 27 -3.82153 0 35 -3.82153 1
gene 1 18 28 1.40011 0 36 1.40011 1
gene 1 19 27 1.29803 0 37 1.29803 1
gene 1 19 28 6.67356 0 38 6.67356 1
gene 1 20 27 -0.175024 0 39 -0.175024 1
gene 1 20 28 4.73752 0 40 4.73752 1
gene 1 21 27 2.5739 0 41 2.5739 1
gene 1 21 28 2.72418 0 42 2.72418 0
gene 1 22 27 -0.571306 0 43 -0.571306 1
gene 1 22 28 2.51503 0 44 2.51503 1
gene 1 23 27 -0.181156 0 45 -0.181156 1
gene 1 23 28 -1.68014 0 46 -1.68014 1
gene 1 24 27 1.12907 0 47 1.12907 1
gene 1 24 28 -7.89303 0 48 -7.89303 1
gene 1 25 27 8 0 49 8 1
gene 1 25 28 8 0 50 8 1
gene 1 26 27 7.67852 0 51 7.67852 1
gene 1 26 28 -1.45726 0 52 -1.45726 1
gene 1 1 36 6.1986 0 72 6.1986 1
gene 1 36 28 3.54312 0 73 3.54312 1
gene 1 24 36 -1.69179 0 143 -1.69179 1
gene 1 20 58 -0.743507 0 148 -0.743507 1
gene 1 58 28 1.31283 0 149 1.31283 1
gene 1 13 36 3.27525 0 184 3.27525 1
gene 1 7 95 2.33253 0 287 2.33253 1
gene 1 95 28 -6.95708 0 288 -6.95708 1
gene 1 4 58 -2.39723 0 361 -2.39723 1
gene 1 15 144 2.71271 0 459 2.71271 1
gene 1 144 28 -0.896863 0 460 -0.896863 0
gene 1 17 58 -1.07929 0 482 -1.07929 1
gene 1 144 168 -1.15207 0 542 -1.15207 1
gene 1 168 28 0.737952 0 543 0.737952 1
gene 1 23 58 4.40878 0 583 4.40878 1
gene 1 26 95 -0.651964 0 591 -0.651964 1
gene 1 2 95 -1.67302 0 616 -1.67302 1
genomeend 1

/* Organism #2 Fitness: 0.0192412 Error: 0 */
genomestart 2
trait 1 0.630604 0.77485 0.297266 0.948737 0.180357 0 0.12027 0.741943 
node 1 1 1 1
node 2 1 1 1
node 3 1 1 1
node 4 1 1 1
node 5 1 1 1
node 6 1 1 1
node 7 1 1 1
node 8 1 1 1
node 9 1 1 1
node 10 1 1 1
node 11 1 1 1
node 12 1 1 1
node 13 1 1 1
node 14 1 1 1
node 15 1 1 1
node 16 1 1 1
node 17 1 1 1
node 18 1 1 1
node 19 1 1 1
node 20 1 1 1
node 21 1 1 1
node 22 1 1 1
node 23 1 1 1
node 24 1 1 1
node 25 1 1 1
node 26 1 1 3
node 27 1 0 2
node 28 1 0 2
node 36 1 0 0
node 58 1 0 0
node 95 1 0 0
node 144 1 0 0
node 168 1 0 0
gene 1 1 27 -4.16165 0 1 -4.16165 1
gene 1 1 28 6.90835 0 2 6.90835 0
gene 1 2 27 3.73161 0 3 3.73161 1
gene 1 2 28 0.766053 0 4 0.766053 1
gene 1 3 27 -5.38865 0 5 -5.38865 1
gene 1 3 28 1.44498 0 6 1.44498 1
gene 1 4 27 -0.436033 0 7 -0.436033 1
gene 1 4 28 6.80311 0 8 6.80311 1
gene 1 5 27 -0.886248 0 9 -0.886248 1
gene 1 5 28 1.56976 0 10 1.56976 1
gene 1 6 27 -3.97415 0 11 -3.97415 1
gene 1 6 28 1.42563 0 12 1.42563 1
gene 1 7 27 1.56159 0 13 1.56159 1
gene 1 7 28 0.967322 0 14 0.967322 0
gene 1 8 27 1.25256 0 15 1.25256 1
gene 1 8 28 -0.144505 0 16 -0.144505 1
gene 1 9 27 -2.67831 0 17 -2.67831 1
gene 1 9 28 1.74131 0 18 1.74131 1
gene 1 10 27 -2.47826 0 19 -2.47826 1
gene 1 10 28 -0.705054 0 20 -0.705054 1
gene 1 11 27 -3.35669 0 21 -3.35669 1
gene 1 11 28 -1.01146 0 22 -1.01146 1
gene 1 12 27 4.50264 0 23 4.50264 0
gene 1 12 28 -2.65484 0 24 -2.65484 1
gene 1 13 27 -1.28414 0 25 -1.28414 0
gene 1 13 28 0.586184 0 26 0.586184 0
gene 1 14 27 -1.78877 0 27 -1.78877 1
gene 1 14 28 1.38791 0 28 1.38791 1
gene 1 15 27 -0.24513 0 29 -0.24513 1
gene 1 15 28 0.876148 0 30 0.876148 0
gene 1 16 27 1.35497 0 31 1.35497 1
gene 1 16 28 3.21788 0 32 3.21788 1
gene 1 17 27 -1.08142 0 33 -1.08142 1
gene 1 17 28 -2.11898 0 34 -2.11898 1
gene 1 18 27 -4.37136 0 35 -4.37136 1
gene 1 18 28 -1.58274 0 36 -1.58274 1
gene 1 19 27 -0.637265 0 37 -0.637265 1
gene 1 19 28 7.28824 0 38 7.28824 1
gene 1 20 27 -1.72742 0 39 -1.72742 1
gene 1 20 28 2.76946 0 40 2.76946 1
gene 1 21 27 5.65212 0 41 5.65212 1
gene 1 21 28 2.62156 0 42 2.62156 0
gene 1 22 27 0.243461 0 43 0.243461 1
gene 1 22 28 1.94464 0 44 1.94464 1
gene 1 23 27 1.00055 0 45 1.00055 1
gene 1 23 28 0.129551 0 46 0.129551 1
gene 1 24 27 0.94245 0 47 0.94245 1
gene 1 24 28 2.04695 0 48 2.04695 1
gene 1 25 27 -2.01056 0 49 -2.01056 1
gene 1 25 28 8 0 50 8 1
gene 1 26 27 4.67454 0 51 4.67454 1
gene 1 26 28 0.643826 0 52 0.643826 1
gene 1 1 36 2.7206 0 72 2.7206 1
gene 1 36 28 3.61145 0 73 3.61145 1
gene 1 24 36 -3.60042 0 143 -3.60042 1
gene 1 20 58 -3.02976 0 148 -3.02976 1
gene 1 58 28 0.282716 0 149 0.282716 1
gene 1 13 36 4.53593 0 184 4.53593 1
gene 1 7 95 -0.607624 0 287 -0.607624 1
gene 1 95 28 -5.27352 0 288 -5.27352 1
gene 1 4 58 -3.67122 0 361 -3.67122 1
gene 1 15 144 0.272225 0 459 0.272225 1
gene 1 144 28 -2.15979 0 460 -2.15979 1
gene 1 17 58 -0.830294 0 482 -0.830294 1
gene 1 144 168 -1.48621 0 542 -1.48621 1
gene 1 168 28 1.29919 0 543 1.29919 1
gene 1 23 58 3.64025 0 583 3.64025 1
gene 1 26 95 -2.57764 0 591 -2.57764 1
gene 1 2 95 -0.450148 0 616 -0.450148 1
genomeend 2

/* Organism #3 Fitness: 0.00915778 Error: 0 */
/* ##------$ WINNER 3 SPECIES #43 $------## */
genomestart 3
trait 1 0.630604 0.77485 0.297266 0.948737 0.180357 0 0.12027 0.741943 
node 1 1 1 1
node 2 1 1 1
node 3 1 1 1
node 4 1 1 1
node 5 1 1 1
node 6 1 1 1
node 7 1 1 1
node 8 1 1 1
node 9 1 1 1
node 10 1 1 1
node 11 1 1 1
node 12 1 1 1
node 13 1 1 1
node 14 1 1 1
node 15 1 1 1
node 16 1 1 1
node 17 1 1 1
node 18 1 1 1
node 19 1 1 1
node 20 1 1 1
node 21 1 1 1
node 22 1 1 1
node 23 1 1 1
node 24 1 1 1
node 25 1 1 1
node 26 1 1 3
node 27 1 0 2
node 28 1 0 2
node 36 1 0 0
node 58 1 0 0
node 95 1 0 0
node 144 1 0 0
node 168 1 0 0
gene 1 1 27 -5.28809 0 1 -5.28809 1
gene 1 1 28 5.94465 0 2 5.94465 0
gene 1 2 27 1.49201 0 3 1.49201 1
gene 1 2 28 0.706999 0 4 0.706999 1
gene 1 3 27 -5.38865 0 5 -5.38865 1
gene 1 3 28 4.4629 0 6 4.4629 1
gene 1 4 27 0.607547 0 7 0.607547 1
gene 1 4 28 7.51351 0 8 7.51351 1
gene 1 5 27 -0.886248 0 9 -0.886248 1
gene 1 5 28 2.34294 0 10 2.34294 1
gene 1 6 27 -2.93896 0 11 -2.93896 1
gene 1 6 28 0.0696203 0 12 0.0696203 1
gene 1 7 27 1.84336 0 13 1.84336 1
gene 1 7 28 1.08146 0 14 1.08146 1
gene 1 8 27 3.26479 0 15 3.26479 1
gene 1 8 28 -5.11525 0 16 -5.11525 1
gene 1 9 27 -0.251329 0 17 -0.251329 1
gene 1 9 28 0.336619 0 18 0.336619 1
gene 1 10 27 -2.98929 0 19 -2.98929 1
gene 1 10 28 0.119861 0 20 0.119861 1
gene 1 11 27 -2.09002 0 21 -2.09002 1
gene 1 11 28 -0.543077 0 22 -0.543077 1
gene 1 12 27 2.98252 0 23 2.98252 0
gene 1 12 28 -4.59971 0 24 -4.59971 1
gene 1 13 27 -0.927229 0 25 -0.927229 0
gene 1 13 28 1.07105 0 26 1.07105 0
gene 1 14 27 3.29835 0 27 3.29835 1
gene 1 14 28 -1.03828 0 28 -1.03828 1
gene 1 15 27 1.74353 0 29 1.74353 1
gene 1 15 28 2.63112 0 30 2.63112 1
gene 1 16 27 1.20154 0 31 1.20154 1
gene 1 16 28 2.80504 0 32 2.80504 1
gene 1 17 27 -2.4144 0 33 -2.4144 1
gene 1 17 28 6.50793 0 34 6.50793 1
gene 1 18 27 -2.67315 0 35 -2.67315 1
gene 1 18 28 -0.583559 0 36 -0.583559 1
gene 1 19 27 0.202681 0 37 0.202681 1
gene 1 19 28 5.47933 0 38 5.47933 1
gene 1 20 27 0.191427 0 39 0.191427 1
gene 1 20 28 5.1116 0 40 5.1116 1
gene 1 21 27 3.68222 0 41 3.68222 1
gene 1 21 28 3.29381 0 42 3.29381 0
gene 1 22 27 -0.571306 0 43 -0.571306 1
gene 1 22 28 1.92103 0 44 1.92103 1
gene 1 23 27 -1.08138 0 45 -1.08138 1
gene 1 23 28 -0.531613 0 46 -0.531613 1
gene 1 24 27 0.363514 0 47 0.363514 1
gene 1 24 28 -7.94652 0 48 -7.94652 1
gene 1 25 27 7.46825 0 49 7.46825 1
gene 1 25 28 7.92117 0 50 7.92117 1
gene 1 26 27 6.4833 0 51 6.4833 1
gene 1 26 28 -0.357715 0 52 -0.357715 1
gene 1 1 36 5.02437 0 72 5.02437 1
gene 1 36 28 3.6306 0 73 3.6306 1
gene 1 24 36 -1.69179 0 143 -1.69179 1
gene 1 20 58 -3.02976 0 148 -3.02976 1
gene 1 58 28 1.61493 0 149 1.61493 1
gene 1 13 36 2.96911 0 184 2.96911 1
gene 1 7 95 0.197569 0 287 0.197569 1
gene 1 95 28 -5.71551 0 288 -5.71551 1
gene 1 4 58 -2.75773 0 361 -2.75773 1
gene 1 15 144 2.556 0 459 2.556 1
gene 1 144 28 -0.896863 0 460 -0.896863 0
gene 1 17 58 -1.59005 0 482 -1.59005 1
gene 1 144 168 -0.44805 0 542 -0.44805 1
gene 1 168 28 1.18192 0 543 1.18192 1
gene 1 23 58 4.01097 0 583 4.01097 1
gene 1 26 95 -1.85924 0 591 -1.85924 1
gene 1 2 95 -2.26531 0 616 -2.26531 1
genomeend 3

/* Organism #4 Fitness: 0.0193676 Error: 0 */
genomestart 4
trait 1 0.630604 0.77485 0.297266 0.948737 0.180357 0 0.12027 0.741943 
node 1 1 1 1
node 2 1 1 1
node 3 1 1 1
node 4 1 1 1
node 5 1 1 1
node 6 1 1 1
node 7 1 1 1
node 8 1 1 1
node 9 1 1 1
node 10 1 1 1
node 11 1 1 1
node 12 1 1 1
node 13 1 1 1
node 14 1 1 1
node 15 1 1 1
node 16 1 1 1
node 17 1 1 1
node 18 1 1 1
node 19 1 1 1
node 20 1 1 1
node 21 1 1 1
node 22 1 1 1
node 23 1 1 1
node 24 1 1 1
node 25 1 1 1
node 26 1 1 3
node 27 1 0 2
node 28 1 0 2
node 36 1 0 0
node 58 1 0 0
node 95 1 0 0
node 144 1 0 0
node 168 1 0 0
gene 1 1 27 -7.70157 0 1 -7.70157 1
gene 1 1 28 7.43129 0 2 7.43129 0
gene 1 2 27 1.78098 0 3 1.78098 1
gene 1 2 28 -0.425504 0 4 -0.425504 1
gene 1 3 27 -6.76206 0 5 -6.76206 1
gene 1 3 28 4.66204 0 6 4.66204 1
gene 1 4 27 0.0469985 0 7 0.0469985 1
gene 1 4 28 6.7152 0 8 6.7152 1
gene 1 5 27 -0.402987 0 9 -0.402987 1
gene 1 5 28 1.2883 0 10 1.2883 1
gene 1 6 27 -2.47745 0 11 -2.47745 1
gene 1 6 28 -1.76504 0 12 -1.76504 1
gene 1 7 27 3.4711 0 13 3.4711 1
gene 1 7 28 -1.74261 0 14 -1.74261 0
gene 1 8 27 4.4322 0 15 4.4322 1
gene 1 8 28 -2.9537 0 16 -2.9537 1
gene 1 9 27 -0.338116 0 17 -0.338116 1
gene 1 9 28 0.550859 0 18 0.550859 1
gene 1 10 27 -4.82177 0 19 -4.82177 1
gene 1 10 28 -2.77749 0 20 -2.77749 1
gene 1 11 27 -1.61328 0 21 -1.61328 1
gene 1 11 28 -1.59314 0 22 -1.59314 1
gene 1 12 27 4.07435 0 23 4.07435 0
gene 1 12 28 -5.35112 0 24 -5.35112 1
gene 1 13 27 -0.483261 0 25 -0.483261 0
gene 1 13 28 1.63518 0 26 1.63518 1
gene 1 14 27 2.80128 0 27 2.80128 1
gene 1 14 28 1.36742 0 28 1.36742 1
gene 1 15 27 1.01689 0 29 1.01689 1
gene 1 15 28 0.407727 0 30 0.407727 0
gene 1 16 27 0.95098 0 31 0.95098 1
gene 1 16 28 1.52616 0 32 1.52616 1
gene 1 17 27 -2.23335 0 33 -2.23335 1
gene 1 17 28 6.28 0 34 6.28 1
gene 1 18 27 -2.56783 0 35 -2.56783 1
gene 1 18 28 -0.185171 0 36 -0.185171 1
gene 1 19 27 3.78735 0 37 3.78735 1
gene 1 19 28 3.40838 0 38 3.40838 1
gene 1 20 27 -0.913114 0 39 -0.913114 1
gene 1 20 28 7.81096 0 40 7.81096 1
gene 1 21 27 2.6016 0 41 2.6016 1
gene 1 21 28 3.77562 0 42 3.77562 0
gene 1 22 27 1.38478 0 43 1.38478 1
gene 1 22 28 0.634556 0 44 0.634556 1
gene 1 23 27 0.37245 0 45 0.37245 1
gene 1 23 28 -0.427355 0 46 -0.427355 1
gene 1 24 27 1.55473 0 47 1.55473 1
gene 1 24 28 -8 0 48 -8 1
gene 1 25 27 6.08229 0 49 6.08229 1
gene 1 25 28 7.3041 0 50 7.3041 1
gene 1 26 27 8 0 51 8 1
gene 1 26 28 -1.14834 0 52 -1.14834 1
gene 1 1 36 6.24438 0 72 6.24438 1
gene 1 36 28 4.44227 0 73 4.44227 1
gene 1 24 36 -1.23745 0 143 -1.23745 1
gene 1 20 58 -7.07732 0 148 -7.07732 1
gene 1 58 28 0.225761 0 149 0.225761 1
gene 1 13 36 2.66297 0 184 2.66297 1
gene 1 7 95 -1.91359 0 287 -1.91359 1
gene 1 95 28 -3.24152 0 288 -3.24152 1
gene 1 4 58 -0.746712 0 361 -0.746712 1
gene 1 15 144 -2.02696 0 459 -2.02696 1
gene 1 144 28 -0.896863 0 460 -0.896863 0
gene 1 17 58 -3.27471 0 482 -3.27471 1
gene 1 144 168 0.194555 0 542 0.194555 1
gene 1 168 28 2.66253 0 543 2.66253 1
gene 1 23 58 6.5376 0 583 6.5376 1
gene 1 26 95 -0.651964 0 591 -0.651964 1
gene 1 2 95 -4.23391 0 616 -4.23391 1
genomeend 4

/* Organism #5 Fitness: 0.0193317 Error: 0 */
genomestart 5
trait 1 0.630604 0.77485 0.297266 0.948737 0.180357 0 0.12027 0.741943 
node 1 1 1 1
node 2 1 1 1
node 3 1 1 1
node 4 1 1 1
node 5 1 1 1
node 6 1 1 1
node 7 1 1 1
node 8 1 1 1
node 9 1 1 1
node 10 1 1 1
node 11 1 1 1
node 12 1 1 1
node 13 1 1 1
node 14 1 1 1
node 15 1 1 1
node 16 1 1 1
node 17 1 1 1
node 18 1 1 1
node 19 1 1 1
node 20 1 1 1
node 21 1 1 1
node 22 1 1 1
node 23 1 1 1
node 24 1 1 1
node 25 1 1 1
node 26 1 1 3
node 27 1 0 2
node 28 1 0 2
node 36 1 0 0
node 58 1 0 0
node 95 1 0 0
node 144 1 0 0
node 168 1 0 0
gene 1 1 27 -5.8703 0 1 -5.8703 1
gene 1 1 28 3.94157 0 2 3.94157 0
gene 1 2 27 3.34216 0 3 3.34216 1
gene 1 2 28 0.875881 0 4 0.875881 1
gene 1 3 27 2.36869 0 5 2.36869 1
gene 1 3 28 4.19976 0 6 4.19976 1
gene 1 4 27 2.61849 0 7 2.61849 1
gene 1 4 28 -1.33854 0 8 -1.33854 1
gene 1 5 27 -2.00323 0 9 -2.00323 1
gene 1 5 28 2.41283 0 10 2.41283 1
gene 1 6 27 -4.27262 0 11 -4.27262 1
gene 1 6 28 0.823542 0 12 0.823542 1
gene 1 7 27 -1.07402 0 13 -1.07402 1
gene 1 7 28 -0.456175 0 14 -0.456175 0
gene 1 8 27 4.40298 0 15 4.40298 1
gene 1 8 28 -0.335322 0 16 -0.335322 1
gene 1 9 27 -2.14949 0 17 -2.14949 1
gene 1 9 28 0.773797 0 18 0.773797 1
gene 1 10 27 -3.66543 0 19 -3.66543 1
gene 1 10 28 1.17725 0 20 1.17725 1
gene 1 11 27 -1.45772 0 21 -1.45772 1
gene 1 11 28 -1.67478 0 22 -1.67478 1
gene 1 12 27 2.14301 0 23 2.14301 0
gene 1 12 28 1.53188 0 24 1.53188 1
gene 1 13 27 -0.0910978 0 25 -0.0910978 0
gene 1 13 28 2.66739 0 26 2.66739 0
gene 1 14 27 4.7019 0 27 4.7019 1
gene 1 14 28 0.0449004 0 28 0.0449004 1
gene 1 15 27 0.924406 0 29 0.924406 1
gene 1 15 28 2.33634 0 30 2.33634 0
gene 1 16 27 0.87537 0 31 0.87537 1
gene 1 16 28 3.1383 0 32 3.1383 1
gene 1 17 27 2.49176 0 33 2.49176 1
gene 1 17 28 7.94585 0 34 7.94585 1
gene 1 18 27 -3.5773 0 35 -3.5773 1
gene 1 18 28 -3.58945 0 36 -3.58945 1
gene 1 19 27 1.06029 0 37 1.06029 1
gene 1 19 28 6.68905 0 38 6.68905 1
gene 1 20 27 2.38823 0 39 2.38823 1
gene 1 20 28 6.43962 0 40 6.43962 1
gene 1 21 27 6.51453 0 41 6.51453 1
gene 1 21 28 5.25683 0 42 5.25683 0
gene 1 22 27 -2.29026 0 43 -2.29026 1
gene 1 22 28 -0.331278 0 44 -0.331278 1
gene 1 23 27 -3.12108 0 45 -3.12108 1
gene 1 23 28 -0.416292 0 46 -0.416292 1
gene 1 24 27 -1.03614 0 47 -1.03614 1
gene 1 24 28 -8 0 48 -8 1
gene 1 25 27 6.5947 0 49 6.5947 1
gene 1 25 28 7.84233 0 50 7.84233 1
gene 1 26 27 3.09906 0 51 3.09906 1
gene 1 26 28 0.653249 0 52 0.653249 1
gene 1 1 36 2.83951 0 72 2.83951 1
gene 1 36 28 3.68107 0 73 3.68107 1
gene 1 24 36 -1.22677 0 143 -1.22677 1
gene 1 20 58 -5.17754 0 148 -5.17754 1
gene 1 58 28 -1.98035 0 149 -1.98035 1
gene 1 13 36 4.87609 0 184 4.87609 1
gene 1 7 95 -1.93739 0 287 -1.93739 1
gene 1 95 28 -2.5293 0 288 -2.5293 1
gene 1 4 58 -3.11823 0 361 -3.11823 1
gene 1 15 144 -0.0681326 0 459 -0.0681326 1
gene 1 144 28 -1.81906 0 460 -1.81906 0
gene 1 17 58 0.210044 0 482 0.210044 1
gene 1 144 168 2.23258 0 542 2.23258 1
gene 1 168 28 1.82884 0 543 1.82884 1
gene 1 23 58 0.458159 0 583 0.458159 1
gene 1 26 95 -2.48765 0 591 -2.48765 1
gene 1 2 95 -2.24059 0 616 -2.24059 1
genomeend 5

/* Organism #6 Fitness: 0.120654 Error: 0 */
/* ##------$ WINNER 6 SPECIES #43 $------## */
genomestart 6
trait 1 0.630604 0.77485 0.297266 0.948737 0.180357 0 0.12027 0.741943 
node 1 1 1 1
node 2 1 1 1
node 3 1 1 1
node 4 1 1 1
node 5 1 1 1
node 6 1 1 1
node 7 1 1 1
node 8 1 1 1
node 9 1 1 1
node 10 1 1 1
node 11 1 1 1
node 12 1 1 1
node 13 1 1 1
node 14 1 1 1
node 15 1 1 1
node 16 1 1 1
node 17 1 1 1
node 18 1 1 1
node 19 1 1 1
node 20 1 1 1
node 21 1 1 1
node 22 1 1 1
node 23 1 1 1
node 24 1 1 1
node 25 1 1 1
node 26 1 1 3
node 27 1 0 2
node 28 1 0 2
node 36 1 0 0
node 58 1 0 0
node 95 1 0 0
node 144 1 0 0
node 168 1 0 0
gene 1 1 27 -5.28809 0 1 -5.28809 1
gene 1 1 28 5.94465 0 2 5.94465 1
gene 1 2 27 1.49201 0 3 1.49201 1
gene 1 2 28 0.706999 0 4 0.706999 1
gene 1 3 27 -5.38865 0 5 -5.38865 1
gene 1 3 28 4.4629 0 6 4.4629 1
gene 1 4 27 0.607547 0 7 0.607547 1
gene 1 4 28 7.51351 0 8 7.51351 1
gene 1 5 27 -0.886248 0 9 -0.886248 1
gene 1 5 28 2.34294 0 10 2.34294 1
gene 1 6 27 -2.93896 0 11 -2.93896 1
gene 1 6 28 0.0696203 0 12 0.0696203 1
gene 1 7 27 1.84336 0 13 1.84336 1
gene 1 7 28 1.08146 0 14 1.08146 0
gene 1 8 27 3.26479 0 15 3.26479 1
gene 1 8 28 -5.11525 0 16 -5.11525 1
gene 1 9 27 -0.251329 0 17 -0.251329 1
gene 1 9 28 0.336619 0 18 0.336619 1
gene 1 10 27 -2.98929 0 19 -2.98929 1
gene 1 10 28 0.119861 0 20 0.119861 1
gene 1 11 27 -2.09002 0 21 -2.09002 1
gene 1 11 28 -0.543077 0 22 -0.543077 1
gene 1 12 27 2.98252 0 23 2.98252 0
gene 1 12 28 -4.59971 0 24 -4.59971 1
gene 1 13 27 -0.927229 0 25 -0.927229 1
gene 1 13 28 1.07105 0 26 1.07105 0
gene 1 14 27 3.29835 0 27 3.29835 1
gene 1 14 28 -1.03828 0 28 -1.03828 1
gene 1 15 27 1.74353 0 29 1.74353 1
gene 1 15 28 2.63112 0 30 2.63112 0
gene 1 16 27 1.20154 0 31 1.20154 1
gene 1 16 28 2.80504 0 32 2.80504 1
gene 1 17 27 -2.4144 0 33 -2.4144 1
gene 1 17 28 6.50793 0 34 6.50793 1
gene 1 18 27 -2.67315 0 35 -2.67315 1
gene 1 18 28 -0.583559 0 36 -0.583559 1
gene 1 19 27 0.202681 0 37 0.202681 1
gene 1 19 28 5.47933 0 38 5.47933 1
gene 1 20 27 0.191427 0 39 0.191427 1
gene 1 20 28 5.1116 0 40 5.1116 1
gene 1 21 27 3.68222 0 41 3.68222 1
gene 1 21 28 3.29381 0 42 3.29381 0
gene 1 22 27 -0.571306 0 43 -0.571306 1
gene 1 22 28 1.92103 0 44 1.92103 1
gene 1 23 27 -1.08138 0 45 -1.08138 1
gene 1 23 28 -0.531613 0 46 -0.531613 1
gene 1 24 27 0.363514 0 47 0.363514 1
gene 1 24 28 -7.94652 0 48 -7.94652 1
gene 1 25 27 7.46825 0 49 7.46825 1
gene 1 25 28 7.92117 0 50 7.92117 1
gene 1 26 27 6.4833 0 51 6.4833 1
gene 1 26 28 -0.357715 0 52 -0.357715 1
gene 1 1 36 5.02437 0 72 5.02437 1
gene 1 36 28 3.6306 0 73 3.6306 1
gene 1 24 36 -1.69179 0 143 -1.69179 1
gene 1 20 58 -3.02976 0 148 -3.02976 1
gene 1 58 28 1.61493 0 149 1.61493 1
gene 1 13 36 2.96911 0 184 2.96911 1
gene 1 7 95 0.197569 0 287 0.197569 1
gene 1 95 28 -5.71551 0 288 -5.71551 1
gene 1 4 58 -2.75773 0 361 -2.75773 1
gene 1 15 144 2.556 0 459 2.556 1
gene 1 144 28 -0.896863 0 460 -0.896863 0
gene 1 17 58 -1.59005 0 482 -1.59005 1
gene 1 144 168 -0.44805 0 542 -0.44805 1
gene 1 168 28 1.18192 0 543 1.18192 1
gene 1 23 58 4.01097 0 583 4.01097 1
gene 1 26 95 -1.85924 0 591 -1.85924 1
gene 1 2 95 -2.26531 0 616 -2.26531 1
genomeend 6

/* Organism #7 Fitness: 0.0599476 Error: 0 */
/* ##------$ WINNER 7 SPECIES #43 $------## */
genomestart 7
trait 1 0.630604 0.77485 0.297266 0.948737 0.180357 0 0.12027 0.741943 
node 1 1 1 1
node 2 1 1 1
node 3 1 1 1
node 4 1 1 1
node 5 1 1 1
node 6 1 1 1
node 7 1 1 1
node 8 1 1 1
node 9 1 1 1
node 10 1 1 1
node 11 1 1 1
node 12 1 1 1
node 13 1 1 1
node 14 1 1 1
node 15 1 1 1
node 16 1 1 1
node 17 1 1 1
node 18 1 1 1
node 19 1 1 1
node 20 1 1 1
node 21 1 1 1
node 22 1 1 1
node 23 1 1 1
node 24 1 1 1
node 25 1 1 1
node 26 1 1 3
node 27 1 0 2
node 28 1 0 2
node 36 1 0 0
node 58 1 0 0
node 95 1 0 0
node 144 1 0 0
node 168 1 0 0
gene 1 1 27 -5.28809 0 1 -5.28809 1
gene 1 1 28 6.94589 0 2 6.94589 0
gene 1 2 27 1.34098 0 3 1.34098 1
gene 1 2 28 -0.424741 0 4 -0.424741 1
gene 1 3 27 -5.38865 0 5 -5.38865 1
gene 1 3 28 4.19976 0 6 4.19976 1
gene 1 4 27 0.723975 0 7 0.723975 1
gene 1 4 28 8 0 8 8 1
gene 1 5 27 -0.886248 0 9 -0.886248 1
gene 1 5 28 2.41283 0 10 2.41283 1
gene 1 6 27 -1.7022 0 11 -1.7022 1
gene 1 6 28 0.599231 0 12 0.599231 1
gene 1 7 27 2.34649 0 13 2.34649 1
gene 1 7 28 0.282144 0 14 0.282144 0
gene 1 8 27 2.12661 0 15 2.12661 1
gene 1 8 28 -5.11525 0 16 -5.11525 1
gene 1 9 27 0.382273 0 17 0.382273 1
gene 1 9 28 2.02147 0 18 2.02147 1
gene 1 10 27 -3.66543 0 19 -3.66543 1
gene 1 10 28 0.967055 0 20 0.967055 1
gene 1 11 27 -1.12774 0 21 -1.12774 1
gene 1 11 28 0.588626 0 22 0.588626 1
gene 1 12 27 2.49998 0 23 2.49998 0
gene 1 12 28 -5.14809 0 24 -5.14809 1
gene 1 13 27 -2.17246 0 25 -2.17246 0
gene 1 13 28 1.61901 0 26 1.61901 1
gene 1 14 27 4.18995 0 27 4.18995 1
gene 1 14 28 0.138821 0 28 0.138821 1
gene 1 15 27 0.973397 0 29 0.973397 1
gene 1 15 28 2.92589 0 30 2.92589 0
gene 1 16 27 2.30737 0 31 2.30737 1
gene 1 16 28 1.94961 0 32 1.94961 1
gene 1 17 27 -3.26327 0 33 -3.26327 1
gene 1 17 28 6.91951 0 34 6.91951 1
gene 1 18 27 -3.82153 0 35 -3.82153 1
gene 1 18 28 -2.56723 0 36 -2.56723 1
gene 1 19 27 1.29803 0 37 1.29803 1
gene 1 19 28 4.2851 0 38 4.2851 1
gene 1 20 27 -0.175024 0 39 -0.175024 1
gene 1 20 28 4.73752 0 40 4.73752 1
gene 1 21 27 4.79054 0 41 4.79054 1
gene 1 21 28 2.72418 0 42 2.72418 0
gene 1 22 27 -0.571306 0 43 -0.571306 1
gene 1 22 28 1.32702 0 44 1.32702 1
gene 1 23 27 -0.181156 0 45 -0.181156 1
gene 1 23 28 -1.68014 0 46 -1.68014 1
gene 1 24 27 1.12907 0 47 1.12907 1
gene 1 24 28 -7.89303 0 48 -7.89303 1
gene 1 25 27 6.93651 0 49 6.93651 1
gene 1 25 28 8 0 50 8 1
gene 1 26 27 7.67852 0 51 7.67852 1
gene 1 26 28 -1.45726 0 52 -1.45726 1
gene 1 1 36 6.1986 0 72 6.1986 1
gene 1 36 28 3.71807 0 73 3.71807 1
gene 1 24 36 -1.69179 0 143 -1.69179 1
gene 1 20 58 -5.31602 0 148 -5.31602 1
gene 1 58 28 1.91702 0 149 1.91702 1
gene 1 13 36 3.27525 0 184 3.27525 1
gene 1 7 95 2.33253 0 287 2.33253 1
gene 1 95 28 -4.47394 0 288 -4.47394 1
gene 1 4 58 -3.11823 0 361 -3.11823 1
gene 1 15 144 2.71271 0 459 2.71271 1
gene 1 144 28 -0.896863 0 460 -0.896863 0
gene 1 17 58 -1.07929 0 482 -1.07929 1
gene 1 144 168 -1.15207 0 542 -1.15207 1
gene 1 168 28 0.737952 0 543 0.737952 1
gene 1 23 58 3.61316 0 583 3.61316 1
gene 1 26 95 -3.06651 0 591 -3.06651 1
gene 1 2 95 -1.67302 0 616 -1.67302 1
genomeend 7

/* Organism #8 Fitness: 0.203216 Error: 0 */
/* ##------$ WINNER 8 SPECIES #43 $------## */
genomestart 8
trait 1 0.630604 0.77485 0.297266 0.948737 0.180357 0 0.12027 0.741943 
node 1 1 1 1
node 2 1 1 1
node 3 1 1 1
node 4 1 1 1
node 5 1 1 1
node 6 1 1 1
node 7 1 1 1
node 8 1 1 1
node 9 1 1 1
node 10 1 1 1
node 11 1 1 1
node 12 1 1 1
node 13 1 1 1
node 14 1 1 1
node 15 1 1 1
node 16 1 1 1
node 17 1 1 1
node 18 1 1 1
node 19 1 1 1
node 20 1 1 1
node 21 1 1 1
node 22 1 1 1
node 23 1 1 1
node 24 1 1 1
node 25 1 1 1
node 26 1 1 3
node 27 1 0 2
node 28 1 0 2
node 36 1 0 0
node 58 1 0 0
node 95 1 0 0
node 144 1 0 0
node 168 1 0 0
gene 1 1 27 -5.51782 0 1 -5.51782 1
gene 1 1 28 6.33613 0 2 6.33613 0
gene 1 2 27 2.12577 0 3 2.12577 1
gene 1 2 28 -0.989334 0 4 -0.989334 1
gene 1 3 27 -3.98831 0 5 -3.98831 1
gene 1 3 28 4.03236 0 6 4.03236 1
gene 1 4 27 -1.51769 0 7 -1.51769 1
gene 1 4 28 6.06279 0 8 6.06279 1
gene 1 5 27 -1.49532 0 9 -1.49532 1
gene 1 5 28 2.84101 0 10 2.84101 1
gene 1 6 27 -3.07111 0 11 -3.07111 1
gene 1 6 28 0.730689 0 12 0.730689 1
gene 1 7 27 3.70014 0 13 3.70014 1
gene 1 7 28 1.33236 0 14 1.33236 0
gene 1 8 27 4.07559 0 15 4.07559 1
gene 1 8 28 -7.16075 0 16 -7.16075 1
gene 1 9 27 -0.25091 0 17 -0.25091 1
gene 1 9 28 3.11083 0 18 3.11083 1
gene 1 10 27 -6.16268 0 19 -6.16268 1
gene 1 10 28 1.43963 0 20 1.43963 1
gene 1 11 27 0.575426 0 21 0.575426 1
gene 1 11 28 -1.76939 0 22 -1.76939 1
gene 1 12 27 3.31727 0 23 3.31727 0
gene 1 12 28 -4.89418 0 24 -4.89418 1
gene 1 13 27 2.25898 0 25 2.25898 0
gene 1 13 28 -0.397656 0 26 -0.397656 0
gene 1 14 27 1.33518 0 27 1.33518 1
gene 1 14 28 -1.39229 0 28 -1.39229 1
gene 1 15 27 1.87697 0 29 1.87697 1
gene 1 15 28 2.29591 0 30 2.29591 0
gene 1 16 27 -1.03661 0 31 -1.03661 1
gene 1 16 28 3.08116 0 32 3.08116 1
gene 1 17 27 -1.25874 0 33 -1.25874 1
gene 1 17 28 6.56206 0 34 6.56206 1
gene 1 18 27 0.552614 0 35 0.552614 1
gene 1 18 28 -4.94668 0 36 -4.94668 1
gene 1 19 27 1.1153 0 37 1.1153 1
gene 1 19 28 5.80348 0 38 5.80348 1
gene 1 20 27 2.4086 0 39 2.4086 1
gene 1 20 28 7.56285 0 40 7.56285 1
gene 1 21 27 5.43975 0 41 5.43975 1
gene 1 21 28 4.08881 0 42 4.08881 0
gene 1 22 27 1.83355 0 43 1.83355 1
gene 1 22 28 -1.11995 0 44 -1.11995 1
gene 1 23 27 -2.2864 0 45 -2.2864 1
gene 1 23 28 1.16617 0 46 1.16617 1
gene 1 24 27 -0.388462 0 47 -0.388462 1
gene 1 24 28 -7.2642 0 48 -7.2642 1
gene 1 25 27 4.91008 0 49 4.91008 1
gene 1 25 28 8 0 50 8 1
gene 1 26 27 5.87282 0 51 5.87282 1
gene 1 26 28 -1.28552 0 52 -1.28552 1
gene 1 1 36 2.19435 0 72 2.19435 1
gene 1 36 28 2.67312 0 73 2.67312 1
gene 1 24 36 0.780511 0 143 0.780511 1
gene 1 20 58 -7.3706 0 148 -7.3706 1
gene 1 58 28 1.91702 0 149 1.91702 1
gene 1 13 36 2.06091 0 184 2.06091 1
gene 1 7 95 -1.16718 0 287 -1.16718 1
gene 1 95 28 1.78884 0 288 1.78884 1
gene 1 4 58 -3.11823 0 361 -3.11823 1
gene 1 15 144 0.825831 0 459 0.825831 1
gene 1 144 28 1.04755 0 460 1.04755 0
gene 1 17 58 -4.40878 0 482 -4.40878 1
gene 1 144 168 0.255974 0 542 0.255974 1
gene 1 168 28 3.63858 0 543 3.63858 1
gene 1 23 58 -1.21792 0 583 -1.21792 1
gene 1 26 95 -3.06651 0 591 -3.06651 1
gene 1 2 95 -2.98715 0 616 -2.98715 1
genomeend 8

/* Species #47 : (Size 8) (AF 0) (Age 11)  */


/* Organism #9 Fitness: 0.332639 Error: 0 */
/* ##------$ WINNER 9 SPECIES #47 $------## */
genomestart 9
trait 1 0.533128 0.694983 0 0.926784 0.458571 0 0.321924 1 
node 1 1 1 1
node 2 1 1 1
node 3 1 1 1
node 4 1 1 1
node 5 1 1 1
node 6 1 1 1
node 7 1 1 1
node 8 1 1 1
node 9 1 1 1
node 10 1 1 1
node 11 1 1 1
node 12 1 1 1
node 13 1 1 1
node 14 1 1 1
node 15 1 1 1
node 16 1 1 1
node 17 1 1 1
node 18 1 1 1
node 19 1 1 1
node 20 1 1 1
node 21 1 1 1
node 22 1 1 1
node 23 1 1 1
node 24 1 1 1
node 25 1 1 1
node 26 1 1 3
node 27 1 0 2
node 28 1 0 2
node 36 1 0 0
node 58 1 0 0
node 95 1 0 0
node 117 1 0 0
node 125 1 0 0
node 128 1 0 0
node 174 1 0 0
node 179 1 0 0
node 206 1 0 0
gene 1 1 27 -0.0250252 0 1 -0.0250252 1
gene 1 1 28 -5.80096 0 2 -5.80096 1
gene 1 2 27 -0.963393 0 3 -0.963393 1
gene 1 2 28 -1.25942 0 4 -1.25942 1
gene 1 3 27 -2.88697 0 5 -2.88697 0
gene 1 3 28 1.05981 0 6 1.05981 1
gene 1 4 27 3.92101 0 7 3.92101 1
gene 1 4 28 -2.02414 0 8 -2.02414 1
gene 1 5 27 1.48923 0 9 1.48923 1
gene 1 5 28 3.92624 0 10 3.92624 1
gene 1 6 27 3.59861 0 11 3.59861 1
gene 1 6 28 -1.70644 0 12 -1.70644 1
gene 1 7 27 1.94754 0 13 1.94754 1
gene 1 7 28 3.50703 0 14 3.50703 0
gene 1 8 27 1.17847 0 15 1.17847 1
gene 1 8 28 -7.72443 0 16 -7.72443 1
gene 1 9 27 1.39945 0 17 1.39945 1
gene 1 9 28 1.40019 0 18 1.40019 1
gene 1 10 27 -4.47069 0 19 -4.47069 1
gene 1 10 28 -3.64486 0 20 -3.64486 1
gene 1 11 27 5.11711 0 21 5.11711 1
gene 1 11 28 0.48265 0 22 0.48265 1
gene 1 12 27 2.11043 0 23 2.11043 1
gene 1 12 28 2.11129 0 24 2.11129 1
gene 1 13 27 -3.38328 0 25 -3.38328 1
gene 1 13 28 -1.55387 0 26 -1.55387 1
gene 1 14 27 1.29143 0 27 1.29143 1
gene 1 14 28 8 0 28 8 1
gene 1 15 27 -2.75838 0 29 -2.75838 1
gene 1 15 28 3.18745 0 30 3.18745 0
gene 1 16 27 -2.23228 0 31 -2.23228 1
gene 1 16 28 -0.778451 0 32 -0.778451 1
gene 1 17 27 2.75646 0 33 2.75646 1
gene 1 17 28 4.28198 0 34 4.28198 0
gene 1 18 27 -0.950022 0 35 -0.950022 1
gene 1 18 28 4.67241 0 36 4.67241 1
gene 1 19 27 0.189472 0 37 0.189472 1
gene 1 19 28 -8 0 38 -8 0
gene 1 20 27 -0.437292 0 39 -0.437292 1
gene 1 20 28 -1.38501 0 40 -1.38501 1
gene 1 21 27 8 0 41 8 1
gene 1 21 28 8 0 42 8 1
gene 1 22 27 1.78947 0 43 1.78947 1
gene 1 22 28 2.60254 0 44 2.60254 1
gene 1 23 27 3.92434 0 45 3.92434 1
gene 1 23 28 2.03482 0 46 2.03482 1
gene 1 24 27 1.39843 0 47 1.39843 1
gene 1 24 28 2.6017 0 48 2.6017 1
gene 1 25 27 4.66706 0 49 4.66706 1
gene 1 25 28 -0.271538 0 50 -0.271538 1
gene 1 26 27 7.07994 0 51 7.07994 1
gene 1 26 28 1.95248 0 52 1.95248 1
gene 1 1 36 1.03809 0 72 1.03809 1
gene 1 36 28 -1.73353 0 73 -1.73353 1
gene 1 24 36 3.38809 0 143 3.38809 1
gene 1 20 58 -7.99169 0 148 -7.99169 1
gene 1 58 28 -1.3493 0 149 -1.3493 1
gene 1 13 36 -0.30549 0 184 -0.30549 1
gene 1 7 95 3.07924 0 287 3.07924 1
gene 1 95 28 0.00648518 0 288 0.00648518 1
gene 1 4 58 -2.17627 0 361 -2.17627 1
gene 1 11 117 -3.04395 0 377 -3.04395 1
gene 1 117 27 2.08586 0 378 2.08586 1
gene 1 18 125 0.809656 0 402 0.809656 1
gene 1 125 27 -0.322047 0 403 -0.322047 1
gene 1 17 128 1.19762 0 410 1.19762 1
gene 1 128 28 -5.58138 0 411 -5.58138 1
gene 1 22 58 -0.191885 0 525 -0.191885 1
gene 1 16 125 2.34306 0 566 2.34306 1
gene 1 15 174 1.73498 0 585 1.73498 1
gene 1 174 28 -1.742 0 586 -1.742 1
gene 1 3 179 5.84107 0 596 5.84107 1
gene 1 179 27 4.28701 0 597 4.28701 1
gene 1 14 95 -1.37336 0 613 -1.37336 1
gene 1 179 28 0.617206 0 662 0.617206 1
gene 1 19 206 1 0 675 0 1
gene 1 206 28 -7.80102 0 676 -7.80102 1
genomeend 9

/* Organism #10 Fitness: 0.00199423 Error: 0 */
genomestart 10
trait 1 0.533128 0.694983 0 0.926784 0.458571 0 0.321924 1 
node 1 1 1 1
node 2 1 1 1
node 3 1 1 1
node 4 1 1 1
node 5 1 1 1
node 6 1 1 1
node 7 1 1 1
node 8 1 1 1
node 9 1 1 1
node 10 1 1 1
node 11 1 1 1
node 12 1 1 1
node 13 1 1 1
node 14 1 1 1
node 15 1 1 1
node 16 1 1 1
node 17 1 1 1
node 18 1 1 1
node 19 1 1 1
node 20 1 1 1
node 21 1 1 1
node 22 1 1 1
node 23 1 1 1
node 24 1 1 1
node 25 1 1 1
node 26 1 1 3
node 27 1 0 2
node 28 1 0 2
node 36 1 0 0
node 58 1 0 0
node 95 1 0 0
node 117 1 0 0
node 125 1 0 0
node 128 1 0 0
node 174 1 0 0
node 179 1 0 0
node 206 1 0 0
gene 1 1 27 -1.82287 0 1 -1.82287 1
gene 1 1 28 -7.33207 0 2 -7.33207 1
gene 1 2 27 1.00078 0 3 1.00078 1
gene 1 2 28 -1.25942 0 4 -1.25942 1
gene 1 3 27 -3.96741 0 5 -3.96741 0
gene 1 3 28 1.1178 0 6 1.1178 1
gene 1 4 27 1.81897 0 7 1.81897 1
gene 1 4 28 -2.30277 0 8 -2.30277 1
gene 1 5 27 1.88055 0 9 1.88055 1
gene 1 5 28 5.14637 0 10 5.14637 1
gene 1 6 27 1.11761 0 11 1.11761 1
gene 1 6 28 -0.634175 0 12 -0.634175 1
gene 1 7 27 3.83358 0 13 3.83358 1
gene 1 7 28 2.26318 0 14 2.26318 0
gene 1 8 27 3.07016 0 15 3.07016 1
gene 1 8 28 -8 0 16 -8 1
gene 1 9 27 0.453829 0 17 0.453829 1
gene 1 9 28 -0.879925 0 18 -0.879925 1
gene 1 10 27 -2.04485 0 19 -2.04485 1
gene 1 10 28 -1.22719 0 20 -1.22719 1
gene 1 11 27 2.68479 0 21 2.68479 1
gene 1 11 28 0.389492 0 22 0.389492 1
gene 1 12 27 4.29838 0 23 4.29838 1
gene 1 12 28 2.62301 0 24 2.62301 1
gene 1 13 27 -0.932264 0 25 -0.932264 1
gene 1 13 28 -3.09376 0 26 -3.09376 1
gene 1 14 27 2.4683 0 27 2.4683 1
gene 1 14 28 8 0 28 8 1
gene 1 15 27 -1.59684 0 29 -1.59684 1
gene 1 15 28 3.38483 0 30 3.38483 0
gene 1 16 27 -2.23228 0 31 -2.23228 1
gene 1 16 28 -0.778451 0 32 -0.778451 1
gene 1 17 27 2.75646 0 33 2.75646 1
gene 1 17 28 6.53294 0 34 6.53294 0
gene 1 18 27 -2.84446 0 35 -2.84446 1
gene 1 18 28 4.59703 0 36 4.59703 1
gene 1 19 27 0.690281 0 37 0.690281 1
gene 1 19 28 -8 0 38 -8 0
gene 1 20 27 -0.0730155 0 39 -0.0730155 1
gene 1 20 28 -0.00495926 0 40 -0.00495926 1
gene 1 21 27 8 0 41 8 1
gene 1 21 28 -2.0851 0 42 -2.0851 1
gene 1 22 27 2.36284 0 43 2.36284 1
gene 1 22 28 3.64551 0 44 3.64551 1
gene 1 23 27 2.61929 0 45 2.61929 1
gene 1 23 28 2.35473 0 46 2.35473 1
gene 1 24 27 1.12384 0 47 1.12384 1
gene 1 24 28 0.255593 0 48 0.255593 1
gene 1 25 27 4.47563 0 49 4.47563 1
gene 1 25 28 -0.466628 0 50 -0.466628 1
gene 1 26 27 6.671 0 51 6.671 1
gene 1 26 28 1.48433 0 52 1.48433 1
gene 1 1 36 1.15123 0 72 1.15123 1
gene 1 36 28 0.955916 0 73 0.955916 1
gene 1 24 36 5.82644 0 143 5.82644 1
gene 1 20 58 -8 0 148 -8 1
gene 1 58 28 -0.159917 0 149 -0.159917 1
gene 1 13 36 -0.30549 0 184 -0.30549 1
gene 1 7 95 4.55306 0 287 4.55306 1
gene 1 95 28 -1.11576 0 288 -1.11576 1
gene 1 4 58 -1.71644 0 361 -1.71644 1
gene 1 11 117 -1.32832 0 377 -1.32832 1
gene 1 117 27 2.08586 0 378 2.08586 1
gene 1 18 125 0.809656 0 402 0.809656 1
gene 1 125 27 -2.12378 0 403 -2.12378 1
gene 1 17 128 1.19762 0 410 1.19762 1
gene 1 128 28 0.708716 0 411 0.708716 1
gene 1 22 58 -0.191885 0 525 -0.191885 1
gene 1 16 125 4.38208 0 566 4.38208 1
gene 1 15 174 1.53317 0 585 1.53317 1
gene 1 174 28 -1.28056 0 586 -1.28056 1
gene 1 3 179 6.97522 0 596 6.97522 1
gene 1 179 27 -0.67629 0 597 -0.67629 1
gene 1 14 95 1.07285 0 613 1.07285 1
gene 1 179 28 2.84231 0 662 2.84231 1
gene 1 19 206 2.53912 0 675 2.53912 1
gene 1 206 28 1.33175 0 676 1.33175 1
genomeend 10

/* Organism #11 Fitness: 0.118355 Error: 0 */
/* ##------$ WINNER 11 SPECIES #47 $------## */
genomestart 11
trait 1 0 0.676962 0.784082 0.902379 0.458571 0 0.16036 0.915586 
node 1 1 1 1
node 2 1 1 1
node 3 1 1 1
node 4 1 1 1
node 5 1 1 1
node 6 1 1 1
node 7 1 1 1
node 8 1 1 1
node 9 1 1 1
node 10 1 1 1
node 11 1 1 1
node 12 1 1 1
node 13 1 1 1
node 14 1 1 1
node 15 1 1 1
node 16 1 1 1
node 17 1 1 1
node 18 1 1 1
node 19 1 1 1
node 20 1 1 1
node 21 1 1 1
node 22 1 1 1
node 23 1 1 1
node 24 1 1 1
node 25 1 1 1
node 26 1 1 3
node 27 1 0 2
node 28 1 0 2
node 36 1 0 0
node 58 1 0 0
node 95 1 0 0
node 117 1 0 0
node 125 1 0 0
node 128 1 0 0
node 174 1 0 0
node 179 1 0 0
node 206 1 0 0
node 212 1 0 0
gene 1 1 27 1.72693 0 1 1.72693 1
gene 1 1 28 -5.71924 0 2 -5.71924 1
gene 1 2 27 -2.28553 0 3 -2.28553 1
gene 1 2 28 2.25684 0 4 2.25684 1
gene 1 3 27 -1.69591 0 5 -1.69591 0
gene 1 3 28 0.358345 0 6 0.358345 1
gene 1 4 27 5.23109 0 7 5.23109 0
gene 1 4 28 0.370342 0 8 0.370342 1
gene 1 5 27 0.29603 0 9 0.29603 1
gene 1 5 28 7.45074 0 10 7.45074 1
gene 1 6 27 3.35622 0 11 3.35622 1
gene 1 6 28 -2.75048 0 12 -2.75048 1
gene 1 7 27 -2.31498 0 13 -2.31498 1
gene 1 7 28 -3.92285 0 14 -3.92285 0
gene 1 8 27 1.10027 0 15 1.10027 1
gene 1 8 28 -8 0 16 -8 1
gene 1 9 27 -0.887078 0 17 -0.887078 1
gene 1 9 28 -2.5351 0 18 -2.5351 1
gene 1 10 27 -2.08148 0 19 -2.08148 1
gene 1 10 28 -1.75928 0 20 -1.75928 1
gene 1 11 27 8 0 21 8 1
gene 1 11 28 1.08196 0 22 1.08196 1
gene 1 12 27 -5.77906 0 23 -5.77906 1
gene 1 12 28 -1.81148 0 24 -1.81148 1
gene 1 13 27 -0.234001 0 25 -0.234001 1
gene 1 13 28 -2.72502 0 26 -2.72502 1
gene 1 14 27 3.40484 0 27 3.40484 1
gene 1 14 28 8 0 28 8 1
gene 1 15 27 4.32604 0 29 4.32604 1
gene 1 15 28 5.28323 0 30 5.28323 0
gene 1 16 27 4.42558 0 31 4.42558 1
gene 1 16 28 2.42965 0 32 2.42965 1
gene 1 17 27 5.56752 0 33 5.56752 1
gene 1 17 28 1.87071 0 34 1.87071 0
gene 1 18 27 1.49283 0 35 1.49283 1
gene 1 18 28 7.42526 0 36 7.42526 1
gene 1 19 27 2.47249 0 37 2.47249 1
gene 1 19 28 -8 0 38 -8 0
gene 1 20 27 2.46082 0 39 2.46082 1
gene 1 20 28 -3.63338 0 40 -3.63338 1
gene 1 21 27 3.68912 0 41 3.68912 1
gene 1 21 28 8 0 42 8 1
gene 1 22 27 4.64532 0 43 4.64532 1
gene 1 22 28 4.69085 0 44 4.69085 1
gene 1 23 27 3.14146 0 45 3.14146 1
gene 1 23 28 -0.919599 0 46 -0.919599 1
gene 1 24 27 3.95711 0 47 3.95711 1
gene 1 24 28 4.70417 0 48 4.70417 1
gene 1 25 27 2.09679 0 49 2.09679 1
gene 1 25 28 2.31361 0 50 2.31361 1
gene 1 26 27 4.69553 0 51 4.69553 1
gene 1 26 28 1.5623 0 52 1.5623 1
gene 1 1 36 -2.81457 0 72 -2.81457 1
gene 1 36 28 -7.29232 0 73 -7.29232 1
gene 1 24 36 4.03958 0 143 4.03958 1
gene 1 20 58 -5.21992 0 148 -5.21992 1
gene 1 58 28 2.91361 0 149 2.91361 1
gene 1 13 36 -0.156026 0 184 -0.156026 1
gene 1 7 95 -0.13329 0 287 -0.13329 1
gene 1 95 28 0.26574 0 288 0.26574 1
gene 1 4 58 -2.38105 0 361 -2.38105 1
gene 1 11 117 -0.915365 0 377 -0.915365 1
gene 1 117 27 -0.755104 0 378 -0.755104 1
gene 1 18 125 0.346232 0 402 0.346232 1
gene 1 125 27 -3.27456 0 403 -3.27456 1
gene 1 17 128 0.870006 0 410 0.870006 1
gene 1 128 28 -0.971786 0 411 -0.971786 1
gene 1 22 58 -2.19085 0 525 -2.19085 1
gene 1 16 125 2.0484 0 566 2.0484 1
gene 1 15 174 -1.55263 0 585 -1.55263 1
gene 1 174 28 1.68386 0 586 1.68386 1
gene 1 3 179 1.04953 0 596 1.04953 1
gene 1 179 27 5.27306 0 597 5.27306 1
gene 1 14 95 2.89976 0 613 2.89976 1
gene 1 179 28 1.41614 0 662 1.41614 1
gene 1 19 206 -0.984237 0 675 -0.984237 1
gene 1 206 28 -1.70446 0 676 -1.70446 1
gene 1 4 212 1.69468 0 695 1.69468 1
gene 1 212 27 7.5473 0 696 7.5473 1
genomeend 11

/* Organism #12 Fitness: 0.0198021 Error: 0 */
/* ##------$ WINNER 12 SPECIES #47 $------## */
genomestart 12
trait 1 0 0.676962 0.784082 0.902379 0.458571 0 0.16036 0.915586 
node 1 1 1 1
node 2 1 1 1
node 3 1 1 1
node 4 1 1 1
node 5 1 1 1
node 6 1 1 1
node 7 1 1 1
node 8 1 1 1
node 9 1 1 1
node 10 1 1 1
node 11 1 1 1
node 12 1 1 1
node 13 1 1 1
node 14 1 1 1
node 15 1 1 1
node 16 1 1 1
node 17 1 1 1
node 18 1 1 1
node 19 1 1 1
node 20 1 1 1
node 21 1 1 1
node 22 1 1 1
node 23 1 1 1
node 24 1 1 1
node 25 1 1 1
node 26 1 1 3
node 27 1 0 2
node 28 1 0 2
node 36 1 0 0
node 58 1 0 0
node 95 1 0 0
node 117 1 0 0
node 125 1 0 0
node 128 1 0 0
node 174 1 0 0
node 179 1 0 0
node 206 1 0 0
node 212 1 0 0
gene 1 1 27 -1.13777 0 1 -1.13777 1
gene 1 1 28 -8 0 2 -8 1
gene 1 2 27 -4.90387 0 3 -4.90387 1
gene 1 2 28 4.53772 0 4 4.53772 1
gene 1 3 27 4.54077 0 5 4.54077 0
gene 1 3 28 4.78574 0 6 4.78574 1
gene 1 4 27 7.68257 0 7 7.68257 0
gene 1 4 28 2.76978 0 8 2.76978 1
gene 1 5 27 8 0 9 8 1
gene 1 5 28 5.46208 0 10 5.46208 1
gene 1 6 27 2.18225 0 11 2.18225 1
gene 1 6 28 -0.569933 0 12 -0.569933 1
gene 1 7 27 0.757851 0 13 0.757851 1
gene 1 7 28 0.756249 0 14 0.756249 0
gene 1 8 27 1.667 0 15 1.667 1
gene 1 8 28 -6.61469 0 16 -6.61469 1
gene 1 9 27 0.161081 0 17 0.161081 1
gene 1 9 28 0.594348 0 18 0.594348 1
gene 1 10 27 -6.69252 0 19 -6.69252 1
gene 1 10 28 -4.45086 0 20 -4.45086 1
gene 1 11 27 3.918 0 21 3.918 1
gene 1 11 28 -1.49464 0 22 -1.49464 1
gene 1 12 27 -6.00925 0 23 -6.00925 1
gene 1 12 28 -1.02578 0 24 -1.02578 1
gene 1 13 27 -2.78718 0 25 -2.78718 1
gene 1 13 28 -2.41853 0 26 -2.41853 1
gene 1 14 27 3.98103 0 27 3.98103 1
gene 1 14 28 5.67281 0 28 5.67281 1
gene 1 15 27 2.25497 0 29 2.25497 1
gene 1 15 28 5.59971 0 30 5.59971 0
gene 1 16 27 5.62664 0 31 5.62664 1
gene 1 16 28 3.8316 0 32 3.8316 1
gene 1 17 27 3.60899 0 33 3.60899 1
gene 1 17 28 5.14962 0 34 5.14962 0
gene 1 18 27 -0.8104 0 35 -0.8104 1
gene 1 18 28 2.65255 0 36 2.65255 1
gene 1 19 27 -2.12307 0 37 -2.12307 1
gene 1 19 28 -7.64476 0 38 -7.64476 0
gene 1 20 27 1.74532 0 39 1.74532 1
gene 1 20 28 -3.27692 0 40 -3.27692 1
gene 1 21 27 3.04914 0 41 3.04914 1
gene 1 21 28 8 0 42 8 1
gene 1 22 27 3.57397 0 43 3.57397 1
gene 1 22 28 4.35469 0 44 4.35469 1
gene 1 23 27 2.41726 0 45 2.41726 1
gene 1 23 28 -4.54016 0 46 -4.54016 1
gene 1 24 27 4.53543 0 47 4.53543 1
gene 1 24 28 1.8072 0 48 1.8072 1
gene 1 25 27 5.25973 0 49 5.25973 1
gene 1 25 28 4.28167 0 50 4.28167 1
gene 1 26 27 7.90921 0 51 7.90921 1
gene 1 26 28 4.28227 0 52 4.28227 1
gene 1 1 36 -3.83816 0 72 -3.83816 1
gene 1 36 28 -5.09987 0 73 -5.09987 1
gene 1 24 36 2.23998 0 143 2.23998 1
gene 1 20 58 -6.09085 0 148 -6.09085 1
gene 1 58 28 4.42038 0 149 4.42038 1
gene 1 13 36 -1.49831 0 184 -1.49831 1
gene 1 7 95 1.00223 0 287 1.00223 1
gene 1 95 28 -0.760063 0 288 -0.760063 1
gene 1 4 58 -2.24212 0 361 -2.24212 1
gene 1 11 117 -1.6652 0 377 -1.6652 1
gene 1 117 27 -0.318384 0 378 -0.318384 1
gene 1 18 125 1.22005 0 402 1.22005 1
gene 1 125 27 1.63923 0 403 1.63923 1
gene 1 17 128 1.32717 0 410 1.32717 1
gene 1 128 28 -4.28518 0 411 -4.28518 1
gene 1 22 58 -0.211722 0 525 -0.211722 1
gene 1 16 125 3.57646 0 566 3.57646 1
gene 1 15 174 0.721366 0 585 0.721366 1
gene 1 174 28 1.47137 0 586 1.47137 1
gene 1 3 179 2.02338 0 596 2.02338 1
gene 1 179 27 -1.77381 0 597 -1.77381 1
gene 1 14 95 2.89976 0 613 2.89976 1
gene 1 179 28 0.34402 0 662 0.34402 1
gene 1 19 206 -1.15223 0 675 -1.15223 1
gene 1 206 28 -1.27422 0 676 -1.27422 1
gene 1 4 212 -0.648289 0 695 -0.648289 1
gene 1 212 27 5.82292 0 696 5.82292 1
genomeend 12

/* Organism #13 Fitness: 0.0194946 Error: 0 */
genomestart 13
trait 1 0 0.507721 0.784082 0.926784 0.458571 0 0.321924 0.936689 
node 1 1 1 1
node 2 1 1 1
node 3 1 1 1
node 4 1 1 1
node 5 1 1 1
node 6 1 1 1
node 7 1 1 1
node 8 1 1 1
node 9 1 1 1
node 10 1 1 1
node 11 1 1 1
node 12 1 1 1
node 13 1 1 1
node 14 1 1 1
node 15 1 1 1
node 16 1 1 1
node 17 1 1 1
node 18 1 1 1
node 19 1 1 1
node 20 1 1 1
node 21 1 1 1
node 22 1 1 1
node 23 1 1 1
node 24 1 1 1
node 25 1 1 1
node 26 1 1 3
node 27 1 0 2
node 28 1 0 2
node 36 1 0 0
node 58 1 0 0
node 95 1 0 0
node 117 1 0 0
node 125 1 0 0
node 128 1 0 0
node 174 1 0 0
node 179 1 0 0
node 206 1 0 0
node 214 1 0 0
gene 1 1 27 -1.50783 0 1 -1.50783 1
gene 1 1 28 -5.26349 0 2 -5.26349 1
gene 1 2 27 -3.20168 0 3 -3.20168 1
gene 1 2 28 -0.90413 0 4 -0.90413 1
gene 1 3 27 -3.45218 0 5 -3.45218 0
gene 1 3 28 2.96188 0 6 2.96188 1
gene 1 4 27 2.01971 0 7 2.01971 1
gene 1 4 28 -2.65851 0 8 -2.65851 1
gene 1 5 27 4.9962 0 9 4.9962 1
gene 1 5 28 4.25978 0 10 4.25978 1
gene 1 6 27 0.0507942 0 11 0.0507942 1
gene 1 6 28 -1.9986 0 12 -1.9986 1
gene 1 7 27 0.442156 0 13 0.442156 1
gene 1 7 28 1.55192 0 14 1.55192 1
gene 1 8 27 -0.542829 0 15 -0.542829 1
gene 1 8 28 -3.9673 0 16 -3.9673 1
gene 1 9 27 1.92001 0 17 1.92001 1
gene 1 9 28 2.17795 0 18 2.17795 1
gene 1 10 27 -3.23166 0 19 -3.23166 1
gene 1 10 28 -3.73902 0 20 -3.73902 1
gene 1 11 27 3.65797 0 21 3.65797 1
gene 1 11 28 1.14935 0 22 1.14935 1
gene 1 12 27 -2.6429 0 23 -2.6429 1
gene 1 12 28 4.93366 0 24 4.93366 1
gene 1 13 27 -6.61163 0 25 -6.61163 1
gene 1 13 28 -1.62978 0 26 -1.62978 1
gene 1 14 27 -0.100997 0 27 -0.100997 1
gene 1 14 28 5.7472 0 28 5.7472 1
gene 1 15 27 0.891999 0 29 0.891999 1
gene 1 15 28 1.57078 0 30 1.57078 0
gene 1 16 27 0.813199 0 31 0.813199 1
gene 1 16 28 -1.88004 0 32 -1.88004 1
gene 1 17 27 3.43465 0 33 3.43465 1
gene 1 17 28 -0.121826 0 34 -0.121826 0
gene 1 18 27 -3.15645 0 35 -3.15645 1
gene 1 18 28 3.6954 0 36 3.6954 0
gene 1 19 27 -2.12235 0 37 -2.12235 1
gene 1 19 28 -4.58276 0 38 -4.58276 0
gene 1 20 27 2.18068 0 39 2.18068 1
gene 1 20 28 -0.0805498 0 40 -0.0805498 1
gene 1 21 27 3.94549 0 41 3.94549 1
gene 1 21 28 8 0 42 8 1
gene 1 22 27 2.51327 0 43 2.51327 1
gene 1 22 28 1.39115 0 44 1.39115 1
gene 1 23 27 1.61468 0 45 1.61468 1
gene 1 23 28 -1.41543 0 46 -1.41543 1
gene 1 24 27 6.07961 0 47 6.07961 1
gene 1 24 28 3.14904 0 48 3.14904 1
gene 1 25 27 6.0045 0 49 6.0045 1
gene 1 25 28 -1.15392 0 50 -1.15392 1
gene 1 26 27 7.24738 0 51 7.24738 1
gene 1 26 28 0.652891 0 52 0.652891 1
gene 1 1 36 -3.05809 0 72 -3.05809 1
gene 1 36 28 -0.0615139 0 73 -0.0615139 1
gene 1 24 36 4.98424 0 143 4.98424 1
gene 1 20 58 -4.98189 0 148 -4.98189 1
gene 1 58 28 -0.85463 0 149 -0.85463 1
gene 1 13 36 1.21723 0 184 1.21723 1
gene 1 7 95 -0.894116 0 287 -0.894116 0
gene 1 95 28 0.0778031 0 288 0.0778031 1
gene 1 4 58 -1.95502 0 361 -1.95502 1
gene 1 11 117 -2.00198 0 377 -2.00198 1
gene 1 117 27 4.72982 0 378 4.72982 1
gene 1 18 125 1.87527 0 402 1.87527 1
gene 1 125 27 2.46771 0 403 2.46771 1
gene 1 17 128 1.10197 0 410 1.10197 1
gene 1 128 28 -4.23633 0 411 -4.23633 1
gene 1 22 58 -2.7995 0 525 -2.7995 1
gene 1 16 125 0.936499 0 566 0.936499 1
gene 1 15 174 1.956 0 585 1.956 1
gene 1 174 28 -0.997555 0 586 -0.997555 1
gene 1 3 179 0.992145 0 596 0.992145 1
gene 1 179 27 1.53218 0 597 1.53218 1
gene 1 14 95 -2.26211 0 613 -2.26211 1
gene 1 179 28 0.794843 0 662 0.794843 1
gene 1 19 206 1 0 675 1 1
gene 1 206 28 -1.60817 0 676 -1.60817 1
gene 1 18 214 1 0 703 0 1
gene 1 214 28 3.6954 0 704 0 1
genomeend 13

/* Organism #14 Fitness: 0.0194934 Error: 0 */
genomestart 14
trait 1 0 0.592341 0.784082 0.914582 0.458571 0 0.241142 0.926138 
node 1 1 1 1
node 2 1 1 1
node 3 1 1 1
node 4 1 1 1
node 5 1 1 1
node 6 1 1 1
node 7 1 1 1
node 8 1 1 1
node 9 1 1 1
node 10 1 1 1
node 11 1 1 1
node 12 1 1 1
node 13 1 1 1
node 14 1 1 1
node 15 1 1 1
node 16 1 1 1
node 17 1 1 1
node 18 1 1 1
node 19 1 1 1
node 20 1 1 1
node 21 1 1 1
node 22 1 1 1
node 23 1 1 1
node 24 1 1 1
node 25 1 1 1
node 26 1 1 3
node 27 1 0 2
node 28 1 0 2
node 36 1 0 0
node 58 1 0 0
node 95 1 0 0
node 117 1 0 0
node 125 1 0 0
node 128 1 0 0
node 174 1 0 0
node 179 1 0 0
node 206 1 0 0
node 212 1 0 0
gene 1 1 27 -1.50783 0 1 -1.50783 1
gene 1 1 28 -7.24441 0 2 -7.24441 1
gene 1 2 27 -3.20168 0 3 -3.20168 1
gene 1 2 28 2.97624 0 4 2.97624 1
gene 1 3 27 3.41716 0 5 3.41716 0
gene 1 3 28 2.9248 0 6 2.9248 1
gene 1 4 27 8 0 7 8 0
gene 1 4 28 0.120243 0 8 0.120243 1
gene 1 5 27 4.9962 0 9 4.9962 1
gene 1 5 28 7.43396 0 10 7.43396 1
gene 1 6 27 0.0507942 0 11 0.0507942 1
gene 1 6 28 -1.9986 0 12 -1.9986 1
gene 1 7 27 0.442156 0 13 0.442156 1
gene 1 7 28 -0.238273 0 14 -0.238273 0
gene 1 8 27 -0.542829 0 15 -0.542829 1
gene 1 8 28 -8 0 16 -8 1
gene 1 9 27 1.21565 0 17 1.21565 1
gene 1 9 28 0.308313 0 18 0.308313 1
gene 1 10 27 -7.71756 0 19 -7.71756 1
gene 1 10 28 -3.73902 0 20 -3.73902 1
gene 1 11 27 3.65797 0 21 3.65797 1
gene 1 11 28 -0.671484 0 22 -0.671484 1
gene 1 12 27 -2.35969 0 23 -2.35969 1
gene 1 12 28 -1.84713 0 24 -1.84713 1
gene 1 13 27 -6.61163 0 25 -6.61163 1
gene 1 13 28 -0.622978 0 26 -0.622978 1
gene 1 14 27 4.68799 0 27 4.68799 1
gene 1 14 28 8 0 28 8 1
gene 1 15 27 3.19533 0 29 3.19533 1
gene 1 15 28 1.85547 0 30 1.85547 0
gene 1 16 27 0.402706 0 31 0.402706 1
gene 1 16 28 -1.88004 0 32 -1.88004 1
gene 1 17 27 4.92182 0 33 4.92182 1
gene 1 17 28 -0.121826 0 34 -0.121826 0
gene 1 18 27 -0.887097 0 35 -0.887097 1
gene 1 18 28 3.6954 0 36 3.6954 1
gene 1 19 27 -2.12235 0 37 -2.12235 1
gene 1 19 28 -4.58276 0 38 -4.58276 0
gene 1 20 27 2.18068 0 39 2.18068 1
gene 1 20 28 -0.0805498 0 40 -0.0805498 1
gene 1 21 27 3.87864 0 41 3.87864 1
gene 1 21 28 8 0 42 8 1
gene 1 22 27 2.51327 0 43 2.51327 1
gene 1 22 28 3.54648 0 44 3.54648 1
gene 1 23 27 1.61468 0 45 1.61468 1
gene 1 23 28 -0.0875118 0 46 -0.0875118 1
gene 1 24 27 7.0806 0 47 7.0806 1
gene 1 24 28 3.14904 0 48 3.14904 1
gene 1 25 27 6.0045 0 49 6.0045 1
gene 1 25 28 -1.15392 0 50 -1.15392 1
gene 1 26 27 7.24738 0 51 7.24738 1
gene 1 26 28 -1.29499 0 52 -1.29499 1
gene 1 1 36 -2.06275 0 72 -2.06275 1
gene 1 36 28 -0.0615139 0 73 -0.0615139 1
gene 1 24 36 2.30361 0 143 2.30361 1
gene 1 20 58 -4.98189 0 148 -4.98189 1
gene 1 58 28 0.770291 0 149 0.770291 1
gene 1 13 36 1.21723 0 184 1.21723 1
gene 1 7 95 -0.894116 0 287 -0.894116 0
gene 1 95 28 -1.97523 0 288 -1.97523 1
gene 1 4 58 -1.95502 0 361 -1.95502 1
gene 1 11 117 -2.00198 0 377 -2.00198 1
gene 1 117 27 -1.91916 0 378 -1.91916 1
gene 1 18 125 0.469298 0 402 0.469298 1
gene 1 125 27 2.46771 0 403 2.46771 1
gene 1 17 128 2.01445 0 410 2.01445 1
gene 1 128 28 -4.23633 0 411 -4.23633 1
gene 1 22 58 -3.85113 0 525 -3.85113 1
gene 1 16 125 0.936499 0 566 0.936499 1
gene 1 15 174 1.956 0 585 1.956 1
gene 1 174 28 -0.997555 0 586 -0.997555 1
gene 1 3 179 1.2122 0 596 1.2122 1
gene 1 179 27 3.56716 0 597 3.56716 1
gene 1 14 95 -2.26211 0 613 -2.26211 1
gene 1 179 28 -0.144658 0 662 -0.144658 1
gene 1 19 206 -0.643803 0 675 -0.643803 1
gene 1 206 28 -1.60817 0 676 -1.60817 1
gene 1 4 212 -0.69277 0 695 -0.69277 1
gene 1 212 27 0.919294 0 696 0.919294 1
genomeend 14

/* Organism #15 Fitness: 0.0194431 Error: 0 */
genomestart 15
trait 1 0 0.676962 0.784082 0.902379 0.458571 0 0.16036 0.915586 
node 1 1 1 1
node 2 1 1 1
node 3 1 1 1
node 4 1 1 1
node 5 1 1 1
node 6 1 1 1
node 7 1 1 1
node 8 1 1 1
node 9 1 1 1
node 10 1 1 1
node 11 1 1 1
node 12 1 1 1
node 13 1 1 1
node 14 1 1 1
node 15 1 1 1
node 16 1 1 1
node 17 1 1 1
node 18 1 1 1
node 19 1 1 1
node 20 1 1 1
node 21 1 1 1
node 22 1 1 1
node 23 1 1 1
node 24 1 1 1
node 25 1 1 1
node 26 1 1 3
node 27 1 0 2
node 28 1 0 2
node 36 1 0 0
node 58 1 0 0
node 95 1 0 0
node 117 1 0 0
node 125 1 0 0
node 128 1 0 0
node 174 1 0 0
node 179 1 0 0
gene 1 1 27 -2.4453 0 1 -2.4453 1
gene 1 1 28 -8 0 2 -8 1
gene 1 2 27 1.86003 0 3 1.86003 1
gene 1 2 28 -6.42331 0 4 -6.42331 1
gene 1 3 27 -4.71915 0 5 -4.71915 0
gene 1 3 28 1.81995 0 6 1.81995 1
gene 1 4 27 6.45336 0 7 6.45336 1
gene 1 4 28 2.50343 0 8 2.50343 1
gene 1 5 27 -0.483718 0 9 -0.483718 1
gene 1 5 28 -4.62081 0 10 -4.62081 1
gene 1 6 27 1.36755 0 11 1.36755 1
gene 1 6 28 -2.8296 0 12 -2.8296 1
gene 1 7 27 3.36337 0 13 3.36337 1
gene 1 7 28 2.45041 0 14 2.45041 0
gene 1 8 27 1.98088 0 15 1.98088 1
gene 1 8 28 0.79928 0 16 0.79928 1
gene 1 9 27 -0.571917 0 17 -0.571917 1
gene 1 9 28 0.174795 0 18 0.174795 1
gene 1 10 27 1.0551 0 19 1.0551 1
gene 1 10 28 0.662023 0 20 0.662023 1
gene 1 11 27 4.08956 0 21 4.08956 1
gene 1 11 28 -0.220115 0 22 -0.220115 1
gene 1 12 27 3.1325 0 23 3.1325 1
gene 1 12 28 -1.20853 0 24 -1.20853 1
gene 1 13 27 -6.06642 0 25 -6.06642 1
gene 1 13 28 -6.45102 0 26 -6.45102 1
gene 1 14 27 -1.60993 0 27 -1.60993 1
gene 1 14 28 8 0 28 8 1
gene 1 15 27 -4.55454 0 29 -4.55454 1
gene 1 15 28 6.25753 0 30 6.25753 0
gene 1 16 27 -4.08208 0 31 -4.08208 1
gene 1 16 28 -2.36663 0 32 -2.36663 1
gene 1 17 27 3.60266 0 33 3.60266 1
gene 1 17 28 4.9205 0 34 4.9205 0
gene 1 18 27 -0.736335 0 35 -0.736335 1
gene 1 18 28 4.5775 0 36 4.5775 1
gene 1 19 27 -2.83735 0 37 -2.83735 1
gene 1 19 28 -0.703986 0 38 -0.703986 1
gene 1 20 27 0.138707 0 39 0.138707 1
gene 1 20 28 -1.38501 0 40 -1.38501 1
gene 1 21 27 8 0 41 8 1
gene 1 21 28 -0.799966 0 42 -0.799966 1
gene 1 22 27 5.92557 0 43 5.92557 1
gene 1 22 28 4.42251 0 44 4.42251 1
gene 1 23 27 2.30678 0 45 2.30678 1
gene 1 23 28 -0.0659963 0 46 -0.0659963 1
gene 1 24 27 2.58538 0 47 2.58538 1
gene 1 24 28 3.10076 0 48 3.10076 1
gene 1 25 27 7.1663 0 49 7.1663 1
gene 1 25 28 -2.72042 0 50 -2.72042 1
gene 1 26 27 -2.09365 0 51 -2.09365 1
gene 1 26 28 0.405438 0 52 0.405438 1
gene 1 1 36 3.23229 0 72 3.23229 1
gene 1 36 28 -1.87994 0 73 -1.87994 1
gene 1 24 36 5.94943 0 143 5.94943 1
gene 1 20 58 -4.76366 0 148 -4.76366 1
gene 1 58 28 -1.48473 0 149 -1.48473 1
gene 1 13 36 -1.40278 0 184 -1.40278 1
gene 1 7 95 0.975753 0 287 0.975753 1
gene 1 95 28 -0.806223 0 288 -0.806223 1
gene 1 4 58 -1.76183 0 361 -1.76183 1
gene 1 11 117 -2.88106 0 377 -2.88106 1
gene 1 117 27 -0.0415052 0 378 -0.0415052 1
gene 1 18 125 0.161672 0 402 0.161672 1
gene 1 125 27 2.88141 0 403 2.88141 1
gene 1 17 128 1.19762 0 410 1.19762 1
gene 1 128 28 -3.81062 0 411 -3.81062 1
gene 1 22 58 -1.20266 0 525 -1.20266 1
gene 1 16 125 -2.13691 0 566 -2.13691 1
gene 1 15 174 -0.22042 0 585 -0.22042 1
gene 1 174 28 -0.625324 0 586 -0.625324 1
gene 1 3 179 3.03995 0 596 3.03995 1
gene 1 179 27 2.22968 0 597 2.22968 1
gene 1 14 95 -2.29647 0 613 -2.29647 1
gene 1 179 28 3.75634 0 662 3.75634 1
genomeend 15

/* Organism #16 Fitness: 0.00199273 Error: 0 */
genomestart 16
trait 1 0 0.676962 0.784082 0.902379 0.458571 0 0.16036 0.915586 
node 1 1 1 1
node 2 1 1 1
node 3 1 1 1
node 4 1 1 1
node 5 1 1 1
node 6 1 1 1
node 7 1 1 1
node 8 1 1 1
node 9 1 1 1
node 10 1 1 1
node 11 1 1 1
node 12 1 1 1
node 13 1 1 1
node 14 1 1 1
node 15 1 1 1
node 16 1 1 1
node 17 1 1 1
node 18 1 1 1
node 19 1 1 1
node 20 1 1 1
node 21 1 1 1
node 22 1 1 1
node 23 1 1 1
node 24 1 1 1
node 25 1 1 1
node 26 1 1 3
node 27 1 0 2
node 28 1 0 2
node 36 1 0 0
node 58 1 0 0
node 95 1 0 0
node 117 1 0 0
node 125 1 0 0
node 128 1 0 0
node 174 1 0 0
node 179 1 0 0
gene 1 1 27 -0.800348 0 1 -0.800348 1
gene 1 1 28 -6.04636 0 2 -6.04636 1
gene 1 2 27 3.50848 0 3 3.50848 1
gene 1 2 28 -8 0 4 -8 1
gene 1 3 27 -3.61446 0 5 -3.61446 0
gene 1 3 28 4.30073 0 6 4.30073 1
gene 1 4 27 4.76134 0 7 4.76134 1
gene 1 4 28 0.821558 0 8 0.821558 1
gene 1 5 27 1.29818 0 9 1.29818 1
gene 1 5 28 -4.71549 0 10 -4.71549 1
gene 1 6 27 1.64474 0 11 1.64474 1
gene 1 6 28 -5.00435 0 12 -5.00435 1
gene 1 7 27 1.35075 0 13 1.35075 1
gene 1 7 28 4.04553 0 14 4.04553 0
gene 1 8 27 4.1982 0 15 4.1982 1
gene 1 8 28 0.558184 0 16 0.558184 1
gene 1 9 27 -0.53148 0 17 -0.53148 1
gene 1 9 28 1.44139 0 18 1.44139 1
gene 1 10 27 -0.0840022 0 19 -0.0840022 1
gene 1 10 28 -0.551164 0 20 -0.551164 1
gene 1 11 27 5.91815 0 21 5.91815 1
gene 1 11 28 -1.41194 0 22 -1.41194 1
gene 1 12 27 0.837123 0 23 0.837123 1
gene 1 12 28 0.918531 0 24 0.918531 1
gene 1 13 27 -7.43892 0 25 -7.43892 1
gene 1 13 28 -8 0 26 -8 1
gene 1 14 27 -1.98721 0 27 -1.98721 1
gene 1 14 28 8 0 28 8 1
gene 1 15 27 -3.54225 0 29 -3.54225 1
gene 1 15 28 5.25958 0 30 5.25958 0
gene 1 16 27 -1.75481 0 31 -1.75481 1
gene 1 16 28 -0.0458541 0 32 -0.0458541 1
gene 1 17 27 5.34801 0 33 5.34801 1
gene 1 17 28 6.76634 0 34 6.76634 0
gene 1 18 27 -0.88702 0 35 -0.88702 1
gene 1 18 28 2.57152 0 36 2.57152 1
gene 1 19 27 -3.8762 0 37 -3.8762 1
gene 1 19 28 -1.21029 0 38 -1.21029 1
gene 1 20 27 -1.09081 0 39 -1.09081 1
gene 1 20 28 -1.95387 0 40 -1.95387 1
gene 1 21 27 7.35789 0 41 7.35789 1
gene 1 21 28 -0.561235 0 42 -0.561235 1
gene 1 22 27 7.05933 0 43 7.05933 1
gene 1 22 28 5.17624 0 44 5.17624 1
gene 1 23 27 4.20602 0 45 4.20602 1
gene 1 23 28 1.40942 0 46 1.40942 1
gene 1 24 27 1.15085 0 47 1.15085 1
gene 1 24 28 1.71697 0 48 1.71697 1
gene 1 25 27 8 0 49 8 1
gene 1 25 28 -4.8542 0 50 -4.8542 1
gene 1 26 27 -2.10997 0 51 -2.10997 1
gene 1 26 28 0.57947 0 52 0.57947 1
gene 1 1 36 5.33219 0 72 5.33219 1
gene 1 36 28 -2.30911 0 73 -2.30911 1
gene 1 24 36 7.3394 0 143 7.3394 1
gene 1 20 58 -6.30714 0 148 -6.30714 1
gene 1 58 28 0.532929 0 149 0.532929 1
gene 1 13 36 -1.21532 0 184 -1.21532 1
gene 1 7 95 -1.02863 0 287 -1.02863 1
gene 1 95 28 1.12148 0 288 1.12148 1
gene 1 4 58 -0.599002 0 361 -0.599002 1
gene 1 11 117 2.19565 0 377 2.19565 1
gene 1 117 27 -0.0415052 0 378 -0.0415052 1
gene 1 18 125 0.466094 0 402 0.466094 1
gene 1 125 27 2.97281 0 403 2.97281 1
gene 1 17 128 1.7101 0 410 1.7101 1
gene 1 128 28 -2.26989 0 411 -2.26989 1
gene 1 22 58 -1.20266 0 525 -1.20266 1
gene 1 16 125 -1.31794 0 566 -1.31794 1
gene 1 15 174 0.552004 0 585 0.552004 1
gene 1 174 28 -1.05983 0 586 -1.05983 1
gene 1 3 179 3.03995 0 596 3.03995 1
gene 1 179 27 4.44494 0 597 4.44494 1
gene 1 14 95 -0.0496994 0 613 -0.0496994 1
gene 1 179 28 3.75634 0 662 3.75634 1
genomeend 16

/* Species #48 : (Size 2) (AF 0) (Age 11)  */


/* Organism #17 Fitness: 0.00199423 Error: 0 */
genomestart 17
trait 1 0.0821711 0.634651 0.784082 0.902379 0.390623 0 0.471602 0.915586 
node 1 1 1 1
node 2 1 1 1
node 3 1 1 1
node 4 1 1 1
node 5 1 1 1
node 6 1 1 1
node 7 1 1 1
node 8 1 1 1
node 9 1 1 1
node 10 1 1 1
node 11 1 1 1
node 12 1 1 1
node 13 1 1 1
node 14 1 1 1
node 15 1 1 1
node 16 1 1 1
node 17 1 1 1
node 18 1 1 1
node 19 1 1 1
node 20 1 1 1
node 21 1 1 1
node 22 1 1 1
node 23 1 1 1
node 24 1 1 1
node 25 1 1 1
node 26 1 1 3
node 27 1 0 2
node 28 1 0 2
node 36 1 0 0
node 58 1 0 0
node 95 1 0 0
node 117 1 0 0
node 125 1 0 0
node 128 1 0 0
node 174 1 0 0
node 185 1 0 0
gene 1 1 27 -0.171667 0 1 -0.171667 1
gene 1 1 28 -8 0 2 -8 1
gene 1 2 27 -1.64757 0 3 -1.64757 1
gene 1 2 28 0.586413 0 4 0.586413 1
gene 1 3 27 1.80788 0 5 1.80788 1
gene 1 3 28 -6.50477 0 6 -6.50477 1
gene 1 4 27 3.77701 0 7 3.77701 1
gene 1 4 28 -0.546052 0 8 -0.546052 1
gene 1 5 27 4.85191 0 9 4.85191 1
gene 1 5 28 2.98658 0 10 2.98658 1
gene 1 6 27 0.164113 0 11 0.164113 1
gene 1 6 28 -0.355388 0 12 -0.355388 1
gene 1 7 27 2.70436 0 13 2.70436 1
gene 1 7 28 -0.496002 0 14 -0.496002 1
gene 1 8 27 -4.36524 0 15 -4.36524 1
gene 1 8 28 -2.28399 0 16 -2.28399 1
gene 1 9 27 7.09746 0 17 7.09746 1
gene 1 9 28 4.6066 0 18 4.6066 1
gene 1 10 27 -7.43754 0 19 -7.43754 1
gene 1 10 28 -8 0 20 -8 1
gene 1 11 27 0.840251 0 21 0.840251 1
gene 1 11 28 -6.3193 0 22 -6.3193 1
gene 1 12 27 2.03373 0 23 2.03373 1
gene 1 12 28 4.08428 0 24 4.08428 1
gene 1 13 27 -5.45185 0 25 -5.45185 1
gene 1 13 28 -2.68586 0 26 -2.68586 1
gene 1 14 27 -2.74773 0 27 -2.74773 1
gene 1 14 28 7.82516 0 28 7.82516 1
gene 1 15 27 0.24865 0 29 0.24865 1
gene 1 15 28 1.69301 0 30 1.69301 1
gene 1 16 27 -1.50988 0 31 -1.50988 1
gene 1 16 28 -0.31373 0 32 -0.31373 1
gene 1 17 27 -0.752384 0 33 -0.752384 1
gene 1 17 28 -1.51907 0 34 -1.51907 0
gene 1 18 27 0.149083 0 35 0.149083 1
gene 1 18 28 8 0 36 8 1
gene 1 19 27 2.72607 0 37 2.72607 1
gene 1 19 28 -4.77015 0 38 -4.77015 1
gene 1 20 27 -6.10683 0 39 -6.10683 1
gene 1 20 28 -2.01003 0 40 -2.01003 1
gene 1 21 27 2.06146 0 41 2.06146 1
gene 1 21 28 8 0 42 8 1
gene 1 22 27 3.25853 0 43 3.25853 1
gene 1 22 28 -1.10038 0 44 -1.10038 1
gene 1 23 27 1.28666 0 45 1.28666 1
gene 1 23 28 -1.76618 0 46 -1.76618 1
gene 1 24 27 2.60281 0 47 2.60281 1
gene 1 24 28 7.9631 0 48 7.9631 1
gene 1 25 27 3.57528 0 49 3.57528 1
gene 1 25 28 0.506912 0 50 0.506912 1
gene 1 26 27 3.87427 0 51 3.87427 1
gene 1 26 28 0.981094 0 52 0.981094 1
gene 1 1 36 -3.67252 0 72 -3.67252 1
gene 1 36 28 0.605602 0 73 0.605602 1
gene 1 24 36 -0.60873 0 143 -0.60873 1
gene 1 20 58 1.74387 0 148 1.74387 1
gene 1 58 28 2.60716 0 149 2.60716 1
gene 1 13 36 2.08701 0 184 2.08701 1
gene 1 7 95 0.847766 0 287 0.847766 1
gene 1 95 28 2.8617 0 288 2.8617 1
gene 1 4 58 -2.41791 0 361 -2.41791 1
gene 1 11 117 5.05562 0 377 5.05562 1
gene 1 117 27 0.330058 0 378 0.330058 1
gene 1 18 125 -0.678503 0 402 -0.678503 0
gene 1 125 27 -0.669042 0 403 -0.669042 1
gene 1 17 128 -3.88264 0 410 -3.88264 1
gene 1 128 28 -1.86254 0 411 -1.86254 1
gene 1 22 58 2.54499 0 525 2.54499 1
gene 1 16 125 -1.47 0 566 -1.47 0
gene 1 15 174 -1.37684 0 585 -1.37684 1
gene 1 174 28 2.63749 0 586 2.63749 1
gene 1 9 36 -1.77362 0 600 -1.77362 1
gene 1 16 185 -1.17939 0 614 -1.17939 1
gene 1 185 125 1.43327 0 615 1.43327 1
gene 1 12 117 1.26301 0 649 1.26301 1
gene 1 25 95 0.350475 0 668 0.350475 1
genomeend 17

/* Organism #18 Fitness: 0.293078 Error: 0 */
/* ##------$ WINNER 18 SPECIES #48 $------## */
genomestart 18
trait 1 0.0821711 0.634651 0.784082 0.902379 0.390623 0 0.471602 0.915586 
node 1 1 1 1
node 2 1 1 1
node 3 1 1 1
node 4 1 1 1
node 5 1 1 1
node 6 1 1 1
node 7 1 1 1
node 8 1 1 1
node 9 1 1 1
node 10 1 1 1
node 11 1 1 1
node 12 1 1 1
node 13 1 1 1
node 14 1 1 1
node 15 1 1 1
node 16 1 1 1
node 17 1 1 1
node 18 1 1 1
node 19 1 1 1
node 20 1 1 1
node 21 1 1 1
node 22 1 1 1
node 23 1 1 1
node 24 1 1 1
node 25 1 1 1
node 26 1 1 3
node 27 1 0 2
node 28 1 0 2
node 36 1 0 0
node 58 1 0 0
node 95 1 0 0
node 117 1 0 0
node 125 1 0 0
node 128 1 0 0
node 174 1 0 0
node 185 1 0 0
gene 1 1 27 -1.52982 0 1 -1.52982 1
gene 1 1 28 -8 0 2 -8 1
gene 1 2 27 -2.19347 0 3 -2.19347 1
gene 1 2 28 3.29157 0 4 3.29157 1
gene 1 3 27 1.36719 0 5 1.36719 1
gene 1 3 28 -4.40495 0 6 -4.40495 1
gene 1 4 27 4.89162 0 7 4.89162 1
gene 1 4 28 -1.37791 0 8 -1.37791 1
gene 1 5 27 2.24418 0 9 2.24418 1
gene 1 5 28 5.93489 0 10 5.93489 1
gene 1 6 27 3.46744 0 11 3.46744 1
gene 1 6 28 0.163121 0 12 0.163121 1
gene 1 7 27 3.68011 0 13 3.68011 1
gene 1 7 28 -1.27232 0 14 -1.27232 1
gene 1 8 27 -3.71581 0 15 -3.71581 1
gene 1 8 28 -3.19046 0 16 -3.19046 1
gene 1 9 27 3.14615 0 17 3.14615 1
gene 1 9 28 5.28731 0 18 5.28731 1
gene 1 10 27 -7.01395 0 19 -7.01395 1
gene 1 10 28 -8 0 20 -8 1
gene 1 11 27 -0.691015 0 21 -0.691015 1
gene 1 11 28 -5.52856 0 22 -5.52856 1
gene 1 12 27 3.33947 0 23 3.33947 1
gene 1 12 28 5.56709 0 24 5.56709 1
gene 1 13 27 -6.90895 0 25 -6.90895 1
gene 1 13 28 -2.14729 0 26 -2.14729 1
gene 1 14 27 -3.09359 0 27 -3.09359 1
gene 1 14 28 4.50367 0 28 4.50367 1
gene 1 15 27 1.93999 0 29 1.93999 1
gene 1 15 28 -2.71409 0 30 -2.71409 1
gene 1 16 27 0.108138 0 31 0.108138 1
gene 1 16 28 -2.81854 0 32 -2.81854 1
gene 1 17 27 1.02929 0 33 1.02929 1
gene 1 17 28 -1.74834 0 34 -1.74834 0
gene 1 18 27 3.3578 0 35 3.3578 1
gene 1 18 28 8 0 36 8 1
gene 1 19 27 0.717338 0 37 0.717338 1
gene 1 19 28 -8 0 38 -8 1
gene 1 20 27 -2.35015 0 39 -2.35015 1
gene 1 20 28 -4.04096 0 40 -4.04096 1
gene 1 21 27 5.0493 0 41 5.0493 1
gene 1 21 28 8 0 42 8 1
gene 1 22 27 5.30465 0 43 5.30465 1
gene 1 22 28 -0.20497 0 44 -0.20497 1
gene 1 23 27 1.78488 0 45 1.78488 1
gene 1 23 28 -1.94723 0 46 -1.94723 1
gene 1 24 27 2.20622 0 47 2.20622 1
gene 1 24 28 5.31692 0 48 5.31692 1
gene 1 25 27 1.53085 0 49 1.53085 1
gene 1 25 28 -1.97409 0 50 -1.97409 1
gene 1 26 27 1.69388 0 51 1.69388 1
gene 1 26 28 -1.59322 0 52 -1.59322 1
gene 1 1 36 -3.72921 0 72 -3.72921 1
gene 1 36 28 0.497948 0 73 0.497948 1
gene 1 24 36 -0.782609 0 143 -0.782609 1
gene 1 20 58 2.34226 0 148 2.34226 1
gene 1 58 28 4.93389 0 149 4.93389 1
gene 1 13 36 1.11713 0 184 1.11713 1
gene 1 7 95 -0.240524 0 287 -0.240524 1
gene 1 95 28 3.85325 0 288 3.85325 1
gene 1 4 58 -3.79658 0 361 -3.79658 1
gene 1 11 117 -0.921659 0 377 -0.921659 1
gene 1 117 27 0.330058 0 378 0.330058 1
gene 1 18 125 -1.37967 0 402 -1.37967 0
gene 1 125 27 -0.21279 0 403 -0.21279 1
gene 1 17 128 -1.17771 0 410 -1.17771 1
gene 1 128 28 -5.68468 0 411 -5.68468 1
gene 1 22 58 2.29962 0 525 2.29962 1
gene 1 16 125 2.29934 0 566 2.29934 0
gene 1 15 174 -2.36648 0 585 -2.36648 1
gene 1 174 28 0.233161 0 586 0.233161 1
gene 1 9 36 1.06597 0 600 1.06597 1
gene 1 16 185 -0.645314 0 614 -0.645314 1
gene 1 185 125 1.07544 0 615 1.07544 1
gene 1 12 117 -1.2682 0 649 -1.2682 1
gene 1 25 95 -0.0285653 0 668 -0.0285653 1
genomeend 18

/* Species #49 : (Size 26) (AF 0) (Age 7)  */


/* Organism #19 Fitness: 0.186928 Error: 0 */
/* ##------$ WINNER 19 SPECIES #49 $------## */
genomestart 19
trait 1 0.10485 0.541496 0.760388 0.695964 0.593928 0.0795694 0.155348 0.89388 
node 1 1 1 1
node 2 1 1 1
node 3 1 1 1
node 4 1 1 1
node 5 1 1 1
node 6 1 1 1
node 7 1 1 1
node 8 1 1 1
node 9 1 1 1
node 10 1 1 1
node 11 1 1 1
node 12 1 1 1
node 13 1 1 1
node 14 1 1 1
node 15 1 1 1
node 16 1 1 1
node 17 1 1 1
node 18 1 1 1
node 19 1 1 1
node 20 1 1 1
node 21 1 1 1
node 22 1 1 1
node 23 1 1 1
node 24 1 1 1
node 25 1 1 1
node 26 1 1 3
node 27 1 0 2
node 28 1 0 2
node 36 1 0 0
node 58 1 0 0
node 95 1 0 0
node 117 1 0 0
node 125 1 0 0
node 128 1 0 0
node 174 1 0 0
node 195 1 0 0
node 205 1 0 0
node 209 1 0 0
gene 1 1 27 -3.24606 0 1 -3.24606 1
gene 1 1 28 -4.63515 0 2 -4.63515 1
gene 1 2 27 6.8305 0 3 6.8305 1
gene 1 2 28 0.728401 0 4 0.728401 1
gene 1 3 27 1.61397 0 5 1.61397 1
gene 1 3 28 1.53821 0 6 1.53821 1
gene 1 4 27 1.25076 0 7 1.25076 1
gene 1 4 28 -0.933409 0 8 -0.933409 1
gene 1 5 27 -1.88896 0 9 -1.88896 1
gene 1 5 28 8 0 10 8 1
gene 1 6 27 2.56869 0 11 2.56869 1
gene 1 6 28 -0.750298 0 12 -0.750298 1
gene 1 7 27 0.791345 0 13 0.791345 1
gene 1 7 28 -1.48564 0 14 -1.48564 0
gene 1 8 27 -0.457633 0 15 -0.457633 1
gene 1 8 28 -5.37458 0 16 -5.37458 1
gene 1 9 27 -0.0950652 0 17 -0.0950652 1
gene 1 9 28 2.1527 0 18 2.1527 1
gene 1 10 27 1.12533 0 19 1.12533 1
gene 1 10 28 0.732215 0 20 0.732215 1
gene 1 11 27 5.82209 0 21 5.82209 1
gene 1 11 28 1.11255 0 22 1.11255 1
gene 1 12 27 -3.73136 0 23 -3.73136 0
gene 1 12 28 0.533464 0 24 0.533464 1
gene 1 13 27 -1.73551 0 25 -1.73551 0
gene 1 13 28 -1.72636 0 26 -1.72636 1
gene 1 14 27 3.7558 0 27 3.7558 1
gene 1 14 28 2.42706 0 28 2.42706 1
gene 1 15 27 -2.24055 0 29 -2.24055 1
gene 1 15 28 6.00675 0 30 6.00675 0
gene 1 16 27 0.266822 0 31 0.266822 1
gene 1 16 28 -4.9414 0 32 -4.9414 1
gene 1 17 27 2.18566 0 33 2.18566 0
gene 1 17 28 -7.30369 0 34 -7.30369 0
gene 1 18 27 -0.296239 0 35 -0.296239 1
gene 1 18 28 8 0 36 8 1
gene 1 19 27 -4.44266 0 37 -4.44266 0
gene 1 19 28 -4.04762 0 38 -4.04762 1
gene 1 20 27 -2.0064 0 39 -2.0064 1
gene 1 20 28 0.689566 0 40 0.689566 1
gene 1 21 27 3.30397 0 41 3.30397 1
gene 1 21 28 5.23188 0 42 5.23188 1
gene 1 22 27 8 0 43 8 1
gene 1 22 28 0.730651 0 44 0.730651 1
gene 1 23 27 6.53611 0 45 6.53611 1
gene 1 23 28 -1.42079 0 46 -1.42079 1
gene 1 24 27 5.56371 0 47 5.56371 1
gene 1 24 28 -1.53371 0 48 -1.53371 1
gene 1 25 27 1.1746 0 49 1.1746 1
gene 1 25 28 3.67817 0 50 3.67817 1
gene 1 26 27 5.21961 0 51 5.21961 1
gene 1 26 28 -1.47391 0 52 -1.47391 1
gene 1 1 36 -6.59371 0 72 -6.59371 1
gene 1 36 28 5.05924 0 73 5.05924 1
gene 1 24 36 -0.814119 0 143 -0.814119 1
gene 1 20 58 -3.99567 0 148 -3.99567 1
gene 1 58 28 0.734432 0 149 0.734432 1
gene 1 13 36 -1.84065 0 184 -1.84065 1
gene 1 7 95 -1.10393 0 287 -1.10393 1
gene 1 95 28 -1.49564 0 288 -1.49564 1
gene 1 4 58 -0.0302896 0 361 -0.0302896 1
gene 1 11 117 -0.0799585 0 377 -0.0799585 1
gene 1 117 27 -2.6384 0 378 -2.6384 1
gene 1 18 125 -1.6615 0 402 -1.6615 1
gene 1 125 27 4.08704 0 403 4.08704 1
gene 1 17 128 1.80876 0 410 1.80876 1
gene 1 128 28 1.79502 0 411 1.79502 1
gene 1 22 58 -2.88186 0 525 -2.88186 1
gene 1 16 125 1.40515 0 566 1.40515 0
gene 1 15 174 1.95471 0 585 1.95471 1
gene 1 174 28 1.93634 0 586 1.93634 1
gene 1 16 195 0.974364 0 644 0.974364 1
gene 1 195 125 0.481506 0 645 0.481506 1
gene 1 4 128 -0.783593 0 652 -0.783593 1
gene 1 19 205 -0.970885 0 673 -0.970885 1
gene 1 205 27 -3.34597 0 674 -3.34597 1
gene 1 24 128 0.847652 0 681 0.847652 1
gene 1 17 209 2.28033 0 686 2.28033 1
gene 1 209 27 2.24737 0 687 2.24737 1
genomeend 19

/* Organism #20 Fitness: 0.00199415 Error: 0 */
genomestart 20
trait 1 0.10485 0.541496 0.760388 0.695964 0.593928 0.0795694 0.155348 0.89388 
node 1 1 1 1
node 2 1 1 1
node 3 1 1 1
node 4 1 1 1
node 5 1 1 1
node 6 1 1 1
node 7 1 1 1
node 8 1 1 1
node 9 1 1 1
node 10 1 1 1
node 11 1 1 1
node 12 1 1 1
node 13 1 1 1
node 14 1 1 1
node 15 1 1 1
node 16 1 1 1
node 17 1 1 1
node 18 1 1 1
node 19 1 1 1
node 20 1 1 1
node 21 1 1 1
node 22 1 1 1
node 23 1 1 1
node 24 1 1 1
node 25 1 1 1
node 26 1 1 3
node 27 1 0 2
node 28 1 0 2
node 36 1 0 0
node 58 1 0 0
node 95 1 0 0
node 117 1 0 0
node 125 1 0 0
node 128 1 0 0
node 174 1 0 0
node 195 1 0 0
node 205 1 0 0
node 209 1 0 0
gene 1 1 27 -3.24606 0 1 -3.24606 1
gene 1 1 28 -4.63515 0 2 -4.63515 1
gene 1 2 27 6.8305 0 3 6.8305 1
gene 1 2 28 0.728401 0 4 0.728401 1
gene 1 3 27 1.61397 0 5 1.61397 1
gene 1 3 28 1.53821 0 6 1.53821 1
gene 1 4 27 1.25076 0 7 1.25076 1
gene 1 4 28 -0.933409 0 8 -0.933409 1
gene 1 5 27 -1.88896 0 9 -1.88896 1
gene 1 5 28 8 0 10 8 1
gene 1 6 27 2.56869 0 11 2.56869 1
gene 1 6 28 -0.750298 0 12 -0.750298 1
gene 1 7 27 0.791345 0 13 0.791345 1
gene 1 7 28 -1.48564 0 14 -1.48564 0
gene 1 8 27 -0.457633 0 15 -0.457633 1
gene 1 8 28 -5.37458 0 16 -5.37458 1
gene 1 9 27 -0.0950652 0 17 -0.0950652 1
gene 1 9 28 2.1527 0 18 2.1527 1
gene 1 10 27 1.12533 0 19 1.12533 1
gene 1 10 28 0.732215 0 20 0.732215 1
gene 1 11 27 5.82209 0 21 5.82209 1
gene 1 11 28 1.11255 0 22 1.11255 1
gene 1 12 27 -3.73136 0 23 -3.73136 0
gene 1 12 28 0.533464 0 24 0.533464 1
gene 1 13 27 -1.73551 0 25 -1.73551 0
gene 1 13 28 -1.72636 0 26 -1.72636 1
gene 1 14 27 3.7558 0 27 3.7558 1
gene 1 14 28 2.42706 0 28 2.42706 1
gene 1 15 27 -2.24055 0 29 -2.24055 1
gene 1 15 28 6.00675 0 30 6.00675 0
gene 1 16 27 0.266822 0 31 0.266822 1
gene 1 16 28 -4.9414 0 32 -4.9414 1
gene 1 17 27 2.18566 0 33 2.18566 0
gene 1 17 28 -7.30369 0 34 -7.30369 0
gene 1 18 27 -0.296239 0 35 -0.296239 1
gene 1 18 28 8 0 36 8 1
gene 1 19 27 -4.44266 0 37 -4.44266 0
gene 1 19 28 -4.04762 0 38 -4.04762 1
gene 1 20 27 -2.0064 0 39 -2.0064 1
gene 1 20 28 0.689566 0 40 0.689566 1
gene 1 21 27 3.30397 0 41 3.30397 1
gene 1 21 28 5.23188 0 42 5.23188 1
gene 1 22 27 8 0 43 8 1
gene 1 22 28 0.730651 0 44 0.730651 1
gene 1 23 27 6.53611 0 45 6.53611 1
gene 1 23 28 -1.42079 0 46 -1.42079 1
gene 1 24 27 5.56371 0 47 5.56371 1
gene 1 24 28 -1.53371 0 48 -1.53371 1
gene 1 25 27 1.1746 0 49 1.1746 1
gene 1 25 28 3.67817 0 50 3.67817 1
gene 1 26 27 5.21961 0 51 5.21961 1
gene 1 26 28 -1.47391 0 52 -1.47391 1
gene 1 1 36 -6.59371 0 72 -6.59371 1
gene 1 36 28 5.05924 0 73 5.05924 1
gene 1 24 36 -0.814119 0 143 -0.814119 1
gene 1 20 58 -3.99567 0 148 -3.99567 1
gene 1 58 28 0.734432 0 149 0.734432 1
gene 1 13 36 -1.84065 0 184 -1.84065 1
gene 1 7 95 -1.10393 0 287 -1.10393 1
gene 1 95 28 -1.49564 0 288 -1.49564 1
gene 1 4 58 -0.0302896 0 361 -0.0302896 1
gene 1 11 117 -0.0799585 0 377 -0.0799585 1
gene 1 117 27 -2.6384 0 378 -2.6384 1
gene 1 18 125 -1.6615 0 402 -1.6615 1
gene 1 125 27 4.08704 0 403 4.08704 1
gene 1 17 128 1.80876 0 410 1.80876 1
gene 1 128 28 1.79502 0 411 1.79502 1
gene 1 22 58 -2.88186 0 525 -2.88186 1
gene 1 16 125 1.40515 0 566 1.40515 0
gene 1 15 174 1.95471 0 585 1.95471 1
gene 1 174 28 1.93634 0 586 1.93634 1
gene 1 16 195 0.974364 0 644 0.974364 1
gene 1 195 125 0.481506 0 645 0.481506 1
gene 1 4 128 -0.783593 0 652 -0.783593 1
gene 1 19 205 -0.970885 0 673 -0.970885 1
gene 1 205 27 -3.34597 0 674 -3.34597 1
gene 1 24 128 0.847652 0 681 0.847652 1
gene 1 17 209 2.28033 0 686 2.28033 1
gene 1 209 27 2.24737 0 687 2.24737 1
gene 1 21 125 -0.613147 0 706 -0.613147 1
genomeend 20

/* Organism #21 Fitness: 0.00199404 Error: 0 */
genomestart 21
trait 1 0.10485 0.541496 0.760388 0.695964 0.593928 0.0795694 0.155348 0.89388 
node 1 1 1 1
node 2 1 1 1
node 3 1 1 1
node 4 1 1 1
node 5 1 1 1
node 6 1 1 1
node 7 1 1 1
node 8 1 1 1
node 9 1 1 1
node 10 1 1 1
node 11 1 1 1
node 12 1 1 1
node 13 1 1 1
node 14 1 1 1
node 15 1 1 1
node 16 1 1 1
node 17 1 1 1
node 18 1 1 1
node 19 1 1 1
node 20 1 1 1
node 21 1 1 1
node 22 1 1 1
node 23 1 1 1
node 24 1 1 1
node 25 1 1 1
node 26 1 1 3
node 27 1 0 2
node 28 1 0 2
node 36 1 0 0
node 58 1 0 0
node 95 1 0 0
node 117 1 0 0
node 125 1 0 0
node 128 1 0 0
node 174 1 0 0
node 195 1 0 0
node 205 1 0 0
node 209 1 0 0
gene 1 1 27 -3.34227 0 1 -3.34227 1
gene 1 1 28 -2.93168 0 2 -2.93168 1
gene 1 2 27 4.92775 0 3 4.92775 1
gene 1 2 28 1.50082 0 4 1.50082 1
gene 1 3 27 0.893277 0 5 0.893277 1
gene 1 3 28 1.68035 0 6 1.68035 1
gene 1 4 27 0.422182 0 7 0.422182 1
gene 1 4 28 1.09256 0 8 1.09256 1
gene 1 5 27 -2.16599 0 9 -2.16599 1
gene 1 5 28 7.55878 0 10 7.55878 1
gene 1 6 27 4.60023 0 11 4.60023 1
gene 1 6 28 0.50882 0 12 0.50882 1
gene 1 7 27 1.21883 0 13 1.21883 1
gene 1 7 28 -1.55065 0 14 -1.55065 0
gene 1 8 27 -0.0196928 0 15 -0.0196928 1
gene 1 8 28 -5.70784 0 16 -5.70784 1
gene 1 9 27 2.15842 0 17 2.15842 1
gene 1 9 28 4.06529 0 18 4.06529 1
gene 1 10 27 -0.0493255 0 19 -0.0493255 1
gene 1 10 28 3.0578 0 20 3.0578 1
gene 1 11 27 5.50447 0 21 5.50447 1
gene 1 11 28 0.23278 0 22 0.23278 1
gene 1 12 27 -2.6002 0 23 -2.6002 0
gene 1 12 28 1.12491 0 24 1.12491 1
gene 1 13 27 -0.00869778 0 25 -0.00869778 0
gene 1 13 28 -1.30413 0 26 -1.30413 1
gene 1 14 27 4.27767 0 27 4.27767 1
gene 1 14 28 2.09975 0 28 2.09975 1
gene 1 15 27 -2.43465 0 29 -2.43465 1
gene 1 15 28 7.62438 0 30 7.62438 0
gene 1 16 27 2.21612 0 31 2.21612 1
gene 1 16 28 -5.07416 0 32 -5.07416 1
gene 1 17 27 2.28721 0 33 2.28721 0
gene 1 17 28 -5.07546 0 34 -5.07546 0
gene 1 18 27 1.66961 0 35 1.66961 1
gene 1 18 28 6.92674 0 36 6.92674 1
gene 1 19 27 -3.87989 0 37 -3.87989 0
gene 1 19 28 -3.28451 0 38 -3.28451 1
gene 1 20 27 -2.14305 0 39 -2.14305 1
gene 1 20 28 -0.0528733 0 40 -0.0528733 1
gene 1 21 27 1.31867 0 41 1.31867 1
gene 1 21 28 5.77328 0 42 5.77328 1
gene 1 22 27 8 0 43 8 1
gene 1 22 28 3.0557 0 44 3.0557 1
gene 1 23 27 6.40328 0 45 6.40328 1
gene 1 23 28 -2.67479 0 46 -2.67479 1
gene 1 24 27 4.42301 0 47 4.42301 1
gene 1 24 28 -2.69257 0 48 -2.69257 1
gene 1 25 27 0.986148 0 49 0.986148 1
gene 1 25 28 4.20438 0 50 4.20438 1
gene 1 26 27 2.98932 0 51 2.98932 1
gene 1 26 28 -0.176182 0 52 -0.176182 1
gene 1 1 36 -7.41023 0 72 -7.41023 1
gene 1 36 28 4.57842 0 73 4.57842 1
gene 1 24 36 -1.92598 0 143 -1.92598 1
gene 1 20 58 -1.92209 0 148 -1.92209 1
gene 1 58 28 0.00931196 0 149 0.00931196 1
gene 1 13 36 -3.64063 0 184 -3.64063 1
gene 1 7 95 -1.9557 0 287 -1.9557 1
gene 1 95 28 -3.65497 0 288 -3.65497 1
gene 1 4 58 0.198752 0 361 0.198752 1
gene 1 11 117 0.207678 0 377 0.207678 1
gene 1 117 27 -4.54222 0 378 -4.54222 1
gene 1 18 125 -2.79267 0 402 -2.79267 1
gene 1 125 27 4.08704 0 403 4.08704 1
gene 1 17 128 1.80876 0 410 1.80876 1
gene 1 128 28 2.36206 0 411 2.36206 1
gene 1 22 58 -2.88186 0 525 -2.88186 1
gene 1 16 125 -0.489212 0 566 -0.489212 0
gene 1 15 174 1.76885 0 585 1.76885 1
gene 1 174 28 1.52997 0 586 1.52997 1
gene 1 16 195 0.974364 0 644 0.974364 1
gene 1 195 125 -1.0184 0 645 -1.0184 1
gene 1 4 128 -0.783593 0 652 -0.783593 1
gene 1 19 205 0.842158 0 673 0.842158 1
gene 1 205 27 -1.97661 0 674 -1.97661 1
gene 1 24 128 0.510193 0 681 0.510193 1
gene 1 17 209 0.923475 0 686 0.923475 1
gene 1 209 27 1.54789 0 687 1.54789 1
genomeend 21

/* Organism #22 Fitness: 0.00199532 Error: 0 */
genomestart 22
trait 1 0.10485 0.541496 0.760388 0.695964 0.593928 0.0795694 0.155348 0.89388 
node 1 1 1 1
node 2 1 1 1
node 3 1 1 1
node 4 1 1 1
node 5 1 1 1
node 6 1 1 1
node 7 1 1 1
node 8 1 1 1
node 9 1 1 1
node 10 1 1 1
node 11 1 1 1
node 12 1 1 1
node 13 1 1 1
node 14 1 1 1
node 15 1 1 1
node 16 1 1 1
node 17 1 1 1
node 18 1 1 1
node 19 1 1 1
node 20 1 1 1
node 21 1 1 1
node 22 1 1 1
node 23 1 1 1
node 24 1 1 1
node 25 1 1 1
node 26 1 1 3
node 27 1 0 2
node 28 1 0 2
node 36 1 0 0
node 58 1 0 0
node 95 1 0 0
node 117 1 0 0
node 125 1 0 0
node 128 1 0 0
node 174 1 0 0
node 195 1 0 0
node 205 1 0 0
node 209 1 0 0
gene 1 1 27 -5.21924 0 1 -5.21924 1
gene 1 1 28 -7.07961 0 2 -7.07961 1
gene 1 2 27 4.55275 0 3 4.55275 1
gene 1 2 28 0.728401 0 4 0.728401 1
gene 1 3 27 1.90619 0 5 1.90619 1
gene 1 3 28 1.13536 0 6 1.13536 1
gene 1 4 27 -0.641804 0 7 -0.641804 1
gene 1 4 28 1.12239 0 8 1.12239 1
gene 1 5 27 -1.88896 0 9 -1.88896 1
gene 1 5 28 0.230949 0 10 0.230949 1
gene 1 6 27 2.56869 0 11 2.56869 1
gene 1 6 28 0.0372326 0 12 0.0372326 1
gene 1 7 27 -2.15751 0 13 -2.15751 1
gene 1 7 28 0.845439 0 14 0.845439 0
gene 1 8 27 0.448614 0 15 0.448614 1
gene 1 8 28 -4.88613 0 16 -4.88613 1
gene 1 9 27 -0.794855 0 17 -0.794855 1
gene 1 9 28 0.709326 0 18 0.709326 1
gene 1 10 27 2.35515 0 19 2.35515 1
gene 1 10 28 2.8177 0 20 2.8177 1
gene 1 11 27 2.45659 0 21 2.45659 1
gene 1 11 28 -0.025483 0 22 -0.025483 1
gene 1 12 27 -0.902966 0 23 -0.902966 0
gene 1 12 28 0.490051 0 24 0.490051 1
gene 1 13 27 0.832011 0 25 0.832011 0
gene 1 13 28 -0.426801 0 26 -0.426801 1
gene 1 14 27 -0.741371 0 27 -0.741371 1
gene 1 14 28 0.654241 0 28 0.654241 1
gene 1 15 27 -2.52247 0 29 -2.52247 1
gene 1 15 28 6.90727 0 30 6.90727 0
gene 1 16 27 0.266822 0 31 0.266822 1
gene 1 16 28 -3.16675 0 32 -3.16675 1
gene 1 17 27 4.62333 0 33 4.62333 0
gene 1 17 28 -6.83699 0 34 -6.83699 0
gene 1 18 27 2.44682 0 35 2.44682 1
gene 1 18 28 8 0 36 8 1
gene 1 19 27 -2.38357 0 37 -2.38357 0
gene 1 19 28 -5.70493 0 38 -5.70493 1
gene 1 20 27 2.1115 0 39 2.1115 1
gene 1 20 28 1.50426 0 40 1.50426 1
gene 1 21 27 3.30397 0 41 3.30397 1
gene 1 21 28 5.10165 0 42 5.10165 1
gene 1 22 27 5.87156 0 43 5.87156 1
gene 1 22 28 2.01983 0 44 2.01983 1
gene 1 23 27 -1.0287 0 45 -1.0287 1
gene 1 23 28 0.195776 0 46 0.195776 1
gene 1 24 27 5.56371 0 47 5.56371 1
gene 1 24 28 0.779595 0 48 0.779595 1
gene 1 25 27 1.33696 0 49 1.33696 1
gene 1 25 28 1.30421 0 50 1.30421 1
gene 1 26 27 2.23998 0 51 2.23998 1
gene 1 26 28 -0.373928 0 52 -0.373928 1
gene 1 1 36 -6.59371 0 72 -6.59371 1
gene 1 36 28 3.61671 0 73 3.61671 1
gene 1 24 36 -0.512673 0 143 -0.512673 1
gene 1 20 58 -6.33957 0 148 -6.33957 1
gene 1 58 28 0.734432 0 149 0.734432 1
gene 1 13 36 -0.96675 0 184 -0.96675 1
gene 1 7 95 -1.78991 0 287 -1.78991 1
gene 1 95 28 -1.49564 0 288 -1.49564 1
gene 1 4 58 0.388806 0 361 0.388806 1
gene 1 11 117 1.35586 0 377 1.35586 1
gene 1 117 27 1.02176 0 378 1.02176 1
gene 1 18 125 -1.6615 0 402 -1.6615 1
gene 1 125 27 5.21897 0 403 5.21897 1
gene 1 17 128 -0.0955229 0 410 -0.0955229 1
gene 1 128 28 1.16367 0 411 1.16367 1
gene 1 22 58 -2.00217 0 525 -2.00217 1
gene 1 16 125 0.289239 0 566 0.289239 0
gene 1 15 174 2.99951 0 585 2.99951 1
gene 1 174 28 2.296 0 586 2.296 1
gene 1 16 195 1.94937 0 644 1.94937 1
gene 1 195 125 -1.01199 0 645 -1.01199 1
gene 1 4 128 -0.128361 0 652 -0.128361 1
gene 1 19 205 -1.03772 0 673 -1.03772 1
gene 1 205 27 2.3632 0 674 2.3632 1
gene 1 24 128 2.80747 0 681 2.80747 1
gene 1 17 209 2.39074 0 686 2.39074 1
gene 1 209 27 4.27304 0 687 4.27304 1
genomeend 22

/* Organism #23 Fitness: 0.00197337 Error: 0 */
genomestart 23
trait 1 0.10485 0.541496 0.760388 0.695964 0.593928 0.0795694 0.155348 0.89388 
node 1 1 1 1
node 2 1 1 1
node 3 1 1 1
node 4 1 1 1
node 5 1 1 1
node 6 1 1 1
node 7 1 1 1
node 8 1 1 1
node 9 1 1 1
node 10 1 1 1
node 11 1 1 1
node 12 1 1 1
node 13 1 1 1
node 14 1 1 1
node 15 1 1 1
node 16 1 1 1
node 17 1 1 1
node 18 1 1 1
node 19 1 1 1
node 20 1 1 1
node 21 1 1 1
node 22 1 1 1
node 23 1 1 1
node 24 1 1 1
node 25 1 1 1
node 26 1 1 3
node 27 1 0 2
node 28 1 0 2
node 36 1 0 0
node 58 1 0 0
node 95 1 0 0
node 117 1 0 0
node 125 1 0 0
node 128 1 0 0
node 174 1 0 0
node 195 1 0 0
node 205 1 0 0
node 209 1 0 0
gene 1 1 27 -3.24606 0 1 -3.24606 1
gene 1 1 28 -3.63865 0 2 -3.63865 1
gene 1 2 27 6.8305 0 3 6.8305 1
gene 1 2 28 1.22883 0 4 1.22883 1
gene 1 3 27 -1.81715 0 5 -1.81715 1
gene 1 3 28 0.495392 0 6 0.495392 1
gene 1 4 27 1.35948 0 7 1.35948 1
gene 1 4 28 -2.43553 0 8 -2.43553 1
gene 1 5 27 -0.444884 0 9 -0.444884 1
gene 1 5 28 8 0 10 8 1
gene 1 6 27 2.36841 0 11 2.36841 1
gene 1 6 28 1.69828 0 12 1.69828 1
gene 1 7 27 0.873516 0 13 0.873516 1
gene 1 7 28 -2.91849 0 14 -2.91849 0
gene 1 8 27 -1.1919 0 15 -1.1919 1
gene 1 8 28 2.14766 0 16 2.14766 1
gene 1 9 27 0.944929 0 17 0.944929 1
gene 1 9 28 0.482116 0 18 0.482116 1
gene 1 10 27 2.92371 0 19 2.92371 1
gene 1 10 28 -1.32916 0 20 -1.32916 1
gene 1 11 27 -0.782495 0 21 -0.782495 1
gene 1 11 28 1.54263 0 22 1.54263 1
gene 1 12 27 -4.95096 0 23 -4.95096 0
gene 1 12 28 0.533464 0 24 0.533464 1
gene 1 13 27 -4.02646 0 25 -4.02646 0
gene 1 13 28 -2.93786 0 26 -2.93786 1
gene 1 14 27 3.7558 0 27 3.7558 1
gene 1 14 28 1.42453 0 28 1.42453 1
gene 1 15 27 -4.47016 0 29 -4.47016 1
gene 1 15 28 6.00675 0 30 6.00675 0
gene 1 16 27 1.3422 0 31 1.3422 1
gene 1 16 28 -6.3667 0 32 -6.3667 1
gene 1 17 27 -0.29191 0 33 -0.29191 0
gene 1 17 28 -5.71818 0 34 -5.71818 0
gene 1 18 27 -0.136933 0 35 -0.136933 1
gene 1 18 28 2.48215 0 36 2.48215 1
gene 1 19 27 -2.01125 0 37 -2.01125 0
gene 1 19 28 -6.48682 0 38 -6.48682 1
gene 1 20 27 0.0946455 0 39 0.0946455 1
gene 1 20 28 0.689566 0 40 0.689566 1
gene 1 21 27 0.0405896 0 41 0.0405896 1
gene 1 21 28 4.85139 0 42 4.85139 1
gene 1 22 27 -0.785852 0 43 -0.785852 1
gene 1 22 28 -0.851428 0 44 -0.851428 1
gene 1 23 27 8 0 45 8 1
gene 1 23 28 0.473495 0 46 0.473495 1
gene 1 24 27 4.13697 0 47 4.13697 1
gene 1 24 28 -2.38937 0 48 -2.38937 1
gene 1 25 27 -0.958872 0 49 -0.958872 1
gene 1 25 28 1.47153 0 50 1.47153 1
gene 1 26 27 3.0383 0 51 3.0383 1
gene 1 26 28 -3.85 0 52 -3.85 1
gene 1 1 36 -6.59371 0 72 -6.59371 1
gene 1 36 28 3.32923 0 73 3.32923 1
gene 1 24 36 0.885609 0 143 0.885609 1
gene 1 20 58 -1.6208 0 148 -1.6208 1
gene 1 58 28 2.39937 0 149 2.39937 1
gene 1 13 36 -0.889462 0 184 -0.889462 1
gene 1 7 95 0.123524 0 287 0.123524 1
gene 1 95 28 -1.49564 0 288 -1.49564 1
gene 1 4 58 0.518967 0 361 0.518967 1
gene 1 11 117 1.10202 0 377 1.10202 1
gene 1 117 27 -3.51161 0 378 -3.51161 1
gene 1 18 125 0.15801 0 402 0.15801 1
gene 1 125 27 3.0858 0 403 3.0858 1
gene 1 17 128 4.1567 0 410 4.1567 1
gene 1 128 28 0.893506 0 411 0.893506 1
gene 1 22 58 -2.88186 0 525 -2.88186 1
gene 1 16 125 2.08563 0 566 2.08563 0
gene 1 15 174 0.233161 0 585 0.233161 1
gene 1 174 28 2.09511 0 586 2.09511 1
gene 1 16 195 0.974364 0 644 0.974364 1
gene 1 195 125 -1.74787 0 645 -1.74787 1
gene 1 4 128 -2.64072 0 652 -2.64072 1
gene 1 19 205 1.52194 0 673 1.52194 1
gene 1 205 27 1.69324 0 674 1.69324 1
gene 1 24 128 1.27201 0 681 1.27201 1
gene 1 17 209 3.68136 0 686 3.68136 1
gene 1 209 27 2.24737 0 687 2.24737 1
genomeend 23

/* Organism #24 Fitness: 0.00197337 Error: 0 */
genomestart 24
trait 1 0.10485 0.541496 0.760388 0.695964 0.593928 0.0795694 0.155348 0.89388 
node 1 1 1 1
node 2 1 1 1
node 3 1 1 1
node 4 1 1 1
node 5 1 1 1
node 6 1 1 1
node 7 1 1 1
node 8 1 1 1
node 9 1 1 1
node 10 1 1 1
node 11 1 1 1
node 12 1 1 1
node 13 1 1 1
node 14 1 1 1
node 15 1 1 1
node 16 1 1 1
node 17 1 1 1
node 18 1 1 1
node 19 1 1 1
node 20 1 1 1
node 21 1 1 1
node 22 1 1 1
node 23 1 1 1
node 24 1 1 1
node 25 1 1 1
node 26 1 1 3
node 27 1 0 2
node 28 1 0 2
node 36 1 0 0
node 58 1 0 0
node 95 1 0 0
node 117 1 0 0
node 125 1 0 0
node 128 1 0 0
node 174 1 0 0
node 195 1 0 0
node 205 1 0 0
node 209 1 0 0
gene 1 1 27 -3.24606 0 1 -3.24606 1
gene 1 1 28 -4.08887 0 2 -4.08887 1
gene 1 2 27 6.517 0 3 6.517 1
gene 1 2 28 -1.28697 0 4 -1.28697 1
gene 1 3 27 3.25068 0 5 3.25068 1
gene 1 3 28 0.388882 0 6 0.388882 1
gene 1 4 27 1.25076 0 7 1.25076 1
gene 1 4 28 -1.90146 0 8 -1.90146 1
gene 1 5 27 -2.44539 0 9 -2.44539 1
gene 1 5 28 7.46509 0 10 7.46509 1
gene 1 6 27 -2.22236 0 11 -2.22236 1
gene 1 6 28 1.30726 0 12 1.30726 1
gene 1 7 27 -2.3146 0 13 -2.3146 1
gene 1 7 28 -0.26986 0 14 -0.26986 0
gene 1 8 27 1.59092 0 15 1.59092 1
gene 1 8 28 -4.11477 0 16 -4.11477 1
gene 1 9 27 1.41629 0 17 1.41629 1
gene 1 9 28 0.499588 0 18 0.499588 1
gene 1 10 27 0.69586 0 19 0.69586 1
gene 1 10 28 2.11409 0 20 2.11409 1
gene 1 11 27 7.63062 0 21 7.63062 1
gene 1 11 28 3.04849 0 22 3.04849 1
gene 1 12 27 0.237205 0 23 0.237205 0
gene 1 12 28 0.533464 0 24 0.533464 1
gene 1 13 27 -2.02345 0 25 -2.02345 0
gene 1 13 28 -1.80502 0 26 -1.80502 1
gene 1 14 27 3.7558 0 27 3.7558 1
gene 1 14 28 -0.879162 0 28 -0.879162 1
gene 1 15 27 -2.2626 0 29 -2.2626 1
gene 1 15 28 4.04143 0 30 4.04143 0
gene 1 16 27 2.01546 0 31 2.01546 1
gene 1 16 28 -2.51152 0 32 -2.51152 1
gene 1 17 27 0.0421155 0 33 0.0421155 0
gene 1 17 28 -8 0 34 -8 0
gene 1 18 27 0.627689 0 35 0.627689 1
gene 1 18 28 -2.48306 0 36 -2.48306 1
gene 1 19 27 -6.58383 0 37 -6.58383 0
gene 1 19 28 -4.78938 0 38 -4.78938 1
gene 1 20 27 -2.41939 0 39 -2.41939 1
gene 1 20 28 3.13593 0 40 3.13593 1
gene 1 21 27 0.928488 0 41 0.928488 1
gene 1 21 28 4.68438 0 42 4.68438 1
gene 1 22 27 1.26316 0 43 1.26316 1
gene 1 22 28 -1.39817 0 44 -1.39817 1
gene 1 23 27 5.29492 0 45 5.29492 1
gene 1 23 28 -1.10652 0 46 -1.10652 1
gene 1 24 27 6.59753 0 47 6.59753 1
gene 1 24 28 -3.31767 0 48 -3.31767 1
gene 1 25 27 3.23971 0 49 3.23971 1
gene 1 25 28 1.82318 0 50 1.82318 1
gene 1 26 27 7.32669 0 51 7.32669 1
gene 1 26 28 -1.9989 0 52 -1.9989 1
gene 1 1 36 -8 0 72 -8 1
gene 1 36 28 3.24988 0 73 3.24988 1
gene 1 24 36 1.76092 0 143 1.76092 1
gene 1 20 58 -5.65489 0 148 -5.65489 1
gene 1 58 28 -1.85125 0 149 -1.85125 1
gene 1 13 36 -3.03568 0 184 -3.03568 1
gene 1 7 95 -3.04247 0 287 -3.04247 1
gene 1 95 28 -1.49564 0 288 -1.49564 1
gene 1 4 58 -1.24691 0 361 -1.24691 1
gene 1 11 117 -0.735496 0 377 -0.735496 1
gene 1 117 27 -3.16408 0 378 -3.16408 1
gene 1 18 125 1.36776 0 402 1.36776 1
gene 1 125 27 3.90759 0 403 3.90759 1
gene 1 17 128 -1.19022 0 410 -1.19022 1
gene 1 128 28 2.49725 0 411 2.49725 1
gene 1 22 58 -0.795694 0 525 -0.795694 1
gene 1 16 125 1.93869 0 566 1.93869 0
gene 1 15 174 4.07521 0 585 4.07521 1
gene 1 174 28 -0.539644 0 586 -0.539644 1
gene 1 16 195 3.31109 0 644 3.31109 1
gene 1 195 125 1.85972 0 645 1.85972 1
gene 1 4 128 -0.597812 0 652 -0.597812 1
gene 1 19 205 -1.98349 0 673 -1.98349 1
gene 1 205 27 -3.34597 0 674 -3.34597 1
gene 1 24 128 3.21413 0 681 3.21413 1
gene 1 17 209 4.44111 0 686 4.44111 1
gene 1 209 27 -0.107284 0 687 -0.107284 1
genomeend 24

/* Organism #25 Fitness: 0.208688 Error: 0 */
/* ##------$ WINNER 25 SPECIES #49 $------## */
genomestart 25
trait 1 0.10485 0.541496 0.760388 0.695964 0.593928 0.0795694 0.155348 0.89388 
node 1 1 1 1
node 2 1 1 1
node 3 1 1 1
node 4 1 1 1
node 5 1 1 1
node 6 1 1 1
node 7 1 1 1
node 8 1 1 1
node 9 1 1 1
node 10 1 1 1
node 11 1 1 1
node 12 1 1 1
node 13 1 1 1
node 14 1 1 1
node 15 1 1 1
node 16 1 1 1
node 17 1 1 1
node 18 1 1 1
node 19 1 1 1
node 20 1 1 1
node 21 1 1 1
node 22 1 1 1
node 23 1 1 1
node 24 1 1 1
node 25 1 1 1
node 26 1 1 3
node 27 1 0 2
node 28 1 0 2
node 36 1 0 0
node 58 1 0 0
node 95 1 0 0
node 117 1 0 0
node 125 1 0 0
node 128 1 0 0
node 174 1 0 0
node 195 1 0 0
node 205 1 0 0
node 209 1 0 0
gene 1 1 27 -3.24606 0 1 -3.24606 1
gene 1 1 28 -4.63515 0 2 -4.63515 1
gene 1 2 27 6.8305 0 3 6.8305 1
gene 1 2 28 0.728401 0 4 0.728401 1
gene 1 3 27 1.61397 0 5 1.61397 1
gene 1 3 28 1.53821 0 6 1.53821 1
gene 1 4 27 1.25076 0 7 1.25076 1
gene 1 4 28 -0.933409 0 8 -0.933409 1
gene 1 5 27 -1.88896 0 9 -1.88896 1
gene 1 5 28 8 0 10 8 1
gene 1 6 27 2.56869 0 11 2.56869 1
gene 1 6 28 -0.750298 0 12 -0.750298 1
gene 1 7 27 0.791345 0 13 0.791345 1
gene 1 7 28 -1.48564 0 14 -1.48564 0
gene 1 8 27 -0.457633 0 15 -0.457633 1
gene 1 8 28 -5.37458 0 16 -5.37458 1
gene 1 9 27 -0.0950652 0 17 -0.0950652 1
gene 1 9 28 2.1527 0 18 2.1527 1
gene 1 10 27 1.12533 0 19 1.12533 1
gene 1 10 28 0.732215 0 20 0.732215 1
gene 1 11 27 5.82209 0 21 5.82209 1
gene 1 11 28 1.11255 0 22 1.11255 1
gene 1 12 27 -3.73136 0 23 -3.73136 0
gene 1 12 28 0.533464 0 24 0.533464 1
gene 1 13 27 -1.73551 0 25 -1.73551 0
gene 1 13 28 -1.72636 0 26 -1.72636 1
gene 1 14 27 3.7558 0 27 3.7558 1
gene 1 14 28 2.42706 0 28 2.42706 1
gene 1 15 27 -2.24055 0 29 -2.24055 1
gene 1 15 28 6.00675 0 30 6.00675 0
gene 1 16 27 0.266822 0 31 0.266822 1
gene 1 16 28 -4.9414 0 32 -4.9414 1
gene 1 17 27 2.18566 0 33 2.18566 0
gene 1 17 28 -7.30369 0 34 -7.30369 0
gene 1 18 27 -0.296239 0 35 -0.296239 1
gene 1 18 28 8 0 36 8 1
gene 1 19 27 -4.44266 0 37 -4.44266 0
gene 1 19 28 -4.04762 0 38 -4.04762 1
gene 1 20 27 -2.0064 0 39 -2.0064 1
gene 1 20 28 0.689566 0 40 0.689566 1
gene 1 21 27 3.30397 0 41 3.30397 1
gene 1 21 28 5.23188 0 42 5.23188 1
gene 1 22 27 8 0 43 8 1
gene 1 22 28 0.730651 0 44 0.730651 1
gene 1 23 27 6.53611 0 45 6.53611 1
gene 1 23 28 -1.42079 0 46 -1.42079 1
gene 1 24 27 5.56371 0 47 5.56371 1
gene 1 24 28 -1.53371 0 48 -1.53371 1
gene 1 25 27 1.1746 0 49 1.1746 1
gene 1 25 28 3.67817 0 50 3.67817 1
gene 1 26 27 5.21961 0 51 5.21961 1
gene 1 26 28 -1.47391 0 52 -1.47391 1
gene 1 1 36 -6.59371 0 72 -6.59371 1
gene 1 36 28 5.05924 0 73 5.05924 1
gene 1 24 36 -0.814119 0 143 -0.814119 1
gene 1 20 58 -3.99567 0 148 -3.99567 1
gene 1 58 28 0.734432 0 149 0.734432 1
gene 1 13 36 -1.84065 0 184 -1.84065 1
gene 1 7 95 -1.10393 0 287 -1.10393 1
gene 1 95 28 -1.49564 0 288 -1.49564 1
gene 1 4 58 -0.0302896 0 361 -0.0302896 1
gene 1 11 117 -0.0799585 0 377 -0.0799585 1
gene 1 117 27 -2.6384 0 378 -2.6384 1
gene 1 18 125 -1.6615 0 402 -1.6615 1
gene 1 125 27 4.08704 0 403 4.08704 1
gene 1 17 128 1.80876 0 410 1.80876 1
gene 1 128 28 1.79502 0 411 1.79502 1
gene 1 22 58 -2.88186 0 525 -2.88186 1
gene 1 16 125 1.40515 0 566 1.40515 0
gene 1 15 174 1.95471 0 585 1.95471 1
gene 1 174 28 1.93634 0 586 1.93634 1
gene 1 16 195 0.974364 0 644 0.974364 1
gene 1 195 125 0.481506 0 645 0.481506 1
gene 1 4 128 -0.783593 0 652 -0.783593 1
gene 1 19 205 -0.970885 0 673 -0.970885 1
gene 1 205 27 -3.34597 0 674 -3.34597 1
gene 1 24 128 0.847652 0 681 0.847652 1
gene 1 17 209 2.28033 0 686 2.28033 1
gene 1 209 27 2.24737 0 687 2.24737 1
genomeend 25

/* Organism #26 Fitness: 0.00199417 Error: 0 */
genomestart 26
trait 1 0.10485 0.541496 0.760388 0.695964 0.593928 0.0795694 0.155348 0.89388 
node 1 1 1 1
node 2 1 1 1
node 3 1 1 1
node 4 1 1 1
node 5 1 1 1
node 6 1 1 1
node 7 1 1 1
node 8 1 1 1
node 9 1 1 1
node 10 1 1 1
node 11 1 1 1
node 12 1 1 1
node 13 1 1 1
node 14 1 1 1
node 15 1 1 1
node 16 1 1 1
node 17 1 1 1
node 18 1 1 1
node 19 1 1 1
node 20 1 1 1
node 21 1 1 1
node 22 1 1 1
node 23 1 1 1
node 24 1 1 1
node 25 1 1 1
node 26 1 1 3
node 27 1 0 2
node 28 1 0 2
node 36 1 0 0
node 58 1 0 0
node 95 1 0 0
node 117 1 0 0
node 125 1 0 0
node 128 1 0 0
node 174 1 0 0
node 195 1 0 0
node 205 1 0 0
node 209 1 0 0
gene 1 1 27 -5.7318 0 1 -5.7318 1
gene 1 1 28 -3.70876 0 2 -3.70876 1
gene 1 2 27 5.8208 0 3 5.8208 1
gene 1 2 28 2.51137 0 4 2.51137 1
gene 1 3 27 1.61397 0 5 1.61397 1
gene 1 3 28 1.01314 0 6 1.01314 1
gene 1 4 27 1.03209 0 7 1.03209 1
gene 1 4 28 -0.955458 0 8 -0.955458 1
gene 1 5 27 -2.9861 0 9 -2.9861 1
gene 1 5 28 7.59075 0 10 7.59075 1
gene 1 6 27 0.494419 0 11 0.494419 1
gene 1 6 28 -0.750298 0 12 -0.750298 1
gene 1 7 27 -0.015183 0 13 -0.015183 1
gene 1 7 28 0.578784 0 14 0.578784 0
gene 1 8 27 -1.92664 0 15 -1.92664 1
gene 1 8 28 -5.37458 0 16 -5.37458 1
gene 1 9 27 1.15513 0 17 1.15513 1
gene 1 9 28 0.169836 0 18 0.169836 1
gene 1 10 27 0.862529 0 19 0.862529 1
gene 1 10 28 -0.303735 0 20 -0.303735 1
gene 1 11 27 5.82209 0 21 5.82209 1
gene 1 11 28 -0.28283 0 22 -0.28283 1
gene 1 12 27 -1.8495 0 23 -1.8495 0
gene 1 12 28 0.393841 0 24 0.393841 1
gene 1 13 27 0.478225 0 25 0.478225 0
gene 1 13 28 -3.24847 0 26 -3.24847 1
gene 1 14 27 1.80826 0 27 1.80826 1
gene 1 14 28 0.845058 0 28 0.845058 1
gene 1 15 27 -4.3165 0 29 -4.3165 1
gene 1 15 28 6.19268 0 30 6.19268 0
gene 1 16 27 0.85644 0 31 0.85644 1
gene 1 16 28 -4.9414 0 32 -4.9414 1
gene 1 17 27 4.0228 0 33 4.0228 0
gene 1 17 28 -7.30369 0 34 -7.30369 0
gene 1 18 27 2.05451 0 35 2.05451 1
gene 1 18 28 8 0 36 8 1
gene 1 19 27 -0.0216681 0 37 -0.0216681 0
gene 1 19 28 -3.16419 0 38 -3.16419 1
gene 1 20 27 1.8202 0 39 1.8202 1
gene 1 20 28 0.689566 0 40 0.689566 1
gene 1 21 27 3.79006 0 41 3.79006 1
gene 1 21 28 4.68202 0 42 4.68202 1
gene 1 22 27 8 0 43 8 1
gene 1 22 28 -0.663816 0 44 -0.663816 1
gene 1 23 27 7.36728 0 45 7.36728 1
gene 1 23 28 -0.810266 0 46 -0.810266 1
gene 1 24 27 3.69537 0 47 3.69537 1
gene 1 24 28 -2.84249 0 48 -2.84249 1
gene 1 25 27 2.7151 0 49 2.7151 1
gene 1 25 28 4.85778 0 50 4.85778 1
gene 1 26 27 5.07785 0 51 5.07785 1
gene 1 26 28 0.788584 0 52 0.788584 1
gene 1 1 36 -8 0 72 -8 1
gene 1 36 28 4.68455 0 73 4.68455 1
gene 1 24 36 -0.814119 0 143 -0.814119 1
gene 1 20 58 -1.58593 0 148 -1.58593 1
gene 1 58 28 0.734432 0 149 0.734432 1
gene 1 13 36 -1.61359 0 184 -1.61359 1
gene 1 7 95 -1.10393 0 287 -1.10393 1
gene 1 95 28 -1.11164 0 288 -1.11164 1
gene 1 4 58 -0.948057 0 361 -0.948057 1
gene 1 11 117 -2.16926 0 377 -2.16926 1
gene 1 117 27 -0.723594 0 378 -0.723594 1
gene 1 18 125 -0.0989563 0 402 -0.0989563 1
gene 1 125 27 0.88168 0 403 0.88168 1
gene 1 17 128 -0.277566 0 410 -0.277566 1
gene 1 128 28 2.85173 0 411 2.85173 1
gene 1 22 58 -2.42897 0 525 -2.42897 1
gene 1 16 125 0.452818 0 566 0.452818 0
gene 1 15 174 1.95471 0 585 1.95471 1
gene 1 174 28 2.51482 0 586 2.51482 1
gene 1 16 195 3.06442 0 644 3.06442 1
gene 1 195 125 -2.35672 0 645 -2.35672 1
gene 1 4 128 -1.77171 0 652 -1.77171 1
gene 1 19 205 -0.0274056 0 673 -0.0274056 1
gene 1 205 27 -3.34597 0 674 -3.34597 1
gene 1 24 128 -0.736793 0 681 -0.736793 1
gene 1 17 209 1.90999 0 686 1.90999 1
gene 1 209 27 1.32945 0 687 1.32945 1
genomeend 26

/* Organism #27 Fitness: 0.304079 Error: 0 */
/* ##------$ WINNER 27 SPECIES #49 $------## */
genomestart 27
trait 1 0.10485 0.541496 0.760388 0.695964 0.593928 0.0795694 0.155348 0.89388 
node 1 1 1 1
node 2 1 1 1
node 3 1 1 1
node 4 1 1 1
node 5 1 1 1
node 6 1 1 1
node 7 1 1 1
node 8 1 1 1
node 9 1 1 1
node 10 1 1 1
node 11 1 1 1
node 12 1 1 1
node 13 1 1 1
node 14 1 1 1
node 15 1 1 1
node 16 1 1 1
node 17 1 1 1
node 18 1 1 1
node 19 1 1 1
node 20 1 1 1
node 21 1 1 1
node 22 1 1 1
node 23 1 1 1
node 24 1 1 1
node 25 1 1 1
node 26 1 1 3
node 27 1 0 2
node 28 1 0 2
node 36 1 0 0
node 58 1 0 0
node 95 1 0 0
node 117 1 0 0
node 125 1 0 0
node 128 1 0 0
node 174 1 0 0
node 195 1 0 0
node 205 1 0 0
node 209 1 0 0
gene 1 1 27 -3.24606 0 1 -3.24606 1
gene 1 1 28 -4.63515 0 2 -4.63515 1
gene 1 2 27 6.8305 0 3 6.8305 1
gene 1 2 28 0.728401 0 4 0.728401 1
gene 1 3 27 1.61397 0 5 1.61397 1
gene 1 3 28 1.53821 0 6 1.53821 1
gene 1 4 27 1.25076 0 7 1.25076 1
gene 1 4 28 -0.933409 0 8 -0.933409 1
gene 1 5 27 -1.88896 0 9 -1.88896 1
gene 1 5 28 8 0 10 8 1
gene 1 6 27 2.56869 0 11 2.56869 1
gene 1 6 28 -0.750298 0 12 -0.750298 1
gene 1 7 27 0.791345 0 13 0.791345 1
gene 1 7 28 -1.48564 0 14 -1.48564 0
gene 1 8 27 -0.457633 0 15 -0.457633 1
gene 1 8 28 -5.37458 0 16 -5.37458 1
gene 1 9 27 -0.0950652 0 17 -0.0950652 1
gene 1 9 28 2.1527 0 18 2.1527 1
gene 1 10 27 1.12533 0 19 1.12533 1
gene 1 10 28 0.732215 0 20 0.732215 1
gene 1 11 27 5.82209 0 21 5.82209 1
gene 1 11 28 1.11255 0 22 1.11255 1
gene 1 12 27 -3.73136 0 23 -3.73136 0
gene 1 12 28 0.533464 0 24 0.533464 1
gene 1 13 27 -1.73551 0 25 -1.73551 0
gene 1 13 28 -1.72636 0 26 -1.72636 1
gene 1 14 27 3.7558 0 27 3.7558 1
gene 1 14 28 2.42706 0 28 2.42706 1
gene 1 15 27 -2.24055 0 29 -2.24055 1
gene 1 15 28 6.00675 0 30 6.00675 0
gene 1 16 27 0.266822 0 31 0.266822 1
gene 1 16 28 -4.9414 0 32 -4.9414 1
gene 1 17 27 2.18566 0 33 2.18566 0
gene 1 17 28 -7.30369 0 34 -7.30369 0
gene 1 18 27 -0.296239 0 35 -0.296239 1
gene 1 18 28 8 0 36 8 1
gene 1 19 27 -4.44266 0 37 -4.44266 0
gene 1 19 28 -4.04762 0 38 -4.04762 1
gene 1 20 27 -2.0064 0 39 -2.0064 1
gene 1 20 28 0.689566 0 40 0.689566 1
gene 1 21 27 3.30397 0 41 3.30397 1
gene 1 21 28 5.23188 0 42 5.23188 1
gene 1 22 27 8 0 43 8 1
gene 1 22 28 0.730651 0 44 0.730651 1
gene 1 23 27 6.53611 0 45 6.53611 1
gene 1 23 28 -1.42079 0 46 -1.42079 1
gene 1 24 27 5.56371 0 47 5.56371 1
gene 1 24 28 -1.53371 0 48 -1.53371 1
gene 1 25 27 1.1746 0 49 1.1746 1
gene 1 25 28 3.67817 0 50 3.67817 1
gene 1 26 27 5.21961 0 51 5.21961 1
gene 1 26 28 -1.47391 0 52 -1.47391 1
gene 1 1 36 -6.59371 0 72 -6.59371 1
gene 1 36 28 5.05924 0 73 5.05924 1
gene 1 24 36 -0.814119 0 143 -0.814119 1
gene 1 20 58 -3.99567 0 148 -3.99567 1
gene 1 58 28 0.734432 0 149 0.734432 1
gene 1 13 36 -1.84065 0 184 -1.84065 1
gene 1 7 95 -1.10393 0 287 -1.10393 1
gene 1 95 28 -1.49564 0 288 -1.49564 1
gene 1 4 58 -0.0302896 0 361 -0.0302896 1
gene 1 11 117 -0.0799585 0 377 -0.0799585 1
gene 1 117 27 -2.6384 0 378 -2.6384 1
gene 1 18 125 -1.6615 0 402 -1.6615 1
gene 1 125 27 4.08704 0 403 4.08704 1
gene 1 17 128 1.80876 0 410 1.80876 1
gene 1 128 28 1.79502 0 411 1.79502 1
gene 1 22 58 -2.88186 0 525 -2.88186 1
gene 1 16 125 1.40515 0 566 1.40515 0
gene 1 15 174 1.95471 0 585 1.95471 1
gene 1 174 28 1.93634 0 586 1.93634 1
gene 1 16 195 0.974364 0 644 0.974364 1
gene 1 195 125 0.481506 0 645 0.481506 1
gene 1 4 128 -0.783593 0 652 -0.783593 1
gene 1 19 205 -0.970885 0 673 -0.970885 1
gene 1 205 27 -3.34597 0 674 -3.34597 1
gene 1 24 128 0.847652 0 681 0.847652 1
gene 1 17 209 2.28033 0 686 2.28033 1
gene 1 209 27 2.24737 0 687 2.24737 1
genomeend 27

