
/* Species #3 : (Size 9) (AF 0) (Age 14)  */


/* Organism #0 Fitness: 0.147721 Error: 0 */
genomestart 0
trait 1 0 0.252211 0.00881603 0 0 0 0 0 
node 1 1 1 1
node 2 1 1 1
node 3 1 1 1
node 4 1 1 1
node 5 1 1 1
node 6 1 1 1
node 7 1 1 1
node 8 1 1 1
node 9 1 1 1
node 10 1 1 1
node 11 1 1 1
node 12 1 1 1
node 13 1 1 1
node 14 1 1 1
node 15 1 1 1
node 16 1 1 1
node 17 1 1 1
node 18 1 1 1
node 19 1 1 1
node 20 1 1 1
node 21 1 1 1
node 22 1 1 1
node 23 1 1 1
node 24 1 1 1
node 25 1 1 1
node 26 1 1 3
node 27 1 0 2
node 28 1 0 2
node 29 1 0 0
node 38 1 0 0
gene 1 1 27 0.12532 0 1 0.12532 1
gene 1 1 28 1.19632 0 2 1.19632 1
gene 1 2 27 3.59646 0 3 3.59646 1
gene 1 2 28 -3.51646 0 4 -3.51646 1
gene 1 3 27 -1.02631 0 5 -1.02631 1
gene 1 3 28 1.90867 0 6 1.90867 1
gene 1 4 27 0.270245 0 7 0.270245 1
gene 1 4 28 1.43997 0 8 1.43997 1
gene 1 5 27 -0.77451 0 9 -0.77451 1
gene 1 5 28 -1.80155 0 10 -1.80155 1
gene 1 6 27 -4.40806 0 11 -4.40806 1
gene 1 6 28 -3.58962 0 12 -3.58962 1
gene 1 7 27 -1.05862 0 13 -1.05862 1
gene 1 7 28 -4.67007 0 14 -4.67007 1
gene 1 8 27 -0.526723 0 15 -0.526723 1
gene 1 8 28 0.554762 0 16 0.554762 1
gene 1 9 27 1.04711 0 17 1.04711 1
gene 1 9 28 -1.42293 0 18 -1.42293 1
gene 1 10 27 4.61507 0 19 4.61507 1
gene 1 10 28 -3.5501 0 20 -3.5501 1
gene 1 11 27 0.324152 0 21 0.324152 1
gene 1 11 28 -1.34697 0 22 -1.34697 1
gene 1 12 27 1.3714 0 23 1.3714 1
gene 1 12 28 4.0842 0 24 4.0842 1
gene 1 13 27 1.26532 0 25 1.26532 1
gene 1 13 28 -3.28092 0 26 -3.28092 1
gene 1 14 27 -1.10634 0 27 -1.10634 1
gene 1 14 28 0.487056 0 28 0.487056 0
gene 1 15 27 -2.50232 0 29 -2.50232 1
gene 1 15 28 -0.432379 0 30 -0.432379 1
gene 1 16 27 2.03922 0 31 2.03922 1
gene 1 16 28 -2.55064 0 32 -2.55064 1
gene 1 17 27 2.73885 0 33 2.73885 1
gene 1 17 28 0.985282 0 34 0.985282 1
gene 1 18 27 -2.58689 0 35 -2.58689 1
gene 1 18 28 0.531571 0 36 0.531571 1
gene 1 19 27 3.41871 0 37 3.41871 1
gene 1 19 28 -0.442297 0 38 -0.442297 1
gene 1 20 27 3.38542 0 39 3.38542 1
gene 1 20 28 0.00123981 0 40 0.00123981 1
gene 1 21 27 2.62698 0 41 2.62698 1
gene 1 21 28 1.06239 0 42 1.06239 1
gene 1 22 27 1.12281 0 43 1.12281 1
gene 1 22 28 0.543085 0 44 0.543085 1
gene 1 23 27 1.47322 0 45 1.47322 1
gene 1 23 28 0.602321 0 46 0.602321 1
gene 1 24 27 0.133499 0 47 0.133499 1
gene 1 24 28 -1.52462 0 48 -1.52462 1
gene 1 25 27 -2.32154 0 49 -2.32154 1
gene 1 25 28 -1.76081 0 50 -1.76081 1
gene 1 26 27 -0.958972 0 51 -0.958972 1
gene 1 26 28 3.61184 0 52 3.61184 1
gene 1 14 29 -3.4199 0 53 -3.4199 1
gene 1 29 28 1.63373 0 54 1.63373 1
gene 1 27 29 3.06938 0 62 3.06938 1
gene 1 11 38 -0.173189 0 90 -0.173189 1
gene 1 38 28 -0.764946 0 91 -0.764946 1
genomeend 0

/* Organism #1 Fitness: 0.147721 Error: 0 */
genomestart 1
trait 1 0 0.126105 0.00440802 0 0 0 0 0 
node 1 1 1 1
node 2 1 1 1
node 3 1 1 1
node 4 1 1 1
node 5 1 1 1
node 6 1 1 1
node 7 1 1 1
node 8 1 1 1
node 9 1 1 1
node 10 1 1 1
node 11 1 1 1
node 12 1 1 1
node 13 1 1 1
node 14 1 1 1
node 15 1 1 1
node 16 1 1 1
node 17 1 1 1
node 18 1 1 1
node 19 1 1 1
node 20 1 1 1
node 21 1 1 1
node 22 1 1 1
node 23 1 1 1
node 24 1 1 1
node 25 1 1 1
node 26 1 1 3
node 27 1 0 2
node 28 1 0 2
node 29 1 0 0
node 38 1 0 0
gene 1 1 27 0.340552 0 1 0.340552 1
gene 1 1 28 3.32705 0 2 3.32705 1
gene 1 2 27 -0.813272 0 3 -0.813272 1
gene 1 2 28 -2.26738 0 4 -2.26738 1
gene 1 3 27 1.84378 0 5 1.84378 1
gene 1 3 28 3.98461 0 6 3.98461 1
gene 1 4 27 4.88875 0 7 4.88875 1
gene 1 4 28 3.85847 0 8 3.85847 1
gene 1 5 27 -3.23496 0 9 -3.23496 1
gene 1 5 28 0.55633 0 10 0.55633 1
gene 1 6 27 -1.02824 0 11 -1.02824 1
gene 1 6 28 -1.90874 0 12 -1.90874 1
gene 1 7 27 -1.52548 0 13 -1.52548 1
gene 1 7 28 -6.54276 0 14 -6.54276 1
gene 1 8 27 -0.621838 0 15 -0.621838 1
gene 1 8 28 2.35711 0 16 2.35711 1
gene 1 9 27 3.96813 0 17 3.96813 1
gene 1 9 28 -3.30767 0 18 -3.30767 1
gene 1 10 27 7.20727 0 19 7.20727 1
gene 1 10 28 -5.05383 0 20 -5.05383 1
gene 1 11 27 1.58464 0 21 1.58464 1
gene 1 11 28 -3.13551 0 22 -3.13551 1
gene 1 12 27 2.43588 0 23 2.43588 1
gene 1 12 28 3.02559 0 24 3.02559 1
gene 1 13 27 1.69164 0 25 1.69164 1
gene 1 13 28 -2.20994 0 26 -2.20994 1
gene 1 14 27 -4.84644 0 27 -4.84644 1
gene 1 14 28 0.529859 0 28 0.529859 0
gene 1 15 27 -1.538 0 29 -1.538 1
gene 1 15 28 2.19111 0 30 2.19111 1
gene 1 16 27 1.33218 0 31 1.33218 1
gene 1 16 28 -2.71713 0 32 -2.71713 1
gene 1 17 27 1.94643 0 33 1.94643 1
gene 1 17 28 -1.2777 0 34 -1.2777 1
gene 1 18 27 -2.16055 0 35 -2.16055 1
gene 1 18 28 2.28501 0 36 2.28501 1
gene 1 19 27 5.8795 0 37 5.8795 1
gene 1 19 28 -0.64462 0 38 -0.64462 1
gene 1 20 27 1.74558 0 39 1.74558 1
gene 1 20 28 2.16432 0 40 2.16432 1
gene 1 21 27 3.83856 0 41 3.83856 1
gene 1 21 28 3.23607 0 42 3.23607 1
gene 1 22 27 4.10138 0 43 4.10138 1
gene 1 22 28 -4.1035 0 44 -4.1035 1
gene 1 23 27 3.093 0 45 3.093 1
gene 1 23 28 1.07734 0 46 1.07734 1
gene 1 24 27 -2.8576 0 47 -2.8576 1
gene 1 24 28 1.00558 0 48 1.00558 1
gene 1 25 27 0.40907 0 49 0.40907 1
gene 1 25 28 -1.01498 0 50 -1.01498 1
gene 1 26 27 0.23072 0 51 0.23072 1
gene 1 26 28 2.44598 0 52 2.44598 1
gene 1 14 29 -3.4199 0 53 -3.4199 1
gene 1 29 28 1.55019 0 54 1.55019 1
gene 1 27 29 3.06938 0 62 3.06938 1
gene 1 11 38 -0.102004 0 90 -0.102004 1
gene 1 38 28 -1.02412 0 91 -1.02412 1
gene 1 24 38 -0.57326 0 207 -0.57326 1
genomeend 1

/* Organism #2 Fitness: 0.0620071 Error: 0 */
genomestart 2
trait 1 0 0 0.086333 0 0 0 0 0 
node 1 1 1 1
node 2 1 1 1
node 3 1 1 1
node 4 1 1 1
node 5 1 1 1
node 6 1 1 1
node 7 1 1 1
node 8 1 1 1
node 9 1 1 1
node 10 1 1 1
node 11 1 1 1
node 12 1 1 1
node 13 1 1 1
node 14 1 1 1
node 15 1 1 1
node 16 1 1 1
node 17 1 1 1
node 18 1 1 1
node 19 1 1 1
node 20 1 1 1
node 21 1 1 1
node 22 1 1 1
node 23 1 1 1
node 24 1 1 1
node 25 1 1 1
node 26 1 1 3
node 27 1 0 2
node 28 1 0 2
node 29 1 0 0
node 38 1 0 0
gene 1 1 27 -0.67251 0 1 -0.67251 1
gene 1 1 28 -0.727033 0 2 -0.727033 1
gene 1 2 27 3.47851 0 3 3.47851 1
gene 1 2 28 -4.55668 0 4 -4.55668 1
gene 1 3 27 -2.5852 0 5 -2.5852 1
gene 1 3 28 4.1987 0 6 4.1987 1
gene 1 4 27 2.10853 0 7 2.10853 1
gene 1 4 28 3.00969 0 8 3.00969 1
gene 1 5 27 -1.77025 0 9 -1.77025 1
gene 1 5 28 -1.89669 0 10 -1.89669 1
gene 1 6 27 -3.25545 0 11 -3.25545 1
gene 1 6 28 -5.03185 0 12 -5.03185 1
gene 1 7 27 0.775239 0 13 0.775239 1
gene 1 7 28 -4.52 0 14 -4.52 1
gene 1 8 27 1.32644 0 15 1.32644 1
gene 1 8 28 2.44248 0 16 2.44248 1
gene 1 9 27 1.30736 0 17 1.30736 1
gene 1 9 28 -1.60443 0 18 -1.60443 1
gene 1 10 27 3.2647 0 19 3.2647 1
gene 1 10 28 -5.7575 0 20 -5.7575 1
gene 1 11 27 1.56084 0 21 1.56084 1
gene 1 11 28 -2.49035 0 22 -2.49035 1
gene 1 12 27 2.35661 0 23 2.35661 1
gene 1 12 28 3.99791 0 24 3.99791 1
gene 1 13 27 2.577 0 25 2.577 1
gene 1 13 28 -3.31067 0 26 -3.31067 1
gene 1 14 27 -2.44816 0 27 -2.44816 1
gene 1 14 28 2.39278 0 28 2.39278 1
gene 1 15 27 -1.0691 0 29 -1.0691 1
gene 1 15 28 -0.244995 0 30 -0.244995 1
gene 1 16 27 1.97909 0 31 1.97909 1
gene 1 16 28 -1.9949 0 32 -1.9949 1
gene 1 17 27 4.99996 0 33 4.99996 1
gene 1 17 28 2.61322 0 34 2.61322 1
gene 1 18 27 -0.438768 0 35 -0.438768 1
gene 1 18 28 1.27943 0 36 1.27943 1
gene 1 19 27 1.43913 0 37 1.43913 1
gene 1 19 28 -1.78275 0 38 -1.78275 1
gene 1 20 27 3.09099 0 39 3.09099 1
gene 1 20 28 -1.82583 0 40 -1.82583 1
gene 1 21 27 4.23691 0 41 4.23691 1
gene 1 21 28 2.16662 0 42 2.16662 1
gene 1 22 27 1.30371 0 43 1.30371 1
gene 1 22 28 -0.0417264 0 44 -0.0417264 1
gene 1 23 27 1.15056 0 45 1.15056 1
gene 1 23 28 0.301103 0 46 0.301103 1
gene 1 24 27 0.928659 0 47 0.928659 1
gene 1 24 28 -0.653317 0 48 -0.653317 1
gene 1 25 27 -3.27502 0 49 -3.27502 1
gene 1 25 28 -1.76081 0 50 -1.76081 1
gene 1 26 27 -0.958972 0 51 -0.958972 1
gene 1 26 28 2.4645 0 52 2.4645 1
gene 1 14 29 -2.63871 0 53 -2.63871 1
gene 1 29 28 0.712149 0 54 0.712149 1
gene 1 27 29 -1.80013 0 62 -1.80013 1
gene 1 11 38 -2.04275 0 90 -2.04275 1
gene 1 38 28 0.486847 0 91 0.486847 1
gene 1 14 38 -0.310129 0 201 -0.310129 1
genomeend 2

/* Organism #3 Fitness: 0.0620071 Error: 0 */
genomestart 3
trait 1 0 0.252211 0.00881603 0 0 0 0 0 
node 1 1 1 1
node 2 1 1 1
node 3 1 1 1
node 4 1 1 1
node 5 1 1 1
node 6 1 1 1
node 7 1 1 1
node 8 1 1 1
node 9 1 1 1
node 10 1 1 1
node 11 1 1 1
node 12 1 1 1
node 13 1 1 1
node 14 1 1 1
node 15 1 1 1
node 16 1 1 1
node 17 1 1 1
node 18 1 1 1
node 19 1 1 1
node 20 1 1 1
node 21 1 1 1
node 22 1 1 1
node 23 1 1 1
node 24 1 1 1
node 25 1 1 1
node 26 1 1 3
node 27 1 0 2
node 28 1 0 2
node 29 1 0 0
node 38 1 0 0
gene 1 1 27 2.27337 0 1 2.27337 1
gene 1 1 28 2.518 0 2 2.518 1
gene 1 2 27 5.11804 0 3 5.11804 1
gene 1 2 28 -2.55207 0 4 -2.55207 1
gene 1 3 27 0.103862 0 5 0.103862 1
gene 1 3 28 0.263565 0 6 0.263565 1
gene 1 4 27 2.33444 0 7 2.33444 1
gene 1 4 28 1.43349 0 8 1.43349 1
gene 1 5 27 -2.12015 0 9 -2.12015 1
gene 1 5 28 0.107913 0 10 0.107913 1
gene 1 6 27 -3.01672 0 11 -3.01672 1
gene 1 6 28 -5.01636 0 12 -5.01636 1
gene 1 7 27 -0.0206839 0 13 -0.0206839 1
gene 1 7 28 -3.27034 0 14 -3.27034 1
gene 1 8 27 -1.15662 0 15 -1.15662 1
gene 1 8 28 -0.00258263 0 16 -0.00258263 1
gene 1 9 27 2.21727 0 17 2.21727 1
gene 1 9 28 -3.62125 0 18 -3.62125 1
gene 1 10 27 4.58242 0 19 4.58242 1
gene 1 10 28 -1.61553 0 20 -1.61553 1
gene 1 11 27 -0.413709 0 21 -0.413709 1
gene 1 11 28 0.651303 0 22 0.651303 1
gene 1 12 27 -0.419431 0 23 -0.419431 1
gene 1 12 28 6.19524 0 24 6.19524 1
gene 1 13 27 3.34653 0 25 3.34653 1
gene 1 13 28 -1.36557 0 26 -1.36557 1
gene 1 14 27 -1.45288 0 27 -1.45288 1
gene 1 14 28 2.95585 0 28 2.95585 0
gene 1 15 27 -1.30485 0 29 -1.30485 1
gene 1 15 28 1.36837 0 30 1.36837 1
gene 1 16 27 1.83367 0 31 1.83367 1
gene 1 16 28 -4.58195 0 32 -4.58195 1
gene 1 17 27 2.18501 0 33 2.18501 1
gene 1 17 28 0.431906 0 34 0.431906 1
gene 1 18 27 -3.83647 0 35 -3.83647 1
gene 1 18 28 0.807764 0 36 0.807764 1
gene 1 19 27 5.31841 0 37 5.31841 1
gene 1 19 28 0.990394 0 38 0.990394 1
gene 1 20 27 4.93408 0 39 4.93408 1
gene 1 20 28 2.44905 0 40 2.44905 1
gene 1 21 27 4.20601 0 41 4.20601 1
gene 1 21 28 -1.30844 0 42 -1.30844 1
gene 1 22 27 0.948859 0 43 0.948859 1
gene 1 22 28 -1.82622 0 44 -1.82622 1
gene 1 23 27 2.31637 0 45 2.31637 1
gene 1 23 28 -0.683042 0 46 -0.683042 1
gene 1 24 27 0.133499 0 47 0.133499 1
gene 1 24 28 -3.18315 0 48 -3.18315 1
gene 1 25 27 -2.32154 0 49 -2.32154 1
gene 1 25 28 -1.76081 0 50 -1.76081 1
gene 1 26 27 -1.51151 0 51 -1.51151 1
gene 1 26 28 4.49634 0 52 4.49634 1
gene 1 14 29 -2.98959 0 53 -2.98959 1
gene 1 29 28 -0.525681 0 54 -0.525681 1
gene 1 27 29 1.4358 0 62 1.4358 1
gene 1 11 38 -0.173189 0 90 -0.173189 1
gene 1 38 28 -0.764946 0 91 -0.764946 1
genomeend 3

/* Organism #4 Fitness: 0.00629286 Error: 0 */
genomestart 4
trait 1 0 0.252211 0.00881603 0 0 0 0 0 
node 1 1 1 1
node 2 1 1 1
node 3 1 1 1
node 4 1 1 1
node 5 1 1 1
node 6 1 1 1
node 7 1 1 1
node 8 1 1 1
node 9 1 1 1
node 10 1 1 1
node 11 1 1 1
node 12 1 1 1
node 13 1 1 1
node 14 1 1 1
node 15 1 1 1
node 16 1 1 1
node 17 1 1 1
node 18 1 1 1
node 19 1 1 1
node 20 1 1 1
node 21 1 1 1
node 22 1 1 1
node 23 1 1 1
node 24 1 1 1
node 25 1 1 1
node 26 1 1 3
node 27 1 0 2
node 28 1 0 2
node 29 1 0 0
node 38 1 0 0
gene 1 1 27 -0.265469 0 1 -0.265469 1
gene 1 1 28 1.65356 0 2 1.65356 1
gene 1 2 27 1.95434 0 3 1.95434 1
gene 1 2 28 -2.2272 0 4 -2.2272 1
gene 1 3 27 -1.87803 0 5 -1.87803 1
gene 1 3 28 2.47047 0 6 2.47047 1
gene 1 4 27 -1.02054 0 7 -1.02054 1
gene 1 4 28 1.31325 0 8 1.31325 1
gene 1 5 27 -2.59158 0 9 -2.59158 1
gene 1 5 28 1.18526 0 10 1.18526 1
gene 1 6 27 0.37225 0 11 0.37225 1
gene 1 6 28 -2.62135 0 12 -2.62135 1
gene 1 7 27 -1.66937 0 13 -1.66937 1
gene 1 7 28 -5.82848 0 14 -5.82848 1
gene 1 8 27 0.621002 0 15 0.621002 1
gene 1 8 28 -1.78769 0 16 -1.78769 1
gene 1 9 27 1.04711 0 17 1.04711 1
gene 1 9 28 -1.13353 0 18 -1.13353 1
gene 1 10 27 3.0584 0 19 3.0584 1
gene 1 10 28 -2.58762 0 20 -2.58762 1
gene 1 11 27 -0.716147 0 21 -0.716147 1
gene 1 11 28 -1.27907 0 22 -1.27907 1
gene 1 12 27 -0.197913 0 23 -0.197913 1
gene 1 12 28 4.0842 0 24 4.0842 1
gene 1 13 27 0.373775 0 25 0.373775 1
gene 1 13 28 -5.45467 0 26 -5.45467 1
gene 1 14 27 -1.10634 0 27 -1.10634 1
gene 1 14 28 -0.0251778 0 28 -0.0251778 0
gene 1 15 27 -1.68511 0 29 -1.68511 1
gene 1 15 28 -2.72142 0 30 -2.72142 1
gene 1 16 27 0.57181 0 31 0.57181 1
gene 1 16 28 -1.78478 0 32 -1.78478 1
gene 1 17 27 1.40053 0 33 1.40053 1
gene 1 17 28 -0.731147 0 34 -0.731147 1
gene 1 18 27 -0.905015 0 35 -0.905015 1
gene 1 18 28 1.67403 0 36 1.67403 1
gene 1 19 27 3.41871 0 37 3.41871 1
gene 1 19 28 0.766854 0 38 0.766854 1
gene 1 20 27 1.5318 0 39 1.5318 1
gene 1 20 28 1.8409 0 40 1.8409 1
gene 1 21 27 2.62698 0 41 2.62698 1
gene 1 21 28 -0.653897 0 42 -0.653897 1
gene 1 22 27 0.470061 0 43 0.470061 1
gene 1 22 28 1.48381 0 44 1.48381 1
gene 1 23 27 -0.913484 0 45 -0.913484 1
gene 1 23 28 0.808245 0 46 0.808245 1
gene 1 24 27 0.439467 0 47 0.439467 1
gene 1 24 28 -0.559702 0 48 -0.559702 1
gene 1 25 27 -1.04808 0 49 -1.04808 1
gene 1 25 28 -1.68134 0 50 -1.68134 1
gene 1 26 27 0.116272 0 51 0.116272 1
gene 1 26 28 1.41621 0 52 1.41621 1
gene 1 14 29 -3.4199 0 53 -3.4199 1
gene 1 29 28 1.09691 0 54 1.09691 1
gene 1 27 29 5.45936 0 62 5.45936 1
gene 1 11 38 -2.50831 0 90 -2.50831 1
gene 1 38 28 -2.32536 0 91 -2.32536 1
gene 1 14 38 -1.28405 0 201 -1.28405 1
genomeend 4

/* Organism #5 Fitness: 0.0362929 Error: 0 */
genomestart 5
trait 1 0 0.252211 0.00881603 0 0 0 0 0 
node 1 1 1 1
node 2 1 1 1
node 3 1 1 1
node 4 1 1 1
node 5 1 1 1
node 6 1 1 1
node 7 1 1 1
node 8 1 1 1
node 9 1 1 1
node 10 1 1 1
node 11 1 1 1
node 12 1 1 1
node 13 1 1 1
node 14 1 1 1
node 15 1 1 1
node 16 1 1 1
node 17 1 1 1
node 18 1 1 1
node 19 1 1 1
node 20 1 1 1
node 21 1 1 1
node 22 1 1 1
node 23 1 1 1
node 24 1 1 1
node 25 1 1 1
node 26 1 1 3
node 27 1 0 2
node 28 1 0 2
node 29 1 0 0
node 38 1 0 0
gene 1 1 27 1.69695 0 1 1.69695 1
gene 1 1 28 1.38439 0 2 1.38439 1
gene 1 2 27 4.24689 0 3 4.24689 1
gene 1 2 28 -4.84562 0 4 -4.84562 1
gene 1 3 27 -1.1902 0 5 -1.1902 1
gene 1 3 28 3.74161 0 6 3.74161 1
gene 1 4 27 -1.96188 0 7 -1.96188 1
gene 1 4 28 1.46927 0 8 1.46927 1
gene 1 5 27 0.534963 0 9 0.534963 1
gene 1 5 28 0.274316 0 10 0.274316 1
gene 1 6 27 -6.53222 0 11 -6.53222 1
gene 1 6 28 -3.64265 0 12 -3.64265 1
gene 1 7 27 -0.628765 0 13 -0.628765 1
gene 1 7 28 -4.29714 0 14 -4.29714 1
gene 1 8 27 -2.09743 0 15 -2.09743 1
gene 1 8 28 -1.9447 0 16 -1.9447 1
gene 1 9 27 -0.810551 0 17 -0.810551 1
gene 1 9 28 -0.941191 0 18 -0.941191 1
gene 1 10 27 4.87356 0 19 4.87356 1
gene 1 10 28 -5.85043 0 20 -5.85043 1
gene 1 11 27 -0.0751061 0 21 -0.0751061 1
gene 1 11 28 -3.37142 0 22 -3.37142 1
gene 1 12 27 1.75043 0 23 1.75043 1
gene 1 12 28 6.3676 0 24 6.3676 1
gene 1 13 27 0.868347 0 25 0.868347 1
gene 1 13 28 -1.23137 0 26 -1.23137 1
gene 1 14 27 -1.79774 0 27 -1.79774 1
gene 1 14 28 -1.74705 0 28 -1.74705 0
gene 1 15 27 -0.210307 0 29 -0.210307 1
gene 1 15 28 -2.0275 0 30 -2.0275 1
gene 1 16 27 1.45494 0 31 1.45494 1
gene 1 16 28 -3.00903 0 32 -3.00903 1
gene 1 17 27 4.4253 0 33 4.4253 1
gene 1 17 28 3.23618 0 34 3.23618 1
gene 1 18 27 -4.22573 0 35 -4.22573 1
gene 1 18 28 0.877117 0 36 0.877117 1
gene 1 19 27 4.32481 0 37 4.32481 1
gene 1 19 28 -0.221496 0 38 -0.221496 1
gene 1 20 27 5.07668 0 39 5.07668 1
gene 1 20 28 -1.9289 0 40 -1.9289 1
gene 1 21 27 2.06407 0 41 2.06407 1
gene 1 21 28 1.44807 0 42 1.44807 1
gene 1 22 27 2.51766 0 43 2.51766 1
gene 1 22 28 1.49755 0 44 1.49755 1
gene 1 23 27 0.355628 0 45 0.355628 1
gene 1 23 28 0.967933 0 46 0.967933 1
gene 1 24 27 -0.751823 0 47 -0.751823 1
gene 1 24 28 -1.52462 0 48 -1.52462 1
gene 1 25 27 -1.62503 0 49 -1.62503 1
gene 1 25 28 1.94174 0 50 1.94174 1
gene 1 26 27 -3.06933 0 51 -3.06933 1
gene 1 26 28 3.61184 0 52 3.61184 1
gene 1 14 29 -3.13303 0 53 -3.13303 1
gene 1 29 28 1.63373 0 54 1.63373 1
gene 1 27 29 3.06938 0 62 3.06938 1
gene 1 11 38 -0.173189 0 90 -0.173189 1
gene 1 38 28 -0.722144 0 91 -0.722144 1
genomeend 5

/* Organism #6 Fitness: 0.147721 Error: 0 */
genomestart 6
trait 1 0 0.252211 0.00881603 0 0 0 0 0 
node 1 1 1 1
node 2 1 1 1
node 3 1 1 1
node 4 1 1 1
node 5 1 1 1
node 6 1 1 1
node 7 1 1 1
node 8 1 1 1
node 9 1 1 1
node 10 1 1 1
node 11 1 1 1
node 12 1 1 1
node 13 1 1 1
node 14 1 1 1
node 15 1 1 1
node 16 1 1 1
node 17 1 1 1
node 18 1 1 1
node 19 1 1 1
node 20 1 1 1
node 21 1 1 1
node 22 1 1 1
node 23 1 1 1
node 24 1 1 1
node 25 1 1 1
node 26 1 1 3
node 27 1 0 2
node 28 1 0 2
node 29 1 0 0
node 38 1 0 0
gene 1 1 27 0.12532 0 1 0.12532 1
gene 1 1 28 1.19632 0 2 1.19632 1
gene 1 2 27 3.59646 0 3 3.59646 1
gene 1 2 28 -3.51646 0 4 -3.51646 1
gene 1 3 27 -1.02631 0 5 -1.02631 1
gene 1 3 28 1.90867 0 6 1.90867 1
gene 1 4 27 0.270245 0 7 0.270245 1
gene 1 4 28 1.43997 0 8 1.43997 1
gene 1 5 27 -0.77451 0 9 -0.77451 1
gene 1 5 28 -1.80155 0 10 -1.80155 1
gene 1 6 27 -4.40806 0 11 -4.40806 1
gene 1 6 28 -3.58962 0 12 -3.58962 1
gene 1 7 27 -1.05862 0 13 -1.05862 1
gene 1 7 28 -4.67007 0 14 -4.67007 1
gene 1 8 27 -0.526723 0 15 -0.526723 1
gene 1 8 28 0.554762 0 16 0.554762 1
gene 1 9 27 1.04711 0 17 1.04711 1
gene 1 9 28 -1.42293 0 18 -1.42293 1
gene 1 10 27 4.61507 0 19 4.61507 1
gene 1 10 28 -3.5501 0 20 -3.5501 1
gene 1 11 27 0.324152 0 21 0.324152 1
gene 1 11 28 -1.34697 0 22 -1.34697 1
gene 1 12 27 1.3714 0 23 1.3714 1
gene 1 12 28 4.0842 0 24 4.0842 1
gene 1 13 27 1.26532 0 25 1.26532 1
gene 1 13 28 -3.28092 0 26 -3.28092 1
gene 1 14 27 -1.10634 0 27 -1.10634 1
gene 1 14 28 0.487056 0 28 0.487056 0
gene 1 15 27 -2.50232 0 29 -2.50232 1
gene 1 15 28 -0.432379 0 30 -0.432379 1
gene 1 16 27 2.03922 0 31 2.03922 1
gene 1 16 28 -2.55064 0 32 -2.55064 1
gene 1 17 27 2.73885 0 33 2.73885 1
gene 1 17 28 0.985282 0 34 0.985282 1
gene 1 18 27 -2.58689 0 35 -2.58689 1
gene 1 18 28 0.531571 0 36 0.531571 1
gene 1 19 27 3.41871 0 37 3.41871 1
gene 1 19 28 -0.442297 0 38 -0.442297 1
gene 1 20 27 3.38542 0 39 3.38542 1
gene 1 20 28 0.00123981 0 40 0.00123981 1
gene 1 21 27 2.62698 0 41 2.62698 1
gene 1 21 28 1.06239 0 42 1.06239 1
gene 1 22 27 1.12281 0 43 1.12281 1
gene 1 22 28 0.543085 0 44 0.543085 1
gene 1 23 27 1.47322 0 45 1.47322 1
gene 1 23 28 0.602321 0 46 0.602321 1
gene 1 24 27 0.133499 0 47 0.133499 1
gene 1 24 28 -1.52462 0 48 -1.52462 1
gene 1 25 27 -2.32154 0 49 -2.32154 1
gene 1 25 28 -1.76081 0 50 -1.76081 1
gene 1 26 27 -0.958972 0 51 -0.958972 1
gene 1 26 28 3.61184 0 52 3.61184 1
gene 1 14 29 -3.4199 0 53 -3.4199 1
gene 1 29 28 1.63373 0 54 1.63373 1
gene 1 27 29 3.06938 0 62 3.06938 1
gene 1 11 38 -0.173189 0 90 -0.173189 1
gene 1 38 28 -0.764946 0 91 -0.764946 1
genomeend 6

/* Organism #7 Fitness: 0.147721 Error: 0 */
genomestart 7
trait 1 0 0.252211 0.00881603 0 0 0 0 0 
node 1 1 1 1
node 2 1 1 1
node 3 1 1 1
node 4 1 1 1
node 5 1 1 1
node 6 1 1 1
node 7 1 1 1
node 8 1 1 1
node 9 1 1 1
node 10 1 1 1
node 11 1 1 1
node 12 1 1 1
node 13 1 1 1
node 14 1 1 1
node 15 1 1 1
node 16 1 1 1
node 17 1 1 1
node 18 1 1 1
node 19 1 1 1
node 20 1 1 1
node 21 1 1 1
node 22 1 1 1
node 23 1 1 1
node 24 1 1 1
node 25 1 1 1
node 26 1 1 3
node 27 1 0 2
node 28 1 0 2
node 29 1 0 0
node 38 1 0 0
gene 1 1 27 0.12532 0 1 0.12532 1
gene 1 1 28 1.19632 0 2 1.19632 1
gene 1 2 27 3.59646 0 3 3.59646 1
gene 1 2 28 -3.51646 0 4 -3.51646 1
gene 1 3 27 -1.02631 0 5 -1.02631 1
gene 1 3 28 1.90867 0 6 1.90867 1
gene 1 4 27 0.270245 0 7 0.270245 1
gene 1 4 28 1.43997 0 8 1.43997 1
gene 1 5 27 -0.77451 0 9 -0.77451 1
gene 1 5 28 -1.80155 0 10 -1.80155 1
gene 1 6 27 -4.40806 0 11 -4.40806 1
gene 1 6 28 -3.58962 0 12 -3.58962 1
gene 1 7 27 -1.05862 0 13 -1.05862 1
gene 1 7 28 -4.67007 0 14 -4.67007 1
gene 1 8 27 -0.526723 0 15 -0.526723 1
gene 1 8 28 0.554762 0 16 0.554762 1
gene 1 9 27 1.04711 0 17 1.04711 1
gene 1 9 28 -1.42293 0 18 -1.42293 1
gene 1 10 27 4.61507 0 19 4.61507 1
gene 1 10 28 -3.5501 0 20 -3.5501 1
gene 1 11 27 0.324152 0 21 0.324152 1
gene 1 11 28 -1.34697 0 22 -1.34697 1
gene 1 12 27 1.3714 0 23 1.3714 1
gene 1 12 28 4.0842 0 24 4.0842 1
gene 1 13 27 1.26532 0 25 1.26532 1
gene 1 13 28 -3.28092 0 26 -3.28092 1
gene 1 14 27 -1.10634 0 27 -1.10634 1
gene 1 14 28 0.487056 0 28 0.487056 0
gene 1 15 27 -2.50232 0 29 -2.50232 1
gene 1 15 28 -0.432379 0 30 -0.432379 1
gene 1 16 27 2.03922 0 31 2.03922 1
gene 1 16 28 -2.55064 0 32 -2.55064 1
gene 1 17 27 2.73885 0 33 2.73885 1
gene 1 17 28 0.985282 0 34 0.985282 1
gene 1 18 27 -2.58689 0 35 -2.58689 1
gene 1 18 28 0.531571 0 36 0.531571 1
gene 1 19 27 3.41871 0 37 3.41871 1
gene 1 19 28 -0.442297 0 38 -0.442297 1
gene 1 20 27 3.38542 0 39 3.38542 1
gene 1 20 28 0.00123981 0 40 0.00123981 1
gene 1 21 27 2.62698 0 41 2.62698 1
gene 1 21 28 1.06239 0 42 1.06239 1
gene 1 22 27 1.12281 0 43 1.12281 1
gene 1 22 28 0.543085 0 44 0.543085 1
gene 1 23 27 1.47322 0 45 1.47322 1
gene 1 23 28 0.602321 0 46 0.602321 1
gene 1 24 27 0.133499 0 47 0.133499 1
gene 1 24 28 -1.52462 0 48 -1.52462 1
gene 1 25 27 -2.32154 0 49 -2.32154 1
gene 1 25 28 -1.76081 0 50 -1.76081 1
gene 1 26 27 -0.958972 0 51 -0.958972 1
gene 1 26 28 3.61184 0 52 3.61184 1
gene 1 14 29 -3.4199 0 53 -3.4199 1
gene 1 29 28 1.63373 0 54 1.63373 1
gene 1 27 29 3.06938 0 62 3.06938 1
gene 1 11 38 -0.173189 0 90 -0.173189 1
gene 1 38 28 -0.764946 0 91 -0.764946 1
genomeend 7

/* Organism #8 Fitness: 0.00682857 Error: 0 */
genomestart 8
trait 1 0 0.252211 0.00881603 0 0 0 0 0 
node 1 1 1 1
node 2 1 1 1
node 3 1 1 1
node 4 1 1 1
node 5 1 1 1
node 6 1 1 1
node 7 1 1 1
node 8 1 1 1
node 9 1 1 1
node 10 1 1 1
node 11 1 1 1
node 12 1 1 1
node 13 1 1 1
node 14 1 1 1
node 15 1 1 1
node 16 1 1 1
node 17 1 1 1
node 18 1 1 1
node 19 1 1 1
node 20 1 1 1
node 21 1 1 1
node 22 1 1 1
node 23 1 1 1
node 24 1 1 1
node 25 1 1 1
node 26 1 1 3
node 27 1 0 2
node 28 1 0 2
node 29 1 0 0
node 38 1 0 0
gene 1 1 27 0.162248 0 1 0.162248 1
gene 1 1 28 1.84293 0 2 1.84293 1
gene 1 2 27 -0.940657 0 3 -0.940657 1
gene 1 2 28 -1.08314 0 4 -1.08314 1
gene 1 3 27 -2.79143 0 5 -2.79143 1
gene 1 3 28 2.38773 0 6 2.38773 1
gene 1 4 27 -0.828345 0 7 -0.828345 1
gene 1 4 28 1.43997 0 8 1.43997 1
gene 1 5 27 -2.92935 0 9 -2.92935 1
gene 1 5 28 -0.224204 0 10 -0.224204 1
gene 1 6 27 -4.40806 0 11 -4.40806 1
gene 1 6 28 -1.7082 0 12 -1.7082 1
gene 1 7 27 1.09782 0 13 1.09782 1
gene 1 7 28 2.21526 0 14 2.21526 1
gene 1 8 27 0.784963 0 15 0.784963 1
gene 1 8 28 2.56517 0 16 2.56517 1
gene 1 9 27 -1.57201 0 17 -1.57201 1
gene 1 9 28 -0.0760674 0 18 -0.0760674 1
gene 1 10 27 5.79431 0 19 5.79431 1
gene 1 10 28 1.04747 0 20 1.04747 1
gene 1 11 27 1.63218 0 21 1.63218 1
gene 1 11 28 -3.11071 0 22 -3.11071 1
gene 1 12 27 3.83226 0 23 3.83226 1
gene 1 12 28 6.32327 0 24 6.32327 1
gene 1 13 27 -1.14374 0 25 -1.14374 1
gene 1 13 28 -4.97469 0 26 -4.97469 1
gene 1 14 27 -2.59122 0 27 -2.59122 1
gene 1 14 28 1.52171 0 28 1.52171 1
gene 1 15 27 -2.50232 0 29 -2.50232 1
gene 1 15 28 -0.28695 0 30 -0.28695 1
gene 1 16 27 -2.3484 0 31 -2.3484 1
gene 1 16 28 -2.55064 0 32 -2.55064 1
gene 1 17 27 1.85854 0 33 1.85854 1
gene 1 17 28 0.849628 0 34 0.849628 1
gene 1 18 27 -4.56533 0 35 -4.56533 1
gene 1 18 28 -0.801553 0 36 -0.801553 1
gene 1 19 27 2.69237 0 37 2.69237 1
gene 1 19 28 0.0659963 0 38 0.0659963 1
gene 1 20 27 5.40109 0 39 5.40109 1
gene 1 20 28 1.07786 0 40 1.07786 1
gene 1 21 27 1.44431 0 41 1.44431 1
gene 1 21 28 0.767617 0 42 0.767617 1
gene 1 22 27 0.878246 0 43 0.878246 1
gene 1 22 28 0.543085 0 44 0.543085 1
gene 1 23 27 0.692476 0 45 0.692476 1
gene 1 23 28 1.91237 0 46 1.91237 1
gene 1 24 27 -0.482288 0 47 -0.482288 1
gene 1 24 28 -2.26737 0 48 -2.26737 1
gene 1 25 27 -1.87483 0 49 -1.87483 1
gene 1 25 28 -3.69508 0 50 -3.69508 1
gene 1 26 27 0.953547 0 51 0.953547 1
gene 1 26 28 1.75357 0 52 1.75357 1
gene 1 14 29 -1.57353 0 53 -1.57353 1
gene 1 29 28 2.02635 0 54 2.02635 1
gene 1 27 29 1.21996 0 62 1.21996 1
gene 1 11 38 -0.551923 0 90 -0.551923 1
gene 1 38 28 -1.0152 0 91 -1.0152 1
genomeend 8

/* Species #4 : (Size 12) (AF 0) (Age 14)  */


/* Organism #9 Fitness: 0.147721 Error: 0 */
genomestart 9
trait 1 0.109691 0 0 0 0.00439228 0 0 0 
node 1 1 1 1
node 2 1 1 1
node 3 1 1 1
node 4 1 1 1
node 5 1 1 1
node 6 1 1 1
node 7 1 1 1
node 8 1 1 1
node 9 1 1 1
node 10 1 1 1
node 11 1 1 1
node 12 1 1 1
node 13 1 1 1
node 14 1 1 1
node 15 1 1 1
node 16 1 1 1
node 17 1 1 1
node 18 1 1 1
node 19 1 1 1
node 20 1 1 1
node 21 1 1 1
node 22 1 1 1
node 23 1 1 1
node 24 1 1 1
node 25 1 1 1
node 26 1 1 3
node 27 1 0 2
node 28 1 0 2
node 29 1 0 0
gene 1 1 27 -0.221946 0 1 -0.221946 1
gene 1 1 28 2.80342 0 2 2.80342 1
gene 1 2 27 5.45904 0 3 5.45904 1
gene 1 2 28 0.388699 0 4 0.388699 1
gene 1 3 27 7.0891 0 5 7.0891 1
gene 1 3 28 -2.03806 0 6 -2.03806 1
gene 1 4 27 3.38095 0 7 3.38095 1
gene 1 4 28 1.92034 0 8 1.92034 1
gene 1 5 27 -0.615383 0 9 -0.615383 1
gene 1 5 28 -0.888228 0 10 -0.888228 1
gene 1 6 27 -0.497705 0 11 -0.497705 1
gene 1 6 28 0.722121 0 12 0.722121 1
gene 1 7 27 -0.429586 0 13 -0.429586 1
gene 1 7 28 2.52653 0 14 2.52653 1
gene 1 8 27 -0.53341 0 15 -0.53341 1
gene 1 8 28 2.17726 0 16 2.17726 1
gene 1 9 27 -0.0462737 0 17 -0.0462737 1
gene 1 9 28 -2.2084 0 18 -2.2084 1
gene 1 10 27 2.15588 0 19 2.15588 1
gene 1 10 28 -2.06198 0 20 -2.06198 1
gene 1 11 27 2.84721 0 21 2.84721 1
gene 1 11 28 2.69906 0 22 2.69906 1
gene 1 12 27 -2.0315 0 23 -2.0315 1
gene 1 12 28 -1.57395 0 24 -1.57395 1
gene 1 13 27 -2.80721 0 25 -2.80721 0
gene 1 13 28 2.47818 0 26 2.47818 1
gene 1 14 27 -3.9247 0 27 -3.9247 1
gene 1 14 28 1.5297 0 28 1.5297 0
gene 1 15 27 0.817194 0 29 0.817194 1
gene 1 15 28 3.03878 0 30 3.03878 1
gene 1 16 27 2.85457 0 31 2.85457 1
gene 1 16 28 1.66575 0 32 1.66575 1
gene 1 17 27 0.0915746 0 33 0.0915746 1
gene 1 17 28 2.78221 0 34 2.78221 1
gene 1 18 27 2.30459 0 35 2.30459 1
gene 1 18 28 -4.72132 0 36 -4.72132 1
gene 1 19 27 -0.327792 0 37 -0.327792 1
gene 1 19 28 -0.103843 0 38 -0.103843 1
gene 1 20 27 1.53785 0 39 1.53785 1
gene 1 20 28 3.28499 0 40 3.28499 1
gene 1 21 27 3.84925 0 41 3.84925 1
gene 1 21 28 -2.36953 0 42 -2.36953 1
gene 1 22 27 4.61688 0 43 4.61688 1
gene 1 22 28 -2.62617 0 44 -2.62617 1
gene 1 23 27 3.76194 0 45 3.76194 1
gene 1 23 28 -1.95301 0 46 -1.95301 1
gene 1 24 27 0.480934 0 47 0.480934 1
gene 1 24 28 -2.47426 0 48 -2.47426 1
gene 1 25 27 3.14625 0 49 3.14625 1
gene 1 25 28 -1.05897 0 50 -1.05897 1
gene 1 26 27 -0.139664 0 51 -0.139664 1
gene 1 26 28 2.04794 0 52 2.04794 1
gene 1 14 29 -3.45917 0 53 -3.45917 1
gene 1 29 28 3.53515 0 54 3.53515 1
gene 1 27 29 0.0980407 0 62 0.0980407 1
gene 1 8 29 0.662584 0 71 0.662584 1
gene 1 7 29 0.0584048 0 92 0.0584048 1
genomeend 9

/* Organism #10 Fitness: 0.0362929 Error: 0 */
genomestart 10
trait 1 0.109691 0 0 0 0.00439228 0 0 0 
node 1 1 1 1
node 2 1 1 1
node 3 1 1 1
node 4 1 1 1
node 5 1 1 1
node 6 1 1 1
node 7 1 1 1
node 8 1 1 1
node 9 1 1 1
node 10 1 1 1
node 11 1 1 1
node 12 1 1 1
node 13 1 1 1
node 14 1 1 1
node 15 1 1 1
node 16 1 1 1
node 17 1 1 1
node 18 1 1 1
node 19 1 1 1
node 20 1 1 1
node 21 1 1 1
node 22 1 1 1
node 23 1 1 1
node 24 1 1 1
node 25 1 1 1
node 26 1 1 3
node 27 1 0 2
node 28 1 0 2
node 29 1 0 0
gene 1 1 27 -2.28877 0 1 -2.28877 1
gene 1 1 28 2.13164 0 2 2.13164 1
gene 1 2 27 6.71858 0 3 6.71858 1
gene 1 2 28 0.491775 0 4 0.491775 1
gene 1 3 27 8 0 5 8 1
gene 1 3 28 -2.79681 0 6 -2.79681 1
gene 1 4 27 2.27226 0 7 2.27226 1
gene 1 4 28 -0.97148 0 8 -0.97148 1
gene 1 5 27 0.632958 0 9 0.632958 1
gene 1 5 28 -1.3175 0 10 -1.3175 1
gene 1 6 27 -1.25053 0 11 -1.25053 1
gene 1 6 28 -1.17344 0 12 -1.17344 1
gene 1 7 27 -0.892819 0 13 -0.892819 1
gene 1 7 28 3.9073 0 14 3.9073 1
gene 1 8 27 -0.779519 0 15 -0.779519 1
gene 1 8 28 1.71859 0 16 1.71859 1
gene 1 9 27 1.21496 0 17 1.21496 1
gene 1 9 28 1.03969 0 18 1.03969 1
gene 1 10 27 3.83324 0 19 3.83324 1
gene 1 10 28 -0.483475 0 20 -0.483475 1
gene 1 11 27 1.66353 0 21 1.66353 1
gene 1 11 28 1.90424 0 22 1.90424 1
gene 1 12 27 0.474265 0 23 0.474265 1
gene 1 12 28 -0.11063 0 24 -0.11063 1
gene 1 13 27 -3.10944 0 25 -3.10944 0
gene 1 13 28 1.2552 0 26 1.2552 1
gene 1 14 27 -5.25993 0 27 -5.25993 1
gene 1 14 28 3.88331 0 28 3.88331 1
gene 1 15 27 1.99904 0 29 1.99904 1
gene 1 15 28 -0.282983 0 30 -0.282983 1
gene 1 16 27 2.1264 0 31 2.1264 1
gene 1 16 28 2.61695 0 32 2.61695 1
gene 1 17 27 1.37387 0 33 1.37387 1
gene 1 17 28 1.83299 0 34 1.83299 1
gene 1 18 27 0.359022 0 35 0.359022 1
gene 1 18 28 -5.24937 0 36 -5.24937 1
gene 1 19 27 -1.48296 0 37 -1.48296 1
gene 1 19 28 -3.31748 0 38 -3.31748 1
gene 1 20 27 -0.15099 0 39 -0.15099 1
gene 1 20 28 1.59708 0 40 1.59708 1
gene 1 21 27 1.75445 0 41 1.75445 1
gene 1 21 28 -1.26965 0 42 -1.26965 1
gene 1 22 27 6.28077 0 43 6.28077 1
gene 1 22 28 -1.12405 0 44 -1.12405 1
gene 1 23 27 4.64141 0 45 4.64141 1
gene 1 23 28 -0.0532548 0 46 -0.0532548 1
gene 1 24 27 1.93672 0 47 1.93672 1
gene 1 24 28 -4.14959 0 48 -4.14959 1
gene 1 25 27 4.35318 0 49 4.35318 1
gene 1 25 28 2.05214 0 50 2.05214 1
gene 1 26 27 0.927139 0 51 0.927139 1
gene 1 26 28 -1.14185 0 52 -1.14185 1
gene 1 14 29 -0.217292 0 53 -0.217292 1
gene 1 29 28 3.20357 0 54 3.20357 1
gene 1 27 29 -2.43385 0 62 -2.43385 1
gene 1 8 29 -1.13651 0 71 -1.13651 1
gene 1 7 29 1.12114 0 92 1.12114 1
genomeend 10

/* Organism #11 Fitness: 0.0620071 Error: 0 */
genomestart 11
trait 1 0.109691 0 0 0 0.00439228 0 0 0 
node 1 1 1 1
node 2 1 1 1
node 3 1 1 1
node 4 1 1 1
node 5 1 1 1
node 6 1 1 1
node 7 1 1 1
node 8 1 1 1
node 9 1 1 1
node 10 1 1 1
node 11 1 1 1
node 12 1 1 1
node 13 1 1 1
node 14 1 1 1
node 15 1 1 1
node 16 1 1 1
node 17 1 1 1
node 18 1 1 1
node 19 1 1 1
node 20 1 1 1
node 21 1 1 1
node 22 1 1 1
node 23 1 1 1
node 24 1 1 1
node 25 1 1 1
node 26 1 1 3
node 27 1 0 2
node 28 1 0 2
node 29 1 0 0
gene 1 1 27 -0.378239 0 1 -0.378239 1
gene 1 1 28 0.569018 0 2 0.569018 1
gene 1 2 27 3.0226 0 3 3.0226 1
gene 1 2 28 0.872723 0 4 0.872723 1
gene 1 3 27 7.78435 0 5 7.78435 1
gene 1 3 28 0.175176 0 6 0.175176 1
gene 1 4 27 4.94681 0 7 4.94681 1
gene 1 4 28 1.45436 0 8 1.45436 1
gene 1 5 27 -2.11552 0 9 -2.11552 1
gene 1 5 28 1.4216 0 10 1.4216 1
gene 1 6 27 -2.6369 0 11 -2.6369 1
gene 1 6 28 -2.19339 0 12 -2.19339 1
gene 1 7 27 -2.16334 0 13 -2.16334 1
gene 1 7 28 3.14571 0 14 3.14571 1
gene 1 8 27 -2.09653 0 15 -2.09653 1
gene 1 8 28 -1.72613 0 16 -1.72613 1
gene 1 9 27 -0.986969 0 17 -0.986969 1
gene 1 9 28 -1.12644 0 18 -1.12644 1
gene 1 10 27 2.76442 0 19 2.76442 1
gene 1 10 28 -0.98071 0 20 -0.98071 1
gene 1 11 27 1.25346 0 21 1.25346 1
gene 1 11 28 3.93513 0 22 3.93513 1
gene 1 12 27 -4.51101 0 23 -4.51101 1
gene 1 12 28 -0.363399 0 24 -0.363399 1
gene 1 13 27 -2.76856 0 25 -2.76856 0
gene 1 13 28 4.43689 0 26 4.43689 1
gene 1 14 27 1.14246 0 27 1.14246 1
gene 1 14 28 -0.402997 0 28 -0.402997 0
gene 1 15 27 2.10343 0 29 2.10343 1
gene 1 15 28 3.39325 0 30 3.39325 1
gene 1 16 27 0.39552 0 31 0.39552 1
gene 1 16 28 4.72393 0 32 4.72393 1
gene 1 17 27 2.75649 0 33 2.75649 1
gene 1 17 28 1.40705 0 34 1.40705 1
gene 1 18 27 5.02066 0 35 5.02066 1
gene 1 18 28 -4.30409 0 36 -4.30409 1
gene 1 19 27 -1.45123 0 37 -1.45123 1
gene 1 19 28 -1.72995 0 38 -1.72995 1
gene 1 20 27 1.61628 0 39 1.61628 1
gene 1 20 28 0.446848 0 40 0.446848 1
gene 1 21 27 3.33585 0 41 3.33585 1
gene 1 21 28 -1.133 0 42 -1.133 1
gene 1 22 27 2.39296 0 43 2.39296 1
gene 1 22 28 -3.52338 0 44 -3.52338 1
gene 1 23 27 1.55099 0 45 1.55099 1
gene 1 23 28 -2.45783 0 46 -2.45783 1
gene 1 24 27 0.0864055 0 47 0.0864055 1
gene 1 24 28 -5.48025 0 48 -5.48025 1
gene 1 25 27 0.874378 0 49 0.874378 1
gene 1 25 28 -1.42462 0 50 -1.42462 1
gene 1 26 27 -0.637638 0 51 -0.637638 1
gene 1 26 28 -0.318541 0 52 -0.318541 1
gene 1 14 29 -3.60424 0 53 -3.60424 1
gene 1 29 28 4.10001 0 54 4.10001 1
gene 1 27 29 -1.376 0 62 -1.376 1
gene 1 8 29 -1.18207 0 71 -1.18207 1
gene 1 7 29 1.3448 0 92 1.3448 1
genomeend 11

/* Organism #12 Fitness: 0.147721 Error: 0 */
genomestart 12
trait 1 0.109691 0 0 0 0 0 0 0 
node 1 1 1 1
node 2 1 1 1
node 3 1 1 1
node 4 1 1 1
node 5 1 1 1
node 6 1 1 1
node 7 1 1 1
node 8 1 1 1
node 9 1 1 1
node 10 1 1 1
node 11 1 1 1
node 12 1 1 1
node 13 1 1 1
node 14 1 1 1
node 15 1 1 1
node 16 1 1 1
node 17 1 1 1
node 18 1 1 1
node 19 1 1 1
node 20 1 1 1
node 21 1 1 1
node 22 1 1 1
node 23 1 1 1
node 24 1 1 1
node 25 1 1 1
node 26 1 1 3
node 27 1 0 2
node 28 1 0 2
node 29 1 0 0
gene 1 1 27 1.84393 0 1 1.84393 1
gene 1 1 28 2.98836 0 2 2.98836 1
gene 1 2 27 3.73291 0 3 3.73291 1
gene 1 2 28 0.710211 0 4 0.710211 1
gene 1 3 27 5.57485 0 5 5.57485 1
gene 1 3 28 -0.842158 0 6 -0.842158 1
gene 1 4 27 3.70004 0 7 3.70004 1
gene 1 4 28 1.42803 0 8 1.42803 1
gene 1 5 27 -1.6957 0 9 -1.6957 1
gene 1 5 28 -3.52544 0 10 -3.52544 1
gene 1 6 27 2.60038 0 11 2.60038 1
gene 1 6 28 2.2889 0 12 2.2889 1
gene 1 7 27 1.15024 0 13 1.15024 1
gene 1 7 28 1.35538 0 14 1.35538 1
gene 1 8 27 -1.4997 0 15 -1.4997 1
gene 1 8 28 3.13787 0 16 3.13787 1
gene 1 9 27 1.41156 0 17 1.41156 1
gene 1 9 28 -1.67156 0 18 -1.67156 1
gene 1 10 27 1.40446 0 19 1.40446 1
gene 1 10 28 -2.94005 0 20 -2.94005 1
gene 1 11 27 2.94163 0 21 2.94163 1
gene 1 11 28 2.91696 0 22 2.91696 1
gene 1 12 27 -2.21712 0 23 -2.21712 1
gene 1 12 28 -0.54857 0 24 -0.54857 1
gene 1 13 27 -4.10588 0 25 -4.10588 1
gene 1 13 28 2.19248 0 26 2.19248 1
gene 1 14 27 -2.1251 0 27 -2.1251 1
gene 1 14 28 1.15886 0 28 1.15886 1
gene 1 15 27 -1.2264 0 29 -1.2264 1
gene 1 15 28 1.4871 0 30 1.4871 1
gene 1 16 27 4.09408 0 31 4.09408 1
gene 1 16 28 1.10248 0 32 1.10248 1
gene 1 17 27 -0.246704 0 33 -0.246704 1
gene 1 17 28 2.47645 0 34 2.47645 1
gene 1 18 27 2.74575 0 35 2.74575 1
gene 1 18 28 -3.15997 0 36 -3.15997 1
gene 1 19 27 0.00669118 0 37 0.00669118 1
gene 1 19 28 -0.483646 0 38 -0.483646 1
gene 1 20 27 1.8523 0 39 1.8523 1
gene 1 20 28 2.33856 0 40 2.33856 1
gene 1 21 27 2.50668 0 41 2.50668 1
gene 1 21 28 -0.606784 0 42 -0.606784 1
gene 1 22 27 1.18892 0 43 1.18892 1
gene 1 22 28 -0.680235 0 44 -0.680235 1
gene 1 23 27 1.81418 0 45 1.81418 1
gene 1 23 28 -1.82022 0 46 -1.82022 1
gene 1 24 27 -0.88229 0 47 -0.88229 1
gene 1 24 28 -3.07513 0 48 -3.07513 1
gene 1 25 27 3.58282 0 49 3.58282 1
gene 1 25 28 -1.76156 0 50 -1.76156 1
gene 1 26 27 1.15426 0 51 1.15426 1
gene 1 26 28 1.36295 0 52 1.36295 1
gene 1 14 29 -2.38839 0 53 -2.38839 1
gene 1 29 28 2.79004 0 54 2.79004 1
gene 1 27 29 2.09659 0 62 2.09659 1
gene 1 8 29 0.65157 0 71 0.65157 1
gene 1 7 29 1.26801 0 92 1.26801 1
gene 1 3 29 0.831965 0 205 0 1
genomeend 12

/* Organism #13 Fitness: 0.147721 Error: 0 */
genomestart 13
trait 1 0.109691 0 0 0 0.00439228 0 0 0 
node 1 1 1 1
node 2 1 1 1
node 3 1 1 1
node 4 1 1 1
node 5 1 1 1
node 6 1 1 1
node 7 1 1 1
node 8 1 1 1
node 9 1 1 1
node 10 1 1 1
node 11 1 1 1
node 12 1 1 1
node 13 1 1 1
node 14 1 1 1
node 15 1 1 1
node 16 1 1 1
node 17 1 1 1
node 18 1 1 1
node 19 1 1 1
node 20 1 1 1
node 21 1 1 1
node 22 1 1 1
node 23 1 1 1
node 24 1 1 1
node 25 1 1 1
node 26 1 1 3
node 27 1 0 2
node 28 1 0 2
node 29 1 0 0
gene 1 1 27 -0.0081637 0 1 -0.0081637 1
gene 1 1 28 2.73734 0 2 2.73734 1
gene 1 2 27 5.23152 0 3 5.23152 1
gene 1 2 28 0.14745 0 4 0.14745 1
gene 1 3 27 5.98776 0 5 5.98776 1
gene 1 3 28 -4.68085 0 6 -4.68085 1
gene 1 4 27 0.892067 0 7 0.892067 1
gene 1 4 28 -0.224391 0 8 -0.224391 1
gene 1 5 27 -2.46522 0 9 -2.46522 1
gene 1 5 28 -0.689642 0 10 -0.689642 1
gene 1 6 27 -5.17823 0 11 -5.17823 1
gene 1 6 28 0.782891 0 12 0.782891 1
gene 1 7 27 1.84362 0 13 1.84362 1
gene 1 7 28 2.21142 0 14 2.21142 1
gene 1 8 27 0.254807 0 15 0.254807 1
gene 1 8 28 2.73938 0 16 2.73938 1
gene 1 9 27 -1.23539 0 17 -1.23539 1
gene 1 9 28 -1.99391 0 18 -1.99391 1
gene 1 10 27 2.08174 0 19 2.08174 1
gene 1 10 28 -1.63813 0 20 -1.63813 1
gene 1 11 27 0.981574 0 21 0.981574 1
gene 1 11 28 4.36598 0 22 4.36598 1
gene 1 12 27 -5.82296 0 23 -5.82296 1
gene 1 12 28 0.619678 0 24 0.619678 1
gene 1 13 27 -6.60184 0 25 -6.60184 0
gene 1 13 28 3.13375 0 26 3.13375 1
gene 1 14 27 -0.874989 0 27 -0.874989 1
gene 1 14 28 4.06529 0 28 4.06529 0
gene 1 15 27 0.249321 0 29 0.249321 1
gene 1 15 28 4.00847 0 30 4.00847 1
gene 1 16 27 1.81534 0 31 1.81534 1
gene 1 16 28 1.28308 0 32 1.28308 1
gene 1 17 27 1.94472 0 33 1.94472 1
gene 1 17 28 0.906507 0 34 0.906507 1
gene 1 18 27 0.460486 0 35 0.460486 1
gene 1 18 28 -6.08746 0 36 -6.08746 1
gene 1 19 27 2.0953 0 37 2.0953 1
gene 1 19 28 4.7029 0 38 4.7029 1
gene 1 20 27 -0.252941 0 39 -0.252941 1
gene 1 20 28 2.63359 0 40 2.63359 1
gene 1 21 27 4.11135 0 41 4.11135 1
gene 1 21 28 -0.43466 0 42 -0.43466 1
gene 1 22 27 4.58312 0 43 4.58312 1
gene 1 22 28 -2.22287 0 44 -2.22287 1
gene 1 23 27 0.737712 0 45 0.737712 1
gene 1 23 28 -0.714686 0 46 -0.714686 1
gene 1 24 27 -4.11481 0 47 -4.11481 1
gene 1 24 28 -7.74164 0 48 -7.74164 1
gene 1 25 27 2.70969 0 49 2.70969 1
gene 1 25 28 1.48701 0 50 1.48701 1
gene 1 26 27 -0.494018 0 51 -0.494018 1
gene 1 26 28 -3.18148 0 52 -3.18148 1
gene 1 14 29 -1.89291 0 53 -1.89291 1
gene 1 29 28 1.72948 0 54 1.72948 1
gene 1 27 29 -0.457701 0 62 -0.457701 1
gene 1 8 29 -4.55771 0 71 -4.55771 1
gene 1 7 29 -2.97826 0 92 -2.97826 1
genomeend 13

/* Organism #14 Fitness: 0.147721 Error: 0 */
genomestart 14
trait 1 0.109691 0 0 0 0.00439228 0 0 0 
node 1 1 1 1
node 2 1 1 1
node 3 1 1 1
node 4 1 1 1
node 5 1 1 1
node 6 1 1 1
node 7 1 1 1
node 8 1 1 1
node 9 1 1 1
node 10 1 1 1
node 11 1 1 1
node 12 1 1 1
node 13 1 1 1
node 14 1 1 1
node 15 1 1 1
node 16 1 1 1
node 17 1 1 1
node 18 1 1 1
node 19 1 1 1
node 20 1 1 1
node 21 1 1 1
node 22 1 1 1
node 23 1 1 1
node 24 1 1 1
node 25 1 1 1
node 26 1 1 3
node 27 1 0 2
node 28 1 0 2
node 29 1 0 0
gene 1 1 27 1.09256 0 1 1.09256 1
gene 1 1 28 2.52234 0 2 2.52234 1
gene 1 2 27 5.88622 0 3 5.88622 1
gene 1 2 28 -1.41438 0 4 -1.41438 1
gene 1 3 27 5.84188 0 5 5.84188 1
gene 1 3 28 1.54012 0 6 1.54012 1
gene 1 4 27 -0.638131 0 7 -0.638131 1
gene 1 4 28 -0.639821 0 8 -0.639821 1
gene 1 5 27 1.50539 0 9 1.50539 1
gene 1 5 28 -2.06508 0 10 -2.06508 1
gene 1 6 27 -0.902558 0 11 -0.902558 1
gene 1 6 28 0.495102 0 12 0.495102 1
gene 1 7 27 -0.85284 0 13 -0.85284 1
gene 1 7 28 0.0906171 0 14 0.0906171 1
gene 1 8 27 1.62234 0 15 1.62234 1
gene 1 8 28 0.251202 0 16 0.251202 1
gene 1 9 27 2.39372 0 17 2.39372 1
gene 1 9 28 -4.86398 0 18 -4.86398 1
gene 1 10 27 -2.3056 0 19 -2.3056 1
gene 1 10 28 -2.47731 0 20 -2.47731 1
gene 1 11 27 2.51955 0 21 2.51955 1
gene 1 11 28 4.52612 0 22 4.52612 1
gene 1 12 27 -0.493942 0 23 -0.493942 1
gene 1 12 28 -1.28628 0 24 -1.28628 1
gene 1 13 27 -6.65532 0 25 -6.65532 0
gene 1 13 28 -1.49014 0 26 -1.49014 1
gene 1 14 27 1.5315 0 27 1.5315 1
gene 1 14 28 0.936766 0 28 0.936766 0
gene 1 15 27 1.13665 0 29 1.13665 1
gene 1 15 28 3.2822 0 30 3.2822 1
gene 1 16 27 2.44929 0 31 2.44929 1
gene 1 16 28 4.51232 0 32 4.51232 1
gene 1 17 27 -1.74055 0 33 -1.74055 1
gene 1 17 28 3.08515 0 34 3.08515 1
gene 1 18 27 -0.352145 0 35 -0.352145 1
gene 1 18 28 -0.759529 0 36 -0.759529 1
gene 1 19 27 -1.02229 0 37 -1.02229 1
gene 1 19 28 -3.54229 0 38 -3.54229 1
gene 1 20 27 -0.0985176 0 39 -0.0985176 1
gene 1 20 28 5.23473 0 40 5.23473 1
gene 1 21 27 4.67453 0 41 4.67453 1
gene 1 21 28 0.352641 0 42 0.352641 1
gene 1 22 27 0.854518 0 43 0.854518 1
gene 1 22 28 -3.92199 0 44 -3.92199 1
gene 1 23 27 3.02576 0 45 3.02576 1
gene 1 23 28 0.603408 0 46 0.603408 1
gene 1 24 27 3.08786 0 47 3.08786 1
gene 1 24 28 -4.16945 0 48 -4.16945 1
gene 1 25 27 5.59246 0 49 5.59246 1
gene 1 25 28 0.269978 0 50 0.269978 1
gene 1 26 27 1.25219 0 51 1.25219 1
gene 1 26 28 1.36295 0 52 1.36295 1
gene 1 14 29 -4.60625 0 53 -4.60625 1
gene 1 29 28 1.9108 0 54 1.9108 1
gene 1 27 29 -2.06565 0 62 -2.06565 1
gene 1 8 29 -2.41684 0 71 -2.41684 1
gene 1 7 29 -3.22447 0 92 -3.22447 1
gene 1 3 29 0.831965 0 205 0.831965 1
genomeend 14

/* Organism #15 Fitness: 0.147721 Error: 0 */
genomestart 15
trait 1 0.109691 0 0 0 0.00439228 0 0 0 
node 1 1 1 1
node 2 1 1 1
node 3 1 1 1
node 4 1 1 1
node 5 1 1 1
node 6 1 1 1
node 7 1 1 1
node 8 1 1 1
node 9 1 1 1
node 10 1 1 1
node 11 1 1 1
node 12 1 1 1
node 13 1 1 1
node 14 1 1 1
node 15 1 1 1
node 16 1 1 1
node 17 1 1 1
node 18 1 1 1
node 19 1 1 1
node 20 1 1 1
node 21 1 1 1
node 22 1 1 1
node 23 1 1 1
node 24 1 1 1
node 25 1 1 1
node 26 1 1 3
node 27 1 0 2
node 28 1 0 2
node 29 1 0 0
gene 1 1 27 0.106357 0 1 0.106357 1
gene 1 1 28 2.52234 0 2 2.52234 1
gene 1 2 27 5.88622 0 3 5.88622 1
gene 1 2 28 -0.438505 0 4 -0.438505 1
gene 1 3 27 8 0 5 8 1
gene 1 3 28 1.04144 0 6 1.04144 1
gene 1 4 27 1.34176 0 7 1.34176 1
gene 1 4 28 0.419549 0 8 0.419549 1
gene 1 5 27 -0.451079 0 9 -0.451079 1
gene 1 5 28 -0.611641 0 10 -0.611641 1
gene 1 6 27 0.633438 0 11 0.633438 1
gene 1 6 28 0.495102 0 12 0.495102 1
gene 1 7 27 -0.0663015 0 13 -0.0663015 1
gene 1 7 28 2.01038 0 14 2.01038 1
gene 1 8 27 -0.386235 0 15 -0.386235 1
gene 1 8 28 0.639473 0 16 0.639473 1
gene 1 9 27 0.855815 0 17 0.855815 1
gene 1 9 28 -2.41853 0 18 -2.41853 1
gene 1 10 27 4.98767 0 19 4.98767 1
gene 1 10 28 -2.96103 0 20 -2.96103 1
gene 1 11 27 3.49157 0 21 3.49157 1
gene 1 11 28 4.52612 0 22 4.52612 1
gene 1 12 27 0.0720695 0 23 0.0720695 1
gene 1 12 28 -1.14315 0 24 -1.14315 1
gene 1 13 27 -5.46464 0 25 -5.46464 0
gene 1 13 28 1.15531 0 26 1.15531 1
gene 1 14 27 -4.39782 0 27 -4.39782 1
gene 1 14 28 2.53395 0 28 2.53395 0
gene 1 15 27 -0.150014 0 29 -0.150014 1
gene 1 15 28 3.2822 0 30 3.2822 1
gene 1 16 27 2.44929 0 31 2.44929 1
gene 1 16 28 3.05529 0 32 3.05529 1
gene 1 17 27 1.78587 0 33 1.78587 1
gene 1 17 28 0.88377 0 34 0.88377 1
gene 1 18 27 1.76851 0 35 1.76851 1
gene 1 18 28 -4.91742 0 36 -4.91742 1
gene 1 19 27 -0.963263 0 37 -0.963263 1
gene 1 19 28 -1.94846 0 38 -1.94846 1
gene 1 20 27 -0.245998 0 39 -0.245998 1
gene 1 20 28 3.1278 0 40 3.1278 1
gene 1 21 27 4.03997 0 41 4.03997 1
gene 1 21 28 -2.94099 0 42 -2.94099 1
gene 1 22 27 3.55533 0 43 3.55533 1
gene 1 22 28 -3.537 0 44 -3.537 1
gene 1 23 27 4.04668 0 45 4.04668 1
gene 1 23 28 -0.808607 0 46 -0.808607 1
gene 1 24 27 1.84416 0 47 1.84416 1
gene 1 24 28 -1.87339 0 48 -1.87339 1
gene 1 25 27 3.58282 0 49 3.58282 1
gene 1 25 28 -1.76156 0 50 -1.76156 1
gene 1 26 27 0.528596 0 51 0.528596 1
gene 1 26 28 1.36295 0 52 1.36295 1
gene 1 14 29 -4.60625 0 53 -4.60625 1
gene 1 29 28 2.41482 0 54 2.41482 1
gene 1 27 29 -1.74528 0 62 -1.74528 1
gene 1 8 29 1.64546 0 71 1.64546 1
gene 1 7 29 -1.1512 0 92 -1.1512 1
gene 1 3 29 0.831965 0 205 0.831965 1
genomeend 15

/* Organism #16 Fitness: 0.147721 Error: 0 */
genomestart 16
trait 1 0.109691 0 0 0 0.00219614 0 0 0 
node 1 1 1 1
node 2 1 1 1
node 3 1 1 1
node 4 1 1 1
node 5 1 1 1
node 6 1 1 1
node 7 1 1 1
node 8 1 1 1
node 9 1 1 1
node 10 1 1 1
node 11 1 1 1
node 12 1 1 1
node 13 1 1 1
node 14 1 1 1
node 15 1 1 1
node 16 1 1 1
node 17 1 1 1
node 18 1 1 1
node 19 1 1 1
node 20 1 1 1
node 21 1 1 1
node 22 1 1 1
node 23 1 1 1
node 24 1 1 1
node 25 1 1 1
node 26 1 1 3
node 27 1 0 2
node 28 1 0 2
node 29 1 0 0
gene 1 1 27 0.975143 0 1 0.975143 1
gene 1 1 28 2.75535 0 2 2.75535 1
gene 1 2 27 4.80957 0 3 4.80957 1
gene 1 2 28 0.135853 0 4 0.135853 1
gene 1 3 27 6.78743 0 5 6.78743 1
gene 1 3 28 0.0996429 0 6 0.0996429 1
gene 1 4 27 2.5209 0 7 2.5209 1
gene 1 4 28 0.923791 0 8 0.923791 1
gene 1 5 27 -1.07339 0 9 -1.07339 1
gene 1 5 28 -2.06854 0 10 -2.06854 1
gene 1 6 27 1.61691 0 11 1.61691 1
gene 1 6 28 1.392 0 12 1.392 1
gene 1 7 27 0.541971 0 13 0.541971 1
gene 1 7 28 1.68288 0 14 1.68288 1
gene 1 8 27 -0.942969 0 15 -0.942969 1
gene 1 8 28 1.88867 0 16 1.88867 1
gene 1 9 27 1.13369 0 17 1.13369 1
gene 1 9 28 -2.04505 0 18 -2.04505 1
gene 1 10 27 3.19607 0 19 3.19607 1
gene 1 10 28 -2.95054 0 20 -2.95054 1
gene 1 11 27 3.2166 0 21 3.2166 1
gene 1 11 28 3.72154 0 22 3.72154 1
gene 1 12 27 -1.07253 0 23 -1.07253 1
gene 1 12 28 -0.845859 0 24 -0.845859 1
gene 1 13 27 -4.78526 0 25 -4.78526 0
gene 1 13 28 1.6739 0 26 1.6739 1
gene 1 14 27 -3.26146 0 27 -3.26146 1
gene 1 14 28 1.84641 0 28 1.84641 0
gene 1 15 27 -0.688208 0 29 -0.688208 1
gene 1 15 28 2.38465 0 30 2.38465 1
gene 1 16 27 3.27168 0 31 3.27168 1
gene 1 16 28 2.07888 0 32 2.07888 1
gene 1 17 27 0.769581 0 33 0.769581 1
gene 1 17 28 1.68011 0 34 1.68011 1
gene 1 18 27 2.25713 0 35 2.25713 1
gene 1 18 28 -4.03869 0 36 -4.03869 1
gene 1 19 27 -0.478286 0 37 -0.478286 1
gene 1 19 28 -1.21605 0 38 -1.21605 1
gene 1 20 27 0.803152 0 39 0.803152 1
gene 1 20 28 2.73318 0 40 2.73318 1
gene 1 21 27 3.27333 0 41 3.27333 1
gene 1 21 28 -1.77389 0 42 -1.77389 1
gene 1 22 27 2.37213 0 43 2.37213 1
gene 1 22 28 -2.10862 0 44 -2.10862 1
gene 1 23 27 2.93043 0 45 2.93043 1
gene 1 23 28 -1.31441 0 46 -1.31441 1
gene 1 24 27 0.480934 0 47 0.480934 1
gene 1 24 28 -2.47426 0 48 -2.47426 1
gene 1 25 27 3.58282 0 49 3.58282 1
gene 1 25 28 -1.76156 0 50 -1.76156 1
gene 1 26 27 0.84143 0 51 0.84143 1
gene 1 26 28 1.36295 0 52 1.36295 1
gene 1 14 29 -3.49732 0 53 -3.49732 1
gene 1 29 28 2.60243 0 54 2.60243 1
gene 1 27 29 0.175655 0 62 0.175655 1
gene 1 8 29 1.14851 0 71 1.14851 1
gene 1 7 29 0.0584048 0 92 0.0584048 1
gene 1 3 29 0.831965 0 205 0.415983 1
genomeend 16

/* Organism #17 Fitness: 0.147721 Error: 0 */
genomestart 17
trait 1 0.109691 0 0 0 0.00439228 0 0 0 
node 1 1 1 1
node 2 1 1 1
node 3 1 1 1
node 4 1 1 1
node 5 1 1 1
node 6 1 1 1
node 7 1 1 1
node 8 1 1 1
node 9 1 1 1
node 10 1 1 1
node 11 1 1 1
node 12 1 1 1
node 13 1 1 1
node 14 1 1 1
node 15 1 1 1
node 16 1 1 1
node 17 1 1 1
node 18 1 1 1
node 19 1 1 1
node 20 1 1 1
node 21 1 1 1
node 22 1 1 1
node 23 1 1 1
node 24 1 1 1
node 25 1 1 1
node 26 1 1 3
node 27 1 0 2
node 28 1 0 2
node 29 1 0 0
gene 1 1 27 0.492416 0 1 0.492416 1
gene 1 1 28 1.42398 0 2 1.42398 1
gene 1 2 27 6.29899 0 3 6.29899 1
gene 1 2 28 -0.868587 0 4 -0.868587 1
gene 1 3 27 8 0 5 8 1
gene 1 3 28 2.14454 0 6 2.14454 1
gene 1 4 27 0.321982 0 7 0.321982 1
gene 1 4 28 0.801031 0 8 0.801031 1
gene 1 5 27 -2.6169 0 9 -2.6169 1
gene 1 5 28 0.361061 0 10 0.361061 1
gene 1 6 27 -1.02456 0 11 -1.02456 1
gene 1 6 28 -1.87054 0 12 -1.87054 1
gene 1 7 27 1.34655 0 13 1.34655 1
gene 1 7 28 0.779572 0 14 0.779572 1
gene 1 8 27 -1.70067 0 15 -1.70067 1
gene 1 8 28 1.52291 0 16 1.52291 1
gene 1 9 27 0.146794 0 17 0.146794 1
gene 1 9 28 -4.72711 0 18 -4.72711 1
gene 1 10 27 6.44897 0 19 6.44897 1
gene 1 10 28 -1.21186 0 20 -1.21186 1
gene 1 11 27 3.56542 0 21 3.56542 1
gene 1 11 28 6.88261 0 22 6.88261 1
gene 1 12 27 1.44082 0 23 1.44082 1
gene 1 12 28 1.25988 0 24 1.25988 1
gene 1 13 27 -6.69591 0 25 -6.69591 0
gene 1 13 28 1.09771 0 26 1.09771 1
gene 1 14 27 -5.31497 0 27 -5.31497 1
gene 1 14 28 4.75776 0 28 4.75776 0
gene 1 15 27 0.271294 0 29 0.271294 1
gene 1 15 28 5.72193 0 30 5.72193 1
gene 1 16 27 3.35912 0 31 3.35912 1
gene 1 16 28 2.71409 0 32 2.71409 1
gene 1 17 27 2.99951 0 33 2.99951 1
gene 1 17 28 0.69631 0 34 0.69631 1
gene 1 18 27 2.65393 0 35 2.65393 1
gene 1 18 28 -3.96898 0 36 -3.96898 1
gene 1 19 27 -3.28236 0 37 -3.28236 1
gene 1 19 28 -2.4041 0 38 -2.4041 1
gene 1 20 27 1.68453 0 39 1.68453 1
gene 1 20 28 2.01312 0 40 2.01312 1
gene 1 21 27 3.6372 0 41 3.6372 1
gene 1 21 28 -0.759911 0 42 -0.759911 1
gene 1 22 27 5.5472 0 43 5.5472 1
gene 1 22 28 -4.63452 0 44 -4.63452 1
gene 1 23 27 4.44312 0 45 4.44312 1
gene 1 23 28 0.586623 0 46 0.586623 1
gene 1 24 27 0.654927 0 47 0.654927 1
gene 1 24 28 -0.943182 0 48 -0.943182 1
gene 1 25 27 2.72037 0 49 2.72037 1
gene 1 25 28 -1.76156 0 50 -1.76156 1
gene 1 26 27 -1.00839 0 51 -1.00839 1
gene 1 26 28 3.72981 0 52 3.72981 1
gene 1 14 29 -6.2396 0 53 -6.2396 1
gene 1 29 28 -1.68203 0 54 -1.68203 1
gene 1 27 29 -0.196463 0 62 -0.196463 1
gene 1 8 29 3.74521 0 71 3.74521 1
gene 1 7 29 -1.1512 0 92 -1.1512 1
gene 1 3 29 -1.56854 0 205 -1.56854 1
genomeend 17

/* Organism #18 Fitness: 0.147721 Error: 0 */
genomestart 18
trait 1 0.109691 0 0 0 0.00439228 0 0 0 
node 1 1 1 1
node 2 1 1 1
node 3 1 1 1
node 4 1 1 1
node 5 1 1 1
node 6 1 1 1
node 7 1 1 1
node 8 1 1 1
node 9 1 1 1
node 10 1 1 1
node 11 1 1 1
node 12 1 1 1
node 13 1 1 1
node 14 1 1 1
node 15 1 1 1
node 16 1 1 1
node 17 1 1 1
node 18 1 1 1
node 19 1 1 1
node 20 1 1 1
node 21 1 1 1
node 22 1 1 1
node 23 1 1 1
node 24 1 1 1
node 25 1 1 1
node 26 1 1 3
node 27 1 0 2
node 28 1 0 2
node 29 1 0 0
gene 1 1 27 -0.404981 0 1 -0.404981 1
gene 1 1 28 1.11536 0 2 1.11536 1
gene 1 2 27 1.61306 0 3 1.61306 1
gene 1 2 28 -0.256584 0 4 -0.256584 1
gene 1 3 27 5.69814 0 5 5.69814 1
gene 1 3 28 -4.72016 0 6 -4.72016 1
gene 1 4 27 1.203 0 7 1.203 1
gene 1 4 28 0.447798 0 8 0.447798 1
gene 1 5 27 -0.506413 0 9 -0.506413 1
gene 1 5 28 -0.712906 0 10 -0.712906 1
gene 1 6 27 -0.791052 0 11 -0.791052 1
gene 1 6 28 0.394333 0 12 0.394333 1
gene 1 7 27 -1.03582 0 13 -1.03582 1
gene 1 7 28 1.20378 0 14 1.20378 1
gene 1 8 27 -0.63229 0 15 -0.63229 1
gene 1 8 28 4.96732 0 16 4.96732 1
gene 1 9 27 0.438189 0 17 0.438189 1
gene 1 9 28 -0.074799 0 18 -0.074799 1
gene 1 10 27 1.95371 0 19 1.95371 1
gene 1 10 28 2.40913 0 20 2.40913 1
gene 1 11 27 1.54469 0 21 1.54469 1
gene 1 11 28 0.360843 0 22 0.360843 1
gene 1 12 27 -4.68699 0 23 -4.68699 1
gene 1 12 28 -0.578803 0 24 -0.578803 1
gene 1 13 27 -1.45983 0 25 -1.45983 0
gene 1 13 28 3.34793 0 26 3.34793 1
gene 1 14 27 -3.61624 0 27 -3.61624 1
gene 1 14 28 -1.57399 0 28 -1.57399 0
gene 1 15 27 3.58667 0 29 3.58667 1
gene 1 15 28 4.12072 0 30 4.12072 1
gene 1 16 27 0.707343 0 31 0.707343 1
gene 1 16 28 -1.58391 0 32 -1.58391 1
gene 1 17 27 1.65825 0 33 1.65825 1
gene 1 17 28 4.1519 0 34 4.1519 1
gene 1 18 27 2.20243 0 35 2.20243 1
gene 1 18 28 -5.57914 0 36 -5.57914 1
gene 1 19 27 2.02908 0 37 2.02908 1
gene 1 19 28 3.53057 0 38 3.53057 1
gene 1 20 27 -1.12552 0 39 -1.12552 1
gene 1 20 28 3.23434 0 40 3.23434 1
gene 1 21 27 4.67746 0 41 4.67746 1
gene 1 21 28 -0.84727 0 42 -0.84727 1
gene 1 22 27 5.3559 0 43 5.3559 1
gene 1 22 28 -1.36793 0 44 -1.36793 1
gene 1 23 27 4.6329 0 45 4.6329 1
gene 1 23 28 -1.27827 0 46 -1.27827 1
gene 1 24 27 1.8111 0 47 1.8111 1
gene 1 24 28 -5.88117 0 48 -5.88117 1
gene 1 25 27 1.95977 0 49 1.95977 1
gene 1 25 28 -0.962162 0 50 -0.962162 1
gene 1 26 27 -2.60748 0 51 -2.60748 1
gene 1 26 28 -1.71141 0 52 -1.71141 1
gene 1 14 29 -1.67835 0 53 -1.67835 1
gene 1 29 28 2.37663 0 54 2.37663 1
gene 1 27 29 0.560205 0 62 0.560205 1
gene 1 8 29 -1.49116 0 71 -1.49116 1
gene 1 7 29 2.77474 0 92 2.77474 1
genomeend 18

/* Organism #19 Fitness: 0.147721 Error: 0 */
genomestart 19
trait 1 0.109691 0 0 0 0.00439228 0 0 0 
node 1 1 1 1
node 2 1 1 1
node 3 1 1 1
node 4 1 1 1
node 5 1 1 1
node 6 1 1 1
node 7 1 1 1
node 8 1 1 1
node 9 1 1 1
node 10 1 1 1
node 11 1 1 1
node 12 1 1 1
node 13 1 1 1
node 14 1 1 1
node 15 1 1 1
node 16 1 1 1
node 17 1 1 1
node 18 1 1 1
node 19 1 1 1
node 20 1 1 1
node 21 1 1 1
node 22 1 1 1
node 23 1 1 1
node 24 1 1 1
node 25 1 1 1
node 26 1 1 3
node 27 1 0 2
node 28 1 0 2
node 29 1 0 0
gene 1 1 27 1.2204 0 1 1.2204 1
gene 1 1 28 4.61042 0 2 4.61042 1
gene 1 2 27 7.23461 0 3 7.23461 1
gene 1 2 28 -0.68891 0 4 -0.68891 1
gene 1 3 27 5.02197 0 5 5.02197 1
gene 1 3 28 0.178152 0 6 0.178152 1
gene 1 4 27 2.54081 0 7 2.54081 1
gene 1 4 28 0.947062 0 8 0.947062 1
gene 1 5 27 -1.34157 0 9 -1.34157 1
gene 1 5 28 -2.52246 0 10 -2.52246 1
gene 1 6 27 0.695492 0 11 0.695492 1
gene 1 6 28 -0.132778 0 12 -0.132778 1
gene 1 7 27 -0.900334 0 13 -0.900334 1
gene 1 7 28 4.38652 0 14 4.38652 1
gene 1 8 27 0.686148 0 15 0.686148 1
gene 1 8 28 1.55545 0 16 1.55545 1
gene 1 9 27 2.08937 0 17 2.08937 1
gene 1 9 28 -0.933523 0 18 -0.933523 1
gene 1 10 27 2.98873 0 19 2.98873 1
gene 1 10 28 -3.40792 0 20 -3.40792 1
gene 1 11 27 0.515671 0 21 0.515671 1
gene 1 11 28 4.68665 0 22 4.68665 1
gene 1 12 27 -2.21838 0 23 -2.21838 1
gene 1 12 28 -2.55303 0 24 -2.55303 1
gene 1 13 27 -1.88726 0 25 -1.88726 0
gene 1 13 28 1.29165 0 26 1.29165 1
gene 1 14 27 -2.17794 0 27 -2.17794 1
gene 1 14 28 0.953169 0 28 0.953169 0
gene 1 15 27 0.430258 0 29 0.430258 1
gene 1 15 28 4.62063 0 30 4.62063 1
gene 1 16 27 3.53346 0 31 3.53346 1
gene 1 16 28 2.3119 0 32 2.3119 1
gene 1 17 27 -0.314131 0 33 -0.314131 1
gene 1 17 28 4.02645 0 34 4.02645 1
gene 1 18 27 2.15253 0 35 2.15253 1
gene 1 18 28 -4.31218 0 36 -4.31218 1
gene 1 19 27 1.77459 0 37 1.77459 1
gene 1 19 28 2.36205 0 38 2.36205 1
gene 1 20 27 3.77821 0 39 3.77821 1
gene 1 20 28 4.81634 0 40 4.81634 1
gene 1 21 27 2.1042 0 41 2.1042 1
gene 1 21 28 -2.40516 0 42 -2.40516 1
gene 1 22 27 4.38429 0 43 4.38429 1
gene 1 22 28 -1.36518 0 44 -1.36518 1
gene 1 23 27 0.161866 0 45 0.161866 1
gene 1 23 28 0.131058 0 46 0.131058 1
gene 1 24 27 2.23758 0 47 2.23758 1
gene 1 24 28 -1.93736 0 48 -1.93736 1
gene 1 25 27 0.888722 0 49 0.888722 1
gene 1 25 28 2.2763 0 50 2.2763 1
gene 1 26 27 0.0172887 0 51 0.0172887 1
gene 1 26 28 -0.338836 0 52 -0.338836 1
gene 1 14 29 -2.25189 0 53 -2.25189 1
gene 1 29 28 2.55821 0 54 2.55821 1
gene 1 27 29 -1.23917 0 62 -1.23917 1
gene 1 8 29 -0.942423 0 71 -0.942423 1
gene 1 7 29 -1.06616 0 92 -1.06616 1
genomeend 19

/* Organism #20 Fitness: 0.147721 Error: 0 */
genomestart 20
trait 1 0.109691 0 0 0 0.00439228 0 0 0 
node 1 1 1 1
node 2 1 1 1
node 3 1 1 1
node 4 1 1 1
node 5 1 1 1
node 6 1 1 1
node 7 1 1 1
node 8 1 1 1
node 9 1 1 1
node 10 1 1 1
node 11 1 1 1
node 12 1 1 1
node 13 1 1 1
node 14 1 1 1
node 15 1 1 1
node 16 1 1 1
node 17 1 1 1
node 18 1 1 1
node 19 1 1 1
node 20 1 1 1
node 21 1 1 1
node 22 1 1 1
node 23 1 1 1
node 24 1 1 1
node 25 1 1 1
node 26 1 1 3
node 27 1 0 2
node 28 1 0 2
node 29 1 0 0
gene 1 1 27 1.25263 0 1 1.25263 1
gene 1 1 28 3.42485 0 2 3.42485 1
gene 1 2 27 5.38129 0 3 5.38129 1
gene 1 2 28 -0.617267 0 4 -0.617267 1
gene 1 3 27 8 0 5 8 1
gene 1 3 28 2.65473 0 6 2.65473 1
gene 1 4 27 0.698046 0 7 0.698046 1
gene 1 4 28 -2.07954 0 8 -2.07954 1
gene 1 5 27 -0.721473 0 9 -0.721473 1
gene 1 5 28 -2.49547 0 10 -2.49547 1
gene 1 6 27 1.9365 0 11 1.9365 1
gene 1 6 28 -1.80302 0 12 -1.80302 1
gene 1 7 27 -2.41966 0 13 -2.41966 1
gene 1 7 28 1.46387 0 14 1.46387 1
gene 1 8 27 1.58953 0 15 1.58953 1
gene 1 8 28 0.578207 0 16 0.578207 1
gene 1 9 27 2.65862 0 17 2.65862 1
gene 1 9 28 -4.73642 0 18 -4.73642 1
gene 1 10 27 6.22932 0 19 6.22932 1
gene 1 10 28 -5.27502 0 20 -5.27502 1
gene 1 11 27 2.25725 0 21 2.25725 1
gene 1 11 28 5.13642 0 22 5.13642 1
gene 1 12 27 2.15198 0 23 2.15198 1
gene 1 12 28 0.790963 0 24 0.790963 1
gene 1 13 27 -5.14565 0 25 -5.14565 0
gene 1 13 28 0.810224 0 26 0.810224 1
gene 1 14 27 -6.57943 0 27 -6.57943 1
gene 1 14 28 1.56957 0 28 1.56957 0
gene 1 15 27 0.946135 0 29 0.946135 1
gene 1 15 28 2.51718 0 30 2.51718 1
gene 1 16 27 0.686918 0 31 0.686918 1
gene 1 16 28 2.12974 0 32 2.12974 1
gene 1 17 27 1.00024 0 33 1.00024 1
gene 1 17 28 0.137364 0 34 0.137364 1
gene 1 18 27 3.14306 0 35 3.14306 1
gene 1 18 28 -4.2895 0 36 -4.2895 1
gene 1 19 27 1.13733 0 37 1.13733 1
gene 1 19 28 -3.56045 0 38 -3.56045 1
gene 1 20 27 1.97415 0 39 1.97415 1
gene 1 20 28 4.61245 0 40 4.61245 1
gene 1 21 27 2.98029 0 41 2.98029 1
gene 1 21 28 -0.497757 0 42 -0.497757 1
gene 1 22 27 2.09258 0 43 2.09258 1
gene 1 22 28 -3.21327 0 44 -3.21327 1
gene 1 23 27 1.74681 0 45 1.74681 1
gene 1 23 28 -0.415757 0 46 -0.415757 1
gene 1 24 27 1.80349 0 47 1.80349 1
gene 1 24 28 -0.38805 0 48 -0.38805 1
gene 1 25 27 3.83116 0 49 3.83116 1
gene 1 25 28 -2.37231 0 50 -2.37231 1
gene 1 26 27 0.528596 0 51 0.528596 1
gene 1 26 28 1.36295 0 52 1.36295 1
gene 1 14 29 -0.226447 0 53 -0.226447 1
gene 1 29 28 2.68818 0 54 2.68818 1
gene 1 27 29 -1.88238 0 62 -1.88238 1
gene 1 8 29 0.40933 0 71 0.40933 1
gene 1 7 29 -1.1512 0 92 -1.1512 1
gene 1 3 29 3.18746 0 205 3.18746 1
genomeend 20

/* Species #5 : (Size 13) (AF 0) (Age 13)  */


/* Organism #21 Fitness: 0.147721 Error: 0 */
genomestart 21
trait 1 0 0.169614 0 0 0 0 0 0 
node 1 1 1 1
node 2 1 1 1
node 3 1 1 1
node 4 1 1 1
node 5 1 1 1
node 6 1 1 1
node 7 1 1 1
node 8 1 1 1
node 9 1 1 1
node 10 1 1 1
node 11 1 1 1
node 12 1 1 1
node 13 1 1 1
node 14 1 1 1
node 15 1 1 1
node 16 1 1 1
node 17 1 1 1
node 18 1 1 1
node 19 1 1 1
node 20 1 1 1
node 21 1 1 1
node 22 1 1 1
node 23 1 1 1
node 24 1 1 1
node 25 1 1 1
node 26 1 1 3
node 27 1 0 2
node 28 1 0 2
node 29 1 0 0
node 47 1 0 0
gene 1 1 27 0.461547 0 1 0.461547 1
gene 1 1 28 -2.68618 0 2 -2.68618 1
gene 1 2 27 0.792154 0 3 0.792154 1
gene 1 2 28 -2.0212 0 4 -2.0212 1
gene 1 3 27 -0.714576 0 5 -0.714576 1
gene 1 3 28 -0.975677 0 6 -0.975677 1
gene 1 4 27 3.3122 0 7 3.3122 1
gene 1 4 28 2.01836 0 8 2.01836 1
gene 1 5 27 4.01531 0 9 4.01531 1
gene 1 5 28 -2.33488 0 10 -2.33488 1
gene 1 6 27 0.87843 0 11 0.87843 1
gene 1 6 28 -0.956511 0 12 -0.956511 1
gene 1 7 27 -2.26704 0 13 -2.26704 1
gene 1 7 28 1.21334 0 14 1.21334 1
gene 1 8 27 -0.203848 0 15 -0.203848 1
gene 1 8 28 -1.69872 0 16 -1.69872 1
gene 1 9 27 2.66848 0 17 2.66848 1
gene 1 9 28 4.22584 0 18 4.22584 1
gene 1 10 27 0.918516 0 19 0.918516 1
gene 1 10 28 -0.026307 0 20 -0.026307 1
gene 1 11 27 -2.19216 0 21 -2.19216 1
gene 1 11 28 -0.148701 0 22 -0.148701 1
gene 1 12 27 2.69933 0 23 2.69933 1
gene 1 12 28 -1.7781 0 24 -1.7781 1
gene 1 13 27 1.42056 0 25 1.42056 1
gene 1 13 28 -0.949568 0 26 -0.949568 1
gene 1 14 27 -0.113666 0 27 -0.113666 1
gene 1 14 28 -1.84378 0 28 -1.84378 0
gene 1 15 27 2.49701 0 29 2.49701 1
gene 1 15 28 -1.41 0 30 -1.41 1
gene 1 16 27 -2.16256 0 31 -2.16256 1
gene 1 16 28 -0.30076 0 32 -0.30076 1
gene 1 17 27 2.81518 0 33 2.81518 1
gene 1 17 28 0.899335 0 34 0.899335 1
gene 1 18 27 -1.08446 0 35 -1.08446 1
gene 1 18 28 -3.29043 0 36 -3.29043 1
gene 1 19 27 1.53511 0 37 1.53511 1
gene 1 19 28 1.8032 0 38 1.8032 1
gene 1 20 27 2.50061 0 39 2.50061 1
gene 1 20 28 2.7308 0 40 2.7308 1
gene 1 21 27 2.38224 0 41 2.38224 1
gene 1 21 28 0.383999 0 42 0.383999 0
gene 1 22 27 1.17397 0 43 1.17397 1
gene 1 22 28 -0.608554 0 44 -0.608554 1
gene 1 23 27 -1.8328 0 45 -1.8328 1
gene 1 23 28 -2.58393 0 46 -2.58393 1
gene 1 24 27 -0.108417 0 47 -0.108417 1
gene 1 24 28 0.492035 0 48 0.492035 1
gene 1 25 27 2.10765 0 49 2.10765 1
gene 1 25 28 2.07999 0 50 2.07999 1
gene 1 26 27 3.23423 0 51 3.23423 1
gene 1 26 28 0.81492 0 52 0.81492 1
gene 1 14 29 -1.08533 0 53 -1.08533 1
gene 1 29 28 0.990478 0 54 0.990478 1
gene 1 27 29 -1.2019 0 62 -1.2019 1
gene 1 5 29 -1.45207 0 88 -1.45207 1
gene 1 18 29 -2.46849 0 94 -2.46849 1
gene 1 21 47 1 0 126 0 1
gene 1 47 28 0.383999 0 127 0 1
genomeend 21

/* Organism #22 Fitness: 0.0362929 Error: 0 */
genomestart 22
trait 1 0 0.169614 0 0 0 0 0 0 
node 1 1 1 1
node 2 1 1 1
node 3 1 1 1
node 4 1 1 1
node 5 1 1 1
node 6 1 1 1
node 7 1 1 1
node 8 1 1 1
node 9 1 1 1
node 10 1 1 1
node 11 1 1 1
node 12 1 1 1
node 13 1 1 1
node 14 1 1 1
node 15 1 1 1
node 16 1 1 1
node 17 1 1 1
node 18 1 1 1
node 19 1 1 1
node 20 1 1 1
node 21 1 1 1
node 22 1 1 1
node 23 1 1 1
node 24 1 1 1
node 25 1 1 1
node 26 1 1 3
node 27 1 0 2
node 28 1 0 2
node 29 1 0 0
node 47 1 0 0
gene 1 1 27 -2.28385 0 1 -2.28385 1
gene 1 1 28 -3.69947 0 2 -3.69947 1
gene 1 2 27 -0.773186 0 3 -0.773186 1
gene 1 2 28 -1.08947 0 4 -1.08947 1
gene 1 3 27 -0.714576 0 5 -0.714576 1
gene 1 3 28 -1.5302 0 6 -1.5302 1
gene 1 4 27 -2.26348 0 7 -2.26348 1
gene 1 4 28 1.3336 0 8 1.3336 1
gene 1 5 27 5.89715 0 9 5.89715 1
gene 1 5 28 -3.7163 0 10 -3.7163 1
gene 1 6 27 1.36375 0 11 1.36375 1
gene 1 6 28 1.2837 0 12 1.2837 1
gene 1 7 27 -4.56821 0 13 -4.56821 1
gene 1 7 28 1.49495 0 14 1.49495 1
gene 1 8 27 0.726661 0 15 0.726661 1
gene 1 8 28 -3.10723 0 16 -3.10723 1
gene 1 9 27 5.16131 0 17 5.16131 1
gene 1 9 28 1.89163 0 18 1.89163 1
gene 1 10 27 -0.766945 0 19 -0.766945 1
gene 1 10 28 2.33079 0 20 2.33079 1
gene 1 11 27 -3.34561 0 21 -3.34561 1
gene 1 11 28 2.47963 0 22 2.47963 1
gene 1 12 27 1.89891 0 23 1.89891 1
gene 1 12 28 -0.32046 0 24 -0.32046 1
gene 1 13 27 3.16141 0 25 3.16141 1
gene 1 13 28 0.523026 0 26 0.523026 1
gene 1 14 27 -1.06609 0 27 -1.06609 1
gene 1 14 28 -2.98227 0 28 -2.98227 0
gene 1 15 27 -0.026017 0 29 -0.026017 1
gene 1 15 28 -2.62883 0 30 -2.62883 1
gene 1 16 27 1.18122 0 31 1.18122 1
gene 1 16 28 -1.4642 0 32 -1.4642 1
gene 1 17 27 2.81518 0 33 2.81518 1
gene 1 17 28 -0.598972 0 34 -0.598972 1
gene 1 18 27 -2.13109 0 35 -2.13109 1
gene 1 18 28 -4.29975 0 36 -4.29975 1
gene 1 19 27 1.53511 0 37 1.53511 1
gene 1 19 28 3.18188 0 38 3.18188 1
gene 1 20 27 2.66984 0 39 2.66984 1
gene 1 20 28 1.96631 0 40 1.96631 1
gene 1 21 27 2.95416 0 41 2.95416 1
gene 1 21 28 -1.69454 0 42 -1.69454 0
gene 1 22 27 3.0855 0 43 3.0855 1
gene 1 22 28 1.1104 0 44 1.1104 1
gene 1 23 27 -2.0903 0 45 -2.0903 1
gene 1 23 28 -2.58393 0 46 -2.58393 1
gene 1 24 27 -0.177236 0 47 -0.177236 1
gene 1 24 28 0.492035 0 48 0.492035 1
gene 1 25 27 4.18329 0 49 4.18329 1
gene 1 25 28 2.02376 0 50 2.02376 1
gene 1 26 27 3.74595 0 51 3.74595 1
gene 1 26 28 0.405438 0 52 0.405438 1
gene 1 14 29 -1.257 0 53 -1.257 1
gene 1 29 28 0.767388 0 54 0.767388 1
gene 1 27 29 0.672933 0 62 0.672933 1
gene 1 5 29 0.978195 0 88 0.978195 1
gene 1 18 29 -4.83444 0 94 -4.83444 1
gene 1 21 47 -0.778237 0 126 -0.778237 1
gene 1 47 28 0.383999 0 127 0.383999 1
genomeend 22

/* Organism #23 Fitness: 0.0362929 Error: 0 */
genomestart 23
trait 1 0 0.169614 0 0 0 0 0 0 
node 1 1 1 1
node 2 1 1 1
node 3 1 1 1
node 4 1 1 1
node 5 1 1 1
node 6 1 1 1
node 7 1 1 1
node 8 1 1 1
node 9 1 1 1
node 10 1 1 1
node 11 1 1 1
node 12 1 1 1
node 13 1 1 1
node 14 1 1 1
node 15 1 1 1
node 16 1 1 1
node 17 1 1 1
node 18 1 1 1
node 19 1 1 1
node 20 1 1 1
node 21 1 1 1
node 22 1 1 1
node 23 1 1 1
node 24 1 1 1
node 25 1 1 1
node 26 1 1 3
node 27 1 0 2
node 28 1 0 2
node 29 1 0 0
node 47 1 0 0
gene 1 1 27 -0.982818 0 1 -0.982818 1
gene 1 1 28 -0.63976 0 2 -0.63976 1
gene 1 2 27 -0.24189 0 3 -0.24189 1
gene 1 2 28 -3.72436 0 4 -3.72436 1
gene 1 3 27 0.11774 0 5 0.11774 1
gene 1 3 28 -3.31683 0 6 -3.31683 1
gene 1 4 27 2.95819 0 7 2.95819 1
gene 1 4 28 2.99106 0 8 2.99106 1
gene 1 5 27 3.28156 0 9 3.28156 1
gene 1 5 28 -0.162038 0 10 -0.162038 1
gene 1 6 27 0.13535 0 11 0.13535 1
gene 1 6 28 -2.63823 0 12 -2.63823 1
gene 1 7 27 -1.56145 0 13 -1.56145 1
gene 1 7 28 3.20574 0 14 3.20574 1
gene 1 8 27 0.292978 0 15 0.292978 1
gene 1 8 28 -2.75192 0 16 -2.75192 1
gene 1 9 27 4.22385 0 17 4.22385 1
gene 1 9 28 5.65654 0 18 5.65654 1
gene 1 10 27 0.170354 0 19 0.170354 1
gene 1 10 28 -0.026307 0 20 -0.026307 1
gene 1 11 27 -4.69033 0 21 -4.69033 1
gene 1 11 28 1.38104 0 22 1.38104 1
gene 1 12 27 4.47131 0 23 4.47131 1
gene 1 12 28 0.460128 0 24 0.460128 1
gene 1 13 27 3.03926 0 25 3.03926 1
gene 1 13 28 0.878948 0 26 0.878948 1
gene 1 14 27 1.65624 0 27 1.65624 1
gene 1 14 28 -3.19628 0 28 -3.19628 0
gene 1 15 27 1.74879 0 29 1.74879 1
gene 1 15 28 -2.38293 0 30 -2.38293 1
gene 1 16 27 -0.212958 0 31 -0.212958 1
gene 1 16 28 0.864132 0 32 0.864132 1
gene 1 17 27 2.69608 0 33 2.69608 1
gene 1 17 28 -1.54382 0 34 -1.54382 1
gene 1 18 27 0.655629 0 35 0.655629 1
gene 1 18 28 -3.29043 0 36 -3.29043 1
gene 1 19 27 1.395 0 37 1.395 1
gene 1 19 28 1.8032 0 38 1.8032 1
gene 1 20 27 1.27979 0 39 1.27979 1
gene 1 20 28 2.15819 0 40 2.15819 1
gene 1 21 27 -0.0726646 0 41 -0.0726646 1
gene 1 21 28 2.45018 0 42 2.45018 0
gene 1 22 27 2.19588 0 43 2.19588 1
gene 1 22 28 1.8865 0 44 1.8865 1
gene 1 23 27 -2.85441 0 45 -2.85441 1
gene 1 23 28 -2.59056 0 46 -2.59056 1
gene 1 24 27 -0.04326 0 47 -0.04326 1
gene 1 24 28 -0.011597 0 48 -0.011597 1
gene 1 25 27 -1.50601 0 49 -1.50601 1
gene 1 25 28 -0.0826289 0 50 -0.0826289 1
gene 1 26 27 2.46112 0 51 2.46112 1
gene 1 26 28 0.573595 0 52 0.573595 1
gene 1 14 29 -0.914502 0 53 -0.914502 1
gene 1 29 28 1.47801 0 54 1.47801 1
gene 1 27 29 1.12384 0 62 1.12384 1
gene 1 5 29 -0.150685 0 88 -0.150685 1
gene 1 18 29 -1.9921 0 94 -1.9921 1
gene 1 21 47 0.857326 0 126 0.857326 1
gene 1 47 28 0.200049 0 127 0.200049 1
genomeend 23

/* Organism #24 Fitness: 0.0362929 Error: 0 */
genomestart 24
trait 1 0 0.169614 0 0 0 0 0 0 
node 1 1 1 1
node 2 1 1 1
node 3 1 1 1
node 4 1 1 1
node 5 1 1 1
node 6 1 1 1
node 7 1 1 1
node 8 1 1 1
node 9 1 1 1
node 10 1 1 1
node 11 1 1 1
node 12 1 1 1
node 13 1 1 1
node 14 1 1 1
node 15 1 1 1
node 16 1 1 1
node 17 1 1 1
node 18 1 1 1
node 19 1 1 1
node 20 1 1 1
node 21 1 1 1
node 22 1 1 1
node 23 1 1 1
node 24 1 1 1
node 25 1 1 1
node 26 1 1 3
node 27 1 0 2
node 28 1 0 2
node 29 1 0 0
node 47 1 0 0
gene 1 1 27 0.461547 0 1 0.461547 1
gene 1 1 28 -2.68618 0 2 -2.68618 1
gene 1 2 27 0.792154 0 3 0.792154 1
gene 1 2 28 -2.0212 0 4 -2.0212 1
gene 1 3 27 -0.714576 0 5 -0.714576 1
gene 1 3 28 -0.975677 0 6 -0.975677 1
gene 1 4 27 3.3122 0 7 3.3122 1
gene 1 4 28 2.01836 0 8 2.01836 1
gene 1 5 27 4.01531 0 9 4.01531 1
gene 1 5 28 -2.33488 0 10 -2.33488 1
gene 1 6 27 0.87843 0 11 0.87843 1
gene 1 6 28 -0.956511 0 12 -0.956511 1
gene 1 7 27 -2.26704 0 13 -2.26704 1
gene 1 7 28 1.21334 0 14 1.21334 1
gene 1 8 27 -0.203848 0 15 -0.203848 1
gene 1 8 28 -1.69872 0 16 -1.69872 1
gene 1 9 27 2.66848 0 17 2.66848 1
gene 1 9 28 4.22584 0 18 4.22584 1
gene 1 10 27 0.918516 0 19 0.918516 1
gene 1 10 28 -0.026307 0 20 -0.026307 1
gene 1 11 27 -2.19216 0 21 -2.19216 1
gene 1 11 28 -0.148701 0 22 -0.148701 1
gene 1 12 27 2.69933 0 23 2.69933 1
gene 1 12 28 -1.7781 0 24 -1.7781 1
gene 1 13 27 1.42056 0 25 1.42056 1
gene 1 13 28 -0.949568 0 26 -0.949568 1
gene 1 14 27 -0.113666 0 27 -0.113666 1
gene 1 14 28 -1.84378 0 28 -1.84378 1
gene 1 15 27 2.49701 0 29 2.49701 1
gene 1 15 28 -1.41 0 30 -1.41 1
gene 1 16 27 -2.16256 0 31 -2.16256 1
gene 1 16 28 -0.30076 0 32 -0.30076 1
gene 1 17 27 2.81518 0 33 2.81518 1
gene 1 17 28 0.899335 0 34 0.899335 1
gene 1 18 27 -1.08446 0 35 -1.08446 1
gene 1 18 28 -3.29043 0 36 -3.29043 1
gene 1 19 27 1.53511 0 37 1.53511 1
gene 1 19 28 1.8032 0 38 1.8032 1
gene 1 20 27 2.50061 0 39 2.50061 1
gene 1 20 28 2.7308 0 40 2.7308 1
gene 1 21 27 2.38224 0 41 2.38224 1
gene 1 21 28 0.383999 0 42 0.383999 0
gene 1 22 27 1.17397 0 43 1.17397 1
gene 1 22 28 -0.608554 0 44 -0.608554 1
gene 1 23 27 -1.8328 0 45 -1.8328 1
gene 1 23 28 -2.58393 0 46 -2.58393 1
gene 1 24 27 -0.108417 0 47 -0.108417 1
gene 1 24 28 0.492035 0 48 0.492035 1
gene 1 25 27 2.10765 0 49 2.10765 1
gene 1 25 28 2.07999 0 50 2.07999 1
gene 1 26 27 3.23423 0 51 3.23423 1
gene 1 26 28 0.81492 0 52 0.81492 1
gene 1 14 29 -1.08533 0 53 -1.08533 1
gene 1 29 28 0.990478 0 54 0.990478 1
gene 1 27 29 -1.2019 0 62 -1.2019 1
gene 1 5 29 -1.45207 0 88 -1.45207 1
gene 1 18 29 -2.46849 0 94 -2.46849 1
gene 1 21 47 1 0 126 0 1
gene 1 47 28 0.383999 0 127 0 1
genomeend 24

/* Organism #25 Fitness: 0.13915 Error: 0 */
genomestart 25
trait 1 0 0.169614 0.215003 0 0.855739 0 0 0 
node 1 1 1 1
node 2 1 1 1
node 3 1 1 1
node 4 1 1 1
node 5 1 1 1
node 6 1 1 1
node 7 1 1 1
node 8 1 1 1
node 9 1 1 1
node 10 1 1 1
node 11 1 1 1
node 12 1 1 1
node 13 1 1 1
node 14 1 1 1
node 15 1 1 1
node 16 1 1 1
node 17 1 1 1
node 18 1 1 1
node 19 1 1 1
node 20 1 1 1
node 21 1 1 1
node 22 1 1 1
node 23 1 1 1
node 24 1 1 1
node 25 1 1 1
node 26 1 1 3
node 27 1 0 2
node 28 1 0 2
node 29 1 0 0
node 47 1 0 0
gene 1 1 27 0.461547 0 1 0.461547 1
gene 1 1 28 -4.41658 0 2 -4.41658 1
gene 1 2 27 1.08437 0 3 1.08437 1
gene 1 2 28 -2.43614 0 4 -2.43614 1
gene 1 3 27 1.75643 0 5 1.75643 1
gene 1 3 28 -0.422681 0 6 -0.422681 1
gene 1 4 27 0.972732 0 7 0.972732 1
gene 1 4 28 0.586962 0 8 0.586962 1
gene 1 5 27 0.214011 0 9 0.214011 1
gene 1 5 28 -3.99593 0 10 -3.99593 1
gene 1 6 27 2.0862 0 11 2.0862 1
gene 1 6 28 -0.144871 0 12 -0.144871 1
gene 1 7 27 0.849101 0 13 0.849101 1
gene 1 7 28 1.44383 0 14 1.44383 1
gene 1 8 27 -1.57743 0 15 -1.57743 1
gene 1 8 28 -0.752205 0 16 -0.752205 1
gene 1 9 27 2.66848 0 17 2.66848 1
gene 1 9 28 2.19437 0 18 2.19437 1
gene 1 10 27 3.13576 0 19 3.13576 1
gene 1 10 28 0.130711 0 20 0.130711 1
gene 1 11 27 -1.02231 0 21 -1.02231 1
gene 1 11 28 -2.3027 0 22 -2.3027 1
gene 1 12 27 1.91791 0 23 1.91791 1
gene 1 12 28 -2.9787 0 24 -2.9787 1
gene 1 13 27 1.3007 0 25 1.3007 1
gene 1 13 28 -0.949568 0 26 -0.949568 1
gene 1 14 27 0.803339 0 27 0.803339 1
gene 1 14 28 -3.3552 0 28 -3.3552 0
gene 1 15 27 0.468596 0 29 0.468596 1
gene 1 15 28 0.648167 0 30 0.648167 1
gene 1 16 27 -4.38842 0 31 -4.38842 1
gene 1 16 28 -2.0323 0 32 -2.0323 1
gene 1 17 27 3.86074 0 33 3.86074 1
gene 1 17 28 0.697531 0 34 0.697531 1
gene 1 18 27 1.29751 0 35 1.29751 1
gene 1 18 28 -2.43645 0 36 -2.43645 1
gene 1 19 27 -0.599612 0 37 -0.599612 1
gene 1 19 28 1.70135 0 38 1.70135 1
gene 1 20 27 4.44807 0 39 4.44807 1
gene 1 20 28 3.38031 0 40 3.38031 1
gene 1 21 27 2.0663 0 41 2.0663 1
gene 1 21 28 -0.247276 0 42 -0.247276 0
gene 1 22 27 1.18664 0 43 1.18664 1
gene 1 22 28 2.43599 0 44 2.43599 1
gene 1 23 27 -0.533097 0 45 -0.533097 1
gene 1 23 28 -0.723518 0 46 -0.723518 1
gene 1 24 27 1.81494 0 47 1.81494 1
gene 1 24 28 2.30193 0 48 2.30193 1
gene 1 25 27 0.954772 0 49 0.954772 1
gene 1 25 28 0.574511 0 50 0.574511 1
gene 1 26 27 4.47366 0 51 4.47366 1
gene 1 26 28 3.25404 0 52 3.25404 1
gene 1 14 29 -3.34645 0 53 -3.34645 1
gene 1 29 28 -0.0206763 0 54 -0.0206763 1
gene 1 27 29 -1.14093 0 62 -1.14093 1
gene 1 5 29 0.930509 0 88 0.930509 1
gene 1 18 29 -2.46849 0 94 -2.46849 1
gene 1 21 47 -2.12622 0 126 -2.12622 1
gene 1 47 28 -0.928907 0 127 -0.928907 1
genomeend 25

/* Organism #26 Fitness: 0.147721 Error: 0 */
genomestart 26
trait 1 0 0.169614 0 0 0 0 0 0 
node 1 1 1 1
node 2 1 1 1
node 3 1 1 1
node 4 1 1 1
node 5 1 1 1
node 6 1 1 1
node 7 1 1 1
node 8 1 1 1
node 9 1 1 1
node 10 1 1 1
node 11 1 1 1
node 12 1 1 1
node 13 1 1 1
node 14 1 1 1
node 15 1 1 1
node 16 1 1 1
node 17 1 1 1
node 18 1 1 1
node 19 1 1 1
node 20 1 1 1
node 21 1 1 1
node 22 1 1 1
node 23 1 1 1
node 24 1 1 1
node 25 1 1 1
node 26 1 1 3
node 27 1 0 2
node 28 1 0 2
node 29 1 0 0
node 47 1 0 0
gene 1 1 27 0.461547 0 1 0.461547 1
gene 1 1 28 -2.68618 0 2 -2.68618 1
gene 1 2 27 0.792154 0 3 0.792154 1
gene 1 2 28 -2.0212 0 4 -2.0212 1
gene 1 3 27 -0.714576 0 5 -0.714576 1
gene 1 3 28 -0.975677 0 6 -0.975677 1
gene 1 4 27 3.3122 0 7 3.3122 1
gene 1 4 28 2.01836 0 8 2.01836 1
gene 1 5 27 4.01531 0 9 4.01531 1
gene 1 5 28 -2.33488 0 10 -2.33488 1
gene 1 6 27 0.87843 0 11 0.87843 1
gene 1 6 28 -0.956511 0 12 -0.956511 1
gene 1 7 27 -2.26704 0 13 -2.26704 1
gene 1 7 28 1.21334 0 14 1.21334 1
gene 1 8 27 -0.203848 0 15 -0.203848 1
gene 1 8 28 -1.69872 0 16 -1.69872 1
gene 1 9 27 2.66848 0 17 2.66848 1
gene 1 9 28 4.22584 0 18 4.22584 1
gene 1 10 27 0.918516 0 19 0.918516 1
gene 1 10 28 -0.026307 0 20 -0.026307 1
gene 1 11 27 -2.19216 0 21 -2.19216 1
gene 1 11 28 -0.148701 0 22 -0.148701 1
gene 1 12 27 2.69933 0 23 2.69933 1
gene 1 12 28 -1.7781 0 24 -1.7781 1
gene 1 13 27 1.42056 0 25 1.42056 1
gene 1 13 28 -0.949568 0 26 -0.949568 1
gene 1 14 27 -0.113666 0 27 -0.113666 1
gene 1 14 28 -1.84378 0 28 -1.84378 0
gene 1 15 27 2.49701 0 29 2.49701 1
gene 1 15 28 -1.41 0 30 -1.41 1
gene 1 16 27 -2.16256 0 31 -2.16256 1
gene 1 16 28 -0.30076 0 32 -0.30076 1
gene 1 17 27 2.81518 0 33 2.81518 1
gene 1 17 28 0.899335 0 34 0.899335 1
gene 1 18 27 -1.08446 0 35 -1.08446 1
gene 1 18 28 -3.29043 0 36 -3.29043 1
gene 1 19 27 1.53511 0 37 1.53511 1
gene 1 19 28 1.8032 0 38 1.8032 1
gene 1 20 27 2.50061 0 39 2.50061 1
gene 1 20 28 2.7308 0 40 2.7308 1
gene 1 21 27 2.38224 0 41 2.38224 1
gene 1 21 28 0.383999 0 42 0.383999 0
gene 1 22 27 1.17397 0 43 1.17397 1
gene 1 22 28 -0.608554 0 44 -0.608554 1
gene 1 23 27 -1.8328 0 45 -1.8328 1
gene 1 23 28 -2.58393 0 46 -2.58393 1
gene 1 24 27 -0.108417 0 47 -0.108417 1
gene 1 24 28 0.492035 0 48 0.492035 1
gene 1 25 27 2.10765 0 49 2.10765 1
gene 1 25 28 2.07999 0 50 2.07999 1
gene 1 26 27 3.23423 0 51 3.23423 1
gene 1 26 28 0.81492 0 52 0.81492 1
gene 1 14 29 -1.08533 0 53 -1.08533 1
gene 1 29 28 0.990478 0 54 0.990478 1
gene 1 27 29 -1.2019 0 62 -1.2019 1
gene 1 5 29 -1.45207 0 88 -1.45207 1
gene 1 18 29 -2.46849 0 94 -2.46849 1
gene 1 21 47 1 0 126 0 1
gene 1 47 28 0.383999 0 127 0 1
genomeend 26

/* Organism #27 Fitness: 0.1354 Error: 0 */
genomestart 27
trait 1 0 0.169614 0 0 0 0 0 0 
node 1 1 1 1
node 2 1 1 1
node 3 1 1 1
node 4 1 1 1
node 5 1 1 1
node 6 1 1 1
node 7 1 1 1
node 8 1 1 1
node 9 1 1 1
node 10 1 1 1
node 11 1 1 1
node 12 1 1 1
node 13 1 1 1
node 14 1 1 1
node 15 1 1 1
node 16 1 1 1
node 17 1 1 1
node 18 1 1 1
node 19 1 1 1
node 20 1 1 1
node 21 1 1 1
node 22 1 1 1
node 23 1 1 1
node 24 1 1 1
node 25 1 1 1
node 26 1 1 3
node 27 1 0 2
node 28 1 0 2
node 29 1 0 0
node 47 1 0 0
gene 1 1 27 -0.494293 0 1 -0.494293 1
gene 1 1 28 -1.36328 0 2 -1.36328 1
gene 1 2 27 0.156911 0 3 0.156911 1
gene 1 2 28 -3.75434 0 4 -3.75434 1
gene 1 3 27 -0.121677 0 5 -0.121677 1
gene 1 3 28 0.0783563 0 6 0.0783563 1
gene 1 4 27 1.86677 0 7 1.86677 1
gene 1 4 28 1.95419 0 8 1.95419 1
gene 1 5 27 4.22542 0 9 4.22542 1
gene 1 5 28 -0.60593 0 10 -0.60593 1
gene 1 6 27 -1.38917 0 11 -1.38917 1
gene 1 6 28 -1.15076 0 12 -1.15076 1
gene 1 7 27 0.120045 0 13 0.120045 1
gene 1 7 28 -0.130161 0 14 -0.130161 1
gene 1 8 27 -2.51837 0 15 -2.51837 1
gene 1 8 28 0.717734 0 16 0.717734 1
gene 1 9 27 0.245613 0 17 0.245613 1
gene 1 9 28 3.53482 0 18 3.53482 1
gene 1 10 27 3.34344 0 19 3.34344 1
gene 1 10 28 1.20138 0 20 1.20138 1
gene 1 11 27 -1.04344 0 21 -1.04344 1
gene 1 11 28 1.02687 0 22 1.02687 1
gene 1 12 27 2.32357 0 23 2.32357 1
gene 1 12 28 -1.13622 0 24 -1.13622 1
gene 1 13 27 1.17962 0 25 1.17962 1
gene 1 13 28 -1.07332 0 26 -1.07332 1
gene 1 14 27 1.0819 0 27 1.0819 1
gene 1 14 28 0.158162 0 28 0.158162 0
gene 1 15 27 2.4642 0 29 2.4642 1
gene 1 15 28 -2.50775 0 30 -2.50775 1
gene 1 16 27 0.313181 0 31 0.313181 1
gene 1 16 28 1.49144 0 32 1.49144 1
gene 1 17 27 0.487762 0 33 0.487762 1
gene 1 17 28 2.60685 0 34 2.60685 1
gene 1 18 27 1.09944 0 35 1.09944 1
gene 1 18 28 -1.33915 0 36 -1.33915 1
gene 1 19 27 0.825327 0 37 0.825327 1
gene 1 19 28 0.379971 0 38 0.379971 1
gene 1 20 27 1.02451 0 39 1.02451 1
gene 1 20 28 2.54654 0 40 2.54654 1
gene 1 21 27 1.522 0 41 1.522 1
gene 1 21 28 -1.5041 0 42 -1.5041 0
gene 1 22 27 1.16451 0 43 1.16451 1
gene 1 22 28 -0.883984 0 44 -0.883984 1
gene 1 23 27 -2.69869 0 45 -2.69869 1
gene 1 23 28 -4.8146 0 46 -4.8146 1
gene 1 24 27 1.1462 0 47 1.1462 1
gene 1 24 28 2.89277 0 48 2.89277 1
gene 1 25 27 2.37408 0 49 2.37408 1
gene 1 25 28 2.07999 0 50 2.07999 1
gene 1 26 27 1.76621 0 51 1.76621 1
gene 1 26 28 0.307855 0 52 0.307855 1
gene 1 14 29 2.45933 0 53 2.45933 1
gene 1 29 28 2.75033 0 54 2.75033 1
gene 1 27 29 -1.2019 0 62 -1.2019 1
gene 1 5 29 -0.58771 0 88 -0.58771 1
gene 1 18 29 -2.09426 0 94 -2.09426 1
gene 1 21 47 0.606616 0 126 0.606616 1
gene 1 47 28 0.383999 0 127 0.383999 1
genomeend 27

/* Organism #28 Fitness: 0.0362929 Error: 0 */
genomestart 28
trait 1 0 0.169614 0 0.429701 0 0 0 0.202673 
node 1 1 1 1
node 2 1 1 1
node 3 1 1 1
node 4 1 1 1
node 5 1 1 1
node 6 1 1 1
node 7 1 1 1
node 8 1 1 1
node 9 1 1 1
node 10 1 1 1
node 11 1 1 1
node 12 1 1 1
node 13 1 1 1
node 14 1 1 1
node 15 1 1 1
node 16 1 1 1
node 17 1 1 1
node 18 1 1 1
node 19 1 1 1
node 20 1 1 1
node 21 1 1 1
node 22 1 1 1
node 23 1 1 1
node 24 1 1 1
node 25 1 1 1
node 26 1 1 3
node 27 1 0 2
node 28 1 0 2
node 29 1 0 0
node 47 1 0 0
gene 1 1 27 0.921918 0 1 0.921918 1
gene 1 1 28 -2.74523 0 2 -2.74523 1
gene 1 2 27 1.73792 0 3 1.73792 1
gene 1 2 28 -4.00398 0 4 -4.00398 1
gene 1 3 27 -0.107028 0 5 -0.107028 1
gene 1 3 28 0.466323 0 6 0.466323 1
gene 1 4 27 0.965331 0 7 0.965331 1
gene 1 4 28 3.1448 0 8 3.1448 1
gene 1 5 27 1.67988 0 9 1.67988 1
gene 1 5 28 0.0567797 0 10 0.0567797 1
gene 1 6 27 3.32571 0 11 3.32571 1
gene 1 6 28 -3.17872 0 12 -3.17872 1
gene 1 7 27 -0.514512 0 13 -0.514512 1
gene 1 7 28 2.97029 0 14 2.97029 1
gene 1 8 27 -2.27842 0 15 -2.27842 1
gene 1 8 28 -0.321574 0 16 -0.321574 1
gene 1 9 27 2.55968 0 17 2.55968 1
gene 1 9 28 6.58248 0 18 6.58248 1
gene 1 10 27 2.02298 0 19 2.02298 1
gene 1 10 28 0.0483108 0 20 0.0483108 1
gene 1 11 27 -3.80079 0 21 -3.80079 1
gene 1 11 28 1.14284 0 22 1.14284 1
gene 1 12 27 1.42648 0 23 1.42648 1
gene 1 12 28 -1.29179 0 24 -1.29179 1
gene 1 13 27 0.197913 0 25 0.197913 1
gene 1 13 28 -0.692221 0 26 -0.692221 1
gene 1 14 27 -1.60221 0 27 -1.60221 1
gene 1 14 28 -2.62879 0 28 -2.62879 0
gene 1 15 27 2.4977 0 29 2.4977 1
gene 1 15 28 -2.26704 0 30 -2.26704 1
gene 1 16 27 -1.51701 0 31 -1.51701 1
gene 1 16 28 0.155873 0 32 0.155873 1
gene 1 17 27 3.19964 0 33 3.19964 1
gene 1 17 28 -1.51369 0 34 -1.51369 1
gene 1 18 27 -1.52034 0 35 -1.52034 1
gene 1 18 28 -3.904 0 36 -3.904 1
gene 1 19 27 0.0157476 0 37 0.0157476 1
gene 1 19 28 4.08332 0 38 4.08332 1
gene 1 20 27 1.83866 0 39 1.83866 1
gene 1 20 28 0.924558 0 40 0.924558 1
gene 1 21 27 0.314615 0 41 0.314615 1
gene 1 21 28 1.54195 0 42 1.54195 0
gene 1 22 27 -0.874889 0 43 -0.874889 1
gene 1 22 28 1.22782 0 44 1.22782 1
gene 1 23 27 -1.31231 0 45 -1.31231 1
gene 1 23 28 -1.68073 0 46 -1.68073 1
gene 1 24 27 -1.66547 0 47 -1.66547 1
gene 1 24 28 -0.576876 0 48 -0.576876 1
gene 1 25 27 2.10765 0 49 2.10765 1
gene 1 25 28 1.72681 0 50 1.72681 1
gene 1 26 27 3.23423 0 51 3.23423 1
gene 1 26 28 -0.195013 0 52 -0.195013 1
gene 1 14 29 -1.08533 0 53 -1.08533 1
gene 1 29 28 -2.22106 0 54 -2.22106 1
gene 1 27 29 -0.646077 0 62 -0.646077 1
gene 1 5 29 0.584429 0 88 0.584429 1
gene 1 18 29 1.13216 0 94 1.13216 1
gene 1 21 47 3.34725 0 126 3.34725 1
gene 1 47 28 -0.203024 0 127 -0.203024 1
genomeend 28

/* Organism #29 Fitness: 0.0362929 Error: 0 */
genomestart 29
trait 1 0 0.169614 0 0 0 0 0 0 
node 1 1 1 1
node 2 1 1 1
node 3 1 1 1
node 4 1 1 1
node 5 1 1 1
node 6 1 1 1
node 7 1 1 1
node 8 1 1 1
node 9 1 1 1
node 10 1 1 1
node 11 1 1 1
node 12 1 1 1
node 13 1 1 1
node 14 1 1 1
node 15 1 1 1
node 16 1 1 1
node 17 1 1 1
node 18 1 1 1
node 19 1 1 1
node 20 1 1 1
node 21 1 1 1
node 22 1 1 1
node 23 1 1 1
node 24 1 1 1
node 25 1 1 1
node 26 1 1 3
node 27 1 0 2
node 28 1 0 2
node 29 1 0 0
node 47 1 0 0
gene 1 1 27 1.09023 0 1 1.09023 1
gene 1 1 28 -3.70695 0 2 -3.70695 1
gene 1 2 27 -1.51062 0 3 -1.51062 1
gene 1 2 28 -1.26975 0 4 -1.26975 1
gene 1 3 27 0.551561 0 5 0.551561 1
gene 1 3 28 -0.321284 0 6 -0.321284 1
gene 1 4 27 0.12772 0 7 0.12772 1
gene 1 4 28 2.52779 0 8 2.52779 1
gene 1 5 27 0.685293 0 9 0.685293 1
gene 1 5 28 0.140477 0 10 0.140477 1
gene 1 6 27 2.10588 0 11 2.10588 1
gene 1 6 28 1.50809 0 12 1.50809 1
gene 1 7 27 -0.524049 0 13 -0.524049 1
gene 1 7 28 -0.794549 0 14 -0.794549 1
gene 1 8 27 0.604205 0 15 0.604205 1
gene 1 8 28 0.209143 0 16 0.209143 1
gene 1 9 27 -2.22587 0 17 -2.22587 1
gene 1 9 28 -0.331736 0 18 -0.331736 1
gene 1 10 27 0.446852 0 19 0.446852 1
gene 1 10 28 -1.49579 0 20 -1.49579 1
gene 1 11 27 -0.21868 0 21 -0.21868 1
gene 1 11 28 0.655309 0 22 0.655309 1
gene 1 12 27 0.667257 0 23 0.667257 1
gene 1 12 28 0.513077 0 24 0.513077 1
gene 1 13 27 0.0855281 0 25 0.0855281 1
gene 1 13 28 1.03977 0 26 1.03977 1
gene 1 14 27 1.72942 0 27 1.72942 1
gene 1 14 28 -0.882595 0 28 -0.882595 0
gene 1 15 27 3.38044 0 29 3.38044 1
gene 1 15 28 -1.01154 0 30 -1.01154 1
gene 1 16 27 -4.59877 0 31 -4.59877 1
gene 1 16 28 1.81661 0 32 1.81661 1
gene 1 17 27 1.76679 0 33 1.76679 1
gene 1 17 28 2.77493 0 34 2.77493 1
gene 1 18 27 0.93083 0 35 0.93083 1
gene 1 18 28 -4.32173 0 36 -4.32173 1
gene 1 19 27 -0.0732902 0 37 -0.0732902 1
gene 1 19 28 -1.38577 0 38 -1.38577 1
gene 1 20 27 1.10393 0 39 1.10393 1
gene 1 20 28 -0.7107 0 40 -0.7107 1
gene 1 21 27 2.19619 0 41 2.19619 1
gene 1 21 28 -0.11887 0 42 -0.11887 0
gene 1 22 27 3.06734 0 43 3.06734 1
gene 1 22 28 0.461806 0 44 0.461806 1
gene 1 23 27 -3.08139 0 45 -3.08139 1
gene 1 23 28 -4.64454 0 46 -4.64454 1
gene 1 24 27 2.08747 0 47 2.08747 1
gene 1 24 28 -1.6818 0 48 -1.6818 1
gene 1 25 27 0.0364391 0 49 0.0364391 1
gene 1 25 28 3.1756 0 50 3.1756 1
gene 1 26 27 1.29131 0 51 1.29131 1
gene 1 26 28 1.65197 0 52 1.65197 1
gene 1 14 29 -2.02339 0 53 -2.02339 1
gene 1 29 28 0.990478 0 54 0.990478 1
gene 1 27 29 -1.2019 0 62 -1.2019 1
gene 1 5 29 0.957595 0 88 0.957595 1
gene 1 18 29 2.15064 0 94 2.15064 1
gene 1 21 47 -1.02345 0 126 -1.02345 1
gene 1 47 28 1.80631 0 127 1.80631 1
genomeend 29

/* Organism #30 Fitness: 0.0362929 Error: 0 */
genomestart 30
trait 1 0 0.169614 0 0 0 0 0 0 
node 1 1 1 1
node 2 1 1 1
node 3 1 1 1
node 4 1 1 1
node 5 1 1 1
node 6 1 1 1
node 7 1 1 1
node 8 1 1 1
node 9 1 1 1
node 10 1 1 1
node 11 1 1 1
node 12 1 1 1
node 13 1 1 1
node 14 1 1 1
node 15 1 1 1
node 16 1 1 1
node 17 1 1 1
node 18 1 1 1
node 19 1 1 1
node 20 1 1 1
node 21 1 1 1
node 22 1 1 1
node 23 1 1 1
node 24 1 1 1
node 25 1 1 1
node 26 1 1 3
node 27 1 0 2
node 28 1 0 2
node 29 1 0 0
node 47 1 0 0
gene 1 1 27 0.431715 0 1 0.431715 1
gene 1 1 28 -4.4738 0 2 -4.4738 1
gene 1 2 27 1.18744 0 3 1.18744 1
gene 1 2 28 -2.66498 0 4 -2.66498 1
gene 1 3 27 -0.19866 0 5 -0.19866 1
gene 1 3 28 -0.27543 0 6 -0.27543 1
gene 1 4 27 1.89897 0 7 1.89897 1
gene 1 4 28 3.31616 0 8 3.31616 1
gene 1 5 27 5.92698 0 9 5.92698 1
gene 1 5 28 -2.40805 0 10 -2.40805 1
gene 1 6 27 2.45669 0 11 2.45669 1
gene 1 6 28 0.0989715 0 12 0.0989715 1
gene 1 7 27 -0.792535 0 13 -0.792535 1
gene 1 7 28 0.639973 0 14 0.639973 1
gene 1 8 27 0.0167241 0 15 0.0167241 1
gene 1 8 28 -0.7219 0 16 -0.7219 1
gene 1 9 27 3.04134 0 17 3.04134 1
gene 1 9 28 2.05635 0 18 2.05635 1
gene 1 10 27 0.805673 0 19 0.805673 1
gene 1 10 28 0.928465 0 20 0.928465 1
gene 1 11 27 -2.44142 0 21 -2.44142 1
gene 1 11 28 0.545518 0 22 0.545518 1
gene 1 12 27 1.16677 0 23 1.16677 1
gene 1 12 28 -0.500214 0 24 -0.500214 1
gene 1 13 27 3.70243 0 25 3.70243 1
gene 1 13 28 0.957915 0 26 0.957915 1
gene 1 14 27 -1.43809 0 27 -1.43809 1
gene 1 14 28 -3.53626 0 28 -3.53626 0
gene 1 15 27 1.24934 0 29 1.24934 1
gene 1 15 28 -1.96803 0 30 -1.96803 1
gene 1 16 27 -0.199149 0 31 -0.199149 1
gene 1 16 28 -0.766396 0 32 -0.766396 1
gene 1 17 27 4.90005 0 33 4.90005 1
gene 1 17 28 -1.04729 0 34 -1.04729 1
gene 1 18 27 -0.468062 0 35 -0.468062 1
gene 1 18 28 -4.2378 0 36 -4.2378 1
gene 1 19 27 2.99031 0 37 2.99031 1
gene 1 19 28 0.815088 0 38 0.815088 1
gene 1 20 27 1.79495 0 39 1.79495 1
gene 1 20 28 3.3639 0 40 3.3639 1
gene 1 21 27 4.18879 0 41 4.18879 1
gene 1 21 28 -0.890225 0 42 -0.890225 0
gene 1 22 27 2.14438 0 43 2.14438 1
gene 1 22 28 -0.834925 0 44 -0.834925 1
gene 1 23 27 -1.39738 0 45 -1.39738 1
gene 1 23 28 -0.947981 0 46 -0.947981 1
gene 1 24 27 -2.13843 0 47 -2.13843 1
gene 1 24 28 0.290841 0 48 0.290841 1
gene 1 25 27 -1.03778 0 49 -1.03778 1
gene 1 25 28 2.07999 0 50 2.07999 1
gene 1 26 27 4.27026 0 51 4.27026 1
gene 1 26 28 1.26095 0 52 1.26095 1
gene 1 14 29 -2.07321 0 53 -2.07321 1
gene 1 29 28 -1.17397 0 54 -1.17397 1
gene 1 27 29 -0.992462 0 62 -0.992462 1
gene 1 5 29 -1.45207 0 88 -1.45207 1
gene 1 18 29 -2.46849 0 94 -2.46849 1
gene 1 21 47 1 0 126 1 1
gene 1 47 28 0.383999 0 127 0.383999 1
genomeend 30

/* Organism #31 Fitness: 0.147721 Error: 0 */
genomestart 31
trait 1 0 0.169614 0 0 0 0 0 0 
node 1 1 1 1
node 2 1 1 1
node 3 1 1 1
node 4 1 1 1
node 5 1 1 1
node 6 1 1 1
node 7 1 1 1
node 8 1 1 1
node 9 1 1 1
node 10 1 1 1
node 11 1 1 1
node 12 1 1 1
node 13 1 1 1
node 14 1 1 1
node 15 1 1 1
node 16 1 1 1
node 17 1 1 1
node 18 1 1 1
node 19 1 1 1
node 20 1 1 1
node 21 1 1 1
node 22 1 1 1
node 23 1 1 1
node 24 1 1 1
node 25 1 1 1
node 26 1 1 3
node 27 1 0 2
node 28 1 0 2
node 29 1 0 0
node 47 1 0 0
gene 1 1 27 0.461547 0 1 0.461547 1
gene 1 1 28 -2.68618 0 2 -2.68618 1
gene 1 2 27 0.792154 0 3 0.792154 1
gene 1 2 28 -2.0212 0 4 -2.0212 1
gene 1 3 27 -0.714576 0 5 -0.714576 1
gene 1 3 28 -0.975677 0 6 -0.975677 1
gene 1 4 27 3.3122 0 7 3.3122 1
gene 1 4 28 2.01836 0 8 2.01836 1
gene 1 5 27 4.01531 0 9 4.01531 1
gene 1 5 28 -2.33488 0 10 -2.33488 1
gene 1 6 27 0.87843 0 11 0.87843 1
gene 1 6 28 -0.956511 0 12 -0.956511 1
gene 1 7 27 -2.26704 0 13 -2.26704 1
gene 1 7 28 1.21334 0 14 1.21334 1
gene 1 8 27 -0.203848 0 15 -0.203848 1
gene 1 8 28 -1.69872 0 16 -1.69872 1
gene 1 9 27 2.66848 0 17 2.66848 1
gene 1 9 28 4.22584 0 18 4.22584 1
gene 1 10 27 0.918516 0 19 0.918516 1
gene 1 10 28 -0.026307 0 20 -0.026307 1
gene 1 11 27 -2.19216 0 21 -2.19216 1
gene 1 11 28 -0.148701 0 22 -0.148701 1
gene 1 12 27 2.69933 0 23 2.69933 1
gene 1 12 28 -1.7781 0 24 -1.7781 1
gene 1 13 27 1.42056 0 25 1.42056 1
gene 1 13 28 -0.949568 0 26 -0.949568 1
gene 1 14 27 -0.113666 0 27 -0.113666 1
gene 1 14 28 -1.84378 0 28 -1.84378 0
gene 1 15 27 2.49701 0 29 2.49701 1
gene 1 15 28 -1.41 0 30 -1.41 1
gene 1 16 27 -2.16256 0 31 -2.16256 1
gene 1 16 28 -0.30076 0 32 -0.30076 1
gene 1 17 27 2.81518 0 33 2.81518 1
gene 1 17 28 0.899335 0 34 0.899335 1
gene 1 18 27 -1.08446 0 35 -1.08446 1
gene 1 18 28 -3.29043 0 36 -3.29043 1
gene 1 19 27 1.53511 0 37 1.53511 1
gene 1 19 28 1.8032 0 38 1.8032 1
gene 1 20 27 2.50061 0 39 2.50061 1
gene 1 20 28 2.7308 0 40 2.7308 1
gene 1 21 27 2.38224 0 41 2.38224 1
gene 1 21 28 0.383999 0 42 0.383999 0
gene 1 22 27 1.17397 0 43 1.17397 1
gene 1 22 28 -0.608554 0 44 -0.608554 1
gene 1 23 27 -1.8328 0 45 -1.8328 1
gene 1 23 28 -2.58393 0 46 -2.58393 1
gene 1 24 27 -0.108417 0 47 -0.108417 1
gene 1 24 28 0.492035 0 48 0.492035 1
gene 1 25 27 2.10765 0 49 2.10765 1
gene 1 25 28 2.07999 0 50 2.07999 1
gene 1 26 27 3.23423 0 51 3.23423 1
gene 1 26 28 0.81492 0 52 0.81492 1
gene 1 14 29 -1.08533 0 53 -1.08533 1
gene 1 29 28 0.990478 0 54 0.990478 1
gene 1 27 29 -1.2019 0 62 -1.2019 1
gene 1 5 29 -1.45207 0 88 -1.45207 1
gene 1 18 29 -2.46849 0 94 -2.46849 1
gene 1 21 47 1 0 126 0 1
gene 1 47 28 0.383999 0 127 0 1
genomeend 31

/* Organism #32 Fitness: 0.13915 Error: 0 */
genomestart 32
trait 1 0 0.169614 0 0 0 0 0 0 
node 1 1 1 1
node 2 1 1 1
node 3 1 1 1
node 4 1 1 1
node 5 1 1 1
node 6 1 1 1
node 7 1 1 1
node 8 1 1 1
node 9 1 1 1
node 10 1 1 1
node 11 1 1 1
node 12 1 1 1
node 13 1 1 1
node 14 1 1 1
node 15 1 1 1
node 16 1 1 1
node 17 1 1 1
node 18 1 1 1
node 19 1 1 1
node 20 1 1 1
node 21 1 1 1
node 22 1 1 1
node 23 1 1 1
node 24 1 1 1
node 25 1 1 1
node 26 1 1 3
node 27 1 0 2
node 28 1 0 2
node 29 1 0 0
node 47 1 0 0
gene 1 1 27 -0.523362 0 1 -0.523362 1
gene 1 1 28 -0.304056 0 2 -0.304056 1
gene 1 2 27 1.70049 0 3 1.70049 1
gene 1 2 28 0.0169073 0 4 0.0169073 1
gene 1 3 27 0.418195 0 5 0.418195 1
gene 1 3 28 -0.50325 0 6 -0.50325 1
gene 1 4 27 1.29783 0 7 1.29783 1
gene 1 4 28 2.39412 0 8 2.39412 1
gene 1 5 27 4.01531 0 9 4.01531 1
gene 1 5 28 -2.33488 0 10 -2.33488 1
gene 1 6 27 -0.0100406 0 11 -0.0100406 1
gene 1 6 28 -1.40551 0 12 -1.40551 1
gene 1 7 27 -2.26704 0 13 -2.26704 1
gene 1 7 28 -0.40582 0 14 -0.40582 1
gene 1 8 27 -1.68789 0 15 -1.68789 1
gene 1 8 28 -3.18558 0 16 -3.18558 1
gene 1 9 27 -0.816065 0 17 -0.816065 1
gene 1 9 28 4.22584 0 18 4.22584 1
gene 1 10 27 1.30686 0 19 1.30686 1
gene 1 10 28 0.665456 0 20 0.665456 1
gene 1 11 27 -0.491211 0 21 -0.491211 1
gene 1 11 28 -0.697501 0 22 -0.697501 1
gene 1 12 27 2.69933 0 23 2.69933 1
gene 1 12 28 -1.7781 0 24 -1.7781 1
gene 1 13 27 2.33413 0 25 2.33413 1
gene 1 13 28 -0.949568 0 26 -0.949568 1
gene 1 14 27 -1.00793 0 27 -1.00793 1
gene 1 14 28 0.361492 0 28 0.361492 0
gene 1 15 27 1.59177 0 29 1.59177 1
gene 1 15 28 -2.52507 0 30 -2.52507 1
gene 1 16 27 -0.1816 0 31 -0.1816 1
gene 1 16 28 2.10311 0 32 2.10311 1
gene 1 17 27 1.62343 0 33 1.62343 1
gene 1 17 28 2.00349 0 34 2.00349 1
gene 1 18 27 -1.08446 0 35 -1.08446 1
gene 1 18 28 -2.48795 0 36 -2.48795 1
gene 1 19 27 -1.27926 0 37 -1.27926 1
gene 1 19 28 4.13604 0 38 4.13604 1
gene 1 20 27 1.37516 0 39 1.37516 1
gene 1 20 28 2.48459 0 40 2.48459 1
gene 1 21 27 1.40474 0 41 1.40474 1
gene 1 21 28 0.69277 0 42 0.69277 0
gene 1 22 27 2.54456 0 43 2.54456 1
gene 1 22 28 0.74221 0 44 0.74221 1
gene 1 23 27 -1.27554 0 45 -1.27554 1
gene 1 23 28 -3.99945 0 46 -3.99945 1
gene 1 24 27 -0.108417 0 47 -0.108417 1
gene 1 24 28 1.3525 0 48 1.3525 1
gene 1 25 27 2.51012 0 49 2.51012 1
gene 1 25 28 3.22886 0 50 3.22886 1
gene 1 26 27 4.09615 0 51 4.09615 1
gene 1 26 28 1.44635 0 52 1.44635 1
gene 1 14 29 -2.92155 0 53 -2.92155 1
gene 1 29 28 -2.12493 0 54 -2.12493 1
gene 1 27 29 -1.06082 0 62 -1.06082 1
gene 1 5 29 0.691702 0 88 0.691702 1
gene 1 18 29 -2.42683 0 94 -2.42683 1
gene 1 21 47 1.5295 0 126 1.5295 1
gene 1 47 28 -1.63831 0 127 -1.63831 1
genomeend 32

/* Organism #33 Fitness: 0.147721 Error: 0 */
genomestart 33
trait 1 0 0.169614 0 0 0 0 0 0 
node 1 1 1 1
node 2 1 1 1
node 3 1 1 1
node 4 1 1 1
node 5 1 1 1
node 6 1 1 1
node 7 1 1 1
node 8 1 1 1
node 9 1 1 1
node 10 1 1 1
node 11 1 1 1
node 12 1 1 1
node 13 1 1 1
node 14 1 1 1
node 15 1 1 1
node 16 1 1 1
node 17 1 1 1
node 18 1 1 1
node 19 1 1 1
node 20 1 1 1
node 21 1 1 1
node 22 1 1 1
node 23 1 1 1
node 24 1 1 1
node 25 1 1 1
node 26 1 1 3
node 27 1 0 2
node 28 1 0 2
node 29 1 0 0
node 47 1 0 0
gene 1 1 27 -0.990753 0 1 -0.990753 1
gene 1 1 28 -2.81703 0 2 -2.81703 1
gene 1 2 27 2.06996 0 3 2.06996 1
gene 1 2 28 -0.581561 0 4 -0.581561 1
gene 1 3 27 -1.34593 0 5 -1.34593 1
gene 1 3 28 -3.37611 0 6 -3.37611 1
gene 1 4 27 3.55498 0 7 3.55498 1
gene 1 4 28 3.0936 0 8 3.0936 1
gene 1 5 27 3.79931 0 9 3.79931 1
gene 1 5 28 -3.41211 0 10 -3.41211 1
gene 1 6 27 2.40153 0 11 2.40153 1
gene 1 6 28 -1.05196 0 12 -1.05196 1
gene 1 7 27 -0.705863 0 13 -0.705863 1
gene 1 7 28 3.69686 0 14 3.69686 1
gene 1 8 27 -1.4751 0 15 -1.4751 1
gene 1 8 28 -0.789804 0 16 -0.789804 1
gene 1 9 27 1.34855 0 17 1.34855 1
gene 1 9 28 2.15867 0 18 2.15867 1
gene 1 10 27 3.26218 0 19 3.26218 1
gene 1 10 28 -1.4825 0 20 -1.4825 1
gene 1 11 27 -0.436811 0 21 -0.436811 1
gene 1 11 28 2.0661 0 22 2.0661 1
gene 1 12 27 4.81281 0 23 4.81281 1
gene 1 12 28 -1.25532 0 24 -1.25532 1
gene 1 13 27 0.366909 0 25 0.366909 1
gene 1 13 28 -0.885556 0 26 -0.885556 1
gene 1 14 27 0.16924 0 27 0.16924 1
gene 1 14 28 -1.29223 0 28 -1.29223 0
gene 1 15 27 1.36073 0 29 1.36073 1
gene 1 15 28 -1.09421 0 30 -1.09421 1
gene 1 16 27 -0.466643 0 31 -0.466643 1
gene 1 16 28 -0.755486 0 32 -0.755486 1
gene 1 17 27 3.28768 0 33 3.28768 1
gene 1 17 28 1.44638 0 34 1.44638 1
gene 1 18 27 -2.73467 0 35 -2.73467 1
gene 1 18 28 -4.21758 0 36 -4.21758 1
gene 1 19 27 3.42726 0 37 3.42726 1
gene 1 19 28 0.27987 0 38 0.27987 1
gene 1 20 27 1.29017 0 39 1.29017 1
gene 1 20 28 4.98894 0 40 4.98894 1
gene 1 21 27 2.77975 0 41 2.77975 1
gene 1 21 28 0.394986 0 42 0.394986 0
gene 1 22 27 1.19427 0 43 1.19427 1
gene 1 22 28 1.53568 0 44 1.53568 1
gene 1 23 27 -0.856136 0 45 -0.856136 1
gene 1 23 28 -4.17394 0 46 -4.17394 1
gene 1 24 27 -1.72338 0 47 -1.72338 1
gene 1 24 28 1.49373 0 48 1.49373 1
gene 1 25 27 1.01822 0 49 1.01822 1
gene 1 25 28 0.977432 0 50 0.977432 1
gene 1 26 27 2.17058 0 51 2.17058 1
gene 1 26 28 2.04855 0 52 2.04855 1
gene 1 14 29 1.41353 0 53 1.41353 1
gene 1 29 28 1.21372 0 54 1.21372 1
gene 1 27 29 1.10767 0 62 1.10767 1
gene 1 5 29 -3.73608 0 88 -3.73608 1
gene 1 18 29 -2.2071 0 94 -2.2071 1
gene 1 21 47 2.36143 0 126 2.36143 1
gene 1 47 28 -2.13782 0 127 -2.13782 1
genomeend 33

/* Species #6 : (Size 14) (AF 0) (Age 12)  */


/* Organism #34 Fitness: 0.147721 Error: 0 */
genomestart 34
trait 1 0 0 0 0 0 0.154233 0 0.219764 
node 1 1 1 1
node 2 1 1 1
node 3 1 1 1
node 4 1 1 1
node 5 1 1 1
node 6 1 1 1
node 7 1 1 1
node 8 1 1 1
node 9 1 1 1
node 10 1 1 1
node 11 1 1 1
node 12 1 1 1
node 13 1 1 1
node 14 1 1 1
node 15 1 1 1
node 16 1 1 1
node 17 1 1 1
node 18 1 1 1
node 19 1 1 1
node 20 1 1 1
node 21 1 1 1
node 22 1 1 1
node 23 1 1 1
node 24 1 1 1
node 25 1 1 1
node 26 1 1 3
node 27 1 0 2
node 28 1 0 2
node 29 1 0 0
node 41 1 0 0
gene 1 1 27 -0.224944 0 1 -0.224944 1
gene 1 1 28 -1.037 0 2 -1.037 1
gene 1 2 27 0.0227058 0 3 0.0227058 1
gene 1 2 28 -0.94908 0 4 -0.94908 1
gene 1 3 27 2.35131 0 5 2.35131 1
gene 1 3 28 -1.90249 0 6 -1.90249 1
gene 1 4 27 3.93526 0 7 3.93526 1
gene 1 4 28 1.71912 0 8 1.71912 1
gene 1 5 27 3.31994 0 9 3.31994 1
gene 1 5 28 1.53032 0 10 1.53032 1
gene 1 6 27 3.57001 0 11 3.57001 0
gene 1 6 28 -4.12738 0 12 -4.12738 1
gene 1 7 27 3.51347 0 13 3.51347 1
gene 1 7 28 0.865368 0 14 0.865368 1
gene 1 8 27 -0.914853 0 15 -0.914853 1
gene 1 8 28 -2.31046 0 16 -2.31046 1
gene 1 9 27 1.05683 0 17 1.05683 1
gene 1 9 28 -1.86602 0 18 -1.86602 1
gene 1 10 27 -5.65517 0 19 -5.65517 1
gene 1 10 28 1.11229 0 20 1.11229 0
gene 1 11 27 0.990501 0 21 0.990501 1
gene 1 11 28 1.65109 0 22 1.65109 1
gene 1 12 27 3.29663 0 23 3.29663 1
gene 1 12 28 4.40506 0 24 4.40506 1
gene 1 13 27 3.42959 0 25 3.42959 1
gene 1 13 28 0.420141 0 26 0.420141 1
gene 1 14 27 -1.32476 0 27 -1.32476 1
gene 1 14 28 1.42441 0 28 1.42441 0
gene 1 15 27 -1.31521 0 29 -1.31521 1
gene 1 15 28 0.80961 0 30 0.80961 1
gene 1 16 27 -1.23262 0 31 -1.23262 1
gene 1 16 28 -1.07069 0 32 -1.07069 1
gene 1 17 27 2.43583 0 33 2.43583 1
gene 1 17 28 3.56902 0 34 3.56902 1
gene 1 18 27 -2.11192 0 35 -2.11192 1
gene 1 18 28 3.59265 0 36 3.59265 1
gene 1 19 27 3.24862 0 37 3.24862 1
gene 1 19 28 -0.902646 0 38 -0.902646 1
gene 1 20 27 2.06103 0 39 2.06103 1
gene 1 20 28 -0.188299 0 40 -0.188299 1
gene 1 21 27 4.86031 0 41 4.86031 1
gene 1 21 28 1.14734 0 42 1.14734 1
gene 1 22 27 -0.978233 0 43 -0.978233 1
gene 1 22 28 -2.28104 0 44 -2.28104 1
gene 1 23 27 1.23198 0 45 1.23198 1
gene 1 23 28 -2.54158 0 46 -2.54158 1
gene 1 24 27 -1.52966 0 47 -1.52966 1
gene 1 24 28 -1.12285 0 48 -1.12285 1
gene 1 25 27 -2.97723 0 49 -2.97723 1
gene 1 25 28 -0.0351344 0 50 -0.0351344 1
gene 1 26 27 2.55659 0 51 2.55659 1
gene 1 26 28 0.0907392 0 52 0.0907392 1
gene 1 14 29 2.47963 0 53 2.47963 1
gene 1 29 28 0.162931 0 54 0.162931 1
gene 1 27 29 1.02448 0 62 1.02448 1
gene 1 6 41 1 0 102 0 1
gene 1 41 27 3.57001 0 103 0 1
gene 1 27 28 0.228889 0 135 0.228889 1
genomeend 34

/* Organism #35 Fitness: 0.136471 Error: 0 */
genomestart 35
trait 1 0 0 0 0.0850856 0 0.134954 0 0.317293 
node 1 1 1 1
node 2 1 1 1
node 3 1 1 1
node 4 1 1 1
node 5 1 1 1
node 6 1 1 1
node 7 1 1 1
node 8 1 1 1
node 9 1 1 1
node 10 1 1 1
node 11 1 1 1
node 12 1 1 1
node 13 1 1 1
node 14 1 1 1
node 15 1 1 1
node 16 1 1 1
node 17 1 1 1
node 18 1 1 1
node 19 1 1 1
node 20 1 1 1
node 21 1 1 1
node 22 1 1 1
node 23 1 1 1
node 24 1 1 1
node 25 1 1 1
node 26 1 1 3
node 27 1 0 2
node 28 1 0 2
node 29 1 0 0
node 41 1 0 0
gene 1 1 27 -2.42113 0 1 -2.42113 1
gene 1 1 28 -0.297533 0 2 -0.297533 1
gene 1 2 27 -1.64475 0 3 -1.64475 1
gene 1 2 28 -0.368313 0 4 -0.368313 1
gene 1 3 27 4.65722 0 5 4.65722 1
gene 1 3 28 4.63149 0 6 4.63149 1
gene 1 4 27 8 0 7 8 1
gene 1 4 28 3.70122 0 8 3.70122 1
gene 1 5 27 -1.31901 0 9 -1.31901 1
gene 1 5 28 2.33387 0 10 2.33387 1
gene 1 6 27 -1.02453 0 11 -1.02453 0
gene 1 6 28 -5.72335 0 12 -5.72335 1
gene 1 7 27 5.84608 0 13 5.84608 1
gene 1 7 28 2.88112 0 14 2.88112 1
gene 1 8 27 1.71828 0 15 1.71828 1
gene 1 8 28 -1.69758 0 16 -1.69758 1
gene 1 9 27 1.56581 0 17 1.56581 1
gene 1 9 28 1.00047 0 18 1.00047 1
gene 1 10 27 -0.570696 0 19 -0.570696 1
gene 1 10 28 -4.56774 0 20 -4.56774 0
gene 1 11 27 2.0321 0 21 2.0321 1
gene 1 11 28 0.369465 0 22 0.369465 1
gene 1 12 27 4.8604 0 23 4.8604 1
gene 1 12 28 4.4529 0 24 4.4529 1
gene 1 13 27 -1.39363 0 25 -1.39363 1
gene 1 13 28 0.254578 0 26 0.254578 1
gene 1 14 27 -0.69488 0 27 -0.69488 1
gene 1 14 28 -2.42519 0 28 -2.42519 0
gene 1 15 27 -0.481521 0 29 -0.481521 1
gene 1 15 28 1.00127 0 30 1.00127 1
gene 1 16 27 -4.69876 0 31 -4.69876 1
gene 1 16 28 -1.78887 0 32 -1.78887 1
gene 1 17 27 5.06859 0 33 5.06859 1
gene 1 17 28 4.1578 0 34 4.1578 1
gene 1 18 27 -1.77114 0 35 -1.77114 1
gene 1 18 28 1.63466 0 36 1.63466 1
gene 1 19 27 7.41043 0 37 7.41043 1
gene 1 19 28 -2.83554 0 38 -2.83554 1
gene 1 20 27 3.25575 0 39 3.25575 1
gene 1 20 28 1.62076 0 40 1.62076 1
gene 1 21 27 3.5751 0 41 3.5751 1
gene 1 21 28 3.22123 0 42 3.22123 1
gene 1 22 27 -0.189062 0 43 -0.189062 1
gene 1 22 28 -1.44858 0 44 -1.44858 1
gene 1 23 27 0.108211 0 45 0.108211 1
gene 1 23 28 -3.04849 0 46 -3.04849 1
gene 1 24 27 -0.084994 0 47 -0.084994 1
gene 1 24 28 -1.12285 0 48 -1.12285 1
gene 1 25 27 -5.47662 0 49 -5.47662 1
gene 1 25 28 -0.966788 0 50 -0.966788 1
gene 1 26 27 2.76846 0 51 2.76846 1
gene 1 26 28 1.88925 0 52 1.88925 1
gene 1 14 29 4.56755 0 53 4.56755 1
gene 1 29 28 -0.112499 0 54 -0.112499 1
gene 1 27 29 1.02448 0 62 1.02448 1
gene 1 6 41 -0.4241 0 102 -0.4241 1
gene 1 41 27 2.77943 0 103 2.77943 1
gene 1 27 28 0.228889 0 135 0.228889 1
genomeend 35

/* Organism #36 Fitness: 0.147186 Error: 0 */
genomestart 36
trait 1 0 0 0 0 0 0.154233 0 0.219764 
node 1 1 1 1
node 2 1 1 1
node 3 1 1 1
node 4 1 1 1
node 5 1 1 1
node 6 1 1 1
node 7 1 1 1
node 8 1 1 1
node 9 1 1 1
node 10 1 1 1
node 11 1 1 1
node 12 1 1 1
node 13 1 1 1
node 14 1 1 1
node 15 1 1 1
node 16 1 1 1
node 17 1 1 1
node 18 1 1 1
node 19 1 1 1
node 20 1 1 1
node 21 1 1 1
node 22 1 1 1
node 23 1 1 1
node 24 1 1 1
node 25 1 1 1
node 26 1 1 3
node 27 1 0 2
node 28 1 0 2
node 29 1 0 0
node 41 1 0 0
gene 1 1 27 -1.23534 0 1 -1.23534 1
gene 1 1 28 -3.19382 0 2 -3.19382 1
gene 1 2 27 -0.745216 0 3 -0.745216 1
gene 1 2 28 -0.990356 0 4 -0.990356 1
gene 1 3 27 1.05473 0 5 1.05473 1
gene 1 3 28 -1.82329 0 6 -1.82329 1
gene 1 4 27 5.75577 0 7 5.75577 1
gene 1 4 28 0.213874 0 8 0.213874 1
gene 1 5 27 3.87225 0 9 3.87225 1
gene 1 5 28 1.17058 0 10 1.17058 1
gene 1 6 27 4.28834 0 11 4.28834 0
gene 1 6 28 -4.08161 0 12 -4.08161 1
gene 1 7 27 4.16001 0 13 4.16001 1
gene 1 7 28 1.81312 0 14 1.81312 1
