
/* Species #39 : (Size 8) (AF 0) (Age 37)  */


/* Organism #0 Fitness: 0.80704 Error: 0 */
/* ##------$ WINNER 0 SPECIES #39 $------## */
genomestart 0
trait 1 0.0745338 0.836177 0.0094822 0.0237968 0.331614 0.631291 0.022805 0 
node 1 1 1 1
node 2 1 1 1
node 3 1 1 1
node 4 1 1 1
node 5 1 1 1
node 6 1 1 1
node 7 1 1 1
node 8 1 1 1
node 9 1 1 1
node 10 1 1 1
node 11 1 1 1
node 12 1 1 1
node 13 1 1 1
node 14 1 1 1
node 15 1 1 1
node 16 1 1 1
node 17 1 1 1
node 18 1 1 1
node 19 1 1 1
node 20 1 1 1
node 21 1 1 1
node 22 1 1 1
node 23 1 1 1
node 24 1 1 1
node 25 1 1 1
node 26 1 1 3
node 27 1 0 2
node 28 1 0 2
node 32 1 0 0
node 48 1 0 0
node 55 1 0 0
node 64 1 0 0
node 68 1 0 0
node 89 1 0 0
node 153 1 0 0
node 171 1 0 0
node 221 1 0 0
gene 1 1 27 1.95406 0 1 1.95406 1
gene 1 1 28 -0.694339 0 2 -0.694339 1
gene 1 2 27 0.448927 0 3 0.448927 1
gene 1 2 28 3.09924 0 4 3.09924 1
gene 1 3 27 -1.50021 0 5 -1.50021 1
gene 1 3 28 8 0 6 8 1
gene 1 4 27 -3.42194 0 7 -3.42194 1
gene 1 4 28 3.95868 0 8 3.95868 1
gene 1 5 27 1.648 0 9 1.648 1
gene 1 5 28 -3.21447 0 10 -3.21447 1
gene 1 6 27 -1.95969 0 11 -1.95969 1
gene 1 6 28 3.63376 0 12 3.63376 1
gene 1 7 27 -1.25802 0 13 -1.25802 1
gene 1 7 28 -1.54217 0 14 -1.54217 1
gene 1 8 27 3.32452 0 15 3.32452 1
gene 1 8 28 0.321328 0 16 0.321328 1
gene 1 9 27 4.90306 0 17 4.90306 1
gene 1 9 28 6.86242 0 18 6.86242 1
gene 1 10 27 -0.814949 0 19 -0.814949 1
gene 1 10 28 -0.379192 0 20 -0.379192 1
gene 1 11 27 -1.49535 0 21 -1.49535 1
gene 1 11 28 1.88078 0 22 1.88078 1
gene 1 12 27 -0.261162 0 23 -0.261162 1
gene 1 12 28 -2.74336 0 24 -2.74336 1
gene 1 13 27 0.702078 0 25 0.702078 1
gene 1 13 28 0.390866 0 26 0.390866 1
gene 1 14 27 -0.258015 0 27 -0.258015 1
gene 1 14 28 5.43591 0 28 5.43591 1
gene 1 15 27 2.03606 0 29 2.03606 1
gene 1 15 28 0.722449 0 30 0.722449 1
gene 1 16 27 0.815946 0 31 0.815946 1
gene 1 16 28 -6.3382 0 32 -6.3382 1
gene 1 17 27 2.01003 0 33 2.01003 1
gene 1 17 28 -1.8879 0 34 -1.8879 1
gene 1 18 27 1.1111 0 35 1.1111 1
gene 1 18 28 -0.895537 0 36 -0.895537 1
gene 1 19 27 2.92945 0 37 2.92945 1
gene 1 19 28 -0.530259 0 38 -0.530259 1
gene 1 20 27 -3.23274 0 39 -3.23274 1
gene 1 20 28 -1.26524 0 40 -1.26524 1
gene 1 21 27 0.392315 0 41 0.392315 1
gene 1 21 28 4.0354 0 42 4.0354 1
gene 1 22 27 2.19328 0 43 2.19328 1
gene 1 22 28 -1.75581 0 44 -1.75581 1
gene 1 23 27 3.4099 0 45 3.4099 1
gene 1 23 28 -0.705283 0 46 -0.705283 1
gene 1 24 27 4.38657 0 47 4.38657 1
gene 1 24 28 -1.23959 0 48 -1.23959 1
gene 1 25 27 1.52573 0 49 1.52573 1
gene 1 25 28 3.78818 0 50 3.78818 1
gene 1 26 27 6.52802 0 51 6.52802 1
gene 1 26 28 -4.43312 0 52 -4.43312 1
gene 1 3 32 -4.66724 0 61 -4.66724 1
gene 1 32 27 -2.75061 0 62 -2.75061 1
gene 1 5 32 -1.59376 0 120 -1.59376 1
gene 1 7 32 1.19663 0 125 1.19663 1
gene 1 20 48 1.59007 0 133 1.59007 1
gene 1 48 27 3.42307 0 134 3.42307 1
gene 1 18 55 -1.67525 0 150 -1.67525 1
gene 1 55 27 4.32089 0 151 4.32089 1
gene 1 10 64 -0.609903 0 174 -0.609903 1
gene 1 64 27 -3.69188 0 175 -3.69188 1
gene 1 17 68 -4.05279 0 192 -4.05279 1
gene 1 68 27 -3.9136 0 193 -3.9136 1
gene 1 20 32 1.99789 0 242 1.99789 1
gene 1 13 89 -3.68419 0 276 -3.68419 1
gene 1 89 27 0.182846 0 277 0.182846 1
gene 1 11 48 -1.82421 0 452 -1.82421 1
gene 1 26 32 -2.2375 0 473 -2.2375 1
gene 1 7 153 -0.836818 0 502 -0.836818 1
gene 1 153 27 1.01367 0 503 1.01367 1
gene 1 3 171 -8 0 582 -8 1
gene 1 171 27 0.478465 0 583 0.478465 0
gene 1 13 32 -1.79258 0 603 -1.79258 1
gene 1 171 221 0.862777 0 754 0.862777 1
gene 1 221 27 -2.1764 0 755 -2.1764 1
gene 1 25 32 -1.82504 0 786 -1.82504 1
genomeend 0

/* Organism #1 Fitness: 0.0448643 Error: 0 */
genomestart 1
trait 1 0.0931673 0.809137 0.0118527 0.029746 0.331614 0.631291 0.0285062 0 
node 1 1 1 1
node 2 1 1 1
node 3 1 1 1
node 4 1 1 1
node 5 1 1 1
node 6 1 1 1
node 7 1 1 1
node 8 1 1 1
node 9 1 1 1
node 10 1 1 1
node 11 1 1 1
node 12 1 1 1
node 13 1 1 1
node 14 1 1 1
node 15 1 1 1
node 16 1 1 1
node 17 1 1 1
node 18 1 1 1
node 19 1 1 1
node 20 1 1 1
node 21 1 1 1
node 22 1 1 1
node 23 1 1 1
node 24 1 1 1
node 25 1 1 1
node 26 1 1 3
node 27 1 0 2
node 28 1 0 2
node 32 1 0 0
node 48 1 0 0
node 55 1 0 0
node 64 1 0 0
node 68 1 0 0
node 89 1 0 0
node 153 1 0 0
node 171 1 0 0
node 221 1 0 0
gene 1 1 27 1.84156 0 1 1.84156 1
gene 1 1 28 1.10904 0 2 1.10904 1
gene 1 2 27 -1.73528 0 3 -1.73528 1
gene 1 2 28 1.64923 0 4 1.64923 1
gene 1 3 27 0.128025 0 5 0.128025 1
gene 1 3 28 5.69211 0 6 5.69211 1
gene 1 4 27 -1.86399 0 7 -1.86399 1
gene 1 4 28 4.32968 0 8 4.32968 1
gene 1 5 27 -0.758084 0 9 -0.758084 1
gene 1 5 28 -3.70322 0 10 -3.70322 1
gene 1 6 27 3.55338 0 11 3.55338 1
gene 1 6 28 4.79286 0 12 4.79286 1
gene 1 7 27 1.34315 0 13 1.34315 1
gene 1 7 28 0.0403672 0 14 0.0403672 1
gene 1 8 27 0.952785 0 15 0.952785 1
gene 1 8 28 -0.144918 0 16 -0.144918 1
gene 1 9 27 6.37725 0 17 6.37725 1
gene 1 9 28 5.61544 0 18 5.61544 1
gene 1 10 27 1.18481 0 19 1.18481 1
gene 1 10 28 0.683557 0 20 0.683557 1
gene 1 11 27 0.143725 0 21 0.143725 1
gene 1 11 28 2.14377 0 22 2.14377 1
gene 1 12 27 -0.844676 0 23 -0.844676 1
gene 1 12 28 1.67758 0 24 1.67758 1
gene 1 13 27 -0.761895 0 25 -0.761895 1
gene 1 13 28 5.69173 0 26 5.69173 1
gene 1 14 27 -0.740379 0 27 -0.740379 1
gene 1 14 28 4.74994 0 28 4.74994 1
gene 1 15 27 -1.89804 0 29 -1.89804 1
gene 1 15 28 1.67302 0 30 1.67302 1
gene 1 16 27 2.8294 0 31 2.8294 1
gene 1 16 28 -4.81609 0 32 -4.81609 1
gene 1 17 27 4.36872 0 33 4.36872 1
gene 1 17 28 0.030951 0 34 0.030951 1
gene 1 18 27 -4.93187 0 35 -4.93187 1
gene 1 18 28 0.290441 0 36 0.290441 1
gene 1 19 27 2.21046 0 37 2.21046 1
gene 1 19 28 0.539644 0 38 0.539644 1
gene 1 20 27 -1.46603 0 39 -1.46603 1
gene 1 20 28 0.202109 0 40 0.202109 1
gene 1 21 27 0.608997 0 41 0.608997 1
gene 1 21 28 3.49996 0 42 3.49996 1
gene 1 22 27 1.84536 0 43 1.84536 1
gene 1 22 28 -4.10467 0 44 -4.10467 1
gene 1 23 27 6.1354 0 45 6.1354 1
gene 1 23 28 4.00833 0 46 4.00833 1
gene 1 24 27 0.620241 0 47 0.620241 1
gene 1 24 28 -0.88481 0 48 -0.88481 1
gene 1 25 27 2.76737 0 49 2.76737 1
gene 1 25 28 2.88041 0 50 2.88041 1
gene 1 26 27 6.87631 0 51 6.87631 1
gene 1 26 28 -3.45942 0 52 -3.45942 1
gene 1 3 32 -5.13532 0 61 -5.13532 1
gene 1 32 27 -0.85564 0 62 -0.85564 1
gene 1 5 32 -1.04221 0 120 -1.04221 1
gene 1 7 32 -0.318461 0 125 -0.318461 1
gene 1 20 48 2.97053 0 133 2.97053 1
gene 1 48 27 5.96805 0 134 5.96805 1
gene 1 18 55 -0.528829 0 150 -0.528829 1
gene 1 55 27 4.54672 0 151 4.54672 1
gene 1 10 64 2.70262 0 174 2.70262 1
gene 1 64 27 -5.70366 0 175 -5.70366 1
gene 1 17 68 -2.31536 0 192 -2.31536 1
gene 1 68 27 -2.46656 0 193 -2.46656 1
gene 1 20 32 1.976 0 242 1.976 1
gene 1 13 89 -2.41714 0 276 -2.41714 1
gene 1 89 27 0.182846 0 277 0.182846 1
gene 1 11 48 -1.82421 0 452 -1.82421 1
gene 1 26 32 -0.030249 0 473 -0.030249 1
gene 1 7 153 0.510193 0 502 0.510193 1
gene 1 153 27 1.2582 0 503 1.2582 1
gene 1 3 171 -3.34149 0 582 -3.34149 1
gene 1 171 27 -1.81356 0 583 -1.81356 0
gene 1 13 32 -2.94069 0 603 -2.94069 1
gene 1 171 221 0.862777 0 754 0.862777 1
gene 1 221 27 -3.33994 0 755 -3.33994 1
gene 1 25 32 -1.82504 0 786 -1.82504 1
genomeend 1

/* Organism #2 Fitness: 0.79324 Error: 0 */
/* ##------$ WINNER 2 SPECIES #39 $------## */
genomestart 2
trait 1 0.0931673 0.809137 0.0118527 0.029746 0.331614 0.631291 0.0285062 0 
node 1 1 1 1
node 2 1 1 1
node 3 1 1 1
node 4 1 1 1
node 5 1 1 1
node 6 1 1 1
node 7 1 1 1
node 8 1 1 1
node 9 1 1 1
node 10 1 1 1
node 11 1 1 1
node 12 1 1 1
node 13 1 1 1
node 14 1 1 1
node 15 1 1 1
node 16 1 1 1
node 17 1 1 1
node 18 1 1 1
node 19 1 1 1
node 20 1 1 1
node 21 1 1 1
node 22 1 1 1
node 23 1 1 1
node 24 1 1 1
node 25 1 1 1
node 26 1 1 3
node 27 1 0 2
node 28 1 0 2
node 32 1 0 0
node 48 1 0 0
node 55 1 0 0
node 64 1 0 0
node 68 1 0 0
node 89 1 0 0
node 153 1 0 0
node 171 1 0 0
node 221 1 0 0
gene 1 1 27 1.3296 0 1 1.3296 1
gene 1 1 28 0.180381 0 2 0.180381 1
gene 1 2 27 2.11974 0 3 2.11974 1
gene 1 2 28 2.04754 0 4 2.04754 1
gene 1 3 27 1.13119 0 5 1.13119 1
gene 1 3 28 8 0 6 8 1
gene 1 4 27 -1.61976 0 7 -1.61976 1
gene 1 4 28 3.14668 0 8 3.14668 1
gene 1 5 27 0.531981 0 9 0.531981 1
gene 1 5 28 -3.90849 0 10 -3.90849 1
gene 1 6 27 0.568493 0 11 0.568493 1
gene 1 6 28 4.82173 0 12 4.82173 1
gene 1 7 27 -0.174959 0 13 -0.174959 1
gene 1 7 28 -1.00895 0 14 -1.00895 1
gene 1 8 27 2.67975 0 15 2.67975 1
gene 1 8 28 0.41866 0 16 0.41866 1
gene 1 9 27 4.40049 0 17 4.40049 1
gene 1 9 28 7.43121 0 18 7.43121 1
gene 1 10 27 1.26723 0 19 1.26723 1
gene 1 10 28 -0.0115493 0 20 -0.0115493 1
gene 1 11 27 0.388454 0 21 0.388454 1
gene 1 11 28 1.4811 0 22 1.4811 1
gene 1 12 27 2.28547 0 23 2.28547 1
gene 1 12 28 -0.936532 0 24 -0.936532 1
gene 1 13 27 -0.868456 0 25 -0.868456 1
gene 1 13 28 2.4323 0 26 2.4323 1
gene 1 14 27 -0.0397027 0 27 -0.0397027 1
gene 1 14 28 6.71796 0 28 6.71796 1
gene 1 15 27 1.3015 0 29 1.3015 1
gene 1 15 28 -1.00729 0 30 -1.00729 1
gene 1 16 27 -0.959564 0 31 -0.959564 1
gene 1 16 28 -5.97617 0 32 -5.97617 1
gene 1 17 27 2.58854 0 33 2.58854 1
gene 1 17 28 -2.35462 0 34 -2.35462 1
gene 1 18 27 -1.39306 0 35 -1.39306 1
gene 1 18 28 -1.16016 0 36 -1.16016 1
gene 1 19 27 2.14967 0 37 2.14967 1
gene 1 19 28 -0.447058 0 38 -0.447058 1
gene 1 20 27 -2.36838 0 39 -2.36838 1
gene 1 20 28 -0.8155 0 40 -0.8155 1
gene 1 21 27 0.913266 0 41 0.913266 1
gene 1 21 28 4.45271 0 42 4.45271 1
gene 1 22 27 2.03393 0 43 2.03393 1
gene 1 22 28 -0.257006 0 44 -0.257006 1
gene 1 23 27 4.5742 0 45 4.5742 1
gene 1 23 28 1.6669 0 46 1.6669 1
gene 1 24 27 2.51672 0 47 2.51672 1
gene 1 24 28 -1.26664 0 48 -1.26664 1
gene 1 25 27 1.23057 0 49 1.23057 1
gene 1 25 28 2.45413 0 50 2.45413 1
gene 1 26 27 7.26401 0 51 7.26401 1
gene 1 26 28 -2.23781 0 52 -2.23781 1
gene 1 3 32 -3.03318 0 61 -3.03318 1
gene 1 32 27 -4.32319 0 62 -4.32319 1
gene 1 5 32 -1.0033 0 120 -1.0033 1
gene 1 7 32 0.562265 0 125 0.562265 1
gene 1 20 48 2.17425 0 133 2.17425 1
gene 1 48 27 4.03502 0 134 4.03502 1
gene 1 18 55 -0.731161 0 150 -0.731161 1
gene 1 55 27 4.21892 0 151 4.21892 1
gene 1 10 64 1.59203 0 174 1.59203 1
gene 1 64 27 -3.87378 0 175 -3.87378 1
gene 1 17 68 -2.87615 0 192 -2.87615 1
gene 1 68 27 -3.78049 0 193 -3.78049 1
gene 1 20 32 0.897206 0 242 0.897206 1
gene 1 13 89 -3.55403 0 276 -3.55403 1
gene 1 89 27 1.6867 0 277 1.6867 1
gene 1 11 48 -2.66021 0 452 -2.66021 1
gene 1 26 32 -2.83181 0 473 -2.83181 1
gene 1 7 153 -1.12305 0 502 -1.12305 1
gene 1 153 27 1.13594 0 503 1.13594 1
gene 1 3 171 -5.29087 0 582 -5.29087 1
gene 1 171 27 0.939823 0 583 0.939823 0
gene 1 13 32 -1.85881 0 603 -1.85881 1
gene 1 171 221 0.0128655 0 754 0.0128655 1
gene 1 221 27 -3.58351 0 755 -3.58351 1
gene 1 25 32 -1.43234 0 786 -1.43234 1
genomeend 2

/* Organism #3 Fitness: 0.0448643 Error: 0 */
genomestart 3
trait 1 0.0745338 0.836177 0.0094822 0.0237968 0.331614 0.631291 0.022805 0 
node 1 1 1 1
node 2 1 1 1
node 3 1 1 1
node 4 1 1 1
node 5 1 1 1
node 6 1 1 1
node 7 1 1 1
node 8 1 1 1
node 9 1 1 1
node 10 1 1 1
node 11 1 1 1
node 12 1 1 1
node 13 1 1 1
node 14 1 1 1
node 15 1 1 1
node 16 1 1 1
node 17 1 1 1
node 18 1 1 1
node 19 1 1 1
node 20 1 1 1
node 21 1 1 1
node 22 1 1 1
node 23 1 1 1
node 24 1 1 1
node 25 1 1 1
node 26 1 1 3
node 27 1 0 2
node 28 1 0 2
node 32 1 0 0
node 48 1 0 0
node 55 1 0 0
node 64 1 0 0
node 68 1 0 0
node 89 1 0 0
node 153 1 0 0
node 171 1 0 0
node 221 1 0 0
gene 1 1 27 2.58671 0 1 2.58671 1
gene 1 1 28 -1.05441 0 2 -1.05441 1
gene 1 2 27 2.52602 0 3 2.52602 1
gene 1 2 28 0.97485 0 4 0.97485 1
gene 1 3 27 -3.36901 0 5 -3.36901 1
gene 1 3 28 -2.25784 0 6 -2.25784 1
gene 1 4 27 -1.02029 0 7 -1.02029 1
gene 1 4 28 1.48335 0 8 1.48335 1
gene 1 5 27 2.35503 0 9 2.35503 1
gene 1 5 28 -5.48962 0 10 -5.48962 1
gene 1 6 27 0.122665 0 11 0.122665 1
gene 1 6 28 3.63376 0 12 3.63376 1
gene 1 7 27 -2.85155 0 13 -2.85155 1
gene 1 7 28 -2.8492 0 14 -2.8492 1
gene 1 8 27 3.65107 0 15 3.65107 1
gene 1 8 28 -0.135121 0 16 -0.135121 1
gene 1 9 27 6.47148 0 17 6.47148 1
gene 1 9 28 5.02429 0 18 5.02429 1
gene 1 10 27 -2.74013 0 19 -2.74013 1
gene 1 10 28 0.689489 0 20 0.689489 1
gene 1 11 27 -1.79885 0 21 -1.79885 1
gene 1 11 28 2.3162 0 22 2.3162 1
gene 1 12 27 -0.50264 0 23 -0.50264 1
gene 1 12 28 -1.30052 0 24 -1.30052 1
gene 1 13 27 0.702078 0 25 0.702078 1
gene 1 13 28 0.390866 0 26 0.390866 1
gene 1 14 27 0.186316 0 27 0.186316 1
gene 1 14 28 3.89328 0 28 3.89328 1
gene 1 15 27 0.81822 0 29 0.81822 1
gene 1 15 28 1.80166 0 30 1.80166 1
gene 1 16 27 2.22773 0 31 2.22773 1
gene 1 16 28 -7.76463 0 32 -7.76463 1
gene 1 17 27 3.11975 0 33 3.11975 1
gene 1 17 28 -2.12579 0 34 -2.12579 1
gene 1 18 27 1.1111 0 35 1.1111 1
gene 1 18 28 0.587281 0 36 0.587281 1
gene 1 19 27 0.979949 0 37 0.979949 1
gene 1 19 28 -2.82388 0 38 -2.82388 1
gene 1 20 27 -1.88413 0 39 -1.88413 1
gene 1 20 28 -1.26524 0 40 -1.26524 1
gene 1 21 27 -1.32435 0 41 -1.32435 1
gene 1 21 28 6.1025 0 42 6.1025 1
gene 1 22 27 3.02705 0 43 3.02705 1
gene 1 22 28 -2.20405 0 44 -2.20405 1
gene 1 23 27 4.50307 0 45 4.50307 1
gene 1 23 28 -2.26882 0 46 -2.26882 1
gene 1 24 27 4.38657 0 47 4.38657 1
gene 1 24 28 -2.079 0 48 -2.079 1
gene 1 25 27 3.86138 0 49 3.86138 1
gene 1 25 28 3.08481 0 50 3.08481 1
gene 1 26 27 -1.1877 0 51 -1.1877 1
gene 1 26 28 -3.55731 0 52 -3.55731 1
gene 1 3 32 -5.58593 0 61 -5.58593 1
gene 1 32 27 -0.643537 0 62 -0.643537 1
gene 1 5 32 1.94327 0 120 1.94327 1
gene 1 7 32 -0.655004 0 125 -0.655004 1
gene 1 20 48 -0.447478 0 133 -0.447478 1
gene 1 48 27 2.13965 0 134 2.13965 1
gene 1 18 55 -1.67525 0 150 -1.67525 1
gene 1 55 27 5.69315 0 151 5.69315 1
gene 1 10 64 1.62649 0 174 1.62649 1
gene 1 64 27 -2.11621 0 175 -2.11621 1
gene 1 17 68 -3.76264 0 192 -3.76264 1
gene 1 68 27 -1.40446 0 193 -1.40446 1
gene 1 20 32 0.054857 0 242 0.054857 1
gene 1 13 89 -1.19083 0 276 -1.19083 1
gene 1 89 27 1.44105 0 277 1.44105 1
gene 1 11 48 -0.433668 0 452 -0.433668 1
gene 1 26 32 -2.60517 0 473 -2.60517 1
gene 1 7 153 -2.84394 0 502 -2.84394 1
gene 1 153 27 2.13538 0 503 2.13538 1
gene 1 3 171 -7.84169 0 582 -7.84169 1
gene 1 171 27 0.478465 0 583 0.478465 0
gene 1 13 32 -2.13347 0 603 -2.13347 1
gene 1 171 221 1.21235 0 754 1.21235 1
gene 1 221 27 -3.81814 0 755 -3.81814 1
gene 1 25 32 -1.86102 0 786 -1.86102 1
genomeend 3

/* Organism #4 Fitness: 0.01915 Error: 0 */
genomestart 4
trait 1 0.0931673 0.809137 0.0118527 0.029746 0.331614 0.631291 0.0285062 0 
node 1 1 1 1
node 2 1 1 1
node 3 1 1 1
node 4 1 1 1
node 5 1 1 1
node 6 1 1 1
node 7 1 1 1
node 8 1 1 1
node 9 1 1 1
node 10 1 1 1
node 11 1 1 1
node 12 1 1 1
node 13 1 1 1
node 14 1 1 1
node 15 1 1 1
node 16 1 1 1
node 17 1 1 1
node 18 1 1 1
node 19 1 1 1
node 20 1 1 1
node 21 1 1 1
node 22 1 1 1
node 23 1 1 1
node 24 1 1 1
node 25 1 1 1
node 26 1 1 3
node 27 1 0 2
node 28 1 0 2
node 32 1 0 0
node 48 1 0 0
node 55 1 0 0
node 64 1 0 0
node 68 1 0 0
node 89 1 0 0
node 153 1 0 0
node 171 1 0 0
node 221 1 0 0
gene 1 1 27 0.646229 0 1 0.646229 1
gene 1 1 28 2.83189 0 2 2.83189 1
gene 1 2 27 3.71509 0 3 3.71509 1
gene 1 2 28 2.26555 0 4 2.26555 1
gene 1 3 27 0.128788 0 5 0.128788 1
gene 1 3 28 7.45715 0 6 7.45715 1
gene 1 4 27 -0.453124 0 7 -0.453124 1
gene 1 4 28 2.85452 0 8 2.85452 1
gene 1 5 27 1.80793 0 9 1.80793 1
gene 1 5 28 -5.8653 0 10 -5.8653 1
gene 1 6 27 -2.56754 0 11 -2.56754 1
gene 1 6 28 1.13521 0 12 1.13521 1
gene 1 7 27 2.66055 0 13 2.66055 1
gene 1 7 28 -1.50359 0 14 -1.50359 1
gene 1 8 27 4.24695 0 15 4.24695 1
gene 1 8 28 0.43974 0 16 0.43974 1
gene 1 9 27 3.13726 0 17 3.13726 1
gene 1 9 28 7.78423 0 18 7.78423 1
gene 1 10 27 2.00515 0 19 2.00515 1
gene 1 10 28 -2.26218 0 20 -2.26218 1
gene 1 11 27 -0.320385 0 21 -0.320385 1
gene 1 11 28 -0.471282 0 22 -0.471282 1
gene 1 12 27 1.37921 0 23 1.37921 1
gene 1 12 28 -2.65218 0 24 -2.65218 1
gene 1 13 27 2.72599 0 25 2.72599 1
gene 1 13 28 2.06679 0 26 2.06679 1
gene 1 14 27 -0.859172 0 27 -0.859172 1
gene 1 14 28 7.51567 0 28 7.51567 1
gene 1 15 27 1.7361 0 29 1.7361 1
gene 1 15 28 -2.93342 0 30 -2.93342 1
gene 1 16 27 -3.57304 0 31 -3.57304 1
gene 1 16 28 -6.92285 0 32 -6.92285 1
gene 1 17 27 1.29902 0 33 1.29902 1
gene 1 17 28 -3.14931 0 34 -3.14931 1
gene 1 18 27 -1.15848 0 35 -1.15848 1
gene 1 18 28 1.48239 0 36 1.48239 1
gene 1 19 27 1.09376 0 37 1.09376 1
gene 1 19 28 -0.247276 0 38 -0.247276 1
gene 1 20 27 -3.78276 0 39 -3.78276 1
gene 1 20 28 1.26965 0 40 1.26965 1
gene 1 21 27 -1.91557 0 41 -1.91557 1
gene 1 21 28 6.20427 0 42 6.20427 1
gene 1 22 27 0.744342 0 43 0.744342 1
gene 1 22 28 2.95892 0 44 2.95892 1
gene 1 23 27 1.30656 0 45 1.30656 1
gene 1 23 28 1.34335 0 46 1.34335 1
gene 1 24 27 0.29705 0 47 0.29705 1
gene 1 24 28 0.220093 0 48 0.220093 1
gene 1 25 27 -0.160651 0 49 -0.160651 1
gene 1 25 28 3.6156 0 50 3.6156 1
gene 1 26 27 7.84131 0 51 7.84131 1
gene 1 26 28 -0.27604 0 52 -0.27604 1
gene 1 3 32 -2.43802 0 61 -2.43802 1
gene 1 32 27 -4.08969 0 62 -4.08969 1
gene 1 5 32 0.726035 0 120 0.726035 1
gene 1 7 32 -0.2678 0 125 -0.2678 1
gene 1 20 48 -0.584451 0 133 -0.584451 1
gene 1 48 27 2.2977 0 134 2.2977 1
gene 1 18 55 -2.60347 0 150 -2.60347 1
gene 1 55 27 6.35388 0 151 6.35388 1
gene 1 10 64 2.49578 0 174 2.49578 1
gene 1 64 27 -3.41126 0 175 -3.41126 1
gene 1 17 68 -4.05279 0 192 -4.05279 1
gene 1 68 27 -3.9136 0 193 -3.9136 1
gene 1 20 32 -0.203482 0 242 -0.203482 1
gene 1 13 89 -5.95569 0 276 -5.95569 1
gene 1 89 27 -0.621738 0 277 -0.621738 1
gene 1 11 48 -3.4962 0 452 -3.4962 1
gene 1 26 32 -2.2375 0 473 -2.2375 1
gene 1 7 153 0.705645 0 502 0.705645 1
gene 1 153 27 2.74438 0 503 2.74438 1
gene 1 3 171 -2.58173 0 582 -2.58173 1
gene 1 171 27 1.33169 0 583 1.33169 0
gene 1 13 32 -1.92503 0 603 -1.92503 1
gene 1 171 221 1.4691 0 754 1.4691 1
gene 1 221 27 -3.60546 0 755 -3.60546 1
gene 1 25 32 -1.82504 0 786 -1.82504 1
genomeend 4

/* Organism #5 Fitness: 0.82628 Error: 0 */
/* ##------$ WINNER 5 SPECIES #39 $------## */
genomestart 5
trait 1 0.0931673 0.809137 0.0118527 0.029746 0.331614 0.631291 0.0285062 0 
node 1 1 1 1
node 2 1 1 1
node 3 1 1 1
node 4 1 1 1
node 5 1 1 1
node 6 1 1 1
node 7 1 1 1
node 8 1 1 1
node 9 1 1 1
node 10 1 1 1
node 11 1 1 1
node 12 1 1 1
node 13 1 1 1
node 14 1 1 1
node 15 1 1 1
node 16 1 1 1
node 17 1 1 1
node 18 1 1 1
node 19 1 1 1
node 20 1 1 1
node 21 1 1 1
node 22 1 1 1
node 23 1 1 1
node 24 1 1 1
node 25 1 1 1
node 26 1 1 3
node 27 1 0 2
node 28 1 0 2
node 32 1 0 0
node 48 1 0 0
node 55 1 0 0
node 64 1 0 0
node 68 1 0 0
node 89 1 0 0
node 153 1 0 0
node 171 1 0 0
node 221 1 0 0
gene 1 1 27 1.3296 0 1 1.3296 1
gene 1 1 28 0.180381 0 2 0.180381 1
gene 1 2 27 2.11974 0 3 2.11974 1
gene 1 2 28 2.04754 0 4 2.04754 1
gene 1 3 27 1.13119 0 5 1.13119 1
gene 1 3 28 8 0 6 8 1
gene 1 4 27 -1.61976 0 7 -1.61976 1
gene 1 4 28 3.14668 0 8 3.14668 1
gene 1 5 27 0.531981 0 9 0.531981 1
gene 1 5 28 -3.90849 0 10 -3.90849 1
gene 1 6 27 0.568493 0 11 0.568493 1
gene 1 6 28 4.82173 0 12 4.82173 1
gene 1 7 27 -0.174959 0 13 -0.174959 1
gene 1 7 28 -1.00895 0 14 -1.00895 1
gene 1 8 27 2.67975 0 15 2.67975 1
gene 1 8 28 0.41866 0 16 0.41866 1
gene 1 9 27 4.40049 0 17 4.40049 1
gene 1 9 28 7.43121 0 18 7.43121 1
gene 1 10 27 1.26723 0 19 1.26723 1
gene 1 10 28 -0.0115493 0 20 -0.0115493 1
gene 1 11 27 0.388454 0 21 0.388454 1
gene 1 11 28 1.4811 0 22 1.4811 1
gene 1 12 27 2.28547 0 23 2.28547 1
gene 1 12 28 -0.936532 0 24 -0.936532 1
gene 1 13 27 -0.868456 0 25 -0.868456 1
gene 1 13 28 2.4323 0 26 2.4323 1
gene 1 14 27 -0.0397027 0 27 -0.0397027 1
gene 1 14 28 6.71796 0 28 6.71796 1
gene 1 15 27 1.3015 0 29 1.3015 1
gene 1 15 28 -1.00729 0 30 -1.00729 1
gene 1 16 27 -0.959564 0 31 -0.959564 1
gene 1 16 28 -5.97617 0 32 -5.97617 1
gene 1 17 27 2.58854 0 33 2.58854 1
gene 1 17 28 -2.35462 0 34 -2.35462 1
gene 1 18 27 -1.39306 0 35 -1.39306 1
gene 1 18 28 -1.16016 0 36 -1.16016 1
gene 1 19 27 2.14967 0 37 2.14967 1
gene 1 19 28 -0.447058 0 38 -0.447058 1
gene 1 20 27 -2.36838 0 39 -2.36838 1
gene 1 20 28 -0.8155 0 40 -0.8155 1
gene 1 21 27 0.913266 0 41 0.913266 1
gene 1 21 28 4.45271 0 42 4.45271 1
gene 1 22 27 2.03393 0 43 2.03393 1
gene 1 22 28 -0.257006 0 44 -0.257006 1
gene 1 23 27 4.5742 0 45 4.5742 1
gene 1 23 28 1.6669 0 46 1.6669 1
gene 1 24 27 2.51672 0 47 2.51672 1
gene 1 24 28 -1.26664 0 48 -1.26664 1
gene 1 25 27 1.23057 0 49 1.23057 1
gene 1 25 28 2.45413 0 50 2.45413 1
gene 1 26 27 7.26401 0 51 7.26401 1
gene 1 26 28 -2.23781 0 52 -2.23781 1
gene 1 3 32 -3.03318 0 61 -3.03318 1
gene 1 32 27 -4.32319 0 62 -4.32319 1
gene 1 5 32 -1.0033 0 120 -1.0033 1
gene 1 7 32 0.562265 0 125 0.562265 1
gene 1 20 48 2.17425 0 133 2.17425 1
gene 1 48 27 4.03502 0 134 4.03502 1
gene 1 18 55 -0.731161 0 150 -0.731161 1
gene 1 55 27 4.21892 0 151 4.21892 1
gene 1 10 64 1.59203 0 174 1.59203 1
gene 1 64 27 -3.87378 0 175 -3.87378 1
gene 1 17 68 -2.87615 0 192 -2.87615 1
gene 1 68 27 -3.78049 0 193 -3.78049 1
gene 1 20 32 0.897206 0 242 0.897206 1
gene 1 13 89 -3.55403 0 276 -3.55403 1
gene 1 89 27 1.6867 0 277 1.6867 1
gene 1 11 48 -2.66021 0 452 -2.66021 1
gene 1 26 32 -2.83181 0 473 -2.83181 1
gene 1 7 153 -1.12305 0 502 -1.12305 1
gene 1 153 27 1.13594 0 503 1.13594 1
gene 1 3 171 -5.29087 0 582 -5.29087 1
gene 1 171 27 0.939823 0 583 0.939823 0
gene 1 13 32 -1.85881 0 603 -1.85881 1
gene 1 171 221 0.0128655 0 754 0.0128655 1
gene 1 221 27 -3.58351 0 755 -3.58351 1
gene 1 25 32 -1.43234 0 786 -1.43234 1
genomeend 5

/* Organism #6 Fitness: 0.79 Error: 0 */
/* ##------$ WINNER 6 SPECIES #39 $------## */
genomestart 6
trait 1 0.0745338 0.836177 0.0094822 0.0237968 0.331614 0.631291 0.022805 0 
node 1 1 1 1
node 2 1 1 1
node 3 1 1 1
node 4 1 1 1
node 5 1 1 1
node 6 1 1 1
node 7 1 1 1
node 8 1 1 1
node 9 1 1 1
node 10 1 1 1
node 11 1 1 1
node 12 1 1 1
node 13 1 1 1
node 14 1 1 1
node 15 1 1 1
node 16 1 1 1
node 17 1 1 1
node 18 1 1 1
node 19 1 1 1
node 20 1 1 1
node 21 1 1 1
node 22 1 1 1
node 23 1 1 1
node 24 1 1 1
node 25 1 1 1
node 26 1 1 3
node 27 1 0 2
node 28 1 0 2
node 32 1 0 0
node 48 1 0 0
node 55 1 0 0
node 64 1 0 0
node 68 1 0 0
node 89 1 0 0
node 153 1 0 0
node 171 1 0 0
node 221 1 0 0
gene 1 1 27 1.95406 0 1 1.95406 1
gene 1 1 28 -0.694339 0 2 -0.694339 1
gene 1 2 27 0.448927 0 3 0.448927 1
gene 1 2 28 3.09924 0 4 3.09924 1
gene 1 3 27 -1.50021 0 5 -1.50021 1
gene 1 3 28 8 0 6 8 1
gene 1 4 27 -3.42194 0 7 -3.42194 1
gene 1 4 28 3.95868 0 8 3.95868 1
gene 1 5 27 1.648 0 9 1.648 1
gene 1 5 28 -3.21447 0 10 -3.21447 1
gene 1 6 27 -1.95969 0 11 -1.95969 1
gene 1 6 28 3.63376 0 12 3.63376 1
gene 1 7 27 -1.25802 0 13 -1.25802 1
gene 1 7 28 -1.54217 0 14 -1.54217 1
gene 1 8 27 3.32452 0 15 3.32452 1
gene 1 8 28 0.321328 0 16 0.321328 1
gene 1 9 27 4.90306 0 17 4.90306 1
gene 1 9 28 6.86242 0 18 6.86242 1
gene 1 10 27 -0.814949 0 19 -0.814949 1
gene 1 10 28 -0.379192 0 20 -0.379192 1
gene 1 11 27 -1.49535 0 21 -1.49535 1
gene 1 11 28 1.88078 0 22 1.88078 1
gene 1 12 27 -0.261162 0 23 -0.261162 1
gene 1 12 28 -2.74336 0 24 -2.74336 1
gene 1 13 27 0.702078 0 25 0.702078 1
gene 1 13 28 0.390866 0 26 0.390866 1
gene 1 14 27 -0.258015 0 27 -0.258015 1
gene 1 14 28 5.43591 0 28 5.43591 1
gene 1 15 27 2.03606 0 29 2.03606 1
gene 1 15 28 0.722449 0 30 0.722449 1
gene 1 16 27 0.815946 0 31 0.815946 1
gene 1 16 28 -6.3382 0 32 -6.3382 1
gene 1 17 27 2.01003 0 33 2.01003 1
gene 1 17 28 -1.8879 0 34 -1.8879 1
gene 1 18 27 1.1111 0 35 1.1111 1
gene 1 18 28 -0.895537 0 36 -0.895537 1
gene 1 19 27 2.92945 0 37 2.92945 1
gene 1 19 28 -0.530259 0 38 -0.530259 1
gene 1 20 27 -3.23274 0 39 -3.23274 1
gene 1 20 28 -1.26524 0 40 -1.26524 1
gene 1 21 27 0.392315 0 41 0.392315 1
gene 1 21 28 4.0354 0 42 4.0354 1
gene 1 22 27 2.19328 0 43 2.19328 1
gene 1 22 28 -1.75581 0 44 -1.75581 1
gene 1 23 27 3.4099 0 45 3.4099 1
gene 1 23 28 -0.705283 0 46 -0.705283 1
gene 1 24 27 4.38657 0 47 4.38657 1
gene 1 24 28 -1.23959 0 48 -1.23959 1
gene 1 25 27 1.52573 0 49 1.52573 1
gene 1 25 28 3.78818 0 50 3.78818 1
gene 1 26 27 6.52802 0 51 6.52802 1
gene 1 26 28 -4.43312 0 52 -4.43312 1
gene 1 3 32 -4.66724 0 61 -4.66724 1
gene 1 32 27 -2.75061 0 62 -2.75061 1
gene 1 5 32 -1.59376 0 120 -1.59376 1
gene 1 7 32 1.19663 0 125 1.19663 1
gene 1 20 48 1.59007 0 133 1.59007 1
gene 1 48 27 3.42307 0 134 3.42307 1
gene 1 18 55 -1.67525 0 150 -1.67525 1
gene 1 55 27 4.32089 0 151 4.32089 1
gene 1 10 64 -0.609903 0 174 -0.609903 1
gene 1 64 27 -3.69188 0 175 -3.69188 1
gene 1 17 68 -4.05279 0 192 -4.05279 1
gene 1 68 27 -3.9136 0 193 -3.9136 1
gene 1 20 32 1.99789 0 242 1.99789 1
gene 1 13 89 -3.68419 0 276 -3.68419 1
gene 1 89 27 0.182846 0 277 0.182846 1
gene 1 11 48 -1.82421 0 452 -1.82421 1
gene 1 26 32 -2.2375 0 473 -2.2375 1
gene 1 7 153 -0.836818 0 502 -0.836818 1
gene 1 153 27 1.01367 0 503 1.01367 1
gene 1 3 171 -8 0 582 -8 1
gene 1 171 27 0.478465 0 583 0.478465 0
gene 1 13 32 -1.79258 0 603 -1.79258 1
gene 1 171 221 0.862777 0 754 0.862777 1
gene 1 221 27 -2.1764 0 755 -2.1764 1
gene 1 25 32 -1.82504 0 786 -1.82504 1
gene 1 12 68 -0.996124 0 814 -0.996124 1
genomeend 6

/* Organism #7 Fitness: 0.78084 Error: 0 */
/* ##------$ WINNER 7 SPECIES #39 $------## */
genomestart 7
trait 1 0.0931673 0.809137 0.0118527 0.029746 0.331614 0.631291 0.0285062 0 
node 1 1 1 1
node 2 1 1 1
node 3 1 1 1
node 4 1 1 1
node 5 1 1 1
node 6 1 1 1
node 7 1 1 1
node 8 1 1 1
node 9 1 1 1
node 10 1 1 1
node 11 1 1 1
node 12 1 1 1
node 13 1 1 1
node 14 1 1 1
node 15 1 1 1
node 16 1 1 1
node 17 1 1 1
node 18 1 1 1
node 19 1 1 1
node 20 1 1 1
node 21 1 1 1
node 22 1 1 1
node 23 1 1 1
node 24 1 1 1
node 25 1 1 1
node 26 1 1 3
node 27 1 0 2
node 28 1 0 2
node 32 1 0 0
node 48 1 0 0
node 55 1 0 0
node 64 1 0 0
node 68 1 0 0
node 89 1 0 0
node 153 1 0 0
node 171 1 0 0
node 221 1 0 0
gene 1 1 27 1.3296 0 1 1.3296 1
gene 1 1 28 0.180381 0 2 0.180381 1
gene 1 2 27 2.11974 0 3 2.11974 1
gene 1 2 28 2.04754 0 4 2.04754 1
gene 1 3 27 1.13119 0 5 1.13119 1
gene 1 3 28 8 0 6 8 1
gene 1 4 27 -1.61976 0 7 -1.61976 1
gene 1 4 28 3.14668 0 8 3.14668 1
gene 1 5 27 0.531981 0 9 0.531981 1
gene 1 5 28 -3.90849 0 10 -3.90849 1
gene 1 6 27 0.568493 0 11 0.568493 1
gene 1 6 28 4.82173 0 12 4.82173 1
gene 1 7 27 -0.174959 0 13 -0.174959 1
gene 1 7 28 -1.00895 0 14 -1.00895 1
gene 1 8 27 2.67975 0 15 2.67975 1
gene 1 8 28 0.41866 0 16 0.41866 1
gene 1 9 27 4.40049 0 17 4.40049 1
gene 1 9 28 7.43121 0 18 7.43121 1
gene 1 10 27 1.26723 0 19 1.26723 1
gene 1 10 28 -0.0115493 0 20 -0.0115493 1
gene 1 11 27 0.388454 0 21 0.388454 1
gene 1 11 28 1.4811 0 22 1.4811 1
gene 1 12 27 2.28547 0 23 2.28547 1
gene 1 12 28 -0.936532 0 24 -0.936532 1
gene 1 13 27 -0.868456 0 25 -0.868456 1
gene 1 13 28 2.4323 0 26 2.4323 1
gene 1 14 27 -0.0397027 0 27 -0.0397027 1
gene 1 14 28 6.71796 0 28 6.71796 1
gene 1 15 27 1.3015 0 29 1.3015 1
gene 1 15 28 -1.00729 0 30 -1.00729 1
gene 1 16 27 -0.959564 0 31 -0.959564 1
gene 1 16 28 -5.97617 0 32 -5.97617 1
gene 1 17 27 2.58854 0 33 2.58854 1
gene 1 17 28 -2.35462 0 34 -2.35462 1
gene 1 18 27 -1.39306 0 35 -1.39306 1
gene 1 18 28 -1.16016 0 36 -1.16016 1
gene 1 19 27 2.14967 0 37 2.14967 1
gene 1 19 28 -0.447058 0 38 -0.447058 1
gene 1 20 27 -2.36838 0 39 -2.36838 1
gene 1 20 28 -0.8155 0 40 -0.8155 1
gene 1 21 27 0.913266 0 41 0.913266 1
gene 1 21 28 4.45271 0 42 4.45271 1
gene 1 22 27 2.03393 0 43 2.03393 1
gene 1 22 28 -0.257006 0 44 -0.257006 1
gene 1 23 27 4.5742 0 45 4.5742 1
gene 1 23 28 1.6669 0 46 1.6669 1
gene 1 24 27 2.51672 0 47 2.51672 1
gene 1 24 28 -1.26664 0 48 -1.26664 1
gene 1 25 27 1.23057 0 49 1.23057 1
gene 1 25 28 2.45413 0 50 2.45413 1
gene 1 26 27 7.26401 0 51 7.26401 1
gene 1 26 28 -2.23781 0 52 -2.23781 1
gene 1 3 32 -3.03318 0 61 -3.03318 1
gene 1 32 27 -4.32319 0 62 -4.32319 1
gene 1 5 32 -1.0033 0 120 -1.0033 1
gene 1 7 32 0.562265 0 125 0.562265 1
gene 1 20 48 2.17425 0 133 2.17425 1
gene 1 48 27 4.03502 0 134 4.03502 1
gene 1 18 55 -0.731161 0 150 -0.731161 1
gene 1 55 27 4.21892 0 151 4.21892 1
gene 1 10 64 1.59203 0 174 1.59203 1
gene 1 64 27 -3.87378 0 175 -3.87378 1
gene 1 17 68 -2.87615 0 192 -2.87615 1
gene 1 68 27 -3.78049 0 193 -3.78049 1
gene 1 20 32 0.897206 0 242 0.897206 1
gene 1 13 89 -3.55403 0 276 -3.55403 1
gene 1 89 27 1.6867 0 277 1.6867 1
gene 1 11 48 -2.66021 0 452 -2.66021 1
gene 1 26 32 -2.83181 0 473 -2.83181 1
gene 1 7 153 -1.12305 0 502 -1.12305 1
gene 1 153 27 1.13594 0 503 1.13594 1
gene 1 3 171 -5.29087 0 582 -5.29087 1
gene 1 171 27 0.939823 0 583 0.939823 0
gene 1 13 32 -1.85881 0 603 -1.85881 1
gene 1 171 221 0.0128655 0 754 0.0128655 1
gene 1 221 27 -3.58351 0 755 -3.58351 1
gene 1 25 32 -1.43234 0 786 -1.43234 1
genomeend 7

/* Species #41 : (Size 9) (AF 0) (Age 31)  */


/* Organism #8 Fitness: 0.811 Error: 0 */
/* ##------$ WINNER 8 SPECIES #41 $------## */
genomestart 8
trait 1 0.307062 0.120792 0.0758576 0 0.242454 0 0 0 
node 1 1 1 1
node 2 1 1 1
node 3 1 1 1
node 4 1 1 1
node 5 1 1 1
node 6 1 1 1
node 7 1 1 1
node 8 1 1 1
node 9 1 1 1
node 10 1 1 1
node 11 1 1 1
node 12 1 1 1
node 13 1 1 1
node 14 1 1 1
node 15 1 1 1
node 16 1 1 1
node 17 1 1 1
node 18 1 1 1
node 19 1 1 1
node 20 1 1 1
node 21 1 1 1
node 22 1 1 1
node 23 1 1 1
node 24 1 1 1
node 25 1 1 1
node 26 1 1 3
node 27 1 0 2
node 28 1 0 2
node 32 1 0 0
node 48 1 0 0
node 55 1 0 0
node 64 1 0 0
node 68 1 0 0
node 89 1 0 0
node 148 1 0 0
node 167 1 0 0
node 189 1 0 0
gene 1 1 27 -1.09218 0 1 -1.09218 1
gene 1 1 28 -2.91681 0 2 -2.91681 1
gene 1 2 27 -6.33595 0 3 -6.33595 1
gene 1 2 28 5.05215 0 4 5.05215 1
gene 1 3 27 4.09413 0 5 4.09413 1
gene 1 3 28 1.95873 0 6 1.95873 1
gene 1 4 27 -3.39463 0 7 -3.39463 1
gene 1 4 28 0.879467 0 8 0.879467 1
gene 1 5 27 2.55724 0 9 2.55724 1
gene 1 5 28 1.59222 0 10 1.59222 1
gene 1 6 27 -0.423168 0 11 -0.423168 1
gene 1 6 28 -2.73192 0 12 -2.73192 1
gene 1 7 27 -0.495087 0 13 -0.495087 1
gene 1 7 28 -1.68756 0 14 -1.68756 1
gene 1 8 27 1.33689 0 15 1.33689 1
gene 1 8 28 -2.49886 0 16 -2.49886 1
gene 1 9 27 -0.714133 0 17 -0.714133 1
gene 1 9 28 -1.63392 0 18 -1.63392 1
gene 1 10 27 -2.73218 0 19 -2.73218 1
gene 1 10 28 -6.45032 0 20 -6.45032 1
gene 1 11 27 4.31081 0 21 4.31081 1
gene 1 11 28 7.666 0 22 7.666 1
gene 1 12 27 -1.12407 0 23 -1.12407 1
gene 1 12 28 -5.0672 0 24 -5.0672 1
gene 1 13 27 -8 0 25 -8 1
gene 1 13 28 -2.07266 0 26 -2.07266 1
gene 1 14 27 -0.8314 0 27 -0.8314 1
gene 1 14 28 1.92315 0 28 1.92315 1
gene 1 15 27 0.163579 0 29 0.163579 1
gene 1 15 28 -5.36512 0 30 -5.36512 1
gene 1 16 27 -1.01211 0 31 -1.01211 1
gene 1 16 28 0.819861 0 32 0.819861 1
gene 1 17 27 -3.41411 0 33 -3.41411 1
gene 1 17 28 1.33429 0 34 1.33429 1
gene 1 18 27 -2.29453 0 35 -2.29453 1
gene 1 18 28 -0.832926 0 36 -0.832926 1
gene 1 19 27 -0.0346379 0 37 -0.0346379 1
gene 1 19 28 0.110401 0 38 0.110401 1
gene 1 20 27 4.31784 0 39 4.31784 1
gene 1 20 28 -2.52134 0 40 -2.52134 1
gene 1 21 27 1.46542 0 41 1.46542 1
gene 1 21 28 1.5495 0 42 1.5495 1
gene 1 22 27 2.17534 0 43 2.17534 1
gene 1 22 28 2.11142 0 44 2.11142 1
gene 1 23 27 0.294961 0 45 0.294961 1
gene 1 23 28 2.24217 0 46 2.24217 1
gene 1 24 27 4.85779 0 47 4.85779 1
gene 1 24 28 0.0942259 0 48 0.0942259 1
gene 1 25 27 -2.31979 0 49 -2.31979 1
gene 1 25 28 0.149197 0 50 0.149197 1
gene 1 26 27 -1.85152 0 51 -1.85152 1
gene 1 26 28 -2.57318 0 52 -2.57318 1
gene 1 3 32 -1.84255 0 61 -1.84255 1
gene 1 32 27 1.84622 0 62 1.84622 1
gene 1 5 32 -4.0157 0 120 -4.0157 1
gene 1 7 32 3.07475 0 125 3.07475 1
gene 1 20 48 -0.403898 0 133 -0.403898 1
gene 1 48 27 5.07878 0 134 5.07878 1
gene 1 18 55 2.46124 0 150 2.46124 1
gene 1 55 27 6.6249 0 151 6.6249 1
gene 1 10 64 -0.428559 0 174 -0.428559 1
gene 1 64 27 0.589846 0 175 0.589846 1
gene 1 17 68 -0.396588 0 192 -0.396588 1
gene 1 68 27 1.44553 0 193 1.44553 1
gene 1 20 32 1.74223 0 242 1.74223 1
gene 1 13 89 -4.4695 0 276 -4.4695 0
gene 1 89 27 0.612049 0 277 0.612049 1
gene 1 11 48 2.30415 0 452 2.30415 1
gene 1 13 148 -1.95265 0 483 -1.95265 1
gene 1 148 28 -4.08166 0 484 -4.08166 1
gene 1 11 167 0.776849 0 565 0.776849 1
gene 1 167 48 1.73217 0 566 1.73217 1
gene 1 12 89 -2.89323 0 575 -2.89323 1
gene 1 148 167 1.50948 0 620 1.50948 1
gene 1 13 189 5.94499 0 644 5.94499 1
gene 1 189 89 -2.19794 0 645 -2.19794 1
gene 1 167 28 1.01222 0 720 1.01222 1
genomeend 8

/* Organism #9 Fitness: 0.75988 Error: 0 */
/* ##------$ WINNER 9 SPECIES #41 $------## */
genomestart 9
trait 1 0.307062 0.120792 0.0758576 0 0.242454 0 0 0 
node 1 1 1 1
node 2 1 1 1
node 3 1 1 1
node 4 1 1 1
node 5 1 1 1
node 6 1 1 1
node 7 1 1 1
node 8 1 1 1
node 9 1 1 1
node 10 1 1 1
node 11 1 1 1
node 12 1 1 1
node 13 1 1 1
node 14 1 1 1
node 15 1 1 1
node 16 1 1 1
node 17 1 1 1
node 18 1 1 1
node 19 1 1 1
node 20 1 1 1
node 21 1 1 1
node 22 1 1 1
node 23 1 1 1
node 24 1 1 1
node 25 1 1 1
node 26 1 1 3
node 27 1 0 2
node 28 1 0 2
node 32 1 0 0
node 48 1 0 0
node 55 1 0 0
node 64 1 0 0
node 68 1 0 0
node 89 1 0 0
node 148 1 0 0
node 167 1 0 0
node 189 1 0 0
gene 1 1 27 1.68262 0 1 1.68262 1
gene 1 1 28 -1.45603 0 2 -1.45603 1
gene 1 2 27 -5.85681 0 3 -5.85681 1
gene 1 2 28 5.25716 0 4 5.25716 1
gene 1 3 27 3.23946 0 5 3.23946 1
gene 1 3 28 0.627909 0 6 0.627909 1
gene 1 4 27 -6.03024 0 7 -6.03024 1
gene 1 4 28 -0.390179 0 8 -0.390179 1
gene 1 5 27 1.15392 0 9 1.15392 1
gene 1 5 28 3.12814 0 10 3.12814 1
gene 1 6 27 2.04219 0 11 2.04219 1
gene 1 6 28 -2.33587 0 12 -2.33587 1
gene 1 7 27 0.949355 0 13 0.949355 1
gene 1 7 28 0.420345 0 14 0.420345 1
gene 1 8 27 1.74187 0 15 1.74187 1
gene 1 8 28 -2.63131 0 16 -2.63131 1
gene 1 9 27 -2.16643 0 17 -2.16643 1
gene 1 9 28 -0.631307 0 18 -0.631307 1
gene 1 10 27 -2.05885 0 19 -2.05885 1
gene 1 10 28 -6.92389 0 20 -6.92389 1
gene 1 11 27 3.3214 0 21 3.3214 1
gene 1 11 28 6.34394 0 22 6.34394 1
gene 1 12 27 -2.28927 0 23 -2.28927 1
gene 1 12 28 -6.73992 0 24 -6.73992 1
gene 1 13 27 -8 0 25 -8 1
gene 1 13 28 -0.646381 0 26 -0.646381 1
gene 1 14 27 3.41304 0 27 3.41304 1
gene 1 14 28 3.97765 0 28 3.97765 1
gene 1 15 27 0.136129 0 29 0.136129 1
gene 1 15 28 -6.26047 0 30 -6.26047 1
gene 1 16 27 2.33623 0 31 2.33623 1
gene 1 16 28 -0.00757241 0 32 -0.00757241 1
gene 1 17 27 -0.984298 0 33 -0.984298 1
gene 1 17 28 0.805631 0 34 0.805631 1
gene 1 18 27 -0.0305948 0 35 -0.0305948 0
gene 1 18 28 -1.97401 0 36 -1.97401 1
gene 1 19 27 -0.587938 0 37 -0.587938 1
gene 1 19 28 3.79972 0 38 3.79972 1
gene 1 20 27 6.06182 0 39 6.06182 1
gene 1 20 28 0.426639 0 40 0.426639 1
gene 1 21 27 0.679008 0 41 0.679008 1
gene 1 21 28 2.63358 0 42 2.63358 1
gene 1 22 27 4.21222 0 43 4.21222 1
gene 1 22 28 4.00822 0 44 4.00822 1
gene 1 23 27 1.14452 0 45 1.14452 1
gene 1 23 28 1.97775 0 46 1.97775 1
gene 1 24 27 4.37804 0 47 4.37804 1
gene 1 24 28 -2.33779 0 48 -2.33779 1
gene 1 25 27 -3.23862 0 49 -3.23862 1
gene 1 25 28 2.64798 0 50 2.64798 1
gene 1 26 27 -4.84212 0 51 -4.84212 1
gene 1 26 28 -4.16815 0 52 -4.16815 1
gene 1 3 32 0.407885 0 61 0.407885 1
gene 1 32 27 -1.00388 0 62 -1.00388 1
gene 1 5 32 -0.782647 0 120 -0.782647 1
gene 1 7 32 3.53398 0 125 3.53398 1
gene 1 20 48 -1.24258 0 133 -1.24258 1
gene 1 48 27 5.08747 0 134 5.08747 1
gene 1 18 55 -4.00773 0 150 -4.00773 1
gene 1 55 27 7.65154 0 151 7.65154 1
gene 1 10 64 -0.042348 0 174 -0.042348 1
gene 1 64 27 -1.26179 0 175 -1.26179 1
gene 1 17 68 0.0647755 0 192 0.0647755 1
gene 1 68 27 -0.0195891 0 193 -0.0195891 1
gene 1 20 32 4.05614 0 242 4.05614 1
gene 1 13 89 -4.59074 0 276 -4.59074 0
gene 1 89 27 4.18907 0 277 4.18907 1
gene 1 11 48 4.14668 0 452 4.14668 1
gene 1 13 148 -1.33084 0 483 -1.33084 1
gene 1 148 28 1.44185 0 484 1.44185 1
gene 1 11 167 2.58278 0 565 2.58278 1
gene 1 167 48 1.73217 0 566 1.73217 1
gene 1 12 89 -2.64235 0 575 -2.64235 1
gene 1 148 167 1.41442 0 620 1.41442 1
gene 1 13 189 -2.26279 0 644 -2.26279 1
gene 1 189 89 -3.46988 0 645 -3.46988 1
gene 1 167 28 1.84584 0 720 1.84584 1
genomeend 9

/* Organism #10 Fitness: 0.81756 Error: 0 */
/* ##------$ WINNER 10 SPECIES #41 $------## */
genomestart 10
trait 1 0.307062 0.120792 0.0758576 0 0.242454 0 0 0 
node 1 1 1 1
node 2 1 1 1
node 3 1 1 1
node 4 1 1 1
node 5 1 1 1
node 6 1 1 1
node 7 1 1 1
node 8 1 1 1
node 9 1 1 1
node 10 1 1 1
node 11 1 1 1
node 12 1 1 1
node 13 1 1 1
node 14 1 1 1
node 15 1 1 1
node 16 1 1 1
node 17 1 1 1
node 18 1 1 1
node 19 1 1 1
node 20 1 1 1
node 21 1 1 1
node 22 1 1 1
node 23 1 1 1
node 24 1 1 1
node 25 1 1 1
node 26 1 1 3
node 27 1 0 2
node 28 1 0 2
node 32 1 0 0
node 48 1 0 0
node 55 1 0 0
node 64 1 0 0
node 68 1 0 0
node 89 1 0 0
node 148 1 0 0
node 167 1 0 0
node 189 1 0 0
gene 1 1 27 -2.46666 0 1 -2.46666 1
gene 1 1 28 -2.28034 0 2 -2.28034 1
gene 1 2 27 -4.5584 0 3 -4.5584 1
gene 1 2 28 5.55425 0 4 5.55425 1
gene 1 3 27 6.05411 0 5 6.05411 1
gene 1 3 28 -0.620985 0 6 -0.620985 1
gene 1 4 27 -1.4535 0 7 -1.4535 1
gene 1 4 28 2.41103 0 8 2.41103 1
gene 1 5 27 3.18879 0 9 3.18879 1
gene 1 5 28 2.9548 0 10 2.9548 1
gene 1 6 27 1.38307 0 11 1.38307 1
gene 1 6 28 -4.68862 0 12 -4.68862 1
gene 1 7 27 -0.386135 0 13 -0.386135 1
gene 1 7 28 1.22603 0 14 1.22603 1
gene 1 8 27 3.63631 0 15 3.63631 1
gene 1 8 28 -1.88833 0 16 -1.88833 1
gene 1 9 27 -0.738648 0 17 -0.738648 1
gene 1 9 28 2.67545 0 18 2.67545 1
gene 1 10 27 -1.04131 0 19 -1.04131 1
gene 1 10 28 -7.42951 0 20 -7.42951 1
gene 1 11 27 1.60229 0 21 1.60229 1
gene 1 11 28 8 0 22 8 1
gene 1 12 27 0.37347 0 23 0.37347 1
gene 1 12 28 -4.11403 0 24 -4.11403 1
gene 1 13 27 -5.98593 0 25 -5.98593 1
gene 1 13 28 -1.03061 0 26 -1.03061 1
gene 1 14 27 -0.285195 0 27 -0.285195 1
gene 1 14 28 -0.575709 0 28 -0.575709 1
gene 1 15 27 0.963257 0 29 0.963257 1
gene 1 15 28 -3.0278 0 30 -3.0278 1
gene 1 16 27 2.43145 0 31 2.43145 1
gene 1 16 28 -0.47214 0 32 -0.47214 1
gene 1 17 27 -4.02516 0 33 -4.02516 1
gene 1 17 28 0.710719 0 34 0.710719 1
gene 1 18 27 -1.82585 0 35 -1.82585 0
gene 1 18 28 0.7313 0 36 0.7313 1
gene 1 19 27 1.73528 0 37 1.73528 1
gene 1 19 28 0.311305 0 38 0.311305 1
gene 1 20 27 2.29094 0 39 2.29094 1
gene 1 20 28 -2.16591 0 40 -2.16591 1
gene 1 21 27 -0.914821 0 41 -0.914821 1
gene 1 21 28 3.21329 0 42 3.21329 1
gene 1 22 27 4.09515 0 43 4.09515 1
gene 1 22 28 0.998718 0 44 0.998718 1
gene 1 23 27 2.61467 0 45 2.61467 1
gene 1 23 28 4.34703 0 46 4.34703 1
gene 1 24 27 2.42333 0 47 2.42333 1
gene 1 24 28 1.14917 0 48 1.14917 1
gene 1 25 27 -1.34434 0 49 -1.34434 1
gene 1 25 28 -1.78491 0 50 -1.78491 1
gene 1 26 27 -1.96987 0 51 -1.96987 1
gene 1 26 28 -1.1118 0 52 -1.1118 1
gene 1 3 32 -1.67332 0 61 -1.67332 1
gene 1 32 27 0.0967437 0 62 0.0967437 1
gene 1 5 32 -1.23783 0 120 -1.23783 1
gene 1 7 32 3.89646 0 125 3.89646 1
gene 1 20 48 -0.0603647 0 133 -0.0603647 1
gene 1 48 27 4.13598 0 134 4.13598 1
gene 1 18 55 -3.66089 0 150 -3.66089 1
gene 1 55 27 4.72077 0 151 4.72077 1
gene 1 10 64 -0.764796 0 174 -0.764796 1
gene 1 64 27 -1.1726 0 175 -1.1726 1
gene 1 17 68 2.23281 0 192 2.23281 1
gene 1 68 27 1.79237 0 193 1.79237 1
gene 1 20 32 1.74223 0 242 1.74223 1
gene 1 13 89 -4.51627 0 276 -4.51627 0
gene 1 89 27 2.18863 0 277 2.18863 1
gene 1 11 48 -1.00856 0 452 -1.00856 1
gene 1 13 148 -0.00869778 0 483 -0.00869778 1
gene 1 148 28 -4.08166 0 484 -4.08166 1
gene 1 11 167 -1.11728 0 565 -1.11728 1
gene 1 167 48 -0.673067 0 566 -0.673067 1
gene 1 12 89 -1.96141 0 575 -1.96141 1
gene 1 148 167 2.46212 0 620 2.46212 1
gene 1 13 189 6.91457 0 644 6.91457 1
gene 1 189 89 1.81417 0 645 1.81417 1
gene 1 167 28 1.01222 0 720 1.01222 1
genomeend 10

/* Organism #11 Fitness: 0.83744 Error: 0 */
/* ##------$ WINNER 11 SPECIES #41 $------## */
genomestart 11
trait 1 0.307062 0.120792 0.0758576 0 0.242454 0 0 0 
node 1 1 1 1
node 2 1 1 1
node 3 1 1 1
node 4 1 1 1
node 5 1 1 1
node 6 1 1 1
node 7 1 1 1
node 8 1 1 1
node 9 1 1 1
node 10 1 1 1
node 11 1 1 1
node 12 1 1 1
node 13 1 1 1
node 14 1 1 1
node 15 1 1 1
node 16 1 1 1
node 17 1 1 1
node 18 1 1 1
node 19 1 1 1
node 20 1 1 1
node 21 1 1 1
node 22 1 1 1
node 23 1 1 1
node 24 1 1 1
node 25 1 1 1
node 26 1 1 3
node 27 1 0 2
node 28 1 0 2
node 32 1 0 0
node 48 1 0 0
node 55 1 0 0
node 64 1 0 0
node 68 1 0 0
node 89 1 0 0
node 148 1 0 0
node 167 1 0 0
node 189 1 0 0
gene 1 1 27 1.37576 0 1 1.37576 1
gene 1 1 28 -3.40293 0 2 -3.40293 1
gene 1 2 27 -6.0065 0 3 -6.0065 1
gene 1 2 28 4.80473 0 4 4.80473 1
gene 1 3 27 1.88164 0 5 1.88164 1
gene 1 3 28 0.132584 0 6 0.132584 1
gene 1 4 27 -3.94379 0 7 -3.94379 1
gene 1 4 28 0.479097 0 8 0.479097 1
gene 1 5 27 2.01297 0 9 2.01297 1
gene 1 5 28 1.95919 0 10 1.95919 1
gene 1 6 27 -0.0537793 0 11 -0.0537793 1
gene 1 6 28 -2.63861 0 12 -2.63861 1
gene 1 7 27 -0.495087 0 13 -0.495087 1
gene 1 7 28 -0.768041 0 14 -0.768041 1
gene 1 8 27 1.03545 0 15 1.03545 1
gene 1 8 28 2.6341 0 16 2.6341 1
gene 1 9 27 -1.96842 0 17 -1.96842 1
gene 1 9 28 -0.465973 0 18 -0.465973 1
gene 1 10 27 -2.64123 0 19 -2.64123 1
gene 1 10 28 -6.45032 0 20 -6.45032 1
gene 1 11 27 3.79081 0 21 3.79081 1
gene 1 11 28 6.81717 0 22 6.81717 1
gene 1 12 27 0.330563 0 23 0.330563 1
gene 1 12 28 -3.96037 0 24 -3.96037 1
gene 1 13 27 -6.86709 0 25 -6.86709 1
gene 1 13 28 -0.495963 0 26 -0.495963 1
gene 1 14 27 0.298318 0 27 0.298318 1
gene 1 14 28 1.53766 0 28 1.53766 1
gene 1 15 27 0.0819124 0 29 0.0819124 1
gene 1 15 28 -5.34014 0 30 -5.34014 1
gene 1 16 27 -0.0581378 0 31 -0.0581378 1
gene 1 16 28 1.94702 0 32 1.94702 1
gene 1 17 27 -3.41411 0 33 -3.41411 1
gene 1 17 28 0.44784 0 34 0.44784 1
gene 1 18 27 -2.01071 0 35 -2.01071 0
gene 1 18 28 -0.955381 0 36 -0.955381 1
gene 1 19 27 0.390981 0 37 0.390981 1
gene 1 19 28 1.33309 0 38 1.33309 1
gene 1 20 27 3.98781 0 39 3.98781 1
gene 1 20 28 -1.88455 0 40 -1.88455 1
gene 1 21 27 0.539896 0 41 0.539896 1
gene 1 21 28 2.70626 0 42 2.70626 1
gene 1 22 27 2.37075 0 43 2.37075 1
gene 1 22 28 2.08148 0 44 2.08148 1
gene 1 23 27 0.993072 0 45 0.993072 1
gene 1 23 28 1.62823 0 46 1.62823 1
gene 1 24 27 4.58934 0 47 4.58934 1
gene 1 24 28 0.0942259 0 48 0.0942259 1
gene 1 25 27 -0.421089 0 49 -0.421089 1
gene 1 25 28 0.586222 0 50 0.586222 1
gene 1 26 27 -2.14527 0 51 -2.14527 1
gene 1 26 28 -2.19623 0 52 -2.19623 1
gene 1 3 32 -1.90603 0 61 -1.90603 1
gene 1 32 27 0.666349 0 62 0.666349 1
gene 1 5 32 -3.12044 0 120 -3.12044 1
gene 1 7 32 2.55586 0 125 2.55586 1
gene 1 20 48 -0.537202 0 133 -0.537202 1
gene 1 48 27 6.0078 0 134 6.0078 1
gene 1 18 55 0.40294 0 150 0.40294 1
gene 1 55 27 6.80324 0 151 6.80324 1
gene 1 10 64 -0.58016 0 174 -0.58016 1
gene 1 64 27 1.46523 0 175 1.46523 1
gene 1 17 68 0.24102 0 192 0.24102 1
gene 1 68 27 1.2145 0 193 1.2145 1
gene 1 20 32 2.05329 0 242 2.05329 1
gene 1 13 89 -4.53012 0 276 -4.53012 0
gene 1 89 27 2.40056 0 277 2.40056 1
gene 1 11 48 3.93798 0 452 3.93798 1
gene 1 13 148 -0.980674 0 483 -0.980674 1
gene 1 148 28 -3.57471 0 484 -3.57471 1
gene 1 11 167 -0.914683 0 565 -0.914683 1
gene 1 167 48 2.75073 0 566 2.75073 1
gene 1 12 89 -1.98789 0 575 -1.98789 1
gene 1 148 167 1.46195 0 620 1.46195 1
gene 1 13 189 5.40588 0 644 5.40588 1
gene 1 189 89 -0.336912 0 645 -0.336912 1
gene 1 167 28 0.511795 0 720 0.511795 1
genomeend 11

/* Organism #12 Fitness: 0.0448643 Error: 0 */
genomestart 12
trait 1 0.307062 0.120792 0.0758576 0 0.242454 0 0 0 
node 1 1 1 1
node 2 1 1 1
node 3 1 1 1
node 4 1 1 1
node 5 1 1 1
node 6 1 1 1
node 7 1 1 1
node 8 1 1 1
node 9 1 1 1
node 10 1 1 1
node 11 1 1 1
node 12 1 1 1
node 13 1 1 1
node 14 1 1 1
node 15 1 1 1
node 16 1 1 1
node 17 1 1 1
node 18 1 1 1
node 19 1 1 1
node 20 1 1 1
node 21 1 1 1
node 22 1 1 1
node 23 1 1 1
node 24 1 1 1
node 25 1 1 1
node 26 1 1 3
node 27 1 0 2
node 28 1 0 2
node 32 1 0 0
node 48 1 0 0
node 55 1 0 0
node 64 1 0 0
node 68 1 0 0
node 89 1 0 0
node 148 1 0 0
node 167 1 0 0
node 189 1 0 0
node 237 1 0 0
gene 1 1 27 -1.09218 0 1 -1.09218 1
gene 1 1 28 -2.91681 0 2 -2.91681 1
gene 1 2 27 -6.33595 0 3 -6.33595 1
gene 1 2 28 5.05215 0 4 5.05215 1
gene 1 3 27 4.09413 0 5 4.09413 1
gene 1 3 28 1.95873 0 6 1.95873 1
gene 1 4 27 -3.39463 0 7 -3.39463 1
gene 1 4 28 0.879467 0 8 0.879467 1
gene 1 5 27 2.55724 0 9 2.55724 1
gene 1 5 28 1.59222 0 10 1.59222 1
gene 1 6 27 -0.423168 0 11 -0.423168 1
gene 1 6 28 -2.73192 0 12 -2.73192 1
gene 1 7 27 -0.495087 0 13 -0.495087 1
gene 1 7 28 -1.68756 0 14 -1.68756 1
gene 1 8 27 1.33689 0 15 1.33689 1
gene 1 8 28 -2.49886 0 16 -2.49886 1
gene 1 9 27 -0.714133 0 17 -0.714133 1
gene 1 9 28 -1.63392 0 18 -1.63392 1
gene 1 10 27 -2.73218 0 19 -2.73218 1
gene 1 10 28 -6.45032 0 20 -6.45032 1
gene 1 11 27 4.31081 0 21 4.31081 1
gene 1 11 28 7.666 0 22 7.666 1
gene 1 12 27 -1.12407 0 23 -1.12407 1
gene 1 12 28 -5.0672 0 24 -5.0672 1
gene 1 13 27 -8 0 25 -8 1
gene 1 13 28 -2.07266 0 26 -2.07266 1
gene 1 14 27 -0.8314 0 27 -0.8314 1
gene 1 14 28 1.92315 0 28 1.92315 1
gene 1 15 27 0.163579 0 29 0.163579 1
gene 1 15 28 -5.36512 0 30 -5.36512 0
gene 1 16 27 -1.01211 0 31 -1.01211 1
gene 1 16 28 0.819861 0 32 0.819861 1
gene 1 17 27 -3.41411 0 33 -3.41411 1
gene 1 17 28 1.33429 0 34 1.33429 1
gene 1 18 27 -2.29453 0 35 -2.29453 1
gene 1 18 28 -0.832926 0 36 -0.832926 1
gene 1 19 27 -0.0346379 0 37 -0.0346379 1
gene 1 19 28 0.110401 0 38 0.110401 1
gene 1 20 27 4.31784 0 39 4.31784 1
gene 1 20 28 -2.52134 0 40 -2.52134 1
gene 1 21 27 1.46542 0 41 1.46542 1
gene 1 21 28 1.5495 0 42 1.5495 1
gene 1 22 27 2.17534 0 43 2.17534 1
gene 1 22 28 2.11142 0 44 2.11142 1
gene 1 23 27 0.294961 0 45 0.294961 1
gene 1 23 28 2.24217 0 46 2.24217 1
gene 1 24 27 4.85779 0 47 4.85779 1
gene 1 24 28 0.0942259 0 48 0.0942259 1
gene 1 25 27 -2.31979 0 49 -2.31979 1
gene 1 25 28 0.149197 0 50 0.149197 1
gene 1 26 27 -1.85152 0 51 -1.85152 1
gene 1 26 28 -2.57318 0 52 -2.57318 1
gene 1 3 32 -1.84255 0 61 -1.84255 1
gene 1 32 27 1.84622 0 62 1.84622 1
gene 1 5 32 -4.0157 0 120 -4.0157 1
gene 1 7 32 3.07475 0 125 3.07475 1
gene 1 20 48 -0.403898 0 133 -0.403898 1
gene 1 48 27 5.07878 0 134 5.07878 1
gene 1 18 55 2.46124 0 150 2.46124 1
gene 1 55 27 6.6249 0 151 6.6249 1
gene 1 10 64 -0.428559 0 174 -0.428559 1
gene 1 64 27 0.589846 0 175 0.589846 1
gene 1 17 68 -0.396588 0 192 -0.396588 1
gene 1 68 27 1.44553 0 193 1.44553 1
gene 1 20 32 1.74223 0 242 1.74223 1
gene 1 13 89 -4.4695 0 276 -4.4695 0
gene 1 89 27 0.612049 0 277 0.612049 1
gene 1 11 48 2.30415 0 452 2.30415 1
gene 1 13 148 -1.95265 0 483 -1.95265 1
gene 1 148 28 -4.08166 0 484 -4.08166 1
gene 1 11 167 0.776849 0 565 0.776849 1
gene 1 167 48 1.73217 0 566 1.73217 1
gene 1 12 89 -2.89323 0 575 -2.89323 1
gene 1 148 167 1.50948 0 620 1.50948 1
gene 1 13 189 5.94499 0 644 5.94499 1
gene 1 189 89 -2.19794 0 645 -2.19794 1
gene 1 167 28 1.01222 0 720 1.01222 1
gene 1 15 237 1 0 815 0 1
gene 1 237 28 -5.36512 0 816 0 1
genomeend 12

/* Organism #13 Fitness: 0.786 Error: 0 */
/* ##------$ WINNER 13 SPECIES #41 $------## */
genomestart 13
trait 1 0.307062 0.120792 0.0758576 0 0.242454 0 0 0 
node 1 1 1 1
node 2 1 1 1
node 3 1 1 1
node 4 1 1 1
node 5 1 1 1
node 6 1 1 1
node 7 1 1 1
node 8 1 1 1
node 9 1 1 1
node 10 1 1 1
node 11 1 1 1
node 12 1 1 1
node 13 1 1 1
node 14 1 1 1
node 15 1 1 1
node 16 1 1 1
node 17 1 1 1
node 18 1 1 1
node 19 1 1 1
node 20 1 1 1
node 21 1 1 1
node 22 1 1 1
node 23 1 1 1
node 24 1 1 1
node 25 1 1 1
node 26 1 1 3
node 27 1 0 2
node 28 1 0 2
node 32 1 0 0
node 48 1 0 0
node 55 1 0 0
node 64 1 0 0
node 68 1 0 0
node 89 1 0 0
node 148 1 0 0
node 167 1 0 0
node 189 1 0 0
gene 1 1 27 -0.597629 0 1 -0.597629 1
gene 1 1 28 -0.538957 0 2 -0.538957 1
gene 1 2 27 -4.7792 0 3 -4.7792 1
gene 1 2 28 5.23361 0 4 5.23361 1
gene 1 3 27 -0.570162 0 5 -0.570162 1
gene 1 3 28 -0.941048 0 6 -0.941048 1
gene 1 4 27 -6.84379 0 7 -6.84379 1
gene 1 4 28 0.0787263 0 8 0.0787263 1
gene 1 5 27 3.54678 0 9 3.54678 1
gene 1 5 28 0.0355216 0 10 0.0355216 1
gene 1 6 27 0.913467 0 11 0.913467 1
gene 1 6 28 -2.78815 0 12 -2.78815 1
gene 1 7 27 0.412076 0 13 0.412076 1
gene 1 7 28 0.332986 0 14 0.332986 1
gene 1 8 27 -1.74127 0 15 -1.74127 1
gene 1 8 28 -0.885113 0 16 -0.885113 1
gene 1 9 27 0.978805 0 17 0.978805 1
gene 1 9 28 1.80438 0 18 1.80438 1
gene 1 10 27 -2.46902 0 19 -2.46902 1
gene 1 10 28 -8 0 20 -8 1
gene 1 11 27 4.85435 0 21 4.85435 1
gene 1 11 28 5.96834 0 22 5.96834 1
gene 1 12 27 1.62168 0 23 1.62168 1
gene 1 12 28 -2.85354 0 24 -2.85354 1
gene 1 13 27 -6.17404 0 25 -6.17404 1
gene 1 13 28 -2.24044 0 26 -2.24044 1
gene 1 14 27 1.93297 0 27 1.93297 1
gene 1 14 28 3.41916 0 28 3.41916 1
gene 1 15 27 1.87523 0 29 1.87523 1
gene 1 15 28 -4.87424 0 30 -4.87424 1
gene 1 16 27 2.0785 0 31 2.0785 1
gene 1 16 28 2.04335 0 32 2.04335 1
gene 1 17 27 -2.73957 0 33 -2.73957 1
gene 1 17 28 -1.37438 0 34 -1.37438 1
gene 1 18 27 -3.56136 0 35 -3.56136 0
gene 1 18 28 -2.62169 0 36 -2.62169 1
gene 1 19 27 -0.0818653 0 37 -0.0818653 1
gene 1 19 28 0.912596 0 38 0.912596 1
gene 1 20 27 5.12016 0 39 5.12016 1
gene 1 20 28 0.310211 0 40 0.310211 1
gene 1 21 27 -0.594758 0 41 -0.594758 1
gene 1 21 28 2.46466 0 42 2.46466 1
gene 1 22 27 1.71379 0 43 1.71379 1
gene 1 22 28 3.5464 0 44 3.5464 1
gene 1 23 27 0.181814 0 45 0.181814 1
gene 1 23 28 3.30752 0 46 3.30752 1
gene 1 24 27 2.10769 0 47 2.10769 1
gene 1 24 28 0.0942259 0 48 0.0942259 1
gene 1 25 27 -0.958758 0 49 -0.958758 1
gene 1 25 28 -1.36917 0 50 -1.36917 1
gene 1 26 27 -3.6017 0 51 -3.6017 1
gene 1 26 28 -1.81929 0 52 -1.81929 1
gene 1 3 32 0.0403679 0 61 0.0403679 1
gene 1 32 27 -0.51352 0 62 -0.51352 1
gene 1 5 32 -1.23928 0 120 -1.23928 1
gene 1 7 32 0.854989 0 125 0.854989 1
gene 1 20 48 -3.15021 0 133 -3.15021 1
gene 1 48 27 6.93682 0 134 6.93682 1
gene 1 18 55 0.334635 0 150 0.334635 1
gene 1 55 27 -1.69408 0 151 -1.69408 1
gene 1 10 64 -0.0609643 0 174 -0.0609643 1
gene 1 64 27 1.94571 0 175 1.94571 1
gene 1 17 68 2.67022 0 192 2.67022 1
gene 1 68 27 2.78727 0 193 2.78727 1
gene 1 20 32 0.49234 0 242 0.49234 1
gene 1 13 89 -5.29198 0 276 -5.29198 0
gene 1 89 27 1.71814 0 277 1.71814 1
gene 1 11 48 7.00207 0 452 7.00207 1
gene 1 13 148 -0.574358 0 483 -0.574358 1
gene 1 148 28 -2.04402 0 484 -2.04402 1
gene 1 11 167 -2.60621 0 565 -2.60621 1
gene 1 167 48 2.91766 0 566 2.91766 1
gene 1 12 89 -2.12773 0 575 -2.12773 1
gene 1 148 167 1.03523 0 620 1.03523 1
gene 1 13 189 5.95522 0 644 5.95522 1
gene 1 189 89 1.52412 0 645 1.52412 1
gene 1 167 28 -2.21694 0 720 -2.21694 1
genomeend 13

/* Organism #14 Fitness: 0.79944 Error: 0 */
/* ##------$ WINNER 14 SPECIES #41 $------## */
genomestart 14
trait 1 0.307062 0.120792 0.0758576 0 0.242454 0 0 0 
node 1 1 1 1
node 2 1 1 1
node 3 1 1 1
node 4 1 1 1
node 5 1 1 1
node 6 1 1 1
node 7 1 1 1
node 8 1 1 1
node 9 1 1 1
node 10 1 1 1
node 11 1 1 1
node 12 1 1 1
node 13 1 1 1
node 14 1 1 1
node 15 1 1 1
node 16 1 1 1
node 17 1 1 1
node 18 1 1 1
node 19 1 1 1
node 20 1 1 1
node 21 1 1 1
node 22 1 1 1
node 23 1 1 1
node 24 1 1 1
node 25 1 1 1
node 26 1 1 3
node 27 1 0 2
node 28 1 0 2
node 32 1 0 0
node 48 1 0 0
node 55 1 0 0
node 64 1 0 0
node 68 1 0 0
node 89 1 0 0
node 148 1 0 0
node 167 1 0 0
node 189 1 0 0
gene 1 1 27 5.91844 0 1 5.91844 1
gene 1 1 28 -3.73676 0 2 -3.73676 1
gene 1 2 27 -6.301 0 3 -6.301 1
gene 1 2 28 2.93816 0 4 2.93816 1
gene 1 3 27 -2.44411 0 5 -2.44411 1
gene 1 3 28 -4.16426 0 6 -4.16426 1
gene 1 4 27 -2.27272 0 7 -2.27272 1
gene 1 4 28 1.15519 0 8 1.15519 1
gene 1 5 27 1.94402 0 9 1.94402 1
gene 1 5 28 3.96257 0 10 3.96257 1
gene 1 6 27 -2.10466 0 11 -2.10466 1
gene 1 6 28 -4.0404 0 12 -4.0404 1
gene 1 7 27 1.5833 0 13 1.5833 1
gene 1 7 28 -1.11771 0 14 -1.11771 1
gene 1 8 27 -1.50384 0 15 -1.50384 1
gene 1 8 28 7.48079 0 16 7.48079 1
gene 1 9 27 -3.17517 0 17 -3.17517 1
gene 1 9 28 -1.63552 0 18 -1.63552 1
gene 1 10 27 -2.97586 0 19 -2.97586 1
gene 1 10 28 -8 0 20 -8 1
gene 1 11 27 0.991695 0 21 0.991695 1
gene 1 11 28 3.74751 0 22 3.74751 1
gene 1 12 27 1.74705 0 23 1.74705 1
gene 1 12 28 -3.94694 0 24 -3.94694 1
gene 1 13 27 -6.23576 0 25 -6.23576 1
gene 1 13 28 -0.191579 0 26 -0.191579 1
gene 1 14 27 3.92254 0 27 3.92254 1
gene 1 14 28 0.0709784 0 28 0.0709784 1
gene 1 15 27 -1.83933 0 29 -1.83933 1
gene 1 15 28 -3.43385 0 30 -3.43385 1
gene 1 16 27 -0.744232 0 31 -0.744232 1
gene 1 16 28 4.08473 0 32 4.08473 1
gene 1 17 27 -3.03865 0 33 -3.03865 1
gene 1 17 28 -0.402902 0 34 -0.402902 1
gene 1 18 27 -1.4172 0 35 -1.4172 0
gene 1 18 28 -1.89482 0 36 -1.89482 1
gene 1 19 27 -0.395519 0 37 -0.395519 1
gene 1 19 28 0.671119 0 38 0.671119 1
gene 1 20 27 5.54795 0 39 5.54795 1
gene 1 20 28 -1.37639 0 40 -1.37639 1
gene 1 21 27 -2.42121 0 41 -2.42121 1
gene 1 21 28 3.56225 0 42 3.56225 1
gene 1 22 27 0.683939 0 43 0.683939 1
gene 1 22 28 -0.277108 0 44 -0.277108 1
gene 1 23 27 -0.486007 0 45 -0.486007 1
gene 1 23 28 2.4572 0 46 2.4572 1
gene 1 24 27 2.35733 0 47 2.35733 1
gene 1 24 28 1.2112 0 48 1.2112 1
gene 1 25 27 3.15399 0 49 3.15399 1
gene 1 25 28 2.34172 0 50 2.34172 1
gene 1 26 27 -0.888068 0 51 -0.888068 1
gene 1 26 28 -3.89341 0 52 -3.89341 1
gene 1 3 32 -2.31261 0 61 -2.31261 1
gene 1 32 27 -2.85971 0 62 -2.85971 1
gene 1 5 32 -0.362102 0 120 -0.362102 1
gene 1 7 32 0.314506 0 125 0.314506 1
gene 1 20 48 -2.49094 0 133 -2.49094 1
gene 1 48 27 4.51868 0 134 4.51868 1
gene 1 18 55 -4.13827 0 150 -4.13827 1
gene 1 55 27 5.39188 0 151 5.39188 1
gene 1 10 64 -0.585043 0 174 -0.585043 1
gene 1 64 27 3.80329 0 175 3.80329 1
gene 1 17 68 0.878628 0 192 0.878628 1
gene 1 68 27 0.983478 0 193 0.983478 1
gene 1 20 32 2.78321 0 242 2.78321 1
gene 1 13 89 -5.90929 0 276 -5.90929 0
gene 1 89 27 4.18907 0 277 4.18907 1
gene 1 11 48 -0.384304 0 452 -0.384304 1
gene 1 13 148 -0.00869778 0 483 -0.00869778 1
gene 1 148 28 -3.06776 0 484 -3.06776 1
gene 1 11 167 -3.77561 0 565 -3.77561 1
gene 1 167 48 3.74968 0 566 3.74968 1
gene 1 12 89 -1.9154 0 575 -1.9154 1
gene 1 148 167 -0.293741 0 620 -0.293741 1
gene 1 13 189 4.86677 0 644 4.86677 1
gene 1 189 89 2.37716 0 645 2.37716 1
gene 1 167 28 0.0113681 0 720 0.0113681 1
genomeend 14

/* Organism #15 Fitness: 0.79668 Error: 0 */
/* ##------$ WINNER 15 SPECIES #41 $------## */
genomestart 15
trait 1 0.307062 0.120792 0.0758576 0 0.242454 0 0 0 
node 1 1 1 1
node 2 1 1 1
node 3 1 1 1
node 4 1 1 1
node 5 1 1 1
node 6 1 1 1
node 7 1 1 1
node 8 1 1 1
node 9 1 1 1
node 10 1 1 1
node 11 1 1 1
node 12 1 1 1
node 13 1 1 1
node 14 1 1 1
node 15 1 1 1
node 16 1 1 1
node 17 1 1 1
node 18 1 1 1
node 19 1 1 1
node 20 1 1 1
node 21 1 1 1
node 22 1 1 1
node 23 1 1 1
node 24 1 1 1
node 25 1 1 1
node 26 1 1 3
node 27 1 0 2
node 28 1 0 2
node 32 1 0 0
node 48 1 0 0
node 55 1 0 0
node 64 1 0 0
node 68 1 0 0
node 89 1 0 0
node 148 1 0 0
node 167 1 0 0
node 189 1 0 0
gene 1 1 27 1.37576 0 1 1.37576 1
gene 1 1 28 -3.40293 0 2 -3.40293 1
gene 1 2 27 -6.0065 0 3 -6.0065 1
gene 1 2 28 4.80473 0 4 4.80473 1
gene 1 3 27 1.88164 0 5 1.88164 1
gene 1 3 28 0.132584 0 6 0.132584 1
gene 1 4 27 -3.94379 0 7 -3.94379 1
gene 1 4 28 0.479097 0 8 0.479097 1
gene 1 5 27 2.01297 0 9 2.01297 1
gene 1 5 28 1.95919 0 10 1.95919 1
gene 1 6 27 -0.0537793 0 11 -0.0537793 1
gene 1 6 28 -2.63861 0 12 -2.63861 1
gene 1 7 27 -0.495087 0 13 -0.495087 1
gene 1 7 28 -0.768041 0 14 -0.768041 1
gene 1 8 27 1.03545 0 15 1.03545 1
gene 1 8 28 2.6341 0 16 2.6341 1
gene 1 9 27 -1.96842 0 17 -1.96842 1
gene 1 9 28 -0.465973 0 18 -0.465973 1
gene 1 10 27 -2.64123 0 19 -2.64123 1
gene 1 10 28 -6.45032 0 20 -6.45032 1
gene 1 11 27 3.79081 0 21 3.79081 1
gene 1 11 28 6.81717 0 22 6.81717 1
gene 1 12 27 0.330563 0 23 0.330563 1
gene 1 12 28 -3.96037 0 24 -3.96037 1
gene 1 13 27 -6.86709 0 25 -6.86709 1
gene 1 13 28 -0.495963 0 26 -0.495963 1
gene 1 14 27 0.298318 0 27 0.298318 1
gene 1 14 28 1.53766 0 28 1.53766 1
gene 1 15 27 0.0819124 0 29 0.0819124 1
gene 1 15 28 -5.34014 0 30 -5.34014 1
gene 1 16 27 -0.0581378 0 31 -0.0581378 1
gene 1 16 28 1.94702 0 32 1.94702 1
gene 1 17 27 -3.41411 0 33 -3.41411 1
gene 1 17 28 0.44784 0 34 0.44784 1
gene 1 18 27 -2.01071 0 35 -2.01071 0
gene 1 18 28 -0.955381 0 36 -0.955381 1
gene 1 19 27 0.390981 0 37 0.390981 1
gene 1 19 28 1.33309 0 38 1.33309 1
gene 1 20 27 3.98781 0 39 3.98781 1
gene 1 20 28 -1.88455 0 40 -1.88455 1
gene 1 21 27 0.539896 0 41 0.539896 1
gene 1 21 28 2.70626 0 42 2.70626 1
gene 1 22 27 2.37075 0 43 2.37075 1
gene 1 22 28 2.08148 0 44 2.08148 1
gene 1 23 27 0.993072 0 45 0.993072 1
gene 1 23 28 1.62823 0 46 1.62823 1
gene 1 24 27 4.58934 0 47 4.58934 1
gene 1 24 28 0.0942259 0 48 0.0942259 1
gene 1 25 27 -0.421089 0 49 -0.421089 1
gene 1 25 28 0.586222 0 50 0.586222 1
gene 1 26 27 -2.14527 0 51 -2.14527 1
gene 1 26 28 -2.19623 0 52 -2.19623 1
gene 1 3 32 -1.90603 0 61 -1.90603 1
gene 1 32 27 0.666349 0 62 0.666349 1
gene 1 5 32 -3.12044 0 120 -3.12044 1
gene 1 7 32 2.55586 0 125 2.55586 1
gene 1 20 48 -0.537202 0 133 -0.537202 1
gene 1 48 27 6.0078 0 134 6.0078 1
gene 1 18 55 0.40294 0 150 0.40294 1
gene 1 55 27 6.80324 0 151 6.80324 1
gene 1 10 64 -0.58016 0 174 -0.58016 1
gene 1 64 27 1.46523 0 175 1.46523 1
gene 1 17 68 0.24102 0 192 0.24102 1
gene 1 68 27 1.2145 0 193 1.2145 1
gene 1 20 32 2.05329 0 242 2.05329 1
gene 1 13 89 -4.53012 0 276 -4.53012 0
gene 1 89 27 2.40056 0 277 2.40056 1
gene 1 11 48 3.93798 0 452 3.93798 1
gene 1 13 148 -0.980674 0 483 -0.980674 1
gene 1 148 28 -3.57471 0 484 -3.57471 1
gene 1 11 167 -0.914683 0 565 -0.914683 1
gene 1 167 48 2.75073 0 566 2.75073 1
gene 1 12 89 -1.98789 0 575 -1.98789 1
gene 1 148 167 1.46195 0 620 1.46195 1
gene 1 13 189 5.40588 0 644 5.40588 1
gene 1 189 89 -0.336912 0 645 -0.336912 1
gene 1 167 28 0.511795 0 720 0.511795 1
genomeend 15

/* Organism #16 Fitness: 0.84524 Error: 0 */
/* ##------$ WINNER 16 SPECIES #41 $------## */
genomestart 16
trait 1 0.307062 0.120792 0.0758576 0 0.242454 0 0 0 
node 1 1 1 1
node 2 1 1 1
node 3 1 1 1
node 4 1 1 1
node 5 1 1 1
node 6 1 1 1
node 7 1 1 1
node 8 1 1 1
node 9 1 1 1
node 10 1 1 1
node 11 1 1 1
node 12 1 1 1
node 13 1 1 1
node 14 1 1 1
node 15 1 1 1
node 16 1 1 1
node 17 1 1 1
node 18 1 1 1
node 19 1 1 1
node 20 1 1 1
node 21 1 1 1
node 22 1 1 1
node 23 1 1 1
node 24 1 1 1
node 25 1 1 1
node 26 1 1 3
node 27 1 0 2
node 28 1 0 2
node 32 1 0 0
node 48 1 0 0
node 55 1 0 0
node 64 1 0 0
node 68 1 0 0
node 89 1 0 0
node 148 1 0 0
node 167 1 0 0
node 189 1 0 0
node 238 1 0 0
gene 1 1 27 1.37576 0 1 1.37576 1
gene 1 1 28 -3.40293 0 2 -3.40293 1
gene 1 2 27 -6.0065 0 3 -6.0065 1
gene 1 2 28 4.80473 0 4 4.80473 1
gene 1 3 27 1.88164 0 5 1.88164 1
gene 1 3 28 0.132584 0 6 0.132584 1
gene 1 4 27 -3.94379 0 7 -3.94379 1
gene 1 4 28 0.479097 0 8 0.479097 1
gene 1 5 27 2.01297 0 9 2.01297 1
gene 1 5 28 1.95919 0 10 1.95919 1
gene 1 6 27 -0.0537793 0 11 -0.0537793 1
gene 1 6 28 -2.63861 0 12 -2.63861 1
gene 1 7 27 -0.495087 0 13 -0.495087 1
gene 1 7 28 -0.768041 0 14 -0.768041 1
gene 1 8 27 1.03545 0 15 1.03545 1
gene 1 8 28 2.6341 0 16 2.6341 1
gene 1 9 27 -1.96842 0 17 -1.96842 1
gene 1 9 28 -0.465973 0 18 -0.465973 1
gene 1 10 27 -2.64123 0 19 -2.64123 1
gene 1 10 28 -6.45032 0 20 -6.45032 1
gene 1 11 27 3.79081 0 21 3.79081 1
gene 1 11 28 6.81717 0 22 6.81717 1
gene 1 12 27 0.330563 0 23 0.330563 1
gene 1 12 28 -3.96037 0 24 -3.96037 1
gene 1 13 27 -6.86709 0 25 -6.86709 1
gene 1 13 28 -0.495963 0 26 -0.495963 1
gene 1 14 27 0.298318 0 27 0.298318 1
gene 1 14 28 1.53766 0 28 1.53766 1
gene 1 15 27 0.0819124 0 29 0.0819124 1
gene 1 15 28 -5.34014 0 30 -5.34014 1
gene 1 16 27 -0.0581378 0 31 -0.0581378 1
gene 1 16 28 1.94702 0 32 1.94702 1
gene 1 17 27 -3.41411 0 33 -3.41411 1
gene 1 17 28 0.44784 0 34 0.44784 1
gene 1 18 27 -2.01071 0 35 -2.01071 0
gene 1 18 28 -0.955381 0 36 -0.955381 1
gene 1 19 27 0.390981 0 37 0.390981 1
gene 1 19 28 1.33309 0 38 1.33309 1
gene 1 20 27 3.98781 0 39 3.98781 1
gene 1 20 28 -1.88455 0 40 -1.88455 1
gene 1 21 27 0.539896 0 41 0.539896 1
gene 1 21 28 2.70626 0 42 2.70626 1
gene 1 22 27 2.37075 0 43 2.37075 1
gene 1 22 28 2.08148 0 44 2.08148 1
gene 1 23 27 0.993072 0 45 0.993072 1
gene 1 23 28 1.62823 0 46 1.62823 1
gene 1 24 27 4.58934 0 47 4.58934 1
gene 1 24 28 0.0942259 0 48 0.0942259 1
gene 1 25 27 -0.421089 0 49 -0.421089 1
gene 1 25 28 0.586222 0 50 0.586222 1
gene 1 26 27 -2.14527 0 51 -2.14527 1
gene 1 26 28 -2.19623 0 52 -2.19623 1
gene 1 3 32 -1.90603 0 61 -1.90603 1
gene 1 32 27 0.666349 0 62 0.666349 1
gene 1 5 32 -3.12044 0 120 -3.12044 1
gene 1 7 32 2.55586 0 125 2.55586 1
gene 1 20 48 -0.537202 0 133 -0.537202 1
gene 1 48 27 6.0078 0 134 6.0078 1
gene 1 18 55 0.40294 0 150 0.40294 1
gene 1 55 27 6.80324 0 151 6.80324 1
gene 1 10 64 -0.58016 0 174 -0.58016 0
gene 1 64 27 1.46523 0 175 1.46523 1
gene 1 17 68 0.24102 0 192 0.24102 1
gene 1 68 27 1.2145 0 193 1.2145 1
gene 1 20 32 2.05329 0 242 2.05329 1
gene 1 13 89 -4.53012 0 276 -4.53012 0
gene 1 89 27 2.40056 0 277 2.40056 1
gene 1 11 48 3.93798 0 452 3.93798 1
gene 1 13 148 -0.980674 0 483 -0.980674 1
gene 1 148 28 -3.57471 0 484 -3.57471 1
gene 1 11 167 -0.914683 0 565 -0.914683 1
gene 1 167 48 2.75073 0 566 2.75073 1
gene 1 12 89 -1.98789 0 575 -1.98789 1
gene 1 148 167 1.46195 0 620 1.46195 1
gene 1 13 189 5.40588 0 644 5.40588 1
gene 1 189 89 -0.336912 0 645 -0.336912 1
gene 1 167 28 0.511795 0 720 0.511795 1
gene 1 10 238 1 0 817 0 1
gene 1 238 64 -0.58016 0 818 0 1
genomeend 16

/* Species #42 : (Size 6) (AF 0) (Age 31)  */


/* Organism #17 Fitness: 0.74564 Error: 0 */
/* ##------$ WINNER 17 SPECIES #42 $------## */
genomestart 17
trait 1 0 0.340755 0 0.927431 1 0 0.0437941 0.0775781 
node 1 1 1 1
node 2 1 1 1
node 3 1 1 1
node 4 1 1 1
node 5 1 1 1
node 6 1 1 1
node 7 1 1 1
node 8 1 1 1
node 9 1 1 1
node 10 1 1 1
node 11 1 1 1
node 12 1 1 1
node 13 1 1 1
node 14 1 1 1
node 15 1 1 1
node 16 1 1 1
node 17 1 1 1
node 18 1 1 1
node 19 1 1 1
node 20 1 1 1
node 21 1 1 1
node 22 1 1 1
node 23 1 1 1
node 24 1 1 1
node 25 1 1 1
node 26 1 1 3
node 27 1 0 2
node 28 1 0 2
node 32 1 0 0
node 47 1 0 0
node 56 1 0 0
node 82 1 0 0
node 106 1 0 0
node 109 1 0 0
node 151 1 0 0
node 169 1 0 0
node 202 1 0 0
gene 1 1 27 4.19981 0 1 4.19981 1
gene 1 1 28 -4.15622 0 2 -4.15622 1
gene 1 2 27 2.63907 0 3 2.63907 1
gene 1 2 28 -8 0 4 -8 1
gene 1 3 27 -6.68691 0 5 -6.68691 1
gene 1 3 28 -8 0 6 -8 1
gene 1 4 27 8 0 7 8 1
gene 1 4 28 2.85024 0 8 2.85024 1
gene 1 5 27 3.87013 0 9 3.87013 1
gene 1 5 28 -6.14376 0 10 -6.14376 1
gene 1 6 27 -2.31853 0 11 -2.31853 1
gene 1 6 28 3.85585 0 12 3.85585 1
gene 1 7 27 3.50091 0 13 3.50091 1
gene 1 7 28 -0.60152 0 14 -0.60152 1
gene 1 8 27 1.02926 0 15 1.02926 1
gene 1 8 28 1.39218 0 16 1.39218 1
gene 1 9 27 2.24563 0 17 2.24563 1
gene 1 9 28 4.14224 0 18 4.14224 1
gene 1 10 27 3.99152 0 19 3.99152 1
gene 1 10 28 -5.33451 0 20 -5.33451 1
gene 1 11 27 7.08429 0 21 7.08429 1
gene 1 11 28 3.09664 0 22 3.09664 1
gene 1 12 27 8 0 23 8 1
gene 1 12 28 -6.84365 0 24 -6.84365 1
gene 1 13 27 3.06617 0 25 3.06617 1
gene 1 13 28 -0.14626 0 26 -0.14626 1
gene 1 14 27 -0.370952 0 27 -0.370952 1
gene 1 14 28 3.38641 0 28 3.38641 1
gene 1 15 27 0.690611 0 29 0.690611 1
gene 1 15 28 -2.71239 0 30 -2.71239 1
gene 1 16 27 -0.00255593 0 31 -0.00255593 1
gene 1 16 28 5.95873 0 32 5.95873 1
gene 1 17 27 -5.12482 0 33 -5.12482 0
gene 1 17 28 -5.86363 0 34 -5.86363 1
gene 1 18 27 -6.71334 0 35 -6.71334 1
gene 1 18 28 2.66009 0 36 2.66009 1
gene 1 19 27 3.02159 0 37 3.02159 1
gene 1 19 28 7.24415 0 38 7.24415 1
gene 1 20 27 -0.782647 0 39 -0.782647 1
gene 1 20 28 -2.68578 0 40 -2.68578 1
gene 1 21 27 -3.53368 0 41 -3.53368 1
gene 1 21 28 3.34825 0 42 3.34825 1
gene 1 22 27 2.29438 0 43 2.29438 1
gene 1 22 28 -7.38556 0 44 -7.38556 1
gene 1 23 27 -0.734479 0 45 -0.734479 1
gene 1 23 28 -0.824934 0 46 -0.824934 1
gene 1 24 27 4.1039 0 47 4.1039 1
gene 1 24 28 -6.50697 0 48 -6.50697 1
gene 1 25 27 0.755314 0 49 0.755314 1
gene 1 25 28 3.52436 0 50 3.52436 1
gene 1 26 27 8 0 51 8 1
gene 1 26 28 2.45422 0 52 2.45422 1
gene 1 3 32 0.0930528 0 61 0.0930528 1
gene 1 32 27 2.42522 0 62 2.42522 1
gene 1 5 47 3.29779 0 129 3.29779 1
gene 1 47 27 -8 0 130 -8 1
gene 1 4 56 -0.195485 0 153 -0.195485 1
gene 1 56 28 -2.44972 0 154 -2.44972 1
gene 1 15 47 7.82409 0 235 7.82409 1
gene 1 13 82 -5.91079 0 252 -5.91079 1
gene 1 82 28 0.274648 0 253 0.274648 1
gene 1 24 32 -0.973159 0 309 -0.973159 1
gene 1 10 82 1.40599 0 319 1.40599 1
gene 1 5 106 2.31857 0 335 2.31857 1
gene 1 106 27 -1.39435 0 336 -1.39435 1
gene 1 12 109 -2.38586 0 346 -2.38586 1
gene 1 109 27 -2.47337 0 347 -2.47337 1
gene 1 22 106 -0.944586 0 441 -0.944586 1
gene 1 20 151 -0.471664 0 497 -0.471664 1
gene 1 151 28 2.64008 0 498 2.64008 1
gene 1 4 151 5.96738 0 538 5.96738 1
gene 1 12 82 0.796609 0 567 0.796609 1
gene 1 18 169 -0.436649 0 576 -0.436649 1
gene 1 169 27 -0.0705741 0 577 -0.0705741 1
gene 1 24 202 -3.72034 0 696 -3.72034 1
gene 1 202 27 1.38188 0 697 1.38188 1
genomeend 17

/* Organism #18 Fitness: 0.777 Error: 0 */
/* ##------$ WINNER 18 SPECIES #42 $------## */
genomestart 18
trait 1 0 0.340755 0 0.927431 1 0 0.0437941 0.0775781 
node 1 1 1 1
node 2 1 1 1
node 3 1 1 1
node 4 1 1 1
node 5 1 1 1
node 6 1 1 1
node 7 1 1 1
node 8 1 1 1
node 9 1 1 1
node 10 1 1 1
node 11 1 1 1
node 12 1 1 1
node 13 1 1 1
node 14 1 1 1
node 15 1 1 1
node 16 1 1 1
node 17 1 1 1
node 18 1 1 1
node 19 1 1 1
node 20 1 1 1
node 21 1 1 1
node 22 1 1 1
node 23 1 1 1
node 24 1 1 1
node 25 1 1 1
node 26 1 1 3
node 27 1 0 2
node 28 1 0 2
node 32 1 0 0
node 47 1 0 0
node 56 1 0 0
node 82 1 0 0
node 106 1 0 0
node 109 1 0 0
node 151 1 0 0
node 169 1 0 0
node 202 1 0 0
gene 1 1 27 2.16178 0 1 2.16178 1
gene 1 1 28 -3.41668 0 2 -3.41668 1
gene 1 2 27 2.83507 0 3 2.83507 1
gene 1 2 28 -8 0 4 -8 1
gene 1 3 27 -4.96452 0 5 -4.96452 1
gene 1 3 28 -8 0 6 -8 1
gene 1 4 27 8 0 7 8 1
gene 1 4 28 1.44871 0 8 1.44871 1
gene 1 5 27 -1.84713 0 9 -1.84713 1
gene 1 5 28 -7.24387 0 10 -7.24387 1
gene 1 6 27 0.206305 0 11 0.206305 1
gene 1 6 28 3.85585 0 12 3.85585 1
gene 1 7 27 4.61552 0 13 4.61552 1
gene 1 7 28 1.56392 0 14 1.56392 1
gene 1 8 27 2.36414 0 15 2.36414 1
gene 1 8 28 0.0375378 0 16 0.0375378 1
gene 1 9 27 2.24563 0 17 2.24563 1
gene 1 9 28 6.01814 0 18 6.01814 1
gene 1 10 27 3.18705 0 19 3.18705 1
gene 1 10 28 -5.79054 0 20 -5.79054 1
gene 1 11 27 8 0 21 8 1
gene 1 11 28 3.17591 0 22 3.17591 1
gene 1 12 27 6.47362 0 23 6.47362 1
gene 1 12 28 -6.2535 0 24 -6.2535 1
gene 1 13 27 1.25256 0 25 1.25256 1
gene 1 13 28 -1.06494 0 26 -1.06494 1
gene 1 14 27 0.449385 0 27 0.449385 1
gene 1 14 28 3.50886 0 28 3.50886 1
gene 1 15 27 0.415257 0 29 0.415257 1
gene 1 15 28 -2.13452 0 30 -2.13452 1
gene 1 16 27 -0.00255593 0 31 -0.00255593 1
gene 1 16 28 4.92888 0 32 4.92888 1
gene 1 17 27 -2.48642 0 33 -2.48642 0
gene 1 17 28 -5.71317 0 34 -5.71317 1
gene 1 18 27 -6.71334 0 35 -6.71334 1
gene 1 18 28 -0.55063 0 36 -0.55063 1
gene 1 19 27 3.02159 0 37 3.02159 1
gene 1 19 28 8 0 38 8 1
gene 1 20 27 2.29545 0 39 2.29545 1
gene 1 20 28 -2.18986 0 40 -2.18986 1
gene 1 21 27 1.73574 0 41 1.73574 1
gene 1 21 28 1.70079 0 42 1.70079 1
gene 1 22 27 2.67159 0 43 2.67159 1
gene 1 22 28 -8 0 44 -8 1
gene 1 23 27 0.46444 0 45 0.46444 1
gene 1 23 28 -0.0181585 0 46 -0.0181585 1
gene 1 24 27 -0.0285348 0 47 -0.0285348 1
gene 1 24 28 -8 0 48 -8 1
gene 1 25 27 0.755314 0 49 0.755314 1
gene 1 25 28 1.98814 0 50 1.98814 1
gene 1 26 27 8 0 51 8 1
gene 1 26 28 3.02133 0 52 3.02133 1
gene 1 3 32 0.0930528 0 61 0.0930528 1
gene 1 32 27 4.8471 0 62 4.8471 1
gene 1 5 47 5.54029 0 129 5.54029 1
gene 1 47 27 -7.86877 0 130 -7.86877 1
gene 1 4 56 -2.44256 0 153 -2.44256 1
gene 1 56 28 1.70316 0 154 1.70316 1
gene 1 15 47 8 0 235 8 1
gene 1 13 82 -5.81526 0 252 -5.81526 1
gene 1 82 28 0.606536 0 253 0.606536 1
gene 1 24 32 -0.721305 0 309 -0.721305 1
gene 1 10 82 0.497147 0 319 0.497147 1
gene 1 5 106 0.395444 0 335 0.395444 1
gene 1 106 27 -1.39435 0 336 -1.39435 1
gene 1 12 109 -0.570315 0 346 -0.570315 1
gene 1 109 27 -4.03142 0 347 -4.03142 1
gene 1 22 106 -3.22195 0 441 -3.22195 1
gene 1 20 151 -2.21007 0 497 -2.21007 1
gene 1 151 28 1.04625 0 498 1.04625 1
gene 1 4 151 5.96738 0 538 5.96738 1
gene 1 12 82 1.60695 0 567 1.60695 1
gene 1 18 169 -1.2605 0 576 -1.2605 1
gene 1 169 27 1.58521 0 577 1.58521 1
gene 1 24 202 -4.46239 0 696 -4.46239 1
gene 1 202 27 1.38188 0 697 1.38188 1
genomeend 18

/* Organism #19 Fitness: 0.0877214 Error: 0 */
genomestart 19
trait 1 0 0.340755 0 0.927431 1 0 0.0437941 0.0775781 
node 1 1 1 1
node 2 1 1 1
node 3 1 1 1
node 4 1 1 1
node 5 1 1 1
node 6 1 1 1
node 7 1 1 1
node 8 1 1 1
node 9 1 1 1
node 10 1 1 1
node 11 1 1 1
node 12 1 1 1
node 13 1 1 1
node 14 1 1 1
node 15 1 1 1
node 16 1 1 1
node 17 1 1 1
node 18 1 1 1
node 19 1 1 1
node 20 1 1 1
node 21 1 1 1
node 22 1 1 1
node 23 1 1 1
node 24 1 1 1
node 25 1 1 1
node 26 1 1 3
node 27 1 0 2
node 28 1 0 2
node 32 1 0 0
node 47 1 0 0
node 56 1 0 0
node 82 1 0 0
node 106 1 0 0
node 109 1 0 0
node 151 1 0 0
node 169 1 0 0
node 202 1 0 0
gene 1 1 27 4.39963 0 1 4.39963 1
gene 1 1 28 -2.79471 0 2 -2.79471 1
gene 1 2 27 3.75544 0 3 3.75544 1
gene 1 2 28 -6.65032 0 4 -6.65032 1
gene 1 3 27 -8 0 5 -8 1
gene 1 3 28 -8 0 6 -8 1
gene 1 4 27 7.47211 0 7 7.47211 1
gene 1 4 28 1.662 0 8 1.662 1
gene 1 5 27 1.46595 0 9 1.46595 1
gene 1 5 28 -5.21134 0 10 -5.21134 1
gene 1 6 27 -4.5328 0 11 -4.5328 1
gene 1 6 28 1.76891 0 12 1.76891 1
gene 1 7 27 5.18523 0 13 5.18523 1
gene 1 7 28 0.00190741 0 14 0.00190741 1
gene 1 8 27 -1.13687 0 15 -1.13687 1
gene 1 8 28 2.2454 0 16 2.2454 1
gene 1 9 27 1.50533 0 17 1.50533 1
gene 1 9 28 4.15399 0 18 4.15399 1
gene 1 10 27 3.60874 0 19 3.60874 1
gene 1 10 28 -3.82827 0 20 -3.82827 1
gene 1 11 27 5.39113 0 21 5.39113 1
gene 1 11 28 3.07177 0 22 3.07177 1
gene 1 12 27 8 0 23 8 1
gene 1 12 28 -6.25396 0 24 -6.25396 1
gene 1 13 27 4.20764 0 25 4.20764 1
gene 1 13 28 1.54462 0 26 1.54462 1
gene 1 14 27 0.656987 0 27 0.656987 1
gene 1 14 28 5.87069 0 28 5.87069 1
gene 1 15 27 1.16441 0 29 1.16441 1
gene 1 15 28 -1.16144 0 30 -1.16144 1
gene 1 16 27 -1.31432 0 31 -1.31432 1
gene 1 16 28 3.73897 0 32 3.73897 1
gene 1 17 27 -6.30634 0 33 -6.30634 0
gene 1 17 28 -3.91174 0 34 -3.91174 1
gene 1 18 27 -7.90951 0 35 -7.90951 1
gene 1 18 28 1.87203 0 36 1.87203 1
gene 1 19 27 2.85099 0 37 2.85099 1
gene 1 19 28 5.88538 0 38 5.88538 1
gene 1 20 27 -0.370418 0 39 -0.370418 1
gene 1 20 28 -2.23014 0 40 -2.23014 1
gene 1 21 27 -3.45883 0 41 -3.45883 1
gene 1 21 28 5.5156 0 42 5.5156 1
gene 1 22 27 4.36903 0 43 4.36903 1
gene 1 22 28 -7.30987 0 44 -7.30987 1
gene 1 23 27 1.33376 0 45 1.33376 1
gene 1 23 28 0.191485 0 46 0.191485 1
gene 1 24 27 3.60965 0 47 3.60965 1
gene 1 24 28 -6.10626 0 48 -6.10626 1
gene 1 25 27 1.93211 0 49 1.93211 1
gene 1 25 28 5.12498 0 50 5.12498 1
gene 1 26 27 8 0 51 8 1
gene 1 26 28 4.34973 0 52 4.34973 1
gene 1 3 32 -1.49902 0 61 -1.49902 1
gene 1 32 27 -0.0573815 0 62 -0.0573815 1
gene 1 5 47 3.50364 0 129 3.50364 1
gene 1 47 27 -8 0 130 -8 1
gene 1 4 56 -2.17835 0 153 -2.17835 1
gene 1 56 28 -0.0440992 0 154 -0.0440992 1
gene 1 15 47 6.41039 0 235 6.41039 1
gene 1 13 82 -6.5973 0 252 -6.5973 1
gene 1 82 28 1.08278 0 253 1.08278 1
gene 1 24 32 -0.973159 0 309 -0.973159 1
gene 1 10 82 1.85987 0 319 1.85987 1
gene 1 5 106 0.471587 0 335 0.471587 1
gene 1 106 27 -0.283975 0 336 -0.283975 1
gene 1 12 109 -4.30509 0 346 -4.30509 1
gene 1 109 27 -3.8876 0 347 -3.8876 1
gene 1 22 106 -0.944586 0 441 -0.944586 1
gene 1 20 151 -0.019837 0 497 -0.019837 1
gene 1 151 28 3.83427 0 498 3.83427 1
gene 1 4 151 5.96738 0 538 5.96738 1
gene 1 12 82 1.09348 0 567 1.09348 1
gene 1 18 169 0.191116 0 576 0.191116 1
gene 1 169 27 -0.271081 0 577 -0.271081 1
gene 1 24 202 -4.50024 0 696 -4.50024 1
gene 1 202 27 -1.98065 0 697 -1.98065 1
genomeend 19

/* Organism #20 Fitness: 0.72552 Error: 0 */
/* ##------$ WINNER 20 SPECIES #42 $------## */
genomestart 20
trait 1 0 0.340755 0 0.927431 1 0 0.0437941 0.0775781 
node 1 1 1 1
node 2 1 1 1
node 3 1 1 1
node 4 1 1 1
node 5 1 1 1
node 6 1 1 1
node 7 1 1 1
node 8 1 1 1
node 9 1 1 1
node 10 1 1 1
node 11 1 1 1
node 12 1 1 1
node 13 1 1 1
node 14 1 1 1
node 15 1 1 1
node 16 1 1 1
node 17 1 1 1
node 18 1 1 1
node 19 1 1 1
node 20 1 1 1
node 21 1 1 1
node 22 1 1 1
node 23 1 1 1
node 24 1 1 1
node 25 1 1 1
node 26 1 1 3
node 27 1 0 2
node 28 1 0 2
node 32 1 0 0
node 47 1 0 0
node 56 1 0 0
node 82 1 0 0
node 106 1 0 0
node 109 1 0 0
node 151 1 0 0
node 169 1 0 0
node 202 1 0 0
gene 1 1 27 2.80794 0 1 2.80794 1
gene 1 1 28 -1.8716 0 2 -1.8716 1
gene 1 2 27 1.96186 0 3 1.96186 1
gene 1 2 28 -8 0 4 -8 1
gene 1 3 27 -6.17977 0 5 -6.17977 1
gene 1 3 28 -8 0 6 -8 1
gene 1 4 27 7.55008 0 7 7.55008 1
gene 1 4 28 1.83702 0 8 1.83702 1
gene 1 5 27 5.5076 0 9 5.5076 1
gene 1 5 28 -8 0 10 -8 1
gene 1 6 27 -4.0944 0 11 -4.0944 1
gene 1 6 28 3.12455 0 12 3.12455 1
gene 1 7 27 5.21796 0 13 5.21796 1
gene 1 7 28 1.48396 0 14 1.48396 1
gene 1 8 27 2.12296 0 15 2.12296 1
gene 1 8 28 1.84988 0 16 1.84988 1
gene 1 9 27 2.76261 0 17 2.76261 1
gene 1 9 28 3.30397 0 18 3.30397 1
gene 1 10 27 4.32691 0 19 4.32691 1
gene 1 10 28 -4.60077 0 20 -4.60077 1
gene 1 11 27 8 0 21 8 1
gene 1 11 28 1.82631 0 22 1.82631 1
gene 1 12 27 8 0 23 8 1
gene 1 12 28 -8 0 24 -8 1
gene 1 13 27 4.98869 0 25 4.98869 1
gene 1 13 28 1.78213 0 26 1.78213 1
gene 1 14 27 0.287332 0 27 0.287332 1
gene 1 14 28 5.09376 0 28 5.09376 1
gene 1 15 27 1.75822 0 29 1.75822 1
gene 1 15 28 -0.625536 0 30 -0.625536 1
gene 1 16 27 -0.884007 0 31 -0.884007 1
gene 1 16 28 6.99041 0 32 6.99041 1
gene 1 17 27 -4.98787 0 33 -4.98787 0
gene 1 17 28 -3.80348 0 34 -3.80348 1
gene 1 18 27 -8 0 35 -8 1
gene 1 18 28 1.37565 0 36 1.37565 1
gene 1 19 27 3.29557 0 37 3.29557 1
gene 1 19 28 6.22902 0 38 6.22902 1
gene 1 20 27 1.12865 0 39 1.12865 1
gene 1 20 28 -5.11193 0 40 -5.11193 1
gene 1 21 27 -1.19978 0 41 -1.19978 1
gene 1 21 28 1.06432 0 42 1.06432 1
gene 1 22 27 1.53798 0 43 1.53798 1
gene 1 22 28 -8 0 44 -8 1
gene 1 23 27 1.46163 0 45 1.46163 1
gene 1 23 28 0.35102 0 46 0.35102 1
gene 1 24 27 3.49712 0 47 3.49712 1
gene 1 24 28 -4.87049 0 48 -4.87049 1
gene 1 25 27 1.83246 0 49 1.83246 1
gene 1 25 28 3.2336 0 50 3.2336 1
gene 1 26 27 6.91034 0 51 6.91034 1
gene 1 26 28 4.93667 0 52 4.93667 1
gene 1 3 32 0.936127 0 61 0.936127 1
gene 1 32 27 0.0946007 0 62 0.0946007 1
gene 1 5 47 3.16015 0 129 3.16015 1
gene 1 47 27 -8 0 130 -8 1
gene 1 4 56 1.62624 0 153 1.62624 1
gene 1 56 28 -2.03726 0 154 -2.03726 1
gene 1 15 47 6.02227 0 235 6.02227 1
gene 1 13 82 -5.8396 0 252 -5.8396 1
gene 1 82 28 0.889748 0 253 0.889748 1
gene 1 24 32 0.828272 0 309 0.828272 1
gene 1 10 82 1.40599 0 319 1.40599 1
gene 1 5 106 2.31857 0 335 2.31857 1
gene 1 106 27 -1.39435 0 336 -1.39435 1
gene 1 12 109 -2.38586 0 346 -2.38586 1
gene 1 109 27 -2.47337 0 347 -2.47337 1
gene 1 22 106 -0.944586 0 441 -0.944586 1
gene 1 20 151 -1.64853 0 497 -1.64853 1
gene 1 151 28 2.64008 0 498 2.64008 1
gene 1 4 151 7.25099 0 538 7.25099 1
gene 1 12 82 -0.162206 0 567 -0.162206 1
gene 1 18 169 -2.80679 0 576 -2.80679 1
gene 1 169 27 0.343257 0 577 0.343257 1
gene 1 24 202 -2.62533 0 696 -2.62533 1
gene 1 202 27 1.38188 0 697 1.38188 1
genomeend 20

/* Organism #21 Fitness: 0.75832 Error: 0 */
/* ##------$ WINNER 21 SPECIES #42 $------## */
genomestart 21
trait 1 0 0.340755 0 0.927431 1 0 0.0437941 0.0775781 
node 1 1 1 1
node 2 1 1 1
node 3 1 1 1
node 4 1 1 1
node 5 1 1 1
node 6 1 1 1
node 7 1 1 1
node 8 1 1 1
node 9 1 1 1
node 10 1 1 1
node 11 1 1 1
node 12 1 1 1
node 13 1 1 1
node 14 1 1 1
node 15 1 1 1
node 16 1 1 1
node 17 1 1 1
node 18 1 1 1
node 19 1 1 1
node 20 1 1 1
node 21 1 1 1
node 22 1 1 1
node 23 1 1 1
node 24 1 1 1
node 25 1 1 1
node 26 1 1 3
node 27 1 0 2
node 28 1 0 2
node 32 1 0 0
node 47 1 0 0
node 56 1 0 0
node 82 1 0 0
node 106 1 0 0
node 109 1 0 0
node 151 1 0 0
node 169 1 0 0
node 202 1 0 0
gene 1 1 27 4.19981 0 1 4.19981 1
gene 1 1 28 -4.15622 0 2 -4.15622 1
gene 1 2 27 2.63907 0 3 2.63907 1
gene 1 2 28 -8 0 4 -8 1
gene 1 3 27 -6.68691 0 5 -6.68691 1
gene 1 3 28 -8 0 6 -8 1
gene 1 4 27 8 0 7 8 1
gene 1 4 28 2.85024 0 8 2.85024 1
gene 1 5 27 3.87013 0 9 3.87013 1
gene 1 5 28 -6.14376 0 10 -6.14376 1
gene 1 6 27 -2.31853 0 11 -2.31853 1
gene 1 6 28 3.85585 0 12 3.85585 1
gene 1 7 27 3.50091 0 13 3.50091 1
gene 1 7 28 -0.60152 0 14 -0.60152 1
gene 1 8 27 1.02926 0 15 1.02926 1
gene 1 8 28 1.39218 0 16 1.39218 1
gene 1 9 27 2.24563 0 17 2.24563 1
gene 1 9 28 4.14224 0 18 4.14224 1
gene 1 10 27 3.99152 0 19 3.99152 1
gene 1 10 28 -5.33451 0 20 -5.33451 1
gene 1 11 27 7.08429 0 21 7.08429 1
gene 1 11 28 3.09664 0 22 3.09664 1
gene 1 12 27 8 0 23 8 1
gene 1 12 28 -6.84365 0 24 -6.84365 1
gene 1 13 27 3.06617 0 25 3.06617 1
gene 1 13 28 -0.14626 0 26 -0.14626 1
gene 1 14 27 -0.370952 0 27 -0.370952 1
gene 1 14 28 3.38641 0 28 3.38641 1
gene 1 15 27 0.690611 0 29 0.690611 1
gene 1 15 28 -2.71239 0 30 -2.71239 1
gene 1 16 27 -0.00255593 0 31 -0.00255593 1
gene 1 16 28 5.95873 0 32 5.95873 1
gene 1 17 27 -5.12482 0 33 -5.12482 0
gene 1 17 28 -5.86363 0 34 -5.86363 1
gene 1 18 27 -6.71334 0 35 -6.71334 1
gene 1 18 28 2.66009 0 36 2.66009 1
gene 1 19 27 3.02159 0 37 3.02159 1
gene 1 19 28 7.24415 0 38 7.24415 1
gene 1 20 27 -0.782647 0 39 -0.782647 1
gene 1 20 28 -2.68578 0 40 -2.68578 1
gene 1 21 27 -3.53368 0 41 -3.53368 1
gene 1 21 28 3.34825 0 42 3.34825 1
gene 1 22 27 2.29438 0 43 2.29438 1
gene 1 22 28 -7.38556 0 44 -7.38556 1
gene 1 23 27 -0.734479 0 45 -0.734479 1
gene 1 23 28 -0.824934 0 46 -0.824934 1
gene 1 24 27 4.1039 0 47 4.1039 1
gene 1 24 28 -6.50697 0 48 -6.50697 1
gene 1 25 27 0.755314 0 49 0.755314 1
gene 1 25 28 3.52436 0 50 3.52436 1
gene 1 26 27 8 0 51 8 1
gene 1 26 28 2.45422 0 52 2.45422 1
gene 1 3 32 0.0930528 0 61 0.0930528 1
gene 1 32 27 2.42522 0 62 2.42522 1
gene 1 5 47 3.29779 0 129 3.29779 1
gene 1 47 27 -8 0 130 -8 1
gene 1 4 56 -0.195485 0 153 -0.195485 1
gene 1 56 28 -2.44972 0 154 -2.44972 1
gene 1 15 47 7.82409 0 235 7.82409 1
gene 1 13 82 -5.91079 0 252 -5.91079 1
gene 1 82 28 0.274648 0 253 0.274648 1
gene 1 24 32 -0.973159 0 309 -0.973159 1
gene 1 10 82 1.40599 0 319 1.40599 1
gene 1 5 106 2.31857 0 335 2.31857 1
gene 1 106 27 -1.39435 0 336 -1.39435 1
gene 1 12 109 -2.38586 0 346 -2.38586 1
gene 1 109 27 -2.47337 0 347 -2.47337 1
gene 1 22 106 -0.944586 0 441 -0.944586 1
gene 1 20 151 -0.471664 0 497 -0.471664 1
gene 1 151 28 2.64008 0 498 2.64008 1
gene 1 4 151 5.96738 0 538 5.96738 1
gene 1 12 82 0.796609 0 567 0.796609 1
gene 1 18 169 -0.436649 0 576 -0.436649 1
gene 1 169 27 -0.0705741 0 577 -0.0705741 1
gene 1 24 202 -3.72034 0 696 -3.72034 1
gene 1 202 27 1.38188 0 697 1.38188 1
gene 1 2 82 0.746818 0 819 0.746818 1
genomeend 21

/* Organism #22 Fitness: 0.0223643 Error: 0 */
genomestart 22
trait 1 0 0.340755 0 0.927431 1 0 0.0437941 0.0775781 
node 1 1 1 1
node 2 1 1 1
node 3 1 1 1
node 4 1 1 1
node 5 1 1 1
node 6 1 1 1
node 7 1 1 1
node 8 1 1 1
node 9 1 1 1
node 10 1 1 1
node 11 1 1 1
node 12 1 1 1
node 13 1 1 1
node 14 1 1 1
node 15 1 1 1
node 16 1 1 1
node 17 1 1 1
node 18 1 1 1
node 19 1 1 1
node 20 1 1 1
node 21 1 1 1
node 22 1 1 1
node 23 1 1 1
node 24 1 1 1
node 25 1 1 1
node 26 1 1 3
node 27 1 0 2
node 28 1 0 2
node 32 1 0 0
node 47 1 0 0
node 56 1 0 0
node 82 1 0 0
node 106 1 0 0
node 109 1 0 0
node 151 1 0 0
node 169 1 0 0
node 202 1 0 0
gene 1 1 27 2.83251 0 1 2.83251 1
gene 1 1 28 -2.9454 0 2 -2.9454 1
gene 1 2 27 5.04423 0 3 5.04423 1
gene 1 2 28 -5.8341 0 4 -5.8341 1
gene 1 3 27 -7.65442 0 5 -7.65442 1
gene 1 3 28 -7.19027 0 6 -7.19027 1
gene 1 4 27 6.91247 0 7 6.91247 1
gene 1 4 28 2.58457 0 8 2.58457 1
gene 1 5 27 4.18317 0 9 4.18317 1
gene 1 5 28 -8 0 10 -8 1
gene 1 6 27 -3.5192 0 11 -3.5192 1
gene 1 6 28 6.19494 0 12 6.19494 1
gene 1 7 27 1.62845 0 13 1.62845 1
gene 1 7 28 0.972777 0 14 0.972777 1
gene 1 8 27 0.394166 0 15 0.394166 1
gene 1 8 28 2.98753 0 16 2.98753 1
gene 1 9 27 0.0838496 0 17 0.0838496 1
gene 1 9 28 5.2538 0 18 5.2538 1
gene 1 10 27 3.75576 0 19 3.75576 1
gene 1 10 28 -4.8086 0 20 -4.8086 1
gene 1 11 27 8 0 21 8 1
gene 1 11 28 3.86914 0 22 3.86914 1
gene 1 12 27 8 0 23 8 1
gene 1 12 28 -8 0 24 -8 1
gene 1 13 27 0.956811 0 25 0.956811 1
gene 1 13 28 1.47412 0 26 1.47412 1
gene 1 14 27 2.0893 0 27 2.0893 1
gene 1 14 28 2.72385 0 28 2.72385 1
gene 1 15 27 0.338961 0 29 0.338961 1
gene 1 15 28 -3.74438 0 30 -3.74438 1
gene 1 16 27 1.85404 0 31 1.85404 1
gene 1 16 28 7.03405 0 32 7.03405 1
gene 1 17 27 -5.00763 0 33 -5.00763 0
gene 1 17 28 -5.35351 0 34 -5.35351 1
gene 1 18 27 -7.30273 0 35 -7.30273 1
gene 1 18 28 2.45936 0 36 2.45936 1
gene 1 19 27 2.67261 0 37 2.67261 1
gene 1 19 28 6.24817 0 38 6.24817 1
gene 1 20 27 -2.24403 0 39 -2.24403 1
gene 1 20 28 -1.05655 0 40 -1.05655 1
gene 1 21 27 -4.44641 0 41 -4.44641 1
gene 1 21 28 2.66647 0 42 2.66647 1
gene 1 22 27 0.189825 0 43 0.189825 1
gene 1 22 28 -7.2776 0 44 -7.2776 1
gene 1 23 27 -1.14411 0 45 -1.14411 1
gene 1 23 28 -1.14813 0 46 -1.14813 1
gene 1 24 27 4.39611 0 47 4.39611 1
gene 1 24 28 -8 0 48 -8 1
gene 1 25 27 2.24401 0 49 2.24401 1
gene 1 25 28 2.47239 0 50 2.47239 1
gene 1 26 27 6.24778 0 51 6.24778 1
gene 1 26 28 4.82147 0 52 4.82147 1
gene 1 3 32 -1.06612 0 61 -1.06612 1
gene 1 32 27 4.6134 0 62 4.6134 1
gene 1 5 47 2.81926 0 129 2.81926 1
gene 1 47 27 -6.25892 0 130 -6.25892 1
gene 1 4 56 0.907911 0 153 0.907911 1
gene 1 56 28 -4.00266 0 154 -4.00266 1
gene 1 15 47 8 0 235 8 1
gene 1 13 82 -3.43368 0 252 -3.43368 1
gene 1 82 28 0.763401 0 253 0.763401 1
gene 1 24 32 -1.63656 0 309 -1.63656 1
gene 1 10 82 3.81947 0 319 3.81947 1
gene 1 5 106 2.31857 0 335 2.31857 1
gene 1 106 27 -1.39435 0 336 -1.39435 1
gene 1 12 109 -3.44249 0 346 -3.44249 1
gene 1 109 27 -2.58484 0 347 -2.58484 1
gene 1 22 106 -0.944586 0 441 -0.944586 1
gene 1 20 151 0.288476 0 497 0.288476 1
gene 1 151 28 3.96359 0 498 3.96359 1
gene 1 4 151 5.96738 0 538 5.96738 1
gene 1 12 82 0.796609 0 567 0.796609 1
gene 1 18 169 -0.436649 0 576 -0.436649 1
gene 1 169 27 -0.385678 0 577 -0.385678 1
gene 1 24 202 -5.5017 0 696 -5.5017 1
gene 1 202 27 3.04392 0 697 3.04392 1
genomeend 22

/* Species #45 : (Size 8) (AF 0) (Age 26)  */


/* Organism #23 Fitness: 0.83192 Error: 0 */
/* ##------$ WINNER 23 SPECIES #45 $------## */
genomestart 23
trait 1 0.493759 0.692998 0.656239 0.942296 1 0.0124687 0.294809 0.0484863 
node 1 1 1 1
node 2 1 1 1
node 3 1 1 1
node 4 1 1 1
node 5 1 1 1
node 6 1 1 1
node 7 1 1 1
node 8 1 1 1
node 9 1 1 1
node 10 1 1 1
node 11 1 1 1
node 12 1 1 1
node 13 1 1 1
node 14 1 1 1
node 15 1 1 1
node 16 1 1 1
node 17 1 1 1
node 18 1 1 1
node 19 1 1 1
node 20 1 1 1
node 21 1 1 1
node 22 1 1 1
node 23 1 1 1
node 24 1 1 1
node 25 1 1 1
node 26 1 1 3
node 27 1 0 2
node 28 1 0 2
node 32 1 0 0
node 47 1 0 0
node 56 1 0 0
node 82 1 0 0
node 106 1 0 0
node 109 1 0 0
node 151 1 0 0
node 179 1 0 0
node 206 1 0 0
node 227 1 0 0
gene 1 1 27 6.92072 0 1 6.92072 1
gene 1 1 28 4.44597 0 2 4.44597 1
gene 1 2 27 -2.44895 0 3 -2.44895 1
gene 1 2 28 -7.35556 0 4 -7.35556 1
gene 1 3 27 0.999557 0 5 0.999557 1
gene 1 3 28 -1.07903 0 6 -1.07903 1
gene 1 4 27 6.04908 0 7 6.04908 0
gene 1 4 28 -6.80726 0 8 -6.80726 1
gene 1 5 27 0.165036 0 9 0.165036 1
gene 1 5 28 3.86591 0 10 3.86591 1
gene 1 6 27 4.94307 0 11 4.94307 1
gene 1 6 28 2.30945 0 12 2.30945 1
gene 1 7 27 -4.50444 0 13 -4.50444 1
gene 1 7 28 -0.745869 0 14 -0.745869 1
gene 1 8 27 -1.93769 0 15 -1.93769 1
gene 1 8 28 -5.77849 0 16 -5.77849 1
gene 1 9 27 -7.09672 0 17 -7.09672 1
gene 1 9 28 6.74245 0 18 6.74245 1
gene 1 10 27 3.19188 0 19 3.19188 1
gene 1 10 28 -8 0 20 -8 1
gene 1 11 27 6.95756 0 21 6.95756 1
gene 1 11 28 -5.65668 0 22 -5.65668 1
gene 1 12 27 -8 0 23 -8 1
gene 1 12 28 -8 0 24 -8 1
gene 1 13 27 -1.66027 0 25 -1.66027 1
gene 1 13 28 0.0622673 0 26 0.0622673 1
gene 1 14 27 4.74336 0 27 4.74336 1
gene 1 14 28 -2.14127 0 28 -2.14127 1
gene 1 15 27 2.71689 0 29 2.71689 1
gene 1 15 28 -2.20631 0 30 -2.20631 1
gene 1 16 27 -3.33494 0 31 -3.33494 1
gene 1 16 28 1.49636 0 32 1.49636 1
gene 1 17 27 4.9526 0 33 4.9526 1
gene 1 17 28 -5.22938 0 34 -5.22938 1
gene 1 18 27 -0.100481 0 35 -0.100481 1
gene 1 18 28 -2.91911 0 36 -2.91911 1
gene 1 19 27 6.37408 0 37 6.37408 1
gene 1 19 28 1.81453 0 38 1.81453 1
gene 1 20 27 -5.71775 0 39 -5.71775 1
gene 1 20 28 -0.965545 0 40 -0.965545 1
gene 1 21 27 2.65533 0 41 2.65533 1
gene 1 21 28 3.96121 0 42 3.96121 1
gene 1 22 27 0.112552 0 43 0.112552 1
gene 1 22 28 0.7455 0 44 0.7455 1
gene 1 23 27 7.66599 0 45 7.66599 1
gene 1 23 28 4.99052 0 46 4.99052 1
gene 1 24 27 6.3232 0 47 6.3232 1
gene 1 24 28 2.55169 0 48 2.55169 1
gene 1 25 27 5.35914 0 49 5.35914 1
gene 1 25 28 0.0823141 0 50 0.0823141 1
gene 1 26 27 -5.4516 0 51 -5.4516 1
gene 1 26 28 -2.13963 0 52 -2.13963 1
gene 1 3 32 -3.60654 0 61 -3.60654 1
gene 1 32 27 1.53672 0 62 1.53672 1
gene 1 5 47 1.02211 0 129 1.02211 1
gene 1 47 27 -1.41087 0 130 -1.41087 1
gene 1 4 56 -5.76296 0 153 -5.76296 1
gene 1 56 28 -2.97222 0 154 -2.97222 1
gene 1 15 47 -5.42611 0 235 -5.42611 1
gene 1 13 82 -0.495849 0 252 -0.495849 1
gene 1 82 28 -1.4242 0 253 -1.4242 1
gene 1 24 32 0.20024 0 309 0.20024 0
gene 1 10 82 1.51296 0 319 1.51296 1
gene 1 5 106 1.64186 0 335 1.64186 1
gene 1 106 27 0.986663 0 336 0.986663 1
gene 1 12 109 -0.206496 0 346 -0.206496 1
gene 1 109 27 1.344 0 347 1.344 1
gene 1 22 106 3.23244 0 441 3.23244 1
gene 1 20 151 -0.120586 0 497 -0.120586 1
gene 1 151 28 -2.26267 0 498 -2.26267 1
gene 1 4 151 2.52157 0 538 2.52157 1
gene 1 10 179 2.48367 0 613 2.48367 1
gene 1 179 27 -0.612201 0 614 -0.612201 1
gene 1 4 206 0.546892 0 707 0.546892 1
gene 1 206 27 -0.602046 0 708 -0.602046 1
gene 1 24 227 0.245705 0 772 0.245705 1
gene 1 227 32 0.0903348 0 773 0.0903348 1
genomeend 23

/* Organism #24 Fitness: 0.80608 Error: 0 */
/* ##------$ WINNER 24 SPECIES #45 $------## */
genomestart 24
trait 1 0.493759 0.692998 0.656239 0.942296 1 0.0124687 0.294809 0.0484863 
node 1 1 1 1
node 2 1 1 1
node 3 1 1 1
node 4 1 1 1
node 5 1 1 1
node 6 1 1 1
node 7 1 1 1
node 8 1 1 1
node 9 1 1 1
node 10 1 1 1
node 11 1 1 1
node 12 1 1 1
node 13 1 1 1
node 14 1 1 1
node 15 1 1 1
node 16 1 1 1
node 17 1 1 1
node 18 1 1 1
node 19 1 1 1
node 20 1 1 1
node 21 1 1 1
node 22 1 1 1
node 23 1 1 1
node 24 1 1 1
node 25 1 1 1
node 26 1 1 3
node 27 1 0 2
node 28 1 0 2
node 32 1 0 0
node 47 1 0 0
node 56 1 0 0
node 82 1 0 0
node 106 1 0 0
node 109 1 0 0
node 151 1 0 0
node 179 1 0 0
node 206 1 0 0
node 227 1 0 0
gene 1 1 27 8 0 1 8 1
gene 1 1 28 0.529153 0 2 0.529153 1
gene 1 2 27 -4.69122 0 3 -4.69122 1
gene 1 2 28 -6.42627 0 4 -6.42627 1
gene 1 3 27 0.852763 0 5 0.852763 1
gene 1 3 28 0.528225 0 6 0.528225 1
gene 1 4 27 5.42337 0 7 5.42337 0
gene 1 4 28 -8 0 8 -8 1
gene 1 5 27 0.179228 0 9 0.179228 1
gene 1 5 28 6.17632 0 10 6.17632 1
gene 1 6 27 1.41797 0 11 1.41797 1
gene 1 6 28 2.30945 0 12 2.30945 1
gene 1 7 27 -4.22245 0 13 -4.22245 1
gene 1 7 28 -4.41107 0 14 -4.41107 1
gene 1 8 27 -3.44012 0 15 -3.44012 1
gene 1 8 28 -4.85294 0 16 -4.85294 1
gene 1 9 27 -1.17046 0 17 -1.17046 1
gene 1 9 28 1.5321 0 18 1.5321 1
gene 1 10 27 -0.964819 0 19 -0.964819 1
gene 1 10 28 -6.68236 0 20 -6.68236 1
gene 1 11 27 8 0 21 8 1
gene 1 11 28 -5.20562 0 22 -5.20562 1
gene 1 12 27 -5.51869 0 23 -5.51869 1
gene 1 12 28 -7.31852 0 24 -7.31852 1
gene 1 13 27 -3.7031 0 25 -3.7031 1
gene 1 13 28 -0.0811697 0 26 -0.0811697 1
gene 1 14 27 1.41882 0 27 1.41882 1
gene 1 14 28 -2.24152 0 28 -2.24152 1
gene 1 15 27 0.033723 0 29 0.033723 1
gene 1 15 28 -2.69423 0 30 -2.69423 1
gene 1 16 27 1.08032 0 31 1.08032 1
gene 1 16 28 1.49636 0 32 1.49636 1
gene 1 17 27 5.10115 0 33 5.10115 1
gene 1 17 28 -0.254524 0 34 -0.254524 1
gene 1 18 27 -0.326394 0 35 -0.326394 1
gene 1 18 28 2.30444 0 36 2.30444 1
gene 1 19 27 1.18587 0 37 1.18587 1
gene 1 19 28 0.346745 0 38 0.346745 1
gene 1 20 27 -6.83229 0 39 -6.83229 1
gene 1 20 28 -2.9555 0 40 -2.9555 1
gene 1 21 27 2.65533 0 41 2.65533 1
gene 1 21 28 1.87277 0 42 1.87277 1
gene 1 22 27 3.31249 0 43 3.31249 1
gene 1 22 28 1.46391 0 44 1.46391 1
gene 1 23 27 7.73062 0 45 7.73062 1
gene 1 23 28 -0.297269 0 46 -0.297269 1
gene 1 24 27 8 0 47 8 1
gene 1 24 28 6.66528 0 48 6.66528 1
gene 1 25 27 5.35914 0 49 5.35914 1
gene 1 25 28 -2.70982 0 50 -2.70982 1
gene 1 26 27 0.92341 0 51 0.92341 1
gene 1 26 28 0.67568 0 52 0.67568 1
gene 1 3 32 -1.61513 0 61 -1.61513 1
gene 1 32 27 0.0265869 0 62 0.0265869 1
gene 1 5 47 0.454464 0 129 0.454464 1
gene 1 47 27 1.47198 0 130 1.47198 1
gene 1 4 56 -7.45772 0 153 -7.45772 1
gene 1 56 28 -2.84228 0 154 -2.84228 1
gene 1 15 47 -5.42611 0 235 -5.42611 1
gene 1 13 82 1.06143 0 252 1.06143 1
gene 1 82 28 -1.52013 0 253 -1.52013 1
gene 1 24 32 -1.14826 0 309 -1.14826 0
gene 1 10 82 -0.616169 0 319 -0.616169 1
gene 1 5 106 1.25519 0 335 1.25519 1
gene 1 106 27 -1.10866 0 336 -1.10866 1
gene 1 12 109 -0.0224693 0 346 -0.0224693 1
gene 1 109 27 0.460295 0 347 0.460295 1
gene 1 22 106 3.67237 0 441 3.67237 1
gene 1 20 151 -0.0805689 0 497 -0.0805689 1
gene 1 151 28 -1.37001 0 498 -1.37001 1
gene 1 4 151 -1.68645 0 538 -1.68645 1
gene 1 10 179 0.373775 0 613 0.373775 1
gene 1 179 27 -2.65053 0 614 -2.65053 1
gene 1 4 206 0.0704978 0 707 0.0704978 1
gene 1 206 27 -2.60841 0 708 -2.60841 1
gene 1 24 227 1.09503 0 772 1.09503 1
gene 1 227 32 -0.537736 0 773 -0.537736 1
genomeend 24

/* Organism #25 Fitness: 0.8102 Error: 0 */
/* ##------$ WINNER 25 SPECIES #45 $------## */
genomestart 25
trait 1 0.493759 0.692998 0.656239 0.942296 1 0.0124687 0.294809 0.0484863 
node 1 1 1 1
node 2 1 1 1
node 3 1 1 1
node 4 1 1 1
node 5 1 1 1
node 6 1 1 1
node 7 1 1 1
node 8 1 1 1
node 9 1 1 1
node 10 1 1 1
node 11 1 1 1
node 12 1 1 1
node 13 1 1 1
node 14 1 1 1
node 15 1 1 1
node 16 1 1 1
node 17 1 1 1
node 18 1 1 1
node 19 1 1 1
node 20 1 1 1
node 21 1 1 1
node 22 1 1 1
node 23 1 1 1
node 24 1 1 1
node 25 1 1 1
node 26 1 1 3
node 27 1 0 2
node 28 1 0 2
node 32 1 0 0
node 47 1 0 0
node 56 1 0 0
node 82 1 0 0
node 106 1 0 0
node 109 1 0 0
node 151 1 0 0
node 179 1 0 0
node 206 1 0 0
node 227 1 0 0
gene 1 1 27 5.26157 0 1 5.26157 1
gene 1 1 28 0.656262 0 2 0.656262 1
gene 1 2 27 -1.12278 0 3 -1.12278 1
gene 1 2 28 -8 0 4 -8 1
gene 1 3 27 -2.40001 0 5 -2.40001 1
gene 1 3 28 0.808804 0 6 0.808804 1
gene 1 4 27 8 0 7 8 1
gene 1 4 28 -4.12216 0 8 -4.12216 0
gene 1 5 27 -0.320437 0 9 -0.320437 1
gene 1 5 28 3.78489 0 10 3.78489 1
gene 1 6 27 2.43239 0 11 2.43239 1
gene 1 6 28 -1.18332 0 12 -1.18332 1
gene 1 7 27 -5.99263 0 13 -5.99263 1
gene 1 7 28 -3.79551 0 14 -3.79551 1
gene 1 8 27 -3.08519 0 15 -3.08519 1
gene 1 8 28 -5.20512 0 16 -5.20512 1
gene 1 9 27 0.765709 0 17 0.765709 1
gene 1 9 28 4.37448 0 18 4.37448 1
gene 1 10 27 0.447707 0 19 0.447707 1
gene 1 10 28 -8 0 20 -8 1
gene 1 11 27 6.58531 0 21 6.58531 1
gene 1 11 28 -5.6024 0 22 -5.6024 1
gene 1 12 27 -1.11866 0 23 -1.11866 1
gene 1 12 28 -8 0 24 -8 1
gene 1 13 27 -0.681249 0 25 -0.681249 1
gene 1 13 28 -0.956374 0 26 -0.956374 1
gene 1 14 27 5.51917 0 27 5.51917 1
gene 1 14 28 -0.114384 0 28 -0.114384 1
gene 1 15 27 1.90252 0 29 1.90252 1
gene 1 15 28 3.95431 0 30 3.95431 1
gene 1 16 27 -3.07409 0 31 -3.07409 1
gene 1 16 28 -1.41834 0 32 -1.41834 1
gene 1 17 27 1.64534 0 33 1.64534 1
gene 1 17 28 -5.67182 0 34 -5.67182 1
gene 1 18 27 -2.06153 0 35 -2.06153 1
gene 1 18 28 0.363094 0 36 0.363094 1
gene 1 19 27 0.874889 0 37 0.874889 1
gene 1 19 28 -0.821999 0 38 -0.821999 1
gene 1 20 27 -5.07358 0 39 -5.07358 1
gene 1 20 28 -2.73154 0 40 -2.73154 1
gene 1 21 27 4.10686 0 41 4.10686 1
gene 1 21 28 0.907468 0 42 0.907468 1
gene 1 22 27 -2.05411 0 43 -2.05411 1
gene 1 22 28 2.09419 0 44 2.09419 1
gene 1 23 27 8 0 45 8 1
gene 1 23 28 5.56118 0 46 5.56118 1
gene 1 24 27 -2.41844 0 47 -2.41844 1
gene 1 24 28 5.18814 0 48 5.18814 1
gene 1 25 27 -2.32887 0 49 -2.32887 1
gene 1 25 28 0.699704 0 50 0.699704 1
gene 1 26 27 -0.210581 0 51 -0.210581 1
gene 1 26 28 -1.99246 0 52 -1.99246 1
gene 1 3 32 -3.0403 0 61 -3.0403 1
gene 1 32 27 0.362596 0 62 0.362596 1
gene 1 5 47 -2.08167 0 129 -2.08167 1
gene 1 47 27 2.07907 0 130 2.07907 1
gene 1 4 56 -2.4686 0 153 -2.4686 1
gene 1 56 28 -2.63716 0 154 -2.63716 1
gene 1 15 47 -2.53078 0 235 -2.53078 1
gene 1 13 82 -1.46882 0 252 -1.46882 1
gene 1 82 28 -4.84345 0 253 -4.84345 1
gene 1 24 32 -1.76061 0 309 -1.76061 0
gene 1 10 82 3.4463 0 319 3.4463 1
gene 1 5 106 -1.0947 0 335 -1.0947 1
gene 1 106 27 1.84164 0 336 1.84164 1
gene 1 12 109 -0.891369 0 346 -0.891369 1
gene 1 109 27 2.4134 0 347 2.4134 1
gene 1 22 106 0.778222 0 441 0.778222 1
gene 1 20 151 -2.30316 0 497 -2.30316 1
gene 1 151 28 1.5006 0 498 1.5006 1
gene 1 4 151 3.35639 0 538 3.35639 1
gene 1 10 179 0.112995 0 613 0.112995 1
gene 1 179 27 2.22861 0 614 2.22861 1
gene 1 4 206 3.79719 0 707 3.79719 1
gene 1 206 27 0.730544 0 708 0.730544 1
gene 1 24 227 -3.7067 0 772 -3.7067 1
gene 1 227 32 -2.47627 0 773 -2.47627 1
genomeend 25

/* Organism #26 Fitness: 0.0448643 Error: 0 */
genomestart 26
trait 1 0.493759 0.692998 0.656239 0.942296 1 0.0124687 0.294809 0.0484863 
node 1 1 1 1
node 2 1 1 1
node 3 1 1 1
node 4 1 1 1
node 5 1 1 1
node 6 1 1 1
node 7 1 1 1
node 8 1 1 1
node 9 1 1 1
node 10 1 1 1
node 11 1 1 1
node 12 1 1 1
node 13 1 1 1
node 14 1 1 1
node 15 1 1 1
node 16 1 1 1
node 17 1 1 1
node 18 1 1 1
node 19 1 1 1
node 20 1 1 1
node 21 1 1 1
node 22 1 1 1
node 23 1 1 1
node 24 1 1 1
node 25 1 1 1
node 26 1 1 3
node 27 1 0 2
node 28 1 0 2
node 32 1 0 0
node 47 1 0 0
node 56 1 0 0
node 82 1 0 0
node 106 1 0 0
node 109 1 0 0
node 151 1 0 0
node 179 1 0 0
node 206 1 0 0
node 227 1 0 0
gene 1 1 27 5.95374 0 1 5.95374 1
gene 1 1 28 2.7929 0 2 2.7929 1
gene 1 2 27 -2.11264 0 3 -2.11264 1
gene 1 2 28 -8 0 4 -8 1
gene 1 3 27 -1.7563 0 5 -1.7563 1
gene 1 3 28 -1.30945 0 6 -1.30945 1
gene 1 4 27 5.25743 0 7 5.25743 1
gene 1 4 28 -5.46086 0 8 -5.46086 1
gene 1 5 27 -2.44365 0 9 -2.44365 1
gene 1 5 28 3.49443 0 10 3.49443 1
gene 1 6 27 3.07065 0 11 3.07065 1
gene 1 6 28 1.32576 0 12 1.32576 1
gene 1 7 27 -1.7143 0 13 -1.7143 1
gene 1 7 28 -0.73801 0 14 -0.73801 1
gene 1 8 27 -2.37681 0 15 -2.37681 1
gene 1 8 28 -7.78542 0 16 -7.78542 1
gene 1 9 27 -3.5148 0 17 -3.5148 1
gene 1 9 28 4.8141 0 18 4.8141 1
gene 1 10 27 -0.209257 0 19 -0.209257 1
gene 1 10 28 -6.83394 0 20 -6.83394 1
gene 1 11 27 7.4097 0 21 7.4097 1
gene 1 11 28 -2.99139 0 22 -2.99139 1
gene 1 12 27 -8 0 23 -8 1
gene 1 12 28 -8 0 24 -8 1
gene 1 13 27 -4.8509 0 25 -4.8509 1
gene 1 13 28 1.9799 0 26 1.9799 1
gene 1 14 27 3.96513 0 27 3.96513 1
gene 1 14 28 -2.22451 0 28 -2.22451 1
gene 1 15 27 2.10469 0 29 2.10469 1
gene 1 15 28 1.24079 0 30 1.24079 1
gene 1 16 27 0.528624 0 31 0.528624 1
gene 1 16 28 -1.90016 0 32 -1.90016 1
gene 1 17 27 4.41539 0 33 4.41539 1
gene 1 17 28 -7.54726 0 34 -7.54726 1
gene 1 18 27 3.34575 0 35 3.34575 1
gene 1 18 28 -2.34841 0 36 -2.34841 1
gene 1 19 27 -0.835902 0 37 -0.835902 1
gene 1 19 28 0.662574 0 38 0.662574 1
gene 1 20 27 1.80921 0 39 1.80921 1
gene 1 20 28 -4.59835 0 40 -4.59835 1
gene 1 21 27 -1.90413 0 41 -1.90413 1
gene 1 21 28 4.11949 0 42 4.11949 1
gene 1 22 27 2.39476 0 43 2.39476 1
gene 1 22 28 0.56422 0 44 0.56422 1
gene 1 23 27 7.6983 0 45 7.6983 1
gene 1 23 28 5.47554 0 46 5.47554 1
gene 1 24 27 7.7977 0 47 7.7977 1
gene 1 24 28 2.42492 0 48 2.42492 1
gene 1 25 27 5.8244 0 49 5.8244 1
gene 1 25 28 1.15321 0 50 1.15321 1
gene 1 26 27 -5.14253 0 51 -5.14253 1
gene 1 26 28 -1.15473 0 52 -1.15473 1
gene 1 3 32 -0.804785 0 61 -0.804785 1
gene 1 32 27 4.1237 0 62 4.1237 1
gene 1 5 47 1.41328 0 129 1.41328 1
gene 1 47 27 1.07948 0 130 1.07948 1
gene 1 4 56 -5.63737 0 153 -5.63737 1
gene 1 56 28 -2.30031 0 154 -2.30031 1
gene 1 15 47 -5.35376 0 235 -5.35376 1
gene 1 13 82 0.515381 0 252 0.515381 1
gene 1 82 28 -3.90829 0 253 -3.90829 1
gene 1 24 32 2.90788 0 309 2.90788 0
gene 1 10 82 2.73545 0 319 2.73545 1
gene 1 5 106 2.87389 0 335 2.87389 1
gene 1 106 27 -1.28632 0 336 -1.28632 1
gene 1 12 109 -1.54298 0 346 -1.54298 1
gene 1 109 27 -1.03996 0 347 -1.03996 1
gene 1 22 106 3.58768 0 441 3.58768 1
gene 1 20 151 -2.062 0 497 -2.062 1
gene 1 151 28 0.0461674 0 498 0.0461674 1
gene 1 4 151 3.53174 0 538 3.53174 1
gene 1 10 179 -1.04274 0 613 -1.04274 1
gene 1 179 27 0.0624104 0 614 0.0624104 1
gene 1 4 206 -1.66173 0 707 -1.66173 1
gene 1 206 27 -0.244369 0 708 -0.244369 1
gene 1 24 227 -1.24795 0 772 -1.24795 1
gene 1 227 32 0.239952 0 773 0.239952 1
genomeend 26

/* Organism #27 Fitness: 0.7894 Error: 0 */
/* ##------$ WINNER 27 SPECIES #45 $------## */
genomestart 27
trait 1 0.493759 0.692998 0.656239 0.942296 1 0.0124687 0.294809 0.0484863 
node 1 1 1 1
node 2 1 1 1
node 3 1 1 1
node 4 1 1 1
node 5 1 1 1
node 6 1 1 1
node 7 1 1 1
node 8 1 1 1
node 9 1 1 1
node 10 1 1 1
node 11 1 1 1
node 12 1 1 1
node 13 1 1 1
node 14 1 1 1
node 15 1 1 1
node 16 1 1 1
node 17 1 1 1
node 18 1 1 1
node 19 1 1 1
node 20 1 1 1
node 21 1 1 1
node 22 1 1 1
node 23 1 1 1
node 24 1 1 1
node 25 1 1 1
node 26 1 1 3
node 27 1 0 2
node 28 1 0 2
node 32 1 0 0
node 47 1 0 0
node 56 1 0 0
node 82 1 0 0
node 106 1 0 0
node 109 1 0 0
node 151 1 0 0
node 179 1 0 0
node 206 1 0 0
node 227 1 0 0
gene 1 1 27 7.41191 0 1 7.41191 1
gene 1 1 28 6.73463 0 2 6.73463 1
gene 1 2 27 -3.9822 0 3 -3.9822 1
gene 1 2 28 -8 0 4 -8 1
gene 1 3 27 2.46101 0 5 2.46101 1
gene 1 3 28 -0.866814 0 6 -0.866814 1
gene 1 4 27 6.23473 0 7 6.23473 1
gene 1 4 28 -6.08397 0 8 -6.08397 0
gene 1 5 27 1.94762 0 9 1.94762 1
gene 1 5 28 4.8229 0 10 4.8229 1
gene 1 6 27 7.02253 0 11 7.02253 1
gene 1 6 28 -0.0715325 0 12 -0.0715325 1
gene 1 7 27 -4.04555 0 13 -4.04555 1
