
/* Species #36 : (Size 9) (AF 0) (Age 18)  */


/* Organism #0 Fitness: 0.796 Error: 0 */
/* ##------$ WINNER 0 SPECIES #36 $------## */
genomestart 0
trait 1 0.568162 0 0.536426 0 0 0 0 0 
node 1 1 1 1
node 2 1 1 1
node 3 1 1 1
node 4 1 1 1
node 5 1 1 1
node 6 1 1 1
node 7 1 1 1
node 8 1 1 1
node 9 1 1 1
node 10 1 1 1
node 11 1 1 1
node 12 1 1 1
node 13 1 1 1
node 14 1 1 1
node 15 1 1 1
node 16 1 1 1
node 17 1 1 1
node 18 1 1 1
node 19 1 1 1
node 20 1 1 1
node 21 1 1 1
node 22 1 1 1
node 23 1 1 1
node 24 1 1 1
node 25 1 1 1
node 26 1 1 3
node 27 1 0 2
node 28 1 0 2
node 32 1 0 0
node 48 1 0 0
node 55 1 0 0
node 64 1 0 0
node 68 1 0 0
node 89 1 0 0
node 148 1 0 0
gene 1 1 27 -2.18516 0 1 -2.18516 1
gene 1 1 28 -4.11567 0 2 -4.11567 1
gene 1 2 27 -5.66928 0 3 -5.66928 1
gene 1 2 28 -8 0 4 -8 1
gene 1 3 27 2.93941 0 5 2.93941 1
gene 1 3 28 6.31629 0 6 6.31629 1
gene 1 4 27 -4.10189 0 7 -4.10189 1
gene 1 4 28 -2.43229 0 8 -2.43229 1
gene 1 5 27 0.186163 0 9 0.186163 1
gene 1 5 28 -1.14225 0 10 -1.14225 1
gene 1 6 27 2.02653 0 11 2.02653 1
gene 1 6 28 0.113017 0 12 0.113017 1
gene 1 7 27 -2.39047 0 13 -2.39047 1
gene 1 7 28 0.302452 0 14 0.302452 1
gene 1 8 27 7.58048 0 15 7.58048 1
gene 1 8 28 -6.52561 0 16 -6.52561 1
gene 1 9 27 3.55327 0 17 3.55327 1
gene 1 9 28 -3.19497 0 18 -3.19497 1
gene 1 10 27 -3.84491 0 19 -3.84491 1
gene 1 10 28 2.032 0 20 2.032 1
gene 1 11 27 8 0 21 8 1
gene 1 11 28 0.180097 0 22 0.180097 1
gene 1 12 27 0.474818 0 23 0.474818 1
gene 1 12 28 -2.88438 0 24 -2.88438 1
gene 1 13 27 0.950764 0 25 0.950764 1
gene 1 13 28 -0.92822 0 26 -0.92822 1
gene 1 14 27 -2.47198 0 27 -2.47198 1
gene 1 14 28 0.649523 0 28 0.649523 1
gene 1 15 27 1.9909 0 29 1.9909 1
gene 1 15 28 -0.36809 0 30 -0.36809 1
gene 1 16 27 -2.0284 0 31 -2.0284 1
gene 1 16 28 -4.04185 0 32 -4.04185 1
gene 1 17 27 0.241279 0 33 0.241279 1
gene 1 17 28 -4.49434 0 34 -4.49434 1
gene 1 18 27 -5.13409 0 35 -5.13409 0
gene 1 18 28 5.58679 0 36 5.58679 1
gene 1 19 27 -1.07028 0 37 -1.07028 1
gene 1 19 28 -5.66535 0 38 -5.66535 1
gene 1 20 27 2.94383 0 39 2.94383 1
gene 1 20 28 -0.318194 0 40 -0.318194 1
gene 1 21 27 2.48401 0 41 2.48401 1
gene 1 21 28 1.99726 0 42 1.99726 1
gene 1 22 27 0.636368 0 43 0.636368 1
gene 1 22 28 2.2809 0 44 2.2809 1
gene 1 23 27 -0.654984 0 45 -0.654984 1
gene 1 23 28 1.62528 0 46 1.62528 1
gene 1 24 27 3.78167 0 47 3.78167 1
gene 1 24 28 1.2456 0 48 1.2456 1
gene 1 25 27 0.83348 0 49 0.83348 1
gene 1 25 28 8 0 50 8 1
gene 1 26 27 5.30189 0 51 5.30189 1
gene 1 26 28 0.775939 0 52 0.775939 1
gene 1 3 32 -2.40888 0 61 -2.40888 1
gene 1 32 27 2.38563 0 62 2.38563 1
gene 1 5 32 -0.035864 0 120 -0.035864 1
gene 1 7 32 1.73658 0 125 1.73658 1
gene 1 20 48 -0.977489 0 133 -0.977489 1
gene 1 48 27 -0.403111 0 134 -0.403111 1
gene 1 18 55 -0.881108 0 150 -0.881108 1
gene 1 55 27 0.620785 0 151 0.620785 1
gene 1 10 64 -2.43057 0 174 -2.43057 1
gene 1 64 27 2.3394 0 175 2.3394 1
gene 1 17 68 -0.708428 0 192 -0.708428 1
gene 1 68 27 1.15341 0 193 1.15341 1
gene 1 20 32 1.34585 0 242 1.34585 1
gene 1 13 89 3.86883 0 276 3.86883 1
gene 1 89 27 1.14704 0 277 1.14704 1
gene 1 11 48 1.22858 0 452 1.22858 1
gene 1 13 148 -2.22137 0 483 -2.22137 1
gene 1 148 28 0.944357 0 484 0.944357 1
genomeend 0

/* Organism #1 Fitness: 0.82792 Error: 0 */
/* ##------$ WINNER 1 SPECIES #36 $------## */
genomestart 1
trait 1 0.412159 0 0.304639 0 0 0 0 0 
node 1 1 1 1
node 2 1 1 1
node 3 1 1 1
node 4 1 1 1
node 5 1 1 1
node 6 1 1 1
node 7 1 1 1
node 8 1 1 1
node 9 1 1 1
node 10 1 1 1
node 11 1 1 1
node 12 1 1 1
node 13 1 1 1
node 14 1 1 1
node 15 1 1 1
node 16 1 1 1
node 17 1 1 1
node 18 1 1 1
node 19 1 1 1
node 20 1 1 1
node 21 1 1 1
node 22 1 1 1
node 23 1 1 1
node 24 1 1 1
node 25 1 1 1
node 26 1 1 3
node 27 1 0 2
node 28 1 0 2
node 32 1 0 0
node 48 1 0 0
node 55 1 0 0
node 64 1 0 0
node 68 1 0 0
node 89 1 0 0
node 148 1 0 0
gene 1 1 27 -3.20588 0 1 -3.20588 1
gene 1 1 28 -1.70398 0 2 -1.70398 1
gene 1 2 27 -6.50196 0 3 -6.50196 1
gene 1 2 28 -7.95861 0 4 -7.95861 1
gene 1 3 27 4.14174 0 5 4.14174 1
gene 1 3 28 6.68575 0 6 6.68575 1
gene 1 4 27 -2.77199 0 7 -2.77199 1
gene 1 4 28 -4.09929 0 8 -4.09929 1
gene 1 5 27 2.23819 0 9 2.23819 1
gene 1 5 28 -2.91685 0 10 -2.91685 1
gene 1 6 27 2.31481 0 11 2.31481 1
gene 1 6 28 0.857516 0 12 0.857516 1
gene 1 7 27 -1.64905 0 13 -1.64905 1
gene 1 7 28 1.12823 0 14 1.12823 1
gene 1 8 27 6.30792 0 15 6.30792 1
gene 1 8 28 -4.39838 0 16 -4.39838 1
gene 1 9 27 2.77584 0 17 2.77584 1
gene 1 9 28 -2.17756 0 18 -2.17756 1
gene 1 10 27 -6.43662 0 19 -6.43662 1
gene 1 10 28 2.26894 0 20 2.26894 1
gene 1 11 27 8 0 21 8 1
gene 1 11 28 1.07681 0 22 1.07681 0
gene 1 12 27 -3.1139 0 23 -3.1139 1
gene 1 12 28 -2.79468 0 24 -2.79468 1
gene 1 13 27 1.89918 0 25 1.89918 1
gene 1 13 28 1.64069 0 26 1.64069 1
gene 1 14 27 -3.20102 0 27 -3.20102 1
gene 1 14 28 4.28832 0 28 4.28832 1
gene 1 15 27 1.78698 0 29 1.78698 1
gene 1 15 28 0.498787 0 30 0.498787 1
gene 1 16 27 0.25994 0 31 0.25994 1
gene 1 16 28 -3.96086 0 32 -3.96086 1
gene 1 17 27 0.717406 0 33 0.717406 1
gene 1 17 28 -6.31531 0 34 -6.31531 1
gene 1 18 27 -4.65238 0 35 -4.65238 0
gene 1 18 28 3.08097 0 36 3.08097 1
gene 1 19 27 -0.864918 0 37 -0.864918 1
gene 1 19 28 -3.88253 0 38 -3.88253 1
gene 1 20 27 3.73331 0 39 3.73331 1
gene 1 20 28 2.35207 0 40 2.35207 1
gene 1 21 27 4.16571 0 41 4.16571 1
gene 1 21 28 4.24297 0 42 4.24297 1
gene 1 22 27 -1.14941 0 43 -1.14941 1
gene 1 22 28 2.86364 0 44 2.86364 1
gene 1 23 27 -3.04401 0 45 -3.04401 1
gene 1 23 28 3.05931 0 46 3.05931 1
gene 1 24 27 2.12577 0 47 2.12577 1
gene 1 24 28 1.38438 0 48 1.38438 1
gene 1 25 27 -0.47482 0 49 -0.47482 1
gene 1 25 28 5.67884 0 50 5.67884 1
gene 1 26 27 6.63641 0 51 6.63641 1
gene 1 26 28 -1.00848 0 52 -1.00848 1
gene 1 3 32 -0.439741 0 61 -0.439741 1
gene 1 32 27 1.01556 0 62 1.01556 1
gene 1 5 32 -0.328057 0 120 -0.328057 1
gene 1 7 32 4.82492 0 125 4.82492 1
gene 1 20 48 0.0561254 0 133 0.0561254 1
gene 1 48 27 -1.67554 0 134 -1.67554 1
gene 1 18 55 1.17352 0 150 1.17352 1
gene 1 55 27 1.26417 0 151 1.26417 1
gene 1 10 64 -2.54624 0 174 -2.54624 1
gene 1 64 27 2.03703 0 175 2.03703 1
gene 1 17 68 0.26699 0 192 0.26699 1
gene 1 68 27 -1.48892 0 193 -1.48892 1
gene 1 20 32 -0.3166 0 242 -0.3166 1
gene 1 13 89 -0.612742 0 276 -0.612742 1
gene 1 89 27 -1.18969 0 277 -1.18969 1
gene 1 11 48 -0.615223 0 452 -0.615223 1
gene 1 13 148 -0.480491 0 483 -0.480491 1
gene 1 148 28 -1.8235 0 484 -1.8235 1
genomeend 1

/* Organism #2 Fitness: 0.0448643 Error: 0 */
genomestart 2
trait 1 0.415976 0 0.304594 0 0 0 0 0 
node 1 1 1 1
node 2 1 1 1
node 3 1 1 1
node 4 1 1 1
node 5 1 1 1
node 6 1 1 1
node 7 1 1 1
node 8 1 1 1
node 9 1 1 1
node 10 1 1 1
node 11 1 1 1
node 12 1 1 1
node 13 1 1 1
node 14 1 1 1
node 15 1 1 1
node 16 1 1 1
node 17 1 1 1
node 18 1 1 1
node 19 1 1 1
node 20 1 1 1
node 21 1 1 1
node 22 1 1 1
node 23 1 1 1
node 24 1 1 1
node 25 1 1 1
node 26 1 1 3
node 27 1 0 2
node 28 1 0 2
node 32 1 0 0
node 48 1 0 0
node 55 1 0 0
node 64 1 0 0
node 68 1 0 0
node 89 1 0 0
node 148 1 0 0
gene 1 1 27 -2.11451 0 1 -2.11451 1
gene 1 1 28 -3.1433 0 2 -3.1433 1
gene 1 2 27 -7.75378 0 3 -7.75378 1
gene 1 2 28 -7.72762 0 4 -7.72762 1
gene 1 3 27 1.113 0 5 1.113 1
gene 1 3 28 4.11518 0 6 4.11518 1
gene 1 4 27 -3.78076 0 7 -3.78076 1
gene 1 4 28 0.681298 0 8 0.681298 1
gene 1 5 27 1.89869 0 9 1.89869 1
gene 1 5 28 -2.48987 0 10 -2.48987 1
gene 1 6 27 3.25235 0 11 3.25235 1
gene 1 6 28 1.96835 0 12 1.96835 1
gene 1 7 27 -1.42495 0 13 -1.42495 1
gene 1 7 28 1.57437 0 14 1.57437 1
gene 1 8 27 5.06266 0 15 5.06266 1
gene 1 8 28 -8 0 16 -8 1
gene 1 9 27 2.0841 0 17 2.0841 1
gene 1 9 28 -1.56401 0 18 -1.56401 1
gene 1 10 27 -3.79829 0 19 -3.79829 1
gene 1 10 28 0.266522 0 20 0.266522 1
gene 1 11 27 8 0 21 8 1
gene 1 11 28 1.79912 0 22 1.79912 1
gene 1 12 27 -0.520428 0 23 -0.520428 1
gene 1 12 28 -4.90168 0 24 -4.90168 1
gene 1 13 27 -1.47359 0 25 -1.47359 1
gene 1 13 28 1.60174 0 26 1.60174 1
gene 1 14 27 -0.49325 0 27 -0.49325 1
gene 1 14 28 2.64027 0 28 2.64027 1
gene 1 15 27 2.82851 0 29 2.82851 1
gene 1 15 28 -0.165324 0 30 -0.165324 1
gene 1 16 27 -2.35226 0 31 -2.35226 1
gene 1 16 28 -2.15283 0 32 -2.15283 1
gene 1 17 27 -0.873646 0 33 -0.873646 1
gene 1 17 28 -3.476 0 34 -3.476 1
gene 1 18 27 -7.64959 0 35 -7.64959 1
gene 1 18 28 7.09132 0 36 7.09132 1
gene 1 19 27 -3.52038 0 37 -3.52038 1
gene 1 19 28 -4.7536 0 38 -4.7536 1
gene 1 20 27 1.95631 0 39 1.95631 1
gene 1 20 28 0.0621338 0 40 0.0621338 1
gene 1 21 27 1.61603 0 41 1.61603 1
gene 1 21 28 2.71735 0 42 2.71735 1
gene 1 22 27 0.00997574 0 43 0.00997574 1
gene 1 22 28 5.61282 0 44 5.61282 1
gene 1 23 27 -0.821663 0 45 -0.821663 1
gene 1 23 28 0.633746 0 46 0.633746 1
gene 1 24 27 6.52727 0 47 6.52727 1
gene 1 24 28 2.99673 0 48 2.99673 1
gene 1 25 27 -1.39373 0 49 -1.39373 1
gene 1 25 28 8 0 50 8 1
gene 1 26 27 7.1056 0 51 7.1056 1
gene 1 26 28 1.5677 0 52 1.5677 1
gene 1 3 32 -0.0193337 0 61 -0.0193337 1
gene 1 32 27 1.65851 0 62 1.65851 1
gene 1 5 32 2.23473 0 120 2.23473 1
gene 1 7 32 0.0500408 0 125 0.0500408 1
gene 1 20 48 -1.23481 0 133 -1.23481 1
gene 1 48 27 -1.71619 0 134 -1.71619 1
gene 1 18 55 -0.139861 0 150 -0.139861 1
gene 1 55 27 -0.767626 0 151 -0.767626 1
gene 1 10 64 -2.77693 0 174 -2.77693 1
gene 1 64 27 0.325709 0 175 0.325709 1
gene 1 17 68 0.522846 0 192 0.522846 1
gene 1 68 27 1.13238 0 193 1.13238 1
gene 1 20 32 -0.0249489 0 242 -0.0249489 1
gene 1 13 89 2.63179 0 276 2.63179 1
gene 1 89 27 0.668449 0 277 0.668449 1
gene 1 11 48 2.70878 0 452 2.70878 1
gene 1 13 148 -0.630834 0 483 -0.630834 1
gene 1 148 28 0.156126 0 484 0.156126 1
genomeend 2

/* Organism #3 Fitness: 0.0443286 Error: 0 */
genomestart 3
trait 1 0.256156 0 0.0728514 0 0 0 0 0 
node 1 1 1 1
node 2 1 1 1
node 3 1 1 1
node 4 1 1 1
node 5 1 1 1
node 6 1 1 1
node 7 1 1 1
node 8 1 1 1
node 9 1 1 1
node 10 1 1 1
node 11 1 1 1
node 12 1 1 1
node 13 1 1 1
node 14 1 1 1
node 15 1 1 1
node 16 1 1 1
node 17 1 1 1
node 18 1 1 1
node 19 1 1 1
node 20 1 1 1
node 21 1 1 1
node 22 1 1 1
node 23 1 1 1
node 24 1 1 1
node 25 1 1 1
node 26 1 1 3
node 27 1 0 2
node 28 1 0 2
node 32 1 0 0
node 48 1 0 0
node 55 1 0 0
node 64 1 0 0
node 68 1 0 0
node 89 1 0 0
node 148 1 0 0
gene 1 1 27 -1.98035 0 1 -1.98035 1
gene 1 1 28 1.26598 0 2 1.26598 1
gene 1 2 27 -7.61794 0 3 -7.61794 1
gene 1 2 28 -6.24251 0 4 -6.24251 1
gene 1 3 27 3.99813 0 5 3.99813 1
gene 1 3 28 2.08474 0 6 2.08474 1
gene 1 4 27 -5.13246 0 7 -5.13246 1
gene 1 4 28 -1.93026 0 8 -1.93026 1
gene 1 5 27 4.65347 0 9 4.65347 1
gene 1 5 28 0.752435 0 10 0.752435 1
gene 1 6 27 4.65173 0 11 4.65173 1
gene 1 6 28 -3.1607 0 12 -3.1607 1
gene 1 7 27 -3.33224 0 13 -3.33224 1
gene 1 7 28 1.92846 0 14 1.92846 1
gene 1 8 27 8 0 15 8 1
gene 1 8 28 2.15972 0 16 2.15972 1
gene 1 9 27 4.14538 0 17 4.14538 1
gene 1 9 28 -1.72039 0 18 -1.72039 1
gene 1 10 27 -5.6072 0 19 -5.6072 1
gene 1 10 28 -1.18313 0 20 -1.18313 1
gene 1 11 27 7.31455 0 21 7.31455 1
gene 1 11 28 -3.32099 0 22 -3.32099 0
gene 1 12 27 0.168098 0 23 0.168098 1
gene 1 12 28 -3.95891 0 24 -3.95891 1
gene 1 13 27 2.31298 0 25 2.31298 1
gene 1 13 28 -1.63171 0 26 -1.63171 1
gene 1 14 27 -5.01919 0 27 -5.01919 1
gene 1 14 28 5.02298 0 28 5.02298 1
gene 1 15 27 0.0507969 0 29 0.0507969 1
gene 1 15 28 -1.50956 0 30 -1.50956 1
gene 1 16 27 0.147842 0 31 0.147842 1
gene 1 16 28 -2.25377 0 32 -2.25377 1
gene 1 17 27 0.802896 0 33 0.802896 1
gene 1 17 28 -6.15928 0 34 -6.15928 1
gene 1 18 27 0.0467696 0 35 0.0467696 0
gene 1 18 28 4.98691 0 36 4.98691 1
gene 1 19 27 -0.724357 0 37 -0.724357 1
gene 1 19 28 -5.75446 0 38 -5.75446 1
gene 1 20 27 3.28648 0 39 3.28648 1
gene 1 20 28 2.16651 0 40 2.16651 1
gene 1 21 27 3.26967 0 41 3.26967 1
gene 1 21 28 1.41438 0 42 1.41438 1
gene 1 22 27 -0.0321112 0 43 -0.0321112 1
gene 1 22 28 6.06203 0 44 6.06203 1
gene 1 23 27 -4.46881 0 45 -4.46881 1
gene 1 23 28 -2.06479 0 46 -2.06479 1
gene 1 24 27 0.681249 0 47 0.681249 1
gene 1 24 28 -0.792734 0 48 -0.792734 1
gene 1 25 27 -1.73917 0 49 -1.73917 1
gene 1 25 28 1.47099 0 50 1.47099 1
gene 1 26 27 1.27766 0 51 1.27766 1
gene 1 26 28 0.659282 0 52 0.659282 1
gene 1 3 32 -0.00461592 0 61 -0.00461592 1
gene 1 32 27 4.77818 0 62 4.77818 1
gene 1 5 32 -1.39466 0 120 -1.39466 1
gene 1 7 32 3.45625 0 125 3.45625 1
gene 1 20 48 -0.170141 0 133 -0.170141 1
gene 1 48 27 4.3784 0 134 4.3784 1
gene 1 18 55 2.72139 0 150 2.72139 1
gene 1 55 27 0.189444 0 151 0.189444 1
gene 1 10 64 -5.12444 0 174 -5.12444 1
gene 1 64 27 -1.18557 0 175 -1.18557 1
gene 1 17 68 3.82252 0 192 3.82252 1
gene 1 68 27 3.35345 0 193 3.35345 1
gene 1 20 32 -1.97905 0 242 -1.97905 1
gene 1 13 89 -0.904035 0 276 -0.904035 1
gene 1 89 27 1.99187 0 277 1.99187 1
gene 1 11 48 -4.44922 0 452 -4.44922 1
gene 1 13 148 1.81895 0 483 1.81895 1
gene 1 148 28 -4.65201 0 484 -4.65201 1
genomeend 3

/* Organism #4 Fitness: 0.7806 Error: 0 */
/* ##------$ WINNER 4 SPECIES #36 $------## */
genomestart 4
trait 1 0.26379 0 0.0727618 0 0 0 0 0 
node 1 1 1 1
node 2 1 1 1
node 3 1 1 1
node 4 1 1 1
node 5 1 1 1
node 6 1 1 1
node 7 1 1 1
node 8 1 1 1
node 9 1 1 1
node 10 1 1 1
node 11 1 1 1
node 12 1 1 1
node 13 1 1 1
node 14 1 1 1
node 15 1 1 1
node 16 1 1 1
node 17 1 1 1
node 18 1 1 1
node 19 1 1 1
node 20 1 1 1
node 21 1 1 1
node 22 1 1 1
node 23 1 1 1
node 24 1 1 1
node 25 1 1 1
node 26 1 1 3
node 27 1 0 2
node 28 1 0 2
node 32 1 0 0
node 48 1 0 0
node 55 1 0 0
node 64 1 0 0
node 68 1 0 0
node 89 1 0 0
node 148 1 0 0
gene 1 1 27 -2.03684 0 1 -2.03684 1
gene 1 1 28 -4.06002 0 2 -4.06002 1
gene 1 2 27 -5.58751 0 3 -5.58751 1
gene 1 2 28 -8 0 4 -8 1
gene 1 3 27 3.12903 0 5 3.12903 1
gene 1 3 28 5.8763 0 6 5.8763 1
gene 1 4 27 -5.92186 0 7 -5.92186 1
gene 1 4 28 -0.602522 0 8 -0.602522 1
gene 1 5 27 0.359317 0 9 0.359317 1
gene 1 5 28 -0.885285 0 10 -0.885285 1
gene 1 6 27 1.11335 0 11 1.11335 1
gene 1 6 28 0.635712 0 12 0.635712 1
gene 1 7 27 -2.10103 0 13 -2.10103 1
gene 1 7 28 -0.0166618 0 14 -0.0166618 1
gene 1 8 27 6.9569 0 15 6.9569 1
gene 1 8 28 -7.04155 0 16 -7.04155 1
gene 1 9 27 5.03447 0 17 5.03447 1
gene 1 9 28 -4.78992 0 18 -4.78992 1
gene 1 10 27 -6.62408 0 19 -6.62408 1
gene 1 10 28 1.57517 0 20 1.57517 1
gene 1 11 27 8 0 21 8 1
gene 1 11 28 0.538881 0 22 0.538881 1
gene 1 12 27 -0.0622311 0 23 -0.0622311 1
gene 1 12 28 -3.45194 0 24 -3.45194 1
gene 1 13 27 -0.36742 0 25 -0.36742 1
gene 1 13 28 -0.152326 0 26 -0.152326 1
gene 1 14 27 -2.44195 0 27 -2.44195 1
gene 1 14 28 0.988625 0 28 0.988625 1
gene 1 15 27 2.352 0 29 2.352 1
gene 1 15 28 -0.420334 0 30 -0.420334 1
gene 1 16 27 -1.92049 0 31 -1.92049 1
gene 1 16 28 -4.37694 0 32 -4.37694 1
gene 1 17 27 0.648381 0 33 0.648381 1
gene 1 17 28 -4.90341 0 34 -4.90341 1
gene 1 18 27 -5.4506 0 35 -5.4506 1
gene 1 18 28 5.73337 0 36 5.73337 1
gene 1 19 27 -3.67899 0 37 -3.67899 1
gene 1 19 28 -5.41813 0 38 -5.41813 1
gene 1 20 27 2.48785 0 39 2.48785 1
gene 1 20 28 -0.52757 0 40 -0.52757 1
gene 1 21 27 1.57023 0 41 1.57023 1
gene 1 21 28 3.52304 0 42 3.52304 1
gene 1 22 27 -0.166879 0 43 -0.166879 1
gene 1 22 28 5.70886 0 44 5.70886 1
gene 1 23 27 -1.13895 0 45 -1.13895 1
gene 1 23 28 1.38588 0 46 1.38588 1
gene 1 24 27 4.29728 0 47 4.29728 1
gene 1 24 28 0.942511 0 48 0.942511 1
gene 1 25 27 0.57978 0 49 0.57978 1
gene 1 25 28 6.30876 0 50 6.30876 1
gene 1 26 27 5.52893 0 51 5.52893 1
gene 1 26 28 0.564674 0 52 0.564674 1
gene 1 3 32 -2.15217 0 61 -2.15217 1
gene 1 32 27 1.93163 0 62 1.93163 1
gene 1 5 32 0.117524 0 120 0.117524 1
gene 1 7 32 0.279912 0 125 0.279912 1
gene 1 20 48 -2.41013 0 133 -2.41013 1
gene 1 48 27 0.305023 0 134 0.305023 1
gene 1 18 55 -0.258473 0 150 -0.258473 1
gene 1 55 27 1.26417 0 151 1.26417 1
gene 1 10 64 -3.02028 0 174 -3.02028 1
gene 1 64 27 1.75519 0 175 1.75519 1
gene 1 17 68 -1.64076 0 192 -1.64076 1
gene 1 68 27 1.11135 0 193 1.11135 1
gene 1 20 32 0.716185 0 242 0.716185 1
gene 1 13 89 2.25445 0 276 2.25445 1
gene 1 89 27 0.18986 0 277 0.18986 1
gene 1 11 48 0.424513 0 452 0.424513 1
gene 1 13 148 0.683506 0 483 0.683506 1
gene 1 148 28 0.496622 0 484 0.496622 1
genomeend 4

/* Organism #5 Fitness: 0.82856 Error: 0 */
/* ##------$ WINNER 5 SPECIES #36 $------## */
genomestart 5
trait 1 0.946093 0 0.0727618 0 0.607593 0.19599 0 0.931578 
node 1 1 1 1
node 2 1 1 1
node 3 1 1 1
node 4 1 1 1
node 5 1 1 1
node 6 1 1 1
node 7 1 1 1
node 8 1 1 1
node 9 1 1 1
node 10 1 1 1
node 11 1 1 1
node 12 1 1 1
node 13 1 1 1
node 14 1 1 1
node 15 1 1 1
node 16 1 1 1
node 17 1 1 1
node 18 1 1 1
node 19 1 1 1
node 20 1 1 1
node 21 1 1 1
node 22 1 1 1
node 23 1 1 1
node 24 1 1 1
node 25 1 1 1
node 26 1 1 3
node 27 1 0 2
node 28 1 0 2
node 32 1 0 0
node 48 1 0 0
node 55 1 0 0
node 64 1 0 0
node 68 1 0 0
node 89 1 0 0
node 148 1 0 0
gene 1 1 27 -1.93415 0 1 -1.93415 1
gene 1 1 28 -6.49571 0 2 -6.49571 1
gene 1 2 27 -6.55724 0 3 -6.55724 1
gene 1 2 28 -8 0 4 -8 1
gene 1 3 27 1.73769 0 5 1.73769 1
gene 1 3 28 5.66961 0 6 5.66961 1
gene 1 4 27 -4.24693 0 7 -4.24693 1
gene 1 4 28 1.19845 0 8 1.19845 1
gene 1 5 27 0.24762 0 9 0.24762 1
gene 1 5 28 -2.69641 0 10 -2.69641 1
gene 1 6 27 0.0409335 0 11 0.0409335 1
gene 1 6 28 2.1199 0 12 2.1199 1
gene 1 7 27 -3.0162 0 13 -3.0162 1
gene 1 7 28 -1.83022 0 14 -1.83022 1
gene 1 8 27 5.2503 0 15 5.2503 1
gene 1 8 28 -4.62555 0 16 -4.62555 1
gene 1 9 27 4.77987 0 17 4.77987 1
gene 1 9 28 -4.069 0 18 -4.069 1
gene 1 10 27 -8 0 19 -8 1
gene 1 10 28 0.102351 0 20 0.102351 1
gene 1 11 27 8 0 21 8 1
gene 1 11 28 2.08396 0 22 2.08396 1
gene 1 12 27 0.0274171 0 23 0.0274171 1
gene 1 12 28 -3.38449 0 24 -3.38449 1
gene 1 13 27 0.870182 0 25 0.870182 1
gene 1 13 28 1.21292 0 26 1.21292 1
gene 1 14 27 -3.28426 0 27 -3.28426 1
gene 1 14 28 0.277239 0 28 0.277239 1
gene 1 15 27 3.71038 0 29 3.71038 1
gene 1 15 28 -0.0296974 0 30 -0.0296974 1
gene 1 16 27 -3.88459 0 31 -3.88459 1
gene 1 16 28 -5.45394 0 32 -5.45394 1
gene 1 17 27 0.743217 0 33 0.743217 1
gene 1 17 28 -3.88073 0 34 -3.88073 1
gene 1 18 27 -6.2398 0 35 -6.2398 1
gene 1 18 28 5.17298 0 36 5.17298 1
gene 1 19 27 -2.33259 0 37 -2.33259 1
gene 1 19 28 -7.33592 0 38 -7.33592 1
gene 1 20 27 3.78542 0 39 3.78542 1
gene 1 20 28 1.31643 0 40 1.31643 1
gene 1 21 27 1.75914 0 41 1.75914 1
gene 1 21 28 1.47334 0 42 1.47334 1
gene 1 22 27 -0.844008 0 43 -0.844008 1
gene 1 22 28 8 0 44 8 1
gene 1 23 27 0.798975 0 45 0.798975 1
gene 1 23 28 3.65799 0 46 3.65799 1
gene 1 24 27 5.18354 0 47 5.18354 1
gene 1 24 28 -0.403661 0 48 -0.403661 1
gene 1 25 27 -0.630508 0 49 -0.630508 1
gene 1 25 28 4.42783 0 50 4.42783 1
gene 1 26 27 5.74531 0 51 5.74531 1
gene 1 26 28 0.987127 0 52 0.987127 1
gene 1 3 32 -3.13975 0 61 -3.13975 1
gene 1 32 27 1.75439 0 62 1.75439 1
gene 1 5 32 -2.23683 0 120 -2.23683 1
gene 1 7 32 1.41917 0 125 1.41917 1
gene 1 20 48 -4.08781 0 133 -4.08781 1
gene 1 48 27 0.305023 0 134 0.305023 1
gene 1 18 55 -1.13733 0 150 -1.13733 1
gene 1 55 27 -2.332 0 151 -2.332 1
gene 1 10 64 -4.0673 0 174 -4.0673 1
gene 1 64 27 1.75519 0 175 1.75519 1
gene 1 17 68 -1.64076 0 192 -1.64076 1
gene 1 68 27 0.883072 0 193 0.883072 1
gene 1 20 32 0.716185 0 242 0.716185 1
gene 1 13 89 2.25445 0 276 2.25445 1
gene 1 89 27 0.18986 0 277 0.18986 1
gene 1 11 48 0.424513 0 452 0.424513 1
gene 1 13 148 0.683506 0 483 0.683506 1
gene 1 148 28 0.992691 0 484 0.992691 1
genomeend 5

/* Organism #6 Fitness: 0.81448 Error: 0 */
/* ##------$ WINNER 6 SPECIES #36 $------## */
genomestart 6
trait 1 0.415976 0 0.304594 0 0 0 0 0 
node 1 1 1 1
node 2 1 1 1
node 3 1 1 1
node 4 1 1 1
node 5 1 1 1
node 6 1 1 1
node 7 1 1 1
node 8 1 1 1
node 9 1 1 1
node 10 1 1 1
node 11 1 1 1
node 12 1 1 1
node 13 1 1 1
node 14 1 1 1
node 15 1 1 1
node 16 1 1 1
node 17 1 1 1
node 18 1 1 1
node 19 1 1 1
node 20 1 1 1
node 21 1 1 1
node 22 1 1 1
node 23 1 1 1
node 24 1 1 1
node 25 1 1 1
node 26 1 1 3
node 27 1 0 2
node 28 1 0 2
node 32 1 0 0
node 48 1 0 0
node 55 1 0 0
node 64 1 0 0
node 68 1 0 0
node 89 1 0 0
node 148 1 0 0
gene 1 1 27 -1.06117 0 1 -1.06117 1
gene 1 1 28 -2.46614 0 2 -2.46614 1
gene 1 2 27 -3.52719 0 3 -3.52719 1
gene 1 2 28 -8 0 4 -8 1
gene 1 3 27 2.33247 0 5 2.33247 1
gene 1 3 28 7.40496 0 6 7.40496 1
gene 1 4 27 -5.14417 0 7 -5.14417 1
gene 1 4 28 -3.66944 0 8 -3.66944 1
gene 1 5 27 -1.2875 0 9 -1.2875 1
gene 1 5 28 0.749668 0 10 0.749668 1
gene 1 6 27 1.35628 0 11 1.35628 1
gene 1 6 28 -1.43855 0 12 -1.43855 1
gene 1 7 27 -0.0669677 0 13 -0.0669677 1
gene 1 7 28 -0.443801 0 14 -0.443801 1
gene 1 8 27 8 0 15 8 1
gene 1 8 28 -7.9551 0 16 -7.9551 1
gene 1 9 27 5.7696 0 17 5.7696 1
gene 1 9 28 -2.30818 0 18 -2.30818 1
gene 1 10 27 -3.55704 0 19 -3.55704 1
gene 1 10 28 3.89843 0 20 3.89843 1
gene 1 11 27 8 0 21 8 1
gene 1 11 28 -1.86987 0 22 -1.86987 1
gene 1 12 27 1.44378 0 23 1.44378 1
gene 1 12 28 -1.16916 0 24 -1.16916 1
gene 1 13 27 1.33286 0 25 1.33286 1
gene 1 13 28 -0.232437 0 26 -0.232437 1
gene 1 14 27 -4.36886 0 27 -4.36886 1
gene 1 14 28 0.603634 0 28 0.603634 1
gene 1 15 27 2.8738 0 29 2.8738 1
gene 1 15 28 -1.52276 0 30 -1.52276 1
gene 1 16 27 -1.47242 0 31 -1.47242 1
gene 1 16 28 -5.55374 0 32 -5.55374 1
gene 1 17 27 1.90629 0 33 1.90629 1
gene 1 17 28 -5.58694 0 34 -5.58694 1
gene 1 18 27 -4.42912 0 35 -4.42912 0
gene 1 18 28 7.32888 0 36 7.32888 1
gene 1 19 27 -3.26289 0 37 -3.26289 1
gene 1 19 28 -3.58954 0 38 -3.58954 1
gene 1 20 27 2.49166 0 39 2.49166 1
gene 1 20 28 0.844485 0 40 0.844485 1
gene 1 21 27 2.20942 0 41 2.20942 1
gene 1 21 28 0.823132 0 42 0.823132 1
gene 1 22 27 1.49981 0 43 1.49981 1
gene 1 22 28 4.00993 0 44 4.00993 1
gene 1 23 27 1.23821 0 45 1.23821 1
gene 1 23 28 -0.154385 0 46 -0.154385 1
gene 1 24 27 5.05559 0 47 5.05559 1
gene 1 24 28 1.53232 0 48 1.53232 1
gene 1 25 27 -0.602569 0 49 -0.602569 1
gene 1 25 28 4.014 0 50 4.014 1
gene 1 26 27 5.49017 0 51 5.49017 1
gene 1 26 28 2.34688 0 52 2.34688 1
gene 1 3 32 0.0173878 0 61 0.0173878 1
gene 1 32 27 0.220115 0 62 0.220115 1
gene 1 5 32 -2.12635 0 120 -2.12635 1
gene 1 7 32 -1.64848 0 125 -1.64848 1
gene 1 20 48 -2.36776 0 133 -2.36776 1
gene 1 48 27 2.26439 0 134 2.26439 1
gene 1 18 55 2.16035 0 150 2.16035 1
gene 1 55 27 1.26417 0 151 1.26417 1
gene 1 10 64 -2.41325 0 174 -2.41325 1
gene 1 64 27 1.28872 0 175 1.28872 1
gene 1 17 68 -2.03909 0 192 -2.03909 1
gene 1 68 27 -0.527341 0 193 -0.527341 1
gene 1 20 32 3.11669 0 242 3.11669 1
gene 1 13 89 4.05222 0 276 4.05222 1
gene 1 89 27 0.18986 0 277 0.18986 1
gene 1 11 48 1.22858 0 452 1.22858 1
gene 1 13 148 -0.725043 0 483 -0.725043 1
gene 1 148 28 -0.262917 0 484 -0.262917 1
genomeend 6

/* Organism #7 Fitness: 0.8088 Error: 0 */
/* ##------$ WINNER 7 SPECIES #36 $------## */
genomestart 7
trait 1 0.412159 0 0.304639 0 0 0 0 0 
node 1 1 1 1
node 2 1 1 1
node 3 1 1 1
node 4 1 1 1
node 5 1 1 1
node 6 1 1 1
node 7 1 1 1
node 8 1 1 1
node 9 1 1 1
node 10 1 1 1
node 11 1 1 1
node 12 1 1 1
node 13 1 1 1
node 14 1 1 1
node 15 1 1 1
node 16 1 1 1
node 17 1 1 1
node 18 1 1 1
node 19 1 1 1
node 20 1 1 1
node 21 1 1 1
node 22 1 1 1
node 23 1 1 1
node 24 1 1 1
node 25 1 1 1
node 26 1 1 3
node 27 1 0 2
node 28 1 0 2
node 32 1 0 0
node 48 1 0 0
node 55 1 0 0
node 64 1 0 0
node 68 1 0 0
node 89 1 0 0
node 148 1 0 0
node 188 1 0 0
gene 1 1 27 -3.68319 0 1 -3.68319 1
gene 1 1 28 -4.03262 0 2 -4.03262 1
gene 1 2 27 -6.50341 0 3 -6.50341 1
gene 1 2 28 -6.86642 0 4 -6.86642 1
gene 1 3 27 2.5605 0 5 2.5605 1
gene 1 3 28 5.02669 0 6 5.02669 1
gene 1 4 27 -4.11327 0 7 -4.11327 1
gene 1 4 28 -2.5214 0 8 -2.5214 1
gene 1 5 27 1.93049 0 9 1.93049 1
gene 1 5 28 -1.25352 0 10 -1.25352 1
gene 1 6 27 2.59222 0 11 2.59222 1
gene 1 6 28 -0.5384 0 12 -0.5384 1
gene 1 7 27 -2.89825 0 13 -2.89825 1
gene 1 7 28 0.24296 0 14 0.24296 1
gene 1 8 27 6.72625 0 15 6.72625 1
gene 1 8 28 -6.29365 0 16 -6.29365 1
gene 1 9 27 3.009 0 17 3.009 1
gene 1 9 28 -2.60962 0 18 -2.60962 1
gene 1 10 27 -5.92246 0 19 -5.92246 1
gene 1 10 28 1.37436 0 20 1.37436 1
gene 1 11 27 7.94793 0 21 7.94793 1
gene 1 11 28 -0.71028 0 22 -0.71028 1
gene 1 12 27 -0.844769 0 23 -0.844769 1
gene 1 12 28 -3.28946 0 24 -3.28946 1
gene 1 13 27 0.707351 0 25 0.707351 1
gene 1 13 28 -0.481258 0 26 -0.481258 1
gene 1 14 27 -2.54716 0 27 -2.54716 1
gene 1 14 28 1.89667 0 28 1.89667 1
gene 1 15 27 0.475977 0 29 0.475977 1
gene 1 15 28 -1.6105 0 30 -1.6105 1
gene 1 16 27 -1.45848 0 31 -1.45848 1
gene 1 16 28 -3.27313 0 32 -3.27313 1
gene 1 17 27 -0.669813 0 33 -0.669813 1
gene 1 17 28 -5.07999 0 34 -5.07999 1
gene 1 18 27 -5.05645 0 35 -5.05645 1
gene 1 18 28 5.28685 0 36 5.28685 1
gene 1 19 27 -0.252488 0 37 -0.252488 1
gene 1 19 28 -4.49466 0 38 -4.49466 1
gene 1 20 27 2.87665 0 39 2.87665 1
gene 1 20 28 0.551253 0 40 0.551253 1
gene 1 21 27 2.87684 0 41 2.87684 1
gene 1 21 28 3.45254 0 42 3.45254 1
gene 1 22 27 0.588774 0 43 0.588774 1
gene 1 22 28 3.03561 0 44 3.03561 1
gene 1 23 27 -1.40219 0 45 -1.40219 0
gene 1 23 28 0.987561 0 46 0.987561 1
gene 1 24 27 3.66574 0 47 3.66574 1
gene 1 24 28 -0.292001 0 48 -0.292001 1
gene 1 25 27 0.656882 0 49 0.656882 1
gene 1 25 28 8 0 50 8 1
gene 1 26 27 5.24156 0 51 5.24156 1
gene 1 26 28 1.13178 0 52 1.13178 1
gene 1 3 32 -1.20675 0 61 -1.20675 1
gene 1 32 27 3.2953 0 62 3.2953 1
gene 1 5 32 0.061893 0 120 0.061893 1
gene 1 7 32 3.15242 0 125 3.15242 1
gene 1 20 48 -0.860269 0 133 -0.860269 1
gene 1 48 27 0.842438 0 134 0.842438 1
gene 1 18 55 -0.19241 0 150 -0.19241 1
gene 1 55 27 1.26417 0 151 1.26417 1
gene 1 10 64 -2.54624 0 174 -2.54624 1
gene 1 64 27 0.895032 0 175 0.895032 1
gene 1 17 68 0.317499 0 192 0.317499 1
gene 1 68 27 1.41448 0 193 1.41448 1
gene 1 20 32 -0.3166 0 242 -0.3166 1
gene 1 13 89 1.37813 0 276 1.37813 1
gene 1 89 27 0.444159 0 277 0.444159 1
gene 1 11 48 -0.615223 0 452 -0.615223 1
gene 1 13 148 -0.503151 0 483 -0.503151 1
gene 1 148 28 -0.62603 0 484 -0.62603 1
gene 1 23 188 1 0 640 0 1
gene 1 188 27 -1.40219 0 641 0 1
genomeend 7

/* Organism #8 Fitness: 0.8332 Error: 0 */
/* ##------$ WINNER 8 SPECIES #36 $------## */
genomestart 8
trait 1 0.415976 0 0.304594 0 0 0 0 0 
node 1 1 1 1
node 2 1 1 1
node 3 1 1 1
node 4 1 1 1
node 5 1 1 1
node 6 1 1 1
node 7 1 1 1
node 8 1 1 1
node 9 1 1 1
node 10 1 1 1
node 11 1 1 1
node 12 1 1 1
node 13 1 1 1
node 14 1 1 1
node 15 1 1 1
node 16 1 1 1
node 17 1 1 1
node 18 1 1 1
node 19 1 1 1
node 20 1 1 1
node 21 1 1 1
node 22 1 1 1
node 23 1 1 1
node 24 1 1 1
node 25 1 1 1
node 26 1 1 3
node 27 1 0 2
node 28 1 0 2
node 32 1 0 0
node 48 1 0 0
node 55 1 0 0
node 64 1 0 0
node 68 1 0 0
node 89 1 0 0
node 148 1 0 0
gene 1 1 27 -2.03684 0 1 -2.03684 1
gene 1 1 28 -4.11567 0 2 -4.11567 1
gene 1 2 27 -5.66928 0 3 -5.66928 1
gene 1 2 28 -8 0 4 -8 1
gene 1 3 27 2.93941 0 5 2.93941 1
gene 1 3 28 5.8763 0 6 5.8763 1
gene 1 4 27 -5.92186 0 7 -5.92186 1
gene 1 4 28 -0.602522 0 8 -0.602522 1
gene 1 5 27 0.359317 0 9 0.359317 1
gene 1 5 28 -1.14225 0 10 -1.14225 1
gene 1 6 27 1.11335 0 11 1.11335 1
gene 1 6 28 0.635712 0 12 0.635712 1
gene 1 7 27 -2.10103 0 13 -2.10103 1
gene 1 7 28 0.302452 0 14 0.302452 1
gene 1 8 27 6.9569 0 15 6.9569 1
gene 1 8 28 -7.04155 0 16 -7.04155 1
gene 1 9 27 3.55327 0 17 3.55327 1
gene 1 9 28 -3.19497 0 18 -3.19497 1
gene 1 10 27 -6.62408 0 19 -6.62408 1
gene 1 10 28 2.032 0 20 2.032 1
gene 1 11 27 8 0 21 8 1
gene 1 11 28 0.180097 0 22 0.180097 1
gene 1 12 27 0.474818 0 23 0.474818 1
gene 1 12 28 -2.88438 0 24 -2.88438 1
gene 1 13 27 -0.36742 0 25 -0.36742 1
gene 1 13 28 -0.152326 0 26 -0.152326 1
gene 1 14 27 -2.47198 0 27 -2.47198 1
gene 1 14 28 0.988625 0 28 0.988625 1
gene 1 15 27 2.352 0 29 2.352 1
gene 1 15 28 -0.420334 0 30 -0.420334 1
gene 1 16 27 -2.0284 0 31 -2.0284 1
gene 1 16 28 -4.37694 0 32 -4.37694 1
gene 1 17 27 0.241279 0 33 0.241279 1
gene 1 17 28 -4.49434 0 34 -4.49434 1
gene 1 18 27 -5.4506 0 35 -5.4506 0
gene 1 18 28 5.58679 0 36 5.58679 1
gene 1 19 27 -3.67899 0 37 -3.67899 1
gene 1 19 28 -5.41813 0 38 -5.41813 1
gene 1 20 27 2.94383 0 39 2.94383 1
gene 1 20 28 -0.318194 0 40 -0.318194 1
gene 1 21 27 2.48401 0 41 2.48401 1
gene 1 21 28 1.99726 0 42 1.99726 1
gene 1 22 27 0.636368 0 43 0.636368 1
gene 1 22 28 2.2809 0 44 2.2809 1
gene 1 23 27 -1.13895 0 45 -1.13895 1
gene 1 23 28 1.62528 0 46 1.62528 1
gene 1 24 27 3.78167 0 47 3.78167 1
gene 1 24 28 1.2456 0 48 1.2456 1
gene 1 25 27 0.83348 0 49 0.83348 1
gene 1 25 28 6.30876 0 50 6.30876 1
gene 1 26 27 5.52893 0 51 5.52893 1
gene 1 26 28 0.564674 0 52 0.564674 1
gene 1 3 32 -2.15217 0 61 -2.15217 1
gene 1 32 27 2.38563 0 62 2.38563 1
gene 1 5 32 0.117524 0 120 0.117524 1
gene 1 7 32 1.73658 0 125 1.73658 1
gene 1 20 48 -2.41013 0 133 -2.41013 1
gene 1 48 27 -0.403111 0 134 -0.403111 1
gene 1 18 55 -0.881108 0 150 -0.881108 1
gene 1 55 27 0.620785 0 151 0.620785 1
gene 1 10 64 -2.43057 0 174 -2.43057 1
gene 1 64 27 1.75519 0 175 1.75519 1
gene 1 17 68 -1.64076 0 192 -1.64076 1
gene 1 68 27 1.15341 0 193 1.15341 1
gene 1 20 32 1.34585 0 242 1.34585 1
gene 1 13 89 3.86883 0 276 3.86883 1
gene 1 89 27 0.18986 0 277 0.18986 1
gene 1 11 48 1.22858 0 452 1.22858 1
gene 1 13 148 0.683506 0 483 0.683506 1
gene 1 148 28 0.944357 0 484 0.944357 1
genomeend 8

/* Species #37 : (Size 10) (AF 0) (Age 18)  */


/* Organism #9 Fitness: 0.80752 Error: 0 */
/* ##------$ WINNER 9 SPECIES #37 $------## */
genomestart 9
trait 1 0 0.675503 0.176587 0.902389 1 0 0 0.0775781 
node 1 1 1 1
node 2 1 1 1
node 3 1 1 1
node 4 1 1 1
node 5 1 1 1
node 6 1 1 1
node 7 1 1 1
node 8 1 1 1
node 9 1 1 1
node 10 1 1 1
node 11 1 1 1
node 12 1 1 1
node 13 1 1 1
node 14 1 1 1
node 15 1 1 1
node 16 1 1 1
node 17 1 1 1
node 18 1 1 1
node 19 1 1 1
node 20 1 1 1
node 21 1 1 1
node 22 1 1 1
node 23 1 1 1
node 24 1 1 1
node 25 1 1 1
node 26 1 1 3
node 27 1 0 2
node 28 1 0 2
node 32 1 0 0
node 47 1 0 0
node 56 1 0 0
node 82 1 0 0
node 106 1 0 0
node 109 1 0 0
node 151 1 0 0
node 175 1 0 0
gene 1 1 27 0.0928526 0 1 0.0928526 1
gene 1 1 28 -3.06139 0 2 -3.06139 1
gene 1 2 27 0.539491 0 3 0.539491 1
gene 1 2 28 -8 0 4 -8 1
gene 1 3 27 -1.34258 0 5 -1.34258 1
gene 1 3 28 -4.5559 0 6 -4.5559 1
gene 1 4 27 3.46569 0 7 3.46569 1
gene 1 4 28 1.79252 0 8 1.79252 0
gene 1 5 27 5.74987 0 9 5.74987 1
gene 1 5 28 -2.07732 0 10 -2.07732 1
gene 1 6 27 1.14719 0 11 1.14719 1
gene 1 6 28 2.72216 0 12 2.72216 1
gene 1 7 27 0.107196 0 13 0.107196 1
gene 1 7 28 -5.52115 0 14 -5.52115 0
gene 1 8 27 2.03306 0 15 2.03306 1
gene 1 8 28 -4.52049 0 16 -4.52049 1
gene 1 9 27 -8 0 17 -8 1
gene 1 9 28 2.11497 0 18 2.11497 1
gene 1 10 27 -1.95551 0 19 -1.95551 1
gene 1 10 28 -6.55419 0 20 -6.55419 1
gene 1 11 27 8 0 21 8 1
gene 1 11 28 -2.82881 0 22 -2.82881 1
gene 1 12 27 8 0 23 8 1
gene 1 12 28 -7.91205 0 24 -7.91205 1
gene 1 13 27 2.499 0 25 2.499 1
gene 1 13 28 -4.1591 0 26 -4.1591 1
gene 1 14 27 5.16965 0 27 5.16965 1
gene 1 14 28 3.65411 0 28 3.65411 1
gene 1 15 27 3.75928 0 29 3.75928 1
gene 1 15 28 3.57232 0 30 3.57232 1
gene 1 16 27 -2.00168 0 31 -2.00168 1
gene 1 16 28 3.35924 0 32 3.35924 1
gene 1 17 27 -3.03337 0 33 -3.03337 1
gene 1 17 28 -5.15017 0 34 -5.15017 1
gene 1 18 27 2.28645 0 35 2.28645 1
gene 1 18 28 -4.32367 0 36 -4.32367 1
gene 1 19 27 5.89602 0 37 5.89602 1
gene 1 19 28 1.68946 0 38 1.68946 1
gene 1 20 27 -6.17686 0 39 -6.17686 1
gene 1 20 28 -0.804836 0 40 -0.804836 0
gene 1 21 27 1.65736 0 41 1.65736 1
gene 1 21 28 5.88307 0 42 5.88307 1
gene 1 22 27 2.78501 0 43 2.78501 1
gene 1 22 28 -2.23441 0 44 -2.23441 1
gene 1 23 27 -1.68525 0 45 -1.68525 1
gene 1 23 28 -0.058977 0 46 -0.058977 1
gene 1 24 27 5.04566 0 47 5.04566 1
gene 1 24 28 -0.232162 0 48 -0.232162 1
gene 1 25 27 0.989257 0 49 0.989257 1
gene 1 25 28 -2.67302 0 50 -2.67302 1
gene 1 26 27 7.04901 0 51 7.04901 1
gene 1 26 28 0.568789 0 52 0.568789 1
gene 1 3 32 -1.4283 0 61 -1.4283 1
gene 1 32 27 2.00435 0 62 2.00435 1
gene 1 5 47 -0.637412 0 129 -0.637412 1
gene 1 47 27 -5.2864 0 130 -5.2864 1
gene 1 4 56 0.0592917 0 153 0.0592917 1
gene 1 56 28 -6.32843 0 154 -6.32843 1
gene 1 15 47 0.556124 0 235 0.556124 1
gene 1 13 82 0.546052 0 252 0.546052 1
gene 1 82 28 2.47162 0 253 2.47162 1
gene 1 24 32 -0.571554 0 309 -0.571554 1
gene 1 10 82 -1.70299 0 319 -1.70299 1
gene 1 5 106 2.66928 0 335 2.66928 1
gene 1 106 27 -0.951825 0 336 -0.951825 1
gene 1 12 109 1.44574 0 346 1.44574 1
gene 1 109 27 2.16517 0 347 2.16517 1
gene 1 22 106 -2.943 0 441 -2.943 1
gene 1 20 151 0.685293 0 497 0.685293 1
gene 1 151 28 1.34274 0 498 1.34274 1
gene 1 4 151 -1.46413 0 538 -1.46413 1
gene 1 7 175 4.46463 0 596 4.46463 1
gene 1 175 28 0.890301 0 597 0.890301 1
genomeend 9

/* Organism #10 Fitness: 0.8012 Error: 0 */
/* ##------$ WINNER 10 SPECIES #37 $------## */
genomestart 10
trait 1 0 0.675503 0.176587 0.902389 1 0 0 0.0775781 
node 1 1 1 1
node 2 1 1 1
node 3 1 1 1
node 4 1 1 1
node 5 1 1 1
node 6 1 1 1
node 7 1 1 1
node 8 1 1 1
node 9 1 1 1
node 10 1 1 1
node 11 1 1 1
node 12 1 1 1
node 13 1 1 1
node 14 1 1 1
node 15 1 1 1
node 16 1 1 1
node 17 1 1 1
node 18 1 1 1
node 19 1 1 1
node 20 1 1 1
node 21 1 1 1
node 22 1 1 1
node 23 1 1 1
node 24 1 1 1
node 25 1 1 1
node 26 1 1 3
node 27 1 0 2
node 28 1 0 2
node 32 1 0 0
node 47 1 0 0
node 56 1 0 0
node 82 1 0 0
node 106 1 0 0
node 109 1 0 0
node 151 1 0 0
node 175 1 0 0
gene 1 1 27 2.43545 0 1 2.43545 1
gene 1 1 28 -0.718253 0 2 -0.718253 1
gene 1 2 27 1.10302 0 3 1.10302 1
gene 1 2 28 -8 0 4 -8 1
gene 1 3 27 -1.6116 0 5 -1.6116 1
gene 1 3 28 -5.21342 0 6 -5.21342 1
gene 1 4 27 5.6219 0 7 5.6219 1
gene 1 4 28 -0.185686 0 8 -0.185686 0
gene 1 5 27 3.41375 0 9 3.41375 1
gene 1 5 28 -0.335856 0 10 -0.335856 1
gene 1 6 27 -0.33723 0 11 -0.33723 1
gene 1 6 28 0.975128 0 12 0.975128 1
gene 1 7 27 -0.446944 0 13 -0.446944 1
gene 1 7 28 -5.53512 0 14 -5.53512 0
gene 1 8 27 2.58438 0 15 2.58438 1
gene 1 8 28 -4.60854 0 16 -4.60854 1
gene 1 9 27 -8 0 17 -8 1
gene 1 9 28 4.02566 0 18 4.02566 1
gene 1 10 27 0.249532 0 19 0.249532 1
gene 1 10 28 -8 0 20 -8 1
gene 1 11 27 7.00922 0 21 7.00922 1
gene 1 11 28 -1.63264 0 22 -1.63264 1
gene 1 12 27 8 0 23 8 1
gene 1 12 28 -7.69521 0 24 -7.69521 1
gene 1 13 27 1.82615 0 25 1.82615 1
gene 1 13 28 -5.93612 0 26 -5.93612 1
gene 1 14 27 5.93285 0 27 5.93285 1
gene 1 14 28 3.13377 0 28 3.13377 1
gene 1 15 27 5.81744 0 29 5.81744 1
gene 1 15 28 3.05885 0 30 3.05885 1
gene 1 16 27 -2.40147 0 31 -2.40147 1
gene 1 16 28 1.30664 0 32 1.30664 1
gene 1 17 27 -0.558853 0 33 -0.558853 1
gene 1 17 28 -5.11759 0 34 -5.11759 1
gene 1 18 27 3.49879 0 35 3.49879 1
gene 1 18 28 -2.94492 0 36 -2.94492 1
gene 1 19 27 5.64524 0 37 5.64524 1
gene 1 19 28 3.23004 0 38 3.23004 1
gene 1 20 27 -8 0 39 -8 1
gene 1 20 28 -0.853818 0 40 -0.853818 0
gene 1 21 27 1.68696 0 41 1.68696 1
gene 1 21 28 6.01811 0 42 6.01811 1
gene 1 22 27 3.90626 0 43 3.90626 1
gene 1 22 28 0.177389 0 44 0.177389 1
gene 1 23 27 -2.26457 0 45 -2.26457 1
gene 1 23 28 0.058977 0 46 0.058977 1
gene 1 24 27 2.83802 0 47 2.83802 1
gene 1 24 28 -1.15764 0 48 -1.15764 1
gene 1 25 27 1.096 0 49 1.096 1
gene 1 25 28 -2.36532 0 50 -2.36532 1
gene 1 26 27 8 0 51 8 1
gene 1 26 28 2.04039 0 52 2.04039 1
gene 1 3 32 -2.99794 0 61 -2.99794 1
gene 1 32 27 3.85614 0 62 3.85614 1
gene 1 5 47 0.598053 0 129 0.598053 1
gene 1 47 27 -4.11945 0 130 -4.11945 1
gene 1 4 56 -0.430149 0 153 -0.430149 1
gene 1 56 28 -5.28912 0 154 -5.28912 1
gene 1 15 47 -1.61672 0 235 -1.61672 1
gene 1 13 82 -2.03375 0 252 -2.03375 1
gene 1 82 28 2.34863 0 253 2.34863 1
gene 1 24 32 -0.465178 0 309 -0.465178 1
gene 1 10 82 -3.8167 0 319 -3.8167 1
gene 1 5 106 4.92414 0 335 4.92414 1
gene 1 106 27 1.00746 0 336 1.00746 1
gene 1 12 109 -1.77671 0 346 -1.77671 1
gene 1 109 27 2.16517 0 347 2.16517 1
gene 1 22 106 -2.943 0 441 -2.943 1
gene 1 20 151 1.6615 0 497 1.6615 1
gene 1 151 28 1.30688 0 498 1.30688 1
gene 1 4 151 -0.0554674 0 538 -0.0554674 1
gene 1 7 175 4.67917 0 596 4.67917 1
gene 1 175 28 0.890301 0 597 0.890301 1
genomeend 10

/* Organism #11 Fitness: 0.0448643 Error: 0 */
genomestart 11
trait 1 0 0.675503 0.176587 0.902389 1 0 0 0.0775781 
node 1 1 1 1
node 2 1 1 1
node 3 1 1 1
node 4 1 1 1
node 5 1 1 1
node 6 1 1 1
node 7 1 1 1
node 8 1 1 1
node 9 1 1 1
node 10 1 1 1
node 11 1 1 1
node 12 1 1 1
node 13 1 1 1
node 14 1 1 1
node 15 1 1 1
node 16 1 1 1
node 17 1 1 1
node 18 1 1 1
node 19 1 1 1
node 20 1 1 1
node 21 1 1 1
node 22 1 1 1
node 23 1 1 1
node 24 1 1 1
node 25 1 1 1
node 26 1 1 3
node 27 1 0 2
node 28 1 0 2
node 32 1 0 0
node 47 1 0 0
node 56 1 0 0
node 82 1 0 0
node 106 1 0 0
node 109 1 0 0
node 151 1 0 0
node 175 1 0 0
gene 1 1 27 2.38235 0 1 2.38235 1
gene 1 1 28 -3.55609 0 2 -3.55609 1
gene 1 2 27 0.344554 0 3 0.344554 1
gene 1 2 28 -5.93329 0 4 -5.93329 1
gene 1 3 27 -2.45269 0 5 -2.45269 1
gene 1 3 28 -5.6081 0 6 -5.6081 1
gene 1 4 27 1.19458 0 7 1.19458 1
gene 1 4 28 4.17304 0 8 4.17304 0
gene 1 5 27 3.3827 0 9 3.3827 1
gene 1 5 28 -4.4966 0 10 -4.4966 1
gene 1 6 27 0.807901 0 11 0.807901 1
gene 1 6 28 1.04273 0 12 1.04273 1
gene 1 7 27 -1.88452 0 13 -1.88452 1
gene 1 7 28 -5.1882 0 14 -5.1882 0
gene 1 8 27 3.94848 0 15 3.94848 1
gene 1 8 28 -2.97763 0 16 -2.97763 1
gene 1 9 27 -8 0 17 -8 1
gene 1 9 28 2.22064 0 18 2.22064 1
gene 1 10 27 -1.84976 0 19 -1.84976 1
gene 1 10 28 -7.96086 0 20 -7.96086 1
gene 1 11 27 7.32142 0 21 7.32142 1
gene 1 11 28 -2.14153 0 22 -2.14153 1
gene 1 12 27 8 0 23 8 1
gene 1 12 28 -7.78662 0 24 -7.78662 1
gene 1 13 27 0.597853 0 25 0.597853 1
gene 1 13 28 -2.93119 0 26 -2.93119 1
gene 1 14 27 4.08533 0 27 4.08533 1
gene 1 14 28 3.68959 0 28 3.68959 1
gene 1 15 27 2.32277 0 29 2.32277 1
gene 1 15 28 3.43186 0 30 3.43186 1
gene 1 16 27 0.100358 0 31 0.100358 1
gene 1 16 28 2.34229 0 32 2.34229 1
gene 1 17 27 -5.42228 0 33 -5.42228 1
gene 1 17 28 -3.48706 0 34 -3.48706 1
gene 1 18 27 4.10451 0 35 4.10451 1
gene 1 18 28 -6.38008 0 36 -6.38008 1
gene 1 19 27 5.41169 0 37 5.41169 1
gene 1 19 28 -0.731951 0 38 -0.731951 1
gene 1 20 27 -3.94634 0 39 -3.94634 1
gene 1 20 28 -1.11414 0 40 -1.11414 0
gene 1 21 27 2.29077 0 41 2.29077 1
gene 1 21 28 5.3918 0 42 5.3918 1
gene 1 22 27 2.48188 0 43 2.48188 1
gene 1 22 28 -2.39715 0 44 -2.39715 1
gene 1 23 27 -0.691263 0 45 -0.691263 1
gene 1 23 28 1.9026 0 46 1.9026 1
gene 1 24 27 7.07399 0 47 7.07399 1
gene 1 24 28 -2.52982 0 48 -2.52982 1
gene 1 25 27 -1.04404 0 49 -1.04404 1
gene 1 25 28 -5.16906 0 50 -5.16906 1
gene 1 26 27 5.56001 0 51 5.56001 1
gene 1 26 28 0.820109 0 52 0.820109 1
gene 1 3 32 -2.01891 0 61 -2.01891 1
gene 1 32 27 0.608282 0 62 0.608282 1
gene 1 5 47 -3.05898 0 129 -3.05898 1
gene 1 47 27 -3.30628 0 130 -3.30628 1
gene 1 4 56 1.49931 0 153 1.49931 1
gene 1 56 28 -6.9919 0 154 -6.9919 1
gene 1 15 47 -1.72201 0 235 -1.72201 1
gene 1 13 82 1.49213 0 252 1.49213 1
gene 1 82 28 4.70351 0 253 4.70351 1
gene 1 24 32 1.62402 0 309 1.62402 1
gene 1 10 82 -0.140137 0 319 -0.140137 1
gene 1 5 106 1.74731 0 335 1.74731 1
gene 1 106 27 -0.951825 0 336 -0.951825 1
gene 1 12 109 1.44574 0 346 1.44574 1
gene 1 109 27 2.16517 0 347 2.16517 1
gene 1 22 106 1.58048 0 441 1.58048 1
gene 1 20 151 1.49251 0 497 1.49251 1
gene 1 151 28 0.561083 0 498 0.561083 1
gene 1 4 151 -0.976821 0 538 -0.976821 1
gene 1 7 175 3.24595 0 596 3.24595 1
gene 1 175 28 0.890301 0 597 0.890301 1
genomeend 11

/* Organism #12 Fitness: 0.00736429 Error: 0 */
genomestart 12
trait 1 0 0.673004 0.177251 1 1 0.202124 0 0.341197 
node 1 1 1 1
node 2 1 1 1
node 3 1 1 1
node 4 1 1 1
node 5 1 1 1
node 6 1 1 1
node 7 1 1 1
node 8 1 1 1
node 9 1 1 1
node 10 1 1 1
node 11 1 1 1
node 12 1 1 1
node 13 1 1 1
node 14 1 1 1
node 15 1 1 1
node 16 1 1 1
node 17 1 1 1
node 18 1 1 1
node 19 1 1 1
node 20 1 1 1
node 21 1 1 1
node 22 1 1 1
node 23 1 1 1
node 24 1 1 1
node 25 1 1 1
node 26 1 1 3
node 27 1 0 2
node 28 1 0 2
node 32 1 0 0
node 47 1 0 0
node 56 1 0 0
node 82 1 0 0
node 106 1 0 0
node 109 1 0 0
node 151 1 0 0
node 175 1 0 0
gene 1 1 27 3.8768 0 1 3.8768 1
gene 1 1 28 -5.77601 0 2 -5.77601 1
gene 1 2 27 0.706809 0 3 0.706809 1
gene 1 2 28 -8 0 4 -8 1
gene 1 3 27 -2.45834 0 5 -2.45834 1
gene 1 3 28 -2.40648 0 6 -2.40648 1
gene 1 4 27 3.03454 0 7 3.03454 1
gene 1 4 28 3.37407 0 8 3.37407 0
gene 1 5 27 -0.866497 0 9 -0.866497 1
gene 1 5 28 -2.2203 0 10 -2.2203 1
gene 1 6 27 -1.44063 0 11 -1.44063 1
gene 1 6 28 -0.412119 0 12 -0.412119 1
gene 1 7 27 -5.22109 0 13 -5.22109 1
gene 1 7 28 -6.68055 0 14 -6.68055 0
gene 1 8 27 3.59286 0 15 3.59286 1
gene 1 8 28 0.868016 0 16 0.868016 1
gene 1 9 27 -6.61385 0 17 -6.61385 1
gene 1 9 28 1.82176 0 18 1.82176 1
gene 1 10 27 -2.09498 0 19 -2.09498 1
gene 1 10 28 -7.23399 0 20 -7.23399 1
gene 1 11 27 -1.84164 0 21 -1.84164 1
gene 1 11 28 1.19854 0 22 1.19854 1
gene 1 12 27 3.98422 0 23 3.98422 1
gene 1 12 28 0.684072 0 24 0.684072 1
gene 1 13 27 0.398033 0 25 0.398033 1
gene 1 13 28 -2.08338 0 26 -2.08338 1
gene 1 14 27 2.08179 0 27 2.08179 1
gene 1 14 28 6.60914 0 28 6.60914 1
gene 1 15 27 3.94735 0 29 3.94735 1
gene 1 15 28 2.20517 0 30 2.20517 1
gene 1 16 27 2.43322 0 31 2.43322 1
gene 1 16 28 5.14908 0 32 5.14908 1
gene 1 17 27 -2.69126 0 33 -2.69126 1
gene 1 17 28 -5.84492 0 34 -5.84492 1
gene 1 18 27 -1.25332 0 35 -1.25332 1
gene 1 18 28 1.18374 0 36 1.18374 1
gene 1 19 27 8 0 37 8 1
gene 1 19 28 6.2812 0 38 6.2812 1
gene 1 20 27 -6.21967 0 39 -6.21967 1
gene 1 20 28 -2.11196 0 40 -2.11196 0
gene 1 21 27 -1.15032 0 41 -1.15032 1
gene 1 21 28 5.63953 0 42 5.63953 1
gene 1 22 27 -0.716651 0 43 -0.716651 1
gene 1 22 28 -4.08803 0 44 -4.08803 1
gene 1 23 27 -1.85156 0 45 -1.85156 1
gene 1 23 28 -1.87948 0 46 -1.87948 1
gene 1 24 27 4.6406 0 47 4.6406 1
gene 1 24 28 -0.75998 0 48 -0.75998 1
gene 1 25 27 -0.490967 0 49 -0.490967 1
gene 1 25 28 -6.90724 0 50 -6.90724 1
gene 1 26 27 -0.99414 0 51 -0.99414 1
gene 1 26 28 1.86758 0 52 1.86758 1
gene 1 3 32 0.141072 0 61 0.141072 1
gene 1 32 27 0.00534074 0 62 0.00534074 1
gene 1 5 47 0.0671836 0 129 0.0671836 1
gene 1 47 27 -3.64801 0 130 -3.64801 1
gene 1 4 56 1.77961 0 153 1.77961 1
gene 1 56 28 -5.12455 0 154 -5.12455 1
gene 1 15 47 0.0582904 0 235 0.0582904 1
gene 1 13 82 -1.66658 0 252 -1.66658 1
gene 1 82 28 1.42094 0 253 1.42094 1
gene 1 24 32 0.00541704 0 309 0.00541704 1
gene 1 10 82 -1.96661 0 319 -1.96661 1
gene 1 5 106 -0.11813 0 335 -0.11813 1
gene 1 106 27 1.36941 0 336 1.36941 1
gene 1 12 109 2.33879 0 346 2.33879 1
gene 1 109 27 0.991089 0 347 0.991089 1
gene 1 22 106 -0.783105 0 441 -0.783105 1
gene 1 20 151 2.78687 0 497 2.78687 1
gene 1 151 28 1.07868 0 498 1.07868 1
gene 1 4 151 1.07913 0 538 1.07913 1
gene 1 7 175 2.75292 0 596 2.75292 1
gene 1 175 28 1.88833 0 597 1.88833 1
genomeend 12

/* Organism #13 Fitness: 0.8252 Error: 0 */
/* ##------$ WINNER 13 SPECIES #37 $------## */
genomestart 13
trait 1 0 0.675503 0.176587 0.902389 1 0 0 0.0775781 
node 1 1 1 1
node 2 1 1 1
node 3 1 1 1
node 4 1 1 1
node 5 1 1 1
node 6 1 1 1
node 7 1 1 1
node 8 1 1 1
node 9 1 1 1
node 10 1 1 1
node 11 1 1 1
node 12 1 1 1
node 13 1 1 1
node 14 1 1 1
node 15 1 1 1
node 16 1 1 1
node 17 1 1 1
node 18 1 1 1
node 19 1 1 1
node 20 1 1 1
node 21 1 1 1
node 22 1 1 1
node 23 1 1 1
node 24 1 1 1
node 25 1 1 1
node 26 1 1 3
node 27 1 0 2
node 28 1 0 2
node 32 1 0 0
node 47 1 0 0
node 56 1 0 0
node 82 1 0 0
node 106 1 0 0
node 109 1 0 0
node 151 1 0 0
node 175 1 0 0
gene 1 1 27 0.0928526 0 1 0.0928526 1
gene 1 1 28 -3.06139 0 2 -3.06139 1
gene 1 2 27 0.539491 0 3 0.539491 1
gene 1 2 28 -8 0 4 -8 1
gene 1 3 27 -1.34258 0 5 -1.34258 1
gene 1 3 28 -4.5559 0 6 -4.5559 1
gene 1 4 27 3.46569 0 7 3.46569 1
gene 1 4 28 1.79252 0 8 1.79252 0
gene 1 5 27 5.74987 0 9 5.74987 1
gene 1 5 28 -2.07732 0 10 -2.07732 1
gene 1 6 27 1.14719 0 11 1.14719 1
gene 1 6 28 2.72216 0 12 2.72216 1
gene 1 7 27 0.107196 0 13 0.107196 1
gene 1 7 28 -5.52115 0 14 -5.52115 0
gene 1 8 27 2.03306 0 15 2.03306 1
gene 1 8 28 -4.52049 0 16 -4.52049 1
gene 1 9 27 -8 0 17 -8 1
gene 1 9 28 2.11497 0 18 2.11497 1
gene 1 10 27 -1.95551 0 19 -1.95551 1
gene 1 10 28 -6.55419 0 20 -6.55419 1
gene 1 11 27 8 0 21 8 1
gene 1 11 28 -2.82881 0 22 -2.82881 1
gene 1 12 27 8 0 23 8 1
gene 1 12 28 -7.91205 0 24 -7.91205 1
gene 1 13 27 2.499 0 25 2.499 1
gene 1 13 28 -4.1591 0 26 -4.1591 1
gene 1 14 27 5.16965 0 27 5.16965 1
gene 1 14 28 3.65411 0 28 3.65411 1
gene 1 15 27 3.75928 0 29 3.75928 1
gene 1 15 28 3.57232 0 30 3.57232 1
gene 1 16 27 -2.00168 0 31 -2.00168 1
gene 1 16 28 3.35924 0 32 3.35924 1
gene 1 17 27 -3.03337 0 33 -3.03337 1
gene 1 17 28 -5.15017 0 34 -5.15017 1
gene 1 18 27 2.28645 0 35 2.28645 1
gene 1 18 28 -4.32367 0 36 -4.32367 1
gene 1 19 27 5.89602 0 37 5.89602 1
gene 1 19 28 1.68946 0 38 1.68946 1
gene 1 20 27 -6.17686 0 39 -6.17686 1
gene 1 20 28 -0.804836 0 40 -0.804836 0
gene 1 21 27 1.65736 0 41 1.65736 1
gene 1 21 28 5.88307 0 42 5.88307 1
gene 1 22 27 2.78501 0 43 2.78501 1
gene 1 22 28 -2.23441 0 44 -2.23441 1
gene 1 23 27 -1.68525 0 45 -1.68525 1
gene 1 23 28 -0.058977 0 46 -0.058977 1
gene 1 24 27 5.04566 0 47 5.04566 1
gene 1 24 28 -0.232162 0 48 -0.232162 1
gene 1 25 27 0.989257 0 49 0.989257 1
gene 1 25 28 -2.67302 0 50 -2.67302 1
gene 1 26 27 7.04901 0 51 7.04901 1
gene 1 26 28 0.568789 0 52 0.568789 1
gene 1 3 32 -1.4283 0 61 -1.4283 1
gene 1 32 27 2.00435 0 62 2.00435 1
gene 1 5 47 -0.637412 0 129 -0.637412 1
gene 1 47 27 -5.2864 0 130 -5.2864 1
gene 1 4 56 0.0592917 0 153 0.0592917 1
gene 1 56 28 -6.32843 0 154 -6.32843 1
gene 1 15 47 0.556124 0 235 0.556124 1
gene 1 13 82 0.546052 0 252 0.546052 1
gene 1 82 28 2.47162 0 253 2.47162 1
gene 1 24 32 -0.571554 0 309 -0.571554 1
gene 1 10 82 -1.70299 0 319 -1.70299 1
gene 1 5 106 2.66928 0 335 2.66928 1
gene 1 106 27 -0.951825 0 336 -0.951825 1
gene 1 12 109 1.44574 0 346 1.44574 1
gene 1 109 27 2.16517 0 347 2.16517 1
gene 1 22 106 -2.943 0 441 -2.943 1
gene 1 20 151 0.685293 0 497 0.685293 1
gene 1 151 28 1.34274 0 498 1.34274 1
gene 1 4 151 -1.46413 0 538 -1.46413 1
gene 1 7 175 4.46463 0 596 4.46463 1
gene 1 175 28 0.890301 0 597 0.890301 1
gene 1 82 56 0.115909 0 642 0.115909 1
genomeend 13

/* Organism #14 Fitness: 0.0448643 Error: 0 */
genomestart 14
trait 1 0 0.675503 0.176587 0.902389 1 0 0 0.0775781 
node 1 1 1 1
node 2 1 1 1
node 3 1 1 1
node 4 1 1 1
node 5 1 1 1
node 6 1 1 1
node 7 1 1 1
node 8 1 1 1
node 9 1 1 1
node 10 1 1 1
node 11 1 1 1
node 12 1 1 1
node 13 1 1 1
node 14 1 1 1
node 15 1 1 1
node 16 1 1 1
node 17 1 1 1
node 18 1 1 1
node 19 1 1 1
node 20 1 1 1
node 21 1 1 1
node 22 1 1 1
node 23 1 1 1
node 24 1 1 1
node 25 1 1 1
node 26 1 1 3
node 27 1 0 2
node 28 1 0 2
node 32 1 0 0
node 47 1 0 0
node 56 1 0 0
node 82 1 0 0
node 106 1 0 0
node 109 1 0 0
node 151 1 0 0
node 175 1 0 0
gene 1 1 27 -1.15688 0 1 -1.15688 1
gene 1 1 28 -3.99533 0 2 -3.99533 1
gene 1 2 27 -0.984527 0 3 -0.984527 1
gene 1 2 28 -8 0 4 -8 1
gene 1 3 27 -2.18473 0 5 -2.18473 1
gene 1 3 28 -2.32553 0 6 -2.32553 1
gene 1 4 27 4.22346 0 7 4.22346 1
gene 1 4 28 3.41161 0 8 3.41161 0
gene 1 5 27 5.27996 0 9 5.27996 1
gene 1 5 28 -2.49245 0 10 -2.49245 1
gene 1 6 27 2.90208 0 11 2.90208 1
gene 1 6 28 2.52928 0 12 2.52928 1
gene 1 7 27 0.567415 0 13 0.567415 1
gene 1 7 28 -6.57732 0 14 -6.57732 0
gene 1 8 27 4.09474 0 15 4.09474 1
gene 1 8 28 -2.79452 0 16 -2.79452 1
gene 1 9 27 -6.71807 0 17 -6.71807 1
gene 1 9 28 3.30588 0 18 3.30588 1
gene 1 10 27 -2.72801 0 19 -2.72801 1
gene 1 10 28 -4.63396 0 20 -4.63396 1
gene 1 11 27 8 0 21 8 1
gene 1 11 28 -0.689843 0 22 -0.689843 1
gene 1 12 27 8 0 23 8 1
gene 1 12 28 -8 0 24 -8 1
gene 1 13 27 0.121383 0 25 0.121383 1
gene 1 13 28 -6.4737 0 26 -6.4737 1
gene 1 14 27 7.06737 0 27 7.06737 1
gene 1 14 28 1.29923 0 28 1.29923 1
gene 1 15 27 5.86917 0 29 5.86917 1
gene 1 15 28 3.5328 0 30 3.5328 1
gene 1 16 27 -2.55422 0 31 -2.55422 1
gene 1 16 28 2.16749 0 32 2.16749 1
gene 1 17 27 -0.818566 0 33 -0.818566 1
gene 1 17 28 -6.50534 0 34 -6.50534 1
gene 1 18 27 3.00363 0 35 3.00363 1
gene 1 18 28 -5.83106 0 36 -5.83106 1
gene 1 19 27 6.95265 0 37 6.95265 1
gene 1 19 28 2.0244 0 38 2.0244 1
gene 1 20 27 -4.76416 0 39 -4.76416 1
gene 1 20 28 -1.37614 0 40 -1.37614 0
gene 1 21 27 3.1739 0 41 3.1739 1
gene 1 21 28 7.78033 0 42 7.78033 1
gene 1 22 27 2.70207 0 43 2.70207 1
gene 1 22 28 -2.63817 0 44 -2.63817 1
gene 1 23 27 -0.380814 0 45 -0.380814 1
gene 1 23 28 -2.1765 0 46 -2.1765 1
gene 1 24 27 4.63831 0 47 4.63831 1
gene 1 24 28 0.356388 0 48 0.356388 1
gene 1 25 27 0.217368 0 49 0.217368 1
gene 1 25 28 -3.71401 0 50 -3.71401 1
gene 1 26 27 6.93609 0 51 6.93609 1
gene 1 26 28 -0.516755 0 52 -0.516755 1
gene 1 3 32 -0.703559 0 61 -0.703559 1
gene 1 32 27 2.49951 0 62 2.49951 1
gene 1 5 47 -1.92468 0 129 -1.92468 1
gene 1 47 27 -5.32935 0 130 -5.32935 1
gene 1 4 56 0.294589 0 153 0.294589 1
gene 1 56 28 -8 0 154 -8 1
gene 1 15 47 -0.134358 0 235 -0.134358 1
gene 1 13 82 1.38516 0 252 1.38516 1
gene 1 82 28 0.320215 0 253 0.320215 1
gene 1 24 32 -0.571554 0 309 -0.571554 1
gene 1 10 82 -0.111221 0 319 -0.111221 1
gene 1 5 106 2.66928 0 335 2.66928 1
gene 1 106 27 1.03424 0 336 1.03424 1
gene 1 12 109 1.44574 0 346 1.44574 1
gene 1 109 27 -0.261812 0 347 -0.261812 1
gene 1 22 106 1.36647 0 441 1.36647 1
gene 1 20 151 -1.20792 0 497 -1.20792 1
gene 1 151 28 0.860393 0 498 0.860393 1
gene 1 4 151 -1.46413 0 538 -1.46413 1
gene 1 7 175 3.08367 0 596 3.08367 1
gene 1 175 28 2.0716 0 597 2.0716 1
genomeend 14

/* Organism #15 Fitness: 0.82872 Error: 0 */
/* ##------$ WINNER 15 SPECIES #37 $------## */
genomestart 15
trait 1 0 0.675503 0.176587 0.902389 1 0 0 0.0775781 
node 1 1 1 1
node 2 1 1 1
node 3 1 1 1
node 4 1 1 1
node 5 1 1 1
node 6 1 1 1
node 7 1 1 1
node 8 1 1 1
node 9 1 1 1
node 10 1 1 1
node 11 1 1 1
node 12 1 1 1
node 13 1 1 1
node 14 1 1 1
node 15 1 1 1
node 16 1 1 1
node 17 1 1 1
node 18 1 1 1
node 19 1 1 1
node 20 1 1 1
node 21 1 1 1
node 22 1 1 1
node 23 1 1 1
node 24 1 1 1
node 25 1 1 1
node 26 1 1 3
node 27 1 0 2
node 28 1 0 2
node 32 1 0 0
node 47 1 0 0
node 56 1 0 0
node 82 1 0 0
node 106 1 0 0
node 109 1 0 0
node 151 1 0 0
node 175 1 0 0
gene 1 1 27 2.11203 0 1 2.11203 1
gene 1 1 28 -2.95473 0 2 -2.95473 1
gene 1 2 27 1.96242 0 3 1.96242 1
gene 1 2 28 -8 0 4 -8 1
gene 1 3 27 -0.896624 0 5 -0.896624 1
gene 1 3 28 -0.176855 0 6 -0.176855 1
gene 1 4 27 2.31316 0 7 2.31316 1
gene 1 4 28 0.78114 0 8 0.78114 0
gene 1 5 27 4.44421 0 9 4.44421 1
gene 1 5 28 -0.507828 0 10 -0.507828 1
gene 1 6 27 2.50053 0 11 2.50053 1
gene 1 6 28 2.72216 0 12 2.72216 1
gene 1 7 27 0.778832 0 13 0.778832 1
gene 1 7 28 -4.22793 0 14 -4.22793 0
gene 1 8 27 0.469294 0 15 0.469294 1
gene 1 8 28 -5.13964 0 16 -5.13964 1
gene 1 9 27 -6.89279 0 17 -6.89279 1
gene 1 9 28 -1.75184 0 18 -1.75184 1
gene 1 10 27 -3.45503 0 19 -3.45503 1
gene 1 10 28 -5.41638 0 20 -5.41638 1
gene 1 11 27 8 0 21 8 1
gene 1 11 28 -0.108798 0 22 -0.108798 1
gene 1 12 27 5.73713 0 23 5.73713 1
gene 1 12 28 -8 0 24 -8 1
gene 1 13 27 3.56257 0 25 3.56257 1
gene 1 13 28 -1.87613 0 26 -1.87613 1
gene 1 14 27 4.15598 0 27 4.15598 1
gene 1 14 28 -0.341807 0 28 -0.341807 1
gene 1 15 27 1.03534 0 29 1.03534 1
gene 1 15 28 4.72058 0 30 4.72058 1
gene 1 16 27 -0.78918 0 31 -0.78918 1
gene 1 16 28 0.886938 0 32 0.886938 1
gene 1 17 27 -1.0625 0 33 -1.0625 1
gene 1 17 28 1.15345 0 34 1.15345 1
gene 1 18 27 1.7935 0 35 1.7935 1
gene 1 18 28 -2.8552 0 36 -2.8552 1
gene 1 19 27 -1.50365 0 37 -1.50365 1
gene 1 19 28 1.64468 0 38 1.64468 1
gene 1 20 27 -3.79894 0 39 -3.79894 1
gene 1 20 28 -1.30259 0 40 -1.30259 0
gene 1 21 27 2.84842 0 41 2.84842 1
gene 1 21 28 6.48482 0 42 6.48482 1
gene 1 22 27 3.17168 0 43 3.17168 1
gene 1 22 28 -3.56708 0 44 -3.56708 1
gene 1 23 27 -0.737327 0 45 -0.737327 1
gene 1 23 28 1.20617 0 46 1.20617 1
gene 1 24 27 2.16231 0 47 2.16231 1
gene 1 24 28 -2.11477 0 48 -2.11477 1
gene 1 25 27 0.239952 0 49 0.239952 1
gene 1 25 28 -4.84991 0 50 -4.84991 1
gene 1 26 27 8 0 51 8 1
gene 1 26 28 2.8531 0 52 2.8531 1
gene 1 3 32 -2.86152 0 61 -2.86152 1
gene 1 32 27 3.15063 0 62 3.15063 1
gene 1 5 47 1.76752 0 129 1.76752 1
gene 1 47 27 -0.0997955 0 130 -0.0997955 1
gene 1 4 56 1.3857 0 153 1.3857 1
gene 1 56 28 0.715583 0 154 0.715583 1
gene 1 15 47 0.238807 0 235 0.238807 1
gene 1 13 82 1.9631 0 252 1.9631 1
gene 1 82 28 4.11039 0 253 4.11039 1
gene 1 24 32 0.673753 0 309 0.673753 1
gene 1 10 82 0.738872 0 319 0.738872 1
gene 1 5 106 3.56988 0 335 3.56988 1
gene 1 106 27 0.487505 0 336 0.487505 1
gene 1 12 109 -1.19213 0 346 -1.19213 1
gene 1 109 27 4.17894 0 347 4.17894 1
gene 1 22 106 -0.0901822 0 441 -0.0901822 1
gene 1 20 151 0.685293 0 497 0.685293 1
gene 1 151 28 -0.658742 0 498 -0.658742 1
gene 1 4 151 0.228584 0 538 0.228584 1
gene 1 7 175 2.47246 0 596 2.47246 1
gene 1 175 28 0.890301 0 597 0.890301 1
genomeend 15

/* Organism #16 Fitness: 0.0448643 Error: 0 */
genomestart 16
trait 1 0 0.675503 0.176587 0.902389 1 0 0 0.0775781 
node 1 1 1 1
node 2 1 1 1
node 3 1 1 1
node 4 1 1 1
node 5 1 1 1
node 6 1 1 1
node 7 1 1 1
node 8 1 1 1
node 9 1 1 1
node 10 1 1 1
node 11 1 1 1
node 12 1 1 1
node 13 1 1 1
node 14 1 1 1
node 15 1 1 1
node 16 1 1 1
node 17 1 1 1
node 18 1 1 1
node 19 1 1 1
node 20 1 1 1
node 21 1 1 1
node 22 1 1 1
node 23 1 1 1
node 24 1 1 1
node 25 1 1 1
node 26 1 1 3
node 27 1 0 2
node 28 1 0 2
node 32 1 0 0
node 47 1 0 0
node 56 1 0 0
node 82 1 0 0
node 106 1 0 0
node 109 1 0 0
node 151 1 0 0
node 175 1 0 0
gene 1 1 27 1.80349 0 1 1.80349 1
gene 1 1 28 -4.93271 0 2 -4.93271 1
gene 1 2 27 -1.14948 0 3 -1.14948 1
gene 1 2 28 -6.23809 0 4 -6.23809 1
gene 1 3 27 -3.53854 0 5 -3.53854 1
gene 1 3 28 -6.89789 0 6 -6.89789 1
gene 1 4 27 4.2784 0 7 4.2784 1
gene 1 4 28 1.25021 0 8 1.25021 0
gene 1 5 27 3.34363 0 9 3.34363 1
gene 1 5 28 0.0886563 0 10 0.0886563 1
gene 1 6 27 -0.608081 0 11 -0.608081 1
gene 1 6 28 0.550463 0 12 0.550463 1
gene 1 7 27 -1.38386 0 13 -1.38386 1
gene 1 7 28 -5.79048 0 14 -5.79048 0
gene 1 8 27 2.38128 0 15 2.38128 1
gene 1 8 28 -6.34909 0 16 -6.34909 1
gene 1 9 27 -8 0 17 -8 1
gene 1 9 28 0.516106 0 18 0.516106 1
gene 1 10 27 -1.8712 0 19 -1.8712 1
gene 1 10 28 -6.79757 0 20 -6.79757 1
gene 1 11 27 8 0 21 8 1
gene 1 11 28 -4.013 0 22 -4.013 1
gene 1 12 27 6.81985 0 23 6.81985 1
gene 1 12 28 -8 0 24 -8 1
gene 1 13 27 4.81086 0 25 4.81086 1
gene 1 13 28 -3.4587 0 26 -3.4587 1
gene 1 14 27 7.30793 0 27 7.30793 1
gene 1 14 28 2.75214 0 28 2.75214 1
gene 1 15 27 1.83356 0 29 1.83356 1
gene 1 15 28 3.5415 0 30 3.5415 1
gene 1 16 27 -0.691902 0 31 -0.691902 1
gene 1 16 28 1.93151 0 32 1.93151 1
gene 1 17 27 -1.17327 0 33 -1.17327 1
gene 1 17 28 -6.47925 0 34 -6.47925 1
gene 1 18 27 1.32939 0 35 1.32939 1
gene 1 18 28 -4.72407 0 36 -4.72407 1
gene 1 19 27 4.91462 0 37 4.91462 1
gene 1 19 28 1.10755 0 38 1.10755 1
gene 1 20 27 -4.86068 0 39 -4.86068 1
gene 1 20 28 -3.05161 0 40 -3.05161 0
gene 1 21 27 0.996479 0 41 0.996479 1
gene 1 21 28 7.55464 0 42 7.55464 1
gene 1 22 27 0.625822 0 43 0.625822 1
gene 1 22 28 -3.55441 0 44 -3.55441 1
gene 1 23 27 -0.348006 0 45 -0.348006 1
gene 1 23 28 0.379192 0 46 0.379192 1
gene 1 24 27 3.18891 0 47 3.18891 1
gene 1 24 28 -1.19517 0 48 -1.19517 1
gene 1 25 27 2.56806 0 49 2.56806 1
gene 1 25 28 -1.43039 0 50 -1.43039 1
gene 1 26 27 5.60815 0 51 5.60815 1
gene 1 26 28 0.638752 0 52 0.638752 1
gene 1 3 32 0.718222 0 61 0.718222 1
gene 1 32 27 0.975877 0 62 0.975877 1
gene 1 5 47 -1.80436 0 129 -1.80436 1
gene 1 47 27 -3.13652 0 130 -3.13652 1
gene 1 4 56 0.00329028 0 153 0.00329028 1
gene 1 56 28 -5.44332 0 154 -5.44332 1
gene 1 15 47 2.63291 0 235 2.63291 1
gene 1 13 82 -1.46306 0 252 -1.46306 1
gene 1 82 28 2.49908 0 253 2.49908 1
gene 1 24 32 -1.7762 0 309 -1.7762 1
gene 1 10 82 -1.81263 0 319 -1.81263 1
gene 1 5 106 2.66928 0 335 2.66928 1
gene 1 106 27 -0.951825 0 336 -0.951825 1
gene 1 12 109 -0.265893 0 346 -0.265893 1
gene 1 109 27 2.16517 0 347 2.16517 1
gene 1 22 106 -2.943 0 441 -2.943 1
gene 1 20 151 -1.77442 0 497 -1.77442 1
gene 1 151 28 -2.26524 0 498 -2.26524 1
gene 1 4 151 -2.30308 0 538 -2.30308 1
gene 1 7 175 5.40513 0 596 5.40513 1
gene 1 175 28 0.123371 0 597 0.123371 1
genomeend 16

/* Organism #17 Fitness: 0.0320071 Error: 0 */
genomestart 17
trait 1 0 0.675503 0.176587 0.902389 1 0 0 0.0775781 
node 1 1 1 1
node 2 1 1 1
node 3 1 1 1
node 4 1 1 1
node 5 1 1 1
node 6 1 1 1
node 7 1 1 1
node 8 1 1 1
node 9 1 1 1
node 10 1 1 1
node 11 1 1 1
node 12 1 1 1
node 13 1 1 1
node 14 1 1 1
node 15 1 1 1
node 16 1 1 1
node 17 1 1 1
node 18 1 1 1
node 19 1 1 1
node 20 1 1 1
node 21 1 1 1
node 22 1 1 1
node 23 1 1 1
node 24 1 1 1
node 25 1 1 1
node 26 1 1 3
node 27 1 0 2
node 28 1 0 2
node 32 1 0 0
node 47 1 0 0
node 56 1 0 0
node 82 1 0 0
node 106 1 0 0
node 109 1 0 0
node 151 1 0 0
node 175 1 0 0
gene 1 1 27 1.94258 0 1 1.94258 1
gene 1 1 28 0.0225074 0 2 0.0225074 1
gene 1 2 27 1.63533 0 3 1.63533 1
gene 1 2 28 -8 0 4 -8 1
gene 1 3 27 0.974694 0 5 0.974694 1
gene 1 3 28 -4.5559 0 6 -4.5559 1
gene 1 4 27 3.48026 0 7 3.48026 1
gene 1 4 28 2.00509 0 8 2.00509 0
gene 1 5 27 5.5077 0 9 5.5077 1
gene 1 5 28 -0.547349 0 10 -0.547349 1
gene 1 6 27 1.14719 0 11 1.14719 1
gene 1 6 28 4.2062 0 12 4.2062 1
gene 1 7 27 1.1993 0 13 1.1993 1
gene 1 7 28 -4.98296 0 14 -4.98296 0
gene 1 8 27 -0.36287 0 15 -0.36287 1
gene 1 8 28 -6.53899 0 16 -6.53899 1
gene 1 9 27 -7.27877 0 17 -7.27877 1
gene 1 9 28 0.208174 0 18 0.208174 1
gene 1 10 27 -3.65569 0 19 -3.65569 1
gene 1 10 28 0.0480667 0 20 0.0480667 1
gene 1 11 27 2.05473 0 21 2.05473 1
gene 1 11 28 -2.92853 0 22 -2.92853 1
gene 1 12 27 -1.94693 0 23 -1.94693 1
gene 1 12 28 -7.91205 0 24 -7.91205 1
gene 1 13 27 1.11171 0 25 1.11171 1
gene 1 13 28 -6.41717 0 26 -6.41717 1
gene 1 14 27 -2.49084 0 27 -2.49084 1
gene 1 14 28 4.22839 0 28 4.22839 1
gene 1 15 27 -0.467544 0 29 -0.467544 1
gene 1 15 28 -0.976211 0 30 -0.976211 1
gene 1 16 27 -4.14065 0 31 -4.14065 1
gene 1 16 28 3.35924 0 32 3.35924 1
gene 1 17 27 -1.24224 0 33 -1.24224 1
gene 1 17 28 -5.15017 0 34 -5.15017 1
gene 1 18 27 2.91383 0 35 2.91383 1
gene 1 18 28 0.742821 0 36 0.742821 1
gene 1 19 27 6.6689 0 37 6.6689 1
gene 1 19 28 -0.255252 0 38 -0.255252 1
gene 1 20 27 -0.532929 0 39 -0.532929 1
gene 1 20 28 -0.0814081 0 40 -0.0814081 0
gene 1 21 27 -2.22129 0 41 -2.22129 1
gene 1 21 28 6.30544 0 42 6.30544 1
gene 1 22 27 2.95034 0 43 2.95034 1
gene 1 22 28 -2.06297 0 44 -2.06297 1
gene 1 23 27 -3.9717 0 45 -3.9717 1
gene 1 23 28 -0.058977 0 46 -0.058977 1
gene 1 24 27 3.30694 0 47 3.30694 1
gene 1 24 28 0.175794 0 48 0.175794 1
gene 1 25 27 1.79266 0 49 1.79266 1
gene 1 25 28 -2.30283 0 50 -2.30283 1
gene 1 26 27 0.367748 0 51 0.367748 1
gene 1 26 28 -0.735343 0 52 -0.735343 1
gene 1 3 32 -1.6314 0 61 -1.6314 1
gene 1 32 27 0.611791 0 62 0.611791 1
gene 1 5 47 -1.32339 0 129 -1.32339 1
gene 1 47 27 -7.64533 0 130 -7.64533 1
gene 1 4 56 0.971719 0 153 0.971719 1
gene 1 56 28 -6.57403 0 154 -6.57403 1
gene 1 15 47 1.63335 0 235 1.63335 1
gene 1 13 82 2.40829 0 252 2.40829 1
gene 1 82 28 2.47162 0 253 2.47162 1
gene 1 24 32 2.14072 0 309 2.14072 1
gene 1 10 82 -0.494228 0 319 -0.494228 1
gene 1 5 106 2.54568 0 335 2.54568 1
gene 1 106 27 0.445618 0 336 0.445618 1
gene 1 12 109 1.44574 0 346 1.44574 1
gene 1 109 27 3.90175 0 347 3.90175 1
gene 1 22 106 -1.58493 0 441 -1.58493 1
gene 1 20 151 1.14429 0 497 1.14429 1
gene 1 151 28 0.953398 0 498 0.953398 1
gene 1 4 151 2.44148 0 538 2.44148 1
gene 1 7 175 0.712912 0 596 0.712912 1
gene 1 175 28 2.11837 0 597 2.11837 1
genomeend 17

/* Organism #18 Fitness: 0.79124 Error: 0 */
/* ##------$ WINNER 18 SPECIES #37 $------## */
genomestart 18
trait 1 0 0.673004 0.177251 1 1 0.202124 0 0.341197 
node 1 1 1 1
node 2 1 1 1
node 3 1 1 1
node 4 1 1 1
node 5 1 1 1
node 6 1 1 1
node 7 1 1 1
node 8 1 1 1
node 9 1 1 1
node 10 1 1 1
node 11 1 1 1
node 12 1 1 1
node 13 1 1 1
node 14 1 1 1
node 15 1 1 1
node 16 1 1 1
node 17 1 1 1
node 18 1 1 1
node 19 1 1 1
node 20 1 1 1
node 21 1 1 1
node 22 1 1 1
node 23 1 1 1
node 24 1 1 1
node 25 1 1 1
node 26 1 1 3
node 27 1 0 2
node 28 1 0 2
node 32 1 0 0
node 47 1 0 0
node 56 1 0 0
node 82 1 0 0
node 106 1 0 0
node 109 1 0 0
node 151 1 0 0
node 175 1 0 0
gene 1 1 27 6.86502 0 1 6.86502 1
gene 1 1 28 -2.26882 0 2 -2.26882 1
gene 1 2 27 -2.26455 0 3 -2.26455 1
gene 1 2 28 -5.92886 0 4 -5.92886 1
gene 1 3 27 0.801807 0 5 0.801807 1
gene 1 3 28 -0.424992 0 6 -0.424992 1
gene 1 4 27 4.4126 0 7 4.4126 1
gene 1 4 28 4.09202 0 8 4.09202 0
gene 1 5 27 -3.17278 0 9 -3.17278 1
gene 1 5 28 -4.84939 0 10 -4.84939 1
gene 1 6 27 2.0999 0 11 2.0999 1
gene 1 6 28 0.788326 0 12 0.788326 1
gene 1 7 27 -3.19329 0 13 -3.19329 1
gene 1 7 28 -7.09942 0 14 -7.09942 0
gene 1 8 27 1.64136 0 15 1.64136 1
gene 1 8 28 0.698486 0 16 0.698486 1
gene 1 9 27 -8 0 17 -8 1
gene 1 9 28 5.12501 0 18 5.12501 1
gene 1 10 27 -0.130424 0 19 -0.130424 1
gene 1 10 28 -5.79855 0 20 -5.79855 1
gene 1 11 27 8 0 21 8 1
gene 1 11 28 -3.11088 0 22 -3.11088 1
gene 1 12 27 7.64331 0 23 7.64331 1
gene 1 12 28 2.75338 0 24 2.75338 1
gene 1 13 27 4.05568 0 25 4.05568 1
gene 1 13 28 0.256546 0 26 0.256546 1
gene 1 14 27 5.0102 0 27 5.0102 1
gene 1 14 28 2.9219 0 28 2.9219 1
gene 1 15 27 7.01896 0 29 7.01896 1
gene 1 15 28 4.95565 0 30 4.95565 1
gene 1 16 27 1.69773 0 31 1.69773 1
gene 1 16 28 5.21011 0 32 5.21011 1
gene 1 17 27 1.11921 0 33 1.11921 1
gene 1 17 28 -5.54424 0 34 -5.54424 1
gene 1 18 27 2.3056 0 35 2.3056 1
gene 1 18 28 3.02477 0 36 3.02477 1
gene 1 19 27 5.99948 0 37 5.99948 1
gene 1 19 28 2.14243 0 38 2.14243 1
gene 1 20 27 -4.42106 0 39 -4.42106 1
gene 1 20 28 1.66701 0 40 1.66701 0
gene 1 21 27 0.417875 0 41 0.417875 1
gene 1 21 28 6.69158 0 42 6.69158 1
gene 1 22 27 3.60382 0 43 3.60382 1
gene 1 22 28 -3.79505 0 44 -3.79505 1
gene 1 23 27 -4.53774 0 45 -4.53774 1
gene 1 23 28 -1.30627 0 46 -1.30627 1
gene 1 24 27 4.62214 0 47 4.62214 1
gene 1 24 28 3.01325 0 48 3.01325 1
gene 1 25 27 -0.84872 0 49 -0.84872 1
gene 1 25 28 -2.68569 0 50 -2.68569 1
gene 1 26 27 8 0 51 8 1
gene 1 26 28 -0.744575 0 52 -0.744575 1
gene 1 3 32 -4.55561 0 61 -4.55561 1
gene 1 32 27 3.69157 0 62 3.69157 1
gene 1 5 47 -0.611472 0 129 -0.611472 1
gene 1 47 27 -3.82899 0 130 -3.82899 1
gene 1 4 56 2.15469 0 153 2.15469 1
gene 1 56 28 -6.00578 0 154 -6.00578 1
gene 1 15 47 0.324946 0 235 0.324946 1
gene 1 13 82 0.433244 0 252 0.433244 1
gene 1 82 28 1.95425 0 253 1.95425 1
gene 1 24 32 0.571154 0 309 0.571154 1
gene 1 10 82 -3.70455 0 319 -3.70455 1
gene 1 5 106 4.13348 0 335 4.13348 1
gene 1 106 27 -1.84922 0 336 -1.84922 1
gene 1 12 109 -0.99498 0 346 -0.99498 1
gene 1 109 27 1.38958 0 347 1.38958 1
gene 1 22 106 -2.19194 0 441 -2.19194 1
gene 1 20 151 2.67991 0 497 2.67991 1
gene 1 151 28 0.996353 0 498 0.996353 1
gene 1 4 151 -2.90452 0 538 -2.90452 1
gene 1 7 175 -0.530412 0 596 -0.530412 1
gene 1 175 28 2.17765 0 597 2.17765 1
genomeend 18

/* Species #39 : (Size 11) (AF 0) (Age 16)  */


/* Organism #19 Fitness: 0.82428 Error: 0 */
/* ##------$ WINNER 19 SPECIES #39 $------## */
genomestart 19
trait 1 0 0 0.0758576 0 0 0 0 0 
node 1 1 1 1
node 2 1 1 1
node 3 1 1 1
node 4 1 1 1
node 5 1 1 1
node 6 1 1 1
node 7 1 1 1
node 8 1 1 1
node 9 1 1 1
node 10 1 1 1
node 11 1 1 1
node 12 1 1 1
node 13 1 1 1
node 14 1 1 1
node 15 1 1 1
node 16 1 1 1
node 17 1 1 1
node 18 1 1 1
node 19 1 1 1
node 20 1 1 1
node 21 1 1 1
node 22 1 1 1
node 23 1 1 1
node 24 1 1 1
node 25 1 1 1
node 26 1 1 3
node 27 1 0 2
node 28 1 0 2
node 32 1 0 0
node 48 1 0 0
node 55 1 0 0
node 64 1 0 0
node 68 1 0 0
node 89 1 0 0
node 153 1 0 0
node 171 1 0 0
gene 1 1 27 3.56031 0 1 3.56031 1
gene 1 1 28 -0.548054 0 2 -0.548054 1
gene 1 2 27 0.700854 0 3 0.700854 1
gene 1 2 28 0.174683 0 4 0.174683 1
gene 1 3 27 -5.25431 0 5 -5.25431 1
gene 1 3 28 6.34953 0 6 6.34953 1
gene 1 4 27 -6.03344 0 7 -6.03344 1
gene 1 4 28 2.28853 0 8 2.28853 1
gene 1 5 27 -2.53112 0 9 -2.53112 1
gene 1 5 28 -1.87632 0 10 -1.87632 1
gene 1 6 2