
/* Species #52 : (Size 12) (AF 0) (Age 28)  */


/* Organism #0 Fitness: 0.387721 Error: 0 */
genomestart 0
trait 1 0 0.515183 0.0149264 0.631214 0.627167 0.0367882 0.124161 0.878852 
node 1 1 1 1
node 2 1 1 1
node 3 1 1 1
node 4 1 1 1
node 5 1 1 1
node 6 1 1 1
node 7 1 1 1
node 8 1 1 1
node 9 1 1 1
node 10 1 1 1
node 11 1 1 1
node 12 1 1 1
node 13 1 1 1
node 14 1 1 1
node 15 1 1 1
node 16 1 1 1
node 17 1 1 1
node 18 1 1 1
node 19 1 1 1
node 20 1 1 1
node 21 1 1 1
node 22 1 1 1
node 23 1 1 1
node 24 1 1 1
node 25 1 1 1
node 26 1 1 1
node 27 1 1 3
node 28 1 0 2
node 29 1 0 2
node 37 1 0 0
node 128 1 0 0
node 143 1 0 0
node 188 1 0 0
node 233 1 0 0
gene 1 1 28 -0.290155 0 1 -0.290155 1
gene 1 1 29 -7.81918 0 2 -7.81918 1
gene 1 2 28 0.858676 0 3 0.858676 1
gene 1 2 29 -8 0 4 -8 1
gene 1 3 28 2.39963 0 5 2.39963 1
gene 1 3 29 0.795923 0 6 0.795923 1
gene 1 4 28 6.99339 0 7 6.99339 1
gene 1 4 29 -3.0282 0 8 -3.0282 1
gene 1 5 28 -3.63714 0 9 -3.63714 1
gene 1 5 29 5.27478 0 10 5.27478 1
gene 1 6 28 0.910558 0 11 0.910558 1
gene 1 6 29 3.37661 0 12 3.37661 1
gene 1 7 28 0.763421 0 13 0.763421 1
gene 1 7 29 2.30449 0 14 2.30449 1
gene 1 8 28 -5.21366 0 15 -5.21366 1
gene 1 8 29 -4.04585 0 16 -4.04585 1
gene 1 9 28 1.38081 0 17 1.38081 1
gene 1 9 29 1.8783 0 18 1.8783 1
gene 1 10 28 -8 0 19 -8 1
gene 1 10 29 -0.374538 0 20 -0.374538 1
gene 1 11 28 0.163083 0 21 0.163083 1
gene 1 11 29 7.78383 0 22 7.78383 1
gene 1 12 28 -2.77923 0 23 -2.77923 1
gene 1 12 29 -0.33207 0 24 -0.33207 0
gene 1 13 28 -0.584506 0 25 -0.584506 1
gene 1 13 29 -3.52882 0 26 -3.52882 1
gene 1 14 28 -4.19648 0 27 -4.19648 1
gene 1 14 29 0.30076 0 28 0.30076 1
gene 1 15 28 2.10487 0 29 2.10487 0
gene 1 15 29 4.41043 0 30 4.41043 1
gene 1 16 28 -4.44159 0 31 -4.44159 1
gene 1 16 29 3.87937 0 32 3.87937 1
gene 1 17 28 -4.71457 0 33 -4.71457 1
gene 1 17 29 0.938511 0 34 0.938511 1
gene 1 18 28 -2.02803 0 35 -2.02803 1
gene 1 18 29 -2.40364 0 36 -2.40364 0
gene 1 19 28 -8 0 37 -8 1
gene 1 19 29 -1.7365 0 38 -1.7365 1
gene 1 20 28 1.32054 0 39 1.32054 1
gene 1 20 29 0.0823904 0 40 0.0823904 1
gene 1 21 28 7.77061 0 41 7.77061 1
gene 1 21 29 2.43767 0 42 2.43767 1
gene 1 22 28 -5.12428 0 43 -5.12428 1
gene 1 22 29 0.555895 0 44 0.555895 1
gene 1 23 28 -0.111393 0 45 -0.111393 0
gene 1 23 29 2.72237 0 46 2.72237 1
gene 1 24 28 -2.88869 0 47 -2.88869 1
gene 1 24 29 -1.53363 0 48 -1.53363 1
gene 1 25 28 -5.74125 0 49 -5.74125 1
gene 1 25 29 -5.37152 0 50 -5.37152 1
gene 1 26 28 -6.32728 0 51 -6.32728 1
gene 1 26 29 -0.0331889 0 52 -0.0331889 1
gene 1 27 28 -4.18494 0 53 -4.18494 1
gene 1 27 29 3.70663 0 54 3.70663 1
gene 1 19 37 -3.67977 0 73 -3.67977 1
gene 1 37 29 -1.05632 0 74 -1.05632 1
gene 1 14 37 -2.0266 0 81 -2.0266 1
gene 1 27 37 3.35768 0 188 3.35768 1
gene 1 1 37 2.73225 0 236 2.73225 1
gene 1 24 37 -2.33329 0 251 -2.33329 1
gene 1 25 37 0.814386 0 415 0.814386 1
gene 1 15 128 1.60945 0 434 1.60945 1
gene 1 128 28 0.303545 0 435 0.303545 1
gene 1 14 128 0.583666 0 484 0.583666 1
gene 1 12 143 -0.981323 0 492 -0.981323 1
gene 1 143 29 -3.71048 0 493 -3.71048 1
gene 1 12 128 -0.733264 0 629 -0.733264 1
gene 1 22 143 -2.16407 0 654 -2.16407 1
gene 1 18 188 0.389645 0 667 0.389645 1
gene 1 188 29 -2.67769 0 668 -2.67769 1
gene 1 23 233 1.80111 0 850 1.80111 1
gene 1 233 28 -7.77872 0 851 -7.77872 1
gene 1 19 128 0.0559252 0 873 0.0559252 1
genomeend 0

/* Organism #1 Fitness: 0.387721 Error: 0 */
genomestart 1
trait 1 0 0.515183 0.0149264 0.631214 0.627167 0.0367882 0.124161 0.878852 
node 1 1 1 1
node 2 1 1 1
node 3 1 1 1
node 4 1 1 1
node 5 1 1 1
node 6 1 1 1
node 7 1 1 1
node 8 1 1 1
node 9 1 1 1
node 10 1 1 1
node 11 1 1 1
node 12 1 1 1
node 13 1 1 1
node 14 1 1 1
node 15 1 1 1
node 16 1 1 1
node 17 1 1 1
node 18 1 1 1
node 19 1 1 1
node 20 1 1 1
node 21 1 1 1
node 22 1 1 1
node 23 1 1 1
node 24 1 1 1
node 25 1 1 1
node 26 1 1 1
node 27 1 1 3
node 28 1 0 2
node 29 1 0 2
node 37 1 0 0
node 128 1 0 0
node 143 1 0 0
node 188 1 0 0
node 233 1 0 0
gene 1 1 28 -0.290155 0 1 -0.290155 1
gene 1 1 29 -7.81918 0 2 -7.81918 1
gene 1 2 28 0.858676 0 3 0.858676 1
gene 1 2 29 -8 0 4 -8 1
gene 1 3 28 2.39963 0 5 2.39963 1
gene 1 3 29 0.795923 0 6 0.795923 1
gene 1 4 28 6.99339 0 7 6.99339 1
gene 1 4 29 -3.0282 0 8 -3.0282 1
gene 1 5 28 -3.63714 0 9 -3.63714 1
gene 1 5 29 5.27478 0 10 5.27478 1
gene 1 6 28 0.910558 0 11 0.910558 1
gene 1 6 29 3.37661 0 12 3.37661 1
gene 1 7 28 0.763421 0 13 0.763421 1
gene 1 7 29 2.30449 0 14 2.30449 1
gene 1 8 28 -5.21366 0 15 -5.21366 1
gene 1 8 29 -4.04585 0 16 -4.04585 1
gene 1 9 28 1.38081 0 17 1.38081 1
gene 1 9 29 1.8783 0 18 1.8783 1
gene 1 10 28 -8 0 19 -8 1
gene 1 10 29 -0.374538 0 20 -0.374538 1
gene 1 11 28 0.163083 0 21 0.163083 1
gene 1 11 29 7.78383 0 22 7.78383 1
gene 1 12 28 -2.77923 0 23 -2.77923 1
gene 1 12 29 -0.33207 0 24 -0.33207 1
gene 1 13 28 -0.584506 0 25 -0.584506 1
gene 1 13 29 -3.52882 0 26 -3.52882 1
gene 1 14 28 -4.19648 0 27 -4.19648 1
gene 1 14 29 0.30076 0 28 0.30076 1
gene 1 15 28 2.10487 0 29 2.10487 1
gene 1 15 29 4.41043 0 30 4.41043 1
gene 1 16 28 -4.44159 0 31 -4.44159 1
gene 1 16 29 3.87937 0 32 3.87937 1
gene 1 17 28 -4.71457 0 33 -4.71457 1
gene 1 17 29 0.938511 0 34 0.938511 1
gene 1 18 28 -2.02803 0 35 -2.02803 1
gene 1 18 29 -2.40364 0 36 -2.40364 0
gene 1 19 28 -8 0 37 -8 1
gene 1 19 29 -1.7365 0 38 -1.7365 1
gene 1 20 28 1.32054 0 39 1.32054 1
gene 1 20 29 0.0823904 0 40 0.0823904 1
gene 1 21 28 7.77061 0 41 7.77061 1
gene 1 21 29 2.43767 0 42 2.43767 1
gene 1 22 28 -5.12428 0 43 -5.12428 1
gene 1 22 29 0.555895 0 44 0.555895 1
gene 1 23 28 -0.111393 0 45 -0.111393 1
gene 1 23 29 2.72237 0 46 2.72237 1
gene 1 24 28 -2.88869 0 47 -2.88869 1
gene 1 24 29 -1.53363 0 48 -1.53363 1
gene 1 25 28 -5.74125 0 49 -5.74125 1
gene 1 25 29 -5.37152 0 50 -5.37152 1
gene 1 26 28 -6.32728 0 51 -6.32728 1
gene 1 26 29 -0.0331889 0 52 -0.0331889 1
gene 1 27 28 -4.18494 0 53 -4.18494 1
gene 1 27 29 3.70663 0 54 3.70663 1
gene 1 19 37 -3.67977 0 73 -3.67977 1
gene 1 37 29 -1.05632 0 74 -1.05632 1
gene 1 14 37 -2.0266 0 81 -2.0266 1
gene 1 27 37 3.35768 0 188 3.35768 1
gene 1 1 37 2.73225 0 236 2.73225 1
gene 1 24 37 -2.33329 0 251 -2.33329 1
gene 1 25 37 0.814386 0 415 0.814386 1
gene 1 15 128 1.60945 0 434 1.60945 1
gene 1 128 28 0.303545 0 435 0.303545 1
gene 1 14 128 0.583666 0 484 0.583666 1
gene 1 12 143 -0.981323 0 492 -0.981323 1
gene 1 143 29 -3.71048 0 493 -3.71048 1
gene 1 12 128 -0.733264 0 629 -0.733264 1
gene 1 22 143 -2.16407 0 654 -2.16407 1
gene 1 18 188 0.389645 0 667 0.389645 1
gene 1 188 29 -2.67769 0 668 -2.67769 1
gene 1 23 233 1.80111 0 850 1.80111 1
gene 1 233 28 -7.77872 0 851 -7.77872 1
gene 1 19 128 0.0559252 0 873 0.0559252 1
gene 1 17 188 0.138981 0 896 0.138981 1
genomeend 1

/* Organism #2 Fitness: 0.0705786 Error: 0 */
genomestart 2
trait 1 0 0.515183 0.0149264 0.631214 0.627167 0.0367882 0 0.878852 
node 1 1 1 1
node 2 1 1 1
node 3 1 1 1
node 4 1 1 1
node 5 1 1 1
node 6 1 1 1
node 7 1 1 1
node 8 1 1 1
node 9 1 1 1
node 10 1 1 1
node 11 1 1 1
node 12 1 1 1
node 13 1 1 1
node 14 1 1 1
node 15 1 1 1
node 16 1 1 1
node 17 1 1 1
node 18 1 1 1
node 19 1 1 1
node 20 1 1 1
node 21 1 1 1
node 22 1 1 1
node 23 1 1 1
node 24 1 1 1
node 25 1 1 1
node 26 1 1 1
node 27 1 1 3
node 28 1 0 2
node 29 1 0 2
node 37 1 0 0
node 128 1 0 0
node 143 1 0 0
node 188 1 0 0
node 233 1 0 0
gene 1 1 28 0.828959 0 1 0.828959 1
gene 1 1 29 -7.55 0 2 -7.55 1
gene 1 2 28 -0.77559 0 3 -0.77559 1
gene 1 2 29 -6.26891 0 4 -6.26891 1
gene 1 3 28 1.90043 0 5 1.90043 1
gene 1 3 29 -0.338145 0 6 -0.338145 1
gene 1 4 28 6.67814 0 7 6.67814 1
gene 1 4 29 -3.49986 0 8 -3.49986 1
gene 1 5 28 -1.66457 0 9 -1.66457 1
gene 1 5 29 3.38805 0 10 3.38805 1
gene 1 6 28 -1.28845 0 11 -1.28845 1
gene 1 6 29 1.75043 0 12 1.75043 1
gene 1 7 28 2.1849 0 13 2.1849 1
gene 1 7 29 4.11363 0 14 4.11363 1
gene 1 8 28 -3.2739 0 15 -3.2739 1
gene 1 8 29 -4.03944 0 16 -4.03944 1
gene 1 9 28 -0.0320444 0 17 -0.0320444 1
gene 1 9 29 0.24472 0 18 0.24472 1
gene 1 10 28 -6.34231 0 19 -6.34231 1
gene 1 10 29 -0.218894 0 20 -0.218894 1
gene 1 11 28 0.423711 0 21 0.423711 1
gene 1 11 29 7.67893 0 22 7.67893 1
gene 1 12 28 -2.778 0 23 -2.778 1
gene 1 12 29 -0.743002 0 24 -0.743002 1
gene 1 13 28 -1.67295 0 25 -1.67295 1
gene 1 13 29 -2.98559 0 26 -2.98559 1
gene 1 14 28 -5.40616 0 27 -5.40616 1
gene 1 14 29 -1.66532 0 28 -1.66532 1
gene 1 15 28 2.99677 0 29 2.99677 0
gene 1 15 29 2.00412 0 30 2.00412 1
gene 1 16 28 -2.76589 0 31 -2.76589 1
gene 1 16 29 3.44593 0 32 3.44593 1
gene 1 17 28 -6.81577 0 33 -6.81577 1
gene 1 17 29 0.58648 0 34 0.58648 1
gene 1 18 28 -0.520493 0 35 -0.520493 1
gene 1 18 29 0.00350963 0 36 0.00350963 0
gene 1 19 28 -6.3565 0 37 -6.3565 1
gene 1 19 29 -0.93524 0 38 -0.93524 1
gene 1 20 28 2.41249 0 39 2.41249 1
gene 1 20 29 2.10752 0 40 2.10752 1
gene 1 21 28 7.77633 0 41 7.77633 1
gene 1 21 29 1.43796 0 42 1.43796 1
gene 1 22 28 -5.28091 0 43 -5.28091 1
gene 1 22 29 0.524155 0 44 0.524155 1
gene 1 23 28 -0.408185 0 45 -0.408185 1
gene 1 23 29 2.14137 0 46 2.14137 1
gene 1 24 28 -1.05628 0 47 -1.05628 1
gene 1 24 29 -1.87407 0 48 -1.87407 1
gene 1 25 28 -8 0 49 -8 1
gene 1 25 29 -4.74269 0 50 -4.74269 1
gene 1 26 28 -8 0 51 -8 1
gene 1 26 29 1.5627 0 52 1.5627 1
gene 1 27 28 -2.59866 0 53 -2.59866 1
gene 1 27 29 3.4669 0 54 3.4669 1
gene 1 19 37 -5.61197 0 73 -5.61197 1
gene 1 37 29 -2.29324 0 74 -2.29324 1
gene 1 14 37 -1.05123 0 81 -1.05123 1
gene 1 27 37 3.94295 0 188 3.94295 1
gene 1 1 37 2.53517 0 236 2.53517 1
gene 1 24 37 -2.61589 0 251 -2.61589 1
gene 1 25 37 -0.797906 0 415 -0.797906 1
gene 1 15 128 0.94499 0 434 0.94499 1
gene 1 128 28 0.303545 0 435 0.303545 1
gene 1 14 128 -0.421079 0 484 -0.421079 1
gene 1 12 143 -1.59711 0 492 -1.59711 1
gene 1 143 29 0.0311289 0 493 0.0311289 1
gene 1 12 128 2.41569 0 629 2.41569 1
gene 1 22 143 -2.16407 0 654 -2.16407 1
gene 1 18 188 -0.66393 0 667 -0.66393 1
gene 1 188 29 -2.87828 0 668 -2.87828 1
gene 1 23 233 3.88347 0 850 3.88347 1
gene 1 233 28 0.526597 0 851 0.526597 1
gene 1 19 128 2.04047 0 873 2.04047 1
genomeend 2

/* Organism #3 Fitness: 0.387721 Error: 0 */
genomestart 3
trait 1 0 0.515183 0.0149264 0.631214 0.627167 0.0367882 0.124161 0.878852 
node 1 1 1 1
node 2 1 1 1
node 3 1 1 1
node 4 1 1 1
node 5 1 1 1
node 6 1 1 1
node 7 1 1 1
node 8 1 1 1
node 9 1 1 1
node 10 1 1 1
node 11 1 1 1
node 12 1 1 1
node 13 1 1 1
node 14 1 1 1
node 15 1 1 1
node 16 1 1 1
node 17 1 1 1
node 18 1 1 1
node 19 1 1 1
node 20 1 1 1
node 21 1 1 1
node 22 1 1 1
node 23 1 1 1
node 24 1 1 1
node 25 1 1 1
node 26 1 1 1
node 27 1 1 3
node 28 1 0 2
node 29 1 0 2
node 37 1 0 0
node 128 1 0 0
node 143 1 0 0
node 188 1 0 0
node 233 1 0 0
gene 1 1 28 0.790685 0 1 0.790685 1
gene 1 1 29 -7.90959 0 2 -7.90959 1
gene 1 2 28 -0.162587 0 3 -0.162587 1
gene 1 2 29 -7.71061 0 4 -7.71061 1
gene 1 3 28 1.26146 0 5 1.26146 1
gene 1 3 29 0.832068 0 6 0.832068 1
gene 1 4 28 3.14741 0 7 3.14741 1
gene 1 4 29 -4.24312 0 8 -4.24312 1
gene 1 5 28 -3.07354 0 9 -3.07354 1
gene 1 5 29 5.23215 0 10 5.23215 1
gene 1 6 28 -0.0304994 0 11 -0.0304994 1
gene 1 6 29 3.95426 0 12 3.95426 1
gene 1 7 28 1.32523 0 13 1.32523 1
gene 1 7 29 2.51543 0 14 2.51543 1
gene 1 8 28 -5.8391 0 15 -5.8391 1
gene 1 8 29 -1.24161 0 16 -1.24161 1
gene 1 9 28 3.38278 0 17 3.38278 1
gene 1 9 29 1.62965 0 18 1.62965 1
gene 1 10 28 -7.85999 0 19 -7.85999 1
gene 1 10 29 0.57329 0 20 0.57329 1
gene 1 11 28 1.66086 0 21 1.66086 1
gene 1 11 29 4.15953 0 22 4.15953 1
gene 1 12 28 -1.5512 0 23 -1.5512 1
gene 1 12 29 -1.28615 0 24 -1.28615 0
gene 1 13 28 -1.43807 0 25 -1.43807 1
gene 1 13 29 -3.79431 0 26 -3.79431 1
gene 1 14 28 -3.45648 0 27 -3.45648 1
gene 1 14 29 -2.27349 0 28 -2.27349 1
gene 1 15 28 2.64898 0 29 2.64898 0
gene 1 15 29 5.11028 0 30 5.11028 1
gene 1 16 28 -4.80333 0 31 -4.80333 1
gene 1 16 29 3.07866 0 32 3.07866 1
gene 1 17 28 -4.53965 0 33 -4.53965 1
gene 1 17 29 0.167747 0 34 0.167747 1
gene 1 18 28 -1.50586 0 35 -1.50586 1
gene 1 18 29 -0.50171 0 36 -0.50171 1
gene 1 19 28 -8 0 37 -8 1
gene 1 19 29 -1.25907 0 38 -1.25907 1
gene 1 20 28 0.75457 0 39 0.75457 1
gene 1 20 29 -0.775924 0 40 -0.775924 1
gene 1 21 28 7.66389 0 41 7.66389 1
gene 1 21 29 1.04854 0 42 1.04854 1
gene 1 22 28 -5.69494 0 43 -5.69494 1
gene 1 22 29 0.523068 0 44 0.523068 1
gene 1 23 28 -0.671925 0 45 -0.671925 0
gene 1 23 29 1.84858 0 46 1.84858 1
gene 1 24 28 -3.97354 0 47 -3.97354 1
gene 1 24 29 0.565451 0 48 0.565451 1
gene 1 25 28 -6.87062 0 49 -6.87062 1
gene 1 25 29 -4.89908 0 50 -4.89908 1
gene 1 26 28 -5.29959 0 51 -5.29959 1
gene 1 26 29 -0.857856 0 52 -0.857856 1
gene 1 27 28 -3.32294 0 53 -3.32294 1
gene 1 27 29 3.22171 0 54 3.22171 1
gene 1 19 37 -2.6586 0 73 -2.6586 1
gene 1 37 29 -0.239599 0 74 -0.239599 1
gene 1 14 37 -0.904302 0 81 -0.904302 1
gene 1 27 37 3.96783 0 188 3.96783 1
gene 1 1 37 2.64473 0 236 2.64473 1
gene 1 24 37 -1.119 0 251 -1.119 1
gene 1 25 37 1.60737 0 415 1.60737 1
gene 1 15 128 2.73074 0 434 2.73074 1
gene 1 128 28 0.0839927 0 435 0.0839927 1
gene 1 14 128 -0.260628 0 484 -0.260628 1
gene 1 12 143 -1.66471 0 492 -1.66471 1
gene 1 143 29 -2.48507 0 493 -2.48507 1
gene 1 12 128 -0.414904 0 629 -0.414904 1
gene 1 22 143 -1.0477 0 654 -1.0477 1
gene 1 18 188 0.219028 0 667 0.219028 1
gene 1 188 29 -2.99463 0 668 -2.99463 1
gene 1 23 233 1.64831 0 850 1.64831 1
gene 1 233 28 -2.84196 0 851 -2.84196 1
gene 1 19 128 0.704939 0 873 0.704939 1
genomeend 3

/* Organism #4 Fitness: 0.0668286 Error: 0 */
genomestart 4
trait 1 0 0.515183 0.738825 0.631214 1 0.0367882 0.124161 0.203386 
node 1 1 1 1
node 2 1 1 1
node 3 1 1 1
node 4 1 1 1
node 5 1 1 1
node 6 1 1 1
node 7 1 1 1
node 8 1 1 1
node 9 1 1 1
node 10 1 1 1
node 11 1 1 1
node 12 1 1 1
node 13 1 1 1
node 14 1 1 1
node 15 1 1 1
node 16 1 1 1
node 17 1 1 1
node 18 1 1 1
node 19 1 1 1
node 20 1 1 1
node 21 1 1 1
node 22 1 1 1
node 23 1 1 1
node 24 1 1 1
node 25 1 1 1
node 26 1 1 1
node 27 1 1 3
node 28 1 0 2
node 29 1 0 2
node 37 1 0 0
node 128 1 0 0
node 143 1 0 0
node 188 1 0 0
node 233 1 0 0
gene 1 1 28 0.997574 0 1 0.997574 1
gene 1 1 29 -1.0857 0 2 -1.0857 1
gene 1 2 28 -1.75039 0 3 -1.75039 1
gene 1 2 29 -8 0 4 -8 1
gene 1 3 28 2.66156 0 5 2.66156 1
gene 1 3 29 0.795923 0 6 0.795923 1
gene 1 4 28 7.51518 0 7 7.51518 1
gene 1 4 29 -2.09624 0 8 -2.09624 1
gene 1 5 28 -3.63714 0 9 -3.63714 1
gene 1 5 29 2.78524 0 10 2.78524 1
gene 1 6 28 1.99999 0 11 1.99999 1
gene 1 6 29 1.47485 0 12 1.47485 1
gene 1 7 28 1.51585 0 13 1.51585 1
gene 1 7 29 3.28566 0 14 3.28566 1
gene 1 8 28 -6.80482 0 15 -6.80482 1
gene 1 8 29 -1.68996 0 16 -1.68996 1
gene 1 9 28 1.38081 0 17 1.38081 1
gene 1 9 29 2.76173 0 18 2.76173 1
gene 1 10 28 2.18734 0 19 2.18734 1
gene 1 10 29 0.877789 0 20 0.877789 1
gene 1 11 28 -2.16891 0 21 -2.16891 1
gene 1 11 29 5.49464 0 22 5.49464 1
gene 1 12 28 -1.97308 0 23 -1.97308 1
gene 1 12 29 0.674507 0 24 0.674507 1
gene 1 13 28 -1.73559 0 25 -1.73559 1
gene 1 13 29 -4.18596 0 26 -4.18596 1
gene 1 14 28 -6.46995 0 27 -6.46995 1
gene 1 14 29 0.30076 0 28 0.30076 1
gene 1 15 28 1.75764 0 29 1.75764 0
gene 1 15 29 4.41043 0 30 4.41043 1
gene 1 16 28 -2.75674 0 31 -2.75674 1
gene 1 16 29 4.80958 0 32 4.80958 1
gene 1 17 28 -6.05822 0 33 -6.05822 1
gene 1 17 29 1.78281 0 34 1.78281 1
gene 1 18 28 -0.397122 0 35 -0.397122 1
gene 1 18 29 -1.05358 0 36 -1.05358 0
gene 1 19 28 -8 0 37 -8 1
gene 1 19 29 0.751518 0 38 0.751518 1
gene 1 20 28 -1.63388 0 39 -1.63388 1
gene 1 20 29 -0.631666 0 40 -0.631666 1
gene 1 21 28 8 0 41 8 1
gene 1 21 29 2.22198 0 42 2.22198 1
gene 1 22 28 1.90641 0 43 1.90641 1
gene 1 22 29 -0.396893 0 44 -0.396893 1
gene 1 23 28 -0.771126 0 45 -0.771126 0
gene 1 23 29 0.280122 0 46 0.280122 1
gene 1 24 28 -0.598881 0 47 -0.598881 1
gene 1 24 29 -1.44589 0 48 -1.44589 1
gene 1 25 28 -7.15098 0 49 -7.15098 1
gene 1 25 29 -7.59411 0 50 -7.59411 1
gene 1 26 28 -5.34382 0 51 -5.34382 1
gene 1 26 29 -1.89611 0 52 -1.89611 1
gene 1 27 28 2.36206 0 53 2.36206 1
gene 1 27 29 3.70663 0 54 3.70663 1
gene 1 19 37 -1.42331 0 73 -1.42331 1
gene 1 37 29 -0.715125 0 74 -0.715125 1
gene 1 14 37 -2.75393 0 81 -2.75393 1
gene 1 27 37 3.51676 0 188 3.51676 1
gene 1 1 37 4.65056 0 236 4.65056 1
gene 1 24 37 -0.0141148 0 251 -0.0141148 1
gene 1 25 37 0.487381 0 415 0.487381 1
gene 1 15 128 0.277245 0 434 0.277245 1
gene 1 128 28 1.71007 0 435 1.71007 1
gene 1 14 128 -0.137562 0 484 -0.137562 1
gene 1 12 143 -0.642796 0 492 -0.642796 1
gene 1 143 29 -3.9721 0 493 -3.9721 1
gene 1 12 128 -0.937452 0 629 -0.937452 1
gene 1 22 143 0.425047 0 654 0.425047 1
gene 1 18 188 -1.52829 0 667 -1.52829 1
gene 1 188 29 -3.64948 0 668 -3.64948 1
gene 1 23 233 3.54303 0 850 3.54303 1
gene 1 233 28 -7.91926 0 851 -7.91926 1
gene 1 19 128 1.7378 0 873 1.7378 1
genomeend 4

/* Organism #5 Fitness: 0.387721 Error: 0 */
genomestart 5
trait 1 0 0.515183 0.0149264 0.631214 0.627167 0.0367882 0.124161 0.878852 
node 1 1 1 1
node 2 1 1 1
node 3 1 1 1
node 4 1 1 1
node 5 1 1 1
node 6 1 1 1
node 7 1 1 1
node 8 1 1 1
node 9 1 1 1
node 10 1 1 1
node 11 1 1 1
node 12 1 1 1
node 13 1 1 1
node 14 1 1 1
node 15 1 1 1
node 16 1 1 1
node 17 1 1 1
node 18 1 1 1
node 19 1 1 1
node 20 1 1 1
node 21 1 1 1
node 22 1 1 1
node 23 1 1 1
node 24 1 1 1
node 25 1 1 1
node 26 1 1 1
node 27 1 1 3
node 28 1 0 2
node 29 1 0 2
node 37 1 0 0
node 128 1 0 0
node 143 1 0 0
node 188 1 0 0
node 233 1 0 0
gene 1 1 28 -2.5135 0 1 -2.5135 1
gene 1 1 29 -2.48131 0 2 -2.48131 1
gene 1 2 28 2.83452 0 3 2.83452 1
gene 1 2 29 -5.50587 0 4 -5.50587 1
gene 1 3 28 4.1472 0 5 4.1472 1
gene 1 3 29 0.916471 0 6 0.916471 1
gene 1 4 28 6.99339 0 7 6.99339 1
gene 1 4 29 2.06084 0 8 2.06084 1
gene 1 5 28 -3.63714 0 9 -3.63714 1
gene 1 5 29 2.39448 0 10 2.39448 1
gene 1 6 28 0.910558 0 11 0.910558 1
gene 1 6 29 1.69008 0 12 1.69008 1
gene 1 7 28 -1.08119 0 13 -1.08119 1
gene 1 7 29 0.832316 0 14 0.832316 1
gene 1 8 28 -2.14125 0 15 -2.14125 1
gene 1 8 29 -4.04585 0 16 -4.04585 1
gene 1 9 28 1.38081 0 17 1.38081 1
gene 1 9 29 -0.289888 0 18 -0.289888 1
gene 1 10 28 -8 0 19 -8 1
gene 1 10 29 0.658284 0 20 0.658284 1
gene 1 11 28 1.07372 0 21 1.07372 1
gene 1 11 29 8 0 22 8 1
gene 1 12 28 -1.4403 0 23 -1.4403 1
gene 1 12 29 2.11478 0 24 2.11478 0
gene 1 13 28 0.0711081 0 25 0.0711081 1
gene 1 13 29 -2.7313 0 26 -2.7313 1
gene 1 14 28 -6.61919 0 27 -6.61919 1
gene 1 14 29 1.94746 0 28 1.94746 1
gene 1 15 28 0.263613 0 29 0.263613 0
gene 1 15 29 1.27331 0 30 1.27331 1
gene 1 16 28 -4.46989 0 31 -4.46989 1
gene 1 16 29 -1.58315 0 32 -1.58315 1
gene 1 17 28 -3.81053 0 33 -3.81053 1
gene 1 17 29 3.08228 0 34 3.08228 1
gene 1 18 28 -4.38513 0 35 -4.38513 1
gene 1 18 29 -1.05289 0 36 -1.05289 0
gene 1 19 28 -8 0 37 -8 1
gene 1 19 29 -1.3934 0 38 -1.3934 1
gene 1 20 28 2.29179 0 39 2.29179 1
gene 1 20 29 2.18801 0 40 2.18801 1
gene 1 21 28 7.29353 0 41 7.29353 1
gene 1 21 29 0.638295 0 42 0.638295 1
gene 1 22 28 -7.58964 0 43 -7.58964 1
gene 1 22 29 -1.93304 0 44 -1.93304 1
gene 1 23 28 -0.752586 0 45 -0.752586 0
gene 1 23 29 -2.27653 0 46 -2.27653 1
gene 1 24 28 -1.67298 0 47 -1.67298 1
gene 1 24 29 0.378353 0 48 0.378353 1
gene 1 25 28 -3.75503 0 49 -3.75503 1
gene 1 25 29 -7.1374 0 50 -7.1374 1
gene 1 26 28 -7.27114 0 51 -7.27114 1
gene 1 26 29 -1.71499 0 52 -1.71499 1
gene 1 27 28 -4.53407 0 53 -4.53407 1
gene 1 27 29 6.17145 0 54 6.17145 1
gene 1 19 37 -5.25803 0 73 -5.25803 1
gene 1 37 29 2.16689 0 74 2.16689 1
gene 1 14 37 -4.26536 0 81 -4.26536 1
gene 1 27 37 3.80158 0 188 3.80158 1
gene 1 1 37 1.08516 0 236 1.08516 1
gene 1 24 37 -0.932417 0 251 -0.932417 1
gene 1 25 37 -0.317392 0 415 -0.317392 1
gene 1 15 128 1.15999 0 434 1.15999 1
gene 1 128 28 0.303545 0 435 0.303545 1
gene 1 14 128 1.8405 0 484 1.8405 1
gene 1 12 143 1.48579 0 492 1.48579 1
gene 1 143 29 0.436262 0 493 0.436262 1
gene 1 12 128 0.180612 0 629 0.180612 1
gene 1 22 143 -4.59296 0 654 -4.59296 1
gene 1 18 188 1.31832 0 667 1.31832 1
gene 1 188 29 -2.54791 0 668 -2.54791 1
gene 1 23 233 1.702 0 850 1.702 1
gene 1 233 28 -8 0 851 -8 1
gene 1 19 128 -1.67707 0 873 -1.67707 1
genomeend 5

/* Organism #6 Fitness: 0.0705786 Error: 0 */
genomestart 6
trait 1 0 0.515183 0.0149264 0.631214 0.627167 0.0367882 0.124161 0.878852 
node 1 1 1 1
node 2 1 1 1
node 3 1 1 1
node 4 1 1 1
node 5 1 1 1
node 6 1 1 1
node 7 1 1 1
node 8 1 1 1
node 9 1 1 1
node 10 1 1 1
node 11 1 1 1
node 12 1 1 1
node 13 1 1 1
node 14 1 1 1
node 15 1 1 1
node 16 1 1 1
node 17 1 1 1
node 18 1 1 1
node 19 1 1 1
node 20 1 1 1
node 21 1 1 1
node 22 1 1 1
node 23 1 1 1
node 24 1 1 1
node 25 1 1 1
node 26 1 1 1
node 27 1 1 3
node 28 1 0 2
node 29 1 0 2
node 37 1 0 0
node 128 1 0 0
node 143 1 0 0
node 188 1 0 0
node 233 1 0 0
node 249 1 0 0
gene 1 1 28 -0.290155 0 1 -0.290155 1
gene 1 1 29 -7.81918 0 2 -7.81918 1
gene 1 2 28 -1.18385 0 3 -1.18385 1
gene 1 2 29 -8 0 4 -8 1
gene 1 3 28 0.123295 0 5 0.123295 1
gene 1 3 29 0.795923 0 6 0.795923 1
gene 1 4 28 -0.698569 0 7 -0.698569 1
gene 1 4 29 -5.45804 0 8 -5.45804 1
gene 1 5 28 -2.50994 0 9 -2.50994 1
gene 1 5 29 5.27478 0 10 5.27478 1
gene 1 6 28 0.910558 0 11 0.910558 1
gene 1 6 29 4.53192 0 12 4.53192 0
gene 1 7 28 0.763421 0 13 0.763421 1
gene 1 7 29 2.72637 0 14 2.72637 1
gene 1 8 28 -5.21366 0 15 -5.21366 1
gene 1 8 29 1.56262 0 16 1.56262 1
gene 1 9 28 1.38081 0 17 1.38081 1
gene 1 9 29 1.381 0 18 1.381 1
gene 1 10 28 -7.71998 0 19 -7.71998 1
gene 1 10 29 1.52112 0 20 1.52112 1
gene 1 11 28 0.163083 0 21 0.163083 1
gene 1 11 29 0.535218 0 22 0.535218 1
gene 1 12 28 -0.323172 0 23 -0.323172 1
gene 1 12 29 -0.33207 0 24 -0.33207 0
gene 1 13 28 -0.584506 0 25 -0.584506 1
gene 1 13 29 -3.52882 0 26 -3.52882 1
gene 1 14 28 -2.71648 0 27 -2.71648 1
gene 1 14 29 0.30076 0 28 0.30076 1
gene 1 15 28 2.10487 0 29 2.10487 0
gene 1 15 29 5.81012 0 30 5.81012 1
gene 1 16 28 -5.16507 0 31 -5.16507 1
gene 1 16 29 2.27795 0 32 2.27795 1
gene 1 17 28 -4.36473 0 33 -4.36473 1
gene 1 17 29 0.938511 0 34 0.938511 1
gene 1 18 28 -2.02803 0 35 -2.02803 1
gene 1 18 29 -2.40364 0 36 -2.40364 0
gene 1 19 28 -8 0 37 -8 1
gene 1 19 29 -1.7365 0 38 -1.7365 1
gene 1 20 28 0.188604 0 39 0.188604 1
gene 1 20 29 -1.63424 0 40 -1.63424 1
gene 1 21 28 7.77061 0 41 7.77061 1
gene 1 21 29 -0.340587 0 42 -0.340587 1
gene 1 22 28 -5.12428 0 43 -5.12428 1
gene 1 22 29 0.555895 0 44 0.555895 1
gene 1 23 28 -0.111393 0 45 -0.111393 0
gene 1 23 29 2.72237 0 46 2.72237 1
gene 1 24 28 -5.0584 0 47 -5.0584 1
gene 1 24 29 2.66453 0 48 2.66453 1
gene 1 25 28 -5.74125 0 49 -5.74125 1
gene 1 25 29 -4.42663 0 50 -4.42663 1
gene 1 26 28 -6.32728 0 51 -6.32728 1
gene 1 26 29 -0.0331889 0 52 -0.0331889 1
gene 1 27 28 -2.46095 0 53 -2.46095 1
gene 1 27 29 3.70663 0 54 3.70663 1
gene 1 19 37 -3.67977 0 73 -3.67977 1
gene 1 37 29 -1.05632 0 74 -1.05632 1
gene 1 14 37 -2.0266 0 81 -2.0266 1
gene 1 27 37 4.57797 0 188 4.57797 1
gene 1 1 37 2.55722 0 236 2.55722 1
gene 1 24 37 -2.33329 0 251 -2.33329 1
gene 1 25 37 2.40036 0 415 2.40036 1
gene 1 15 128 1.60945 0 434 1.60945 1
gene 1 128 28 0.303545 0 435 0.303545 1
gene 1 14 128 -1.10492 0 484 -1.10492 1
gene 1 12 143 -2.34809 0 492 -2.34809 1
gene 1 143 29 -3.71048 0 493 -3.71048 1
gene 1 12 128 -0.733264 0 629 -0.733264 1
gene 1 22 143 0.0686666 0 654 0.0686666 1
gene 1 18 188 0.04841 0 667 0.04841 1
gene 1 188 29 -3.31156 0 668 -3.31156 1
gene 1 23 233 1.49551 0 850 1.49551 1
gene 1 233 28 2.09479 0 851 2.09479 1
gene 1 19 128 1.35395 0 873 1.35395 1
gene 1 6 249 1 0 911 0 1
gene 1 249 29 4.53192 0 912 0 1
genomeend 6

/* Organism #7 Fitness: 0.387721 Error: 0 */
genomestart 7
trait 1 0 0.515183 0.993533 0.854488 0.627167 0.0367882 0.124161 0.113753 
node 1 1 1 1
node 2 1 1 1
node 3 1 1 1
node 4 1 1 1
node 5 1 1 1
node 6 1 1 1
node 7 1 1 1
node 8 1 1 1
node 9 1 1 1
node 10 1 1 1
node 11 1 1 1
node 12 1 1 1
node 13 1 1 1
node 14 1 1 1
node 15 1 1 1
node 16 1 1 1
node 17 1 1 1
node 18 1 1 1
node 19 1 1 1
node 20 1 1 1
node 21 1 1 1
node 22 1 1 1
node 23 1 1 1
node 24 1 1 1
node 25 1 1 1
node 26 1 1 1
node 27 1 1 3
node 28 1 0 2
node 29 1 0 2
node 37 1 0 0
node 128 1 0 0
node 143 1 0 0
node 188 1 0 0
node 233 1 0 0
gene 1 1 28 -0.0346881 0 1 -0.0346881 1
gene 1 1 29 -5.93497 0 2 -5.93497 1
gene 1 2 28 1.29116 0 3 1.29116 1
gene 1 2 29 -5.65115 0 4 -5.65115 1
gene 1 3 28 0.0650616 0 5 0.0650616 1
gene 1 3 29 0.591277 0 6 0.591277 1
gene 1 4 28 1.44631 0 7 1.44631 1
gene 1 4 29 -3.73819 0 8 -3.73819 1
gene 1 5 28 -5.06396 0 9 -5.06396 1
gene 1 5 29 4.80352 0 10 4.80352 1
gene 1 6 28 0.627937 0 11 0.627937 1
gene 1 6 29 2.29673 0 12 2.29673 1
gene 1 7 28 3.45656 0 13 3.45656 1
gene 1 7 29 4.46236 0 14 4.46236 1
gene 1 8 28 -3.85036 0 15 -3.85036 1
gene 1 8 29 0.0242932 0 16 0.0242932 1
gene 1 9 28 4.73178 0 17 4.73178 1
gene 1 9 29 -0.3333 0 18 -0.3333 1
gene 1 10 28 -8 0 19 -8 1
gene 1 10 29 1.06761 0 20 1.06761 1
gene 1 11 28 2.15205 0 21 2.15205 1
gene 1 11 29 3.44402 0 22 3.44402 1
gene 1 12 28 -0.0101665 0 23 -0.0101665 1
gene 1 12 29 -2.5204 0 24 -2.5204 0
gene 1 13 28 0.398381 0 25 0.398381 1
gene 1 13 29 -5.62138 0 26 -5.62138 1
gene 1 14 28 -4.10469 0 27 -4.10469 1
gene 1 14 29 -0.856206 0 28 -0.856206 1
gene 1 15 28 0.742487 0 29 0.742487 0
gene 1 15 29 5.2267 0 30 5.2267 1
gene 1 16 28 -2.77972 0 31 -2.77972 1
gene 1 16 29 2.75112 0 32 2.75112 1
gene 1 17 28 -2.76103 0 33 -2.76103 1
gene 1 17 29 -1.74355 0 34 -1.74355 1
gene 1 18 28 -3.77041 0 35 -3.77041 1
gene 1 18 29 -1.91601 0 36 -1.91601 0
gene 1 19 28 -8 0 37 -8 1
gene 1 19 29 -0.898722 0 38 -0.898722 1
gene 1 20 28 0.261849 0 39 0.261849 1
gene 1 20 29 -0.879992 0 40 -0.879992 1
gene 1 21 28 5.27207 0 41 5.27207 1
gene 1 21 29 1.79495 0 42 1.79495 1
gene 1 22 28 -6.86196 0 43 -6.86196 1
gene 1 22 29 2.13681 0 44 2.13681 1
gene 1 23 28 0.206398 0 45 0.206398 1
gene 1 23 29 1.05014 0 46 1.05014 1
gene 1 24 28 -5.86897 0 47 -5.86897 1
gene 1 24 29 -0.697176 0 48 -0.697176 1
gene 1 25 28 -7.15361 0 49 -7.15361 1
gene 1 25 29 -5.90321 0 50 -5.90321 1
gene 1 26 28 -4.05161 0 51 -4.05161 1
gene 1 26 29 -3.14285 0 52 -3.14285 1
gene 1 27 28 -1.67388 0 53 -1.67388 1
gene 1 27 29 0.799146 0 54 0.799146 1
gene 1 19 37 -4.22771 0 73 -4.22771 1
gene 1 37 29 0.90309 0 74 0.90309 1
gene 1 14 37 1.54588 0 81 1.54588 1
gene 1 27 37 5.96427 0 188 5.96427 1
gene 1 1 37 4.43495 0 236 4.43495 1
gene 1 24 37 -1.119 0 251 -1.119 1
gene 1 25 37 0.962058 0 415 0.962058 1
gene 1 15 128 5.18786 0 434 5.18786 1
gene 1 128 28 0.364925 0 435 0.364925 1
gene 1 14 128 -0.260628 0 484 -0.260628 1
gene 1 12 143 -1.92503 0 492 -1.92503 1
gene 1 143 29 -2.48507 0 493 -2.48507 1
gene 1 12 128 -1.69622 0 629 -1.69622 1
gene 1 22 143 -0.132756 0 654 -0.132756 1
gene 1 18 188 2.582 0 667 2.582 1
gene 1 188 29 -2.99463 0 668 -2.99463 1
gene 1 23 233 3.47065 0 850 3.47065 1
gene 1 233 28 -4.20965 0 851 -4.20965 1
gene 1 19 128 0.704939 0 873 0.704939 1
genomeend 7

/* Organism #8 Fitness: 0.0705786 Error: 0 */
genomestart 8
trait 1 0 0.515183 0.0149264 0.631214 0.627167 0.0367882 0.124161 0.878852 
node 1 1 1 1
node 2 1 1 1
node 3 1 1 1
node 4 1 1 1
node 5 1 1 1
node 6 1 1 1
node 7 1 1 1
node 8 1 1 1
node 9 1 1 1
node 10 1 1 1
node 11 1 1 1
node 12 1 1 1
node 13 1 1 1
node 14 1 1 1
node 15 1 1 1
node 16 1 1 1
node 17 1 1 1
node 18 1 1 1
node 19 1 1 1
node 20 1 1 1
node 21 1 1 1
node 22 1 1 1
node 23 1 1 1
node 24 1 1 1
node 25 1 1 1
node 26 1 1 1
node 27 1 1 3
node 28 1 0 2
node 29 1 0 2
node 37 1 0 0
node 128 1 0 0
node 143 1 0 0
node 188 1 0 0
node 233 1 0 0
gene 1 1 28 -0.290155 0 1 -0.290155 1
gene 1 1 29 -8 0 2 -8 1
gene 1 2 28 -1.18385 0 3 -1.18385 1
gene 1 2 29 -8 0 4 -8 1
gene 1 3 28 0.123295 0 5 0.123295 1
gene 1 3 29 0.868213 0 6 0.868213 1
gene 1 4 28 6.99339 0 7 6.99339 1
gene 1 4 29 -3.0282 0 8 -3.0282 1
gene 1 5 28 -3.63714 0 9 -3.63714 1
gene 1 5 29 5.18952 0 10 5.18952 1
gene 1 6 28 -0.971557 0 11 -0.971557 1
gene 1 6 29 3.37661 0 12 3.37661 1
gene 1 7 28 0.763421 0 13 0.763421 1
gene 1 7 29 2.30449 0 14 2.30449 1
gene 1 8 28 -5.21366 0 15 -5.21366 1
gene 1 8 29 1.56262 0 16 1.56262 1
gene 1 9 28 5.38476 0 17 5.38476 1
gene 1 9 29 1.381 0 18 1.381 1
gene 1 10 28 -7.71998 0 19 -7.71998 1
gene 1 10 29 1.52112 0 20 1.52112 1
gene 1 11 28 3.15863 0 21 3.15863 1
gene 1 11 29 0.535218 0 22 0.535218 1
gene 1 12 28 -2.77923 0 23 -2.77923 1
gene 1 12 29 -2.24024 0 24 -2.24024 0
gene 1 13 28 -2.29163 0 25 -2.29163 1
gene 1 13 29 -4.05981 0 26 -4.05981 1
gene 1 14 28 -4.19648 0 27 -4.19648 1
gene 1 14 29 0.30076 0 28 0.30076 1
gene 1 15 28 3.19308 0 29 3.19308 0
gene 1 15 29 5.81012 0 30 5.81012 1
gene 1 16 28 -4.44159 0 31 -4.44159 1
gene 1 16 29 3.87937 0 32 3.87937 1
gene 1 17 28 -4.71457 0 33 -4.71457 1
gene 1 17 29 -0.603017 0 34 -0.603017 1
gene 1 18 28 -2.02803 0 35 -2.02803 1
gene 1 18 29 -2.40364 0 36 -2.40364 0
gene 1 19 28 -8 0 37 -8 1
gene 1 19 29 -0.781636 0 38 -0.781636 1
gene 1 20 28 0.188604 0 39 0.188604 1
gene 1 20 29 -1.63424 0 40 -1.63424 1
gene 1 21 28 7.55717 0 41 7.55717 1
gene 1 21 29 -0.340587 0 42 -0.340587 1
gene 1 22 28 -6.26559 0 43 -6.26559 1
gene 1 22 29 0.555895 0 44 0.555895 1
gene 1 23 28 -1.23246 0 45 -1.23246 0
gene 1 23 29 0.974799 0 46 0.974799 1
gene 1 24 28 -2.88869 0 47 -2.88869 1
gene 1 24 29 -1.53363 0 48 -1.53363 1
gene 1 25 28 -8 0 49 -8 1
gene 1 25 29 -4.42663 0 50 -4.42663 1
gene 1 26 28 -6.32728 0 51 -6.32728 1
gene 1 26 29 -1.68252 0 52 -1.68252 1
gene 1 27 28 -2.46095 0 53 -2.46095 1
gene 1 27 29 3.70663 0 54 3.70663 1
gene 1 19 37 -3.67977 0 73 -3.67977 1
gene 1 37 29 0.577124 0 74 0.577124 1
gene 1 14 37 -2.0266 0 81 -2.0266 1
gene 1 27 37 3.35768 0 188 3.35768 1
gene 1 1 37 2.55722 0 236 2.55722 1
gene 1 24 37 0.095294 0 251 0.095294 1
gene 1 25 37 2.40036 0 415 2.40036 1
gene 1 15 128 3.85203 0 434 3.85203 1
gene 1 128 28 -0.135559 0 435 -0.135559 1
gene 1 14 128 0.583666 0 484 0.583666 1
gene 1 12 143 -0.981323 0 492 -0.981323 1
gene 1 143 29 -3.71048 0 493 -3.71048 1
gene 1 12 128 -0.0965434 0 629 -0.0965434 1
gene 1 22 143 0.0686666 0 654 0.0686666 1
gene 1 18 188 0.389645 0 667 0.389645 1
gene 1 188 29 -3.31156 0 668 -3.31156 1
gene 1 23 233 1.80111 0 850 1.80111 1
gene 1 233 28 2.09479 0 851 2.09479 1
gene 1 19 128 1.35395 0 873 1.35395 1
genomeend 8

/* Organism #9 Fitness: 0.387721 Error: 0 */
genomestart 9
trait 1 0 0.515183 0.0149264 0.631214 0.627167 0.0367882 0.124161 0.878852 
node 1 1 1 1
node 2 1 1 1
node 3 1 1 1
node 4 1 1 1
node 5 1 1 1
node 6 1 1 1
node 7 1 1 1
node 8 1 1 1
node 9 1 1 1
node 10 1 1 1
node 11 1 1 1
node 12 1 1 1
node 13 1 1 1
node 14 1 1 1
node 15 1 1 1
node 16 1 1 1
node 17 1 1 1
node 18 1 1 1
node 19 1 1 1
node 20 1 1 1
node 21 1 1 1
node 22 1 1 1
node 23 1 1 1
node 24 1 1 1
node 25 1 1 1
node 26 1 1 1
node 27 1 1 3
node 28 1 0 2
node 29 1 0 2
node 37 1 0 0
node 128 1 0 0
node 143 1 0 0
node 188 1 0 0
node 233 1 0 0
gene 1 1 28 0.0997192 0 1 0.0997192 1
gene 1 1 29 -8 0 2 -8 1
gene 1 2 28 1.45013 0 3 1.45013 1
gene 1 2 29 -5.81472 0 4 -5.81472 1
gene 1 3 28 1.15402 0 5 1.15402 1
gene 1 3 29 -0.367214 0 6 -0.367214 1
gene 1 4 28 6.4832 0 7 6.4832 1
gene 1 4 29 -5.05615 0 8 -5.05615 1
gene 1 5 28 -5.47016 0 9 -5.47016 1
gene 1 5 29 6.6974 0 10 6.6974 1
gene 1 6 28 -0.394185 0 11 -0.394185 1
gene 1 6 29 2.0431 0 12 2.0431 1
gene 1 7 28 -0.812021 0 13 -0.812021 1
gene 1 7 29 1.01699 0 14 1.01699 1
gene 1 8 28 -7.54619 0 15 -7.54619 1
gene 1 8 29 -6.15773 0 16 -6.15773 1
gene 1 9 28 3.72326 0 17 3.72326 1
gene 1 9 29 3.13482 0 18 3.13482 1
gene 1 10 28 -7.44662 0 19 -7.44662 1
gene 1 10 29 1.80425 0 20 1.80425 1
gene 1 11 28 1.42541 0 21 1.42541 1
gene 1 11 29 7.49345 0 22 7.49345 1
gene 1 12 28 -3.62161 0 23 -3.62161 1
gene 1 12 29 -0.799919 0 24 -0.799919 1
gene 1 13 28 0.450301 0 25 0.450301 1
gene 1 13 29 -2.4046 0 26 -2.4046 1
gene 1 14 28 -2.89456 0 27 -2.89456 1
gene 1 14 29 -2.04306 0 28 -2.04306 1
gene 1 15 28 2.34818 0 29 2.34818 1
gene 1 15 29 4.99021 0 30 4.99021 1
gene 1 16 28 -5.51614 0 31 -5.51614 1
gene 1 16 29 1.46536 0 32 1.46536 1
gene 1 17 28 -3.54685 0 33 -3.54685 1
gene 1 17 29 -1.44025 0 34 -1.44025 1
gene 1 18 28 -2.68334 0 35 -2.68334 1
gene 1 18 29 -4.74555 0 36 -4.74555 0
gene 1 19 28 -8 0 37 -8 1
gene 1 19 29 0.717719 0 38 0.717719 1
gene 1 20 28 -0.883969 0 39 -0.883969 1
gene 1 20 29 -1.0764 0 40 -1.0764 1
gene 1 21 28 7.90977 0 41 7.90977 1
gene 1 21 29 0.673772 0 42 0.673772 1
gene 1 22 28 -7.48382 0 43 -7.48382 1
gene 1 22 29 1.13285 0 44 1.13285 1
gene 1 23 28 -1.65113 0 45 -1.65113 0
gene 1 23 29 1.11984 0 46 1.11984 1
gene 1 24 28 -2.93675 0 47 -2.93675 1
gene 1 24 29 -1.23211 0 48 -1.23211 1
gene 1 25 28 -3.75335 0 49 -3.75335 1
gene 1 25 29 -3.95745 0 50 -3.95745 1
gene 1 26 28 -4.52661 0 51 -4.52661 1
gene 1 26 29 -0.87672 0 52 -0.87672 1
gene 1 27 28 -2.25251 0 53 -2.25251 1
gene 1 27 29 2.10211 0 54 2.10211 1
gene 1 19 37 -5.74206 0 73 -5.74206 1
gene 1 37 29 0.275735 0 74 0.275735 1
gene 1 14 37 -4.41986 0 81 -4.41986 1
gene 1 27 37 4.71194 0 188 4.71194 1
gene 1 1 37 1.72643 0 236 1.72643 1
gene 1 24 37 -4.66018 0 251 -4.66018 1
gene 1 25 37 0.814386 0 415 0.814386 1
gene 1 15 128 1.60945 0 434 1.60945 1
gene 1 128 28 1.87403 0 435 1.87403 1
gene 1 14 128 0.583666 0 484 0.583666 1
gene 1 12 143 -2.11531 0 492 -2.11531 1
gene 1 143 29 -1.65529 0 493 -1.65529 1
gene 1 12 128 0.604266 0 629 0.604266 1
gene 1 22 143 -4.16433 0 654 -4.16433 1
gene 1 18 188 -2.37075 0 667 -2.37075 1
gene 1 188 29 -0.41757 0 668 -0.41757 1
gene 1 23 233 3.66633 0 850 3.66633 1
gene 1 233 28 -7.77872 0 851 -7.77872 1
gene 1 19 128 0.0559252 0 873 0.0559252 1
gene 1 17 188 0.138981 0 896 0.138981 1
genomeend 9

/* Organism #10 Fitness: 0.379686 Error: 0 */
genomestart 10
trait 1 0 0.515183 0.0149264 0.631214 0.627167 0.0367882 0.124161 0.878852 
node 1 1 1 1
node 2 1 1 1
node 3 1 1 1
node 4 1 1 1
node 5 1 1 1
node 6 1 1 1
node 7 1 1 1
node 8 1 1 1
node 9 1 1 1
node 10 1 1 1
node 11 1 1 1
node 12 1 1 1
node 13 1 1 1
node 14 1 1 1
node 15 1 1 1
node 16 1 1 1
node 17 1 1 1
node 18 1 1 1
node 19 1 1 1
node 20 1 1 1
node 21 1 1 1
node 22 1 1 1
node 23 1 1 1
node 24 1 1 1
node 25 1 1 1
node 26 1 1 1
node 27 1 1 3
node 28 1 0 2
node 29 1 0 2
node 37 1 0 0
node 128 1 0 0
node 143 1 0 0
node 188 1 0 0
node 233 1 0 0
gene 1 1 28 -1.14632 0 1 -1.14632 1
gene 1 1 29 -7.7042 0 2 -7.7042 1
gene 1 2 28 -1.62488 0 3 -1.62488 1
gene 1 2 29 -6.31431 0 4 -6.31431 1
gene 1 3 28 0.688097 0 5 0.688097 1
gene 1 3 29 1.16541 0 6 1.16541 1
gene 1 4 28 4.78748 0 7 4.78748 1
gene 1 4 29 -3.52914 0 8 -3.52914 1
gene 1 5 28 -4.59908 0 9 -4.59908 1
gene 1 5 29 3.75597 0 10 3.75597 1
gene 1 6 28 0.316115 0 11 0.316115 1
gene 1 6 29 5.29403 0 12 5.29403 1
gene 1 7 28 3.12124 0 13 3.12124 1
gene 1 7 29 4.92548 0 14 4.92548 1
gene 1 8 28 -5.81255 0 15 -5.81255 1
gene 1 8 29 -0.898281 0 16 -0.898281 1
gene 1 9 28 3.98209 0 17 3.98209 1
gene 1 9 29 2.70596 0 18 2.70596 1
gene 1 10 28 -8 0 19 -8 1
gene 1 10 29 2.18925 0 20 2.18925 1
gene 1 11 28 3.83545 0 21 3.83545 1
gene 1 11 29 1.76558 0 22 1.76558 1
gene 1 12 28 -3.28923 0 23 -3.28923 1
gene 1 12 29 -2.46844 0 24 -2.46844 0
gene 1 13 28 -0.340548 0 25 -0.340548 1
gene 1 13 29 -4.86612 0 26 -4.86612 1
gene 1 14 28 -5.2058 0 27 -5.2058 1
gene 1 14 29 -2.26006 0 28 -2.26006 1
gene 1 15 28 2.55552 0 29 2.55552 0
gene 1 15 29 3.18876 0 30 3.18876 1
gene 1 16 28 -6.62215 0 31 -6.62215 1
gene 1 16 29 1.23901 0 32 1.23901 1
gene 1 17 28 -4.88939 0 33 -4.88939 1
gene 1 17 29 0.337201 0 34 0.337201 1
gene 1 18 28 0.350963 0 35 0.350963 1
gene 1 18 29 0.460081 0 36 0.460081 0
gene 1 19 28 -8 0 37 -8 1
gene 1 19 29 0.510699 0 38 0.510699 1
gene 1 20 28 0.0503555 0 39 0.0503555 1
gene 1 20 29 -0.710919 0 40 -0.710919 1
gene 1 21 28 6.58735 0 41 6.58735 1
gene 1 21 29 2.26501 0 42 2.26501 1
gene 1 22 28 -7.14037 0 43 -7.14037 1
gene 1 22 29 -0.0076487 0 44 -0.0076487 1
gene 1 23 28 0.871549 0 45 0.871549 0
gene 1 23 29 3.70487 0 46 3.70487 1
gene 1 24 28 -2.25337 0 47 -2.25337 1
gene 1 24 29 0.814329 0 48 0.814329 1
gene 1 25 28 -8 0 49 -8 1
gene 1 25 29 -6.09983 0 50 -6.09983 1
gene 1 26 28 -6.83597 0 51 -6.83597 1
gene 1 26 29 0.57308 0 52 0.57308 1
gene 1 27 28 -2.02652 0 53 -2.02652 1
gene 1 27 29 4.46091 0 54 4.46091 1
gene 1 19 37 -1.57573 0 73 -1.57573 1
gene 1 37 29 0.682442 0 74 0.682442 1
gene 1 14 37 1.38359 0 81 1.38359 1
gene 1 27 37 5.2187 0 188 5.2187 1
gene 1 1 37 3.6861 0 236 3.6861 1
gene 1 24 37 -1.119 0 251 -1.119 1
gene 1 25 37 1.60737 0 415 1.60737 1
gene 1 15 128 2.73074 0 434 2.73074 1
gene 1 128 28 0.0839927 0 435 0.0839927 1
gene 1 14 128 -0.260628 0 484 -0.260628 1
gene 1 12 143 -0.814158 0 492 -0.814158 1
gene 1 143 29 -3.94668 0 493 -3.94668 1
gene 1 12 128 -0.414904 0 629 -0.414904 1
gene 1 22 143 -1.11423 0 654 -1.11423 1
gene 1 18 188 -0.922365 0 667 -0.922365 1
gene 1 188 29 -1.93899 0 668 -1.93899 1
gene 1 23 233 0.377827 0 850 0.377827 1
gene 1 233 28 0.411924 0 851 0.411924 1
gene 1 19 128 1.44978 0 873 1.44978 1
genomeend 10

/* Organism #11 Fitness: 0.387721 Error: 0 */
genomestart 11
trait 1 0 0.515183 0.0149264 0.631214 0.627167 0.0367882 0.124161 0.878852 
node 1 1 1 1
node 2 1 1 1
node 3 1 1 1
node 4 1 1 1
node 5 1 1 1
node 6 1 1 1
node 7 1 1 1
node 8 1 1 1
node 9 1 1 1
node 10 1 1 1
node 11 1 1 1
node 12 1 1 1
node 13 1 1 1
node 14 1 1 1
node 15 1 1 1
node 16 1 1 1
node 17 1 1 1
node 18 1 1 1
node 19 1 1 1
node 20 1 1 1
node 21 1 1 1
node 22 1 1 1
node 23 1 1 1
node 24 1 1 1
node 25 1 1 1
node 26 1 1 1
node 27 1 1 3
node 28 1 0 2
node 29 1 0 2
node 37 1 0 0
node 128 1 0 0
node 143 1 0 0
node 188 1 0 0
node 233 1 0 0
gene 1 1 28 1.87152 0 1 1.87152 1
gene 1 1 29 -8 0 2 -8 1
gene 1 2 28 -1.18385 0 3 -1.18385 1
gene 1 2 29 -8 0 4 -8 1
gene 1 3 28 0.123295 0 5 0.123295 1
gene 1 3 29 0.795923 0 6 0.795923 1
gene 1 4 28 -0.698569 0 7 -0.698569 1
gene 1 4 29 -5.45804 0 8 -5.45804 1
gene 1 5 28 -2.50994 0 9 -2.50994 1
gene 1 5 29 5.27478 0 10 5.27478 1
gene 1 6 28 0.910558 0 11 0.910558 1
gene 1 6 29 4.53192 0 12 4.53192 1
gene 1 7 28 1.88704 0 13 1.88704 1
gene 1 7 29 2.72637 0 14 2.72637 1
gene 1 8 28 -6.46454 0 15 -6.46454 1
gene 1 8 29 -4.04585 0 16 -4.04585 1
gene 1 9 28 5.38476 0 17 5.38476 1
gene 1 9 29 1.8783 0 18 1.8783 1
gene 1 10 28 -8 0 19 -8 1
gene 1 10 29 1.52112 0 20 1.52112 1
gene 1 11 28 3.15863 0 21 3.15863 1
gene 1 11 29 7.78383 0 22 7.78383 1
gene 1 12 28 -0.323172 0 23 -0.323172 1
gene 1 12 29 -0.33207 0 24 -0.33207 0
gene 1 13 28 -2.29163 0 25 -2.29163 1
gene 1 13 29 -3.52882 0 26 -3.52882 1
gene 1 14 28 -2.71648 0 27 -2.71648 1
gene 1 14 29 0.30076 0 28 0.30076 1
gene 1 15 28 2.10487 0 29 2.10487 0
gene 1 15 29 4.41043 0 30 4.41043 1
gene 1 16 28 -5.16507 0 31 -5.16507 1
gene 1 16 29 2.27795 0 32 2.27795 1
gene 1 17 28 -4.36473 0 33 -4.36473 1
gene 1 17 29 -0.603017 0 34 -0.603017 1
gene 1 18 28 -2.02803 0 35 -2.02803 1
gene 1 18 29 -2.40364 0 36 -2.40364 0
gene 1 19 28 -8 0 37 -8 1
gene 1 19 29 -1.7365 0 38 -1.7365 1
gene 1 20 28 0.188604 0 39 0.188604 1
gene 1 20 29 0.0823904 0 40 0.0823904 1
gene 1 21 28 7.77061 0 41 7.77061 1
gene 1 21 29 -0.340587 0 42 -0.340587 1
gene 1 22 28 -6.26559 0 43 -6.26559 1
gene 1 22 29 0.490242 0 44 0.490242 1
gene 1 23 28 -1.23246 0 45 -1.23246 0
gene 1 23 29 2.72237 0 46 2.72237 1
gene 1 24 28 -5.0584 0 47 -5.0584 1
gene 1 24 29 2.66453 0 48 2.66453 1
gene 1 25 28 -8 0 49 -8 1
gene 1 25 29 -4.42663 0 50 -4.42663 1
gene 1 26 28 -4.2719 0 51 -4.2719 1
gene 1 26 29 -1.68252 0 52 -1.68252 1
gene 1 27 28 -2.46095 0 53 -2.46095 1
gene 1 27 29 2.73679 0 54 2.73679 1
gene 1 19 37 -3.67977 0 73 -3.67977 1
gene 1 37 29 0.577124 0 74 0.577124 1
gene 1 14 37 -2.0266 0 81 -2.0266 1
gene 1 27 37 4.57797 0 188 4.57797 1
gene 1 1 37 2.73225 0 236 2.73225 1
gene 1 24 37 0.095294 0 251 0.095294 1
gene 1 25 37 2.40036 0 415 2.40036 1
gene 1 15 128 1.60945 0 434 1.60945 1
gene 1 128 28 -0.135559 0 435 -0.135559 1
gene 1 14 128 -1.10492 0 484 -1.10492 1
gene 1 12 143 -2.34809 0 492 -2.34809 1
gene 1 143 29 -1.25967 0 493 -1.25967 1
gene 1 12 128 -0.0965434 0 629 -0.0965434 1
gene 1 22 143 -2.16407 0 654 -2.16407 1
gene 1 18 188 0.389645 0 667 0.389645 1
gene 1 188 29 -2.67769 0 668 -2.67769 1
gene 1 23 233 1.80111 0 850 1.80111 1
gene 1 233 28 2.09479 0 851 2.09479 1
gene 1 19 128 1.35395 0 873 1.35395 1
genomeend 11

/* Species #62 : (Size 11) (AF 0) (Age 10)  */


/* Organism #12 Fitness: 0.387721 Error: 0 */
genomestart 12
trait 1 0 0.452223 0.0199019 0.508286 0.627167 0.0490509 0.165548 0.838469 
node 1 1 1 1
node 2 1 1 1
node 3 1 1 1
node 4 1 1 1
node 5 1 1 1
node 6 1 1 1
node 7 1 1 1
node 8 1 1 1
node 9 1 1 1
node 10 1 1 1
node 11 1 1 1
node 12 1 1 1
node 13 1 1 1
node 14 1 1 1
node 15 1 1 1
node 16 1 1 1
node 17 1 1 1
node 18 1 1 1
node 19 1 1 1
node 20 1 1 1
node 21 1 1 1
node 22 1 1 1
node 23 1 1 1
node 24 1 1 1
node 25 1 1 1
node 26 1 1 1
node 27 1 1 3
node 28 1 0 2
node 29 1 0 2
node 37 1 0 0
node 128 1 0 0
node 143 1 0 0
node 219 1 0 0
gene 1 1 28 8 0 1 8 1
gene 1 1 29 -2.42935 0 2 -2.42935 1
gene 1 2 28 -1.3262 0 3 -1.3262 1
gene 1 2 29 4.15756 0 4 4.15756 1
gene 1 3 28 -3.76255 0 5 -3.76255 1
gene 1 3 29 -0.69628 0 6 -0.69628 1
gene 1 4 28 0.472102 0 7 0.472102 1
gene 1 4 29 3.44554 0 8 3.44554 1
gene 1 5 28 -0.939131 0 9 -0.939131 1
gene 1 5 29 -1.17534 0 10 -1.17534 1
gene 1 6 28 -3.54499 0 11 -3.54499 1
gene 1 6 29 -6.16443 0 12 -6.16443 1
gene 1 7 28 6.07616 0 13 6.07616 1
gene 1 7 29 -0.313463 0 14 -0.313463 1
gene 1 8 28 -0.624351 0 15 -0.624351 1
gene 1 8 29 -3.07191 0 16 -3.07191 1
gene 1 9 28 1.43017 0 17 1.43017 1
gene 1 9 29 1.83956 0 18 1.83956 0
gene 1 10 28 -3.27622 0 19 -3.27622 1
gene 1 10 29 0.767216 0 20 0.767216 1
gene 1 11 28 -2.81671 0 21 -2.81671 1
gene 1 11 29 4.74876 0 22 4.74876 1
gene 1 12 28 -3.73093 0 23 -3.73093 1
gene 1 12 29 0.513369 0 24 0.513369 0
gene 1 13 28 -2.54838 0 25 -2.54838 1
gene 1 13 29 -0.706833 0 26 -0.706833 1
gene 1 14 28 -7.49513 0 27 -7.49513 1
gene 1 14 29 4.13753 0 28 4.13753 1
gene 1 15 28 5.73142 0 29 5.73142 0
gene 1 15 29 -1.18038 0 30 -1.18038 1
gene 1 16 28 5.567 0 31 5.567 1
gene 1 16 29 3.30055 0 32 3.30055 1
gene 1 17 28 -5.76387 0 33 -5.76387 1
gene 1 17 29 1.54992 0 34 1.54992 1
gene 1 18 28 -2.03253 0 35 -2.03253 0
gene 1 18 29 6.26345 0 36 6.26345 1
gene 1 19 28 -2.15614 0 37 -2.15614 1
gene 1 19 29 -3.20185 0 38 -3.20185 1
gene 1 20 28 -6.12433 0 39 -6.12433 1
gene 1 20 29 0.290063 0 40 0.290063 1
gene 1 21 28 0.94373 0 41 0.94373 1
gene 1 21 29 -2.27267 0 42 -2.27267 1
gene 1 22 28 -1.88642 0 43 -1.88642 1
gene 1 22 29 -1.71614 0 44 -1.71614 1
gene 1 23 28 -0.392439 0 45 -0.392439 1
gene 1 23 29 0.880993 0 46 0.880993 1
gene 1 24 28 -0.874686 0 47 -0.874686 1
gene 1 24 29 0.982858 0 48 0.982858 1
gene 1 25 28 -7.76424 0 49 -7.76424 1
gene 1 25 29 -6.64527 0 50 -6.64527 1
gene 1 26 28 -1.26949 0 51 -1.26949 1
gene 1 26 29 -1.00371 0 52 -1.00371 1
gene 1 27 28 -5.65007 0 53 -5.65007 1
gene 1 27 29 2.33793 0 54 2.33793 1
gene 1 19 37 5.68301 0 73 5.68301 1
gene 1 37 29 -3.73119 0 74 -3.73119 1
gene 1 14 37 0.362293 0 81 0.362293 1
gene 1 27 37 0.927915 0 188 0.927915 1
gene 1 1 37 -0.469909 0 236 -0.469909 1
gene 1 24 37 -4.12736 0 251 -4.12736 1
gene 1 25 37 0.860164 0 415 0.860164 1
gene 1 15 128 1.90023 0 434 1.90023 1
gene 1 128 28 3.08105 0 435 3.08105 1
gene 1 14 128 -1.55854 0 484 -1.55854 1
gene 1 12 143 0.657998 0 492 0.657998 1
gene 1 143 29 1.32038 0 493 1.32038 1
gene 1 9 37 2.43085 0 661 2.43085 1
gene 1 1 128 -0.592212 0 685 -0.592212 1
gene 1 15 143 0.224021 0 803 0.224021 1
gene 1 18 219 1.49518 0 809 1.49518 1
gene 1 219 28 -1.68953 0 810 -1.68953 1
genomeend 12

/* Organism #13 Fitness: 0.37915 Error: 0 */
genomestart 13
trait 1 0 0.221686 0.656365 1 1 0.574641 0.165548 0.838469 
node 1 1 1 1
node 2 1 1 1
node 3 1 1 1
node 4 1 1 1
node 5 1 1 1
node 6 1 1 1
node 7 1 1 1
node 8 1 1 1
node 9 1 1 1
node 10 1 1 1
node 11 1 1 1
node 12 1 1 1
node 13 1 1 1
node 14 1 1 1
node 15 1 1 1
node 16 1 1 1
node 17 1 1 1
node 18 1 1 1
node 19 1 1 1
node 20 1 1 1
node 21 1 1 1
node 22 1 1 1
node 23 1 1 1
node 24 1 1 1
node 25 1 1 1
node 26 1 1 1
node 27 1 1 3
node 28 1 0 2
node 29 1 0 2
node 37 1 0 0
node 128 1 0 0
node 143 1 0 0
node 219 1 0 0
gene 1 1 28 8 0 1 8 1
gene 1 1 29 -0.812174 0 2 -0.812174 1
gene 1 2 28 -2.93681 0 3 -2.93681 1
gene 1 2 29 3.69169 0 4 3.69169 1
gene 1 3 28 -3.12792 0 5 -3.12792 1
gene 1 3 29 -2.64672 0 6 -2.64672 1
gene 1 4 28 0.399697 0 7 0.399697 1
gene 1 4 29 5.13817 0 8 5.13817 1
gene 1 5 28 -0.959044 0 9 -0.959044 1
gene 1 5 29 -1.4851 0 10 -1.4851 1
gene 1 6 28 -2.09284 0 11 -2.09284 1
gene 1 6 29 -5.27916 0 12 -5.27916 1
gene 1 7 28 7.42645 0 13 7.42645 1
gene 1 7 29 1.43838 0 14 1.43838 1
gene 1 8 28 -1.26562 0 15 -1.26562 1
gene 1 8 29 -0.984675 0 16 -0.984675 1
gene 1 9 28 3.87981 0 17 3.87981 1
gene 1 9 29 1.51713 0 18 1.51713 0
gene 1 10 28 -2.61465 0 19 -2.61465 1
gene 1 10 29 1.12955 0 20 1.12955 1
gene 1 11 28 -4.11954 0 21 -4.11954 1
gene 1 11 29 5.36783 0 22 5.36783 1
gene 1 12 28 -5.45797 0 23 -5.45797 1
gene 1 12 29 -0.344049 0 24 -0.344049 0
gene 1 13 28 -2.66695 0 25 -2.66695 1
gene 1 13 29 -2.56037 0 26 -2.56037 1
gene 1 14 28 -7.80161 0 27 -7.80161 1
gene 1 14 29 3.7726 0 28 3.7726 1
gene 1 15 28 3.83966 0 29 3.83966 0
gene 1 15 29 -3.09481 0 30 -3.09481 1
gene 1 16 28 6.25328 0 31 6.25328 1
gene 1 16 29 1.91531 0 32 1.91531 1
gene 1 17 28 -3.79825 0 33 -3.79825 1
gene 1 17 29 0.120357 0 34 0.120357 1
gene 1 18 28 -0.499969 0 35 -0.499969 1
gene 1 18 29 7.4526 0 36 7.4526 1
gene 1 19 28 -0.0613517 0 37 -0.0613517 1
gene 1 19 29 -3.53038 0 38 -3.53038 1
gene 1 20 28 -3.67049 0 39 -3.67049 1
gene 1 20 29 1.17067 0 40 1.17067 1
gene 1 21 28 2.95108 0 41 2.95108 1
gene 1 21 29 -0.367471 0 42 -0.367471 1
gene 1 22 28 -2.44979 0 43 -2.44979 1
gene 1 22 29 0.242994 0 44 0.242994 1
gene 1 23 28 -1.36003 0 45 -1.36003 1
gene 1 23 29 -0.9991 0 46 -0.9991 1
gene 1 24 28 -2.91698 0 47 -2.91698 1
gene 1 24 29 1.36472 0 48 1.36472 1
gene 1 25 28 -5.92566 0 49 -5.92566 1
gene 1 25 29 -4.1822 0 50 -4.1822 1
gene 1 26 28 -0.0685141 0 51 -0.0685141 1
gene 1 26 29 -0.376709 0 52 -0.376709 1
gene 1 27 28 -5.79427 0 53 -5.79427 1
gene 1 27 29 3.75368 0 54 3.75368 1
gene 1 19 37 3.64025 0 73 3.64025 1
gene 1 37 29 -5.98659 0 74 -5.98659 1
gene 1 14 37 0.994636 0 81 0.994636 1
gene 1 27 37 -0.186163 0 188 -0.186163 1
gene 1 1 37 -2.40516 0 236 -2.40516 1
gene 1 24 37 -3.994 0 251 -3.994 1
gene 1 25 37 2.96381 0 415 2.96381 1
gene 1 15 128 1.33671 0 434 1.33671 1
gene 1 128 28 3.08105 0 435 3.08105 1
gene 1 14 128 -3.90023 0 484 -3.90023 1
gene 1 12 143 1.38121 0 492 1.38121 1
gene 1 143 29 1.32038 0 493 1.32038 1
gene 1 9 37 2.43085 0 661 2.43085 1
gene 1 1 128 0.616626 0 685 0.616626 1
gene 1 15 143 0.272927 0 803 0.272927 1
gene 1 18 219 1.10073 0 809 1.10073 1
gene 1 219 28 -1.68953 0 810 -1.68953 1
gene 1 5 128 1.14277 0 888 1.14277 1
genomeend 13

/* Organism #14 Fitness: 0.387721 Error: 0 */
genomestart 14
trait 1 0 0.221686 0.656365 1 1 0.574641 0.165548 0.838469 
node 1 1 1 1
node 2 1 1 1
node 3 1 1 1
node 4 1 1 1
node 5 1 1 1
node 6 1 1 1
node 7 1 1 1
node 8 1 1 1
node 9 1 1 1
node 10 1 1 1
node 11 1 1 1
node 12 1 1 1
node 13 1 1 1
node 14 1 1 1
node 15 1 1 1
node 16 1 1 1
node 17 1 1 1
node 18 1 1 1
node 19 1 1 1
node 20 1 1 1
node 21 1 1 1
node 22 1 1 1
node 23 1 1 1
node 24 1 1 1
node 25 1 1 1
node 26 1 1 1
node 27 1 1 3
node 28 1 0 2
node 29 1 0 2
node 37 1 0 0
node 128 1 0 0
node 143 1 0 0
node 219 1 0 0
gene 1 1 28 8 0 1 8 1
gene 1 1 29 -4.05103 0 2 -4.05103 1
gene 1 2 28 0.188435 0 3 0.188435 1
gene 1 2 29 4.20219 0 4 4.20219 1
gene 1 3 28 -4.85328 0 5 -4.85328 1
gene 1 3 29 -1.32763 0 6 -1.32763 1
gene 1 4 28 2.75908 0 7 2.75908 1
gene 1 4 29 0.949736 0 8 0.949736 1
gene 1 5 28 -1.96623 0 9 -1.96623 1
gene 1 5 29 0.108725 0 10 0.108725 1
gene 1 6 28 -4.64511 0 11 -4.64511 1
gene 1 6 29 -7.14575 0 12 -7.14575 1
gene 1 7 28 5.57779 0 13 5.57779 1
gene 1 7 29 -2.59434 0 14 -2.59434 1
gene 1 8 28 -2.44203 0 15 -2.44203 1
gene 1 8 29 -3.0874 0 16 -3.0874 1
gene 1 9 28 -0.290083 0 17 -0.290083 1
gene 1 9 29 3.99172 0 18 3.99172 0
gene 1 10 28 -1.31586 0 19 -1.31586 1
gene 1 10 29 1.11513 0 20 1.11513 1
gene 1 11 28 -0.844829 0 21 -0.844829 1
gene 1 11 29 2.67884 0 22 2.67884 1
gene 1 12 28 -3.21211 0 23 -3.21211 1
gene 1 12 29 2.28947 0 24 2.28947 0
gene 1 13 28 -3.95673 0 25 -3.95673 1
gene 1 13 29 -1.86699 0 26 -1.86699 1
gene 1 14 28 -8 0 27 -8 1
gene 1 14 29 5.0952 0 28 5.0952 1
gene 1 15 28 4.85821 0 29 4.85821 0
gene 1 15 29 0.635166 0 30 0.635166 1
gene 1 16 28 6.13594 0 31 6.13594 1
gene 1 16 29 1.57709 0 32 1.57709 1
gene 1 17 28 -3.55273 0 33 -3.55273 1
gene 1 17 29 1.55778 0 34 1.55778 1
gene 1 18 28 -1.82974 0 35 -1.82974 0
gene 1 18 29 6.65263 0 36 6.65263 1
gene 1 19 28 -1.07609 0 37 -1.07609 1
gene 1 19 29 -3.8023 0 38 -3.8023 1
gene 1 20 28 -6.28623 0 39 -6.28623 1
gene 1 20 29 1.35905 0 40 1.35905 1
gene 1 21 28 -1.32029 0 41 -1.32029 1
gene 1 21 29 -2.43342 0 42 -2.43342 1
gene 1 22 28 -0.41344 0 43 -0.41344 1
gene 1 22 29 -0.729173 0 44 -0.729173 1
gene 1 23 28 2.09299 0 45 2.09299 1
gene 1 23 29 3.15394 0 46 3.15394 1
gene 1 24 28 0.13273 0 47 0.13273 1
gene 1 24 29 1.77291 0 48 1.77291 1
gene 1 25 28 -8 0 49 -8 1
gene 1 25 29 -6.99524 0 50 -6.99524 1
gene 1 26 28 0.524308 0 51 0.524308 1
gene 1 26 29 1.35712 0 52 1.35712 1
gene 1 27 28 -6.64826 0 53 -6.64826 1
gene 1 27 29 2.78464 0 54 2.78464 1
gene 1 19 37 4.85252 0 73 4.85252 1
gene 1 37 29 -2.10173 0 74 -2.10173 1
gene 1 14 37 0.601634 0 81 0.601634 1
gene 1 27 37 -0.644246 0 188 -0.644246 1
gene 1 1 37 1.90977 0 236 1.90977 1
gene 1 24 37 -4.12736 0 251 -4.12736 1
gene 1 25 37 0.860164 0 415 0.860164 1
gene 1 15 128 0.857412 0 434 0.857412 1
gene 1 128 28 -1.43773 0 435 -1.43773 1
gene 1 14 128 -3.38858 0 484 -3.38858 1
gene 1 12 143 0.657998 0 492 0.657998 1
gene 1 143 29 -0.275124 0 493 -0.275124 1
gene 1 9 37 0.76896 0 661 0.76896 1
gene 1 1 128 -0.592212 0 685 -0.592212 1
gene 1 15 143 -0.202094 0 803 -0.202094 1
gene 1 18 219 2.53014 0 809 2.53014 1
gene 1 219 28 -3.98803 0 810 -3.98803 1
gene 1 5 128 -0.65981 0 888 -0.65981 1
genomeend 14

/* Organism #15 Fitness: 0.37915 Error: 0 */
genomestart 15
trait 1 0 0.336955 0.338134 0.754143 0.813583 0.311846 0.165548 0.838469 
node 1 1 1 1
node 2 1 1 1
node 3 1 1 1
node 4 1 1 1
node 5 1 1 1
node 6 1 1 1
node 7 1 1 1
node 8 1 1 1
node 9 1 1 1
node 10 1 1 1
node 11 1 1 1
node 12 1 1 1
node 13 1 1 1
node 14 1 1 1
node 15 1 1 1
node 16 1 1 1
node 17 1 1 1
node 18 1 1 1
node 19 1 1 1
node 20 1 1 1
node 21 1 1 1
node 22 1 1 1
node 23 1 1 1
node 24 1 1 1
node 25 1 1 1
node 26 1 1 1
node 27 1 1 3
node 28 1 0 2
node 29 1 0 2
node 37 1 0 0
node 128 1 0 0
node 143 1 0 0
node 219 1 0 0
gene 1 1 28 7.18409 0 1 7.18409 1
gene 1 1 29 -1.85369 0 2 -1.85369 1
gene 1 2 28 -2.7434 0 3 -2.7434 1
gene 1 2 29 3.06965 0 4 3.06965 1
gene 1 3 28 -1.57079 0 5 -1.57079 1
gene 1 3 29 0.0918607 0 6 0.0918607 1
gene 1 4 28 2.12788 0 7 2.12788 1
gene 1 4 29 2.52045 0 8 2.52045 1
gene 1 5 28 -1.47053 0 9 -1.47053 1
gene 1 5 29 -0.982388 0 10 -0.982388 1
gene 1 6 28 -4.91123 0 11 -4.91123 1
gene 1 6 29 -4.7827 0 12 -4.7827 1
gene 1 7 28 3.86166 0 13 3.86166 1
gene 1 7 29 1.77652 0 14 1.77652 1
gene 1 8 28 -2.50589 0 15 -2.50589 1
gene 1 8 29 -1.07173 0 16 -1.07173 1
gene 1 9 28 -0.300383 0 17 -0.300383 1
gene 1 9 29 0.122584 0 18 0.122584 0
gene 1 10 28 -1.72481 0 19 -1.72481 1
gene 1 10 29 1.4345 0 20 1.4345 1
gene 1 11 28 -4.80918 0 21 -4.80918 1
gene 1 11 29 3.18545 0 22 3.18545 1
gene 1 12 28 -2.67628 0 23 -2.67628 1
gene 1 12 29 1.94095 0 24 1.94095 0
gene 1 13 28 -0.400183 0 25 -0.400183 1
gene 1 13 29 -2.38825 0 26 -2.38825 1
gene 1 14 28 -6.28347 0 27 -6.28347 1
gene 1 14 29 6.43244 0 28 6.43244 1
gene 1 15 28 6.12504 0 29 6.12504 0
gene 1 15 29 1.31954 0 30 1.31954 1
gene 1 16 28 6.36391 0 31 6.36391 1
gene 1 16 29 2.73519 0 32 2.73519 1
gene 1 17 28 -7.5489 0 33 -7.5489 1
gene 1 17 29 1.41427 0 34 1.41427 1
gene 1 18 28 -3.88401 0 35 -3.88401 0
gene 1 18 29 5.63332 0 36 5.63332 1
gene 1 19 28 -3.2075 0 37 -3.2075 1
gene 1 19 29 -4.90867 0 38 -4.90867 1
gene 1 20 28 -3.62876 0 39 -3.62876 1
gene 1 20 29 -1.49725 0 40 -1.49725 1
gene 1 21 28 1.35092 0 41 1.35092 1
gene 1 21 29 -1.62781 0 42 -1.62781 1
gene 1 22 28 0.354635 0 43 0.354635 1
gene 1 22 29 -0.661422 0 44 -0.661422 1
gene 1 23 28 -2.75724 0 45 -2.75724 1
gene 1 23 29 -1.12621 0 46 -1.12621 1
gene 1 24 28 1.429 0 47 1.429 1
gene 1 24 29 0.000314722 0 48 0.000314722 1
gene 1 25 28 -7.71763 0 49 -7.71763 1
gene 1 25 29 -6.35565 0 50 -6.35565 1
gene 1 26 28 -0.353557 0 51 -0.353557 1
gene 1 26 29 1.46195 0 52 1.46195 1
gene 1 27 28 -3.1516 0 53 -3.1516 1
gene 1 27 29 4.57722 0 54 4.57722 1
gene 1 19 37 4.54337 0 73 4.54337 1
gene 1 37 29 -3.78727 0 74 -3.78727 1
gene 1 14 37 0.36153 0 81 0.36153 1
gene 1 27 37 0.211188 0 188 0.211188 1
gene 1 1 37 -0.545824 0 236 -0.545824 1
gene 1 24 37 -1.88143 0 251 -1.88143 1
gene 1 25 37 2.27569 0 415 2.27569 1
gene 1 15 128 2.82853 0 434 2.82853 1
gene 1 128 28 3.08105 0 435 3.08105 1
gene 1 14 128 0.365802 0 484 0.365802 1
gene 1 12 143 0.657998 0 492 0.657998 1
gene 1 143 29 3.52115 0 493 3.52115 1
gene 1 9 37 2.43085 0 661 2.43085 1
gene 1 1 128 1.23775 0 685 1.23775 1
gene 1 15 143 0.224021 0 803 0.224021 1
gene 1 18 219 1.70125 0 809 1.70125 1
gene 1 219 28 -0.491911 0 810 -0.491911 1
genomeend 15

/* Organism #16 Fitness: 0.0609357 Error: 0 */
genomestart 16
trait 1 0 0.336955 0.338134 0.754143 0.813583 0.311846 0.165548 0.838469 
node 1 1 1 1
node 2 1 1 1
node 3 1 1 1
node 4 1 1 1
node 5 1 1 1
node 6 1 1 1
node 7 1 1 1
node 8 1 1 1
node 9 1 1 1
node 10 1 1 1
node 11 1 1 1
node 12 1 1 1
node 13 1 1 1
node 14 1 1 1
node 15 1 1 1
node 16 1 1 1
node 17 1 1 1
node 18 1 1 1
node 19 1 1 1
node 20 1 1 1
node 21 1 1 1
node 22 1 1 1
node 23 1 1 1
node 24 1 1 1
node 25 1 1 1
node 26 1 1 1
node 27 1 1 3
node 28 1 0 2
node 29 1 0 2
node 37 1 0 0
node 128 1 0 0
node 143 1 0 0
node 219 1 0 0
gene 1 1 28 5.91543 0 1 5.91543 1
gene 1 1 29 -0.217902 0 2 -0.217902 1
gene 1 2 28 -1.3262 0 3 -1.3262 1
gene 1 2 29 6.48589 0 4 6.48589 1
gene 1 3 28 -2.43118 0 5 -2.43118 1
gene 1 3 29 -0.694296 0 6 -0.694296 1
gene 1 4 28 -2.05168 0 7 -2.05168 1
gene 1 4 29 1.36303 0 8 1.36303 1
gene 1 5 28 -3.18026 0 9 -3.18026 1
gene 1 5 29 -2.6049 0 10 -2.6049 1
gene 1 6 28 -1.90989 0 11 -1.90989 1
gene 1 6 29 -5.73206 0 12 -5.73206 1
gene 1 7 28 -1.71949 0 13 -1.71949 1
gene 1 7 29 -0.313463 0 14 -0.313463 1
gene 1 8 28 0.566786 0 15 0.566786 1
gene 1 8 29 -2.94694 0 16 -2.94694 1
gene 1 9 28 1.32412 0 17 1.32412 1
gene 1 9 29 2.68782 0 18 2.68782 0
gene 1 10 28 -0.823675 0 19 -0.823675 1
gene 1 10 29 3.23059 0 20 3.23059 1
gene 1 11 28 -5.28062 0 21 -5.28062 1
gene 1 11 29 6.81089 0 22 6.81089 1
gene 1 12 28 -2.44045 0 23 -2.44045 1
gene 1 12 29 1.11054 0 24 1.11054 0
gene 1 13 28 -1.45635 0 25 -1.45635 1
gene 1 13 29 -0.0913505 0 26 -0.0913505 1
gene 1 14 28 -7.03369 0 27 -7.03369 1
gene 1 14 29 5.35407 0 28 5.35407 1
gene 1 15 28 5.36444 0 29 5.36444 0
gene 1 15 29 -1.18038 0 30 -1.18038 1
gene 1 16 28 2.47497 0 31 2.47497 1
gene 1 16 29 -1.16901 0 32 -1.16901 1
gene 1 17 28 2.3027 0 33 2.3027 1
gene 1 17 29 2.88434 0 34 2.88434 1
gene 1 18 28 -2.66358 0 35 -2.66358 0
gene 1 18 29 5.2484 0 36 5.2484 1
gene 1 19 28 -4.23537 0 37 -4.23537 1
gene 1 19 29 -5.30602 0 38 -5.30602 1
gene 1 20 28 0.0235755 0 39 0.0235755 1
gene 1 20 29 2.29673 0 40 2.29673 1
gene 1 21 28 -1.49409 0 41 -1.49409 1
gene 1 21 29 -2.77233 0 42 -2.77233 1
gene 1 22 28 -3.4424 0 43 -3.4424 1
gene 1 22 29 -3.43899 0 44 -3.43899 1
gene 1 23 28 -1.82928 0 45 -1.82928 1
gene 1 23 29 2.12432 0 46 2.12432 1
gene 1 24 28 -1.64101 0 47 -1.64101 1
gene 1 24 29 -1.3644 0 48 -1.3644 1
gene 1 25 28 -8 0 49 -8 1
gene 1 25 29 -0.49501 0 50 -0.49501 1
gene 1 26 28 -3.27914 0 51 -3.27914 1
gene 1 26 29 -2.82483 0 52 -2.82483 1
gene 1 27 28 -0.867565 0 53 -0.867565 1
gene 1 27 29 -2.20367 0 54 -2.20367 1
gene 1 19 37 7.97563 0 73 7.97563 1
gene 1 37 29 -1.87422 0 74 -1.87422 1
gene 1 14 37 0.362293 0 81 0.362293 1
gene 1 27 37 -0.653935 0 188 -0.653935 1
gene 1 1 37 0.309076 0 236 0.309076 1
gene 1 24 37 -4.67433 0 251 -4.67433 1
gene 1 25 37 -1.36227 0 415 -1.36227 1
gene 1 15 128 1.83019 0 434 1.83019 1
gene 1 128 28 5.55389 0 435 5.55389 1
gene 1 14 128 1.05052 0 484 1.05052 1
gene 1 12 143 0.124458 0 492 0.124458 1
gene 1 143 29 0.437559 0 493 0.437559 1
gene 1 9 37 3.92389 0 661 3.92389 1
gene 1 1 128 -2.18703 0 685 -2.18703 1
gene 1 15 143 0.991943 0 803 0.991943 1
gene 1 18 219 0.472274 0 809 0.472274 1
gene 1 219 28 0.102971 0 810 0.102971 1
genomeend 16

/* Organism #17 Fitness: 0.0705786 Error: 0 */
genomestart 17
trait 1 0 0.221686 0.656365 1 1 0.574641 0.165548 0.838469 
node 1 1 1 1
node 2 1 1 1
node 3 1 1 1
node 4 1 1 1
node 5 1 1 1
node 6 1 1 1
node 7 1 1 1
node 8 1 1 1
node 9 1 1 1
node 10 1 1 1
node 11 1 1 1
node 12 1 1 1
node 13 1 1 1
node 14 1 1 1
node 15 1 1 1
node 16 1 1 1
node 17 1 1 1
node 18 1 1 1
node 19 1 1 1
node 20 1 1 1
node 21 1 1 1
node 22 1 1 1
node 23 1 1 1
node 24 1 1 1
node 25 1 1 1
node 26 1 1 1
node 27 1 1 3
node 28 1 0 2
node 29 1 0 2
node 37 1 0 0
node 128 1 0 0
node 143 1 0 0
node 219 1 0 0
gene 1 1 28 6.1283 0 1 6.1283 1
gene 1 1 29 -3.16736 0 2 -3.16736 1
gene 1 2 28 -2.51222 0 3 -2.51222 1
gene 1 2 29 5.57354 0 4 5.57354 1
gene 1 3 28 -1.3316 0 5 -1.3316 1
gene 1 3 29 1.63236 0 6 1.63236 1
gene 1 4 28 0.244053 0 7 0.244053 1
gene 1 4 29 2.91314 0 8 2.91314 1
gene 1 5 28 1.04251 0 9 1.04251 1
gene 1 5 29 -3.37466 0 10 -3.37466 1
gene 1 6 28 -1.36048 0 11 -1.36048 1
gene 1 6 29 -4.71014 0 12 -4.71014 1
gene 1 7 28 6.86377 0 13 6.86377 1
gene 1 7 29 0.462546 0 14 0.462546 1
gene 1 8 28 -1.25624 0 15 -1.25624 1
gene 1 8 29 -3.5316 0 16 -3.5316 1
gene 1 9 28 2.87202 0 17 2.87202 1
gene 1 9 29 3.98188 0 18 3.98188 0
gene 1 10 28 -3.65862 0 19 -3.65862 1
gene 1 10 29 -0.623207 0 20 -0.623207 1
gene 1 11 28 -1.13811 0 21 -1.13811 1
gene 1 11 29 6.59986 0 22 6.59986 1
gene 1 12 28 -3.4349 0 23 -3.4349 1
gene 1 12 29 -0.450634 0 24 -0.450634 0
gene 1 13 28 -4.7348 0 25 -4.7348 1
gene 1 13 29 1.53086 0 26 1.53086 1
gene 1 14 28 -8 0 27 -8 1
gene 1 14 29 5.72403 0 28 5.72403 1
gene 1 15 28 3.81082 0 29 3.81082 0
gene 1 15 29 -0.948363 0 30 -0.948363 1
gene 1 16 28 4.90047 0 31 4.90047 1
gene 1 16 29 4.96556 0 32 4.96556 1
gene 1 17 28 -6.67912 0 33 -6.67912 1
gene 1 17 29 1.72136 0 34 1.72136 1
gene 1 18 28 -3.9275 0 35 -3.9275 0
gene 1 18 29 7.1835 0 36 7.1835 1
gene 1 19 28 -1.55973 0 37 -1.55973 1
gene 1 19 29 -1.58895 0 38 -1.58895 1
gene 1 20 28 -5.66961 0 39 -5.66961 1
gene 1 20 29 -0.408048 0 40 -0.408048 1
gene 1 21 28 -0.650176 0 41 -0.650176 1
gene 1 21 29 -4.41819 0 42 -4.41819 1
gene 1 22 28 -1.75381 0 43 -1.75381 1
gene 1 22 29 -3.50033 0 44 -3.50033 1
gene 1 23 28 -1.94675 0 45 -1.94675 1
gene 1 23 29 0.677816 0 46 0.677816 1
gene 1 24 28 -0.236697 0 47 -0.236697 1
gene 1 24 29 -1.23149 0 48 -1.23149 1
gene 1 25 28 -7.31104 0 49 -7.31104 1
gene 1 25 29 -6.26806 0 50 -6.26806 1
gene 1 26 28 -1.68538 0 51 -1.68538 1
gene 1 26 29 -0.915971 0 52 -0.915971 1
gene 1 27 28 -6.55815 0 53 -6.55815 1
gene 1 27 29 1.10963 0 54 1.10963 1
gene 1 19 37 3.72387 0 73 3.72387 1
gene 1 37 29 -2.35099 0 74 -2.35099 1
gene 1 14 37 -0.627804 0 81 -0.627804 1
gene 1 27 37 1.52745 0 188 1.52745 1
gene 1 1 37 -1.64632 0 236 -1.64632 1
gene 1 24 37 -4.12736 0 251 -4.12736 1
gene 1 25 37 -1.00612 0 415 -1.00612 1
gene 1 15 128 -0.13711 0 434 -0.13711 1
gene 1 128 28 -1.67913 0 435 -1.67913 1
gene 1 14 128 1.19778 0 484 1.19778 1
gene 1 12 143 0.657998 0 492 0.657998 1
gene 1 143 29 -0.557649 0 493 -0.557649 1
gene 1 9 37 2.65592 0 661 2.65592 1
gene 1 1 128 -0.217902 0 685 -0.217902 1
gene 1 15 143 0.224021 0 803 0.224021 1
gene 1 18 219 1.49518 0 809 1.49518 1
gene 1 219 28 -1.68953 0 810 -1.68953 1
gene 1 5 128 0.0125126 0 888 0.0125126 1
genomeend 17

/* Organism #18 Fitness: 0.0705786 Error: 0 */
genomestart 18
trait 1 0 0.336955 0.338134 0.754143 0.813583 0.311846 0.165548 0.838469 
node 1 1 1 1
node 2 1 1 1
node 3 1 1 1
node 4 1 1 1
node 5 1 1 1
node 6 1 1 1
node 7 1 1 1
node 8 1 1 1
node 9 1 1 1
node 10 1 1 1
node 11 1 1 1
node 12 1 1 1
node 13 1 1 1
node 14 1 1 1
node 15 1 1 1
node 16 1 1 1
node 17 1 1 1
node 18 1 1 1
node 19 1 1 1
node 20 1 1 1
node 21 1 1 1
node 22 1 1 1
node 23 1 1 1
node 24 1 1 1
node 25 1 1 1
node 26 1 1 1
node 27 1 1 3
node 28 1 0 2
node 29 1 0 2
node 37 1 0 0
node 128 1 0 0
node 143 1 0 0
node 219 1 0 0
gene 1 1 28 8 0 1 8 1
gene 1 1 29 -3.14829 0 2 -3.14829 1
gene 1 2 28 -2.38099 0 3 -2.38099 1
gene 1 2 29 6.4743 0 4 6.4743 1
gene 1 3 28 -5.07721 0 5 -5.07721 1
gene 1 3 29 1.07212 0 6 1.07212 1
gene 1 4 28 0.552366 0 7 0.552366 1
gene 1 4 29 2.44331 0 8 2.44331 1
gene 1 5 28 -0.00602741 0 9 -0.00602741 1
gene 1 5 29 -1.20365 0 10 -1.20365 1
gene 1 6 28 -1.47958 0 11 -1.47958 1
gene 1 6 29 -2.33184 0 12 -2.33184 1
gene 1 7 28 5.08477 0 13 5.08477 1
gene 1 7 29 -1.23821 0 14 -1.23821 1
gene 1 8 28 1.18326 0 15 1.18326 1
gene 1 8 29 -0.790043 0 16 -0.790043 1
gene 1 9 28 0.00137333 0 17 0.00137333 1
gene 1 9 29 1.83956 0 18 1.83956 0
gene 1 10 28 -5.67291 0 19 -5.67291 1
gene 1 10 29 -0.206095 0 20 -0.206095 1
gene 1 11 28 -3.14684 0 21 -3.14684 1
gene 1 11 29 0.05974 0 22 0.05974 1
gene 1 12 28 -4.14491 0 23 -4.14491 1
gene 1 12 29 -0.824181 0 24 -0.824181 0
gene 1 13 28 -2.54838 0 25 -2.54838 1
gene 1 13 29 0.396259 0 26 0.396259 1
gene 1 14 28 -8 0 27 -8 1
gene 1 14 29 4.13753 0 28 4.13753 1
gene 1 15 28 1.80097 0 29 1.80097 0
gene 1 15 29 -1.7571 0 30 -1.7571 1
gene 1 16 28 4.62718 0 31 4.62718 1
gene 1 16 29 5.66795 0 32 5.66795 1
gene 1 17 28 -6.83759 0 33 -6.83759 1
gene 1 17 29 1.12938 0 34 1.12938 1
gene 1 18 28 -1.25034 0 35 -1.25034 0
gene 1 18 29 0.652104 0 36 0.652104 1
gene 1 19 28 -3.92965 0 37 -3.92965 1
gene 1 19 29 -4.68917 0 38 -4.68917 1
gene 1 20 28 -6.46393 0 39 -6.46393 1
gene 1 20 29 1.60869 0 40 1.60869 1
gene 1 21 28 -0.104886 0 41 -0.104886 1
gene 1 21 29 0.452132 0 42 0.452132 1
gene 1 22 28 -2.14781 0 43 -2.14781 1
gene 1 22 29 -2.65153 0 44 -2.65153 1
gene 1 23 28 -1.2114 0 45 -1.2114 1
gene 1 23 29 -0.593127 0 46 -0.593127 1
gene 1 24 28 -0.675604 0 47 -0.675604 1
gene 1 24 29 3.15066 0 48 3.15066 1
gene 1 25 28 -6.42692 0 49 -6.42692 1
gene 1 25 29 -6.64527 0 50 -6.64527 1
gene 1 26 28 0.957366 0 51 0.957366 1
gene 1 26 29 -1.00371 0 52 -1.00371 1
gene 1 27 28 -7.4763 0 53 -7.4763 1
gene 1 27 29 0.0930052 0 54 0.0930052 1
gene 1 19 37 5.55933 0 73 5.55933 1
gene 1 37 29 -3.73119 0 74 -3.73119 1
gene 1 14 37 2.84955 0 81 2.84955 1
gene 1 27 37 0.100253 0 188 0.100253 1
gene 1 1 37 -2.46887 0 236 -2.46887 1
gene 1 24 37 -3.86773 0 251 -3.86773 1
gene 1 25 37 1.78884 0 415 1.78884 1
gene 1 15 128 2.12424 0 434 2.12424 1
gene 1 128 28 4.87287 0 435 4.87287 1
gene 1 14 128 0.16377 0 484 0.16377 1
gene 1 12 143 0.657998 0 492 0.657998 1
gene 1 143 29 3.78689 0 493 3.78689 1
gene 1 9 37 1.50502 0 661 1.50502 1
gene 1 1 128 1.22539 0 685 1.22539 1
gene 1 15 143 0.224021 0 803 0.224021 1
gene 1 18 219 -0.589999 0 809 -0.589999 1
gene 1 219 28 -2.03989 0 810 -2.03989 1
genomeend 18

/* Organism #19 Fitness: 0.387721 Error: 0 */
genomestart 19
trait 1 0 0.221686 0.656365 1 1 0.574641 0.165548 0.838469 
node 1 1 1 1
node 2 1 1 1
node 3 1 1 1
node 4 1 1 1
node 5 1 1 1
node 6 1 1 1
node 7 1 1 1
node 8 1 1 1
node 9 1 1 1
node 10 1 1 1
node 11 1 1 1
node 12 1 1 1
node 13 1 1 1
node 14 1 1 1
node 15 1 1 1
node 16 1 1 1
node 17 1 1 1
node 18 1 1 1
node 19 1 1 1
node 20 1 1 1
node 21 1 1 1
node 22 1 1 1
node 23 1 1 1
node 24 1 1 1
node 25 1 1 1
node 26 1 1 1
node 27 1 1 3
node 28 1 0 2
node 29 1 0 2
node 37 1 0 0
node 128 1 0 0
node 143 1 0 0
node 219 1 0 0
gene 1 1 28 8 0 1 8 1
gene 1 1 29 -2.42935 0 2 -2.42935 1
gene 1 2 28 -1.3262 0 3 -1.3262 1
gene 1 2 29 4.15756 0 4 4.15756 1
gene 1 3 28 -3.76255 0 5 -3.76255 1
gene 1 3 29 -0.69628 0 6 -0.69628 1
gene 1 4 28 0.472102 0 7 0.472102 1
gene 1 4 29 3.44554 0 8 3.44554 1
gene 1 5 28 -0.939131 0 9 -0.939131 1
gene 1 5 29 -1.17534 0 10 -1.17534 1
gene 1 6 28 -3.54499 0 11 -3.54499 1
gene 1 6 29 -6.16443 0 12 -6.16443 1
gene 1 7 28 6.07616 0 13 6.07616 1
gene 1 7 29 -0.313463 0 14 -0.313463 1
gene 1 8 28 -0.624351 0 15 -0.624351 1
gene 1 8 29 -3.07191 0 16 -3.07191 1
gene 1 9 28 1.43017 0 17 1.43017 1
gene 1 9 29 1.83956 0 18 1.83956 0
gene 1 10 28 -3.27622 0 19 -3.27622 1
gene 1 10 29 0.767216 0 20 0.767216 1
gene 1 11 28 -2.81671 0 21 -2.81671 1
gene 1 11 29 4.74876 0 22 4.74876 1
gene 1 12 28 -3.73093 0 23 -3.73093 1
gene 1 12 29 0.513369 0 24 0.513369 0
gene 1 13 28 -2.54838 0 25 -2.54838 1
gene 1 13 29 -0.706833 0 26 -0.706833 1
gene 1 14 28 -7.49513 0 27 -7.49513 1
gene 1 14 29 4.13753 0 28 4.13753 1
gene 1 15 28 5.73142 0 29 5.73142 0
gene 1 15 29 -1.18038 0 30 -1.18038 1
gene 1 16 28 5.567 0 31 5.567 1
gene 1 16 29 3.30055 0 32 3.30055 1
gene 1 17 28 -5.76387 0 33 -5.76387 1
gene 1 17 29 1.54992 0 34 1.54992 1
gene 1 18 28 -2.03253 0 35 -2.03253 0
gene 1 18 29 6.26345 0 36 6.26345 1
gene 1 19 28 -2.15614 0 37 -2.15614 1
gene 1 19 29 -3.20185 0 38 -3.20185 1
gene 1 20 28 -6.12433 0 39 -6.12433 1
gene 1 20 29 0.290063 0 40 0.290063 1
gene 1 21 28 0.94373 0 41 0.94373 1
gene 1 21 29 -2.27267 0 42 -2.27267 1
gene 1 22 28 -1.88642 0 43 -1.88642 1
gene 1 22 29 -1.71614 0 44 -1.71614 1
gene 1 23 28 -0.392439 0 45 -0.392439 1
gene 1 23 29 0.880993 0 46 0.880993 1
gene 1 24 28 -0.874686 0 47 -0.874686 1
gene 1 24 29 0.982858 0 48 0.982858 1
gene 1 25 28 -7.76424 0 49 -7.76424 1
gene 1 25 29 -6.64527 0 50 -6.64527 1
gene 1 26 28 -1.26949 0 51 -1.26949 1
gene 1 26 29 -1.00371 0 52 -1.00371 1
gene 1 27 28 -5.65007 0 53 -5.65007 1
gene 1 27 29 2.33793 0 54 2.33793 1
gene 1 19 37 5.68301 0 73 5.68301 1
gene 1 37 29 -3.73119 0 74 -3.73119 1
gene 1 14 37 0.362293 0 81 0.362293 1
gene 1 27 37 0.927915 0 188 0.927915 1
gene 1 1 37 -0.469909 0 236 -0.469909 1
gene 1 24 37 -4.12736 0 251 -4.12736 1
gene 1 25 37 0.860164 0 415 0.860164 1
gene 1 15 128 1.90023 0 434 1.90023 1
gene 1 128 28 3.08105 0 435 3.08105 1
gene 1 14 128 -1.55854 0 484 -1.55854 1
gene 1 12 143 0.657998 0 492 0.657998 1
gene 1 143 29 1.32038 0 493 1.32038 1
gene 1 9 37 2.43085 0 661 2.43085 1
gene 1 1 128 -0.592212 0 685 -0.592212 1
gene 1 15 143 0.224021 0 803 0.224021 1
gene 1 18 219 1.49518 0 809 1.49518 1
gene 1 219 28 -1.68953 0 810 -1.68953 1
gene 1 5 128 -0.325236 0 888 -0.325236 1
genomeend 19

/* Organism #20 Fitness: 0.387721 Error: 0 */
genomestart 20
trait 1 0 0.336955 0.338134 0.754143 0.813583 0.311846 0.165548 0.838469 
node 1 1 1 1
node 2 1 1 1
node 3 1 1 1
node 4 1 1 1
node 5 1 1 1
node 6 1 1 1
node 7 1 1 1
node 8 1 1 1
node 9 1 1 1
node 10 1 1 1
node 11 1 1 1
node 12 1 1 1
node 13 1 1 1
node 14 1 1 1
node 15 1 1 1
node 16 1 1 1
node 17 1 1 1
node 18 1 1 1
node 19 1 1 1
node 20 1 1 1
node 21 1 1 1
node 22 1 1 1
node 23 1 1 1
node 24 1 1 1
node 25 1 1 1
node 26 1 1 1
node 27 1 1 3
node 28 1 0 2
node 29 1 0 2
node 37 1 0 0
node 128 1 0 0
node 143 1 0 0
node 219 1 0 0
gene 1 1 28 7.69649 0 1 7.69649 1
gene 1 1 29 -4.58136 0 2 -4.58136 1
gene 1 2 28 -0.671195 0 3 -0.671195 1
gene 1 2 29 4.51135 0 4 4.51135 1
gene 1 3 28 -5.347 0 5 -5.347 1
gene 1 3 29 1.27262 0 6 1.27262 1
gene 1 4 28 1.3904 0 7 1.3904 1
gene 1 4 29 4.11046 0 8 4.11046 1
gene 1 5 28 -2.02689 0 9 -2.02689 1
gene 1 5 29 -3.02347 0 10 -3.02347 1
gene 1 6 28 -5.14462 0 11 -5.14462 1
gene 1 6 29 -5.87427 0 12 -5.87427 1
gene 1 7 28 4.25687 0 13 4.25687 1
gene 1 7 29 -0.881413 0 14 -0.881413 1
gene 1 8 28 -2.19094 0 15 -2.19094 1
gene 1 8 29 -3.38709 0 16 -3.38709 1
gene 1 9 28 -0.593742 0 17 -0.593742 1
gene 1 9 29 3.12644 0 18 3.12644 1
gene 1 10 28 -5.23337 0 19 -5.23337 1
gene 1 10 29 1.50386 0 20 1.50386 1
gene 1 11 28 -1.06822 0 21 -1.06822 1
gene 1 11 29 4.14319 0 22 4.14319 1
gene 1 12 28 -3.9734 0 23 -3.9734 1
gene 1 12 29 -1.51153 0 24 -1.51153 0
gene 1 13 28 -0.644332 0 25 -0.644332 1
gene 1 13 29 -0.83646 0 26 -0.83646 1
gene 1 14 28 -8 0 27 -8 1
gene 1 14 29 2.45108 0 28 2.45108 1
gene 1 15 28 4.90315 0 29 4.90315 1
gene 1 15 29 -0.648289 0 30 -0.648289 1
gene 1 16 28 6.98878 0 31 6.98878 1
gene 1 16 29 2.47419 0 32 2.47419 1
gene 1 17 28 -6.61221 0 33 -6.61221 1
gene 1 17 29 2.16571 0 34 2.16571 1
gene 1 18 28 -4.51804 0 35 -4.51804 0
gene 1 18 29 5.55244 0 36 5.55244 1
gene 1 19 28 0.18684 0 37 0.18684 1
gene 1 19 29 -4.57785 0 38 -4.57785 1
gene 1 20 28 -5.21603 0 39 -5.21603 1
gene 1 20 29 -1.54013 0 40 -1.54013 1
gene 1 21 28 1.24891 0 41 1.24891 1
gene 1 21 29 -2.33538 0 42 -2.33538 1
gene 1 22 28 -3.65046 0 43 -3.65046 1
gene 1 22 29 -1.2563 0 44 -1.2563 1
gene 1 23 28 -1.29739 0 45 -1.29739 1
gene 1 23 29 -0.862758 0 46 -0.862758 1
gene 1 24 28 -1.70876 0 47 -1.70876 1
gene 1 24 29 0.758089 0 48 0.758089 1
gene 1 25 28 -8 0 49 -8 1
gene 1 25 29 -5.77908 0 50 -5.77908 1
gene 1 26 28 -0.0987274 0 51 -0.0987274 1
gene 1 26 29 -2.16441 0 52 -2.16441 1
gene 1 27 28 -3.19524 0 53 -3.19524 1
gene 1 27 29 2.65791 0 54 2.65791 1
gene 1 19 37 3.5239 0 73 3.5239 1
gene 1 37 29 -2.45422 0 74 -2.45422 1
gene 1 14 37 1.05316 0 81 1.05316 1
gene 1 27 37 0.927915 0 188 0.927915 1
gene 1 1 37 0.680563 0 236 0.680563 1
gene 1 24 37 -4.12736 0 251 -4.12736 1
gene 1 25 37 0.860164 0 415 0.860164 1
gene 1 15 128 2.56797 0 434 2.56797 1
gene 1 128 28 -0.0364696 0 435 -0.0364696 1
gene 1 14 128 -0.106319 0 484 -0.106319 1
gene 1 12 143 2.82962 0 492 2.82962 1
gene 1 143 29 1.32038 0 493 1.32038 1
gene 1 9 37 0.0515458 0 661 0.0515458 1
gene 1 1 128 -1.94273 0 685 -1.94273 1
gene 1 15 143 1.51563 0 803 1.51563 1
gene 1 18 219 1.49518 0 809 1.49518 1
gene 1 219 28 0.119757 0 810 0.119757 1
genomeend 20

/* Organism #21 Fitness: 0.37915 Error: 0 */
genomestart 21
trait 1 0 0.452223 0.0199019 0.508286 0 0.0490509 0.484985 1 
node 1 1 1 1
node 2 1 1 1
node 3 1 1 1
node 4 1 1 1
node 5 1 1 1
node 6 1 1 1
node 7 1 1 1
node 8 1 1 1
node 9 1 1 1
node 10 1 1 1
node 11 1 1 1
node 12 1 1 1
node 13 1 1 1
node 14 1 1 1
node 15 1 1 1
node 16 1 1 1
node 17 1 1 1
node 18 1 1 1
node 19 1 1 1
node 20 1 1 1
node 21 1 1 1
node 22 1 1 1
node 23 1 1 1
node 24 1 1 1
node 25 1 1 1
node 26 1 1 1
node 27 1 1 3
node 28 1 0 2
node 29 1 0 2
node 37 1 0 0
node 128 1 0 0
node 143 1 0 0
node 219 1 0 0
gene 1 1 28 8 0 1 8 1
gene 1 1 29 -4.19225 0 2 -4.19225 1
gene 1 2 28 -1.90994 0 3 -1.90994 1
gene 1 2 29 5.62809 0 4 5.62809 1
gene 1 3 28 -1.33831 0 5 -1.33831 1
gene 1 3 29 -0.135578 0 6 -0.135578 1
gene 1 4 28 0.630722 0 7 0.630722 1
gene 1 4 29 2.71508 0 8 2.71508 1
gene 1 5 28 -3.01103 0 9 -3.01103 1
gene 1 5 29 -3.16683 0 10 -3.16683 1
gene 1 6 28 -4.71934 0 11 -4.71934 1
gene 1 6 29 -5.28175 0 12 -5.28175 1
gene 1 7 28 6.52234 0 13 6.52234 1
gene 1 7 29 -0.0675604 0 14 -0.0675604 1
gene 1 8 28 1.5198 0 15 1.5198 1
gene 1 8 29 -3.63567 0 16 -3.63567 1
gene 1 9 28 2.60048 0 17 2.60048 1
gene 1 9 29 1.47989 0 18 1.47989 0
gene 1 10 28 -3.28034 0 19 -3.28034 1
gene 1 10 29 0.106033 0 20 0.106033 1
gene 1 11 28 -2.62032 0 21 -2.62032 1
gene 1 11 29 5.77403 0 22 5.77403 1
gene 1 12 28 -4.15674 0 23 -4.15674 1
gene 1 12 29 -1.6127 0 24 -1.6127 0
gene 1 13 28 -1.43003 0 25 -1.43003 1
gene 1 13 29 1.69848 0 26 1.69848 1
gene 1 14 28 -8 0 27 -8 1
gene 1 14 29 2.85232 0 28 2.85232 1
gene 1 15 28 5.24748 0 29 5.24748 0
gene 1 15 29 0.263833 0 30 0.263833 1
gene 1 16 28 7.75884 0 31 7.75884 1
gene 1 16 29 3.45474 0 32 3.45474 1
gene 1 17 28 -5.15594 0 33 -5.15594 1
gene 1 17 29 -0.631695 0 34 -0.631695 1
gene 1 18 28 -0.664159 0 35 -0.664159 0
gene 1 18 29 4.5139 0 36 4.5139 1
gene 1 19 28 -4.53994 0 37 -4.53994 1
gene 1 19 29 -4.2658 0 38 -4.2658 1
gene 1 20 28 -4.22845 0 39 -4.22845 1
gene 1 20 29 0.691 0 40 0.691 1
gene 1 21 28 0.347016 0 41 0.347016 1
gene 1 21 29 -4.53035 0 42 -4.53035 1
gene 1 22 28 -1.57627 0 43 -1.57627 1
gene 1 22 29 0.348359 0 44 0.348359 1
gene 1 23 28 1.34376 0 45 1.34376 1
gene 1 23 29 1.3422 0 46 1.3422 1
gene 1 24 28 0.3826 0 47 0.3826 1
gene 1 24 29 3.11725 0 48 3.11725 1
gene 1 25 28 -8 0 49 -8 1
gene 1 25 29 -5.42728 0 50 -5.42728 1
gene 1 26 28 -0.963393 0 51 -0.963393 1
gene 1 26 29 -0.247692 0 52 -0.247692 1
gene 1 27 28 -4.00276 0 53 -4.00276 1
gene 1 27 29 3.56637 0 54 3.56637 1
gene 1 19 37 3.92194 0 73 3.92194 1
gene 1 37 29 -3.0929 0 74 -3.0929 1
gene 1 14 37 2.59297 0 81 2.59297 1
gene 1 27 37 0.765099 0 188 0.765099 1
gene 1 1 37 -0.469909 0 236 -0.469909 1
gene 1 24 37 1.57888 0 251 1.57888 1
gene 1 25 37 3.22611 0 415 3.22611 1
gene 1 15 128 4.33835 0 434 4.33835 1
gene 1 128 28 3.08105 0 435 3.08105 1
gene 1 14 128 -1.55854 0 484 -1.55854 1
gene 1 12 143 0.657998 0 492 0.657998 1
gene 1 143 29 1.17092 0 493 1.17092 1
gene 1 9 37 1.79286 0 661 1.79286 1
gene 1 1 128 -1.71644 0 685 -1.71644 1
gene 1 15 143 0.432005 0 803 0.432005 1
gene 1 18 219 -1.87239 0 809 -1.87239 1
gene 1 219 28 -2.85496 0 810 -2.85496 1
genomeend 21

/* Organism #22 Fitness: 0.0705786 Error: 0 */
genomestart 22
trait 1 0 0.221686 0.656365 1 1 0.574641 0.165548 0.838469 
node 1 1 1 1
node 2 1 1 1
node 3 1 1 1
node 4 1 1 1
node 5 1 1 1
node 6 1 1 1
node 7 1 1 1
node 8 1 1 1
node 9 1 1 1
node 10 1 1 1
node 11 1 1 1
node 12 1 1 1
node 13 1 1 1
node 14 1 1 1
node 15 1 1 1
node 16 1 1 1
node 17 1 1 1
node 18 1 1 1
node 19 1 1 1
node 20 1 1 1
node 21 1 1 1
node 22 1 1 1
node 23 1 1 1
node 24 1 1 1
node 25 1 1 1
node 26 1 1 1
node 27 1 1 3
node 28 1 0 2
node 29 1 0 2
node 37 1 0 0
node 128 1 0 0
node 143 1 0 0
node 219 1 0 0
gene 1 1 28 7.74784 0 1 7.74784 1
gene 1 1 29 -0.944853 0 2 -0.944853 1
gene 1 2 28 -1.23258 0 3 -1.23258 1
gene 1 2 29 6.43035 0 4 6.43035 1
gene 1 3 28 -2.13256 0 5 -2.13256 1
gene 1 3 29 -0.0839259 0 6 -0.0839259 1
gene 1 4 28 -1.59927 0 7 -1.59927 1
gene 1 4 29 5.74274 0 8 5.74274 1
gene 1 5 28 -1.54141 0 9 -1.54141 1
gene 1 5 29 0.604422 0 10 0.604422 1
gene 1 6 28 -5.0613 0 11 -5.0613 1
gene 1 6 29 -5.07698 0 12 -5.07698 1
gene 1 7 28 4.66315 0 13 4.66315 1
gene 1 7 29 -0.0124744 0 14 -0.0124744 1
gene 1 8 28 -1.08243 0 15 -1.08243 1
gene 1 8 29 -5.16724 0 16 -5.16724 1
gene 1 9 28 1.2247 0 17 1.2247 1
gene 1 9 29 2.18258 0 18 2.18258 0
gene 1 10 28 -3.75811 0 19 -3.75811 1
gene 1 10 29 1.04814 0 20 1.04814 1
gene 1 11 28 -3.15142 0 21 -3.15142 1
gene 1 11 29 4.51087 0 22 4.51087 1
gene 1 12 28 -4.27202 0 23 -4.27202 1
gene 1 12 29 -1.91293 0 24 -1.91293 0
gene 1 13 28 -2.72882 0 25 -2.72882 1
gene 1 13 29 -0.411719 0 26 -0.411719 1
gene 1 14 28 -5.22554 0 27 -5.22554 1
gene 1 14 29 6.5842 0 28 6.5842 1
gene 1 15 28 4.7723 0 29 4.7723 0
gene 1 15 29 -1.79456 0 30 -1.79456 1
gene 1 16 28 5.27257 0 31 5.27257 1
gene 1 16 29 5.0044 0 32 5.0044 1
gene 1 17 28 -7.8006 0 33 -7.8006 1
gene 1 17 29 2.94721 0 34 2.94721 1
gene 1 18 28 -2.08113 0 35 -2.08113 0
gene 1 18 29 4.445 0 36 4.445 1
gene 1 19 28 -0.915107 0 37 -0.915107 1
gene 1 19 29 -2.44034 0 38 -2.44034 1
gene 1 20 28 -5.54128 0 39 -5.54128 1
gene 1 20 29 2.77244 0 40 2.77244 1
gene 1 21 28 0.769545 0 41 0.769545 1
gene 1 21 29 -2.22109 0 42 -2.22109 1
gene 1 22 28 0.49296 0 43 0.49296 1
gene 1 22 29 0.0550001 0 44 0.0550001 1
gene 1 23 28 1.63323 0 45 1.63323 1
gene 1 23 29 2.53319 0 46 2.53319 1
gene 1 24 28 -0.712328 0 47 -0.712328 1
gene 1 24 29 -0.473867 0 48 -0.473867 1
gene 1 25 28 -5.88056 0 49 -5.88056 1
gene 1 25 29 -8 0 50 -8 1
gene 1 26 28 -1.9821 0 51 -1.9821 1
gene 1 26 29 -3.32358 0 52 -3.32358 1
gene 1 27 28 -3.60106 0 53 -3.60106 1
gene 1 27 29 1.43885 0 54 1.43885 1
gene 1 19 37 6.36166 0 73 6.36166 1
gene 1 37 29 -5.69369 0 74 -5.69369 1
gene 1 14 37 2.70863 0 81 2.70863 1
gene 1 27 37 -0.399564 0 188 -0.399564 1
gene 1 1 37 -0.168462 0 236 -0.168462 1
gene 1 24 37 -4.12736 0 251 -4.12736 1
gene 1 25 37 0.860164 0 415 0.860164 1
gene 1 15 128 1.90023 0 434 1.90023 1
gene 1 128 28 3.08105 0 435 3.08105 1
gene 1 14 128 -1.55854 0 484 -1.55854 1
gene 1 12 143 0.657998 0 492 0.657998 1
gene 1 143 29 -0.155568 0 493 -0.155568 1
gene 1 9 37 2.12314 0 661 2.12314 1
gene 1 1 128 1.67104 0 685 1.67104 1
gene 1 15 143 0.260933 0 803 0.260933 1
gene 1 18 219 0.852229 0 809 0.852229 1
gene 1 219 28 2.20534 0 810 2.20534 1
gene 1 5 128 -0.498352 0 888 -0.498352 1
genomeend 22

/* Species #63 : (Size 7) (AF 0) (Age 9)  */


/* Organism #23 Fitness: 0.387721 Error: 0 */
genomestart 23
trait 1 0.0065157 0.515183 0.226702 0.723411 0.470375 0.0367882 0.124161 0.909139 
node 1 1 1 1
node 2 1 1 1
node 3 1 1 1
node 4 1 1 1
node 5 1 1 1
node 6 1 1 1
node 7 1 1 1
node 8 1 1 1
node 9 1 1 1
node 10 1 1 1
node 11 1 1 1
node 12 1 1 1
node 13 1 1 1
node 14 1 1 1
node 15 1 1 1
node 16 1 1 1
node 17 1 1 1
node 18 1 1 1
node 19 1 1 1
node 20 1 1 1
node 21 1 1 1
node 22 1 1 1
node 23 1 1 1
node 24 1 1 1
node 25 1 1 1
node 26 1 1 1
node 27 1 1 3
node 28 1 0 2
node 29 1 0 2
node 37 1 0 0
node 128 1 0 0
node 143 1 0 0
node 188 1 0 0
node 220 1 0 0
gene 1 1 28 6.2474 0 1 6.2474 1
gene 1 1 29 -8 0 2 -8 1
gene 1 2 28 -3.44337 0 3 -3.44337 1
gene 1 2 29 -2.09634 0 4 -2.09634 1
gene 1 3 28 4.79974 0 5 4.79974 1
gene 1 3 29 -0.22042 0 6 -0.22042 1
gene 1 4 28 1.88761 0 7 1.88761 1
gene 1 4 29 -0.0644322 0 8 -0.0644322 1
gene 1 5 28 -5.5068 0 9 -5.5068 1
gene 1 5 29 -0.863979 0 10 -0.863979 1
gene 1 6 28 -1.75075 0 11 -1.75075 1
gene 1 6 29 0.0543039 0 12 0.0543039 1
gene 1 7 28 2.84757 0 13 2.84757 1
gene 1 7 29 3.03306 0 14 3.03306 1
gene 1 8 28 -2.23712 0 15 -2.23712 1
gene 1 8 29 -3.45141 0 16 -3.45141 1
gene 1 9 28 6.94436 0 17 6.94436 1
gene 1 9 29 -0.00148778 0 18 -0.00148778 1
gene 1 10 28 -7.76012 0 19 -7.76012 1
gene 1 10 29 3.03211 0 20 3.03211 1
gene 1 11 28 -4.12801 0 21 -4.12801 1
gene 1 11 29 4.86012 0 22 4.86012 1
gene 1 12 28 0.207831 0 23 0.207831 1
gene 1 12 29 2.19811 0 24 2.19811 0
gene 1 13 28 0.493408 0 25 0.493408 1
gene 1 13 29 -1.0853 0 26 -1.0853 1
gene 1 14 28 -8 0 27 -8 1
gene 1 14 29 -0.530641 0 28 -0.530641 1
gene 1 15 28 1.6292 0 29 1.6292 0
gene 1 15 29 -2.45824 0 30 -2.45824 1
gene 1 16 28 0.170351 0 31 0.170351 1
gene 1 16 29 2.59298 0 32 2.59298 1
gene 1 17 28 -8 0 33 -8 1
gene 1 17 29 -2.04421 0 34 -2.04421 1
gene 1 18 28 0.177313 0 35 0.177313 1
gene 1 18 29 5.55881 0 36 5.55881 0
gene 1 19 28 -4.77436 0 37 -4.77436 1
gene 1 19 29 0.418065 0 38 0.418065 1
gene 1 20 28 -4.10582 0 39 -4.10582 1
gene 1 20 29 -0.841042 0 40 -0.841042 1
gene 1 21 28 5.72945 0 41 5.72945 1
gene 1 21 29 -2.36618 0 42 -2.36618 1
gene 1 22 28 -0.615015 0 43 -0.615015 1
gene 1 22 29 -2.62056 0 44 -2.62056 1
gene 1 23 28 -5.26832 0 45 -5.26832 1
gene 1 23 29 0.409482 0 46 0.409482 1
gene 1 24 28 -3.49022 0 47 -3.49022 0
gene 1 24 29 4.97368 0 48 4.97368 1
gene 1 25 28 -6.36459 0 49 -6.36459 1
gene 1 25 29 -5.12385 0 50 -5.12385 1
gene 1 26 28 -7.54844 0 51 -7.54844 1
gene 1 26 29 -1.12785 0 52 -1.12785 1
gene 1 27 28 -2.91006 0 53 -2.91006 1
gene 1 27 29 4.6637 0 54 4.6637 1
gene 1 19 37 1.05113 0 73 1.05113 1
gene 1 37 29 2.21866 0 74 2.21866 1
gene 1 14 37 -2.11455 0 81 -2.11455 1
gene 1 27 37 2.27512 0 188 2.27512 1
gene 1 1 37 -1.34081 0 236 -1.34081 1
gene 1 24 37 -2.59465 0 251 -2.59465 1
gene 1 25 37 -1.60619 0 415 -1.60619 1
gene 1 15 128 4.34182 0 434 4.34182 1
gene 1 128 28 0.536859 0 435 0.536859 1
gene 1 14 128 -1.42544 0 484 -1.42544 1
gene 1 12 143 0.922117 0 492 0.922117 1
gene 1 143 29 -1.98109 0 493 -1.98109 1
gene 1 12 128 -1.04251 0 629 -1.04251 1
gene 1 22 143 -1.7819 0 654 -1.7819 1
gene 1 18 188 -2.11562 0 667 -2.11562 1
gene 1 188 29 -1.88992 0 668 -1.88992 1
gene 1 17 143 0.000606555 0 795 0.000606555 1
gene 1 24 220 -1.03753 0 813 -1.03753 1
gene 1 220 28 -3.17176 0 814 -3.17176 1
genomeend 23

/* Organism #24 Fitness: 0.37915 Error: 0 */
genomestart 24
trait 1 0.00570124 0.515183 0.305813 0.711886 0.536578 0.0643731 0.124161 0.905353 
node 1 1 1 1
node 2 1 1 1
node 3 1 1 1
node 4 1 1 1
node 5 1 1 1
node 6 1 1 1
node 7 1 1 1
node 8 1 1 1
node 9 1 1 1
node 10 1 1 1
node 11 1 1 1
node 12 1 1 1
node 13 1 1 1
node 14 1 1 1
node 15 1 1 1
node 16 1 1 1
node 17 1 1 1
node 18 1 1 1
node 19 1 1 1
node 20 1 1 1
node 21 1 1 1
node 22 1 1 1
node 23 1 1 1
node 24 1 1 1
node 25 1 1 1
node 26 1 1 1
node 27 1 1 3
node 28 1 0 2
node 29 1 0 2
node 37 1 0 0
node 128 1 0 0
node 143 1 0 0
node 188 1 0 0
node 220 1 0 0
gene 1 1 28 7.6811 0 1 7.6811 1
gene 1 1 29 -6.65108 0 2 -6.65108 1
gene 1 2 28 -2.4609 0 3 -2.4609 1
gene 1 2 29 -1.89324 0 4 -1.89324 1
gene 1 3 28 6.31315 0 5 6.31315 1
gene 1 3 29 -1.55179 0 6 -1.55179 1
gene 1 4 28 2.99552 0 7 2.99552 1
gene 1 4 29 -0.78589 0 8 -0.78589 1
gene 1 5 28 -4.61201 0 9 -4.61201 1
gene 1 5 29 2.22831 0 10 2.22831 1
gene 1 6 28 -1.02412 0 11 -1.02412 1
gene 1 6 29 -1.44762 0 12 -1.44762 1
gene 1 7 28 3.40765 0 13 3.40765 1
gene 1 7 29 0.629807 0 14 0.629807 1
gene 1 8 28 -0.064127 0 15 -0.064127 1
gene 1 8 29 -3.14239 0 16 -3.14239 1
gene 1 9 28 6.53068 0 17 6.53068 1
gene 1 9 29 2.05398 0 18 2.05398 1
gene 1 10 28 -3.55024 0 19 -3.55024 1
gene 1 10 29 -0.758962 0 20 -0.758962 1
gene 1 11 28 -5.63196 0 21 -5.63196 1
gene 1 11 29 7.16376 0 22 7.16376 1
gene 1 12 28 -1.23844 0 23 -1.23844 1
gene 1 12 29 0.949304 0 24 0.949304 0
gene 1 13 28 2.05267 0 25 2.05267 1
gene 1 13 29 -0.255197 0 26 -0.255197 1
gene 1 14 28 -0.125736 0 27 -0.125736 1
gene 1 14 29 -0.357601 0 28 -0.357601 1
gene 1 15 28 -2.22793 0 29 -2.22793 0
gene 1 15 29 -2.45824 0 30 -2.45824 1
gene 1 16 28 -1.2538 0 31 -1.2538 1
gene 1 16 29 0.226753 0 32 0.226753 1
gene 1 17 28 -4.75981 0 33 -4.75981 1
gene 1 17 29 2.05145 0 34 2.05145 1
gene 1 18 28 1.29757 0 35 1.29757 1
gene 1 18 29 7.06261 0 36 7.06261 0
gene 1 19 28 -5.92858 0 37 -5.92858 1
gene 1 19 29 0.733398 0 38 0.733398 1
gene 1 20 28 -4.89562 0 39 -4.89562 1
gene 1 20 29 -0.841042 0 40 -0.841042 1
gene 1 21 28 7.60331 0 41 7.60331 1
gene 1 21 29 -1.29994 0 42 -1.29994 1
gene 1 22 28 1.77909 0 43 1.77909 1
gene 1 22 29 -0.608778 0 44 -0.608778 1
gene 1 23 28 -6.47299 0 45 -6.47299 1
gene 1 23 29 0.861137 0 46 0.861137 1
gene 1 24 28 -2.55178 0 47 -2.55178 0
gene 1 24 29 7.22457 0 48 7.22457 1
gene 1 25 28 -5.95503 0 49 -5.95503 1
gene 1 25 29 -6.29706 0 50 -6.29706 1
gene 1 26 28 -6.93761 0 51 -6.93761 1
gene 1 26 29 -0.225337 0 52 -0.225337 1
gene 1 27 28 -4.54326 0 53 -4.54326 1
gene 1 27 29 2.66893 0 54 2.66893 1
gene 1 19 37 1.17474 0 73 1.17474 1
gene 1 37 29 1.49117 0 74 1.49117 1
gene 1 14 37 -2.94125 0 81 -2.94125 1
gene 1 27 37 3.58726 0 188 3.58726 1
gene 1 1 37 0.519272 0 236 0.519272 1
gene 1 24 37 -1.67302 0 251 -1.67302 1
gene 1 25 37 1.52486 0 415 1.52486 1
gene 1 15 128 4.10256 0 434 4.10256 1
gene 1 128 28 1.16646 0 435 1.16646 1
gene 1 14 128 -0.400174 0 484 -0.400174 1
gene 1 12 143 -1.3744 0 492 -1.3744 1
gene 1 143 29 1.56224 0 493 1.56224 1
gene 1 12 128 -1.18042 0 629 -1.18042 1
gene 1 22 143 -0.187231 0 654 -0.187231 1
gene 1 18 188 -2.11562 0 667 -2.11562 1
gene 1 188 29 -4.90431 0 668 -4.90431 1
gene 1 17 143 -1.0155 0 795 -1.0155 1
gene 1 24 220 -0.19303 0 813 -0.19303 1
gene 1 220 28 -4.35901 0 814 -4.35901 1
genomeend 24

/* Organism #25 Fitness: 0.06415 Error: 0 */
genomestart 25
trait 1 0.00570124 0.515183 0.305813 0.711886 0.536578 0.0643731 0.124161 0.905353 
node 1 1 1 1
node 2 1 1 1
node 3 1 1 1
node 4 1 1 1
node 5 1 1 1
node 6 1 1 1
node 7 1 1 1
node 8 1 1 1
node 9 1 1 1
node 10 1 1 1
node 11 1 1 1
node 12 1 1 1
node 13 1 1 1
node 14 1 1 1
node 15 1 1 1
node 16 1 1 1
node 17 1 1 1
node 18 1 1 1
node 19 1 1 1
node 20 1 1 1
node 21 1 1 1
node 22 1 1 1
node 23 1 1 1
node 24 1 1 1
node 25 1 1 1
node 26 1 1 1
node 27 1 1 3
node 28 1 0 2
node 29 1 0 2
node 37 1 0 0
node 128 1 0 0
node 143 1 0 0
node 188 1 0 0
node 220 1 0 0
gene 1 1 28 8 0 1 8 1
gene 1 1 29 -8 0 2 -8 1
gene 1 2 28 -2.65525 0 3 -2.65525 1
gene 1 2 29 0.302488 0 4 0.302488 1
gene 1 3 28 5.28964 0 5 5.28964 1
gene 1 3 29 0.447935 0 6 0.447935 1
gene 1 4 28 0.650998 0 7 0.650998 1
gene 1 4 29 0.880955 0 8 0.880955 1
gene 1 5 28 -5.53985 0 9 -5.53985 1
gene 1 5 29 0.966292 0 10 0.966292 1
gene 1 6 28 -3.13698 0 11 -3.13698 1
gene 1 6 29 -0.926943 0 12 -0.926943 1
gene 1 7 28 4.34976 0 13 4.34976 1
gene 1 7 29 1.52332 0 14 1.52332 1
gene 1 8 28 -2.5295 0 15 -2.5295 1
gene 1 8 29 -3.79968 0 16 -3.79968 1
gene 1 9 28 8 0 17 8 1
gene 1 9 29 -2.05645 0 18 -2.05645 1
gene 1 10 28 -8 0 19 -8 1
gene 1 10 29 3.08094 0 20 3.08094 1
gene 1 11 28 -3.49757 0 21 -3.49757 1
gene 1 11 29 4.47895 0 22 4.47895 1
gene 1 12 28 -0.884655 0 23 -0.884655 1
gene 1 12 29 2.18767 0 24 2.18767 0
gene 1 13 28 0.877426 0 25 0.877426 1
gene 1 13 29 -1.37431 0 26 -1.37431 1
gene 1 14 28 -7.14678 0 27 -7.14678 1
gene 1 14 29 2.20922 0 28 2.20922 1
gene 1 15 28 -1.46069 0 29 -1.46069 0
gene 1 15 29 -0.355996 0 30 -0.355996 1
gene 1 16 28 -0.207693 0 31 -0.207693 1
gene 1 16 29 3.24279 0 32 3.24279 1
gene 1 17 28 -7.06903 0 33 -7.06903 1
gene 1 17 29 -0.43924 0 34 -0.43924 1
gene 1 18 28 1.1742 0 35 1.1742 1
gene 1 18 29 7.31973 0 36 7.31973 0
gene 1 19 28 -7.99224 0 37 -7.99224 1
gene 1 19 29 -0.391438 0 38 -0.391438 1
gene 1 20 28 -1.46282 0 39 -1.46282 1
gene 1 20 29 -1.5308 0 40 -1.5308 1
gene 1 21 28 6.03214 0 41 6.03214 1
gene 1 21 29 -3.00745 0 42 -3.00745 1
gene 1 22 28 0.342961 0 43 0.342961 1
gene 1 22 29 -2.58409 0 44 -2.58409 1
gene 1 23 28 -1.71813 0 45 -1.71813 1
gene 1 23 29 2.02162 0 46 2.02162 1
gene 1 24 28 -1.26825 0 47 -1.26825 0
gene 1 24 29 6.34541 0 48 6.34541 1
gene 1 25 28 -6.25472 0 49 -6.25472 1
gene 1 25 29 -8 0 50 -8 1
gene 1 26 28 -8 0 51 -8 1
gene 1 26 29 -1.02942 0 52 -1.02942 1
gene 1 27 28 -1.14311 0 53 -1.14311 1
gene 1 27 29 6.79778 0 54 6.79778 1
gene 1 19 37 -0.0511185 0 73 -0.0511185 1
gene 1 37 29 4.65166 0 74 4.65166 1
gene 1 14 37 -1.88429 0 81 -1.88429 1
gene 1 27 37 3.51308 0 188 3.51308 1
gene 1 1 37 -2.02251 0 236 -2.02251 1
gene 1 24 37 -2.59465 0 251 -2.59465 1
gene 1 25 37 0.111469 0 415 0.111469 1
gene 1 15 128 4.34182 0 434 4.34182 1
gene 1 128 28 -1.74379 0 435 -1.74379 1
gene 1 14 128 -1.42544 0 484 -1.42544 1
gene 1 12 143 0.74942 0 492 0.74942 1
gene 1 143 29 -1.47045 0 493 -1.47045 1
gene 1 12 128 -2.29854 0 629 -2.29854 1
gene 1 22 143 0.761055 0 654 0.761055 1
gene 1 18 188 -0.731376 0 667 -0.731376 1
gene 1 188 29 -1.88992 0 668 -1.88992 1
gene 1 17 143 1.21891 0 795 1.21891 1
gene 1 24 220 -1.03753 0 813 -1.03753 1
gene 1 220 28 -4.93482 0 814 -4.93482 1
genomeend 25

/* Organism #26 Fitness: 0.387721 Error: 0 */
genomestart 26
trait 1 0.0065157 0.515183 0.226702 0.723411 0.470375 0.0367882 0.124161 0.909139 
node 1 1 1 1
node 2 1 1 1
node 3 1 1 1
node 4 1 1 1
node 5 1 1 1
node 6 1 1 1
node 7 1 1 1
node 8 1 1 1
node 9 1 1 1
node 10 1 1 1
node 11 1 1 1
node 12 1 1 1
node 13 1 1 1
node 14 1 1 1
node 15 1 1 1
node 16 1 1 1
node 17 1 1 1
node 18 1 1 1
node 19 1 1 1
node 20 1 1 1
node 21 1 1 1
node 22 1 1 1
node 23 1 1 1
node 24 1 1 1
node 25 1 1 1
node 26 1 1 1
node 27 1 1 3
node 28 1 0 2
node 29 1 0 2
node 37 1 0 0
node 128 1 0 0
node 143 1 0 0
node 188 1 0 0
node 220 1 0 0
gene 1 1 28 6.2474 0 1 6.2474 1
gene 1 1 29 -8 0 2 -8 1
gene 1 2 28 -3.44337 0 3 -3.44337 1
gene 1 2 29 -2.09634 0 4 -2.09634 1
gene 1 3 28 4.79974 0 5 4.79974 1
gene 1 3 29 -0.22042 0 6 -0.22042 1
gene 1 4 28 1.88761 0 7 1.88761 1
gene 1 4 29 -0.0644322 0 8 -0.0644322 1
gene 1 5 28 -5.5068 0 9 -5.5068 1
gene 1 5 29 -0.863979 0 10 -0.863979 1
gene 1 6 28 -1.75075 0 11 -1.75075 1
gene 1 6 29 0.0543039 0 12 0.0543039 1
gene 1 7 28 2.84757 0 13 2.84757 1
gene 1 7 29 3.03306 0 14 3.03306 1
gene 1 8 28 -2.23712 0 15 -2.23712 1
gene 1 8 29 -3.45141 0 16 -3.45141 1
gene 1 9 28 6.94436 0 17 6.94436 1
gene 1 9 29 -0.00148778 0 18 -0.00148778 1
gene 1 10 28 -7.76012 0 19 -7.76012 1
gene 1 10 29 3.03211 0 20 3.03211 1
gene 1 11 28 -4.12801 0 21 -4.12801 1
gene 1 11 29 4.86012 0 22 4.86012 1
gene 1 12 28 0.207831 0 23 0.207831 1
gene 1 12 29 2.19811 0 24 2.19811 0
gene 1 13 28 0.493408 0 25 0.493408 1
gene 1 13 29 -1.0853 0 26 -1.0853 1
gene 1 14 28 -8 0 27 -8 1
gene 1 14 29 -0.530641 0 28 -0.530641 1
gene 1 15 28 1.6292 0 29 1.6292 0
gene 1 15 29 -2.45824 0 30 -2.45824 1
gene 1 16 28 0.170351 0 31 0.170351 1
gene 1 16 29 2.59298 0 32 2.59298 1
gene 1 17 28 -8 0 33 -8 1
gene 1 17 29 -2.04421 0 34 -2.04421 1
gene 1 18 28 0.177313 0 35 0.177313 1
gene 1 18 29 5.55881 0 36 5.55881 0
gene 1 19 28 -4.77436 0 37 -4.77436 1
gene 1 19 29 0.418065 0 38 0.418065 1
gene 1 20 28 -4.10582 0 39 -4.10582 1
gene 1 20 29 -0.841042 0 40 -0.841042 1
gene 1 21 28 5.72945 0 41 5.72945 1
gene 1 21 29 -2.36618 0 42 -2.36618 1
gene 1 22 28 -0.615015 0 43 -0.615015 1
gene 1 22 29 -2.62056 0 44 -2.62056 1
gene 1 23 28 -5.26832 0 45 -5.26832 1
gene 1 23 29 0.409482 0 46 0.409482 1
gene 1 24 28 -3.49022 0 47 -3.49022 0
gene 1 24 29 4.97368 0 48 4.97368 1
gene 1 25 28 -6.36459 0 49 -6.36459 1
gene 1 25 29 -5.12385 0 50 -5.12385 1
gene 1 26 28 -7.54844 0 51 -7.54844 1
gene 1 26 29 -1.12785 0 52 -1.12785 1
gene 1 27 28 -2.91006 0 53 -2.91006 1
gene 1 27 29 4.6637 0 54 4.6637 1
gene 1 19 37 1.05113 0 73 1.05113 1
gene 1 37 29 2.21866 0 74 2.21866 1
gene 1 14 37 -2.11455 0 81 -2.11455 1
gene 1 27 37 2.27512 0 188 2.27512 1
gene 1 1 37 -1.34081 0 236 -1.34081 1
gene 1 24 37 -2.59465 0 251 -2.59465 1
gene 1 25 37 -1.60619 0 415 -1.60619 1
gene 1 15 128 4.34182 0 434 4.34182 1
gene 1 128 28 0.536859 0 435 0.536859 1
gene 1 14 128 -1.42544 0 484 -1.42544 1
gene 1 12 143 0.922117 0 492 0.922117 1
gene 1 143 29 -1.98109 0 493 -1.98109 1
gene 1 12 128 -1.04251 0 629 -1.04251 1
gene 1 22 143 -1.7819 0 654 -1.7819 1
gene 1 18 188 -2.11562 0 667 -2.11562 1
gene 1 188 29 -1.88992 0 668 -1.88992 1
gene 1 17 143 0.000606555 0 795 0.000606555 1
gene 1 24 220 -1.03753 0 813 -1.03753 1
gene 1 220 28 -3.17176 0 814 -3.17176 1
genomeend 26

/* Organism #27 Fitness: 0.387721 Error: 0 */
genomestart 27
trait 1 0.651177 0.515183 0.384923 0.700362 0.602781 0.091958 0.753849 0.901567 
node 1 1 1 1
node 2 1 1 1
node 3 1 1 1
node 4 1 1 1
node 5 1 1 1
node 6 1 1 1
node 7 1 1 1
node 8 1 1 1
node 9 1 1 1
node 10 1 1 1
node 11 1 1 1
node 12 1 1 1
node 13 1 1 1
node 14 1 1 1
node 15 1 1 1
node 16 1 1 1
node 17 1 1 1
node 18 1 1 1
node 19 1 1 1
node 20 1 1 1
node 21 1 1 1
node 22 1 1 1
node 23 1 1 1
node 24 1 1 1
node 25 1 1 1
node 26 1 1 1
node 27 1 1 3
node 28 1 0 2
node 29 1 0 2
node 37 1 0 0
node 128 1 0 0
node 143 1 0 0
node 188 1 0 0
node 220 1 0 0
gene 1 1 28 3.3654 0 1 3.3654 1
gene 1 1 29 -6.94719 0 2 -6.94719 1
gene 1 2 28 -1.08447 0 3 -1.08447 1
gene 1 2 29 -0.19906 0 4 -0.19906 1
gene 1 3 28 3.564 0 5 3.564 1
gene 1 3 29 -0.830294 0 6 -0.830294 1
gene 1 4 28 0.953322 0 7 0.953322 1
gene 1 4 29 -0.588406 0 8 -0.588406 1
gene 1 5 28 -7.35631 0 9 -7.35631 1
gene 1 5 29 -3.46009 0 10 -3.46009 1
gene 1 6 28 0.666448 0 11 0.666448 1
gene 1 6 29 -2.10339 0 12 -2.10339 1
gene 1 7 28 1.3755 0 13 1.3755 1
gene 1 7 29 -1.19129 0 14 -1.19129 1
gene 1 8 28 -5.13776 0 15 -5.13776 1
gene 1 8 29 -3.28651 0 16 -3.28651 1
gene 1 9 28 3.48035 0 17 3.48035 1
gene 1 9 29 2.7395 0 18 2.7395 1
gene 1 10 28 -3.11939 0 19 -3.11939 1
gene 1 10 29 1.80558 0 20 1.80558 1
gene 1 11 28 0.34814 0 21 0.34814 1
gene 1 11 29 8 0 22 8 1
gene 1 12 28 0.833689 0 23 0.833689 1
gene 1 12 29 -0.665914 0 24 -0.665914 0
gene 1 13 28 -1.63623 0 25 -1.63623 1
gene 1 13 29 -4.8255 0 26 -4.8255 1
gene 1 14 28 -7.2365 0 27 -7.2365 1
gene 1 14 29 0.68123 0 28 0.68123 1
gene 1 15 28 2.14224 0 29 2.14224 0
gene 1 15 29 -3.02797 0 30 -3.02797 1
gene 1 16 28 -0.770912 0 31 -0.770912 1
gene 1 16 29 7.5223 0 32 7.5223 1
gene 1 17 28 -6.7677 0 33 -6.7677 1
gene 1 17 29 -2.30674 0 34 -2.30674 1
gene 1 18 28 0.988037 0 35 0.988037 1
gene 1 18 29 6.35341 0 36 6.35341 0
gene 1 19 28 -5.92858 0 37 -5.92858 1
gene 1 19 29 -2.64116 0 38 -2.64116 1
gene 1 20 28 -2.77817 0 39 -2.77817 1
gene 1 20 29 -0.180517 0 40 -0.180517 1
gene 1 21 28 7.32383 0 41 7.32383 1
gene 1 21 29 -0.278965 0 42 -0.278965 1
gene 1 22 28 -0.0426615 0 43 -0.0426615 1
gene 1 22 29 -4.66821 0 44 -4.66821 1
gene 1 23 28 -1.78962 0 45 -1.78962 1
gene 1 23 29 3.46475 0 46 3.46475 1
gene 1 24 28 -4.49138 0 47 -4.49138 0
gene 1 24 29 2.39761 0 48 2.39761 1
gene 1 25 28 -7.35148 0 49 -7.35148 1
gene 1 25 29 -6.78628 0 50 -6.78628 1
gene 1 26 28 -8 0 51 -8 1
gene 1 26 29 -3.18776 0 52 -3.18776 1
gene 1 27 28 -6.86028 0 53 -6.86028 1
gene 1 27 29 5.00001 0 54 5.00001 1
gene 1 19 37 0.103687 0 73 0.103687 1
gene 1 37 29 3.41528 0 74 3.41528 1
gene 1 14 37 -1.34063 0 81 -1.34063 1
gene 1 27 37 1.81547 0 188 1.81547 1
gene 1 1 37 1.01276 0 236 1.01276 1
gene 1 24 37 -0.285415 0 251 -0.285415 1
gene 1 25 37 0.793291 0 415 0.793291 1
gene 1 15 128 3.88482 0 434 3.88482 1
gene 1 128 28 0.0241859 0 435 0.0241859 1
gene 1 14 128 -0.975906 0 484 -0.975906 1
gene 1 12 143 -1.30654 0 492 -1.30654 1
gene 1 143 29 0.596103 0 493 0.596103 1
gene 1 12 128 -2.61433 0 629 -2.61433 1
gene 1 22 143 0.0379192 0 654 0.0379192 1
gene 1 18 188 -2.07755 0 667 -2.07755 1
gene 1 188 29 -2.15887 0 668 -2.15887 1
gene 1 17 143 -1.60047 0 795 -1.60047 1
gene 1 24 220 1.99179 0 813 1.99179 1
gene 1 220 28 -0.0151067 0 814 -0.0151067 1
genomeend 27

/* Organism #28 Fitness: 0.387721 Error: 0 */
genomestart 28
trait 1 0.00570124 0.515183 0.305813 0.711886 0.536578 0.0643731 0.124161 0.905353 
node 1 1 1 1
node 2 1 1 1
node 3 1 1 1
node 4 1 1 1
node 5 1 1 1
node 6 1 1 1
node 7 1 1 1
node 8 1 1 1
node 9 1 1 1
node 10 1 1 1
node 11 1 1 1
node 12 1 1 1
node 13 1 1 1
node 14 1 1 1
node 15 1 1 1
node 16 1 1 1
node 17 1 1 1
node 18 1 1 1
node 19 1 1 1
node 20 1 1 1
node 21 1 1 1
node 22 1 1 1
node 23 1 1 1
node 24 1 1 1
node 25 1 1 1
node 26 1 1 1
node 27 1 1 3
node 28 1 0 2
node 29 1 0 2
node 37 1 0 0
node 128 1 0 0
node 143 1 0 0
node 188 1 0 0
node 220 1 0 0
gene 1 1 28 5.82114 0 1 5.82114 1
gene 1 1 29 -8 0 2 -8 1
gene 1 2 28 -2.15847 0 3 -2.15847 1
gene 1 2 29 -1.28664 0 4 -1.28664 1
gene 1 3 28 4.17382 0 5 4.17382 1
gene 1 3 29 -0.525357 0 6 -0.525357 1
gene 1 4 28 2.19348 0 7 2.19348 1
gene 1 4 29 -0.642133 0 8 -0.642133 1
gene 1 5 28 -5.39827 0 9 -5.39827 1
gene 1 5 29 -1.18991 0 10 -1.18991 1
gene 1 6 28 -0.920765 0 11 -0.920765 1
gene 1 6 29 -0.696659 0 12 -0.696659 1
gene 1 7 28 3.12761 0 13 3.12761 1
gene 1 7 29 2.3208 0 14 2.3208 1
gene 1 8 28 -2.52526 0 15 -2.52526 1
gene 1 8 29 -3.55501 0 16 -3.55501 1
gene 1 9 28 6.14134 0 17 6.14134 1
gene 1 9 29 1.43085 0 18 1.43085 1
gene 1 10 28 -5.81452 0 19 -5.81452 1
gene 1 10 29 1.93219 0 20 1.93219 1
gene 1 11 28 -4.06063 0 21 -4.06063 1
gene 1 11 29 5.43003 0 22 5.43003 1
gene 1 12 28 1.44372 0 23 1.44372 1
gene 1 12 29 2.00283 0 24 2.00283 0
gene 1 13 28 0.426048 0 25 0.426048 1
gene 1 13 29 -2.08181 0 26 -2.08181 1
gene 1 14 28 -6.60145 0 27 -6.60145 1
gene 1 14 29 0.626841 0 28 0.626841 1
gene 1 15 28 0.707976 0 29 0.707976 1
gene 1 15 29 -1.98159 0 30 -1.98159 1
gene 1 16 28 0.324777 0 31 0.324777 1
gene 1 16 29 3.83011 0 32 3.83011 1
gene 1 17 28 -7.48944 0 33 -7.48944 1
gene 1 17 29 -0.972016 0 34 -0.972016 1
gene 1 18 28 1.80818 0 35 1.80818 1
gene 1 18 29 5.24915 0 36 5.24915 0
gene 1 19 28 -5.35147 0 37 -5.35147 1
gene 1 19 29 -1.32632 0 38 -1.32632 1
gene 1 20 28 -3.36921 0 39 -3.36921 1
gene 1 20 29 -1.81884 0 40 -1.81884 1
gene 1 21 28 6.17183 0 41 6.17183 1
gene 1 21 29 -2.48468 0 42 -2.48468 1
gene 1 22 28 -0.292788 0 43 -0.292788 1
gene 1 22 29 -3.2798 0 44 -3.2798 1
gene 1 23 28 -4.70718 0 45 -4.70718 1
gene 1 23 29 1.08118 0 46 1.08118 1
gene 1 24 28 -3.9908 0 47 -3.9908 1
gene 1 24 29 5.02214 0 48 5.02214 1
gene 1 25 28 -6.88318 0 49 -6.88318 1
gene 1 25 29 -5.5267 0 50 -5.5267 1
gene 1 26 28 -7.77422 0 51 -7.77422 1
gene 1 26 29 -1.10835 0 52 -1.10835 1
gene 1 27 28 -3.703 0 53 -3.703 1
gene 1 27 29 5.23699 0 54 5.23699 1
gene 1 19 37 -0.0543945 0 73 -0.0543945 1
gene 1 37 29 2.71546 0 74 2.71546 1
gene 1 14 37 -2.77861 0 81 -2.77861 1
gene 1 27 37 2.45402 0 188 2.45402 1
gene 1 1 37 -0.858312 0 236 -0.858312 1
gene 1 24 37 -2.13166 0 251 -2.13166 1
gene 1 25 37 -1.65382 0 415 -1.65382 1
gene 1 15 128 3.46557 0 434 3.46557 1
gene 1 128 28 0.747646 0 435 0.747646 1
gene 1 14 128 -0.366661 0 484 -0.366661 1
gene 1 12 143 0.835768 0 492 0.835768 1
gene 1 143 29 -1.72577 0 493 -1.72577 1
gene 1 12 128 -0.801817 0 629 -0.801817 1
gene 1 22 143 -1.44673 0 654 -1.44673 1
gene 1 18 188 -0.864284 0 667 -0.864284 1
gene 1 188 29 -2.22711 0 668 -2.22711 1
gene 1 17 143 0.0565703 0 795 0.0565703 1
gene 1 24 220 -0.737926 0 813 -0.737926 1
gene 1 220 28 -2.59429 0 814 -2.59429 1
genomeend 28

/* Organism #29 Fitness: 0.0609357 Error: 0 */
genomestart 29
trait 1 0.00570124 0.515183 0.305813 0.711886 0.536578 0.0643731 0.124161 0.905353 
node 1 1 1 1
node 2 1 1 1
node 3 1 1 1
node 4 1 1 1
node 5 1 1 1
node 6 1 1 1
node 7 1 1 1
node 8 1 1 1
node 9 1 1 1
node 10 1 1 1
node 11 1 1 1
node 12 1 1 1
node 13 1 1 1
node 14 1 1 1
node 15 1 1 1
node 16 1 1 1
node 17 1 1 1
node 18 1 1 1
node 19 1 1 1
node 20 1 1 1
node 21 1 1 1
node 22 1 1 1
node 23 1 1 1
node 24 1 1 1
node 25 1 1 1
node 26 1 1 1
node 27 1 1 3
node 28 1 0 2
node 29 1 0 2
node 37 1 0 0
node 128 1 0 0
node 143 1 0 0
node 188 1 0 0
node 220 1 0 0
gene 1 1 28 5.55495 0 1 5.55495 1
gene 1 1 29 -7.17844 0 2 -7.17844 1
gene 1 2 28 0.279788 0 3 0.279788 1
gene 1 2 29 -3.21477 0 4 -3.21477 1
