
/* Species #53 : (Size 8) (AF 0) (Age 20)  */


/* Organism #0 Fitness: 0.899042 Error: 0 */
/* ##------$ WINNER 0 SPECIES #53 $------## */
genomestart 0
trait 1 0.112206 0.741497 0.119907 0.0611163 0.0311245 0.566057 0.387408 0.391275 
node 1 1 1 1
node 2 1 1 1
node 3 1 1 1
node 4 1 1 1
node 5 1 1 1
node 6 1 1 1
node 7 1 1 1
node 8 1 1 1
node 9 1 1 1
node 10 1 1 1
node 11 1 1 1
node 12 1 1 1
node 13 1 1 1
node 14 1 1 1
node 15 1 1 1
node 16 1 1 1
node 17 1 1 1
node 18 1 1 1
node 19 1 1 1
node 20 1 1 1
node 21 1 1 1
node 22 1 1 1
node 23 1 1 1
node 24 1 1 1
node 25 1 1 1
node 26 1 1 1
node 27 1 1 1
node 28 1 1 1
node 29 1 1 1
node 30 1 1 1
node 31 1 1 1
node 32 1 1 1
node 33 1 1 1
node 34 1 1 1
node 35 1 1 1
node 36 1 1 1
node 37 1 1 1
node 38 1 1 1
node 39 1 1 1
node 40 1 1 1
node 41 1 1 1
node 42 1 1 1
node 43 1 1 1
node 44 1 1 1
node 45 1 1 1
node 46 1 1 1
node 47 1 1 1
node 48 1 1 1
node 49 1 1 1
node 50 1 1 3
node 51 1 0 2
node 52 1 0 2
node 53 1 0 2
node 54 1 0 0
node 60 1 0 0
node 66 1 0 0
node 69 1 0 0
node 115 1 0 0
node 173 1 0 0
node 208 1 0 0
node 241 1 0 0
gene 1 1 51 -2.66329 0 1 -2.66329 1
gene 1 1 52 2.31621 0 2 2.31621 1
gene 1 1 53 -2.19545 0 3 -2.19545 1
gene 1 2 51 0.648728 0 4 0.648728 1
gene 1 2 52 -1.38256 0 5 -1.38256 1
gene 1 2 53 -5.6883 0 6 -5.6883 1
gene 1 3 51 8 0 7 8 1
gene 1 3 52 -0.192014 0 8 -0.192014 1
gene 1 3 53 5.77287 0 9 5.77287 1
gene 1 4 51 3.32282 0 10 3.32282 1
gene 1 4 52 -0.398115 0 11 -0.398115 1
gene 1 4 53 4.58708 0 12 4.58708 1
gene 1 5 51 -0.568302 0 13 -0.568302 1
gene 1 5 52 -2.92784 0 14 -2.92784 1
gene 1 5 53 -7.54419 0 15 -7.54419 1
gene 1 6 51 1.84075 0 16 1.84075 1
gene 1 6 52 3.36551 0 17 3.36551 1
gene 1 6 53 -0.481313 0 18 -0.481313 1
gene 1 7 51 -0.904712 0 19 -0.904712 1
gene 1 7 52 4.27107 0 20 4.27107 1
gene 1 7 53 4.8913 0 21 4.8913 1
gene 1 8 51 1.599 0 22 1.599 1
gene 1 8 52 2.161 0 23 2.161 1
gene 1 8 53 0.905599 0 24 0.905599 1
gene 1 9 51 3.10812 0 25 3.10812 1
gene 1 9 52 2.91179 0 26 2.91179 1
gene 1 9 53 -2.11544 0 27 -2.11544 1
gene 1 10 51 -3.3377 0 28 -3.3377 1
gene 1 10 52 3.68028 0 29 3.68028 1
gene 1 10 53 -0.434946 0 30 -0.434946 1
gene 1 11 51 5.38895 0 31 5.38895 1
gene 1 11 52 5.96645 0 32 5.96645 1
gene 1 11 53 2.97044 0 33 2.97044 1
gene 1 12 51 -4.31438 0 34 -4.31438 1
gene 1 12 52 -1.62241 0 35 -1.62241 1
gene 1 12 53 -0.251005 0 36 -0.251005 1
gene 1 13 51 5.58924 0 37 5.58924 1
gene 1 13 52 -0.337612 0 38 -0.337612 1
gene 1 13 53 -1.23104 0 39 -1.23104 1
gene 1 14 51 -4.18639 0 40 -4.18639 1
gene 1 14 52 0.0616951 0 41 0.0616951 1
gene 1 14 53 -6.09198 0 42 -6.09198 1
gene 1 15 51 -2.7671 0 43 -2.7671 1
gene 1 15 52 7.37684 0 44 7.37684 1
gene 1 15 53 3.23401 0 45 3.23401 1
gene 1 16 51 5.70966 0 46 5.70966 1
gene 1 16 52 3.72334 0 47 3.72334 1
gene 1 16 53 7.62315 0 48 7.62315 1
gene 1 17 51 4.99669 0 49 4.99669 1
gene 1 17 52 -0.694849 0 50 -0.694849 1
gene 1 17 53 -3.16603 0 51 -3.16603 1
gene 1 18 51 -4.90371 0 52 -4.90371 1
gene 1 18 52 -2.74421 0 53 -2.74421 1
gene 1 18 53 -0.097335 0 54 -0.097335 1
gene 1 19 51 -3.00913 0 55 -3.00913 1
gene 1 19 52 8 0 56 8 1
gene 1 19 53 0.214831 0 57 0.214831 1
gene 1 20 51 4.40402 0 58 4.40402 0
gene 1 20 52 2.26485 0 59 2.26485 1
gene 1 20 53 3.29594 0 60 3.29594 1
gene 1 21 51 2.93417 0 61 2.93417 1
gene 1 21 52 -1.5579 0 62 -1.5579 1
gene 1 21 53 -6.14577 0 63 -6.14577 1
gene 1 22 51 -2.24692 0 64 -2.24692 1
gene 1 22 52 -1.26309 0 65 -1.26309 1
gene 1 22 53 2.48441 0 66 2.48441 1
gene 1 23 51 8 0 67 8 1
gene 1 23 52 4.25077 0 68 4.25077 1
gene 1 23 53 7.19732 0 69 7.19732 1
gene 1 24 51 7.52544 0 70 7.52544 1
gene 1 24 52 3.23742 0 71 3.23742 1
gene 1 24 53 -2.26666 0 72 -2.26666 1
gene 1 25 51 2.14827 0 73 2.14827 1
gene 1 25 52 5.61514 0 74 5.61514 1
gene 1 25 53 -2.85231 0 75 -2.85231 1
gene 1 26 51 -8 0 76 -8 1
gene 1 26 52 -4.12723 0 77 -4.12723 1
gene 1 26 53 -1.13977 0 78 -1.13977 1
gene 1 27 51 -1.78506 0 79 -1.78506 1
gene 1 27 52 -8 0 80 -8 1
gene 1 27 53 5.62161 0 81 5.62161 1
gene 1 28 51 -2.48263 0 82 -2.48263 1
gene 1 28 52 -2.28392 0 83 -2.28392 1
gene 1 28 53 5.6767 0 84 5.6767 1
gene 1 29 51 -2.45556 0 85 -2.45556 1
gene 1 29 52 5.287 0 86 5.287 1
gene 1 29 53 0.0878838 0 87 0.0878838 1
gene 1 30 51 0.623884 0 88 0.623884 1
gene 1 30 52 4.33739 0 89 4.33739 1
gene 1 30 53 6.43822 0 90 6.43822 1
gene 1 31 51 -3.88683 0 91 -3.88683 1
gene 1 31 52 8 0 92 8 1
gene 1 31 53 3.0805 0 93 3.0805 1
gene 1 32 51 -2.30027 0 94 -2.30027 1
gene 1 32 52 -2.2712 0 95 -2.2712 1
gene 1 32 53 -1.14716 0 96 -1.14716 1
gene 1 33 51 -6.62926 0 97 -6.62926 1
gene 1 33 52 -1.09086 0 98 -1.09086 1
gene 1 33 53 -1.16453 0 99 -1.16453 1
gene 1 34 51 -4.06475 0 100 -4.06475 1
gene 1 34 52 -3.11225 0 101 -3.11225 1
gene 1 34 53 -3.83015 0 102 -3.83015 1
gene 1 35 51 -0.295324 0 103 -0.295324 1
gene 1 35 52 -2.66546 0 104 -2.66546 1
gene 1 35 53 4.14715 0 105 4.14715 1
gene 1 36 51 -7.18079 0 106 -7.18079 1
gene 1 36 52 4.25737 0 107 4.25737 1
gene 1 36 53 0.479551 0 108 0.479551 1
gene 1 37 51 -3.79104 0 109 -3.79104 1
gene 1 37 52 -7.48869 0 110 -7.48869 1
gene 1 37 53 4.91105 0 111 4.91105 1
gene 1 38 51 -2.08155 0 112 -2.08155 1
gene 1 38 52 4.36996 0 113 4.36996 1
gene 1 38 53 -2.235 0 114 -2.235 1
gene 1 39 51 -0.279893 0 115 -0.279893 1
gene 1 39 52 3.35402 0 116 3.35402 1
gene 1 39 53 -4.3966 0 117 -4.3966 1
gene 1 40 51 -0.91096 0 118 -0.91096 1
gene 1 40 52 3.86596 0 119 3.86596 1
gene 1 40 53 -5.2986 0 120 -5.2986 1
gene 1 41 51 -0.331059 0 121 -0.331059 1
gene 1 41 52 1.2784 0 122 1.2784 1
gene 1 41 53 4.67509 0 123 4.67509 1
gene 1 42 51 -2.26798 0 124 -2.26798 1
gene 1 42 52 0.310364 0 125 0.310364 1
gene 1 42 53 6.65335 0 126 6.65335 1
gene 1 43 51 0.480161 0 127 0.480161 1
gene 1 43 52 4.87896 0 128 4.87896 1
gene 1 43 53 -7.55244 0 129 -7.55244 1
gene 1 44 51 0.470824 0 130 0.470824 1
gene 1 44 52 1.42486 0 131 1.42486 1
gene 1 44 53 -1.93497 0 132 -1.93497 1
gene 1 45 51 -5.07896 0 133 -5.07896 1
gene 1 45 52 -1.81315 0 134 -1.81315 1
gene 1 45 53 -2.23255 0 135 -2.23255 1
gene 1 46 51 -3.21226 0 136 -3.21226 1
gene 1 46 52 1.0225 0 137 1.0225 1
gene 1 46 53 -2.90771 0 138 -2.90771 1
gene 1 47 51 -5.6243 0 139 -5.6243 1
gene 1 47 52 2.03726 0 140 2.03726 1
gene 1 47 53 -1.65265 0 141 -1.65265 1
gene 1 48 51 1.83578 0 142 1.83578 1
gene 1 48 52 -2.58986 0 143 -2.58986 1
gene 1 48 53 -2.41055 0 144 -2.41055 1
gene 1 49 51 1.20037 0 145 1.20037 1
gene 1 49 52 -1.29734 0 146 -1.29734 1
gene 1 49 53 1.61307 0 147 1.61307 1
gene 1 50 51 3.17259 0 148 3.17259 1
gene 1 50 52 1.21578 0 149 1.21578 1
gene 1 50 53 -8 0 150 -8 1
gene 1 24 54 -2.08136 0 152 -2.08136 1
gene 1 54 52 2.92734 0 153 2.92734 1
gene 1 46 54 1.87264 0 158 1.87264 1
gene 1 4 60 1.27433 0 172 1.27433 1
gene 1 60 52 -2.38212 0 173 -2.38212 1
gene 1 9 60 -2.05298 0 174 -2.05298 1
gene 1 38 66 -1.88217 0 191 -1.88217 1
gene 1 66 52 -0.788827 0 192 -0.788827 1
gene 1 6 69 -1.22616 0 203 -1.22616 1
gene 1 69 51 0.628605 0 204 0.628605 1
gene 1 13 66 0.0810553 0 218 0.0810553 1
gene 1 22 60 0.450873 0 233 0.450873 1
gene 1 43 60 3.26085 0 291 3.26085 1
gene 1 25 115 0.0278481 0 368 0.0278481 1
gene 1 115 53 0.900143 0 369 0.900143 1
gene 1 26 60 2.52219 0 443 2.52219 1
gene 1 44 69 1.73353 0 453 1.73353 1
gene 1 3 173 0.600471 0 571 0.600471 1
gene 1 173 53 2.84754 0 572 2.84754 1
gene 1 1 208 3.13623 0 707 3.13623 1
gene 1 208 53 2.93633 0 708 2.93633 1
gene 1 20 241 3.68586 0 834 3.68586 1
gene 1 241 51 -0.984832 0 835 -0.984832 1
genomeend 0

/* Organism #1 Fitness: 0.00019861 Error: 0 */
genomestart 1
trait 1 0.112206 0.741497 0.119907 0.0611163 0.0311245 0.566057 0.387408 0.391275 
node 1 1 1 1
node 2 1 1 1
node 3 1 1 1
node 4 1 1 1
node 5 1 1 1
node 6 1 1 1
node 7 1 1 1
node 8 1 1 1
node 9 1 1 1
node 10 1 1 1
node 11 1 1 1
node 12 1 1 1
node 13 1 1 1
node 14 1 1 1
node 15 1 1 1
node 16 1 1 1
node 17 1 1 1
node 18 1 1 1
node 19 1 1 1
node 20 1 1 1
node 21 1 1 1
node 22 1 1 1
node 23 1 1 1
node 24 1 1 1
node 25 1 1 1
node 26 1 1 1
node 27 1 1 1
node 28 1 1 1
node 29 1 1 1
node 30 1 1 1
node 31 1 1 1
node 32 1 1 1
node 33 1 1 1
node 34 1 1 1
node 35 1 1 1
node 36 1 1 1
node 37 1 1 1
node 38 1 1 1
node 39 1 1 1
node 40 1 1 1
node 41 1 1 1
node 42 1 1 1
node 43 1 1 1
node 44 1 1 1
node 45 1 1 1
node 46 1 1 1
node 47 1 1 1
node 48 1 1 1
node 49 1 1 1
node 50 1 1 3
node 51 1 0 2
node 52 1 0 2
node 53 1 0 2
node 54 1 0 0
node 60 1 0 0
node 66 1 0 0
node 69 1 0 0
node 115 1 0 0
node 173 1 0 0
node 208 1 0 0
node 241 1 0 0
gene 1 1 51 3.52107 0 1 3.52107 1
gene 1 1 52 1.20495 0 2 1.20495 1
gene 1 1 53 -1.15798 0 3 -1.15798 1
gene 1 2 51 6.3843 0 4 6.3843 1
gene 1 2 52 -1.25355 0 5 -1.25355 1
gene 1 2 53 -3.37988 0 6 -3.37988 1
gene 1 3 51 -1.582 0 7 -1.582 1
gene 1 3 52 -1.21583 0 8 -1.21583 1
gene 1 3 53 7.73708 0 9 7.73708 1
gene 1 4 51 0.817712 0 10 0.817712 1
gene 1 4 52 2.51755 0 11 2.51755 1
gene 1 4 53 1.16985 0 12 1.16985 1
gene 1 5 51 0.901088 0 13 0.901088 1
gene 1 5 52 -5.77728 0 14 -5.77728 1
gene 1 5 53 -5.07646 0 15 -5.07646 1
gene 1 6 51 -1.61265 0 16 -1.61265 1
gene 1 6 52 -3.27135 0 17 -3.27135 1
gene 1 6 53 -0.646189 0 18 -0.646189 1
gene 1 7 51 -3.5248 0 19 -3.5248 1
gene 1 7 52 -2.05992 0 20 -2.05992 1
gene 1 7 53 2.49422 0 21 2.49422 1
gene 1 8 51 2.48503 0 22 2.48503 1
gene 1 8 52 0.266713 0 23 0.266713 1
gene 1 8 53 0.965567 0 24 0.965567 1
gene 1 9 51 0.11433 0 25 0.11433 1
gene 1 9 52 4.80453 0 26 4.80453 1
gene 1 9 53 -0.207955 0 27 -0.207955 1
gene 1 10 51 -0.485855 0 28 -0.485855 1
gene 1 10 52 0.726623 0 29 0.726623 1
gene 1 10 53 0.0382435 0 30 0.0382435 1
gene 1 11 51 -1.39707 0 31 -1.39707 1
gene 1 11 52 4.97132 0 32 4.97132 1
gene 1 11 53 3.04331 0 33 3.04331 1
gene 1 12 51 1.48597 0 34 1.48597 1
gene 1 12 52 0.521361 0 35 0.521361 1
gene 1 12 53 -0.384753 0 36 -0.384753 1
gene 1 13 51 0.954619 0 37 0.954619 1
gene 1 13 52 1.62252 0 38 1.62252 1
gene 1 13 53 2.40318 0 39 2.40318 1
gene 1 14 51 -2.14883 0 40 -2.14883 1
gene 1 14 52 -1.16558 0 41 -1.16558 1
gene 1 14 53 -1.02832 0 42 -1.02832 1
gene 1 15 51 1.91191 0 43 1.91191 1
gene 1 15 52 8 0 44 8 1
gene 1 15 53 3.95227 0 45 3.95227 1
gene 1 16 51 0.0434126 0 46 0.0434126 1
gene 1 16 52 -3.22977 0 47 -3.22977 1
gene 1 16 53 6.83668 0 48 6.83668 1
gene 1 17 51 5.48712 0 49 5.48712 1
gene 1 17 52 1.93722 0 50 1.93722 1
gene 1 17 53 -0.553606 0 51 -0.553606 1
gene 1 18 51 -5.69956 0 52 -5.69956 1
gene 1 18 52 -1.23438 0 53 -1.23438 1
gene 1 18 53 -0.31867 0 54 -0.31867 1
gene 1 19 51 -5.28077 0 55 -5.28077 1
gene 1 19 52 3.93239 0 56 3.93239 1
gene 1 19 53 -0.762982 0 57 -0.762982 1
gene 1 20 51 5.27876 0 58 5.27876 0
gene 1 20 52 5.97819 0 59 5.97819 1
gene 1 20 53 5.14361 0 60 5.14361 1
gene 1 21 51 -2.25784 0 61 -2.25784 1
gene 1 21 52 -1.87323 0 62 -1.87323 1
gene 1 21 53 -0.0607318 0 63 -0.0607318 1
gene 1 22 51 -2.02917 0 64 -2.02917 1
gene 1 22 52 1.78136 0 65 1.78136 1
gene 1 22 53 -0.124544 0 66 -0.124544 1
gene 1 23 51 7.02157 0 67 7.02157 1
gene 1 23 52 4.00853 0 68 4.00853 1
gene 1 23 53 8 0 69 8 1
gene 1 24 51 4.87643 0 70 4.87643 1
gene 1 24 52 1.29912 0 71 1.29912 1
gene 1 24 53 -0.126041 0 72 -0.126041 1
gene 1 25 51 2.42813 0 73 2.42813 1
gene 1 25 52 5.06085 0 74 5.06085 1
gene 1 25 53 -3.67341 0 75 -3.67341 1
gene 1 26 51 -2.28149 0 76 -2.28149 1
gene 1 26 52 2.99648 0 77 2.99648 1
gene 1 26 53 -1.95988 0 78 -1.95988 1
gene 1 27 51 0.391676 0 79 0.391676 1
gene 1 27 52 -5.42331 0 80 -5.42331 1
gene 1 27 53 1.54228 0 81 1.54228 1
gene 1 28 51 2.1674 0 82 2.1674 1
gene 1 28 52 3.37658 0 83 3.37658 1
gene 1 28 53 4.04183 0 84 4.04183 1
gene 1 29 51 2.51499 0 85 2.51499 1
gene 1 29 52 4.77284 0 86 4.77284 1
gene 1 29 53 0.478292 0 87 0.478292 1
gene 1 30 51 -1.22325 0 88 -1.22325 1
gene 1 30 52 0.808762 0 89 0.808762 1
gene 1 30 53 8 0 90 8 1
gene 1 31 51 -4.32469 0 91 -4.32469 1
gene 1 31 52 0.0717471 0 92 0.0717471 1
gene 1 31 53 1.60722 0 93 1.60722 1
gene 1 32 51 0.450377 0 94 0.450377 1
gene 1 32 52 -0.970498 0 95 -0.970498 1
gene 1 32 53 -3.87711 0 96 -3.87711 1
gene 1 33 51 -3.33914 0 97 -3.33914 1
gene 1 33 52 -0.550249 0 98 -0.550249 1
gene 1 33 53 -1.76559 0 99 -1.76559 1
gene 1 34 51 -2.48542 0 100 -2.48542 1
gene 1 34 52 2.33744 0 101 2.33744 1
gene 1 34 53 -1.96684 0 102 -1.96684 1
gene 1 35 51 -2.49891 0 103 -2.49891 1
gene 1 35 52 0.640607 0 104 0.640607 1
gene 1 35 53 4.03873 0 105 4.03873 1
gene 1 36 51 -1.43095 0 106 -1.43095 1
gene 1 36 52 2.53857 0 107 2.53857 1
gene 1 36 53 -1.65102 0 108 -1.65102 1
gene 1 37 51 -1.61301 0 109 -1.61301 1
gene 1 37 52 -2.73658 0 110 -2.73658 1
gene 1 37 53 6.47215 0 111 6.47215 1
gene 1 38 51 -1.29303 0 112 -1.29303 1
gene 1 38 52 1.40906 0 113 1.40906 1
gene 1 38 53 -1.69269 0 114 -1.69269 1
gene 1 39 51 -6.25481 0 115 -6.25481 1
gene 1 39 52 -2.99318 0 116 -2.99318 1
gene 1 39 53 -4.80639 0 117 -4.80639 1
gene 1 40 51 0.716651 0 118 0.716651 1
gene 1 40 52 4.02496 0 119 4.02496 1
gene 1 40 53 2.10234 0 120 2.10234 1
gene 1 41 51 0.0292978 0 121 0.0292978 1
gene 1 41 52 1.65424 0 122 1.65424 1
gene 1 41 53 3.34295 0 123 3.34295 1
gene 1 42 51 -0.956297 0 124 -0.956297 1
gene 1 42 52 -0.0723384 0 125 -0.0723384 1
gene 1 42 53 0.131916 0 126 0.131916 1
gene 1 43 51 -2.52362 0 127 -2.52362 1
gene 1 43 52 5.22817 0 128 5.22817 1
gene 1 43 53 -1.99431 0 129 -1.99431 1
gene 1 44 51 -1.0667 0 130 -1.0667 1
gene 1 44 52 0.457654 0 131 0.457654 1
gene 1 44 53 -1.72378 0 132 -1.72378 1
gene 1 45 51 -6.7751 0 133 -6.7751 1
gene 1 45 52 -1.44937 0 134 -1.44937 1
gene 1 45 53 -1.87793 0 135 -1.87793 1
gene 1 46 51 -3.45732 0 136 -3.45732 1
gene 1 46 52 -0.456125 0 137 -0.456125 1
gene 1 46 53 -4.25998 0 138 -4.25998 1
gene 1 47 51 -6.92614 0 139 -6.92614 1
gene 1 47 52 3.61831 0 140 3.61831 1
gene 1 47 53 1.16664 0 141 1.16664 1
gene 1 48 51 1.77541 0 142 1.77541 1
gene 1 48 52 -1.55858 0 143 -1.55858 1
gene 1 48 53 -1.15894 0 144 -1.15894 1
gene 1 49 51 4.33411 0 145 4.33411 1
gene 1 49 52 -1.46237 0 146 -1.46237 1
gene 1 49 53 0.132994 0 147 0.132994 1
gene 1 50 51 5.19192 0 148 5.19192 1
gene 1 50 52 0.169454 0 149 0.169454 1
gene 1 50 53 -8 0 150 -8 1
gene 1 24 54 -0.530812 0 152 -0.530812 1
gene 1 54 52 2.1604 0 153 2.1604 1
gene 1 46 54 -1.73666 0 158 -1.73666 1
gene 1 4 60 0.612964 0 172 0.612964 1
gene 1 60 52 -0.00633259 0 173 -0.00633259 1
gene 1 9 60 -3.3413 0 174 -3.3413 1
gene 1 38 66 -2.72814 0 191 -2.72814 1
gene 1 66 52 1.08521 0 192 1.08521 1
gene 1 6 69 -2.8585 0 203 -2.8585 1
gene 1 69 51 -5.5263 0 204 -5.5263 1
gene 1 13 66 0.268515 0 218 0.268515 1
gene 1 22 60 2.98856 0 233 2.98856 1
gene 1 43 60 0.346004 0 291 0.346004 1
gene 1 25 115 -1.0624 0 368 -1.0624 1
gene 1 115 53 -1.3928 0 369 -1.3928 1
gene 1 26 60 1.28338 0 443 1.28338 1
gene 1 44 69 -2.39025 0 453 -2.39025 1
gene 1 3 173 1.48 0 571 1.48 1
gene 1 173 53 3.15501 0 572 3.15501 1
gene 1 1 208 -0.665914 0 707 -0.665914 1
gene 1 208 53 -1.27889 0 708 -1.27889 1
gene 1 20 241 0.495621 0 834 0.495621 1
gene 1 241 51 8 0 835 8 1
genomeend 1

/* Organism #2 Fitness: 0.00019861 Error: 0 */
genomestart 2
trait 1 0.112206 0.741497 0.119907 0.0611163 0.0311245 0.566057 0.387408 0.391275 
node 1 1 1 1
node 2 1 1 1
node 3 1 1 1
node 4 1 1 1
node 5 1 1 1
node 6 1 1 1
node 7 1 1 1
node 8 1 1 1
node 9 1 1 1
node 10 1 1 1
node 11 1 1 1
node 12 1 1 1
node 13 1 1 1
node 14 1 1 1
node 15 1 1 1
node 16 1 1 1
node 17 1 1 1
node 18 1 1 1
node 19 1 1 1
node 20 1 1 1
node 21 1 1 1
node 22 1 1 1
node 23 1 1 1
node 24 1 1 1
node 25 1 1 1
node 26 1 1 1
node 27 1 1 1
node 28 1 1 1
node 29 1 1 1
node 30 1 1 1
node 31 1 1 1
node 32 1 1 1
node 33 1 1 1
node 34 1 1 1
node 35 1 1 1
node 36 1 1 1
node 37 1 1 1
node 38 1 1 1
node 39 1 1 1
node 40 1 1 1
node 41 1 1 1
node 42 1 1 1
node 43 1 1 1
node 44 1 1 1
node 45 1 1 1
node 46 1 1 1
node 47 1 1 1
node 48 1 1 1
node 49 1 1 1
node 50 1 1 3
node 51 1 0 2
node 52 1 0 2
node 53 1 0 2
node 54 1 0 0
node 60 1 0 0
node 66 1 0 0
node 69 1 0 0
node 115 1 0 0
node 173 1 0 0
node 208 1 0 0
node 241 1 0 0
gene 1 1 51 -2.66329 0 1 -2.66329 1
gene 1 1 52 2.29942 0 2 2.29942 1
gene 1 1 53 -2.19545 0 3 -2.19545 1
gene 1 2 51 0.648728 0 4 0.648728 1
gene 1 2 52 -0.488067 0 5 -0.488067 1
gene 1 2 53 -2.05064 0 6 -2.05064 1
gene 1 3 51 8 0 7 8 1
gene 1 3 52 -3.58842 0 8 -3.58842 1
gene 1 3 53 5.77287 0 9 5.77287 1
gene 1 4 51 2.71909 0 10 2.71909 1
gene 1 4 52 -0.398115 0 11 -0.398115 1
gene 1 4 53 4.58708 0 12 4.58708 1
gene 1 5 51 -0.568302 0 13 -0.568302 1
gene 1 5 52 -2.92784 0 14 -2.92784 1
gene 1 5 53 -3.57777 0 15 -3.57777 1
gene 1 6 51 1.84075 0 16 1.84075 1
gene 1 6 52 3.36551 0 17 3.36551 1
gene 1 6 53 -0.629633 0 18 -0.629633 1
gene 1 7 51 -1.86032 0 19 -1.86032 1
gene 1 7 52 -2.34718 0 20 -2.34718 1
gene 1 7 53 4.00412 0 21 4.00412 1
gene 1 8 51 0.215136 0 22 0.215136 1
gene 1 8 52 2.75588 0 23 2.75588 1
gene 1 8 53 0.905599 0 24 0.905599 1
gene 1 9 51 0.58462 0 25 0.58462 1
gene 1 9 52 2.39845 0 26 2.39845 1
gene 1 9 53 1.68511 0 27 1.68511 1
gene 1 10 51 -3.3377 0 28 -3.3377 1
gene 1 10 52 3.68028 0 29 3.68028 1
gene 1 10 53 0.330687 0 30 0.330687 1
gene 1 11 51 5.38895 0 31 5.38895 1
gene 1 11 52 5.96645 0 32 5.96645 1
gene 1 11 53 0.751213 0 33 0.751213 1
gene 1 12 51 -4.31438 0 34 -4.31438 1
gene 1 12 52 0.111345 0 35 0.111345 1
gene 1 12 53 1.39242 0 36 1.39242 1
gene 1 13 51 -0.762123 0 37 -0.762123 1
gene 1 13 52 -0.337612 0 38 -0.337612 1
gene 1 13 53 0.0619519 0 39 0.0619519 1
gene 1 14 51 -4.18639 0 40 -4.18639 1
gene 1 14 52 0.0616951 0 41 0.0616951 1
gene 1 14 53 -6.09198 0 42 -6.09198 1
gene 1 15 51 0.299005 0 43 0.299005 1
gene 1 15 52 7.37684 0 44 7.37684 1
gene 1 15 53 2.53117 0 45 2.53117 1
gene 1 16 51 5.70966 0 46 5.70966 1
gene 1 16 52 3.72334 0 47 3.72334 1
gene 1 16 53 7.62315 0 48 7.62315 1
gene 1 17 51 4.99669 0 49 4.99669 1
gene 1 17 52 0.885933 0 50 0.885933 1
gene 1 17 53 -3.16603 0 51 -3.16603 1
gene 1 18 51 -4.85877 0 52 -4.85877 1
gene 1 18 52 -2.74421 0 53 -2.74421 1
gene 1 18 53 1.98273 0 54 1.98273 1
gene 1 19 51 -3.00913 0 55 -3.00913 1
gene 1 19 52 8 0 56 8 1
gene 1 19 53 0.214831 0 57 0.214831 1
gene 1 20 51 4.40402 0 58 4.40402 0
gene 1 20 52 2.26485 0 59 2.26485 1
gene 1 20 53 3.29594 0 60 3.29594 1
gene 1 21 51 2.93417 0 61 2.93417 1
gene 1 21 52 -1.29063 0 62 -1.29063 1
gene 1 21 53 -1.53279 0 63 -1.53279 1
gene 1 22 51 -2.24692 0 64 -2.24692 1
gene 1 22 52 0.598611 0 65 0.598611 1
gene 1 22 53 -0.368463 0 66 -0.368463 1
gene 1 23 51 8 0 67 8 1
gene 1 23 52 4.55786 0 68 4.55786 1
gene 1 23 53 7.56904 0 69 7.56904 1
gene 1 24 51 7.52544 0 70 7.52544 1
gene 1 24 52 3.23742 0 71 3.23742 1
gene 1 24 53 -2.26666 0 72 -2.26666 1
gene 1 25 51 1.37997 0 73 1.37997 1
gene 1 25 52 3.62213 0 74 3.62213 1
gene 1 25 53 -2.85231 0 75 -2.85231 1
gene 1 26 51 -0.178076 0 76 -0.178076 1
gene 1 26 52 1.28424 0 77 1.28424 1
gene 1 26 53 -1.13977 0 78 -1.13977 1
gene 1 27 51 -1.78506 0 79 -1.78506 1
gene 1 27 52 -4.03075 0 80 -4.03075 1
gene 1 27 53 3.30808 0 81 3.30808 1
gene 1 28 51 2.52431 0 82 2.52431 1
gene 1 28 52 -2.28392 0 83 -2.28392 1
gene 1 28 53 4.26607 0 84 4.26607 1
gene 1 29 51 -2.45556 0 85 -2.45556 1
gene 1 29 52 6.57297 0 86 6.57297 1
gene 1 29 53 0.0878838 0 87 0.0878838 1
gene 1 30 51 0.623884 0 88 0.623884 1
gene 1 30 52 1.49116 0 89 1.49116 1
gene 1 30 53 7.73217 0 90 7.73217 1
gene 1 31 51 -2.98249 0 91 -2.98249 1
gene 1 31 52 1.6568 0 92 1.6568 1
gene 1 31 53 3.0805 0 93 3.0805 1
gene 1 32 51 -2.30027 0 94 -2.30027 1
gene 1 32 52 0.676662 0 95 0.676662 1
gene 1 32 53 -5.14775 0 96 -5.14775 1
gene 1 33 51 -6.62926 0 97 -6.62926 1
gene 1 33 52 1.25492 0 98 1.25492 1
gene 1 33 53 -2.80673 0 99 -2.80673 1
gene 1 34 51 -4.06475 0 100 -4.06475 1
gene 1 34 52 0.930538 0 101 0.930538 1
gene 1 34 53 -0.829569 0 102 -0.829569 1
gene 1 35 51 -1.60228 0 103 -1.60228 1
gene 1 35 52 -2.66546 0 104 -2.66546 1
gene 1 35 53 4.14715 0 105 4.14715 1
gene 1 36 51 -7.18079 0 106 -7.18079 1
gene 1 36 52 4.25737 0 107 4.25737 1
gene 1 36 53 -0.542362 0 108 -0.542362 1
gene 1 37 51 -0.79313 0 109 -0.79313 1
gene 1 37 52 -1.99864 0 110 -1.99864 1
gene 1 37 53 7.18171 0 111 7.18171 1
gene 1 38 51 -0.232967 0 112 -0.232967 1
gene 1 38 52 1.3925 0 113 1.3925 1
gene 1 38 53 -2.235 0 114 -2.235 1
gene 1 39 51 -0.279893 0 115 -0.279893 1
gene 1 39 52 -2.48505 0 116 -2.48505 1
gene 1 39 53 -3.01419 0 117 -3.01419 1
gene 1 40 51 -0.869778 0 118 -0.869778 1
gene 1 40 52 3.86596 0 119 3.86596 1
gene 1 40 53 -5.2986 0 120 -5.2986 1
gene 1 41 51 -0.331059 0 121 -0.331059 1
gene 1 41 52 1.2784 0 122 1.2784 1
gene 1 41 53 4.28621 0 123 4.28621 1
gene 1 42 51 -2.26798 0 124 -2.26798 1
gene 1 42 52 -0.21959 0 125 -0.21959 1
gene 1 42 53 6.65335 0 126 6.65335 1
gene 1 43 51 0.480161 0 127 0.480161 1
gene 1 43 52 4.87896 0 128 4.87896 1
gene 1 43 53 -1.13605 0 129 -1.13605 1
gene 1 44 51 0.551164 0 130 0.551164 1
gene 1 44 52 2.23284 0 131 2.23284 1
gene 1 44 53 -0.714155 0 132 -0.714155 1
gene 1 45 51 -5.07896 0 133 -5.07896 1
gene 1 45 52 -1.81315 0 134 -1.81315 1
gene 1 45 53 -2.19494 0 135 -2.19494 1
gene 1 46 51 -3.21226 0 136 -3.21226 1
gene 1 46 52 -0.329092 0 137 -0.329092 1
gene 1 46 53 -2.90771 0 138 -2.90771 1
gene 1 47 51 -5.6243 0 139 -5.6243 1
gene 1 47 52 2.03726 0 140 2.03726 1
gene 1 47 53 -1.65265 0 141 -1.65265 1
gene 1 48 51 1.83578 0 142 1.83578 1
gene 1 48 52 -1.55858 0 143 -1.55858 1
gene 1 48 53 0.120883 0 144 0.120883 1
gene 1 49 51 1.20037 0 145 1.20037 1
gene 1 49 52 -1.29734 0 146 -1.29734 1
gene 1 49 53 1.61307 0 147 1.61307 1
gene 1 50 51 3.17259 0 148 3.17259 1
gene 1 50 52 1.21578 0 149 1.21578 1
gene 1 50 53 -8 0 150 -8 1
gene 1 24 54 -2.08136 0 152 -2.08136 1
gene 1 54 52 2.1604 0 153 2.1604 1
gene 1 46 54 1.87264 0 158 1.87264 1
gene 1 4 60 -0.712836 0 172 -0.712836 1
gene 1 60 52 -2.38212 0 173 -2.38212 1
gene 1 9 60 -1.68331 0 174 -1.68331 1
gene 1 38 66 -1.88217 0 191 -1.88217 1
gene 1 66 52 -0.788827 0 192 -0.788827 1
gene 1 6 69 -1.22616 0 203 -1.22616 1
gene 1 69 51 0.628605 0 204 0.628605 1
gene 1 13 66 0.0810553 0 218 0.0810553 1
gene 1 22 60 0.450873 0 233 0.450873 1
gene 1 43 60 1.91353 0 291 1.91353 1
gene 1 25 115 0.79 0 368 0.79 1
gene 1 115 53 -1.3928 0 369 -1.3928 1
gene 1 26 60 2.52219 0 443 2.52219 1
gene 1 44 69 1.73353 0 453 1.73353 1
gene 1 3 173 -0.00663778 0 571 -0.00663778 1
gene 1 173 53 2.84754 0 572 2.84754 1
gene 1 1 208 3.13623 0 707 3.13623 1
gene 1 208 53 -1.27889 0 708 -1.27889 1
gene 1 20 241 3.68586 0 834 3.68586 1
gene 1 241 51 8 0 835 8 1
genomeend 2

/* Organism #3 Fitness: 0.000199851 Error: 0 */
genomestart 3
trait 1 0.112206 0.741497 0.119907 0.0611163 0.0311245 0.566057 0.387408 0.391275 
node 1 1 1 1
node 2 1 1 1
node 3 1 1 1
node 4 1 1 1
node 5 1 1 1
node 6 1 1 1
node 7 1 1 1
node 8 1 1 1
node 9 1 1 1
node 10 1 1 1
node 11 1 1 1
node 12 1 1 1
node 13 1 1 1
node 14 1 1 1
node 15 1 1 1
node 16 1 1 1
node 17 1 1 1
node 18 1 1 1
node 19 1 1 1
node 20 1 1 1
node 21 1 1 1
node 22 1 1 1
node 23 1 1 1
node 24 1 1 1
node 25 1 1 1
node 26 1 1 1
node 27 1 1 1
node 28 1 1 1
node 29 1 1 1
node 30 1 1 1
node 31 1 1 1
node 32 1 1 1
node 33 1 1 1
node 34 1 1 1
node 35 1 1 1
node 36 1 1 1
node 37 1 1 1
node 38 1 1 1
node 39 1 1 1
node 40 1 1 1
node 41 1 1 1
node 42 1 1 1
node 43 1 1 1
node 44 1 1 1
node 45 1 1 1
node 46 1 1 1
node 47 1 1 1
node 48 1 1 1
node 49 1 1 1
node 50 1 1 3
node 51 1 0 2
node 52 1 0 2
node 53 1 0 2
node 54 1 0 0
node 60 1 0 0
node 66 1 0 0
node 69 1 0 0
node 115 1 0 0
node 173 1 0 0
node 208 1 0 0
node 241 1 0 0
gene 1 1 51 -3.48554 0 1 -3.48554 1
gene 1 1 52 1.93198 0 2 1.93198 1
gene 1 1 53 -3.54788 0 3 -3.54788 1
gene 1 2 51 0.156465 0 4 0.156465 1
gene 1 2 52 0.397965 0 5 0.397965 1
gene 1 2 53 -5.93397 0 6 -5.93397 1
gene 1 3 51 6.19056 0 7 6.19056 1
gene 1 3 52 -1.89975 0 8 -1.89975 1
gene 1 3 53 6.09118 0 9 6.09118 1
gene 1 4 51 1.8484 0 10 1.8484 1
gene 1 4 52 1.69317 0 11 1.69317 1
gene 1 4 53 3.90278 0 12 3.90278 1
gene 1 5 51 0.539672 0 13 0.539672 1
gene 1 5 52 -4.51869 0 14 -4.51869 1
gene 1 5 53 -7.1463 0 15 -7.1463 1
gene 1 6 51 2.53748 0 16 2.53748 1
gene 1 6 52 4.32104 0 17 4.32104 1
gene 1 6 53 0.47056 0 18 0.47056 1
gene 1 7 51 -3.12432 0 19 -3.12432 1
gene 1 7 52 3.75843 0 20 3.75843 1
gene 1 7 53 6.50481 0 21 6.50481 1
gene 1 8 51 2.16321 0 22 2.16321 1
gene 1 8 52 1.51187 0 23 1.51187 1
gene 1 8 53 3.11117 0 24 3.11117 1
gene 1 9 51 3.01527 0 25 3.01527 1
gene 1 9 52 5.30818 0 26 5.30818 1
gene 1 9 53 -0.421203 0 27 -0.421203 1
gene 1 10 51 -4.8048 0 28 -4.8048 1
gene 1 10 52 5.15661 0 29 5.15661 1
gene 1 10 53 1.75613 0 30 1.75613 1
gene 1 11 51 3.29874 0 31 3.29874 1
gene 1 11 52 5.54705 0 32 5.54705 1
gene 1 11 53 1.24042 0 33 1.24042 1
gene 1 12 51 -6.59259 0 34 -6.59259 1
gene 1 12 52 -3.73475 0 35 -3.73475 1
gene 1 12 53 0.177017 0 36 0.177017 1
gene 1 13 51 6.10576 0 37 6.10576 1
gene 1 13 52 -2.2245 0 38 -2.2245 1
gene 1 13 53 -0.342495 0 39 -0.342495 1
gene 1 14 51 -6.60048 0 40 -6.60048 1
gene 1 14 52 1.56885 0 41 1.56885 1
gene 1 14 53 -3.63372 0 42 -3.63372 1
gene 1 15 51 -4.47896 0 43 -4.47896 1
gene 1 15 52 8 0 44 8 1
gene 1 15 53 3.03946 0 45 3.03946 1
gene 1 16 51 6.16751 0 46 6.16751 1
gene 1 16 52 6.07601 0 47 6.07601 1
gene 1 16 53 8 0 48 8 1
gene 1 17 51 3.29147 0 49 3.29147 1
gene 1 17 52 -0.882996 0 50 -0.882996 1
gene 1 17 53 -2.79469 0 51 -2.79469 1
gene 1 18 51 -6.74855 0 52 -6.74855 1
gene 1 18 52 -3.85592 0 53 -3.85592 1
gene 1 18 53 -1.69841 0 54 -1.69841 1
gene 1 19 51 -2.07801 0 55 -2.07801 1
gene 1 19 52 8 0 56 8 1
gene 1 19 53 1.46044 0 57 1.46044 1
gene 1 20 51 3.79381 0 58 3.79381 0
gene 1 20 52 4.3749 0 59 4.3749 1
gene 1 20 53 3.28129 0 60 3.28129 1
gene 1 21 51 3.44383 0 61 3.44383 1
gene 1 21 52 0.34607 0 62 0.34607 1
gene 1 21 53 -5.93214 0 63 -5.93214 1
gene 1 22 51 -2.44712 0 64 -2.44712 1
gene 1 22 52 -1.95365 0 65 -1.95365 1
gene 1 22 53 4.24166 0 66 4.24166 1
gene 1 23 51 7.91241 0 67 7.91241 1
gene 1 23 52 4.37017 0 68 4.37017 1
gene 1 23 53 8 0 69 8 1
gene 1 24 51 6.68084 0 70 6.68084 1
gene 1 24 52 3.66758 0 71 3.66758 1
gene 1 24 53 -3.15536 0 72 -3.15536 1
gene 1 25 51 4.39116 0 73 4.39116 1
gene 1 25 52 3.56254 0 74 3.56254 1
gene 1 25 53 -4.45682 0 75 -4.45682 1
gene 1 26 51 -8 0 76 -8 1
gene 1 26 52 -6.04608 0 77 -6.04608 1
gene 1 26 53 -0.347816 0 78 -0.347816 1
gene 1 27 51 -0.833642 0 79 -0.833642 1
gene 1 27 52 -8 0 80 -8 1
gene 1 27 53 3.37576 0 81 3.37576 1
gene 1 28 51 -2.17218 0 82 -2.17218 1
gene 1 28 52 -1.68217 0 83 -1.68217 1
gene 1 28 53 7.53505 0 84 7.53505 1
gene 1 29 51 -4.07228 0 85 -4.07228 1
gene 1 29 52 3.2817 0 86 3.2817 1
gene 1 29 53 0.376741 0 87 0.376741 1
gene 1 30 51 -1.11888 0 88 -1.11888 1
gene 1 30 52 5.52082 0 89 5.52082 1
gene 1 30 53 5.70272 0 90 5.70272 1
gene 1 31 51 -3.72577 0 91 -3.72577 1
gene 1 31 52 5.66831 0 92 5.66831 1
gene 1 31 53 3.2495 0 93 3.2495 1
gene 1 32 51 -2.16568 0 94 -2.16568 1
gene 1 32 52 -3.36559 0 95 -3.36559 1
gene 1 32 53 -0.00904588 0 96 -0.00904588 1
gene 1 33 51 -7.80972 0 97 -7.80972 1
gene 1 33 52 -1.51392 0 98 -1.51392 1
gene 1 33 53 -1.16926 0 99 -1.16926 1
gene 1 34 51 -6.48281 0 100 -6.48281 1
gene 1 34 52 -2.59153 0 101 -2.59153 1
gene 1 34 53 -5.05081 0 102 -5.05081 1
gene 1 35 51 -0.134644 0 103 -0.134644 1
gene 1 35 52 -0.182248 0 104 -0.182248 1
gene 1 35 53 3.14515 0 105 3.14515 1
gene 1 36 51 -5.3216 0 106 -5.3216 1
gene 1 36 52 2.76166 0 107 2.76166 1
gene 1 36 53 0.493055 0 108 0.493055 1
gene 1 37 51 -1.53358 0 109 -1.53358 1
gene 1 37 52 -5.794 0 110 -5.794 1
gene 1 37 53 3.99016 0 111 3.99016 1
gene 1 38 51 -0.712031 0 112 -0.712031 1
gene 1 38 52 5.424 0 113 5.424 1
gene 1 38 53 -2.65532 0 114 -2.65532 1
gene 1 39 51 -0.417226 0 115 -0.417226 1
gene 1 39 52 2.44915 0 116 2.44915 1
gene 1 39 53 -2.7914 0 117 -2.7914 1
gene 1 40 51 -1.78951 0 118 -1.78951 1
gene 1 40 52 2.91706 0 119 2.91706 1
gene 1 40 53 -6.57763 0 120 -6.57763 1
gene 1 41 51 0.551994 0 121 0.551994 1
gene 1 41 52 3.15216 0 122 3.15216 1
gene 1 41 53 4.10103 0 123 4.10103 1
gene 1 42 51 -3.53748 0 124 -3.53748 1
gene 1 42 52 -1.12057 0 125 -1.12057 1
gene 1 42 53 5.6686 0 126 5.6686 1
gene 1 43 51 2.4393 0 127 2.4393 1
gene 1 43 52 3.79449 0 128 3.79449 1
gene 1 43 53 -8 0 129 -8 1
gene 1 44 51 2.84814 0 130 2.84814 1
gene 1 44 52 -0.165611 0 131 -0.165611 1
gene 1 44 53 -1.75964 0 132 -1.75964 1
gene 1 45 51 -3.83686 0 133 -3.83686 1
gene 1 45 52 0.30338 0 134 0.30338 1
gene 1 45 53 0.0742649 0 135 0.0742649 1
gene 1 46 51 -3.26139 0 136 -3.26139 1
gene 1 46 52 -0.238681 0 137 -0.238681 1
gene 1 46 53 -3.8872 0 138 -3.8872 1
gene 1 47 51 -6.73632 0 139 -6.73632 1
gene 1 47 52 0.49501 0 140 0.49501 1
gene 1 47 53 -2.44095 0 141 -2.44095 1
gene 1 48 51 -0.882519 0 142 -0.882519 1
gene 1 48 52 -2.58986 0 143 -2.58986 1
gene 1 48 53 -2.55033 0 144 -2.55033 1
gene 1 49 51 1.20037 0 145 1.20037 1
gene 1 49 52 -1.29734 0 146 -1.29734 1
gene 1 49 53 1.61307 0 147 1.61307 1
gene 1 50 51 5.24983 0 148 5.24983 1
gene 1 50 52 1.21578 0 149 1.21578 1
gene 1 50 53 -0.454573 0 150 -0.454573 1
gene 1 24 54 1.83599 0 152 1.83599 1
gene 1 54 52 1.86796 0 153 1.86796 1
gene 1 46 54 1.87264 0 158 1.87264 1
gene 1 4 60 1.27433 0 172 1.27433 1
gene 1 60 52 -2.51976 0 173 -2.51976 1
gene 1 9 60 -4.37132 0 174 -4.37132 1
gene 1 38 66 -1.88217 0 191 -1.88217 1
gene 1 66 52 2.3487 0 192 2.3487 1
gene 1 6 69 0.626469 0 203 0.626469 1
gene 1 69 51 0.628605 0 204 0.628605 1
gene 1 13 66 0.0810553 0 218 0.0810553 1
gene 1 22 60 -1.40328 0 233 -1.40328 1
gene 1 43 60 3.26085 0 291 3.26085 1
gene 1 25 115 -0.207831 0 368 -0.207831 1
gene 1 115 53 1.11972 0 369 1.11972 1
gene 1 26 60 4.11937 0 443 4.11937 1
gene 1 44 69 0.391018 0 453 0.391018 1
gene 1 3 173 0.600471 0 571 0.600471 1
gene 1 173 53 1.42767 0 572 1.42767 1
gene 1 1 208 4.5294 0 707 4.5294 1
gene 1 208 53 2.93633 0 708 2.93633 1
gene 1 20 241 0.492416 0 834 0.492416 1
gene 1 241 51 0.572909 0 835 0.572909 1
genomeend 3

/* Organism #4 Fitness: 0.000199851 Error: 0 */
genomestart 4
trait 1 0.112206 0.741497 0.119907 0.0611163 0.0311245 0.566057 0.387408 0.391275 
node 1 1 1 1
node 2 1 1 1
node 3 1 1 1
node 4 1 1 1
node 5 1 1 1
node 6 1 1 1
node 7 1 1 1
node 8 1 1 1
node 9 1 1 1
node 10 1 1 1
node 11 1 1 1
node 12 1 1 1
node 13 1 1 1
node 14 1 1 1
node 15 1 1 1
node 16 1 1 1
node 17 1 1 1
node 18 1 1 1
node 19 1 1 1
node 20 1 1 1
node 21 1 1 1
node 22 1 1 1
node 23 1 1 1
node 24 1 1 1
node 25 1 1 1
node 26 1 1 1
node 27 1 1 1
node 28 1 1 1
node 29 1 1 1
node 30 1 1 1
node 31 1 1 1
node 32 1 1 1
node 33 1 1 1
node 34 1 1 1
node 35 1 1 1
node 36 1 1 1
node 37 1 1 1
node 38 1 1 1
node 39 1 1 1
node 40 1 1 1
node 41 1 1 1
node 42 1 1 1
node 43 1 1 1
node 44 1 1 1
node 45 1 1 1
node 46 1 1 1
node 47 1 1 1
node 48 1 1 1
node 49 1 1 1
node 50 1 1 3
node 51 1 0 2
node 52 1 0 2
node 53 1 0 2
node 54 1 0 0
node 60 1 0 0
node 66 1 0 0
node 69 1 0 0
node 115 1 0 0
node 173 1 0 0
node 208 1 0 0
node 241 1 0 0
gene 1 1 51 -1.34184 0 1 -1.34184 1
gene 1 1 52 1.39524 0 2 1.39524 1
gene 1 1 53 -1.51131 0 3 -1.51131 1
gene 1 2 51 0.944681 0 4 0.944681 1
gene 1 2 52 -1.43887 0 5 -1.43887 1
gene 1 2 53 -4.58429 0 6 -4.58429 1
gene 1 3 51 8 0 7 8 1
gene 1 3 52 0.119732 0 8 0.119732 1
gene 1 3 53 4.6855 0 9 4.6855 1
gene 1 4 51 4.68601 0 10 4.68601 1
gene 1 4 52 0.693761 0 11 0.693761 1
gene 1 4 53 5.22187 0 12 5.22187 1
gene 1 5 51 -1.27542 0 13 -1.27542 1
gene 1 5 52 -1.22476 0 14 -1.22476 1
gene 1 5 53 -7.25228 0 15 -7.25228 1
gene 1 6 51 -0.583949 0 16 -0.583949 1
gene 1 6 52 2.72294 0 17 2.72294 1
gene 1 6 53 1.84733 0 18 1.84733 1
gene 1 7 51 -2.696 0 19 -2.696 1
gene 1 7 52 3.94902 0 20 3.94902 1
gene 1 7 53 2.77339 0 21 2.77339 1
gene 1 8 51 1.3917 0 22 1.3917 1
gene 1 8 52 1.88763 0 23 1.88763 1
gene 1 8 53 2.41764 0 24 2.41764 1
gene 1 9 51 0.691359 0 25 0.691359 1
gene 1 9 52 3.54368 0 26 3.54368 1
gene 1 9 53 -4.37839 0 27 -4.37839 1
gene 1 10 51 -1.05202 0 28 -1.05202 1
gene 1 10 52 2.23538 0 29 2.23538 1
gene 1 10 53 -1.71772 0 30 -1.71772 1
gene 1 11 51 5.20157 0 31 5.20157 1
gene 1 11 52 8 0 32 8 1
gene 1 11 53 2.17765 0 33 2.17765 1
gene 1 12 51 -5.60501 0 34 -5.60501 1
gene 1 12 52 -3.06296 0 35 -3.06296 1
gene 1 12 53 -0.0945215 0 36 -0.0945215 1
gene 1 13 51 5.29145 0 37 5.29145 1
gene 1 13 52 -0.0389124 0 38 -0.0389124 1
gene 1 13 53 1.21311 0 39 1.21311 1
gene 1 14 51 -2.25534 0 40 -2.25534 1
gene 1 14 52 2.16869 0 41 2.16869 1
gene 1 14 53 -6.11762 0 42 -6.11762 1
gene 1 15 51 -2.55614 0 43 -2.55614 1
gene 1 15 52 6.60808 0 44 6.60808 1
gene 1 15 53 5.47323 0 45 5.47323 1
gene 1 16 51 4.882 0 46 4.882 1
gene 1 16 52 2.31628 0 47 2.31628 1
gene 1 16 53 8 0 48 8 1
gene 1 17 51 2.84842 0 49 2.84842 1
gene 1 17 52 0.0662061 0 50 0.0662061 1
gene 1 17 53 -1.7518 0 51 -1.7518 1
gene 1 18 51 -6.56346 0 52 -6.56346 1
gene 1 18 52 -3.02894 0 53 -3.02894 1
gene 1 18 53 -2.24233 0 54 -2.24233 1
gene 1 19 51 -2.11653 0 55 -2.11653 1
gene 1 19 52 6.75835 0 56 6.75835 1
gene 1 19 53 1.37392 0 57 1.37392 1
gene 1 20 51 3.7803 0 58 3.7803 0
gene 1 20 52 4.60822 0 59 4.60822 1
gene 1 20 53 2.22634 0 60 2.22634 1
gene 1 21 51 1.03073 0 61 1.03073 1
gene 1 21 52 0.171504 0 62 0.171504 1
gene 1 21 53 -7.81635 0 63 -7.81635 1
gene 1 22 51 -0.0416482 0 64 -0.0416482 1
gene 1 22 52 0.071709 0 65 0.071709 1
gene 1 22 53 0.0403321 0 66 0.0403321 1
gene 1 23 51 5.75544 0 67 5.75544 1
gene 1 23 52 4.69268 0 68 4.69268 1
gene 1 23 53 5.6801 0 69 5.6801 1
gene 1 24 51 7.2629 0 70 7.2629 1
gene 1 24 52 4.70102 0 71 4.70102 1
gene 1 24 53 -2.63342 0 72 -2.63342 1
gene 1 25 51 3.97237 0 73 3.97237 1
gene 1 25 52 7.8703 0 74 7.8703 1
gene 1 25 53 -5.1695 0 75 -5.1695 1
gene 1 26 51 -8 0 76 -8 1
gene 1 26 52 -4.62834 0 77 -4.62834 1
gene 1 26 53 -2.76931 0 78 -2.76931 1
gene 1 27 51 0.662681 0 79 0.662681 1
gene 1 27 52 -8 0 80 -8 1
gene 1 27 53 6.85014 0 81 6.85014 1
gene 1 28 51 -0.688984 0 82 -0.688984 1
gene 1 28 52 -1.57024 0 83 -1.57024 1
gene 1 28 53 6.5403 0 84 6.5403 1
gene 1 29 51 -4.63908 0 85 -4.63908 1
gene 1 29 52 5.70518 0 86 5.70518 1
gene 1 29 53 -1.16399 0 87 -1.16399 1
gene 1 30 51 2.10312 0 88 2.10312 1
gene 1 30 52 4.23446 0 89 4.23446 1
gene 1 30 53 7.43724 0 90 7.43724 1
gene 1 31 51 -3.84716 0 91 -3.84716 1
gene 1 31 52 7.18455 0 92 7.18455 1
gene 1 31 53 4.92618 0 93 4.92618 1
gene 1 32 51 -4.21996 0 94 -4.21996 1
gene 1 32 52 -3.72945 0 95 -3.72945 1
gene 1 32 53 -2.683 0 96 -2.683 1
gene 1 33 51 -5.67403 0 97 -5.67403 1
gene 1 33 52 -0.576848 0 98 -0.576848 1
gene 1 33 53 1.18952 0 99 1.18952 1
gene 1 34 51 -3.02972 0 100 -3.02972 1
gene 1 34 52 -4.83448 0 101 -4.83448 1
gene 1 34 53 -1.70179 0 102 -1.70179 1
gene 1 35 51 0.806776 0 103 0.806776 1
gene 1 35 52 -3.16726 0 104 -3.16726 1
gene 1 35 53 3.40059 0 105 3.40059 1
gene 1 36 51 -5.49639 0 106 -5.49639 1
gene 1 36 52 5.92566 0 107 5.92566 1
gene 1 36 53 -1.00182 0 108 -1.00182 1
gene 1 37 51 -2.79041 0 109 -2.79041 1
gene 1 37 52 -7.24721 0 110 -7.24721 1
gene 1 37 53 4.73924 0 111 4.73924 1
gene 1 38 51 0.356193 0 112 0.356193 1
gene 1 38 52 5.26103 0 113 5.26103 1
gene 1 38 53 -0.675813 0 114 -0.675813 1
gene 1 39 51 1.16775 0 115 1.16775 1
gene 1 39 52 3.67058 0 116 3.67058 1
gene 1 39 53 -3.57481 0 117 -3.57481 1
gene 1 40 51 0.248743 0 118 0.248743 1
gene 1 40 52 3.25696 0 119 3.25696 1
gene 1 40 53 -7.40605 0 120 -7.40605 1
gene 1 41 51 1.92502 0 121 1.92502 1
gene 1 41 52 0.887993 0 122 0.887993 1
gene 1 41 53 2.56504 0 123 2.56504 1
gene 1 42 51 -0.861766 0 124 -0.861766 1
gene 1 42 52 2.08982 0 125 2.08982 1
gene 1 42 53 7.13989 0 126 7.13989 1
gene 1 43 51 1.78841 0 127 1.78841 1
gene 1 43 52 7.35684 0 128 7.35684 1
gene 1 43 53 -7.39054 0 129 -7.39054 1
gene 1 44 51 2.10417 0 130 2.10417 1
gene 1 44 52 0.398066 0 131 0.398066 1
gene 1 44 53 -0.116298 0 132 -0.116298 1
gene 1 45 51 -3.65825 0 133 -3.65825 1
gene 1 45 52 -3.84203 0 134 -3.84203 1
gene 1 45 53 -2.84987 0 135 -2.84987 1
gene 1 46 51 -0.993258 0 136 -0.993258 1
gene 1 46 52 -0.859885 0 137 -0.859885 1
gene 1 46 53 -4.85403 0 138 -4.85403 1
gene 1 47 51 -5.6465 0 139 -5.6465 1
gene 1 47 52 2.00034 0 140 2.00034 1
gene 1 47 53 0.239341 0 141 0.239341 1
gene 1 48 51 -0.506283 0 142 -0.506283 1
gene 1 48 52 -2.58986 0 143 -2.58986 1
gene 1 48 53 -1.80049 0 144 -1.80049 1
gene 1 49 51 1.20037 0 145 1.20037 1
gene 1 49 52 1.85324 0 146 1.85324 1
gene 1 49 53 1.61307 0 147 1.61307 1
gene 1 50 51 1.39317 0 148 1.39317 1
gene 1 50 52 3.7009 0 149 3.7009 1
gene 1 50 53 -8 0 150 -8 1
gene 1 24 54 -4.48294 0 152 -4.48294 1
gene 1 54 52 1.89726 0 153 1.89726 1
gene 1 46 54 1.87264 0 158 1.87264 1
gene 1 4 60 1.41174 0 172 1.41174 1
gene 1 60 52 -2.38212 0 173 -2.38212 1
gene 1 9 60 -2.05298 0 174 -2.05298 1
gene 1 38 66 -2.13319 0 191 -2.13319 1
gene 1 66 52 2.26722 0 192 2.26722 1
gene 1 6 69 -3.65711 0 203 -3.65711 1
gene 1 69 51 0.628605 0 204 0.628605 1
gene 1 13 66 0.0810553 0 218 0.0810553 1
gene 1 22 60 2.67338 0 233 2.67338 1
gene 1 43 60 1.04825 0 291 1.04825 1
gene 1 25 115 -0.467009 0 368 -0.467009 1
gene 1 115 53 1.7439 0 369 1.7439 1
gene 1 26 60 1.42566 0 443 1.42566 1
gene 1 44 69 1.73353 0 453 1.73353 1
gene 1 3 173 -0.818411 0 571 -0.818411 1
gene 1 173 53 5.11476 0 572 5.11476 1
gene 1 1 208 1.43635 0 707 1.43635 1
gene 1 208 53 2.93633 0 708 2.93633 1
gene 1 20 241 3.68586 0 834 3.68586 1
gene 1 241 51 -3.4122 0 835 -3.4122 1
genomeend 4

/* Organism #5 Fitness: 0.89886 Error: 0 */
/* ##------$ WINNER 5 SPECIES #53 $------## */
genomestart 5
trait 1 0.112206 0.741497 0.119907 0.0611163 0 0.622547 0.387408 0.391275 
node 1 1 1 1
node 2 1 1 1
node 3 1 1 1
node 4 1 1 1
node 5 1 1 1
node 6 1 1 1
node 7 1 1 1
node 8 1 1 1
node 9 1 1 1
node 10 1 1 1
node 11 1 1 1
node 12 1 1 1
node 13 1 1 1
node 14 1 1 1
node 15 1 1 1
node 16 1 1 1
node 17 1 1 1
node 18 1 1 1
node 19 1 1 1
node 20 1 1 1
node 21 1 1 1
node 22 1 1 1
node 23 1 1 1
node 24 1 1 1
node 25 1 1 1
node 26 1 1 1
node 27 1 1 1
node 28 1 1 1
node 29 1 1 1
node 30 1 1 1
node 31 1 1 1
node 32 1 1 1
node 33 1 1 1
node 34 1 1 1
node 35 1 1 1
node 36 1 1 1
node 37 1 1 1
node 38 1 1 1
node 39 1 1 1
node 40 1 1 1
node 41 1 1 1
node 42 1 1 1
node 43 1 1 1
node 44 1 1 1
node 45 1 1 1
node 46 1 1 1
node 47 1 1 1
node 48 1 1 1
node 49 1 1 1
node 50 1 1 3
node 51 1 0 2
node 52 1 0 2
node 53 1 0 2
node 54 1 0 0
node 60 1 0 0
node 66 1 0 0
node 69 1 0 0
node 115 1 0 0
node 173 1 0 0
node 208 1 0 0
node 241 1 0 0
gene 1 1 51 -2.66329 0 1 -2.66329 1
gene 1 1 52 2.31621 0 2 2.31621 1
gene 1 1 53 -2.19545 0 3 -2.19545 1
gene 1 2 51 0.648728 0 4 0.648728 1
gene 1 2 52 -1.38256 0 5 -1.38256 1
gene 1 2 53 -5.6883 0 6 -5.6883 1
gene 1 3 51 8 0 7 8 1
gene 1 3 52 -0.192014 0 8 -0.192014 1
gene 1 3 53 5.77287 0 9 5.77287 1
gene 1 4 51 3.32282 0 10 3.32282 1
gene 1 4 52 -0.398115 0 11 -0.398115 1
gene 1 4 53 4.58708 0 12 4.58708 1
gene 1 5 51 -0.568302 0 13 -0.568302 1
gene 1 5 52 -2.92784 0 14 -2.92784 1
gene 1 5 53 -7.54419 0 15 -7.54419 1
gene 1 6 51 1.84075 0 16 1.84075 1
gene 1 6 52 3.36551 0 17 3.36551 1
gene 1 6 53 -0.481313 0 18 -0.481313 1
gene 1 7 51 -0.904712 0 19 -0.904712 1
gene 1 7 52 4.27107 0 20 4.27107 1
gene 1 7 53 4.8913 0 21 4.8913 1
gene 1 8 51 1.599 0 22 1.599 1
gene 1 8 52 2.161 0 23 2.161 1
gene 1 8 53 0.905599 0 24 0.905599 1
gene 1 9 51 3.10812 0 25 3.10812 1
gene 1 9 52 2.91179 0 26 2.91179 1
gene 1 9 53 -2.11544 0 27 -2.11544 1
gene 1 10 51 -3.3377 0 28 -3.3377 1
gene 1 10 52 3.68028 0 29 3.68028 1
gene 1 10 53 -0.434946 0 30 -0.434946 1
gene 1 11 51 5.38895 0 31 5.38895 1
gene 1 11 52 5.96645 0 32 5.96645 1
gene 1 11 53 2.97044 0 33 2.97044 1
gene 1 12 51 -4.31438 0 34 -4.31438 1
gene 1 12 52 -1.62241 0 35 -1.62241 1
gene 1 12 53 -0.251005 0 36 -0.251005 1
gene 1 13 51 5.58924 0 37 5.58924 1
gene 1 13 52 -0.337612 0 38 -0.337612 1
gene 1 13 53 -1.23104 0 39 -1.23104 1
gene 1 14 51 -4.18639 0 40 -4.18639 1
gene 1 14 52 0.0616951 0 41 0.0616951 1
gene 1 14 53 -6.09198 0 42 -6.09198 1
gene 1 15 51 -2.7671 0 43 -2.7671 1
gene 1 15 52 7.37684 0 44 7.37684 1
gene 1 15 53 3.23401 0 45 3.23401 1
gene 1 16 51 5.70966 0 46 5.70966 1
gene 1 16 52 3.72334 0 47 3.72334 1
gene 1 16 53 7.62315 0 48 7.62315 1
gene 1 17 51 4.99669 0 49 4.99669 1
gene 1 17 52 -0.694849 0 50 -0.694849 1
gene 1 17 53 -3.16603 0 51 -3.16603 1
gene 1 18 51 -4.90371 0 52 -4.90371 1
gene 1 18 52 -2.74421 0 53 -2.74421 1
gene 1 18 53 -0.097335 0 54 -0.097335 1
gene 1 19 51 -3.00913 0 55 -3.00913 1
gene 1 19 52 8 0 56 8 1
gene 1 19 53 0.214831 0 57 0.214831 1
gene 1 20 51 4.40402 0 58 4.40402 0
gene 1 20 52 2.26485 0 59 2.26485 1
gene 1 20 53 3.29594 0 60 3.29594 1
gene 1 21 51 2.93417 0 61 2.93417 1
gene 1 21 52 -1.5579 0 62 -1.5579 1
gene 1 21 53 -6.14577 0 63 -6.14577 1
gene 1 22 51 -2.24692 0 64 -2.24692 1
gene 1 22 52 -1.26309 0 65 -1.26309 1
gene 1 22 53 2.48441 0 66 2.48441 1
gene 1 23 51 8 0 67 8 1
gene 1 23 52 4.25077 0 68 4.25077 1
gene 1 23 53 7.19732 0 69 7.19732 1
gene 1 24 51 7.52544 0 70 7.52544 1
gene 1 24 52 3.23742 0 71 3.23742 1
gene 1 24 53 -2.26666 0 72 -2.26666 1
gene 1 25 51 2.14827 0 73 2.14827 1
gene 1 25 52 5.61514 0 74 5.61514 1
gene 1 25 53 -2.85231 0 75 -2.85231 1
gene 1 26 51 -8 0 76 -8 1
gene 1 26 52 -4.12723 0 77 -4.12723 1
gene 1 26 53 -1.13977 0 78 -1.13977 1
gene 1 27 51 -1.78506 0 79 -1.78506 1
gene 1 27 52 -8 0 80 -8 1
gene 1 27 53 5.62161 0 81 5.62161 1
gene 1 28 51 -2.48263 0 82 -2.48263 1
gene 1 28 52 -2.28392 0 83 -2.28392 1
gene 1 28 53 5.6767 0 84 5.6767 1
gene 1 29 51 -2.45556 0 85 -2.45556 1
gene 1 29 52 5.287 0 86 5.287 1
gene 1 29 53 0.0878838 0 87 0.0878838 1
gene 1 30 51 0.623884 0 88 0.623884 1
gene 1 30 52 4.33739 0 89 4.33739 1
gene 1 30 53 6.43822 0 90 6.43822 1
gene 1 31 51 -3.88683 0 91 -3.88683 1
gene 1 31 52 8 0 92 8 1
gene 1 31 53 3.0805 0 93 3.0805 1
gene 1 32 51 -2.30027 0 94 -2.30027 1
gene 1 32 52 -2.2712 0 95 -2.2712 1
gene 1 32 53 -1.14716 0 96 -1.14716 1
gene 1 33 51 -6.62926 0 97 -6.62926 1
gene 1 33 52 -1.09086 0 98 -1.09086 1
gene 1 33 53 -1.16453 0 99 -1.16453 1
gene 1 34 51 -4.06475 0 100 -4.06475 1
gene 1 34 52 -3.11225 0 101 -3.11225 1
gene 1 34 53 -3.83015 0 102 -3.83015 1
gene 1 35 51 -0.295324 0 103 -0.295324 1
gene 1 35 52 -2.66546 0 104 -2.66546 1
gene 1 35 53 4.14715 0 105 4.14715 1
gene 1 36 51 -7.18079 0 106 -7.18079 1
gene 1 36 52 4.25737 0 107 4.25737 1
gene 1 36 53 0.479551 0 108 0.479551 1
gene 1 37 51 -3.79104 0 109 -3.79104 1
gene 1 37 52 -7.48869 0 110 -7.48869 1
gene 1 37 53 4.91105 0 111 4.91105 1
gene 1 38 51 -2.08155 0 112 -2.08155 1
gene 1 38 52 4.36996 0 113 4.36996 1
gene 1 38 53 -2.235 0 114 -2.235 1
gene 1 39 51 -0.279893 0 115 -0.279893 1
gene 1 39 52 3.35402 0 116 3.35402 1
gene 1 39 53 -4.3966 0 117 -4.3966 1
gene 1 40 51 -0.91096 0 118 -0.91096 1
gene 1 40 52 3.86596 0 119 3.86596 1
gene 1 40 53 -5.2986 0 120 -5.2986 1
gene 1 41 51 -0.331059 0 121 -0.331059 1
gene 1 41 52 1.2784 0 122 1.2784 1
gene 1 41 53 4.67509 0 123 4.67509 1
gene 1 42 51 -2.26798 0 124 -2.26798 1
gene 1 42 52 0.310364 0 125 0.310364 1
gene 1 42 53 6.65335 0 126 6.65335 1
gene 1 43 51 0.480161 0 127 0.480161 1
gene 1 43 52 4.87896 0 128 4.87896 1
gene 1 43 53 -7.55244 0 129 -7.55244 1
gene 1 44 51 0.470824 0 130 0.470824 1
gene 1 44 52 1.42486 0 131 1.42486 1
gene 1 44 53 -1.93497 0 132 -1.93497 1
gene 1 45 51 -5.07896 0 133 -5.07896 1
gene 1 45 52 -1.81315 0 134 -1.81315 1
gene 1 45 53 -2.23255 0 135 -2.23255 1
gene 1 46 51 -3.21226 0 136 -3.21226 1
gene 1 46 52 1.0225 0 137 1.0225 1
gene 1 46 53 -2.90771 0 138 -2.90771 1
gene 1 47 51 -5.6243 0 139 -5.6243 1
gene 1 47 52 2.03726 0 140 2.03726 1
gene 1 47 53 -1.65265 0 141 -1.65265 1
gene 1 48 51 1.83578 0 142 1.83578 1
gene 1 48 52 -2.58986 0 143 -2.58986 1
gene 1 48 53 -2.41055 0 144 -2.41055 1
gene 1 49 51 1.20037 0 145 1.20037 1
gene 1 49 52 -1.29734 0 146 -1.29734 1
gene 1 49 53 1.61307 0 147 1.61307 1
gene 1 50 51 3.17259 0 148 3.17259 1
gene 1 50 52 1.21578 0 149 1.21578 1
gene 1 50 53 -8 0 150 -8 1
gene 1 24 54 -2.08136 0 152 -2.08136 1
gene 1 54 52 2.92734 0 153 2.92734 1
gene 1 46 54 1.87264 0 158 1.87264 1
gene 1 4 60 1.27433 0 172 1.27433 1
gene 1 60 52 -2.38212 0 173 -2.38212 1
gene 1 9 60 -2.05298 0 174 -2.05298 1
gene 1 38 66 -1.88217 0 191 -1.88217 1
gene 1 66 52 -0.788827 0 192 -0.788827 1
gene 1 6 69 -1.22616 0 203 -1.22616 1
gene 1 69 51 0.628605 0 204 0.628605 1
gene 1 13 66 0.0810553 0 218 0.0810553 1
gene 1 22 60 0.450873 0 233 0.450873 1
gene 1 43 60 3.26085 0 291 3.26085 1
gene 1 25 115 0.0278481 0 368 0.0278481 1
gene 1 115 53 0.900143 0 369 0.900143 1
gene 1 26 60 2.52219 0 443 2.52219 1
gene 1 44 69 1.73353 0 453 1.73353 1
gene 1 3 173 0.600471 0 571 0.600471 1
gene 1 173 53 2.84754 0 572 2.84754 1
gene 1 1 208 3.13623 0 707 3.13623 1
gene 1 208 53 2.93633 0 708 2.93633 1
gene 1 20 241 3.68586 0 834 3.68586 1
gene 1 241 51 -0.984832 0 835 -0.984832 1
genomeend 5

/* Organism #6 Fitness: 0.00019861 Error: 0 */
genomestart 6
trait 1 0.112206 0.741497 0.119907 0.0611163 0.0311245 0.566057 0.387408 0.391275 
node 1 1 1 1
node 2 1 1 1
node 3 1 1 1
node 4 1 1 1
node 5 1 1 1
node 6 1 1 1
node 7 1 1 1
node 8 1 1 1
node 9 1 1 1
node 10 1 1 1
node 11 1 1 1
node 12 1 1 1
node 13 1 1 1
node 14 1 1 1
node 15 1 1 1
node 16 1 1 1
node 17 1 1 1
node 18 1 1 1
node 19 1 1 1
node 20 1 1 1
node 21 1 1 1
node 22 1 1 1
node 23 1 1 1
node 24 1 1 1
node 25 1 1 1
node 26 1 1 1
node 27 1 1 1
node 28 1 1 1
node 29 1 1 1
node 30 1 1 1
node 31 1 1 1
node 32 1 1 1
node 33 1 1 1
node 34 1 1 1
node 35 1 1 1
node 36 1 1 1
node 37 1 1 1
node 38 1 1 1
node 39 1 1 1
node 40 1 1 1
node 41 1 1 1
node 42 1 1 1
node 43 1 1 1
node 44 1 1 1
node 45 1 1 1
node 46 1 1 1
node 47 1 1 1
node 48 1 1 1
node 49 1 1 1
node 50 1 1 3
node 51 1 0 2
node 52 1 0 2
node 53 1 0 2
node 54 1 0 0
node 60 1 0 0
node 66 1 0 0
node 69 1 0 0
node 115 1 0 0
node 173 1 0 0
node 208 1 0 0
node 241 1 0 0
gene 1 1 51 -0.0107578 0 1 -0.0107578 1
gene 1 1 52 3.53442 0 2 3.53442 1
gene 1 1 53 -1.03567 0 3 -1.03567 1
gene 1 2 51 6.11307 0 4 6.11307 1
gene 1 2 52 -0.432295 0 5 -0.432295 1
gene 1 2 53 -1.84736 0 6 -1.84736 1
gene 1 3 51 -1.65868 0 7 -1.65868 1
gene 1 3 52 2.15331 0 8 2.15331 1
gene 1 3 53 8 0 9 8 1
gene 1 4 51 1.05377 0 10 1.05377 1
gene 1 4 52 1.18435 0 11 1.18435 1
gene 1 4 53 0.206915 0 12 0.206915 1
gene 1 5 51 -2.38454 0 13 -2.38454 1
gene 1 5 52 -2.28199 0 14 -2.28199 1
gene 1 5 53 -4.09338 0 15 -4.09338 1
gene 1 6 51 -0.960723 0 16 -0.960723 1
gene 1 6 52 0.964843 0 17 0.964843 1
gene 1 6 53 1.32905 0 18 1.32905 1
gene 1 7 51 0.249117 0 19 0.249117 1
gene 1 7 52 -2.34718 0 20 -2.34718 1
gene 1 7 53 1.7497 0 21 1.7497 1
gene 1 8 51 1.40484 0 22 1.40484 1
gene 1 8 52 5.23619 0 23 5.23619 1
gene 1 8 53 0.319262 0 24 0.319262 1
gene 1 9 51 2.47227 0 25 2.47227 1
gene 1 9 52 3.40403 0 26 3.40403 1
gene 1 9 53 -0.418762 0 27 -0.418762 1
gene 1 10 51 1.53424 0 28 1.53424 1
gene 1 10 52 1.40925 0 29 1.40925 1
gene 1 10 53 0.339461 0 30 0.339461 1
gene 1 11 51 -1.63481 0 31 -1.63481 1
gene 1 11 52 7.61209 0 32 7.61209 1
gene 1 11 53 3.10144 0 33 3.10144 1
gene 1 12 51 1.36252 0 34 1.36252 1
gene 1 12 52 -0.879515 0 35 -0.879515 1
gene 1 12 53 1.79076 0 36 1.79076 1
gene 1 13 51 -2.01415 0 37 -2.01415 1
gene 1 13 52 2.13622 0 38 2.13622 1
gene 1 13 53 1.40171 0 39 1.40171 1
gene 1 14 51 1.57491 0 40 1.57491 1
gene 1 14 52 -1.85179 0 41 -1.85179 1
gene 1 14 53 1.80258 0 42 1.80258 1
gene 1 15 51 2.0996 0 43 2.0996 1
gene 1 15 52 7.46771 0 44 7.46771 1
gene 1 15 53 4.38227 0 45 4.38227 1
gene 1 16 51 -0.863292 0 46 -0.863292 1
gene 1 16 52 0.0353283 0 47 0.0353283 1
gene 1 16 53 0.254524 0 48 0.254524 1
gene 1 17 51 6.34713 0 49 6.34713 1
gene 1 17 52 -1.47246 0 50 -1.47246 1
gene 1 17 53 -2.81503 0 51 -2.81503 1
gene 1 18 51 -7.34389 0 52 -7.34389 1
gene 1 18 52 1.18259 0 53 1.18259 1
gene 1 18 53 1.09952 0 54 1.09952 1
gene 1 19 51 -6.72765 0 55 -6.72765 1
gene 1 19 52 2.59796 0 56 2.59796 1
gene 1 19 53 -3.97826 0 57 -3.97826 1
gene 1 20 51 6.29739 0 58 6.29739 0
gene 1 20 52 4.1818 0 59 4.1818 1
gene 1 20 53 5.90421 0 60 5.90421 1
gene 1 21 51 -2.10334 0 61 -2.10334 1
gene 1 21 52 1.16138 0 62 1.16138 1
gene 1 21 53 0.355922 0 63 0.355922 1
gene 1 22 51 -1.03136 0 64 -1.03136 1
gene 1 22 52 -0.370266 0 65 -0.370266 1
gene 1 22 53 -2.8471 0 66 -2.8471 1
gene 1 23 51 7.90531 0 67 7.90531 1
gene 1 23 52 3.51009 0 68 3.51009 1
gene 1 23 53 5.41458 0 69 5.41458 1
gene 1 24 51 1.1726 0 70 1.1726 1
gene 1 24 52 0.319071 0 71 0.319071 1
gene 1 24 53 -1.89451 0 72 -1.89451 1
gene 1 25 51 -1.99149 0 73 -1.99149 1
gene 1 25 52 3.76221 0 74 3.76221 1
gene 1 25 53 -4.08899 0 75 -4.08899 1
gene 1 26 51 0.888089 0 76 0.888089 1
gene 1 26 52 2.99717 0 77 2.99717 1
gene 1 26 53 -1.21347 0 78 -1.21347 1
gene 1 27 51 3.70271 0 79 3.70271 1
gene 1 27 52 -3.18783 0 80 -3.18783 1
gene 1 27 53 3.05302 0 81 3.05302 1
gene 1 28 51 4.86661 0 82 4.86661 1
gene 1 28 52 1.07678 0 83 1.07678 1
gene 1 28 53 4.2959 0 84 4.2959 1
gene 1 29 51 -1.2112 0 85 -1.2112 1
gene 1 29 52 6.17013 0 86 6.17013 1
gene 1 29 53 2.74399 0 87 2.74399 1
gene 1 30 51 0.323277 0 88 0.323277 1
gene 1 30 52 1.49116 0 89 1.49116 1
gene 1 30 53 7.73217 0 90 7.73217 1
gene 1 31 51 -2.59078 0 91 -2.59078 1
gene 1 31 52 1.6568 0 92 1.6568 1
gene 1 31 53 2.62539 0 93 2.62539 1
gene 1 32 51 0.776009 0 94 0.776009 1
gene 1 32 52 -0.617246 0 95 -0.617246 1
gene 1 32 53 -7.10246 0 96 -7.10246 1
gene 1 33 51 -6.25816 0 97 -6.25816 1
gene 1 33 52 -2.20313 0 98 -2.20313 1
gene 1 33 53 -3.32974 0 99 -3.32974 1
gene 1 34 51 -2.92832 0 100 -2.92832 1
gene 1 34 52 0.665714 0 101 0.665714 1
gene 1 34 53 1.20266 0 102 1.20266 1
gene 1 35 51 -1.18137 0 103 -1.18137 1
gene 1 35 52 -1.44635 0 104 -1.44635 1
gene 1 35 53 5.87953 0 105 5.87953 1
gene 1 36 51 -0.370724 0 106 -0.370724 1
gene 1 36 52 -0.920174 0 107 -0.920174 1
gene 1 36 53 -0.980836 0 108 -0.980836 1
gene 1 37 51 2.28187 0 109 2.28187 1
gene 1 37 52 -1.99864 0 110 -1.99864 1
gene 1 37 53 7.90828 0 111 7.90828 1
gene 1 38 51 1.4718 0 112 1.4718 1
gene 1 38 52 2.45119 0 113 2.45119 1
gene 1 38 53 -4.21161 0 114 -4.21161 1
gene 1 39 51 -3.72711 0 115 -3.72711 1
gene 1 39 52 -4.72274 0 116 -4.72274 1
gene 1 39 53 -0.98135 0 117 -0.98135 1
gene 1 40 51 -0.869778 0 118 -0.869778 1
gene 1 40 52 0.186192 0 119 0.186192 1
gene 1 40 53 -0.155644 0 120 -0.155644 1
gene 1 41 51 -1.7307 0 121 -1.7307 1
gene 1 41 52 4.15195 0 122 4.15195 1
gene 1 41 53 3.86436 0 123 3.86436 1
gene 1 42 51 -0.28489 0 124 -0.28489 1
gene 1 42 52 -2.28576 0 125 -2.28576 1
gene 1 42 53 2.42126 0 126 2.42126 1
gene 1 43 51 -1.11085 0 127 -1.11085 1
gene 1 43 52 3.95753 0 128 3.95753 1
gene 1 43 53 0.956755 0 129 0.956755 1
gene 1 44 51 -1.81906 0 130 -1.81906 1
gene 1 44 52 0.569123 0 131 0.569123 1
gene 1 44 53 2.12462 0 132 2.12462 1
gene 1 45 51 -8 0 133 -8 1
gene 1 45 52 -2.31808 0 134 -2.31808 1
gene 1 45 53 -3.47206 0 135 -3.47206 1
gene 1 46 51 -2.39311 0 136 -2.39311 1
gene 1 46 52 -2.22536 0 137 -2.22536 1
gene 1 46 53 -2.2836 0 138 -2.2836 1
gene 1 47 51 -6.65125 0 139 -6.65125 1
gene 1 47 52 7.61624 0 140 7.61624 1
gene 1 47 53 -0.61037 0 141 -0.61037 1
gene 1 48 51 -2.16369 0 142 -2.16369 1
gene 1 48 52 0.877712 0 143 0.877712 1
gene 1 48 53 -0.646992 0 144 -0.646992 1
gene 1 49 51 2.51918 0 145 2.51918 1
gene 1 49 52 -1.22662 0 146 -1.22662 1
gene 1 49 53 -1.91297 0 147 -1.91297 1
gene 1 50 51 3.07539 0 148 3.07539 1
gene 1 50 52 -1.73521 0 149 -1.73521 1
gene 1 50 53 -7.77256 0 150 -7.77256 1
gene 1 24 54 -0.136284 0 152 -0.136284 1
gene 1 54 52 1.28391 0 153 1.28391 1
gene 1 46 54 1.15042 0 158 1.15042 1
gene 1 4 60 0.764718 0 172 0.764718 1
gene 1 60 52 -1.27728 0 173 -1.27728 1
gene 1 9 60 -0.844218 0 174 -0.844218 1
gene 1 38 66 -2.72814 0 191 -2.72814 1
gene 1 66 52 1.10055 0 192 1.10055 1
gene 1 6 69 -6.66157 0 203 -6.66157 1
gene 1 69 51 -7.98487 0 204 -7.98487 1
gene 1 13 66 -0.466781 0 218 -0.466781 1
gene 1 22 60 3.63456 0 233 3.63456 1
gene 1 43 60 3.0521 0 291 3.0521 1
gene 1 25 115 2.88182 0 368 2.88182 1
gene 1 115 53 -1.32245 0 369 -1.32245 1
gene 1 26 60 2.57218 0 443 2.57218 1
gene 1 44 69 -0.222327 0 453 -0.222327 1
gene 1 3 173 -0.731834 0 571 -0.731834 1
gene 1 173 53 4.11383 0 572 4.11383 1
gene 1 1 208 1.29223 0 707 1.29223 1
gene 1 208 53 -1.27889 0 708 -1.27889 1
gene 1 20 241 2.6532 0 834 2.6532 1
gene 1 241 51 8 0 835 8 1
genomeend 6

/* Organism #7 Fitness: 0.898375 Error: 0 */
/* ##------$ WINNER 7 SPECIES #53 $------## */
genomestart 7
trait 1 0.112206 0.741497 0.119907 0.0611163 0.0311245 0.566057 0.387408 0.391275 
node 1 1 1 1
node 2 1 1 1
node 3 1 1 1
node 4 1 1 1
node 5 1 1 1
node 6 1 1 1
node 7 1 1 1
node 8 1 1 1
node 9 1 1 1
node 10 1 1 1
node 11 1 1 1
node 12 1 1 1
node 13 1 1 1
node 14 1 1 1
node 15 1 1 1
node 16 1 1 1
node 17 1 1 1
node 18 1 1 1
node 19 1 1 1
node 20 1 1 1
node 21 1 1 1
node 22 1 1 1
node 23 1 1 1
node 24 1 1 1
node 25 1 1 1
node 26 1 1 1
node 27 1 1 1
node 28 1 1 1
node 29 1 1 1
node 30 1 1 1
node 31 1 1 1
node 32 1 1 1
node 33 1 1 1
node 34 1 1 1
node 35 1 1 1
node 36 1 1 1
node 37 1 1 1
node 38 1 1 1
node 39 1 1 1
node 40 1 1 1
node 41 1 1 1
node 42 1 1 1
node 43 1 1 1
node 44 1 1 1
node 45 1 1 1
node 46 1 1 1
node 47 1 1 1
node 48 1 1 1
node 49 1 1 1
node 50 1 1 3
node 51 1 0 2
node 52 1 0 2
node 53 1 0 2
node 54 1 0 0
node 60 1 0 0
node 66 1 0 0
node 69 1 0 0
node 115 1 0 0
node 173 1 0 0
node 208 1 0 0
node 241 1 0 0
gene 1 1 51 1.93442 0 1 1.93442 1
gene 1 1 52 2.32049 0 2 2.32049 1
gene 1 1 53 -3.64394 0 3 -3.64394 1
gene 1 2 51 2.94319 0 4 2.94319 1
gene 1 2 52 1.17496 0 5 1.17496 1
gene 1 2 53 -3.8195 0 6 -3.8195 1
gene 1 3 51 -2.66747 0 7 -2.66747 1
gene 1 3 52 -4.51702 0 8 -4.51702 1
gene 1 3 53 7.40203 0 9 7.40203 1
gene 1 4 51 3.56453 0 10 3.56453 1
gene 1 4 52 0.696508 0 11 0.696508 1
gene 1 4 53 -1.39836 0 12 -1.39836 1
gene 1 5 51 -1.85222 0 13 -1.85222 1
gene 1 5 52 -4.82785 0 14 -4.82785 1
gene 1 5 53 -3.18912 0 15 -3.18912 1
gene 1 6 51 -1.2449 0 16 -1.2449 1
gene 1 6 52 -6.04671 0 17 -6.04671 1
gene 1 6 53 0.458047 0 18 0.458047 1
gene 1 7 51 -2.1781 0 19 -2.1781 1
gene 1 7 52 -1.086 0 20 -1.086 1
gene 1 7 53 7.25328 0 21 7.25328 1
gene 1 8 51 0.0997002 0 22 0.0997002 1
gene 1 8 52 3.78306 0 23 3.78306 1
gene 1 8 53 2.49104 0 24 2.49104 1
gene 1 9 51 0.846622 0 25 0.846622 1
gene 1 9 52 2.09403 0 26 2.09403 1
gene 1 9 53 -4.46056 0 27 -4.46056 1
gene 1 10 51 1.78671 0 28 1.78671 1
gene 1 10 52 1.1361 0 29 1.1361 1
gene 1 10 53 1.21771 0 30 1.21771 1
gene 1 11 51 2.46223 0 31 2.46223 1
gene 1 11 52 5.12636 0 32 5.12636 1
gene 1 11 53 1.58406 0 33 1.58406 1
gene 1 12 51 -6.21164 0 34 -6.21164 1
gene 1 12 52 1.8802 0 35 1.8802 1
gene 1 12 53 1.00956 0 36 1.00956 1
gene 1 13 51 -1.58345 0 37 -1.58345 1
gene 1 13 52 -0.914717 0 38 -0.914717 1
gene 1 13 53 1.1372 0 39 1.1372 1
gene 1 14 51 -1.36473 0 40 -1.36473 1
gene 1 14 52 -1.00889 0 41 -1.00889 1
gene 1 14 53 -5.49641 0 42 -5.49641 1
gene 1 15 51 1.98691 0 43 1.98691 1
gene 1 15 52 7.59199 0 44 7.59199 1
gene 1 15 53 4.2354 0 45 4.2354 1
gene 1 16 51 7.99221 0 46 7.99221 1
gene 1 16 52 1.03641 0 47 1.03641 1
gene 1 16 53 7.49565 0 48 7.49565 1
gene 1 17 51 3.5521 0 49 3.5521 1
gene 1 17 52 -1.57142 0 50 -1.57142 1
gene 1 17 53 -2.06008 0 51 -2.06008 1
gene 1 18 51 -6.42903 0 52 -6.42903 1
gene 1 18 52 -1.06912 0 53 -1.06912 1
gene 1 18 53 0.992023 0 54 0.992023 1
gene 1 19 51 -7.41615 0 55 -7.41615 1
gene 1 19 52 1.78694 0 56 1.78694 1
gene 1 19 53 -1.41119 0 57 -1.41119 1
gene 1 20 51 8 0 58 8 0
gene 1 20 52 3.06223 0 59 3.06223 1
gene 1 20 53 2.61881 0 60 2.61881 1
gene 1 21 51 1.44612 0 61 1.44612 1
gene 1 21 52 0.961028 0 62 0.961028 1
gene 1 21 53 -6.50261 0 63 -6.50261 1
gene 1 22 51 1.069 0 64 1.069 1
gene 1 22 52 2.46985 0 65 2.46985 1
gene 1 22 53 4.02674 0 66 4.02674 1
gene 1 23 51 5.67998 0 67 5.67998 1
gene 1 23 52 5.37156 0 68 5.37156 1
gene 1 23 53 6.76221 0 69 6.76221 1
gene 1 24 51 6.91697 0 70 6.91697 1
gene 1 24 52 4.44931 0 71 4.44931 1
gene 1 24 53 -0.308542 0 72 -0.308542 1
gene 1 25 51 0.39407 0 73 0.39407 1
gene 1 25 52 3.6438 0 74 3.6438 1
gene 1 25 53 -1.82612 0 75 -1.82612 1
gene 1 26 51 -1.89085 0 76 -1.89085 1
gene 1 26 52 3.66049 0 77 3.66049 1
gene 1 26 53 0.881088 0 78 0.881088 1
gene 1 27 51 -0.536773 0 79 -0.536773 1
gene 1 27 52 -5.63131 0 80 -5.63131 1
gene 1 27 53 7.05568 0 81 7.05568 1
gene 1 28 51 -4.15932 0 82 -4.15932 1
gene 1 28 52 -2.14666 0 83 -2.14666 1
gene 1 28 53 5.76955 0 84 5.76955 1
gene 1 29 51 3.47152 0 85 3.47152 1
gene 1 29 52 7.05852 0 86 7.05852 1
gene 1 29 53 2.13255 0 87 2.13255 1
gene 1 30 51 1.05648 0 88 1.05648 1
gene 1 30 52 -0.780184 0 89 -0.780184 1
gene 1 30 53 6.02657 0 90 6.02657 1
gene 1 31 51 -1.41002 0 91 -1.41002 1
gene 1 31 52 8 0 92 8 1
gene 1 31 53 4.20953 0 93 4.20953 1
gene 1 32 51 1.92534 0 94 1.92534 1
gene 1 32 52 -3.92866 0 95 -3.92866 1
gene 1 32 53 -2.45587 0 96 -2.45587 1
gene 1 33 51 -5.92482 0 97 -5.92482 1
gene 1 33 52 2.8898 0 98 2.8898 1
gene 1 33 53 0.525815 0 99 0.525815 1
gene 1 34 51 -6.48197 0 100 -6.48197 1
gene 1 34 52 -0.25915 0 101 -0.25915 1
gene 1 34 53 -2.26768 0 102 -2.26768 1
gene 1 35 51 -2.22364 0 103 -2.22364 1
gene 1 35 52 -0.519783 0 104 -0.519783 1
gene 1 35 53 4.89745 0 105 4.89745 1
gene 1 36 51 -5.36158 0 106 -5.36158 1
gene 1 36 52 2.62112 0 107 2.62112 1
gene 1 36 53 -1.32394 0 108 -1.32394 1
gene 1 37 51 -1.70289 0 109 -1.70289 1
gene 1 37 52 -5.92576 0 110 -5.92576 1
gene 1 37 53 8 0 111 8 1
gene 1 38 51 2.13634 0 112 2.13634 1
gene 1 38 52 2.86632 0 113 2.86632 1
gene 1 38 53 -4.3877 0 114 -4.3877 1
gene 1 39 51 0.432791 0 115 0.432791 1
gene 1 39 52 2.57962 0 116 2.57962 1
gene 1 39 53 -3.93829 0 117 -3.93829 1
gene 1 40 51 -1.06401 0 118 -1.06401 1
gene 1 40 52 2.13373 0 119 2.13373 1
gene 1 40 53 -6.794 0 120 -6.794 1
gene 1 41 51 0.406812 0 121 0.406812 1
gene 1 41 52 2.35769 0 122 2.35769 1
gene 1 41 53 5.37846 0 123 5.37846 1
gene 1 42 51 -2.01186 0 124 -2.01186 1
gene 1 42 52 -0.201966 0 125 -0.201966 1
gene 1 42 53 1.51494 0 126 1.51494 1
gene 1 43 51 2.11923 0 127 2.11923 1
gene 1 43 52 5.87715 0 128 5.87715 1
gene 1 43 53 -5.64954 0 129 -5.64954 1
gene 1 44 51 2.92138 0 130 2.92138 1
gene 1 44 52 1.80093 0 131 1.80093 1
gene 1 44 53 -3.53017 0 132 -3.53017 1
gene 1 45 51 -6.61923 0 133 -6.61923 1
gene 1 45 52 -3.44338 0 134 -3.44338 1
gene 1 45 53 -3.61207 0 135 -3.61207 1
gene 1 46 51 -2.80087 0 136 -2.80087 1
gene 1 46 52 1.15159 0 137 1.15159 1
gene 1 46 53 -4.09091 0 138 -4.09091 1
gene 1 47 51 -4.1897 0 139 -4.1897 1
gene 1 47 52 3.51524 0 140 3.51524 1
gene 1 47 53 -1.95364 0 141 -1.95364 1
gene 1 48 51 3.01006 0 142 3.01006 1
gene 1 48 52 -0.70719 0 143 -0.70719 1
gene 1 48 53 -1.97459 0 144 -1.97459 1
gene 1 49 51 4.66776 0 145 4.66776 1
gene 1 49 52 -0.42375 0 146 -0.42375 1
gene 1 49 53 1.61307 0 147 1.61307 1
gene 1 50 51 4.09211 0 148 4.09211 1
gene 1 50 52 1.33091 0 149 1.33091 1
gene 1 50 53 -8 0 150 -8 1
gene 1 24 54 -2.02124 0 152 -2.02124 1
gene 1 54 52 3.34223 0 153 3.34223 1
gene 1 46 54 2.41516 0 158 2.41516 1
gene 1 4 60 -2.02963 0 172 -2.02963 1
gene 1 60 52 1.96615 0 173 1.96615 1
gene 1 9 60 -2.05298 0 174 -2.05298 1
gene 1 38 66 -2.7508 0 191 -2.7508 1
gene 1 66 52 0.557115 0 192 0.557115 1
gene 1 6 69 -1.22616 0 203 -1.22616 1
gene 1 69 51 -7.55166 0 204 -7.55166 1
gene 1 13 66 -2.41836 0 218 -2.41836 1
gene 1 22 60 0.552728 0 233 0.552728 1
gene 1 43 60 -0.127625 0 291 -0.127625 1
gene 1 25 115 -0.48018 0 368 -0.48018 1
gene 1 115 53 -1.11126 0 369 -1.11126 1
gene 1 26 60 1.99193 0 443 1.99193 1
gene 1 44 69 1.02771 0 453 1.02771 1
gene 1 3 173 0.600471 0 571 0.600471 1
gene 1 173 53 0.650664 0 572 0.650664 1
gene 1 1 208 0.137791 0 707 0.137791 1
gene 1 208 53 -0.157561 0 708 -0.157561 1
gene 1 20 241 3.68586 0 834 3.68586 1
gene 1 241 51 8 0 835 8 1
genomeend 7

/* Species #59 : (Size 19) (AF 0) (Age 11)  */


/* Organism #8 Fitness: 0.896064 Error: 0 */
/* ##------$ WINNER 8 SPECIES #59 $------## */
genomestart 8
trait 1 0.116516 0 0.456415 0 0.879343 0.31629 0.343808 0 
node 1 1 1 1
node 2 1 1 1
node 3 1 1 1
node 4 1 1 1
node 5 1 1 1
node 6 1 1 1
node 7 1 1 1
node 8 1 1 1
node 9 1 1 1
node 10 1 1 1
node 11 1 1 1
node 12 1 1 1
node 13 1 1 1
node 14 1 1 1
node 15 1 1 1
node 16 1 1 1
node 17 1 1 1
node 18 1 1 1
node 19 1 1 1
node 20 1 1 1
node 21 1 1 1
node 22 1 1 1
node 23 1 1 1
node 24 1 1 1
node 25 1 1 1
node 26 1 1 1
node 27 1 1 1
node 28 1 1 1
node 29 1 1 1
node 30 1 1 1
node 31 1 1 1
node 32 1 1 1
node 33 1 1 1
node 34 1 1 1
node 35 1 1 1
node 36 1 1 1
node 37 1 1 1
node 38 1 1 1
node 39 1 1 1
node 40 1 1 1
node 41 1 1 1
node 42 1 1 1
node 43 1 1 1
node 44 1 1 1
node 45 1 1 1
node 46 1 1 1
node 47 1 1 1
node 48 1 1 1
node 49 1 1 1
node 50 1 1 3
node 51 1 0 2
node 52 1 0 2
node 53 1 0 2
node 54 1 0 0
node 60 1 0 0
node 66 1 0 0
node 69 1 0 0
node 85 1 0 0
node 108 1 0 0
node 126 1 0 0
node 160 1 0 0
node 210 1 0 0
node 217 1 0 0
node 237 1 0 0
gene 1 1 51 -4.9324 0 1 -4.9324 1
gene 1 1 52 -6.16706 0 2 -6.16706 1
gene 1 1 53 -1.28357 0 3 -1.28357 1
gene 1 2 51 1.85501 0 4 1.85501 1
gene 1 2 52 0.869474 0 5 0.869474 1
gene 1 2 53 0.985595 0 6 0.985595 1
gene 1 3 51 -1.16202 0 7 -1.16202 1
gene 1 3 52 1.64466 0 8 1.64466 1
gene 1 3 53 -4.53165 0 9 -4.53165 1
gene 1 4 51 -1.69057 0 10 -1.69057 1
gene 1 4 52 -1.05809 0 11 -1.05809 0
gene 1 4 53 -2.30861 0 12 -2.30861 1
gene 1 5 51 -1.68608 0 13 -1.68608 1
gene 1 5 52 2.57417 0 14 2.57417 1
gene 1 5 53 1.10699 0 15 1.10699 1
gene 1 6 51 -2.36633 0 16 -2.36633 1
gene 1 6 52 4.22056 0 17 4.22056 1
gene 1 6 53 1.64776 0 18 1.64776 1
gene 1 7 51 -4.04937 0 19 -4.04937 1
gene 1 7 52 -7.66346 0 20 -7.66346 1
gene 1 7 53 -7.53639 0 21 -7.53639 1
gene 1 8 51 -3.43081 0 22 -3.43081 1
gene 1 8 52 -3.14406 0 23 -3.14406 1
gene 1 8 53 0.392171 0 24 0.392171 1
gene 1 9 51 -2.03016 0 25 -2.03016 1
gene 1 9 52 7.8242 0 26 7.8242 1
gene 1 9 53 -0.660778 0 27 -0.660778 1
gene 1 10 51 -2.00668 0 28 -2.00668 1
gene 1 10 52 4.41335 0 29 4.41335 1
gene 1 10 53 7.80148 0 30 7.80148 1
gene 1 11 51 4.59152 0 31 4.59152 1
gene 1 11 52 2.05746 0 32 2.05746 0
gene 1 11 53 -7.43819 0 33 -7.43819 1
gene 1 12 51 -2.30296 0 34 -2.30296 1
gene 1 12 52 1.67794 0 35 1.67794 1
gene 1 12 53 0.695936 0 36 0.695936 1
gene 1 13 51 -1.7827 0 37 -1.7827 1
gene 1 13 52 5.35494 0 38 5.35494 1
gene 1 13 53 -4.58678 0 39 -4.58678 1
gene 1 14 51 -2.53941 0 40 -2.53941 1
gene 1 14 52 -1.47969 0 41 -1.47969 1
gene 1 14 53 6.05691 0 42 6.05691 1
gene 1 15 51 -4.51402 0 43 -4.51402 1
gene 1 15 52 -2.35904 0 44 -2.35904 1
gene 1 15 53 1.88704 0 45 1.88704 1
gene 1 16 51 -5.39219 0 46 -5.39219 1
gene 1 16 52 0.544987 0 47 0.544987 1
gene 1 16 53 8 0 48 8 1
gene 1 17 51 3.02364 0 49 3.02364 1
gene 1 17 52 -3.08708 0 50 -3.08708 1
gene 1 17 53 -1.55112 0 51 -1.55112 1
gene 1 18 51 -0.695115 0 52 -0.695115 0
gene 1 18 52 4.22528 0 53 4.22528 1
gene 1 18 53 6.18124 0 54 6.18124 1
gene 1 19 51 -0.106753 0 55 -0.106753 1
gene 1 19 52 8 0 56 8 1
gene 1 19 53 -1.28221 0 57 -1.28221 1
gene 1 20 51 4.24989 0 58 4.24989 1
gene 1 20 52 -8 0 59 -8 1
gene 1 20 53 0.857791 0 60 0.857791 1
gene 1 21 51 2.01776 0 61 2.01776 1
gene 1 21 52 5.02182 0 62 5.02182 1
gene 1 21 53 1.24034 0 63 1.24034 1
gene 1 22 51 0.0541799 0 64 0.0541799 1
gene 1 22 52 -3.00584 0 65 -3.00584 1
gene 1 22 53 -5.8935 0 66 -5.8935 1
gene 1 23 51 5.86802 0 67 5.86802 1
gene 1 23 52 4.84686 0 68 4.84686 1
gene 1 23 53 0.371031 0 69 0.371031 1
gene 1 24 51 1.48022 0 70 1.48022 1
gene 1 24 52 -0.898961 0 71 -0.898961 1
gene 1 24 53 -2.50299 0 72 -2.50299 1
gene 1 25 51 -1.37223 0 73 -1.37223 1
gene 1 25 52 7.97302 0 74 7.97302 1
gene 1 25 53 -4.01359 0 75 -4.01359 1
gene 1 26 51 8 0 76 8 1
gene 1 26 52 0.571405 0 77 0.571405 1
gene 1 26 53 0.775132 0 78 0.775132 1
gene 1 27 51 4.54768 0 79 4.54768 1
gene 1 27 52 -1.37398 0 80 -1.37398 1
gene 1 27 53 -4.96888 0 81 -4.96888 1
gene 1 28 51 0.317431 0 82 0.317431 1
gene 1 28 52 -0.591182 0 83 -0.591182 1
gene 1 28 53 8 0 84 8 1
gene 1 29 51 2.33311 0 85 2.33311 1
gene 1 29 52 1.21658 0 86 1.21658 1
gene 1 29 53 -1.13964 0 87 -1.13964 1
gene 1 30 51 5.56264 0 88 5.56264 1
gene 1 30 52 -1.63066 0 89 -1.63066 1
gene 1 30 53 5.61025 0 90 5.61025 1
gene 1 31 51 -2.48451 0 91 -2.48451 1
gene 1 31 52 1.1865 0 92 1.1865 1
gene 1 31 53 1.92401 0 93 1.92401 1
gene 1 32 51 1.07397 0 94 1.07397 1
gene 1 32 52 0.798998 0 95 0.798998 1
gene 1 32 53 0.701142 0 96 0.701142 1
gene 1 33 51 0.80257 0 97 0.80257 1
gene 1 33 52 3.30289 0 98 3.30289 1
gene 1 33 53 5.56089 0 99 5.56089 1
gene 1 34 51 -4.32819 0 100 -4.32819 1
gene 1 34 52 1.52601 0 101 1.52601 1
gene 1 34 53 2.24452 0 102 2.24452 1
gene 1 35 51 -1.71111 0 103 -1.71111 1
gene 1 35 52 1.16218 0 104 1.16218 1
gene 1 35 53 -1.69562 0 105 -1.69562 1
gene 1 36 51 -5.37159 0 106 -5.37159 1
gene 1 36 52 2.02849 0 107 2.02849 1
gene 1 36 53 -4.61257 0 108 -4.61257 1
gene 1 37 51 -1.41764 0 109 -1.41764 1
gene 1 37 52 7.32913 0 110 7.32913 1
gene 1 37 53 -1.15407 0 111 -1.15407 1
gene 1 38 51 -0.856418 0 112 -0.856418 1
gene 1 38 52 -3.95418 0 113 -3.95418 1
gene 1 38 53 0.445837 0 114 0.445837 1
gene 1 39 51 -1.77996 0 115 -1.77996 1
gene 1 39 52 -1.5824 0 116 -1.5824 1
gene 1 39 53 -2.32748 0 117 -2.32748 1
gene 1 40 51 -3.13789 0 118 -3.13789 1
gene 1 40 52 0.68701 0 119 0.68701 1
gene 1 40 53 -1.80461 0 120 -1.80461 1
gene 1 41 51 1.36856 0 121 1.36856 1
gene 1 41 52 -2.02765 0 122 -2.02765 1
gene 1 41 53 5.39689 0 123 5.39689 1
gene 1 42 51 -4.65051 0 124 -4.65051 1
gene 1 42 52 2.92756 0 125 2.92756 1
gene 1 42 53 -4.85286 0 126 -4.85286 1
gene 1 43 51 0.81575 0 127 0.81575 1
gene 1 43 52 8 0 128 8 1
gene 1 43 53 -5.69818 0 129 -5.69818 1
gene 1 44 51 -3.09281 0 130 -3.09281 1
gene 1 44 52 4.92336 0 131 4.92336 1
gene 1 44 53 0.036956 0 132 0.036956 1
gene 1 45 51 0.191094 0 133 0.191094 1
gene 1 45 52 1.32708 0 134 1.32708 1
gene 1 45 53 4.36447 0 135 4.36447 1
gene 1 46 51 -7.92438 0 136 -7.92438 1
gene 1 46 52 1.84911 0 137 1.84911 1
gene 1 46 53 0.292262 0 138 0.292262 1
gene 1 47 51 -6.71794 0 139 -6.71794 1
gene 1 47 52 -1.90173 0 140 -1.90173 1
gene 1 47 53 1.62967 0 141 1.62967 1
gene 1 48 51 -2.01451 0 142 -2.01451 1
gene 1 48 52 8 0 143 8 1
gene 1 48 53 -4.13532 0 144 -4.13532 1
gene 1 49 51 -0.497223 0 145 -0.497223 1
gene 1 49 52 6.21145 0 146 6.21145 1
gene 1 49 53 4.18799 0 147 4.18799 1
gene 1 50 51 2.1782 0 148 2.1782 1
gene 1 50 52 0.627461 0 149 0.627461 1
gene 1 50 53 0.60213 0 150 0.60213 1
gene 1 24 54 -3.16418 0 152 -3.16418 1
gene 1 54 52 3.18382 0 153 3.18382 1
gene 1 46 54 -0.452589 0 158 -0.452589 1
gene 1 4 60 0.993912 0 172 0.993912 1
gene 1 60 52 0.594653 0 173 0.594653 1
gene 1 9 60 3.54911 0 174 3.54911 1
gene 1 38 66 1.86857 0 191 1.86857 1
gene 1 66 52 -0.0270983 0 192 -0.0270983 1
gene 1 6 69 -0.224006 0 203 -0.224006 1
gene 1 69 51 -1.08921 0 204 -1.08921 1
gene 1 13 66 2.3368 0 218 2.3368 1
gene 1 22 60 -1.33165 0 233 -1.33165 1
gene 1 16 66 -1.97783 0 247 -1.97783 1
gene 1 15 85 2.27981 0 261 2.27981 1
gene 1 85 53 -4.23124 0 262 -4.23124 1
gene 1 24 108 -0.862758 0 336 -0.862758 1
gene 1 108 54 -1.09012 0 337 -1.09012 1
gene 1 2 85 -1.70301 0 351 -1.70301 1
gene 1 49 60 2.95602 0 367 2.95602 1
gene 1 33 54 1.90703 0 388 1.90703 1
gene 1 49 126 2.03677 0 396 2.03677 1
gene 1 126 52 1.57964 0 397 1.57964 1
gene 1 28 126 2.83796 0 410 2.83796 1
gene 1 21 160 2.72286 0 529 2.72286 1
gene 1 160 53 -0.152173 0 530 -0.152173 1
gene 1 3 126 -1.01815 0 560 -1.01815 1
gene 1 49 54 0.913705 0 570 0.913705 1
gene 1 46 108 2.9254 0 576 2.9254 1
gene 1 45 66 5.23663 0 668 5.23663 1
gene 1 18 210 -4.6408 0 712 -4.6408 1
gene 1 210 51 0.818735 0 713 0.818735 1
gene 1 4 217 1.35922 0 736 1.35922 1
gene 1 217 52 -0.15305 0 737 -0.15305 1
gene 1 108 210 0.20014 0 788 0.20014 1
gene 1 11 237 -2.17818 0 808 -2.17818 1
gene 1 237 52 -2.41729 0 809 -2.41729 1
gene 1 28 69 2.48413 0 869 2.48413 1
gene 1 10 210 0.166387 0 880 0.166387 1
gene 1 44 69 -0.42233 0 892 -0.42233 1
genomeend 8

/* Organism #9 Fitness: 0.898132 Error: 0 */
/* ##------$ WINNER 9 SPECIES #59 $------## */
genomestart 9
trait 1 0.116516 0 0.456415 0 0.879343 0.31629 0.343808 0 
node 1 1 1 1
node 2 1 1 1
node 3 1 1 1
node 4 1 1 1
node 5 1 1 1
node 6 1 1 1
node 7 1 1 1
node 8 1 1 1
node 9 1 1 1
node 10 1 1 1
node 11 1 1 1
node 12 1 1 1
node 13 1 1 1
node 14 1 1 1
node 15 1 1 1
node 16 1 1 1
node 17 1 1 1
node 18 1 1 1
node 19 1 1 1
node 20 1 1 1
node 21 1 1 1
node 22 1 1 1
node 23 1 1 1
node 24 1 1 1
node 25 1 1 1
node 26 1 1 1
node 27 1 1 1
node 28 1 1 1
node 29 1 1 1
node 30 1 1 1
node 31 1 1 1
node 32 1 1 1
node 33 1 1 1
node 34 1 1 1
node 35 1 1 1
node 36 1 1 1
node 37 1 1 1
node 38 1 1 1
node 39 1 1 1
node 40 1 1 1
node 41 1 1 1
node 42 1 1 1
node 43 1 1 1
node 44 1 1 1
node 45 1 1 1
node 46 1 1 1
node 47 1 1 1
node 48 1 1 1
node 49 1 1 1
node 50 1 1 3
node 51 1 0 2
node 52 1 0 2
node 53 1 0 2
node 54 1 0 0
node 60 1 0 0
node 66 1 0 0
node 69 1 0 0
node 85 1 0 0
node 108 1 0 0
node 126 1 0 0
node 160 1 0 0
node 210 1 0 0
node 217 1 0 0
node 237 1 0 0
gene 1 1 51 -6.16611 0 1 -6.16611 1
gene 1 1 52 -8 0 2 -8 1
gene 1 1 53 -3.0789 0 3 -3.0789 1
gene 1 2 51 0.899251 0 4 0.899251 1
gene 1 2 52 2.58553 0 5 2.58553 1
gene 1 2 53 0.47586 0 6 0.47586 1
gene 1 3 51 -0.247688 0 7 -0.247688 1
gene 1 3 52 0.798765 0 8 0.798765 1
gene 1 3 53 -6.14661 0 9 -6.14661 1
gene 1 4 51 -1.86048 0 10 -1.86048 1
gene 1 4 52 1.05028 0 11 1.05028 0
gene 1 4 53 -0.526864 0 12 -0.526864 1
gene 1 5 51 0.387579 0 13 0.387579 1
gene 1 5 52 2.75316 0 14 2.75316 1
gene 1 5 53 -0.855583 0 15 -0.855583 1
gene 1 6 51 -1.14284 0 16 -1.14284 1
gene 1 6 52 2.77329 0 17 2.77329 1
gene 1 6 53 3.01682 0 18 3.01682 1
gene 1 7 51 -2.11923 0 19 -2.11923 1
gene 1 7 52 -6.71044 0 20 -6.71044 1
gene 1 7 53 -6.92091 0 21 -6.92091 1
gene 1 8 51 -4.98038 0 22 -4.98038 1
gene 1 8 52 -4.28919 0 23 -4.28919 1
gene 1 8 53 -1.99361 0 24 -1.99361 1
gene 1 9 51 -2.82501 0 25 -2.82501 1
gene 1 9 52 8 0 26 8 1
gene 1 9 53 1.07397 0 27 1.07397 1
gene 1 10 51 -3.89013 0 28 -3.89013 1
gene 1 10 52 5.76456 0 29 5.76456 1
gene 1 10 53 8 0 30 8 1
gene 1 11 51 6.22326 0 31 6.22326 1
gene 1 11 52 3.12416 0 32 3.12416 0
gene 1 11 53 -7.5505 0 33 -7.5505 1
gene 1 12 51 -2.65759 0 34 -2.65759 1
gene 1 12 52 4.0651 0 35 4.0651 1
gene 1 12 53 -1.43136 0 36 -1.43136 1
gene 1 13 51 -2.96331 0 37 -2.96331 1
gene 1 13 52 5.27452 0 38 5.27452 1
gene 1 13 53 -6.56934 0 39 -6.56934 1
gene 1 14 51 -1.89852 0 40 -1.89852 1
gene 1 14 52 -1.72475 0 41 -1.72475 1
gene 1 14 53 5.11198 0 42 5.11198 1
gene 1 15 51 -4.37127 0 43 -4.37127 1
gene 1 15 52 -1.47958 0 44 -1.47958 1
gene 1 15 53 -0.507447 0 45 -0.507447 1
gene 1 16 51 -3.70681 0 46 -3.70681 1
gene 1 16 52 1.69325 0 47 1.69325 1
gene 1 16 53 8 0 48 8 1
gene 1 17 51 0.594515 0 49 0.594515 1
gene 1 17 52 -3.2911 0 50 -3.2911 1
gene 1 17 53 0.0966521 0 51 0.0966521 1
gene 1 18 51 -2.17076 0 52 -2.17076 0
gene 1 18 52 4.0514 0 53 4.0514 1
gene 1 18 53 7.56198 0 54 7.56198 1
gene 1 19 51 -1.07724 0 55 -1.07724 1
gene 1 19 52 8 0 56 8 1
gene 1 19 53 -2.0731 0 57 -2.0731 1
gene 1 20 51 1.86441 0 58 1.86441 1
gene 1 20 52 -6.56105 0 59 -6.56105 1
gene 1 20 53 2.24966 0 60 2.24966 1
gene 1 21 51 1.92674 0 61 1.92674 1
gene 1 21 52 4.53146 0 62 4.53146 1
gene 1 21 53 2.42149 0 63 2.42149 1
gene 1 22 51 -0.524985 0 64 -0.524985 1
gene 1 22 52 -0.658132 0 65 -0.658132 1
gene 1 22 53 -5.01029 0 66 -5.01029 1
gene 1 23 51 7.81159 0 67 7.81159 1
gene 1 23 52 7.09195 0 68 7.09195 1
gene 1 23 53 0.979265 0 69 0.979265 1
gene 1 24 51 -0.498596 0 70 -0.498596 1
gene 1 24 52 -2.80194 0 71 -2.80194 1
gene 1 24 53 -2.78849 0 72 -2.78849 1
gene 1 25 51 0.635124 0 73 0.635124 1
gene 1 25 52 7.24081 0 74 7.24081 1
gene 1 25 53 -3.03395 0 75 -3.03395 1
gene 1 26 51 8 0 76 8 1
gene 1 26 52 1.15019 0 77 1.15019 1
gene 1 26 53 1.22612 0 78 1.22612 1
gene 1 27 51 5.69694 0 79 5.69694 1
gene 1 27 52 0.993721 0 80 0.993721 1
gene 1 27 53 -5.03717 0 81 -5.03717 1
gene 1 28 51 1.42533 0 82 1.42533 1
gene 1 28 52 1.1647 0 83 1.1647 1
gene 1 28 53 8 0 84 8 1
gene 1 29 51 0.586766 0 85 0.586766 1
gene 1 29 52 3.36951 0 86 3.36951 1
gene 1 29 53 1.18435 0 87 1.18435 1
gene 1 30 51 5.60666 0 88 5.60666 1
gene 1 30 52 -3.85043 0 89 -3.85043 1
gene 1 30 53 5.28408 0 90 5.28408 1
gene 1 31 51 -2.11318 0 91 -2.11318 1
gene 1 31 52 2.39053 0 92 2.39053 1
gene 1 31 53 0.678777 0 93 0.678777 1
gene 1 32 51 -1.39673 0 94 -1.39673 1
gene 1 32 52 -0.922551 0 95 -0.922551 1
gene 1 32 53 0.0273694 0 96 0.0273694 1
gene 1 33 51 2.84388 0 97 2.84388 1
gene 1 33 52 2.45898 0 98 2.45898 1
gene 1 33 53 4.74475 0 99 4.74475 1
gene 1 34 51 -6.61395 0 100 -6.61395 1
gene 1 34 52 3.12671 0 101 3.12671 1
gene 1 34 53 1.31317 0 102 1.31317 1
gene 1 35 51 -0.683777 0 103 -0.683777 1
gene 1 35 52 0.405932 0 104 0.405932 1
gene 1 35 53 -0.692322 0 105 -0.692322 1
gene 1 36 51 -7.12984 0 106 -7.12984 1
gene 1 36 52 -0.442137 0 107 -0.442137 1
gene 1 36 53 -2.6146 0 108 -2.6146 1
gene 1 37 51 -0.689394 0 109 -0.689394 1
gene 1 37 52 8 0 110 8 1
gene 1 37 53 1.16297 0 111 1.16297 1
gene 1 38 51 -1.78838 0 112 -1.78838 1
gene 1 38 52 -4.92085 0 113 -4.92085 1
gene 1 38 53 -0.86127 0 114 -0.86127 1
gene 1 39 51 -1.67413 0 115 -1.67413 1
gene 1 39 52 -3.38352 0 116 -3.38352 1
gene 1 39 53 -4.26167 0 117 -4.26167 1
gene 1 40 51 -4.23038 0 118 -4.23038 1
gene 1 40 52 0.129971 0 119 0.129971 1
gene 1 40 53 -2.78631 0 120 -2.78631 1
gene 1 41 51 3.05166 0 121 3.05166 1
gene 1 41 52 -0.158547 0 122 -0.158547 1
gene 1 41 53 6.7806 0 123 6.7806 1
gene 1 42 51 -6.94703 0 124 -6.94703 1
gene 1 42 52 4.34293 0 125 4.34293 1
gene 1 42 53 -4.80289 0 126 -4.80289 1
gene 1 43 51 -0.288791 0 127 -0.288791 1
gene 1 43 52 8 0 128 8 1
gene 1 43 53 -6.49289 0 129 -6.49289 1
gene 1 44 51 -0.62943 0 130 -0.62943 1
gene 1 44 52 3.06692 0 131 3.06692 1
gene 1 44 53 0.762762 0 132 0.762762 1
gene 1 45 51 -0.568283 0 133 -0.568283 1
gene 1 45 52 -0.337628 0 134 -0.337628 1
gene 1 45 53 2.15737 0 135 2.15737 1
gene 1 46 51 -8 0 136 -8 1
gene 1 46 52 3.18353 0 137 3.18353 1
gene 1 46 53 -0.957394 0 138 -0.957394 1
gene 1 47 51 -8 0 139 -8 1
gene 1 47 52 -0.930023 0 140 -0.930023 1
gene 1 47 53 3.57408 0 141 3.57408 1
gene 1 48 51 -0.848014 0 142 -0.848014 1
gene 1 48 52 8 0 143 8 1
gene 1 48 53 -3.84219 0 144 -3.84219 1
gene 1 49 51 -2.22289 0 145 -2.22289 1
gene 1 49 52 5.6831 0 146 5.6831 1
gene 1 49 53 6.23739 0 147 6.23739 1
gene 1 50 51 1.12112 0 148 1.12112 1
gene 1 50 52 -1.71163 0 149 -1.71163 1
gene 1 50 53 0.176016 0 150 0.176016 1
gene 1 24 54 -2.1428 0 152 -2.1428 1
gene 1 54 52 2.72352 0 153 2.72352 1
gene 1 46 54 1.86644 0 158 1.86644 1
gene 1 4 60 0.334483 0 172 0.334483 1
gene 1 60 52 -2.07411 0 173 -2.07411 1
gene 1 9 60 1.22169 0 174 1.22169 1
gene 1 38 66 1.86857 0 191 1.86857 1
gene 1 66 52 -1.3863 0 192 -1.3863 1
gene 1 6 69 1.54721 0 203 1.54721 1
gene 1 69 51 -1.08921 0 204 -1.08921 1
gene 1 13 66 1.74726 0 218 1.74726 1
gene 1 22 60 -1.33165 0 233 -1.33165 1
gene 1 16 66 -2.99608 0 247 -2.99608 1
gene 1 15 85 2.27981 0 261 2.27981 1
gene 1 85 53 -4.23124 0 262 -4.23124 1
gene 1 24 108 -1.74825 0 336 -1.74825 1
gene 1 108 54 1.32817 0 337 1.32817 1
gene 1 2 85 -0.661107 0 351 -0.661107 1
gene 1 49 60 2.13416 0 367 2.13416 1
gene 1 33 54 1.45665 0 388 1.45665 1
gene 1 49 126 -2.44964 0 396 -2.44964 1
gene 1 126 52 0.793863 0 397 0.793863 1
gene 1 28 126 2.83796 0 410 2.83796 1
gene 1 21 160 3.21642 0 529 3.21642 1
gene 1 160 53 -0.152173 0 530 -0.152173 1
gene 1 3 126 -2.45108 0 560 -2.45108 1
gene 1 49 54 1.16319 0 570 1.16319 1
gene 1 46 108 4.04482 0 576 4.04482 1
gene 1 45 66 5.23663 0 668 5.23663 1
gene 1 18 210 -4.6408 0 712 -4.6408 1
gene 1 210 51 0.818735 0 713 0.818735 1
gene 1 4 217 -0.305185 0 736 -0.305185 1
gene 1 217 52 -0.15305 0 737 -0.15305 1
gene 1 108 210 -1.22767 0 788 -1.22767 1
gene 1 11 237 -1.79365 0 808 -1.79365 1
gene 1 237 52 -2.41729 0 809 -2.41729 1
gene 1 28 69 2.30453 0 869 2.30453 1
gene 1 10 210 0.438017 0 880 0.438017 1
gene 1 44 69 -0.42233 0 892 -0.42233 1
genomeend 9

/* Organism #10 Fitness: 0.897707 Error: 0 */
/* ##------$ WINNER 10 SPECIES #59 $------## */
genomestart 10
trait 1 0.116516 0 0.456415 0 0.879343 0.31629 0.343808 0 
node 1 1 1 1
node 2 1 1 1
node 3 1 1 1
node 4 1 1 1
node 5 1 1 1
node 6 1 1 1
node 7 1 1 1
node 8 1 1 1
node 9 1 1 1
node 10 1 1 1
node 11 1 1 1
node 12 1 1 1
node 13 1 1 1
node 14 1 1 1
node 15 1 1 1
node 16 1 1 1
node 17 1 1 1
node 18 1 1 1
node 19 1 1 1
node 20 1 1 1
node 21 1 1 1
node 22 1 1 1
node 23 1 1 1
node 24 1 1 1
node 25 1 1 1
node 26 1 1 1
node 27 1 1 1
node 28 1 1 1
node 29 1 1 1
node 30 1 1 1
node 31 1 1 1
node 32 1 1 1
node 33 1 1 1
node 34 1 1 1
node 35 1 1 1
node 36 1 1 1
node 37 1 1 1
node 38 1 1 1
node 39 1 1 1
node 40 1 1 1
node 41 1 1 1
node 42 1 1 1
node 43 1 1 1
node 44 1 1 1
node 45 1 1 1
node 46 1 1 1
node 47 1 1 1
node 48 1 1 1
node 49 1 1 1
node 50 1 1 3
node 51 1 0 2
node 52 1 0 2
node 53 1 0 2
node 54 1 0 0
node 60 1 0 0
node 66 1 0 0
node 69 1 0 0
node 85 1 0 0
node 108 1 0 0
node 126 1 0 0
node 160 1 0 0
node 210 1 0 0
node 217 1 0 0
node 237 1 0 0
gene 1 1 51 -3.2667 0 1 -3.2667 1
gene 1 1 52 -6.68649 0 2 -6.68649 1
gene 1 1 53 1.15101 0 3 1.15101 1
gene 1 2 51 1.83686 0 4 1.83686 1
gene 1 2 52 0.757014 0 5 0.757014 1
gene 1 2 53 1.0741 0 6 1.0741 1
gene 1 3 51 2.43451 0 7 2.43451 1
gene 1 3 52 2.61858 0 8 2.61858 1
gene 1 3 53 -4.23646 0 9 -4.23646 1
gene 1 4 51 -4.30913 0 10 -4.30913 1
gene 1 4 52 0.633021 0 11 0.633021 0
gene 1 4 53 -2.18257 0 12 -2.18257 1
gene 1 5 51 -0.503103 0 13 -0.503103 1
gene 1 5 52 3.88738 0 14 3.88738 1
gene 1 5 53 0.971332 0 15 0.971332 1
gene 1 6 51 -0.790354 0 16 -0.790354 1
gene 1 6 52 5.59809 0 17 5.59809 1
gene 1 6 53 3.21428 0 18 3.21428 1
gene 1 7 51 -0.467849 0 19 -0.467849 1
gene 1 7 52 -8 0 20 -8 1
gene 1 7 53 -2.31719 0 21 -2.31719 1
gene 1 8 51 -3.22191 0 22 -3.22191 1
gene 1 8 52 -0.579623 0 23 -0.579623 1
gene 1 8 53 4.42351 0 24 4.42351 1
gene 1 9 51 -2.91779 0 25 -2.91779 1
gene 1 9 52 3.89586 0 26 3.89586 1
gene 1 9 53 3.14709 0 27 3.14709 1
gene 1 10 51 -1.63709 0 28 -1.63709 1
gene 1 10 52 2.85439 0 29 2.85439 1
gene 1 10 53 -1.11805 0 30 -1.11805 1
gene 1 11 51 5.50577 0 31 5.50577 1
gene 1 11 52 0.351097 0 32 0.351097 0
gene 1 11 53 -6.10094 0 33 -6.10094 1
gene 1 12 51 -2.23216 0 34 -2.23216 1
gene 1 12 52 -0.402352 0 35 -0.402352 1
gene 1 12 53 -1.8123 0 36 -1.8123 1
gene 1 13 51 -1.91439 0 37 -1.91439 1
gene 1 13 52 -1.27743 0 38 -1.27743 1
gene 1 13 53 -4.47532 0 39 -4.47532 1
gene 1 14 51 -1.50498 0 40 -1.50498 1
gene 1 14 52 -0.278558 0 41 -0.278558 1
gene 1 14 53 4.05177 0 42 4.05177 1
gene 1 15 51 -6.90217 0 43 -6.90217 1
gene 1 15 52 -1.92751 0 44 -1.92751 1
gene 1 15 53 1.98241 0 45 1.98241 1
gene 1 16 51 -0.953856 0 46 -0.953856 1
gene 1 16 52 1.54477 0 47 1.54477 1
gene 1 16 53 1.11103 0 48 1.11103 1
gene 1 17 51 -0.109547 0 49 -0.109547 1
gene 1 17 52 -2.71872 0 50 -2.71872 1
gene 1 17 53 -1.9883 0 51 -1.9883 1
gene 1 18 51 -0.741961 0 52 -0.741961 0
gene 1 18 52 6.99903 0 53 6.99903 1
gene 1 18 53 6.98441 0 54 6.98441 1
gene 1 19 51 -0.979201 0 55 -0.979201 1
gene 1 19 52 -1.8276 0 56 -1.8276 1
gene 1 19 53 -0.646077 0 57 -0.646077 1
gene 1 20 51 3.27696 0 58 3.27696 1
gene 1 20 52 -8 0 59 -8 1
gene 1 20 53 4.87677 0 60 4.87677 1
gene 1 21 51 0.099445 0 61 0.099445 1
gene 1 21 52 3.72898 0 62 3.72898 1
gene 1 21 53 -2.04848 0 63 -2.04848 1
gene 1 22 51 -1.06661 0 64 -1.06661 1
gene 1 22 52 -3.27509 0 65 -3.27509 1
gene 1 22 53 -0.827433 0 66 -0.827433 1
gene 1 23 51 -1.42567 0 67 -1.42567 1
gene 1 23 52 6.62761 0 68 6.62761 1
gene 1 23 53 0.655692 0 69 0.655692 1
gene 1 24 51 2.49557 0 70 2.49557 1
gene 1 24 52 1.35777 0 71 1.35777 1
gene 1 24 53 -1.63184 0 72 -1.63184 1
gene 1 25 51 2.13553 0 73 2.13553 1
gene 1 25 52 6.54071 0 74 6.54071 1
gene 1 25 53 -0.249565 0 75 -0.249565 1
gene 1 26 51 8 0 76 8 1
gene 1 26 52 2.04627 0 77 2.04627 1
gene 1 26 53 -1.74638 0 78 -1.74638 1
gene 1 27 51 2.05722 0 79 2.05722 1
gene 1 27 52 -0.571879 0 80 -0.571879 1
gene 1 27 53 -5.89252 0 81 -5.89252 1
gene 1 28 51 0.0011063 0 82 0.0011063 1
gene 1 28 52 -2.36305 0 83 -2.36305 1
gene 1 28 53 6.81533 0 84 6.81533 1
gene 1 29 51 -0.343514 0 85 -0.343514 1
gene 1 29 52 -2.37514 0 86 -2.37514 1
gene 1 29 53 -1.52897 0 87 -1.52897 1
gene 1 30 51 5.72599 0 88 5.72599 1
gene 1 30 52 0.176719 0 89 0.176719 1
gene 1 30 53 6.99442 0 90 6.99442 1
gene 1 31 51 -1.2096 0 91 -1.2096 1
gene 1 31 52 0.158391 0 92 0.158391 1
gene 1 31 53 1.08132 0 93 1.08132 1
gene 1 32 51 -0.289371 0 94 -0.289371 1
gene 1 32 52 3.01975 0 95 3.01975 1
gene 1 32 53 -1.41913 0 96 -1.41913 1
gene 1 33 51 1.90757 0 97 1.90757 1
gene 1 33 52 4.05792 0 98 4.05792 1
gene 1 33 53 5.06001 0 99 5.06001 1
gene 1 34 51 1.26797 0 100 1.26797 1
gene 1 34 52 -1.10552 0 101 -1.10552 1
gene 1 34 53 6.19842 0 102 6.19842 1
gene 1 35 51 -4.84261 0 103 -4.84261 1
gene 1 35 52 0.0744251 0 104 0.0744251 1
gene 1 35 53 -2.18559 0 105 -2.18559 1
gene 1 36 51 -6.33384 0 106 -6.33384 1
gene 1 36 52 1.96989 0 107 1.96989 1
gene 1 36 53 -2.72103 0 108 -2.72103 1
gene 1 37 51 -2.30987 0 109 -2.30987 1
gene 1 37 52 2.2602 0 110 2.2602 1
gene 1 37 53 0.86108 0 111 0.86108 1
gene 1 38 51 -0.803697 0 112 -0.803697 1
gene 1 38 52 -0.0954943 0 113 -0.0954943 1
gene 1 38 53 1.20033 0 114 1.20033 1
gene 1 39 51 1.69988 0 115 1.69988 1
gene 1 39 52 -0.329218 0 116 -0.329218 1
gene 1 39 53 -1.12948 0 117 -1.12948 1
gene 1 40 51 -4.90759 0 118 -4.90759 1
gene 1 40 52 0.449271 0 119 0.449271 1
gene 1 40 53 -0.647603 0 120 -0.647603 1
gene 1 41 51 -1.7655 0 121 -1.7655 1
gene 1 41 52 0.426646 0 122 0.426646 1
gene 1 41 53 5.79782 0 123 5.79782 1
gene 1 42 51 -4.72116 0 124 -4.72116 1
gene 1 42 52 1.1716 0 125 1.1716 1
gene 1 42 53 2.28523 0 126 2.28523 1
gene 1 43 51 -0.113758 0 127 -0.113758 1
gene 1 43 52 -0.736335 0 128 -0.736335 1
gene 1 43 53 -4.88433 0 129 -4.88433 1
gene 1 44 51 -1.82232 0 130 -1.82232 1
gene 1 44 52 3.86948 0 131 3.86948 1
gene 1 44 53 1.57684 0 132 1.57684 1
gene 1 45 51 -0.259665 0 133 -0.259665 1
gene 1 45 52 1.6473 0 134 1.6473 1
gene 1 45 53 1.57224 0 135 1.57224 1
gene 1 46 51 0.408795 0 136 0.408795 1
gene 1 46 52 -0.0904969 0 137 -0.0904969 1
gene 1 46 53 -2.16494 0 138 -2.16494 1
gene 1 47 51 -7.84148 0 139 -7.84148 1
gene 1 47 52 -3.77458 0 140 -3.77458 1
gene 1 47 53 1.02138 0 141 1.02138 1
gene 1 48 51 -2.25385 0 142 -2.25385 1
gene 1 48 52 -0.100253 0 143 -0.100253 1
gene 1 48 53 -4.09268 0 144 -4.09268 1
gene 1 49 51 0.884121 0 145 0.884121 1
gene 1 49 52 2.98999 0 146 2.98999 1
gene 1 49 53 2.44455 0 147 2.44455 1
gene 1 50 51 -1.45274 0 148 -1.45274 1
gene 1 50 52 -3.1444 0 149 -3.1444 1
gene 1 50 53 2.65969 0 150 2.65969 1
gene 1 24 54 -3.22552 0 152 -3.22552 1
gene 1 54 52 0.0330124 0 153 0.0330124 1
gene 1 46 54 1.54668 0 158 1.54668 1
gene 1 4 60 -1.14834 0 172 -1.14834 1
gene 1 60 52 2.39227 0 173 2.39227 1
gene 1 9 60 3.54911 0 174 3.54911 1
gene 1 38 66 2.19947 0 191 2.19947 1
gene 1 66 52 -0.732991 0 192 -0.732991 1
gene 1 6 69 2.66449 0 203 2.66449 1
gene 1 69 51 3.37817 0 204 3.37817 1
gene 1 13 66 1.67936 0 218 1.67936 1
gene 1 22 60 -1.63775 0 233 -1.63775 1
gene 1 16 66 -1.97783 0 247 -1.97783 1
gene 1 15 85 -0.760216 0 261 -0.760216 1
gene 1 85 53 -1.07944 0 262 -1.07944 1
gene 1 24 108 -0.862758 0 336 -0.862758 1
gene 1 108 54 6.12928 0 337 6.12928 1
gene 1 2 85 -0.503174 0 351 -0.503174 1
gene 1 49 60 4.56214 0 367 4.56214 1
gene 1 33 54 3.57265 0 388 3.57265 1
gene 1 49 126 1.22078 0 396 1.22078 1
gene 1 126 52 4.02783 0 397 4.02783 1
gene 1 28 126 3.53249 0 410 3.53249 1
gene 1 21 160 1.72124 0 529 1.72124 1
gene 1 160 53 1.84908 0 530 1.84908 1
gene 1 3 126 0.700648 0 560 0.700648 1
gene 1 49 54 0.67795 0 570 0.67795 1
gene 1 46 108 2.12123 0 576 2.12123 1
gene 1 45 66 -2.44217 0 668 -2.44217 1
gene 1 18 210 -5.63677 0 712 -5.63677 1
gene 1 210 51 3.34619 0 713 3.34619 1
gene 1 4 217 0.810419 0 736 0.810419 1
gene 1 217 52 0.810266 0 737 0.810266 1
gene 1 108 210 -0.894101 0 788 -0.894101 1
gene 1 11 237 -1.65616 0 808 -1.65616 1
gene 1 237 52 0.567263 0 809 0.567263 1
gene 1 28 69 -1.57988 0 869 -1.57988 1
gene 1 10 210 -1.16445 0 880 -1.16445 1
gene 1 44 69 1.25466 0 892 1.25466 1
genomeend 10

/* Organism #11 Fitness: 0.893561 Error: 0 */
/* ##------$ WINNER 11 SPECIES #59 $------## */
genomestart 11
trait 1 0.116516 0 0.456415 0 0.879343 0.31629 0.343808 0 
node 1 1 1 1
node 2 1 1 1
node 3 1 1 1
node 4 1 1 1
node 5 1 1 1
node 6 1 1 1
node 7 1 1 1
node 8 1 1 1
node 9 1 1 1
node 10 1 1 1
node 11 1 1 1
node 12 1 1 1
node 13 1 1 1
node 14 1 1 1
node 15 1 1 1
node 16 1 1 1
node 17 1 1 1
node 18 1 1 1
node 19 1 1 1
node 20 1 1 1
node 21 1 1 1
node 22 1 1 1
node 23 1 1 1
node 24 1 1 1
node 25 1 1 1
node 26 1 1 1
node 27 1 1 1
node 28 1 1 1
node 29 1 1 1
node 30 1 1 1
node 31 1 1 1
node 32 1 1 1
node 33 1 1 1
node 34 1 1 1
node 35 1 1 1
node 36 1 1 1
node 37 1 1 1
node 38 1 1 1
node 39 1 1 1
node 40 1 1 1
node 41 1 1 1
node 42 1 1 1
node 43 1 1 1
node 44 1 1 1
node 45 1 1 1
node 46 1 1 1
node 47 1 1 1
node 48 1 1 1
node 49 1 1 1
node 50 1 1 3
node 51 1 0 2
node 52 1 0 2
node 53 1 0 2
node 54 1 0 0
node 60 1 0 0
node 66 1 0 0
node 69 1 0 0
node 85 1 0 0
node 108 1 0 0
node 126 1 0 0
node 160 1 0 0
node 210 1 0 0
node 217 1 0 0
node 237 1 0 0
gene 1 1 51 1.07967 0 1 1.07967 1
gene 1 1 52 -5.07824 0 2 -5.07824 1
gene 1 1 53 -3.37226 0 3 -3.37226 1
gene 1 2 51 -0.299997 0 4 -0.299997 1
gene 1 2 52 3.16439 0 5 3.16439 1
gene 1 2 53 -1.6448 0 6 -1.6448 1
gene 1 3 51 4.13073 0 7 4.13073 1
gene 1 3 52 1.70532 0 8 1.70532 1
gene 1 3 53 -4.48449 0 9 -4.48449 1
gene 1 4 51 -2.98371 0 10 -2.98371 1
gene 1 4 52 0.182491 0 11 0.182491 0
gene 1 4 53 1.15539 0 12 1.15539 1
gene 1 5 51 -4.41565 0 13 -4.41565 1
gene 1 5 52 -1.97745 0 14 -1.97745 1
gene 1 5 53 -2.62001 0 15 -2.62001 1
gene 1 6 51 0.847651 0 16 0.847651 1
gene 1 6 52 7.49947 0 17 7.49947 1
gene 1 6 53 4.41373 0 18 4.41373 1
gene 1 7 51 -5.84249 0 19 -5.84249 1
gene 1 7 52 -8 0 20 -8 1
gene 1 7 53 -5.23858 0 21 -5.23858 1
gene 1 8 51 -2.63229 0 22 -2.63229 1
gene 1 8 52 -2.79874 0 23 -2.79874 1
gene 1 8 53 2.13325 0 24 2.13325 1
gene 1 9 51 -3.86813 0 25 -3.86813 1
gene 1 9 52 6.7559 0 26 6.7559 1
gene 1 9 53 0.88262 0 27 0.88262 1
gene 1 10 51 1.20234 0 28 1.20234 1
gene 1 10 52 2.40493 0 29 2.40493 1
gene 1 10 53 8 0 30 8 1
gene 1 11 51 6.2212 0 31 6.2212 1
gene 1 11 52 1.03708 0 32 1.03708 0
gene 1 11 53 -6.33319 0 33 -6.33319 1
gene 1 12 51 -1.58685 0 34 -1.58685 1
gene 1 12 52 -1.26843 0 35 -1.26843 1
gene 1 12 53 1.14135 0 36 1.14135 1
gene 1 13 51 -2.87145 0 37 -2.87145 1
gene 1 13 52 5.21806 0 38 5.21806 1
gene 1 13 53 -8 0 39 -8 1
gene 1 14 51 -4.42087 0 40 -4.42087 1
gene 1 14 52 2.69608 0 41 2.69608 1
gene 1 14 53 3.23647 0 42 3.23647 1
gene 1 15 51 -3.39673 0 43 -3.39673 1
gene 1 15 52 0.289735 0 44 0.289735 1
gene 1 15 53 0.977126 0 45 0.977126 1
gene 1 16 51 -0.592164 0 46 -0.592164 1
gene 1 16 52 -3.10549 0 47 -3.10549 1
gene 1 16 53 6.38878 0 48 6.38878 1
gene 1 17 51 3.02539 0 49 3.02539 1
gene 1 17 52 -0.357429 0 50 -0.357429 1
gene 1 17 53 -0.526307 0 51 -0.526307 1
gene 1 18 51 -2.25247 0 52 -2.25247 0
gene 1 18 52 6.02549 0 53 6.02549 1
gene 1 18 53 4.90717 0 54 4.90717 1
gene 1 19 51 -1.31078 0 55 -1.31078 1
gene 1 19 52 8 0 56 8 1
gene 1 19 53 -0.774002 0 57 -0.774002 1
gene 1 20 51 5.51076 0 58 5.51076 1
gene 1 20 52 -5.86271 0 59 -5.86271 1
gene 1 20 53 4.31455 0 60 4.31455 1
gene 1 21 51 0.0753044 0 61 0.0753044 1
gene 1 21 52 2.6059 0 62 2.6059 1
gene 1 21 53 0.809271 0 63 0.809271 1
gene 1 22 51 -1.54613 0 64 -1.54613 1
gene 1 22 52 -0.34608 0 65 -0.34608 1
gene 1 22 53 -4.66139 0 66 -4.66139 1
gene 1 23 51 8 0 67 8 1
gene 1 23 52 4.34185 0 68 4.34185 1
gene 1 23 53 3.68023 0 69 3.68023 1
gene 1 24 51 4.06125 0 70 4.06125 1
gene 1 24 52 2.48882 0 71 2.48882 1
gene 1 24 53 -1.27042 0 72 -1.27042 1
gene 1 25 51 -1.91416 0 73 -1.91416 1
gene 1 25 52 5.30212 0 74 5.30212 1
gene 1 25 53 3.36505 0 75 3.36505 1
gene 1 26 51 7.23811 0 76 7.23811 1
gene 1 26 52 4.15548 0 77 4.15548 1
gene 1 26 53 1.77942 0 78 1.77942 1
gene 1 27 51 5.6948 0 79 5.6948 1
gene 1 27 52 -2.85924 0 80 -2.85924 1
gene 1 27 53 -8 0 81 -8 1
gene 1 28 51 1.40019 0 82 1.40019 1
gene 1 28 52 -1.11663 0 83 -1.11663 1
gene 1 28 53 7.75545 0 84 7.75545 1
gene 1 29 51 2.54506 0 85 2.54506 1
gene 1 29 52 1.37154 0 86 1.37154 1
gene 1 29 53 -3.18484 0 87 -3.18484 1
gene 1 30 51 4.15345 0 88 4.15345 1
gene 1 30 52 -1.37997 0 89 -1.37997 1
gene 1 30 53 7.33683 0 90 7.33683 1
gene 1 31 51 2.70363 0 91 2.70363 1
gene 1 31 52 1.03063 0 92 1.03063 1
gene 1 31 53 -1.10862 0 93 -1.10862 1
gene 1 32 51 -2.49105 0 94 -2.49105 1
gene 1 32 52 -0.480948 0 95 -0.480948 1
gene 1 32 53 -2.48202 0 96 -2.48202 1
gene 1 33 51 0.294818 0 97 0.294818 1
gene 1 33 52 4.8369 0 98 4.8369 1
gene 1 33 53 7.20523 0 99 7.20523 1
gene 1 34 51 -3.35618 0 100 -3.35618 1
gene 1 34 52 1.71858 0 101 1.71858 1
gene 1 34 53 5.12417 0 102 5.12417 1
gene 1 35 51 0.665294 0 103 0.665294 1
gene 1 35 52 -3.92503 0 104 -3.92503 1
gene 1 35 53 -0.95852 0 105 -0.95852 1
gene 1 36 51 -5.62131 0 106 -5.62131 1
gene 1 36 52 0.415815 0 107 0.415815 1
gene 1 36 53 -3.0829 0 108 -3.0829 1
gene 1 37 51 -2.2235 0 109 -2.2235 1
gene 1 37 52 1.28742 0 110 1.28742 1
gene 1 37 53 -2.42845 0 111 -2.42845 1
gene 1 38 51 1.68707 0 112 1.68707 1
gene 1 38 52 -1.9086 0 113 -1.9086 1
gene 1 38 53 3.24095 0 114 3.24095 1
gene 1 39 51 2.46639 0 115 2.46639 1
gene 1 39 52 -2.78353 0 116 -2.78353 1
gene 1 39 53 -4.44699 0 117 -4.44699 1
gene 1 40 51 -6.34226 0 118 -6.34226 1
gene 1 40 52 -0.704405 0 119 -0.704405 1
gene 1 40 53 0.903302 0 120 0.903302 1
gene 1 41 51 6.11442 0 121 6.11442 1
gene 1 41 52 -3.15493 0 122 -3.15493 1
gene 1 41 53 5.60464 0 123 5.60464 1
gene 1 42 51 -5.48862 0 124 -5.48862 1
gene 1 42 52 3.02224 0 125 3.02224 1
gene 1 42 53 -3.35753 0 126 -3.35753 1
gene 1 43 51 -0.165496 0 127 -0.165496 1
gene 1 43 52 8 0 128 8 1
gene 1 43 53 -6.34663 0 129 -6.34663 1
gene 1 44 51 -0.557025 0 130 -0.557025 1
gene 1 44 52 1.02058 0 131 1.02058 1
gene 1 44 53 1.64917 0 132 1.64917 1
gene 1 45 51 -0.279044 0 133 -0.279044 1
gene 1 45 52 2.23691 0 134 2.23691 1
gene 1 45 53 4.68972 0 135 4.68972 1
gene 1 46 51 -8 0 136 -8 1
gene 1 46 52 0.840165 0 137 0.840165 1
gene 1 46 53 0.481782 0 138 0.481782 1
gene 1 47 51 -8 0 139 -8 1
gene 1 47 52 -4.71088 0 140 -4.71088 1
gene 1 47 53 2.48304 0 141 2.48304 1
gene 1 48 51 -4.5052 0 142 -4.5052 1
gene 1 48 52 8 0 143 8 1
gene 1 48 53 -2.5357 0 144 -2.5357 1
gene 1 49 51 -0.551469 0 145 -0.551469 1
gene 1 49 52 4.72093 0 146 4.72093 1
gene 1 49 53 1.70226 0 147 1.70226 1
gene 1 50 51 0.604038 0 148 0.604038 1
gene 1 50 52 -0.67568 0 149 -0.67568 1
gene 1 50 53 1.60665 0 150 1.60665 1
gene 1 24 54 -1.37099 0 152 -1.37099 1
gene 1 54 52 -0.941367 0 153 -0.941367 1
gene 1 46 54 1.94441 0 158 1.94441 1
gene 1 4 60 0.719626 0 172 0.719626 1
gene 1 60 52 -1.09928 0 173 -1.09928 1
gene 1 9 60 5.31491 0 174 5.31491 1
gene 1 38 66 1.44467 0 191 1.44467 1
gene 1 66 52 -2.50726 0 192 -2.50726 1
gene 1 6 69 -0.0251778 0 203 -0.0251778 1
gene 1 69 51 0.78753 0 204 0.78753 1
gene 1 13 66 1.26911 0 218 1.26911 1
gene 1 22 60 -2.68713 0 233 -2.68713 1
gene 1 16 66 -2.37304 0 247 -2.37304 1
gene 1 15 85 0.136036 0 261 0.136036 1
gene 1 85 53 -1.80029 0 262 -1.80029 1
gene 1 24 108 1.40553 0 336 1.40553 1
gene 1 108 54 0.867183 0 337 0.867183 1
gene 1 2 85 -0.420392 0 351 -0.420392 1
gene 1 49 60 5.42894 0 367 5.42894 1
gene 1 33 54 -0.792489 0 388 -0.792489 1
gene 1 49 126 5.33292 0 396 5.33292 1
gene 1 126 52 3.80551 0 397 3.80551 1
gene 1 28 126 2.66584 0 410 2.66584 1
gene 1 21 160 2.25394 0 529 2.25394 1
gene 1 160 53 0.21672 0 530 0.21672 1
gene 1 3 126 0.966998 0 560 0.966998 1
gene 1 49 54 2.49298 0 570 2.49298 1
gene 1 46 108 -0.973038 0 576 -0.973038 1
gene 1 45 66 1.68313 0 668 1.68313 1
gene 1 18 210 -4.88746 0 712 -4.88746 1
gene 1 210 51 -0.316095 0 713 -0.316095 1
gene 1 4 217 0.106281 0 736 0.106281 1
gene 1 217 52 2.26066 0 737 2.26066 1
gene 1 108 210 -2.83706 0 788 -2.83706 1
gene 1 11 237 2.27836 0 808 2.27836 1
gene 1 237 52 -1.8511 0 809 -1.8511 1
gene 1 28 69 1.33007 0 869 1.33007 1
gene 1 10 210 -1.79296 0 880 -1.79296 1
gene 1 44 69 -0.273324 0 892 -0.273324 1
genomeend 11

/* Organism #12 Fitness: 0.896795 Error: 0 */
/* ##------$ WINNER 12 SPECIES #59 $------## */
genomestart 12
trait 1 0.116516 0 0.456415 0 0.879343 0.31629 0.343808 0 
node 1 1 1 1
node 2 1 1 1
node 3 1 1 1
node 4 1 1 1
node 5 1 1 1
node 6 1 1 1
node 7 1 1 1
node 8 1 1 1
node 9 1 1 1
node 10 1 1 1
node 11 1 1 1
node 12 1 1 1
node 13 1 1 1
node 14 1 1 1
node 15 1 1 1
node 16 1 1 1
node 17 1 1 1
node 18 1 1 1
node 19 1 1 1
node 20 1 1 1
node 21 1 1 1
node 22 1 1 1
node 23 1 1 1
node 24 1 1 1
node 25 1 1 1
node 26 1 1 1
node 27 1 1 1
node 28 1 1 1
node 29 1 1 1
node 30 1 1 1
node 31 1 1 1
node 32 1 1 1
node 33 1 1 1
node 34 1 1 1
node 35 1 1 1
node 36 1 1 1
node 37 1 1 1
node 38 1 1 1
node 39 1 1 1
node 40 1 1 1
node 41 1 1 1
node 42 1 1 1
node 43 1 1 1
node 44 1 1 1
node 45 1 1 1
node 46 1 1 1
node 47 1 1 1
node 48 1 1 1
node 49 1 1 1
node 50 1 1 3
node 51 1 0 2
node 52 1 0 2
node 53 1 0 2
node 54 1 0 0
node 60 1 0 0
node 66 1 0 0
node 69 1 0 0
node 85 1 0 0
node 108 1 0 0
node 126 1 0 0
node 160 1 0 0
node 210 1 0 0
node 217 1 0 0
node 237 1 0 0
gene 1 1 51 -1.93747 0 1 -1.93747 1
gene 1 1 52 -4.86232 0 2 -4.86232 1
gene 1 1 53 -5.41913 0 3 -5.41913 1
gene 1 2 51 -0.213607 0 4 -0.213607 1
gene 1 2 52 0.641272 0 5 0.641272 1
gene 1 2 53 0.117191 0 6 0.117191 1
gene 1 3 51 -2.82818 0 7 -2.82818 1
gene 1 3 52 -0.282964 0 8 -0.282964 1
gene 1 3 53 -2.83024 0 9 -2.83024 1
gene 1 4 51 -1.68225 0 10 -1.68225 1
gene 1 4 52 3.98723 0 11 3.98723 0
gene 1 4 53 -1.84816 0 12 -1.84816 1
gene 1 5 51 0.767153 0 13 0.767153 1
gene 1 5 52 -2.43416 0 14 -2.43416 1
gene 1 5 53 -0.612503 0 15 -0.612503 1
gene 1 6 51 3.35894 0 16 3.35894 1
gene 1 6 52 -2.17406 0 17 -2.17406 1
gene 1 6 53 -0.183882 0 18 -0.183882 1
gene 1 7 51 -8 0 19 -8 1
gene 1 7 52 -6.66947 0 20 -6.66947 1
gene 1 7 53 -7.04947 0 21 -7.04947 1
gene 1 8 51 -6.89794 0 22 -6.89794 1
gene 1 8 52 -2.29156 0 23 -2.29156 1
gene 1 8 53 -0.908223 0 24 -0.908223 1
gene 1 9 51 -4.0118 0 25 -4.0118 1
gene 1 9 52 6.17216 0 26 6.17216 1
gene 1 9 53 -0.493231 0 27 -0.493231 1
gene 1 10 51 -3.47775 0 28 -3.47775 1
gene 1 10 52 6.21898 0 29 6.21898 1
gene 1 10 53 8 0 30 8 1
gene 1 11 51 7.03223 0 31 7.03223 1
gene 1 11 52 3.31322 0 32 3.31322 0
gene 1 11 53 -5.35095 0 33 -5.35095 1
gene 1 12 51 -4.37281 0 34 -4.37281 1
gene 1 12 52 -1.06311 0 35 -1.06311 1
gene 1 12 53 -1.54862 0 36 -1.54862 1
gene 1 13 51 -1.25664 0 37 -1.25664 1
gene 1 13 52 8 0 38 8 1
gene 1 13 53 -2.18986 0 39 -2.18986 1
gene 1 14 51 -4.78908 0 40 -4.78908 1
gene 1 14 52 1.54065 0 41 1.54065 1
gene 1 14 53 6.54963 0 42 6.54963 1
gene 1 15 51 -7.01875 0 43 -7.01875 1
gene 1 15 52 -3.2379 0 44 -3.2379 1
gene 1 15 53 4.29289 0 45 4.29289 1
gene 1 16 51 -1.42486 0 46 -1.42486 1
gene 1 16 52 0.368132 0 47 0.368132 1
gene 1 16 53 8 0 48 8 1
gene 1 17 51 1.10868 0 49 1.10868 1
gene 1 17 52 1.00232 0 50 1.00232 1
gene 1 17 53 -1.57233 0 51 -1.57233 1
gene 1 18 51 -1.22576 0 52 -1.22576 0
gene 1 18 52 6.56818 0 53 6.56818 1
gene 1 18 53 6.86822 0 54 6.86822 1
gene 1 19 51 -2.13303 0 55 -2.13303 1
gene 1 19 52 8 0 56 8 1
gene 1 19 53 -2.71544 0 57 -2.71544 1
gene 1 20 51 3.81118 0 58 3.81118 1
gene 1 20 52 -8 0 59 -8 1
gene 1 20 53 1.74741 0 60 1.74741 1
gene 1 21 51 1.8852 0 61 1.8852 1
gene 1 21 52 4.67078 0 62 4.67078 1
gene 1 21 53 2.07175 0 63 2.07175 1
gene 1 22 51 -0.994284 0 64 -0.994284 1
gene 1 22 52 -2.40181 0 65 -2.40181 1
gene 1 22 53 -8 0 66 -8 1
gene 1 23 51 4.76096 0 67 4.76096 1
gene 1 23 52 5.02096 0 68 5.02096 1
gene 1 23 53 3.30447 0 69 3.30447 1
gene 1 24 51 1.31306 0 70 1.31306 1
gene 1 24 52 0.220382 0 71 0.220382 1
gene 1 24 53 -2.26731 0 72 -2.26731 1
gene 1 25 51 0.101507 0 73 0.101507 1
gene 1 25 52 0.765328 0 74 0.765328 1
gene 1 25 53 -1.93246 0 75 -1.93246 1
gene 1 26 51 8 0 76 8 1
gene 1 26 52 3.37901 0 77 3.37901 1
gene 1 26 53 0.366565 0 78 0.366565 1
gene 1 27 51 6.10535 0 79 6.10535 1
gene 1 27 52 1.34919 0 80 1.34919 1
gene 1 27 53 -2.98846 0 81 -2.98846 1
gene 1 28 51 -1.48621 0 82 -1.48621 1
gene 1 28 52 -1.87067 0 83 -1.87067 1
gene 1 28 53 3.4882 0 84 3.4882 1
gene 1 29 51 1.78561 0 85 1.78561 1
gene 1 29 52 2.15114 0 86 2.15114 1
gene 1 29 53 1.31489 0 87 1.31489 1
gene 1 30 51 4.4523 0 88 4.4523 1
gene 1 30 52 2.55272 0 89 2.55272 1
gene 1 30 53 7.30265 0 90 7.30265 1
gene 1 31 51 1.48457 0 91 1.48457 1
gene 1 31 52 -2.53195 0 92 -2.53195 1
gene 1 31 53 0.259987 0 93 0.259987 1
gene 1 32 51 -0.751421 0 94 -0.751421 1
gene 1 32 52 0.0401557 0 95 0.0401557 1
gene 1 32 53 -2.45592 0 96 -2.45592 1
gene 1 33 51 0.759386 0 97 0.759386 1
gene 1 33 52 3.69154 0 98 3.69154 1
gene 1 33 53 6.06513 0 99 6.06513 1
gene 1 34 51 -3.1192 0 100 -3.1192 1
gene 1 34 52 4.33768 0 101 4.33768 1
gene 1 34 53 0.23175 0 102 0.23175 1
gene 1 35 51 -0.840108 0 103 -0.840108 1
gene 1 35 52 -3.9341 0 104 -3.9341 1
gene 1 35 53 -1.56836 0 105 -1.56836 1
gene 1 36 51 -6.78193 0 106 -6.78193 1
gene 1 36 52 1.81898 0 107 1.81898 1
gene 1 36 53 -3.97595 0 108 -3.97595 1
gene 1 37 51 1.08905 0 109 1.08905 1
