
/* Species #77 : (Size 12) (AF 0) (Age 16)  */


/* Organism #0 Fitness: 0.92528 Error: 0 */
/* ##------$ WINNER 0 SPECIES #77 $------## */
genomestart 0
trait 1 0.466016 0.979317 0 0.133531 0.945284 0.767331 0.147573 0.0627034 
node 1 1 1 1
node 2 1 1 1
node 3 1 1 1
node 4 1 1 1
node 5 1 1 1
node 6 1 1 1
node 7 1 1 1
node 8 1 1 1
node 9 1 1 1
node 10 1 1 1
node 11 1 1 1
node 12 1 1 1
node 13 1 1 1
node 14 1 1 1
node 15 1 1 1
node 16 1 1 1
node 17 1 1 1
node 18 1 1 1
node 19 1 1 1
node 20 1 1 1
node 21 1 1 1
node 22 1 1 1
node 23 1 1 1
node 24 1 1 1
node 25 1 1 1
node 26 1 1 3
node 27 1 0 2
node 28 1 0 2
node 29 1 0 2
node 34 1 0 0
node 37 1 0 0
node 64 1 0 0
node 106 1 0 0
node 108 1 0 0
node 148 1 0 0
node 155 1 0 0
node 205 1 0 0
node 209 1 0 0
gene 1 1 27 -2.21622 0 1 -2.21622 1
gene 1 1 28 0.716575 0 2 0.716575 1
gene 1 1 29 -5.71641 0 3 -5.71641 1
gene 1 2 27 -0.535752 0 4 -0.535752 1
gene 1 2 28 -1.44164 0 5 -1.44164 1
gene 1 2 29 -0.571512 0 6 -0.571512 1
gene 1 3 27 -0.280618 0 7 -0.280618 1
gene 1 3 28 0.304294 0 8 0.304294 1
gene 1 3 29 -1.24512 0 9 -1.24512 1
gene 1 4 27 3.29641 0 10 3.29641 1
gene 1 4 28 3.40972 0 11 3.40972 1
gene 1 4 29 0.75507 0 12 0.75507 1
gene 1 5 27 1.2756 0 13 1.2756 1
gene 1 5 28 0.770287 0 14 0.770287 1
gene 1 5 29 -0.999481 0 15 -0.999481 1
gene 1 6 27 1.77892 0 16 1.77892 1
gene 1 6 28 0.829979 0 17 0.829979 1
gene 1 6 29 1.35853 0 18 1.35853 1
gene 1 7 27 0.505387 0 19 0.505387 1
gene 1 7 28 0.662099 0 20 0.662099 1
gene 1 7 29 -3.00374 0 21 -3.00374 1
gene 1 8 27 -2.02281 0 22 -2.02281 1
gene 1 8 28 3.3385 0 23 3.3385 1
gene 1 8 29 0.350963 0 24 0.350963 1
gene 1 9 27 -6.6744 0 25 -6.6744 1
gene 1 9 28 -1.72737 0 26 -1.72737 1
gene 1 9 29 1.98889 0 27 1.98889 1
gene 1 10 27 -0.325175 0 28 -0.325175 1
gene 1 10 28 -0.20455 0 29 -0.20455 1
gene 1 10 29 5.26341 0 30 5.26341 1
gene 1 11 27 0.955229 0 31 0.955229 1
gene 1 11 28 -3.12147 0 32 -3.12147 1
gene 1 11 29 -2.81668 0 33 -2.81668 1
gene 1 12 27 2.01465 0 34 2.01465 1
gene 1 12 28 0.695822 0 35 0.695822 1
gene 1 12 29 1.23417 0 36 1.23417 1
gene 1 13 27 -0.727638 0 37 -0.727638 1
gene 1 13 28 -2.06511 0 38 -2.06511 1
gene 1 13 29 -4.51831 0 39 -4.51831 1
gene 1 14 27 -4.72966 0 40 -4.72966 1
gene 1 14 28 -3.68685 0 41 -3.68685 1
gene 1 14 29 0.230949 0 42 0.230949 1
gene 1 15 27 -1.50639 0 43 -1.50639 1
gene 1 15 28 1.87239 0 44 1.87239 1
gene 1 15 29 -1.50855 0 45 -1.50855 1
gene 1 16 27 0.460067 0 46 0.460067 1
gene 1 16 28 4.78923 0 47 4.78923 1
gene 1 16 29 4.63655 0 48 4.63655 1
gene 1 17 27 -2.33961 0 49 -2.33961 1
gene 1 17 28 3.77016 0 50 3.77016 1
gene 1 17 29 -2.89789 0 51 -2.89789 1
gene 1 18 27 0.393155 0 52 0.393155 1
gene 1 18 28 0.322275 0 53 0.322275 1
gene 1 18 29 0.789895 0 54 0.789895 1
gene 1 19 27 -3.39663 0 55 -3.39663 1
gene 1 19 28 1.0976 0 56 1.0976 1
gene 1 19 29 -1.43658 0 57 -1.43658 1
gene 1 20 27 -0.843837 0 58 -0.843837 1
gene 1 20 28 0.537736 0 59 0.537736 1
gene 1 20 29 -4.66425 0 60 -4.66425 1
gene 1 21 27 -2.17901 0 61 -2.17901 1
gene 1 21 28 2.98431 0 62 2.98431 1
gene 1 21 29 1.63129 0 63 1.63129 1
gene 1 22 27 -2.50495 0 64 -2.50495 1
gene 1 22 28 -0.0552683 0 65 -0.0552683 1
gene 1 22 29 1.93686 0 66 1.93686 1
gene 1 23 27 1.40103 0 67 1.40103 1
gene 1 23 28 7.37922 0 68 7.37922 1
gene 1 23 29 -1.56972 0 69 -1.56972 1
gene 1 24 27 -3.6777 0 70 -3.6777 1
gene 1 24 28 -1.6596 0 71 -1.6596 1
gene 1 24 29 -1.28323 0 72 -1.28323 1
gene 1 25 27 -4.13476 0 73 -4.13476 1
gene 1 25 28 3.64351 0 74 3.64351 1
gene 1 25 29 4.2206 0 75 4.2206 1
gene 1 26 27 2.74412 0 76 2.74412 1
gene 1 26 28 4.59676 0 77 4.59676 1
gene 1 26 29 -1.03809 0 78 -1.03809 1
gene 1 22 34 6.86944 0 96 6.86944 1
gene 1 34 29 3.71593 0 97 3.71593 1
gene 1 2 37 0.29725 0 103 0.29725 1
gene 1 37 27 -3.8736 0 104 -3.8736 1
gene 1 15 37 -5.83258 0 152 -5.83258 1
gene 1 25 64 1.78159 0 215 1.78159 1
gene 1 64 28 1.10141 0 216 1.10141 1
gene 1 37 64 -1.56186 0 228 -1.56186 1
gene 1 15 64 -0.745033 0 339 -0.745033 1
gene 1 3 64 1.49165 0 356 1.49165 1
gene 1 13 106 1.0783 0 380 1.0783 1
gene 1 106 29 -2.63894 0 381 -2.63894 1
gene 1 20 108 0.152359 0 394 0.152359 1
gene 1 108 28 -0.00457778 0 395 -0.00457778 1
gene 1 24 37 -2.34504 0 470 -2.34504 1
gene 1 18 34 -1.94723 0 550 -1.94723 1
gene 1 5 148 1.35793 0 572 1.35793 1
gene 1 148 27 -2.56733 0 573 -2.56733 1
gene 1 37 155 0.291681 0 601 0.291681 1
gene 1 155 27 0.830943 0 602 0.830943 1
gene 1 17 34 0.222404 0 610 0.222404 1
gene 1 2 205 3.23865 0 785 3.23865 0
gene 1 205 28 2.40402 0 786 2.40402 1
gene 1 2 209 -0.670783 0 794 -0.670783 1
gene 1 209 205 -1.85687 0 795 -1.85687 1
gene 1 155 34 -1.87147 0 811 -1.87147 1
gene 1 9 106 3.47516 0 880 3.47516 1
genomeend 0

/* Organism #1 Fitness: 0.41659 Error: 0 */
genomestart 1
trait 1 0.466016 0.979317 0 0.133531 0.945284 0.767331 0.147573 0.0627034 
node 1 1 1 1
node 2 1 1 1
node 3 1 1 1
node 4 1 1 1
node 5 1 1 1
node 6 1 1 1
node 7 1 1 1
node 8 1 1 1
node 9 1 1 1
node 10 1 1 1
node 11 1 1 1
node 12 1 1 1
node 13 1 1 1
node 14 1 1 1
node 15 1 1 1
node 16 1 1 1
node 17 1 1 1
node 18 1 1 1
node 19 1 1 1
node 20 1 1 1
node 21 1 1 1
node 22 1 1 1
node 23 1 1 1
node 24 1 1 1
node 25 1 1 1
node 26 1 1 3
node 27 1 0 2
node 28 1 0 2
node 29 1 0 2
node 34 1 0 0
node 37 1 0 0
node 64 1 0 0
node 106 1 0 0
node 108 1 0 0
node 148 1 0 0
node 155 1 0 0
node 205 1 0 0
node 209 1 0 0
gene 1 1 27 -0.380909 0 1 -0.380909 1
gene 1 1 28 0.448012 0 2 0.448012 1
gene 1 1 29 -4.90218 0 3 -4.90218 1
gene 1 2 27 -0.535752 0 4 -0.535752 1
gene 1 2 28 -1.63001 0 5 -1.63001 1
gene 1 2 29 -0.571512 0 6 -0.571512 1
gene 1 3 27 -2.23339 0 7 -2.23339 1
gene 1 3 28 0.304294 0 8 0.304294 1
gene 1 3 29 -3.12026 0 9 -3.12026 1
gene 1 4 27 -0.547916 0 10 -0.547916 1
gene 1 4 28 3.40972 0 11 3.40972 1
gene 1 4 29 -1.63018 0 12 -1.63018 1
gene 1 5 27 1.2756 0 13 1.2756 1
gene 1 5 28 -7.01494 0 14 -7.01494 1
gene 1 5 29 -0.999481 0 15 -0.999481 1
gene 1 6 27 0.645619 0 16 0.645619 1
gene 1 6 28 2.41854 0 17 2.41854 1
gene 1 6 29 1.35853 0 18 1.35853 1
gene 1 7 27 0.505387 0 19 0.505387 1
gene 1 7 28 0.662099 0 20 0.662099 1
gene 1 7 29 -3.00374 0 21 -3.00374 1
gene 1 8 27 -5.10342 0 22 -5.10342 1
gene 1 8 28 -0.504204 0 23 -0.504204 1
gene 1 8 29 0.334535 0 24 0.334535 1
gene 1 9 27 -7.56279 0 25 -7.56279 1
gene 1 9 28 -1.72737 0 26 -1.72737 1
gene 1 9 29 4.88729 0 27 4.88729 1
gene 1 10 27 -0.325175 0 28 -0.325175 1
gene 1 10 28 0.625801 0 29 0.625801 1
gene 1 10 29 4.85355 0 30 4.85355 1
gene 1 11 27 1.43811 0 31 1.43811 1
gene 1 11 28 -2.62951 0 32 -2.62951 1
gene 1 11 29 -0.387175 0 33 -0.387175 1
gene 1 12 27 2.01465 0 34 2.01465 1
gene 1 12 28 -7.45789 0 35 -7.45789 1
gene 1 12 29 1.23417 0 36 1.23417 1
gene 1 13 27 -0.727638 0 37 -0.727638 1
gene 1 13 28 -2.06511 0 38 -2.06511 1
gene 1 13 29 -4.51831 0 39 -4.51831 1
gene 1 14 27 -4.72966 0 40 -4.72966 1
gene 1 14 28 -3.68685 0 41 -3.68685 1
gene 1 14 29 0.230949 0 42 0.230949 1
gene 1 15 27 -1.50639 0 43 -1.50639 1
gene 1 15 28 1.87239 0 44 1.87239 1
gene 1 15 29 -1.50855 0 45 -1.50855 1
gene 1 16 27 0.460067 0 46 0.460067 1
gene 1 16 28 4.78923 0 47 4.78923 1
gene 1 16 29 4.63655 0 48 4.63655 1
gene 1 17 27 -2.33961 0 49 -2.33961 1
gene 1 17 28 -2.04802 0 50 -2.04802 1
gene 1 17 29 0.182982 0 51 0.182982 1
gene 1 18 27 -0.953246 0 52 -0.953246 1
gene 1 18 28 0.322275 0 53 0.322275 1
gene 1 18 29 0.789895 0 54 0.789895 1
gene 1 19 27 -3.39663 0 55 -3.39663 1
gene 1 19 28 1.0976 0 56 1.0976 1
gene 1 19 29 -1.43658 0 57 -1.43658 1
gene 1 20 27 -1.00871 0 58 -1.00871 1
gene 1 20 28 0.537736 0 59 0.537736 1
gene 1 20 29 -4.66425 0 60 -4.66425 1
gene 1 21 27 -1.21638 0 61 -1.21638 1
gene 1 21 28 3.73339 0 62 3.73339 1
gene 1 21 29 -0.141148 0 63 -0.141148 1
gene 1 22 27 -2.50495 0 64 -2.50495 1
gene 1 22 28 -0.0552683 0 65 -0.0552683 1
gene 1 22 29 -1.63007 0 66 -1.63007 1
gene 1 23 27 -0.415128 0 67 -0.415128 1
gene 1 23 28 7.37922 0 68 7.37922 1
gene 1 23 29 -1.56972 0 69 -1.56972 1
gene 1 24 27 -3.6777 0 70 -3.6777 1
gene 1 24 28 -1.6596 0 71 -1.6596 1
gene 1 24 29 -1.28323 0 72 -1.28323 1
gene 1 25 27 -2.61455 0 73 -2.61455 1
gene 1 25 28 3.64351 0 74 3.64351 1
gene 1 25 29 4.2206 0 75 4.2206 1
gene 1 26 27 2.74412 0 76 2.74412 1
gene 1 26 28 4.59676 0 77 4.59676 1
gene 1 26 29 -1.03809 0 78 -1.03809 1
gene 1 22 34 4.98362 0 96 4.98362 1
gene 1 34 29 3.71593 0 97 3.71593 1
gene 1 2 37 0.29725 0 103 0.29725 1
gene 1 37 27 -3.8736 0 104 -3.8736 1
gene 1 15 37 1.68188 0 152 1.68188 1
gene 1 25 64 1.71804 0 215 1.71804 1
gene 1 64 28 1.10141 0 216 1.10141 1
gene 1 37 64 -1.1684 0 228 -1.1684 1
gene 1 15 64 -0.745033 0 339 -0.745033 1
gene 1 3 64 1.34754 0 356 1.34754 1
gene 1 13 106 1.0783 0 380 1.0783 1
gene 1 106 29 -1.68332 0 381 -1.68332 1
gene 1 20 108 0.152359 0 394 0.152359 1
gene 1 108 28 0.367328 0 395 0.367328 1
gene 1 24 37 1.43352 0 470 1.43352 1
gene 1 18 34 -0.674764 0 550 -0.674764 1
gene 1 5 148 2.71593 0 572 2.71593 1
gene 1 148 27 -2.56733 0 573 -2.56733 1
gene 1 37 155 0.291681 0 601 0.291681 1
gene 1 155 27 0.830943 0 602 0.830943 1
gene 1 17 34 1.33522 0 610 1.33522 1
gene 1 2 205 2.30715 0 785 2.30715 0
gene 1 205 28 -5.36378 0 786 -5.36378 1
gene 1 2 209 0.802192 0 794 0.802192 1
gene 1 209 205 -1.85687 0 795 -1.85687 1
gene 1 155 34 2.5546 0 811 2.5546 1
gene 1 9 106 1.48321 0 880 1.48321 1
genomeend 1

/* Organism #2 Fitness: 0.413339 Error: 0 */
genomestart 2
trait 1 0.466016 0.979317 0 0.133531 0.945284 0.767331 0.147573 0.0627034 
node 1 1 1 1
node 2 1 1 1
node 3 1 1 1
node 4 1 1 1
node 5 1 1 1
node 6 1 1 1
node 7 1 1 1
node 8 1 1 1
node 9 1 1 1
node 10 1 1 1
node 11 1 1 1
node 12 1 1 1
node 13 1 1 1
node 14 1 1 1
node 15 1 1 1
node 16 1 1 1
node 17 1 1 1
node 18 1 1 1
node 19 1 1 1
node 20 1 1 1
node 21 1 1 1
node 22 1 1 1
node 23 1 1 1
node 24 1 1 1
node 25 1 1 1
node 26 1 1 3
node 27 1 0 2
node 28 1 0 2
node 29 1 0 2
node 34 1 0 0
node 37 1 0 0
node 64 1 0 0
node 106 1 0 0
node 108 1 0 0
node 148 1 0 0
node 155 1 0 0
node 205 1 0 0
node 209 1 0 0
gene 1 1 27 -2.05477 0 1 -2.05477 1
gene 1 1 28 1.65143 0 2 1.65143 1
gene 1 1 29 -4.86861 0 3 -4.86861 1
gene 1 2 27 -2.678 0 4 -2.678 1
gene 1 2 28 -2.86121 0 5 -2.86121 1
gene 1 2 29 -1.85909 0 6 -1.85909 1
gene 1 3 27 -0.301065 0 7 -0.301065 1
gene 1 3 28 0.0577807 0 8 0.0577807 1
gene 1 3 29 -2.6756 0 9 -2.6756 1
gene 1 4 27 1.13173 0 10 1.13173 1
gene 1 4 28 5.44584 0 11 5.44584 1
gene 1 4 29 2.33921 0 12 2.33921 1
gene 1 5 27 1.38958 0 13 1.38958 1
gene 1 5 28 -1.61321 0 14 -1.61321 1
gene 1 5 29 0.426878 0 15 0.426878 1
gene 1 6 27 0.749382 0 16 0.749382 1
gene 1 6 28 0.959149 0 17 0.959149 1
gene 1 6 29 1.50006 0 18 1.50006 1
gene 1 7 27 -1.9879 0 19 -1.9879 1
gene 1 7 28 -1.70652 0 20 -1.70652 1
gene 1 7 29 -3.94066 0 21 -3.94066 1
gene 1 8 27 0.0558064 0 22 0.0558064 1
gene 1 8 28 4.21056 0 23 4.21056 1
gene 1 8 29 2.71165 0 24 2.71165 1
gene 1 9 27 -7.03665 0 25 -7.03665 1
gene 1 9 28 -4.06669 0 26 -4.06669 1
gene 1 9 29 1.8955 0 27 1.8955 1
gene 1 10 27 1.97623 0 28 1.97623 1
gene 1 10 28 0.952483 0 29 0.952483 1
gene 1 10 29 6.89913 0 30 6.89913 1
gene 1 11 27 0.309305 0 31 0.309305 1
gene 1 11 28 -1.0366 0 32 -1.0366 1
gene 1 11 29 -2.87901 0 33 -2.87901 1
gene 1 12 27 3.32443 0 34 3.32443 1
gene 1 12 28 2.23464 0 35 2.23464 1
gene 1 12 29 -0.532319 0 36 -0.532319 1
gene 1 13 27 1.14353 0 37 1.14353 1
gene 1 13 28 -4.46097 0 38 -4.46097 1
gene 1 13 29 -6.38253 0 39 -6.38253 1
gene 1 14 27 -4.10457 0 40 -4.10457 1
gene 1 14 28 -4.67725 0 41 -4.67725 1
gene 1 14 29 -1.95204 0 42 -1.95204 1
gene 1 15 27 -3.86631 0 43 -3.86631 1
gene 1 15 28 0.646458 0 44 0.646458 1
gene 1 15 29 -1.00446 0 45 -1.00446 1
gene 1 16 27 1.23798 0 46 1.23798 1
gene 1 16 28 2.81781 0 47 2.81781 1
gene 1 16 29 5.61909 0 48 5.61909 1
gene 1 17 27 -3.57493 0 49 -3.57493 1
gene 1 17 28 3.93717 0 50 3.93717 1
gene 1 17 29 -4.813 0 51 -4.813 1
gene 1 18 27 1.61298 0 52 1.61298 1
gene 1 18 28 1.13124 0 53 1.13124 1
gene 1 18 29 1.56919 0 54 1.56919 1
gene 1 19 27 -1.1565 0 55 -1.1565 1
gene 1 19 28 2.33383 0 56 2.33383 1
gene 1 19 29 -1.65082 0 57 -1.65082 1
gene 1 20 27 -1.3921 0 58 -1.3921 1
gene 1 20 28 1.42888 0 59 1.42888 1
gene 1 20 29 -7.03081 0 60 -7.03081 1
gene 1 21 27 -1.81195 0 61 -1.81195 1
gene 1 21 28 1.50912 0 62 1.50912 1
gene 1 21 29 1.90222 0 63 1.90222 1
gene 1 22 27 -4.5487 0 64 -4.5487 1
gene 1 22 28 -1.22779 0 65 -1.22779 1
gene 1 22 29 0.745872 0 66 0.745872 1
gene 1 23 27 2.70379 0 67 2.70379 1
gene 1 23 28 7.74155 0 68 7.74155 1
gene 1 23 29 -2.1572 0 69 -2.1572 1
gene 1 24 27 -5.6968 0 70 -5.6968 1
gene 1 24 28 -4.1525 0 71 -4.1525 1
gene 1 24 29 -2.9236 0 72 -2.9236 1
gene 1 25 27 -2.9514 0 73 -2.9514 1
gene 1 25 28 3.60582 0 74 3.60582 1
gene 1 25 29 2.72771 0 75 2.72771 1
gene 1 26 27 1.76219 0 76 1.76219 1
gene 1 26 28 2.88887 0 77 2.88887 1
gene 1 26 29 0.604419 0 78 0.604419 1
gene 1 22 34 8 0 96 8 1
gene 1 34 29 2.87614 0 97 2.87614 1
gene 1 2 37 1.44551 0 103 1.44551 1
gene 1 37 27 -3.76457 0 104 -3.76457 1
gene 1 15 37 -6.96512 0 152 -6.96512 1
gene 1 25 64 1.70377 0 215 1.70377 1
gene 1 64 28 1.395 0 216 1.395 1
gene 1 37 64 -1.80258 0 228 -1.80258 1
gene 1 15 64 -2.41501 0 339 -2.41501 1
gene 1 3 64 0.524155 0 356 0.524155 1
gene 1 13 106 1.0783 0 380 1.0783 1
gene 1 106 29 2.3751 0 381 2.3751 1
gene 1 20 108 0.152359 0 394 0.152359 1
gene 1 108 28 -2.0014 0 395 -2.0014 1
gene 1 24 37 -1.12423 0 470 -1.12423 1
gene 1 18 34 0.808206 0 550 0.808206 1
gene 1 5 148 3.27419 0 572 3.27419 1
gene 1 148 27 1.98553 0 573 1.98553 1
gene 1 37 155 0.736641 0 601 0.736641 1
gene 1 155 27 -0.805155 0 602 -0.805155 1
gene 1 17 34 0.222404 0 610 0.222404 1
gene 1 2 205 2.38489 0 785 2.38489 0
gene 1 205 28 3.59111 0 786 3.59111 1
gene 1 2 209 -0.840772 0 794 -0.840772 1
gene 1 209 205 -1.85687 0 795 -1.85687 1
gene 1 155 34 -3.89325 0 811 -3.89325 1
gene 1 9 106 3.47508 0 880 3.47508 1
genomeend 2

/* Organism #3 Fitness: 0.92556 Error: 0 */
/* ##------$ WINNER 3 SPECIES #77 $------## */
genomestart 3
trait 1 0.466016 0.979317 0 0.133531 0.945284 0.767331 0.147573 0.0627034 
node 1 1 1 1
node 2 1 1 1
node 3 1 1 1
node 4 1 1 1
node 5 1 1 1
node 6 1 1 1
node 7 1 1 1
node 8 1 1 1
node 9 1 1 1
node 10 1 1 1
node 11 1 1 1
node 12 1 1 1
node 13 1 1 1
node 14 1 1 1
node 15 1 1 1
node 16 1 1 1
node 17 1 1 1
node 18 1 1 1
node 19 1 1 1
node 20 1 1 1
node 21 1 1 1
node 22 1 1 1
node 23 1 1 1
node 24 1 1 1
node 25 1 1 1
node 26 1 1 3
node 27 1 0 2
node 28 1 0 2
node 29 1 0 2
node 34 1 0 0
node 37 1 0 0
node 64 1 0 0
node 106 1 0 0
node 108 1 0 0
node 148 1 0 0
node 155 1 0 0
node 205 1 0 0
node 209 1 0 0
gene 1 1 27 1.68283 0 1 1.68283 1
gene 1 1 28 -0.425504 0 2 -0.425504 1
gene 1 1 29 -7.01429 0 3 -7.01429 1
gene 1 2 27 -3.2062 0 4 -3.2062 1
gene 1 2 28 -1.28996 0 5 -1.28996 1
gene 1 2 29 1.16453 0 6 1.16453 1
gene 1 3 27 -0.842664 0 7 -0.842664 1
gene 1 3 28 -0.358492 0 8 -0.358492 1
gene 1 3 29 -1.41969 0 9 -1.41969 1
gene 1 4 27 0.0601656 0 10 0.0601656 1
gene 1 4 28 -1.8067 0 11 -1.8067 1
gene 1 4 29 0.242282 0 12 0.242282 1
gene 1 5 27 -2.28949 0 13 -2.28949 1
gene 1 5 28 -8 0 14 -8 1
gene 1 5 29 1.23997 0 15 1.23997 1
gene 1 6 27 0.709708 0 16 0.709708 1
gene 1 6 28 2.33569 0 17 2.33569 1
gene 1 6 29 3.49673 0 18 3.49673 1
gene 1 7 27 -2.66266 0 19 -2.66266 1
gene 1 7 28 5.01816 0 20 5.01816 1
gene 1 7 29 -8 0 21 -8 1
gene 1 8 27 -6.71968 0 22 -6.71968 1
gene 1 8 28 0.380833 0 23 0.380833 1
gene 1 8 29 0.178738 0 24 0.178738 1
gene 1 9 27 -5.57123 0 25 -5.57123 1
gene 1 9 28 -0.945106 0 26 -0.945106 1
gene 1 9 29 5.4618 0 27 5.4618 1
gene 1 10 27 -2.9078 0 28 -2.9078 1
gene 1 10 28 0.489154 0 29 0.489154 1
gene 1 10 29 6.63568 0 30 6.63568 1
gene 1 11 27 -0.737175 0 31 -0.737175 1
gene 1 11 28 -4.14926 0 32 -4.14926 1
gene 1 11 29 -1.73525 0 33 -1.73525 1
gene 1 12 27 2.34232 0 34 2.34232 1
gene 1 12 28 -5.25529 0 35 -5.25529 1
gene 1 12 29 3.90866 0 36 3.90866 1
gene 1 13 27 5.78309 0 37 5.78309 1
gene 1 13 28 1.89842 0 38 1.89842 1
gene 1 13 29 -6.25214 0 39 -6.25214 1
gene 1 14 27 -0.755314 0 40 -0.755314 1
gene 1 14 28 -5.70473 0 41 -5.70473 1
gene 1 14 29 -3.28234 0 42 -3.28234 1
gene 1 15 27 0.571078 0 43 0.571078 1
gene 1 15 28 3.25739 0 44 3.25739 1
gene 1 15 29 -5.19343 0 45 -5.19343 1
gene 1 16 27 3.97122 0 46 3.97122 1
gene 1 16 28 2.99802 0 47 2.99802 1
gene 1 16 29 6.10071 0 48 6.10071 1
gene 1 17 27 -3.74682 0 49 -3.74682 1
gene 1 17 28 -1.75718 0 50 -1.75718 1
gene 1 17 29 -1.23422 0 51 -1.23422 1
gene 1 18 27 -2.96159 0 52 -2.96159 1
gene 1 18 28 2.14175 0 53 2.14175 1
gene 1 18 29 -0.28222 0 54 -0.28222 1
gene 1 19 27 -2.05061 0 55 -2.05061 1
gene 1 19 28 2.31135 0 56 2.31135 1
gene 1 19 29 -1.00711 0 57 -1.00711 1
gene 1 20 27 -1.16794 0 58 -1.16794 1
gene 1 20 28 0.782952 0 59 0.782952 1
gene 1 20 29 -1.88249 0 60 -1.88249 1
gene 1 21 27 -2.21639 0 61 -2.21639 1
gene 1 21 28 4.94017 0 62 4.94017 1
gene 1 21 29 -2.32536 0 63 -2.32536 1
gene 1 22 27 1.09099 0 64 1.09099 1
gene 1 22 28 -0.779015 0 65 -0.779015 1
gene 1 22 29 -0.392239 0 66 -0.392239 1
gene 1 23 27 1.70072 0 67 1.70072 1
gene 1 23 28 5.59625 0 68 5.59625 1
gene 1 23 29 2.87179 0 69 2.87179 1
gene 1 24 27 -2.13263 0 70 -2.13263 1
gene 1 24 28 6.14435 0 71 6.14435 1
gene 1 24 29 3.26609 0 72 3.26609 1
gene 1 25 27 -0.668923 0 73 -0.668923 1
gene 1 25 28 3.98371 0 74 3.98371 1
gene 1 25 29 3.88829 0 75 3.88829 1
gene 1 26 27 -1.54732 0 76 -1.54732 1
gene 1 26 28 7.24241 0 77 7.24241 1
gene 1 26 29 1.10685 0 78 1.10685 1
gene 1 22 34 5.99806 0 96 5.99806 1
gene 1 34 29 -2.13897 0 97 -2.13897 1
gene 1 2 37 2.12096 0 103 2.12096 1
gene 1 37 27 -1.42544 0 104 -1.42544 1
gene 1 15 37 2.19619 0 152 2.19619 1
gene 1 25 64 3.42784 0 215 3.42784 1
gene 1 64 28 1.52478 0 216 1.52478 1
gene 1 37 64 -1.1684 0 228 -1.1684 1
gene 1 15 64 -1.33946 0 339 -1.33946 1
gene 1 3 64 -0.339442 0 356 -0.339442 1
gene 1 13 106 -0.441527 0 380 -0.441527 1
gene 1 106 29 -2.45186 0 381 -2.45186 1
gene 1 20 108 0.65477 0 394 0.65477 1
gene 1 108 28 1.61107 0 395 1.61107 1
gene 1 24 37 0.0248583 0 470 0.0248583 1
gene 1 18 34 -1.90947 0 550 -1.90947 1
gene 1 5 148 2.66443 0 572 2.66443 1
gene 1 148 27 -1.26632 0 573 -1.26632 1
gene 1 37 155 0.330321 0 601 0.330321 1
gene 1 155 27 0.31106 0 602 0.31106 1
gene 1 17 34 1.33522 0 610 1.33522 1
gene 1 2 205 4.06936 0 785 4.06936 0
gene 1 205 28 1.31146 0 786 1.31146 1
gene 1 2 209 0.802192 0 794 0.802192 1
gene 1 209 205 -2.95424 0 795 -2.95424 1
gene 1 155 34 3.78122 0 811 3.78122 1
gene 1 9 106 1.48321 0 880 1.48321 1
genomeend 3

/* Organism #4 Fitness: 0.92192 Error: 0 */
/* ##------$ WINNER 4 SPECIES #77 $------## */
genomestart 4
trait 1 0.442833 0.968975 0 0.133421 0.917926 0.712521 0.147451 0.0627232 
node 1 1 1 1
node 2 1 1 1
node 3 1 1 1
node 4 1 1 1
node 5 1 1 1
node 6 1 1 1
node 7 1 1 1
node 8 1 1 1
node 9 1 1 1
node 10 1 1 1
node 11 1 1 1
node 12 1 1 1
node 13 1 1 1
node 14 1 1 1
node 15 1 1 1
node 16 1 1 1
node 17 1 1 1
node 18 1 1 1
node 19 1 1 1
node 20 1 1 1
node 21 1 1 1
node 22 1 1 1
node 23 1 1 1
node 24 1 1 1
node 25 1 1 1
node 26 1 1 3
node 27 1 0 2
node 28 1 0 2
node 29 1 0 2
node 34 1 0 0
node 37 1 0 0
node 64 1 0 0
node 106 1 0 0
node 108 1 0 0
node 148 1 0 0
node 155 1 0 0
node 205 1 0 0
node 209 1 0 0
gene 1 1 27 0.316935 0 1 0.316935 1
gene 1 1 28 -0.517518 0 2 -0.517518 1
gene 1 1 29 -6.36402 0 3 -6.36402 1
gene 1 2 27 0.900296 0 4 0.900296 1
gene 1 2 28 -1.24983 0 5 -1.24983 1
gene 1 2 29 -0.94544 0 6 -0.94544 1
gene 1 3 27 -0.811182 0 7 -0.811182 1
gene 1 3 28 -0.397885 0 8 -0.397885 1
gene 1 3 29 -0.28089 0 9 -0.28089 1
gene 1 4 27 2.1718 0 10 2.1718 1
gene 1 4 28 5.20489 0 11 5.20489 1
gene 1 4 29 2.27683 0 12 2.27683 1
gene 1 5 27 1.17855 0 13 1.17855 1
gene 1 5 28 -6.30927 0 14 -6.30927 1
gene 1 5 29 -1.08196 0 15 -1.08196 1
gene 1 6 27 -1.23989 0 16 -1.23989 1
gene 1 6 28 0.00114444 0 17 0.00114444 1
gene 1 6 29 3.18437 0 18 3.18437 1
gene 1 7 27 -2.28629 0 19 -2.28629 1
gene 1 7 28 3.63788 0 20 3.63788 1
gene 1 7 29 -2.5877 0 21 -2.5877 1
gene 1 8 27 -0.253575 0 22 -0.253575 1
gene 1 8 28 -0.0974303 0 23 -0.0974303 1
gene 1 8 29 -1.0831 0 24 -1.0831 1
gene 1 9 27 -6.63976 0 25 -6.63976 1
gene 1 9 28 -2.40717 0 26 -2.40717 1
gene 1 9 29 0.211188 0 27 0.211188 1
gene 1 10 27 -1.28498 0 28 -1.28498 1
gene 1 10 28 0.88704 0 29 0.88704 1
gene 1 10 29 6.8606 0 30 6.8606 1
gene 1 11 27 0.955229 0 31 0.955229 1
gene 1 11 28 -4.78504 0 32 -4.78504 1
gene 1 11 29 -0.696862 0 33 -0.696862 1
gene 1 12 27 3.21049 0 34 3.21049 1
gene 1 12 28 1.09996 0 35 1.09996 1
gene 1 12 29 -0.0451674 0 36 -0.0451674 1
gene 1 13 27 1.59833 0 37 1.59833 1
gene 1 13 28 -0.83224 0 38 -0.83224 1
gene 1 13 29 -4.51831 0 39 -4.51831 1
gene 1 14 27 -6.41383 0 40 -6.41383 1
gene 1 14 28 -3.95632 0 41 -3.95632 1
gene 1 14 29 2.48878 0 42 2.48878 1
gene 1 15 27 1.6554 0 43 1.6554 1
gene 1 15 28 -0.16747 0 44 -0.16747 1
gene 1 15 29 0.31096 0 45 0.31096 1
gene 1 16 27 1.85659 0 46 1.85659 1
gene 1 16 28 -0.966333 0 47 -0.966333 1
gene 1 16 29 6.59164 0 48 6.59164 1
gene 1 17 27 -4.38314 0 49 -4.38314 1
gene 1 17 28 1.68416 0 50 1.68416 1
gene 1 17 29 -2.05275 0 51 -2.05275 1
gene 1 18 27 0.456862 0 52 0.456862 1
gene 1 18 28 7.11614 0 53 7.11614 1
gene 1 18 29 -1.1169 0 54 -1.1169 1
gene 1 19 27 -1.21296 0 55 -1.21296 1
gene 1 19 28 -0.339017 0 56 -0.339017 1
gene 1 19 29 0.746025 0 57 0.746025 1
gene 1 20 27 -2.84555 0 58 -2.84555 1
gene 1 20 28 -2.10467 0 59 -2.10467 1
gene 1 20 29 -4.69279 0 60 -4.69279 1
gene 1 21 27 -6.7409 0 61 -6.7409 1
gene 1 21 28 -0.308924 0 62 -0.308924 1
gene 1 21 29 3.6266 0 63 3.6266 1
gene 1 22 27 -3.07946 0 64 -3.07946 1
gene 1 22 28 0.632314 0 65 0.632314 1
gene 1 22 29 0.884884 0 66 0.884884 1
gene 1 23 27 2.09944 0 67 2.09944 1
gene 1 23 28 7.66106 0 68 7.66106 1
gene 1 23 29 -0.639973 0 69 -0.639973 1
gene 1 24 27 2.2895 0 70 2.2895 1
gene 1 24 28 3.31002 0 71 3.31002 1
gene 1 24 29 -3.69465 0 72 -3.69465 1
gene 1 25 27 -4.47656 0 73 -4.47656 1
gene 1 25 28 2.83418 0 74 2.83418 1
gene 1 25 29 3.54148 0 75 3.54148 1
gene 1 26 27 -1.29729 0 76 -1.29729 1
gene 1 26 28 4.59676 0 77 4.59676 1
gene 1 26 29 0.259865 0 78 0.259865 1
gene 1 22 34 1.64078 0 96 1.64078 1
gene 1 34 29 1.79159 0 97 1.79159 1
gene 1 2 37 5.39141 0 103 5.39141 1
gene 1 37 27 -5.09968 0 104 -5.09968 1
gene 1 15 37 -6.21452 0 152 -6.21452 1
gene 1 25 64 2.19802 0 215 2.19802 1
gene 1 64 28 -0.0990326 0 216 -0.0990326 1
gene 1 37 64 -0.638524 0 228 -0.638524 1
gene 1 15 64 0.211341 0 339 0.211341 1
gene 1 3 64 2.25149 0 356 2.25149 1
gene 1 13 106 -1.16146 0 380 -1.16146 1
gene 1 106 29 -0.531709 0 381 -0.531709 1
gene 1 20 108 -0.231335 0 394 -0.231335 1
gene 1 108 28 -0.770287 0 395 -0.770287 1
gene 1 24 37 -0.162206 0 470 -0.162206 1
gene 1 18 34 -1.4378 0 550 -1.4378 1
gene 1 5 148 -0.0460067 0 572 -0.0460067 1
gene 1 148 27 -1.53061 0 573 -1.53061 1
gene 1 37 155 -2.40604 0 601 -2.40604 1
gene 1 155 27 -0.889309 0 602 -0.889309 1
gene 1 17 34 -1.1916 0 610 -1.1916 1
gene 1 2 205 2.77156 0 785 2.77156 0
gene 1 205 28 4.1435 0 786 4.1435 1
gene 1 2 209 -0.670783 0 794 -0.670783 1
gene 1 209 205 -1.46814 0 795 -1.46814 1
gene 1 155 34 -0.0102237 0 811 -0.0102237 1
gene 1 9 106 -1.87864 0 880 -1.87864 1
genomeend 4

/* Organism #5 Fitness: 0.41623 Error: 0 */
genomestart 5
trait 1 0.466016 0.979317 0 0.133531 0.945284 0.767331 0.147573 0.0627034 
node 1 1 1 1
node 2 1 1 1
node 3 1 1 1
node 4 1 1 1
node 5 1 1 1
node 6 1 1 1
node 7 1 1 1
node 8 1 1 1
node 9 1 1 1
node 10 1 1 1
node 11 1 1 1
node 12 1 1 1
node 13 1 1 1
node 14 1 1 1
node 15 1 1 1
node 16 1 1 1
node 17 1 1 1
node 18 1 1 1
node 19 1 1 1
node 20 1 1 1
node 21 1 1 1
node 22 1 1 1
node 23 1 1 1
node 24 1 1 1
node 25 1 1 1
node 26 1 1 3
node 27 1 0 2
node 28 1 0 2
node 29 1 0 2
node 34 1 0 0
node 37 1 0 0
node 64 1 0 0
node 106 1 0 0
node 108 1 0 0
node 148 1 0 0
node 155 1 0 0
node 205 1 0 0
node 209 1 0 0
gene 1 1 27 -1.22009 0 1 -1.22009 1
gene 1 1 28 0.218894 0 2 0.218894 1
gene 1 1 29 -3.8409 0 3 -3.8409 1
gene 1 2 27 -0.735649 0 4 -0.735649 1
gene 1 2 28 0.278768 0 5 0.278768 1
gene 1 2 29 -3.02489 0 6 -3.02489 1
gene 1 3 27 -2.74377 0 7 -2.74377 1
gene 1 3 28 0.611515 0 8 0.611515 1
gene 1 3 29 -0.917429 0 9 -0.917429 1
gene 1 4 27 5.13141 0 10 5.13141 1
gene 1 4 28 -1.23379 0 11 -1.23379 1
gene 1 4 29 1.43693 0 12 1.43693 1
gene 1 5 27 3.5696 0 13 3.5696 1
gene 1 5 28 -0.595645 0 14 -0.595645 1
gene 1 5 29 -3.20711 0 15 -3.20711 1
gene 1 6 27 2.53601 0 16 2.53601 1
gene 1 6 28 -1.21781 0 17 -1.21781 1
gene 1 6 29 -0.968276 0 18 -0.968276 1
gene 1 7 27 0.541322 0 19 0.541322 1
gene 1 7 28 0.662099 0 20 0.662099 1
gene 1 7 29 -3.95645 0 21 -3.95645 1
gene 1 8 27 -2.29008 0 22 -2.29008 1
gene 1 8 28 -1.91176 0 23 -1.91176 1
gene 1 8 29 -0.678274 0 24 -0.678274 1
gene 1 9 27 -7.0661 0 25 -7.0661 1
gene 1 9 28 -1.72737 0 26 -1.72737 1
gene 1 9 29 3.71929 0 27 3.71929 1
gene 1 10 27 0.759072 0 28 0.759072 1
gene 1 10 28 -0.813395 0 29 -0.813395 1
gene 1 10 29 3.72406 0 30 3.72406 1
gene 1 11 27 1.44131 0 31 1.44131 1
gene 1 11 28 0.933103 0 32 0.933103 1
gene 1 11 29 -1.467 0 33 -1.467 1
gene 1 12 27 1.97612 0 34 1.97612 1
gene 1 12 28 1.33412 0 35 1.33412 1
gene 1 12 29 -0.165029 0 36 -0.165029 1
gene 1 13 27 -1.59139 0 37 -1.59139 1
gene 1 13 28 -2.72744 0 38 -2.72744 1
gene 1 13 29 -5.45019 0 39 -5.45019 1
gene 1 14 27 -6.43702 0 40 -6.43702 1
gene 1 14 28 0.0389874 0 41 0.0389874 1
gene 1 14 29 -0.172887 0 42 -0.172887 1
gene 1 15 27 -3.41197 0 43 -3.41197 1
gene 1 15 28 0.811945 0 44 0.811945 1
gene 1 15 29 -1.87485 0 45 -1.87485 1
gene 1 16 27 -0.690405 0 46 -0.690405 1
gene 1 16 28 -1.07387 0 47 -1.07387 1
gene 1 16 29 -1.5492 0 48 -1.5492 1
gene 1 17 27 -4.48018 0 49 -4.48018 1
gene 1 17 28 3.77016 0 50 3.77016 1
gene 1 17 29 -2.3822 0 51 -2.3822 1
gene 1 18 27 -0.673772 0 52 -0.673772 1
gene 1 18 28 -2.00316 0 53 -2.00316 1
gene 1 18 29 0.967589 0 54 0.967589 1
gene 1 19 27 -4.25153 0 55 -4.25153 1
gene 1 19 28 -1.15108 0 56 -1.15108 1
gene 1 19 29 -3.33232 0 57 -3.33232 1
gene 1 20 27 1.36334 0 58 1.36334 1
gene 1 20 28 -1.32878 0 59 -1.32878 1
gene 1 20 29 -3.74084 0 60 -3.74084 1
gene 1 21 27 -2.17901 0 61 -2.17901 1
gene 1 21 28 2.98431 0 62 2.98431 1
gene 1 21 29 0.437788 0 63 0.437788 1
gene 1 22 27 -0.454333 0 64 -0.454333 1
gene 1 22 28 1.61264 0 65 1.61264 1
gene 1 22 29 1.93686 0 66 1.93686 1
gene 1 23 27 1.40843 0 67 1.40843 1
gene 1 23 28 8 0 68 8 1
gene 1 23 29 -1.56972 0 69 -1.56972 1
gene 1 24 27 -5.09002 0 70 -5.09002 1
gene 1 24 28 -3.56342 0 71 -3.56342 1
gene 1 24 29 -1.28323 0 72 -1.28323 1
gene 1 25 27 -3.56955 0 73 -3.56955 1
gene 1 25 28 3.64351 0 74 3.64351 1
gene 1 25 29 -0.846049 0 75 -0.846049 1
gene 1 26 27 4.82907 0 76 4.82907 1
gene 1 26 28 3.93252 0 77 3.93252 1
gene 1 26 29 -0.327158 0 78 -0.327158 1
gene 1 22 34 5.69165 0 96 5.69165 1
gene 1 34 29 4.11878 0 97 4.11878 1
gene 1 2 37 0.29725 0 103 0.29725 1
gene 1 37 27 -5.03933 0 104 -5.03933 1
gene 1 15 37 -6.73417 0 152 -6.73417 1
gene 1 25 64 1.78159 0 215 1.78159 1
gene 1 64 28 2.26722 0 216 2.26722 1
gene 1 37 64 -0.211798 0 228 -0.211798 1
gene 1 15 64 0.885647 0 339 0.885647 1
gene 1 3 64 -0.685766 0 356 -0.685766 1
gene 1 13 106 2.14431 0 380 2.14431 1
gene 1 106 29 -1.93213 0 381 -1.93213 1
gene 1 20 108 0.793248 0 394 0.793248 1
gene 1 108 28 -1.74718 0 395 -1.74718 1
gene 1 24 37 -3.32995 0 470 -3.32995 1
gene 1 18 34 -4.22109 0 550 -4.22109 1
gene 1 5 148 -0.407575 0 572 -0.407575 1
gene 1 148 27 0.279626 0 573 0.279626 1
gene 1 37 155 -1.59154 0 601 -1.59154 1
gene 1 155 27 2.84761 0 602 2.84761 1
gene 1 17 34 0.862453 0 610 0.862453 1
gene 1 2 205 1.68938 0 785 1.68938 0
gene 1 205 28 3.2831 0 786 3.2831 1
gene 1 2 209 -0.313946 0 794 -0.313946 1
gene 1 209 205 0.854213 0 795 0.854213 1
gene 1 155 34 -0.217444 0 811 -0.217444 1
gene 1 9 106 -2.26936 0 880 -2.26936 1
genomeend 5

/* Organism #6 Fitness: 0.9196 Error: 0 */
/* ##------$ WINNER 6 SPECIES #77 $------## */
genomestart 6
trait 1 0.442833 0.968975 0 0.133421 0.917926 0.712521 0.147451 0.0627232 
node 1 1 1 1
node 2 1 1 1
node 3 1 1 1
node 4 1 1 1
node 5 1 1 1
node 6 1 1 1
node 7 1 1 1
node 8 1 1 1
node 9 1 1 1
node 10 1 1 1
node 11 1 1 1
node 12 1 1 1
node 13 1 1 1
node 14 1 1 1
node 15 1 1 1
node 16 1 1 1
node 17 1 1 1
node 18 1 1 1
node 19 1 1 1
node 20 1 1 1
node 21 1 1 1
node 22 1 1 1
node 23 1 1 1
node 24 1 1 1
node 25 1 1 1
node 26 1 1 3
node 27 1 0 2
node 28 1 0 2
node 29 1 0 2
node 34 1 0 0
node 37 1 0 0
node 64 1 0 0
node 106 1 0 0
node 108 1 0 0
node 148 1 0 0
node 155 1 0 0
node 205 1 0 0
node 209 1 0 0
gene 1 1 27 -0.380909 0 1 -0.380909 1
gene 1 1 28 0.413984 0 2 0.413984 1
gene 1 1 29 -4.90218 0 3 -4.90218 1
gene 1 2 27 -3.06433 0 4 -3.06433 1
gene 1 2 28 -2.41518 0 5 -2.41518 1
gene 1 2 29 -0.0184399 0 6 -0.0184399 1
gene 1 3 27 -2.49579 0 7 -2.49579 1
gene 1 3 28 -0.560658 0 8 -0.560658 1
gene 1 3 29 -2.60671 0 9 -2.60671 1
gene 1 4 27 0.811942 0 10 0.811942 1
gene 1 4 28 1.12791 0 11 1.12791 1
gene 1 4 29 -1.27937 0 12 -1.27937 1
gene 1 5 27 -3.2146 0 13 -3.2146 1
gene 1 5 28 -7.01494 0 14 -7.01494 1
gene 1 5 29 1.67982 0 15 1.67982 1
gene 1 6 27 1.68771 0 16 1.68771 1
gene 1 6 28 1.60221 0 17 1.60221 1
gene 1 6 29 1.31283 0 18 1.31283 1
gene 1 7 27 -0.713483 0 19 -0.713483 1
gene 1 7 28 2.82868 0 20 2.82868 1
gene 1 7 29 -7.30906 0 21 -7.30906 1
gene 1 8 27 -4.19863 0 22 -4.19863 1
gene 1 8 28 -0.504204 0 23 -0.504204 1
gene 1 8 29 -0.202438 0 24 -0.202438 1
gene 1 9 27 -7.3529 0 25 -7.3529 1
gene 1 9 28 -0.592617 0 26 -0.592617 1
gene 1 9 29 4.48773 0 27 4.48773 1
gene 1 10 27 -0.816179 0 28 -0.816179 1
gene 1 10 28 0.625801 0 29 0.625801 1
gene 1 10 29 5.05848 0 30 5.05848 1
gene 1 11 27 1.43811 0 31 1.43811 1
gene 1 11 28 -2.62951 0 32 -2.62951 1
gene 1 11 29 -0.387175 0 33 -0.387175 1
gene 1 12 27 2.08611 0 34 2.08611 1
gene 1 12 28 -7.45789 0 35 -7.45789 1
gene 1 12 29 2.21105 0 36 2.21105 1
gene 1 13 27 3.31696 0 37 3.31696 1
gene 1 13 28 3.29907 0 38 3.29907 1
gene 1 13 29 -6.65193 0 39 -6.65193 1
gene 1 14 27 -3.44839 0 40 -3.44839 1
gene 1 14 28 -4.46217 0 41 -4.46217 1
gene 1 14 29 0.0836207 0 42 0.0836207 1
gene 1 15 27 1.19804 0 43 1.19804 1
gene 1 15 28 1.99717 0 44 1.99717 1
gene 1 15 29 -4.9143 0 45 -4.9143 1
gene 1 16 27 1.2038 0 46 1.2038 1
gene 1 16 28 2.34161 0 47 2.34161 1
gene 1 16 29 4.6549 0 48 4.6549 1
gene 1 17 27 -3.09289 0 49 -3.09289 1
gene 1 17 28 -0.388053 0 50 -0.388053 1
gene 1 17 29 0.182982 0 51 0.182982 1
gene 1 18 27 -0.953246 0 52 -0.953246 1
gene 1 18 28 3.79838 0 53 3.79838 1
gene 1 18 29 1.29875 0 54 1.29875 1
gene 1 19 27 -2.26386 0 55 -2.26386 1
gene 1 19 28 0.607431 0 56 0.607431 1
gene 1 19 29 -1.43658 0 57 -1.43658 1
gene 1 20 27 -0.787416 0 58 -0.787416 1
gene 1 20 28 -0.255838 0 59 -0.255838 1
gene 1 20 29 -4.10553 0 60 -4.10553 1
gene 1 21 27 -4.50978 0 61 -4.50978 1
gene 1 21 28 4.10411 0 62 4.10411 1
gene 1 21 29 1.23844 0 63 1.23844 1
gene 1 22 27 0.0972233 0 64 0.0972233 1
gene 1 22 28 0.826183 0 65 0.826183 1
gene 1 22 29 0.17983 0 66 0.17983 1
gene 1 23 27 0.782571 0 67 0.782571 1
gene 1 23 28 6.45851 0 68 6.45851 1
gene 1 23 29 0.46617 0 69 0.46617 1
gene 1 24 27 -1.00241 0 70 -1.00241 1
gene 1 24 28 3.08731 0 71 3.08731 1
gene 1 24 29 0.696051 0 72 0.696051 1
gene 1 25 27 -3.04658 0 73 -3.04658 1
gene 1 25 28 4.07352 0 74 4.07352 1
gene 1 25 29 5.63952 0 75 5.63952 1
gene 1 26 27 -0.855081 0 76 -0.855081 1
gene 1 26 28 4.82958 0 77 4.82958 1
gene 1 26 29 -0.583341 0 78 -0.583341 1
gene 1 22 34 4.48182 0 96 4.48182 1
gene 1 34 29 -1.50403 0 97 -1.50403 1
gene 1 2 37 2.70646 0 103 2.70646 1
gene 1 37 27 -2.23981 0 104 -2.23981 1
gene 1 15 37 -1.56485 0 152 -1.56485 1
gene 1 25 64 1.71804 0 215 1.71804 1
gene 1 64 28 0.754036 0 216 0.754036 1
gene 1 37 64 -1.1684 0 228 -1.1684 1
gene 1 15 64 -0.35474 0 339 -0.35474 1
gene 1 3 64 1.30443 0 356 1.30443 1
gene 1 13 106 0.970832 0 380 0.970832 1
gene 1 106 29 -1.10752 0 381 -1.10752 1
gene 1 20 108 0.045525 0 394 0.045525 1
gene 1 108 28 0.367328 0 395 0.367328 1
gene 1 24 37 1.43352 0 470 1.43352 1
gene 1 18 34 -0.128826 0 550 -0.128826 1
gene 1 5 148 2.71593 0 572 2.71593 1
gene 1 148 27 -1.76986 0 573 -1.76986 1
gene 1 37 155 0.54685 0 601 0.54685 1
gene 1 155 27 -0.0456633 0 602 -0.0456633 1
gene 1 17 34 1.33522 0 610 1.33522 1
gene 1 2 205 2.53936 0 785 2.53936 1
gene 1 205 28 -4.33702 0 786 -4.33702 1
gene 1 2 209 0.403048 0 794 0.403048 1
gene 1 209 205 -2.05329 0 795 -2.05329 1
gene 1 155 34 2.5546 0 811 2.5546 1
gene 1 9 106 -0.220374 0 880 -0.220374 1
genomeend 6

/* Organism #7 Fitness: 0.9256 Error: 0 */
/* ##------$ WINNER 7 SPECIES #77 $------## */
genomestart 7
trait 1 0.466016 0.979317 0 0.133531 0.945284 0.767331 0.147573 0.0627034 
node 1 1 1 1
node 2 1 1 1
node 3 1 1 1
node 4 1 1 1
node 5 1 1 1
node 6 1 1 1
node 7 1 1 1
node 8 1 1 1
node 9 1 1 1
node 10 1 1 1
node 11 1 1 1
node 12 1 1 1
node 13 1 1 1
node 14 1 1 1
node 15 1 1 1
node 16 1 1 1
node 17 1 1 1
node 18 1 1 1
node 19 1 1 1
node 20 1 1 1
node 21 1 1 1
node 22 1 1 1
node 23 1 1 1
node 24 1 1 1
node 25 1 1 1
node 26 1 1 3
node 27 1 0 2
node 28 1 0 2
node 29 1 0 2
node 34 1 0 0
node 37 1 0 0
node 64 1 0 0
node 106 1 0 0
node 108 1 0 0
node 148 1 0 0
node 155 1 0 0
node 205 1 0 0
node 209 1 0 0
gene 1 1 27 -2.21622 0 1 -2.21622 1
gene 1 1 28 0.716575 0 2 0.716575 1
gene 1 1 29 -5.71641 0 3 -5.71641 1
gene 1 2 27 -0.535752 0 4 -0.535752 1
gene 1 2 28 -1.44164 0 5 -1.44164 1
gene 1 2 29 -0.571512 0 6 -0.571512 1
gene 1 3 27 -0.280618 0 7 -0.280618 1
gene 1 3 28 0.304294 0 8 0.304294 1
gene 1 3 29 -1.24512 0 9 -1.24512 1
gene 1 4 27 3.29641 0 10 3.29641 1
gene 1 4 28 3.40972 0 11 3.40972 1
gene 1 4 29 0.75507 0 12 0.75507 1
gene 1 5 27 1.2756 0 13 1.2756 1
gene 1 5 28 0.770287 0 14 0.770287 1
gene 1 5 29 -0.999481 0 15 -0.999481 1
gene 1 6 27 1.77892 0 16 1.77892 1
gene 1 6 28 0.829979 0 17 0.829979 1
gene 1 6 29 1.35853 0 18 1.35853 1
gene 1 7 27 0.505387 0 19 0.505387 1
gene 1 7 28 0.662099 0 20 0.662099 1
gene 1 7 29 -3.00374 0 21 -3.00374 1
gene 1 8 27 -2.02281 0 22 -2.02281 1
gene 1 8 28 3.3385 0 23 3.3385 1
gene 1 8 29 0.350963 0 24 0.350963 1
gene 1 9 27 -6.6744 0 25 -6.6744 1
gene 1 9 28 -1.72737 0 26 -1.72737 1
gene 1 9 29 1.98889 0 27 1.98889 1
gene 1 10 27 -0.325175 0 28 -0.325175 1
gene 1 10 28 -0.20455 0 29 -0.20455 1
gene 1 10 29 5.26341 0 30 5.26341 1
gene 1 11 27 0.955229 0 31 0.955229 1
gene 1 11 28 -3.12147 0 32 -3.12147 1
gene 1 11 29 -2.81668 0 33 -2.81668 1
gene 1 12 27 2.01465 0 34 2.01465 1
gene 1 12 28 0.695822 0 35 0.695822 1
gene 1 12 29 1.23417 0 36 1.23417 1
gene 1 13 27 -0.727638 0 37 -0.727638 1
gene 1 13 28 -2.06511 0 38 -2.06511 1
gene 1 13 29 -4.51831 0 39 -4.51831 1
gene 1 14 27 -4.72966 0 40 -4.72966 1
gene 1 14 28 -3.68685 0 41 -3.68685 1
gene 1 14 29 0.230949 0 42 0.230949 1
gene 1 15 27 -1.50639 0 43 -1.50639 1
gene 1 15 28 1.87239 0 44 1.87239 1
gene 1 15 29 -1.50855 0 45 -1.50855 1
gene 1 16 27 0.460067 0 46 0.460067 1
gene 1 16 28 4.78923 0 47 4.78923 1
gene 1 16 29 4.63655 0 48 4.63655 1
gene 1 17 27 -2.33961 0 49 -2.33961 1
gene 1 17 28 3.77016 0 50 3.77016 1
gene 1 17 29 -2.89789 0 51 -2.89789 1
gene 1 18 27 0.393155 0 52 0.393155 1
gene 1 18 28 0.322275 0 53 0.322275 1
gene 1 18 29 0.789895 0 54 0.789895 1
gene 1 19 27 -3.39663 0 55 -3.39663 1
gene 1 19 28 1.0976 0 56 1.0976 1
gene 1 19 29 -1.43658 0 57 -1.43658 1
gene 1 20 27 -0.843837 0 58 -0.843837 1
gene 1 20 28 0.537736 0 59 0.537736 1
gene 1 20 29 -4.66425 0 60 -4.66425 1
gene 1 21 27 -2.17901 0 61 -2.17901 1
gene 1 21 28 2.98431 0 62 2.98431 1
gene 1 21 29 1.63129 0 63 1.63129 1
gene 1 22 27 -2.50495 0 64 -2.50495 1
gene 1 22 28 -0.0552683 0 65 -0.0552683 1
gene 1 22 29 1.93686 0 66 1.93686 1
gene 1 23 27 1.40103 0 67 1.40103 1
gene 1 23 28 7.37922 0 68 7.37922 1
gene 1 23 29 -1.56972 0 69 -1.56972 1
gene 1 24 27 -3.6777 0 70 -3.6777 1
gene 1 24 28 -1.6596 0 71 -1.6596 1
gene 1 24 29 -1.28323 0 72 -1.28323 1
gene 1 25 27 -4.13476 0 73 -4.13476 1
gene 1 25 28 3.64351 0 74 3.64351 1
gene 1 25 29 4.2206 0 75 4.2206 1
gene 1 26 27 2.74412 0 76 2.74412 1
gene 1 26 28 4.59676 0 77 4.59676 1
gene 1 26 29 -1.03809 0 78 -1.03809 1
gene 1 22 34 6.86944 0 96 6.86944 1
gene 1 34 29 3.71593 0 97 3.71593 1
gene 1 2 37 0.29725 0 103 0.29725 1
gene 1 37 27 -3.8736 0 104 -3.8736 1
gene 1 15 37 -5.83258 0 152 -5.83258 1
gene 1 25 64 1.78159 0 215 1.78159 1
gene 1 64 28 1.10141 0 216 1.10141 1
gene 1 37 64 -1.56186 0 228 -1.56186 1
gene 1 15 64 -0.745033 0 339 -0.745033 1
gene 1 3 64 1.49165 0 356 1.49165 1
gene 1 13 106 1.0783 0 380 1.0783 1
gene 1 106 29 -2.63894 0 381 -2.63894 1
gene 1 20 108 0.152359 0 394 0.152359 1
gene 1 108 28 -0.00457778 0 395 -0.00457778 1
gene 1 24 37 -2.34504 0 470 -2.34504 1
gene 1 18 34 -1.94723 0 550 -1.94723 1
gene 1 5 148 1.35793 0 572 1.35793 1
gene 1 148 27 -2.56733 0 573 -2.56733 1
gene 1 37 155 0.291681 0 601 0.291681 1
gene 1 155 27 0.830943 0 602 0.830943 1
gene 1 17 34 0.222404 0 610 0.222404 1
gene 1 2 205 3.23865 0 785 3.23865 0
gene 1 205 28 2.40402 0 786 2.40402 1
gene 1 2 209 -0.670783 0 794 -0.670783 1
gene 1 209 205 -1.85687 0 795 -1.85687 1
gene 1 155 34 -1.87147 0 811 -1.87147 1
gene 1 9 106 3.47516 0 880 3.47516 1
genomeend 7

/* Organism #8 Fitness: 0.92196 Error: 0 */
/* ##------$ WINNER 8 SPECIES #77 $------## */
genomestart 8
trait 1 0.442833 0.968975 0 0.133421 0.917926 0.712521 0.147451 0.0627232 
node 1 1 1 1
node 2 1 1 1
node 3 1 1 1
node 4 1 1 1
node 5 1 1 1
node 6 1 1 1
node 7 1 1 1
node 8 1 1 1
node 9 1 1 1
node 10 1 1 1
node 11 1 1 1
node 12 1 1 1
node 13 1 1 1
node 14 1 1 1
node 15 1 1 1
node 16 1 1 1
node 17 1 1 1
node 18 1 1 1
node 19 1 1 1
node 20 1 1 1
node 21 1 1 1
node 22 1 1 1
node 23 1 1 1
node 24 1 1 1
node 25 1 1 1
node 26 1 1 3
node 27 1 0 2
node 28 1 0 2
node 29 1 0 2
node 34 1 0 0
node 37 1 0 0
node 64 1 0 0
node 106 1 0 0
node 108 1 0 0
node 148 1 0 0
node 155 1 0 0
node 205 1 0 0
node 209 1 0 0
gene 1 1 27 -0.514351 0 1 -0.514351 1
gene 1 1 28 2.2924 0 2 2.2924 1
gene 1 1 29 -7.50434 0 3 -7.50434 1
gene 1 2 27 1.00864 0 4 1.00864 1
gene 1 2 28 1.33808 0 5 1.33808 1
gene 1 2 29 2.4454 0 6 2.4454 1
gene 1 3 27 -1.05366 0 7 -1.05366 1
gene 1 3 28 -0.256255 0 8 -0.256255 1
gene 1 3 29 -0.448131 0 9 -0.448131 1
gene 1 4 27 2.06293 0 10 2.06293 1
gene 1 4 28 -1.938 0 11 -1.938 1
gene 1 4 29 -1.60676 0 12 -1.60676 1
gene 1 5 27 -1.16153 0 13 -1.16153 1
gene 1 5 28 -8 0 14 -8 1
gene 1 5 29 -1.73681 0 15 -1.73681 1
gene 1 6 27 3.726 0 16 3.726 1
gene 1 6 28 2.26893 0 17 2.26893 1
gene 1 6 29 -0.598549 0 18 -0.598549 1
gene 1 7 27 1.0464 0 19 1.0464 1
gene 1 7 28 0.464644 0 20 0.464644 1
gene 1 7 29 0.474334 0 21 0.474334 1
gene 1 8 27 -1.20026 0 22 -1.20026 1
gene 1 8 28 1.09333 0 23 1.09333 1
gene 1 8 29 1.42511 0 24 1.42511 1
gene 1 9 27 2.48558 0 25 2.48558 1
gene 1 9 28 -2.64621 0 26 -2.64621 1
gene 1 9 29 2.25034 0 27 2.25034 1
gene 1 10 27 -1.80853 0 28 -1.80853 1
gene 1 10 28 -1.18295 0 29 -1.18295 1
gene 1 10 29 3.02862 0 30 3.02862 1
gene 1 11 27 0.991852 0 31 0.991852 1
gene 1 11 28 -0.145306 0 32 -0.145306 1
gene 1 11 29 -2.68888 0 33 -2.68888 1
gene 1 12 27 -1.98584 0 34 -1.98584 1
gene 1 12 28 2.9149 0 35 2.9149 1
gene 1 12 29 2.45437 0 36 2.45437 1
gene 1 13 27 -3.2181 0 37 -3.2181 1
gene 1 13 28 2.48062 0 38 2.48062 1
gene 1 13 29 -6.0321 0 39 -6.0321 1
gene 1 14 27 -5.81902 0 40 -5.81902 1
gene 1 14 28 2.37243 0 41 2.37243 1
gene 1 14 29 -1.96318 0 42 -1.96318 1
gene 1 15 27 -1.50639 0 43 -1.50639 1
gene 1 15 28 -0.09476 0 44 -0.09476 1
gene 1 15 29 -3.12085 0 45 -3.12085 1
gene 1 16 27 -0.335704 0 46 -0.335704 1
gene 1 16 28 3.99727 0 47 3.99727 1
gene 1 16 29 -0.721763 0 48 -0.721763 1
gene 1 17 27 -2.2534 0 49 -2.2534 1
gene 1 17 28 3.77016 0 50 3.77016 1
gene 1 17 29 -1.78203 0 51 -1.78203 1
gene 1 18 27 -2.09647 0 52 -2.09647 1
gene 1 18 28 5.34897 0 53 5.34897 1
gene 1 18 29 3.00363 0 54 3.00363 1
gene 1 19 27 -4.97269 0 55 -4.97269 1
gene 1 19 28 0.719212 0 56 0.719212 1
gene 1 19 29 -2.10417 0 57 -2.10417 1
gene 1 20 27 -0.843837 0 58 -0.843837 1
gene 1 20 28 0.574435 0 59 0.574435 1
gene 1 20 29 -0.0217444 0 60 -0.0217444 1
gene 1 21 27 0.467925 0 61 0.467925 1
gene 1 21 28 4.47484 0 62 4.47484 1
gene 1 21 29 1.17756 0 63 1.17756 1
gene 1 22 27 -0.111457 0 64 -0.111457 1
gene 1 22 28 -1.9539 0 65 -1.9539 1
gene 1 22 29 2.27447 0 66 2.27447 1
gene 1 23 27 1.98027 0 67 1.98027 1
gene 1 23 28 8 0 68 8 1
gene 1 23 29 0.841624 0 69 0.841624 1
gene 1 24 27 -3.40624 0 70 -3.40624 1
gene 1 24 28 -3.36924 0 71 -3.36924 1
gene 1 24 29 -0.511185 0 72 -0.511185 1
gene 1 25 27 -4.94708 0 73 -4.94708 1
gene 1 25 28 6.06035 0 74 6.06035 1
gene 1 25 29 4.2206 0 75 4.2206 1
gene 1 26 27 5.22863 0 76 5.22863 1
gene 1 26 28 5.33782 0 77 5.33782 1
gene 1 26 29 -1.03809 0 78 -1.03809 1
gene 1 22 34 7.66116 0 96 7.66116 1
gene 1 34 29 -0.649205 0 97 -0.649205 1
gene 1 2 37 3.86129 0 103 3.86129 1
gene 1 37 27 -6.26999 0 104 -6.26999 1
gene 1 15 37 -7.34622 0 152 -7.34622 1
gene 1 25 64 2.68914 0 215 2.68914 1
gene 1 64 28 3.48231 0 216 3.48231 1
gene 1 37 64 -2.06465 0 228 -2.06465 1
gene 1 15 64 -1.84141 0 339 -1.84141 1
gene 1 3 64 2.41354 0 356 2.41354 1
gene 1 13 106 -1.05159 0 380 -1.05159 1
gene 1 106 29 -2.77352 0 381 -2.77352 1
gene 1 20 108 1.08592 0 394 1.08592 1
gene 1 108 28 -2.0109 0 395 -2.0109 1
gene 1 24 37 2.53745 0 470 2.53745 1
gene 1 18 34 -0.194784 0 550 -0.194784 1
gene 1 5 148 0.931667 0 572 0.931667 1
gene 1 148 27 -1.37058 0 573 -1.37058 1
gene 1 37 155 -0.380261 0 601 -0.380261 1
gene 1 155 27 0.810877 0 602 0.810877 1
gene 1 17 34 1.18789 0 610 1.18789 1
gene 1 2 205 5.23906 0 785 5.23906 0
gene 1 205 28 3.63849 0 786 3.63849 1
gene 1 2 209 -1.02327 0 794 -1.02327 1
gene 1 209 205 -2.13764 0 795 -2.13764 1
gene 1 155 34 -1.87147 0 811 -1.87147 1
gene 1 9 106 0.312891 0 880 0.312891 1
genomeend 8

/* Organism #9 Fitness: 0.9228 Error: 0 */
/* ##------$ WINNER 9 SPECIES #77 $------## */
genomestart 9
trait 1 0.442833 0.968975 0 0.133421 0.917926 0.712521 0.147451 0.0627232 
node 1 1 1 1
node 2 1 1 1
node 3 1 1 1
node 4 1 1 1
node 5 1 1 1
node 6 1 1 1
node 7 1 1 1
node 8 1 1 1
node 9 1 1 1
node 10 1 1 1
node 11 1 1 1
node 12 1 1 1
node 13 1 1 1
node 14 1 1 1
node 15 1 1 1
node 16 1 1 1
node 17 1 1 1
node 18 1 1 1
node 19 1 1 1
node 20 1 1 1
node 21 1 1 1
node 22 1 1 1
node 23 1 1 1
node 24 1 1 1
node 25 1 1 1
node 26 1 1 3
node 27 1 0 2
node 28 1 0 2
node 29 1 0 2
node 34 1 0 0
node 37 1 0 0
node 64 1 0 0
node 106 1 0 0
node 108 1 0 0
node 148 1 0 0
node 155 1 0 0
node 205 1 0 0
node 209 1 0 0
gene 1 1 27 0.0578326 0 1 0.0578326 1
gene 1 1 28 -1.69935 0 2 -1.69935 1
gene 1 1 29 -3.91048 0 3 -3.91048 1
gene 1 2 27 -0.672704 0 4 -0.672704 1
gene 1 2 28 1.88185 0 5 1.88185 1
gene 1 2 29 -2.42746 0 6 -2.42746 1
gene 1 3 27 -1.6276 0 7 -1.6276 1
gene 1 3 28 -0.721992 0 8 -0.721992 1
gene 1 3 29 -0.946303 0 9 -0.946303 1
gene 1 4 27 4.53958 0 10 4.53958 1
gene 1 4 28 4.38101 0 11 4.38101 1
gene 1 4 29 -0.0867454 0 12 -0.0867454 1
gene 1 5 27 1.61315 0 13 1.61315 1
gene 1 5 28 -3.33809 0 14 -3.33809 1
gene 1 5 29 1.3583 0 15 1.3583 1
gene 1 6 27 2.84749 0 16 2.84749 1
gene 1 6 28 0.669147 0 17 0.669147 1
gene 1 6 29 1.11248 0 18 1.11248 1
gene 1 7 27 2.21244 0 19 2.21244 1
gene 1 7 28 1.72632 0 20 1.72632 1
gene 1 7 29 -5.01152 0 21 -5.01152 1
gene 1 8 27 -4.89731 0 22 -4.89731 1
gene 1 8 28 0.917253 0 23 0.917253 1
gene 1 8 29 0.0211341 0 24 0.0211341 1
gene 1 9 27 -5.03418 0 25 -5.03418 1
gene 1 9 28 -2.64464 0 26 -2.64464 1
gene 1 9 29 2.934 0 27 2.934 1
gene 1 10 27 0.673162 0 28 0.673162 1
gene 1 10 28 -0.631914 0 29 -0.631914 1
gene 1 10 29 1.16718 0 30 1.16718 1
gene 1 11 27 2.3872 0 31 2.3872 1
gene 1 11 28 -5.17247 0 32 -5.17247 1
gene 1 11 29 -1.60193 0 33 -1.60193 1
gene 1 12 27 2.05038 0 34 2.05038 1
gene 1 12 28 -2.12504 0 35 -2.12504 1
gene 1 12 29 2.33894 0 36 2.33894 1
gene 1 13 27 -0.180984 0 37 -0.180984 1
gene 1 13 28 -0.862863 0 38 -0.862863 1
gene 1 13 29 -3.43738 0 39 -3.43738 1
gene 1 14 27 -5.50954 0 40 -5.50954 1
gene 1 14 28 -4.37988 0 41 -4.37988 1
gene 1 14 29 1.5553 0 42 1.5553 1
gene 1 15 27 0.282105 0 43 0.282105 1
gene 1 15 28 2.59251 0 44 2.59251 1
gene 1 15 29 -4.78975 0 45 -4.78975 1
gene 1 16 27 0.849254 0 46 0.849254 1
gene 1 16 28 -2.49077 0 47 -2.49077 1
gene 1 16 29 2.49684 0 48 2.49684 1
gene 1 17 27 -3.41215 0 49 -3.41215 1
gene 1 17 28 4.50627 0 50 4.50627 1
gene 1 17 29 -3.77765 0 51 -3.77765 1
gene 1 18 27 1.92289 0 52 1.92289 1
gene 1 18 28 5.09678 0 53 5.09678 1
gene 1 18 29 1.27834 0 54 1.27834 1
gene 1 19 27 -3.97568 0 55 -3.97568 1
gene 1 19 28 0.0614395 0 56 0.0614395 1
gene 1 19 29 0.636082 0 57 0.636082 1
gene 1 20 27 -1.41644 0 58 -1.41644 1
gene 1 20 28 1.30718 0 59 1.30718 1
gene 1 20 29 2.44301 0 60 2.44301 1
gene 1 21 27 -5.26141 0 61 -5.26141 1
gene 1 21 28 5.26679 0 62 5.26679 1
gene 1 21 29 -0.310297 0 63 -0.310297 1
gene 1 22 27 -2.78167 0 64 -2.78167 1
gene 1 22 28 -0.138012 0 65 -0.138012 1
gene 1 22 29 -0.68598 0 66 -0.68598 1
gene 1 23 27 1.0551 0 67 1.0551 1
gene 1 23 28 8 0 68 8 1
gene 1 23 29 0.987732 0 69 0.987732 1
gene 1 24 27 -4.66413 0 70 -4.66413 1
gene 1 24 28 0.598766 0 71 0.598766 1
gene 1 24 29 -0.446448 0 72 -0.446448 1
gene 1 25 27 -3.70765 0 73 -3.70765 1
gene 1 25 28 3.35417 0 74 3.35417 1
gene 1 25 29 6.81488 0 75 6.81488 1
gene 1 26 27 0.0607032 0 76 0.0607032 1
gene 1 26 28 4.73977 0 77 4.73977 1
gene 1 26 29 -2.05054 0 78 -2.05054 1
gene 1 22 34 -2.06908 0 96 -2.06908 1
gene 1 34 29 -1.00135 0 97 -1.00135 1
gene 1 2 37 -0.444304 0 103 -0.444304 1
gene 1 37 27 -1.95391 0 104 -1.95391 1
gene 1 15 37 -0.310373 0 152 -0.310373 1
gene 1 25 64 -0.542352 0 215 -0.542352 1
gene 1 64 28 1.02248 0 216 1.02248 1
gene 1 37 64 -1.99557 0 228 -1.99557 1
gene 1 15 64 -1.00131 0 339 -1.00131 1
gene 1 3 64 0.929769 0 356 0.929769 1
gene 1 13 106 1.59703 0 380 1.59703 1
gene 1 106 29 0.850589 0 381 0.850589 1
gene 1 20 108 -0.0836446 0 394 -0.0836446 1
gene 1 108 28 2.21749 0 395 2.21749 1
gene 1 24 37 -0.3314 0 470 -0.3314 1
gene 1 18 34 -1.4734 0 550 -1.4734 1
gene 1 5 148 3.02909 0 572 3.02909 1
gene 1 148 27 2.45544 0 573 2.45544 1
gene 1 37 155 0.274073 0 601 0.274073 1
gene 1 155 27 0.0181585 0 602 0.0181585 1
gene 1 17 34 0.778813 0 610 0.778813 1
gene 1 2 205 1.48549 0 785 1.48549 0
gene 1 205 28 -0.453124 0 786 -0.453124 1
gene 1 2 209 -1.66962 0 794 -1.66962 1
gene 1 209 205 2.29461 0 795 2.29461 1
gene 1 155 34 0.86778 0 811 0.86778 1
gene 1 9 106 1.59517 0 880 1.59517 1
genomeend 9

/* Organism #10 Fitness: 0.92236 Error: 0 */
/* ##------$ WINNER 10 SPECIES #77 $------## */
genomestart 10
trait 1 0.442833 0.968975 0 0.133421 0.917926 0.712521 0.147451 0.0627232 
node 1 1 1 1
node 2 1 1 1
node 3 1 1 1
node 4 1 1 1
node 5 1 1 1
node 6 1 1 1
node 7 1 1 1
node 8 1 1 1
node 9 1 1 1
node 10 1 1 1
node 11 1 1 1
node 12 1 1 1
node 13 1 1 1
node 14 1 1 1
node 15 1 1 1
node 16 1 1 1
node 17 1 1 1
node 18 1 1 1
node 19 1 1 1
node 20 1 1 1
node 21 1 1 1
node 22 1 1 1
node 23 1 1 1
node 24 1 1 1
node 25 1 1 1
node 26 1 1 3
node 27 1 0 2
node 28 1 0 2
node 29 1 0 2
node 34 1 0 0
node 37 1 0 0
node 64 1 0 0
node 106 1 0 0
node 108 1 0 0
node 148 1 0 0
node 155 1 0 0
node 205 1 0 0
node 209 1 0 0
gene 1 1 27 -2.4377 0 1 -2.4377 1
gene 1 1 28 1.60718 0 2 1.60718 1
gene 1 1 29 -2.86675 0 3 -2.86675 1
gene 1 2 27 -5.3637 0 4 -5.3637 1
gene 1 2 28 -4.75091 0 5 -4.75091 1
gene 1 2 29 -1.50652 0 6 -1.50652 1
gene 1 3 27 -1.88987 0 7 -1.88987 1
gene 1 3 28 -1.75239 0 8 -1.75239 1
gene 1 3 29 -4.96991 0 9 -4.96991 1
gene 1 4 27 1.91523 0 10 1.91523 1
gene 1 4 28 0.929556 0 11 0.929556 1
gene 1 4 29 -3.28276 0 12 -3.28276 1
gene 1 5 27 -1.63315 0 13 -1.63315 1
gene 1 5 28 -8 0 14 -8 1
gene 1 5 29 2.97418 0 15 2.97418 1
gene 1 6 27 -0.774941 0 16 -0.774941 1
gene 1 6 28 3.08705 0 17 3.08705 1
gene 1 6 29 1.02671 0 18 1.02671 1
gene 1 7 27 -1.31382 0 19 -1.31382 1
gene 1 7 28 0.589236 0 20 0.589236 1
gene 1 7 29 -6.92819 0 21 -6.92819 1
gene 1 8 27 -5.99449 0 22 -5.99449 1
gene 1 8 28 0.0724433 0 23 0.0724433 1
gene 1 8 29 -1.34116 0 24 -1.34116 1
gene 1 9 27 -7.81259 0 25 -7.81259 1
gene 1 9 28 -0.311847 0 26 -0.311847 1
gene 1 9 29 2.03724 0 27 2.03724 1
gene 1 10 27 -2.58583 0 28 -2.58583 1
gene 1 10 28 -1.00198 0 29 -1.00198 1
gene 1 10 29 4.44903 0 30 4.44903 1
gene 1 11 27 2.10448 0 31 2.10448 1
gene 1 11 28 -0.153851 0 32 -0.153851 1
gene 1 11 29 -0.92041 0 33 -0.92041 1
gene 1 12 27 2.03362 0 34 2.03362 1
gene 1 12 28 -6.22769 0 35 -6.22769 1
gene 1 12 29 1.66837 0 36 1.66837 1
gene 1 13 27 3.97937 0 37 3.97937 1
gene 1 13 28 4.71704 0 38 4.71704 1
gene 1 13 29 -4.93382 0 39 -4.93382 1
gene 1 14 27 -5.78776 0 40 -5.78776 1
gene 1 14 28 -2.32854 0 41 -2.32854 1
gene 1 14 29 -0.638447 0 42 -0.638447 1
gene 1 15 27 2.95846 0 43 2.95846 1
gene 1 15 28 1.76717 0 44 1.76717 1
gene 1 15 29 -6.0185 0 45 -6.0185 1
gene 1 16 27 -1.08013 0 46 -1.08013 1
gene 1 16 28 5.87622 0 47 5.87622 1
gene 1 16 29 5.94095 0 48 5.94095 1
gene 1 17 27 -0.972537 0 49 -0.972537 1
gene 1 17 28 -0.343582 0 50 -0.343582 1
gene 1 17 29 0.514337 0 51 0.514337 1
gene 1 18 27 0.423978 0 52 0.423978 1
gene 1 18 28 4.24481 0 53 4.24481 1
gene 1 18 29 2.61948 0 54 2.61948 1
gene 1 19 27 -1.42338 0 55 -1.42338 1
gene 1 19 28 -2.51926 0 56 -2.51926 1
gene 1 19 29 -0.898083 0 57 -0.898083 1
gene 1 20 27 -1.44955 0 58 -1.44955 1
gene 1 20 28 -0.336848 0 59 -0.336848 1
gene 1 20 29 -2.7602 0 60 -2.7602 1
gene 1 21 27 -8 0 61 -8 1
gene 1 21 28 2.65761 0 62 2.65761 1
gene 1 21 29 2.85372 0 63 2.85372 1
gene 1 22 27 -1.73825 0 64 -1.73825 1
gene 1 22 28 -1.26228 0 65 -1.26228 1
gene 1 22 29 4.37201 0 66 4.37201 1
gene 1 23 27 -0.747398 0 67 -0.747398 1
gene 1 23 28 8 0 68 8 1
gene 1 23 29 -1.74711 0 69 -1.74711 1
gene 1 24 27 -0.28161 0 70 -0.28161 1
gene 1 24 28 5.03234 0 71 5.03234 1
gene 1 24 29 -0.481201 0 72 -0.481201 1
gene 1 25 27 -1.39343 0 73 -1.39343 1
gene 1 25 28 3.62276 0 74 3.62276 1
gene 1 25 29 4.86656 0 75 4.86656 1
gene 1 26 27 1.25886 0 76 1.25886 1
gene 1 26 28 4.99075 0 77 4.99075 1
gene 1 26 29 -1.66042 0 78 -1.66042 1
gene 1 22 34 3.95492 0 96 3.95492 1
gene 1 34 29 0.923338 0 97 0.923338 1
gene 1 2 37 4.09192 0 103 4.09192 1
gene 1 37 27 -1.24672 0 104 -1.24672 1
gene 1 15 37 -2.34332 0 152 -2.34332 1
gene 1 25 64 -0.605029 0 215 -0.605029 1
gene 1 64 28 -3.00966 0 216 -3.00966 1
gene 1 37 64 -1.1684 0 228 -1.1684 1
gene 1 15 64 -1.33946 0 339 -1.33946 1
gene 1 3 64 2.79823 0 356 2.79823 1
gene 1 13 106 0.921506 0 380 0.921506 1
gene 1 106 29 -1.71354 0 381 -1.71354 1
gene 1 20 108 1.07501 0 394 1.07501 1
gene 1 108 28 0.367328 0 395 0.367328 1
gene 1 24 37 2.82623 0 470 2.82623 1
gene 1 18 34 -1.65555 0 550 -1.65555 1
gene 1 5 148 1.77833 0 572 1.77833 1
gene 1 148 27 -1.22043 0 573 -1.22043 1
gene 1 37 155 1.56522 0 601 1.56522 1
gene 1 155 27 1.83393 0 602 1.83393 1
gene 1 17 34 -1.86544 0 610 -1.86544 1
gene 1 2 205 -1.46023 0 785 -1.46023 0
gene 1 205 28 -5.71879 0 786 -5.71879 1
gene 1 2 209 2.22428 0 794 2.22428 1
gene 1 209 205 -2.46678 0 795 -2.46678 1
gene 1 155 34 2.5546 0 811 2.5546 1
gene 1 9 106 -0.976287 0 880 -0.976287 1
genomeend 10

/* Organism #11 Fitness: 0.92584 Error: 0 */
/* ##------$ WINNER 11 SPECIES #77 $------## */
genomestart 11
trait 1 0.419651 0.958633 0 0.133311 0.890568 0.657712 0.14733 0.0627429 
node 1 1 1 1
node 2 1 1 1
node 3 1 1 1
node 4 1 1 1
node 5 1 1 1
node 6 1 1 1
node 7 1 1 1
node 8 1 1 1
node 9 1 1 1
node 10 1 1 1
node 11 1 1 1
node 12 1 1 1
node 13 1 1 1
node 14 1 1 1
node 15 1 1 1
node 16 1 1 1
node 17 1 1 1
node 18 1 1 1
node 19 1 1 1
node 20 1 1 1
node 21 1 1 1
node 22 1 1 1
node 23 1 1 1
node 24 1 1 1
node 25 1 1 1
node 26 1 1 3
node 27 1 0 2
node 28 1 0 2
node 29 1 0 2
node 34 1 0 0
node 37 1 0 0
node 64 1 0 0
node 106 1 0 0
node 108 1 0 0
node 148 1 0 0
node 155 1 0 0
node 205 1 0 0
node 209 1 0 0
gene 1 1 27 -0.0913648 0 1 -0.0913648 1
gene 1 1 28 2.05924 0 2 2.05924 1
gene 1 1 29 -6.11323 0 3 -6.11323 1
gene 1 2 27 -3.82557 0 4 -3.82557 1
gene 1 2 28 -3.68818 0 5 -3.68818 1
gene 1 2 29 0.477462 0 6 0.477462 1
gene 1 3 27 -2.38679 0 7 -2.38679 1
gene 1 3 28 1.5073 0 8 1.5073 1
gene 1 3 29 -2.39254 0 9 -2.39254 1
gene 1 4 27 1.82519 0 10 1.82519 1
gene 1 4 28 2.46338 0 11 2.46338 1
gene 1 4 29 1.27427 0 12 1.27427 1
gene 1 5 27 -1.06406 0 13 -1.06406 1
gene 1 5 28 -7.01494 0 14 -7.01494 1
gene 1 5 29 1.74757 0 15 1.74757 1
gene 1 6 27 4.60143 0 16 4.60143 1
gene 1 6 28 0.78588 0 17 0.78588 1
gene 1 6 29 0.879086 0 18 0.879086 1
gene 1 7 27 -2.91352 0 19 -2.91352 1
gene 1 7 28 2.21534 0 20 2.21534 1
gene 1 7 29 -5.99311 0 21 -5.99311 1
gene 1 8 27 -1.50079 0 22 -1.50079 1
gene 1 8 28 -0.988151 0 23 -0.988151 1
gene 1 8 29 -3.00945 0 24 -3.00945 1
gene 1 9 27 0.914106 0 25 0.914106 1
gene 1 9 28 -0.592617 0 26 -0.592617 1
gene 1 9 29 1.89062 0 27 1.89062 1
gene 1 10 27 2.2486 0 28 2.2486 1
gene 1 10 28 0.6596 0 29 0.6596 1
gene 1 10 29 7.47677 0 30 7.47677 1
gene 1 11 27 -0.77662 0 31 -0.77662 1
gene 1 11 28 -0.241478 0 32 -0.241478 1
gene 1 11 29 1.65634 0 33 1.65634 1
gene 1 12 27 -0.765481 0 34 -0.765481 1
gene 1 12 28 -5.24827 0 35 -5.24827 1
gene 1 12 29 3.43559 0 36 3.43559 1
gene 1 13 27 1.78714 0 37 1.78714 1
gene 1 13 28 1.38029 0 38 1.38029 1
gene 1 13 29 -5.29897 0 39 -5.29897 1
gene 1 14 27 -2.80595 0 40 -2.80595 1
gene 1 14 28 -2.88024 0 41 -2.88024 1
gene 1 14 29 1.02168 0 42 1.02168 1
gene 1 15 27 -0.290384 0 43 -0.290384 1
gene 1 15 28 2.70455 0 44 2.70455 1
gene 1 15 29 -1.09739 0 45 -1.09739 1
gene 1 16 27 -0.20867 0 46 -0.20867 1
gene 1 16 28 1.39229 0 47 1.39229 1
gene 1 16 29 6.96545 0 48 6.96545 1
gene 1 17 27 -0.684225 0 49 -0.684225 1
gene 1 17 28 -0.143228 0 50 -0.143228 1
gene 1 17 29 1.48086 0 51 1.48086 1
gene 1 18 27 -0.40231 0 52 -0.40231 1
gene 1 18 28 2.86621 0 53 2.86621 1
gene 1 18 29 2.285 0 54 2.285 1
gene 1 19 27 -2.20008 0 55 -2.20008 1
gene 1 19 28 1.15387 0 56 1.15387 1
gene 1 19 29 -1.23516 0 57 -1.23516 1
gene 1 20 27 -0.155797 0 58 -0.155797 1
gene 1 20 28 -1.04941 0 59 -1.04941 1
gene 1 20 29 -2.03383 0 60 -2.03383 1
gene 1 21 27 -7.80317 0 61 -7.80317 1
gene 1 21 28 4.47484 0 62 4.47484 1
gene 1 21 29 2.61804 0 63 2.61804 1
gene 1 22 27 0.73299 0 64 0.73299 1
gene 1 22 28 2.6251 0 65 2.6251 1
gene 1 22 29 4.09833 0 66 4.09833 1
gene 1 23 27 2.76444 0 67 2.76444 1
gene 1 23 28 5.76891 0 68 5.76891 1
gene 1 23 29 -1.27827 0 69 -1.27827 1
gene 1 24 27 -3.45629 0 70 -3.45629 1
gene 1 24 28 1.88405 0 71 1.88405 1
gene 1 24 29 0.390332 0 72 0.390332 1
gene 1 25 27 -1.17439 0 73 -1.17439 1
gene 1 25 28 1.79891 0 74 1.79891 1
gene 1 25 29 4.46615 0 75 4.46615 1
gene 1 26 27 1.18859 0 76 1.18859 1
gene 1 26 28 3.37235 0 77 3.37235 1
gene 1 26 29 -0.583341 0 78 -0.583341 1
gene 1 22 34 -1.78762 0 96 -1.78762 1
gene 1 34 29 -0.681173 0 97 -0.681173 1
gene 1 2 37 4.20913 0 103 4.20913 1
gene 1 37 27 -4.52486 0 104 -4.52486 1
gene 1 15 37 -5.53312 0 152 -5.53312 1
gene 1 25 64 1.72376 0 215 1.72376 1
gene 1 64 28 -2.0043 0 216 -2.0043 1
gene 1 37 64 -1.2582 0 228 -1.2582 1
gene 1 15 64 -2.34642 0 339 -2.34642 1
gene 1 3 64 2.32002 0 356 2.32002 1
gene 1 13 106 0.704901 0 380 0.704901 1
gene 1 106 29 1.34777 0 381 1.34777 1
gene 1 20 108 -0.820762 0 394 -0.820762 1
gene 1 108 28 2.52873 0 395 2.52873 1
gene 1 24 37 1.73519 0 470 1.73519 1
gene 1 18 34 -1.66639 0 550 -1.66639 1
gene 1 5 148 3.50102 0 572 3.50102 1
gene 1 148 27 -3.27959 0 573 -3.27959 1
gene 1 37 155 2.20161 0 601 2.20161 1
gene 1 155 27 -2.79733 0 602 -2.79733 1
gene 1 17 34 -0.691969 0 610 -0.691969 1
gene 1 2 205 2.55488 0 785 2.55488 0
gene 1 205 28 -3.31027 0 786 -3.31027 1
gene 1 2 209 1.33527 0 794 1.33527 1
gene 1 209 205 -1.15235 0 795 -1.15235 1
gene 1 155 34 -0.333033 0 811 -0.333033 1
gene 1 9 106 -3.54534 0 880 -3.54534 1
genomeend 11

/* Species #78 : (Size 14) (AF 0) (Age 14)  */


/* Organism #12 Fitness: 0.92604 Error: 0 */
/* ##------$ WINNER 12 SPECIES #78 $------## */
genomestart 12
trait 1 0.149997 0.970136 0 0.225264 0.562273 0 0.305416 0.0462115 
node 1 1 1 1
node 2 1 1 1
node 3 1 1 1
node 4 1 1 1
node 5 1 1 1
node 6 1 1 1
node 7 1 1 1
node 8 1 1 1
node 9 1 1 1
node 10 1 1 1
node 11 1 1 1
node 12 1 1 1
node 13 1 1 1
node 14 1 1 1
node 15 1 1 1
node 16 1 1 1
node 17 1 1 1
node 18 1 1 1
node 19 1 1 1
node 20 1 1 1
node 21 1 1 1
node 22 1 1 1
node 23 1 1 1
node 24 1 1 1
node 25 1 1 1
node 26 1 1 3
node 27 1 0 2
node 28 1 0 2
node 29 1 0 2
node 34 1 0 0
node 37 1 0 0
node 64 1 0 0
node 106 1 0 0
node 108 1 0 0
node 148 1 0 0
node 155 1 0 0
node 205 1 0 0
node 209 1 0 0
node 210 1 0 0
gene 1 1 27 0.307016 0 1 0.307016 1
gene 1 1 28 2.69234 0 2 2.69234 1
gene 1 1 29 -2.61068 0 3 -2.61068 1
gene 1 2 27 -1.38779 0 4 -1.38779 1
gene 1 2 28 -0.586718 0 5 -0.586718 1
gene 1 2 29 -2.67678 0 6 -2.67678 1
gene 1 3 27 -2.02883 0 7 -2.02883 1
gene 1 3 28 -0.623608 0 8 -0.623608 1
gene 1 3 29 -1.25355 0 9 -1.25355 1
gene 1 4 27 2.19848 0 10 2.19848 1
gene 1 4 28 1.60962 0 11 1.60962 1
gene 1 4 29 1.67971 0 12 1.67971 1
gene 1 5 27 -8 0 13 -8 0
gene 1 5 28 -1.65551 0 14 -1.65551 1
gene 1 5 29 -1.83866 0 15 -1.83866 1
gene 1 6 27 2.17711 0 16 2.17711 1
gene 1 6 28 7.15929 0 17 7.15929 1
gene 1 6 29 3.66951 0 18 3.66951 1
gene 1 7 27 -3.15445 0 19 -3.15445 1
gene 1 7 28 -1.18458 0 20 -1.18458 1
gene 1 7 29 0.155229 0 21 0.155229 1
gene 1 8 27 -8 0 22 -8 1
gene 1 8 28 0.474487 0 23 0.474487 1
gene 1 8 29 -4.53172 0 24 -4.53172 1
gene 1 9 27 3.87455 0 25 3.87455 1
gene 1 9 28 -2.18938 0 26 -2.18938 1
gene 1 9 29 -5.71689 0 27 -5.71689 1
gene 1 10 27 -0.84727 0 28 -0.84727 1
gene 1 10 28 3.3771 0 29 3.3771 1
gene 1 10 29 1.20764 0 30 1.20764 1
gene 1 11 27 -1.90192 0 31 -1.90192 1
gene 1 11 28 1.26101 0 32 1.26101 1
gene 1 11 29 -0.98467 0 33 -0.98467 1
gene 1 12 27 -1.3049 0 34 -1.3049 1
gene 1 12 28 1.24615 0 35 1.24615 1
gene 1 12 29 -3.45192 0 36 -3.45192 1
gene 1 13 27 1.34793 0 37 1.34793 1
gene 1 13 28 7.57135 0 38 7.57135 1
gene 1 13 29 -0.298853 0 39 -0.298853 1
gene 1 14 27 4.79321 0 40 4.79321 1
gene 1 14 28 -0.43672 0 41 -0.43672 1
gene 1 14 29 -3.98831 0 42 -3.98831 1
gene 1 15 27 0.667211 0 43 0.667211 1
gene 1 15 28 -0.627289 0 44 -0.627289 1
gene 1 15 29 -6.44906 0 45 -6.44906 1
gene 1 16 27 4.93174 0 46 4.93174 1
gene 1 16 28 7.26584 0 47 7.26584 1
gene 1 16 29 0.615644 0 48 0.615644 1
gene 1 17 27 3.35215 0 49 3.35215 1
gene 1 17 28 6.03677 0 50 6.03677 1
gene 1 17 29 -0.380108 0 51 -0.380108 1
gene 1 18 27 -7.49916 0 52 -7.49916 1
gene 1 18 28 3.83377 0 53 3.83377 1
gene 1 18 29 -6.6261 0 54 -6.6261 1
gene 1 19 27 2.21078 0 55 2.21078 1
gene 1 19 28 -1.30322 0 56 -1.30322 1
gene 1 19 29 0.996425 0 57 0.996425 1
gene 1 20 27 1.51097 0 58 1.51097 1
gene 1 20 28 3.98478 0 59 3.98478 1
gene 1 20 29 2.06847 0 60 2.06847 1
gene 1 21 27 -7.36918 0 61 -7.36918 1
gene 1 21 28 2.24386 0 62 2.24386 1
gene 1 21 29 -1.39531 0 63 -1.39531 1
gene 1 22 27 -1.86027 0 64 -1.86027 1
gene 1 22 28 6.58045 0 65 6.58045 1
gene 1 22 29 -1.27491 0 66 -1.27491 1
gene 1 23 27 -4.70168 0 67 -4.70168 1
gene 1 23 28 3.83156 0 68 3.83156 1
gene 1 23 29 -3.37256 0 69 -3.37256 1
gene 1 24 27 -5.15259 0 70 -5.15259 1
gene 1 24 28 -2.37655 0 71 -2.37655 1
gene 1 24 29 -5.47054 0 72 -5.47054 0
gene 1 25 27 1.05289 0 73 1.05289 1
gene 1 25 28 1.2096 0 74 1.2096 1
gene 1 25 29 1.2855 0 75 1.2855 1
gene 1 26 27 -2.23197 0 76 -2.23197 1
gene 1 26 28 4.70881 0 77 4.70881 1
gene 1 26 29 -1.52522 0 78 -1.52522 1
gene 1 22 34 -2.39227 0 96 -2.39227 1
gene 1 34 29 -1.99759 0 97 -1.99759 1
gene 1 2 37 -0.521561 0 103 -0.521561 1
gene 1 37 27 7.56271 0 104 7.56271 0
gene 1 15 37 -1.19903 0 152 -1.19903 1
gene 1 25 64 -4.1038 0 215 -4.1038 1
gene 1 64 28 2.31361 0 216 2.31361 1
gene 1 37 64 -1.22806 0 228 -1.22806 1
gene 1 15 64 0.838191 0 339 0.838191 1
gene 1 3 64 4.84257 0 356 4.84257 1
gene 1 13 106 -4.37971 0 380 -4.37971 1
gene 1 106 29 0.104602 0 381 0.104602 1
gene 1 20 108 1.81438 0 394 1.81438 1
gene 1 108 28 1.25568 0 395 1.25568 1
gene 1 24 37 -0.30425 0 470 -0.30425 1
gene 1 18 34 4.71992 0 550 4.71992 1
gene 1 5 148 -5.27467 0 572 -5.27467 1
gene 1 148 27 2.84127 0 573 2.84127 1
gene 1 37 155 0.874898 0 601 0.874898 1
gene 1 155 27 -2.48672 0 602 -2.48672 1
gene 1 17 34 -1.67051 0 610 -1.67051 1
gene 1 2 205 -4.84813 0 785 -4.84813 0
gene 1 205 28 4.97757 0 786 4.97757 1
gene 1 2 209 -2.50997 0 794 -2.50997 1
gene 1 209 205 1.60679 0 795 1.60679 1
gene 1 24 210 -0.888712 0 821 -0.888712 1
gene 1 210 29 -1.25149 0 822 -1.25149 1
genomeend 12

/* Organism #13 Fitness: 0.41727 Error: 0 */
genomestart 13
trait 1 0.149997 0.970136 0 0.225264 0.562273 0 0.305416 0.0462115 
node 1 1 1 1
node 2 1 1 1
node 3 1 1 1
node 4 1 1 1
node 5 1 1 1
node 6 1 1 1
node 7 1 1 1
node 8 1 1 1
node 9 1 1 1
node 10 1 1 1
node 11 1 1 1
node 12 1 1 1
node 13 1 1 1
node 14 1 1 1
node 15 1 1 1
node 16 1 1 1
node 17 1 1 1
node 18 1 1 1
node 19 1 1 1
node 20 1 1 1
node 21 1 1 1
node 22 1 1 1
node 23 1 1 1
node 24 1 1 1
node 25 1 1 1
node 26 1 1 3
node 27 1 0 2
node 28 1 0 2
node 29 1 0 2
node 34 1 0 0
node 37 1 0 0
node 64 1 0 0
node 106 1 0 0
node 108 1 0 0
node 148 1 0 0
node 155 1 0 0
node 205 1 0 0
node 209 1 0 0
node 210 1 0 0
gene 1 1 27 -3.01086 0 1 -3.01086 1
gene 1 1 28 -0.650006 0 2 -0.650006 1
gene 1 1 29 -3.44334 0 3 -3.44334 1
gene 1 2 27 0.32239 0 4 0.32239 1
gene 1 2 28 0.420316 0 5 0.420316 0
gene 1 2 29 -2.4546 0 6 -2.4546 1
gene 1 3 27 -2.34756 0 7 -2.34756 1
gene 1 3 28 2.39359 0 8 2.39359 1
gene 1 3 29 -3.00295 0 9 -3.00295 1
gene 1 4 27 1.58376 0 10 1.58376 1
gene 1 4 28 2.12897 0 11 2.12897 1
gene 1 4 29 0.214859 0 12 0.214859 1
gene 1 5 27 -8 0 13 -8 0
gene 1 5 28 -0.709555 0 14 -0.709555 1
gene 1 5 29 -2.38842 0 15 -2.38842 1
gene 1 6 27 -0.2043 0 16 -0.2043 1
gene 1 6 28 7.57965 0 17 7.57965 1
gene 1 6 29 0.657636 0 18 0.657636 1
gene 1 7 27 -1.56799 0 19 -1.56799 1
gene 1 7 28 3.27486 0 20 3.27486 1
gene 1 7 29 -0.0508091 0 21 -0.0508091 1
gene 1 8 27 -6.65085 0 22 -6.65085 1
gene 1 8 28 2.50393 0 23 2.50393 1
gene 1 8 29 -4.86903 0 24 -4.86903 1
gene 1 9 27 1.36502 0 25 1.36502 1
gene 1 9 28 -1.15564 0 26 -1.15564 1
gene 1 9 29 -5.96806 0 27 -5.96806 1
gene 1 10 27 0.614881 0 28 0.614881 1
gene 1 10 28 1.50792 0 29 1.50792 1
gene 1 10 29 -1.468 0 30 -1.468 1
gene 1 11 27 -3.69679 0 31 -3.69679 1
gene 1 11 28 0.30528 0 32 0.30528 1
gene 1 11 29 -1.41025 0 33 -1.41025 1
gene 1 12 27 -0.181585 0 34 -0.181585 1
gene 1 12 28 2.59766 0 35 2.59766 1
gene 1 12 29 -3.99126 0 36 -3.99126 1
gene 1 13 27 -0.781083 0 37 -0.781083 1
gene 1 13 28 6.57778 0 38 6.57778 1
gene 1 13 29 1.64383 0 39 1.64383 1
gene 1 14 27 1.65841 0 40 1.65841 1
gene 1 14 28 -0.534082 0 41 -0.534082 1
gene 1 14 29 -2.93306 0 42 -2.93306 1
gene 1 15 27 2.37236 0 43 2.37236 1
gene 1 15 28 -1.77496 0 44 -1.77496 1
gene 1 15 29 -7.22453 0 45 -7.22453 1
gene 1 16 27 4.78071 0 46 4.78071 1
gene 1 16 28 7.49414 0 47 7.49414 1
gene 1 16 29 2.02747 0 48 2.02747 1
gene 1 17 27 2.6809 0 49 2.6809 1
gene 1 17 28 4.46056 0 50 4.46056 1
gene 1 17 29 0.0145821 0 51 0.0145821 1
gene 1 18 27 -6.68146 0 52 -6.68146 1
gene 1 18 28 5.91688 0 53 5.91688 1
gene 1 18 29 -5.94165 0 54 -5.94165 1
gene 1 19 27 2.29397 0 55 2.29397 1
gene 1 19 28 -3.06112 0 56 -3.06112 1
gene 1 19 29 -0.795696 0 57 -0.795696 1
gene 1 20 27 -1.65216 0 58 -1.65216 1
gene 1 20 28 3.04954 0 59 3.04954 1
gene 1 20 29 1.22475 0 60 1.22475 1
gene 1 21 27 -6.06642 0 61 -6.06642 1
gene 1 21 28 0.691903 0 62 0.691903 1
gene 1 21 29 -0.333777 0 63 -0.333777 1
gene 1 22 27 -4.4442 0 64 -4.4442 1
gene 1 22 28 6.51269 0 65 6.51269 1
gene 1 22 29 -1.42897 0 66 -1.42897 1
gene 1 23 27 -3.84976 0 67 -3.84976 1
gene 1 23 28 2.19949 0 68 2.19949 1
gene 1 23 29 -0.991508 0 69 -0.991508 1
gene 1 24 27 -5.90065 0 70 -5.90065 1
gene 1 24 28 -0.280026 0 71 -0.280026 1
gene 1 24 29 -5.33448 0 72 -5.33448 1
gene 1 25 27 3.48045 0 73 3.48045 1
gene 1 25 28 0.216338 0 74 0.216338 1
gene 1 25 29 -0.233448 0 75 -0.233448 1
gene 1 26 27 -1.57373 0 76 -1.57373 1
gene 1 26 28 4.80605 0 77 4.80605 1
gene 1 26 29 -2.4204 0 78 -2.4204 1
gene 1 22 34 -2.12245 0 96 -2.12245 1
gene 1 34 29 -1.56663 0 97 -1.56663 1
gene 1 2 37 -1.43715 0 103 -1.43715 1
gene 1 37 27 4.99601 0 104 4.99601 0
gene 1 15 37 -1.84973 0 152 -1.84973 1
gene 1 25 64 -6.0519 0 215 -6.0519 1
gene 1 64 28 1.29649 0 216 1.29649 1
gene 1 37 64 -0.353624 0 228 -0.353624 1
gene 1 15 64 0.701659 0 339 0.701659 1
gene 1 3 64 2.28731 0 356 2.28731 1
gene 1 13 106 -3.35589 0 380 -3.35589 1
gene 1 106 29 0.879276 0 381 0.879276 1
gene 1 20 108 0.335999 0 394 0.335999 1
gene 1 108 28 2.08918 0 395 2.08918 1
gene 1 24 37 0.397179 0 470 0.397179 1
gene 1 18 34 1.49895 0 550 1.49895 1
gene 1 5 148 -4.22948 0 572 -4.22948 1
gene 1 148 27 1.09932 0 573 1.09932 1
gene 1 37 155 0.102284 0 601 0.102284 1
gene 1 155 27 -1.16474 0 602 -1.16474 1
gene 1 17 34 -1.02851 0 610 -1.02851 1
gene 1 2 205 -3.60195 0 785 -3.60195 0
gene 1 205 28 3.87524 0 786 3.87524 1
gene 1 2 209 -2.4241 0 794 -2.4241 1
gene 1 209 205 0.783784 0 795 0.783784 1
gene 1 24 210 -1.37502 0 821 -1.37502 1
gene 1 210 29 -1.75024 0 822 -1.75024 1
genomeend 13

/* Organism #14 Fitness: 0.41695 Error: 0 */
genomestart 14
trait 1 0.149997 0.970136 0 0.225264 0.562273 0 0.305416 0.0462115 
node 1 1 1 1
node 2 1 1 1
node 3 1 1 1
node 4 1 1 1
node 5 1 1 1
node 6 1 1 1
node 7 1 1 1
node 8 1 1 1
node 9 1 1 1
node 10 1 1 1
node 11 1 1 1
node 12 1 1 1
node 13 1 1 1
node 14 1 1 1
node 15 1 1 1
node 16 1 1 1
node 17 1 1 1
node 18 1 1 1
node 19 1 1 1
node 20 1 1 1
node 21 1 1 1
node 22 1 1 1
node 23 1 1 1
node 24 1 1 1
node 25 1 1 1
node 26 1 1 3
node 27 1 0 2
node 28 1 0 2
node 29 1 0 2
node 34 1 0 0
node 37 1 0 0
node 64 1 0 0
node 106 1 0 0
node 108 1 0 0
node 148 1 0 0
node 155 1 0 0
node 205 1 0 0
node 209 1 0 0
node 210 1 0 0
gene 1 1 27 -4.69197 0 1 -4.69197 1
gene 1 1 28 -2.68674 0 2 -2.68674 1
gene 1 1 29 -1.52074 0 3 -1.52074 1
gene 1 2 27 -1.19049 0 4 -1.19049 1
gene 1 2 28 -0.491729 0 5 -0.491729 1
gene 1 2 29 -3.13318 0 6 -3.13318 1
gene 1 3 27 2.02246 0 7 2.02246 1
gene 1 3 28 3.35347 0 8 3.35347 1
gene 1 3 29 -5.08301 0 9 -5.08301 1
gene 1 4 27 2.64222 0 10 2.64222 1
gene 1 4 28 -0.155873 0 11 -0.155873 1
gene 1 4 29 2.60133 0 12 2.60133 1
gene 1 5 27 -8 0 13 -8 0
gene 1 5 28 -0.71337 0 14 -0.71337 1
gene 1 5 29 -3.37371 0 15 -3.37371 1
gene 1 6 27 -1.41911 0 16 -1.41911 1
gene 1 6 28 6.17709 0 17 6.17709 1
gene 1 6 29 -0.188337 0 18 -0.188337 1
gene 1 7 27 -3.28596 0 19 -3.28596 1
gene 1 7 28 -0.995972 0 20 -0.995972 1
gene 1 7 29 -1.1475 0 21 -1.1475 1
gene 1 8 27 -5.86996 0 22 -5.86996 1
gene 1 8 28 2.98475 0 23 2.98475 1
gene 1 8 29 -4.86903 0 24 -4.86903 1
gene 1 9 27 0.184561 0 25 0.184561 1
gene 1 9 28 0.274686 0 26 0.274686 1
gene 1 9 29 -3.54176 0 27 -3.54176 1
gene 1 10 27 -1.40233 0 28 -1.40233 1
gene 1 10 28 1.42476 0 29 1.42476 1
gene 1 10 29 -2.59482 0 30 -2.59482 1
gene 1 11 27 -1.52624 0 31 -1.52624 1
gene 1 11 28 -0.289697 0 32 -0.289697 1
gene 1 11 29 0.363704 0 33 0.363704 1
gene 1 12 27 -1.1166 0 34 -1.1166 1
gene 1 12 28 -0.709937 0 35 -0.709937 1
gene 1 12 29 -5.35284 0 36 -5.35284 1
gene 1 13 27 -1.81215 0 37 -1.81215 1
gene 1 13 28 -0.298853 0 38 -0.298853 1
gene 1 13 29 0.902997 0 39 0.902997 1
gene 1 14 27 1.65841 0 40 1.65841 1
gene 1 14 28 -1.66311 0 41 -1.66311 1
gene 1 14 29 -3.06948 0 42 -3.06948 1
gene 1 15 27 1.44375 0 43 1.44375 1
gene 1 15 28 -1.96402 0 44 -1.96402 1
gene 1 15 29 -5.23709 0 45 -5.23709 1
gene 1 16 27 6.51981 0 46 6.51981 1
gene 1 16 28 6.56904 0 47 6.56904 1
gene 1 16 29 -1.7053 0 48 -1.7053 1
gene 1 17 27 0.0827052 0 49 0.0827052 1
gene 1 17 28 -1.08699 0 50 -1.08699 1
gene 1 17 29 -0.178915 0 51 -0.178915 1
gene 1 18 27 -8 0 52 -8 1
gene 1 18 28 5.23151 0 53 5.23151 1
gene 1 18 29 -5.94165 0 54 -5.94165 1
gene 1 19 27 4.63123 0 55 4.63123 1
gene 1 19 28 -3.7574 0 56 -3.7574 1
gene 1 19 29 -3.01081 0 57 -3.01081 1
gene 1 20 27 2.30041 0 58 2.30041 1
gene 1 20 28 3.04954 0 59 3.04954 1
gene 1 20 29 -1.17386 0 60 -1.17386 1
gene 1 21 27 -3.59084 0 61 -3.59084 1
gene 1 21 28 0.54137 0 62 0.54137 1
gene 1 21 29 1.78459 0 63 1.78459 1
gene 1 22 27 -2.35902 0 64 -2.35902 1
gene 1 22 28 1.69149 0 65 1.69149 1
gene 1 22 29 0.500122 0 66 0.500122 1
gene 1 23 27 -4.45051 0 67 -4.45051 1
gene 1 23 28 4.40407 0 68 4.40407 1
gene 1 23 29 -2.01075 0 69 -2.01075 1
gene 1 24 27 -8 0 70 -8 1
gene 1 24 28 -0.675699 0 71 -0.675699 1
gene 1 24 29 -5.33448 0 72 -5.33448 0
gene 1 25 27 -1.45222 0 73 -1.45222 1
gene 1 25 28 -1.21323 0 74 -1.21323 1
gene 1 25 29 -1.35943 0 75 -1.35943 1
gene 1 26 27 -1.88944 0 76 -1.88944 1
gene 1 26 28 3.0114 0 77 3.0114 1
gene 1 26 29 -3.12508 0 78 -3.12508 1
gene 1 22 34 1.05419 0 96 1.05419 1
gene 1 34 29 -2.68178 0 97 -2.68178 1
gene 1 2 37 -0.624027 0 103 -0.624027 1
gene 1 37 27 7.22127 0 104 7.22127 0
gene 1 15 37 -2.78268 0 152 -2.78268 1
gene 1 25 64 -7.31209 0 215 -7.31209 1
gene 1 64 28 0.381624 0 216 0.381624 1
gene 1 37 64 -2.56301 0 228 -2.56301 1
gene 1 15 64 1.02187 0 339 1.02187 1
gene 1 3 64 -0.221946 0 356 -0.221946 1
gene 1 13 106 -3.35589 0 380 -3.35589 1
gene 1 106 29 0.879276 0 381 0.879276 1
gene 1 20 108 -1.90771 0 394 -1.90771 1
gene 1 108 28 1.04461 0 395 1.04461 1
gene 1 24 37 2.15642 0 470 2.15642 1
gene 1 18 34 1.0733 0 550 1.0733 1
gene 1 5 148 -4.888 0 572 -4.888 1
gene 1 148 27 1.09932 0 573 1.09932 1
gene 1 37 155 1.40573 0 601 1.40573 1
gene 1 155 27 -2.7678 0 602 -2.7678 1
gene 1 17 34 -0.226638 0 610 -0.226638 1
gene 1 2 205 -3.83198 0 785 -3.83198 0
gene 1 205 28 5.79119 0 786 5.79119 1
gene 1 2 209 -1.04947 0 794 -1.04947 1
gene 1 209 205 0.783784 0 795 0.783784 1
gene 1 24 210 0.594945 0 821 0.594945 1
gene 1 210 29 -0.58298 0 822 -0.58298 1
genomeend 14

/* Organism #15 Fitness: 0.92568 Error: 0 */
/* ##------$ WINNER 15 SPECIES #78 $------## */
genomestart 15
trait 1 0.149997 0.970136 0 0.225264 0.562273 0 0.305416 0.0462115 
node 1 1 1 1
node 2 1 1 1
node 3 1 1 1
node 4 1 1 1
node 5 1 1 1
node 6 1 1 1
node 7 1 1 1
node 8 1 1 1
node 9 1 1 1
node 10 1 1 1
node 11 1 1 1
node 12 1 1 1
node 13 1 1 1
node 14 1 1 1
node 15 1 1 1
node 16 1 1 1
node 17 1 1 1
node 18 1 1 1
node 19 1 1 1
node 20 1 1 1
node 21 1 1 1
node 22 1 1 1
node 23 1 1 1
node 24 1 1 1
node 25 1 1 1
node 26 1 1 3
node 27 1 0 2
node 28 1 0 2
node 29 1 0 2
node 34 1 0 0
node 37 1 0 0
node 64 1 0 0
node 106 1 0 0
node 108 1 0 0
node 148 1 0 0
node 155 1 0 0
node 205 1 0 0
node 209 1 0 0
node 210 1 0 0
gene 1 1 27 -8 0 1 -8 1
gene 1 1 28 -2.94145 0 2 -2.94145 1
gene 1 1 29 -5.60493 0 3 -5.60493 1
gene 1 2 27 -0.169492 0 4 -0.169492 1
gene 1 2 28 3.73371 0 5 3.73371 0
gene 1 2 29 0.135578 0 6 0.135578 1
gene 1 3 27 -3.2675 0 7 -3.2675 1
gene 1 3 28 6.62809 0 8 6.62809 1
gene 1 3 29 -7.12348 0 9 -7.12348 1
gene 1 4 27 -0.156178 0 10 -0.156178 1
gene 1 4 28 4.40649 0 11 4.40649 1
gene 1 4 29 1.24566 0 12 1.24566 1
gene 1 5 27 -8 0 13 -8 0
gene 1 5 28 -0.409749 0 14 -0.409749 1
gene 1 5 29 -2.37747 0 15 -2.37747 1
gene 1 6 27 -0.83029 0 16 -0.83029 1
gene 1 6 28 7.07041 0 17 7.07041 1
gene 1 6 29 -2.72664 0 18 -2.72664 1
gene 1 7 27 -0.823084 0 19 -0.823084 1
gene 1 7 28 8 0 20 8 1
gene 1 7 29 1.90951 0 21 1.90951 1
gene 1 8 27 -6.47804 0 22 -6.47804 1
gene 1 8 28 6.85026 0 23 6.85026 1
gene 1 8 29 -6.48399 0 24 -6.48399 1
gene 1 9 27 1.08394 0 25 1.08394 1
gene 1 9 28 0.55126 0 26 0.55126 1
gene 1 9 29 -7.11846 0 27 -7.11846 1
gene 1 10 27 1.47788 0 28 1.47788 1
gene 1 10 28 -1.85514 0 29 -1.85514 1
gene 1 10 29 -3.10951 0 30 -3.10951 1
gene 1 11 27 -7.00156 0 31 -7.00156 1
gene 1 11 28 -2.29562 0 32 -2.29562 1
gene 1 11 29 0.169769 0 33 0.169769 1
gene 1 12 27 2.74018 0 34 2.74018 1
gene 1 12 28 4.84077 0 35 4.84077 1
gene 1 12 29 -2.39949 0 36 -2.39949 1
gene 1 13 27 -3.19407 0 37 -3.19407 1
gene 1 13 28 5.77022 0 38 5.77022 1
gene 1 13 29 3.16582 0 39 3.16582 1
gene 1 14 27 -1.36705 0 40 -1.36705 1
gene 1 14 28 -0.491897 0 41 -0.491897 1
gene 1 14 29 -3.28784 0 42 -3.28784 1
gene 1 15 27 5.49745 0 43 5.49745 1
gene 1 15 28 -1.14065 0 44 -1.14065 1
gene 1 15 29 -7.5146 0 45 -7.5146 1
gene 1 16 27 3.14053 0 46 3.14053 1
gene 1 16 28 7.25169 0 47 7.25169 1
gene 1 16 29 1.62672 0 48 1.62672 1
gene 1 17 27 2.65923 0 49 2.65923 1
gene 1 17 28 2.82415 0 50 2.82415 1
gene 1 17 29 2.63529 0 51 2.63529 1
gene 1 18 27 -7.00316 0 52 -7.00316 1
gene 1 18 28 7.31227 0 53 7.31227 1
gene 1 18 29 -5.94821 0 54 -5.94821 1
gene 1 19 27 0.154881 0 55 0.154881 1
gene 1 19 28 -2.53143 0 56 -2.53143 1
gene 1 19 29 -4.28327 0 57 -4.28327 1
gene 1 20 27 -3.62308 0 58 -3.62308 0
gene 1 20 28 4.30668 0 59 4.30668 1
gene 1 20 29 2.56256 0 60 2.56256 1
gene 1 21 27 -3.64272 0 61 -3.64272 1
gene 1 21 28 -2.29023 0 62 -2.29023 1
gene 1 21 29 0.349857 0 63 0.349857 1
gene 1 22 27 -8 0 64 -8 1
gene 1 22 28 5.86752 0 65 5.86752 1
gene 1 22 29 -2.72244 0 66 -2.72244 1
gene 1 23 27 -4.83978 0 67 -4.83978 1
gene 1 23 28 -1.7098 0 68 -1.7098 1
gene 1 23 29 0.23381 0 69 0.23381 1
gene 1 24 27 -6.41342 0 70 -6.41342 1
gene 1 24 28 0.535333 0 71 0.535333 1
gene 1 24 29 -4.061 0 72 -4.061 0
gene 1 25 27 7.14469 0 73 7.14469 1
gene 1 25 28 -2.4031 0 74 -2.4031 1
gene 1 25 29 -0.913896 0 75 -0.913896 1
gene 1 26 27 0.770211 0 76 0.770211 1
gene 1 26 28 3.09964 0 77 3.09964 1
gene 1 26 29 -1.78943 0 78 -1.78943 1
gene 1 22 34 -2.26852 0 96 -2.26852 1
gene 1 34 29 -1.16672 0 97 -1.16672 1
gene 1 2 37 -4.10764 0 103 -4.10764 1
gene 1 37 27 4.69668 0 104 4.69668 0
gene 1 15 37 -2.98681 0 152 -2.98681 1
gene 1 25 64 -8 0 215 -8 1
gene 1 64 28 -0.437044 0 216 -0.437044 1
gene 1 37 64 0.520817 0 228 0.520817 1
gene 1 15 64 0.565126 0 339 0.565126 1
gene 1 3 64 -1.85774 0 356 -1.85774 1
gene 1 13 106 -2.33207 0 380 -2.33207 1
gene 1 106 29 0.159536 0 381 0.159536 1
gene 1 20 108 -1.14238 0 394 -1.14238 1
gene 1 108 28 2.31094 0 395 2.31094 1
gene 1 24 37 1.09861 0 470 1.09861 1
gene 1 18 34 -0.871761 0 550 -0.871761 1
gene 1 5 148 -3.1843 0 572 -3.1843 1
gene 1 148 27 -0.642624 0 573 -0.642624 1
gene 1 37 155 0.52569 0 601 0.52569 1
gene 1 155 27 0.295495 0 602 0.295495 1
gene 1 17 34 -1.27674 0 610 -1.27674 1
gene 1 2 205 -1.30806 0 785 -1.30806 0
gene 1 205 28 0.397809 0 786 0.397809 1
gene 1 2 209 -1.63958 0 794 -1.63958 1
gene 1 209 205 -0.604808 0 795 -0.604808 1
gene 1 24 210 -2.70159 0 821 -2.70159 1
gene 1 210 29 -0.507065 0 822 -0.507065 1
genomeend 15

/* Organism #16 Fitness: 0.41647 Error: 0 */
genomestart 16
trait 1 0.145392 0.970998 0 0.225264 0.607818 0.000995666 0.30653 0.126185 
node 1 1 1 1
node 2 1 1 1
node 3 1 1 1
node 4 1 1 1
node 5 1 1 1
node 6 1 1 1
node 7 1 1 1
node 8 1 1 1
node 9 1 1 1
node 10 1 1 1
node 11 1 1 1
node 12 1 1 1
node 13 1 1 1
node 14 1 1 1
node 15 1 1 1
node 16 1 1 1
node 17 1 1 1
node 18 1 1 1
node 19 1 1 1
node 20 1 1 1
node 21 1 1 1
node 22 1 1 1
node 23 1 1 1
node 24 1 1 1
node 25 1 1 1
node 26 1 1 3
node 27 1 0 2
node 28 1 0 2
node 29 1 0 2
node 34 1 0 0
node 37 1 0 0
node 64 1 0 0
node 106 1 0 0
node 108 1 0 0
node 148 1 0 0
node 155 1 0 0
node 205 1 0 0
node 209 1 0 0
node 210 1 0 0
gene 1 1 27 -1.3023 0 1 -1.3023 1
gene 1 1 28 -3.85723 0 2 -3.85723 1
gene 1 1 29 -0.894169 0 3 -0.894169 1
gene 1 2 27 -0.209567 0 4 -0.209567 1
gene 1 2 28 -2.50092 0 5 -2.50092 1
gene 1 2 29 -3.41227 0 6 -3.41227 1
gene 1 3 27 -2.52117 0 7 -2.52117 1
gene 1 3 28 -1.6364 0 8 -1.6364 1
gene 1 3 29 0.497452 0 9 0.497452 1
gene 1 4 27 2.13046 0 10 2.13046 1
gene 1 4 28 2.07236 0 11 2.07236 1
gene 1 4 29 -1.66509 0 12 -1.66509 1
gene 1 5 27 -7.60158 0 13 -7.60158 0
gene 1 5 28 -0.774007 0 14 -0.774007 1
gene 1 5 29 0.0760674 0 15 0.0760674 1
gene 1 6 27 0.0626392 0 16 0.0626392 1
gene 1 6 28 8 0 17 8 1
gene 1 6 29 1.56381 0 18 1.56381 1
gene 1 7 27 -2.64342 0 19 -2.64342 1
gene 1 7 28 6.78674 0 20 6.78674 1
gene 1 7 29 2.92375 0 21 2.92375 1
gene 1 8 27 -2.7513 0 22 -2.7513 1
gene 1 8 28 0.577715 0 23 0.577715 1
gene 1 8 29 -0.948658 0 24 -0.948658 1
gene 1 9 27 2.2869 0 25 2.2869 1
gene 1 9 28 -1.65157 0 26 -1.65157 1
gene 1 9 29 -6.26058 0 27 -6.26058 1
gene 1 10 27 0.0331889 0 28 0.0331889 1
gene 1 10 28 -0.607242 0 29 -0.607242 1
gene 1 10 29 1.83243 0 30 1.83243 1
gene 1 11 27 -1.6155 0 31 -1.6155 1
gene 1 11 28 1.72882 0 32 1.72882 1
gene 1 11 29 -0.892662 0 33 -0.892662 1
gene 1 12 27 -6.56133 0 34 -6.56133 1
gene 1 12 28 -2.28004 0 35 -2.28004 1
gene 1 12 29 -5.30722 0 36 -5.30722 1
gene 1 13 27 -0.121616 0 37 -0.121616 1
gene 1 13 28 7.90736 0 38 7.90736 1
gene 1 13 29 -2.35389 0 39 -2.35389 1
gene 1 14 27 -0.274859 0 40 -0.274859 1
gene 1 14 28 -3.80961 0 41 -3.80961 1
gene 1 14 29 -2.63691 0 42 -2.63691 1
gene 1 15 27 0.298318 0 43 0.298318 1
gene 1 15 28 1.30407 0 44 1.30407 1
gene 1 15 29 -8 0 45 -8 1
gene 1 16 27 0.271233 0 46 0.271233 1
gene 1 16 28 6.40682 0 47 6.40682 1
gene 1 16 29 0.225236 0 48 0.225236 1
gene 1 17 27 1.58193 0 49 1.58193 1
gene 1 17 28 -0.52179 0 50 -0.52179 1
gene 1 17 29 -0.275887 0 51 -0.275887 1
gene 1 18 27 -1.46287 0 52 -1.46287 1
gene 1 18 28 3.03624 0 53 3.03624 1
gene 1 18 29 1.52242 0 54 1.52242 1
gene 1 19 27 4.26628 0 55 4.26628 1
gene 1 19 28 1.02379 0 56 1.02379 1
gene 1 19 29 1.0274 0 57 1.0274 1
gene 1 20 27 -2.95366 0 58 -2.95366 0
gene 1 20 28 1.7757 0 59 1.7757 1
gene 1 20 29 -5.93533 0 60 -5.93533 1
gene 1 21 27 -5.3302 0 61 -5.3302 1
gene 1 21 28 2.87216 0 62 2.87216 1
gene 1 21 29 -2.38395 0 63 -2.38395 1
gene 1 22 27 -1.19881 0 64 -1.19881 1
gene 1 22 28 5.57635 0 65 5.57635 1
gene 1 22 29 -3.14077 0 66 -3.14077 1
gene 1 23 27 -0.28695 0 67 -0.28695 1
gene 1 23 28 0.164247 0 68 0.164247 1
gene 1 23 29 -5.04459 0 69 -5.04459 1
gene 1 24 27 -4.19492 0 70 -4.19492 1
gene 1 24 28 -0.31373 0 71 -0.31373 1
gene 1 24 29 -3.75062 0 72 -3.75062 0
gene 1 25 27 5.91052 0 73 5.91052 1
gene 1 25 28 0.805765 0 74 0.805765 1
gene 1 25 29 -0.799146 0 75 -0.799146 1
gene 1 26 27 -6.99686 0 76 -6.99686 1
gene 1 26 28 2.55584 0 77 2.55584 1
gene 1 26 29 -0.226052 0 78 -0.226052 1
gene 1 22 34 -0.580462 0 96 -0.580462 1
gene 1 34 29 -2.08193 0 97 -2.08193 1
gene 1 2 37 2.44226 0 103 2.44226 1
gene 1 37 27 7.10064 0 104 7.10064 0
gene 1 15 37 0.767922 0 152 0.767922 1
gene 1 25 64 -2.51742 0 215 -2.51742 1
gene 1 64 28 1.62564 0 216 1.62564 1
gene 1 37 64 -1.58467 0 228 -1.58467 1
gene 1 15 64 2.17879 0 339 2.17879 1
gene 1 3 64 2.52744 0 356 2.52744 1
gene 1 13 106 0.330134 0 380 0.330134 1
gene 1 106 29 -2.30483 0 381 -2.30483 1
gene 1 20 108 1.81438 0 394 1.81438 1
gene 1 108 28 -2.11348 0 395 -2.11348 1
gene 1 24 37 2.266 0 470 2.266 1
gene 1 18 34 3.94807 0 550 3.94807 1
gene 1 5 148 -0.484863 0 572 -0.484863 1
gene 1 148 27 2.64092 0 573 2.64092 1
gene 1 37 155 -0.0564507 0 601 -0.0564507 1
gene 1 155 27 2.17673 0 602 2.17673 1
gene 1 17 34 -1.67051 0 610 -1.67051 1
gene 1 2 205 -5.55942 0 785 -5.55942 0
gene 1 205 28 4.97757 0 786 4.97757 1
gene 1 2 209 -0.539922 0 794 -0.539922 1
gene 1 209 205 -1.95472 0 795 -1.95472 1
gene 1 24 210 -0.888712 0 821 -0.888712 1
gene 1 210 29 -1.49083 0 822 -1.49083 1
genomeend 16

/* Organism #17 Fitness: 0.92476 Error: 0 */
/* ##------$ WINNER 17 SPECIES #78 $------## */
genomestart 17
trait 1 0.140787 0.971859 0 0.225264 0.653363 0.00199133 0.307645 0.206159 
node 1 1 1 1
node 2 1 1 1
node 3 1 1 1
node 4 1 1 1
node 5 1 1 1
node 6 1 1 1
node 7 1 1 1
node 8 1 1 1
node 9 1 1 1
node 10 1 1 1
node 11 1 1 1
node 12 1 1 1
node 13 1 1 1
node 14 1 1 1
node 15 1 1 1
node 16 1 1 1
node 17 1 1 1
node 18 1 1 1
node 19 1 1 1
node 20 1 1 1
node 21 1 1 1
node 22 1 1 1
node 23 1 1 1
node 24 1 1 1
node 25 1 1 1
node 26 1 1 3
node 27 1 0 2
node 28 1 0 2
node 29 1 0 2
node 34 1 0 0
node 37 1 0 0
node 64 1 0 0
node 106 1 0 0
node 108 1 0 0
node 148 1 0 0
node 155 1 0 0
node 205 1 0 0
node 209 1 0 0
node 210 1 0 0
gene 1 1 27 1.37768 0 1 1.37768 1
gene 1 1 28 -3.36276 0 2 -3.36276 1
gene 1 1 29 -0.216403 0 3 -0.216403 1
gene 1 2 27 1.64024 0 4 1.64024 1
gene 1 2 28 3.00476 0 5 3.00476 0
gene 1 2 29 -2.90489 0 6 -2.90489 1
gene 1 3 27 -5.83347 0 7 -5.83347 1
gene 1 3 28 -0.695288 0 8 -0.695288 1
gene 1 3 29 1.68348 0 9 1.68348 1
gene 1 4 27 2.95331 0 10 2.95331 1
gene 1 4 28 1.98614 0 11 1.98614 1
gene 1 4 29 1.26239 0 12 1.26239 1
gene 1 5 27 -7.26865 0 13 -7.26865 1
gene 1 5 28 -1.10796 0 14 -1.10796 1
gene 1 5 29 -0.934477 0 15 -0.934477 1
gene 1 6 27 0.281533 0 16 0.281533 1
gene 1 6 28 8 0 17 8 1
gene 1 6 29 -1.23271 0 18 -1.23271 1
gene 1 7 27 -0.599908 0 19 -0.599908 1
gene 1 7 28 6.04132 0 20 6.04132 1
gene 1 7 29 3.22352 0 21 3.22352 1
gene 1 8 27 -5.70831 0 22 -5.70831 1
gene 1 8 28 3.19864 0 23 3.19864 1
gene 1 8 29 1.18619 0 24 1.18619 1
gene 1 9 27 -0.77044 0 25 -0.77044 1
gene 1 9 28 -4.24912 0 26 -4.24912 1
gene 1 9 29 -7.10422 0 27 -7.10422 1
gene 1 10 27 -3.83477 0 28 -3.83477 1
gene 1 10 28 -1.73315 0 29 -1.73315 1
gene 1 10 29 2.6558 0 30 2.6558 1
gene 1 11 27 -4.17791 0 31 -4.17791 1
gene 1 11 28 2.2931 0 32 2.2931 1
gene 1 11 29 -0.292439 0 33 -0.292439 1
gene 1 12 27 -4.05255 0 34 -4.05255 1
gene 1 12 28 0.230491 0 35 0.230491 1
gene 1 12 29 -0.684606 0 36 -0.684606 1
gene 1 13 27 -1.52673 0 37 -1.52673 1
gene 1 13 28 5.50017 0 38 5.50017 1
gene 1 13 29 -2.41353 0 39 -2.41353 1
gene 1 14 27 0.139964 0 40 0.139964 1
gene 1 14 28 -4.63369 0 41 -4.63369 1
gene 1 14 29 -1.90218 0 42 -1.90218 1
gene 1 15 27 1.25492 0 43 1.25492 1
gene 1 15 28 -2.51747 0 44 -2.51747 1
gene 1 15 29 -3.59413 0 45 -3.59413 1
gene 1 16 27 2.2412 0 46 2.2412 1
gene 1 16 28 3.83518 0 47 3.83518 1
gene 1 16 29 5.87388 0 48 5.87388 1
gene 1 17 27 0.827128 0 49 0.827128 1
gene 1 17 28 -0.420545 0 50 -0.420545 1
gene 1 17 29 0.532882 0 51 0.532882 1
gene 1 18 27 -4.40577 0 52 -4.40577 1
gene 1 18 28 2.07117 0 53 2.07117 1
gene 1 18 29 2.98692 0 54 2.98692 1
gene 1 19 27 2.21387 0 55 2.21387 1
gene 1 19 28 1.30906 0 56 1.30906 1
gene 1 19 29 3.26994 0 57 3.26994 1
gene 1 20 27 -1.22211 0 58 -1.22211 0
gene 1 20 28 4.11427 0 59 4.11427 1
gene 1 20 29 -5.31024 0 60 -5.31024 1
gene 1 21 27 -7.09379 0 61 -7.09379 1
gene 1 21 28 2.2518 0 62 2.2518 1
gene 1 21 29 3.08385 0 63 3.08385 1
gene 1 22 27 -2.83613 0 64 -2.83613 1
gene 1 22 28 5.37874 0 65 5.37874 1
gene 1 22 29 -4.44216 0 66 -4.44216 1
gene 1 23 27 2.4501 0 67 2.4501 1
gene 1 23 28 1.32212 0 68 1.32212 1
gene 1 23 29 -4.8672 0 69 -4.8672 1
gene 1 24 27 -3.31166 0 70 -3.31166 1
gene 1 24 28 -4.27717 0 71 -4.27717 1
gene 1 24 29 -5.23153 0 72 -5.23153 0
gene 1 25 27 3.38824 0 73 3.38824 1
gene 1 25 28 2.88357 0 74 2.88357 1
gene 1 25 29 -3.86959 0 75 -3.86959 1
gene 1 26 27 -6.42335 0 76 -6.42335 1
gene 1 26 28 3.34192 0 77 3.34192 1
gene 1 26 29 -3.58652 0 78 -3.58652 1
gene 1 22 34 0.121812 0 96 0.121812 1
gene 1 34 29 -2.95499 0 97 -2.95499 1
gene 1 2 37 -0.667268 0 103 -0.667268 1
gene 1 37 27 5.00692 0 104 5.00692 0
gene 1 15 37 1.8202 0 152 1.8202 1
gene 1 25 64 -1.2844 0 215 -1.2844 1
gene 1 64 28 0.403912 0 216 0.403912 1
gene 1 37 64 0.760159 0 228 0.760159 1
gene 1 15 64 -0.344249 0 339 -0.344249 1
gene 1 3 64 0.950637 0 356 0.950637 1
gene 1 13 106 -0.504318 0 380 -0.504318 1
gene 1 106 29 -1.75495 0 381 -1.75495 1
gene 1 20 108 5.62913 0 394 5.62913 1
gene 1 108 28 3.22369 0 395 3.22369 1
gene 1 24 37 0.993616 0 470 0.993616 1
gene 1 18 34 4.19435 0 550 4.19435 1
gene 1 5 148 -3.86715 0 572 -3.86715 1
gene 1 148 27 2.43614 0 573 2.43614 1
gene 1 37 155 0.272253 0 601 0.272253 1
gene 1 155 27 1.16382 0 602 1.16382 1
gene 1 17 34 -1.60169 0 610 -1.60169 1
gene 1 2 205 2.00446 0 785 2.00446 0
gene 1 205 28 2.15033 0 786 2.15033 1
gene 1 2 209 -1.09246 0 794 -1.09246 1
gene 1 209 205 -0.700026 0 795 -0.700026 1
gene 1 24 210 -0.993225 0 821 -0.993225 1
gene 1 210 29 0.108646 0 822 0.108646 1
genomeend 17

/* Organism #18 Fitness: 0.92252 Error: 0 */
/* ##------$ WINNER 18 SPECIES #78 $------## */
genomestart 18
trait 1 0.149997 0.970136 0 0.225264 0.562273 0 0.305416 0.0462115 
node 1 1 1 1
node 2 1 1 1
node 3 1 1 1
node 4 1 1 1
node 5 1 1 1
node 6 1 1 1
node 7 1 1 1
node 8 1 1 1
node 9 1 1 1
node 10 1 1 1
node 11 1 1 1
node 12 1 1 1
node 13 1 1 1
node 14 1 1 1
node 15 1 1 1
node 16 1 1 1
node 17 1 1 1
node 18 1 1 1
node 19 1 1 1
node 20 1 1 1
node 21 1 1 1
node 22 1 1 1
node 23 1 1 1
node 24 1 1 1
node 25 1 1 1
node 26 1 1 3
node 27 1 0 2
node 28 1 0 2
node 29 1 0 2
node 34 1 0 0
node 37 1 0 0
node 64 1 0 0
node 106 1 0 0
node 108 1 0 0
node 148 1 0 0
node 155 1 0 0
node 205 1 0 0
node 209 1 0 0
node 210 1 0 0
gene 1 1 27 -0.739921 0 1 -0.739921 1
gene 1 1 28 1.04976 0 2 1.04976 1
gene 1 1 29 -4.59057 0 3 -4.59057 1
gene 1 2 27 0.347644 0 4 0.347644 1
gene 1 2 28 -2.0172 0 5 -2.0172 1
gene 1 2 29 -3.9845 0 6 -3.9845 1
gene 1 3 27 -0.389373 0 7 -0.389373 1
gene 1 3 28 -2.04287 0 8 -2.04287 1
gene 1 3 29 -0.113071 0 9 -0.113071 1
gene 1 4 27 0.583361 0 10 0.583361 1
gene 1 4 28 3.64513 0 11 3.64513 1
gene 1 4 29 3.41224 0 12 3.41224 1
gene 1 5 27 -8 0 13 -8 0
gene 1 5 28 -1.92537 0 14 -1.92537 1
gene 1 5 29 -0.490738 0 15 -0.490738 1
gene 1 6 27 3.99548 0 16 3.99548 1
gene 1 6 28 8 0 17 8 1
gene 1 6 29 4.72575 0 18 4.72575 1
gene 1 7 27 -2.99049 0 19 -2.99049 1
gene 1 7 28 -0.379269 0 20 -0.379269 1
gene 1 7 29 -0.452013 0 21 -0.452013 1
gene 1 8 27 -6.34986 0 22 -6.34986 1
gene 1 8 28 2.26516 0 23 2.26516 1
gene 1 8 29 -5.1514 0 24 -5.1514 1
gene 1 9 27 4.63065 0 25 4.63065 1
gene 1 9 28 -3.62085 0 26 -3.62085 1
gene 1 9 29 -5.78403 0 27 -5.78403 1
gene 1 10 27 0.450911 0 28 0.450911 1
gene 1 10 28 5.02373 0 29 5.02373 1
gene 1 10 29 3.00449 0 30 3.00449 1
gene 1 11 27 -4.07927 0 31 -4.07927 1
gene 1 11 28 -0.039388 0 32 -0.039388 1
gene 1 11 29 -0.920047 0 33 -0.920047 1
gene 1 12 27 -2.7768 0 34 -2.7768 1
gene 1 12 28 2.70844 0 35 2.70844 1
gene 1 12 29 -3.77305 0 36 -3.77305 1
gene 1 13 27 0.988189 0 37 0.988189 1
gene 1 13 28 8 0 38 8 1
gene 1 13 29 -0.531861 0 39 -0.531861 1
gene 1 14 27 2.68995 0 40 2.68995 1
gene 1 14 28 1.82058 0 41 1.82058 1
gene 1 14 29 -6.16253 0 42 -6.16253 1
gene 1 15 27 0.749687 0 43 0.749687 1
gene 1 15 28 -2.87711 0 44 -2.87711 1
gene 1 15 29 -5.27791 0 45 -5.27791 1
gene 1 16 27 5.04245 0 46 5.04245 1
gene 1 16 28 5.06713 0 47 5.06713 1
gene 1 16 29 1.65236 0 48 1.65236 1
gene 1 17 27 2.33589 0 49 2.33589 1
gene 1 17 28 7.83744 0 50 7.83744 1
gene 1 17 29 -0.556505 0 51 -0.556505 1
gene 1 18 27 -8 0 52 -8 1
gene 1 18 28 1.81283 0 53 1.81283 1
gene 1 18 29 -8 0 54 -8 1
gene 1 19 27 2.54145 0 55 2.54145 1
gene 1 19 28 -2.17803 0 56 -2.17803 1
gene 1 19 29 -0.042959 0 57 -0.042959 1
gene 1 20 27 0.631657 0 58 0.631657 1
gene 1 20 28 5.99321 0 59 5.99321 1
gene 1 20 29 0.9138 0 60 0.9138 1
gene 1 21 27 -5.5045 0 61 -5.5045 1
gene 1 21 28 3.55402 0 62 3.55402 1
gene 1 21 29 -1.79655 0 63 -1.79655 1
gene 1 22 27 -3.51751 0 64 -3.51751 1
gene 1 22 28 6.0402 0 65 6.0402 1
gene 1 22 29 0.928831 0 66 0.928831 1
gene 1 23 27 -6.55995 0 67 -6.55995 1
gene 1 23 28 4.5418 0 68 4.5418 1
gene 1 23 29 -4.04626 0 69 -4.04626 1
gene 1 24 27 -2.84264 0 70 -2.84264 1
gene 1 24 28 -4.0746 0 71 -4.0746 1
gene 1 24 29 -6.1598 0 72 -6.1598 0
gene 1 25 27 2.30094 0 73 2.30094 1
gene 1 25 28 2.0426 0 74 2.0426 1
gene 1 25 29 -0.736049 0 75 -0.736049 1
gene 1 26 27 -3.06215 0 76 -3.06215 1
gene 1 26 28 2.77378 0 77 2.77378 1
gene 1 26 29 -1.28145 0 78 -1.28145 1
gene 1 22 34 -4.41664 0 96 -4.41664 1
gene 1 34 29 -2.0394 0 97 -2.0394 1
gene 1 2 37 -1.42888 0 103 -1.42888 1
gene 1 37 27 8 0 104 8 0
gene 1 15 37 -0.389683 0 152 -0.389683 1
gene 1 25 64 -6.32212 0 215 -6.32212 1
gene 1 64 28 2.46475 0 216 2.46475 1
gene 1 37 64 -1.19091 0 228 -1.19091 1
gene 1 15 64 2.26791 0 339 2.26791 1
gene 1 3 64 4.84257 0 356 4.84257 1
gene 1 13 106 -2.82823 0 380 -2.82823 1
gene 1 106 29 -1.7394 0 381 -1.7394 1
gene 1 20 108 1.81438 0 394 1.81438 1
gene 1 108 28 1.25568 0 395 1.25568 1
gene 1 24 37 -0.30425 0 470 -0.30425 1
gene 1 18 34 4.71992 0 550 4.71992 1
gene 1 5 148 -5.27467 0 572 -5.27467 1
gene 1 148 27 2.84127 0 573 2.84127 1
gene 1 37 155 0.364781 0 601 0.364781 1
gene 1 155 27 -0.197684 0 602 -0.197684 1
gene 1 17 34 -0.675527 0 610 -0.675527 1
gene 1 2 205 -5.25662 0 785 -5.25662 0
gene 1 205 28 4.33966 0 786 4.33966 1
gene 1 2 209 -2.50997 0 794 -2.50997 1
gene 1 209 205 0.895863 0 795 0.895863 1
gene 1 24 210 -2.24212 0 821 -2.24212 1
gene 1 210 29 -0.809732 0 822 -0.809732 1
genomeend 18

/* Organism #19 Fitness: 0.91988 Error: 0 */
/* ##------$ WINNER 19 SPECIES #78 $------## */
genomestart 19
trait 1 0.149997 0.970136 0 0.225264 0.562273 0 0.305416 0.0462115 
node 1 1 1 1
node 2 1 1 1
node 3 1 1 1
node 4 1 1 1
node 5 1 1 1
node 6 1 1 1
node 7 1 1 1
node 8 1 1 1
node 9 1 1 1
node 10 1 1 1
node 11 1 1 1
node 12 1 1 1
node 13 1 1 1
node 14 1 1 1
node 15 1 1 1
node 16 1 1 1
node 17 1 1 1
node 18 1 1 1
node 19 1 1 1
node 20 1 1 1
node 21 1 1 1
node 22 1 1 1
node 23 1 1 1
node 24 1 1 1
node 25 1 1 1
node 26 1 1 3
node 27 1 0 2
node 28 1 0 2
node 29 1 0 2
node 34 1 0 0
node 37 1 0 0
node 64 1 0 0
node 106 1 0 0
node 108 1 0 0
node 148 1 0 0
node 155 1 0 0
node 205 1 0 0
node 209 1 0 0
node 210 1 0 0
gene 1 1 27 -5.7292 0 1 -5.7292 1
gene 1 1 28 -6.15848 0 2 -6.15848 1
gene 1 1 29 -4.65527 0 3 -4.65527 1
gene 1 2 27 0.796113 0 4 0.796113 1
gene 1 2 28 0.81988 0 5 0.81988 0
gene 1 2 29 -2.90414 0 6 -2.90414 1
gene 1 3 27 -2.59548 0 7 -2.59548 1
gene 1 3 28 5.36729 0 8 5.36729 1
gene 1 3 29 -4.69604 0 9 -4.69604 1
gene 1 4 27 1.16733 0 10 1.16733 1
gene 1 4 28 1.29521 0 11 1.29521 1
gene 1 4 29 -1.66542 0 12 -1.66542 1
gene 1 5 27 -8 0 13 -8 0
gene 1 5 28 -0.64169 0 14 -0.64169 1
gene 1 5 29 -3.18628 0 15 -3.18628 1
gene 1 6 27 -2.12984 0 16 -2.12984 1
gene 1 6 28 6.17125 0 17 6.17125 1
gene 1 6 29 -0.0529115 0 18 -0.0529115 1
gene 1 7 27 1.39515 0 19 1.39515 1
gene 1 7 28 8 0 20 8 1
gene 1 7 29 -0.916276 0 21 -0.916276 1
gene 1 8 27 -5.38029 0 22 -5.38029 1
gene 1 8 28 6.55408 0 23 6.55408 1
gene 1 8 29 -4.24203 0 24 -4.24203 1
gene 1 9 27 -1.21471 0 25 -1.21471 1
gene 1 9 28 -2.52577 0 26 -2.52577 1
gene 1 9 29 -5.03367 0 27 -5.03367 1
gene 1 10 27 3.41245 0 28 3.41245 1
gene 1 10 28 -1.18809 0 29 -1.18809 1
gene 1 10 29 -2.52737 0 30 -2.52737 1
gene 1 11 27 -6.65471 0 31 -6.65471 1
gene 1 11 28 -2.45661 0 32 -2.45661 1
gene 1 11 29 -3.34818 0 33 -3.34818 1
gene 1 12 27 1.70476 0 34 1.70476 1
gene 1 12 28 5.54254 0 35 5.54254 1
gene 1 12 29 -5.58173 0 36 -5.58173 1
gene 1 13 27 -2.82022 0 37 -2.82022 1
gene 1 13 28 5.74611 0 38 5.74611 1
gene 1 13 29 2.55866 0 39 2.55866 1
gene 1 14 27 -3.52341 0 40 -3.52341 1
gene 1 14 28 -1.09624 0 41 -1.09624 1
gene 1 14 29 -3.34162 0 42 -3.34162 1
gene 1 15 27 5.0692 0 43 5.0692 1
gene 1 15 28 -1.78833 0 44 -1.78833 1
gene 1 15 29 -6.45248 0 45 -6.45248 1
gene 1 16 27 2.91477 0 46 2.91477 1
gene 1 16 28 7.76836 0 47 7.76836 1
gene 1 16 29 5.51982 0 48 5.51982 1
gene 1 17 27 0.694143 0 49 0.694143 1
gene 1 17 28 5.30393 0 50 5.30393 1
gene 1 17 29 0.759777 0 51 0.759777 1
gene 1 18 27 -6.00612 0 52 -6.00612 1
gene 1 18 28 7.12358 0 53 7.12358 1
gene 1 18 29 -6.3596 0 54 -6.3596 1
gene 1 19 27 0.650884 0 55 0.650884 1
gene 1 19 28 -3.69053 0 56 -3.69053 1
gene 1 19 29 -1.55759 0 57 -1.55759 1
gene 1 20 27 -4.44388 0 58 -4.44388 0
gene 1 20 28 1.39658 0 59 1.39658 1
gene 1 20 29 0.84254 0 60 0.84254 1
gene 1 21 27 -3.43191 0 61 -3.43191 1
gene 1 21 28 -2.83987 0 62 -2.83987 1
gene 1 21 29 2.8835 0 63 2.8835 1
gene 1 22 27 -8 0 64 -8 1
gene 1 22 28 8 0 65 8 1
gene 1 22 29 -2.47196 0 66 -2.47196 1
gene 1 23 27 -3.71731 0 67 -3.71731 1
gene 1 23 28 -0.238121 0 68 -0.238121 1
gene 1 23 29 0.143017 0 69 0.143017 1
gene 1 24 27 -4.81806 0 70 -4.81806 1
gene 1 24 28 -0.683119 0 71 -0.683119 1
gene 1 24 29 -7.49426 0 72 -7.49426 0
gene 1 25 27 5.6016 0 73 5.6016 1
gene 1 25 28 -1.64663 0 74 -1.64663 1
gene 1 25 29 -0.192438 0 75 -0.192438 1
gene 1 26 27 -2.13202 0 76 -2.13202 1
gene 1 26 28 6.43539 0 77 6.43539 1
gene 1 26 29 -5.28212 0 78 -5.28212 1
gene 1 22 34 -3.35368 0 96 -3.35368 1
gene 1 34 29 0.863674 0 97 0.863674 1
gene 1 2 37 -4.04317 0 103 -4.04317 1
gene 1 37 27 1.38985 0 104 1.38985 0
gene 1 15 37 -4.52197 0 152 -4.52197 1
gene 1 25 64 -8 0 215 -8 1
gene 1 64 28 0.957194 0 216 0.957194 1
gene 1 37 64 0.520817 0 228 0.520817 1
gene 1 15 64 -1.68409 0 339 -1.68409 1
gene 1 3 64 -0.267953 0 356 -0.267953 1
gene 1 13 106 -1.44635 0 380 -1.44635 1
gene 1 106 29 1.65395 0 381 1.65395 1
gene 1 20 108 1.24973 0 394 1.24973 1
gene 1 108 28 3.22581 0 395 3.22581 1
gene 1 24 37 0.133919 0 470 0.133919 1
gene 1 18 34 -3.4608 0 550 -3.4608 1
gene 1 5 148 -0.515687 0 572 -0.515687 1
gene 1 148 27 -1.0815 0 573 -1.0815 1
gene 1 37 155 1.81052 0 601 1.81052 1
gene 1 155 27 1.07433 0 602 1.07433 1
gene 1 17 34 0.19013 0 610 0.19013 1
gene 1 2 205 -2.35576 0 785 -2.35576 0
gene 1 205 28 4.61516 0 786 4.61516 1
gene 1 2 209 -0.497272 0 794 -0.497272 1
gene 1 209 205 -0.0392239 0 795 -0.0392239 1
gene 1 24 210 0.385741 0 821 0.385741 1
gene 1 210 29 -2.94382 0 822 -2.94382 1
genomeend 19

/* Organism #20 Fitness: 0.92508 Error: 0 */
/* ##------$ WINNER 20 SPECIES #78 $------## */
genomestart 20
trait 1 0.846921 0.953724 0.153661 1 0.719852 0.000995666 0 0.870165 
node 1 1 1 1
node 2 1 1 1
node 3 1 1 1
node 4 1 1 1
node 5 1 1 1
node 6 1 1 1
node 7 1 1 1
node 8 1 1 1
node 9 1 1 1
node 10 1 1 1
node 11 1 1 1
node 12 1 1 1
node 13 1 1 1
node 14 1 1 1
node 15 1 1 1
node 16 1 1 1
node 17 1 1 1
node 18 1 1 1
node 19 1 1 1
node 20 1 1 1
node 21 1 1 1
node 22 1 1 1
node 23 1 1 1
node 24 1 1 1
node 25 1 1 1
node 26 1 1 3
node 27 1 0 2
node 28 1 0 2
node 29 1 0 2
node 34 1 0 0
node 37 1 0 0
node 64 1 0 0
node 106 1 0 0
node 108 1 0 0
node 148 1 0 0
node 155 1 0 0
node 205 1 0 0
node 209 1 0 0
node 210 1 0 0
gene 1 1 27 -4.22164 0 1 -4.22164 1
gene 1 1 28 -1.45375 0 2 -1.45375 1
gene 1 1 29 -3.10118 0 3 -3.10118 1
gene 1 2 27 1.62399 0 4 1.62399 1
gene 1 2 28 2.20221 0 5 2.20221 1
gene 1 2 29 0.0796199 0 6 0.0796199 1
gene 1 3 27 1.96501 0 7 1.96501 1
gene 1 3 28 3.2189 0 8 3.2189 1
gene 1 3 29 -0.465636 0 9 -0.465636 1
gene 1 4 27 -0.461211 0 10 -0.461211 1
gene 1 4 28 3.40773 0 11 3.40773 1
gene 1 4 29 -1.33131 0 12 -1.33131 1
gene 1 5 27 -6.84069 0 13 -6.84069 1
gene 1 5 28 -0.629568 0 14 -0.629568 1
gene 1 5 29 -1.37452 0 15 -1.37452 1
gene 1 6 27 1.60571 0 16 1.60571 1
gene 1 6 28 7.95807 0 17 7.95807 1
gene 1 6 29 1.00672 0 18 1.00672 1
gene 1 7 27 1.02482 0 19 1.02482 1
gene 1 7 28 6.35504 0 20 6.35504 1
gene 1 7 29 -0.922401 0 21 -0.922401 1
gene 1 8 27 -6.50033 0 22 -6.50033 1
gene 1 8 28 4.43125 0 23 4.43125 1
gene 1 8 29 -4.09784 0 24 -4.09784 1
gene 1 9 27 0.806833 0 25 0.806833 1
gene 1 9 28 -2.20729 0 26 -2.20729 1
gene 1 9 29 2.35832 0 27 2.35832 1
gene 1 10 27 -0.145626 0 28 -0.145626 1
gene 1 10 28 -1.35083 0 29 -1.35083 1
gene 1 10 29 -0.753492 0 30 -0.753492 1
gene 1 11 27 -1.41549 0 31 -1.41549 1
gene 1 11 28 1.6979 0 32 1.6979 1
gene 1 11 29 -1.23004 0 33 -1.23004 1
gene 1 12 27 -0.449461 0 34 -0.449461 1
gene 1 12 28 0.791726 0 35 0.791726 1
gene 1 12 29 -4.84411 0 36 -4.84411 1
gene 1 13 27 -1.70021 0 37 -1.70021 1
gene 1 13 28 4.14517 0 38 4.14517 1
gene 1 13 29 -0.819727 0 39 -0.819727 1
gene 1 14 27 -0.440199 0 40 -0.440199 1
gene 1 14 28 -3.18304 0 41 -3.18304 1
gene 1 14 29 -0.83079 0 42 -0.83079 1
gene 1 15 27 -1.79952 0 43 -1.79952 1
gene 1 15 28 -1.26027 0 44 -1.26027 1
gene 1 15 29 -8 0 45 -8 1
gene 1 16 27 -0.611667 0 46 -0.611667 1
gene 1 16 28 4.65141 0 47 4.65141 1
gene 1 16 29 7.52227 0 48 7.52227 1
gene 1 17 27 -0.327006 0 49 -0.327006 1
gene 1 17 28 0.646555 0 50 0.646555 1
gene 1 17 29 3.62986 0 51 3.62986 1
gene 1 18 27 -3.72404 0 52 -3.72404 1
gene 1 18 28 7.41122 0 53 7.41122 1
gene 1 18 29 -3.98984 0 54 -3.98984 1
gene 1 19 27 0.0386059 0 55 0.0386059 1
gene 1 19 28 -0.750503 0 56 -0.750503 1
gene 1 19 29 0.000780979 0 57 0.000780979 1
gene 1 20 27 -3.51058 0 58 -3.51058 0
gene 1 20 28 1.49528 0 59 1.49528 1
gene 1 20 29 0.507553 0 60 0.507553 1
gene 1 21 27 -5.5131 0 61 -5.5131 1
gene 1 21 28 2.37991 0 62 2.37991 1
gene 1 21 29 -1.71888 0 63 -1.71888 1
gene 1 22 27 -5.06305 0 64 -5.06305 1
gene 1 22 28 -0.887707 0 65 -0.887707 1
gene 1 22 29 -2.14156 0 66 -2.14156 1
gene 1 23 27 -1.42048 0 67 -1.42048 1
gene 1 23 28 2.98512 0 68 2.98512 1
gene 1 23 29 -0.921772 0 69 -0.921772 1
gene 1 24 27 -5.5304 0 70 -5.5304 1
gene 1 24 28 -0.259655 0 71 -0.259655 1
gene 1 24 29 0.145192 0 72 0.145192 0
gene 1 25 27 4.08048 0 73 4.08048 1
gene 1 25 28 3.82082 0 74 3.82082 1
gene 1 25 29 -3.41366 0 75 -3.41366 1
gene 1 26 27 -2.94284 0 76 -2.94284 1
gene 1 26 28 6.59968 0 77 6.59968 1
gene 1 26 29 -4.58684 0 78 -4.58684 1
gene 1 22 34 -1.45342 0 96 -1.45342 1
gene 1 34 29 -1.75075 0 97 -1.75075 1
gene 1 2 37 -2.77794 0 103 -2.77794 1
gene 1 37 27 -0.43939 0 104 -0.43939 0
gene 1 15 37 -0.332785 0 152 -0.332785 1
gene 1 25 64 -7.26317 0 215 -7.26317 1
gene 1 64 28 -2.60942 0 216 -2.60942 1
gene 1 37 64 1.0753 0 228 1.0753 1
gene 1 15 64 -0.992615 0 339 -0.992615 1
gene 1 3 64 1.91633 0 356 1.91633 1
gene 1 13 106 -0.89465 0 380 -0.89465 1
gene 1 106 29 0.234392 0 381 0.234392 1
gene 1 20 108 2.13477 0 394 2.13477 1
gene 1 108 28 5.45302 0 395 5.45302 1
gene 1 24 37 -0.0211579 0 470 -0.0211579 1
gene 1 18 34 -1.80166 0 550 -1.80166 1
gene 1 5 148 -5.27886 0 572 -5.27886 1
gene 1 148 27 -0.373012 0 573 -0.373012 1
gene 1 37 155 3.00045 0 601 3.00045 1
