
/* Species #31 : (Size 12) (AF 0) (Age 16)  */


/* Organism #0 Fitness: 0.147721 Error: 0 */
genomestart 0
trait 1 0.808527 0 0 0.0236213 0 0.0946226 0.617344 0.402776 
node 1 1 1 1
node 2 1 1 1
node 3 1 1 1
node 4 1 1 1
node 5 1 1 1
node 6 1 1 1
node 7 1 1 1
node 8 1 1 1
node 9 1 1 1
node 10 1 1 1
node 11 1 1 1
node 12 1 1 1
node 13 1 1 1
node 14 1 1 1
node 15 1 1 1
node 16 1 1 1
node 17 1 1 1
node 18 1 1 1
node 19 1 1 1
node 20 1 1 1
node 21 1 1 1
node 22 1 1 1
node 23 1 1 1
node 24 1 1 1
node 25 1 1 1
node 26 1 1 1
node 27 1 1 3
node 28 1 0 2
node 29 1 0 2
node 41 1 0 0
node 90 1 0 0
node 101 1 0 0
node 104 1 0 0
node 111 1 0 0
node 139 1 0 0
gene 1 1 28 8 0 1 8 1
gene 1 1 29 6.13231 0 2 6.13231 0
gene 1 2 28 0.238426 0 3 0.238426 1
gene 1 2 29 -4.7982 0 4 -4.7982 1
gene 1 3 28 1.26171 0 5 1.26171 0
gene 1 3 29 -0.432905 0 6 -0.432905 1
gene 1 4 28 4.00695 0 7 4.00695 1
gene 1 4 29 6.26184 0 8 6.26184 1
gene 1 5 28 6.16302 0 9 6.16302 1
gene 1 5 29 -1.49823 0 10 -1.49823 1
gene 1 6 28 -0.44084 0 11 -0.44084 1
gene 1 6 29 -0.377934 0 12 -0.377934 1
gene 1 7 28 -7.02441 0 13 -7.02441 1
gene 1 7 29 8 0 14 8 1
gene 1 8 28 -0.761589 0 15 -0.761589 1
gene 1 8 29 -6.55932 0 16 -6.55932 0
gene 1 9 28 1.89821 0 17 1.89821 1
gene 1 9 29 2.14352 0 18 2.14352 1
gene 1 10 28 -1.13536 0 19 -1.13536 1
gene 1 10 29 -2.00156 0 20 -2.00156 1
gene 1 11 28 1.34507 0 21 1.34507 1
gene 1 11 29 -1.25378 0 22 -1.25378 0
gene 1 12 28 4.34278 0 23 4.34278 0
gene 1 12 29 3.44371 0 24 3.44371 1
gene 1 13 28 1.71583 0 25 1.71583 1
gene 1 13 29 0.266293 0 26 0.266293 1
gene 1 14 28 -0.778375 0 27 -0.778375 1
gene 1 14 29 1.70858 0 28 1.70858 1
gene 1 15 28 1.14879 0 29 1.14879 1
gene 1 15 29 1.41209 0 30 1.41209 1
gene 1 16 28 4.52647 0 31 4.52647 0
gene 1 16 29 3.18464 0 32 3.18464 1
gene 1 17 28 2.6661 0 33 2.6661 1
gene 1 17 29 2.84715 0 34 2.84715 1
gene 1 18 28 4.22544 0 35 4.22544 1
gene 1 18 29 -1.20937 0 36 -1.20937 1
gene 1 19 28 6.42964 0 37 6.42964 1
gene 1 19 29 -3.20109 0 38 -3.20109 1
gene 1 20 28 -2.54959 0 39 -2.54959 1
gene 1 20 29 1.35142 0 40 1.35142 1
gene 1 21 28 1.34706 0 41 1.34706 1
gene 1 21 29 -3.87322 0 42 -3.87322 1
gene 1 22 28 -5.53514 0 43 -5.53514 1
gene 1 22 29 -0.333491 0 44 -0.333491 0
gene 1 23 28 -5.67545 0 45 -5.67545 1
gene 1 23 29 2.42212 0 46 2.42212 1
gene 1 24 28 3.32035 0 47 3.32035 1
gene 1 24 29 -0.907907 0 48 -0.907907 1
gene 1 25 28 -0.544584 0 49 -0.544584 1
gene 1 25 29 -0.637385 0 50 -0.637385 1
gene 1 26 28 -2.17116 0 51 -2.17116 1
gene 1 26 29 0.561083 0 52 0.561083 1
gene 1 27 28 4.06687 0 53 4.06687 1
gene 1 27 29 0.875843 0 54 0.875843 1
gene 1 16 41 -4.23917 0 82 -4.23917 1
gene 1 41 28 -1.71112 0 83 -1.71112 1
gene 1 9 41 1.84944 0 244 1.84944 1
gene 1 3 90 -0.784383 0 252 -0.784383 1
gene 1 90 28 3.85533 0 253 3.85533 1
gene 1 8 101 -4.15288 0 295 -4.15288 1
gene 1 101 29 0.632191 0 296 0.632191 1
gene 1 22 104 -3.17423 0 302 -3.17423 1
gene 1 104 29 3.94833 0 303 3.94833 1
gene 1 12 111 -2.05782 0 321 -2.05782 1
gene 1 111 28 0.962935 0 322 0.962935 1
gene 1 5 41 1.14002 0 361 1.14002 1
gene 1 11 41 -1.00803 0 376 -1.00803 1
gene 1 23 90 -3.08269 0 401 -3.08269 1
gene 1 24 41 -0.861476 0 430 -0.861476 1
gene 1 11 139 0.588244 0 442 0.588244 1
gene 1 139 29 -0.724433 0 443 -0.724433 1
genomeend 0

/* Organism #1 Fitness: 0.0454 Error: 0 */
genomestart 1
trait 1 0.808527 0 0 0.0236213 0 0.0946226 0.617344 0.402776 
node 1 1 1 1
node 2 1 1 1
node 3 1 1 1
node 4 1 1 1
node 5 1 1 1
node 6 1 1 1
node 7 1 1 1
node 8 1 1 1
node 9 1 1 1
node 10 1 1 1
node 11 1 1 1
node 12 1 1 1
node 13 1 1 1
node 14 1 1 1
node 15 1 1 1
node 16 1 1 1
node 17 1 1 1
node 18 1 1 1
node 19 1 1 1
node 20 1 1 1
node 21 1 1 1
node 22 1 1 1
node 23 1 1 1
node 24 1 1 1
node 25 1 1 1
node 26 1 1 1
node 27 1 1 3
node 28 1 0 2
node 29 1 0 2
node 41 1 0 0
node 90 1 0 0
node 101 1 0 0
node 104 1 0 0
node 111 1 0 0
node 139 1 0 0
gene 1 1 28 6.17301 0 1 6.17301 1
gene 1 1 29 5.12127 0 2 5.12127 0
gene 1 2 28 -3.33377 0 3 -3.33377 1
gene 1 2 29 -1.0818 0 4 -1.0818 1
gene 1 3 28 -5.79829 0 5 -5.79829 0
gene 1 3 29 1.59673 0 6 1.59673 1
gene 1 4 28 0.601825 0 7 0.601825 1
gene 1 4 29 8 0 8 8 1
gene 1 5 28 0.685598 0 9 0.685598 1
gene 1 5 29 3.42418 0 10 3.42418 1
gene 1 6 28 1.70637 0 11 1.70637 1
gene 1 6 29 -3.85979 0 12 -3.85979 1
gene 1 7 28 -5.34589 0 13 -5.34589 1
gene 1 7 29 8 0 14 8 1
gene 1 8 28 -0.588855 0 15 -0.588855 1
gene 1 8 29 -5.5944 0 16 -5.5944 0
gene 1 9 28 2.15423 0 17 2.15423 1
gene 1 9 29 2.96524 0 18 2.96524 1
gene 1 10 28 -7.73095 0 19 -7.73095 1
gene 1 10 29 -3.00897 0 20 -3.00897 1
gene 1 11 28 4.27065 0 21 4.27065 1
gene 1 11 29 2.3912 0 22 2.3912 0
gene 1 12 28 4.91447 0 23 4.91447 0
gene 1 12 29 8 0 24 8 1
gene 1 13 28 2.59606 0 25 2.59606 1
gene 1 13 29 0.0161176 0 26 0.0161176 1
gene 1 14 28 -2.94053 0 27 -2.94053 1
gene 1 14 29 -2.49214 0 28 -2.49214 1
gene 1 15 28 3.7138 0 29 3.7138 1
gene 1 15 29 4.10764 0 30 4.10764 1
gene 1 16 28 0.784249 0 31 0.784249 0
gene 1 16 29 3.39728 0 32 3.39728 1
gene 1 17 28 -0.139317 0 33 -0.139317 1
gene 1 17 29 1.98927 0 34 1.98927 1
gene 1 18 28 -1.82173 0 35 -1.82173 1
gene 1 18 29 -4.10665 0 36 -4.10665 1
gene 1 19 28 8 0 37 8 1
gene 1 19 29 -4.81017 0 38 -4.81017 1
gene 1 20 28 -6.69218 0 39 -6.69218 1
gene 1 20 29 -3.80057 0 40 -3.80057 1
gene 1 21 28 1.66826 0 41 1.66826 1
gene 1 21 29 5.08782 0 42 5.08782 1
gene 1 22 28 3.74935 0 43 3.74935 1
gene 1 22 29 -4.96941 0 44 -4.96941 0
gene 1 23 28 0.340815 0 45 0.340815 1
gene 1 23 29 0.438169 0 46 0.438169 1
gene 1 24 28 4.80759 0 47 4.80759 1
gene 1 24 29 0.0631924 0 48 0.0631924 1
gene 1 25 28 -0.703528 0 49 -0.703528 1
gene 1 25 29 -2.86676 0 50 -2.86676 1
gene 1 26 28 -1.13231 0 51 -1.13231 1
gene 1 26 29 -1.16214 0 52 -1.16214 1
gene 1 27 28 3.80937 0 53 3.80937 1
gene 1 27 29 1.85446 0 54 1.85446 1
gene 1 16 41 -2.86767 0 82 -2.86767 1
gene 1 41 28 0.117878 0 83 0.117878 1
gene 1 9 41 -1.84248 0 244 -1.84248 1
gene 1 3 90 -1.17739 0 252 -1.17739 1
gene 1 90 28 3.2899 0 253 3.2899 1
gene 1 8 101 -1.97195 0 295 -1.97195 1
gene 1 101 29 2.33688 0 296 2.33688 1
gene 1 22 104 -4.04164 0 302 -4.04164 1
gene 1 104 29 6.29795 0 303 6.29795 1
gene 1 12 111 -3.08241 0 321 -3.08241 1
gene 1 111 28 -1.1388 0 322 -1.1388 1
gene 1 5 41 -3.09153 0 361 -3.09153 1
gene 1 11 41 2.46643 0 376 2.46643 1
gene 1 23 90 -4.33256 0 401 -4.33256 1
gene 1 24 41 -5.57338 0 430 -5.57338 1
gene 1 11 139 -0.438246 0 442 -0.438246 1
gene 1 139 29 1.09394 0 443 1.09394 1
gene 1 14 139 0.459075 0 554 0.459075 1
genomeend 1

/* Organism #2 Fitness: 0.135936 Error: 0 */
genomestart 2
trait 1 0.856395 0 0 0.0236213 0 0.0946226 0.617344 0.402776 
node 1 1 1 1
node 2 1 1 1
node 3 1 1 1
node 4 1 1 1
node 5 1 1 1
node 6 1 1 1
node 7 1 1 1
node 8 1 1 1
node 9 1 1 1
node 10 1 1 1
node 11 1 1 1
node 12 1 1 1
node 13 1 1 1
node 14 1 1 1
node 15 1 1 1
node 16 1 1 1
node 17 1 1 1
node 18 1 1 1
node 19 1 1 1
node 20 1 1 1
node 21 1 1 1
node 22 1 1 1
node 23 1 1 1
node 24 1 1 1
node 25 1 1 1
node 26 1 1 1
node 27 1 1 3
node 28 1 0 2
node 29 1 0 2
node 41 1 0 0
node 90 1 0 0
node 101 1 0 0
node 104 1 0 0
node 111 1 0 0
node 139 1 0 0
gene 1 1 28 8 0 1 8 1
gene 1 1 29 8 0 2 8 0
gene 1 2 28 2.93973 0 3 2.93973 1
gene 1 2 29 -1.37692 0 4 -1.37692 1
gene 1 3 28 -0.220763 0 5 -0.220763 0
gene 1 3 29 -4.4068 0 6 -4.4068 1
gene 1 4 28 -0.244072 0 7 -0.244072 1
gene 1 4 29 8 0 8 8 1
gene 1 5 28 3.22535 0 9 3.22535 1
gene 1 5 29 0.0780129 0 10 0.0780129 1
gene 1 6 28 -0.761971 0 11 -0.761971 1
gene 1 6 29 1.65269 0 12 1.65269 1
gene 1 7 28 -3.06299 0 13 -3.06299 1
gene 1 7 29 8 0 14 8 1
gene 1 8 28 -0.954237 0 15 -0.954237 1
gene 1 8 29 -3.00536 0 16 -3.00536 1
gene 1 9 28 0.922193 0 17 0.922193 1
gene 1 9 29 3.0648 0 18 3.0648 1
gene 1 10 28 -4.53215 0 19 -4.53215 1
gene 1 10 29 -0.511986 0 20 -0.511986 1
gene 1 11 28 6.87273 0 21 6.87273 1
gene 1 11 29 1.84874 0 22 1.84874 0
gene 1 12 28 3.53511 0 23 3.53511 0
gene 1 12 29 4.62161 0 24 4.62161 1
gene 1 13 28 1.51059 0 25 1.51059 1
gene 1 13 29 -3.49382 0 26 -3.49382 1
gene 1 14 28 -3.12304 0 27 -3.12304 1
gene 1 14 29 -3.39438 0 28 -3.39438 1
gene 1 15 28 2.46757 0 29 2.46757 1
gene 1 15 29 1.92923 0 30 1.92923 1
gene 1 16 28 5.19139 0 31 5.19139 0
gene 1 16 29 0.755829 0 32 0.755829 1
gene 1 17 28 0.841891 0 33 0.841891 1
gene 1 17 29 3.31767 0 34 3.31767 1
gene 1 18 28 -1.5714 0 35 -1.5714 1
gene 1 18 29 0.932684 0 36 0.932684 1
gene 1 19 28 6.23814 0 37 6.23814 1
gene 1 19 29 -3.483 0 38 -3.483 1
gene 1 20 28 -6.50838 0 39 -6.50838 1
gene 1 20 29 0.933809 0 40 0.933809 1
gene 1 21 28 -0.546846 0 41 -0.546846 1
gene 1 21 29 1.19604 0 42 1.19604 1
gene 1 22 28 -1.04354 0 43 -1.04354 1
gene 1 22 29 -3.9114 0 44 -3.9114 0
gene 1 23 28 -2.15251 0 45 -2.15251 1
gene 1 23 29 0.531861 0 46 0.531861 1
gene 1 24 28 -2.76069 0 47 -2.76069 1
gene 1 24 29 0.491596 0 48 0.491596 1
gene 1 25 28 -0.98056 0 49 -0.98056 1
gene 1 25 29 -0.297253 0 50 -0.297253 1
gene 1 26 28 2.92161 0 51 2.92161 1
gene 1 26 29 -0.811563 0 52 -0.811563 1
gene 1 27 28 7.91662 0 53 7.91662 1
gene 1 27 29 0.834738 0 54 0.834738 1
gene 1 16 41 -4.69642 0 82 -4.69642 1
gene 1 41 28 -1.2537 0 83 -1.2537 1
gene 1 9 41 1.15062 0 244 1.15062 1
gene 1 3 90 1.60207 0 252 1.60207 1
gene 1 90 28 3.61408 0 253 3.61408 1
gene 1 8 101 -2.52197 0 295 -2.52197 1
gene 1 101 29 2.00354 0 296 2.00354 1
gene 1 22 104 -2.4678 0 302 -2.4678 1
gene 1 104 29 4.32485 0 303 4.32485 1
gene 1 12 111 -2.22579 0 321 -2.22579 1
gene 1 111 28 -0.413373 0 322 -0.413373 1
gene 1 5 41 0.316134 0 361 0.316134 1
gene 1 11 41 -1.62244 0 376 -1.62244 1
gene 1 23 90 -4.09635 0 401 -4.09635 1
gene 1 24 41 -5.64541 0 430 -5.64541 1
gene 1 11 139 -0.438246 0 442 -0.438246 1
gene 1 139 29 1.95772 0 443 1.95772 1
genomeend 2

/* Organism #3 Fitness: 0.13915 Error: 0 */
genomestart 3
trait 1 0.856395 0 0 0.0236213 0 0.0946226 0.617344 0.402776 
node 1 1 1 1
node 2 1 1 1
node 3 1 1 1
node 4 1 1 1
node 5 1 1 1
node 6 1 1 1
node 7 1 1 1
node 8 1 1 1
node 9 1 1 1
node 10 1 1 1
node 11 1 1 1
node 12 1 1 1
node 13 1 1 1
node 14 1 1 1
node 15 1 1 1
node 16 1 1 1
node 17 1 1 1
node 18 1 1 1
node 19 1 1 1
node 20 1 1 1
node 21 1 1 1
node 22 1 1 1
node 23 1 1 1
node 24 1 1 1
node 25 1 1 1
node 26 1 1 1
node 27 1 1 3
node 28 1 0 2
node 29 1 0 2
node 41 1 0 0
node 90 1 0 0
node 101 1 0 0
node 104 1 0 0
node 111 1 0 0
node 139 1 0 0
gene 1 1 28 5.52243 0 1 5.52243 1
gene 1 1 29 8 0 2 8 0
gene 1 2 28 -0.634594 0 3 -0.634594 1
gene 1 2 29 -3.21543 0 4 -3.21543 1
gene 1 3 28 1.94391 0 5 1.94391 0
gene 1 3 29 0.53354 0 6 0.53354 1
gene 1 4 28 0.879019 0 7 0.879019 1
gene 1 4 29 6.24717 0 8 6.24717 1
gene 1 5 28 6.82664 0 9 6.82664 1
gene 1 5 29 -1.07837 0 10 -1.07837 1
gene 1 6 28 0.963317 0 11 0.963317 1
gene 1 6 29 1.17683 0 12 1.17683 1
gene 1 7 28 -1.92381 0 13 -1.92381 1
gene 1 7 29 7.13213 0 14 7.13213 1
gene 1 8 28 -1.76672 0 15 -1.76672 1
gene 1 8 29 -4.67663 0 16 -4.67663 0
gene 1 9 28 1.67795 0 17 1.67795 1
gene 1 9 29 3.72564 0 18 3.72564 1
gene 1 10 28 -0.604228 0 19 -0.604228 1
gene 1 10 29 -4.00014 0 20 -4.00014 1
gene 1 11 28 5.52526 0 21 5.52526 1
gene 1 11 29 -3.04415 0 22 -3.04415 0
gene 1 12 28 8 0 23 8 0
gene 1 12 29 5.44462 0 24 5.44462 1
gene 1 13 28 0.945845 0 25 0.945845 1
gene 1 13 29 1.45507 0 26 1.45507 1
gene 1 14 28 0.950575 0 27 0.950575 1
gene 1 14 29 1.16787 0 28 1.16787 1
gene 1 15 28 3.56067 0 29 3.56067 1
gene 1 15 29 2.91684 0 30 2.91684 1
gene 1 16 28 4.79625 0 31 4.79625 0
gene 1 16 29 1.60684 0 32 1.60684 1
gene 1 17 28 2.09037 0 33 2.09037 1
gene 1 17 29 5.17251 0 34 5.17251 1
gene 1 18 28 6.2347 0 35 6.2347 1
gene 1 18 29 0.154462 0 36 0.154462 1
gene 1 19 28 6.09245 0 37 6.09245 1
gene 1 19 29 -0.784478 0 38 -0.784478 1
gene 1 20 28 -4.31169 0 39 -4.31169 1
gene 1 20 29 1.21412 0 40 1.21412 1
gene 1 21 28 -1.14737 0 41 -1.14737 1
gene 1 21 29 -3.45801 0 42 -3.45801 1
gene 1 22 28 0.300264 0 43 0.300264 1
gene 1 22 29 0.935087 0 44 0.935087 0
gene 1 23 28 -2.11138 0 45 -2.11138 1
gene 1 23 29 4.31853 0 46 4.31853 1
gene 1 24 28 5.75908 0 47 5.75908 1
gene 1 24 29 -0.631256 0 48 -0.631256 1
gene 1 25 28 1.25402 0 49 1.25402 1
gene 1 25 29 1.20792 0 50 1.20792 1
gene 1 26 28 -1.73292 0 51 -1.73292 1
gene 1 26 29 1.3847 0 52 1.3847 1
gene 1 27 28 5.45477 0 53 5.45477 1
gene 1 27 29 1.6652 0 54 1.6652 1
gene 1 16 41 -3.04949 0 82 -3.04949 1
gene 1 41 28 -1.76826 0 83 -1.76826 1
gene 1 9 41 3.8761 0 244 3.8761 1
gene 1 3 90 0.392029 0 252 0.392029 1
gene 1 90 28 3.61408 0 253 3.61408 1
gene 1 8 101 -3.71593 0 295 -3.71593 1
gene 1 101 29 -0.424093 0 296 -0.424093 1
gene 1 22 104 -0.605182 0 302 -0.605182 1
gene 1 104 29 5.73534 0 303 5.73534 1
gene 1 12 111 -1.54958 0 321 -1.54958 1
gene 1 111 28 0.962935 0 322 0.962935 1
gene 1 5 41 0.316134 0 361 0.316134 1
gene 1 11 41 -0.826899 0 376 -0.826899 1
gene 1 23 90 -3.41327 0 401 -3.41327 1
gene 1 24 41 0.552797 0 430 0.552797 1
gene 1 11 139 0.95088 0 442 0.95088 1
gene 1 139 29 1.95772 0 443 1.95772 1
genomeend 3

/* Organism #4 Fitness: 0.0362929 Error: 0 */
genomestart 4
trait 1 0.808527 0 0 0.0236213 0 0.0946226 0.617344 0.402776 
node 1 1 1 1
node 2 1 1 1
node 3 1 1 1
node 4 1 1 1
node 5 1 1 1
node 6 1 1 1
node 7 1 1 1
node 8 1 1 1
node 9 1 1 1
node 10 1 1 1
node 11 1 1 1
node 12 1 1 1
node 13 1 1 1
node 14 1 1 1
node 15 1 1 1
node 16 1 1 1
node 17 1 1 1
node 18 1 1 1
node 19 1 1 1
node 20 1 1 1
node 21 1 1 1
node 22 1 1 1
node 23 1 1 1
node 24 1 1 1
node 25 1 1 1
node 26 1 1 1
node 27 1 1 3
node 28 1 0 2
node 29 1 0 2
node 41 1 0 0
node 90 1 0 0
node 101 1 0 0
node 104 1 0 0
node 111 1 0 0
node 139 1 0 0
gene 1 1 28 5.83586 0 1 5.83586 1
gene 1 1 29 5.5813 0 2 5.5813 0
gene 1 2 28 -1.20975 0 3 -1.20975 1
gene 1 2 29 -5.74129 0 4 -5.74129 1
gene 1 3 28 1.34556 0 5 1.34556 0
gene 1 3 29 0.120624 0 6 0.120624 1
gene 1 4 28 4.53133 0 7 4.53133 1
gene 1 4 29 6.11505 0 8 6.11505 1
gene 1 5 28 8 0 9 8 1
gene 1 5 29 -0.416196 0 10 -0.416196 1
gene 1 6 28 1.72819 0 11 1.72819 1
gene 1 6 29 -2.4976 0 12 -2.4976 1
gene 1 7 28 -8 0 13 -8 1
gene 1 7 29 7.70923 0 14 7.70923 1
gene 1 8 28 0.187002 0 15 0.187002 1
gene 1 8 29 -7.38813 0 16 -7.38813 0
gene 1 9 28 4.3915 0 17 4.3915 1
gene 1 9 29 0.980083 0 18 0.980083 1
gene 1 10 28 -1.04808 0 19 -1.04808 1
gene 1 10 29 -0.524384 0 20 -0.524384 1
gene 1 11 28 0.123638 0 21 0.123638 1
gene 1 11 29 -3.07871 0 22 -3.07871 0
gene 1 12 28 2.56401 0 23 2.56401 1
gene 1 12 29 2.62856 0 24 2.62856 1
gene 1 13 28 -0.032197 0 25 -0.032197 1
gene 1 13 29 -0.588149 0 26 -0.588149 1
gene 1 14 28 1.72056 0 27 1.72056 1
gene 1 14 29 -0.745186 0 28 -0.745186 1
gene 1 15 28 0.529115 0 29 0.529115 1
gene 1 15 29 1.31428 0 30 1.31428 1
gene 1 16 28 5.34467 0 31 5.34467 0
gene 1 16 29 1.00791 0 32 1.00791 1
gene 1 17 28 3.05017 0 33 3.05017 1
gene 1 17 29 0.367214 0 34 0.367214 1
gene 1 18 28 4.44006 0 35 4.44006 1
gene 1 18 29 -1.96249 0 36 -1.96249 1
gene 1 19 28 4.02715 0 37 4.02715 1
gene 1 19 29 -5.51836 0 38 -5.51836 1
gene 1 20 28 -4.43541 0 39 -4.43541 1
gene 1 20 29 3.10142 0 40 3.10142 1
gene 1 21 28 3.50891 0 41 3.50891 1
gene 1 21 29 -3.24293 0 42 -3.24293 1
gene 1 22 28 -5.47365 0 43 -5.47365 1
gene 1 22 29 -2.17818 0 44 -2.17818 1
gene 1 23 28 -3.58753 0 45 -3.58753 1
gene 1 23 29 2.87845 0 46 2.87845 1
gene 1 24 28 5.63663 0 47 5.63663 1
gene 1 24 29 -2.04518 0 48 -2.04518 1
gene 1 25 28 -2.40179 0 49 -2.40179 1
gene 1 25 29 -2.79909 0 50 -2.79909 1
gene 1 26 28 0.21073 0 51 0.21073 1
gene 1 26 29 1.5244 0 52 1.5244 1
gene 1 27 28 5.2767 0 53 5.2767 1
gene 1 27 29 2.13 0 54 2.13 1
gene 1 16 41 -3.77941 0 82 -3.77941 1
gene 1 41 28 -3.41741 0 83 -3.41741 1
gene 1 9 41 1.58759 0 244 1.58759 1
gene 1 3 90 -2.27607 0 252 -2.27607 1
gene 1 90 28 3.85533 0 253 3.85533 1
gene 1 8 101 -6.2096 0 295 -6.2096 1
gene 1 101 29 0.632191 0 296 0.632191 1
gene 1 22 104 -5.30938 0 302 -5.30938 1
gene 1 104 29 3.85746 0 303 3.85746 1
gene 1 12 111 -3.30214 0 321 -3.30214 1
gene 1 111 28 0.962935 0 322 0.962935 1
gene 1 5 41 -0.746635 0 361 -0.746635 1
gene 1 11 41 -1.00803 0 376 -1.00803 1
gene 1 23 90 -4.41131 0 401 -4.41131 1
gene 1 24 41 -0.861476 0 430 -0.861476 1
gene 1 11 139 -1.23508 0 442 -1.23508 1
gene 1 139 29 -0.724433 0 443 -0.724433 1
genomeend 4

/* Organism #5 Fitness: 0.0705786 Error: 0 */
genomestart 5
trait 1 1 0 0 0.307901 0 0 0.556887 0 
node 1 1 1 1
node 2 1 1 1
node 3 1 1 1
node 4 1 1 1
node 5 1 1 1
node 6 1 1 1
node 7 1 1 1
node 8 1 1 1
node 9 1 1 1
node 10 1 1 1
node 11 1 1 1
node 12 1 1 1
node 13 1 1 1
node 14 1 1 1
node 15 1 1 1
node 16 1 1 1
node 17 1 1 1
node 18 1 1 1
node 19 1 1 1
node 20 1 1 1
node 21 1 1 1
node 22 1 1 1
node 23 1 1 1
node 24 1 1 1
node 25 1 1 1
node 26 1 1 1
node 27 1 1 3
node 28 1 0 2
node 29 1 0 2
node 41 1 0 0
node 90 1 0 0
node 101 1 0 0
node 104 1 0 0
node 111 1 0 0
node 139 1 0 0
gene 1 1 28 8 0 1 8 1
gene 1 1 29 4.57686 0 2 4.57686 0
gene 1 2 28 1.93686 0 3 1.93686 1
gene 1 2 29 -4.50377 0 4 -4.50377 1
gene 1 3 28 0.0924711 0 5 0.0924711 0
gene 1 3 29 1.29009 0 6 1.29009 1
gene 1 4 28 4.86017 0 7 4.86017 1
gene 1 4 29 4.32087 0 8 4.32087 1
gene 1 5 28 7.14122 0 9 7.14122 1
gene 1 5 29 -2.66419 0 10 -2.66419 1
gene 1 6 28 1.11805 0 11 1.11805 1
gene 1 6 29 0.709136 0 12 0.709136 1
gene 1 7 28 -6.49323 0 13 -6.49323 1
gene 1 7 29 8 0 14 8 1
gene 1 8 28 -1.71148 0 15 -1.71148 1
gene 1 8 29 -4.37137 0 16 -4.37137 0
gene 1 9 28 -0.350009 0 17 -0.350009 1
gene 1 9 29 -0.0148968 0 18 -0.0148968 1
gene 1 10 28 -1.69546 0 19 -1.69546 1
gene 1 10 29 -3.05254 0 20 -3.05254 1
gene 1 11 28 0.739959 0 21 0.739959 1
gene 1 11 29 -1.65487 0 22 -1.65487 0
gene 1 12 28 2.70737 0 23 2.70737 0
gene 1 12 29 3.2947 0 24 3.2947 1
gene 1 13 28 -0.730003 0 25 -0.730003 1
gene 1 13 29 -1.66454 0 26 -1.66454 1
gene 1 14 28 -1.22425 0 27 -1.22425 1
gene 1 14 29 0.276498 0 28 0.276498 1
gene 1 15 28 3.44378 0 29 3.44378 1
gene 1 15 29 -0.891522 0 30 -0.891522 1
gene 1 16 28 5.62529 0 31 5.62529 0
gene 1 16 29 4.82494 0 32 4.82494 1
gene 1 17 28 2.49588 0 33 2.49588 1
gene 1 17 29 0.82522 0 34 0.82522 1
gene 1 18 28 5.07607 0 35 5.07607 1
gene 1 18 29 -1.09287 0 36 -1.09287 1
gene 1 19 28 8 0 37 8 1
gene 1 19 29 -1.35426 0 38 -1.35426 1
gene 1 20 28 -2.12973 0 39 -2.12973 1
gene 1 20 29 -0.267056 0 40 -0.267056 1
gene 1 21 28 3.25843 0 41 3.25843 1
gene 1 21 29 -3.26231 0 42 -3.26231 1
gene 1 22 28 -7.33451 0 43 -7.33451 1
gene 1 22 29 1.29795 0 44 1.29795 0
gene 1 23 28 -6.76649 0 45 -6.76649 1
gene 1 23 29 2.95253 0 46 2.95253 1
gene 1 24 28 2.25152 0 47 2.25152 1
gene 1 24 29 0.772824 0 48 0.772824 1
gene 1 25 28 1.50519 0 49 1.50519 1
gene 1 25 29 -0.655238 0 50 -0.655238 1
gene 1 26 28 -3.37878 0 51 -3.37878 1
gene 1 26 29 -1.58322 0 52 -1.58322 1
gene 1 27 28 2.10842 0 53 2.10842 1
gene 1 27 29 2.37056 0 54 2.37056 1
gene 1 16 41 -1.83233 0 82 -1.83233 1
gene 1 41 28 -1.64611 0 83 -1.64611 1
gene 1 9 41 2.20582 0 244 2.20582 1
gene 1 3 90 -0.0605602 0 252 -0.0605602 1
gene 1 90 28 3.85533 0 253 3.85533 1
gene 1 8 101 -2.17826 0 295 -2.17826 1
gene 1 101 29 -1.33129 0 296 -1.33129 1
gene 1 22 104 -2.65275 0 302 -2.65275 1
gene 1 104 29 1.14864 0 303 1.14864 1
gene 1 12 111 -2.18917 0 321 -2.18917 1
gene 1 111 28 -0.722297 0 322 -0.722297 1
gene 1 5 41 -0.681326 0 361 -0.681326 1
gene 1 11 41 -2.1643 0 376 -2.1643 1
gene 1 23 90 -3.6353 0 401 -3.6353 1
gene 1 24 41 0.407102 0 430 0.407102 1
gene 1 11 139 -1.42903 0 442 -1.42903 1
gene 1 139 29 0.677511 0 443 0.677511 1
genomeend 5

/* Organism #6 Fitness: 0.147721 Error: 0 */
genomestart 6
trait 1 0.904263 0 0 0.0236213 0 0.0946226 0.617344 0.402776 
node 1 1 1 1
node 2 1 1 1
node 3 1 1 1
node 4 1 1 1
node 5 1 1 1
node 6 1 1 1
node 7 1 1 1
node 8 1 1 1
node 9 1 1 1
node 10 1 1 1
node 11 1 1 1
node 12 1 1 1
node 13 1 1 1
node 14 1 1 1
node 15 1 1 1
node 16 1 1 1
node 17 1 1 1
node 18 1 1 1
node 19 1 1 1
node 20 1 1 1
node 21 1 1 1
node 22 1 1 1
node 23 1 1 1
node 24 1 1 1
node 25 1 1 1
node 26 1 1 1
node 27 1 1 3
node 28 1 0 2
node 29 1 0 2
node 41 1 0 0
node 90 1 0 0
node 101 1 0 0
node 104 1 0 0
node 111 1 0 0
node 139 1 0 0
gene 1 1 28 8 0 1 8 1
gene 1 1 29 1.98325 0 2 1.98325 1
gene 1 2 28 -0.460486 0 3 -0.460486 1
gene 1 2 29 -5.72657 0 4 -5.72657 1
gene 1 3 28 -0.836398 0 5 -0.836398 0
gene 1 3 29 -1.95021 0 6 -1.95021 1
gene 1 4 28 0.736803 0 7 0.736803 1
gene 1 4 29 6.09473 0 8 6.09473 1
gene 1 5 28 6.7936 0 9 6.7936 1
gene 1 5 29 1.77736 0 10 1.77736 1
gene 1 6 28 -0.193258 0 11 -0.193258 1
gene 1 6 29 0.136761 0 12 0.136761 1
gene 1 7 28 -1.60176 0 13 -1.60176 1
gene 1 7 29 -0.0220496 0 14 -0.0220496 1
gene 1 8 28 -4.42145 0 15 -4.42145 1
gene 1 8 29 -1.89207 0 16 -1.89207 1
gene 1 9 28 -0.421766 0 17 -0.421766 1
gene 1 9 29 3.26153 0 18 3.26153 1
gene 1 10 28 2.42706 0 19 2.42706 1
gene 1 10 29 2.39326 0 20 2.39326 1
gene 1 11 28 5.03483 0 21 5.03483 1
gene 1 11 29 2.32109 0 22 2.32109 0
gene 1 12 28 1.0168 0 23 1.0168 1
gene 1 12 29 0.799356 0 24 0.799356 1
gene 1 13 28 -2.24731 0 25 -2.24731 1
gene 1 13 29 -1.60932 0 26 -1.60932 1
gene 1 14 28 -0.379421 0 27 -0.379421 1
gene 1 14 29 -1.72136 0 28 -1.72136 1
gene 1 15 28 2.97357 0 29 2.97357 1
gene 1 15 29 2.1091 0 30 2.1091 1
gene 1 16 28 3.61686 0 31 3.61686 0
gene 1 16 29 5.44282 0 32 5.44282 1
gene 1 17 28 4.13202 0 33 4.13202 1
gene 1 17 29 3.82595 0 34 3.82595 1
gene 1 18 28 -1.10256 0 35 -1.10256 1
gene 1 18 29 0.0104144 0 36 0.0104144 1
gene 1 19 28 6.16943 0 37 6.16943 1
gene 1 19 29 -0.999786 0 38 -0.999786 1
gene 1 20 28 -6.72342 0 39 -6.72342 1
gene 1 20 29 2.60409 0 40 2.60409 1
gene 1 21 28 1.08956 0 41 1.08956 1
gene 1 21 29 -0.780721 0 42 -0.780721 1
gene 1 22 28 0.101474 0 43 0.101474 1
gene 1 22 29 -5.10926 0 44 -5.10926 1
gene 1 23 28 -2.10582 0 45 -2.10582 1
gene 1 23 29 -1.91656 0 46 -1.91656 1
gene 1 24 28 -1.82133 0 47 -1.82133 1
gene 1 24 29 -1.60281 0 48 -1.60281 1
gene 1 25 28 3.52411 0 49 3.52411 1
gene 1 25 29 -1.99675 0 50 -1.99675 1
gene 1 26 28 -5.69517 0 51 -5.69517 1
gene 1 26 29 -1.66318 0 52 -1.66318 1
gene 1 27 28 6.23673 0 53 6.23673 1
gene 1 27 29 0.922021 0 54 0.922021 1
gene 1 16 41 -1.50037 0 82 -1.50037 1
gene 1 41 28 -0.865858 0 83 -0.865858 1
gene 1 9 41 2.94028 0 244 2.94028 1
gene 1 3 90 -1.04757 0 252 -1.04757 1
gene 1 90 28 -1.02748 0 253 -1.02748 1
gene 1 8 101 -3.53397 0 295 -3.53397 1
gene 1 101 29 -2.11879 0 296 -2.11879 1
gene 1 22 104 -4.65514 0 302 -4.65514 1
gene 1 104 29 0.950117 0 303 0.950117 1
gene 1 12 111 -0.222633 0 321 -0.222633 1
gene 1 111 28 0.415815 0 322 0.415815 1
gene 1 5 41 -1.9536 0 361 -1.9536 1
gene 1 11 41 -0.826899 0 376 -0.826899 1
gene 1 23 90 -3.92164 0 401 -3.92164 1
gene 1 24 41 -0.760796 0 430 -0.760796 1
gene 1 11 139 2.91269 0 442 2.91269 1
gene 1 139 29 1.23783 0 443 1.23783 1
genomeend 6

/* Organism #7 Fitness: 0.147721 Error: 0 */
genomestart 7
trait 1 0.808527 0 0 0.0236213 0 0.0946226 0.617344 0.402776 
node 1 1 1 1
node 2 1 1 1
node 3 1 1 1
node 4 1 1 1
node 5 1 1 1
node 6 1 1 1
node 7 1 1 1
node 8 1 1 1
node 9 1 1 1
node 10 1 1 1
node 11 1 1 1
node 12 1 1 1
node 13 1 1 1
node 14 1 1 1
node 15 1 1 1
node 16 1 1 1
node 17 1 1 1
node 18 1 1 1
node 19 1 1 1
node 20 1 1 1
node 21 1 1 1
node 22 1 1 1
node 23 1 1 1
node 24 1 1 1
node 25 1 1 1
node 26 1 1 1
node 27 1 1 3
node 28 1 0 2
node 29 1 0 2
node 41 1 0 0
node 90 1 0 0
node 101 1 0 0
node 104 1 0 0
node 111 1 0 0
node 139 1 0 0
gene 1 1 28 8 0 1 8 1
gene 1 1 29 8 0 2 8 0
gene 1 2 28 -4.53299 0 3 -4.53299 1
gene 1 2 29 -1.22631 0 4 -1.22631 1
gene 1 3 28 -2.47528 0 5 -2.47528 0
gene 1 3 29 2.26409 0 6 2.26409 1
gene 1 4 28 -1.27636 0 7 -1.27636 1
gene 1 4 29 8 0 8 8 1
gene 1 5 28 3.13456 0 9 3.13456 1
gene 1 5 29 0.188528 0 10 0.188528 1
gene 1 6 28 1.66456 0 11 1.66456 1
gene 1 6 29 -3.67164 0 12 -3.67164 1
gene 1 7 28 -1.22307 0 13 -1.22307 1
gene 1 7 29 8 0 14 8 1
gene 1 8 28 -1.04122 0 15 -1.04122 1
gene 1 8 29 -5.17569 0 16 -5.17569 0
gene 1 9 28 2.08647 0 17 2.08647 1
gene 1 9 29 3.30422 0 18 3.30422 1
gene 1 10 28 -6.86316 0 19 -6.86316 1
gene 1 10 29 -2.09685 0 20 -2.09685 1
gene 1 11 28 5.557 0 21 5.557 1
gene 1 11 29 1.65464 0 22 1.65464 0
gene 1 12 28 2.04344 0 23 2.04344 0
gene 1 12 29 8 0 24 8 1
gene 1 13 28 1.4507 0 25 1.4507 1
gene 1 13 29 3.41733 0 26 3.41733 1
gene 1 14 28 0.0489822 0 27 0.0489822 1
gene 1 14 29 -0.403684 0 28 -0.403684 1
gene 1 15 28 2.9474 0 29 2.9474 1
gene 1 15 29 5.37324 0 30 5.37324 1
gene 1 16 28 -1.61794 0 31 -1.61794 0
gene 1 16 29 0.127682 0 32 0.127682 1
gene 1 17 28 -1.41484 0 33 -1.41484 1
gene 1 17 29 3.886 0 34 3.886 1
gene 1 18 28 0.823084 0 35 0.823084 1
gene 1 18 29 -3.91438 0 36 -3.91438 1
gene 1 19 28 8 0 37 8 1
gene 1 19 29 -1.18213 0 38 -1.18213 1
gene 1 20 28 -5.37461 0 39 -5.37461 1
gene 1 20 29 -6.3661 0 40 -6.3661 1
gene 1 21 28 6.1747 0 41 6.1747 1
gene 1 21 29 2.74224 0 42 2.74224 1
gene 1 22 28 1.03908 0 43 1.03908 1
gene 1 22 29 -2.45277 0 44 -2.45277 0
gene 1 23 28 2.11325 0 45 2.11325 1
gene 1 23 29 -2.2071 0 46 -2.2071 1
gene 1 24 28 6.0117 0 47 6.0117 1
gene 1 24 29 3.49179 0 48 3.49179 1
gene 1 25 28 2.37808 0 49 2.37808 1
gene 1 25 29 -1.9335 0 50 -1.9335 1
gene 1 26 28 -0.811335 0 51 -0.811335 1
gene 1 26 29 -0.196081 0 52 -0.196081 1
gene 1 27 28 3.8865 0 53 3.8865 1
gene 1 27 29 -0.169836 0 54 -0.169836 1
gene 1 16 41 -4.93919 0 82 -4.93919 1
gene 1 41 28 -0.233543 0 83 -0.233543 1
gene 1 9 41 -2.58873 0 244 -2.58873 1
gene 1 3 90 1.08877 0 252 1.08877 1
gene 1 90 28 -1.44948 0 253 -1.44948 1
gene 1 8 101 -0.247353 0 295 -0.247353 1
gene 1 101 29 -0.0343333 0 296 -0.0343333 1
gene 1 22 104 -1.37761 0 302 -1.37761 1
gene 1 104 29 -0.295267 0 303 -0.295267 1
gene 1 12 111 -1.05705 0 321 -1.05705 1
gene 1 111 28 0.845515 0 322 0.845515 1
gene 1 5 41 -2.06015 0 361 -2.06015 1
gene 1 11 41 -1.62244 0 376 -1.62244 1
gene 1 23 90 -0.932264 0 401 -0.932264 1
gene 1 24 41 -7.58882 0 430 -7.58882 1
gene 1 11 139 -0.481353 0 442 -0.481353 1
gene 1 139 29 3.24625 0 443 3.24625 1
gene 1 14 139 -1.70797 0 554 -1.70797 1
genomeend 7

/* Organism #8 Fitness: 0.147721 Error: 0 */
genomestart 8
trait 1 0.856395 0 0 0.0236213 0 0.0946226 0.617344 0.402776 
node 1 1 1 1
node 2 1 1 1
node 3 1 1 1
node 4 1 1 1
node 5 1 1 1
node 6 1 1 1
node 7 1 1 1
node 8 1 1 1
node 9 1 1 1
node 10 1 1 1
node 11 1 1 1
node 12 1 1 1
node 13 1 1 1
node 14 1 1 1
node 15 1 1 1
node 16 1 1 1
node 17 1 1 1
node 18 1 1 1
node 19 1 1 1
node 20 1 1 1
node 21 1 1 1
node 22 1 1 1
node 23 1 1 1
node 24 1 1 1
node 25 1 1 1
node 26 1 1 1
node 27 1 1 3
node 28 1 0 2
node 29 1 0 2
node 41 1 0 0
node 90 1 0 0
node 101 1 0 0
node 104 1 0 0
node 111 1 0 0
node 139 1 0 0
gene 1 1 28 8 0 1 8 1
gene 1 1 29 6.07117 0 2 6.07117 1
gene 1 2 28 -1.02632 0 3 -1.02632 1
gene 1 2 29 -2.54448 0 4 -2.54448 1
gene 1 3 28 -1.63108 0 5 -1.63108 0
gene 1 3 29 -0.454382 0 6 -0.454382 1
gene 1 4 28 0.24793 0 7 0.24793 1
gene 1 4 29 8 0 8 8 1
gene 1 5 28 4.46209 0 9 4.46209 1
gene 1 5 29 0.563734 0 10 0.563734 1
gene 1 6 28 -1.84273 0 11 -1.84273 1
gene 1 6 29 -0.412343 0 12 -0.412343 1
gene 1 7 28 -3.39192 0 13 -3.39192 1
gene 1 7 29 8 0 14 8 1
gene 1 8 28 -0.586299 0 15 -0.586299 1
gene 1 8 29 -4.17975 0 16 -4.17975 0
gene 1 9 28 0.970202 0 17 0.970202 1
gene 1 9 29 4.11626 0 18 4.11626 1
gene 1 10 28 -3.46807 0 19 -3.46807 1
gene 1 10 29 -2.43456 0 20 -2.43456 1
gene 1 11 28 5.44824 0 21 5.44824 1
gene 1 11 29 -0.693247 0 22 -0.693247 0
gene 1 12 28 4.89 0 23 4.89 0
gene 1 12 29 6.57649 0 24 6.57649 1
gene 1 13 28 0.226447 0 25 0.226447 1
gene 1 13 29 0.0604839 0 26 0.0604839 1
gene 1 14 28 -1.24546 0 27 -1.24546 1
gene 1 14 29 -1.53666 0 28 -1.53666 1
gene 1 15 28 2.48943 0 29 2.48943 1
gene 1 15 29 2.90008 0 30 2.90008 1
gene 1 16 28 1.40265 0 31 1.40265 0
gene 1 16 29 3.29285 0 32 3.29285 1
gene 1 17 28 0.390542 0 33 0.390542 1
gene 1 17 29 2.57012 0 34 2.57012 1
gene 1 18 28 2.27767 0 35 2.27767 1
gene 1 18 29 -1.5491 0 36 -1.5491 1
gene 1 19 28 6.89983 0 37 6.89983 1
gene 1 19 29 -3.14535 0 38 -3.14535 1
gene 1 20 28 -5.77897 0 39 -5.77897 1
gene 1 20 29 -0.970222 0 40 -0.970222 1
gene 1 21 28 2.58069 0 41 2.58069 1
gene 1 21 29 1.56023 0 42 1.56023 1
gene 1 22 28 0.516354 0 43 0.516354 1
gene 1 22 29 -4.04336 0 44 -4.04336 0
gene 1 23 28 -0.666772 0 45 -0.666772 1
gene 1 23 29 0.650011 0 46 0.650011 1
gene 1 24 28 1.52834 0 47 1.52834 1
gene 1 24 29 0.596046 0 48 0.596046 1
gene 1 25 28 1.27227 0 49 1.27227 1
gene 1 25 29 -1.29582 0 50 -1.29582 1
gene 1 26 28 -1.72443 0 51 -1.72443 1
gene 1 26 29 -0.422834 0 52 -0.422834 1
gene 1 27 28 6.00197 0 53 6.00197 1
gene 1 27 29 1.16931 0 54 1.16931 1
gene 1 16 41 -3.09919 0 82 -3.09919 1
gene 1 41 28 -1.01488 0 83 -1.01488 1
gene 1 9 41 1.0473 0 244 1.0473 1
gene 1 3 90 0.809008 0 252 0.809008 1
gene 1 90 28 2.85287 0 253 2.85287 1
gene 1 8 101 -2.84394 0 295 -2.84394 1
gene 1 101 29 -0.229213 0 296 -0.229213 1
gene 1 22 104 -2.88575 0 302 -2.88575 1
gene 1 104 29 4.92197 0 303 4.92197 1
gene 1 12 111 -1.03357 0 321 -1.03357 1
gene 1 111 28 0.564211 0 322 0.564211 1
gene 1 5 41 -0.872009 0 361 -0.872009 1
gene 1 11 41 -1.22467 0 376 -1.22467 1
gene 1 23 90 -2.85692 0 401 -2.85692 1
gene 1 24 41 -3.16709 0 430 -3.16709 1
gene 1 11 139 0.734619 0 442 0.734619 1
gene 1 139 29 2.30714 0 443 2.30714 1
genomeend 8

/* Organism #9 Fitness: 0.147721 Error: 0 */
genomestart 9
trait 1 0.733955 0 0 0.415174 0 0.149892 0.617344 0.402776 
node 1 1 1 1
node 2 1 1 1
node 3 1 1 1
node 4 1 1 1
node 5 1 1 1
node 6 1 1 1
node 7 1 1 1
node 8 1 1 1
node 9 1 1 1
node 10 1 1 1
node 11 1 1 1
node 12 1 1 1
node 13 1 1 1
node 14 1 1 1
node 15 1 1 1
node 16 1 1 1
node 17 1 1 1
node 18 1 1 1
node 19 1 1 1
node 20 1 1 1
node 21 1 1 1
node 22 1 1 1
node 23 1 1 1
node 24 1 1 1
node 25 1 1 1
node 26 1 1 1
node 27 1 1 3
node 28 1 0 2
node 29 1 0 2
node 41 1 0 0
node 90 1 0 0
node 101 1 0 0
node 104 1 0 0
node 111 1 0 0
node 139 1 0 0
gene 1 1 28 7.50781 0 1 7.50781 1
gene 1 1 29 8 0 2 8 0
gene 1 2 28 1.65651 0 3 1.65651 1
gene 1 2 29 -3.60561 0 4 -3.60561 1
gene 1 3 28 1.71281 0 5 1.71281 0
gene 1 3 29 0.0910215 0 6 0.0910215 1
gene 1 4 28 0.61388 0 7 0.61388 1
gene 1 4 29 8 0 8 8 1
gene 1 5 28 5.56661 0 9 5.56661 1
gene 1 5 29 3.31996 0 10 3.31996 1
gene 1 6 28 -2.54322 0 11 -2.54322 1
gene 1 6 29 -3.08309 0 12 -3.08309 1
gene 1 7 28 -4.11546 0 13 -4.11546 1
gene 1 7 29 7.99687 0 14 7.99687 1
gene 1 8 28 -0.0112918 0 15 -0.0112918 1
gene 1 8 29 -4.04658 0 16 -4.04658 1
gene 1 9 28 0.183607 0 17 0.183607 1
gene 1 9 29 -0.775018 0 18 -0.775018 1
gene 1 10 28 0.590991 0 19 0.590991 1
gene 1 10 29 -4.55061 0 20 -4.55061 1
gene 1 11 28 4.52349 0 21 4.52349 1
gene 1 11 29 -3.85071 0 22 -3.85071 0
gene 1 12 28 0.990555 0 23 0.990555 0
gene 1 12 29 7.47688 0 24 7.47688 1
gene 1 13 28 1.55469 0 25 1.55469 1
gene 1 13 29 1.06176 0 26 1.06176 1
gene 1 14 28 -2.09441 0 27 -2.09441 1
gene 1 14 29 -0.03296 0 28 -0.03296 1
gene 1 15 28 -0.205771 0 29 -0.205771 1
gene 1 15 29 -2.28202 0 30 -2.28202 1
gene 1 16 28 -1.50105 0 31 -1.50105 0
gene 1 16 29 2.54482 0 32 2.54482 1
gene 1 17 28 -3.92148 0 33 -3.92148 1
gene 1 17 29 1.40629 0 34 1.40629 1
gene 1 18 28 1.12323 0 35 1.12323 1
gene 1 18 29 -2.50374 0 36 -2.50374 1
gene 1 19 28 8 0 37 8 1
gene 1 19 29 -5.83392 0 38 -5.83392 1
gene 1 20 28 -5.08511 0 39 -5.08511 1
gene 1 20 29 -1.88667 0 40 -1.88667 1
gene 1 21 28 0.905606 0 41 0.905606 1
gene 1 21 29 5.86085 0 42 5.86085 1
gene 1 22 28 1.40538 0 43 1.40538 1
gene 1 22 29 -5.75137 0 44 -5.75137 0
gene 1 23 28 -0.942602 0 45 -0.942602 1
gene 1 23 29 -1.37944 0 46 -1.37944 1
gene 1 24 28 0.713536 0 47 0.713536 1
gene 1 24 29 -0.0827624 0 48 -0.0827624 1
gene 1 25 28 -1.19152 0 49 -1.19152 1
gene 1 25 29 2.1588 0 50 2.1588 1
gene 1 26 28 2.44591 0 51 2.44591 1
gene 1 26 29 -0.895795 0 52 -0.895795 1
gene 1 27 28 8 0 53 8 1
gene 1 27 29 -1.66221 0 54 -1.66221 1
gene 1 16 41 -4.45997 0 82 -4.45997 1
gene 1 41 28 -1.37562 0 83 -1.37562 1
gene 1 9 41 4.45384 0 244 4.45384 1
gene 1 3 90 1.77429 0 252 1.77429 1
gene 1 90 28 4.24177 0 253 4.24177 1
gene 1 8 101 -1.40477 0 295 -1.40477 1
gene 1 101 29 1.76222 0 296 1.76222 1
gene 1 22 104 -5.46541 0 302 -5.46541 1
gene 1 104 29 7.59774 0 303 7.59774 1
gene 1 12 111 1.26637 0 321 1.26637 1
gene 1 111 28 2.94084 0 322 2.94084 1
gene 1 5 41 1.40442 0 361 1.40442 1
gene 1 11 41 0.137486 0 376 0.137486 1
gene 1 23 90 -5.65387 0 401 -5.65387 1
gene 1 24 41 -0.760796 0 430 -0.760796 1
gene 1 11 139 1.90748 0 442 1.90748 1
gene 1 139 29 1.65021 0 443 1.65021 1
genomeend 9

/* Organism #10 Fitness: 0.147721 Error: 0 */
genomestart 10
trait 1 0.808527 0 0 0.0236213 0 0.0946226 0.617344 0.402776 
node 1 1 1 1
node 2 1 1 1
node 3 1 1 1
node 4 1 1 1
node 5 1 1 1
node 6 1 1 1
node 7 1 1 1
node 8 1 1 1
node 9 1 1 1
node 10 1 1 1
node 11 1 1 1
node 12 1 1 1
node 13 1 1 1
node 14 1 1 1
node 15 1 1 1
node 16 1 1 1
node 17 1 1 1
node 18 1 1 1
node 19 1 1 1
node 20 1 1 1
node 21 1 1 1
node 22 1 1 1
node 23 1 1 1
node 24 1 1 1
node 25 1 1 1
node 26 1 1 1
node 27 1 1 3
node 28 1 0 2
node 29 1 0 2
node 41 1 0 0
node 90 1 0 0
node 101 1 0 0
node 104 1 0 0
node 111 1 0 0
node 139 1 0 0
gene 1 1 28 8 0 1 8 1
gene 1 1 29 7.19172 0 2 7.19172 0
gene 1 2 28 -3.70914 0 3 -3.70914 1
gene 1 2 29 -1.1536 0 4 -1.1536 1
gene 1 3 28 -3.38107 0 5 -3.38107 0
gene 1 3 29 1.04144 0 6 1.04144 1
gene 1 4 28 -0.847423 0 7 -0.847423 1
gene 1 4 29 8 0 8 8 1
gene 1 5 28 0.924177 0 9 0.924177 1
gene 1 5 29 1.68088 0 10 1.68088 1
gene 1 6 28 0.0534074 0 11 0.0534074 1
gene 1 6 29 -2.42244 0 12 -2.42244 1
gene 1 7 28 -3.04312 0 13 -3.04312 1
gene 1 7 29 8 0 14 8 1
gene 1 8 28 0.907697 0 15 0.907697 1
gene 1 8 29 -3.12004 0 16 -3.12004 0
gene 1 9 28 1.64563 0 17 1.64563 1
gene 1 9 29 4.06978 0 18 4.06978 1
gene 1 10 28 -5.57192 0 19 -5.57192 1
gene 1 10 29 -2.91093 0 20 -2.91093 1
gene 1 11 28 4.97646 0 21 4.97646 1
gene 1 11 29 2.35466 0 22 2.35466 0
gene 1 12 28 2.8637 0 23 2.8637 0
gene 1 12 29 7.47688 0 24 7.47688 1
gene 1 13 28 0.839717 0 25 0.839717 1
gene 1 13 29 1.33047 0 26 1.33047 1
gene 1 14 28 -2.06442 0 27 -2.06442 1
gene 1 14 29 -1.35197 0 28 -1.35197 1
gene 1 15 28 1.61641 0 29 1.61641 1
gene 1 15 29 2.93832 0 30 2.93832 1
gene 1 16 28 -0.411695 0 31 -0.411695 0
gene 1 16 29 2.23521 0 32 2.23521 1
gene 1 17 28 -1.4433 0 33 -1.4433 1
gene 1 17 29 1.50304 0 34 1.50304 1
gene 1 18 28 0.668279 0 35 0.668279 1
gene 1 18 29 -2.50374 0 36 -2.50374 1
gene 1 19 28 7.90239 0 37 7.90239 1
gene 1 19 29 -3.44447 0 38 -3.44447 1
gene 1 20 28 -6.47282 0 39 -6.47282 1
gene 1 20 29 -3.93248 0 40 -3.93248 1
gene 1 21 28 3.84553 0 41 3.84553 1
gene 1 21 29 3.90118 0 42 3.90118 1
gene 1 22 28 1.35998 0 43 1.35998 1
gene 1 22 29 -4.49103 0 44 -4.49103 0
gene 1 23 28 0.0961333 0 45 0.0961333 1
gene 1 23 29 -1.23066 0 46 -1.23066 1
gene 1 24 28 3.69611 0 47 3.69611 1
gene 1 24 29 1.55654 0 48 1.55654 1
gene 1 25 28 -0.0989563 0 49 -0.0989563 1
gene 1 25 29 -2.43149 0 50 -2.43149 1
gene 1 26 28 0.533921 0 51 0.533921 1
gene 1 26 29 0.0501267 0 52 0.0501267 1
gene 1 27 28 5.7672 0 53 5.7672 1
gene 1 27 29 1.77961 0 54 1.77961 1
gene 1 16 41 -4.43327 0 82 -4.43327 1
gene 1 41 28 -0.800195 0 83 -0.800195 1
gene 1 9 41 -0.824534 0 244 -0.824534 1
gene 1 3 90 1.0275 0 252 1.0275 1
gene 1 90 28 2.09166 0 253 2.09166 1
gene 1 8 101 -1.97195 0 295 -1.97195 1
gene 1 101 29 -0.0343333 0 296 -0.0343333 1
gene 1 22 104 -2.4678 0 302 -2.4678 1
gene 1 104 29 5.11116 0 303 5.11116 1
gene 1 12 111 -2.0254 0 321 -2.0254 1
gene 1 111 28 0.845515 0 322 0.845515 1
gene 1 5 41 -2.06015 0 361 -2.06015 1
gene 1 11 41 -1.62244 0 376 -1.62244 1
gene 1 23 90 -2.30056 0 401 -2.30056 1
gene 1 24 41 -5.57338 0 430 -5.57338 1
gene 1 11 139 -0.438246 0 442 -0.438246 1
gene 1 139 29 2.65656 0 443 2.65656 1
gene 1 14 139 -1.01115 0 554 -1.01115 1
genomeend 10

/* Organism #11 Fitness: 0.147721 Error: 0 */
genomestart 11
trait 1 0.856395 0 0 0.0236213 0 0.0946226 0.617344 0.402776 
node 1 1 1 1
node 2 1 1 1
node 3 1 1 1
node 4 1 1 1
node 5 1 1 1
node 6 1 1 1
node 7 1 1 1
node 8 1 1 1
node 9 1 1 1
node 10 1 1 1
node 11 1 1 1
node 12 1 1 1
node 13 1 1 1
node 14 1 1 1
node 15 1 1 1
node 16 1 1 1
node 17 1 1 1
node 18 1 1 1
node 19 1 1 1
node 20 1 1 1
node 21 1 1 1
node 22 1 1 1
node 23 1 1 1
node 24 1 1 1
node 25 1 1 1
node 26 1 1 1
node 27 1 1 3
node 28 1 0 2
node 29 1 0 2
node 41 1 0 0
node 90 1 0 0
node 101 1 0 0
node 104 1 0 0
node 111 1 0 0
node 139 1 0 0
gene 1 1 28 8 0 1 8 1
gene 1 1 29 6.13231 0 2 6.13231 0
gene 1 2 28 1.65651 0 3 1.65651 1
gene 1 2 29 -4.7982 0 4 -4.7982 1
gene 1 3 28 1.26171 0 5 1.26171 0
gene 1 3 29 -0.432905 0 6 -0.432905 1
gene 1 4 28 4.00695 0 7 4.00695 1
gene 1 4 29 6.26184 0 8 6.26184 1
gene 1 5 28 8 0 9 8 1
gene 1 5 29 -1.49823 0 10 -1.49823 1
gene 1 6 28 -3.73886 0 11 -3.73886 1
gene 1 6 29 1.59776 0 12 1.59776 1
gene 1 7 28 -7.02441 0 13 -7.02441 1
gene 1 7 29 8 0 14 8 1
gene 1 8 28 -2.08029 0 15 -2.08029 1
gene 1 8 29 -6.55932 0 16 -6.55932 0
gene 1 9 28 1.89821 0 17 1.89821 1
gene 1 9 29 2.14352 0 18 2.14352 1
gene 1 10 28 -1.36422 0 19 -1.36422 1
gene 1 10 29 -1.95818 0 20 -1.95818 1
gene 1 11 28 5.92002 0 21 5.92002 1
gene 1 11 29 -1.25378 0 22 -1.25378 0
gene 1 12 28 6.9163 0 23 6.9163 0
gene 1 12 29 5.6761 0 24 5.6761 1
gene 1 13 28 1.71583 0 25 1.71583 1
gene 1 13 29 -1.20951 0 26 -1.20951 1
gene 1 14 28 -0.778375 0 27 -0.778375 1
gene 1 14 29 -1.72136 0 28 -1.72136 1
gene 1 15 28 1.14879 0 29 1.14879 1
gene 1 15 29 1.41209 0 30 1.41209 1
gene 1 16 28 4.52647 0 31 4.52647 0
gene 1 16 29 4.35049 0 32 4.35049 1
gene 1 17 28 2.22438 0 33 2.22438 1
gene 1 17 29 3.6372 0 34 3.6372 1
gene 1 18 28 4.22544 0 35 4.22544 1
gene 1 18 29 -1.20937 0 36 -1.20937 1
gene 1 19 28 6.42964 0 37 6.42964 1
gene 1 19 29 -2.84623 0 38 -2.84623 1
gene 1 20 28 -2.54959 0 39 -2.54959 1
gene 1 20 29 1.35142 0 40 1.35142 1
gene 1 21 28 1.31585 0 41 1.31585 1
gene 1 21 29 -3.87322 0 42 -3.87322 1
gene 1 22 28 -0.327273 0 43 -0.327273 1
gene 1 22 29 -3.59569 0 44 -3.59569 0
gene 1 23 28 -1.42968 0 45 -1.42968 1
gene 1 23 29 2.42212 0 46 2.42212 1
gene 1 24 28 -0.639426 0 47 -0.639426 1
gene 1 24 29 -0.907907 0 48 -0.907907 1
gene 1 25 28 -0.544584 0 49 -0.544584 1
gene 1 25 29 -0.160149 0 50 -0.160149 1
gene 1 26 28 -2.17116 0 51 -2.17116 1
gene 1 26 29 -0.895795 0 52 -0.895795 1
gene 1 27 28 6.23673 0 53 6.23673 1
gene 1 27 29 0.559004 0 54 0.559004 1
gene 1 16 41 -1.76511 0 82 -1.76511 1
gene 1 41 28 -1.22956 0 83 -1.22956 1
gene 1 9 41 1.84944 0 244 1.84944 1
gene 1 3 90 0.590514 0 252 0.590514 1
gene 1 90 28 3.85533 0 253 3.85533 1
gene 1 8 101 -3.71593 0 295 -3.71593 1
gene 1 101 29 -0.424093 0 296 -0.424093 1
gene 1 22 104 -3.17423 0 302 -3.17423 1
gene 1 104 29 4.73277 0 303 4.73277 1
gene 1 12 111 -0.0417341 0 321 -0.0417341 1
gene 1 111 28 0.962935 0 322 0.962935 1
gene 1 5 41 1.14002 0 361 1.14002 1
gene 1 11 41 -0.826899 0 376 -0.826899 1
gene 1 23 90 -3.41327 0 401 -3.41327 1
gene 1 24 41 -0.760796 0 430 -0.760796 1
gene 1 11 139 0.588244 0 442 0.588244 1
gene 1 139 29 1.95772 0 443 1.95772 1
gene 1 139 104 -0.887265 0 576 -0.887265 1
genomeend 11

/* Species #32 : (Size 10) (AF 0) (Age 14)  */


/* Organism #12 Fitness: 0.147721 Error: 0 */
genomestart 12
trait 1 0.82411 0.426984 0.257858 0 0.0166401 0.0236557 0.517912 0.31814 
node 1 1 1 1
node 2 1 1 1
node 3 1 1 1
node 4 1 1 1
node 5 1 1 1
node 6 1 1 1
node 7 1 1 1
node 8 1 1 1
node 9 1 1 1
node 10 1 1 1
node 11 1 1 1
node 12 1 1 1
node 13 1 1 1
node 14 1 1 1
node 15 1 1 1
node 16 1 1 1
node 17 1 1 1
node 18 1 1 1
node 19 1 1 1
node 20 1 1 1
node 21 1 1 1
node 22 1 1 1
node 23 1 1 1
node 24 1 1 1
node 25 1 1 1
node 26 1 1 1
node 27 1 1 3
node 28 1 0 2
node 29 1 0 2
node 41 1 0 0
node 90 1 0 0
node 123 1 0 0
node 145 1 0 0
gene 1 1 28 1.7346 0 1 1.7346 1
gene 1 1 29 1.53587 0 2 1.53587 1
gene 1 2 28 1.05405 0 3 1.05405 1
gene 1 2 29 0.581835 0 4 0.581835 1
gene 1 3 28 2.94078 0 5 2.94078 0
gene 1 3 29 7.07354 0 6 7.07354 1
gene 1 4 28 6.1858 0 7 6.1858 1
gene 1 4 29 0.640301 0 8 0.640301 1
gene 1 5 28 5.21838 0 9 5.21838 1
gene 1 5 29 -2.2093 0 10 -2.2093 1
gene 1 6 28 1.42605 0 11 1.42605 1
gene 1 6 29 -1.29963 0 12 -1.29963 1
gene 1 7 28 0.563219 0 13 0.563219 1
gene 1 7 29 1.73531 0 14 1.73531 1
gene 1 8 28 -1.00887 0 15 -1.00887 1
gene 1 8 29 -2.51663 0 16 -2.51663 1
gene 1 9 28 6.30093 0 17 6.30093 1
gene 1 9 29 6.95289 0 18 6.95289 0
gene 1 10 28 -0.86932 0 19 -0.86932 1
gene 1 10 29 -0.74324 0 20 -0.74324 1
gene 1 11 28 -2.62375 0 21 -2.62375 1
gene 1 11 29 -1.89261 0 22 -1.89261 1
gene 1 12 28 -1.05548 0 23 -1.05548 1
gene 1 12 29 -0.868945 0 24 -0.868945 1
gene 1 13 28 -2.42546 0 25 -2.42546 1
gene 1 13 29 -2.12645 0 26 -2.12645 0
gene 1 14 28 1.96856 0 27 1.96856 1
gene 1 14 29 -8 0 28 -8 1
gene 1 15 28 4.80876 0 29 4.80876 1
gene 1 15 29 1.52928 0 30 1.52928 1
gene 1 16 28 0.694372 0 31 0.694372 0
gene 1 16 29 4.09986 0 32 4.09986 1
gene 1 17 28 -3.24152 0 33 -3.24152 1
gene 1 17 29 2.2354 0 34 2.2354 1
gene 1 18 28 0.250633 0 35 0.250633 1
gene 1 18 29 4.43335 0 36 4.43335 1
gene 1 19 28 0.269936 0 37 0.269936 1
gene 1 19 29 -1.75748 0 38 -1.75748 1
gene 1 20 28 1.24226 0 39 1.24226 1
gene 1 20 29 2.68624 0 40 2.68624 0
gene 1 21 28 5.71938 0 41 5.71938 1
gene 1 21 29 6.40867 0 42 6.40867 1
gene 1 22 28 0.529801 0 43 0.529801 1
gene 1 22 29 -0.660115 0 44 -0.660115 1
gene 1 23 28 5.17791 0 45 5.17791 1
gene 1 23 29 -2.45102 0 46 -2.45102 1
gene 1 24 28 2.44297 0 47 2.44297 1
gene 1 24 29 2.11531 0 48 2.11531 1
gene 1 25 28 0.232246 0 49 0.232246 1
gene 1 25 29 4.32867 0 50 4.32867 1
gene 1 26 28 2.71218 0 51 2.71218 1
gene 1 26 29 -1.86184 0 52 -1.86184 1
gene 1 27 28 -0.131306 0 53 -0.131306 1
gene 1 27 29 -2.9034 0 54 -2.9034 1
gene 1 16 41 7.4022 0 82 7.4022 1
gene 1 41 28 5.88801 0 83 5.88801 1
gene 1 9 41 2.80168 0 244 2.80168 1
gene 1 3 90 1.41072 0 252 1.41072 1
gene 1 90 28 3.25049 0 253 3.25049 1
gene 1 20 123 -1.05061 0 358 -1.05061 1
gene 1 123 29 2.58469 0 359 2.58469 1
gene 1 17 90 0.296487 0 445 0.296487 1
gene 1 9 145 0.0135655 0 458 0.0135655 1
gene 1 145 29 6.28423 0 459 6.28423 1
gene 1 11 90 -0.509018 0 484 -0.509018 1
genomeend 12

/* Organism #13 Fitness: 0.13915 Error: 0 */
genomestart 13
trait 1 0.82411 0 0 0 0 0 0.391626 0.31814 
node 1 1 1 1
node 2 1 1 1
node 3 1 1 1
node 4 1 1 1
node 5 1 1 1
node 6 1 1 1
node 7 1 1 1
node 8 1 1 1
node 9 1 1 1
node 10 1 1 1
node 11 1 1 1
node 12 1 1 1
node 13 1 1 1
node 14 1 1 1
node 15 1 1 1
node 16 1 1 1
node 17 1 1 1
node 18 1 1 1
node 19 1 1 1
node 20 1 1 1
node 21 1 1 1
node 22 1 1 1
node 23 1 1 1
node 24 1 1 1
node 25 1 1 1
node 26 1 1 1
node 27 1 1 3
node 28 1 0 2
node 29 1 0 2
node 41 1 0 0
node 90 1 0 0
node 123 1 0 0
node 145 1 0 0
gene 1 1 28 1.10012 0 1 1.10012 1
gene 1 1 29 2.29276 0 2 2.29276 1
gene 1 2 28 1.20294 0 3 1.20294 1
gene 1 2 29 1.02145 0 4 1.02145 1
gene 1 3 28 4.90163 0 5 4.90163 0
gene 1 3 29 6.66738 0 6 6.66738 1
gene 1 4 28 3.79379 0 7 3.79379 1
gene 1 4 29 1.77534 0 8 1.77534 1
gene 1 5 28 -0.807978 0 9 -0.807978 1
gene 1 5 29 -2.26839 0 10 -2.26839 1
gene 1 6 28 0.840747 0 11 0.840747 1
gene 1 6 29 1.22738 0 12 1.22738 1
gene 1 7 28 -1.40614 0 13 -1.40614 1
gene 1 7 29 -0.205243 0 14 -0.205243 1
gene 1 8 28 -1.19785 0 15 -1.19785 1
gene 1 8 29 -4.82955 0 16 -4.82955 1
gene 1 9 28 5.77754 0 17 5.77754 1
gene 1 9 29 8 0 18 8 0
gene 1 10 28 -1.09409 0 19 -1.09409 1
gene 1 10 29 0.983001 0 20 0.983001 1
gene 1 11 28 0.0848415 0 21 0.0848415 1
gene 1 11 29 -4.28987 0 22 -4.28987 1
gene 1 12 28 -1.36341 0 23 -1.36341 1
gene 1 12 29 0.469787 0 24 0.469787 1
gene 1 13 28 -5.59736 0 25 -5.59736 1
gene 1 13 29 -3.22878 0 26 -3.22878 0
gene 1 14 28 2.58205 0 27 2.58205 1
gene 1 14 29 -8 0 28 -8 1
gene 1 15 28 0.938292 0 29 0.938292 1
gene 1 15 29 -2.34375 0 30 -2.34375 1
gene 1 16 28 2.41909 0 31 2.41909 0
gene 1 16 29 3.99682 0 32 3.99682 1
gene 1 17 28 -3.45634 0 33 -3.45634 1
gene 1 17 29 -0.558947 0 34 -0.558947 1
gene 1 18 28 0.317698 0 35 0.317698 1
gene 1 18 29 4.51266 0 36 4.51266 1
gene 1 19 28 0.382969 0 37 0.382969 1
gene 1 19 29 -3.06936 0 38 -3.06936 1
gene 1 20 28 1.15753 0 39 1.15753 1
gene 1 20 29 3.88077 0 40 3.88077 1
gene 1 21 28 4.07218 0 41 4.07218 1
gene 1 21 29 8 0 42 8 1
gene 1 22 28 -0.82709 0 43 -0.82709 1
gene 1 22 29 -2.58183 0 44 -2.58183 1
gene 1 23 28 -0.584658 0 45 -0.584658 1
gene 1 23 29 2.14263 0 46 2.14263 1
gene 1 24 28 0.658437 0 47 0.658437 1
gene 1 24 29 -0.619259 0 48 -0.619259 1
gene 1 25 28 0.205924 0 49 0.205924 1
gene 1 25 29 5.65466 0 50 5.65466 1
gene 1 26 28 0.840136 0 51 0.840136 1
gene 1 26 29 -1.61649 0 52 -1.61649 1
gene 1 27 28 2.6796 0 53 2.6796 1
gene 1 27 29 -4.14794 0 54 -4.14794 1
gene 1 16 41 1.423 0 82 1.423 1
gene 1 41 28 3.31793 0 83 3.31793 1
gene 1 9 41 0.505081 0 244 0.505081 1
gene 1 3 90 -0.410169 0 252 -0.410169 1
gene 1 90 28 3.77247 0 253 3.77247 1
gene 1 20 123 0.477218 0 358 0.477218 1
gene 1 123 29 4.75593 0 359 4.75593 1
gene 1 17 90 0.0663015 0 445 0.0663015 1
gene 1 9 145 2.29036 0 458 2.29036 1
gene 1 145 29 4.99856 0 459 4.99856 1
gene 1 11 90 0.527818 0 484 0.527818 1
genomeend 13

/* Organism #14 Fitness: 0.0593286 Error: 0 */
genomestart 14
trait 1 0.82411 0.426984 0.257858 0 0.0166401 0.0236557 0.517912 0.31814 
node 1 1 1 1
node 2 1 1 1
node 3 1 1 1
node 4 1 1 1
node 5 1 1 1
node 6 1 1 1
node 7 1 1 1
node 8 1 1 1
node 9 1 1 1
node 10 1 1 1
node 11 1 1 1
node 12 1 1 1
node 13 1 1 1
node 14 1 1 1
node 15 1 1 1
node 16 1 1 1
node 17 1 1 1
node 18 1 1 1
node 19 1 1 1
node 20 1 1 1
node 21 1 1 1
node 22 1 1 1
node 23 1 1 1
node 24 1 1 1
node 25 1 1 1
node 26 1 1 1
node 27 1 1 3
node 28 1 0 2
node 29 1 0 2
node 41 1 0 0
node 90 1 0 0
node 123 1 0 0
node 145 1 0 0
gene 1 1 28 4.44449 0 1 4.44449 1
gene 1 1 29 4.83415 0 2 4.83415 1
gene 1 2 28 -0.284265 0 3 -0.284265 1
gene 1 2 29 -2.32253 0 4 -2.32253 1
gene 1 3 28 5.9586 0 5 5.9586 0
gene 1 3 29 5.60614 0 6 5.60614 1
gene 1 4 28 5.53293 0 7 5.53293 1
gene 1 4 29 -2.45199 0 8 -2.45199 1
gene 1 5 28 -1.18732 0 9 -1.18732 1
gene 1 5 29 -1.28009 0 10 -1.28009 1
gene 1 6 28 -0.85612 0 11 -0.85612 1
gene 1 6 29 -5.20119 0 12 -5.20119 1
gene 1 7 28 -0.179601 0 13 -0.179601 1
gene 1 7 29 1.03301 0 14 1.03301 1
gene 1 8 28 -2.81152 0 15 -2.81152 1
gene 1 8 29 -1.65746 0 16 -1.65746 1
gene 1 9 28 6.67173 0 17 6.67173 1
gene 1 9 29 8 0 18 8 0
gene 1 10 28 0.486847 0 19 0.486847 1
gene 1 10 29 1.56518 0 20 1.56518 1
gene 1 11 28 1.22875 0 21 1.22875 1
gene 1 11 29 -2.43301 0 22 -2.43301 1
gene 1 12 28 -1.54302 0 23 -1.54302 1
gene 1 12 29 -0.911595 0 24 -0.911595 1
gene 1 13 28 -5.66164 0 25 -5.66164 1
gene 1 13 29 -1.01794 0 26 -1.01794 0
gene 1 14 28 4.69699 0 27 4.69699 1
gene 1 14 29 -8 0 28 -8 1
gene 1 15 28 5.52617 0 29 5.52617 1
gene 1 15 29 1.4037 0 30 1.4037 1
gene 1 16 28 -1.11194 0 31 -1.11194 0
gene 1 16 29 6.39531 0 32 6.39531 1
gene 1 17 28 -1.60772 0 33 -1.60772 1
gene 1 17 29 1.78991 0 34 1.78991 1
gene 1 18 28 -1.31451 0 35 -1.31451 1
gene 1 18 29 4.41038 0 36 4.41038 1
gene 1 19 28 0.385601 0 37 0.385601 1
gene 1 19 29 -4.80956 0 38 -4.80956 1
gene 1 20 28 4.66926 0 39 4.66926 1
gene 1 20 29 -1.20052 0 40 -1.20052 0
gene 1 21 28 4.85532 0 41 4.85532 1
gene 1 21 29 5.27972 0 42 5.27972 1
gene 1 22 28 3.5593 0 43 3.5593 1
gene 1 22 29 -4.03546 0 44 -4.03546 1
gene 1 23 28 -0.489212 0 45 -0.489212 1
gene 1 23 29 1.65349 0 46 1.65349 1
gene 1 24 28 2.52133 0 47 2.52133 1
gene 1 24 29 -0.192648 0 48 -0.192648 1
gene 1 25 28 3.45752 0 49 3.45752 1
gene 1 25 29 -1.59665 0 50 -1.59665 1
gene 1 26 28 1.30505 0 51 1.30505 1
gene 1 26 29 -4.73745 0 52 -4.73745 1
gene 1 27 28 -0.0774407 0 53 -0.0774407 1
gene 1 27 29 -0.0895146 0 54 -0.0895146 1
gene 1 16 41 0.440611 0 82 0.440611 1
gene 1 41 28 -0.435499 0 83 -0.435499 1
gene 1 9 41 2.80168 0 244 2.80168 1
gene 1 3 90 2.30331 0 252 2.30331 1
gene 1 90 28 2.131 0 253 2.131 1
gene 1 20 123 -0.58475 0 358 -0.58475 1
gene 1 123 29 0.778603 0 359 0.778603 1
gene 1 17 90 0.455489 0 445 0.455489 1
gene 1 9 145 0.498428 0 458 0.498428 1
gene 1 145 29 5.72078 0 459 5.72078 1
gene 1 11 90 -4.13042 0 484 -4.13042 1
genomeend 14

/* Organism #15 Fitness: 0.13915 Error: 0 */
genomestart 15
trait 1 0.82411 0.426984 0.257858 0 0.0166401 0.0236557 0.517912 0.31814 
node 1 1 1 1
node 2 1 1 1
node 3 1 1 1
node 4 1 1 1
node 5 1 1 1
node 6 1 1 1
node 7 1 1 1
node 8 1 1 1
node 9 1 1 1
node 10 1 1 1
node 11 1 1 1
node 12 1 1 1
node 13 1 1 1
node 14 1 1 1
node 15 1 1 1
node 16 1 1 1
node 17 1 1 1
node 18 1 1 1
node 19 1 1 1
node 20 1 1 1
node 21 1 1 1
node 22 1 1 1
node 23 1 1 1
node 24 1 1 1
node 25 1 1 1
node 26 1 1 1
node 27 1 1 3
node 28 1 0 2
node 29 1 0 2
node 41 1 0 0
node 90 1 0 0
node 123 1 0 0
node 145 1 0 0
gene 1 1 28 3.42952 0 1 3.42952 1
gene 1 1 29 -0.720215 0 2 -0.720215 1
gene 1 2 28 0.26812 0 3 0.26812 1
gene 1 2 29 1.10973 0 4 1.10973 1
gene 1 3 28 5.96402 0 5 5.96402 0
gene 1 3 29 8 0 6 8 1
gene 1 4 28 4.25497 0 7 4.25497 1
gene 1 4 29 1.53549 0 8 1.53549 1
gene 1 5 28 2.81978 0 9 2.81978 1
gene 1 5 29 1.99904 0 10 1.99904 1
gene 1 6 28 3.54663 0 11 3.54663 1
gene 1 6 29 -3.26342 0 12 -3.26342 1
gene 1 7 28 2.76276 0 13 2.76276 1
gene 1 7 29 1.42593 0 14 1.42593 1
gene 1 8 28 0.594653 0 15 0.594653 1
gene 1 8 29 -3.15706 0 16 -3.15706 1
gene 1 9 28 5.10704 0 17 5.10704 1
gene 1 9 29 4.6949 0 18 4.6949 0
gene 1 10 28 -1.66669 0 19 -1.66669 1
gene 1 10 29 -0.0507752 0 20 -0.0507752 1
gene 1 11 28 -3.7083 0 21 -3.7083 1
gene 1 11 29 -0.819346 0 22 -0.819346 1
gene 1 12 28 -2.52548 0 23 -2.52548 1
gene 1 12 29 -1.44444 0 24 -1.44444 1
gene 1 13 28 -6.27209 0 25 -6.27209 1
gene 1 13 29 0.209891 0 26 0.209891 0
gene 1 14 28 0.379076 0 27 0.379076 1
gene 1 14 29 -6.83213 0 28 -6.83213 1
gene 1 15 28 4.12461 0 29 4.12461 1
gene 1 15 29 1.03801 0 30 1.03801 1
gene 1 16 28 -1.31291 0 31 -1.31291 0
gene 1 16 29 -0.730155 0 32 -0.730155 1
gene 1 17 28 -0.997879 0 33 -0.997879 1
gene 1 17 29 4.0363 0 34 4.0363 1
gene 1 18 28 0.138783 0 35 0.138783 1
gene 1 18 29 2.51694 0 36 2.51694 1
gene 1 19 28 0.00343333 0 37 0.00343333 1
gene 1 19 29 -3.58577 0 38 -3.58577 1
gene 1 20 28 3.49376 0 39 3.49376 1
gene 1 20 29 2.15377 0 40 2.15377 0
gene 1 21 28 2.31595 0 41 2.31595 1
gene 1 21 29 3.07924 0 42 3.07924 1
gene 1 22 28 2.32482 0 43 2.32482 1
gene 1 22 29 -2.16163 0 44 -2.16163 1
gene 1 23 28 5.06248 0 45 5.06248 1
gene 1 23 29 0.412305 0 46 0.412305 1
gene 1 24 28 1.99466 0 47 1.99466 1
gene 1 24 29 2.47467 0 48 2.47467 1
gene 1 25 28 -2.53655 0 49 -2.53655 1
gene 1 25 29 1.66677 0 50 1.66677 1
gene 1 26 28 -1.40721 0 51 -1.40721 1
gene 1 26 29 -0.992828 0 52 -0.992828 1
gene 1 27 28 0.126652 0 53 0.126652 1
gene 1 27 29 1.15192 0 54 1.15192 1
gene 1 16 41 5.82342 0 82 5.82342 1
gene 1 41 28 8 0 83 8 1
gene 1 9 41 1.83615 0 244 1.83615 1
gene 1 3 90 0.27543 0 252 0.27543 1
gene 1 90 28 2.01388 0 253 2.01388 1
gene 1 20 123 1.59839 0 358 1.59839 1
gene 1 123 29 2.00896 0 359 2.00896 1
gene 1 17 90 -0.145116 0 445 -0.145116 1
gene 1 9 145 -0.821192 0 458 -0.821192 1
gene 1 145 29 1.94349 0 459 1.94349 1
gene 1 11 90 -2.72779 0 484 -2.72779 1
genomeend 15

/* Organism #16 Fitness: 0.1354 Error: 0 */
genomestart 16
trait 1 0.82411 0.426984 0.257858 0 0 1 0.517912 0.31814 
node 1 1 1 1
node 2 1 1 1
node 3 1 1 1
node 4 1 1 1
node 5 1 1 1
node 6 1 1 1
node 7 1 1 1
node 8 1 1 1
node 9 1 1 1
node 10 1 1 1
node 11 1 1 1
node 12 1 1 1
node 13 1 1 1
node 14 1 1 1
node 15 1 1 1
node 16 1 1 1
node 17 1 1 1
node 18 1 1 1
node 19 1 1 1
node 20 1 1 1
node 21 1 1 1
node 22 1 1 1
node 23 1 1 1
node 24 1 1 1
node 25 1 1 1
node 26 1 1 1
node 27 1 1 3
node 28 1 0 2
node 29 1 0 2
node 41 1 0 0
node 90 1 0 0
node 123 1 0 0
node 145 1 0 0
gene 1 1 28 2.0951 0 1 2.0951 1
gene 1 1 29 2.00684 0 2 2.00684 1
gene 1 2 28 1.54051 0 3 1.54051 1
gene 1 2 29 -0.171361 0 4 -0.171361 1
gene 1 3 28 -0.321207 0 5 -0.321207 0
gene 1 3 29 1.11705 0 6 1.11705 1
gene 1 4 28 6.19831 0 7 6.19831 1
gene 1 4 29 1.65563 0 8 1.65563 1
gene 1 5 28 -1.52387 0 9 -1.52387 1
gene 1 5 29 -2.29293 0 10 -2.29293 1
gene 1 6 28 -2.30178 0 11 -2.30178 1
gene 1 6 29 -3.71548 0 12 -3.71548 1
gene 1 7 28 -0.640584 0 13 -0.640584 1
gene 1 7 29 -0.0698556 0 14 -0.0698556 1
gene 1 8 28 1.56865 0 15 1.56865 1
gene 1 8 29 -0.505234 0 16 -0.505234 1
gene 1 9 28 1.13948 0 17 1.13948 1
gene 1 9 29 7.08031 0 18 7.08031 0
gene 1 10 28 -2.45941 0 19 -2.45941 1
gene 1 10 29 -0.287065 0 20 -0.287065 1
gene 1 11 28 -0.898846 0 21 -0.898846 1
gene 1 11 29 -2.90727 0 22 -2.90727 1
gene 1 12 28 -0.883282 0 23 -0.883282 1
gene 1 12 29 -0.691938 0 24 -0.691938 1
gene 1 13 28 -2.96304 0 25 -2.96304 1
gene 1 13 29 -1.17595 0 26 -1.17595 0
gene 1 14 28 3.55201 0 27 3.55201 1
gene 1 14 29 -5.75315 0 28 -5.75315 1
gene 1 15 28 2.8603 0 29 2.8603 1
gene 1 15 29 2.84928 0 30 2.84928 1
gene 1 16 28 1.48862 0 31 1.48862 0
gene 1 16 29 3.26235 0 32 3.26235 1
gene 1 17 28 -3.81726 0 33 -3.81726 1
gene 1 17 29 -1.33297 0 34 -1.33297 1
gene 1 18 28 -1.96959 0 35 -1.96959 1
gene 1 18 29 8 0 36 8 1
gene 1 19 28 0.568484 0 37 0.568484 1
gene 1 19 29 -3.7962 0 38 -3.7962 1
gene 1 20 28 0.819422 0 39 0.819422 1
gene 1 20 29 4.88945 0 40 4.88945 0
gene 1 21 28 1.86125 0 41 1.86125 1
gene 1 21 29 -1.87696 0 42 -1.87696 1
gene 1 22 28 2.42973 0 43 2.42973 1
gene 1 22 29 -3.02393 0 44 -3.02393 1
gene 1 23 28 2.79579 0 45 2.79579 1
gene 1 23 29 0.745415 0 46 0.745415 1
gene 1 24 28 4.10387 0 47 4.10387 1
gene 1 24 29 0.33845 0 48 0.33845 1
gene 1 25 28 1.27735 0 49 1.27735 1
gene 1 25 29 6.60802 0 50 6.60802 1
gene 1 26 28 3.70594 0 51 3.70594 1
gene 1 26 29 -6.01854 0 52 -6.01854 1
gene 1 27 28 0.552309 0 53 0.552309 1
gene 1 27 29 0.952921 0 54 0.952921 1
gene 1 16 41 6.06818 0 82 6.06818 1
gene 1 41 28 5.78974 0 83 5.78974 1
gene 1 9 41 3.56075 0 244 3.56075 1
gene 1 3 90 0.795007 0 252 0.795007 1
gene 1 90 28 -1.43895 0 253 -1.43895 1
gene 1 20 123 -1.06191 0 358 -1.06191 1
gene 1 123 29 0.11185 0 359 0.11185 1
gene 1 17 90 0.884884 0 445 0.884884 1
gene 1 9 145 -0.276055 0 458 -0.276055 1
gene 1 145 29 5.36326 0 459 5.36326 1
gene 1 11 90 -3.63129 0 484 -3.63129 1
genomeend 16

/* Organism #17 Fitness: 0.139686 Error: 0 */
genomestart 17
trait 1 0.82411 0.426984 0.257858 0 0.0166401 0.0236557 0.517912 0.31814 
node 1 1 1 1
node 2 1 1 1
node 3 1 1 1
node 4 1 1 1
node 5 1 1 1
node 6 1 1 1
node 7 1 1 1
node 8 1 1 1
node 9 1 1 1
node 10 1 1 1
node 11 1 1 1
node 12 1 1 1
node 13 1 1 1
node 14 1 1 1
node 15 1 1 1
node 16 1 1 1
node 17 1 1 1
node 18 1 1 1
node 19 1 1 1
node 20 1 1 1
node 21 1 1 1
node 22 1 1 1
node 23 1 1 1
node 24 1 1 1
node 25 1 1 1
node 26 1 1 1
node 27 1 1 3
node 28 1 0 2
node 29 1 0 2
node 41 1 0 0
node 90 1 0 0
node 123 1 0 0
node 145 1 0 0
gene 1 1 28 2.8985 0 1 2.8985 1
gene 1 1 29 0.302078 0 2 0.302078 1
gene 1 2 28 -0.661794 0 3 -0.661794 1
gene 1 2 29 2.10746 0 4 2.10746 1
gene 1 3 28 4.23117 0 5 4.23117 0
gene 1 3 29 8 0 6 8 1
gene 1 4 28 4.28404 0 7 4.28404 1
gene 1 4 29 -0.123524 0 8 -0.123524 1
gene 1 5 28 7.1914 0 9 7.1914 1
gene 1 5 29 -2.14728 0 10 -2.14728 1
gene 1 6 28 0.524689 0 11 0.524689 1
gene 1 6 29 -2.12752 0 12 -2.12752 1
gene 1 7 28 0.563219 0 13 0.563219 1
gene 1 7 29 -0.665532 0 14 -0.665532 1
gene 1 8 28 1.18038 0 15 1.18038 1
gene 1 8 29 -2.51663 0 16 -2.51663 1
gene 1 9 28 6.30093 0 17 6.30093 1
gene 1 9 29 8 0 18 8 0
gene 1 10 28 -2.46879 0 19 -2.46879 1
gene 1 10 29 -1.05628 0 20 -1.05628 1
gene 1 11 28 -1.85987 0 21 -1.85987 1
gene 1 11 29 -5.03189 0 22 -5.03189 1
gene 1 12 28 -0.403684 0 23 -0.403684 1
gene 1 12 29 0.526666 0 24 0.526666 1
gene 1 13 28 -1.50372 0 25 -1.50372 1
gene 1 13 29 -5.28481 0 26 -5.28481 0
gene 1 14 28 -1.1504 0 27 -1.1504 1
gene 1 14 29 -6.17736 0 28 -6.17736 1
gene 1 15 28 0.366375 0 29 0.366375 1
gene 1 15 29 3.66459 0 30 3.66459 1
gene 1 16 28 1.48259 0 31 1.48259 0
gene 1 16 29 2.25951 0 32 2.25951 1
gene 1 17 28 -5.45389 0 33 -5.45389 1
gene 1 17 29 2.2354 0 34 2.2354 1
gene 1 18 28 1.10454 0 35 1.10454 1
gene 1 18 29 8 0 36 8 1
gene 1 19 28 0.246284 0 37 0.246284 1
gene 1 19 29 0.231025 0 38 0.231025 1
gene 1 20 28 3.43539 0 39 3.43539 1
gene 1 20 29 -0.891903 0 40 -0.891903 0
gene 1 21 28 5.61775 0 41 5.61775 1
gene 1 21 29 4.1371 0 42 4.1371 1
gene 1 22 28 0.140004 0 43 0.140004 1
gene 1 22 29 -0.995895 0 44 -0.995895 1
gene 1 23 28 2.46338 0 45 2.46338 1
gene 1 23 29 -2.45102 0 46 -2.45102 1
gene 1 24 28 2.18769 0 47 2.18769 1
gene 1 24 29 -0.27047 0 48 -0.27047 1
gene 1 25 28 -0.960341 0 49 -0.960341 1
gene 1 25 29 4.27862 0 50 4.27862 1
gene 1 26 28 2.71218 0 51 2.71218 1
gene 1 26 29 -0.36401 0 52 -0.36401 1
gene 1 27 28 -0.519196 0 53 -0.519196 1
gene 1 27 29 -3.97589 0 54 -3.97589 1
gene 1 16 41 8 0 82 8 1
gene 1 41 28 3.52023 0 83 3.52023 1
gene 1 9 41 3.10022 0 244 3.10022 1
gene 1 3 90 1.60848 0 252 1.60848 1
gene 1 90 28 0.264715 0 253 0.264715 1
gene 1 20 123 -2.03484 0 358 -2.03484 1
gene 1 123 29 0.706961 0 359 0.706961 1
gene 1 17 90 -0.567186 0 445 -0.567186 1
gene 1 9 145 1.25063 0 458 1.25063 1
gene 1 145 29 7.20322 0 459 7.20322 1
gene 1 11 90 -2.33761 0 484 -2.33761 1
genomeend 17

/* Organism #18 Fitness: 0.13915 Error: 0 */
genomestart 18
trait 1 0.82411 0.426984 0.257858 0 0.0166401 0.0236557 0.517912 0.31814 
node 1 1 1 1
node 2 1 1 1
node 3 1 1 1
node 4 1 1 1
node 5 1 1 1
node 6 1 1 1
node 7 1 1 1
node 8 1 1 1
node 9 1 1 1
node 10 1 1 1
node 11 1 1 1
node 12 1 1 1
node 13 1 1 1
node 14 1 1 1
node 15 1 1 1
node 16 1 1 1
node 17 1 1 1
node 18 1 1 1
node 19 1 1 1
node 20 1 1 1
node 21 1 1 1
node 22 1 1 1
node 23 1 1 1
node 24 1 1 1
node 25 1 1 1
node 26 1 1 1
node 27 1 1 3
node 28 1 0 2
node 29 1 0 2
node 41 1 0 0
node 90 1 0 0
node 123 1 0 0
node 145 1 0 0
node 173 1 0 0
gene 1 1 28 1.91485 0 1 1.91485 1
gene 1 1 29 1.99666 0 2 1.99666 1
gene 1 2 28 0.434751 0 3 0.434751 1
gene 1 2 29 1.19678 0 4 1.19678 1
gene 1 3 28 4.55734 0 5 4.55734 0
gene 1 3 29 6.36509 0 6 6.36509 1
gene 1 4 28 6.27781 0 7 6.27781 1
gene 1 4 29 -0.892045 0 8 -0.892045 1
gene 1 5 28 5.86942 0 9 5.86942 1
gene 1 5 29 -0.853789 0 10 -0.853789 1
gene 1 6 28 1.18004 0 11 1.18004 1
gene 1 6 29 -1.51975 0 12 -1.51975 1
gene 1 7 28 -1.33587 0 13 -1.33587 1
gene 1 7 29 0.494874 0 14 0.494874 1
gene 1 8 28 -0.670492 0 15 -0.670492 1
gene 1 8 29 -3.18827 0 16 -3.18827 1
gene 1 9 28 6.26782 0 17 6.26782 1
gene 1 9 29 3.37791 0 18 3.37791 1
gene 1 10 28 0.0737403 0 19 0.0737403 1
gene 1 10 29 -0.0564592 0 20 -0.0564592 1
gene 1 11 28 -0.181166 0 21 -0.181166 1
gene 1 11 29 -3.35273 0 22 -3.35273 1
gene 1 12 28 -1.17771 0 23 -1.17771 1
gene 1 12 29 -0.225497 0 24 -0.225497 1
gene 1 13 28 -4.43964 0 25 -4.43964 1
gene 1 13 29 -2.74155 0 26 -2.74155 1
gene 1 14 28 3.17167 0 27 3.17167 1
gene 1 14 29 -8 0 28 -8 1
gene 1 15 28 4.0097 0 29 4.0097 1
gene 1 15 29 1.73906 0 30 1.73906 1
gene 1 16 28 -1.07139 0 31 -1.07139 0
gene 1 16 29 2.47105 0 32 2.47105 1
gene 1 17 28 -2.36141 0 33 -2.36141 1
gene 1 17 29 0.511071 0 34 0.511071 1
gene 1 18 28 -0.671407 0 35 -0.671407 1
gene 1 18 29 4.65155 0 36 4.65155 1
gene 1 19 28 -0.0793481 0 37 -0.0793481 1
gene 1 19 29 -2.86386 0 38 -2.86386 0
gene 1 20 28 2.00106 0 39 2.00106 1
gene 1 20 29 4.71015 0 40 4.71015 0
gene 1 21 28 3.92165 0 41 3.92165 1
gene 1 21 29 3.35044 0 42 3.35044 1
gene 1 22 28 1.44204 0 43 1.44204 1
gene 1 22 29 -1.14971 0 44 -1.14971 1
gene 1 23 28 5.12092 0 45 5.12092 1
gene 1 23 29 -0.333453 0 46 -0.333453 1
gene 1 24 28 2.16087 0 47 2.16087 1
gene 1 24 29 0.878666 0 48 0.878666 1
gene 1 25 28 0.657445 0 49 0.657445 1
gene 1 25 29 4.67669 0 50 4.67669 1
gene 1 26 28 2.0304 0 51 2.0304 1
gene 1 26 29 -1.84338 0 52 -1.84338 1
gene 1 27 28 1.10473 0 53 1.10473 1
gene 1 27 29 -1.11233 0 54 -1.11233 1
gene 1 16 41 8 0 82 8 1
gene 1 41 28 5.83041 0 83 5.83041 1
gene 1 9 41 2.31891 0 244 2.31891 1
gene 1 3 90 0.478072 0 252 0.478072 1
gene 1 90 28 1.58929 0 253 1.58929 1
gene 1 20 123 -0.198157 0 358 -0.198157 1
gene 1 123 29 2.60182 0 359 2.60182 1
gene 1 17 90 -0.22557 0 445 -0.22557 1
gene 1 9 145 0.140828 0 458 0.140828 1
gene 1 145 29 4.89518 0 459 4.89518 1
gene 1 11 90 -2.29366 0 484 -2.29366 1
gene 1 19 173 1 0 577 0 1
gene 1 173 29 -2.86386 0 578 0 1
genomeend 18

/* Organism #19 Fitness: 0.147721 Error: 0 */
genomestart 19
trait 1 0.82411 0.426984 0.257858 0 0.0166401 0.0236557 0.517912 0.31814 
node 1 1 1 1
node 2 1 1 1
node 3 1 1 1
node 4 1 1 1
node 5 1 1 1
node 6 1 1 1
node 7 1 1 1
node 8 1 1 1
node 9 1 1 1
node 10 1 1 1
node 11 1 1 1
node 12 1 1 1
node 13 1 1 1
node 14 1 1 1
node 15 1 1 1
node 16 1 1 1
node 17 1 1 1
node 18 1 1 1
node 19 1 1 1
node 20 1 1 1
node 21 1 1 1
node 22 1 1 1
node 23 1 1 1
node 24 1 1 1
node 25 1 1 1
node 26 1 1 1
node 27 1 1 3
node 28 1 0 2
node 29 1 0 2
node 41 1 0 0
node 90 1 0 0
node 123 1 0 0
node 145 1 0 0
gene 1 1 28 -0.317469 0 1 -0.317469 1
gene 1 1 29 -0.95063 0 2 -0.95063 1
gene 1 2 28 -0.866482 0 3 -0.866482 1
gene 1 2 29 1.2241 0 4 1.2241 1
gene 1 3 28 5.0345 0 5 5.0345 0
gene 1 3 29 3.84095 0 6 3.84095 1
gene 1 4 28 7.34649 0 7 7.34649 1
gene 1 4 29 0.561846 0 8 0.561846 1
gene 1 5 28 4.34616 0 9 4.34616 1
gene 1 5 29 1.08623 0 10 1.08623 1
gene 1 6 28 2.37564 0 11 2.37564 1
gene 1 6 29 0.37965 0 12 0.37965 1
gene 1 7 28 -0.961409 0 13 -0.961409 1
gene 1 7 29 -1.43925 0 14 -1.43925 1
gene 1 8 28 -0.698798 0 15 -0.698798 1
gene 1 8 29 -3.44325 0 16 -3.44325 1
gene 1 9 28 6.06807 0 17 6.06807 1
gene 1 9 29 -0.294809 0 18 -0.294809 0
gene 1 10 28 -0.899762 0 19 -0.899762 1
gene 1 10 29 -2.6962 0 20 -2.6962 1
gene 1 11 28 1.25263 0 21 1.25263 1
gene 1 11 29 -3.50208 0 22 -3.50208 1
gene 1 12 28 -1.92206 0 23 -1.92206 1
gene 1 12 29 0.594272 0 24 0.594272 1
gene 1 13 28 -5.1043 0 25 -5.1043 1
gene 1 13 29 -3.66665 0 26 -3.66665 0
gene 1 14 28 1.62957 0 27 1.62957 1
gene 1 14 29 -6.59439 0 28 -6.59439 1
gene 1 15 28 1.89065 0 29 1.89065 1
gene 1 15 29 1.90336 0 30 1.90336 1
gene 1 16 28 0.974914 0 31 0.974914 0
gene 1 16 29 1.44887 0 32 1.44887 1
gene 1 17 28 -1.16558 0 33 -1.16558 1
gene 1 17 29 -0.633641 0 34 -0.633641 1
gene 1 18 28 -1.01672 0 35 -1.01672 1
gene 1 18 29 2.22655 0 36 2.22655 1
gene 1 19 28 -0.0746178 0 37 -0.0746178 1
gene 1 19 29 -1.55522 0 38 -1.55522 1
gene 1 20 28 -0.0951415 0 39 -0.0951415 1
gene 1 20 29 5.99948 0 40 5.99948 0
gene 1 21 28 2.00878 0 41 2.00878 1
gene 1 21 29 1.46443 0 42 1.46443 1
gene 1 22 28 1.35029 0 43 1.35029 1
gene 1 22 29 0.895184 0 44 0.895184 1
gene 1 23 28 6.61007 0 45 6.61007 1
gene 1 23 29 0.405133 0 46 0.405133 1
gene 1 24 28 1.21079 0 47 1.21079 1
gene 1 24 29 -0.214316 0 48 -0.214316 1
gene 1 25 28 1.0184 0 49 1.0184 1
gene 1 25 29 2.96358 0 50 2.96358 1
gene 1 26 28 0.631046 0 51 0.631046 1
gene 1 26 29 2.74676 0 52 2.74676 1
gene 1 27 28 3.0372 0 53 3.0372 1
gene 1 27 29 1.32115 0 54 1.32115 1
gene 1 16 41 8 0 82 8 1
gene 1 41 28 6.49068 0 83 6.49068 1
gene 1 9 41 1.83615 0 244 1.83615 1
gene 1 3 90 1.01627 0 252 1.01627 1
gene 1 90 28 1.15875 0 253 1.15875 1
gene 1 20 123 0.949721 0 358 0.949721 1
gene 1 123 29 3.0858 0 359 3.0858 1
gene 1 17 90 -0.747627 0 445 -0.747627 1
gene 1 9 145 -2.71433 0 458 -2.71433 1
gene 1 145 29 1.76818 0 459 1.76818 1
gene 1 11 90 -1.93027 0 484 -1.93027 1
genomeend 19

/* Organism #20 Fitness: 0.0845072 Error: 0 */
genomestart 20
trait 1 0.82411 0.426984 0.257858 0 0.0166401 0.0236557 0.517912 0.31814 
node 1 1 1 1
node 2 1 1 1
node 3 1 1 1
node 4 1 1 1
node 5 1 1 1
node 6 1 1 1
node 7 1 1 1
node 8 1 1 1
node 9 1 1 1
node 10 1 1 1
node 11 1 1 1
node 12 1 1 1
node 13 1 1 1
node 14 1 1 1
node 15 1 1 1
node 16 1 1 1
node 17 1 1 1
node 18 1 1 1
node 19 1 1 1
node 20 1 1 1
node 21 1 1 1
node 22 1 1 1
node 23 1 1 1
node 24 1 1 1
node 25 1 1 1
node 26 1 1 1
node 27 1 1 3
node 28 1 0 2
node 29 1 0 2
node 41 1 0 0
node 90 1 0 0
node 123 1 0 0
node 145 1 0 0
gene 1 1 28 2.64641 0 1 2.64641 1
gene 1 1 29 0.733076 0 2 0.733076 1
gene 1 2 28 -1.10691 0 3 -1.10691 1
gene 1 2 29 0.194174 0 4 0.194174 1
gene 1 3 28 4.53407 0 5 4.53407 0
gene 1 3 29 8 0 6 8 1
gene 1 4 28 6.31626 0 7 6.31626 1
gene 1 4 29 -0.519784 0 8 -0.519784 1
gene 1 5 28 4.2115 0 9 4.2115 1
gene 1 5 29 -3.77376 0 10 -3.77376 1
gene 1 6 28 -0.802026 0 11 -0.802026 1
gene 1 6 29 1.50845 0 12 1.50845 1
gene 1 7 28 1.15314 0 13 1.15314 1
gene 1 7 29 0.627003 0 14 0.627003 1
gene 1 8 28 -2.83685 0 15 -2.83685 1
gene 1 8 29 -2.88392 0 16 -2.88392 1
gene 1 9 28 -2.47726 0 17 -2.47726 1
gene 1 9 29 0.541932 0 18 0.541932 0
gene 1 10 28 -3.33354 0 19 -3.33354 1
gene 1 10 29 -0.475745 0 20 -0.475745 1
gene 1 11 28 -2.0835 0 21 -2.0835 1
gene 1 11 29 -6.03839 0 22 -6.03839 1
gene 1 12 28 -0.134281 0 23 -0.134281 1
gene 1 12 29 -3.26914 0 24 -3.26914 1
gene 1 13 28 -3.87936 0 25 -3.87936 1
gene 1 13 29 -2.1717 0 26 -2.1717 0
gene 1 14 28 1.96856 0 27 1.96856 1
gene 1 14 29 -6.94681 0 28 -6.94681 1
gene 1 15 28 -2.00751 0 29 -2.00751 1
gene 1 15 29 0.626926 0 30 0.626926 1
gene 1 16 28 -1.34442 0 31 -1.34442 0
gene 1 16 29 6.25179 0 32 6.25179 1
gene 1 17 28 -0.244835 0 33 -0.244835 1
gene 1 17 29 -0.892895 0 34 -0.892895 1
gene 1 18 28 -0.0862911 0 35 -0.0862911 1
gene 1 18 29 -1.13895 0 36 -1.13895 1
gene 1 19 28 -1.99797 0 37 -1.99797 1
gene 1 19 29 -1.58879 0 38 -1.58879 1
gene 1 20 28 3.04559 0 39 3.04559 1
gene 1 20 29 3.78498 0 40 3.78498 0
gene 1 21 28 6.01518 0 41 6.01518 1
gene 1 21 29 1.30711 0 42 1.30711 1
gene 1 22 28 2.53479 0 43 2.53479 1
gene 1 22 29 -2.21183 0 44 -2.21183 1
gene 1 23 28 5.99711 0 45 5.99711 1
gene 1 23 29 -2.45102 0 46 -2.45102 1
gene 1 24 28 2.02968 0 47 2.02968 1
gene 1 24 29 -0.20806 0 48 -0.20806 1
gene 1 25 28 -0.936537 0 49 -0.936537 1
gene 1 25 29 -1.32588 0 50 -1.32588 1
gene 1 26 28 -1.25576 0 51 -1.25576 1
gene 1 26 29 3.05683 0 52 3.05683 1
gene 1 27 28 1.47702 0 53 1.47702 1
gene 1 27 29 -1.70598 0 54 -1.70598 1
gene 1 16 41 8 0 82 8 1
gene 1 41 28 -2.48863 0 83 -2.48863 1
gene 1 9 41 3.26182 0 244 3.26182 1
gene 1 3 90 1.71445 0 252 1.71445 1
gene 1 90 28 1.5693 0 253 1.5693 1
gene 1 20 123 2.5923 0 358 2.5923 1
gene 1 123 29 4.5381 0 359 4.5381 1
gene 1 17 90 -1.01924 0 445 -1.01924 1
gene 1 9 145 1.92532 0 458 1.92532 1
gene 1 145 29 1.20182 0 459 1.20182 1
gene 1 11 90 0.144658 0 484 0.144658 1
genomeend 20

/* Organism #21 Fitness: 0.13915 Error: 0 */
genomestart 21
trait 1 0.82411 0.426984 0.257858 0 0.0166401 0.0236557 0.517912 0.31814 
node 1 1 1 1
node 2 1 1 1
node 3 1 1 1
node 4 1 1 1
node 5 1 1 1
node 6 1 1 1
node 7 1 1 1
node 8 1 1 1
node 9 1 1 1
node 10 1 1 1
node 11 1 1 1
node 12 1 1 1
node 13 1 1 1
node 14 1 1 1
node 15 1 1 1
node 16 1 1 1
node 17 1 1 1
node 18 1 1 1
node 19 1 1 1
node 20 1 1 1
node 21 1 1 1
node 22 1 1 1
node 23 1 1 1
node 24 1 1 1
node 25 1 1 1
node 26 1 1 1
node 27 1 1 3
node 28 1 0 2
node 29 1 0 2
node 41 1 0 0
node 90 1 0 0
node 123 1 0 0
node 145 1 0 0
gene 1 1 28 1.91485 0 1 1.91485 1
gene 1 1 29 2.29276 0 2 2.29276 1
gene 1 2 28 1.02799 0 3 1.02799 1
gene 1 2 29 0.262307 0 4 0.262307 1
gene 1 3 28 3.43399 0 5 3.43399 0
gene 1 3 29 6.83294 0 6 6.83294 1
gene 1 4 28 6.07383 0 7 6.07383 1
gene 1 4 29 -0.544008 0 8 -0.544008 1
gene 1 5 28 5.42056 0 9 5.42056 1
gene 1 5 29 -2.59525 0 10 -2.59525 1
gene 1 6 28 0.200392 0 11 0.200392 1
gene 1 6 29 -2.50755 0 12 -2.50755 1
gene 1 7 28 0.0183111 0 13 0.0183111 1
gene 1 7 29 1.38416 0 14 1.38416 1
gene 1 8 28 -0.670492 0 15 -0.670492 1
gene 1 8 29 -2.74033 0 16 -2.74033 1
gene 1 9 28 6.97256 0 17 6.97256 1
gene 1 9 29 7.16774 0 18 7.16774 0
gene 1 10 28 -1.09409 0 19 -1.09409 1
gene 1 10 29 -0.117267 0 20 -0.117267 1
gene 1 11 28 -1.69729 0 21 -1.69729 1
gene 1 11 29 -2.39994 0 22 -2.39994 1
gene 1 12 28 -1.29925 0 23 -1.29925 1
gene 1 12 29 -0.217642 0 24 -0.217642 1
gene 1 13 28 -3.55407 0 25 -3.55407 1
gene 1 13 29 -2.61818 0 26 -2.61818 1
gene 1 14 28 2.83871 0 27 2.83871 1
gene 1 14 29 -8 0 28 -8 1
gene 1 15 28 4.70511 0 29 4.70511 1
gene 1 15 29 1.72475 0 30 1.72475 1
gene 1 16 28 -0.0312433 0 31 -0.0312433 0
gene 1 16 29 4.26614 0 32 4.26614 1
gene 1 17 28 -3.45634 0 33 -3.45634 1
gene 1 17 29 1.04411 0 34 1.04411 1
gene 1 18 28 -0.859478 0 35 -0.859478 1
gene 1 18 29 5.55517 0 36 5.55517 1
gene 1 19 28 0.913991 0 37 0.913991 1
gene 1 19 29 -2.88602 0 38 -2.88602 1
gene 1 20 28 1.7753 0 39 1.7753 1
gene 1 20 29 3.88077 0 40 3.88077 1
gene 1 21 28 5.04587 0 41 5.04587 1
gene 1 21 29 5.64403 0 42 5.64403 1
gene 1 22 28 1.02432 0 43 1.02432 1
gene 1 22 29 -1.46134 0 44 -1.46134 1
gene 1 23 28 4.71132 0 45 4.71132 1
gene 1 23 29 -1.45497 0 46 -1.45497 1
gene 1 24 28 2.45961 0 47 2.45961 1
gene 1 24 29 1.22688 0 48 1.22688 1
gene 1 25 28 0.831629 0 49 0.831629 1
gene 1 25 29 5.46834 0 50 5.46834 1
gene 1 26 28 2.88694 0 51 2.88694 1
gene 1 26 29 -3.07556 0 52 -3.07556 1
gene 1 27 28 0.210501 0 53 0.210501 1
gene 1 27 29 -2.08451 0 54 -2.08451 1
gene 1 16 41 7.7011 0 82 7.7011 1
gene 1 41 28 5.52908 0 83 5.52908 1
gene 1 9 41 2.80168 0 244 2.80168 1
gene 1 3 90 1.85701 0 252 1.85701 1
gene 1 90 28 2.69075 0 253 2.69075 1
gene 1 20 123 -1.05061 0 358 -1.05061 1
gene 1 123 29 2.58469 0 359 2.58469 1
gene 1 17 90 0.296487 0 445 0.296487 1
gene 1 9 145 0.356861 0 458 0.356861 1
gene 1 145 29 5.98202 0 459 5.98202 1
gene 1 11 90 -1.18428 0 484 -1.18428 1
genomeend 21

/* Species #33 : (Size 9) (AF 0) (Age 13)  */


/* Organism #22 Fitness: 0.147721 Error: 0 */
genomestart 22
trait 1 0.808527 0 0 0 0 0.126164 0.489792 0.382885 
node 1 1 1 1
node 2 1 1 1
node 3 1 1 1
node 4 1 1 1
node 5 1 1 1
node 6 1 1 1
node 7 1 1 1
node 8 1 1 1
node 9 1 1 1
node 10 1 1 1
node 11 1 1 1
node 12 1 1 1
node 13 1 1 1
node 14 1 1 1
node 15 1 1 1
node 16 1 1 1
node 17 1 1 1
node 18 1 1 1
node 19 1 1 1
node 20 1 1 1
node 21 1 1 1
node 22 1 1 1
node 23 1 1 1
node 24 1 1 1
node 25 1 1 1
node 26 1 1 1
node 27 1 1 3
node 28 1 0 2
node 29 1 0 2
node 41 1 0 0
node 90 1 0 0
node 101 1 0 0
node 104 1 0 0
node 111 1 0 0
node 139 1 0 0
node 151 1 0 0
gene 1 1 28 6.67084 0 1 6.67084 1
gene 1 1 29 1.65021 0 2 1.65021 1
gene 1 2 28 -3.46492 0 3 -3.46492 1
gene 1 2 29 -1.70087 0 4 -1.70087 1
gene 1 3 28 1.97035 0 5 1.97035 0
gene 1 3 29 -3.28646 0 6 -3.28646 1
gene 1 4 28 2.1319 0 7 2.1319 1
gene 1 4 29 6.13669 0 8 6.13669 1
gene 1 5 28 4.91037 0 9 4.91037 1
gene 1 5 29 1.83493 0 10 1.83493 1
gene 1 6 28 2.68025 0 11 2.68025 1
gene 1 6 29 1.92694 0 12 1.92694 1
gene 1 7 28 -0.430807 0 13 -0.430807 0
gene 1 7 29 7.84344 0 14 7.84344 1
gene 1 8 28 2.38105 0 15 2.38105 1
gene 1 8 29 -0.756188 0 16 -0.756188 0
gene 1 9 28 0.757736 0 17 0.757736 1
gene 1 9 29 6.6615 0 18 6.6615 1
gene 1 10 28 5.8758 0 19 5.8758 1
gene 1 10 29 -1.36822 0 20 -1.36822 1
gene 1 11 28 -1.14841 0 21 -1.14841 1
gene 1 11 29 -0.605792 0 22 -0.605792 0
gene 1 12 28 0.194784 0 23 0.194784 0
gene 1 12 29 5.65832 0 24 5.65832 1
gene 1 13 28 -1.92305 0 25 -1.92305 1
gene 1 13 29 3.80264 0 26 3.80264 0
gene 1 14 28 -1.06372 0 27 -1.06372 1
gene 1 14 29 -1.66665 0 28 -1.66665 1
gene 1 15 28 3.07173 0 29 3.07173 1
gene 1 15 29 1.28452 0 30 1.28452 1
gene 1 16 28 2.10185 0 31 2.10185 0
gene 1 16 29 -0.021363 0 32 -0.021363 1
gene 1 17 28 -0.524155 0 33 -0.524155 1
gene 1 17 29 0.805536 0 34 0.805536 1
gene 1 18 28 0.36401 0 35 0.36401 1
gene 1 18 29 -1.02008 0 36 -1.02008 1
gene 1 19 28 -2.55604 0 37 -2.55604 1
gene 1 19 29 -0.167241 0 38 -0.167241 1
gene 1 20 28 -0.0311289 0 39 -0.0311289 1
gene 1 20 29 -1.01695 0 40 -1.01695 1
gene 1 21 28 -0.453047 0 41 -0.453047 1
gene 1 21 29 4.07392 0 42 4.07392 1
gene 1 22 28 1.05731 0 43 1.05731 1
gene 1 22 29 -1.9974 0 44 -1.9974 0
gene 1 23 28 -5.75129 0 45 -5.75129 1
gene 1 23 29 -3.14539 0 46 -3.14539 1
gene 1 24 28 8 0 47 8 1
gene 1 24 29 3.35084 0 48 3.35084 1
gene 1 25 28 1.36235 0 49 1.36235 1
gene 1 25 29 -4.36915 0 50 -4.36915 1
gene 1 26 28 -0.121845 0 51 -0.121845 1
gene 1 26 29 -4.95923 0 52 -4.95923 1
gene 1 27 28 4.07222 0 53 4.07222 1
gene 1 27 29 1.71699 0 54 1.71699 1
gene 1 16 41 -0.0578326 0 82 -0.0578326 1
gene 1 41 28 -4.59204 0 83 -4.59204 1
gene 1 9 41 3.46734 0 244 3.46734 1
gene 1 3 90 0.474105 0 252 0.474105 1
gene 1 90 28 2.12907 0 253 2.12907 1
gene 1 8 101 -4.94064 0 295 -4.94064 1
gene 1 101 29 -1.80849 0 296 -1.80849 1
gene 1 22 104 2.47528 0 302 2.47528 1
gene 1 104 29 -1.22333 0 303 -1.22333 1
gene 1 12 111 0.877178 0 321 0.877178 1
gene 1 111 28 1.12903 0 322 1.12903 1
gene 1 5 41 -1.3448 0 361 -1.3448 1
gene 1 11 41 -0.296487 0 376 -0.296487 1
gene 1 23 90 -0.850551 0 401 -0.850551 1
gene 1 24 41 -2.27696 0 430 -2.27696 1
gene 1 11 139 0.165937 0 442 0.165937 1
gene 1 139 29 2.19558 0 443 2.19558 1
gene 1 9 90 -2.87844 0 466 -2.87844 1
gene 1 7 151 -0.251564 0 487 -0.251564 1
gene 1 151 28 0.688726 0 488 0.688726 1
genomeend 22

/* Organism #23 Fitness: 0.0587929 Error: 0 */
genomestart 23
trait 1 0.808527 0 0 0 0 0.126164 0.489792 0.382885 
node 1 1 1 1
node 2 1 1 1
node 3 1 1 1
node 4 1 1 1
node 5 1 1 1
node 6 1 1 1
node 7 1 1 1
node 8 1 1 1
node 9 1 1 1
node 10 1 1 1
node 11 1 1 1
node 12 1 1 1
node 13 1 1 1
node 14 1 1 1
node 15 1 1 1
node 16 1 1 1
node 17 1 1 1
node 18 1 1 1
node 19 1 1 1
node 20 1 1 1
node 21 1 1 1
node 22 1 1 1
node 23 1 1 1
node 24 1 1 1
node 25 1 1 1
node 26 1 1 1
node 27 1 1 3
node 28 1 0 2
node 29 1 0 2
node 41 1 0 0
node 90 1 0 0
node 101 1 0 0
node 104 1 0 0
node 111 1 0 0
node 139 1 0 0
node 151 1 0 0
gene 1 1 28 6.20223 0 1 6.20223 1
gene 1 1 29 4.78271 0 2 4.78271 1
gene 1 2 28 -3.74264 0 3 -3.74264 1
gene 1 2 29 -0.0518815 0 4 -0.0518815 1
gene 1 3 28 0.299692 0 5 0.299692 0
gene 1 3 29 -0.94142 0 6 -0.94142 1
gene 1 4 28 1.31374 0 7 1.31374 1
gene 1 4 29 7.49278 0 8 7.49278 1
gene 1 5 28 0.924024 0 9 0.924024 1
gene 1 5 29 -0.594501 0 10 -0.594501 1
gene 1 6 28 1.58765 0 11 1.58765 1
gene 1 6 29 2.34069 0 12 2.34069 1
gene 1 7 28 2.21198 0 13 2.21198 0
gene 1 7 29 8 0 14 8 1
gene 1 8 28 4.05133 0 15 4.05133 1
gene 1 8 29 -2.95215 0 16 -2.95215 0
gene 1 9 28 1.25259 0 17 1.25259 1
gene 1 9 29 1.40744 0 18 1.40744 1
gene 1 10 28 5.99109 0 19 5.99109 1
gene 1 10 29 0.153203 0 20 0.153203 1
gene 1 11 28 3.03083 0 21 3.03083 1
gene 1 11 29 -0.365993 0 22 -0.365993 0
gene 1 12 28 2.12287 0 23 2.12287 0
gene 1 12 29 -1.63869 0 24 -1.63869 1
gene 1 13 28 -2.51751 0 25 -2.51751 1
gene 1 13 29 3.57917 0 26 3.57917 0
gene 1 14 28 0.937223 0 27 0.937223 1
gene 1 14 29 0.402959 0 28 0.402959 1
gene 1 15 28 2.11005 0 29 2.11005 1
gene 1 15 29 -0.763955 0 30 -0.763955 1
gene 1 16 28 -0.245941 0 31 -0.245941 0
gene 1 16 29 -0.00862148 0 32 -0.00862148 1
gene 1 17 28 -1.82249 0 33 -1.82249 1
gene 1 17 29 2.11457 0 34 2.11457 1
gene 1 18 28 0.36401 0 35 0.36401 1
gene 1 18 29 -0.853679 0 36 -0.853679 1
gene 1 19 28 -4.91873 0 37 -4.91873 1
gene 1 19 29 -2.26707 0 38 -2.26707 1
gene 1 20 28 -0.0855281 0 39 -0.0855281 1
gene 1 20 29 -3.09496 0 40 -3.09496 1
gene 1 21 28 -0.872753 0 41 -0.872753 1
gene 1 21 29 3.59668 0 42 3.59668 1
gene 1 22 28 1.82028 0 43 1.82028 1
gene 1 22 29 -3.43316 0 44 -3.43316 0
gene 1 23 28 -6.8717 0 45 -6.8717 1
gene 1 23 29 -0.658437 0 46 -0.658437 1
gene 1 24 28 8 0 47 8 1
gene 1 24 29 -1.54706 0 48 -1.54706 1
gene 1 25 28 1.88604 0 49 1.88604 1
gene 1 25 29 -3.71964 0 50 -3.71964 1
gene 1 26 28 1.90529 0 51 1.90529 1
gene 1 26 29 -4.95923 0 52 -4.95923 1
gene 1 27 28 6.42764 0 53 6.42764 1
gene 1 27 29 -1.05567 0 54 -1.05567 1
gene 1 16 41 0.171743 0 82 0.171743 1
gene 1 41 28 -2.19926 0 83 -2.19926 1
gene 1 9 41 -0.763745 0 244 -0.763745 1
gene 1 3 90 -0.291681 0 252 -0.291681 1
gene 1 90 28 -1.65571 0 253 -1.65571 1
gene 1 8 101 -7.37877 0 295 -7.37877 1
gene 1 101 29 -1.30844 0 296 -1.30844 1
gene 1 22 104 4.96185 0 302 4.96185 1
gene 1 104 29 0.19406 0 303 0.19406 1
gene 1 12 111 -0.751823 0 321 -0.751823 1
gene 1 111 28 0.645161 0 322 0.645161 1
gene 1 5 41 -2.69852 0 361 -2.69852 1
gene 1 11 41 -2.04253 0 376 -2.04253 1
gene 1 23 90 0.122227 0 401 0.122227 1
gene 1 24 41 -1.41649 0 430 -1.41649 1
gene 1 11 139 0.0854518 0 442 0.0854518 1
gene 1 139 29 1.93525 0 443 1.93525 1
gene 1 9 90 -2.3525 0 466 -2.3525 1
gene 1 7 151 -0.817682 0 487 -0.817682 1
gene 1 151 28 -1.87208 0 488 -1.87208 1
genomeend 23

/* Organism #24 Fitness: 0.0620071 Error: 0 */
genomestart 24
trait 1 0.808527 0 0 0 0 0.126164 0.489792 0.382885 
node 1 1 1 1
node 2 1 1 1
node 3 1 1 1
node 4 1 1 1
node 5 1 1 1
node 6 1 1 1
node 7 1 1 1
node 8 1 1 1
node 9 1 1 1
node 10 1 1 1
node 11 1 1 1
node 12 1 1 1
node 13 1 1 1
node 14 1 1 1
node 15 1 1 1
node 16 1 1 1
node 17 1 1 1
node 18 1 1 1
node 19 1 1 1
node 20 1 1 1
node 21 1 1 1
node 22 1 1 1
node 23 1 1 1
node 24 1 1 1
node 25 1 1 1
node 26 1 1 1
node 27 1 1 3
node 28 1 0 2
node 29 1 0 2
node 41 1 0 0
node 90 1 0 0
node 101 1 0 0
node 104 1 0 0
node 111 1 0 0
node 139 1 0 0
node 151 1 0 0
gene 1 1 28 4.37471 0 1 4.37471 1
gene 1 1 29 0.626545 0 2 0.626545 1
gene 1 2 28 -1.57567 0 3 -1.57567 1
gene 1 2 29 -1.70362 0 4 -1.70362 1
gene 1 3 28 0.680181 0 5 0.680181 0
gene 1 3 29 0.0624104 0 6 0.0624104 1
gene 1 4 28 0.790353 0 7 0.790353 1
gene 1 4 29 7.87159 0 8 7.87159 1
gene 1 5 28 4.91037 0 9 4.91037 1
gene 1 5 29 0.407193 0 10 0.407193 1
gene 1 6 28 2.68025 0 11 2.68025 1
gene 1 6 29 2.82098 0 12 2.82098 1
gene 1 7 28 -4.47825 0 13 -4.47825 0
gene 1 7 29 -2.01262 0 14 -2.01262 1
gene 1 8 28 1.23371 0 15 1.23371 1
gene 1 8 29 1.99896 0 16 1.99896 0
gene 1 9 28 -1.23032 0 17 -1.23032 1
gene 1 9 29 6.55698 0 18 6.55698 1
gene 1 10 28 7.45972 0 19 7.45972 1
gene 1 10 29 -2.90605 0 20 -2.90605 1
gene 1 11 28 3.04113 0 21 3.04113 1
gene 1 11 29 -0.845592 0 22 -0.845592 0
gene 1 12 28 -1.44513 0 23 -1.44513 0
gene 1 12 29 5.65832 0 24 5.65832 1
gene 1 13 28 -4.39959 0 25 -4.39959 1
gene 1 13 29 5.34146 0 26 5.34146 0
gene 1 14 28 1.38752 0 27 1.38752 1
gene 1 14 29 -1.83275 0 28 -1.83275 1
gene 1 15 28 0.685789 0 29 0.685789 1
gene 1 15 29 -1.08425 0 30 -1.08425 1
gene 1 16 28 4.50045 0 31 4.50045 0
gene 1 16 29 1.86659 0 32 1.86659 1
gene 1 17 28 -2.44057 0 33 -2.44057 1
gene 1 17 29 3.01227 0 34 3.01227 1
gene 1 18 28 -1.22875 0 35 -1.22875 1
gene 1 18 29 -0.307722 0 36 -0.307722 1
gene 1 19 28 -4.95344 0 37 -4.95344 1
gene 1 19 29 -2.6117 0 38 -2.6117 1
gene 1 20 28 -0.44969 0 39 -0.44969 1
gene 1 20 29 -3.04247 0 40 -3.04247 1
gene 1 21 28 -0.453047 0 41 -0.453047 1
gene 1 21 29 6.28117 0 42 6.28117 1
gene 1 22 28 1.05731 0 43 1.05731 1
gene 1 22 29 0.364772 0 44 0.364772 0
gene 1 23 28 -6.2299 0 45 -6.2299 1
gene 1 23 29 -4.38383 0 46 -4.38383 1
gene 1 24 28 8 0 47 8 1
gene 1 24 29 4.71486 0 48 4.71486 1
gene 1 25 28 2.36007 0 49 2.36007 1
gene 1 25 29 -6.50087 0 50 -6.50087 1
gene 1 26 28 0.277661 0 51 0.277661 1
gene 1 26 29 -4.95923 0 52 -4.95923 1
gene 1 27 28 3.60125 0 53 3.60125 1
gene 1 27 29 -2.39002 0 54 -2.39002 1
gene 1 16 41 -1.4697 0 82 -1.4697 1
gene 1 41 28 -4.4265 0 83 -4.4265 1
gene 1 9 41 -1.53394 0 244 -1.53394 1
gene 1 3 90 0.15862 0 252 0.15862 1
gene 1 90 28 -0.2678 0 253 -0.2678 1
gene 1 8 101 -7.09311 0 295 -7.09311 1
gene 1 101 29 0.362827 0 296 0.362827 1
gene 1 22 104 1.3889 0 302 1.3889 1
gene 1 104 29 -2.28061 0 303 -2.28061 1
gene 1 12 111 0.308618 0 321 0.308618 1
gene 1 111 28 2.25127 0 322 2.25127 1
gene 1 5 41 -1.28735 0 361 -1.28735 1
gene 1 11 41 -2.2103 0 376 -2.2103 1
gene 1 23 90 0.323649 0 401 0.323649 1
gene 1 24 41 -3.1456 0 430 -3.1456 1
gene 1 11 139 1.76167 0 442 1.76167 1
gene 1 139 29 4.045 0 443 4.045 1
gene 1 9 90 1.68203 0 466 1.68203 1
gene 1 7 151 1.87727 0 487 1.87727 1
gene 1 151 28 1.11568 0 488 1.11568 1
genomeend 24

/* Organism #25 Fitness: 0.0587929 Error: 0 */
genomestart 25
trait 1 0.808527 0 0 0 0 0.126164 0.489792 0.382885 
node 1 1 1 1
node 2 1 1 1
node 3 1 1 1
node 4 1 1 1
node 5 1 1 1
node 6 1 1 1
node 7 1 1 1
node 8 1 1 1
node 9 1 1 1
node 10 1 1 1
node 11 1 1 1
node 12 1 1 1
node 13 1 1 1
node 14 1 1 1
node 15 1 1 1
node 16 1 1 1
node 17 1 1 1
node 18 1 1 1
node 19 1 1 1
node 20 1 1 1
node 21 1 1 1
node 22 1 1 1
node 23 1 1 1
node 24 1 1 1
node 25 1 1 1
node 26 1 1 1
node 27 1 1 3
node 28 1 0 2
node 29 1 0 2
node 41 1 0 0
node 90 1 0 0
node 101 1 0 0
node 104 1 0 0
node 111 1 0 0
node 139 1 0 0
node 151 1 0 0
gene 1 1 28 6.67084 0 1 6.67084 1
gene 1 1 29 2.6101 0 2 2.6101 1
gene 1 2 28 -2.73125 0 3 -2.73125 1
gene 1 2 29 -1.70087 0 4 -1.70087 1
gene 1 3 28 1.97035 0 5 1.97035 0
gene 1 3 29 -3.28646 0 6 -3.28646 1
gene 1 4 28 2.31543 0 7 2.31543 1
gene 1 4 29 6.13669 0 8 6.13669 1
gene 1 5 28 4.91037 0 9 4.91037 1
gene 1 5 29 1.83493 0 10 1.83493 1
gene 1 6 28 2.68025 0 11 2.68025 1
gene 1 6 29 1.92694 0 12 1.92694 1
gene 1 7 28 -3.15176 0 13 -3.15176 0
gene 1 7 29 7.84344 0 14 7.84344 1
gene 1 8 28 2.38105 0 15 2.38105 1
gene 1 8 29 -0.756188 0 16 -0.756188 0
gene 1 9 28 0.757736 0 17 0.757736 1
gene 1 9 29 6.6615 0 18 6.6615 1
gene 1 10 28 5.8758 0 19 5.8758 1
gene 1 10 29 -1.36822 0 20 -1.36822 1
gene 1 11 28 -1.14841 0 21 -1.14841 1
gene 1 11 29 -0.605792 0 22 -0.605792 0
gene 1 12 28 0.194784 0 23 0.194784 0
gene 1 12 29 5.65832 0 24 5.65832 1
gene 1 13 28 -4.04489 0 25 -4.04489 1
gene 1 13 29 3.80264 0 26 3.80264 0
gene 1 14 28 -1.06372 0 27 -1.06372 1
gene 1 14 29 -1.66665 0 28 -1.66665 1
gene 1 15 28 3.07173 0 29 3.07173 1
gene 1 15 29 1.28452 0 30 1.28452 1
gene 1 16 28 2.10185 0 31 2.10185 0
gene 1 16 29 -0.021363 0 32 -0.021363 1
gene 1 17 28 -0.524155 0 33 -0.524155 1
gene 1 17 29 2.11457 0 34 2.11457 1
gene 1 18 28 0.36401 0 35 0.36401 1
gene 1 18 29 -1.8219 0 36 -1.8219 1
gene 1 19 28 -4.91873 0 37 -4.91873 1
gene 1 19 29 -0.167241 0 38 -0.167241 1
gene 1 20 28 -0.0311289 0 39 -0.0311289 1
gene 1 20 29 -1.01695 0 40 -1.01695 1
gene 1 21 28 -0.453047 0 41 -0.453047 1
gene 1 21 29 4.07392 0 42 4.07392 1
gene 1 22 28 1.05731 0 43 1.05731 1
gene 1 22 29 -2.29848 0 44 -2.29848 0
gene 1 23 28 -5.75129 0 45 -5.75129 1
gene 1 23 29 -3.14539 0 46 -3.14539 1
gene 1 24 28 8 0 47 8 1
gene 1 24 29 3.35084 0 48 3.35084 1
gene 1 25 28 1.36235 0 49 1.36235 1
gene 1 25 29 -4.36915 0 50 -4.36915 1
gene 1 26 28 -0.121845 0 51 -0.121845 1
gene 1 26 29 -4.95923 0 52 -4.95923 1
gene 1 27 28 4.07222 0 53 4.07222 1
gene 1 27 29 -0.859745 0 54 -0.859745 1
gene 1 16 41 -0.0578326 0 82 -0.0578326 1
gene 1 41 28 -3.11893 0 83 -3.11893 1
gene 1 9 41 3.46734 0 244 3.46734 1
gene 1 3 90 0.474105 0 252 0.474105 1
gene 1 90 28 2.12907 0 253 2.12907 1
gene 1 8 101 -4.94064 0 295 -4.94064 1
gene 1 101 29 -1.80849 0 296 -1.80849 1
gene 1 22 104 2.47528 0 302 2.47528 1
gene 1 104 29 -1.22333 0 303 -1.22333 1
gene 1 12 111 0.877178 0 321 0.877178 1
gene 1 111 28 1.12903 0 322 1.12903 1
gene 1 5 41 -1.3448 0 361 -1.3448 1
gene 1 11 41 -0.296487 0 376 -0.296487 1
gene 1 23 90 -0.850551 0 401 -0.850551 1
gene 1 24 41 -2.27696 0 430 -2.27696 1
gene 1 11 139 0.165937 0 442 0.165937 1
gene 1 139 29 2.59384 0 443 2.59384 1
gene 1 9 90 -4.35298 0 466 -4.35298 1
gene 1 7 151 -0.251564 0 487 -0.251564 1
gene 1 151 28 0.688726 0 488 0.688726 1
genomeend 25

/* Organism #26 Fitness: 0.0598643 Error: 0 */
genomestart 26
trait 1 0.808527 0 0 0 0 0.126164 0.489792 0.382885 
node 1 1 1 1
node 2 1 1 1
node 3 1 1 1
node 4 1 1 1
node 5 1 1 1
node 6 1 1 1
node 7 1 1 1
node 8 1 1 1
node 9 1 1 1
node 10 1 1 1
node 11 1 1 1
node 12 1 1 1
node 13 1 1 1
node 14 1 1 1
node 15 1 1 1
node 16 1 1 1
node 17 1 1 1
node 18 1 1 1
node 19 1 1 1
node 20 1 1 1
node 21 1 1 1
node 22 1 1 1
node 23 1 1 1
node 24 1 1 1
node 25 1 1 1
node 26 1 1 1
node 27 1 1 3
node 28 1 0 2
node 29 1 0 2
node 41 1 0 0
node 90 1 0 0
node 101 1 0 0
node 104 1 0 0
node 111 1 0 0
node 139 1 0 0
node 151 1 0 0
gene 1 1 28 5.18345 0 1 5.18345 1
gene 1 1 29 3.96031 0 2 3.96031 1
gene 1 2 28 -3.53236 0 3 -3.53236 1
gene 1 2 29 -2.91734 0 4 -2.91734 1
gene 1 3 28 4.18226 0 5 4.18226 0
gene 1 3 29 -5.51416 0 6 -5.51416 1
gene 1 4 28 -0.196587 0 7 -0.196587 1
gene 1 4 29 4.03008 0 8 4.03008 1
gene 1 5 28 5.96135 0 9 5.96135 1
gene 1 5 29 1.17191 0 10 1.17191 1
gene 1 6 28 0.595454 0 11 0.595454 1
gene 1 6 29 2.18291 0 12 2.18291 1
gene 1 7 28 1.4341 0 13 1.4341 0
gene 1 7 29 7.23521 0 14 7.23521 1
gene 1 8 28 4.40817 0 15 4.40817 1
gene 1 8 29 -2.18918 0 16 -2.18918 0
gene 1 9 28 2.94851 0 17 2.94851 1
gene 1 9 29 6.28826 0 18 6.28826 1
gene 1 10 28 6.43017 0 19 6.43017 1
gene 1 10 29 -0.11391 0 20 -0.11391 1
gene 1 11 28 -3.45302 0 21 -3.45302 1
gene 1 11 29 -0.753349 0 22 -0.753349 0
gene 1 12 28 1.03069 0 23 1.03069 0
gene 1 12 29 3.9103 0 24 3.9103 1
gene 1 13 28 -3.70769 0 25 -3.70769 1
gene 1 13 29 4.86576 0 26 4.86576 0
gene 1 14 28 1.31031 0 27 1.31031 1
gene 1 14 29 -1.25114 0 28 -1.25114 1
gene 1 15 28 1.9987 0 29 1.9987 1
gene 1 15 29 3.0414 0 30 3.0414 1
gene 1 16 28 2.03539 0 31 2.03539 0
gene 1 16 29 -1.81623 0 32 -1.81623 1
gene 1 17 28 -1.06296 0 33 -1.06296 1
gene 1 17 29 3.23847 0 34 3.23847 1
gene 1 18 28 1.1333 0 35 1.1333 1
gene 1 18 29 0.502029 0 36 0.502029 1
gene 1 19 28 -4.59651 0 37 -4.59651 1
gene 1 19 29 1.25828 0 38 1.25828 1
gene 1 20 28 2.32757 0 39 2.32757 1
gene 1 20 29 -0.622044 0 40 -0.622044 1
gene 1 21 28 -0.940809 0 41 -0.940809 1
gene 1 21 29 5.83499 0 42 5.83499 1
gene 1 22 28 0.763268 0 43 0.763268 1
gene 1 22 29 -1.06292 0 44 -1.06292 0
gene 1 23 28 -6.15642 0 45 -6.15642 1
gene 1 23 29 -3.36634 0 46 -3.36634 1
gene 1 24 28 8 0 47 8 1
gene 1 24 29 1.90289 0 48 1.90289 1
gene 1 25 28 -1.1314 0 49 -1.1314 1
gene 1 25 29 -5.77323 0 50 -5.77323 1
gene 1 26 28 -1.95219 0 51 -1.95219 1
gene 1 26 29 -5.05041 0 52 -5.05041 1
gene 1 27 28 3.87851 0 53 3.87851 1
gene 1 27 29 3.50599 0 54 3.50599 1
gene 1 16 41 -0.885266 0 82 -0.885266 1
gene 1 41 28 -3.16065 0 83 -3.16065 1
gene 1 9 41 2.21997 0 244 2.21997 1
gene 1 3 90 -0.82255 0 252 -0.82255 1
gene 1 90 28 2.21711 0 253 2.21711 1
gene 1 8 101 -5.44969 0 295 -5.44969 1
gene 1 101 29 0.648251 0 296 0.648251 1
gene 1 22 104 2.47528 0 302 2.47528 1
gene 1 104 29 1.27705 0 303 1.27705 1
gene 1 12 111 0.877178 0 321 0.877178 1
gene 1 111 28 0.492416 0 322 0.492416 1
gene 1 5 41 0.638524 0 361 0.638524 1
gene 1 11 41 -0.296487 0 376 -0.296487 1
gene 1 23 90 0.601138 0 401 0.601138 1
gene 1 24 41 -0.393307 0 430 -0.393307 1
gene 1 11 139 0.165937 0 442 0.165937 1
gene 1 139 29 0.386288 0 443 0.386288 1
gene 1 9 90 -1.08937 0 466 -1.08937 1
gene 1 7 151 -0.251564 0 487 -0.251564 1
gene 1 151 28 -1.81875 0 488 -1.81875 1
genomeend 26

/* Organism #27 Fitness: 0.147721 Error: 0 */
genomestart 27
trait 1 0.808527 0 0 0 0 0.126164 0.489792 0.382885 
node 1 1 1 1
node 2 1 1 1
node 3 1 1 1
node 4 1 1 1
node 5 1 1 1
node 6 1 1 1
node 7 1 1 1
node 8 1 1 1
node 9 1 1 1
node 10 1 1 1
node 11 1 1 1
node 12 1 1 1
node 13 1 1 1
node 14 1 1 1
node 15 1 1 1
node 16 1 1 1
node 17 1 1 1
node 18 1 1 1
node 19 1 1 1
node 20 1 1 1
node 21 1 1 1
node 22 1 1 1
node 23 1 1 1
node 24 1 1 1
node 25 1 1 1
node 26 1 1 1
node 27 1 1 3
node 28 1 0 2
node 29 1 0 2
node 41 1 0 0
node 90 1 0 0
node 101 1 0 0
node 104 1 0 0
node 111 1 0 0
node 139 1 0 0
node 151 1 0 0
gene 1 1 28 8 0 1 8 1
gene 1 1 29 2.74464 0 2 2.74464 1
gene 1 2 28 -5.58916 0 3 -5.58916 1
gene 1 2 29 -1.82417 0 4 -1.82417 1
gene 1 3 28 0.8211 0 5 0.8211 0
gene 1 3 29 -0.954695 0 6 -0.954695 1
gene 1 4 28 4.04196 0 7 4.04196 1
gene 1 4 29 5.19939 0 8 5.19939 1
gene 1 5 28 3.98986 0 9 3.98986 1
gene 1 5 29 3.0282 0 10 3.0282 1
gene 1 6 28 4.80258 0 11 4.80258 1
gene 1 6 29 0.563829 0 12 0.563829 1
gene 1 7 28 -3.48666 0 13 -3.48666 1
gene 1 7 29 5.85455 0 14 5.85455 1
gene 1 8 28 0.690786 0 15 0.690786 1
gene 1 8 29 -1.22655 0 16 -1.22655 0
gene 1 9 28 -0.165601 0 17 -0.165601 1
gene 1 9 29 5.70299 0 18 5.70299 1
gene 1 10 28 7.15087 0 19 7.15087 1
gene 1 10 29 0.691855 0 20 0.691855 1
gene 1 11 28 -1.49104 0 21 -1.49104 1
gene 1 11 29 1.74932 0 22 1.74932 1
gene 1 12 28 -0.463118 0 23 -0.463118 0
gene 1 12 29 4.43117 0 24 4.43117 1
gene 1 13 28 -5.31985 0 25 -5.31985 1
gene 1 13 29 3.80882 0 26 3.80882 0
gene 1 14 28 -1.27468 0 27 -1.27468 1
gene 1 14 29 -0.743469 0 28 -0.743469 1
gene 1 15 28 1.16661 0 29 1.16661 1
gene 1 15 29 2.66221 0 30 2.66221 1
gene 1 16 28 -0.357868 0 31 -0.357868 0
gene 1 16 29 0.99704 0 32 0.99704 1
gene 1 17 28 -0.201956 0 33 -0.201956 1
gene 1 17 29 -0.175205 0 34 -0.175205 1
gene 1 18 28 -0.781198 0 35 -0.781198 1
gene 1 18 29 0.943737 0 36 0.943737 1
gene 1 19 28 -1.84012 0 37 -1.84012 1
gene 1 19 29 0.0400555 0 38 0.0400555 1
gene 1 20 28 0.255898 0 39 0.255898 1
gene 1 20 29 -1.87483 0 40 -1.87483 1
gene 1 21 28 -2.45285 0 41 -2.45285 1
gene 1 21 29 1.7262 0 42 1.7262 1
gene 1 22 28 1.80296 0 43 1.80296 1
gene 1 22 29 -0.647879 0 44 -0.647879 0
gene 1 23 28 -6.87284 0 45 -6.87284 1
gene 1 23 29 -3.84297 0 46 -3.84297 1
gene 1 24 28 6.21528 0 47 6.21528 1
gene 1 24 29 5.81338 0 48 5.81338 1
gene 1 25 28 2.80129 0 49 2.80129 1
gene 1 25 29 -6.21788 0 50 -6.21788 1
gene 1 26 28 0.963021 0 51 0.963021 1
gene 1 26 29 -3.31154 0 52 -3.31154 1
gene 1 27 28 4.94742 0 53 4.94742 1
gene 1 27 29 0.0234134 0 54 0.0234134 1
gene 1 16 41 1.49258 0 82 1.49258 1
gene 1 41 28 -3.10328 0 83 -3.10328 1
gene 1 9 41 0.0459494 0 244 0.0459494 1
gene 1 3 90 1.02077 0 252 1.02077 1
gene 1 90 28 3.27304 0 253 3.27304 1
gene 1 8 101 -3.11144 0 295 -3.11144 1
gene 1 101 29 -2.0228 0 296 -2.0228 1
gene 1 22 104 4.26008 0 302 4.26008 1
gene 1 104 29 -2.2651 0 303 -2.2651 1
gene 1 12 111 0.877178 0 321 0.877178 1
gene 1 111 28 0.23339 0 322 0.23339 1
gene 1 5 41 -2.38418 0 361 -2.38418 1
gene 1 11 41 -1.13727 0 376 -1.13727 1
gene 1 23 90 2.05306 0 401 2.05306 1
gene 1 24 41 -2.27696 0 430 -2.27696 1
gene 1 11 139 0.288247 0 442 0.288247 1
gene 1 139 29 -1.10553 0 443 -1.10553 1
gene 1 9 90 -3.61571 0 466 -3.61571 1
gene 1 7 151 1.18656 0 487 1.18656 1
gene 1 151 28 1.41896 0 488 1.41896 1
genomeend 27

/* Organism #28 Fitness: 0.142364 Error: 0 */
genomestart 28
trait 1 0.808527 0 0 0 0 0.126164 0.489792 0.382885 
node 1 1 1 1
node 2 1 1 1
node 3 1 1 1
node 4 1 1 1
node 5 1 1 1
node 6 1 1 1
node 7 1 1 1
node 8 1 1 1
node 9 1 1 1
node 10 1 1 1
node 11 1 1 1
node 12 1 1 1
node 13 1 1 1
node 14 1 1 1
node 15 1 1 1
node 16 1 1 1
node 17 1 1 1
node 18 1 1 1
node 19 1 1 1
node 20 1 1 1
node 21 1 1 1
node 22 1 1 1
node 23 1 1 1
node 24 1 1 1
node 25 1 1 1
node 26 1 1 1
node 27 1 1 3
node 28 1 0 2
node 29 1 0 2
node 41 1 0 0
node 90 1 0 0
node 101 1 0 0
node 104 1 0 0
node 111 1 0 0
node 139 1 0 0
node 151 1 0 0
gene 1 1 28 5.81312 0 1 5.81312 1
gene 1 1 29 -0.205657 0 2 -0.205657 1
gene 1 2 28 -0.797449 0 3 -0.797449 1
gene 1 2 29 0.679113 0 4 0.679113 1
gene 1 3 28 1.57682 0 5 1.57682 0
gene 1 3 29 0.183493 0 6 0.183493 1
gene 1 4 28 -0.818964 0 7 -0.818964 1
gene 1 4 29 4.83615 0 8 4.83615 1
gene 1 5 28 4.63273 0 9 4.63273 1
gene 1 5 29 0.900906 0 10 0.900906 1
gene 1 6 28 2.68025 0 11 2.68025 1
gene 1 6 29 3.83923 0 12 3.83923 1
gene 1 7 28 0.553987 0 13 0.553987 0
gene 1 7 29 8 0 14 8 1
gene 1 8 28 1.19541 0 15 1.19541 1
gene 1 8 29 -0.756188 0 16 -0.756188 1
gene 1 9 28 -0.794816 0 17 -0.794816 1
gene 1 9 29 8 0 18 8 1
gene 1 10 28 -2.00537 0 19 -2.00537 1
gene 1 10 29 0.0745415 0 20 0.0745415 1
gene 1 11 28 0.387909 0 21 0.387909 1
gene 1 11 29 1.50388 0 22 1.50388 0
gene 1 12 28 -0.282067 0 23 -0.282067 0
gene 1 12 29 6.09329 0 24 6.09329 1
gene 1 13 28 -4.11567 0 25 -4.11567 1
gene 1 13 29 3.89878 0 26 3.89878 0
gene 1 14 28 -2.08274 0 27 -2.08274 1
gene 1 14 29 -3.96035 0 28 -3.96035 1
gene 1 15 28 0.978843 0 29 0.978843 1
gene 1 15 29 -0.426191 0 30 -0.426191 1
gene 1 16 28 0.188871 0 31 0.188871 0
gene 1 16 29 -0.021363 0 32 -0.021363 1
gene 1 17 28 -0.84376 0 33 -0.84376 1
gene 1 17 29 -2.01369 0 34 -2.01369 1
gene 1 18 28 2.12745 0 35 2.12745 1
gene 1 18 29 0.847757 0 36 0.847757 1
gene 1 19 28 1.25507 0 37 1.25507 1
gene 1 19 29 1.50288 0 38 1.50288 1
gene 1 20 28 0.366756 0 39 0.366756 1
gene 1 20 29 -1.17664 0 40 -1.17664 1
gene 1 21 28 -2.63329 0 41 -2.63329 1
gene 1 21 29 4.07392 0 42 4.07392 1
gene 1 22 28 0.368587 0 43 0.368587 1
gene 1 22 29 -0.471025 0 44 -0.471025 0
gene 1 23 28 -6.97714 0 45 -6.97714 1
gene 1 23 29 -4.71938 0 46 -4.71938 1
gene 1 24 28 6.46706 0 47 6.46706 1
gene 1 24 29 5.61699 0 48 5.61699 1
gene 1 25 28 1.3657 0 49 1.3657 1
gene 1 25 29 -5.65321 0 50 -5.65321 1
gene 1 26 28 -0.143351 0 51 -0.143351 1
gene 1 26 29 -6.32852 0 52 -6.32852 1
gene 1 27 28 1.96219 0 53 1.96219 1
gene 1 27 29 -0.717948 0 54 -0.717948 1
gene 1 16 41 2.13507 0 82 2.13507 1
gene 1 41 28 -3.12251 0 83 -3.12251 1
gene 1 9 41 -0.125412 0 244 -0.125412 1
gene 1 3 90 0.825144 0 252 0.825144 1
gene 1 90 28 1.37806 0 253 1.37806 1
gene 1 8 101 -4.94064 0 295 -4.94064 1
gene 1 101 29 1.77702 0 296 1.77702 1
gene 1 22 104 0.00236518 0 302 0.00236518 1
gene 1 104 29 -0.679361 0 303 -0.679361 1
gene 1 12 111 2.13805 0 321 2.13805 1
gene 1 111 28 -0.937452 0 322 -0.937452 1
gene 1 5 41 -1.53302 0 361 -1.53302 1
gene 1 11 41 1.37608 0 376 1.37608 1
gene 1 23 90 -0.633412 0 401 -0.633412 1
gene 1 24 41 -0.962477 0 430 -0.962477 1
gene 1 11 139 -1.29651 0 442 -1.29651 1
gene 1 139 29 2.74346 0 443 2.74346 1
gene 1 9 90 -4.77603 0 466 -4.77603 1
gene 1 7 151 1.13035 0 487 1.13035 1
gene 1 151 28 0.681936 0 488 0.681936 1
genomeend 28

/* Organism #29 Fitness: 0.0598643 Error: 0 */
genomestart 29
trait 1 0.808527 0 0 0 0 0.126164 0.489792 0.382885 
node 1 1 1 1
node 2 1 1 1
node 3 1 1 1
node 4 1 1 1
node 5 1 1 1
node 6 1 1 1
node 7 1 1 1
node 8 1 1 1
node 9 1 1 1
node 10 1 1 1
node 11 1 1 1
node 12 1 1 1
node 13 1 1 1
node 14 1 1 1
node 15 1 1 1
node 16 1 1 1
node 17 1 1 1
node 18 1 1 1
node 19 1 1 1
node 20 1 1 1
node 21 1 1 1
node 22 1 1 1
node 23 1 1 1
node 24 1 1 1
node 25 1 1 1
node 26 1 1 1
node 27 1 1 3
node 28 1 0 2
node 29 1 0 2
node 41 1 0 0
node 90 1 0 0
node 101 1 0 0
node 104 1 0 0
node 111 1 0 0
node 139 1 0 0
node 151 1 0 0
gene 1 1 28 6.64849 0 1 6.64849 1
gene 1 1 29 0.57062 0 2 0.57062 1
gene 1 2 28 -2.75185 0 3 -2.75185 1
gene 1 2 29 0.280618 0 4 0.280618 1
gene 1 3 28 2.31948 0 5 2.31948 0
gene 1 3 29 -2.04566 0 6 -2.04566 1
gene 1 4 28 1.46591 0 7 1.46591 1
gene 1 4 29 4.01695 0 8 4.01695 1
gene 1 5 28 3.20164 0 9 3.20164 1
gene 1 5 29 -0.375378 0 10 -0.375378 1
gene 1 6 28 2.16678 0 11 2.16678 1
gene 1 6 29 0.279092 0 12 0.279092 1
gene 1 7 28 -1.78293 0 13 -1.78293 0
gene 1 7 29 8 0 14 8 1
gene 1 8 28 2.34283 0 15 2.34283 1
gene 1 8 29 -2.79078 0 16 -2.79078 0
gene 1 9 28 3.05471 0 17 3.05471 1
gene 1 9 29 4.90127 0 18 4.90127 1
gene 1 10 28 7.07183 0 19 7.07183 1
gene 1 10 29 -2.11753 0 20 -2.11753 1
gene 1 11 28 -0.00831629 0 21 -0.00831629 1
gene 1 11 29 1.62709 0 22 1.62709 0
gene 1 12 28 -0.732826 0 23 -0.732826 0
gene 1 12 29 4.08319 0 24 4.08319 1
gene 1 13 28 -2.79283 0 25 -2.79283 1
gene 1 13 29 3.37935 0 26 3.37935 0
gene 1 14 28 -2.53578 0 27 -2.53578 1
gene 1 14 29 -4.08776 0 28 -4.08776 1
gene 1 15 28 1.89318 0 29 1.89318 1
gene 1 15 29 0.801187 0 30 0.801187 1
gene 1 16 28 1.42335 0 31 1.42335 0
gene 1 16 29 0.613269 0 32 0.613269 1
gene 1 17 28 0.751289 0 33 0.751289 1
gene 1 17 29 3.21482 0 34 3.21482 1
gene 1 18 28 -1.95494 0 35 -1.95494 1
gene 1 18 29 -1.83432 0 36 -1.83432 1
gene 1 19 28 -2.75464 0 37 -2.75464 1
gene 1 19 29 2.18749 0 38 2.18749 1
gene 1 20 28 -1.43193 0 39 -1.43193 1
gene 1 20 29 -1.1388 0 40 -1.1388 1
gene 1 21 28 1.67478 0 41 1.67478 1
gene 1 21 29 4.51704 0 42 4.51704 1
gene 1 22 28 -0.922117 0 43 -0.922117 1
gene 1 22 29 -3.09278 0 44 -3.09278 0
gene 1 23 28 -7.44827 0 45 -7.44827 1
gene 1 23 29 -2.06534 0 46 -2.06534 1
gene 1 24 28 8 0 47 8 1
gene 1 24 29 1.38956 0 48 1.38956 1
gene 1 25 28 -0.444121 0 49 -0.444121 1
gene 1 25 29 -3.60329 0 50 -3.60329 1
gene 1 26 28 0.839946 0 51 0.839946 1
gene 1 26 29 -3.01246 0 52 -3.01246 1
gene 1 27 28 2.63633 0 53 2.63633 1
gene 1 27 29 2.62499 0 54 2.62499 1
gene 1 16 41 0.470138 0 82 0.470138 1
gene 1 41 28 -6.18488 0 83 -6.18488 1
gene 1 9 41 2.51089 0 244 2.51089 1
gene 1 3 90 -0.159764 0 252 -0.159764 1
gene 1 90 28 0.0887516 0 253 0.0887516 1
gene 1 8 101 -4.37437 0 295 -4.37437 1
gene 1 101 29 0.48368 0 296 0.48368 1
gene 1 22 104 3.7656 0 302 3.7656 1
gene 1 104 29 1.22242 0 303 1.22242 1
gene 1 12 111 1.98088 0 321 1.98088 1
gene 1 111 28 1.12903 0 322 1.12903 1
gene 1 5 41 0.148015 0 361 0.148015 1
gene 1 11 41 -0.296487 0 376 -0.296487 1
gene 1 23 90 -0.0312052 0 401 -0.0312052 1
gene 1 24 41 -2.27696 0 430 -2.27696 1
gene 1 11 139 -1.54249 0 442 -1.54249 1
gene 1 139 29 -0.0450911 0 443 -0.0450911 1
gene 1 9 90 -2.86547 0 466 -2.86547 1
gene 1 7 151 0.0755333 0 487 0.0755333 1
gene 1 151 28 1.48129 0 488 1.48129 1
genomeend 29

/* Organism #30 Fitness: 0.136471 Error: 0 */
genomestart 30
trait 1 0.808527 0 0 0 0 0.126164 0.489792 0.382885 
node 1 1 1 1
node 2 1 1 1
node 3 1 1 1
node 4 1 1 1
node 5 1 1 1
node 6 1 1 1
node 7 1 1 1
node 8 1 1 1
node 9 1 1 1
node 10 1 1 1
node 11 1 1 1
node 12 1 1 1
node 13 1 1 1
node 14 1 1 1
node 15 1 1 1
node 16 1 1 1
node 17 1 1 1
node 18 1 1 1
node 19 1 1 1
node 20 1 1 1
node 21 1 1 1
node 22 1 1 1
node 23 1 1 1
node 24 1 1 1
node 25 1 1 1
node 26 1 1 1
node 27 1 1 3
node 28 1 0 2
node 29 1 0 2
node 41 1 0 0
node 90 1 0 0
node 101 1 0 0
node 104 1 0 0
node 111 1 0 0
node 139 1 0 0
node 151 1 0 0
gene 1 1 28 6.05956 0 1 6.05956 1
gene 1 1 29 0.378506 0 2 0.378506 1
gene 1 2 28 2.45094 0 3 2.45094 1
gene 1 2 29 -1.55591 0 4 -1.55591 1
gene 1 3 28 1.592 0 5 1.592 0
